~o
<STREAMINFO> 1 39
<VECSIZE> 39<NULLD><MFCC_D_A_0><DIAGC>
~h "d"
<BEGINHMM>
<NUMSTATES> 5
<STATE> 2
<MEAN> 39
 -2.491388e+00 -7.157116e+00 2.392403e+00 -4.572512e+00 -1.172645e+01 -5.826420e-01 -1.478713e+01 -7.220056e+00 -3.004828e+00 -6.322046e+00 2.211179e+00 3.811535e-01 4.007764e+01 6.615077e-02 -8.222077e-03 -4.646794e-02 -5.797347e-02 1.415191e-01 -6.332343e-02 -5.140636e-02 -7.461662e-02 -3.343738e-01 -3.497774e-01 -8.221780e-02 2.168493e-01 7.735447e-02 -2.078248e-02 6.829030e-02 9.064132e-02 1.204644e-01 1.219870e-01 1.455964e-01 1.593714e-01 5.977901e-02 -6.922286e-02 -1.052365e-01 -8.523297e-02 -5.752080e-02 -4.134065e-02
<VARIANCE> 39
 2.335284e+01 1.168022e+01 1.310446e+01 1.446592e+01 9.836354e+00 3.760991e+01 1.765266e+01 4.742816e+01 5.260495e+01 1.906472e+01 1.115906e+01 1.934454e+01 2.998513e+01 1.653716e-01 9.505489e-02 6.106200e-01 1.154418e+00 1.570000e+00 2.179050e+00 1.829628e+00 3.051472e+00 3.551289e+00 1.242558e+00 1.675422e+00 2.835866e+00 3.143624e-02 2.606106e-02 4.637671e-02 1.584413e-01 1.616253e-01 2.164126e-01 2.779118e-01 1.213046e-01 3.006274e-01 5.969896e-01 2.615477e-01 2.939111e-01 4.596006e-01 1.479166e-02
<GCONST> 8.431227e+01
<STATE> 3
<MEAN> 39
 8.737290e+00 -1.128403e+01 2.670501e+00 -9.946672e+00 -1.188599e+01 4.989429e+00 -1.591363e+01 1.218471e+00 8.273417e+00 -5.045326e+00 2.434731e+00 -2.341081e+00 5.311019e+01 -7.694681e-01 1.002154e+00 9.817175e-01 7.316815e-01 1.244198e-01 2.914660e-01 5.290914e-01 -5.750199e-01 -1.049811e+00 -6.142282e-01 2.491370e-01 1.548861e-01 -1.073011e+00 -1.756023e-01 1.955014e-01 9.585389e-02 3.248830e-01 -2.730041e-02 -8.020345e-02 3.011346e-01 7.063799e-02 4.655571e-02 1.173795e-01 8.936946e-02 -1.493363e-02 -3.276374e-01
<VARIANCE> 39
 7.509156e+01 2.084179e+01 2.491847e+01 2.537085e+01 1.950619e+01 1.355606e+01 1.974479e+01 2.563275e+01 3.723501e+01 1.128219e+01 1.526086e+01 6.583082e+00 8.626984e+01 7.192843e-01 8.804482e-01 7.794342e-01 1.833833e+00 1.179507e+00 2.188848e+00 1.253517e+00 5.136077e-01 2.604179e+00 1.101424e+00 1.334001e+00 1.550011e-01 1.439242e+00 5.827526e-02 1.493558e-01 2.485091e-01 1.581899e-01 3.042849e-01 3.613818e-01 3.185951e-01 3.400296e-01 8.117008e-01 6.265709e-02 4.761657e-01 6.179866e-02 7.737503e-02
<GCONST> 9.117034e+01
<STATE> 4
<MEAN> 39
 -2.920218e+00 -8.068613e+00 3.760563e+00 -1.733747e+00 -7.151989e+00 6.649549e+00 -8.019000e+00 -3.178739e+00 -3.642253e+00 -9.715627e+00 1.329714e+00 -3.359600e+00 3.952498e+01 -1.744898e-01 9.570681e-02 9.532730e-02 1.532794e-01 -2.417978e-01 2.671316e-01 7.131090e-01 6.735028e-03 -2.515395e-01 -3.042409e-02 9.629400e-02 -2.056269e-02 -2.955850e-01 1.056893e-03 -9.208459e-02 -7.841466e-02 -8.194635e-02 -1.764475e-01 -2.259040e-01 -1.088738e-01 1.370491e-01 5.023954e-01 4.017241e-01 1.106083e-01 8.325268e-02 7.092631e-02
<VARIANCE> 39
 1.690883e+01 6.979778e+00 1.441996e+01 9.310592e+00 7.994111e+00 1.229643e+01 8.645980e+00 6.117702e+00 1.083487e+01 8.939253e+00 5.914638e+00 9.193946e+00 1.294395e+01 1.588800e-01 5.623683e-01 8.969190e-01 7.149552e-01 3.605726e-01 4.655837e-01 1.425270e+00 1.621676e+00 2.202373e+00 1.644111e+00 1.720517e+00 5.481961e-01 8.171510e-01 4.063806e-03 6.978557e-02 1.320885e-01 2.275403e-01 2.100045e-01 2.241704e-01 1.479654e-01 2.498993e-01 4.558553e-01 2.899921e-01 3.142214e-01 2.086876e-01 8.673072e-03
<GCONST> 7.073230e+01
<TRANSP> 5
 0.000000e+00 1.000000e+00 0.000000e+00 0.000000e+00 0.000000e+00
 0.000000e+00 7.894660e-01 2.105339e-01 0.000000e+00 0.000000e+00
 0.000000e+00 0.000000e+00 5.555560e-01 4.444440e-01 0.000000e+00
 0.000000e+00 0.000000e+00 0.000000e+00 6.666903e-01 3.333096e-01
 0.000000e+00 0.000000e+00 0.000000e+00 0.000000e+00 0.000000e+00
<ENDHMM>
~h "s"
<BEGINHMM>
<NUMSTATES> 5
<STATE> 2
<MEAN> 39
 -5.272944e+00 -9.932254e+00 5.627078e+00 3.499773e-01 -6.216415e+00 7.928365e+00 -9.389287e+00 -2.446899e+00 2.632130e+00 -3.703081e+00 1.638237e+00 -4.300379e+00 3.879774e+01 1.666970e-01 1.192524e-01 3.226238e-01 3.655900e-02 -6.698419e-01 -1.153088e-01 4.485951e-01 1.376498e-01 -2.502337e-01 9.712592e-01 5.799260e-01 -2.200473e-01 6.218591e-02 2.876082e-01 1.051668e-01 -4.234768e-01 -6.089758e-01 -6.185246e-01 -5.437098e-01 -6.438500e-02 -1.449314e-02 2.180288e-01 1.945622e-01 -2.948188e-01 1.090479e-01 1.726661e-01
<VARIANCE> 39
 6.143050e+00 1.921913e+01 1.858427e+01 2.457338e+00 2.033554e+00 2.185856e+00 1.508761e+01 1.052765e+00 1.467246e+01 1.267978e+01 1.265653e+01 2.954844e+01 6.589761e+00 2.449976e-02 3.644208e-02 2.409882e-01 6.071962e-01 9.917659e-01 3.078614e+00 3.064099e-01 1.913059e-01 3.068497e-01 4.746688e-01 1.100874e+00 9.817438e-01 2.490512e-02 1.417846e-01 1.261580e-02 1.151351e-01 2.224196e-01 2.206234e-01 1.386338e-01 3.174939e-01 7.013056e-02 1.856325e-01 3.300435e-01 8.969893e-02 2.022409e-01 4.495335e-02
<GCONST> 5.417031e+01
<STATE> 3
<MEAN> 39
 -2.796022e+00 -8.800511e+00 4.691454e+00 -2.959408e+00 -1.065838e+01 5.722819e+00 -1.077742e+01 -2.869932e+00 2.892441e+00 -4.378648e+00 1.330691e+00 -4.298546e+00 4.033826e+01 3.509095e-01 2.877252e-01 -1.547576e-01 -6.976203e-01 -1.236245e+00 -1.483281e+00 -1.169910e+00 -6.399767e-01 5.090671e-01 5.725097e-02 -6.466544e-01 4.776609e-01 2.353894e-01 -2.444165e-01 -1.359007e-02 3.787337e-02 1.265160e-01 1.485300e-01 8.710046e-02 1.542220e-01 -1.783100e-01 -7.129597e-02 -3.336129e-01 -4.207924e-02 3.527171e-01 -1.462571e-01
<VARIANCE> 39
 1.449100e+01 1.655957e+01 1.660951e+01 1.924343e+01 1.421085e+01 2.283430e+01 4.531770e+01 1.618892e+01 1.055073e+01 1.254645e+01 1.019938e+01 9.612255e+00 6.607455e+00 1.694174e+00 3.010456e-01 9.054741e-01 1.804780e+00 1.999810e+00 2.966345e+00 3.026678e+00 2.578627e-01 7.819938e-01 8.392380e-01 7.905493e-01 1.979369e+00 4.922706e-01 2.240399e-01 7.878353e-02 1.427288e-01 4.160694e-01 3.389839e-01 7.512860e-01 7.849373e-01 4.348413e-02 2.405092e-01 1.740836e-01 2.370494e-01 1.439957e-01 6.673802e-02
<GCONST> 8.646893e+01
<STATE> 4
<MEAN> 39
 -5.398982e+00 -1.053721e+01 2.839384e+00 -1.892440e+00 -1.000239e+01 5.380809e+00 -8.099713e+00 -2.751532e+00 3.748859e+00 -3.845959e+00 2.141646e-01 -2.928200e+00 3.922546e+01 -6.095732e-02 2.812042e-01 -3.642492e-01 -4.126442e-01 -7.425309e-01 -8.830993e-01 3.951645e-01 -8.769499e-01 -7.565504e-01 -6.789467e-01 -1.093046e-01 5.885594e-01 -1.192633e-01 2.946796e-01 1.865365e-01 -1.151504e-01 -3.018386e-01 5.196211e-02 5.989603e-02 -1.633851e-01 -5.376001e-02 -9.519213e-02 -1.304041e-01 2.974068e-01 4.222476e-01 1.032171e-01
<VARIANCE> 39
 3.293456e+00 3.244421e+01 2.206671e+01 5.290649e+00 1.246921e+01 1.279790e+00 7.698272e+00 8.504706e+00 1.481174e+01 2.513512e+00 3.119655e+00 1.358052e+01 6.311759e+00 3.063948e-01 1.410291e-01 3.113807e-01 6.947647e-01 9.307926e-01 1.263665e+00 1.088444e+00 1.039040e-01 3.184653e-01 6.728832e-01 1.382248e+00 5.564098e-01 8.692577e-02 8.432319e-02 1.909201e-01 9.469505e-02 2.030356e-01 2.423934e-01 1.872408e-01 2.528863e-01 1.045530e-01 2.462162e-01 1.747005e-01 3.099963e-01 5.673252e-01 1.902580e-02
<GCONST> 6.267851e+01
<TRANSP> 5
 0.000000e+00 1.000000e+00 0.000000e+00 0.000000e+00 0.000000e+00
 0.000000e+00 2.013267e-01 7.986733e-01 0.000000e+00 0.000000e+00
 0.000000e+00 0.000000e+00 5.000000e-01 5.000000e-01 0.000000e+00
 0.000000e+00 0.000000e+00 0.000000e+00 1.152231e-07 9.999999e-01
 0.000000e+00 0.000000e+00 0.000000e+00 0.000000e+00 0.000000e+00
<ENDHMM>
~h "t"
<BEGINHMM>
<NUMSTATES> 5
<STATE> 2
<MEAN> 39
 -1.808377e+00 -9.916353e+00 2.290376e+00 -3.441454e+00 -9.930196e+00 3.633318e+00 -1.113552e+01 -1.858108e+00 3.709897e+00 -6.196562e+00 -1.615092e+00 -1.891335e+00 4.108590e+01 1.061865e+00 -3.859695e-01 -4.399813e-01 -4.712024e-01 -7.953251e-03 -5.545779e-01 -1.488788e+00 1.412296e+00 2.387598e+00 1.205512e+00 1.604906e-02 -4.016930e-01 1.192909e+00 -3.256802e-02 -3.702160e-01 -5.920975e-02 1.354941e-01 8.059210e-02 2.414505e-01 6.827203e-02 1.803874e-01 2.253250e-01 9.049635e-02 2.747425e-01 -1.976745e-01 1.797166e-01
<VARIANCE> 39
 4.586642e+01 1.602753e+01 5.468915e+00 1.466192e+01 2.883006e+01 2.374750e+01 7.082320e+01 8.056267e+00 3.292142e+01 1.873114e+01 1.520831e+01 1.092104e+01 2.133016e+01 3.249019e+00 1.326435e+00 9.175253e-01 5.232439e-01 6.034154e-01 5.538311e-01 1.180638e+00 9.432309e-01 2.401064e+00 1.886236e+00 3.664328e+00 4.554924e+00 2.183882e+00 3.359253e-02 2.794224e-01 4.495034e-02 1.389940e-01 2.614506e-01 7.121069e-01 1.130216e+00 2.702146e-01 4.794223e-01 2.474180e-01 2.545889e-01 4.828503e-01 3.826205e-02
<GCONST> 9.487671e+01
<STATE> 3
<MEAN> 39
 -6.496709e-01 -1.107286e+01 1.929454e+00 -2.234220e+00 -8.536202e+00 4.078590e-01 -1.306278e+01 1.689302e+00 6.484236e+00 -4.320151e+00 1.082312e+00 -3.238001e+00 4.286668e+01 9.003068e-01 -7.378845e-01 -3.826744e-01 -2.492167e-01 4.430082e-01 -3.563509e-01 -1.448330e+00 8.404460e-01 1.696207e+00 7.406192e-01 4.788255e-01 -7.922165e-01 1.251482e+00 -1.820815e-01 -2.146507e-01 1.734305e-02 1.067935e-01 -7.496978e-02 4.511333e-01 4.848565e-01 -2.786386e-01 -3.704732e-01 -3.719737e-01 5.046087e-02 5.212342e-02 -5.029725e-02
<VARIANCE> 39
 5.828737e+01 1.550716e+01 7.335740e+00 2.928008e+01 4.010954e+01 3.569008e+01 6.543058e+01 2.076161e+00 2.597147e+01 2.248656e+01 1.774070e+01 7.852774e+00 3.858315e+01 2.177690e+00 4.117128e-01 3.287694e-01 8.705039e-01 8.561998e-01 8.644044e-01 1.053896e+00 1.486993e+00 1.999095e+00 8.326944e-01 1.399095e+00 2.598128e+00 2.752497e+00 1.632967e-01 1.268099e-01 5.807443e-02 5.862446e-02 2.718711e-01 8.004414e-01 1.019717e+00 4.086142e-01 3.941612e-01 4.026426e-01 1.219277e-01 1.893987e-01 6.219112e-03
<GCONST> 8.994238e+01
<STATE> 4
<MEAN> 39
 -3.374871e+00 -1.033860e+01 3.534826e+00 -2.407509e+00 -9.064085e+00 4.658143e+00 -1.107485e+01 -7.403969e-01 5.378420e+00 -4.961526e+00 2.801759e+00 -2.128144e+00 4.084858e+01 3.748958e-01 -3.188117e-01 -7.622081e-02 4.180011e-01 3.100786e-01 3.768827e-01 3.080051e-01 1.568929e-01 2.451791e-01 9.233464e-02 5.939627e-01 1.541354e-01 5.477626e-01 -8.968076e-02 1.446971e-01 -9.342803e-02 8.206911e-02 -3.878153e-02 2.157995e-02 5.463054e-01 8.518419e-02 -4.060198e-01 3.856479e-02 -3.533424e-01 -1.859943e-01 -1.418099e-01
<VARIANCE> 39
 4.256957e+01 9.575140e+00 1.793627e+01 2.023839e+01 1.531949e+01 1.272797e+01 3.763052e+01 1.152798e+01 3.637482e+01 3.303783e+01 9.117140e+00 1.507714e+01 3.865825e+01 3.780876e-01 8.864512e-01 2.305636e-01 1.172685e+00 9.626330e-01 2.156195e+00 2.626262e+00 2.230524e+00 2.021661e+00 9.172791e-01 1.349056e+00 1.854404e+00 1.220676e+00 1.009070e-01 1.452041e-01 4.273301e-02 1.385338e-01 8.250710e-02 1.831332e-01 2.767242e-01 2.689604e-01 3.707707e-01 4.381992e-01 3.142235e-01 4.407105e-01 3.991282e-02
<GCONST> 8.926973e+01
<TRANSP> 5
 0.000000e+00 1.000000e+00 0.000000e+00 0.000000e+00 0.000000e+00
 0.000000e+00 5.037169e-11 1.000000e+00 0.000000e+00 0.000000e+00
 0.000000e+00 0.000000e+00 5.070167e-10 1.000000e+00 0.000000e+00
 0.000000e+00 0.000000e+00 0.000000e+00 4.285703e-01 5.714297e-01
 0.000000e+00 0.000000e+00 0.000000e+00 0.000000e+00 0.000000e+00
<ENDHMM>
~h "ah"
<BEGINHMM>
<NUMSTATES> 5
<STATE> 2
<NUMMIXES> 3
<MIXTURE> 1 1.539201e-01
<MEAN> 39
 -2.062865e+00 -1.271151e+01 7.403861e-02 -5.956875e+00 -1.366976e+01 3.800182e+00 -1.147387e+01 -4.241408e-01 7.283310e+00 -3.191543e+00 6.907024e-01 -1.429514e+00 4.172492e+01 1.163203e-01 1.819869e-01 3.565187e-01 3.264322e-01 1.215224e-01 -3.453692e-02 1.804884e-01 1.029570e-01 -1.643056e-01 2.538716e-01 7.879997e-01 7.256011e-01 1.773350e-02 4.943556e-01 2.749296e-01 1.984240e-01 6.278440e-02 1.842101e-01 9.163852e-02 -3.172211e-01 -1.141808e-01 7.323246e-02 -2.294078e-01 3.562371e-01 4.293583e-01 3.017733e-01
<VARIANCE> 39
 1.577377e+00 1.938832e+01 7.227121e+00 1.790974e+01 2.234803e+01 8.789805e+00 3.031825e+01 1.700533e+01 2.863193e+01 2.701600e+01 1.069517e+01 6.825117e+00 1.213591e+00 3.760489e-01 1.755873e+00 7.070562e-01 2.570831e+00 3.946401e+00 2.326028e+00 2.697500e+00 9.522547e-01 1.404261e+00 1.243464e+00 3.720227e+00 5.031252e+00 1.162991e-01 2.417534e-01 1.060110e-01 1.560119e-02 3.623783e-01 2.871622e-01 1.838684e-01 1.255918e+00 4.685906e-02 8.983933e-01 4.128987e-01 1.617462e-01 9.844618e-02 9.840985e-02
<GCONST> 8.523574e+01
<MIXTURE> 2 4.585657e-01
<MEAN> 39
 -3.043483e+00 -1.112946e+01 1.366904e+00 -5.519663e+00 -1.348556e+01 5.556838e+00 -8.963003e+00 -3.365682e+00 2.072796e+00 -6.762224e+00 2.084825e+00 -9.658342e-02 4.052540e+01 -2.086086e-01 -2.728305e-01 -2.316386e-01 4.796036e-03 -3.406507e-01 -5.495786e-01 -1.275905e-01 3.341940e-01 -2.746601e-01 -4.004727e-01 -2.826998e-01 -5.487960e-01 -8.080608e-02 -7.823804e-02 -9.891477e-02 -4.449099e-02 -4.715814e-02 2.888327e-01 1.505228e-01 -1.140689e-01 -7.474848e-04 1.399340e-01 4.146855e-02 -4.382879e-01 -3.218402e-01 -8.553741e-03
<VARIANCE> 39
 2.225713e+00 1.463000e+01 1.160314e+01 1.939232e+01 1.763041e+01 1.541462e+01 2.924805e+01 1.135707e+01 1.337830e+01 8.992274e+00 1.112653e+01 1.857154e+01 2.629300e+00 2.149175e-01 5.972891e-01 4.343567e-01 9.180022e-01 1.466326e+00 2.016374e+00 1.078484e+00 1.064295e+00 1.248317e+00 9.282832e-01 1.344597e+00 1.482178e+00 7.285195e-02 3.327413e-02 1.010498e-01 7.518191e-02 2.067454e-01 2.557313e-01 4.359806e-01 2.681735e-01 1.851545e-01 1.204624e-01 2.566652e-01 2.535511e-01 2.235186e-01 1.867644e-02
<GCONST> 7.415903e+01
<MIXTURE> 3 3.875142e-01
<MEAN> 39
 -3.130000e+00 -1.083035e+01 1.810761e+00 -4.867995e+00 -1.224752e+01 3.876050e+00 -1.171223e+01 -3.573320e+00 4.271086e+00 -4.974144e+00 1.695880e+00 7.770515e-01 4.042398e+01 -7.105260e-02 -5.629267e-01 -3.285623e-01 4.139491e-01 4.586349e-01 2.436555e-01 2.033278e-01 4.300785e-01 -7.331782e-02 -2.063362e-01 -2.069649e-01 -9.791371e-02 5.709484e-02 -9.819271e-03 -5.061578e-02 1.160471e-02 5.506251e-02 1.606021e-01 2.008407e-01 2.921999e-02 4.726625e-02 1.549946e-02 -1.992541e-01 -2.503095e-01 -1.712518e-01 2.128709e-02
<VARIANCE> 39
 2.644814e+00 1.223447e+01 8.361075e+00 1.617754e+01 1.548217e+01 1.132378e+01 3.272874e+01 1.323330e+01 2.024483e+01 1.060735e+01 1.032367e+01 1.907107e+01 2.375145e+00 1.585953e-01 6.670386e-01 3.385599e-01 1.032267e+00 1.397963e+00 1.573424e+00 1.897699e+00 8.401436e-01 1.825788e+00 7.924435e-01 1.088829e+00 1.259019e+00 5.313535e-02 4.598861e-02 9.604557e-02 7.219940e-02 3.314994e-01 3.317247e-01 3.272131e-01 3.959486e-01 1.382515e-01 2.114405e-01 2.792604e-01 3.235728e-01 2.415679e-01 1.960921e-02
<GCONST> 7.493241e+01
<STATE> 3
<NUMMIXES> 3
<MIXTURE> 1 7.424441e-02
<MEAN> 39
 8.055271e+00 -1.091740e+01 3.900579e+00 -8.179742e+00 -1.304966e+01 3.825186e+00 -1.636364e+01 -1.807295e+00 3.622251e+00 -4.534358e+00 7.756829e+00 -2.438348e+00 5.080914e+01 8.730586e-01 5.862145e-01 2.218527e-01 -4.038514e-02 2.976183e-01 -2.119715e-01 -4.181120e-01 -6.984191e-02 -9.628208e-02 7.981006e-02 8.046022e-01 8.803315e-01 6.035196e-01 9.561659e-02 3.248231e-01 1.662370e-01 2.117930e-03 -1.006516e-01 2.723533e-02 1.765179e-01 2.596664e-01 3.734382e-01 3.130758e-01 -1.071586e-01 -1.994015e-01 3.625868e-02
<VARIANCE> 39
 6.578711e+01 1.851152e+01 3.550816e+01 3.612476e+01 1.326112e+01 8.193892e+00 4.644516e+01 3.265208e+01 3.741305e+01 1.069041e+01 2.582042e+01 1.759669e+01 7.108192e+01 3.544135e+00 2.044964e+00 2.280631e+00 1.869355e+00 1.099105e+00 1.068172e+00 3.526686e+00 7.645953e-01 1.874273e+00 1.438197e+00 1.409897e+00 3.025259e+00 2.131697e+00 3.321734e-01 2.603689e-01 3.953970e-01 1.989968e-01 2.091843e-01 1.862532e-01 4.812218e-01 1.399236e-01 3.046540e-01 2.749976e-01 2.546959e-01 3.413362e-01 2.283443e-01
<GCONST> 1.047750e+02
<MIXTURE> 2 4.542306e-01
<MEAN> 39
 1.021068e+01 -1.108224e+01 3.182365e+00 -9.906397e+00 -1.361796e+01 4.543602e+00 -1.596062e+01 7.334712e-01 6.829853e+00 -3.394277e+00 5.563001e+00 -5.380135e+00 5.378022e+01 -1.867789e-01 -3.387254e-01 -2.449685e-01 2.953204e-02 -8.421378e-02 -9.827188e-03 -8.570712e-02 -1.696841e-02 5.619373e-02 -2.726698e-01 -5.276537e-01 -3.597814e-01 -1.782213e-01 1.592159e-02 -1.225139e-01 -6.755143e-02 -1.682846e-02 1.924599e-02 -7.815146e-03 -9.583698e-02 -6.260867e-02 -3.946301e-02 -3.088610e-02 2.875395e-02 7.928970e-02 4.049693e-02
<VARIANCE> 39
 5.732794e+01 2.750177e+01 3.811625e+01 3.051351e+01 1.009663e+01 1.004388e+01 3.949743e+01 4.809404e+01 5.830070e+01 2.176145e+01 3.561654e+01 2.061192e+01 6.966807e+01 1.545436e+00 1.292256e+00 2.368826e+00 1.711540e+00 1.094306e+00 1.359230e+00 2.762811e+00 1.633813e+00 1.936105e+00 1.344508e+00 1.514693e+00 1.892263e+00 2.190320e+00 1.925385e-01 2.612534e-01 3.986572e-01 2.969358e-01 1.856744e-01 2.883340e-01 3.650533e-01 1.773680e-01 2.419319e-01 2.036815e-01 2.420625e-01 4.327677e-01 1.992289e-01
<GCONST> 1.053772e+02
<MIXTURE> 3 4.715252e-01
<MEAN> 39
 1.159635e+01 -1.061418e+01 4.251880e+00 -9.617414e+00 -1.314136e+01 4.311449e+00 -1.781373e+01 -1.171718e+00 4.784916e+00 -3.442270e+00 7.262784e+00 -4.753380e+00 5.480795e+01 1.457231e-01 -6.163038e-02 -3.628893e-02 4.024268e-02 1.235300e-01 -5.432827e-02 -1.376501e-01 2.297273e-02 7.431055e-02 -2.959358e-02 2.176240e-02 1.287895e-01 1.992461e-01 -1.080907e-02 3.172277e-02 2.107668e-03 1.034873e-02 -4.172111e-03 5.008532e-02 6.899016e-02 6.169955e-02 9.114815e-02 4.397690e-02 -1.368658e-03 9.780291e-03 -1.338204e-02
<VARIANCE> 39
 4.948855e+01 2.721768e+01 4.051034e+01 3.549761e+01 1.074255e+01 1.105083e+01 4.025920e+01 4.771696e+01 4.604379e+01 1.906418e+01 3.425692e+01 1.988238e+01 6.446412e+01 1.565314e+00 1.644836e+00 2.454773e+00 2.145068e+00 1.044767e+00 1.116789e+00 2.692545e+00 1.523954e+00 1.786494e+00 1.427317e+00 1.511855e+00 1.941348e+00 1.348185e+00 2.266582e-01 2.543214e-01 4.517034e-01 3.270030e-01 1.852726e-01 2.263970e-01 4.252550e-01 1.976548e-01 2.206954e-01 2.017931e-01 2.494499e-01 4.384649e-01 1.987840e-01
<GCONST> 1.050893e+02
<STATE> 4
<NUMMIXES> 3
<MIXTURE> 1 9.791999e-02
<MEAN> 39
 -1.429179e+00 -1.062260e+01 1.265630e+00 -6.904696e+00 -1.496173e+01 2.648582e+00 -1.247983e+01 -2.856727e+00 3.670166e+00 -4.067818e+00 8.275538e+00 3.694899e+00 4.188842e+01 2.529175e+00 9.071500e-01 2.359533e-01 -9.519615e-01 -1.129906e+00 -2.178975e+00 -2.370073e+00 2.863009e-01 2.431820e+00 1.962978e+00 1.060223e+00 2.764857e-01 1.769875e+00 4.330694e-01 -5.882187e-01 -3.062762e-01 1.274330e-01 5.421827e-01 3.647953e-01 9.655505e-02 7.704510e-01 5.731390e-01 1.637260e-01 -6.559264e-01 -1.165777e+00 7.022214e-01
<VARIANCE> 39
 6.422540e+00 7.156840e+00 5.104044e+00 5.070715e+00 3.115170e+01 1.826689e+01 2.728279e+01 8.907802e+00 1.989235e+01 3.772588e+00 4.881516e+01 4.121124e+01 5.491364e+00 4.070757e+00 2.161564e+00 8.117726e-01 1.554481e+00 1.339759e+00 4.125406e+00 6.660511e+00 8.495228e-01 3.825121e+00 2.296911e+00 4.762681e-01 1.241954e+00 1.403595e+00 6.230128e-02 1.060007e-01 1.829501e-01 7.287058e-02 2.832517e-01 1.957700e-01 1.616212e-01 1.200043e-01 2.478407e-01 4.261027e-02 9.333665e-01 9.465035e-01 1.625353e-01
<GCONST> 8.939684e+01
<MIXTURE> 2 4.876212e-01
<MEAN> 39
 -4.835521e+00 -1.286776e+01 7.725229e-01 -5.483479e+00 -1.274149e+01 8.595271e+00 -5.504348e+00 -1.667204e+00 1.364617e+00 -8.520554e+00 -1.850929e+00 -4.850037e+00 3.982154e+01 -1.737217e-01 -1.368174e-01 -3.588669e-02 9.027860e-02 6.554885e-01 6.930017e-01 1.956970e-01 2.927973e-01 7.570230e-01 -2.718368e-01 -9.620234e-01 1.757099e-01 -4.821835e-02 1.344380e-01 7.000525e-02 -2.751513e-02 -3.529394e-02 6.813732e-02 -2.683100e-02 -4.957922e-02 8.677638e-02 4.707308e-02 1.211155e-01 3.451574e-01 3.132863e-01 8.578906e-02
<VARIANCE> 39
 2.877377e+00 9.682881e+00 8.008379e+00 1.525583e+01 1.315519e+01 1.219656e+01 7.888331e+00 1.890651e+01 4.352732e+01 1.222177e+01 2.551607e+01 1.671597e+01 2.441030e+00 2.807994e-01 5.505133e-01 6.062030e-01 6.724515e-01 7.935629e-01 1.605552e+00 1.076724e+00 1.514776e+00 9.458823e-01 6.752650e-01 2.258807e+00 1.493878e+00 9.060778e-02 2.725274e-02 5.305252e-02 1.082163e-01 8.048445e-02 8.866061e-02 2.182794e-01 7.585862e-02 2.655930e-01 6.147610e-01 1.711348e-01 2.803371e-01 2.372234e-01 1.620823e-02
<GCONST> 7.123467e+01
<MIXTURE> 3 4.144588e-01
<MEAN> 39
 -4.170626e+00 -1.223008e+01 5.025709e-01 -5.102310e+00 -1.218554e+01 7.587118e+00 -6.283561e+00 -1.372389e+00 2.708885e+00 -6.767993e+00 -7.163401e-01 -3.449867e+00 4.007428e+01 8.683131e-02 -1.457951e-01 -1.003800e-01 1.818883e-01 3.394412e-01 2.758144e-01 1.767930e-01 4.044416e-01 6.360666e-01 7.100084e-02 -2.577776e-02 4.635020e-01 1.781555e-01 1.251924e-01 -4.912089e-02 6.927464e-02 4.010296e-02 1.086937e-01 4.799487e-02 -1.331993e-01 1.923074e-01 9.943277e-02 1.479251e-01 3.152288e-01 3.443189e-02 1.445226e-01
<VARIANCE> 39
 5.360042e+00 1.330494e+01 1.004592e+01 1.405867e+01 2.031978e+01 1.427585e+01 1.089146e+01 1.867336e+01 4.013873e+01 1.491854e+01 2.951473e+01 2.138394e+01 4.442947e+00 1.119183e+00 9.442534e-01 6.814262e-01 8.198444e-01 1.152031e+00 2.087703e+00 1.915010e+00 1.659543e+00 1.288153e+00 1.173651e+00 2.802360e+00 1.531051e+00 4.311358e-01 3.651336e-02 9.882122e-02 1.204175e-01 1.193999e-01 1.173472e-01 2.014071e-01 1.128185e-01 3.257749e-01 6.574175e-01 1.574366e-01 3.524694e-01 3.996054e-01 5.860282e-02
<GCONST> 8.476871e+01
<TRANSP> 5
 0.000000e+00 1.000000e+00 0.000000e+00 0.000000e+00 0.000000e+00
 0.000000e+00 6.055453e-01 3.944547e-01 0.000000e+00 0.000000e+00
 0.000000e+00 0.000000e+00 8.687866e-01 1.312133e-01 0.000000e+00
 0.000000e+00 0.000000e+00 0.000000e+00 3.466125e-01 6.533876e-01
 0.000000e+00 0.000000e+00 0.000000e+00 0.000000e+00 0.000000e+00
<ENDHMM>
~h "uh"
<BEGINHMM>
<NUMSTATES> 5
<STATE> 2
<NUMMIXES> 3
<MIXTURE> 1 1.426103e-01
<MEAN> 39
 1.187195e+00 -1.735532e+01 2.229748e-01 -4.437199e+00 -1.081070e+01 3.356560e+00 -1.195617e+01 4.091669e+00 1.153543e+01 -3.343537e+00 2.984404e-01 -4.834004e+00 4.743398e+01 9.198325e-01 -2.195426e-01 -4.547522e-01 -1.415017e+00 -1.397325e+00 -3.015131e-01 1.336784e+00 3.053595e+00 8.772181e-01 5.016010e-01 1.414605e+00 -1.800152e-01 1.108210e+00 5.122433e-01 6.758078e-01 2.611465e-01 -1.010631e-01 -4.126613e-02 -3.306061e-01 -9.374009e-01 -5.984909e-01 -5.512564e-01 -3.229611e-01 3.369158e-01 5.332828e-01 9.471946e-02
<VARIANCE> 39
 1.046850e+02 1.940065e+01 9.393057e-01 6.804495e+01 2.284145e+01 3.507604e+00 2.548085e+01 1.392513e+01 7.786963e+00 1.020722e+01 2.650663e+01 3.813327e+00 8.713789e+01 6.081600e-02 3.997171e-01 2.131443e-01 5.107430e-01 4.516395e+00 7.699577e+00 7.300282e-01 1.172473e+00 1.721705e+00 3.464302e+00 2.942527e+00 8.883918e-01 7.702591e-01 6.842014e-01 3.229659e-01 4.881712e-02 1.572865e-01 1.678310e-01 1.473777e-01 5.307191e-01 2.631699e-01 5.522207e-02 1.139718e-01 1.206618e-01 9.935527e-02 5.619541e-01
<GCONST> 8.499413e+01
<MIXTURE> 2 4.252288e-01
<MEAN> 39
 -4.330792e+00 -1.412368e+01 1.572904e+00 2.515877e+00 -4.663735e+00 3.955481e+00 -1.191206e+01 -1.312864e+00 6.356422e+00 -5.205968e+00 -1.140945e+00 -2.473972e+00 4.083827e+01 1.941034e-01 -7.834123e-01 -7.508008e-01 -1.774809e-01 -9.720311e-01 -6.490976e-01 7.087401e-01 9.188283e-01 9.430246e-01 4.748650e-01 -2.375624e-01 -2.937386e-01 1.948372e-01 1.609552e-01 1.215723e-01 -7.173217e-02 -8.081968e-01 -6.217328e-01 -1.617738e-01 1.870351e-01 4.243791e-01 -1.742878e-01 2.897260e-02 2.066625e-01 -1.059870e-02 3.106971e-02
<VARIANCE> 39
 2.435281e+01 2.292783e+01 5.279540e+00 2.335459e+01 1.415135e+01 2.623351e+00 2.869841e+01 1.114639e+01 3.045366e+01 1.058765e+01 2.215344e+01 9.866810e+00 1.907423e+01 1.664775e-01 6.500072e-01 8.370840e-02 1.067542e+00 1.352411e+00 1.550401e+00 2.530443e+00 2.730113e+00 4.997123e-01 7.707833e-01 1.784796e+00 7.505521e-01 2.526803e-01 1.818416e-01 1.792331e-01 6.132852e-02 9.969444e-02 2.570535e-01 3.622266e-01 1.065059e+00 5.338603e-01 6.053387e-01 1.053911e-01 2.916257e-01 1.127081e-01 1.056196e-01
<GCONST> 8.243297e+01
<MIXTURE> 3 4.321609e-01
<MEAN> 39
 -2.342143e+00 -1.506371e+01 1.319090e+00 -3.797330e-01 -7.017505e+00 3.902919e+00 -1.093935e+01 1.183830e+00 7.768589e+00 -4.500016e+00 -2.354937e-01 -3.619138e+00 4.335598e+01 5.146900e-01 -4.198799e-01 -6.071224e-01 -7.164203e-01 -1.164283e+00 -5.806856e-01 9.858174e-01 1.954468e+00 8.664765e-01 6.150777e-01 3.994276e-01 -3.584331e-01 5.622168e-01 3.477135e-01 3.579338e-01 1.160923e-01 -4.870785e-01 -3.872687e-01 -2.863654e-01 -4.915112e-01 -8.141010e-02 -2.627989e-01 -1.395298e-01 2.614178e-01 2.142111e-01 9.021977e-02
<VARIANCE> 39
 6.722374e+01 3.102333e+01 4.868889e+00 5.409234e+01 3.207440e+01 3.510551e+00 3.032569e+01 1.880566e+01 3.712951e+01 1.071846e+01 2.465194e+01 7.219858e+00 6.107118e+01 2.484305e-01 6.712164e-01 1.591043e-01 1.205731e+00 2.812756e+00 4.243279e+00 1.540509e+00 2.923138e+00 1.103310e+00 1.995558e+00 3.513162e+00 9.013062e-01 7.037651e-01 4.304215e-01 3.454014e-01 7.639808e-02 2.400132e-01 3.052803e-01 2.258292e-01 1.006699e+00 6.209779e-01 3.806212e-01 1.369773e-01 2.064132e-01 1.897775e-01 3.050496e-01
<GCONST> 9.694592e+01
<STATE> 3
<NUMMIXES> 3
<MIXTURE> 1 5.954979e-02
<MEAN> 39
 1.094106e+01 -8.520134e+00 6.493789e+00 -6.268789e+00 -1.077679e+01 5.186850e+00 -1.792065e+01 3.654947e-01 8.633252e+00 -5.381033e+00 1.182496e+00 -3.892109e+00 5.323716e+01 -5.548423e-01 1.016060e+00 8.705613e-01 9.646530e-01 2.936820e-01 1.429419e-01 9.596293e-01 7.562998e-01 2.637450e-01 2.902566e-01 2.916061e-01 -1.555053e-01 -1.177692e+00 -6.899794e-02 -9.022745e-03 -7.455960e-02 -1.799813e-01 -1.991085e-01 -2.823258e-02 1.477924e-01 2.472277e-01 5.056958e-01 1.940874e-01 5.219379e-02 1.731840e-02 -1.082765e-02
<VARIANCE> 39
 2.463009e+01 2.392440e+01 3.347266e+01 3.078164e+01 1.256492e+01 3.097109e+01 2.575062e+01 2.651748e+01 3.112062e+01 1.434421e+01 1.373530e+01 1.682246e+01 3.640065e+01 1.766772e+00 1.494327e+00 1.570974e+00 1.977314e+00 1.210277e+00 1.971277e+00 2.515188e+00 2.337106e+00 5.143218e+00 1.343352e+00 8.512648e-01 1.439638e+00 3.087963e+00 1.823579e-01 1.797554e-01 2.033841e-01 2.752854e-01 2.768549e-01 3.722794e-01 2.343540e-01 6.117494e-01 1.132533e+00 2.595817e-01 8.806058e-02 2.673416e-01 1.568351e-01
<GCONST> 1.032902e+02
<MIXTURE> 2 4.627343e-01
<MEAN> 39
 9.867345e+00 -9.809225e+00 3.862516e+00 -7.642029e+00 -1.106531e+01 6.277006e+00 -1.596560e+01 4.074234e-01 8.117032e+00 -5.672180e+00 1.803190e+00 -4.318830e+00 5.261361e+01 1.835287e-01 -1.300783e-01 -1.825433e-01 -3.069699e-01 -1.819811e-02 2.055929e-01 -1.638194e-01 -3.123941e-01 -2.394208e-01 -1.006451e-01 -9.022446e-02 -9.652052e-02 2.387854e-01 -2.369351e-02 -5.907203e-02 -1.707948e-02 -1.460844e-02 1.916198e-02 3.308455e-02 -5.422829e-02 -1.048111e-01 -6.361587e-02 -5.155779e-02 -3.078150e-02 -5.122553e-03 -1.404516e-02
<VARIANCE> 39
 5.158044e+01 3.124366e+01 4.388383e+01 4.382360e+01 2.311483e+01 4.967478e+01 4.721548e+01 3.041416e+01 5.099023e+01 2.424517e+01 3.219747e+01 1.508136e+01 6.839167e+01 3.135740e+00 1.352688e+00 1.586915e+00 2.257264e+00 9.841506e-01 1.959132e+00 2.812119e+00 1.763818e+00 2.688795e+00 1.687842e+00 1.605054e+00 1.088221e+00 2.657166e+00 2.739627e-01 2.819225e-01 2.296789e-01 2.775424e-01 2.308244e-01 4.416857e-01 4.725588e-01 3.264264e-01 5.784181e-01 2.656473e-01 2.888160e-01 2.068942e-01 2.130914e-01
<GCONST> 1.107936e+02
<MIXTURE> 3 4.777160e-01
<MEAN> 39
 1.136395e+01 -1.011462e+01 3.923733e+00 -8.290376e+00 -1.105979e+01 6.220343e+00 -1.738658e+01 1.522650e-01 8.370987e+00 -5.746753e+00 1.865639e+00 -4.478965e+00 5.413638e+01 2.151915e-02 1.350290e-01 8.685682e-02 3.970389e-02 1.631881e-01 2.241675e-01 9.066563e-02 -1.838320e-02 -7.093977e-02 2.254299e-02 9.695279e-03 -7.183694e-03 -1.638554e-03 -7.152987e-02 2.049929e-02 3.191822e-02 4.674774e-02 2.284482e-02 8.326555e-03 3.235576e-02 -4.127396e-02 -2.343201e-02 7.878787e-03 -1.280986e-02 1.999418e-02 -5.565214e-02
<VARIANCE> 39
 3.768749e+01 3.184615e+01 4.395888e+01 4.080098e+01 2.020007e+01 4.571992e+01 3.879184e+01 3.294275e+01 4.534728e+01 2.182002e+01 2.829943e+01 1.539269e+01 5.397619e+01 2.415046e+00 1.653544e+00 1.673722e+00 2.336176e+00 1.031373e+00 2.002820e+00 2.511348e+00 1.674639e+00 2.778062e+00 1.422474e+00 1.490435e+00 1.209258e+00 2.473562e+00 2.303723e-01 2.495615e-01 2.299032e-01 2.445239e-01 1.892149e-01 3.776329e-01 4.066530e-01 3.401292e-01 4.889058e-01 2.189195e-01 2.000513e-01 2.225254e-01 1.967931e-01
<GCONST> 1.076583e+02
<STATE> 4
<NUMMIXES> 3
<MIXTURE> 1 6.162487e-02
<MEAN> 39
 9.885489e+00 -1.232242e+01 -7.896091e-01 -1.086340e+01 -1.035076e+01 6.709295e+00 -1.415557e+01 3.710863e+00 9.805012e+00 -3.319782e+00 1.917257e+00 -6.437294e+00 5.580399e+01 2.520574e-01 -1.060703e+00 -1.427201e-01 -2.982202e-01 -6.214171e-04 5.465531e-01 -5.488635e-01 -5.267707e-01 -1.873089e-02 -3.603543e-01 -1.617588e-01 4.600156e-01 1.851342e-01 -1.161019e-01 1.816324e-01 3.151456e-01 2.477359e-01 -2.566676e-01 -4.836887e-01 -3.695554e-01 -3.739539e-01 -5.815663e-02 9.457000e-02 2.386098e-03 4.659351e-01 -3.769870e-01
<VARIANCE> 39
 6.141185e+01 5.608966e-01 3.821648e+00 2.827292e+01 1.265522e+01 4.184003e+01 3.696566e+00 4.137756e+01 2.612176e+01 7.368778e+00 1.094586e+01 4.166630e+00 8.068980e+01 7.092384e-01 3.621601e-02 1.275066e-01 2.985501e-01 6.310592e-01 8.911093e-01 9.021059e-01 8.183584e-02 1.139374e+00 4.887727e-02 3.931498e-01 1.073622e-01 1.628520e-01 8.609019e-02 1.988466e-03 4.963201e-03 9.941620e-03 2.165333e-01 2.013033e-01 2.523978e-01 4.318562e-01 2.944785e-01 2.196767e-01 4.931161e-02 1.235362e-01 1.534338e-01
<GCONST> 5.303975e+01
<MIXTURE> 2 4.617624e-01
<MEAN> 39
 -1.422208e+00 -1.070272e+01 1.586955e+00 -2.679507e+00 -9.928062e+00 5.070496e+00 -9.985551e+00 -3.725757e-02 4.744220e+00 -3.448492e+00 -4.877560e-01 -3.011443e+00 4.233547e+01 2.729307e-02 -4.821853e-01 -4.663954e-01 -1.651176e+00 -1.371828e+00 1.350589e-01 -4.684122e-01 -4.794960e-01 -5.555350e-02 -2.178808e-01 -4.400524e-02 -2.372074e-02 8.500089e-02 1.106491e-02 3.716261e-02 6.154475e-02 -1.284982e-01 -1.571902e-02 8.756141e-02 -1.166267e-02 -4.050395e-01 -6.350411e-01 -5.998343e-01 4.327120e-01 5.421207e-01 1.416082e-02
<VARIANCE> 39
 4.303176e+01 1.463348e+01 2.405423e+01 3.043632e+01 1.109253e+01 3.320340e+01 1.207053e+01 1.603810e+01 1.655539e+01 4.378887e+00 1.314499e+01 3.161163e+01 5.904699e+01 3.581228e-01 1.505424e-01 1.316949e+00 1.049782e+00 7.574511e-01 1.419816e+00 5.521399e+00 6.835768e-01 1.863399e+00 1.256180e-01 1.992537e-01 1.019505e-01 9.140590e-02 3.534937e-02 2.313957e-02 5.735687e-02 6.926736e-02 1.844595e-01 1.862669e-01 3.217224e-01 3.460314e-01 3.397161e-01 1.796634e-01 5.286835e-01 5.779166e-01 6.589051e-02
<GCONST> 7.644305e+01
<MIXTURE> 3 4.766127e-01
<MEAN> 39
 3.020624e+00 -1.189999e+01 2.761235e-01 -6.121695e+00 -9.693149e+00 6.992525e+00 -1.198649e+01 7.245014e-01 6.563675e+00 -3.838001e+00 3.940548e-01 -4.255942e+00 4.766838e+01 -3.528424e-02 -7.615798e-01 -3.961759e-01 -1.081534e+00 -7.842162e-01 2.687567e-01 -4.284815e-01 -4.607054e-01 4.668603e-02 -2.211737e-01 4.847419e-03 1.758582e-01 4.795111e-02 -1.241388e-03 1.149653e-01 2.079678e-01 6.224392e-02 -2.114644e-02 -9.474488e-02 -5.669196e-02 -2.418065e-01 -4.832944e-01 -3.492048e-01 1.865188e-01 3.787284e-01 -1.153660e-01
<VARIANCE> 39
 7.235564e+01 7.412496e+00 1.414331e+01 3.837614e+01 1.410372e+01 4.705976e+01 9.804975e+00 3.320857e+01 2.530510e+01 6.999506e+00 1.328983e+01 2.448125e+01 9.894355e+01 6.003841e-01 1.484268e-01 8.496215e-01 1.201101e+00 9.618130e-01 1.283385e+00 3.596273e+00 4.237565e-01 1.805223e+00 9.566974e-02 3.453840e-01 1.369597e-01 1.417592e-01 6.978015e-02 1.439356e-02 4.282196e-02 7.058073e-02 2.224414e-01 2.699217e-01 3.276078e-01 4.357521e-01 4.048177e-01 3.005149e-01 2.915296e-01 3.466686e-01 1.363886e-01
<GCONST> 7.971659e+01
<TRANSP> 5
 0.000000e+00 1.000000e+00 0.000000e+00 0.000000e+00 0.000000e+00
 0.000000e+00 4.148701e-01 5.851299e-01 0.000000e+00 0.000000e+00
 0.000000e+00 0.000000e+00 9.535769e-01 4.642308e-02 0.000000e+00
 0.000000e+00 0.000000e+00 0.000000e+00 2.156471e-25 1.000000e+00
 0.000000e+00 0.000000e+00 0.000000e+00 0.000000e+00 0.000000e+00
<ENDHMM>
~h "uw"
<BEGINHMM>
<NUMSTATES> 5
<STATE> 2
<NUMMIXES> 3
<MIXTURE> 1 1.290802e-01
<MEAN> 39
 -3.522013e-01 -2.020244e+01 -1.276485e+00 -9.676821e+00 -1.411456e+01 9.304789e+00 -9.680044e+00 5.586872e-01 1.839914e+00 -5.146367e+00 1.046781e+01 -3.015724e-02 4.627543e+01 1.269463e-01 -1.864602e-02 1.168778e-01 6.289946e-01 1.619888e-01 1.622735e-01 7.337976e-01 1.147840e+00 1.395537e+00 5.807781e-01 1.008907e+00 3.394062e-01 -1.360589e-02 -1.457800e-02 1.337169e-01 2.809395e-02 1.742649e-01 9.909513e-02 8.197822e-02 2.206254e-01 2.999391e-01 5.670340e-01 1.298529e-01 -3.449994e-01 4.642713e-02 -2.361719e-02
<VARIANCE> 39
 1.134180e+01 8.906982e+01 2.375171e+01 1.895886e+01 1.564294e+01 2.474317e+01 8.698833e+00 2.662223e+01 4.636018e+01 3.893508e+00 4.111068e+01 1.000355e+01 7.678957e+00 5.210242e-01 4.316530e-01 1.193166e+00 1.340207e+00 2.729480e+00 1.569570e+00 1.768104e+00 7.487608e-01 2.733395e+00 1.439738e+00 1.048828e+00 4.925455e-01 1.112347e+00 5.473052e-02 3.116408e-01 1.794520e-01 4.843875e-01 3.512225e-01 2.040406e-01 5.107955e-01 5.522603e-01 4.056698e-01 4.742873e-01 7.263272e-01 8.551648e-02 6.053357e-02
<GCONST> 9.324406e+01
<MIXTURE> 2 4.636449e-01
<MEAN> 39
 -2.103932e+00 -2.128502e+01 -2.440294e+00 -6.335553e+00 -9.982821e+00 1.096630e+01 -8.343967e+00 6.172944e-01 1.510596e+00 -7.024208e+00 8.597729e+00 -1.678087e+00 4.486058e+01 9.363776e-02 -1.078721e+00 -1.699394e-01 -6.475110e-01 -9.799029e-01 -1.163825e-01 -4.577439e-01 1.056319e-01 4.441549e-01 1.471897e-01 1.201605e-01 1.770491e-01 4.520249e-01 2.528474e-02 -2.528999e-02 -2.277035e-02 -1.540405e-01 -1.500874e-01 -1.833890e-01 -2.349221e-01 -1.231973e-01 -8.480021e-02 8.290044e-02 1.657238e-01 3.905861e-02 2.735829e-02
<VARIANCE> 39
 2.795866e+00 4.299660e+01 1.140779e+01 1.087405e+01 1.906265e+01 2.307944e+01 1.576588e+01 1.016933e+01 1.006618e+01 3.915999e+00 2.063770e+01 7.200894e+00 9.748154e+00 2.681075e-01 5.369455e-01 1.398087e+00 8.112962e-01 1.441525e+00 1.959539e+00 2.606331e+00 1.584889e+00 2.092323e+00 7.233850e-01 3.011846e+00 1.151099e+00 2.298766e-01 6.243205e-02 1.200369e-01 2.065104e-01 2.539258e-01 4.391554e-01 3.459637e-01 5.934722e-01 2.516864e-01 3.075508e-01 1.418430e-01 5.973325e-01 1.866725e-01 2.664480e-02
<GCONST> 8.365746e+01
<MIXTURE> 3 4.072748e-01
<MEAN> 39
 -1.678478e+00 -2.072865e+01 -1.819386e+00 -6.930458e+00 -1.067659e+01 1.076511e+01 -9.017259e+00 5.248899e-01 1.730842e+00 -6.261114e+00 9.019140e+00 -1.677004e+00 4.507737e+01 8.884785e-02 -7.311063e-01 -2.108284e-01 -3.841749e-01 -4.704246e-01 5.967416e-03 7.602939e-02 5.817600e-01 1.051457e+00 3.878574e-01 6.360725e-01 1.969257e-01 2.954161e-01 3.498017e-02 9.971821e-02 2.583089e-02 2.135992e-02 -4.447288e-02 -7.781367e-02 -5.025158e-02 -9.381404e-03 1.093790e-01 2.483945e-02 -8.090217e-02 4.690659e-02 2.631162e-03
<VARIANCE> 39
 6.209691e+00 6.614128e+01 1.875671e+01 1.942126e+01 2.515928e+01 1.937169e+01 1.806780e+01 1.711186e+01 2.206470e+01 4.530722e+00 2.753576e+01 9.551902e+00 1.163729e+01 3.817137e-01 7.162831e-01 1.576318e+00 1.070119e+00 1.667034e+00 1.690405e+00 2.524510e+00 1.424753e+00 2.638463e+00 1.162973e+00 2.314155e+00 9.649866e-01 5.566257e-01 6.170130e-02 1.982798e-01 2.251749e-01 3.415239e-01 4.412358e-01 3.053161e-01 4.907835e-01 3.148184e-01 3.818670e-01 1.851940e-01 5.143111e-01 2.026222e-01 3.270842e-02
<GCONST> 9.185683e+01
<STATE> 3
<NUMMIXES> 3
<MIXTURE> 1 4.854246e-02
<MEAN> 39
 1.013580e+01 -1.212382e+01 3.735471e+00 -1.011837e+01 -1.385932e+01 5.795061e+00 -1.729251e+01 -7.024401e-01 5.575174e+00 -7.473892e+00 3.404465e+00 -4.500112e+00 5.388596e+01 -2.216657e-01 8.263555e-01 5.491492e-01 7.747124e-01 5.102245e-01 5.436436e-01 8.561761e-01 3.547322e-01 2.806554e-01 2.508421e-01 -3.680495e-01 3.484844e-01 -6.812033e-01 -8.431672e-02 1.043167e-01 -5.057720e-02 -7.263575e-02 -1.365683e-02 -6.783355e-02 9.238295e-02 6.725814e-02 6.395715e-02 2.228942e-01 1.344399e-01 1.973172e-01 -7.977179e-02
<VARIANCE> 39
 3.549342e+01 3.082927e+01 4.997769e+01 4.022202e+01 1.424839e+01 2.666157e+01 6.864402e+01 2.266655e+01 6.112441e+01 1.564799e+01 3.304509e+01 1.596926e+01 5.850051e+01 1.516068e+00 1.972041e+00 2.405965e+00 2.320670e+00 1.347612e+00 1.467710e+00 3.540066e+00 1.702335e+00 1.824633e+00 1.303612e+00 1.838785e+00 1.152067e+00 2.362417e+00 1.323864e-01 3.886725e-01 5.774952e-01 4.179708e-01 2.399109e-01 2.353788e-01 3.722717e-01 2.806959e-01 5.444502e-01 3.514207e-01 2.739575e-01 1.604779e-01 1.848097e-01
<GCONST> 1.085539e+02
<MIXTURE> 2 4.644488e-01
<MEAN> 39
 9.508722e+00 -1.247058e+01 2.206744e+00 -1.155421e+01 -1.471811e+01 6.186268e+00 -1.464867e+01 -1.084571e+00 5.102320e+00 -5.350360e+00 4.705306e+00 -4.262711e+00 5.384948e+01 -1.213062e-01 6.555504e-02 -1.731426e-01 -2.706279e-01 -1.474461e-01 -9.833459e-02 2.117149e-02 -2.249895e-01 -2.086320e-01 8.855635e-03 -1.376691e-02 -1.949448e-02 -5.541068e-02 8.931176e-03 -1.026733e-01 -6.829235e-03 1.189208e-02 4.528729e-02 7.410479e-02 -3.788735e-02 -2.212937e-02 -7.992476e-02 -9.662291e-02 -1.722255e-02 -6.074855e-02 5.323387e-02
<VARIANCE> 39
 4.181001e+01 3.742970e+01 3.897393e+01 4.686610e+01 2.433727e+01 2.704242e+01 6.620856e+01 2.969791e+01 8.897442e+01 2.146418e+01 3.347882e+01 2.134291e+01 6.528842e+01 2.394758e+00 2.460035e+00 2.275084e+00 2.831647e+00 1.581867e+00 2.005892e+00 2.715933e+00 1.463730e+00 2.793002e+00 2.102201e+00 2.087101e+00 1.474581e+00 2.732627e+00 2.927243e-01 4.853378e-01 4.100686e-01 3.499939e-01 2.242988e-01 3.878139e-01 3.776684e-01 2.827208e-01 5.251728e-01 3.452192e-01 2.558068e-01 1.969152e-01 2.482934e-01
<GCONST> 1.143313e+02
<MIXTURE> 3 4.870085e-01
<MEAN> 39
 1.071127e+01 -1.254384e+01 2.844167e+00 -1.168358e+01 -1.449723e+01 6.108546e+00 -1.621770e+01 -1.248319e+00 5.002289e+00 -6.026902e+00 4.636166e+00 -4.581028e+00 5.525528e+01 -7.938676e-02 2.735124e-01 6.512769e-02 7.498688e-02 3.280310e-02 7.556615e-02 2.395673e-01 -1.172916e-01 -5.362314e-02 9.190463e-02 -1.009990e-01 1.083813e-01 -2.040684e-01 -2.328799e-02 1.640677e-03 8.340245e-03 1.349233e-02 1.762418e-02 3.742229e-04 1.995997e-02 -4.268185e-03 -7.716017e-02 -4.032629e-03 2.828589e-02 2.952638e-02 -1.741844e-02
<VARIANCE> 39
 3.623566e+01 3.940601e+01 4.610358e+01 5.115136e+01 2.098584e+01 2.459162e+01 6.385838e+01 2.914550e+01 8.847153e+01 2.179322e+01 3.783708e+01 2.070466e+01 6.178122e+01 2.040037e+00 2.528289e+00 2.608136e+00 3.037364e+00 1.535882e+00 1.867399e+00 2.825212e+00 1.615766e+00 2.583779e+00 1.948432e+00 2.056366e+00 1.423481e+00 2.502417e+00 2.308635e-01 4.350262e-01 4.696327e-01 3.866740e-01 2.085121e-01 3.300635e-01 4.086955e-01 3.079073e-01 5.080214e-01 3.667644e-01 2.859017e-01 2.016004e-01 2.459438e-01
<GCONST> 1.140336e+02
<STATE> 4
<NUMMIXES> 3
<MIXTURE> 1 1.304922e-01
<MEAN> 39
 -5.431097e+00 -1.004668e+01 6.547907e+00 -8.145434e-01 -9.927322e+00 8.842696e+00 -6.388040e+00 -1.996617e+00 3.997074e+00 -5.392959e+00 -1.832036e+00 -5.031392e+00 3.908867e+01 -3.557122e-02 1.681225e-01 2.816102e-01 3.678122e-01 3.416286e-01 4.168821e-02 3.552636e-01 4.257811e-01 2.369798e-01 6.868744e-01 5.019251e-01 3.480367e-01 -4.750514e-02 3.417929e-02 6.083307e-02 8.694144e-02 1.111109e-01 1.230970e-01 7.045975e-02 3.907688e-02 1.043852e-01 6.927963e-02 4.243534e-02 1.903235e-01 1.445955e-01 1.732655e-02
<VARIANCE> 39
 3.771291e+00 3.243787e+00 6.112354e+00 1.772518e+01 2.040144e+01 9.558449e+00 1.055304e+01 1.684597e+01 1.898341e+01 1.707983e+01 1.323125e+01 7.958873e+00 1.634015e+00 7.982779e-02 2.126758e-01 5.213185e-01 4.676928e-01 6.602820e-01 4.002665e-01 8.476317e-01 5.692269e-01 1.138681e+00 1.144891e+00 9.173830e-01 1.034180e+00 4.406352e-02 1.485253e-02 3.474282e-02 1.006882e-01 1.929106e-01 1.999971e-01 1.118928e-01 1.507834e-01 1.170019e-01 2.444484e-01 3.018194e-01 2.378872e-01 1.450268e-01 5.300703e-03
<GCONST> 5.923215e+01
<MIXTURE> 2 4.622865e-01
<MEAN> 39
 -5.834758e+00 -1.044967e+01 6.900453e+00 -4.555404e-02 -9.084625e+00 9.334866e+00 -7.228130e+00 -3.641785e+00 2.398315e+00 -6.662446e+00 -2.118371e+00 -4.608187e+00 3.891499e+01 -2.607880e-02 -8.219842e-02 -1.462524e-01 -1.743055e-01 -2.261382e-01 -1.069513e-01 -5.258353e-02 -6.651052e-02 -2.444666e-01 -2.686952e-01 -2.114809e-01 -3.090304e-01 -2.641046e-02 7.578613e-03 -1.629018e-02 -3.259834e-02 -8.860607e-03 -4.976724e-03 -8.968420e-03 -2.261108e-02 -1.673574e-02 -4.202468e-02 -3.797495e-02 -6.412125e-02 -9.440825e-02 6.059962e-03
<VARIANCE> 39
 1.120665e+00 1.960735e+00 5.880383e+00 7.974835e+00 8.014095e+00 5.921882e+00 8.733891e+00 1.110079e+01 1.224375e+01 8.780027e+00 1.086168e+01 1.238498e+01 5.617457e-01 4.807751e-02 1.597157e-01 3.560767e-01 4.475690e-01 6.404919e-01 5.151761e-01 8.572166e-01 8.199605e-01 1.380639e+00 9.469926e-01 1.073869e+00 1.199647e+00 2.049540e-02 1.026033e-02 3.651628e-02 9.753168e-02 9.959654e-02 1.229006e-01 7.312083e-02 1.393831e-01 1.445159e-01 3.052091e-01 2.236301e-01 2.133559e-01 3.019514e-01 3.093963e-03
<GCONST> 4.986992e+01
<MIXTURE> 3 4.072218e-01
<MEAN> 39
 -5.796724e+00 -1.028221e+01 7.046792e+00 1.481123e-01 -8.761218e+00 9.444848e+00 -7.074631e+00 -3.555797e+00 2.601984e+00 -6.496694e+00 -2.090453e+00 -4.567846e+00 3.889553e+01 -2.202859e-03 4.610571e-02 2.745640e-02 -2.532453e-03 6.554888e-02 -2.375483e-02 6.010600e-02 1.503654e-01 2.029404e-01 1.355919e-01 7.859851e-02 6.482264e-02 -1.320994e-02 4.104981e-04 -1.238127e-02 -5.204220e-03 5.628523e-03 2.767172e-02 1.117138e-02 -1.152495e-02 2.047360e-02 3.401274e-02 1.976333e-02 -7.188377e-03 -2.606754e-02 2.288321e-03
<VARIANCE> 39
 1.322017e+00 2.007873e+00 5.736654e+00 7.046125e+00 9.462580e+00 6.705318e+00 1.035700e+01 1.373183e+01 1.316497e+01 9.054106e+00 1.255905e+01 1.270625e+01 6.893357e-01 4.738809e-02 1.902881e-01 3.698663e-01 5.283567e-01 7.240629e-01 3.944005e-01 7.309803e-01 7.422654e-01 1.356434e+00 1.237972e+00 1.111837e+00 9.898932e-01 1.874937e-02 9.789790e-03 4.170443e-02 9.096790e-02 1.088279e-01 1.447067e-01 7.603590e-02 1.661407e-01 1.462846e-01 3.004371e-01 2.388287e-01 2.079128e-01 2.384212e-01 3.482087e-03
<GCONST> 5.142890e+01
<TRANSP> 5
 0.000000e+00 1.000000e+00 0.000000e+00 0.000000e+00 0.000000e+00
 0.000000e+00 8.461522e-01 1.538478e-01 0.000000e+00 0.000000e+00
 0.000000e+00 0.000000e+00 9.486431e-01 5.135683e-02 0.000000e+00
 0.000000e+00 0.000000e+00 0.000000e+00 9.569907e-01 4.300932e-02
 0.000000e+00 0.000000e+00 0.000000e+00 0.000000e+00 0.000000e+00
<ENDHMM>
~h "sil"
<BEGINHMM>
<NUMSTATES> 5
<STATE> 2
<MEAN> 39
 -2.968716e+00 -1.669980e+01 9.808964e-01 -2.981421e+00 -1.131509e+01 7.528907e+00 -6.672536e+00 1.259853e+00 6.130383e+00 -4.088099e+00 3.787585e+00 -1.613444e+00 4.249492e+01 -8.192378e-02 -8.987801e-02 1.675874e-01 2.885778e-01 5.243067e-01 4.592430e-01 -5.194945e-02 -2.812030e-01 -3.772026e-01 -3.498138e-01 -7.636695e-02 1.510507e-01 -1.087306e-02 2.868174e-02 5.117311e-02 3.578617e-02 2.636108e-02 -4.547741e-02 -1.280793e-01 -5.503500e-02 -3.665762e-02 9.885930e-03 3.970822e-03 2.222079e-02 -4.762356e-02 1.776653e-03
<VARIANCE> 39
 3.106820e+00 1.256297e+01 7.101295e+00 1.043265e+01 2.246874e+01 2.520565e+01 1.733629e+01 1.670947e+01 1.905472e+01 1.810620e+01 3.486707e+01 1.892932e+01 4.012128e+00 1.094977e-01 1.571869e-01 6.837156e-01 7.940324e-01 1.334009e+00 1.474866e+00 1.385087e+00 1.876755e+00 1.613615e+00 1.479231e+00 2.707403e+00 1.980684e+00 3.918920e-02 3.166129e-02 5.824404e-02 1.312673e-01 2.085879e-01 2.500538e-01 2.648175e-01 2.811058e-01 3.251804e-01 2.591102e-01 2.597936e-01 5.969802e-01 3.207653e-01 8.848728e-03
<GCONST> 7.756935e+01
<STATE> 3
<MEAN> 39
 1.088472e+01 -9.820051e+00 3.211563e+00 -9.469016e+00 -1.282682e+01 4.912149e+00 -1.675396e+01 8.096995e-01 9.616761e+00 -3.337173e+00 2.873550e+00 -4.800971e+00 5.327563e+01 -1.720649e-02 1.228757e-01 5.454469e-02 -7.927500e-03 -4.738030e-03 -1.665345e-02 -4.614949e-02 -9.918314e-02 -3.792090e-02 4.440387e-02 -5.592073e-02 -7.741228e-02 -4.423129e-02 -1.481439e-02 -8.672826e-03 1.697353e-02 3.787376e-02 2.513918e-02 5.847592e-03 -1.519118e-02 -1.427970e-02 -2.579827e-02 -1.869211e-02 7.740555e-03 3.977342e-03 -7.163584e-03
<VARIANCE> 39
 4.429340e+01 2.703938e+01 2.966547e+01 3.740755e+01 1.421878e+01 1.532767e+01 3.534739e+01 3.186930e+01 4.761026e+01 1.930493e+01 3.238622e+01 2.052311e+01 5.506116e+01 2.239269e+00 1.603630e+00 1.945732e+00 2.673613e+00 1.556356e+00 1.581206e+00 2.603874e+00 1.238774e+00 1.949453e+00 1.579377e+00 1.554376e+00 1.355604e+00 2.177657e+00 2.204064e-01 2.901650e-01 3.189887e-01 3.654982e-01 2.517523e-01 3.074338e-01 4.213039e-01 1.746843e-01 2.878422e-01 2.691064e-01 2.939013e-01 2.647815e-01 2.040066e-01
<GCONST> 1.063991e+02
<STATE> 4
<MEAN> 39
 -6.648033e+00 -8.966827e+00 5.949682e+00 -6.146356e-01 -8.385834e+00 8.278282e+00 -6.199544e+00 -2.340686e+00 1.519585e+00 -5.338171e+00 -4.311578e-01 -4.709153e+00 3.769553e+01 -3.211354e-02 2.337745e-02 8.396158e-02 8.377311e-02 4.452671e-02 -1.008729e-01 -1.034830e-01 2.868586e-03 -4.137953e-03 1.054403e-01 1.140080e-01 -8.121385e-02 -3.208200e-02 1.149454e-02 3.102365e-03 -1.738477e-02 -3.219432e-02 -4.902478e-02 -3.284919e-02 3.701086e-02 5.510317e-02 2.092906e-02 4.592982e-02 -1.041244e-02 -8.830919e-03 8.184496e-03
<VARIANCE> 39
 8.997458e-01 2.668592e+00 3.823813e+00 5.209926e+00 6.260084e+00 8.933852e+00 7.943954e+00 1.068046e+01 9.905921e+00 1.092461e+01 1.411718e+01 9.363302e+00 7.740158e-01 6.567223e-02 1.396923e-01 2.680946e-01 5.629008e-01 6.605135e-01 7.065445e-01 6.876090e-01 9.322097e-01 8.290048e-01 1.255860e+00 1.718295e+00 1.074930e+00 2.237600e-02 1.459643e-02 2.783619e-02 5.982938e-02 1.252175e-01 1.520038e-01 1.770869e-01 1.291264e-01 1.714953e-01 1.450204e-01 2.999477e-01 3.775441e-01 1.921038e-01 5.217917e-03
<GCONST> 5.124483e+01
<TRANSP> 5
 0.000000e+00 1.000000e+00 0.000000e+00 0.000000e+00 0.000000e+00
 0.000000e+00 8.468451e-01 2.549894e-02 1.276560e-01 0.000000e+00
 0.000000e+00 0.000000e+00 9.892472e-01 1.075279e-02 0.000000e+00
 0.000000e+00 5.263321e-05 0.000000e+00 9.509233e-01 4.902406e-02
 0.000000e+00 0.000000e+00 0.000000e+00 0.000000e+00 0.000000e+00
<ENDHMM>
