~o
<STREAMINFO> 1 39
<VECSIZE> 39<NULLD><MFCC_D_A_0><DIAGC>
~h "d"
<BEGINHMM>
<NUMSTATES> 5
<STATE> 2
<MEAN> 39
 -4.429193e+00 -9.630993e+00 -1.404792e+01 -1.215703e+01 -1.531222e+01 -1.582794e+01 -1.239706e+01 -1.029447e+01 -7.812017e+00 6.022706e+00 5.612944e+00 4.271471e+00 3.922799e+01 5.377232e-01 1.251171e-01 -2.560295e-01 6.858697e-02 4.721215e-02 1.813369e-01 -4.671232e-01 -1.015594e+00 -1.247427e-01 6.413202e-01 3.144885e-01 -4.111895e-01 1.655793e-01 -1.017344e-01 2.902191e-02 -1.529754e-01 -1.015812e-01 6.273669e-02 1.641625e-01 1.377797e-01 2.206566e-02 -6.647165e-04 1.886380e-02 1.789826e-01 6.351694e-02 -7.792038e-02
<VARIANCE> 39
 1.701575e+01 2.054278e+01 1.242672e+01 1.296668e+01 1.312797e+01 1.661323e+01 2.686130e+01 4.018609e+01 2.622243e+01 3.903126e+01 2.884098e+01 2.395348e+01 1.782354e+01 2.443823e+00 3.470697e+00 1.046916e+00 1.523383e+00 1.888919e+00 2.117774e+00 4.178348e+00 2.756046e+00 2.551541e+00 5.527228e+00 4.351273e+00 2.307999e+00 2.246329e+00 4.314649e-01 7.378622e-01 2.613900e-01 2.984147e-01 4.389109e-01 4.810155e-01 6.884609e-01 4.284053e-01 5.580553e-01 9.275869e-01 5.861483e-01 4.327965e-01 4.438168e-01
<GCONST> 1.142176e+02
<STATE> 3
<MEAN> 39
 6.472359e-01 -1.461778e+01 -2.206417e+01 -2.121083e+01 -9.310261e+00 -9.987820e+00 -9.674014e+00 -8.089790e-01 -6.545789e+00 1.280070e+01 1.081735e+01 -2.221302e+00 4.511135e+01 -4.030975e-01 -9.373741e-03 -1.255166e-01 -1.201282e-01 1.981845e-01 7.143702e-02 4.031440e-02 6.759621e-01 4.657433e-01 -2.656612e-01 -4.131213e-01 -1.122018e-01 -2.885076e-01 -7.570987e-02 -1.011449e-02 6.105430e-02 7.710017e-02 -2.333359e-02 -5.665066e-02 2.163996e-02 2.778719e-02 3.565614e-02 -2.989170e-02 -8.851434e-02 4.671695e-03 -3.485343e-02
<VARIANCE> 39
 2.729919e+01 3.246839e+01 1.085827e+01 1.780453e+01 1.858214e+01 1.964373e+01 1.296129e+01 1.216358e+02 4.498329e+01 6.078669e+01 1.043734e+02 3.529022e+01 3.629651e+01 8.478284e-01 1.748493e+00 1.356340e+00 1.612888e+00 1.462669e+00 1.948230e+00 1.170604e+00 3.344016e+00 2.519294e+00 3.241340e+00 3.831141e+00 2.325256e+00 1.490237e+00 6.835356e-02 1.657073e-01 2.157347e-01 1.451729e-01 2.384693e-01 2.603516e-01 2.787433e-01 3.066691e-01 4.502301e-01 4.877413e-01 4.349890e-01 3.433896e-01 8.445915e-02
<GCONST> 1.059113e+02
<STATE> 4
<MEAN> 39
 -1.376972e+01 -9.415389e+00 -1.832424e+01 -1.544948e+01 -1.100634e+01 -1.162204e+01 -8.465700e+00 -5.754674e-01 -4.483017e-01 3.553864e+00 4.175488e+00 3.020032e+00 3.162412e+01 -1.278494e-01 8.969125e-02 2.946168e-02 9.014218e-02 -1.675877e-02 1.335745e-01 2.055748e-01 -1.028043e-01 -1.837485e-01 6.485739e-02 1.912156e-01 2.410507e-01 -2.700554e-02 2.288994e-02 8.889369e-03 -7.185818e-02 9.574667e-03 1.695221e-03 1.035151e-02 2.659142e-02 -2.314154e-02 -2.764717e-02 -4.112339e-02 -1.449396e-02 -2.796179e-02 4.399547e-02
<VARIANCE> 39
 3.900597e+00 2.928115e+00 4.923658e+00 5.720512e+00 6.910114e+00 8.948218e+00 7.397860e+00 1.247969e+01 1.294055e+01 1.323023e+01 1.373725e+01 1.300725e+01 2.014875e+00 2.067524e-01 2.472087e-01 5.300924e-01 8.017223e-01 7.397298e-01 1.086154e+00 9.359225e-01 1.076772e+00 1.269691e+00 1.483082e+00 1.584949e+00 1.127572e+00 1.025988e-01 4.098186e-02 5.879601e-02 1.078129e-01 1.732610e-01 1.750877e-01 1.832585e-01 1.821790e-01 2.414518e-01 2.650010e-01 3.382175e-01 3.370520e-01 2.203766e-01 1.555913e-02
<GCONST> 6.627868e+01
<TRANSP> 5
 0.000000e+00 1.000000e+00 0.000000e+00 0.000000e+00 0.000000e+00
 0.000000e+00 8.396736e-01 1.603264e-01 0.000000e+00 0.000000e+00
 0.000000e+00 0.000000e+00 9.119868e-01 8.801316e-02 0.000000e+00
 0.000000e+00 0.000000e+00 0.000000e+00 9.158689e-01 8.413105e-02
 0.000000e+00 0.000000e+00 0.000000e+00 0.000000e+00 0.000000e+00
<ENDHMM>
~h "s"
<BEGINHMM>
<NUMSTATES> 5
<STATE> 2
<MEAN> 39
 -1.164545e+01 -1.065039e+01 -1.756706e+01 -1.441774e+01 -1.258376e+01 -1.484914e+01 -8.019135e+00 1.767245e+00 -1.239237e+00 4.361597e+00 4.393602e+00 4.326071e+00 3.407495e+01 5.798957e-02 2.686998e-01 -6.377507e-01 4.926384e-01 -2.147718e-01 9.890959e-02 3.887640e-01 -2.536938e-01 -6.190608e-01 -8.352887e-01 2.009303e-01 -1.224605e-01 8.715440e-02 -3.751129e-01 5.890152e-04 -2.331361e-01 2.469157e-01 -4.594849e-02 2.590532e-01 2.120217e-01 -3.787872e-01 -2.732807e-01 -3.753020e-01 2.011686e-03 -8.647507e-02 1.816761e-01
<VARIANCE> 39
 2.188097e+01 5.548707e+00 1.050930e+01 2.207994e+00 7.281920e+00 2.404416e+01 1.465615e+01 1.035799e+01 1.472186e+01 3.595847e+01 2.236450e+01 2.899129e+01 2.734255e+01 3.340963e-01 3.219938e-01 3.484677e-01 6.151586e-01 8.533580e-01 1.458297e+00 3.716114e+00 3.050939e+00 2.989042e+00 4.954609e-01 1.077849e+00 1.165654e+00 2.299800e-01 1.282195e-01 1.222819e-01 2.056661e-01 7.065995e-01 1.678253e-01 8.023533e-01 4.171227e-01 1.657099e-01 1.749074e-01 7.570050e-01 2.022934e-01 5.586572e-01 1.492388e-01
<GCONST> 8.702608e+01
<STATE> 3
<MEAN> 39
 -1.165318e+01 -9.391870e+00 -1.839233e+01 -1.520124e+01 -1.201810e+01 -1.516965e+01 -7.455834e+00 1.791026e-01 -2.597460e+00 1.957118e+00 5.534907e+00 5.382805e+00 3.413137e+01 -3.997989e-01 3.187419e-01 -8.304651e-01 7.653636e-01 -5.168204e-01 -1.478908e-02 3.879240e-01 -8.765220e-01 -9.233006e-01 -8.940352e-01 5.414247e-01 -3.014939e-01 3.046159e-01 -3.251197e-01 6.243517e-02 6.006623e-02 3.552159e-01 -1.576289e-01 1.595876e-01 1.218169e-01 -2.040943e-01 -4.368671e-02 1.226492e-01 2.928177e-02 -1.735165e-01 7.257206e-02
<VARIANCE> 39
 1.995817e+01 4.471621e+00 1.070811e+01 2.754297e+00 2.180214e+00 2.206504e+01 1.744284e+01 1.860032e+01 7.195125e+00 4.406087e+01 1.129608e+01 1.524452e+01 2.606726e+01 5.112044e-01 7.978435e-01 6.453273e-01 3.506556e+00 8.663757e-01 1.961890e+00 3.618679e+00 1.175032e+00 3.189761e+00 1.353823e+00 4.951887e-01 2.948268e+00 4.164404e-01 8.257195e-02 1.248785e-01 6.080604e-02 4.940497e-01 1.807996e-01 5.709270e-01 2.154122e-01 2.314711e-01 2.801003e-01 3.989767e-01 2.274269e-01 3.101548e-01 1.772573e-01
<GCONST> 8.631729e+01
<STATE> 4
<MEAN> 39
 -1.267962e+01 -9.137065e+00 -1.990899e+01 -1.442951e+01 -1.333892e+01 -1.369122e+01 -5.678181e+00 -2.712494e+00 -4.682652e+00 1.020760e+00 4.944278e+00 4.747738e+00 3.484504e+01 -6.162261e-01 5.490778e-01 -4.755946e-01 9.405017e-01 -7.353111e-01 5.167645e-01 9.530380e-01 -1.004989e+00 -6.804775e-01 -3.540466e-01 5.162540e-01 -4.901945e-01 2.392237e-01 -1.517713e-01 4.109427e-02 3.508603e-01 3.200965e-01 -3.314953e-02 -1.140630e-01 -1.618680e-01 9.325341e-02 2.709974e-01 5.429556e-01 1.071724e-01 -6.646280e-02 -6.381858e-02
<VARIANCE> 39
 2.642318e+01 1.317960e+01 1.105959e+01 1.596904e+01 7.192974e+00 4.048145e+01 4.399767e+01 1.858788e+01 1.643980e+01 1.606405e+01 1.137047e+01 1.841331e+01 2.215304e+01 5.769912e-01 1.016663e+00 4.808249e-01 5.222232e+00 8.871881e-01 1.462945e+00 1.718831e+00 1.769867e+00 2.762286e+00 2.398242e+00 1.021257e+00 3.348402e+00 1.181675e+00 4.038497e-02 2.776431e-01 1.141320e-01 2.331903e-01 1.041590e-01 4.283117e-01 4.726992e-01 3.950281e-01 8.083881e-01 9.171594e-02 1.683817e-01 2.317680e-01 9.479102e-02
<GCONST> 9.304458e+01
<TRANSP> 5
 0.000000e+00 1.000000e+00 0.000000e+00 0.000000e+00 0.000000e+00
 0.000000e+00 6.726046e-02 9.327396e-01 0.000000e+00 0.000000e+00
 0.000000e+00 0.000000e+00 1.834714e-06 9.999982e-01 0.000000e+00
 0.000000e+00 0.000000e+00 0.000000e+00 3.091170e-04 9.996909e-01
 0.000000e+00 0.000000e+00 0.000000e+00 0.000000e+00 0.000000e+00
<ENDHMM>
~h "t"
<BEGINHMM>
<NUMSTATES> 5
<STATE> 2
<MEAN> 39
 -1.158673e+01 -8.505278e+00 -1.714171e+01 -1.531569e+01 -1.314088e+01 -1.627656e+01 -1.303975e+01 2.999750e-01 9.633856e-01 4.786376e+00 5.853490e+00 3.802171e+00 3.274157e+01 -6.617054e-01 2.220122e-01 3.331146e-01 -2.574984e-01 -1.983281e-01 -3.157886e-01 4.542730e-01 6.076111e-02 -1.074367e+00 -5.342212e-01 3.312062e-01 3.408523e-01 -4.716961e-01 2.577545e-01 -3.340511e-01 -2.696777e-01 -9.637044e-02 4.155245e-02 3.513354e-01 4.034942e-01 -3.928002e-01 -1.929942e-01 2.997664e-02 -9.960324e-02 -7.966011e-02 3.504973e-01
<VARIANCE> 39
 5.235870e+00 7.934021e+00 1.067296e+01 1.165368e+01 1.342071e+00 7.536255e+00 1.393765e+01 6.846611e+00 1.461036e+01 1.044778e+01 5.442990e+00 4.486768e+00 1.753948e+00 4.224674e-01 1.366457e-01 2.704203e-01 4.846457e-01 1.439865e+00 6.180223e-01 1.484409e+00 1.507484e+00 1.746564e+00 1.810553e+00 8.579883e-01 1.910845e+00 1.704568e-01 5.738767e-02 2.416689e-01 1.452426e-01 1.839819e-01 8.779764e-02 2.913485e-01 7.845874e-01 8.800955e-02 6.654524e-01 3.184068e-01 1.835227e-01 2.206640e-01 1.238638e-01
<GCONST> 7.047993e+01
<STATE> 3
<MEAN> 39
 -1.259708e+01 -8.689230e+00 -1.719584e+01 -1.572114e+01 -1.330782e+01 -1.504539e+01 -9.304597e+00 1.105322e+00 5.668700e-01 3.641411e+00 4.877579e+00 2.791912e+00 3.228761e+01 -2.803923e-01 5.475856e-02 2.486698e-02 -2.368401e-01 -2.218762e-01 3.555615e-01 9.382071e-01 -2.046822e-01 -6.186532e-01 -1.208153e-01 6.350798e-01 1.815769e-01 -2.566463e-01 3.322072e-01 -5.644838e-01 -4.029770e-01 4.256563e-02 -5.062445e-02 2.431204e-01 4.088413e-01 -2.334272e-01 -1.984274e-01 4.391959e-02 7.143253e-02 3.165375e-02 4.815743e-01
<VARIANCE> 39
 3.355931e+00 6.736941e+00 3.715560e+00 3.547275e+00 7.671668e+00 1.611043e+01 1.554677e+01 9.923505e+00 8.401665e+00 9.434899e+00 1.280140e+01 6.903578e+00 1.015951e+00 1.047349e-01 2.296635e-01 5.039194e-01 6.268920e-01 4.223236e-01 7.937735e-01 2.124109e+00 7.417710e-01 1.343750e+00 1.949502e+00 8.443561e-01 4.050190e-01 4.376505e-02 1.061004e-01 2.980533e-01 4.758685e-02 1.160721e-01 6.299347e-02 2.499920e-01 3.069923e-01 2.948083e-01 3.763047e-01 9.808030e-02 9.482567e-02 1.170878e-01 1.646672e-01
<GCONST> 6.253360e+01
<STATE> 4
<MEAN> 39
 -1.261254e+01 -8.847078e+00 -1.711498e+01 -1.587016e+01 -1.251915e+01 -1.421227e+01 -9.671947e+00 -1.932253e-01 -2.893737e-01 3.218420e+00 3.847975e+00 3.712453e+00 3.221605e+01 1.513210e-01 -1.114850e+00 -1.008798e+00 -2.260645e-01 -6.246533e-01 5.841665e-01 1.930129e+00 -6.056722e-01 -1.114721e+00 -1.849617e-01 4.794804e-01 2.543154e-01 6.162496e-01 2.649420e-01 -3.771630e-01 -1.948657e-01 1.467096e-01 -4.055983e-02 1.129538e-01 1.610904e-01 -1.531799e-01 -1.121418e-01 1.575446e-02 8.223960e-02 1.393095e-01 3.982343e-01
<VARIANCE> 39
 3.470287e+00 5.714521e+00 5.019443e+00 3.407455e+00 1.047401e+01 1.514267e+01 2.418499e+01 4.363374e+00 1.867203e+01 8.132244e+00 5.464183e+00 3.238464e+00 1.282782e+00 3.944474e-01 1.876868e+00 1.102822e+00 1.142272e+00 8.315552e-01 1.100352e+00 1.214861e+00 7.631221e-01 4.518278e+00 6.356828e-01 2.480933e+00 7.606949e-01 4.108718e-01 1.121336e-01 1.596696e-01 2.359538e-02 1.703876e-01 6.810266e-02 1.207027e-01 4.532725e-01 2.855194e-01 2.940583e-01 1.223763e-01 1.463512e-01 1.762318e-01 1.491497e-01
<GCONST> 7.067066e+01
<TRANSP> 5
 0.000000e+00 1.000000e+00 0.000000e+00 0.000000e+00 0.000000e+00
 0.000000e+00 7.130858e-06 9.999928e-01 0.000000e+00 0.000000e+00
 0.000000e+00 0.000000e+00 1.139644e-01 8.860356e-01 0.000000e+00
 0.000000e+00 0.000000e+00 0.000000e+00 4.043774e-04 9.995956e-01
 0.000000e+00 0.000000e+00 0.000000e+00 0.000000e+00 0.000000e+00
<ENDHMM>
~h "#N"
<BEGINHMM>
<NUMSTATES> 5
<STATE> 2
<MEAN> 39
 -1.043611e+01 -1.048380e+01 -1.790405e+01 -1.457664e+01 -1.188113e+01 -1.447737e+01 -8.861897e+00 -4.968315e-01 -2.606780e+00 5.356434e+00 3.499501e+00 4.397847e+00 3.724471e+01 1.960201e-01 5.069769e-02 4.190232e-02 4.202235e-03 -8.796929e-02 -7.527245e-02 -1.450074e-01 -1.553768e-01 -3.788776e-02 1.595713e-01 1.349767e-01 -2.672105e-02 2.703947e-02 -1.336547e-02 -7.368486e-04 -2.694950e-02 -6.228262e-03 3.302664e-02 4.607833e-02 5.847066e-03 -4.399249e-02 -1.666789e-02 8.023531e-03 2.396682e-02 1.048475e-02 1.436545e-02
<VARIANCE> 39
 3.645399e+01 1.881132e+01 3.310826e+01 2.393451e+01 2.553228e+01 3.334710e+01 3.487761e+01 2.407298e+01 4.661258e+01 3.538915e+01 2.492765e+01 1.789520e+01 4.031347e+01 2.092447e+00 2.149759e+00 1.828382e+00 1.736872e+00 1.757624e+00 2.960917e+00 3.864945e+00 2.227091e+00 3.691741e+00 3.215366e+00 2.178579e+00 1.529139e+00 1.673095e+00 3.097071e-01 4.152983e-01 3.150195e-01 2.947381e-01 3.489500e-01 5.454534e-01 6.893540e-01 3.867579e-01 6.367696e-01 5.882021e-01 3.936495e-01 2.760304e-01 2.227928e-01
<GCONST> 1.141099e+02
<STATE> 3
<MEAN> 39
 -6.521792e+00 -1.182524e+01 -1.946216e+01 -1.685916e+01 -1.053029e+01 -1.201240e+01 -9.636803e+00 -1.999479e+00 -3.086173e+00 8.469634e+00 6.217032e+00 1.320955e+00 3.999133e+01 -5.378540e-02 7.398663e-04 -1.767985e-02 -1.161101e-02 3.034203e-02 2.815126e-02 2.249517e-02 4.117033e-02 2.937924e-02 -3.016056e-02 -3.415798e-02 -8.141414e-03 -4.199302e-02 -6.580452e-03 -3.972627e-03 7.974311e-03 5.061305e-03 -1.135848e-02 -7.936628e-03 7.167092e-03 1.135112e-02 1.884258e-04 -1.201620e-02 -5.047269e-03 4.345046e-04 -2.584873e-03
<VARIANCE> 39
 6.489326e+01 3.093064e+01 1.669139e+01 4.595042e+01 2.352883e+01 2.438042e+01 3.321505e+01 6.128296e+01 5.675420e+01 5.567962e+01 6.954723e+01 3.569787e+01 5.309903e+01 2.091063e+00 1.950237e+00 1.169021e+00 2.445826e+00 1.541772e+00 1.893907e+00 2.789065e+00 2.879943e+00 2.709300e+00 3.446968e+00 3.486041e+00 2.474984e+00 1.774609e+00 2.680708e-01 2.962455e-01 2.097115e-01 3.443449e-01 2.724971e-01 3.304248e-01 4.973924e-01 4.053237e-01 4.188437e-01 5.918471e-01 4.524629e-01 4.331131e-01 1.847390e-01
<GCONST> 1.164327e+02
<STATE> 4
<MEAN> 39
 -1.436733e+01 -9.041486e+00 -1.744987e+01 -1.560158e+01 -1.133134e+01 -1.099795e+01 -7.524273e+00 -7.357040e-01 -1.749514e+00 2.698377e+00 5.270802e+00 4.241361e+00 3.100980e+01 -1.318806e-02 2.526201e-02 3.194538e-02 4.274842e-03 -2.256932e-02 -1.107732e-03 5.822364e-03 8.701997e-03 -5.838603e-03 -3.279136e-02 -3.286001e-02 7.733942e-04 -1.526679e-02 2.915909e-03 -2.053950e-03 -2.497789e-03 5.106772e-03 1.227304e-02 5.070295e-03 -8.777522e-03 -8.504449e-03 -3.656179e-03 -8.490623e-03 -1.277753e-02 -9.287219e-03 4.087633e-03
<VARIANCE> 39
 8.049849e-01 2.078547e+00 3.696242e+00 3.728321e+00 5.584588e+00 7.404858e+00 8.546940e+00 1.049586e+01 1.140422e+01 9.683854e+00 1.035844e+01 9.575719e+00 4.860256e-01 6.972281e-02 2.262041e-01 4.026954e-01 4.000759e-01 4.874853e-01 6.547304e-01 8.876938e-01 9.524125e-01 1.196831e+00 9.561673e-01 9.965861e-01 1.000142e+00 4.856278e-02 1.428451e-02 4.737204e-02 8.547574e-02 8.431854e-02 9.483525e-02 1.312327e-01 1.711901e-01 1.718131e-01 2.489380e-01 1.980594e-01 1.876516e-01 1.904195e-01 1.064631e-02
<GCONST> 5.040776e+01
<TRANSP> 5
 0.000000e+00 1.000000e+00 0.000000e+00 0.000000e+00 0.000000e+00
 0.000000e+00 9.866667e-01 1.333333e-02 0.000000e+00 0.000000e+00
 0.000000e+00 0.000000e+00 9.958506e-01 4.149377e-03 0.000000e+00
 0.000000e+00 0.000000e+00 0.000000e+00 9.910448e-01 8.955222e-03
 0.000000e+00 0.000000e+00 0.000000e+00 0.000000e+00 0.000000e+00
<ENDHMM>
~h "ah"
<BEGINHMM>
<NUMSTATES> 5
<STATE> 2
<NUMMIXES> 3
<MIXTURE> 1 9.575570e-02
<MEAN> 39
 -1.583735e+01 -5.824704e+00 -1.917853e+01 -8.949212e+00 -1.037814e+01 -1.422942e+01 -1.826224e+00 -5.047264e+00 -6.736333e+00 5.878159e+00 7.075305e+00 3.001548e+00 3.934966e+01 2.727543e+00 -1.418910e-02 3.668144e-01 -1.794054e+00 1.583087e+00 2.386718e-01 -1.293499e+00 1.546538e+00 1.621569e+00 1.465004e+00 2.684409e-02 4.374906e-01 1.039984e+00 6.482970e-01 -4.925292e-01 -2.343307e-01 -5.500568e-01 2.690689e-01 -9.714241e-02 -5.519550e-01 4.836859e-01 4.715154e-01 7.543982e-01 -3.041800e-01 1.451392e-01 4.474333e-01
<VARIANCE> 39
 7.043187e+01 2.032861e+01 1.432819e+01 4.662896e+01 4.390397e+01 3.781829e+01 2.128231e+01 3.784134e+01 7.367715e+01 3.516208e+01 3.400109e+01 1.262748e+01 7.869440e+00 8.066598e+00 2.084448e+00 1.139930e+00 3.569042e+00 2.170329e+00 2.371429e+00 5.610467e+00 3.663826e+00 2.168619e+00 4.177279e+00 2.441220e+00 2.406421e+00 2.211290e+00 9.459087e-01 5.329283e-01 1.717860e-01 5.437092e-01 4.969127e-01 3.965453e-01 6.419873e-01 7.144010e-01 4.986815e-01 5.315478e-01 2.369516e-01 2.955525e-01 2.634749e-01
<GCONST> 1.184143e+02
<MIXTURE> 2 4.587691e-01
<MEAN> 39
 -1.735018e+01 -7.349329e+00 -2.204723e+01 -7.415000e+00 -1.269866e+01 -1.451766e+01 -3.205310e+00 -4.522798e+00 -5.559345e+00 5.329522e+00 7.238389e+00 1.822158e+00 3.723877e+01 6.355819e-01 -2.281813e-01 -2.817596e-01 -3.839210e-01 2.280799e-01 -4.297071e-01 -3.121350e-01 -2.456370e-02 3.354481e-02 6.865699e-01 -3.844267e-01 -1.444732e-01 8.676979e-01 3.050679e-01 -1.277211e-01 1.559538e-01 -3.962469e-01 -1.825660e-02 -5.567288e-02 -2.749327e-01 2.431556e-01 1.568405e-01 9.276038e-02 -2.473748e-01 7.075214e-02 8.958240e-02
<VARIANCE> 39
 4.574099e+01 9.906028e+00 1.311792e+01 7.166147e+01 2.729262e+01 2.159213e+01 3.581510e+01 2.270680e+01 4.348166e+01 2.558243e+01 2.098440e+01 1.710462e+01 1.230604e+01 5.625363e+00 1.631053e+00 1.125072e+00 7.240010e+00 1.748652e+00 1.276153e+00 3.905422e+00 3.391861e+00 5.923259e+00 4.364486e+00 2.067885e+00 1.935237e+00 1.475401e+00 5.858861e-01 2.934036e-01 2.441604e-01 7.231448e-01 3.472323e-01 2.972632e-01 5.056880e-01 5.266981e-01 6.697655e-01 7.399246e-01 2.463153e-01 3.769186e-01 1.902214e-01
<GCONST> 1.140280e+02
<MIXTURE> 3 4.454751e-01
<MEAN> 39
 -1.639452e+01 -6.785341e+00 -2.124142e+01 -8.386557e+00 -1.199616e+01 -1.443158e+01 -2.830428e+00 -3.956115e+00 -5.806483e+00 5.718489e+00 7.215916e+00 2.343542e+00 3.820677e+01 1.449194e+00 -2.250398e-01 1.644049e-02 -8.827335e-01 6.283184e-01 -2.165059e-01 -7.473628e-01 5.758269e-01 8.642621e-01 1.053937e+00 -2.134322e-01 1.385144e-01 9.365659e-01 4.170680e-01 -2.529807e-01 4.017540e-02 -3.775511e-01 8.037056e-02 -8.518213e-02 -3.489976e-01 2.353962e-01 2.993392e-01 3.722723e-01 -2.577784e-01 7.544906e-02 2.148882e-01
<VARIANCE> 39
 6.572080e+01 1.198527e+01 1.194777e+01 6.509529e+01 3.152073e+01 3.042040e+01 2.940576e+01 2.776259e+01 5.239499e+01 3.199818e+01 2.734100e+01 1.646237e+01 1.175878e+01 7.874042e+00 1.773069e+00 1.051402e+00 7.298538e+00 1.999805e+00 1.652493e+00 4.804680e+00 3.230190e+00 4.098698e+00 4.682598e+00 2.392123e+00 2.287190e+00 1.824073e+00 7.612877e-01 3.953392e-01 2.072168e-01 6.217762e-01 3.580843e-01 3.224908e-01 5.240777e-01 5.594296e-01 5.026537e-01 7.283198e-01 2.729973e-01 3.658548e-01 2.455080e-01
<GCONST> 1.170899e+02
<STATE> 3
<NUMMIXES> 3
<MIXTURE> 1 9.574623e-02
<MEAN> 39
 1.707658e-01 -1.508530e+01 -2.002942e+01 -2.257271e+01 -6.298621e+00 -1.416638e+01 -1.334968e+01 3.593734e+00 4.448702e+00 1.641483e+01 4.486570e-01 3.565300e+00 4.916963e+01 9.651036e-02 -5.660179e-01 7.731571e-01 2.903239e-01 6.036401e-01 6.475872e-01 7.709052e-02 1.008678e+00 1.078725e+00 3.109057e-01 -5.432883e-01 -2.124329e-01 7.278569e-02 -4.394309e-01 3.541856e-01 2.080689e-01 5.786216e-01 -7.522864e-02 1.237493e-01 3.324963e-01 -1.732189e-01 -5.992868e-02 -3.846706e-01 2.826725e-01 -4.107351e-02 -4.681221e-01
<VARIANCE> 39
 9.897541e+00 2.356429e+01 9.312030e+00 1.308589e+01 1.186263e+01 2.319769e+01 2.588369e+01 2.331402e+01 4.644687e+01 2.083970e+01 7.047357e+01 4.248346e+01 2.370022e+01 1.374879e+00 4.096139e+00 7.799907e-01 2.903379e+00 1.317575e+00 1.805236e+00 2.010480e+00 2.765000e+00 1.341127e+00 2.728074e+00 2.938756e+00 2.842189e+00 2.571880e+00 3.907857e-01 3.550108e-01 1.048087e-01 4.920090e-01 2.264967e-01 3.144720e-01 6.611789e-01 4.649899e-01 3.774056e-01 5.514307e-01 4.878072e-01 5.767763e-01 1.687366e-01
<GCONST> 1.081105e+02
<MIXTURE> 2 4.560739e-01
<MEAN> 39
 -1.937725e+00 -1.406794e+01 -1.954819e+01 -2.044384e+01 -8.393344e+00 -1.377815e+01 -1.532333e+01 1.867652e+00 6.886015e+00 1.344726e+01 -9.271938e-01 1.668252e+00 4.515998e+01 -6.790414e-01 2.744697e-01 1.076662e-01 1.077235e-01 -5.139093e-01 -1.528663e-01 -5.813715e-01 -2.158774e-01 5.954114e-01 -5.202122e-01 -2.812550e-01 -3.827137e-01 -1.015382e+00 -3.432342e-01 7.165586e-02 -5.396021e-02 1.153165e-01 -1.175710e-01 -8.272537e-04 2.893020e-01 -6.484036e-02 -3.038776e-01 -2.542402e-01 2.212173e-01 2.426899e-02 -2.506665e-01
<VARIANCE> 39
 2.202613e+01 2.728008e+01 1.109787e+01 2.106068e+01 1.810812e+01 2.009442e+01 3.746177e+01 2.241255e+01 3.928136e+01 3.138280e+01 2.805199e+01 3.440556e+01 4.399483e+01 1.817824e+00 3.040704e+00 8.031193e-01 2.379531e+00 1.467492e+00 1.112136e+00 3.785500e+00 2.782578e+00 2.002047e+00 2.677242e+00 2.834913e+00 2.722597e+00 3.009638e+00 3.006632e-01 3.909442e-01 1.739916e-01 4.338604e-01 3.451447e-01 2.573586e-01 7.404721e-01 5.950261e-01 4.058415e-01 4.228131e-01 4.345872e-01 7.861999e-01 2.038499e-01
<GCONST> 1.115667e+02
<MIXTURE> 3 4.481795e-01
<MEAN> 39
 -1.056241e+00 -1.462567e+01 -1.953478e+01 -2.124686e+01 -7.632087e+00 -1.364696e+01 -1.411343e+01 2.601185e+00 5.930543e+00 1.432511e+01 -3.114157e-01 2.414389e+00 4.663687e+01 -3.943582e-01 6.423499e-02 3.731427e-01 3.583908e-01 -9.818812e-02 1.360246e-01 -2.315609e-01 3.030826e-01 7.023942e-01 -1.656899e-01 -2.000187e-01 -3.162369e-01 -5.945830e-01 -3.756700e-01 1.865916e-01 2.409260e-02 2.629827e-01 -9.613343e-02 3.239514e-02 2.687872e-01 -1.163313e-01 -2.241622e-01 -2.714162e-01 2.391463e-01 -1.358929e-02 -3.260769e-01
<VARIANCE> 39
 1.823568e+01 2.775048e+01 9.485843e+00 2.038521e+01 1.545226e+01 2.259261e+01 3.335263e+01 2.287100e+01 4.323315e+01 3.096448e+01 4.411857e+01 3.668783e+01 3.990516e+01 1.647396e+00 3.669866e+00 8.308107e-01 2.363537e+00 1.371934e+00 1.575702e+00 3.077361e+00 2.628103e+00 1.774420e+00 2.355472e+00 3.086978e+00 2.782832e+00 2.914467e+00 3.057431e-01 3.771017e-01 1.420050e-01 4.691081e-01 2.949122e-01 2.687151e-01 6.918464e-01 5.637161e-01 4.031383e-01 4.813821e-01 4.616415e-01 6.608707e-01 1.817467e-01
<GCONST> 1.110444e+02
<STATE> 4
<NUMMIXES> 3
<MIXTURE> 1 1.100192e-01
<MEAN> 39
 -1.122050e+01 -9.254195e+00 -1.907113e+01 -1.738823e+01 -1.077868e+01 -1.266479e+01 -1.039124e+01 1.419244e+00 5.811851e+00 6.768700e+00 2.376124e+00 2.356354e+00 3.350010e+01 -1.013330e+00 -7.358909e-02 1.325246e-01 8.665812e-01 -1.755759e-03 1.109507e+00 2.769766e+00 3.202809e-01 -3.135988e+00 -8.265972e-01 2.269096e+00 4.469531e-01 -8.224204e-01 3.014297e-01 -3.415086e-01 3.484160e-02 1.735176e-01 2.684903e-01 2.915277e-01 2.502752e-01 -1.415270e-01 -3.443209e-01 -3.187963e-02 -9.137846e-02 3.324928e-01 6.255617e-01
<VARIANCE> 39
 5.027545e+00 2.681265e+00 4.230331e+00 8.426490e+00 2.572186e+00 7.064022e+00 1.177661e+01 7.740763e+00 4.120520e+01 9.605447e+00 9.697570e+00 5.365281e+00 2.794682e+00 3.638558e-01 7.203252e-01 3.249893e-01 6.920674e-01 7.758757e-01 2.341354e+00 2.810053e+00 1.369398e+00 2.404041e+00 7.699226e-01 1.474566e+00 5.953533e-01 6.512334e-01 3.720592e-02 3.437977e-01 2.370067e-01 2.550539e-01 1.246301e-01 1.630382e-01 1.237058e-01 1.629010e-01 4.735557e-01 4.809290e-01 1.166404e-01 2.176597e-01 9.561186e-02
<GCONST> 7.292889e+01
<MIXTURE> 2 4.484752e-01
<MEAN> 39
 -1.154120e+01 -9.206342e+00 -1.833857e+01 -1.623601e+01 -1.191755e+01 -1.443745e+01 -1.231279e+01 3.424186e-01 4.115796e+00 5.543852e+00 2.593516e+00 1.881200e+00 3.322923e+01 -1.088464e+00 -3.136600e-01 -5.527242e-02 3.877362e-02 -4.952399e-01 6.117646e-02 1.262261e+00 -8.901297e-02 -1.667951e+00 -1.088339e+00 9.416211e-01 7.305643e-01 -7.321080e-01 2.504413e-01 -2.578000e-01 -8.049951e-02 -4.271723e-02 5.459050e-02 1.073819e-01 1.858287e-01 -2.277020e-01 -3.787903e-01 1.031036e-02 -4.765349e-02 3.664287e-01 4.152464e-01
<VARIANCE> 39
 4.961427e+00 5.868854e+00 8.003805e+00 5.905752e+00 5.789259e+00 1.336388e+01 2.453961e+01 1.115031e+01 2.774748e+01 2.590666e+01 1.929761e+01 1.120803e+01 1.925155e+00 6.612054e-01 7.675147e-01 3.566633e-01 6.928269e-01 7.940727e-01 1.621996e+00 2.054257e+00 1.441912e+00 3.576707e+00 1.727758e+00 1.596620e+00 1.723291e+00 6.753361e-01 4.294033e-02 1.489795e-01 1.344573e-01 1.355452e-01 1.906078e-01 3.044837e-01 3.906417e-01 2.442396e-01 3.039015e-01 4.439099e-01 2.693719e-01 2.745959e-01 8.110592e-02
<GCONST> 8.180516e+01
<MIXTURE> 3 4.415055e-01
<MEAN> 39
 -1.196354e+01 -9.188662e+00 -1.814409e+01 -1.602625e+01 -1.166840e+01 -1.389081e+01 -1.159570e+01 7.877356e-01 3.854644e+00 5.698174e+00 3.506959e+00 2.706233e+00 3.289079e+01 -8.916287e-01 -3.412617e-01 -3.233128e-02 3.408781e-01 -2.602162e-01 1.496169e-01 1.395554e+00 9.850644e-03 -2.033874e+00 -1.030109e+00 1.356865e+00 8.723519e-01 -5.996333e-01 2.739863e-01 -3.131348e-01 -7.810709e-02 4.420928e-02 1.461632e-01 2.053032e-01 2.978078e-01 -1.849347e-01 -3.069132e-01 6.619852e-02 -1.091282e-01 2.370210e-01 4.888904e-01
<VARIANCE> 39
 4.404861e+00 4.742038e+00 5.261953e+00 6.292336e+00 5.290362e+00 1.224338e+01 1.856497e+01 9.732447e+00 2.729687e+01 1.948458e+01 1.386768e+01 8.318034e+00 1.876742e+00 5.108905e-01 7.619826e-01 3.612351e-01 7.000056e-01 7.149622e-01 2.404067e+00 2.618124e+00 1.508987e+00 4.156056e+00 1.859140e+00 1.689536e+00 1.331509e+00 6.978573e-01 4.571699e-02 1.960824e-01 1.369059e-01 1.694005e-01 1.719004e-01 3.217286e-01 2.600507e-01 1.808084e-01 3.489532e-01 5.202528e-01 2.240951e-01 2.781096e-01 1.019979e-01
<GCONST> 8.013563e+01
<TRANSP> 5
 0.000000e+00 1.000000e+00 0.000000e+00 0.000000e+00 0.000000e+00
 0.000000e+00 8.136625e-01 1.863375e-01 0.000000e+00 0.000000e+00
 0.000000e+00 0.000000e+00 8.631119e-01 1.368881e-01 0.000000e+00
 0.000000e+00 0.000000e+00 0.000000e+00 5.064251e-01 4.935749e-01
 0.000000e+00 0.000000e+00 0.000000e+00 0.000000e+00 0.000000e+00
<ENDHMM>
~h "uh"
<BEGINHMM>
<NUMSTATES> 5
<STATE> 2
<NUMMIXES> 3
<MIXTURE> 1 1.034938e-01
<MEAN> 39
 -1.240030e+01 -8.421284e+00 -1.599204e+01 -1.638658e+01 -1.393707e+01 -1.575586e+01 -9.779040e+00 1.348516e+00 1.693753e+00 5.744855e+00 8.405395e+00 1.310042e+00 3.235775e+01 4.368639e-02 -3.554825e+00 -1.185685e+00 5.492539e-01 -2.017635e+00 -2.060966e-01 3.982779e+00 -2.509086e-01 -3.138778e+00 -8.721421e-01 1.600329e+00 2.192662e+00 2.059733e+00 5.079033e-01 1.919267e-01 4.996148e-01 3.651781e-01 3.985088e-01 1.894275e-01 -4.354879e-02 -6.194467e-02 -4.125075e-01 6.449948e-02 -3.560036e-01 2.971681e-01 4.373036e-01
<VARIANCE> 39
 6.434483e+00 7.450067e+00 2.363234e+00 2.809152e+00 6.858797e-01 1.288297e+00 1.250659e+00 4.474796e+00 8.237343e+00 6.282141e+00 1.724845e+01 1.344391e+01 2.012845e+00 6.884823e-01 6.083869e-01 3.471570e-01 2.997329e-01 8.572974e-01 1.055020e-01 1.750695e+00 8.458758e-01 6.046396e-01 9.336835e-01 1.334148e-01 1.049992e+00 2.563784e-01 8.376534e-02 4.860738e-02 4.290629e-02 8.097762e-02 8.867329e-02 1.627173e-01 3.199504e-01 5.045615e-02 1.503224e-01 1.545160e-01 7.984003e-02 5.082210e-02 6.333647e-02
<GCONST> 4.852916e+01
<MIXTURE> 2 4.488296e-01
<MEAN> 39
 -1.247490e+01 -8.932013e+00 -1.788595e+01 -1.642814e+01 -1.458708e+01 -1.331658e+01 -7.753324e+00 -4.181230e-01 -9.121817e-01 4.297565e+00 6.128911e+00 4.086898e+00 3.207766e+01 3.977702e-01 -7.463377e-01 -1.077139e+00 -1.565825e-01 -1.673366e-01 7.955859e-01 7.508210e-01 -1.122761e+00 -8.859269e-01 -2.900856e-01 1.968338e-01 -2.537095e-02 6.378083e-01 1.039855e-01 -4.789647e-03 1.505108e-01 8.081259e-02 1.423662e-01 -9.305206e-02 -4.958409e-01 -8.123254e-02 7.407780e-02 4.017732e-02 -1.545342e-03 4.002077e-03 1.368796e-01
<VARIANCE> 39
 3.357701e+00 5.180905e+00 2.761476e+00 4.014443e+00 1.009843e+01 2.344535e+00 5.048883e+00 4.716652e+00 5.732975e+00 1.307025e+01 1.356334e+01 3.155368e+00 1.285991e+00 3.639768e-01 2.660964e+00 9.525369e-01 7.903132e-01 9.261565e-01 1.550098e+00 2.733052e+00 1.222808e+00 3.802130e+00 1.204147e+00 2.514677e+00 2.376309e+00 9.079845e-01 9.458404e-02 1.261232e-01 5.629358e-02 7.412879e-02 1.385889e-01 7.426731e-02 1.213847e-01 2.040665e-01 5.611836e-02 1.839593e-01 2.955385e-01 9.600007e-02 5.335055e-02
<GCONST> 6.681426e+01
<MIXTURE> 3 4.476765e-01
<MEAN> 39
 -1.208920e+01 -8.135910e+00 -1.739825e+01 -1.675167e+01 -1.370105e+01 -1.459240e+01 -8.691894e+00 -3.314377e-01 -4.144851e-01 5.572755e+00 8.249990e+00 3.847260e+00 3.247299e+01 4.351469e-01 -2.082993e+00 -1.288085e+00 1.298639e-01 -7.628797e-01 1.665879e-01 1.932336e+00 -9.371511e-01 -1.999845e+00 -6.343230e-01 1.110201e+00 1.016735e+00 1.343801e+00 3.345009e-01 -6.345453e-04 2.922573e-01 2.115298e-01 1.449072e-01 -4.641998e-02 -4.502058e-01 -1.802267e-02 -3.052702e-02 2.911068e-02 -2.150508e-01 1.188647e-01 3.029351e-01
<VARIANCE> 39
 7.149341e+00 8.493636e+00 4.183142e+00 4.214624e+00 4.759364e+00 2.860018e+00 5.553104e+00 5.772305e+00 1.093491e+01 1.406166e+01 2.089503e+01 7.737641e+00 2.383544e+00 7.175373e-01 3.316180e+00 8.689186e-01 1.055051e+00 1.443368e+00 1.037916e+00 4.181420e+00 8.977026e-01 4.010712e+00 1.627416e+00 1.481008e+00 2.297641e+00 1.154624e+00 1.382172e-01 8.622207e-02 7.724878e-02 1.059504e-01 1.381267e-01 1.096868e-01 1.950535e-01 1.126049e-01 1.508491e-01 2.188904e-01 2.732072e-01 7.985187e-02 8.772702e-02
<GCONST> 7.455979e+01
<STATE> 3
<NUMMIXES> 3
<MIXTURE> 1 1.010103e-01
<MEAN> 39
 -1.354379e+01 -1.980559e+01 -2.192591e+01 -1.411889e+01 -1.976812e+01 -1.655687e+01 1.586920e+00 -1.584894e+00 -5.872122e+00 2.122961e+00 9.929195e+00 9.978138e+00 3.888490e+01 1.193854e+00 -3.069052e-01 1.906963e+00 1.163632e+00 4.118696e-01 4.063742e-01 1.570143e+00 -5.108495e-02 -2.655196e+00 -1.210288e-01 3.419566e-01 1.869985e+00 1.789255e+00 9.079605e-01 1.361628e+00 9.059066e-01 -3.281998e-01 7.039530e-01 2.569311e-02 -1.910273e+00 -3.896128e-01 2.723778e-01 7.435122e-01 -2.651753e-01 -6.499310e-01 -8.202652e-02
<VARIANCE> 39
 1.611271e+00 1.041666e+01 1.398257e+00 1.028920e+01 9.117479e+00 4.377726e+00 2.094517e+01 4.693202e+00 1.357724e+01 7.052238e+00 1.601905e+01 1.847505e+01 6.232178e+00 1.195557e+00 1.383412e+00 1.241438e+00 9.309347e-01 9.330968e-01 2.865317e-01 3.590528e+00 4.625157e-01 1.573024e+00 8.814191e-01 9.334267e-01 7.436215e-01 9.095117e-01 1.497531e-01 2.375187e-01 1.173245e-01 2.866246e-01 2.679561e-01 9.313641e-02 5.432464e-01 3.797890e-01 1.589087e-01 1.576860e-01 2.796280e-01 2.345744e-01 1.928795e-02
<GCONST> 7.486639e+01
<MIXTURE> 2 3.911851e-01
<MEAN> 39
 -1.048385e+01 -1.447486e+01 -2.201623e+01 -1.721273e+01 -1.581598e+01 -1.421454e+01 -3.681664e+00 -2.939838e+00 -5.242470e+00 4.081418e+00 8.088091e+00 6.344824e+00 3.623222e+01 7.787462e-01 -5.130457e-01 1.526427e-01 2.413937e-01 -1.328750e-01 2.912127e-01 2.564205e-01 -4.242226e-01 -8.557388e-01 -2.482883e-01 2.928669e-01 4.193356e-01 9.359580e-01 1.964158e-01 5.962229e-01 6.610088e-01 1.785140e-01 1.896535e-01 -1.770047e-01 -9.844394e-01 3.709205e-02 4.167472e-01 3.282005e-01 -2.082203e-01 -2.151369e-01 -9.194712e-02
<VARIANCE> 39
 1.986258e+01 2.385102e+01 5.431299e+00 1.272085e+01 8.215296e+00 1.088709e+01 1.296636e+01 1.139175e+01 4.705468e+01 1.295176e+01 3.389496e+01 2.066085e+01 1.785987e+01 8.935299e-01 1.636950e+00 2.426216e+00 7.961018e-01 5.261070e-01 4.159550e-01 1.951600e+00 1.090884e+00 2.912352e+00 7.790837e-01 1.523924e+00 2.406769e+00 9.309776e-01 2.093401e-01 5.573962e-01 2.256803e-01 3.063905e-01 1.630758e-01 1.262821e-01 5.023159e-01 2.106148e-01 6.011241e-01 2.597941e-01 4.475719e-01 3.357579e-01 2.251012e-02
<GCONST> 9.123618e+01
<MIXTURE> 3 5.078046e-01
<MEAN> 39
 -1.213073e+01 -1.611456e+01 -2.197490e+01 -1.602886e+01 -1.684119e+01 -1.475904e+01 -2.260695e+00 -2.420812e+00 -4.620641e+00 3.414098e+00 8.327890e+00 7.435684e+00 3.685259e+01 8.784800e-01 -4.111431e-01 8.336483e-01 5.039264e-01 2.961864e-02 2.815427e-01 6.735665e-01 -1.865359e-01 -1.377326e+00 -2.143089e-01 3.696799e-01 1.000974e+00 1.236372e+00 4.661866e-01 8.071405e-01 7.627949e-01 -2.866411e-02 3.125319e-01 -9.534743e-02 -1.218191e+00 -1.885438e-02 2.752876e-01 4.463613e-01 -2.415924e-01 -3.268348e-01 -7.336167e-02
<VARIANCE> 39
 1.014309e+01 2.599633e+01 3.758451e+00 1.592232e+01 1.221802e+01 9.535409e+00 2.175708e+01 9.144734e+00 3.535121e+01 1.268231e+01 3.131056e+01 2.469548e+01 1.521076e+01 1.045519e+00 1.242704e+00 2.444895e+00 1.067072e+00 6.784672e-01 3.982648e-01 2.981834e+00 8.497763e-01 3.562752e+00 8.728515e-01 1.503625e+00 2.264936e+00 1.222291e+00 3.052231e-01 6.182170e-01 2.271013e-01 3.975201e-01 2.589347e-01 1.240693e-01 7.094683e-01 3.003874e-01 4.413911e-01 2.961712e-01 4.291473e-01 3.506785e-01 2.092391e-02
<GCONST> 9.342361e+01
<STATE> 4
<NUMMIXES> 3
<MIXTURE> 1 9.729411e-02
<MEAN> 39
 -1.224861e+01 -1.051324e+01 -1.038848e+01 -8.614771e+00 -1.169644e+01 -1.251084e+01 -1.229905e+00 2.380287e+00 -5.709856e+00 3.046310e+00 6.294214e+00 9.588913e+00 3.482005e+01 2.587250e+00 2.645388e+00 3.078668e+00 5.132021e-01 1.545631e+00 4.141075e-01 -4.374496e+00 -2.148351e+00 -1.048730e+00 1.591935e+00 7.273804e-01 -7.223225e-01 1.087844e+00 7.319659e-01 2.968863e-01 -5.062643e-01 -3.065196e-01 -3.889515e-01 -6.435845e-01 -1.453923e+00 -8.790504e-01 4.321748e-01 6.760579e-01 1.414905e-01 -9.636459e-01 1.387040e-01
<VARIANCE> 39
 9.287238e-01 5.390573e-01 6.404751e+00 8.156554e+00 9.152060e-01 1.396036e+00 1.295286e+01 2.578238e+00 7.770442e+00 1.008040e+00 5.317392e+00 2.788808e+00 9.059547e-01 3.966370e-01 4.157867e-01 3.893042e-01 6.624857e-01 2.572658e+00 3.207185e-01 1.815119e+00 5.815672e-01 1.165329e+00 9.894674e-01 2.058681e+00 7.067395e-02 7.175548e-02 4.507979e-02 4.376029e-02 4.350723e-02 1.406371e-01 3.359202e-02 7.504205e-02 4.487104e-01 1.548799e-01 2.074708e-01 2.347053e-02 1.328748e-01 5.359112e-02 1.170743e-02
<GCONST> 4.094408e+01
<MIXTURE> 2 4.997495e-01
<MEAN> 39
 -1.019531e+01 -1.029617e+01 -1.790587e+01 -1.398964e+01 -1.253557e+01 -1.237045e+01 -7.465954e+00 -1.379360e+00 -4.926443e+00 -1.099885e-01 5.603376e+00 3.288350e+00 3.486593e+01 7.560850e-01 3.266404e-02 4.225822e-01 -3.269104e-01 2.764487e-01 2.484798e-01 -9.229571e-01 -4.868470e-01 -3.372351e-01 4.531426e-01 -2.639126e-01 -2.242220e-01 4.380743e-01 -1.942491e-03 2.219955e-01 1.183433e-01 -1.048805e-01 -5.575860e-02 -1.930022e-01 -3.607058e-01 4.477254e-02 2.337693e-01 5.247474e-01 -1.333304e-02 1.079803e-01 -9.379973e-02
<VARIANCE> 39
 1.498749e+01 6.424525e+00 1.456189e+01 8.384542e+00 1.126276e+01 2.724564e+01 9.581422e+00 1.479242e+01 2.840549e+01 1.513756e+01 2.209356e+01 1.716047e+01 1.538832e+01 2.031162e+00 1.790656e+00 3.182453e+00 1.276624e+00 5.975065e-01 4.832752e-01 1.704887e+00 1.667734e+00 1.798123e+00 1.047783e+00 9.382421e-01 5.121306e-01 3.931957e-01 4.163410e-02 4.451059e-01 1.429339e-01 2.346390e-01 1.849166e-01 2.726066e-01 4.482237e-01 4.690961e-01 8.317772e-01 5.634525e-01 2.335431e-01 1.904875e-01 8.075777e-02
<GCONST> 8.961080e+01
<MIXTURE> 3 4.029564e-01
<MEAN> 39
 -1.056850e+01 -1.043719e+01 -1.601495e+01 -1.281709e+01 -1.193827e+01 -1.246600e+01 -6.134608e+00 -5.511148e-01 -4.788362e+00 6.091833e-01 6.566987e+00 5.544409e+00 3.515179e+01 1.309042e+00 7.502236e-01 1.309018e+00 -7.111522e-02 2.074649e-01 1.316182e-01 -1.681392e+00 -6.886740e-01 -4.500652e-01 6.219165e-01 -3.044639e-01 -2.385408e-01 6.326192e-01 1.717466e-01 2.453673e-01 -4.869708e-02 -1.406555e-01 -1.566336e-01 -2.302175e-01 -5.767763e-01 -1.622197e-01 2.713198e-01 5.773987e-01 -1.118025e-01 -2.132096e-01 -6.094157e-02
<VARIANCE> 39
 1.126189e+01 4.029364e+00 2.101662e+01 1.000087e+01 8.958245e+00 2.006683e+01 1.213204e+01 1.338744e+01 2.240144e+01 1.144452e+01 1.758632e+01 2.332423e+01 1.197499e+01 2.228820e+00 2.544270e+00 4.008347e+00 1.876184e+00 1.278516e+00 5.494224e-01 2.854304e+00 1.688995e+00 1.753449e+00 1.199257e+00 1.522153e+00 4.683314e-01 3.862658e-01 1.162129e-01 3.034429e-01 1.737020e-01 2.244966e-01 1.592986e-01 2.137619e-01 5.789555e-01 4.768466e-01 6.756979e-01 4.023171e-01 2.084674e-01 3.554052e-01 8.231538e-02
<GCONST> 9.193607e+01
<TRANSP> 5
 0.000000e+00 1.000000e+00 0.000000e+00 0.000000e+00 0.000000e+00
 0.000000e+00 1.744653e-03 9.982554e-01 0.000000e+00 0.000000e+00
 0.000000e+00 0.000000e+00 2.727244e-01 7.272757e-01 0.000000e+00
 0.000000e+00 0.000000e+00 0.000000e+00 1.092577e-04 9.998907e-01
 0.000000e+00 0.000000e+00 0.000000e+00 0.000000e+00 0.000000e+00
<ENDHMM>
~h "uw"
<BEGINHMM>
<NUMSTATES> 5
<STATE> 2
<NUMMIXES> 3
<MIXTURE> 1 1.391636e-01
<MEAN> 39
 -1.158056e+01 -8.897557e+00 -2.571525e+01 -6.471714e+00 -1.007215e+01 -6.522451e+00 -3.263076e+00 -3.106689e-02 -3.431783e+00 3.620652e+00 3.681720e+00 5.047598e+00 3.927086e+01 2.722207e+00 4.337971e-01 1.043050e+00 -1.433064e+00 6.789029e-01 4.462404e-01 -3.360667e-01 4.636035e-01 1.463679e+00 1.126635e+00 2.280718e-01 6.416794e-01 7.650971e-01 4.673923e-01 -2.169723e-01 9.771961e-02 -9.443330e-01 -9.667406e-03 -5.892537e-01 -5.175208e-01 1.006103e-01 5.695675e-02 1.107663e+00 2.143987e-02 -3.009149e-01 4.849166e-01
<VARIANCE> 39
 5.655318e+01 4.015837e+00 1.685285e+01 3.725632e+01 8.310457e+00 1.113742e+01 1.331773e+01 7.975071e+01 1.168999e+01 6.150855e+01 1.723083e+01 1.033134e+01 4.204646e+00 5.621348e+00 4.938192e-01 1.323665e+00 7.213119e+00 1.200658e+00 2.368467e+00 3.777083e+00 4.355992e-01 8.983093e-01 1.018782e+01 6.922992e-01 7.566983e-01 1.237856e+00 5.082865e-01 1.500155e-01 8.945083e-02 6.823626e-01 4.930705e-01 3.205274e-01 6.583892e-01 3.750166e-01 2.939976e-01 2.420148e+00 2.511120e-01 8.227896e-02 2.713128e-01
<GCONST> 1.006999e+02
<MIXTURE> 2 4.773771e-01
<MEAN> 39
 -1.677040e+01 -8.457743e+00 -2.502748e+01 -9.497707e+00 -1.247168e+01 -8.144436e+00 -4.159113e+00 -9.524785e-01 -3.342791e+00 6.192403e+00 4.499244e+00 1.824729e+00 3.559537e+01 -2.778557e-01 2.584362e-01 -2.531934e-01 6.592219e-01 9.404782e-02 -4.010616e-01 3.609239e-01 -6.913523e-01 -5.986801e-01 1.376656e-01 -4.345077e-01 -2.987658e-01 3.506161e-01 6.392880e-02 -2.814136e-02 1.891193e-01 -6.645902e-02 9.051584e-03 -1.877883e-01 -3.018734e-01 5.906754e-03 8.894810e-02 -1.627957e-01 -1.045573e-01 5.510352e-02 -8.054016e-02
<VARIANCE> 39
 8.502441e+00 3.710528e+00 2.963737e+01 3.400544e+01 1.956062e+01 9.913342e+00 1.542090e+01 1.930723e+01 2.256174e+01 1.545419e+01 1.449378e+01 1.995444e+01 8.077470e+00 3.919651e-01 3.598328e-01 8.717705e-01 1.046671e+00 1.624459e+00 6.255323e-01 1.339734e+00 8.288763e-01 1.542067e+00 2.251836e+00 1.064285e+00 1.537464e+00 1.755007e-01 8.102721e-02 6.202322e-02 1.828038e-01 2.056074e-01 3.923361e-01 2.136914e-01 3.769151e-01 2.325020e-01 4.439350e-01 2.682657e-01 2.108438e-01 2.468508e-01 1.974448e-02
<GCONST> 8.218983e+01
<MIXTURE> 3 3.834591e-01
<MEAN> 39
 -1.634423e+01 -8.535583e+00 -2.670595e+01 -7.865923e+00 -1.199091e+01 -7.280178e+00 -4.668195e+00 2.280572e-03 -3.336060e+00 6.430444e+00 3.852944e+00 2.036437e+00 3.705226e+01 8.712751e-02 2.670637e-01 -2.644106e-01 6.417946e-01 1.257652e-01 2.553817e-02 3.838269e-01 -1.855137e-01 -1.709361e-02 5.819013e-02 -2.932508e-01 -1.099396e-01 3.979623e-01 2.154084e-01 -7.637654e-02 1.918044e-01 -2.218495e-01 1.221962e-01 -1.659602e-01 -1.396961e-01 4.880817e-02 1.157767e-01 1.151151e-02 -8.468131e-02 -3.914623e-02 -2.331368e-02
<VARIANCE> 39
 1.719981e+01 3.030161e+00 2.366780e+01 2.615150e+01 1.560116e+01 1.086845e+01 1.427183e+01 2.792788e+01 1.621137e+01 2.246230e+01 1.433836e+01 1.709064e+01 7.675339e+00 1.764183e+00 5.007479e-01 1.314311e+00 2.027038e+00 1.817976e+00 1.029104e+00 1.579836e+00 1.136687e+00 2.180217e+00 3.195564e+00 9.367398e-01 1.766392e+00 3.024146e-01 1.961197e-01 7.215125e-02 1.606720e-01 3.435114e-01 4.599126e-01 2.299725e-01 4.621997e-01 2.278964e-01 5.439331e-01 7.240353e-01 2.020411e-01 2.369286e-01 7.930995e-02
<GCONST> 9.177591e+01
<STATE> 3
<NUMMIXES> 3
<MIXTURE> 1 9.882892e-02
<MEAN> 39
 -4.197405e+00 -1.624914e+01 -1.829289e+01 -1.911227e+01 -1.116843e+01 -1.489417e+01 -1.051892e+01 2.810966e+00 -1.520078e-01 1.240175e+01 -2.341527e+00 5.314047e+00 4.634010e+01 -2.001267e-01 4.642152e-01 4.439662e-02 1.235478e+00 2.006941e-01 -1.304152e-02 -1.199575e-01 4.512087e-01 -2.749819e-02 1.150703e-01 1.935001e+00 3.744784e-01 -6.904129e-01 1.077634e-01 3.056794e-01 -2.069585e-03 2.900025e-01 1.083121e-01 3.973616e-02 9.975708e-03 8.959493e-02 4.832256e-01 1.630349e-01 -3.194268e-02 -1.964333e-01 -1.782137e-01
<VARIANCE> 39
 1.267873e+01 2.040677e+01 1.648872e+00 2.289147e+01 9.467154e+00 8.226048e+00 1.911733e+01 2.042574e+01 1.776757e+01 1.697103e+01 3.059632e+01 6.323226e+00 4.667982e+01 1.232989e+00 1.045861e+00 5.563027e-01 2.357647e+00 1.142082e+00 5.861165e-01 1.284019e+00 3.403163e-01 2.206928e+00 1.451817e+00 1.849716e+00 6.313157e-01 6.472437e-01 1.729099e-01 2.253729e-01 6.357986e-02 2.631772e-01 2.372854e-01 1.186206e-01 3.605339e-01 2.342605e-01 4.028502e-01 8.517445e-01 5.578955e-01 7.539187e-02 2.189793e-01
<GCONST> 8.705015e+01
<MIXTURE> 2 4.684016e-01
<MEAN> 39
 -5.665060e+00 -1.237354e+01 -1.942297e+01 -1.719160e+01 -1.141530e+01 -1.418462e+01 -1.031141e+01 8.829312e-02 -1.223991e-01 1.064065e+01 -1.527687e+00 3.383503e+00 4.228738e+01 -3.352689e-01 7.506675e-02 2.290947e-01 -3.012672e-01 -2.788231e-01 -4.712404e-01 -8.726605e-01 -5.469299e-01 5.515280e-03 -5.229853e-01 -5.821500e-01 -2.814014e-01 -4.280268e-01 -4.210713e-01 -1.296093e-01 -1.343807e-01 1.664538e-01 3.559948e-02 1.270929e-02 1.712379e-01 1.532025e-01 -1.083019e-01 -3.161141e-01 1.581630e-01 -5.546603e-02 -1.943095e-01
<VARIANCE> 39
 4.421353e+01 2.377059e+01 6.339587e+00 2.382905e+01 1.106784e+01 1.158429e+01 2.344921e+01 2.269314e+01 2.812071e+01 4.775729e+01 4.449483e+01 1.683474e+01 5.516177e+01 1.779809e+00 2.438722e+00 4.896833e-01 2.579534e+00 1.185904e+00 1.837592e+00 2.170566e+00 8.896075e-01 2.037292e+00 7.021266e+00 2.931131e+00 8.148137e-01 3.601351e+00 4.537095e-01 2.938952e-01 1.395542e-01 3.120783e-01 2.282266e-01 2.273454e-01 4.330325e-01 1.582002e-01 4.706796e-01 1.186865e+00 7.300142e-01 1.746316e-01 1.623368e-01
<GCONST> 1.053175e+02
<MIXTURE> 3 4.327696e-01
<MEAN> 39
 -5.157039e+00 -1.299932e+01 -1.963283e+01 -1.782006e+01 -1.094736e+01 -1.389055e+01 -1.007064e+01 4.040682e-01 -1.329016e-01 1.179996e+01 -1.059094e+00 3.606328e+00 4.318192e+01 -2.212054e-01 -1.658006e-01 1.664901e-01 -2.778283e-01 -1.462868e-01 -2.898704e-01 -4.981115e-01 -1.863075e-01 -2.226774e-01 -2.103099e-01 -1.293568e-01 8.287701e-02 -1.186859e-01 -3.090590e-01 -4.393360e-03 -5.739018e-02 2.355296e-01 -4.497472e-02 -3.493124e-03 1.153019e-01 1.591947e-01 -3.819480e-02 -3.086211e-01 1.680254e-01 -6.110476e-02 -2.036346e-01
<VARIANCE> 39
 4.183237e+01 2.641823e+01 5.288393e+00 2.273946e+01 1.080168e+01 1.283578e+01 2.197414e+01 3.333732e+01 2.962266e+01 4.580818e+01 5.309325e+01 1.300884e+01 6.055323e+01 1.949873e+00 2.046128e+00 4.955513e-01 3.179309e+00 1.219595e+00 1.902654e+00 2.548618e+00 6.717409e-01 2.301222e+00 6.162042e+00 3.836304e+00 1.112332e+00 2.510334e+00 4.326290e-01 3.122180e-01 1.490591e-01 2.694375e-01 2.289306e-01 2.612562e-01 4.500253e-01 1.758617e-01 4.455104e-01 1.216823e+00 7.508897e-01 2.072218e-01 1.782396e-01
<GCONST> 1.063310e+02
<STATE> 4
<NUMMIXES> 3
<MIXTURE> 1 4.345900e-02
<MEAN> 39
 -1.402068e+01 -8.461145e+00 -1.908618e+01 -1.423573e+01 -1.102960e+01 -1.262470e+01 -6.898906e+00 -3.635014e+00 -3.192454e+00 4.946667e+00 5.839172e+00 4.875733e+00 3.421217e+01 -7.838896e-01 -7.704648e-02 -6.511635e-01 6.380464e-02 6.656508e-01 3.680698e-03 8.633471e-01 5.153850e-01 6.871192e-01 3.527923e-01 4.957348e-01 -1.906639e-01 1.258063e-01 4.325137e-02 -8.444488e-02 -1.576226e-01 2.491267e-02 1.610034e-01 1.792921e-01 4.395388e-01 -1.757756e-01 -9.351010e-02 9.455036e-02 7.274468e-02 -1.848102e-01 2.127134e-01
<VARIANCE> 39
 3.884798e+01 7.552632e+00 8.852906e+00 1.152590e+01 7.018038e+00 1.398135e+01 8.237445e+00 2.388727e+01 3.212378e+01 1.577054e+01 2.369661e+01 8.988675e+00 1.124504e+01 3.994250e-01 2.673439e-01 8.173190e-01 9.071688e-01 1.982585e+00 1.756155e+00 2.686437e+00 1.027938e+00 8.205367e-01 7.699540e-01 7.347523e-01 2.307594e+00 4.146072e-01 9.436357e-02 1.882658e-01 2.840360e-01 1.293875e-01 1.503254e-01 2.906873e-01 3.165845e-01 2.242530e-01 5.239767e-01 2.738359e-01 1.883332e-01 2.031440e-01 4.272560e-02
<GCONST> 8.330927e+01
<MIXTURE> 2 4.595754e-01
<MEAN> 39
 -1.438085e+01 -8.500143e+00 -1.853108e+01 -1.412865e+01 -1.164647e+01 -1.254654e+01 -8.471988e+00 -2.811180e+00 -2.591258e+00 3.596803e+00 4.858048e+00 5.013977e+00 3.261079e+01 -4.599429e-01 2.065272e-01 2.195764e-02 1.851372e-01 9.088081e-02 -6.844167e-01 -9.707074e-02 1.491722e-01 2.778287e-01 -1.849841e-01 -8.278044e-02 -1.586536e-01 1.207236e-01 -6.033270e-02 -7.269487e-02 -2.105283e-01 -4.664559e-02 5.859332e-02 1.368477e-01 4.608006e-01 8.329338e-02 1.349386e-01 1.525161e-01 1.058180e-01 -1.668946e-01 1.342835e-01
<VARIANCE> 39
 1.802394e+01 4.623243e+00 7.024158e+00 8.730378e+00 9.106277e+00 1.263878e+01 5.631362e+00 1.533973e+01 2.049354e+01 1.674613e+01 1.822309e+01 1.336907e+01 6.849481e+00 2.343835e-01 3.479758e-01 1.419284e+00 7.768801e-01 1.190333e+00 1.892353e+00 2.510024e+00 7.547286e-01 1.899269e+00 1.082945e+00 9.385861e-01 1.917744e+00 2.024052e-01 8.313992e-02 1.269169e-01 1.885694e-01 1.449242e-01 2.180897e-01 3.378890e-01 1.891512e-01 2.381849e-01 4.873418e-01 2.829435e-01 1.651905e-01 2.828286e-01 2.509677e-02
<GCONST> 7.884345e+01
<MIXTURE> 3 4.969656e-01
<MEAN> 39
 -1.422542e+01 -8.364173e+00 -1.865315e+01 -1.416485e+01 -1.167985e+01 -1.270699e+01 -7.868879e+00 -3.365874e+00 -3.052152e+00 4.365051e+00 5.382871e+00 5.079267e+00 3.325827e+01 -5.551999e-01 1.075146e-01 -2.518931e-01 8.250930e-02 2.373639e-01 -3.753439e-01 2.590391e-01 2.996762e-01 5.036621e-01 -4.366012e-02 1.630958e-01 -9.754997e-02 1.361577e-01 -4.385775e-02 -7.644214e-02 -2.072192e-01 -5.022455e-03 1.376934e-01 1.740999e-01 4.690876e-01 -1.885992e-02 4.903564e-02 1.020112e-01 1.228444e-01 -1.757443e-01 1.665663e-01
<VARIANCE> 39
 2.828042e+01 5.400358e+00 8.232950e+00 1.100607e+01 7.228066e+00 1.343131e+01 6.859362e+00 2.065098e+01 2.536330e+01 1.746731e+01 2.069193e+01 1.184238e+01 9.753927e+00 3.057847e-01 3.512426e-01 1.334588e+00 8.888656e-01 1.452205e+00 1.889734e+00 2.750375e+00 7.896065e-01 1.332199e+00 1.028002e+00 9.239326e-01 2.072837e+00 2.645466e-01 9.370278e-02 1.596712e-01 2.256289e-01 1.496247e-01 1.756862e-01 3.481964e-01 2.579429e-01 2.302738e-01 5.067057e-01 3.001643e-01 1.784562e-01 2.574296e-01 3.106402e-02
<GCONST> 8.232964e+01
<TRANSP> 5
 0.000000e+00 1.000000e+00 0.000000e+00 0.000000e+00 0.000000e+00
 0.000000e+00 7.167110e-01 2.832890e-01 0.000000e+00 0.000000e+00
 0.000000e+00 0.000000e+00 6.363608e-01 3.636392e-01 0.000000e+00
 0.000000e+00 0.000000e+00 0.000000e+00 5.331638e-01 4.668362e-01
 0.000000e+00 0.000000e+00 0.000000e+00 0.000000e+00 0.000000e+00
<ENDHMM>
~h "sil"
<BEGINHMM>
<NUMSTATES> 5
<STATE> 2
<MEAN> 39
 -6.509624e+00 -1.151351e+01 -1.378958e+01 -1.227221e+01 -1.456667e+01 -1.631062e+01 -9.710337e+00 -4.789791e+00 -7.881420e+00 3.923918e+00 5.412905e+00 5.183472e+00 3.945974e+01 6.902574e-01 1.267565e-01 1.189595e-01 -4.209834e-02 -2.430896e-01 -9.974803e-02 -4.032827e-01 -7.187982e-01 -4.394368e-01 5.056950e-01 3.323664e-01 3.612367e-03 3.570863e-01 5.049103e-02 1.121145e-01 -3.354663e-02 -1.234756e-01 5.161934e-02 7.537255e-02 -1.583491e-01 -4.102650e-02 1.281106e-01 6.963813e-02 4.219819e-02 -2.855103e-02 -1.902183e-02
<VARIANCE> 39
 2.774497e+01 2.851283e+01 3.439630e+01 1.586557e+01 2.342199e+01 4.117060e+01 5.251583e+01 4.091639e+01 3.312949e+01 4.156086e+01 3.225575e+01 2.475871e+01 2.414373e+01 2.772529e+00 3.810402e+00 3.893514e+00 1.993437e+00 2.784374e+00 5.778487e+00 6.194312e+00 3.049164e+00 4.081984e+00 6.222000e+00 4.334606e+00 3.163694e+00 2.978445e+00 4.767918e-01 6.956230e-01 6.402920e-01 3.232159e-01 5.441601e-01 1.011924e+00 1.163856e+00 5.344147e-01 7.674170e-01 9.659553e-01 7.505706e-01 5.841112e-01 4.578685e-01
<GCONST> 1.277035e+02
<STATE> 3
<MEAN> 39
 -9.601201e-01 -1.492838e+01 -2.148883e+01 -2.185017e+01 -7.114584e+00 -8.585668e+00 -1.014852e+01 -1.271006e+00 -6.906520e+00 1.209669e+01 9.697411e+00 -2.163789e+00 4.493026e+01 -4.347306e-01 -5.837293e-02 -1.063427e-01 -8.395890e-03 2.304053e-01 5.820839e-02 9.314755e-02 4.678296e-01 3.285626e-01 -3.079563e-01 -3.093457e-01 -1.023804e-01 -3.140606e-01 -5.344307e-02 -1.634025e-02 7.401434e-02 8.736958e-02 -7.003251e-02 -7.614905e-02 2.750599e-02 4.147752e-02 1.654917e-02 -2.888692e-02 -3.530765e-02 1.486055e-02 -3.179547e-02
<VARIANCE> 39
 3.042703e+01 4.072874e+01 9.001054e+00 2.815148e+01 2.806708e+01 2.194232e+01 2.105982e+01 9.862769e+01 4.074134e+01 5.488773e+01 1.309756e+02 5.078156e+01 3.277402e+01 6.759247e-01 2.006735e+00 8.795602e-01 2.132596e+00 1.637006e+00 2.136191e+00 1.580174e+00 3.655431e+00 2.146227e+00 2.787454e+00 5.412022e+00 2.735847e+00 1.310673e+00 5.383814e-02 1.975687e-01 1.433639e-01 2.121733e-01 2.391352e-01 3.004291e-01 2.805137e-01 3.908313e-01 3.813020e-01 4.768571e-01 5.469776e-01 3.647305e-01 6.787977e-02
<GCONST> 1.082081e+02
<STATE> 4
<MEAN> 39
 -1.427029e+01 -8.927148e+00 -1.749010e+01 -1.574369e+01 -1.118620e+01 -1.113196e+01 -7.860947e+00 -6.784150e-01 -1.034786e+00 3.151627e+00 5.090574e+00 4.056891e+00 3.108654e+01 -2.100714e-02 5.404956e-02 6.681576e-02 6.997214e-03 -5.853442e-02 -3.123541e-02 5.137280e-02 1.715740e-02 4.181641e-03 -1.444908e-02 8.182194e-03 4.700970e-02 -3.937026e-02 2.614368e-03 -5.878169e-03 -2.077594e-02 1.359349e-02 2.064509e-02 4.404862e-03 6.064777e-03 -1.359340e-02 -2.645689e-02 -3.328108e-02 -1.423014e-02 -2.634937e-02 1.906715e-02
<VARIANCE> 39
 1.581268e+00 1.918112e+00 3.578103e+00 3.790290e+00 5.785159e+00 8.705234e+00 8.689438e+00 9.572089e+00 1.066637e+01 9.830502e+00 9.812221e+00 9.224232e+00 1.366843e+00 1.182327e-01 1.919570e-01 3.936294e-01 4.367854e-01 5.487617e-01 8.856739e-01 9.660006e-01 9.349909e-01 1.039951e+00 9.383280e-01 9.015090e-01 1.030853e+00 5.045345e-02 2.088959e-02 4.099308e-02 8.951101e-02 1.074601e-01 1.100131e-01 1.726678e-01 1.725604e-01 1.849916e-01 2.151471e-01 1.929395e-01 1.612750e-01 1.976648e-01 9.525703e-03
<GCONST> 5.335449e+01
<TRANSP> 5
 0.000000e+00 1.000000e+00 0.000000e+00 0.000000e+00 0.000000e+00
 0.000000e+00 8.857698e-01 4.662842e-02 6.760179e-02 0.000000e+00
 0.000000e+00 0.000000e+00 9.645639e-01 3.543605e-02 0.000000e+00
 0.000000e+00 1.941128e-03 0.000000e+00 9.610801e-01 3.697875e-02
 0.000000e+00 0.000000e+00 0.000000e+00 0.000000e+00 0.000000e+00
<ENDHMM>
