~o
<STREAMINFO> 1 39
<VECSIZE> 39<NULLD><MFCC_D_A_0><DIAGC>
~h "t"
<BEGINHMM>
<NUMSTATES> 5
<STATE> 2
<MEAN> 39
 -1.409738e+01 -1.092955e+01 1.400837e+00 1.728413e+00 -2.332475e+00 5.740281e+00 -4.072170e+00 5.413544e-01 -1.729362e+00 -3.529576e+00 3.773756e+00 -1.508947e+00 3.215274e+01 -5.980988e-03 -1.050746e-02 1.400181e-03 1.076851e-02 1.303082e-02 1.060926e-02 1.152209e-02 -6.710105e-03 -6.649142e-03 3.323084e-03 5.495457e-03 -3.547150e-03 -1.372924e-03 1.203203e-02 1.911332e-03 4.820977e-03 -1.226329e-03 -5.960367e-03 -1.545327e-03 -7.163867e-03 2.156766e-03 2.615305e-04 -2.435832e-03 -5.825253e-04 -1.527746e-03 8.827793e-03
<VARIANCE> 39
 9.302725e+00 1.842462e+01 3.500571e+01 1.373923e+01 1.822869e+01 1.575951e+01 1.789516e+01 2.019261e+01 1.587886e+01 1.805874e+01 1.990534e+01 1.146145e+01 6.426413e+00 6.031734e-01 9.327439e-01 9.984983e-01 9.706532e-01 1.186318e+00 1.290948e+00 1.355910e+00 1.597077e+00 1.782144e+00 1.646994e+00 1.770315e+00 1.253077e+00 3.578151e-01 1.080182e-01 1.947261e-01 1.923687e-01 2.007877e-01 2.433394e-01 2.627293e-01 2.766335e-01 3.272306e-01 3.711691e-01 3.438160e-01 3.611394e-01 2.591639e-01 5.876581e-02
<GCONST> 8.940520e+01
<STATE> 3
<MEAN> 39
 1.075937e+00 -5.671521e+00 3.709522e+00 -4.922790e+00 -1.012350e+01 4.035877e+00 -9.249048e+00 2.846596e-01 1.480164e+00 -5.013705e+00 2.953539e+00 -3.610092e+00 4.247978e+01 4.790203e-02 3.892131e-02 1.461356e-02 -1.514551e-02 -1.881431e-02 -1.266355e-02 -2.025879e-02 4.263675e-03 2.054517e-02 -6.397721e-03 -7.634816e-03 -3.902275e-03 2.405763e-02 -1.363080e-02 -9.393320e-03 -3.411082e-03 2.980053e-03 7.452353e-03 6.521357e-03 4.910002e-03 2.108236e-03 -5.496417e-05 3.396671e-03 1.381862e-03 2.392507e-03 -7.454838e-03
<VARIANCE> 39
 7.534114e+01 5.469395e+01 5.835805e+01 6.284266e+01 7.743945e+01 4.170563e+01 4.652044e+01 3.709827e+01 3.193462e+01 2.628840e+01 2.297087e+01 1.808347e+01 6.360183e+01 2.408269e+00 2.441380e+00 2.191675e+00 2.611382e+00 3.341563e+00 2.165058e+00 2.228369e+00 2.030180e+00 2.018893e+00 1.796298e+00 1.597890e+00 1.378956e+00 2.004029e+00 2.909172e-01 3.554649e-01 3.330419e-01 4.003336e-01 5.071262e-01 3.711701e-01 3.727345e-01 3.624007e-01 3.501045e-01 3.400878e-01 3.068222e-01 2.640899e-01 2.292104e-01
<GCONST> 1.163641e+02
<STATE> 4
<MEAN> 39
 -1.041776e+01 -6.648701e+00 2.452816e+00 1.088616e+00 -2.415135e+00 4.669994e+00 -4.799707e+00 1.433722e+00 -5.009490e-01 -3.025001e+00 2.982241e+00 -2.239368e+00 3.351520e+01 -8.619206e-02 -4.426103e-02 -1.374224e-02 3.418388e-02 3.059677e-02 2.973930e-03 3.440535e-02 -1.046522e-02 -4.011378e-02 1.340566e-02 1.095265e-02 5.606301e-03 -5.109365e-02 1.058293e-02 9.783472e-03 2.142359e-03 -3.588443e-03 -1.106677e-02 -8.261475e-03 -5.486665e-04 -4.500501e-03 -4.844103e-03 -2.419447e-03 3.145909e-03 3.512237e-04 4.972076e-03
<VARIANCE> 39
 1.440425e+01 2.341302e+01 1.564379e+01 1.217987e+01 1.533423e+01 1.474891e+01 1.360511e+01 1.592468e+01 1.735440e+01 1.674314e+01 1.254434e+01 1.053456e+01 6.208026e+00 6.210478e-01 7.457364e-01 8.911507e-01 8.130287e-01 1.071147e+00 1.249657e+00 1.354346e+00 1.521930e+00 1.457299e+00 1.438480e+00 1.427952e+00 1.208893e+00 2.877128e-01 1.215844e-01 1.414678e-01 1.791148e-01 1.600162e-01 2.105335e-01 2.445892e-01 2.755982e-01 3.104734e-01 2.938093e-01 2.875459e-01 2.928501e-01 2.522398e-01 5.812013e-02
<GCONST> 8.493063e+01
<TRANSP> 5
 0.000000e+00 1.000000e+00 0.000000e+00 0.000000e+00 0.000000e+00
 0.000000e+00 9.955337e-01 4.466279e-03 0.000000e+00 0.000000e+00
 0.000000e+00 0.000000e+00 9.946280e-01 5.372011e-03 0.000000e+00
 0.000000e+00 0.000000e+00 0.000000e+00 9.914310e-01 8.568982e-03
 0.000000e+00 0.000000e+00 0.000000e+00 0.000000e+00 0.000000e+00
<ENDHMM>
