~o
<STREAMINFO> 1 39
<VECSIZE> 39<NULLD><MFCC_D_A_0><DIAGC>
<PARENTXFORM>~a "SEMITIED"
~h "a"
<BEGINHMM>
<NUMSTATES> 6
<STATE> 2
<MEAN> 39
 -5.560347e+01 -4.345656e+01 -2.504445e+01 6.606178e+00 3.979888e+00 6.513602e+00 8.707895e+00 -4.439250e+00 -4.771783e-03 3.384338e-01 -2.695029e+00 7.176800e+00 1.184383e+01 -1.403598e-01 3.323354e+00 -7.604926e-01 -8.159493e-01 -7.998643e-01 1.031083e+00 1.278154e-01 -1.043122e-01 1.614545e+00 -2.520230e+00 8.633110e-02 1.231950e+00 3.223862e+00 3.011460e-01 2.679982e+00 4.763550e-01 -6.636989e-02 -5.238004e-01 -4.552004e-01 1.152301e-01 -1.009211e+00 6.817067e-02 -1.348794e+00 1.936082e-01 6.052543e-01 8.186144e-01
<VARIANCE> 39
 2.082285e+01 2.077205e+01 7.266049e+01 2.237662e+01 9.682502e+01 3.799202e+01 6.476850e+01 1.223521e+02 5.880706e+01 4.927443e+01 5.989146e+01 4.090291e+01 4.071498e+01 9.487177e-01 2.069823e+00 1.838635e+00 1.863561e+00 4.214096e+00 2.569470e+00 3.039895e+00 3.689926e+00 3.577878e+00 2.924894e+00 5.718352e+00 3.070683e+00 8.485084e+00 4.337935e-01 7.941270e-01 3.657670e-01 3.921954e-01 6.528664e-01 5.306633e-01 6.173640e-01 7.044677e-01 5.867552e-01 3.578933e-01 6.970399e-01 3.377805e-01 5.123012e-01
<GCONST> 1.272927e+02
<STATE> 3
<MEAN> 39
 -5.701650e+01 -4.545643e+01 -2.507915e+01 4.921504e+00 4.620187e+00 3.823527e+00 8.926422e+00 -2.436907e+00 8.242362e-01 -4.801375e+00 -1.718022e+00 6.760883e+00 1.432560e+01 3.576504e-01 2.722306e+00 -7.039497e-01 -6.906727e-01 -1.267412e+00 7.142024e-01 2.774343e-01 -1.041135e+00 -3.029022e-02 -1.656512e+00 -5.911002e-01 6.102162e-01 -5.612646e-01 5.380794e-01 2.233606e+00 6.106036e-01 -1.649992e-01 -5.052170e-01 -3.795530e-01 1.008804e-01 -9.353051e-01 6.399025e-01 -1.342238e+00 2.342739e-01 4.145315e-01 1.538238e+00
<VARIANCE> 39
 1.552147e+01 1.438221e+01 7.747914e+01 1.943699e+01 6.875307e+01 3.398061e+01 6.771579e+01 1.287072e+02 4.465163e+01 5.597465e+01 5.961956e+01 4.779979e+01 3.678884e+01 2.012241e-01 1.177368e+00 1.041380e+00 7.641253e-01 2.707795e+00 1.074642e+00 1.792107e+00 2.534240e+00 1.136237e+00 1.889433e+00 4.013594e+00 2.126350e+00 1.297241e+00 3.890758e-02 1.976148e-01 2.214355e-01 1.423247e-01 5.910149e-01 2.236466e-01 3.946760e-01 4.347998e-01 2.489532e-01 2.804783e-01 3.580745e-01 1.829173e-01 3.263418e-01
<GCONST> 1.060783e+02
<STATE> 4
<MEAN> 39
 -5.570861e+01 -4.379519e+01 -2.499662e+01 5.421102e+00 3.670555e+00 4.337337e+00 9.378619e+00 -3.077785e+00 3.400648e+00 -3.898115e+00 -3.554003e+00 6.523521e+00 1.457548e+01 6.872775e-01 2.156597e+00 -4.955639e-01 -6.705281e-01 -1.653835e+00 5.516487e-01 4.139971e-01 -1.968848e+00 -1.290583e+00 -1.689377e-02 -8.489615e-01 -9.679899e-02 -3.697567e+00 5.004619e-01 2.360566e+00 4.409942e-01 -3.602746e-01 -4.098672e-01 -3.023960e-01 3.164105e-01 -7.342327e-01 5.220720e-01 -1.471119e+00 6.193509e-01 5.100925e-01 1.110981e+00
<VARIANCE> 39
 1.961381e+01 1.717852e+01 7.223817e+01 1.910893e+01 7.591301e+01 3.535260e+01 6.323112e+01 1.303637e+02 7.206138e+01 4.311882e+01 5.562524e+01 4.574658e+01 3.948678e+01 4.995825e-01 2.713138e+00 1.982684e+00 1.534089e+00 3.655192e+00 1.748476e+00 3.712734e+00 5.055956e+00 2.503829e+00 2.570019e+00 4.373649e+00 1.888889e+00 3.353611e+00 5.931998e-02 2.535093e-01 3.465173e-01 2.546304e-01 6.639336e-01 3.016281e-01 7.855343e-01 8.278657e-01 3.864687e-01 2.966922e-01 6.668639e-01 3.241622e-01 3.859945e-01
<GCONST> 1.192729e+02
<STATE> 5
<MEAN> 39
 -5.256036e+01 -3.562123e+01 -2.417081e+01 6.178638e+00 2.732413e+00 5.566404e+00 9.854585e+00 -4.070446e+00 2.473117e+00 -3.719517e+00 -5.625455e+00 7.865983e+00 1.452646e+01 1.674146e-01 2.745938e+00 -7.190902e-01 -1.022635e+00 -1.608603e+00 9.223881e-01 7.398401e-01 -1.488797e+00 -1.608762e+00 2.586530e-01 -1.368164e-01 -6.856127e-02 -6.883056e+00 3.710903e-01 2.474684e+00 4.302839e-01 -4.813580e-01 -1.319105e-01 -2.432484e-01 6.270626e-01 -2.663472e-01 1.527804e-01 -1.420348e+00 3.557298e-01 3.569772e-02 1.976658e+00
<VARIANCE> 39
 3.236686e+01 7.109360e+01 6.101528e+01 2.550258e+01 9.650394e+01 4.272690e+01 6.509071e+01 1.059102e+02 6.972325e+01 5.294593e+01 6.809051e+01 4.678740e+01 5.040284e+01 2.344575e+00 5.777442e+00 2.646590e+00 2.924222e+00 4.869018e+00 4.047257e+00 6.161674e+00 5.447129e+00 4.369659e+00 3.239752e+00 4.390957e+00 2.558722e+00 1.217269e+01 2.330566e-01 3.158679e-01 3.972408e-01 5.590273e-01 7.273406e-01 5.155336e-01 6.934417e-01 7.547586e-01 7.737126e-01 6.606079e-01 8.000197e-01 7.832167e-01 6.321421e-01
<GCONST> 1.355072e+02
<TRANSP> 6
 0.000000e+00 1.000000e+00 0.000000e+00 0.000000e+00 0.000000e+00 0.000000e+00
 0.000000e+00 4.664772e-01 5.335228e-01 0.000000e+00 0.000000e+00 0.000000e+00
 0.000000e+00 0.000000e+00 7.029543e-01 2.970457e-01 0.000000e+00 0.000000e+00
 0.000000e+00 0.000000e+00 0.000000e+00 4.312212e-01 5.687789e-01 0.000000e+00
 0.000000e+00 0.000000e+00 0.000000e+00 0.000000e+00 4.841333e-01 5.158668e-01
 0.000000e+00 0.000000e+00 0.000000e+00 0.000000e+00 0.000000e+00 0.000000e+00
<ENDHMM>
~h "b"
<BEGINHMM>
<NUMSTATES> 6
<STATE> 2
<MEAN> 39
 -4.447853e+01 -2.105368e+01 -2.157929e+01 3.293612e+00 3.737117e+00 1.367101e+01 1.104920e+01 -9.682423e+00 1.284128e+00 1.165823e+01 -3.389099e+00 1.210462e+01 1.710050e+01 8.496586e-01 2.590789e+00 -1.121446e+00 -9.900398e-01 -5.788850e-01 1.223925e+00 -6.322536e-02 -1.011086e+00 1.254940e+00 4.733871e-01 -3.080862e-01 1.342223e-01 -3.639296e+00 7.054785e-02 2.308561e+00 9.837369e-01 6.978523e-01 -5.711204e-01 -7.936026e-01 -1.208956e-02 -4.893114e-01 6.383739e-01 -2.587451e+00 -4.650876e-02 -1.404034e-01 2.546034e+00
<VARIANCE> 39
 2.507761e+00 1.447593e+01 9.158072e+00 4.153661e+01 2.872783e+01 4.841402e+01 2.024926e+01 1.308061e+01 5.562234e+01 2.931473e+01 2.909827e+01 2.834766e+01 5.060923e+01 1.072762e+00 6.619248e-01 1.572382e+00 2.714101e+00 1.846798e+00 2.175792e+00 4.269977e+00 3.141196e+00 4.227986e+00 3.079549e+00 2.295415e+00 1.627953e+00 1.213411e+01 4.948234e-01 3.158120e-01 6.891049e-01 1.018363e+00 1.095238e+00 5.188177e-01 1.293005e+00 7.648154e-01 5.029526e-01 4.922297e-01 8.822298e-01 9.685478e-01 8.355057e-01
<GCONST> 1.190200e+02
<STATE> 3
<MEAN> 39
 -4.421721e+01 -1.873369e+01 -2.113303e+01 1.115428e+00 1.796030e+00 1.121877e+01 1.117037e+01 -9.442907e+00 2.664533e+00 1.414765e+01 -4.133129e+00 1.293027e+01 2.093561e+01 2.246665e-01 2.862832e+00 5.247871e-02 1.521882e-01 -1.216863e+00 4.368911e-01 -2.968935e-02 -1.008665e+00 -2.258278e-02 6.366155e-02 8.269615e-02 1.979389e-01 3.342102e-01 3.299620e-01 2.214389e+00 6.075557e-01 2.252749e-01 -4.919241e-01 -7.128272e-01 2.827749e-02 -5.244308e-01 3.481948e-02 -2.584192e+00 3.612748e-01 4.323526e-01 2.162467e+00
<VARIANCE> 39
 2.283003e+00 5.534040e+00 4.631170e+00 3.927728e+01 1.985585e+01 2.990726e+01 1.027739e+01 7.751004e+00 2.265293e+01 2.569698e+01 1.477202e+01 2.700565e+01 5.575474e+01 6.356151e-01 7.166986e-01 7.955858e-01 2.898314e+00 8.433390e-01 1.654184e+00 2.249419e+00 1.047886e+00 2.292246e+00 2.237404e+00 1.337507e+00 1.647134e+00 3.113241e+00 1.897594e-01 1.232388e-01 4.276344e-01 5.915743e-01 3.560792e-01 3.842411e-01 4.848621e-01 4.711678e-01 4.335329e-01 5.354956e-01 5.952985e-01 5.509447e-01 7.657865e-01
<GCONST> 9.992015e+01
<STATE> 4
<MEAN> 39
 -4.604065e+01 -2.014029e+01 -2.138274e+01 4.109366e-01 1.379341e+00 1.119398e+01 1.007087e+01 -9.783687e+00 8.191411e-01 1.226880e+01 -4.545198e+00 1.196443e+01 1.999326e+01 -7.000175e-02 3.392802e+00 1.338443e+00 7.364467e-01 -2.481400e+00 -1.022947e+00 2.062839e-02 -1.170465e+00 -1.938808e+00 -5.407389e-01 9.002334e-01 1.880618e-01 5.802625e+00 5.099720e-01 1.960913e+00 9.604794e-01 -6.235914e-01 -7.317969e-01 -4.996746e-01 -5.082751e-02 -4.475279e-01 -7.755034e-02 -2.420466e+00 4.156770e-01 -1.809397e-01 2.205501e+00
<VARIANCE> 39
 1.129574e+01 1.126679e+01 6.004653e+00 6.491331e+01 2.016831e+01 2.997852e+01 1.253305e+01 8.817511e+00 3.167826e+01 3.879798e+01 1.665467e+01 2.479259e+01 5.455336e+01 1.665371e+00 2.082376e+00 3.511341e+00 1.074887e+01 3.939383e+00 3.379314e+00 2.985628e+00 3.818475e+00 4.753132e+00 3.196292e+00 4.976972e+00 6.098458e+00 7.499015e+00 2.217604e-01 1.945228e-01 4.390315e-01 6.672606e-01 4.620596e-01 5.605778e-01 4.764126e-01 6.074697e-01 9.038258e-01 5.967258e-01 7.065086e-01 7.422102e-01 6.293046e-01
<GCONST> 1.200924e+02
<STATE> 5
<MEAN> 39
 -5.096732e+01 -3.227995e+01 -2.331025e+01 4.653399e+00 6.426513e+00 1.179156e+01 8.871098e+00 -1.074516e+01 -2.397303e-01 1.129579e+01 -2.468349e+00 1.210959e+01 1.412494e+01 2.668842e-02 2.886336e+00 1.883968e+00 -8.827986e-02 -3.638604e+00 -4.629326e-01 2.374793e-01 -1.269637e-01 1.164130e+00 -3.076065e-01 7.868193e-01 -2.386446e-01 6.394318e+00 6.615258e-01 2.131865e+00 1.687420e-01 -7.983607e-01 -3.360079e-01 1.333351e-01 4.026839e-01 -7.354463e-01 -7.493872e-02 -2.162617e+00 -4.131548e-01 -7.942201e-01 7.180659e-01
<VARIANCE> 39
 1.482707e+01 4.835083e+01 2.327092e+01 5.459906e+01 5.740543e+01 2.938199e+01 3.008938e+01 3.655359e+01 2.990281e+01 3.303245e+01 4.935341e+01 2.982987e+01 4.692080e+01 1.539711e+00 2.760242e+00 5.282453e+00 1.110340e+01 6.198324e+00 4.720406e+00 3.622853e+00 6.106613e+00 1.390147e+01 4.398702e+00 6.192404e+00 6.565671e+00 1.019984e+01 2.183241e-01 1.678374e-01 4.434641e-01 1.122655e+00 4.828858e-01 5.724045e-01 9.273040e-01 5.954739e-01 6.709447e-01 4.781054e-01 1.138537e+00 6.964469e-01 4.202337e-01
<GCONST> 1.318837e+02
<TRANSP> 6
 0.000000e+00 1.000000e+00 0.000000e+00 0.000000e+00 0.000000e+00 0.000000e+00
 0.000000e+00 3.807703e-01 6.192297e-01 0.000000e+00 0.000000e+00 0.000000e+00
 0.000000e+00 0.000000e+00 6.929256e-01 3.070744e-01 0.000000e+00 0.000000e+00
 0.000000e+00 0.000000e+00 0.000000e+00 3.627088e-01 6.372912e-01 0.000000e+00
 0.000000e+00 0.000000e+00 0.000000e+00 0.000000e+00 4.254509e-01 5.745491e-01
 0.000000e+00 0.000000e+00 0.000000e+00 0.000000e+00 0.000000e+00 0.000000e+00
<ENDHMM>
~h "c"
<BEGINHMM>
<NUMSTATES> 6
<STATE> 2
<MEAN> 39
 -5.044371e+01 -1.519086e+01 -2.260404e+01 6.690550e+00 -3.858353e+00 1.395870e+01 7.650736e+00 -7.846056e+00 7.229183e-01 2.803619e+00 -7.374555e+00 1.173123e+01 8.503263e+00 -1.219552e+00 3.861428e+00 -3.213555e-01 -6.080499e-01 -5.847754e-01 6.766392e-01 4.855534e-01 -1.130118e+00 -4.985531e-01 -2.696941e+00 4.165757e-01 -3.821495e-02 -1.562263e+00 1.092230e+00 3.500350e+00 6.089050e-01 -3.492768e-01 9.485574e-02 -6.525859e-01 4.005661e-01 -6.058384e-01 7.828627e-01 -7.904756e-01 6.427822e-02 2.218708e-02 2.413265e+00
<VARIANCE> 39
 3.063265e+01 6.845278e+00 1.416091e+01 1.566294e+01 1.508743e+01 2.875424e+01 1.844545e+01 1.727297e+01 4.851742e+01 3.462927e+01 1.625753e+01 1.477655e+01 4.534481e+01 4.141564e+00 1.049087e+01 2.109143e+00 2.027593e+00 3.794457e+00 4.098939e+00 1.957648e+00 2.552906e+00 2.075414e+00 5.303689e+00 2.453289e+00 1.892463e+00 6.982125e+00 4.220278e-01 9.838269e-01 6.956484e-01 5.313274e-01 7.693356e-01 1.071958e+00 7.187570e-01 5.829325e-01 8.442175e-01 1.006548e+00 6.318710e-01 5.866333e-01 8.884498e-01
<GCONST> 1.222285e+02
<STATE> 3
<MEAN> 39
 -4.982837e+01 -1.502611e+01 -2.154844e+01 7.155622e+00 -2.651804e+00 1.331106e+01 7.705134e+00 -8.678809e+00 -9.039873e-02 1.743738e+00 -7.525281e+00 1.039088e+01 6.544282e+00 1.303084e+00 6.510215e+00 -1.516999e-01 -8.743775e-01 -1.060271e-01 -1.661512e-01 6.069081e-01 -1.016739e+00 -2.647694e-01 -4.807868e-01 1.773269e-02 4.796618e-02 1.344247e+00 9.684373e-01 3.142604e+00 4.169142e-01 -2.519367e-01 5.910945e-02 -2.751627e-02 1.644688e-01 -5.106554e-01 6.855522e-01 2.210976e-02 1.049484e-01 2.471005e-01 1.853779e+00
<VARIANCE> 39
 3.690050e+01 4.058507e+00 1.204861e+01 1.089367e+01 8.858081e+00 1.432620e+01 1.106683e+01 1.170759e+01 3.008326e+01 2.124550e+01 1.157397e+01 1.135913e+01 3.404739e+01 3.550428e+00 1.688762e+01 1.705871e+00 1.488591e+00 2.956960e+00 4.223025e+00 1.629394e+00 2.031818e+00 2.022831e+00 3.732718e+00 2.052276e+00 1.247379e+00 6.359547e+00 7.487774e-01 1.028353e+00 3.038933e-01 3.303018e-01 4.309725e-01 9.659918e-01 3.809859e-01 4.004080e-01 9.340099e-01 6.745220e-01 4.010968e-01 3.537119e-01 5.585977e-01
<GCONST> 1.113827e+02
<STATE> 4
<MEAN> 39
 -7.416267e+01 -2.132901e+01 -2.191639e+01 7.827852e+00 -6.626291e+00 1.658161e+01 5.784966e+00 -9.527451e+00 1.566063e+00 3.961966e+00 -1.020879e+01 1.097823e+01 6.498874e+00 1.841543e+00 1.558472e+00 9.044363e-01 -7.244533e-01 -1.304500e+00 1.712641e+00 3.722017e-01 -1.016333e+00 -8.935635e-02 6.794516e-02 -4.602962e-01 8.264757e-01 2.606822e+00 -1.068499e-02 1.955691e+00 -3.262838e-02 -1.741885e-01 -5.642703e-02 -2.347235e-01 7.066433e-02 -3.623089e-01 2.569152e-01 -2.270696e-01 1.487674e-01 1.410712e-01 1.294441e+00
<VARIANCE> 39
 6.181140e+01 2.674652e+01 2.448814e+01 1.198309e+01 2.068985e+01 2.936622e+01 4.147784e+01 3.011679e+01 2.686195e+01 1.974996e+01 2.108763e+01 1.889921e+01 4.145724e+01 2.555847e+00 3.139815e+01 4.813014e+00 1.793130e+00 3.651298e+00 6.729056e+00 2.018945e+00 3.416706e+00 2.339290e+00 2.495106e+00 2.675998e+00 3.046989e+00 6.636410e+00 5.657045e-01 3.465204e+00 6.102251e-01 3.229315e-01 5.385144e-01 1.278864e+00 7.226741e-01 6.152004e-01 5.963950e-01 4.440514e-01 4.228053e-01 3.267082e-01 4.526276e-01
<GCONST> 1.254882e+02
<STATE> 5
<MEAN> 39
 -6.039157e+01 -3.120756e+01 -2.255721e+01 7.278450e+00 -7.441904e+00 1.420673e+01 6.062102e+00 -6.983337e+00 3.052841e+00 5.643449e+00 -9.279307e+00 1.081323e+01 1.047086e+01 1.165598e+00 -3.399120e-01 -7.099991e-01 -8.585112e-01 -2.422605e+00 6.456832e-02 4.776836e-01 -2.048696e-01 4.190516e-01 7.378291e-02 -2.204629e-01 1.151222e+00 4.398326e+00 -7.666169e-01 5.121787e+00 5.303552e-01 -5.272395e-01 1.533943e-01 -8.258504e-01 -4.653692e-01 -8.590310e-01 1.530101e-01 -1.525932e+00 4.015695e-01 9.285855e-02 1.657200e+00
<VARIANCE> 39
 3.410869e+01 4.709367e+01 3.281383e+01 2.267927e+01 2.730412e+01 4.454409e+01 4.048035e+01 6.879776e+01 2.649186e+01 2.415095e+01 2.042197e+01 2.657189e+01 4.620066e+01 2.267908e+00 6.378232e+00 6.475715e+00 2.010137e+00 7.395320e+00 5.728433e+00 3.356690e+00 4.708478e+00 5.967387e+00 3.990050e+00 5.727510e+00 4.077725e+00 1.131013e+01 3.610407e-01 5.224407e-01 4.927240e-01 4.667948e-01 4.808973e-01 1.429984e+00 4.215729e-01 5.255911e-01 5.784382e-01 6.343128e-01 4.041366e-01 3.078699e-01 2.019121e-01
<GCONST> 1.280828e+02
<TRANSP> 6
 0.000000e+00 1.000000e+00 0.000000e+00 0.000000e+00 0.000000e+00 0.000000e+00
 0.000000e+00 0.000000e+00 1.000000e+00 0.000000e+00 0.000000e+00 0.000000e+00
 0.000000e+00 0.000000e+00 7.899343e-01 2.100656e-01 0.000000e+00 0.000000e+00
 0.000000e+00 0.000000e+00 0.000000e+00 8.194685e-01 1.805314e-01 0.000000e+00
 0.000000e+00 0.000000e+00 0.000000e+00 0.000000e+00 0.000000e+00 1.000000e+00
 0.000000e+00 0.000000e+00 0.000000e+00 0.000000e+00 0.000000e+00 0.000000e+00
<ENDHMM>
~h "d"
<BEGINHMM>
<NUMSTATES> 6
<STATE> 2
<MEAN> 39
 -4.378252e+01 -2.077821e+01 -2.239792e+01 4.776841e+00 -5.415197e+00 8.596260e+00 8.409656e+00 -9.202720e+00 2.397423e-01 1.040434e+01 -8.953522e+00 1.081163e+01 2.237211e+01 4.189227e-01 3.029129e+00 -2.810352e-01 -1.014067e+00 -9.850523e-01 8.058087e-01 4.204205e-01 -7.555460e-01 1.023712e+00 4.157475e-01 -1.929920e-01 6.004052e-01 -1.489123e+00 3.048237e-02 2.566298e+00 1.330234e+00 5.980693e-02 -4.745886e-01 -7.449219e-01 4.920888e-01 -5.296021e-01 2.318129e-01 -2.716870e+00 -2.822717e-02 6.731456e-01 2.437302e+00
<VARIANCE> 39
 4.678108e+00 1.296021e+01 6.744523e+00 2.125402e+01 1.693346e+01 4.956532e+01 1.848498e+01 1.157823e+01 4.630023e+01 2.594272e+01 3.633194e+01 2.213857e+01 5.592987e+01 1.252275e+00 1.591386e+00 3.517164e+00 2.424772e+00 2.051889e+00 2.118351e+00 2.926415e+00 3.243674e+00 3.313978e+00 3.274243e+00 1.897158e+00 1.855722e+00 9.327711e+00 5.355985e-01 3.807967e-01 1.032647e+00 5.195921e-01 1.159612e+00 4.482408e-01 7.231807e-01 1.013782e+00 6.203293e-01 4.329826e-01 6.268323e-01 7.744315e-01 1.160712e+00
<GCONST> 1.180143e+02
<STATE> 3
<MEAN> 39
 -4.417702e+01 -2.032642e+01 -2.337202e+01 4.430955e+00 -5.492750e+00 6.538568e+00 7.488087e+00 -9.389626e+00 -5.051221e-01 1.135516e+01 -7.881564e+00 1.063646e+01 2.252851e+01 -2.868645e-01 4.834968e+00 3.364209e+00 -1.464730e-01 -2.055923e+00 -2.979893e-01 -5.676576e-02 -9.135279e-01 -2.064534e+00 -9.112490e-01 -2.637629e-01 1.510959e+00 4.221898e+00 5.008066e-01 2.218480e+00 1.387126e+00 -1.685375e-01 -6.238493e-01 -7.429978e-01 4.839079e-01 -4.163221e-01 -9.036784e-02 -2.720307e+00 -1.162017e-01 6.055654e-01 2.599397e+00
<VARIANCE> 39
 6.612823e+00 1.144357e+01 8.064307e+00 2.312323e+01 1.885979e+01 5.221490e+01 2.037668e+01 1.251228e+01 4.099775e+01 2.521452e+01 3.932445e+01 2.647944e+01 5.314407e+01 1.656167e+00 3.704913e+00 4.321568e+00 4.076230e+00 5.409302e+00 2.355188e+00 5.031312e+00 5.407573e+00 4.147405e+00 2.659723e+00 4.422698e+00 3.710192e+00 8.627131e+00 3.138778e-01 2.983969e-01 8.454559e-01 3.659256e-01 8.525593e-01 6.203675e-01 6.820067e-01 7.763124e-01 9.306684e-01 4.820448e-01 6.943269e-01 8.170390e-01 7.317414e-01
<GCONST> 1.229173e+02
<STATE> 4
<MEAN> 39
 -5.132380e+01 -2.739133e+01 -2.342104e+01 5.890312e+00 -5.872950e+00 1.158177e+01 4.422476e+00 -8.551764e+00 -5.752196e-01 7.329907e+00 -8.272144e+00 1.228281e+01 1.674534e+01 1.257740e-01 4.623735e+00 4.010630e+00 -2.198371e-01 -3.139109e+00 -7.617366e-01 -7.800472e-02 -4.598792e-01 -2.331277e+00 -6.119849e-01 1.327493e-02 1.550112e+00 6.345406e+00 6.722315e-01 1.857104e+00 1.142681e-01 -4.684182e-01 -4.251689e-01 -2.697196e-01 2.252019e-02 -2.973955e-01 1.214355e-01 -2.103615e+00 6.449923e-02 -4.373441e-01 1.461847e+00
<VARIANCE> 39
 3.536123e+01 3.672704e+01 3.510148e+01 2.262724e+01 2.930011e+01 5.391943e+01 3.621891e+01 5.248906e+01 3.907855e+01 3.006853e+01 3.591038e+01 2.832197e+01 5.996199e+01 2.891729e+00 3.962399e+00 6.986411e+00 2.604372e+00 6.519661e+00 4.028708e+00 4.249689e+00 5.513318e+00 6.929594e+00 4.224751e+00 5.046014e+00 4.117173e+00 1.171205e+01 2.650639e-01 2.893215e-01 6.656822e-01 5.865630e-01 6.637846e-01 5.613875e-01 6.393880e-01 7.589934e-01 9.389017e-01 6.608321e-01 7.032488e-01 6.949483e-01 4.580007e-01
<GCONST> 1.319670e+02
<STATE> 5
<MEAN> 39
 -5.372826e+01 -3.656531e+01 -2.708233e+01 6.100558e+00 -9.117230e+00 1.053398e+01 2.659089e+00 -9.165723e+00 -6.780323e-02 8.821798e+00 -6.239528e+00 1.160285e+01 1.480473e+01 -7.710680e-02 3.505840e+00 1.436009e+00 -7.391756e-01 -2.839294e+00 1.673854e-01 3.261023e-01 1.531375e-01 3.776320e-01 1.427135e-01 4.029060e-01 8.499077e-01 4.579734e+00 6.130714e-01 1.775677e+00 -6.967461e-01 -3.754330e-01 -1.479398e-01 1.329852e-01 -1.933036e-01 -6.072481e-01 -2.190187e-01 -2.185438e+00 1.858338e-01 -8.844113e-01 5.984521e-01
<VARIANCE> 39
 2.608729e+01 5.864858e+01 4.551821e+01 1.923606e+01 3.596428e+01 7.613158e+01 3.814066e+01 8.280552e+01 3.542573e+01 2.583366e+01 3.729758e+01 3.708067e+01 5.104975e+01 1.666686e+00 3.118299e+00 9.623156e+00 1.942835e+00 7.173878e+00 4.726619e+00 3.194674e+00 5.637202e+00 1.160641e+01 5.187203e+00 5.098112e+00 3.764984e+00 1.193361e+01 2.991201e-01 3.071719e-01 4.975199e-01 5.651591e-01 5.632336e-01 5.612131e-01 5.495921e-01 6.682366e-01 6.792583e-01 6.909291e-01 5.587884e-01 6.415688e-01 3.409291e-01
<GCONST> 1.315967e+02
<TRANSP> 6
 0.000000e+00 1.000000e+00 0.000000e+00 0.000000e+00 0.000000e+00 0.000000e+00
 0.000000e+00 6.328260e-01 3.671740e-01 0.000000e+00 0.000000e+00 0.000000e+00
 0.000000e+00 0.000000e+00 3.320081e-01 6.679919e-01 0.000000e+00 0.000000e+00
 0.000000e+00 0.000000e+00 0.000000e+00 7.978531e-02 9.202147e-01 0.000000e+00
 0.000000e+00 0.000000e+00 0.000000e+00 0.000000e+00 3.697216e-01 6.302784e-01
 0.000000e+00 0.000000e+00 0.000000e+00 0.000000e+00 0.000000e+00 0.000000e+00
<ENDHMM>
~h "e"
<BEGINHMM>
<NUMSTATES> 6
<STATE> 2
<MEAN> 39
 -5.309995e+01 -4.006289e+01 -2.605901e+01 8.872963e+00 -1.250790e+00 1.162442e+01 7.961424e+00 -6.146315e+00 2.796881e-01 7.504603e+00 -3.350812e+00 8.616933e+00 1.083347e+01 -9.993359e-02 2.721400e+00 1.054717e+00 -1.144696e+00 -1.755976e+00 5.308553e-01 6.847324e-01 -5.083841e-01 1.172889e+00 4.937715e-03 -2.661832e-01 1.021937e+00 3.057684e+00 -5.958207e-02 2.807940e+00 7.001571e-02 -1.571498e-01 -3.744237e-01 -3.258122e-01 3.959707e-02 -1.087122e+00 6.012980e-02 -1.662087e+00 2.962991e-01 2.865634e-01 4.639575e-01
<VARIANCE> 39
 2.786276e+01 3.392683e+01 5.245902e+01 2.975567e+01 1.405878e+02 5.000094e+01 5.928075e+01 1.083117e+02 6.231302e+01 3.747967e+01 5.013501e+01 3.910740e+01 4.632494e+01 1.276158e+00 3.554169e+00 4.319592e+00 3.147132e+00 4.863521e+00 3.530729e+00 4.168539e+00 6.312550e+00 4.143877e+00 3.326235e+00 5.173458e+00 4.872696e+00 7.628990e+00 6.442149e-01 1.298406e+00 6.520815e-01 7.715622e-01 8.534858e-01 8.761238e-01 1.057257e+00 1.030280e+00 4.937581e-01 4.721818e-01 1.276925e+00 6.742877e-01 7.540107e-01
<GCONST> 1.378385e+02
<STATE> 3
<MEAN> 39
 -5.513135e+01 -4.373792e+01 -2.541186e+01 7.562887e+00 -8.470171e+00 1.368554e+01 7.552438e+00 -6.819699e+00 7.652257e-01 7.051212e+00 -1.183190e+00 8.350683e+00 1.167783e+01 6.574807e-02 2.773494e+00 -6.114722e-02 -5.723624e-01 -1.414397e+00 6.773320e-01 6.351795e-01 -1.252759e+00 -1.577107e-01 -6.406583e-01 -4.396518e-01 6.780169e-01 -9.803956e-01 3.863338e-01 2.365824e+00 2.756418e-01 -3.289539e-02 -3.575583e-01 -2.738335e-01 3.212899e-01 -8.536780e-01 7.361050e-02 -1.568493e+00 1.976545e-01 2.837201e-01 1.160897e+00
<VARIANCE> 39
 2.093957e+01 2.898819e+01 5.622020e+01 3.181731e+01 1.380995e+02 8.014351e+01 7.620932e+01 1.378931e+02 5.098092e+01 6.538515e+01 5.074356e+01 4.409923e+01 5.098274e+01 5.133574e-01 1.961653e+00 2.362679e+00 1.714231e+00 2.898556e+00 1.889113e+00 2.600789e+00 4.695886e+00 2.100677e+00 1.780102e+00 3.582623e+00 2.491606e+00 2.955962e+00 1.283823e-01 4.855040e-01 5.027617e-01 3.517227e-01 6.545748e-01 4.263889e-01 6.412160e-01 6.391003e-01 3.838930e-01 4.023130e-01 6.509880e-01 4.050311e-01 8.067498e-01
<GCONST> 1.240118e+02
<STATE> 4
<MEAN> 39
 -5.289084e+01 -4.034855e+01 -2.630332e+01 7.849562e+00 -1.667986e+00 1.194186e+01 8.101501e+00 -6.510906e+00 1.800488e+00 6.020774e+00 -4.454828e+00 8.773026e+00 1.264629e+01 1.934169e-01 2.430128e+00 -1.020179e+00 -8.448615e-01 -1.048691e+00 9.653331e-01 6.871666e-01 -1.835111e+00 -1.209272e+00 -8.420200e-01 -2.657703e-01 -3.064443e-01 -4.844752e+00 3.477932e-01 2.589284e+00 2.762179e-01 -2.926392e-01 -3.262021e-01 -1.166530e-01 3.218228e-01 -5.540443e-01 2.308370e-02 -1.767133e+00 3.470997e-01 8.660943e-02 1.055391e+00
<VARIANCE> 39
 3.111030e+01 3.542601e+01 5.667128e+01 3.570193e+01 1.613858e+02 7.236335e+01 7.444746e+01 1.276647e+02 5.590518e+01 4.551896e+01 7.099471e+01 4.552927e+01 5.749749e+01 1.286815e+00 4.534680e+00 3.850778e+00 3.431708e+00 4.680310e+00 3.380774e+00 5.613199e+00 7.568337e+00 3.748762e+00 2.099600e+00 5.367350e+00 3.522385e+00 8.249021e+00 1.089047e-01 4.445756e-01 5.961315e-01 6.568097e-01 7.510431e-01 4.600016e-01 1.071321e+00 9.835977e-01 6.444631e-01 3.927386e-01 1.062331e+00 6.231343e-01 4.682064e-01
<GCONST> 1.352414e+02
<STATE> 5
<MEAN> 39
 -5.025171e+01 -3.292749e+01 -2.418367e+01 7.824030e+00 -2.572256e+00 1.300169e+01 8.880877e+00 -7.604836e+00 1.254948e+00 5.682356e+00 -5.914407e+00 9.015086e+00 1.323514e+01 -5.209185e-03 2.622297e+00 -1.149323e+00 -1.081947e+00 -1.196320e+00 1.191412e+00 4.789768e-01 -1.300442e+00 -1.103182e+00 -1.041534e+00 -7.689624e-02 -4.928329e-01 -5.037540e+00 4.140749e-01 2.557284e+00 6.965400e-01 -2.439369e-01 -2.611662e-01 -2.454137e-01 6.492004e-01 -3.465442e-01 2.232975e-01 -1.644617e+00 2.120037e-01 -1.551435e-01 2.120573e+00
<VARIANCE> 39
 4.000787e+01 7.394399e+01 4.678156e+01 3.763187e+01 1.387182e+02 8.047787e+01 7.335657e+01 9.193208e+01 6.371597e+01 5.240030e+01 8.048013e+01 4.823706e+01 6.571482e+01 2.405931e+00 5.346852e+00 4.932616e+00 3.500690e+00 4.566120e+00 3.901391e+00 7.372335e+00 6.789211e+00 5.115970e+00 3.791390e+00 4.350873e+00 3.882165e+00 1.283632e+01 2.616919e-01 3.799962e-01 5.239420e-01 6.329507e-01 7.623969e-01 6.137505e-01 1.381030e+00 9.514403e-01 7.428866e-01 8.884285e-01 7.980383e-01 6.072759e-01 4.323228e-01
<GCONST> 1.405063e+02
<TRANSP> 6
 0.000000e+00 1.000000e+00 0.000000e+00 0.000000e+00 0.000000e+00 0.000000e+00
 0.000000e+00 2.330821e-01 7.669179e-01 0.000000e+00 0.000000e+00 0.000000e+00
 0.000000e+00 0.000000e+00 6.212103e-01 3.787897e-01 0.000000e+00 0.000000e+00
 0.000000e+00 0.000000e+00 0.000000e+00 1.473013e-01 8.526987e-01 0.000000e+00
 0.000000e+00 0.000000e+00 0.000000e+00 0.000000e+00 2.520556e-01 7.479444e-01
 0.000000e+00 0.000000e+00 0.000000e+00 0.000000e+00 0.000000e+00 0.000000e+00
<ENDHMM>
~h "f"
<BEGINHMM>
<NUMSTATES> 6
<STATE> 2
<MEAN> 39
 -5.711928e+01 -2.443003e+01 -2.521290e+01 9.080700e+00 -7.448030e-01 1.426041e+01 1.257260e+01 -9.236452e+00 -1.346187e-01 1.171032e-01 -7.210409e+00 1.064957e+01 8.564677e+00 -1.434541e+00 7.415802e+00 -1.750900e-01 5.749230e-01 -1.980916e+00 6.675156e-01 -2.381025e-01 -1.164717e+00 -7.534798e-01 -1.990845e+00 -1.189380e+00 1.627964e-01 -2.322615e+00 4.014468e-01 2.284651e+00 6.652933e-01 -6.151049e-01 -1.907329e-01 -9.427092e-01 1.843790e-02 -6.506383e-01 6.505560e-01 -7.426839e-01 5.670561e-01 1.998636e-01 2.286443e+00
<VARIANCE> 39
 3.856749e+01 2.310744e+01 2.341823e+01 4.572176e+01 7.533130e+01 3.756598e+01 2.551944e+01 2.262932e+01 5.294210e+01 4.379431e+01 2.179423e+01 2.443188e+01 6.777435e+01 1.658208e+00 3.721213e+00 2.475675e+00 3.168561e+00 2.376539e+00 4.384287e+00 3.010074e+00 4.176508e+00 2.958734e+00 4.259243e+00 2.473731e+00 2.830675e+00 9.397831e+00 3.437015e-01 4.192351e-01 5.505435e-01 5.576872e-01 9.204487e-01 7.896615e-01 1.065588e+00 7.564341e-01 7.689736e-01 7.484130e-01 4.953983e-01 5.495945e-01 5.803148e-01
<GCONST> 1.274198e+02
<STATE> 3
<MEAN> 39
 -6.250133e+01 -2.259808e+01 -2.748741e+01 1.039781e+01 -2.371946e+00 1.491497e+01 1.239528e+01 -1.005021e+01 1.855672e+00 -6.135231e-01 -8.114311e+00 1.036352e+01 7.133532e+00 -1.053247e+00 5.441313e+00 -2.097994e-01 -5.442162e-01 -2.134133e+00 -9.687581e-01 6.202307e-01 -1.131371e+00 -7.662063e-01 -3.785026e-01 -1.197665e+00 1.290370e-01 -1.252167e-01 9.417452e-01 1.986217e+00 1.127653e-01 -8.891474e-01 -1.867799e-01 -5.223411e-01 1.511821e-01 -6.365642e-01 7.614810e-01 -1.613601e-01 5.500025e-01 2.212770e-01 2.002348e+00
<VARIANCE> 39
 4.976551e+01 1.476978e+01 2.239870e+01 2.942028e+01 4.560198e+01 2.911595e+01 1.457951e+01 1.775857e+01 3.941327e+01 4.482701e+01 2.069547e+01 2.772800e+01 6.768462e+01 1.938578e+00 4.131418e+00 1.419748e+00 1.944207e+00 1.475114e+00 5.475821e+00 2.235603e+00 1.786367e+00 2.789906e+00 4.923306e+00 1.603540e+00 1.571295e+00 3.364440e+00 4.420402e-01 4.170799e-01 4.010751e-01 6.343008e-01 6.170932e-01 9.458578e-01 8.592867e-01 6.897560e-01 9.691979e-01 5.987833e-01 5.966590e-01 4.990809e-01 5.108047e-01
<GCONST> 1.203383e+02
<STATE> 4
<MEAN> 39
 -6.611254e+01 -2.077456e+01 -3.045011e+01 1.298616e+01 -4.648978e+00 1.524367e+01 1.243710e+01 -1.229210e+01 1.422704e+00 -1.516052e+00 -9.663338e+00 8.031474e+00 1.450714e+00 9.093513e-01 3.065762e+00 -4.505123e-01 -1.078390e+00 -1.166336e+00 5.990900e-01 6.746718e-01 -1.075307e+00 -3.128979e-01 -4.740225e-01 3.691397e-02 2.267105e-01 -4.422744e-01 6.596355e-01 2.996496e+00 1.765525e-01 -3.811087e-01 -1.684053e-01 2.179331e-01 1.435952e-01 -5.083531e-01 2.056050e-01 3.831342e-01 3.266121e-01 2.898632e-01 1.620691e+00
<VARIANCE> 39
 2.339184e+01 1.335390e+01 1.982760e+01 2.044999e+01 3.100251e+01 2.043264e+01 1.218260e+01 1.146909e+01 2.012224e+01 2.146065e+01 1.481021e+01 1.552317e+01 3.510978e+01 1.173468e+00 2.609280e+00 1.141510e+00 1.549668e+00 1.106412e+00 2.681203e+00 1.589759e+00 1.117823e+00 1.961912e+00 2.348450e+00 1.517096e+00 1.466492e+00 2.206267e+00 2.588728e-01 3.093622e-01 1.734842e-01 3.113093e-01 1.982053e-01 5.823807e-01 3.289943e-01 3.010928e-01 5.482914e-01 3.386768e-01 3.275109e-01 3.328186e-01 2.237923e-01
<GCONST> 1.010404e+02
<STATE> 5
<MEAN> 39
 -5.839167e+01 -2.548516e+01 -2.498208e+01 1.037459e+01 -4.875867e+00 1.557021e+01 1.070779e+01 -1.036568e+01 -3.357415e+00 1.396002e+00 -7.368390e+00 8.982522e+00 4.546866e+00 2.618366e+00 9.293893e-02 4.422202e-02 -2.073803e+00 -1.554291e+00 1.167045e+00 1.175581e+00 -4.140805e-01 2.212543e-01 -3.277045e-01 1.526517e+00 3.203632e-01 1.679016e+00 -1.639732e-01 3.585361e+00 5.409053e-01 -1.381675e-01 -5.072897e-01 -4.064703e-01 2.492810e-01 -4.326642e-01 5.161110e-01 -3.852277e-01 3.639876e-01 -3.360609e-02 1.829982e+00
<VARIANCE> 39
 5.396105e+01 4.511658e+01 2.630359e+01 2.974738e+01 7.371825e+01 3.723363e+01 3.058741e+01 4.279708e+01 3.346685e+01 3.434095e+01 2.879692e+01 1.903028e+01 4.298130e+01 4.589217e+00 5.779447e+00 5.455605e+00 4.907199e+00 4.602408e+00 5.136616e+00 3.367967e+00 4.878178e+00 3.122387e+00 3.557338e+00 5.891341e+00 5.344790e+00 1.424955e+01 6.678286e-01 7.561781e-01 3.888708e-01 7.240792e-01 4.790411e-01 7.349173e-01 5.297011e-01 5.531246e-01 7.313211e-01 8.836836e-01 5.605551e-01 4.371732e-01 4.454637e-01
<GCONST> 1.325134e+02
<TRANSP> 6
 0.000000e+00 1.000000e+00 0.000000e+00 0.000000e+00 0.000000e+00 0.000000e+00
 0.000000e+00 0.000000e+00 1.000000e+00 0.000000e+00 0.000000e+00 0.000000e+00
 0.000000e+00 0.000000e+00 6.156774e-01 3.843226e-01 0.000000e+00 0.000000e+00
 0.000000e+00 0.000000e+00 0.000000e+00 8.630639e-01 1.369361e-01 0.000000e+00
 0.000000e+00 0.000000e+00 0.000000e+00 0.000000e+00 7.141938e-01 2.858062e-01
 0.000000e+00 0.000000e+00 0.000000e+00 0.000000e+00 0.000000e+00 0.000000e+00
<ENDHMM>
~h "g"
<BEGINHMM>
<NUMSTATES> 6
<STATE> 2
<MEAN> 39
 -4.490377e+01 -2.068091e+01 -2.282558e+01 4.982001e+00 -4.666693e+00 1.465892e+01 8.489394e+00 -1.014480e+01 -1.577023e+00 1.261889e+01 -1.651245e+00 9.107018e+00 1.969236e+01 1.289427e-01 2.963705e+00 -1.816975e-01 -7.243823e-01 -1.024455e+00 7.267087e-01 -3.995337e-02 -1.184038e+00 3.964081e-01 5.329493e-01 -2.403262e-01 3.294963e-01 -1.310332e+00 3.280974e-01 2.702342e+00 1.101727e+00 1.702963e-01 -4.672745e-01 -6.424499e-01 1.052200e-01 -1.262839e-01 -7.858509e-02 -2.955423e+00 1.425638e-01 6.520458e-01 2.393515e+00
<VARIANCE> 39
 7.385890e+00 1.251594e+01 1.643151e+01 4.605200e+01 4.714149e+01 7.134592e+01 3.293562e+01 1.472927e+01 6.169542e+01 2.582036e+01 5.641816e+01 3.446184e+01 6.493530e+01 7.828856e-01 2.606741e+00 3.157125e+00 3.954525e+00 3.200957e+00 1.385491e+00 3.658988e+00 4.270690e+00 3.717883e+00 2.945406e+00 2.639839e+00 2.757369e+00 5.981890e+00 2.405289e-01 4.096322e-01 8.246049e-01 5.892792e-01 7.673215e-01 2.989448e-01 1.075266e+00 1.125944e+00 8.547994e-01 4.054207e-01 7.731221e-01 9.062462e-01 7.170568e-01
<GCONST> 1.238324e+02
<STATE> 3
<MEAN> 39
 -4.579873e+01 -2.022493e+01 -2.326660e+01 3.317170e+00 -5.029697e+00 1.449717e+01 7.605008e+00 -9.864324e+00 1.658196e+00 1.377217e+01 -1.847149e+00 9.646653e+00 1.827687e+01 -5.371384e-01 5.402889e+00 1.108945e+00 -5.889598e-02 -2.362869e+00 -5.853296e-02 -5.273603e-01 1.966987e-01 -2.653453e+00 -2.157716e+00 -4.783133e-01 9.432983e-01 4.663562e+00 8.644152e-01 2.278627e+00 1.003117e+00 -3.463534e-01 -5.843024e-01 -5.840467e-01 3.077015e-01 -1.520064e-01 -5.251270e-01 -2.747017e+00 4.285702e-01 2.294706e-01 2.157721e+00
<VARIANCE> 39
 1.236053e+01 1.630734e+01 2.178730e+01 4.744857e+01 4.007404e+01 6.189543e+01 3.425543e+01 1.731956e+01 3.383121e+01 2.988917e+01 4.848882e+01 3.292407e+01 6.961230e+01 1.269887e+00 3.525260e+00 6.426783e+00 6.543006e+00 6.458272e+00 1.816652e+00 3.975342e+00 5.568825e+00 4.780768e+00 3.303308e+00 4.835370e+00 4.653647e+00 6.658730e+00 2.047091e-01 3.407222e-01 5.387012e-01 5.944064e-01 5.139076e-01 4.112617e-01 6.535400e-01 1.210580e+00 9.405556e-01 4.822249e-01 5.965921e-01 6.224303e-01 4.975711e-01
<GCONST> 1.271606e+02
<STATE> 4
<MEAN> 39
 -5.580892e+01 -2.745772e+01 -2.770705e+01 6.291904e+00 -1.841932e+00 1.291634e+01 6.297248e+00 -7.401656e+00 3.944153e+00 8.385088e+00 -1.677894e+00 1.153424e+01 1.193839e+01 1.285581e+00 4.052384e+00 1.947452e+00 -6.950504e-01 -3.513920e+00 -5.273543e-01 4.117795e-01 1.145515e-01 -2.199555e+00 -1.656583e+00 1.128864e+00 1.622108e+00 3.912004e+00 8.472223e-01 1.515586e+00 5.271648e-01 -5.426397e-01 -4.481072e-01 -9.313023e-02 5.096961e-01 -5.556092e-01 8.268380e-01 -1.867500e+00 5.151117e-01 -8.256489e-01 9.330730e-01
<VARIANCE> 39
 4.142588e+01 3.303012e+01 4.703823e+01 5.559138e+01 8.867123e+01 7.582605e+01 5.461668e+01 3.641557e+01 4.628019e+01 3.376075e+01 5.374181e+01 3.259604e+01 5.404097e+01 2.492486e+00 4.007434e+00 4.455437e+00 2.505904e+00 6.102853e+00 3.635956e+00 3.113479e+00 5.790859e+00 4.763962e+00 5.427081e+00 4.599006e+00 3.551652e+00 8.833844e+00 3.739956e-01 3.882036e-01 5.987101e-01 1.258830e+00 6.002963e-01 5.191196e-01 7.522128e-01 1.412913e+00 9.626026e-01 6.151903e-01 7.196156e-01 7.904671e-01 6.424100e-01
<GCONST> 1.360703e+02
<STATE> 5
<MEAN> 39
 -5.558913e+01 -3.468256e+01 -2.873341e+01 8.805805e+00 -8.449214e+00 1.464993e+01 3.026196e+00 -1.175086e+01 -6.707284e-01 1.057970e+01 2.838404e+00 1.135212e+01 9.812491e+00 -7.690126e-02 1.740822e+00 7.178441e-01 -9.994404e-01 -2.319800e+00 6.047896e-01 3.085855e-01 -2.810039e-01 9.674881e-01 1.334995e+00 1.061321e+00 8.890382e-01 2.655127e+00 2.167151e-01 2.322855e+00 -2.909755e-01 -2.364469e-02 -7.543661e-02 4.121503e-02 -1.447235e-01 -1.037091e+00 2.386702e-01 -2.376891e+00 -1.336174e-01 -5.634244e-01 1.507764e+00
<VARIANCE> 39
 2.961502e+01 5.910983e+01 4.994868e+01 4.619985e+01 9.177502e+01 7.430087e+01 5.462623e+01 6.865131e+01 4.582671e+01 2.902393e+01 5.605972e+01 4.155592e+01 4.932038e+01 2.047562e+00 3.074655e+00 5.009738e+00 2.009307e+00 6.639036e+00 3.397207e+00 3.810136e+00 4.952765e+00 5.969517e+00 4.217026e+00 5.507531e+00 3.685209e+00 6.899323e+00 3.142013e-01 4.314846e-01 4.803323e-01 4.706041e-01 4.959610e-01 4.777555e-01 5.430610e-01 9.512603e-01 9.633877e-01 3.208886e-01 5.532156e-01 6.176023e-01 3.089628e-01
<GCONST> 1.321528e+02
<TRANSP> 6
 0.000000e+00 1.000000e+00 0.000000e+00 0.000000e+00 0.000000e+00 0.000000e+00
 0.000000e+00 6.860473e-01 3.139527e-01 0.000000e+00 0.000000e+00 0.000000e+00
 0.000000e+00 0.000000e+00 3.328640e-01 6.671360e-01 0.000000e+00 0.000000e+00
 0.000000e+00 0.000000e+00 0.000000e+00 4.889482e-01 5.110518e-01 0.000000e+00
 0.000000e+00 0.000000e+00 0.000000e+00 0.000000e+00 5.657594e-01 4.342406e-01
 0.000000e+00 0.000000e+00 0.000000e+00 0.000000e+00 0.000000e+00 0.000000e+00
<ENDHMM>
~h "h"
<BEGINHMM>
<NUMSTATES> 6
<STATE> 2
<MEAN> 39
 -5.657663e+01 -3.176659e+01 -2.059995e+01 6.266956e+00 1.704747e+00 1.215864e+01 1.120547e+01 -6.336646e+00 1.870645e-01 -3.786431e+00 -8.444217e+00 1.244979e+01 1.654333e+01 -2.306546e-01 3.395406e+00 -1.469673e-01 -5.709189e-01 -1.053922e+00 1.757720e+00 -2.187389e-01 -1.575139e+00 -4.636440e-01 -1.435345e+00 5.389222e-01 3.299769e-01 -2.070143e+00 4.873660e-01 2.492135e+00 6.376143e-01 -4.576816e-01 -1.659692e-01 -6.822088e-01 2.908095e-02 -4.860390e-01 3.019767e-01 -9.815530e-01 5.004445e-01 2.325807e-01 1.962577e+00
<VARIANCE> 39
 3.199588e+01 5.014524e+01 4.727692e+01 4.830927e+01 9.195583e+01 6.532700e+01 6.054791e+01 6.923518e+01 5.778767e+01 9.500159e+01 4.866890e+01 6.012292e+01 8.344860e+01 1.732822e+00 3.588028e+00 2.898219e+00 2.577569e+00 3.622835e+00 3.671652e+00 3.080389e+00 3.866930e+00 4.131586e+00 3.486912e+00 3.158777e+00 2.352360e+00 1.163013e+01 2.743577e-01 3.990917e-01 4.789577e-01 5.352411e-01 7.740456e-01 8.491810e-01 7.610233e-01 6.826435e-01 5.626477e-01 7.880147e-01 5.288900e-01 5.397634e-01 5.558676e-01
<GCONST> 1.335783e+02
<STATE> 3
<MEAN> 39
 -5.720007e+01 -3.076966e+01 -1.949518e+01 7.835237e+00 9.372907e-01 1.338177e+01 1.122291e+01 -7.752366e+00 -1.658896e-01 -6.008706e+00 -8.966093e+00 1.413581e+01 1.784394e+01 -1.925752e-01 3.115696e+00 -6.817263e-02 -8.745227e-01 -1.252438e+00 1.072926e+00 9.831013e-02 -9.640005e-01 -5.395984e-01 -1.345049e+00 2.887295e-01 1.057111e-01 -1.282512e+00 7.253738e-01 2.524051e+00 3.254242e-01 -6.531337e-01 -7.480668e-02 -7.843936e-01 1.266218e-01 -6.088660e-01 5.927399e-01 -8.169194e-01 4.409323e-01 2.266333e-01 2.089982e+00
<VARIANCE> 39
 3.567092e+01 4.369735e+01 4.176437e+01 4.537944e+01 8.654195e+01 6.749208e+01 6.092624e+01 5.679919e+01 5.482935e+01 9.181908e+01 4.376036e+01 5.970549e+01 1.014271e+02 2.231848e+00 2.571791e+00 2.461942e+00 2.481160e+00 3.020937e+00 6.160633e+00 2.518754e+00 2.597844e+00 3.566236e+00 3.525215e+00 2.718292e+00 2.318987e+00 7.136235e+00 2.954968e-01 3.387523e-01 3.999612e-01 5.241343e-01 7.510706e-01 9.000344e-01 6.972786e-01 5.789195e-01 6.921116e-01 8.487359e-01 5.539736e-01 5.715436e-01 5.046245e-01
<GCONST> 1.315777e+02
<STATE> 4
<MEAN> 39
 -5.465255e+01 -2.869165e+01 -1.748404e+01 9.575458e+00 3.811812e-01 1.277592e+01 1.039431e+01 -7.535294e+00 2.416312e+00 -7.069159e+00 -8.966640e+00 1.659840e+01 2.022689e+01 8.381825e-01 2.717982e+00 -7.013118e-01 -1.142918e+00 -1.145126e+00 3.149360e-01 5.154936e-01 -7.792580e-01 -1.060997e-01 -3.986929e-01 -9.216941e-02 2.816560e-01 -5.743593e-01 5.983189e-01 2.593027e+00 1.964001e-01 -3.559517e-01 -1.488482e-01 -2.299633e-01 2.848342e-01 -6.445228e-01 3.570612e-01 -5.916605e-02 2.079282e-01 4.270594e-01 1.737146e+00
<VARIANCE> 39
 4.075507e+01 4.005195e+01 3.600381e+01 4.452531e+01 6.299170e+01 6.164563e+01 4.147419e+01 3.806813e+01 2.962341e+01 7.063651e+01 3.632690e+01 5.574288e+01 1.476446e+02 2.387065e+00 1.354477e+00 1.531286e+00 1.799786e+00 1.972541e+00 6.433513e+00 1.995142e+00 1.710796e+00 2.609191e+00 3.077798e+00 2.021431e+00 1.581148e+00 4.952174e+00 3.870691e-01 1.914248e-01 2.312373e-01 3.646891e-01 3.540162e-01 1.119481e+00 4.062799e-01 3.989012e-01 6.350065e-01 1.094397e+00 3.927128e-01 4.830972e-01 2.603467e-01
<GCONST> 1.219459e+02
<STATE> 5
<MEAN> 39
 -5.546444e+01 -2.754151e+01 -2.064163e+01 8.111539e+00 9.470593e-01 1.243073e+01 1.015075e+01 -6.733259e+00 3.202657e+00 -2.738175e+00 -8.598940e+00 1.372756e+01 1.763763e+01 1.016590e+00 2.490376e+00 -5.092713e-01 -1.402813e+00 -1.759153e+00 -4.042564e-01 1.146219e+00 -1.944768e-01 2.217485e-02 1.093349e-02 -9.028817e-02 2.603166e-01 2.552257e-01 1.738706e-01 2.692451e+00 4.771183e-01 -1.275662e-01 -1.023386e-01 -2.803333e-01 2.874627e-01 -6.464499e-01 3.133951e-01 -8.493612e-01 1.241327e-01 2.030192e-01 1.896134e+00
<VARIANCE> 39
 5.680790e+01 7.677056e+01 4.115983e+01 4.732013e+01 8.091383e+01 6.792188e+01 6.114550e+01 6.264033e+01 4.166002e+01 7.913554e+01 4.309615e+01 4.760684e+01 1.162134e+02 3.676774e+00 3.736925e+00 3.328054e+00 2.944779e+00 4.025247e+00 6.311675e+00 3.114343e+00 3.861604e+00 3.834677e+00 4.191213e+00 3.717255e+00 2.538543e+00 1.768441e+01 6.787714e-01 3.527213e-01 5.027233e-01 5.440068e-01 5.285331e-01 1.085089e+00 6.569899e-01 5.995958e-01 7.917154e-01 1.107057e+00 4.947899e-01 5.761980e-01 5.481602e-01
<GCONST> 1.372946e+02
<TRANSP> 6
 0.000000e+00 1.000000e+00 0.000000e+00 0.000000e+00 0.000000e+00 0.000000e+00
 0.000000e+00 2.679777e-04 9.997320e-01 0.000000e+00 0.000000e+00 0.000000e+00
 0.000000e+00 0.000000e+00 3.477389e-01 6.522611e-01 0.000000e+00 0.000000e+00
 0.000000e+00 0.000000e+00 0.000000e+00 7.280729e-01 2.719271e-01 0.000000e+00
 0.000000e+00 0.000000e+00 0.000000e+00 0.000000e+00 5.065687e-01 4.934312e-01
 0.000000e+00 0.000000e+00 0.000000e+00 0.000000e+00 0.000000e+00 0.000000e+00
<ENDHMM>
~h "i"
<BEGINHMM>
<NUMSTATES> 6
<STATE> 2
<MEAN> 39
 -5.728471e+01 -3.231877e+01 -2.666279e+01 9.276314e+00 -1.373620e+01 2.564321e+01 -3.432222e+00 -1.131056e+01 1.799442e+00 9.104453e+00 -4.588272e+00 1.106990e+01 8.606771e+00 4.081195e-01 3.731724e+00 3.290522e+00 -1.098045e+00 -3.234381e+00 1.359666e-01 8.651797e-01 3.196396e-01 -2.100783e-01 3.080255e-01 2.850643e-01 -4.560228e-01 3.973790e-01 -4.043388e-01 2.670543e+00 -7.087978e-01 -1.410028e-01 -1.280864e-02 -1.001119e-01 7.841593e-03 -8.954939e-01 8.979650e-02 -2.668323e+00 -2.780279e-01 -6.795358e-02 1.310468e+00
<VARIANCE> 39
 3.156264e+01 3.005387e+01 4.526736e+01 2.629142e+01 2.303490e+01 3.974444e+01 6.348884e+01 9.591003e+01 4.047367e+01 1.887948e+01 4.501799e+01 4.503983e+01 4.684084e+01 1.939704e+00 4.199009e+00 4.771289e+00 2.218821e+00 5.347089e+00 3.646846e+00 3.642267e+00 5.096785e+00 3.233348e+00 2.715862e+00 3.310870e+00 4.411609e+00 3.764845e+00 8.263910e-01 1.431872e+00 8.716062e-01 4.576391e-01 7.755803e-01 8.083624e-01 7.933531e-01 8.109283e-01 4.165626e-01 3.098110e-01 6.172450e-01 5.444747e-01 3.128876e-01
<GCONST> 1.298176e+02
<STATE> 3
<MEAN> 39
 -5.980739e+01 -3.238526e+01 -2.653130e+01 8.933744e+00 -1.437116e+01 3.048999e+01 -9.222409e+00 -1.213634e+01 2.287916e+00 1.171484e+01 -4.157897e+00 1.091513e+01 8.096800e+00 -1.881854e-01 2.835279e+00 4.366157e-01 -5.348891e-01 -1.144862e+00 4.706971e-01 1.086144e+00 -9.838468e-01 -3.308624e-01 -2.554497e-01 -1.819806e-01 5.820554e-01 -7.552643e-01 3.614855e-01 2.587059e+00 6.305769e-02 1.349416e-02 -7.942080e-02 -1.188719e-01 4.056077e-01 -7.801920e-01 1.978532e-01 -2.813676e+00 -1.173264e-01 1.040717e-02 1.504428e+00
<VARIANCE> 39
 2.244254e+01 2.626326e+01 5.069088e+01 3.127915e+01 1.941345e+01 3.991437e+01 7.463373e+01 1.284387e+02 3.274777e+01 1.761749e+01 5.063866e+01 5.894702e+01 4.019662e+01 5.042319e-01 2.276520e+00 1.811472e+00 1.116508e+00 2.743268e+00 1.523757e+00 1.816206e+00 2.666534e+00 1.635005e+00 1.252129e+00 2.060206e+00 2.186311e+00 2.047671e+00 9.801383e-02 4.252252e-01 8.408819e-01 1.978775e-01 5.406328e-01 3.611581e-01 4.914420e-01 5.396088e-01 2.848204e-01 3.183401e-01 3.101345e-01 3.267109e-01 1.911808e-01
<GCONST> 1.118105e+02
<STATE> 4
<MEAN> 39
 -5.603643e+01 -3.364251e+01 -2.665129e+01 8.954503e+00 -1.561989e+01 2.942943e+01 -3.284226e+00 -1.243507e+01 2.596218e+00 1.131715e+01 -3.625738e+00 1.067870e+01 8.243006e+00 -7.180666e-01 1.499752e+00 -3.392623e+00 -7.572324e-01 1.281588e-01 1.311374e+00 2.815911e-01 -1.389218e+00 -4.347209e-01 -1.494882e-03 -1.651504e-01 3.655807e-01 -2.116943e+00 5.570560e-01 2.840495e+00 2.872127e-01 -1.009566e-01 -2.650814e-01 -6.454037e-02 -4.064606e-01 -4.158637e-01 1.960560e-01 -2.627327e+00 -1.346800e-01 -7.921085e-02 1.278689e+00
<VARIANCE> 39
 2.998838e+01 3.085437e+01 4.686875e+01 2.615291e+01 2.255712e+01 5.720592e+01 6.402056e+01 9.835023e+01 4.111049e+01 2.163746e+01 5.715424e+01 5.015878e+01 5.006274e+01 1.512964e+00 6.076834e+00 4.350111e+00 2.173982e+00 4.572450e+00 3.679976e+00 3.952169e+00 4.641356e+00 4.517168e+00 2.438929e+00 2.954414e+00 2.983705e+00 7.346784e+00 1.192002e-01 4.329877e-01 7.671161e-01 3.282963e-01 6.246157e-01 4.742208e-01 7.621338e-01 9.721884e-01 6.656213e-01 3.343511e-01 5.479556e-01 6.027012e-01 3.111661e-01
<GCONST> 1.273243e+02
<STATE> 5
<MEAN> 39
 -5.129398e+01 -2.512158e+01 -2.277226e+01 8.171682e+00 -9.414917e+00 2.169818e+01 2.698880e+00 -9.689545e+00 1.390991e+00 9.280615e+00 -5.803888e+00 1.075379e+01 1.091010e+01 -7.201706e-01 2.415126e+00 -3.103971e+00 -9.798715e-01 -5.402127e-01 1.536969e+00 -1.575659e-01 -1.250653e+00 -6.903321e-02 -9.151185e-01 -2.677812e-02 -3.065219e-01 -2.255332e+00 8.889736e-01 2.956381e+00 1.685891e+00 -1.446037e-01 -3.718063e-01 -4.884303e-01 4.454644e-01 -6.116160e-01 1.052901e-01 -1.840770e+00 2.180318e-01 -6.480443e-02 1.707987e+00
<VARIANCE> 39
 4.873842e+01 7.112110e+01 3.313525e+01 2.571416e+01 4.357095e+01 7.780728e+01 5.368817e+01 5.500619e+01 4.746012e+01 3.736583e+01 5.282056e+01 4.168335e+01 7.652697e+01 3.454774e+00 5.391165e+00 5.381335e+00 2.376861e+00 3.781214e+00 5.358889e+00 4.810764e+00 5.724479e+00 5.492873e+00 5.499805e+00 2.820890e+00 3.861472e+00 8.538608e+00 3.718660e-01 4.661158e-01 7.067717e-01 5.330883e-01 8.275672e-01 8.102418e-01 8.033478e-01 8.488879e-01 9.347434e-01 1.187526e+00 5.354157e-01 6.656714e-01 3.702229e-01
<GCONST> 1.365167e+02
<TRANSP> 6
 0.000000e+00 1.000000e+00 0.000000e+00 0.000000e+00 0.000000e+00 0.000000e+00
 0.000000e+00 4.873627e-01 5.126373e-01 0.000000e+00 0.000000e+00 0.000000e+00
 0.000000e+00 0.000000e+00 7.385368e-01 2.614632e-01 0.000000e+00 0.000000e+00
 0.000000e+00 0.000000e+00 0.000000e+00 5.106401e-01 4.893599e-01 0.000000e+00
 0.000000e+00 0.000000e+00 0.000000e+00 0.000000e+00 4.419245e-01 5.580755e-01
 0.000000e+00 0.000000e+00 0.000000e+00 0.000000e+00 0.000000e+00 0.000000e+00
<ENDHMM>
~h "j"
<BEGINHMM>
<NUMSTATES> 6
<STATE> 2
<MEAN> 39
 -4.892469e+01 -1.990376e+01 -2.271607e+01 4.166456e+00 -7.252038e+00 9.901455e+00 6.694680e+00 -8.450094e+00 1.096088e+00 1.277683e+01 -5.499742e+00 1.223021e+01 2.005064e+01 5.944885e-01 3.045567e+00 -1.459032e+00 -1.134540e+00 -3.085205e-01 1.319450e+00 4.113102e-01 -1.201156e+00 1.940604e+00 6.082548e-01 6.320710e-02 -3.990519e-01 -2.531294e+00 2.241873e-01 2.950629e+00 9.002320e-01 1.630186e-01 -3.621929e-01 -8.755395e-01 5.453148e-01 -5.408362e-01 5.652668e-01 -2.583799e+00 -8.098685e-03 5.996472e-01 2.083424e+00
<VARIANCE> 39
 2.445529e+01 1.295074e+01 1.497089e+01 1.746728e+01 2.322381e+01 4.510381e+01 3.759473e+01 2.270116e+01 5.459422e+01 2.571130e+01 3.843972e+01 2.137820e+01 5.380284e+01 1.219406e+00 8.530667e+00 4.534350e+00 2.862896e+00 3.875740e+00 3.240720e+00 2.647094e+00 3.693600e+00 4.000461e+00 4.002991e+00 2.232589e+00 2.336331e+00 8.007055e+00 5.716631e-01 8.284656e-01 7.601197e-01 4.797572e-01 7.519388e-01 5.832353e-01 6.017807e-01 7.986083e-01 7.259914e-01 4.295299e-01 4.707815e-01 6.495568e-01 5.717863e-01
<GCONST> 1.246481e+02
<STATE> 3
<MEAN> 39
 -4.970621e+01 -1.773501e+01 -2.214164e+01 3.427430e+00 -5.259080e+00 9.128605e+00 7.747846e+00 -9.155802e+00 3.328366e-01 1.324136e+01 -6.549513e+00 1.172754e+01 2.384416e+01 1.298627e-01 6.508727e+00 7.114245e-01 -2.260969e-01 -3.201015e-01 2.695537e-01 3.857529e-01 -1.499159e+00 -5.888648e-01 -8.770099e-01 -2.365875e-01 5.440282e-01 8.722615e-01 6.221119e-01 2.659459e+00 7.524701e-01 -1.010308e-01 -1.556782e-01 -7.364649e-01 6.242536e-01 -4.122753e-01 -1.191853e-01 -2.465927e+00 -4.287532e-02 4.494590e-01 1.917377e+00
<VARIANCE> 39
 5.237133e+01 7.749383e+00 1.395395e+01 1.846999e+01 1.137218e+01 2.701306e+01 2.433163e+01 1.483656e+01 3.194263e+01 2.692417e+01 2.281516e+01 1.549480e+01 6.713316e+01 8.531135e-01 1.310546e+01 3.928103e+00 2.026185e+00 2.904410e+00 2.371034e+00 1.852223e+00 2.838076e+00 3.845737e+00 4.146849e+00 2.157204e+00 1.769918e+00 6.712173e+00 2.836029e-01 1.421079e+00 6.447316e-01 4.383237e-01 4.869157e-01 5.768861e-01 5.112819e-01 6.180579e-01 7.463913e-01 5.074195e-01 3.964533e-01 6.817719e-01 5.045184e-01
<GCONST> 1.182160e+02
<STATE> 4
<MEAN> 39
 -6.905118e+01 -2.404027e+01 -2.359112e+01 7.516142e+00 -9.550813e+00 1.382995e+01 5.136266e+00 -1.202054e+01 1.857312e+00 1.031551e+01 -9.131438e+00 1.482517e+01 1.261493e+01 1.133937e+00 3.210584e-01 1.784250e+00 -3.380438e-01 -2.576523e+00 -8.785955e-01 -4.134296e-02 -8.580751e-01 -1.728205e+00 -2.147066e-01 3.558321e-01 2.071919e+00 3.510080e+00 3.203164e-01 1.716959e+00 -8.810008e-02 -4.112549e-01 -1.183809e-01 3.077938e-02 -4.882518e-01 3.571295e-02 5.766963e-01 -1.897342e+00 1.757873e-01 -4.522500e-01 1.379375e+00
<VARIANCE> 39
 5.526209e+01 3.410540e+01 3.098619e+01 1.493379e+01 3.003824e+01 4.803003e+01 4.138514e+01 3.861973e+01 3.596767e+01 2.788489e+01 2.386995e+01 2.516291e+01 4.118589e+01 2.260826e+00 1.911505e+01 6.341876e+00 1.581392e+00 4.639448e+00 5.922439e+00 2.734375e+00 4.697836e+00 4.295158e+00 6.119972e+00 4.980239e+00 3.117116e+00 4.740307e+00 5.155606e-01 3.176328e+00 7.856579e-01 3.227207e-01 5.458505e-01 8.569608e-01 1.459271e+00 9.078503e-01 7.637375e-01 5.629470e-01 4.634359e-01 6.424798e-01 2.330111e-01
<GCONST> 1.316695e+02
<STATE> 5
<MEAN> 39
 -5.867247e+01 -3.589694e+01 -2.433170e+01 8.425588e+00 -1.162281e+01 1.288198e+01 2.949427e+00 -1.249048e+01 1.244189e+00 1.115118e+01 -6.029646e+00 1.518396e+01 1.042971e+01 -5.432771e-01 6.780887e-01 -6.416580e-01 -8.636469e-01 -3.035968e+00 9.825000e-01 1.527390e-02 5.512574e-01 8.533137e-01 1.007172e+00 1.074372e+00 -3.277408e-01 3.936674e+00 1.470276e-01 4.537779e+00 -1.305906e-01 -5.932710e-01 1.884288e-02 3.774930e-01 -5.819731e-01 -1.282742e+00 -2.343413e-01 -2.397002e+00 3.202617e-01 -5.759821e-01 1.203802e+00
<VARIANCE> 39
 2.341735e+01 3.255536e+01 4.753036e+01 1.613151e+01 2.235037e+01 4.277856e+01 3.665966e+01 7.050036e+01 4.588253e+01 2.054726e+01 2.683406e+01 3.675715e+01 2.937673e+01 9.450346e-01 3.937190e+00 6.013996e+00 1.490640e+00 4.296562e+00 2.930816e+00 2.353725e+00 3.362770e+00 9.621343e+00 2.914279e+00 6.969862e+00 4.611344e+00 6.663912e+00 3.428027e-01 8.065825e-01 9.411523e-01 5.265146e-01 6.176558e-01 8.742431e-01 6.555245e-01 6.248578e-01 6.394292e-01 2.410398e-01 4.899713e-01 3.343605e-01 1.307443e-01
<GCONST> 1.243986e+02
<TRANSP> 6
 0.000000e+00 1.000000e+00 0.000000e+00 0.000000e+00 0.000000e+00 0.000000e+00
 0.000000e+00 0.000000e+00 1.000000e+00 0.000000e+00 0.000000e+00 0.000000e+00
 0.000000e+00 0.000000e+00 7.916221e-01 2.083779e-01 0.000000e+00 0.000000e+00
 0.000000e+00 0.000000e+00 0.000000e+00 7.536328e-01 2.463672e-01 0.000000e+00
 0.000000e+00 0.000000e+00 0.000000e+00 0.000000e+00 0.000000e+00 1.000000e+00
 0.000000e+00 0.000000e+00 0.000000e+00 0.000000e+00 0.000000e+00 0.000000e+00
<ENDHMM>
~h "k"
<BEGINHMM>
<NUMSTATES> 6
<STATE> 2
<MEAN> 39
 -5.035892e+01 -1.757183e+01 -2.408321e+01 6.999434e+00 -2.696713e-01 1.151683e+01 8.216016e+00 -8.968062e+00 2.242002e+00 8.258139e-01 -5.699485e+00 1.084711e+01 6.790069e+00 -1.308382e+00 2.460561e+00 -8.545762e-01 -7.814621e-01 -1.211727e+00 5.603130e-01 3.485710e-01 -6.713685e-01 -7.873622e-01 -1.519073e+00 -4.961951e-01 3.070903e-01 -2.929136e+00 1.159755e+00 2.741819e+00 6.540713e-01 -4.596605e-01 -3.537677e-01 -4.374631e-01 2.359392e-01 -6.799778e-01 7.078490e-01 -6.858360e-01 3.777771e-01 -4.670473e-02 2.902320e+00
<VARIANCE> 39
 2.857215e+01 1.957086e+01 2.922985e+01 7.627329e+01 6.476897e+01 7.274493e+01 3.424691e+01 2.398744e+01 7.334542e+01 4.428498e+01 3.265406e+01 2.423040e+01 5.737956e+01 3.614290e+00 3.633225e+00 3.419309e+00 6.289705e+00 3.205127e+00 4.503535e+00 5.148030e+00 4.133642e+00 4.286686e+00 4.682189e+00 3.233672e+00 3.761308e+00 1.493023e+01 5.455554e-01 7.439195e-01 8.004339e-01 1.064485e+00 1.031791e+00 9.774375e-01 1.794883e+00 1.174324e+00 9.292804e-01 9.845632e-01 8.106735e-01 8.840342e-01 9.910676e-01
<GCONST> 1.385242e+02
<STATE> 3
<MEAN> 39
 -4.772784e+01 -1.585562e+01 -2.295181e+01 7.017213e+00 -1.600191e+00 1.153628e+01 8.331641e+00 -8.742504e+00 1.410154e+00 1.212569e+00 -6.229526e+00 1.036512e+01 5.427309e+00 1.195171e+00 3.591989e+00 -7.360609e-01 -5.694737e-01 -1.264647e+00 -4.372506e-01 3.932115e-01 -8.428152e-01 -4.661702e-01 -3.428147e-01 -1.644788e-01 1.788466e-01 1.837113e+00 1.098928e+00 2.798182e+00 3.065757e-01 -1.382878e-01 -3.312592e-01 -1.515886e-01 5.258402e-02 -3.495384e-01 5.368918e-01 -1.538549e-01 2.635224e-01 2.910030e-01 2.406991e+00
<VARIANCE> 39
 1.422125e+01 8.026336e+00 1.459225e+01 4.648711e+01 1.984172e+01 3.309263e+01 1.744932e+01 1.244357e+01 5.021381e+01 3.060210e+01 1.893393e+01 1.636941e+01 4.233397e+01 3.820172e+00 4.409077e+00 3.054812e+00 5.492911e+00 3.025141e+00 4.763709e+00 3.310785e+00 3.163600e+00 3.552469e+00 3.992006e+00 3.413710e+00 3.878321e+00 1.501764e+01 7.041519e-01 4.568131e-01 4.650480e-01 8.560822e-01 5.687832e-01 9.788648e-01 1.098902e+00 9.597458e-01 9.804441e-01 8.547225e-01 6.132874e-01 6.439725e-01 1.062857e+00
<GCONST> 1.265942e+02
<STATE> 4
<MEAN> 39
 -5.801411e+01 -2.496582e+01 -2.638055e+01 8.288007e+00 1.984604e+00 8.276840e+00 9.789560e+00 -7.949558e+00 1.291360e+00 1.719299e+00 -4.482696e+00 9.777877e+00 3.621889e+00 2.502179e+00 2.927742e+00 -7.281756e-02 -9.982342e-01 -1.161903e+00 1.735493e+00 9.081507e-01 -6.939857e-01 6.110206e-01 -1.988686e-02 6.081733e-01 6.393061e-01 3.347974e+00 1.885394e-01 1.945992e+00 5.432969e-01 -5.694420e-01 -1.968817e-02 3.212444e-01 3.874816e-01 -5.827150e-01 4.225127e-02 -3.609919e-01 4.733714e-01 -1.858118e-01 1.235783e+00
<VARIANCE> 39
 5.204102e+01 3.970317e+01 4.280764e+01 6.961884e+01 8.659731e+01 5.524512e+01 5.406441e+01 4.327239e+01 5.747238e+01 3.214314e+01 3.735775e+01 2.239806e+01 4.266785e+01 3.633199e+00 9.426929e+00 3.755111e+00 4.291855e+00 4.441713e+00 6.565388e+00 4.170375e+00 4.648049e+00 5.012914e+00 3.837527e+00 4.876110e+00 4.079653e+00 1.593349e+01 8.964002e-01 6.531980e-01 4.783197e-01 1.210874e+00 6.465515e-01 1.120153e+00 1.079005e+00 9.664807e-01 8.243299e-01 6.087422e-01 8.135540e-01 6.679718e-01 1.032232e+00
<GCONST> 1.402823e+02
<STATE> 5
<MEAN> 39
 -5.585467e+01 -2.734419e+01 -2.409179e+01 6.670605e+00 1.144314e+00 9.578511e+00 1.029449e+01 -8.236760e+00 -2.062307e+00 1.957165e+00 -3.309426e+00 9.548716e+00 7.119336e+00 1.562390e+00 1.174508e+00 8.038032e-01 -1.853446e+00 -1.385386e+00 1.776098e+00 1.951242e+00 5.540036e-02 1.379334e+00 -6.812064e-01 7.675904e-01 7.214206e-01 3.578150e+00 -7.307525e-01 2.749906e+00 2.348998e-01 -1.338811e-01 -3.133214e-01 -4.922074e-01 -9.748033e-02 -3.773792e-01 2.113617e-01 -1.244028e+00 1.104358e-01 3.652493e-01 1.498749e+00
<VARIANCE> 39
 5.665224e+01 7.031992e+01 3.593146e+01 7.239525e+01 7.242802e+01 4.613032e+01 5.638500e+01 4.263809e+01 4.411194e+01 3.657907e+01 4.181193e+01 2.663063e+01 4.402100e+01 3.182366e+00 7.787143e+00 3.731706e+00 3.657533e+00 7.602580e+00 4.704467e+00 5.319803e+00 6.069254e+00 5.960158e+00 4.196687e+00 7.282745e+00 4.802455e+00 1.319069e+01 7.143192e-01 4.753680e-01 3.296290e-01 6.773647e-01 4.309181e-01 9.724526e-01 7.485995e-01 6.834722e-01 6.208701e-01 8.248077e-01 5.052069e-01 4.870292e-01 6.501377e-01
<GCONST> 1.375237e+02
<TRANSP> 6
 0.000000e+00 1.000000e+00 0.000000e+00 0.000000e+00 0.000000e+00 0.000000e+00
 0.000000e+00 0.000000e+00 1.000000e+00 0.000000e+00 0.000000e+00 0.000000e+00
 0.000000e+00 0.000000e+00 7.034929e-01 2.965071e-01 0.000000e+00 0.000000e+00
 0.000000e+00 0.000000e+00 0.000000e+00 6.685802e-01 3.314198e-01 0.000000e+00
 0.000000e+00 0.000000e+00 0.000000e+00 0.000000e+00 0.000000e+00 1.000000e+00
 0.000000e+00 0.000000e+00 0.000000e+00 0.000000e+00 0.000000e+00 0.000000e+00
<ENDHMM>
~h "l"
<BEGINHMM>
<NUMSTATES> 6
<STATE> 2
<MEAN> 39
 -5.180836e+01 -3.796432e+01 -1.900328e+01 1.186839e+01 7.670367e+00 1.024812e+01 1.937985e+00 -4.174930e-01 -1.120658e-01 8.600052e+00 -1.087603e+01 5.756846e+00 1.234003e+01 3.176312e-01 2.596973e+00 -8.264538e-02 -3.608935e-01 -8.752981e-01 4.330747e-01 3.351172e-01 -4.631866e-01 -8.394657e-01 8.532464e-02 -4.115966e-01 -9.381443e-01 -1.117536e+00 2.807283e-01 2.560678e+00 5.154910e-01 -5.420139e-01 -9.193590e-01 -1.149987e-01 3.663845e-01 -4.402507e-01 7.889134e-02 -2.275059e+00 -1.046814e-01 -3.133886e-01 2.211991e+00
<VARIANCE> 39
 3.689221e+01 3.695681e+01 5.570868e+01 5.559299e+01 7.318002e+01 8.695382e+01 1.109539e+02 1.271446e+02 7.833890e+01 5.184235e+01 9.258889e+01 6.610896e+01 6.744301e+01 4.017043e-01 1.411999e+00 2.087821e+00 1.410580e+00 4.670812e+00 1.111173e+00 4.080971e+00 4.829952e+00 3.037651e+00 2.846790e+00 4.259207e+00 3.060779e+00 4.865998e+00 1.713463e-01 3.366942e-01 3.947719e-01 6.527771e-01 9.756413e-01 2.461554e-01 1.168958e+00 1.287045e+00 3.750399e-01 4.532704e-01 7.477480e-01 4.379630e-01 4.072352e-01
<GCONST> 1.289209e+02
<STATE> 3
<MEAN> 39
 -5.067210e+01 -3.617568e+01 -2.022424e+01 1.294858e+01 6.064969e+00 1.236065e+01 1.250617e+00 -8.534129e-01 2.942247e+00 7.637389e+00 -1.061626e+01 5.723272e+00 1.158611e+01 -3.531338e-01 3.522642e+00 -4.402504e-01 -9.398326e-01 -2.724144e+00 1.102074e+00 6.872543e-01 -1.181816e+00 8.362996e-01 -2.363190e-01 -6.285557e-01 5.940952e-01 -2.114439e-01 2.543203e-01 2.594366e+00 3.056829e-01 -5.116406e-01 -9.557843e-01 -2.280347e-02 7.723970e-01 -3.157869e-01 -4.926946e-03 -2.379842e+00 -3.251837e-01 -7.257898e-01 2.504642e+00
<VARIANCE> 39
 3.318297e+01 2.926761e+01 5.066351e+01 5.241624e+01 6.539999e+01 8.143517e+01 1.062527e+02 1.172228e+02 6.625196e+01 4.624300e+01 8.934332e+01 6.611737e+01 5.590823e+01 6.127089e-01 2.003678e+00 2.358839e+00 2.591949e+00 4.566677e+00 1.341694e+00 4.454252e+00 6.229642e+00 3.915334e+00 2.471749e+00 4.686832e+00 5.494781e+00 6.738618e+00 1.554239e-01 3.379831e-01 4.469062e-01 5.601928e-01 1.040066e+00 3.128740e-01 1.471889e+00 1.609370e+00 7.606439e-01 3.922122e-01 1.064968e+00 7.857991e-01 6.469658e-01
<GCONST> 1.333486e+02
<STATE> 4
<MEAN> 39
 -5.080922e+01 -3.596511e+01 -2.172254e+01 1.317534e+01 6.123018e+00 1.340154e+01 1.718273e+00 -1.082257e+00 5.148736e+00 8.941070e+00 -1.042956e+01 5.520523e+00 1.067227e+01 -6.010910e-01 4.228861e+00 -8.489920e-01 -1.654230e+00 -2.742051e+00 1.473964e+00 8.075204e-01 -1.775342e+00 2.152802e+00 -1.003761e+00 1.077512e-01 1.776888e+00 7.752208e-01 5.364919e-01 2.299992e+00 4.370654e-01 -1.387287e-01 -2.101051e-01 -2.681183e-01 1.822039e-01 -5.567053e-01 -3.587955e-02 -2.294652e+00 -8.259744e-02 -4.032543e-01 2.294358e+00
<VARIANCE> 39
 2.786569e+01 3.324834e+01 5.287461e+01 5.242247e+01 7.484377e+01 8.032980e+01 1.046230e+02 1.076325e+02 5.428464e+01 4.190206e+01 8.796709e+01 6.447639e+01 5.533945e+01 9.135696e-01 2.682723e+00 3.020276e+00 3.821516e+00 5.320306e+00 1.754088e+00 6.943006e+00 7.819794e+00 6.579874e+00 2.567908e+00 5.159267e+00 7.490848e+00 1.082036e+01 8.735193e-02 3.550071e-01 3.679322e-01 3.177005e-01 8.085414e-01 2.736374e-01 8.543255e-01 1.242683e+00 9.073648e-01 4.930409e-01 7.373033e-01 5.138008e-01 3.934775e-01
<GCONST> 1.335098e+02
<STATE> 5
<MEAN> 39
 -5.166767e+01 -3.312357e+01 -2.246414e+01 1.072247e+01 3.168417e+00 1.050587e+01 4.621709e+00 -4.080301e+00 2.790295e+00 6.008588e+00 -1.015489e+01 4.784267e+00 1.182118e+01 -3.078003e-01 3.767800e+00 -5.823967e-01 -1.666677e+00 -1.975706e+00 1.098748e+00 9.606401e-01 -1.201471e+00 9.394705e-01 -1.563033e+00 6.961989e-01 1.203982e+00 -2.700116e-01 7.130539e-01 2.011806e+00 6.350314e-01 4.641926e-02 3.204641e-01 -4.839944e-01 -4.756746e-01 -8.356143e-01 1.085776e-01 -1.679967e+00 2.339725e-01 1.161089e-01 1.847551e+00
<VARIANCE> 39
 2.761964e+01 9.945113e+01 4.295916e+01 4.498148e+01 9.519785e+01 6.384569e+01 7.364957e+01 9.543595e+01 6.216273e+01 6.368294e+01 7.139056e+01 6.478778e+01 5.316797e+01 1.887813e+00 3.963222e+00 3.929213e+00 3.516113e+00 4.925211e+00 3.165774e+00 6.272733e+00 7.597963e+00 7.382384e+00 5.137988e+00 4.014566e+00 5.620885e+00 1.406339e+01 2.666549e-01 4.452341e-01 4.688270e-01 4.775338e-01 8.163233e-01 4.396190e-01 1.004594e+00 1.248945e+00 6.737525e-01 1.177256e+00 7.304863e-01 5.172918e-01 3.774157e-01
<GCONST> 1.394686e+02
<TRANSP> 6
 0.000000e+00 1.000000e+00 0.000000e+00 0.000000e+00 0.000000e+00 0.000000e+00
 0.000000e+00 5.405695e-01 4.594304e-01 0.000000e+00 0.000000e+00 0.000000e+00
 0.000000e+00 0.000000e+00 2.915168e-01 7.084832e-01 0.000000e+00 0.000000e+00
 0.000000e+00 0.000000e+00 0.000000e+00 9.651099e-02 9.034890e-01 0.000000e+00
 0.000000e+00 0.000000e+00 0.000000e+00 0.000000e+00 4.422076e-01 5.577924e-01
 0.000000e+00 0.000000e+00 0.000000e+00 0.000000e+00 0.000000e+00 0.000000e+00
<ENDHMM>
~h "m"
<BEGINHMM>
<NUMSTATES> 6
<STATE> 2
<MEAN> 39
 -4.591307e+01 -2.835736e+01 -2.404076e+01 5.689944e+00 6.784922e+00 1.855346e+01 9.702575e+00 -6.424439e+00 5.322514e+00 4.601598e+00 -1.718181e+00 1.049788e+01 8.678058e+00 6.038659e-01 2.377508e+00 2.959862e-01 2.249000e-01 -1.781373e+00 4.252899e-01 3.415887e+00 1.713203e-01 -6.996222e-01 -3.206067e-01 1.915360e-01 -3.859260e-01 -1.680377e+00 9.250478e-02 2.350499e+00 6.612189e-01 -1.664800e-01 -4.554217e-01 -2.160980e-01 -2.593755e-01 -4.448819e-01 1.595413e-01 -2.316114e+00 -7.171590e-01 -7.499471e-02 2.339950e+00
<VARIANCE> 39
 6.927363e+00 2.620949e+01 3.943815e+01 4.852908e+01 3.070527e+01 5.975684e+01 4.685678e+01 7.539185e+01 6.547784e+01 4.236565e+01 5.881974e+01 3.732777e+01 3.750061e+01 6.828303e-01 6.515476e-01 1.909906e+00 2.186118e+00 1.892521e+00 1.876639e+00 4.448621e+00 2.860965e+00 3.945211e+00 2.830915e+00 3.098613e+00 1.769429e+00 1.368760e+01 4.035698e-01 2.247332e-01 6.018481e-01 6.918417e-01 6.765498e-01 3.963061e-01 1.023039e+00 7.832475e-01 3.692117e-01 3.089776e-01 8.003557e-01 5.187133e-01 5.732772e-01
<GCONST> 1.221079e+02
<STATE> 3
<MEAN> 39
 -4.560059e+01 -2.777353e+01 -2.401758e+01 4.323189e+00 6.729256e+00 2.096708e+01 9.290334e+00 -5.890567e+00 4.872963e+00 7.684653e+00 -2.228321e+00 1.022545e+01 7.055016e+00 2.734613e-01 2.441092e+00 -2.064893e-01 -8.284494e-01 -1.469576e+00 5.497464e-01 3.480000e-01 -1.088233e+00 -3.326989e-01 -3.240510e-01 4.077024e-01 -3.877664e-01 -1.291068e-01 3.930129e-01 2.156931e+00 2.846339e-01 -6.204941e-02 -6.213601e-01 -2.207189e-01 -1.253866e-01 -6.148997e-01 2.018457e-01 -2.476075e+00 -4.689501e-01 9.251509e-02 1.933738e+00
<VARIANCE> 39
 6.430133e+00 1.411963e+01 3.724658e+01 4.891252e+01 2.081407e+01 7.544495e+01 5.226139e+01 7.146130e+01 3.143077e+01 3.072967e+01 6.238402e+01 3.572452e+01 4.061327e+01 2.905659e-01 4.819950e-01 9.034026e-01 1.532733e+00 1.378217e+00 1.137218e+00 2.187494e+00 1.412266e+00 1.541176e+00 1.225527e+00 1.729089e+00 1.211848e+00 3.281336e+00 1.163350e-01 9.461883e-02 2.369757e-01 3.075701e-01 3.330193e-01 2.346864e-01 3.663439e-01 4.326337e-01 2.851367e-01 2.838191e-01 7.988632e-01 3.188897e-01 3.518718e-01
<GCONST> 1.036197e+02
<STATE> 4
<MEAN> 39
 -4.590449e+01 -2.769079e+01 -2.419977e+01 5.352204e+00 6.065475e+00 2.140053e+01 8.690890e+00 -6.507975e+00 1.759443e+00 5.971169e+00 -2.239585e+00 1.075411e+01 7.302454e+00 -7.965249e-02 2.824520e+00 -8.380495e-01 -1.241288e+00 -1.467965e+00 8.967904e-01 -2.369541e+00 -1.706646e+00 -6.619613e-02 1.495355e-01 9.737428e-01 -4.244984e-01 1.753567e+00 4.086919e-01 2.159493e+00 7.011698e-01 3.593951e-01 -3.886485e-01 -1.239076e-01 -1.734083e-01 -7.246884e-01 9.904368e-02 -2.486559e+00 -5.279950e-01 -5.996928e-02 1.984649e+00
<VARIANCE> 39
 7.908257e+00 1.701978e+01 3.654510e+01 5.112562e+01 2.127959e+01 6.801920e+01 4.764799e+01 6.462335e+01 3.747844e+01 3.047707e+01 6.311289e+01 3.632690e+01 4.103948e+01 7.668484e-01 1.130089e+00 2.308842e+00 4.373648e+00 2.714704e+00 2.087007e+00 4.566939e+00 2.851183e+00 3.400569e+00 1.738593e+00 4.713397e+00 3.200869e+00 9.748518e+00 9.648264e-02 1.292453e-01 3.553000e-01 4.761400e-01 4.766092e-01 2.667062e-01 3.413564e-01 5.376907e-01 4.447423e-01 2.908006e-01 6.640738e-01 3.709863e-01 3.907711e-01
<GCONST> 1.168480e+02
<STATE> 5
<MEAN> 39
 -4.799458e+01 -3.065514e+01 -2.333328e+01 5.204690e+00 1.009063e+01 1.607718e+01 6.716004e+00 -8.740915e+00 -2.076647e+00 5.395411e+00 -4.566075e+00 1.207413e+01 7.239184e+00 -1.918202e-01 3.144135e+00 1.974542e-01 1.989239e-01 -1.503615e+00 1.296321e+00 -2.413799e+00 -6.660309e-01 1.057917e+00 -6.825363e-01 -8.771312e-02 2.589882e-02 2.450979e+00 5.889593e-01 2.172848e+00 8.437964e-01 2.403148e-01 -1.759615e-01 -2.980021e-01 4.465627e-01 -9.335500e-01 -2.748828e-02 -2.072113e+00 6.094115e-01 -1.012109e-01 1.473459e+00
<VARIANCE> 39
 1.241781e+01 5.458789e+01 3.672942e+01 4.594986e+01 6.288767e+01 4.815653e+01 5.166955e+01 5.581456e+01 4.190041e+01 3.732427e+01 5.484761e+01 3.156803e+01 4.218562e+01 1.011264e+00 1.732677e+00 5.179603e+00 7.541875e+00 3.377182e+00 2.042408e+00 5.725384e+00 4.320559e+00 4.721059e+00 2.835127e+00 6.134887e+00 4.482077e+00 1.063992e+01 1.186439e-01 1.331668e-01 4.275264e-01 9.548602e-01 5.137222e-01 3.251413e-01 7.555062e-01 8.092212e-01 3.476186e-01 4.990849e-01 7.420160e-01 5.817804e-01 3.208567e-01
<GCONST> 1.267483e+02
<TRANSP> 6
 0.000000e+00 1.000000e+00 0.000000e+00 0.000000e+00 0.000000e+00 0.000000e+00
 0.000000e+00 3.832490e-01 6.167510e-01 0.000000e+00 0.000000e+00 0.000000e+00
 0.000000e+00 0.000000e+00 6.915987e-01 3.084014e-01 0.000000e+00 0.000000e+00
 0.000000e+00 0.000000e+00 0.000000e+00 2.504203e-01 7.495797e-01 0.000000e+00
 0.000000e+00 0.000000e+00 0.000000e+00 0.000000e+00 4.123048e-01 5.876952e-01
 0.000000e+00 0.000000e+00 0.000000e+00 0.000000e+00 0.000000e+00 0.000000e+00
<ENDHMM>
~h "n"
<BEGINHMM>
<NUMSTATES> 6
<STATE> 2
<MEAN> 39
 -4.567231e+01 -2.924256e+01 -2.442111e+01 7.324902e+00 1.025441e-01 1.322911e+01 8.662619e+00 -5.884678e+00 -1.527992e+00 2.966403e+00 -1.104618e+01 1.063607e+01 1.222463e+01 6.001132e-01 2.411337e+00 -2.384382e-01 -1.319423e+00 -1.234067e+00 3.039729e-01 2.100611e+00 -2.277113e+00 -1.491806e+00 6.242761e-01 6.446651e-01 -1.028686e+00 -4.118587e+00 2.407219e-01 2.566188e+00 6.900054e-01 -6.492111e-02 2.253381e-02 -1.868165e-01 7.865338e-01 1.508460e-01 2.756801e-01 -2.546683e+00 -4.339910e-01 -1.116495e-01 2.790266e+00
<VARIANCE> 39
 1.028688e+01 1.930611e+01 3.408200e+01 1.530303e+01 3.613186e+01 8.344459e+01 6.279079e+01 6.737153e+01 6.812267e+01 4.629461e+01 5.697631e+01 3.951603e+01 3.778570e+01 3.131365e-01 9.968141e-01 3.153432e+00 1.854346e+00 2.943492e+00 1.194905e+00 4.649832e+00 8.068949e+00 3.197611e+00 2.580992e+00 2.801404e+00 2.225604e+00 5.179402e+00 1.282806e-01 2.988122e-01 8.240672e-01 5.383404e-01 1.094327e+00 2.593333e-01 8.482137e-01 1.185456e+00 2.286204e-01 2.510390e-01 7.203295e-01 3.445106e-01 3.635096e-01
<GCONST> 1.194723e+02
<STATE> 3
<MEAN> 39
 -4.508293e+01 -2.655901e+01 -2.422989e+01 7.284972e+00 1.253997e+00 1.702251e+01 7.267022e+00 -7.373011e+00 -5.791485e-01 7.358636e+00 -1.158886e+01 1.199825e+01 1.063415e+01 2.192402e-01 2.637820e+00 -2.445695e-01 -4.125379e-01 -1.422827e+00 4.272290e-01 6.027270e-01 -6.816450e-01 -1.476818e-01 -1.708207e-01 -3.849950e-01 7.726959e-02 -1.008950e+00 4.677863e-01 2.186280e+00 4.339131e-01 1.562856e-01 -2.580079e-01 -2.319082e-01 3.078022e-01 -1.969028e-01 1.389711e-01 -2.685534e+00 -2.996765e-01 -8.243463e-02 1.891707e+00
<VARIANCE> 39
 8.437976e+00 1.401029e+01 3.078298e+01 2.220663e+01 2.643631e+01 9.678838e+01 6.805172e+01 5.210068e+01 3.356962e+01 4.473374e+01 6.373432e+01 3.854130e+01 4.122268e+01 3.097656e-01 8.381818e-01 1.183432e+00 1.288728e+00 1.629313e+00 9.691378e-01 2.398571e+00 2.626400e+00 1.408955e+00 9.471770e-01 1.813875e+00 1.676580e+00 1.709054e+00 5.578561e-02 1.762114e-01 5.378062e-01 2.737131e-01 6.049169e-01 1.892279e-01 4.820003e-01 9.610918e-01 2.152075e-01 2.439277e-01 7.214553e-01 2.792152e-01 5.554623e-01
<GCONST> 1.065328e+02
<STATE> 4
<MEAN> 39
 -4.490517e+01 -2.462738e+01 -2.391629e+01 7.101274e+00 7.143489e-01 1.736610e+01 8.592999e+00 -7.102753e+00 7.525589e-02 6.265514e+00 -1.148048e+01 1.123615e+01 1.043911e+01 -3.014976e-01 3.485759e+00 -4.725466e-01 3.971946e-03 -1.174359e+00 9.463573e-01 -2.988008e-01 2.968605e-01 5.289224e-01 -2.956588e-01 -1.769845e-01 9.649743e-01 -5.986459e-01 4.079082e-01 2.252815e+00 6.289297e-01 1.629600e-02 -2.513855e-01 -1.288639e-01 3.674539e-02 -3.632882e-01 -8.808625e-02 -2.616737e+00 -2.861533e-01 1.082200e-02 1.965391e+00
<VARIANCE> 39
 7.161098e+00 1.928112e+01 2.753883e+01 2.322046e+01 2.878563e+01 8.532843e+01 5.079369e+01 4.189287e+01 3.569758e+01 3.979386e+01 5.918283e+01 3.672532e+01 4.106822e+01 1.042673e+00 2.431190e+00 3.696859e+00 2.240285e+00 2.912405e+00 2.349837e+00 5.464197e+00 6.579048e+00 2.729113e+00 1.547320e+00 3.282690e+00 2.889930e+00 9.201782e+00 8.320715e-02 2.205510e-01 5.303423e-01 3.613995e-01 5.787009e-01 3.069271e-01 4.769735e-01 8.170950e-01 4.662777e-01 3.270145e-01 8.350961e-01 3.921886e-01 5.864881e-01
<GCONST> 1.198015e+02
<STATE> 5
<MEAN> 39
 -4.694101e+01 -2.189902e+01 -2.275030e+01 6.814653e+00 -7.784555e-01 1.458059e+01 8.412467e+00 -6.719556e+00 3.423528e-01 4.762232e+00 -1.011498e+01 1.156910e+01 9.573898e+00 -6.820225e-01 3.550880e+00 -2.029578e-01 -6.966937e-01 -1.115818e+00 8.977318e-01 1.372914e-01 5.347761e-02 4.384712e-01 -8.997686e-01 -7.789535e-02 5.726369e-01 -1.921073e-01 6.958352e-01 2.172028e+00 4.767998e-01 -2.047157e-01 -3.946361e-01 -2.844108e-01 -3.837080e-02 -9.345206e-01 1.115069e-01 -1.814657e+00 1.531481e-01 1.857858e-01 1.677464e+00
<VARIANCE> 39
 1.565533e+01 4.081507e+01 2.547713e+01 2.286284e+01 3.603014e+01 6.323062e+01 3.203446e+01 3.755418e+01 4.054483e+01 4.761666e+01 4.518614e+01 3.094777e+01 5.145819e+01 2.560044e+00 3.754289e+00 4.331085e+00 3.024151e+00 3.065498e+00 3.795343e+00 4.811132e+00 5.260105e+00 3.526411e+00 3.346634e+00 2.740930e+00 3.300855e+00 1.084573e+01 3.361145e-01 2.961532e-01 4.641946e-01 4.985690e-01 6.675074e-01 5.706278e-01 5.865414e-01 9.801437e-01 6.930746e-01 1.171358e+00 7.693618e-01 5.786588e-01 4.563468e-01
<GCONST> 1.285609e+02
<TRANSP> 6
 0.000000e+00 1.000000e+00 0.000000e+00 0.000000e+00 0.000000e+00 0.000000e+00
 0.000000e+00 4.012126e-01 5.987874e-01 0.000000e+00 0.000000e+00 0.000000e+00
 0.000000e+00 0.000000e+00 6.723086e-01 3.276914e-01 0.000000e+00 0.000000e+00
 0.000000e+00 0.000000e+00 0.000000e+00 2.122724e-01 7.877276e-01 0.000000e+00
 0.000000e+00 0.000000e+00 0.000000e+00 0.000000e+00 4.642602e-01 5.357399e-01
 0.000000e+00 0.000000e+00 0.000000e+00 0.000000e+00 0.000000e+00 0.000000e+00
<ENDHMM>
~h "o"
<BEGINHMM>
<NUMSTATES> 6
<STATE> 2
<MEAN> 39
 -5.401657e+01 -3.729239e+01 -2.530743e+01 -2.227568e+00 1.116292e+01 1.358776e+01 3.045972e+00 -5.025859e+00 2.012048e+00 1.230258e+01 -5.557345e+00 8.005066e+00 7.396436e+00 -1.629105e-01 3.061223e+00 2.271903e-02 -1.050300e+00 -1.873160e+00 1.164980e+00 1.559021e+00 2.378588e-01 9.066439e-02 2.062287e-01 7.226791e-01 -1.101817e+00 2.907805e+00 5.459420e-02 2.769451e+00 3.830081e-01 1.096265e+00 -4.352826e-01 -2.269828e-01 7.914652e-01 -6.734010e-01 1.643644e-01 -1.361827e+00 -4.190530e-01 1.017523e-01 1.095475e+00
<VARIANCE> 39
 2.517623e+01 2.857361e+01 6.859380e+01 1.040066e+02 4.410384e+01 2.535923e+01 6.718892e+01 1.215779e+02 5.514446e+01 3.888963e+01 8.043612e+01 4.286211e+01 5.575962e+01 1.136987e+00 2.209800e+00 2.647411e+00 7.631618e+00 5.631528e+00 2.229723e+00 4.162654e+00 5.918177e+00 3.392347e+00 2.750903e+00 5.063450e+00 3.184532e+00 8.476845e+00 6.202291e-01 8.984002e-01 6.208861e-01 1.298304e+00 8.120306e-01 5.647073e-01 1.200115e+00 9.679116e-01 4.334708e-01 5.007530e-01 7.814617e-01 5.054932e-01 5.409021e-01
<GCONST> 1.353049e+02
<STATE> 3
<MEAN> 39
 -5.496951e+01 -3.857277e+01 -2.611648e+01 -7.919599e+00 1.389631e+01 1.515176e+01 1.399940e+00 -4.060369e+00 2.990635e+00 1.293336e+01 -5.576529e+00 7.824971e+00 7.677642e+00 2.745230e-01 2.906407e+00 -4.670867e-01 7.733824e-01 -1.352832e+00 1.042731e+00 7.898101e-01 -1.055438e+00 -4.100779e-02 -5.548300e-01 1.216063e-01 -2.870360e-01 -5.018213e-01 4.430498e-01 2.348221e+00 4.414726e-01 5.742479e-01 -4.579288e-01 -3.443681e-01 1.376763e-01 -9.737858e-01 1.109160e-01 -1.291662e+00 -3.299675e-01 -1.672557e-01 1.664919e+00
<VARIANCE> 39
 2.410260e+01 2.855367e+01 7.024760e+01 1.124887e+02 3.252301e+01 2.869286e+01 6.860452e+01 1.449235e+02 3.558191e+01 4.913455e+01 7.660777e+01 5.237474e+01 5.539664e+01 3.080905e-01 1.029847e+00 9.779973e-01 4.874221e+00 2.794299e+00 1.052600e+00 2.416062e+00 3.557003e+00 1.896536e+00 1.195519e+00 2.855890e+00 1.334600e+00 2.170754e+00 6.460726e-02 1.947263e-01 2.652553e-01 5.477389e-01 7.007381e-01 2.096582e-01 3.650205e-01 6.442749e-01 2.069045e-01 4.423663e-01 5.010451e-01 2.652024e-01 3.097288e-01
<GCONST> 1.143313e+02
<STATE> 4
<MEAN> 39
 -5.503452e+01 -3.963068e+01 -2.547855e+01 -1.705073e-01 1.546956e+01 1.431959e+01 4.574395e+00 -5.513335e+00 5.006688e+00 1.076611e+01 -5.459160e+00 6.647287e+00 8.769196e+00 5.678945e-01 1.994709e+00 -4.531788e-01 1.407699e+00 -9.108784e-01 6.815045e-01 -1.715048e-01 -2.980819e+00 8.191205e-02 -9.175884e-01 -1.109885e+00 7.181470e-01 -2.384644e+00 3.845077e-01 2.225601e+00 5.959728e-01 -4.488153e-01 -3.897679e-01 -2.752591e-01 -3.025018e-02 -9.356219e-01 4.327635e-02 -1.379033e+00 -1.356304e-01 7.408437e-02 1.325796e+00
<VARIANCE> 39
 2.283150e+01 2.684892e+01 6.861349e+01 8.037335e+01 3.260833e+01 3.134924e+01 7.110226e+01 1.438448e+02 5.461173e+01 5.007301e+01 7.222826e+01 4.884983e+01 5.470672e+01 4.777939e-01 2.239059e+00 2.076419e+00 4.026079e+00 3.988790e+00 1.598850e+00 4.564851e+00 9.779780e+00 2.631709e+00 1.815623e+00 3.919075e+00 2.861610e+00 4.054417e+00 7.164838e-02 2.182380e-01 3.353276e-01 1.036162e+00 1.018472e+00 2.906959e-01 4.738578e-01 1.067374e+00 4.159779e-01 3.827185e-01 1.077341e+00 4.034724e-01 2.906050e-01
<GCONST> 1.251606e+02
<STATE> 5
<MEAN> 39
 -5.160093e+01 -3.249035e+01 -2.397685e+01 -1.223441e+00 9.908334e+00 1.438684e+01 6.085462e+00 -6.701284e+00 3.024588e+00 8.238150e+00 -8.284584e+00 8.380517e+00 8.835221e+00 -9.859131e-02 2.436783e+00 -3.961046e-01 3.830162e-01 -9.006686e-01 1.214875e+00 1.600501e-01 -1.511604e+00 -5.522465e-01 -1.059513e+00 -6.704594e-01 1.028497e+00 -5.315058e+00 3.218816e-01 2.511113e+00 6.785297e-01 -5.507866e-01 -3.207698e-01 -2.400313e-01 -4.227566e-01 -4.766668e-01 4.533559e-02 -1.250592e+00 5.092459e-01 -1.292020e-01 1.947022e+00
<VARIANCE> 39
 3.993292e+01 8.446465e+01 5.514073e+01 1.042987e+02 6.204710e+01 4.224368e+01 7.952306e+01 1.107126e+02 5.830887e+01 5.449763e+01 8.708099e+01 5.009293e+01 6.425451e+01 2.209922e+00 4.449222e+00 3.202319e+00 6.819665e+00 5.130848e+00 3.093777e+00 6.654830e+00 6.873748e+00 4.691107e+00 3.500989e+00 4.163159e+00 3.271354e+00 1.057363e+01 2.975759e-01 2.794141e-01 3.727010e-01 1.016581e+00 8.783677e-01 5.077112e-01 7.764947e-01 1.002682e+00 7.903550e-01 9.820693e-01 8.807701e-01 5.942748e-01 5.250773e-01
<GCONST> 1.396849e+02
<TRANSP> 6
 0.000000e+00 1.000000e+00 0.000000e+00 0.000000e+00 0.000000e+00 0.000000e+00
 0.000000e+00 5.686784e-01 4.313216e-01 0.000000e+00 0.000000e+00 0.000000e+00
 0.000000e+00 0.000000e+00 7.369674e-01 2.630326e-01 0.000000e+00 0.000000e+00
 0.000000e+00 0.000000e+00 0.000000e+00 5.279055e-01 4.720944e-01 0.000000e+00
 0.000000e+00 0.000000e+00 0.000000e+00 0.000000e+00 5.325334e-01 4.674666e-01
 0.000000e+00 0.000000e+00 0.000000e+00 0.000000e+00 0.000000e+00 0.000000e+00
<ENDHMM>
~h "p"
<BEGINHMM>
<NUMSTATES> 6
<STATE> 2
<MEAN> 39
 -4.603856e+01 -1.553437e+01 -2.167167e+01 4.098668e+00 -5.863898e-01 1.449224e+01 8.851035e+00 -8.702488e+00 3.151090e+00 3.221660e+00 -5.773865e+00 1.285808e+01 1.058338e+01 -1.901102e+00 3.154759e+00 1.905606e-01 -3.921229e-02 -1.039526e+00 -8.031443e-02 -4.363619e-01 -1.201063e+00 -3.111030e-01 -2.239068e+00 -7.373035e-01 1.330768e-01 -2.933857e+00 8.405394e-01 2.222148e+00 5.305212e-01 -4.559412e-01 -4.658416e-01 -4.688828e-01 -1.542876e-01 -6.109579e-01 4.303824e-01 -1.007917e+00 7.554656e-01 1.463005e-01 3.079761e+00
<VARIANCE> 39
 2.370700e+00 4.779235e+00 5.550462e+00 3.293575e+01 1.225006e+01 2.152768e+01 1.071204e+01 7.830750e+00 5.013995e+01 2.817454e+01 1.448561e+01 1.792360e+01 5.686080e+01 4.436057e+00 8.319758e-01 1.064765e+00 3.129857e+00 1.221360e+00 6.428678e+00 2.623286e+00 1.790607e+00 3.189561e+00 3.824992e+00 2.119384e+00 1.310256e+00 1.893633e+01 5.951122e-01 2.595998e-01 4.816637e-01 9.931158e-01 7.695851e-01 1.410172e+00 9.212922e-01 8.211513e-01 1.103711e+00 8.954907e-01 7.210730e-01 6.908910e-01 1.028568e+00
<GCONST> 1.152691e+02
<STATE> 3
<MEAN> 39
 -4.572845e+01 -1.532284e+01 -2.137317e+01 5.764567e+00 -1.648291e+00 1.343424e+01 8.737771e+00 -9.146454e+00 2.365847e+00 2.084629e+00 -6.895404e+00 1.175090e+01 8.245151e+00 1.819467e+00 2.995222e+00 -3.226493e-01 -5.772879e-01 -9.473652e-01 3.975078e-01 6.828967e-01 -1.252981e+00 -5.911288e-01 -1.313388e-01 3.254223e-01 2.473762e-01 2.381507e+00 1.145145e+00 2.278774e+00 1.726425e-01 -3.519411e-01 -3.816055e-01 3.403630e-01 1.086823e-01 -4.610364e-01 5.584227e-01 -1.131762e-02 4.336057e-01 3.304844e-01 2.146244e+00
<VARIANCE> 39
 2.283003e+00 2.784545e+00 4.123313e+00 2.047998e+01 5.997812e+00 1.334960e+01 7.452649e+00 6.600139e+00 1.979744e+01 2.274870e+01 9.977959e+00 1.271300e+01 4.635738e+01 4.896869e+00 9.177013e-01 9.292667e-01 2.758283e+00 8.872297e-01 5.887178e+00 1.278431e+00 1.250992e+00 2.554280e+00 3.187883e+00 1.619915e+00 1.473176e+00 9.656983e+00 7.464194e-01 2.247036e-01 1.939898e-01 4.518834e-01 2.410037e-01 1.165255e+00 2.993133e-01 3.839181e-01 8.242292e-01 6.699210e-01 4.210107e-01 4.411974e-01 7.410638e-01
<GCONST> 1.006019e+02
<STATE> 4
<MEAN> 39
 -5.326492e+01 -2.419571e+01 -2.169727e+01 7.130778e+00 -2.839714e-01 1.380136e+01 1.029599e+01 -9.492484e+00 -6.222965e-01 3.374545e+00 -7.318816e+00 1.128650e+01 8.322496e+00 3.447373e+00 1.667980e+00 -5.636936e-01 -1.923190e+00 -2.180747e+00 2.549828e+00 1.411603e+00 -1.049893e+00 4.511911e-02 1.099081e+00 1.917639e+00 -3.930914e-01 8.041173e+00 -4.709294e-01 1.950990e+00 5.415465e-01 -6.444376e-01 -2.837341e-01 -3.729148e-01 6.155338e-02 -4.117379e-01 2.796119e-01 -5.407417e-01 2.132477e-01 -2.738625e-01 1.439694e+00
<VARIANCE> 39
 2.215305e+01 2.961749e+01 1.393826e+01 3.627374e+01 1.817042e+01 2.112772e+01 1.894930e+01 1.474476e+01 3.474384e+01 2.620333e+01 1.633150e+01 1.834940e+01 6.410956e+01 3.578314e+00 2.788738e+00 3.611564e+00 7.119677e+00 4.557352e+00 9.972832e+00 2.775702e+00 4.654504e+00 4.660130e+00 2.860405e+00 6.318324e+00 6.241498e+00 1.561480e+01 9.207001e-01 2.418487e-01 4.585724e-01 8.574625e-01 5.512974e-01 1.606206e+00 4.670039e-01 6.715308e-01 9.818483e-01 5.233921e-01 5.833546e-01 7.004670e-01 9.306406e-01
<GCONST> 1.282359e+02
<STATE> 5
<MEAN> 39
 -5.061850e+01 -3.409602e+01 -2.235967e+01 6.321189e+00 7.156218e+00 1.237265e+01 1.059508e+01 -8.708219e+00 -3.563974e+00 4.286402e+00 -3.098662e+00 1.088541e+01 1.123260e+01 7.390070e-01 1.884101e+00 3.104826e-01 -8.965415e-01 -2.625546e+00 3.503507e-02 1.217359e+00 -1.952907e-01 1.869765e+00 1.451319e-01 1.179816e+00 -5.758898e-01 6.392652e+00 -9.445398e-01 2.743442e+00 5.780688e-01 4.702703e-01 -1.894380e-01 -1.184749e+00 5.081654e-01 -8.337303e-01 -1.815853e-01 -1.368493e+00 -7.098482e-01 5.654361e-02 2.366979e-01
<VARIANCE> 39
 1.920575e+01 7.208286e+01 2.591984e+01 3.871616e+01 5.263228e+01 1.964289e+01 3.563126e+01 6.086953e+01 3.842472e+01 2.968747e+01 5.056292e+01 2.508433e+01 5.643642e+01 3.391044e+00 3.919396e+00 5.029652e+00 8.585722e+00 6.798929e+00 7.991104e+00 4.122854e+00 9.262256e+00 5.313935e+00 5.313917e+00 8.008867e+00 6.335319e+00 1.621867e+01 6.787022e-01 2.974764e-01 2.930751e-01 1.386987e+00 5.096717e-01 2.091833e+00 6.591438e-01 6.046598e-01 7.309664e-01 4.803092e-01 7.713048e-01 4.389428e-01 5.891348e-01
<GCONST> 1.366913e+02
<TRANSP> 6
 0.000000e+00 1.000000e+00 0.000000e+00 0.000000e+00 0.000000e+00 0.000000e+00
 0.000000e+00 5.304267e-01 4.695733e-01 0.000000e+00 0.000000e+00 0.000000e+00
 0.000000e+00 0.000000e+00 7.357794e-01 2.642206e-01 0.000000e+00 0.000000e+00
 0.000000e+00 0.000000e+00 0.000000e+00 4.330340e-01 5.669659e-01 0.000000e+00
 0.000000e+00 0.000000e+00 0.000000e+00 0.000000e+00 3.003315e-01 6.996685e-01
 0.000000e+00 0.000000e+00 0.000000e+00 0.000000e+00 0.000000e+00 0.000000e+00
<ENDHMM>
~h "r"
<BEGINHMM>
<NUMSTATES> 6
<STATE> 2
<MEAN> 39
 -4.784058e+01 -3.325997e+01 -2.567034e+01 9.722304e+00 2.527239e+00 1.049445e+01 1.142597e+01 -1.297753e+01 -1.861861e+00 4.822999e+00 -1.526911e+01 9.178230e+00 1.664230e+01 3.872588e-01 2.360150e+00 -3.481533e-02 -1.062206e+00 -2.449781e+00 1.102690e+00 -2.716508e-01 -1.434156e+00 -9.981965e-01 -6.502714e-01 -5.995355e-01 4.769842e-01 -1.577186e+00 4.932461e-01 2.760034e+00 5.777668e-01 -5.842885e-01 -4.516664e-01 -3.760100e-01 3.540591e-01 -2.379536e-02 3.671246e-01 -1.694670e+00 5.373082e-01 -1.349627e-01 2.868194e+00
<VARIANCE> 39
 2.094900e+01 4.972052e+01 4.406929e+01 3.269732e+01 8.735982e+01 4.931997e+01 6.895969e+01 6.973478e+01 9.184145e+01 6.196793e+01 6.760196e+01 5.193688e+01 6.263979e+01 1.087240e+00 2.095911e+00 2.932474e+00 2.062915e+00 5.996767e+00 3.674947e+00 4.552090e+00 1.101031e+01 3.241696e+00 2.923548e+00 3.724324e+00 3.272731e+00 9.218520e+00 4.436666e-01 4.403446e-01 9.263637e-01 4.211288e-01 1.567621e+00 1.009734e+00 1.333186e+00 1.551282e+00 5.262252e-01 4.248205e-01 1.010655e+00 6.019371e-01 1.250620e+00
<GCONST> 1.371347e+02
<STATE> 3
<MEAN> 39
 -4.881772e+01 -3.409523e+01 -2.716735e+01 1.036209e+01 1.291373e+00 1.044512e+01 1.070331e+01 -1.335213e+01 1.633825e-01 5.939322e+00 -1.549213e+01 1.043323e+01 1.514724e+01 6.469611e-01 3.232798e+00 -1.255855e-01 -1.213992e+00 -3.229630e+00 7.455343e-01 1.103314e+00 -5.701318e-01 -4.542792e-01 -2.146469e-01 -8.480174e-01 7.809419e-01 1.943585e+00 4.225622e-01 2.587845e+00 4.389335e-01 -3.579772e-01 -2.568257e-01 -3.527009e-01 2.984739e-01 -4.534045e-01 3.257730e-01 -1.602690e+00 4.754137e-01 -2.560480e-01 2.643546e+00
<VARIANCE> 39
 2.211579e+01 3.987332e+01 4.430900e+01 3.291032e+01 8.977859e+01 4.462291e+01 7.209357e+01 7.101273e+01 6.728792e+01 4.583612e+01 6.543382e+01 5.285852e+01 6.266399e+01 1.785899e+00 3.402120e+00 4.839241e+00 2.873363e+00 7.004873e+00 5.823741e+00 5.455910e+00 1.128836e+01 4.696132e+00 2.394142e+00 6.048725e+00 5.341449e+00 7.906211e+00 1.923283e-01 3.841726e-01 7.447121e-01 3.908042e-01 1.441591e+00 7.161564e-01 7.665359e-01 1.206187e+00 6.184853e-01 5.039848e-01 9.785158e-01 5.123149e-01 8.524585e-01
<GCONST> 1.372276e+02
<STATE> 4
<MEAN> 39
 -4.811863e+01 -3.867448e+01 -3.205173e+01 1.194377e+01 3.770174e+00 1.167145e+01 1.341510e+01 -1.471340e+01 2.662449e+00 6.148072e+00 -1.741406e+01 9.343008e+00 1.597974e+01 2.866847e-01 3.272477e+00 -1.470090e-01 -1.115174e+00 -1.999865e+00 9.358398e-01 1.479798e+00 3.108142e-01 -1.664594e-01 -1.259591e-01 -1.698908e-01 5.383205e-01 1.133889e+00 2.986307e-01 2.288761e+00 4.368172e-01 -2.368182e-01 -8.783913e-02 -2.982974e-01 2.444945e-01 -5.322392e-01 5.320083e-02 -1.783686e+00 1.126644e-01 -9.838456e-02 1.479723e+00
<VARIANCE> 39
 2.301902e+01 3.501400e+01 6.337707e+01 3.389604e+01 1.064146e+02 4.920787e+01 9.054794e+01 1.159967e+02 5.084488e+01 4.157703e+01 9.636487e+01 5.784639e+01 6.847144e+01 1.309295e+00 3.822748e+00 5.398935e+00 3.265643e+00 7.775847e+00 5.068489e+00 5.849853e+00 1.139619e+01 4.993506e+00 2.621274e+00 5.905529e+00 4.976468e+00 1.356917e+01 1.578984e-01 2.930304e-01 4.616803e-01 4.409574e-01 1.218312e+00 7.713674e-01 6.310802e-01 1.084259e+00 4.962005e-01 4.294287e-01 7.839329e-01 5.225584e-01 8.523991e-01
<GCONST> 1.375825e+02
<STATE> 5
<MEAN> 39
 -4.933429e+01 -3.233469e+01 -2.781048e+01 1.038048e+01 1.436465e-01 1.156732e+01 1.050818e+01 -9.675301e+00 3.457372e-01 4.084082e+00 -1.297961e+01 1.074894e+01 1.690466e+01 -8.992064e-02 3.299570e+00 -1.008834e-02 -1.260434e+00 -8.133469e-01 9.642112e-01 1.114161e+00 1.024618e+00 -5.056434e-02 -7.942548e-01 4.884579e-01 4.148438e-01 -1.789900e+00 4.062012e-01 2.072493e+00 3.412670e-01 -3.790609e-02 -7.612184e-01 -3.715541e-01 1.205872e-01 -8.161319e-01 4.772168e-02 -1.364322e+00 -1.567953e-01 -8.627913e-02 1.582921e+00
<VARIANCE> 39
 3.160055e+01 1.044824e+02 6.098320e+01 3.366666e+01 1.139310e+02 5.512352e+01 6.579196e+01 9.561024e+01 5.250253e+01 5.456796e+01 8.431443e+01 5.462273e+01 1.053632e+02 2.303030e+00 3.805041e+00 4.099220e+00 3.080486e+00 6.052319e+00 5.224804e+00 5.376206e+00 8.530140e+00 4.373822e+00 4.183176e+00 4.401195e+00 3.923563e+00 1.867526e+01 3.053837e-01 2.981531e-01 4.509705e-01 6.321920e-01 1.197162e+00 9.853810e-01 6.717340e-01 9.153233e-01 8.253530e-01 1.100134e+00 7.587797e-01 6.129466e-01 6.200416e-01
<GCONST> 1.413075e+02
<TRANSP> 6
 0.000000e+00 1.000000e+00 0.000000e+00 0.000000e+00 0.000000e+00 0.000000e+00
 0.000000e+00 3.152840e-01 6.847160e-01 0.000000e+00 0.000000e+00 0.000000e+00
 0.000000e+00 0.000000e+00 6.068221e-02 9.393178e-01 0.000000e+00 0.000000e+00
 0.000000e+00 0.000000e+00 0.000000e+00 3.863562e-01 6.136438e-01 0.000000e+00
 0.000000e+00 0.000000e+00 0.000000e+00 0.000000e+00 5.097880e-01 4.902120e-01
 0.000000e+00 0.000000e+00 0.000000e+00 0.000000e+00 0.000000e+00 0.000000e+00
<ENDHMM>
~h "s"
<BEGINHMM>
<NUMSTATES> 6
<STATE> 2
<MEAN> 39
 -7.315210e+01 -1.895858e+01 -2.734152e+01 7.921477e+00 -5.862532e+00 1.337848e+01 8.863296e+00 -9.684319e+00 1.231213e+00 2.632967e+00 -8.713230e+00 1.192128e+01 1.095619e+01 -8.561690e-01 7.984547e+00 -6.667386e-01 -1.342883e+00 -1.757161e+00 7.821316e-01 5.999107e-01 3.921153e-02 -5.058283e-01 -7.174751e-01 1.308468e-01 -2.752513e-01 -7.678177e-01 8.251289e-01 1.987758e+00 2.010336e-01 -4.396696e-01 5.092283e-02 -1.026755e+00 5.743140e-02 -7.821922e-01 4.866547e-01 -6.624727e-01 4.786949e-01 3.250378e-02 2.116895e+00
<VARIANCE> 39
 6.569718e+01 2.214400e+01 2.743122e+01 1.963139e+01 4.324461e+01 7.080019e+01 8.282780e+01 4.056273e+01 4.771827e+01 3.378388e+01 3.261109e+01 3.039168e+01 7.208750e+01 2.118108e+00 5.665777e+00 2.443947e+00 1.962134e+00 2.737513e+00 8.165627e+00 3.129669e+00 3.803972e+00 2.964063e+00 3.822817e+00 2.506218e+00 2.200857e+00 5.337247e+00 4.995849e-01 4.516581e-01 5.239316e-01 4.345570e-01 9.054086e-01 1.335166e+00 8.555751e-01 8.059608e-01 6.083468e-01 6.609603e-01 6.177381e-01 4.395043e-01 5.367475e-01
<GCONST> 1.294157e+02
<STATE> 3
<MEAN> 39
 -8.178831e+01 -1.662121e+01 -2.870033e+01 7.724444e+00 -5.784085e+00 1.355510e+01 8.690000e+00 -1.250270e+01 2.016231e+00 2.552774e+00 -7.217537e+00 1.073178e+01 6.960177e+00 9.523233e-01 3.758861e+00 -5.279759e-01 -8.766596e-01 -1.049892e+00 1.616532e-01 8.303606e-01 -1.388659e+00 -1.674299e-01 -7.737932e-01 -2.265412e-01 4.168027e-02 2.924629e-02 7.092677e-01 3.473522e+00 7.764664e-02 -2.219359e-01 1.456887e-01 -5.069278e-02 1.576931e-01 -5.681960e-01 3.126068e-01 5.837967e-02 2.192388e-01 2.062938e-01 1.461338e+00
<VARIANCE> 39
 1.861315e+01 1.575675e+01 3.003020e+01 1.556443e+01 2.155071e+01 4.343244e+01 1.034958e+02 3.590636e+01 2.021655e+01 1.709352e+01 3.121141e+01 2.252411e+01 4.637954e+01 8.663939e-01 2.976018e+00 1.575885e+00 1.134744e+00 1.419599e+00 3.465592e+00 1.975025e+00 1.772294e+00 1.340066e+00 1.606598e+00 1.565546e+00 1.626046e+00 1.128369e+00 2.808537e-01 5.395114e-01 1.975233e-01 1.984887e-01 2.512118e-01 7.366527e-01 3.740262e-01 4.623304e-01 3.684520e-01 2.776061e-01 3.670429e-01 2.567921e-01 1.207876e-01
<GCONST> 1.056781e+02
<STATE> 4
<MEAN> 39
 -7.544447e+01 -2.019668e+01 -2.854975e+01 8.269834e+00 -6.484092e+00 1.377605e+01 8.282935e+00 -1.131677e+01 1.302925e+00 2.932227e+00 -8.930663e+00 9.719300e+00 6.604142e+00 2.640755e+00 -1.436501e+00 -4.483247e-01 -7.704293e-01 -6.481482e-01 8.575631e-01 5.396689e-01 -1.704124e+00 -2.841151e-01 -7.825055e-01 -1.709606e-01 -3.655186e-01 4.110511e-02 4.532208e-01 4.053145e+00 3.454770e-01 -5.541108e-01 1.488155e-01 -1.733562e-02 -2.460917e-01 -4.678535e-01 3.288734e-01 -8.035260e-02 4.699126e-01 7.340122e-02 1.688665e+00
<VARIANCE> 39
 3.017857e+01 1.705457e+01 3.232970e+01 1.431871e+01 2.794237e+01 5.616477e+01 8.698701e+01 3.431150e+01 3.716185e+01 1.983583e+01 3.149702e+01 2.298305e+01 4.578864e+01 3.841636e+00 4.079138e+00 3.734149e+00 1.934891e+00 2.862860e+00 6.123489e+00 2.936240e+00 3.900538e+00 2.366295e+00 1.945936e+00 3.065165e+00 2.704444e+00 6.470274e+00 3.634167e-01 5.022112e-01 4.084648e-01 3.366856e-01 5.506505e-01 7.790254e-01 5.154894e-01 6.975980e-01 4.916198e-01 3.291490e-01 5.471196e-01 3.791443e-01 5.122637e-01
<GCONST> 1.223531e+02
<STATE> 5
<MEAN> 39
 -5.992229e+01 -2.259427e+01 -2.450553e+01 8.664682e+00 -2.000213e+00 1.098650e+01 9.794135e+00 -7.586281e+00 -5.146465e-01 3.861378e+00 -9.284140e+00 9.264049e+00 9.248493e+00 1.744207e+00 3.949990e-01 -2.353372e-01 -1.491349e+00 -1.195755e+00 2.776311e-01 8.341221e-01 -8.121997e-01 3.783028e-01 -7.059682e-01 -1.699295e-01 -4.666359e-01 1.657405e+00 -1.468367e-01 4.831778e+00 5.478579e-01 -4.510405e-01 -1.773481e-01 -3.165501e-01 2.321177e-01 -1.127894e-01 3.471172e-01 -7.813842e-01 2.598838e-01 1.429742e-01 1.680893e+00
<VARIANCE> 39
 7.562833e+01 4.757070e+01 3.139772e+01 1.921109e+01 4.371497e+01 4.904265e+01 6.090702e+01 4.311041e+01 3.536882e+01 2.670666e+01 3.055564e+01 2.767839e+01 5.284456e+01 4.628845e+00 6.649510e+00 3.951769e+00 3.200348e+00 6.025607e+00 5.783569e+00 3.883790e+00 5.450347e+00 4.464483e+00 3.864195e+00 4.837213e+00 3.759937e+00 1.840000e+01 7.401736e-01 9.348913e-01 4.256159e-01 5.479010e-01 5.328695e-01 1.170630e+00 5.449809e-01 6.546949e-01 6.965365e-01 1.103035e+00 5.808683e-01 4.370318e-01 4.167927e-01
<GCONST> 1.347618e+02
<TRANSP> 6
 0.000000e+00 1.000000e+00 0.000000e+00 0.000000e+00 0.000000e+00 0.000000e+00
 0.000000e+00 6.602241e-01 3.397759e-01 0.000000e+00 0.000000e+00 0.000000e+00
 0.000000e+00 0.000000e+00 8.292909e-01 1.707091e-01 0.000000e+00 0.000000e+00
 0.000000e+00 0.000000e+00 0.000000e+00 5.451927e-01 4.548073e-01 0.000000e+00
 0.000000e+00 0.000000e+00 0.000000e+00 0.000000e+00 5.283002e-01 4.716998e-01
 0.000000e+00 0.000000e+00 0.000000e+00 0.000000e+00 0.000000e+00 0.000000e+00
<ENDHMM>
~h "t"
<BEGINHMM>
<NUMSTATES> 6
<STATE> 2
<MEAN> 39
 -4.841487e+01 -1.622879e+01 -2.189130e+01 6.326810e+00 -1.872542e+00 1.070739e+01 8.409000e+00 -7.497485e+00 -1.620899e+00 3.050575e+00 -7.852907e+00 9.725019e+00 1.119109e+01 -2.230530e+00 2.453006e+00 -9.295352e-03 -1.418165e+00 -1.762053e+00 1.089896e+00 5.889747e-01 -1.352051e+00 -1.082654e+00 -2.794320e+00 3.177585e-01 5.211824e-01 -5.228501e+00 7.023144e-01 2.939214e+00 5.966499e-01 -2.808059e-02 -2.212789e-01 -4.819269e-01 3.587095e-02 -6.082243e-01 1.344127e-01 -1.391093e+00 9.691970e-02 -8.779202e-02 3.193682e+00
<VARIANCE> 39
 2.482599e+01 9.102927e+00 1.187825e+01 1.719417e+01 1.791293e+01 3.602887e+01 2.296555e+01 1.826229e+01 6.952550e+01 3.766652e+01 1.783865e+01 2.148326e+01 4.554022e+01 3.047009e+00 3.336182e+00 2.234867e+00 2.627135e+00 3.028743e+00 4.029412e+00 3.558419e+00 3.513931e+00 2.996789e+00 4.384634e+00 2.274476e+00 1.927265e+00 1.513562e+01 4.909509e-01 8.720797e-01 8.082250e-01 6.176531e-01 1.103157e+00 8.946981e-01 1.538082e+00 7.107710e-01 9.412653e-01 9.299022e-01 6.221442e-01 7.052606e-01 1.035740e+00
<GCONST> 1.260619e+02
<STATE> 3
<MEAN> 39
 -4.669278e+01 -1.498698e+01 -2.195985e+01 7.397147e+00 -2.578061e+00 1.159186e+01 8.173724e+00 -8.529740e+00 -6.245885e-01 2.293911e+00 -8.115543e+00 9.837995e+00 8.980491e+00 -6.247640e-01 3.474806e+00 6.770931e-02 -6.026785e-01 -1.008484e+00 -2.379388e-01 5.410851e-01 -1.122735e+00 -8.178169e-01 -2.233084e+00 -2.726611e-01 -1.841405e-03 6.365363e-01 1.720539e+00 2.924233e+00 2.984295e-01 -6.828027e-03 -7.374626e-03 -4.664890e-01 -8.687758e-02 -6.725914e-01 1.391722e+00 -8.449063e-01 1.419132e-01 -9.365877e-02 2.978263e+00
<VARIANCE> 39
 8.289816e+00 3.139602e+00 6.565744e+00 1.673130e+01 8.643062e+00 2.418508e+01 1.306125e+01 8.614901e+00 4.265825e+01 2.602064e+01 1.315458e+01 1.650327e+01 3.646192e+01 3.884894e+00 3.511848e+00 1.470179e+00 2.241027e+00 2.100055e+00 4.259984e+00 1.796338e+00 1.971104e+00 2.591235e+00 4.293820e+00 1.919887e+00 2.085291e+00 6.866651e+00 4.592632e-01 6.873387e-01 6.766031e-01 4.433215e-01 8.057511e-01 9.413800e-01 1.016057e+00 5.978922e-01 8.877271e-01 8.725905e-01 7.321534e-01 6.619051e-01 1.052423e+00
<GCONST> 1.146134e+02
<STATE> 4
<MEAN> 39
 -4.668473e+01 -1.551557e+01 -2.178357e+01 7.127722e+00 -2.343545e+00 1.191337e+01 8.127036e+00 -8.746922e+00 8.516365e-02 1.527975e+00 -7.587533e+00 1.022927e+01 6.921862e+00 2.453313e+00 4.078974e+00 -1.319631e-01 -4.369890e-01 -7.619141e-01 9.051862e-02 4.197159e-01 -9.753773e-01 -2.947577e-01 -3.203803e-02 -2.895964e-01 3.662536e-02 2.711927e+00 1.093429e+00 2.469175e+00 2.526898e-01 -1.478752e-01 -1.622285e-01 6.754678e-02 -5.148983e-02 -4.609102e-01 5.631077e-01 -1.390222e-01 1.634708e-01 1.802883e-01 1.998879e+00
<VARIANCE> 39
 9.821375e+00 4.649241e+00 5.294205e+00 1.206312e+01 7.257549e+00 1.582743e+01 1.050393e+01 7.421762e+00 2.545840e+01 2.248363e+01 1.042314e+01 1.278448e+01 3.263596e+01 4.342750e+00 3.082053e+00 2.006819e+00 2.048003e+00 1.673658e+00 3.893721e+00 2.296315e+00 2.109854e+00 2.898312e+00 3.206605e+00 1.995727e+00 2.299387e+00 1.139396e+01 7.809298e-01 4.996400e-01 3.221095e-01 3.311066e-01 4.358304e-01 7.572648e-01 4.631995e-01 3.993453e-01 8.516181e-01 8.289449e-01 4.078679e-01 4.904080e-01 7.228118e-01
<GCONST> 1.088710e+02
<STATE> 5
<MEAN> 39
 -5.756792e+01 -2.466497e+01 -2.290204e+01 7.540006e+00 -2.108941e+00 1.124572e+01 8.018044e+00 -7.891325e+00 3.219697e-01 3.861115e+00 -8.491599e+00 1.008020e+01 7.218642e+00 2.858611e+00 2.561133e+00 -7.412605e-02 -6.698094e-01 -2.417892e+00 1.385008e+00 6.329061e-02 -5.020903e-01 7.794276e-01 9.302149e-01 -4.144505e-01 -6.731139e-01 6.255147e+00 -4.813735e-01 1.854293e+00 4.460803e-01 -4.729972e-01 -3.346494e-01 -6.208684e-02 -3.107141e-02 -3.848807e-01 3.436677e-02 -9.425709e-01 3.001918e-01 8.961760e-02 1.016524e+00
<VARIANCE> 39
 3.817791e+01 3.365106e+01 2.246639e+01 1.935548e+01 3.083255e+01 3.346287e+01 4.626654e+01 2.995520e+01 3.492223e+01 2.826809e+01 2.423593e+01 2.464356e+01 4.718830e+01 5.471031e+00 5.735754e+00 6.524763e+00 3.155559e+00 6.190642e+00 6.442056e+00 3.954309e+00 4.762615e+00 7.396932e+00 4.118261e+00 4.839517e+00 4.771517e+00 1.999914e+01 1.081980e+00 4.725940e-01 5.321614e-01 6.204513e-01 7.213240e-01 1.029867e+00 6.642041e-01 6.337643e-01 9.777689e-01 7.234418e-01 6.168559e-01 6.087038e-01 7.884011e-01
<GCONST> 1.343643e+02
<TRANSP> 6
 0.000000e+00 1.000000e+00 0.000000e+00 0.000000e+00 0.000000e+00 0.000000e+00
 0.000000e+00 3.055426e-01 6.944574e-01 0.000000e+00 0.000000e+00 0.000000e+00
 0.000000e+00 0.000000e+00 3.400488e-01 6.599513e-01 0.000000e+00 0.000000e+00
 0.000000e+00 0.000000e+00 0.000000e+00 6.547663e-01 3.452337e-01 0.000000e+00
 0.000000e+00 0.000000e+00 0.000000e+00 0.000000e+00 5.680752e-01 4.319248e-01
 0.000000e+00 0.000000e+00 0.000000e+00 0.000000e+00 0.000000e+00 0.000000e+00
<ENDHMM>
~h "u"
<BEGINHMM>
<NUMSTATES> 6
<STATE> 2
<MEAN> 39
 -5.273664e+01 -2.929297e+01 -2.947643e+01 3.058136e+00 6.447469e+00 1.258460e+01 1.378470e+00 -1.470008e+01 9.211026e-01 1.074651e+01 -8.315796e+00 1.265106e+01 7.256177e+00 5.424550e-01 3.455760e+00 1.025113e-01 -2.346356e+00 -4.388644e+00 3.040016e-01 1.253704e+00 -3.499622e-01 -1.230969e+00 5.294210e-01 1.187393e+00 -1.872313e+00 1.643982e+00 -4.560036e-01 2.643702e+00 2.734815e-01 5.518632e-01 1.311819e-01 -5.345982e-02 1.020349e+00 -8.587364e-01 7.688203e-02 -2.609523e+00 -2.542838e-01 -1.548393e-01 1.038171e+00
<VARIANCE> 39
 2.463852e+01 3.543748e+01 5.517699e+01 1.139132e+02 4.378598e+01 3.863967e+01 6.267724e+01 7.804964e+01 4.821505e+01 2.832735e+01 8.925494e+01 4.291961e+01 5.963007e+01 2.099854e+00 2.747240e+00 3.784470e+00 6.209188e+00 6.322824e+00 3.191157e+00 4.945524e+00 9.480001e+00 6.733379e+00 3.370995e+00 4.466051e+00 3.518790e+00 4.856494e+00 9.544998e-01 1.094924e+00 6.611738e-01 1.938009e+00 7.014550e-01 6.961908e-01 9.297038e-01 1.113085e+00 4.403521e-01 3.812101e-01 9.517497e-01 9.028607e-01 4.920938e-01
<GCONST> 1.388658e+02
<STATE> 3
<MEAN> 39
 -5.413611e+01 -3.026572e+01 -3.189976e+01 4.295138e+00 9.635986e+00 1.468853e+01 3.012776e-01 -1.655276e+01 2.327614e+00 1.139074e+01 -6.965289e+00 1.444378e+01 5.302345e+00 -2.692216e-01 3.271462e+00 2.512529e-03 -6.303261e-01 -1.963672e+00 7.176300e-01 1.037252e+00 -1.722207e-01 -4.573161e-01 -2.832451e-01 2.665733e-01 -4.840535e-01 -4.420559e-01 2.137736e-01 2.392927e+00 -4.238202e-02 1.267351e+00 7.171673e-02 -1.767039e-01 1.005705e+00 -9.032600e-01 6.681123e-02 -2.702502e+00 -7.179426e-01 -4.126085e-01 1.183004e+00
<VARIANCE> 39
 2.722329e+01 2.479276e+01 6.114978e+01 1.106716e+02 4.230069e+01 3.815760e+01 5.758507e+01 9.287622e+01 4.992656e+01 2.856688e+01 1.045994e+02 4.921216e+01 6.216550e+01 8.481915e-01 1.732978e+00 1.982848e+00 8.804774e+00 4.543299e+00 1.859626e+00 3.866464e+00 8.547126e+00 5.439833e+00 1.859800e+00 3.808804e+00 2.806684e+00 4.849456e+00 2.677778e-01 4.627932e-01 5.553947e-01 1.136247e+00 1.030585e+00 4.281782e-01 8.151485e-01 1.110624e+00 4.437169e-01 3.383052e-01 1.168791e+00 1.008380e+00 3.559375e-01
<GCONST> 1.318300e+02
<STATE> 4
<MEAN> 39
 -5.346367e+01 -2.919783e+01 -3.264235e+01 -3.751179e+00 1.008210e+01 1.576337e+01 -1.175407e+00 -1.447154e+01 2.415481e+00 1.318498e+01 -5.830204e+00 1.358045e+01 5.470252e+00 -1.466149e-01 2.545764e+00 -3.083668e-01 1.449822e+00 -5.882632e-01 9.556897e-01 8.741347e-01 -1.286038e+00 -8.392732e-02 -3.202639e-01 -6.908936e-02 5.994838e-02 -6.478527e-01 4.650965e-01 2.381274e+00 3.412192e-01 6.860471e-01 -4.271695e-01 -2.260293e-01 1.642901e-01 -7.093757e-01 1.977471e-01 -2.699338e+00 -7.064683e-02 -1.616108e-01 1.487184e+00
<VARIANCE> 39
 2.466417e+01 3.207014e+01 6.443987e+01 1.577061e+02 4.018667e+01 4.021931e+01 5.779047e+01 9.957893e+01 4.415232e+01 3.398747e+01 1.007173e+02 5.114321e+01 6.690807e+01 6.753250e-01 1.888577e+00 1.675613e+00 7.657103e+00 4.172427e+00 1.468481e+00 3.250298e+00 5.792983e+00 6.067476e+00 1.489811e+00 3.508200e+00 2.276146e+00 6.388174e+00 1.001522e-01 1.914617e-01 3.960291e-01 9.636412e-01 6.914863e-01 2.359830e-01 4.439804e-01 8.138905e-01 3.594370e-01 4.495102e-01 6.973653e-01 6.340112e-01 2.457673e-01
<GCONST> 1.255727e+02
<STATE> 5
<MEAN> 39
 -5.194056e+01 -2.939843e+01 -2.750692e+01 2.012968e+00 7.474178e+00 1.575135e+01 3.105246e+00 -1.331956e+01 2.178973e+00 1.125587e+01 -7.806213e+00 1.266958e+01 5.548499e+00 -4.630993e-01 2.353836e+00 -3.148225e-01 9.003379e-01 6.577836e-01 1.368084e+00 3.500404e-01 -9.696259e-01 1.229157e+00 -7.576454e-01 -9.498844e-01 9.227296e-01 -2.835394e+00 6.139044e-01 2.660806e+00 6.953285e-01 -8.090984e-01 -9.456771e-01 -3.090489e-01 -7.219564e-01 -2.007934e-01 1.310656e-01 -2.235709e+00 6.411874e-02 -1.597493e-01 1.538526e+00
<VARIANCE> 39
 3.677468e+01 6.595036e+01 5.288588e+01 9.046987e+01 7.536546e+01 5.032982e+01 8.071433e+01 1.015329e+02 5.447297e+01 4.337284e+01 1.149929e+02 4.653277e+01 6.762675e+01 2.320533e+00 6.584974e+00 4.170417e+00 1.145475e+01 5.102925e+00 2.873087e+00 5.752589e+00 9.459467e+00 7.010498e+00 4.254437e+00 4.085955e+00 3.891564e+00 9.566415e+00 2.392430e-01 3.502862e-01 6.549242e-01 1.553258e+00 1.086576e+00 4.530923e-01 9.166055e-01 1.292179e+00 8.545755e-01 8.231707e-01 1.118279e+00 9.797201e-01 4.612352e-01
<GCONST> 1.434219e+02
<TRANSP> 6
 0.000000e+00 1.000000e+00 0.000000e+00 0.000000e+00 0.000000e+00 0.000000e+00
 0.000000e+00 3.604770e-01 6.395230e-01 0.000000e+00 0.000000e+00 0.000000e+00
 0.000000e+00 0.000000e+00 3.434283e-01 6.565716e-01 0.000000e+00 0.000000e+00
 0.000000e+00 0.000000e+00 0.000000e+00 6.620306e-01 3.379694e-01 0.000000e+00
 0.000000e+00 0.000000e+00 0.000000e+00 0.000000e+00 6.180498e-01 3.819502e-01
 0.000000e+00 0.000000e+00 0.000000e+00 0.000000e+00 0.000000e+00 0.000000e+00
<ENDHMM>
~h "w"
<BEGINHMM>
<NUMSTATES> 6
<STATE> 2
<MEAN> 39
 -5.094466e+01 -3.341122e+01 -2.856017e+01 -2.965177e+00 7.817401e+00 1.346768e+01 3.962606e+00 -1.032575e+01 3.441536e+00 9.000997e+00 -3.404815e-01 9.128970e+00 6.420886e+00 9.633064e-01 2.690421e+00 -5.695107e-02 -2.836770e+00 -2.451951e+00 2.527631e-01 6.947581e-01 -4.509739e-01 1.756135e-01 3.435843e-01 -1.334388e-01 -2.976678e-01 -1.679856e+00 1.908854e-01 2.235182e+00 6.847478e-01 1.129149e+00 -1.966873e-01 -2.564171e-01 8.181774e-01 -4.965672e-01 2.997203e-01 -1.899019e+00 -3.960335e-01 -6.994326e-01 1.768844e+00
<VARIANCE> 39
 1.732920e+01 8.614137e+01 5.735175e+01 8.446145e+01 6.839556e+01 4.243230e+01 5.282856e+01 8.469654e+01 5.713273e+01 4.321481e+01 9.946072e+01 5.517872e+01 5.495187e+01 1.754715e+00 1.005168e+00 1.689177e+00 4.979334e+00 3.084790e+00 1.796106e+00 3.395942e+00 2.994554e+00 6.823097e+00 2.664205e+00 3.430482e+00 2.655033e+00 7.952794e+00 5.690783e-01 2.373271e-01 4.610394e-01 1.124561e+00 5.138702e-01 3.320386e-01 1.396879e+00 6.048943e-01 5.126088e-01 9.045492e-01 7.776029e-01 1.084197e+00 3.039283e-01
<GCONST> 1.314642e+02
<STATE> 3
<MEAN> 39
 -5.002039e+01 -2.927601e+01 -2.897405e+01 -1.407550e+01 6.731199e+00 1.273902e+01 1.864312e+00 -1.047231e+01 4.092195e+00 1.422807e+01 -5.112248e+00 8.672244e+00 8.873405e+00 8.847136e-02 2.384938e+00 -3.518999e-02 -6.427044e-01 -1.604519e+00 7.438488e-01 6.205407e-01 -7.439408e-01 5.140909e-01 3.795367e-01 -7.126527e-03 -1.322959e-01 -6.491960e-01 8.637388e-02 2.307832e+00 5.418168e-01 7.141747e-01 -4.649247e-01 -7.901712e-02 1.525571e-01 -7.035120e-01 1.681662e-01 -2.379093e+00 3.007756e-01 2.171218e-01 2.252759e+00
<VARIANCE> 39
