~o
<STREAMINFO> 1 15
<VECSIZE> 15<NULLD><USER><DIAGC>
~h "d"
<BEGINHMM>
<NUMSTATES> 5
<STATE> 2
<MEAN> 15
 -1.271636e-01 3.077650e-01 1.066516e-01 -6.702456e-02 5.002971e-02 4.867451e-02 2.734362e-03 -1.067287e-02 -2.241986e-01 -7.639531e-02 -2.451140e-02 -2.151207e-01 9.673953e-02 1.818663e-01 8.413470e-03
<VARIANCE> 15
 9.564434e-01 2.015294e-01 4.187088e-02 8.600693e-02 9.922250e-02 3.456884e-01 6.478859e-01 2.864864e-01 8.242748e-01 5.255079e-01 2.716112e-01 2.119997e-01 8.462844e-01 7.799956e-02 4.534126e-02
<GCONST> 5.735913e+00
<STATE> 3
<MEAN> 15
 2.086428e-01 5.905127e-01 5.311245e-02 4.641496e-03 2.881238e-02 -1.658474e-02 -1.014540e-01 -1.446673e-01 -1.706335e-01 -5.449227e-02 1.179651e-01 1.468073e-01 1.521005e-01 2.276182e-03 4.238890e-02
<VARIANCE> 15
 2.660134e+00 1.746697e+00 3.777779e-01 4.418598e-01 8.892999e-01 6.215817e-01 1.791711e-01 2.814812e-01 5.361146e-01 1.284542e-01 1.964326e-01 3.074603e-01 1.731308e-01 6.677561e-01 2.754186e-01
<GCONST> 1.480470e+01
<STATE> 4
<MEAN> 15
 -3.286422e-02 3.289048e-01 -7.530595e-02 8.857603e-02 -1.693760e-01 3.113122e-02 9.812323e-02 -7.159711e-02 2.380440e-01 2.164574e-01 1.687629e-01 1.907482e-01 -1.022303e-01 -1.244421e-01 1.362785e-02
<VARIANCE> 15
 2.862068e-01 1.529496e-01 1.823870e-02 2.524091e-02 9.465259e-02 2.234510e-01 6.151286e-02 2.171657e-01 1.644048e-01 1.045645e-01 3.230872e-01 1.360361e-01 1.672827e-01 1.197852e-01 1.158929e-02
<GCONST> -6.971584e+00
<TRANSP> 5
 0.000000e+00 1.000000e+00 0.000000e+00 0.000000e+00 0.000000e+00
 0.000000e+00 6.862784e-01 3.137216e-01 0.000000e+00 0.000000e+00
 0.000000e+00 0.000000e+00 8.392744e-01 1.607256e-01 0.000000e+00
 0.000000e+00 0.000000e+00 0.000000e+00 7.136953e-01 2.863047e-01
 0.000000e+00 0.000000e+00 0.000000e+00 0.000000e+00 0.000000e+00
<ENDHMM>
~h "s"
<BEGINHMM>
<NUMSTATES> 5
<STATE> 2
<MEAN> 15
 -1.325542e-01 -1.740735e-01 -9.822799e-02 5.307795e-02 4.144791e-02 -2.916720e-01 -2.936051e-01 -1.016261e-01 -3.852604e-02 4.035514e-01 5.363634e-01 3.863349e-01 -2.517329e-01 -2.995734e-01 -3.022600e-02
<VARIANCE> 15
 2.163828e+00 4.513405e-02 1.456110e-02 1.609840e-02 9.708416e-02 8.373898e-02 2.401187e-01 2.174795e-01 3.285215e-01 1.548877e-01 9.091593e-02 1.026431e-01 1.884819e-01 3.055721e-01 6.871971e-03
<GCONST> -6.368172e+00
<STATE> 3
<MEAN> 15
 -9.718064e-01 4.863705e-02 1.085633e-01 -4.882260e-02 -1.690246e-01 -3.128512e-01 -1.056298e-01 -1.173359e-01 -6.095984e-01 -7.784392e-01 -4.312845e-02 -2.348916e-01 4.130375e-01 6.044546e-01 1.165526e-01
<VARIANCE> 15
 9.079561e-01 3.888848e-02 1.492569e-02 7.849056e-02 8.629056e-02 2.340546e-01 3.236373e-01 1.715376e-02 1.633570e-01 1.200347e-01 1.016857e-01 1.900680e-01 5.243786e-01 4.653381e-01 3.964547e-03
<GCONST> -6.439744e+00
<STATE> 4
<MEAN> 15
 1.302686e-01 5.148422e-02 4.605460e-02 4.257963e-02 -8.735221e-03 -9.456197e-02 -3.430061e-02 -8.281035e-03 1.062882e-01 7.354025e-02 -3.300272e-02 -1.332920e-01 4.903152e-02 2.180444e-01 1.490507e-02
<VARIANCE> 15
 3.267669e+00 4.630192e-02 3.945462e-02 8.717139e-02 1.526691e-01 2.351930e-01 2.376006e-01 2.312752e-01 3.442254e-01 1.669391e-01 3.333459e-01 2.715721e-01 9.236171e-01 7.130221e-01 1.173492e-02
<GCONST> 3.657461e+00
<TRANSP> 5
 0.000000e+00 1.000000e+00 0.000000e+00 0.000000e+00 0.000000e+00
 0.000000e+00 4.664697e-01 5.335304e-01 0.000000e+00 0.000000e+00
 0.000000e+00 0.000000e+00 3.631002e-01 6.368998e-01 0.000000e+00
 0.000000e+00 0.000000e+00 0.000000e+00 7.926210e-01 2.073790e-01
 0.000000e+00 0.000000e+00 0.000000e+00 0.000000e+00 0.000000e+00
<ENDHMM>
~h "t"
<BEGINHMM>
<NUMSTATES> 5
<STATE> 2
<MEAN> 15
 5.587681e-01 2.734867e-01 -1.904863e-01 1.243636e-01 3.413584e-01 2.667069e-01 -3.774374e-01 -2.968122e-01 -1.928151e-01 7.958007e-02 8.109152e-01 5.695879e-01 1.490455e-01 -1.656316e-01 -1.319658e-01
<VARIANCE> 15
 2.059911e+00 2.306563e-01 3.644387e-02 1.164358e-01 3.141995e-02 3.369943e-02 7.671575e-02 4.079813e-01 2.693477e-01 1.693094e-01 4.417572e-01 4.827543e-02 2.668583e-02 8.697725e-02 5.179042e-02
<GCONST> -4.915063e+00
<STATE> 3
<MEAN> 15
 6.194618e-02 -7.860299e-02 -4.354516e-03 -7.628003e-03 -3.001279e-02 -6.722738e-02 -3.639190e-02 2.302856e-02 -8.107399e-04 -1.594143e-03 7.709063e-02 1.794556e-02 -2.685746e-03 6.064740e-03 3.164876e-02
<VARIANCE> 15
 1.527627e+00 2.943219e+00 3.132502e-01 4.255030e-01 5.707363e-01 3.993963e-01 3.533426e-01 3.144389e-01 4.395931e-01 1.972007e-01 4.215357e-01 2.258451e-01 4.748399e-01 3.139606e-01 2.718785e-01
<GCONST> 1.537737e+01
<STATE> 4
<MEAN> 15
 -9.601073e-02 6.657542e-02 -4.411283e-02 5.818583e-02 -4.931272e-02 -3.640754e-03 5.131789e-02 -7.364815e-02 2.296752e-02 1.946899e-02 -9.985683e-02 -1.474259e-02 1.047486e-01 -3.784832e-02 -3.997323e-02
<VARIANCE> 15
 1.124287e+00 1.390582e-01 1.180386e-02 6.452844e-02 1.195521e-01 1.525972e-01 2.084130e-01 3.322916e-01 1.234324e-01 3.571876e-01 2.531812e-01 2.070909e-01 3.378193e-01 2.397405e-01 2.098300e-02
<GCONST> -5.887578e-01
<TRANSP> 5
 0.000000e+00 1.000000e+00 0.000000e+00 0.000000e+00 0.000000e+00
 0.000000e+00 1.266665e-01 8.733335e-01 0.000000e+00 0.000000e+00
 0.000000e+00 0.000000e+00 8.961647e-01 1.038353e-01 0.000000e+00
 0.000000e+00 0.000000e+00 0.000000e+00 8.171543e-01 1.828458e-01
 0.000000e+00 0.000000e+00 0.000000e+00 0.000000e+00 0.000000e+00
<ENDHMM>
~h "ah"
<BEGINHMM>
<NUMSTATES> 5
<STATE> 2
<MEAN> 15
 -2.563136e-01 3.577468e-01 8.684336e-02 9.313057e-02 -1.391978e-01 -2.691838e-02 6.840277e-02 -8.247263e-02 -7.395604e-02 9.202883e-02 3.209357e-01 1.441670e-01 -1.073488e-01 -1.373783e-03 5.661848e-02
<VARIANCE> 15
 3.259197e+00 8.048537e-02 1.700127e-01 3.239067e-01 9.684987e-02 2.672713e-01 2.807510e-01 1.800847e-01 4.144750e-01 3.423578e-01 2.051117e-01 4.763783e-01 2.438710e-01 2.825748e-01 5.240152e-02
<GCONST> 6.789943e+00
<STATE> 3
<MEAN> 15
 -3.370177e-02 3.980908e-01 -2.497346e-02 -3.095919e-02 -1.446068e-02 1.698976e-02 7.051983e-02 1.090333e-01 2.444398e-02 -4.246975e-02 -5.802791e-02 -5.894825e-02 -4.492121e-02 -1.204775e-02 7.393280e-03
<VARIANCE> 15
 1.426737e+00 3.771460e+00 3.753721e-01 3.716573e-01 2.286821e-01 2.727682e-01 2.417658e-01 4.984816e-01 6.686257e-01 4.257967e-01 6.500472e-01 3.242497e-01 2.660633e-01 2.890006e-01 3.028901e-01
<GCONST> 1.581785e+01
<STATE> 4
<MEAN> 15
 3.566336e-01 5.813307e-02 4.852575e-02 -1.324060e-03 1.577735e-01 1.325682e-01 -7.558783e-02 -2.090048e-01 -1.907950e-01 4.838310e-02 -1.680306e-01 4.355956e-03 6.677717e-02 -1.465832e-01 -1.090092e-01
<VARIANCE> 15
 1.927802e+00 1.405323e-01 3.219216e-02 1.035134e-01 1.333139e-01 9.900665e-02 1.533592e-01 2.222925e-01 5.750790e-02 3.052390e-01 3.810523e-01 2.907383e-01 3.342964e-01 4.012051e-01 4.729657e-02
<GCONST> 1.548806e+00
<TRANSP> 5
 0.000000e+00 1.000000e+00 0.000000e+00 0.000000e+00 0.000000e+00
 0.000000e+00 5.482046e-01 4.517954e-01 0.000000e+00 0.000000e+00
 0.000000e+00 0.000000e+00 9.131849e-01 8.681505e-02 0.000000e+00
 0.000000e+00 0.000000e+00 0.000000e+00 6.335021e-01 3.664979e-01
 0.000000e+00 0.000000e+00 0.000000e+00 0.000000e+00 0.000000e+00
<ENDHMM>
~h "uh"
<BEGINHMM>
<NUMSTATES> 5
<STATE> 2
<MEAN> 15
 4.216746e-01 6.313228e-01 -7.964192e-02 1.165006e-02 1.544371e-01 -2.519680e-02 1.251690e-02 1.427230e-01 2.145046e-01 8.021789e-02 -1.325702e-01 -1.158147e-01 -4.628572e-02 -1.100975e-01 -8.961137e-02
<VARIANCE> 15
 8.007086e-01 2.771607e-01 9.515958e-02 1.083203e-01 2.103098e-01 2.150386e-01 1.640655e-01 2.694919e-01 4.180335e-01 4.554352e-02 6.729094e-01 9.689031e-02 8.762500e-02 2.742209e-01 5.128065e-02
<GCONST> 1.882508e+00
<STATE> 3
<MEAN> 15
 -9.155019e-02 -1.537544e+00 -4.755551e-02 -2.003382e-01 -1.178963e-01 -1.813427e-01 -2.226172e-02 2.995265e-01 2.247454e-01 3.848355e-02 -4.334468e-02 6.952479e-02 -3.145782e-01 -3.101802e-01 2.822172e-03
<VARIANCE> 15
 4.717211e-01 1.772511e+00 5.415436e-02 1.215589e-01 1.831484e-01 5.796989e-01 5.603300e-01 5.920904e-01 5.290333e-01 3.616726e-01 1.432461e+00 3.608036e-01 4.978386e-01 1.839254e-01 1.928184e-01
<GCONST> 1.266943e+01
<STATE> 4
<MEAN> 15
 -1.379517e+00 1.146425e-01 -2.615816e-02 1.752229e-01 6.864432e-02 2.466856e-01 1.492431e-01 -1.731831e-02 2.413168e-01 -8.564224e-02 -3.668003e-01 -4.246675e-01 -3.772016e-01 1.862628e-01 -1.439391e-02
<VARIANCE> 15
 1.356272e+00 1.040188e-01 2.206794e-02 4.354695e-03 5.163530e-02 2.587516e-01 1.857892e-01 1.799686e-01 2.834984e-01 3.211122e-02 2.370049e-01 1.966238e-01 1.812171e-01 2.857976e-01 5.759660e-03
<GCONST> -7.236615e+00
<TRANSP> 5
 0.000000e+00 1.000000e+00 0.000000e+00 0.000000e+00 0.000000e+00
 0.000000e+00 6.804413e-01 3.195587e-01 0.000000e+00 0.000000e+00
 0.000000e+00 0.000000e+00 6.366991e-01 3.633009e-01 0.000000e+00
 0.000000e+00 0.000000e+00 0.000000e+00 5.541573e-01 4.458427e-01
 0.000000e+00 0.000000e+00 0.000000e+00 0.000000e+00 0.000000e+00
<ENDHMM>
~h "uw"
<BEGINHMM>
<NUMSTATES> 5
<STATE> 2
<MEAN> 15
 1.350354e-01 -6.126803e-01 -7.289190e-02 -3.907362e-03 1.942314e-03 7.680265e-03 -3.935830e-02 1.409885e-02 1.670992e-02 4.239789e-02 1.350346e-01 1.101626e-01 1.058648e-02 -2.548457e-02 -7.833598e-02
<VARIANCE> 15
 8.045175e-01 3.718059e-01 3.019755e-02 9.070174e-02 5.165042e-02 1.330386e-01 1.590230e-01 1.049413e-01 5.342284e-02 1.786574e-01 3.858550e-01 3.349103e-01 2.027843e-01 1.510497e-01 1.323599e-02
<GCONST> -3.120911e+00
<STATE> 3
<MEAN> 15
 4.765395e-02 1.004104e-01 3.645653e-02 -2.918910e-02 3.654172e-03 -8.469800e-05 9.813459e-03 2.249320e-02 1.399998e-02 2.111768e-02 -6.303027e-02 -6.756005e-02 2.651545e-03 2.943187e-02 2.469738e-02
<VARIANCE> 15
 1.034833e+00 2.513503e+00 3.338595e-01 4.754336e-01 5.277476e-01 6.092171e-01 3.223019e-01 4.200989e-01 4.981902e-01 2.688963e-01 3.992796e-01 3.505823e-01 2.515308e-01 1.254408e-01 2.827129e-01
<GCONST> 1.485337e+01
<STATE> 4
<MEAN> 15
 -4.976582e-01 3.479585e-02 -4.484793e-02 -6.874831e-02 7.098433e-02 7.899920e-02 7.100340e-02 4.052268e-02 5.361926e-03 5.629418e-02 7.338470e-02 -2.070547e-02 -4.225504e-02 -4.180478e-02 -1.380371e-02
<VARIANCE> 15
 1.381409e+00 3.433876e-02 2.425762e-02 1.044064e-01 7.379090e-02 1.854074e-01 2.417240e-01 2.019966e-01 4.549645e-01 7.306589e-02 2.250533e-01 1.871830e-01 3.186143e-01 2.475743e-01 1.005141e-02
<GCONST> -2.480768e+00
<TRANSP> 5
 0.000000e+00 1.000000e+00 0.000000e+00 0.000000e+00 0.000000e+00
 0.000000e+00 8.245234e-01 1.754766e-01 0.000000e+00 0.000000e+00
 0.000000e+00 0.000000e+00 9.391171e-01 6.088291e-02 0.000000e+00
 0.000000e+00 0.000000e+00 0.000000e+00 7.863665e-01 2.136335e-01
 0.000000e+00 0.000000e+00 0.000000e+00 0.000000e+00 0.000000e+00
<ENDHMM>
~h "sil"
<BEGINHMM>
<NUMSTATES> 5
<STATE> 2
<MEAN> 15
 -1.360834e-02 -5.189472e-01 -5.698498e-02 1.702208e-01 8.501107e-02 1.009032e-01 7.598727e-02 2.687769e-02 1.927017e-02 -2.269520e-01 -8.443774e-02 7.300603e-02 6.119827e-02 1.995928e-01 -9.599732e-02
<VARIANCE> 15
 2.047587e+00 1.578593e-01 2.973215e-02 5.665255e-02 5.986615e-02 4.222825e-02 1.606948e-01 2.240014e-01 1.602175e-01 1.369787e-01 2.173677e-01 5.067940e-02 1.380195e-01 2.144762e-01 1.325004e-02
<GCONST> -5.423461e+00
<STATE> 3
<MEAN> 15
 -3.739917e-02 -1.114740e+00 3.745360e-02 -6.146526e-02 -5.875301e-03 -3.660883e-02 -9.387504e-02 -9.065743e-02 4.218942e-02 9.654802e-02 1.550563e-02 6.212449e-02 7.167262e-02 2.571473e-02 7.560612e-02
<VARIANCE> 15
 1.246648e+00 1.165790e+00 9.483600e-02 2.096078e-01 2.514204e-01 1.840304e-01 2.083091e-01 4.518986e-01 3.513474e-01 1.454390e-01 3.835684e-01 1.469563e-01 2.232584e-01 2.750925e-01 1.783180e-01
<GCONST> 8.223480e+00
<STATE> 4
<MEAN> 15
 5.290345e-03 -1.997987e-02 4.475662e-03 -2.523221e-04 -1.028748e-02 3.172089e-03 -6.966755e-03 -1.426310e-02 9.312611e-03 9.321528e-03 -8.667026e-03 1.052400e-02 -1.754389e-03 -1.058064e-02 1.909042e-03
<VARIANCE> 15
 1.112618e+00 2.081177e-02 1.127525e-02 3.548032e-02 7.758762e-02 1.164385e-01 1.393991e-01 1.449702e-01 1.452392e-01 1.770982e-01 2.026496e-01 2.656633e-01 3.271935e-01 2.105290e-01 3.893024e-03
<GCONST> -7.435800e+00
<TRANSP> 5
 0.000000e+00 1.000000e+00 0.000000e+00 0.000000e+00 0.000000e+00
 0.000000e+00 7.253017e-01 2.746983e-01 0.000000e+00 0.000000e+00
 0.000000e+00 0.000000e+00 8.042446e-01 1.957553e-01 0.000000e+00
 0.000000e+00 0.000000e+00 0.000000e+00 9.750430e-01 2.495700e-02
 0.000000e+00 0.000000e+00 0.000000e+00 0.000000e+00 0.000000e+00
<ENDHMM>
