~o
<STREAMINFO> 1 39
<VECSIZE> 39<NULLD><MFCC_D_A_0><DIAGC>
~h "b"
<BEGINHMM>
<NUMSTATES> 5
<STATE> 2
<MEAN> 39
 -1.084933e+01 -6.991915e+00 -9.184306e-01 6.439310e+00 -1.666216e+01 1.356085e+01 -1.495432e+01 -4.361630e+00 7.943557e+00 -1.170728e+01 2.741684e+00 2.017100e+00 4.183127e+01 1.041750e+00 -3.694758e-01 -2.180383e-01 -1.527939e-02 -3.066995e-01 -1.131237e+00 -1.310945e+00 -3.210582e-01 -3.822764e-01 3.561031e-01 4.538800e-01 -3.319780e-01 8.197253e-01 3.101430e-01 -3.099315e-01 -4.134502e-01 -3.619279e-01 -1.739627e-01 1.267805e-01 1.061573e-01 1.849088e-01 1.421251e-01 3.601527e-01 2.899485e-02 -1.659004e-01 2.364389e-01
<VARIANCE> 39
 1.348833e+01 1.842985e+01 3.618336e+01 2.918893e+00 9.545949e+00 3.316138e+01 2.164577e+01 8.015660e+00 2.049542e+01 3.887082e+00 7.773207e+00 8.482848e+00 5.482467e+00 1.159507e+00 9.215411e-01 9.451202e-01 1.793220e+00 2.107857e+00 4.638005e-01 5.723482e-01 1.112944e+00 3.266929e+00 3.531644e+00 4.106118e-01 1.222251e+00 4.369616e-01 8.594558e-02 7.266023e-02 2.725846e-01 3.946220e-01 2.258358e-01 2.270409e-01 4.419683e-01 2.724819e-01 9.304877e-01 7.615350e-01 2.054556e-01 1.806716e-01 4.050916e-02
<GCONST> 8.484597e+01
<STATE> 3
<MEAN> 39
 8.255558e+00 -7.443851e+00 5.428546e+00 2.124723e+00 -2.192333e+01 6.848521e+00 -2.162589e+01 5.797193e-01 2.039870e+00 -1.335686e+01 2.921708e+00 -6.276009e+00 5.856967e+01 1.765172e-02 1.341220e-01 1.231662e-01 6.478856e-02 4.649313e-02 3.684255e-02 2.548611e-02 -3.287281e-02 -7.179126e-02 -4.007363e-02 -5.424448e-02 -3.132074e-02 -2.344987e-02 -2.633241e-02 1.757761e-03 3.765638e-04 1.101601e-02 1.546276e-02 1.540518e-02 2.090383e-02 -6.014613e-03 -1.022816e-02 -2.609388e-02 -1.277989e-02 1.115957e-02 -2.040130e-02
<VARIANCE> 39
 3.649340e+01 7.804218e+01 6.271707e+01 2.285757e+01 3.040274e+01 2.235674e+01 3.521974e+01 8.732011e+01 2.586553e+01 5.130045e+01 2.434514e+01 2.043443e+01 3.779652e+01 1.061634e+00 2.138238e+00 1.423767e+00 1.811524e+00 1.339092e+00 1.912498e+00 2.341779e+00 3.656414e+00 1.388508e+00 2.440116e+00 1.599044e+00 1.473393e+00 9.915991e-01 1.437554e-01 3.414164e-01 1.775986e-01 3.355620e-01 2.371376e-01 3.650865e-01 4.268613e-01 5.862197e-01 2.317154e-01 4.083163e-01 2.898892e-01 2.501832e-01 1.156628e-01
<GCONST> 1.086032e+02
<STATE> 4
<MEAN> 39
 -9.938016e+00 -3.472861e+00 3.400849e+00 8.564156e+00 -1.623003e+01 1.479612e+01 -1.341079e+01 -5.694660e+00 4.969861e+00 -1.172169e+01 2.910273e-01 -2.435061e+00 4.144469e+01 -5.909474e-01 -7.437357e-01 -5.868685e-01 -4.870346e-01 -4.278584e-01 2.743840e-01 4.788805e-01 9.269264e-02 -2.822389e-01 -2.872066e-01 6.951978e-02 1.188662e-01 -2.244645e-01 1.336860e-01 1.329787e-01 1.032100e-01 -7.669732e-02 -1.337977e-01 -1.105980e-01 -1.535310e-01 6.851045e-02 4.688620e-02 8.193246e-02 1.167511e-01 1.276366e-01 8.386452e-02
<VARIANCE> 39
 5.957677e+00 1.177528e+01 7.749347e+00 5.724142e+00 8.507892e+00 1.143132e+01 8.155232e+00 8.278677e+00 1.498936e+01 1.623720e+01 1.276460e+01 1.627110e+01 9.318352e-01 3.040402e-01 3.716603e-01 2.498743e-01 6.978185e-01 1.061964e+00 1.598267e+00 3.102139e-01 9.801390e-01 1.699502e+00 9.630179e-01 1.244084e+00 1.082027e+00 4.497905e-02 2.004823e-02 2.142457e-02 2.877078e-02 1.554735e-01 2.008500e-01 2.300574e-01 1.474762e-01 1.733225e-01 3.350902e-01 2.075196e-01 3.335370e-01 2.315024e-01 1.455850e-02
<GCONST> 6.300941e+01
<TRANSP> 5
 0.000000e+00 1.000000e+00 0.000000e+00 0.000000e+00 0.000000e+00
 0.000000e+00 4.200630e-01 5.799369e-01 0.000000e+00 0.000000e+00
 0.000000e+00 0.000000e+00 9.820417e-01 1.795836e-02 0.000000e+00
 0.000000e+00 0.000000e+00 0.000000e+00 7.919292e-01 2.080708e-01
 0.000000e+00 0.000000e+00 0.000000e+00 0.000000e+00 0.000000e+00
<ENDHMM>
~h "d"
<BEGINHMM>
<NUMSTATES> 5
<STATE> 2
<MEAN> 39
 -3.724769e+00 9.928212e-01 -2.986076e+00 -4.274884e-01 -2.359496e+01 6.643277e+00 -1.319672e+01 -4.846714e+00 8.142622e-01 -1.061309e+01 1.019209e+00 -3.201639e+00 4.357645e+01 1.344193e+00 1.139153e+00 1.083178e+00 3.403447e-01 -3.966683e-01 -7.612079e-01 -1.020181e+00 -5.121603e-01 -4.834895e-01 -2.635342e-01 3.826648e-01 2.249988e-01 7.579831e-01 1.188171e-01 2.169064e-02 2.174081e-01 1.336831e-01 5.702215e-02 5.784656e-02 -1.226993e-01 6.946103e-03 4.265625e-02 -1.553150e-02 6.478975e-02 -1.475196e-01 1.312797e-01
<VARIANCE> 39
 2.362573e+01 1.920439e+01 3.897766e+01 4.738443e+01 3.086291e+01 2.215064e+01 3.017852e+01 2.719151e+01 2.752139e+01 1.876815e+01 1.309318e+01 1.497634e+01 7.663629e+00 5.668811e-01 8.319182e-01 2.561499e+00 2.686060e+00 1.577511e+00 1.815907e+00 2.089222e+00 2.057463e+00 2.712928e+00 2.169369e+00 2.176587e+00 2.605368e+00 2.531087e-01 1.168893e-01 2.047511e-01 1.468463e-01 3.478813e-01 2.140609e-01 2.926078e-01 4.112393e-01 5.037286e-01 5.892758e-01 5.150205e-01 4.376524e-01 4.258763e-01 3.609603e-02
<GCONST> 1.006918e+02
<STATE> 3
<MEAN> 39
 1.167687e+01 -6.188736e+00 8.741471e-01 -7.664974e+00 -1.966810e+01 1.305096e+01 -1.955457e+01 1.754066e+00 2.502320e+00 -9.231919e+00 5.807805e+00 -7.301643e+00 6.118385e+01 1.091231e-01 -2.708561e-01 -1.955183e-01 -1.241816e-01 1.520698e-01 1.813221e-01 1.640057e-02 1.940852e-01 1.282869e-01 -2.083612e-02 -7.585574e-02 -6.441983e-02 1.758768e-01 -3.435115e-02 3.816128e-03 -3.972049e-02 8.353801e-03 -4.623665e-03 -2.922632e-03 1.360458e-02 -2.324423e-02 -1.467408e-02 -2.031835e-02 -3.073532e-02 7.992555e-03 -4.141415e-02
<VARIANCE> 39
 1.070542e+01 5.893751e+01 3.287466e+01 7.664777e+01 1.440716e+01 2.011789e+01 1.872746e+01 4.440250e+01 4.764499e+01 2.993548e+01 4.170919e+01 3.618800e+01 2.882874e+01 3.384163e-01 1.182100e+00 6.618722e-01 1.776362e+00 7.792053e-01 1.385823e+00 1.637548e+00 1.307542e+00 1.993982e+00 2.218596e+00 1.844373e+00 1.328835e+00 6.661261e-01 5.177490e-02 1.847498e-01 1.010962e-01 2.033784e-01 1.067242e-01 2.876514e-01 3.164054e-01 2.399817e-01 3.124891e-01 3.670568e-01 2.909181e-01 1.824018e-01 8.488835e-02
<GCONST> 9.619016e+01
<STATE> 4
<MEAN> 39
 4.791316e+00 -4.575679e+00 -9.059877e-01 4.437552e+00 -1.263343e+01 1.910831e+01 -1.027985e+01 5.021425e+00 8.427844e+00 -1.248577e+01 -1.322072e+00 -9.147350e+00 5.279140e+01 -8.890337e-01 7.574510e-01 5.571453e-01 1.068891e+00 2.220460e-02 -2.354454e-01 3.585099e-02 -9.569865e-01 -6.850184e-01 -9.248560e-01 -9.040109e-01 -6.058971e-02 -1.010209e+00 2.414093e-02 -2.794329e-02 -3.734897e-02 -1.488904e-01 -1.114002e-01 -1.695831e-01 -2.060166e-01 -2.255362e-01 -2.922803e-01 -2.991642e-02 1.102594e-01 9.092546e-02 5.363393e-02
<VARIANCE> 39
 3.862028e+01 1.219210e+01 1.294588e+01 3.520116e+01 4.549683e+00 2.137058e+01 4.103106e+01 2.243307e+01 1.240330e+01 2.975391e+00 1.031438e+01 4.033597e+00 3.469769e+01 3.995011e-01 2.317968e-01 9.597793e-01 7.387019e-01 9.753544e-01 1.744492e+00 5.412299e+00 1.997754e+00 1.143861e+00 1.569555e+00 3.015419e-01 2.182515e-01 3.158206e-01 3.812424e-02 4.817473e-02 9.847938e-02 8.544499e-02 2.087478e-02 2.356431e-01 6.875797e-01 1.397441e-01 7.530227e-02 2.172595e-01 6.492727e-02 1.580063e-01 1.500025e-02
<GCONST> 7.151230e+01
<TRANSP> 5
 0.000000e+00 1.000000e+00 0.000000e+00 0.000000e+00 0.000000e+00
 0.000000e+00 8.673849e-01 1.326151e-01 0.000000e+00 0.000000e+00
 0.000000e+00 0.000000e+00 9.783763e-01 2.162367e-02 0.000000e+00
 0.000000e+00 0.000000e+00 0.000000e+00 6.214583e-01 3.785417e-01
 0.000000e+00 0.000000e+00 0.000000e+00 0.000000e+00 0.000000e+00
<ENDHMM>
~h "g"
<BEGINHMM>
<NUMSTATES> 5
<STATE> 2
<MEAN> 39
 -8.680621e+00 -3.359099e+00 -5.325737e+00 1.054731e+00 -1.942723e+01 1.342751e+01 -7.464066e+00 -1.709770e+00 7.346443e+00 -6.368593e+00 1.069896e+00 -5.635113e+00 4.103948e+01 1.130012e+00 -1.381292e-01 -3.738172e-01 -9.759322e-01 -1.074877e+00 1.962259e-01 -8.709943e-01 -1.136436e+00 -9.300556e-01 -6.689102e-02 1.314786e+00 1.051317e+00 8.937770e-01 6.920885e-01 9.023777e-02 4.573467e-01 -2.690087e-01 -7.983152e-01 -3.404292e-01 -4.440486e-01 -4.160104e-01 -5.070660e-01 -8.990178e-02 3.310317e-01 3.587018e-01 5.886962e-01
<VARIANCE> 39
 1.810487e+00 1.645421e+00 4.240535e+00 9.136334e+00 8.330878e+00 6.358357e+00 1.211468e+01 1.061865e+01 4.179483e+00 1.367771e+01 9.103256e+00 1.310565e+01 1.126125e+00 1.362418e+00 4.275112e-01 1.036283e+00 1.611656e+00 2.279488e+00 6.359417e-01 9.996203e-01 1.744088e+00 1.312635e+00 7.654089e-01 1.714970e+00 1.963117e+00 9.155337e-01 1.323963e-01 9.714068e-02 6.152940e-01 2.100806e-01 2.248043e-01 2.799696e-01 1.345924e-01 2.786189e-01 1.361027e-01 2.121471e-01 2.917864e-01 3.192264e-01 9.678746e-02
<GCONST> 7.552670e+01
<STATE> 3
<MEAN> 39
 7.411436e+00 -5.761751e+00 7.960101e+00 -2.977993e+00 -2.806412e+01 1.359331e+01 -1.485013e+01 -1.251874e+00 3.725798e+00 -1.134215e+01 2.130743e+00 -3.461559e+00 5.784094e+01 5.111612e-02 -6.297415e-02 3.119823e-02 6.938303e-02 1.198962e-01 1.196254e-01 6.919032e-02 1.086070e-01 3.385631e-03 -1.504294e-01 -1.070825e-01 2.529274e-02 7.074519e-02 -5.597179e-02 -3.581746e-03 -2.658784e-02 1.710012e-02 5.008399e-02 1.542523e-02 4.209333e-02 4.067431e-02 4.030127e-02 1.264250e-02 -3.533651e-02 -3.655864e-02 -4.732569e-02
<VARIANCE> 39
 1.800716e+01 3.544350e+01 8.289232e+01 4.489456e+01 6.036229e+01 3.167683e+01 3.712624e+01 8.363311e+01 3.400019e+01 2.810821e+01 1.756710e+01 1.760577e+01 3.362536e+01 1.184337e+00 1.348156e+00 3.256830e+00 2.273599e+00 3.610791e+00 2.749281e+00 1.743310e+00 2.273524e+00 1.696629e+00 1.690289e+00 1.383755e+00 1.061805e+00 1.709205e+00 8.909648e-02 2.050533e-01 4.066717e-01 2.774065e-01 4.772188e-01 5.370035e-01 2.391491e-01 3.478733e-01 2.730411e-01 2.831354e-01 2.513119e-01 1.990688e-01 1.096107e-01
<GCONST> 1.083846e+02
<STATE> 4
<MEAN> 39
 -7.921143e+00 -5.227378e+00 -1.773735e+00 4.401020e+00 -1.905899e+01 1.614202e+01 -7.689678e+00 -2.846219e+00 5.009688e+00 -1.045316e+01 -3.471918e-01 -3.073840e+00 4.286734e+01 -1.089276e-01 6.436264e-02 5.685333e-02 -2.466559e-02 -1.107757e-01 -2.153721e-01 -1.262804e-01 -1.089055e-01 3.877321e-02 1.845481e-01 -1.358057e-02 -1.689337e-01 -8.173665e-02 1.237980e-02 -1.328221e-02 -2.433644e-03 1.171189e-02 1.437062e-02 1.172729e-02 -2.887401e-02 -2.276170e-02 -2.126411e-02 -1.712153e-02 8.331177e-03 1.910829e-02 1.641318e-02
<VARIANCE> 39
 5.342858e+00 4.082034e+00 3.262270e+00 7.995190e+00 9.843553e+00 1.232560e+01 1.919174e+01 2.202391e+01 1.106742e+01 1.228854e+01 1.055662e+01 1.137103e+01 4.170882e+00 8.878881e-02 1.534261e-01 3.453465e-01 6.839392e-01 1.209366e+00 1.077771e+00 1.107012e+00 1.188684e+00 1.190731e+00 1.100207e+00 1.387700e+00 1.335509e+00 3.015362e-02 2.067746e-02 2.285612e-02 5.323813e-02 1.207979e-01 2.562906e-01 2.240678e-01 2.297695e-01 2.231552e-01 2.135651e-01 2.203639e-01 3.259952e-01 2.864226e-01 9.220446e-03
<GCONST> 6.353505e+01
<TRANSP> 5
 0.000000e+00 1.000000e+00 0.000000e+00 0.000000e+00 0.000000e+00
 0.000000e+00 7.688907e-01 2.311093e-01 0.000000e+00 0.000000e+00
 0.000000e+00 0.000000e+00 9.837048e-01 1.629524e-02 0.000000e+00
 0.000000e+00 0.000000e+00 0.000000e+00 9.614193e-01 3.858066e-02
 0.000000e+00 0.000000e+00 0.000000e+00 0.000000e+00 0.000000e+00
<ENDHMM>
~h "h"
<BEGINHMM>
<NUMSTATES> 5
<STATE> 2
<MEAN> 39
 -1.199300e+01 -7.063510e+00 -2.350686e+00 4.661142e+00 -1.827270e+01 1.446525e+01 -1.126869e+01 -2.082383e+00 5.803719e+00 -1.160913e+01 1.793688e+00 -3.563749e-01 4.038950e+01 -3.700718e-02 2.076785e-02 -7.227062e-03 4.001725e-02 1.361058e-01 8.050226e-02 9.787713e-02 7.852913e-02 7.632746e-02 -1.047346e-01 -1.617565e-01 -4.458870e-02 -3.942606e-02 3.309289e-02 -6.459974e-03 -3.120206e-02 -3.438196e-02 -5.792405e-02 -7.623048e-02 -2.138202e-02 -3.963193e-02 2.376857e-02 7.015003e-02 7.229042e-02 -1.734829e-03 2.158598e-02
<VARIANCE> 39
 1.385746e+00 3.272889e+00 9.284021e+00 5.609683e+00 7.996025e+00 8.903580e+00 8.875200e+00 1.920710e+01 1.434016e+01 1.480407e+01 1.110274e+01 1.228183e+01 4.276612e-01 7.641681e-02 1.540957e-01 2.304328e-01 4.237726e-01 8.507410e-01 1.028135e+00 9.339594e-01 1.773314e+00 1.396685e+00 1.503745e+00 1.189513e+00 9.042640e-01 2.360841e-02 2.716575e-02 3.658277e-02 5.128670e-02 9.728590e-02 2.258477e-01 2.266153e-01 1.926386e-01 3.879402e-01 2.931907e-01 2.910799e-01 2.117673e-01 1.683784e-01 1.168616e-02
<GCONST> 5.861617e+01
<STATE> 3
<MEAN> 39
 6.858346e+00 -8.390228e+00 8.861662e-01 -1.545524e+00 -2.055406e+01 1.144700e+01 -2.097083e+01 -6.492556e+00 -1.091504e+00 -7.704112e+00 9.771395e+00 -2.631747e+00 5.710497e+01 1.103737e-01 -5.398833e-02 -1.942953e-01 -8.917217e-02 -6.210867e-03 -6.753737e-02 -1.177756e-01 -9.445763e-02 3.462638e-02 1.673398e-01 1.600983e-01 3.663383e-02 7.364888e-02 -1.647563e-02 1.131967e-02 1.554371e-02 3.089647e-03 -2.455918e-03 1.257574e-02 1.221322e-02 2.693216e-02 1.338011e-02 -4.637117e-03 -4.911542e-03 -1.385681e-02 -1.330505e-02
<VARIANCE> 39
 4.792961e+01 5.380770e+01 1.146986e+02 6.581082e+01 2.993770e+01 3.704856e+01 4.575834e+01 2.885373e+01 4.648655e+01 3.583794e+01 2.919263e+01 2.586012e+01 4.905262e+01 1.986073e+00 2.760496e+00 2.156877e+00 3.169672e+00 2.870700e+00 2.575201e+00 3.452768e+00 2.231723e+00 2.654385e+00 2.024449e+00 1.388572e+00 1.548230e+00 2.031138e+00 2.074261e-01 4.324107e-01 3.196990e-01 3.533553e-01 5.170646e-01 4.147809e-01 6.355988e-01 4.086338e-01 4.446387e-01 3.762977e-01 2.377215e-01 2.883662e-01 1.909787e-01
<GCONST> 1.178145e+02
<STATE> 4
<MEAN> 39
 -7.235040e+00 -8.913939e+00 -1.116755e+01 6.466497e-02 -1.742665e+01 1.422396e+01 -1.324077e+01 -3.523974e+00 9.696664e+00 -2.236206e+00 9.219910e+00 1.166542e+00 4.338222e+01 -5.368750e-01 1.445389e-02 5.688968e-01 2.721929e-01 -1.710107e-01 2.689093e-01 3.813818e-01 2.942887e-01 -5.948315e-02 -5.473894e-01 -4.944519e-01 -3.212175e-01 -3.192981e-01 3.789057e-02 -1.386227e-02 6.120169e-02 7.437159e-02 4.416886e-02 -8.793435e-02 -1.192483e-01 -1.499755e-01 -1.859402e-01 -1.502879e-01 -1.040756e-02 4.284890e-02 3.133478e-02
<VARIANCE> 39
 1.309476e+01 2.346051e+00 3.822647e+01 1.324653e+01 1.259441e+01 2.625438e+01 1.831943e+01 2.279877e+01 2.088278e+01 3.987997e+01 2.763041e+01 1.576015e+01 3.601701e+00 1.311833e-01 2.858678e-01 7.842317e-01 8.678378e-01 1.238318e+00 1.328318e+00 7.228956e-01 1.273996e+00 2.149893e+00 2.890249e+00 2.313500e+00 1.210044e+00 5.754508e-02 2.828574e-02 7.506853e-02 8.603518e-02 1.193081e-01 2.675108e-01 3.157644e-01 1.008205e-01 2.134262e-01 3.110000e-01 4.879431e-01 4.527988e-01 2.030548e-01 1.697264e-02
<GCONST> 7.860363e+01
<TRANSP> 5
 0.000000e+00 1.000000e+00 0.000000e+00 0.000000e+00 0.000000e+00
 0.000000e+00 9.085273e-01 9.147270e-02 0.000000e+00 0.000000e+00
 0.000000e+00 0.000000e+00 9.713217e-01 2.867826e-02 0.000000e+00
 0.000000e+00 0.000000e+00 0.000000e+00 8.308191e-01 1.691809e-01
 0.000000e+00 0.000000e+00 0.000000e+00 0.000000e+00 0.000000e+00
<ENDHMM>
~h "j"
<BEGINHMM>
<NUMSTATES> 5
<STATE> 2
<MEAN> 39
 -1.656884e+01 -2.814433e+00 -1.149720e+00 5.084642e+00 -1.457112e+01 1.729207e+01 -8.277411e+00 -1.920504e+00 6.310956e+00 -8.907704e+00 6.553268e-01 -5.846727e-01 3.533791e+01 1.459983e+00 -1.182181e+00 8.665999e-01 1.237716e-01 -9.891003e-01 6.061915e-01 1.628918e-01 -2.704112e-01 5.692101e-01 2.526925e-01 2.751054e-01 6.873395e-01 1.621935e+00 6.411680e-01 -6.416960e-01 2.376245e-01 3.622812e-02 -3.348033e-01 -1.263022e-01 -6.571518e-01 6.649028e-03 8.953854e-02 -2.828850e-01 3.116263e-01 1.246753e-01 8.337257e-01
<VARIANCE> 39
 3.293148e+01 3.055404e+01 3.969230e+01 1.151738e+01 1.044737e+01 2.844977e+01 5.074881e+01 1.372654e+01 1.031353e+01 3.891460e+01 7.977146e+00 3.398311e+00 4.663820e+01 2.279598e+00 2.635645e+00 7.603363e+00 3.147815e-01 3.332468e+00 3.674404e+00 3.519073e+00 6.697563e-01 3.353563e+00 2.731603e+00 7.614545e-01 1.395138e+00 3.761095e+00 3.069071e-01 1.982473e-01 5.314823e-01 1.801591e-01 1.841384e-01 9.800944e-02 1.132072e+00 3.138799e-01 3.240818e-01 6.351803e-01 8.481324e-02 1.280382e-01 3.759902e-01
<GCONST> 1.024459e+02
<STATE> 3
<MEAN> 39
 5.938399e+00 -1.041198e+01 1.270390e+00 1.493746e+00 -1.955273e+01 1.111270e+01 -2.318334e+01 -6.411265e+00 1.337255e+00 -5.530195e+00 1.046097e+01 -4.258063e+00 5.684298e+01 1.186663e-01 -1.227317e-01 -8.041573e-02 -8.085315e-02 1.422880e-02 1.066507e-02 -1.412854e-01 -7.724319e-02 1.326039e-01 3.685623e-02 4.071062e-02 6.662206e-02 1.423373e-01 -8.067488e-02 4.111675e-02 -4.500156e-02 -6.137217e-03 2.998813e-02 -1.156899e-02 6.593290e-02 -1.858386e-03 1.504286e-02 2.444716e-02 -2.615816e-02 5.912483e-03 -8.805467e-02
<VARIANCE> 39
 4.647366e+01 6.949641e+01 1.645027e+02 4.453958e+01 3.217292e+01 3.221271e+01 4.648852e+01 1.885407e+01 3.187962e+01 2.813161e+01 2.513908e+01 2.587704e+01 3.796071e+01 1.818640e+00 3.444556e+00 2.352772e+00 2.393674e+00 2.604686e+00 2.903881e+00 4.333043e+00 2.202763e+00 2.765410e+00 3.137466e+00 1.234670e+00 1.267214e+00 2.129623e+00 1.496855e-01 4.990429e-01 3.868620e-01 3.092540e-01 4.516589e-01 5.635424e-01 6.564394e-01 3.894157e-01 4.869206e-01 6.732971e-01 1.802949e-01 2.213173e-01 1.571091e-01
<GCONST> 1.168588e+02
<STATE> 4
<MEAN> 39
 -9.216802e+00 -9.824940e+00 -6.057769e+00 3.754812e+00 -1.597265e+01 1.506862e+01 -1.253686e+01 -3.731548e+00 1.312763e+01 -1.281033e+00 6.157080e+00 1.335968e+00 4.300408e+01 -4.802083e-01 1.025216e-01 2.322808e-01 4.529404e-01 -3.854132e-01 -1.608517e-01 -1.874897e-01 -1.777465e-01 -9.772141e-02 5.429869e-01 8.663779e-01 6.571952e-01 -3.468505e-01 -3.351916e-02 8.009318e-02 -2.380908e-02 -5.183831e-02 -2.661081e-01 -2.049549e-01 -3.845719e-01 -4.173080e-02 -7.033858e-01 -6.381660e-01 -1.260892e-01 5.478111e-02 -5.612266e-02
<VARIANCE> 39
 2.425850e+01 8.883889e+00 1.021413e+02 1.372196e+01 4.626324e+00 5.951080e+01 2.478177e+01 7.143754e+00 1.755678e+00 3.714337e+01 2.194322e+01 1.137932e+01 8.769373e+00 3.680365e-01 1.482930e+00 1.435494e+00 5.003546e-01 9.470659e-01 4.792301e-01 1.633257e+00 4.077965e-01 2.224986e+00 3.479581e+00 1.812829e+00 1.026593e+00 4.600351e-01 1.163884e-01 2.344464e-01 1.769458e-01 4.913678e-02 1.583783e-01 1.775873e-01 4.395316e-01 1.549673e-01 1.827385e-01 8.948531e-01 4.657028e-01 8.713608e-02 2.604718e-01
<GCONST> 8.575288e+01
<TRANSP> 5
 0.000000e+00 1.000000e+00 0.000000e+00 0.000000e+00 0.000000e+00
 0.000000e+00 4.705239e-01 5.294762e-01 0.000000e+00 0.000000e+00
 0.000000e+00 0.000000e+00 9.513140e-01 4.868600e-02 0.000000e+00
 0.000000e+00 0.000000e+00 0.000000e+00 4.879222e-01 5.120778e-01
 0.000000e+00 0.000000e+00 0.000000e+00 0.000000e+00 0.000000e+00
<ENDHMM>
~h "l"
<BEGINHMM>
<NUMSTATES> 5
<STATE> 2
<MEAN> 39
 -1.552473e+01 -4.365694e+00 -1.994432e+00 5.520355e+00 -1.487632e+01 1.416289e+01 -9.881231e+00 -3.114019e+00 6.303571e+00 -8.454429e+00 2.037840e+00 8.525629e-01 3.683611e+01 1.656027e-01 -3.444102e-01 -5.693298e-01 -2.484530e-01 -1.388267e-01 -2.557830e-01 -1.551871e-01 3.138351e-01 7.235958e-01 7.110390e-01 1.501019e-01 -7.664442e-01 2.008648e-01 1.250526e-01 -1.311457e-01 -1.792422e-01 -3.763579e-02 -1.018117e-01 -2.284371e-01 -3.694561e-02 2.753153e-01 1.106002e-01 3.233404e-02 -6.296314e-02 -2.554069e-02 1.298805e-01
<VARIANCE> 39
 3.766161e+01 1.449883e+01 2.579979e+01 5.752685e+00 2.220877e+01 2.726161e+01 1.858562e+01 1.059153e+01 2.190876e+01 1.914769e+01 9.366341e+00 8.452078e+00 3.892752e+01 1.247812e-01 4.716819e-01 6.588198e-01 9.727566e-01 1.580364e+00 1.625430e+00 1.296561e+00 1.161346e+00 9.670004e-01 1.329744e+00 1.145811e+00 8.539876e-01 9.548604e-02 3.517191e-02 1.099962e-01 1.115460e-01 2.633136e-01 2.154808e-01 2.510591e-01 2.726651e-01 2.714465e-01 2.342084e-01 2.356977e-01 1.929312e-01 2.291864e-01 2.848774e-02
<GCONST> 8.052007e+01
<STATE> 3
<MEAN> 39
 2.286619e+00 -1.093851e+01 1.508690e-01 1.636100e+00 -1.836683e+01 1.066023e+01 -1.767673e+01 1.683840e+00 6.731085e+00 -1.020084e+01 8.996134e-01 -5.274339e+00 5.450000e+01 4.120900e-01 -2.682264e-01 -5.710401e-02 -3.392866e-02 -1.369414e-02 1.283603e-01 -2.204603e-01 4.290578e-02 2.623475e-01 -3.417081e-02 -4.491734e-02 -5.755374e-02 4.010265e-01 -3.620553e-02 4.313217e-02 4.772995e-02 -8.359946e-03 -4.886419e-03 1.964062e-02 1.838711e-02 -5.069288e-02 -6.944510e-02 -5.571948e-02 8.198466e-04 1.445383e-02 -3.578161e-02
<VARIANCE> 39
 1.353139e+02 5.729684e+01 9.261796e+01 2.580347e+01 4.968222e+01 5.095237e+01 4.530934e+01 5.739554e+01 4.288489e+01 4.552549e+01 3.451847e+01 3.755496e+01 1.381951e+02 2.610861e+00 3.455723e+00 2.858420e+00 2.177570e+00 2.382496e+00 3.788834e+00 3.615723e+00 3.085800e+00 2.323666e+00 3.068000e+00 2.696686e+00 1.591669e+00 2.892042e+00 3.171386e-01 4.730259e-01 3.925750e-01 4.064238e-01 4.173161e-01 6.326528e-01 7.225394e-01 4.531476e-01 4.174023e-01 5.729545e-01 5.928037e-01 2.906981e-01 3.096607e-01
<GCONST> 1.263663e+02
<STATE> 4
<MEAN> 39
 -1.428019e+01 -7.191840e+00 4.700456e+00 4.712076e+00 -1.896680e+01 2.058005e+01 -1.009961e+01 -2.350782e+00 1.157287e+01 -1.010203e+01 2.590355e-01 2.706962e+00 4.045336e+01 -2.144152e-02 9.790202e-02 -3.447130e-02 -7.257293e-02 -9.862275e-02 -9.373072e-02 3.148168e-02 -1.960828e-02 -1.715318e-02 -1.036323e-01 -5.015745e-02 4.073420e-02 -5.520616e-02 -7.449128e-03 -7.719364e-04 1.198541e-03 2.105044e-02 -8.037277e-03 8.674061e-03 1.526509e-02 -5.724791e-02 -5.613420e-02 -1.690256e-02 7.257038e-03 2.185276e-02 -1.394966e-02
<VARIANCE> 39
 9.828552e+00 4.851029e+00 2.410087e+01 5.112278e+00 1.129678e+01 1.513900e+01 1.169203e+01 1.504387e+01 1.341130e+01 1.421262e+01 1.492750e+01 1.262318e+01 2.793176e+00 1.138520e-01 3.474079e-01 4.087297e-01 5.306037e-01 8.902096e-01 6.188768e-01 1.149553e+00 1.800891e+00 1.403685e+00 1.629344e+00 1.513476e+00 1.061133e+00 6.626678e-02 1.792019e-02 4.741753e-02 8.243889e-02 1.038818e-01 1.634798e-01 1.270892e-01 2.967702e-01 3.734552e-01 2.771040e-01 3.366630e-01 3.065670e-01 2.222938e-01 1.269269e-02
<GCONST> 6.881400e+01
<TRANSP> 5
 0.000000e+00 1.000000e+00 0.000000e+00 0.000000e+00 0.000000e+00
 0.000000e+00 5.624554e-01 4.375446e-01 0.000000e+00 0.000000e+00
 0.000000e+00 0.000000e+00 9.102840e-01 8.971602e-02 0.000000e+00
 0.000000e+00 0.000000e+00 0.000000e+00 8.433010e-01 1.566990e-01
 0.000000e+00 0.000000e+00 0.000000e+00 0.000000e+00 0.000000e+00
<ENDHMM>
~h "m"
<BEGINHMM>
<NUMSTATES> 5
<STATE> 2
<MEAN> 39
 -1.215246e+01 -5.248127e+00 -2.607231e+00 5.904674e+00 -1.412025e+01 1.326351e+01 -9.918601e+00 -1.370757e+00 4.863684e+00 -7.443264e+00 2.708312e+00 5.585980e-01 3.980248e+01 1.348746e+00 -5.573328e-01 -3.952067e-01 -5.713528e-02 -2.092960e-01 -5.165531e-01 -7.850664e-01 -8.254394e-02 -1.303524e-01 -7.178080e-01 -4.934014e-01 1.362055e-01 1.182036e+00 7.750404e-01 -9.495300e-02 5.223929e-02 -1.042517e-01 -1.940303e-01 -4.901699e-01 -4.582918e-01 1.772967e-01 2.571250e-02 -4.318556e-01 -3.333007e-01 -6.689515e-02 6.779817e-01
<VARIANCE> 39
 2.361287e+01 1.393222e+01 2.589106e+01 6.205232e+00 1.116143e+01 1.383359e+01 1.377170e+01 2.270105e+01 1.308357e+01 1.237725e+01 9.985211e+00 1.223566e+01 2.051436e+01 3.237938e+00 2.292457e+00 4.415214e+00 1.338802e+00 2.144732e+00 5.006274e+00 2.406073e+00 2.432431e+00 2.071413e+00 2.019673e+00 2.025112e+00 1.106353e+00 2.736376e+00 4.597791e-01 5.412292e-01 5.699320e-01 2.100122e-01 2.085524e-01 6.275632e-01 2.574939e-01 4.912088e-01 3.260399e-01 3.588899e-01 1.943550e-01 2.794411e-01 4.932053e-01
<GCONST> 1.040372e+02
<STATE> 3
<MEAN> 39
 8.628889e+00 -1.028920e+01 3.969256e+00 1.209090e+00 -1.772346e+01 1.147811e+01 -2.205163e+01 -3.150793e+00 2.501659e+00 -1.043229e+01 9.093065e-01 -7.252830e+00 6.020528e+01 -1.441435e-03 3.150373e-02 5.556915e-02 5.451864e-02 5.598262e-02 6.056117e-02 -3.669795e-02 -1.210191e-01 -4.587543e-02 -2.501062e-02 -4.843872e-02 -3.954403e-02 -4.074286e-03 -7.771391e-02 5.458952e-03 -1.156484e-02 -5.884995e-03 5.403514e-03 2.375841e-02 3.477074e-02 -2.933770e-03 1.259640e-02 3.206494e-02 1.495218e-02 1.163763e-02 -6.505444e-02
<VARIANCE> 39
 2.546130e+01 6.451465e+01 6.495102e+01 3.186189e+01 6.076574e+01 3.889299e+01 3.246196e+01 9.040531e+01 2.695593e+01 6.438720e+01 3.483834e+01 2.231235e+01 4.563868e+01 1.500489e+00 2.077078e+00 1.775429e+00 1.409226e+00 1.626219e+00 1.737878e+00 2.048624e+00 3.004587e+00 1.373227e+00 2.535897e+00 1.776822e+00 1.350383e+00 1.657632e+00 1.148202e-01 2.412086e-01 2.481932e-01 2.359467e-01 2.572484e-01 3.279739e-01 3.359724e-01 4.269622e-01 2.604355e-01 3.491994e-01 3.379118e-01 2.438632e-01 1.204851e-01
<GCONST> 1.100943e+02
<STATE> 4
<MEAN> 39
 -1.103059e+01 -4.152033e+00 -7.246602e-01 6.177481e+00 -1.564940e+01 1.328267e+01 -1.091118e+01 -2.872899e+00 4.679046e+00 -8.956725e+00 4.287216e-01 -1.408817e+00 4.063825e+01 -1.077307e-01 -3.796815e-02 -1.227194e-01 -9.988197e-02 -5.674845e-02 -3.980634e-02 -1.760804e-02 8.856934e-02 1.759223e-01 7.426401e-02 -8.309489e-03 6.174644e-02 -8.146853e-02 3.734839e-02 3.763309e-02 5.612348e-02 1.511680e-02 -1.388712e-02 -6.332113e-03 4.263062e-03 8.535208e-03 -2.727624e-02 -3.027420e-02 2.507275e-02 -2.120180e-02 2.143968e-02
<VARIANCE> 39
 3.696015e+00 7.661706e+00 1.021728e+01 6.387673e+00 1.412393e+01 1.087215e+01 1.588325e+01 1.114808e+01 1.890013e+01 1.276775e+01 1.015592e+01 1.036339e+01 1.889858e+00 1.573527e-01 3.746980e-01 4.648164e-01 6.263242e-01 1.257445e+00 9.271141e-01 1.556194e+00 1.155298e+00 1.568842e+00 1.876640e+00 1.008504e+00 8.776267e-01 6.293118e-02 2.511293e-02 5.721148e-02 8.944111e-02 1.090002e-01 2.210078e-01 1.591105e-01 2.879036e-01 2.280284e-01 3.608907e-01 4.395999e-01 1.922586e-01 1.566876e-01 1.215558e-02
<GCONST> 6.805531e+01
<TRANSP> 5
 0.000000e+00 1.000000e+00 0.000000e+00 0.000000e+00 0.000000e+00
 0.000000e+00 5.573469e-01 4.426531e-01 0.000000e+00 0.000000e+00
 0.000000e+00 0.000000e+00 9.700081e-01 2.999182e-02 0.000000e+00
 0.000000e+00 0.000000e+00 0.000000e+00 8.834132e-01 1.165868e-01
 0.000000e+00 0.000000e+00 0.000000e+00 0.000000e+00 0.000000e+00
<ENDHMM>
~h "n"
<BEGINHMM>
<NUMSTATES> 5
<STATE> 2
<MEAN> 39
 -1.249604e+01 -4.421045e+00 -1.086927e+00 4.673905e+00 -1.719218e+01 1.405036e+01 -1.017203e+01 -2.686689e+00 5.028393e+00 -9.691206e+00 1.869567e+00 1.187726e-01 3.956117e+01 -5.139025e-02 -7.426328e-03 -1.010551e-02 4.435235e-04 3.982481e-02 2.811204e-02 9.809859e-02 1.100729e-01 6.764540e-02 3.950861e-02 -2.274310e-02 -4.444650e-02 -3.582757e-02 7.117861e-03 -7.001130e-03 -8.358913e-03 5.828118e-03 1.629290e-02 5.462329e-03 -7.931727e-03 1.227198e-02 8.175632e-03 -5.818031e-03 -1.965017e-02 -1.598760e-02 6.893698e-03
<VARIANCE> 39
 1.226599e+00 2.059137e+00 3.669775e+00 5.546648e+00 1.280550e+01 7.662448e+00 1.077782e+01 1.047458e+01 9.286757e+00 1.257041e+01 9.225142e+00 9.002160e+00 3.985171e-01 6.287698e-02 1.589873e-01 3.130290e-01 5.329422e-01 6.703081e-01 7.318356e-01 1.071660e+00 1.051547e+00 8.977256e-01 9.355181e-01 9.121788e-01 9.047010e-01 2.243935e-02 1.459642e-02 3.598256e-02 6.346788e-02 1.023600e-01 1.421341e-01 1.540557e-01 2.392381e-01 2.133260e-01 1.838299e-01 1.970967e-01 1.733809e-01 1.662582e-01 5.369491e-03
<GCONST> 5.056030e+01
<STATE> 3
<MEAN> 39
 -4.565929e-01 -1.019317e+01 -4.446788e+00 2.002529e+00 -1.663007e+01 9.349386e+00 -1.653933e+01 2.761649e+00 1.067173e+01 -9.899645e+00 -4.381035e+00 -7.784752e+00 5.120449e+01 1.014188e-01 -3.044037e-01 -3.736478e-01 -4.591005e-02 1.789079e-01 -1.036708e-01 -2.929039e-01 1.607794e-01 2.623065e-01 -9.842950e-02 -3.257279e-01 -4.332001e-01 9.635678e-02 -1.742384e-02 5.187433e-02 2.749629e-02 -5.793031e-02 -9.524523e-02 -1.453652e-02 2.813038e-02 -1.258649e-01 -1.322078e-01 -5.458146e-02 8.590850e-02 1.115847e-01 -2.234050e-02
<VARIANCE> 39
 1.233856e+02 3.938825e+01 2.165274e+01 3.448080e+01 3.129193e+01 5.625568e+01 6.107942e+01 1.481452e+01 1.961608e+01 2.551131e+01 3.762349e+01 3.882502e+01 1.254840e+02 2.459216e+00 1.799446e+00 1.498299e+00 1.678305e+00 1.891985e+00 3.163328e+00 5.061068e+00 1.005385e+00 2.342065e+00 2.054145e+00 2.687639e+00 1.872289e+00 2.220615e+00 2.520970e-01 2.173194e-01 2.806987e-01 3.378416e-01 4.267080e-01 5.708265e-01 8.931870e-01 2.722448e-01 4.683537e-01 3.489801e-01 5.544415e-01 4.342094e-01 1.526027e-01
<GCONST> 1.160055e+02
<STATE> 4
<MEAN> 39
 -1.310699e+01 -5.944209e+00 -2.145538e+00 5.617309e+00 -1.466561e+01 1.387650e+01 -1.105537e+01 -1.473159e+00 6.637825e+00 -1.010976e+01 6.251199e-01 -1.223978e+00 3.947483e+01 -3.026707e-02 1.383816e-01 5.021685e-02 -2.588924e-01 -5.256895e-01 -3.775784e-01 -1.631526e-01 -8.987470e-01 -8.132767e-01 -2.810985e-01 4.528111e-01 4.974170e-01 -3.025220e-02 4.552909e-02 7.624671e-02 3.703609e-02 3.371824e-02 2.847135e-03 1.584311e-02 8.988997e-02 -7.592795e-02 7.841419e-02 2.647075e-01 1.157673e-01 1.878904e-01 1.692730e-02
<VARIANCE> 39
 1.540180e+00 5.520513e+00 9.081337e+00 5.282675e+00 6.307947e+00 1.157250e+01 1.617229e+01 1.002420e+01 1.606473e+01 1.099154e+01 8.569889e+00 1.113155e+01 5.363742e-01 1.202824e-01 2.032094e-01 1.782061e-01 6.050651e-01 1.391963e+00 1.084660e+00 1.016812e+00 6.031668e-01 1.206748e+00 1.374758e+00 1.504275e+00 1.472122e+00 3.449204e-02 1.826674e-02 4.638920e-02 5.143935e-02 6.967842e-02 1.609081e-01 1.967830e-01 1.994466e-01 2.089880e-01 2.713638e-01 2.097169e-01 2.460327e-01 2.204316e-01 3.914960e-03
<GCONST> 5.743592e+01
<TRANSP> 5
 0.000000e+00 1.000000e+00 0.000000e+00 0.000000e+00 0.000000e+00
 0.000000e+00 9.633121e-01 3.668787e-02 0.000000e+00 0.000000e+00
 0.000000e+00 0.000000e+00 8.202043e-01 1.797957e-01 0.000000e+00
 0.000000e+00 0.000000e+00 0.000000e+00 5.925677e-01 4.074323e-01
 0.000000e+00 0.000000e+00 0.000000e+00 0.000000e+00 0.000000e+00
<ENDHMM>
~h "p"
<BEGINHMM>
<NUMSTATES> 5
<STATE> 2
<MEAN> 39
 -1.101070e+01 -5.748455e+00 -1.580733e+00 4.731102e+00 -1.686106e+01 1.560730e+01 -1.167709e+01 -3.592096e+00 5.481150e+00 -8.960591e+00 1.919061e+00 -7.804922e-02 4.110883e+01 -2.028908e-01 -2.748995e-02 1.693420e-01 5.593112e-02 -2.509592e-01 -2.225563e-01 1.007717e-01 2.783340e-01 5.125220e-01 -2.285692e-01 -4.612903e-01 -6.001706e-01 -1.483290e-01 5.063649e-01 3.958410e-02 5.830518e-03 -2.789069e-01 -1.825280e-01 -1.472746e-02 -2.116301e-02 -5.787686e-03 2.277482e-01 1.609711e-01 2.799670e-02 -1.890172e-01 3.633354e-01
<VARIANCE> 39
 1.715814e+01 1.398654e+01 3.227518e+01 1.687640e+01 7.229256e+00 1.710085e+01 1.239891e+01 1.894027e+01 2.406055e+01 1.926353e+01 2.377410e+01 2.042435e+01 4.859294e+00 3.401614e-01 4.290116e-01 5.265671e-01 2.623686e-01 5.404793e-01 1.059901e+00 1.019961e+00 1.449561e+00 1.306314e+00 8.797127e-01 1.135574e+00 1.042051e+00 8.948524e-02 2.363105e-01 1.960078e-01 2.258322e-01 4.033725e-01 1.196642e-01 2.479928e-01 2.068579e-01 2.758048e-01 3.573451e-01 2.570677e-01 2.814304e-01 1.041066e-01 1.178869e-01
<GCONST> 8.155780e+01
<STATE> 3
<MEAN> 39
 7.239030e+00 -1.319624e+01 -2.122382e+00 -3.753400e+00 -1.731969e+01 1.411444e+01 -1.812071e+01 3.713586e+00 7.810675e+00 -1.231697e+01 -1.960632e+00 -8.099094e+00 5.956651e+01 3.234801e-01 2.975291e-02 3.793724e-02 -1.091015e-01 -8.390381e-02 -1.225229e-01 -1.879526e-01 -3.495412e-02 1.580069e-02 -2.240673e-02 -8.885557e-02 -1.191334e-01 2.555733e-01 -6.112407e-02 1.542112e-02 -1.225556e-02 1.375230e-02 2.311404e-02 -1.461108e-02 2.873992e-03 -3.771192e-02 -2.447557e-02 8.507838e-03 7.717759e-04 3.472091e-02 -5.129087e-02
<VARIANCE> 39
 5.972021e+01 6.866912e+01 2.592682e+01 3.493515e+01 2.443365e+01 3.708676e+01 4.947430e+01 4.320465e+01 1.530690e+01 3.331000e+01 2.404986e+01 2.762126e+01 7.975317e+01 2.999767e+00 2.941681e+00 1.481493e+00 2.590222e+00 1.558158e+00 2.148370e+00 2.394643e+00 2.825161e+00 1.217347e+00 2.399151e+00 1.466219e+00 2.463932e+00 3.721720e+00 3.371577e-01 3.637059e-01 2.551184e-01 3.943797e-01 2.681837e-01 3.526523e-01 3.883906e-01 4.663224e-01 2.007714e-01 4.197508e-01 2.662915e-01 4.961215e-01 3.493398e-01
<GCONST> 1.146945e+02
<STATE> 4
<MEAN> 39
 -6.989187e+00 -5.230286e+00 -1.376555e+00 2.885910e+00 -1.812114e+01 1.469580e+01 -1.227174e+01 -5.000283e+00 6.279301e+00 -8.821978e+00 4.211093e-01 -2.055733e+00 4.416291e+01 -5.227267e-01 2.392820e-01 4.438268e-02 1.211550e-01 2.346792e-02 -3.992344e-01 -1.473579e-01 -1.286383e-01 7.893751e-02 1.371712e-01 -1.824622e-01 -1.076404e-01 -4.228086e-01 1.788035e-01 -1.535166e-02 1.644666e-01 1.206175e-01 8.668101e-02 3.104110e-01 -9.356011e-02 1.768254e-01 5.125114e-03 -6.079105e-03 1.120264e-01 -2.240522e-01 1.431743e-01
<VARIANCE> 39
 5.915585e+01 1.913196e+01 3.510772e+01 1.410915e+01 1.609413e+01 2.781444e+01 4.236090e+01 1.459363e+01 1.810509e+01 1.629932e+01 4.411279e+01 4.802977e+01 3.023315e+01 4.923061e-01 8.397953e-01 5.737874e-01 5.964731e-01 7.189894e-01 1.012642e+00 1.291782e+00 1.855082e+00 1.979094e+00 1.410605e+00 1.563224e+00 1.026818e+00 1.811444e-01 5.591070e-02 8.517161e-02 1.537012e-01 1.460435e-01 1.602119e-01 7.157208e-02 2.019360e-01 4.027629e-01 2.929407e-01 3.211173e-01 2.391355e-01 2.159150e-01 3.271986e-02
<GCONST> 8.772388e+01
<TRANSP> 5
 0.000000e+00 1.000000e+00 0.000000e+00 0.000000e+00 0.000000e+00
 0.000000e+00 2.451371e-01 7.548628e-01 0.000000e+00 0.000000e+00
 0.000000e+00 0.000000e+00 9.367070e-01 6.329301e-02 0.000000e+00
 0.000000e+00 0.000000e+00 0.000000e+00 4.114159e-01 5.885841e-01
 0.000000e+00 0.000000e+00 0.000000e+00 0.000000e+00 0.000000e+00
<ENDHMM>
~h "s"
<BEGINHMM>
<NUMSTATES> 5
<STATE> 2
<MEAN> 39
 -1.113711e+01 -2.380392e+00 -1.990364e-01 5.939177e+00 -1.525839e+01 1.133212e+01 -1.038266e+01 -2.594730e+00 2.813615e+00 -9.479598e+00 -7.853666e-01 -3.531932e+00 3.998606e+01 3.709957e-02 -6.409761e-02 -9.211530e-02 -3.140913e-02 -5.052745e-02 -9.874972e-02 -8.189030e-02 2.157545e-02 6.260705e-02 4.448275e-02 1.198307e-01 2.283045e-03 3.649740e-02 2.070486e-02 -3.279757e-02 -4.509617e-02 -6.123218e-03 9.702155e-03 1.513531e-02 -2.379596e-02 -1.873931e-02 3.561025e-04 -2.727412e-03 -5.372877e-03 4.458310e-03 2.327575e-02
<VARIANCE> 39
 3.884686e+00 3.869251e+00 6.756262e+00 6.305143e+00 1.062651e+01 9.751584e+00 1.102636e+01 1.043888e+01 1.248958e+01 1.277456e+01 1.298189e+01 1.400902e+01 3.097195e+00 9.042825e-02 2.270080e-01 4.889453e-01 5.944124e-01 9.480853e-01 9.204198e-01 1.161876e+00 1.079935e+00 1.166077e+00 1.637740e+00 1.418332e+00 1.464378e+00 5.568770e-02 1.521629e-02 5.596253e-02 9.505539e-02 1.422226e-01 1.874637e-01 1.758203e-01 2.242513e-01 2.182367e-01 2.530142e-01 3.520736e-01 3.053009e-01 3.189571e-01 1.058287e-02
<GCONST> 6.529312e+01
<STATE> 3
<MEAN> 39
 -3.268620e+00 -1.030485e+01 -1.128358e+00 3.536085e+00 -2.228890e+01 8.225533e+00 -1.600445e+01 6.264913e-01 5.828409e+00 -9.920556e+00 5.479003e+00 -3.546799e+00 4.887446e+01 9.040433e-02 -6.936932e-02 1.535803e-01 1.317120e-01 2.459592e-03 5.443813e-03 -1.266579e-01 5.660602e-02 3.509606e-02 -1.394077e-01 1.067159e-01 4.994097e-02 1.255847e-01 -5.993235e-02 4.731677e-03 -1.621183e-02 -2.053143e-02 1.893521e-02 3.832902e-02 5.552090e-02 1.538710e-02 -3.760826e-02 9.657353e-03 -4.842747e-03 4.678071e-02 -5.179024e-02
<VARIANCE> 39
 7.517023e+01 7.463283e+01 6.794112e+01 2.872924e+01 4.076346e+01 4.089400e+01 2.672452e+01 3.460872e+01 3.680892e+01 1.720188e+01 2.568136e+01 1.683748e+01 5.458462e+01 2.642040e+00 4.948265e+00 2.570443e+00 2.056632e+00 2.616838e+00 3.118969e+00 2.284110e+00 2.733605e+00 3.663454e+00 1.580646e+00 2.337662e+00 1.546963e+00 2.050866e+00 2.213471e-01 7.581812e-01 3.891926e-01 3.996441e-01 4.808344e-01 4.468556e-01 4.363702e-01 4.900393e-01 7.305592e-01 2.995066e-01 4.466821e-01 2.816820e-01 1.561887e-01
<GCONST> 1.184061e+02
<STATE> 4
<MEAN> 39
 -1.041502e+01 -4.998175e+00 2.113708e+00 8.736521e+00 -1.566236e+01 1.306183e+01 -1.058361e+01 -1.926426e+00 5.686530e+00 -1.163534e+01 -5.078265e-01 -3.712994e+00 4.157460e+01 -6.486581e-02 -1.650674e-02 -4.041338e-01 -4.128172e-01 -1.281928e-01 1.655119e-01 2.439937e-01 1.330005e-01 1.370016e-01 2.733855e-01 -3.655251e-01 -1.078325e-01 -1.215245e-01 8.247620e-02 -6.485017e-02 -1.015336e-01 -8.822512e-02 -3.331167e-02 3.670466e-02 2.484319e-03 3.764597e-02 -1.816021e-02 4.605890e-02 6.092259e-02 8.759900e-02 7.850190e-02
<VARIANCE> 39
 1.009489e+01 1.643553e+01 1.575810e+01 2.388058e+01 3.003363e+01 1.959159e+01 9.542904e+00 1.670743e+01 3.264279e+01 2.261822e+01 2.996682e+01 1.925400e+01 1.075304e+01 2.755322e-01 1.322511e+00 1.391260e+00 1.526650e+00 1.826670e+00 1.314705e+00 1.093759e+00 1.296443e+00 1.906372e+00 1.421503e+00 1.245607e+00 1.481455e+00 9.399697e-02 6.836659e-02 1.036044e-01 2.092927e-01 2.407838e-01 3.762498e-01 2.133027e-01 2.163587e-01 1.972342e-01 3.685353e-01 2.722571e-01 1.827987e-01 2.672182e-01 1.591460e-02
<GCONST> 8.664630e+01
<TRANSP> 5
 0.000000e+00 1.000000e+00 0.000000e+00 0.000000e+00 0.000000e+00
 0.000000e+00 9.194973e-01 8.050270e-02 0.000000e+00 0.000000e+00
 0.000000e+00 0.000000e+00 8.586780e-01 1.413220e-01 0.000000e+00
 0.000000e+00 0.000000e+00 0.000000e+00 7.051754e-01 2.948247e-01
 0.000000e+00 0.000000e+00 0.000000e+00 0.000000e+00 0.000000e+00
<ENDHMM>
~h "t"
<BEGINHMM>
<NUMSTATES> 5
<STATE> 2
<MEAN> 39
 -8.742967e+00 -9.459955e+00 -5.943421e+00 2.520257e+00 -1.579527e+01 1.380943e+01 -9.870275e+00 1.202521e+00 5.372325e+00 -8.419555e+00 4.908730e+00 -1.824583e+00 4.370622e+01 -2.807681e-02 -4.085262e-01 -4.469683e-02 -2.046525e-01 -1.865450e-01 -7.048151e-02 -1.052643e-01 2.945223e-01 9.131295e-02 -1.325013e-01 2.520596e-01 -6.871275e-02 1.286992e-01 1.124283e-01 6.696986e-02 -6.599829e-02 -1.583901e-01 -1.969169e-01 -1.196109e-01 -3.769521e-02 -5.703627e-02 -8.426703e-03 2.747017e-02 3.750901e-02 6.547254e-02 5.507015e-02
<VARIANCE> 39
 1.282185e+01 2.540859e+01 3.041586e+01 1.083126e+01 1.320038e+01 1.799943e+01 1.884419e+01 2.902086e+01 1.471051e+01 2.920820e+01 2.787891e+01 1.290297e+01 1.373368e+01 1.426737e-01 2.191431e-01 7.397534e-01 8.822928e-01 8.117753e-01 9.837282e-01 1.350930e+00 1.837807e+00 1.501120e+00 2.690085e+00 2.966465e+00 1.515136e+00 4.858955e-02 4.995824e-02 8.664746e-02 1.120818e-01 1.800080e-01 1.314714e-01 1.792283e-01 3.282756e-01 4.718665e-01 3.651475e-01 6.533076e-01 6.250541e-01 3.495699e-01 2.065333e-02
<GCONST> 8.447791e+01
<STATE> 3
<MEAN> 39
 5.634205e+00 -9.345116e+00 -4.010362e-01 -5.146974e+00 -1.979498e+01 1.288184e+01 -1.904864e+01 1.522926e+00 8.450073e+00 -8.737596e+00 3.104790e+00 -4.427853e+00 5.708233e+01 1.894674e-01 1.128909e-01 -1.211910e-01 -1.659563e-01 -8.717132e-02 2.830137e-02 5.693704e-02 9.574946e-02 3.152939e-01 1.914383e-01 -1.604163e-01 -1.088482e-01 8.364882e-02 -6.916273e-02 -1.332166e-02 -4.459054e-03 2.541721e-02 -1.380817e-02 -1.750623e-02 4.186413e-02 1.563756e-02 3.595586e-04 1.087642e-02 -8.681636e-03 -1.674276e-02 -5.152248e-02
<VARIANCE> 39
 5.900443e+01 3.950570e+01 5.745252e+01 5.184438e+01 1.811002e+01 2.805496e+01 6.408655e+01 6.089161e+01 7.165070e+01 3.444985e+01 4.004281e+01 1.649746e+01 7.627411e+01 3.609341e+00 3.368996e+00 1.992734e+00 3.179614e+00 1.904207e+00 2.002591e+00 4.440482e+00 2.022724e+00 2.499806e+00 2.770335e+00 1.895275e+00 1.475885e+00 4.161899e+00 3.592283e-01 5.182369e-01 3.117062e-01 4.298529e-01 3.782630e-01 3.191052e-01 6.633611e-01 3.322718e-01 5.027910e-01 5.122777e-01 3.579704e-01 2.924108e-01 3.047946e-01
<GCONST> 1.207178e+02
<STATE> 4
<MEAN> 39
 -8.101826e+00 -4.402454e+00 -4.058960e+00 -7.725434e-01 -2.208426e+01 1.275586e+01 -7.299964e+00 2.827352e+00 1.222439e+01 -4.290661e+00 4.765422e-02 -3.496377e+00 4.261757e+01 -4.951334e-01 3.020561e-02 3.451825e-01 2.748908e-01 -9.987405e-02 -1.906008e-01 -3.604338e-01 -4.727349e-01 -4.625674e-01 -2.366331e-01 3.071691e-01 2.688141e-01 -2.921785e-01 1.022515e-01 -1.615881e-02 8.830564e-02 1.583062e-01 2.088586e-01 1.811041e-01 -1.163203e-01 -2.631058e-01 -3.244104e-01 -2.456744e-01 -6.074317e-02 -1.808153e-02 8.555568e-02
<VARIANCE> 39
 1.787017e+01 8.528868e+00 1.741902e+01 1.390737e+01 1.906868e+01 3.030507e+01 2.148612e+01 2.750093e+01 3.850276e+01 1.302140e+01 1.841889e+01 1.617791e+01 1.370288e+01 2.962396e-01 3.679229e-01 9.520910e-01 7.343092e-01 6.947757e-01 1.156275e+00 1.297617e+00 1.651986e+00 1.928100e+00 1.230217e+00 1.916161e+00 1.214012e+00 1.184206e-01 4.237108e-02 4.621411e-02 1.676008e-01 1.040318e-01 1.449689e-01 2.480907e-01 4.177670e-01 2.509578e-01 3.338794e-01 2.277589e-01 2.987244e-01 2.437987e-01 3.173529e-02
<GCONST> 8.249841e+01
<TRANSP> 5
 0.000000e+00 1.000000e+00 0.000000e+00 0.000000e+00 0.000000e+00
 0.000000e+00 7.047726e-01 2.952274e-01 0.000000e+00 0.000000e+00
 0.000000e+00 0.000000e+00 9.236256e-01 7.637443e-02 0.000000e+00
 0.000000e+00 0.000000e+00 0.000000e+00 6.472356e-01 3.527644e-01
 0.000000e+00 0.000000e+00 0.000000e+00 0.000000e+00 0.000000e+00
<ENDHMM>
~h "ah"
<BEGINHMM>
<NUMSTATES> 5
<STATE> 2
<MEAN> 39
 -9.490417e+00 -2.919511e+00 -1.561166e+00 3.576706e+00 -1.879203e+01 9.713074e+00 -1.222987e+01 -3.522203e+00 4.416781e+00 -7.604682e+00 1.786442e-01 -3.453141e+00 4.124200e+01 -9.011678e-02 -4.137856e-02 -4.881119e-02 4.497820e-02 3.954752e-02 2.034290e-02 7.436088e-02 9.962300e-02 1.127835e-02 -1.626889e-03 6.390296e-02 4.752234e-02 -6.460813e-02 4.849889e-02 -3.007514e-02 -3.884988e-02 -2.562891e-02 8.118396e-03 6.140862e-02 5.172543e-02 4.666619e-02 2.492949e-02 -1.445477e-02 -1.207226e-03 5.134485e-02 4.150258e-02
<VARIANCE> 39
 1.695312e+01 9.096350e+00 1.392647e+01 8.712571e+00 1.780797e+01 1.904060e+01 1.637303e+01 2.218251e+01 2.143249e+01 1.781874e+01 1.645334e+01 1.690669e+01 1.208886e+01 1.372403e-01 3.037076e-01 6.200810e-01 6.619126e-01 8.228543e-01 8.424602e-01 1.150314e+00 1.312245e+00 1.101163e+00 1.309268e+00 1.538607e+00 1.191280e+00 6.645593e-02 3.272419e-02 6.207506e-02 1.302982e-01 1.375766e-01 1.932108e-01 1.870015e-01 2.295998e-01 2.341989e-01 2.231628e-01 2.192705e-01 2.779454e-01 2.369759e-01 1.301997e-02
<GCONST> 7.499572e+01
<STATE> 3
<MEAN> 39
 3.210862e+00 -6.025702e+00 8.224215e-01 3.284731e-01 -1.721593e+01 1.315918e+01 -1.777449e+01 -3.111694e+00 2.563978e+00 -1.114487e+01 1.497601e+00 -4.053158e+00 5.342651e+01 -7.115259e-02 -1.046733e-03 4.652182e-02 6.957009e-02 -7.918645e-02 1.408721e-01 1.334165e-01 -1.018131e-01 -6.794243e-02 -7.460487e-02 2.224910e-02 1.463583e-01 -5.746119e-02 -4.746482e-02 -1.967832e-02 1.763537e-02 3.664274e-03 -9.141184e-03 -1.015938e-03 2.696168e-02 1.226507e-02 1.130495e-02 2.354944e-02 3.384055e-02 -9.496172e-03 -2.359803e-02
<VARIANCE> 39
 8.424193e+01 7.814915e+01 6.326441e+01 4.899888e+01 2.943716e+01 2.820231e+01 5.392614e+01 6.460181e+01 3.054544e+01 4.714756e+01 4.217556e+01 2.310275e+01 1.031678e+02 2.240257e+00 2.212594e+00 2.403491e+00 1.846252e+00 1.522284e+00 1.989534e+00 2.464349e+00 3.223103e+00 1.644724e+00 2.450343e+00 2.123972e+00 1.363592e+00 2.404433e+00 2.047174e-01 2.900976e-01 3.395052e-01 3.180061e-01 2.589560e-01 3.660394e-01 3.856262e-01 4.916273e-01 2.582197e-01 3.714617e-01 3.585154e-01 2.621231e-01 2.360627e-01
<GCONST> 1.165613e+02
<STATE> 4
<MEAN> 39
 -1.115178e+01 -5.961058e+00 -2.102064e+00 4.980494e+00 -1.590282e+01 1.529205e+01 -9.598221e+00 -2.492116e+00 6.222970e+00 -9.383594e+00 -1.534866e-01 -1.133757e+00 4.104036e+01 -2.070969e-01 -7.938133e-02 -1.656402e-02 -1.994392e-01 -2.088344e-01 -1.430804e-01 -1.420706e-02 1.777091e-02 -1.138147e-01 1.071614e-01 2.670458e-01 5.619988e-02 -1.164876e-01 4.848258e-02 4.510032e-02 5.065978e-02 4.060018e-02 1.196768e-02 -1.010677e-01 -1.400892e-01 -3.747674e-02 6.509770e-03 2.457250e-02 1.207605e-02 -5.273139e-02 1.912419e-02
<VARIANCE> 39
 7.536015e+00 7.660368e+00 1.634363e+01 7.628089e+00 1.271125e+01 1.523956e+01 1.441393e+01 1.201042e+01 1.465372e+01 1.525746e+01 1.415855e+01 2.148082e+01 2.704021e+00 2.171966e-01 4.297097e-01 6.257724e-01 7.065667e-01 9.417831e-01 1.171199e+00 1.394004e+00 1.129247e+00 1.683072e+00 1.624155e+00 1.391141e+00 1.220571e+00 6.856899e-02 3.532203e-02 7.952472e-02 9.686276e-02 1.125515e-01 1.163684e-01 2.256100e-01 2.723314e-01 1.840502e-01 3.292789e-01 3.470055e-01 3.007709e-01 2.349386e-01 1.224097e-02
<GCONST> 7.307115e+01
<TRANSP> 5
 0.000000e+00 1.000000e+00 0.000000e+00 0.000000e+00 0.000000e+00
 0.000000e+00 7.774162e-01 2.225838e-01 0.000000e+00 0.000000e+00
 0.000000e+00 0.000000e+00 8.791032e-01 1.208967e-01 0.000000e+00
 0.000000e+00 0.000000e+00 0.000000e+00 7.681561e-01 2.318439e-01
 0.000000e+00 0.000000e+00 0.000000e+00 0.000000e+00 0.000000e+00
<ENDHMM>
~h "eh"
<BEGINHMM>
<NUMSTATES> 5
<STATE> 2
<MEAN> 39
 -1.183397e+01 -7.179609e+00 -4.509986e+00 2.127720e+00 -1.920022e+01 1.243073e+01 -1.262302e+01 -1.674060e+00 1.067133e+01 -3.824147e+00 4.257470e+00 -9.805552e-01 4.037421e+01 2.017312e-01 -8.206450e-01 -7.736442e-01 -1.903512e-02 2.674026e-01 3.270424e-01 -1.369746e-02 4.597671e-01 5.692454e-01 8.290504e-01 5.598161e-01 -1.541678e-01 3.238312e-01 1.331858e-01 -4.613909e-02 1.149977e-01 1.587531e-01 4.343203e-02 1.370676e-01 2.041010e-01 3.431426e-03 -2.935010e-01 -4.537632e-01 -7.358854e-02 1.906523e-02 1.155706e-01
<VARIANCE> 39
 2.583285e+01 2.086511e+01 4.714417e+01 1.451536e+01 1.876957e+01 4.574180e+01 1.495974e+01 2.258750e+01 2.591057e+01 3.614168e+01 2.104060e+01 1.661765e+01 2.652608e+01 1.500970e-01 4.018916e-01 8.027468e-01 1.258014e+00 1.070523e+00 1.420166e+00 1.273379e+00 3.434296e+00 2.474206e+00 4.273301e+00 2.144362e+00 1.398580e+00 1.818960e-01 1.075819e-01 7.543350e-02 7.221605e-02 2.183397e-01 1.406769e-01 3.144280e-01 1.364398e-01 4.812456e-01 2.937364e-01 5.288193e-01 4.193190e-01 2.544543e-01 5.203050e-02
<GCONST> 9.203776e+01
<STATE> 3
<MEAN> 39
 8.646922e+00 -1.969100e+00 3.406332e+00 -4.062011e+00 -2.294803e+01 1.099109e+01 -1.951761e+01 -5.710710e+00 -5.381273e+00 -1.252066e+01 7.678180e+00 -1.513498e+00 5.658684e+01 1.835312e-01 4.927310e-02 -1.122911e-01 -4.214239e-02 1.261321e-01 3.646992e-02 -1.071934e-01 -1.348029e-01 -2.513669e-01 -1.372465e-02 1.754857e-01 1.431440e-01 1.039420e-01 -3.125292e-02 -2.112904e-02 2.470370e-03 2.364936e-02 2.837005e-02 1.317925e-02 1.922158e-02 1.121652e-02 4.738490e-02 2.951173e-02 3.535765e-03 -1.568540e-02 -1.602336e-02
<VARIANCE> 39
 5.905734e+01 1.836759e+01 1.620025e+01 5.746839e+01 2.746509e+01 1.815794e+01 3.974610e+01 3.128829e+01 4.293678e+01 3.488117e+01 1.583536e+01 2.646272e+01 4.629179e+01 1.846236e+00 8.822734e-01 8.013843e-01 3.454351e+00 1.958210e+00 1.668362e+00 1.778255e+00 2.018125e+00 2.562357e+00 3.060300e+00 1.632895e+00 1.910379e+00 1.314180e+00 1.664578e-01 1.378872e-01 1.043340e-01 3.366945e-01 2.445869e-01 2.950169e-01 2.155318e-01 3.986118e-01 3.361150e-01 5.224087e-01 3.278099e-01 3.178668e-01 1.005516e-01
<GCONST> 1.049585e+02
<STATE> 4
<MEAN> 39
 -1.004193e+01 -5.744501e+00 -4.005149e+00 4.494407e+00 -1.419936e+01 1.798991e+01 -1.146183e+01 -2.917408e+00 5.362667e+00 -6.511009e+00 8.026857e+00 1.909343e+00 4.093181e+01 -2.167856e-01 -9.874116e-01 -2.946362e-01 1.182723e-01 1.796940e-01 7.656045e-01 1.735785e-01 1.438348e-01 2.312707e-01 -4.018300e-01 -1.647863e-01 -4.505382e-02 6.654356e-02 2.502698e-01 1.134734e-01 4.830012e-01 -1.211964e-01 -3.924218e-01 -4.367332e-01 -5.340150e-01 -3.583807e-01 2.859723e-01 -2.861060e-01 -3.733932e-01 -2.789515e-02 2.659501e-01
<VARIANCE> 39
 7.611315e+01 4.989956e+01 1.012805e+02 1.362794e+01 1.647372e+01 3.375299e+01 3.199038e+01 3.785465e+01 2.135824e+01 1.509067e+01 1.869866e+01 2.911710e+01 5.077138e+01 8.606229e-01 6.793295e-01 1.578257e+00 8.600060e-01 1.012666e+00 1.047501e+00 1.527927e+00 2.980740e+00 3.026285e+00 1.234119e+00 6.247462e-01 1.836718e+00 6.056506e-01 8.879735e-02 4.743155e-01 5.047505e-01 8.128653e-02 8.263820e-02 1.595619e-01 2.981786e-01 4.228908e-01 3.574595e-01 3.706666e-01 2.562824e-01 2.722564e-01 1.843493e-01
<GCONST> 9.973508e+01
<TRANSP> 5
 0.000000e+00 1.000000e+00 0.000000e+00 0.000000e+00 0.000000e+00
 0.000000e+00 4.652222e-01 5.347778e-01 0.000000e+00 0.000000e+00
 0.000000e+00 0.000000e+00 9.315282e-01 6.847182e-02 0.000000e+00
 0.000000e+00 0.000000e+00 0.000000e+00 1.472786e-01 8.527214e-01
 0.000000e+00 0.000000e+00 0.000000e+00 0.000000e+00 0.000000e+00
<ENDHMM>
~h "ih"
<BEGINHMM>
<NUMSTATES> 5
<STATE> 2
<MEAN> 39
 -1.185009e+01 -4.172671e+00 -2.863725e-01 4.621020e+00 -1.706533e+01 1.391198e+01 -1.026603e+01 -2.804305e+00 5.281157e+00 -1.057780e+01 -6.449105e-01 3.652356e-01 4.007444e+01 4.064124e-01 2.866769e-01 -1.106898e-01 -1.364426e-01 -7.800842e-01 -9.323726e-01 -8.134598e-01 -6.370373e-01 -2.667583e-01 -1.258450e-01 -4.134640e-02 2.029861e-01 1.737273e-01 1.930526e-01 5.516259e-02 5.248307e-03 4.371798e-02 1.081255e-02 -1.201914e-01 -1.496131e-01 2.214288e-02 2.223571e-01 2.829981e-01 3.355724e-02 -1.187881e-01 1.168686e-01
<VARIANCE> 39
 6.698125e+00 4.673219e+00 1.549112e+01 7.652525e+00 1.889502e+01 2.926144e+01 1.380175e+01 8.710528e+00 1.329574e+01 1.602000e+01 1.103833e+01 1.489762e+01 1.664642e+00 9.431734e-01 4.112999e-01 1.859331e-01 4.866017e-01 1.411243e+00 3.168869e+00 2.379569e+00 1.566566e+00 1.007446e+00 8.453253e-01 1.357026e+00 9.970793e-01 2.740777e-01 7.609033e-02 8.812330e-02 8.096172e-02 1.475688e-01 3.840609e-01 6.239140e-01 2.931077e-01 2.488713e-01 3.691495e-01 3.153766e-01 2.093689e-01 1.148472e-01 2.921475e-02
<GCONST> 7.739534e+01
<STATE> 3
<MEAN> 39
 6.922070e+00 -7.062657e+00 6.353667e+00 1.845333e+00 -2.066877e+01 9.144528e+00 -2.113061e+01 -3.724916e+00 4.969340e-01 -1.054249e+01 1.477373e+00 -6.823530e+00 5.779050e+01 1.638276e-01 -9.417257e-02 -1.989765e-02 2.569976e-02 9.848395e-02 1.209998e-01 1.863609e-02 1.549621e-01 1.488655e-01 1.039513e-01 6.253346e-03 -3.427013e-02 1.454017e-01 -3.442349e-02 -3.529360e-02 -2.991736e-02 -1.001659e-03 5.062824e-02 5.661694e-02 7.622340e-02 8.748974e-02 7.493717e-02 7.131469e-02 1.102998e-02 1.056624e-02 -2.066571e-02
<VARIANCE> 39
 6.169757e+01 3.955635e+01 5.861222e+01 2.499448e+01 5.158921e+01 6.600932e+01 2.696964e+01 7.666691e+01 2.124610e+01 3.619223e+01 2.498077e+01 3.350515e+01 6.989034e+01 4.831967e-01 9.424506e-01 9.776128e-01 1.247608e+00 1.687143e+00 1.296799e+00 1.045818e+00 2.840263e+00 1.328063e+00 1.999708e+00 1.259598e+00 1.158316e+00 5.161209e-01 3.380327e-02 1.251393e-01 1.212735e-01 1.610369e-01 2.611850e-01 2.402272e-01 1.685345e-01 4.047186e-01 2.811167e-01 3.710925e-01 2.294981e-01 2.350322e-01 3.322165e-02
<GCONST> 9.869252e+01
<STATE> 4
<MEAN> 39
 -1.307016e+01 -5.012492e+00 -1.548122e+00 5.292637e+00 -1.552923e+01 1.391471e+01 -9.408964e+00 -5.512988e-01 7.482872e+00 -8.468485e+00 -2.089275e-01 -5.112903e-01 3.932847e+01 4.899889e-04 6.874171e-03 -3.948505e-02 -1.574639e-02 1.358717e-02 -1.356454e-02 6.952359e-02 6.227240e-02 2.674175e-02 4.625247e-02 1.526931e-02 -4.649032e-02 -1.665217e-02 5.383889e-03 2.116791e-03 -2.821419e-03 2.064532e-03 4.956870e-03 8.106772e-04 -2.085270e-02 -3.603493e-02 -1.566201e-02 -8.284200e-03 1.455118e-02 -4.997711e-03 5.424770e-03
<VARIANCE> 39
 5.349637e+00 4.916803e+00 5.900870e+00 5.213891e+00 9.226849e+00 1.045290e+01 1.088085e+01 1.108571e+01 1.078189e+01 1.258398e+01 1.183420e+01 1.453997e+01 1.768806e+00 7.316341e-02 1.781836e-01 3.019691e-01 4.092507e-01 4.976008e-01 7.317538e-01 8.214124e-01 9.255681e-01 9.859270e-01 1.340093e+00 9.440750e-01 9.440364e-01 1.945992e-02 1.424736e-02 3.284094e-02 6.097300e-02 8.421282e-02 9.291736e-02 1.417686e-01 1.565495e-01 1.963059e-01 1.818576e-01 2.852393e-01 1.882961e-01 1.949691e-01 4.525649e-03
<GCONST> 5.445961e+01
<TRANSP> 5
 0.000000e+00 1.000000e+00 0.000000e+00 0.000000e+00 0.000000e+00
 0.000000e+00 2.959418e-01 7.040582e-01 0.000000e+00 0.000000e+00
 0.000000e+00 0.000000e+00 8.591228e-01 1.408772e-01 0.000000e+00
 0.000000e+00 0.000000e+00 0.000000e+00 9.538565e-01 4.614347e-02
 0.000000e+00 0.000000e+00 0.000000e+00 0.000000e+00 0.000000e+00
<ENDHMM>
~h "uh"
<BEGINHMM>
<NUMSTATES> 5
<STATE> 2
<MEAN> 39
 -9.719940e+00 -1.032243e+01 -5.522127e+00 3.096462e+00 -1.671246e+01 1.385026e+01 -1.449947e+01 -2.384658e+00 1.085147e+01 -5.984776e+00 5.374144e+00 -3.079840e-01 4.312392e+01 -1.705995e-01 -3.311103e-01 4.732880e-01 2.978813e-01 -1.607986e-01 -1.964480e-01 -4.806941e-01 -2.741533e-01 -7.895092e-01 -4.702754e-01 2.063002e-01 -5.462261e-01 5.878814e-02 4.327279e-02 1.060187e-01 1.435039e-01 4.171858e-02 -1.082337e-01 -9.128198e-03 3.943893e-02 1.183887e-01 -3.920275e-02 -6.824142e-03 -1.572636e-01 -1.779002e-01 9.229339e-03
<VARIANCE> 39
 3.576638e+01 3.736656e+01 8.282660e+01 9.727733e+00 1.761585e+01 3.041209e+01 3.518421e+01 2.028087e+01 1.862115e+01 2.317381e+01 3.085553e+01 3.008839e+01 2.776834e+01 2.782647e-01 4.121620e-01 7.973478e-01 6.934419e-01 1.233070e+00 6.766083e-01 1.596516e+00 2.219797e+00 2.372975e+00 1.814009e+00 9.150492e-01 1.747569e+00 1.470036e-01 4.929923e-02 2.270173e-01 1.447261e-01 1.545621e-01 1.801743e-01 2.308491e-01 3.360585e-01 6.244057e-01 4.466480e-01 2.261793e-01 3.850117e-01 1.823520e-01 5.484277e-02
<GCONST> 9.209728e+01
<STATE> 3
<MEAN> 39
 -1.971787e+00 -6.846271e+00 -2.241354e+00 1.245688e+00 -2.131491e+01 8.251985e+00 -1.782467e+01 -2.179013e+00 7.048796e+00 -5.208543e+00 8.105829e+00 -1.430264e+00 4.853218e+01 -1.870395e-01 4.302098e-01 4.168176e-01 1.218676e-01 -1.660551e-01 4.367311e-02 3.941754e-01 -8.313667e-03 -2.718127e-01 -1.875665e-01 -1.298380e-01 2.285942e-01 -2.496819e-01 -2.578141e-02 1.063581e-02 4.634518e-03 5.733763e-03 6.459965e-02 7.259638e-02 6.731366e-02 -1.984191e-02 -2.378345e-02 -3.628960e-02 -6.981105e-02 1.214403e-02 -2.190039e-02
<VARIANCE> 39
 5.912200e+01 4.916228e+01 8.723020e+01 3.483891e+01 3.677251e+01 4.421593e+01 5.756707e+01 2.057231e+01 4.061071e+01 2.575920e+01 1.814060e+01 3.202230e+01 4.902782e+01 2.617368e+00 2.480309e+00 2.092386e+00 1.974837e+00 2.635693e+00 2.519703e+00 2.406404e+00 1.373533e+00 2.376607e+00 1.714100e+00 1.558017e+00 1.892392e+00 2.090694e+00 2.672051e-01 4.916759e-01 2.636934e-01 3.926980e-01 4.954326e-01 4.440081e-01 3.788536e-01 2.492572e-01 4.456143e-01 2.945053e-01 3.337328e-01 3.819942e-01 2.390438e-01
<GCONST> 1.152601e+02
<STATE> 4
<MEAN> 39
 -1.294387e+01 -5.318916e+00 -8.555446e-01 5.128719e+00 -1.664510e+01 1.659183e+01 -1.013885e+01 -2.928459e+00 7.141714e+00 -9.633795e+00 1.587402e+00 8.828236e-01 3.941806e+01 -3.917164e-02 2.430865e-03 3.735106e-03 -3.971263e-03 4.191819e-02 4.650060e-02 5.713529e-02 4.230557e-02 -4.033027e-02 -5.605356e-02 -6.952416e-02 -5.911203e-02 -3.130338e-02 2.071024e-02 -9.586792e-03 -1.618379e-02 -1.175964e-02 -1.092084e-02 -3.777624e-03 -2.176456e-02 -3.044918e-03 4.548260e-02 2.821282e-02 1.098660e-02 1.296432e-02 1.556962e-02
<VARIANCE> 39
 3.251603e+00 2.280592e+00 1.043428e+01 5.458315e+00 7.022758e+00 1.571377e+01 1.150289e+01 1.161142e+01 1.501154e+01 1.165037e+01 1.281457e+01 1.555497e+01 2.004290e+00 8.517516e-02 1.953511e-01 3.952431e-01 5.474257e-01 5.494996e-01 9.020686e-01 1.104424e+00 1.212038e+00 1.267400e+00 1.270234e+00 1.141893e+00 9.685301e-01 2.724632e-02 2.139832e-02 3.737795e-02 9.735409e-02 1.147519e-01 1.058659e-01 1.656502e-01 2.217020e-01 2.676510e-01 2.659878e-01 2.495208e-01 2.001179e-01 2.101807e-01 1.079319e-02
<GCONST> 6.050935e+01
<TRANSP> 5
 0.000000e+00 1.000000e+00 0.000000e+00 0.000000e+00 0.000000e+00
 0.000000e+00 3.006704e-01 6.993295e-01 0.000000e+00 0.000000e+00
 0.000000e+00 0.000000e+00 8.314642e-01 1.685358e-01 0.000000e+00
 0.000000e+00 0.000000e+00 0.000000e+00 9.183275e-01 8.167248e-02
 0.000000e+00 0.000000e+00 0.000000e+00 0.000000e+00 0.000000e+00
<ENDHMM>
~h "uw"
<BEGINHMM>
<NUMSTATES> 5
<STATE> 2
<MEAN> 39
 2.105831e+00 -5.923587e+00 -5.432759e+00 5.847376e-01 -1.527240e+01 1.161019e+01 -1.940588e+01 -3.337273e+00 1.130386e+00 -1.583543e+01 -3.593662e+00 -7.764990e+00 5.090904e+01 2.535910e-01 1.017663e+00 -1.223002e-02 1.563474e-01 -7.856972e-01 -1.866753e-01 -5.878866e-01 -1.622171e+00 -1.600120e+00 -1.094549e+00 7.629256e-02 -7.852227e-01 -2.598691e-01 1.935844e-01 3.374696e-01 5.081661e-01 7.839642e-03 -1.234975e-01 2.393402e-01 8.683586e-01 5.145824e-01 4.642253e-01 7.852579e-01 4.309390e-01 -1.684183e-02 1.328678e-01
<VARIANCE> 39
 7.451097e+01 2.421643e+01 2.541376e+01 3.474302e+01 3.316801e+01 4.295321e+01 3.786559e+01 4.860677e+01 3.883297e+01 3.647810e+01 7.969398e+00 3.107555e+01 6.569506e+01 2.113854e+00 8.580368e-01 1.682544e+00 1.000938e+00 1.936855e+00 2.215490e+00 4.182579e+00 1.475487e+00 1.132556e+00 1.975826e+00 5.255815e-01 2.125335e+00 1.139994e+00 2.122911e-01 2.516801e-01 4.730913e-01 3.458151e-01 6.740559e-01 2.463679e-01 1.167777e-01 2.708769e-01 1.994023e-01 4.133497e-01 5.107165e-02 1.470717e-01 7.054425e-02
<GCONST> 1.031038e+02
<STATE> 3
<MEAN> 39
 9.036975e+00 -3.274652e+00 1.252630e+00 -4.722622e+00 -2.060647e+01 1.166722e+01 -1.871443e+01 -1.586997e+00 -2.703363e-01 -1.021441e+01 4.898643e+00 -7.025404e+00 5.738981e+01 -7.709444e-02 -1.729470e-01 -1.495681e-01 5.138735e-02 1.709570e-01 2.244874e-01 2.426563e-01 2.479260e-01 4.347504e-01 3.635387e-01 8.337660e-02 -2.735405e-02 -4.171144e-02 -8.884821e-02 -1.187393e-01 -9.265202e-02 2.873187e-03 1.177681e-01 7.240614e-02 3.049851e-02 3.318385e-02 7.794874e-02 6.673370e-02 3.899228e-02 1.206354e-01 -3.677092e-02
<VARIANCE> 39
 2.298927e+01 5.408186e+01 6.037478e+01 1.010454e+02 1.891265e+01 3.034023e+01 1.798672e+01 2.726280e+01 5.390554e+01 4.087578e+01 4.544972e+01 6.726924e+01 3.657676e+01 1.703303e+00 2.056902e+00 1.842256e+00 3.421075e+00 1.579340e+00 2.194638e+00 1.701389e+00 9.848254e-01 2.400285e+00 2.992029e+00 2.708242e+00 3.516603e+00 1.753904e+00 1.259971e-01 2.972127e-01 1.549127e-01 4.612294e-01 2.288886e-01 4.913122e-01 2.488414e-01 2.036516e-01 3.781109e-01 3.838296e-01 4.365653e-01 4.797993e-01 1.632898e-01
<GCONST> 1.126333e+02
<STATE> 4
<MEAN> 39
 -3.923222e-01 -8.846582e+00 -8.447521e+00 4.021371e+00 -9.057731e+00 1.990100e+01 -1.290377e+01 3.344534e-01 9.867226e+00 -7.574105e+00 1.937877e+00 -5.096593e+00 4.893942e+01 -1.321692e+00 -6.030105e-02 3.899584e-02 6.568516e-01 1.461372e-01 -1.904372e-01 -7.585631e-02 -1.158144e+00 -4.552439e-01 4.754653e-01 4.656604e-01 4.529963e-01 -1.005457e+00 5.435684e-02 5.712884e-02 6.169568e-02 -1.561416e-01 -3.249461e-01 -2.183720e-01 -1.282822e-01 -2.341555e-02 -1.318829e-01 -2.111793e-01 -1.862498e-01 -1.734297e-01 4.732749e-02
<VARIANCE> 39
 2.365147e+01 7.783300e+00 1.582171e+01 2.001194e+01 1.813191e+01 1.135514e+01 3.019251e+01 4.114259e+01 2.623208e+01 1.137335e+01 9.265267e+00 1.906314e+01 1.589737e+01 4.888607e-01 7.632955e-01 6.595261e-01 7.874192e-01 2.170182e+00 1.640127e+00 1.756068e+00 1.888675e+00 1.266064e+00 2.130765e+00 1.031935e+00 2.005799e+00 2.636159e-01 1.182900e-01 1.392280e-01 1.502995e-01 9.552883e-02 2.730351e-01 2.810647e-01 3.703236e-01 4.504279e-01 2.991261e-01 5.099249e-01 1.534714e-01 2.510270e-01 5.997955e-02
<GCONST> 8.929633e+01
<TRANSP> 5
 0.000000e+00 1.000000e+00 0.000000e+00 0.000000e+00 0.000000e+00
 0.000000e+00 4.513460e-01 5.486541e-01 0.000000e+00 0.000000e+00
 0.000000e+00 0.000000e+00 9.241459e-01 7.585415e-02 0.000000e+00
 0.000000e+00 0.000000e+00 0.000000e+00 8.305784e-01 1.694216e-01
 0.000000e+00 0.000000e+00 0.000000e+00 0.000000e+00 0.000000e+00
<ENDHMM>
~h "sil"
<BEGINHMM>
<NUMSTATES> 5
<STATE> 2
<MEAN> 39
 -8.976349e+00 -4.396211e+00 -3.504575e+00 1.918679e+00 -2.042661e+01 1.062160e+01 -1.269360e+01 -5.273426e+00 3.945419e+00 -7.901459e+00 1.375287e+00 -2.235688e+00 4.178034e+01 -2.059274e-01 2.665922e-02 1.795783e-01 6.935098e-02 -6.108664e-04 -8.023573e-02 5.248544e-02 4.511064e-02 9.593678e-02 1.274042e-01 1.597304e-01 1.419102e-01 -1.463552e-01 2.850998e-02 4.589440e-02 5.031816e-02 8.045412e-02 1.142539e-01 6.614448e-02 6.296124e-02 7.161897e-02 4.390434e-02 7.012134e-03 -3.312860e-02 -1.404757e-03 1.294431e-02
<VARIANCE> 39
 6.302430e+00 9.559414e+00 1.239260e+01 1.024351e+01 1.351782e+01 2.432372e+01 2.238251e+01 2.656783e+01 2.561069e+01 2.007193e+01 2.063757e+01 1.820480e+01 1.857471e+00 1.259536e-01 2.905883e-01 5.419747e-01 6.823208e-01 1.018327e+00 1.213373e+00 1.151104e+00 1.575666e+00 1.106178e+00 1.397778e+00 1.562199e+00 1.159585e+00 3.571359e-02 2.723680e-02 4.889806e-02 9.439144e-02 1.143966e-01 1.861436e-01 2.327022e-01 2.254615e-01 2.907655e-01 1.728287e-01 2.864389e-01 2.926309e-01 1.958849e-01 7.291295e-03
<GCONST> 7.199593e+01
<STATE> 3
<MEAN> 39
 3.483176e+00 -3.468630e+00 1.503556e+00 -7.272171e-01 -2.071320e+01 1.079875e+01 -1.824868e+01 -3.352883e+00 2.365621e+00 -1.041077e+01 3.959763e+00 -3.094027e+00 5.262229e+01 7.182599e-03 9.191218e-02 1.382818e-01 1.080717e-01 6.623745e-02 2.361782e-02 -3.665379e-02 -6.804387e-02 -1.423738e-01 -6.159329e-02 -8.409058e-03 5.975657e-02 -1.064680e-02 -7.993138e-03 -1.974104e-02 -1.596931e-02 3.090190e-03 1.765779e-02 3.439212e-02 3.004065e-02 4.170848e-02 3.491541e-02 1.521928e-02 -3.327932e-02 -1.380687e-02 -6.129465e-04
<VARIANCE> 39
 7.491597e+01 6.230249e+01 2.322205e+01 3.553434e+01 2.190396e+01 1.980181e+01 4.106010e+01 3.907002e+01 4.356409e+01 3.065408e+01 4.349866e+01 2.637854e+01 7.243209e+01 1.658066e+00 1.475590e+00 9.193181e-01 1.362511e+00 1.681508e+00 1.523223e+00 1.766932e+00 1.702599e+00 1.310785e+00 1.933544e+00 1.431124e+00 1.499660e+00 1.675115e+00 1.703632e-01 1.863551e-01 1.596286e-01 2.122130e-01 3.210262e-01 2.782356e-01 2.493451e-01 3.004491e-01 2.049384e-01 3.560220e-01 2.635572e-01 2.877302e-01 1.578939e-01
<GCONST> 1.053056e+02
<STATE> 4
<MEAN> 39
 -1.189467e+01 -4.672184e+00 -2.044395e+00 4.849529e+00 -1.655119e+01 1.342262e+01 -9.616042e+00 -1.589425e+00 5.561861e+00 -8.564718e+00 1.128424e+00 -1.726918e+00 3.985112e+01 -2.334372e-02 2.275856e-02 1.167300e-02 -3.859977e-03 1.498013e-03 -2.431288e-03 2.570508e-02 3.610434e-02 -1.974715e-03 -3.230002e-03 -1.142313e-02 -1.302310e-02 -2.390772e-02 4.737695e-03 -1.682199e-03 -9.910803e-03 -1.136468e-02 -1.230362e-02 -8.749815e-03 -5.924066e-03 -3.269580e-03 -3.482021e-03 2.208746e-03 4.968489e-03 1.379244e-03 3.336946e-03
<VARIANCE> 39
 2.771281e+00 3.374292e+00 4.499451e+00 5.604162e+00 9.900217e+00 7.900420e+00 9.359761e+00 1.123719e+01 1.141237e+01 1.273157e+01 1.163808e+01 1.401145e+01 8.299911e-01 7.309303e-02 1.592060e-01 3.066185e-01 5.327864e-01 7.248887e-01 7.729174e-01 8.582216e-01 1.067218e+00 1.197964e+00 1.197919e+00 1.121176e+00 1.109794e+00 1.831697e-02 1.448121e-02 3.299074e-02 6.382086e-02 1.091538e-01 1.464728e-01 1.593295e-01 1.761772e-01 2.148105e-01 2.404147e-01 2.483689e-01 2.293405e-01 2.367769e-01 3.463844e-03
<GCONST> 5.464735e+01
<TRANSP> 5
 0.000000e+00 1.000000e+00 0.000000e+00 0.000000e+00 0.000000e+00
 0.000000e+00 7.759618e-01 2.240382e-01 0.000000e+00 0.000000e+00
 0.000000e+00 0.000000e+00 8.700925e-01 1.299076e-01 0.000000e+00
 0.000000e+00 0.000000e+00 0.000000e+00 9.751202e-01 2.487983e-02
 0.000000e+00 0.000000e+00 0.000000e+00 0.000000e+00 0.000000e+00
<ENDHMM>
