~o
<STREAMINFO> 1 39
<VECSIZE> 39<NULLD><MFCC_D_A_0><DIAGC>
~h "initial_0_D_A"
<BEGINHMM>
<NUMSTATES> 5
<STATE> 2
<MEAN> 39
 -3.573314e+00 -4.099464e+00 -2.355280e+00 6.423588e-01 -1.861454e+01 1.072837e+01 -1.397863e+01 -2.121017e+00 2.948876e+00 -9.079949e+00 2.126169e+00 -4.225103e+00 4.645780e+01 1.957447e-02 -1.422996e-02 1.195063e-02 -3.844792e-03 -8.883800e-03 -4.715965e-03 -2.426873e-02 1.487537e-02 -9.603449e-03 -4.029911e-02 -4.109183e-03 -2.367654e-02 2.202008e-02 6.237043e-03 4.717636e-03 5.758407e-03 1.131413e-04 -6.811226e-03 -2.490067e-03 -3.191037e-03 -8.257008e-03 -1.970686e-03 4.253877e-03 6.428167e-03 5.371046e-03 3.627987e-03
<VARIANCE> 39
 8.321930e+01 2.359757e+01 1.867709e+01 4.058243e+01 2.277659e+01 1.860310e+01 3.492140e+01 3.261775e+01 3.052481e+01 2.136678e+01 3.091270e+01 2.210342e+01 7.465999e+01 7.559373e-01 7.812320e-01 8.554742e-01 1.187458e+00 1.168683e+00 1.401104e+00 1.603571e+00 1.574299e+00 1.728035e+00 1.878502e+00 1.680727e+00 1.559851e+00 6.050581e-01 7.687938e-02 1.342653e-01 1.394731e-01 1.984035e-01 2.058906e-01 2.595400e-01 2.817912e-01 2.986601e-01 3.323038e-01 3.743893e-01 3.161642e-01 2.893770e-01 4.945137e-02
<GCONST> 9.779721e+01
<STATE> 3
<MEAN> 39
 2.922611e+00 -4.337253e+00 -2.797537e-01 -3.424011e+00 -1.929785e+01 1.192529e+01 -1.675126e+01 -7.845111e-01 4.503737e+00 -8.115886e+00 4.388652e+00 -3.380790e+00 5.274792e+01 5.313371e-02 3.816798e-02 1.137782e-02 3.773998e-02 7.152100e-02 6.231332e-02 4.750759e-02 3.389286e-02 3.428800e-02 2.740190e-02 1.358063e-03 1.493252e-04 2.601564e-02 -2.270911e-02 -7.676041e-03 -8.221650e-03 1.386721e-02 2.104685e-02 9.655738e-03 2.033716e-02 -6.866760e-04 2.627854e-03 -1.253092e-03 -9.963080e-03 -2.989048e-03 -1.633814e-02
<VARIANCE> 39
 9.174672e+01 4.575719e+01 3.218092e+01 7.084441e+01 1.977629e+01 1.920911e+01 4.854459e+01 5.027231e+01 7.326552e+01 1.987862e+01 4.597138e+01 2.501317e+01 9.171658e+01 1.460156e+00 1.034613e+00 9.475318e-01 1.595043e+00 1.223334e+00 1.425532e+00 2.140417e+00 1.254742e+00 1.525780e+00 1.469871e+00 1.762068e+00 1.244968e+00 1.386302e+00 1.363666e-01 1.619634e-01 1.401937e-01 1.690551e-01 2.132372e-01 2.765721e-01 3.060844e-01 2.176670e-01 2.262176e-01 2.720085e-01 2.914070e-01 2.469422e-01 9.477062e-02
<GCONST> 1.037602e+02
<STATE> 4
<MEAN> 39
 -4.187654e+00 -4.598793e+00 -2.366093e+00 1.393788e+00 -1.799106e+01 1.348385e+01 -1.154061e+01 -9.103717e-01 5.257125e+00 -7.852755e+00 1.632505e+00 -4.673216e+00 4.602562e+01 -4.715527e-02 -1.689946e-02 -4.802387e-03 -8.005657e-03 -2.330476e-02 -1.190160e-02 -9.562669e-03 -1.669067e-02 2.014289e-03 1.476752e-02 -3.182797e-03 4.209172e-03 -3.024380e-02 6.002634e-03 -1.772157e-03 -2.175373e-03 -7.453579e-03 -3.594772e-03 3.476070e-03 -5.579842e-03 2.147622e-03 2.803179e-03 4.831717e-03 3.250502e-03 2.470408e-03 5.697811e-03
<VARIANCE> 39
 7.785362e+01 2.476235e+01 2.088289e+01 5.323945e+01 2.296497e+01 1.662750e+01 3.297698e+01 2.184078e+01 3.398330e+01 2.016045e+01 2.942626e+01 2.509403e+01 6.644478e+01 8.078894e-01 1.032167e+00 8.011784e-01 1.329483e+00 1.207025e+00 1.171950e+00 1.700796e+00 1.371872e+00 2.004853e+00 1.868737e+00 1.459483e+00 1.689798e+00 6.752440e-01 8.635496e-02 1.545068e-01 1.167704e-01 2.190814e-01 2.332734e-01 2.284854e-01 3.222947e-01 2.536433e-01 3.707891e-01 3.578116e-01 2.662750e-01 3.290341e-01 6.661796e-02
<GCONST> 9.843454e+01
<TRANSP> 5
 0.000000e+00 1.000000e+00 0.000000e+00 0.000000e+00 0.000000e+00
 0.000000e+00 9.956803e-01 4.319653e-03 0.000000e+00 0.000000e+00
 0.000000e+00 0.000000e+00 9.933775e-01 6.622518e-03 0.000000e+00
 0.000000e+00 0.000000e+00 0.000000e+00 9.964665e-01 3.533569e-03
 0.000000e+00 0.000000e+00 0.000000e+00 0.000000e+00 0.000000e+00
<ENDHMM>
