~o
<STREAMINFO> 1 39
<VECSIZE> 39<NULLD><MFCC_D_A_0><DIAGC>
~h "f"
<BEGINHMM>
<NUMSTATES> 5
<STATE> 2
<MEAN> 39
 5.600975e+00 -2.362628e+00 -2.955220e-01 -1.172992e+01 -1.134431e+01 9.705092e+00 -8.860341e-01 4.606809e+00 2.691348e+00 -2.929536e+00 7.197052e+00 -1.051932e+00 4.406363e+01 -2.957020e+00 9.648122e-01 9.518281e-02 3.139223e+00 2.952815e+00 -8.189473e-01 6.933923e-01 -5.273772e-03 1.630179e-01 8.018429e-01 -9.959601e-01 -2.198123e-01 -2.899325e+00 -2.655675e-01 -7.018703e-01 -2.202878e-01 -2.124924e-01 -8.541810e-02 -5.598781e-02 -7.125806e-01 -3.135326e-01 -1.892421e-01 -1.996551e-01 5.103396e-02 -1.947979e-01 8.755830e-02
<VARIANCE> 39
 9.618394e+00 6.566504e+00 3.890385e+00 1.729492e+01 2.421686e+01 1.674677e+01 9.492284e+00 1.248839e+01 7.780321e+00 1.432270e+01 2.034409e+01 7.599116e+00 8.465708e+00 2.308861e-01 9.407694e-01 6.498837e-01 1.191214e+00 1.046668e+00 1.412425e+00 1.384215e+00 1.065543e+00 1.081595e+00 1.184257e+00 9.409477e-01 1.272144e+00 2.113538e-01 9.491251e-02 1.621159e-01 8.266512e-02 2.656531e-01 5.223383e-01 3.197841e-01 1.911706e-01 3.097643e-01 2.084947e-01 1.857376e-01 2.672915e-01 2.027419e-01 8.010751e-02
<GCONST> 7.927272e+01
<STATE> 3
<MEAN> 39
 -1.897610e+00 -3.561110e+00 -1.032571e+00 -7.179715e+00 -7.242218e+00 6.205944e+00 -4.338183e+00 2.677631e+00 3.292372e+00 -2.209445e+00 4.621442e+00 -1.828844e+00 3.848516e+01 -2.347793e+00 -9.260945e-01 9.103732e-02 1.699773e+00 1.171750e+00 -9.442611e-01 -1.105463e+00 -3.651323e-01 -2.252790e-01 -3.172405e-02 -6.741911e-01 -4.623658e-01 -1.497174e+00 4.547879e-01 -3.308326e-01 7.175806e-02 -3.837804e-01 -3.648786e-01 2.667452e-01 -9.497971e-02 4.426752e-02 -1.593251e-01 -1.885411e-01 1.697558e-01 -1.322929e-03 5.364459e-01
<VARIANCE> 39
 4.518743e+00 9.030312e+00 4.854506e+00 7.197368e+00 6.987052e+00 1.083391e+01 9.127107e+00 8.693077e+00 9.200826e+00 1.088149e+01 9.432868e+00 9.838259e+00 1.265627e+00 5.381348e-01 9.332342e-01 5.547765e-01 9.058739e-01 1.525620e+00 1.776622e+00 1.049284e+00 1.475969e+00 1.236266e+00 1.335067e+00 1.575188e+00 1.023504e+00 3.533981e-01 5.739008e-02 1.625498e-01 9.163482e-02 2.111555e-01 3.274022e-01 3.504182e-01 3.235111e-01 2.754108e-01 2.316236e-01 2.316539e-01 2.199909e-01 2.169297e-01 2.479030e-02
<GCONST> 7.414107e+01
<STATE> 4
<MEAN> 39
 -6.397673e+00 -5.872386e+00 7.737432e-02 -2.666043e+00 -3.337856e+00 5.942339e+00 -5.048372e+00 3.103617e+00 1.010007e+00 -2.898352e+00 3.293855e+00 -3.245370e+00 3.603801e+01 -9.009598e-01 -6.719481e-01 -6.836498e-02 4.826959e-01 6.668761e-01 2.341783e-01 -1.082735e-01 -2.876142e-01 -3.860788e-01 -1.521862e-01 -2.958031e-01 -1.543645e-01 -4.149058e-01 2.861769e-01 1.345174e-01 -7.187286e-02 -3.002190e-01 -2.361644e-01 1.680916e-01 1.684034e-01 -2.413815e-02 1.537827e-01 1.369777e-01 1.588889e-01 1.141778e-01 1.665670e-01
<VARIANCE> 39
 4.036240e+00 1.017416e+01 5.748117e+00 6.819436e+00 1.222575e+01 1.362669e+01 1.012457e+01 1.370919e+01 1.910871e+01 1.454384e+01 1.164471e+01 1.204511e+01 8.514821e-01 3.926447e-01 6.692921e-01 6.065866e-01 1.220126e+00 1.675215e+00 1.236861e+00 1.138205e+00 1.376264e+00 1.592274e+00 1.270081e+00 1.068354e+00 6.953894e-01 7.886977e-02 5.746168e-02 8.936511e-02 1.283706e-01 2.047300e-01 2.752840e-01 2.807022e-01 2.388050e-01 2.637069e-01 3.397552e-01 3.212535e-01 2.775254e-01 1.305626e-01 1.696247e-02
<GCONST> 7.308125e+01
<TRANSP> 5
 0.000000e+00 1.000000e+00 0.000000e+00 0.000000e+00 0.000000e+00
 0.000000e+00 4.825093e-01 5.174907e-01 0.000000e+00 0.000000e+00
 0.000000e+00 0.000000e+00 6.303638e-01 3.696362e-01 0.000000e+00
 0.000000e+00 0.000000e+00 0.000000e+00 7.410829e-01 2.589171e-01
 0.000000e+00 0.000000e+00 0.000000e+00 0.000000e+00 0.000000e+00
<ENDHMM>
