~o
<STREAMINFO> 1 39
<VECSIZE> 39<NULLD><MFCC_D_A_0><DIAGC>
~h "s"
<BEGINHMM>
<NUMSTATES> 5
<STATE> 2
<MEAN> 39
 -6.963005e+00 -4.957500e+00 4.244721e+00 -7.735523e-02 -4.756017e+00 5.005246e+00 -6.876395e+00 -5.626707e-01 -4.780873e-01 -3.599790e+00 2.654186e+00 -1.840585e+00 3.574876e+01 -7.026832e-01 -6.713418e-01 -7.928078e-01 -1.756408e-01 6.271034e-02 -8.852121e-02 4.613946e-01 4.262049e-01 6.719170e-02 5.957754e-01 1.931763e-01 -1.915306e-01 -4.125845e-01 5.098642e-01 2.556510e-01 2.445965e-01 1.836791e-02 -2.078358e-01 -2.158135e-01 -2.795593e-01 -5.149197e-02 6.402376e-02 -3.265797e-02 1.731752e-02 -1.459876e-01 3.086728e-01
<VARIANCE> 39
 1.919525e+01 1.800237e+01 1.672596e+01 1.049710e+01 9.526366e+00 8.200938e+00 8.335716e+00 1.463088e+01 1.108455e+01 1.185651e+01 1.167532e+01 1.071162e+01 3.849824e+00 9.518861e-01 1.167159e+00 1.105398e+00 1.006615e+00 8.623813e-01 6.041149e-01 1.121624e+00 1.145355e+00 1.346274e+00 1.118808e+00 1.652388e+00 1.820469e+00 3.836378e-01 2.225928e-01 2.862687e-01 2.101641e-01 2.348868e-01 2.739205e-01 1.800724e-01 2.635581e-01 2.412600e-01 3.809376e-01 2.501216e-01 3.413548e-01 4.924594e-01 7.681073e-02
<GCONST> 8.504413e+01
<STATE> 3
<MEAN> 39
 -6.151313e+00 -5.725822e+00 3.312558e+00 4.638275e-01 -4.936129e+00 3.047143e+00 -7.560764e+00 -2.222463e-01 9.237477e-01 -2.085446e+00 4.059008e+00 -2.674172e+00 3.623109e+01 4.111754e+00 1.585355e+00 -1.500291e-02 -1.902592e+00 -2.765360e+00 -2.187046e+00 -2.180945e+00 -9.835667e-03 2.471263e+00 8.715381e-01 -8.349296e-02 -7.236427e-01 2.602041e+00 1.210103e+00 -1.723203e-01 -5.527683e-02 -8.540838e-01 -8.322425e-01 -4.938033e-02 -6.347576e-01 1.917249e-01 6.701910e-01 1.094367e-01 -4.924362e-02 -2.704287e-01 1.083925e+00
<VARIANCE> 39
 1.141311e+01 1.247967e+01 7.968411e+00 1.293393e+01 1.845941e+01 1.543325e+01 3.367453e+01 2.424460e+01 1.634599e+01 9.482925e+00 9.938781e+00 1.041703e+01 2.332602e+00 2.417107e+00 1.667418e+00 1.738839e+00 2.318272e+00 3.162552e+00 1.123023e+00 2.219974e+00 1.326462e+00 2.656826e+00 1.319953e+00 1.819689e+00 1.491657e+00 1.593629e+00 2.813080e-01 4.895177e-01 7.728672e-02 2.077465e-01 3.067636e-01 4.570625e-01 6.235774e-01 2.766501e-01 5.066478e-01 2.882777e-01 4.628978e-01 3.520252e-01 5.842875e-02
<GCONST> 9.559916e+01
<STATE> 4
<MEAN> 39
 1.008849e+01 -2.218229e+00 3.702685e+00 -9.147335e+00 -1.782121e+01 -3.963513e+00 -1.665210e+01 4.461955e-01 1.118005e+01 1.497987e+00 3.048220e+00 -5.486339e+00 4.796088e+01 4.805603e+00 -1.481356e+00 -4.137345e-01 -2.676524e+00 -2.263926e+00 2.598938e-01 -2.219234e+00 1.492720e+00 2.609423e+00 3.482823e-01 3.274108e-01 -1.254157e+00 4.407754e+00 -1.108795e+00 -9.590787e-01 -2.891943e-01 6.101269e-01 1.306922e+00 1.132775e+00 6.141491e-01 2.262492e-01 -6.931695e-01 -5.377502e-01 2.761428e-03 1.312353e-01 -5.182862e-01
<VARIANCE> 39
 9.753495e+00 2.635635e+01 9.659181e+00 7.044477e+00 1.822298e+01 1.031969e+01 2.014470e+01 4.045382e+00 2.211494e+01 2.909522e+00 8.178085e+00 7.117124e+00 1.505502e+01 1.964860e+00 2.627943e+00 1.030264e+00 1.132947e+00 2.551627e+00 2.267466e+00 3.430916e+00 1.171489e+00 2.848498e+00 1.567703e+00 1.509733e+00 5.414442e-01 5.014729e-01 3.054003e-01 4.716094e-01 1.053013e-01 3.044563e-01 1.068660e-01 1.999047e-01 3.729654e-01 2.611631e-01 5.783416e-01 6.419501e-02 1.904770e-01 2.001619e-01 3.395320e-01
<GCONST> 8.837789e+01
<TRANSP> 5
 0.000000e+00 1.000000e+00 0.000000e+00 0.000000e+00 0.000000e+00
 0.000000e+00 8.461461e-01 1.538539e-01 0.000000e+00 0.000000e+00
 0.000000e+00 0.000000e+00 6.250452e-01 3.749548e-01 0.000000e+00
 0.000000e+00 0.000000e+00 0.000000e+00 5.000005e-01 4.999994e-01
 0.000000e+00 0.000000e+00 0.000000e+00 0.000000e+00 0.000000e+00
<ENDHMM>
