~o
<STREAMINFO> 1 39
<VECSIZE> 39<NULLD><MFCC_D_A_0><DIAGC>
~h "d"
<BEGINHMM>
<NUMSTATES> 5
<STATE> 2
<MEAN> 39
 -5.351914e+00 -4.242824e+00 4.020085e+00 -2.199594e+00 -6.349101e+00 5.492406e+00 -5.817344e+00 8.805645e-01 2.516665e+00 -2.647472e+00 2.227086e+00 -2.250298e+00 3.236502e+01 1.004841e+00 -9.569764e-01 -8.184846e-03 -9.363306e-01 -1.235711e+00 2.862711e-01 -3.494103e-01 -6.580851e-02 2.683994e-01 -2.791463e-01 3.795637e-01 -6.029467e-02 1.309409e+00 5.528165e-01 -3.828190e-01 2.595889e-01 -2.083994e-01 -3.679424e-01 2.287927e-01 -3.085892e-01 6.594591e-02 1.657318e-01 -2.154025e-01 1.608634e-01 -2.820260e-02 6.108447e-01
<VARIANCE> 39
 8.239469e+01 1.792854e+01 1.715865e+01 2.563490e+01 3.439085e+01 2.582738e+01 3.194763e+01 2.448709e+01 2.492327e+01 1.855169e+01 1.428156e+01 1.358775e+01 8.338490e+01 6.785396e+00 3.826055e+00 3.830331e+00 2.146579e+00 3.777577e+00 4.495531e+00 3.075881e+00 2.787853e+00 2.118095e+00 1.955167e+00 1.777513e+00 1.538942e+00 6.569358e+00 7.747630e-01 5.201906e-01 4.246610e-01 3.391471e-01 5.582974e-01 6.328596e-01 3.730352e-01 3.814500e-01 3.973455e-01 3.592222e-01 2.731407e-01 3.965953e-01 6.858976e-01
<GCONST> 1.186120e+02
<STATE> 3
<MEAN> 39
 7.530248e+00 -1.162754e+01 7.781750e+00 -8.187023e+00 -1.419545e+01 9.088778e+00 -1.201579e+01 2.312409e+00 8.766499e+00 -5.130676e+00 3.448631e+00 -3.113721e+00 4.778137e+01 2.342563e-01 -1.205488e-02 2.330942e-01 2.455861e-01 7.082955e-02 -4.309515e-02 -8.385861e-02 9.147719e-02 3.413640e-02 -6.294515e-02 -5.630801e-02 -1.107962e-01 2.079523e-01 -1.608229e-01 9.119145e-02 -1.948950e-02 1.332809e-01 1.390118e-01 -3.599489e-02 5.644839e-02 -3.937941e-02 -5.757700e-02 2.192461e-02 -5.848801e-02 3.494407e-03 -1.788203e-01
<VARIANCE> 39
 9.534348e+01 7.119733e+01 3.796631e+01 2.924681e+01 2.459245e+01 3.790908e+01 3.862563e+01 2.452293e+01 3.864633e+01 2.549214e+01 1.740634e+01 1.680057e+01 1.060014e+02 4.424057e+00 4.557707e+00 2.692133e+00 2.811414e+00 2.137361e+00 3.066027e+00 2.730797e+00 1.851532e+00 2.507514e+00 1.990586e+00 1.950527e+00 1.489028e+00 5.433772e+00 6.446765e-01 7.748001e-01 5.224919e-01 5.111184e-01 3.912289e-01 6.267350e-01 5.259705e-01 3.671317e-01 4.662827e-01 3.910372e-01 3.966511e-01 2.794069e-01 6.468443e-01
<GCONST> 1.219313e+02
<STATE> 4
<MEAN> 39
 -1.103295e+01 -9.262094e+00 5.804096e+00 3.222445e+00 -5.283145e+00 4.674881e+00 -6.519555e+00 -1.637341e+00 -1.422878e+00 -5.837917e+00 1.530119e+00 -2.571861e+00 2.944754e+01 -4.837573e-02 -3.499578e-02 2.613059e-02 2.410447e-02 9.424800e-03 3.167761e-02 -2.129968e-02 -3.172185e-02 -6.571092e-03 -2.642317e-02 -4.396834e-03 7.771262e-04 -1.911403e-02 2.451968e-02 -2.886199e-03 -1.406066e-02 -3.259500e-02 -2.312830e-02 5.351706e-03 3.665305e-03 1.236311e-02 1.869081e-02 5.925489e-03 3.337050e-03 7.523887e-03 1.599632e-02
<VARIANCE> 39
 2.645664e+01 2.758494e+01 1.781876e+01 1.236194e+01 1.289223e+01 1.390124e+01 1.284070e+01 1.544909e+01 1.832194e+01 1.522867e+01 1.244376e+01 1.201393e+01 1.713502e+01 5.410983e-01 6.987880e-01 1.043205e+00 8.686439e-01 1.125380e+00 1.255538e+00 1.426457e+00 1.459409e+00 1.539837e+00 1.499862e+00 1.296796e+00 1.331056e+00 3.832696e-01 7.627676e-02 1.375067e-01 2.147153e-01 1.917825e-01 2.416015e-01 2.528043e-01 2.882338e-01 2.969882e-01 3.139514e-01 3.056582e-01 2.582464e-01 2.691245e-01 4.275080e-02
<GCONST> 8.689149e+01
<TRANSP> 5
 0.000000e+00 1.000000e+00 0.000000e+00 0.000000e+00 0.000000e+00
 0.000000e+00 3.311643e-01 6.688356e-01 0.000000e+00 0.000000e+00
 0.000000e+00 0.000000e+00 8.655769e-01 1.344230e-01 0.000000e+00
 0.000000e+00 0.000000e+00 0.000000e+00 9.207824e-01 7.921761e-02
 0.000000e+00 0.000000e+00 0.000000e+00 0.000000e+00 0.000000e+00
<ENDHMM>
~h "f"
<BEGINHMM>
<NUMSTATES> 5
<STATE> 2
<MEAN> 39
 -1.589527e+01 -3.419060e+00 -4.454029e-01 -1.845417e-01 -1.707745e+00 2.828482e+00 -1.638324e+00 2.186363e+00 8.668796e-01 -1.261656e+00 5.553437e-01 -3.095018e-01 2.264074e+01 6.552352e-01 1.220878e-01 3.196782e-01 9.243278e-02 -4.837857e-02 1.669198e-01 -9.561615e-02 -2.638878e-02 1.211427e-01 -1.455385e-01 8.862266e-02 -3.395918e-02 4.847178e-01 1.160298e-01 -4.650471e-02 7.244295e-02 -4.458632e-02 -9.428195e-02 4.812025e-03 -9.466533e-02 3.535716e-02 3.249574e-03 4.261395e-03 6.709557e-03 -5.012139e-02 1.190419e-01
<VARIANCE> 39
 8.939538e+01 4.842006e+01 3.616105e+01 8.624925e+00 1.728861e+01 2.429799e+01 3.051644e+01 1.140836e+01 8.759593e+00 1.698766e+01 1.148852e+01 1.019406e+01 1.084471e+02 8.445271e+00 6.451861e+00 3.547549e+00 1.476850e+00 2.044826e+00 2.360368e+00 3.476716e+00 1.644793e+00 8.972737e-01 1.850689e+00 1.323726e+00 1.435140e+00 1.126595e+01 1.403787e+00 1.165634e+00 5.605050e-01 2.520092e-01 3.273818e-01 4.351730e-01 5.953689e-01 2.992643e-01 1.629589e-01 3.680208e-01 2.237336e-01 2.568554e-01 1.869484e+00
<GCONST> 1.144974e+02
<STATE> 3
<MEAN> 39
 1.023555e+01 -9.625861e+00 8.420986e+00 -6.735748e+00 -1.146620e+01 8.402446e+00 -1.348901e+01 1.480097e+00 8.044402e+00 -4.396556e+00 3.573680e+00 -3.305463e+00 5.003328e+01 -5.316136e-02 2.646008e-01 -3.917042e-02 9.892451e-02 2.670255e-02 -1.458537e-01 1.179098e-01 -5.177057e-02 -4.004538e-02 7.377704e-02 4.713450e-03 5.762878e-02 -1.966446e-01 -1.049767e-01 6.281904e-02 -5.965248e-02 2.236110e-02 4.064867e-02 -2.993121e-02 3.604067e-02 -2.847800e-02 -1.936312e-02 3.822062e-02 -2.311069e-02 1.117281e-02 -1.063341e-01
<VARIANCE> 39
 7.331824e+01 4.181756e+01 3.763005e+01 3.777421e+01 2.509533e+01 1.732759e+01 4.700857e+01 2.852944e+01 5.112546e+01 2.038750e+01 2.221924e+01 2.084261e+01 1.261472e+02 3.386832e+00 4.090370e+00 3.230057e+00 2.207973e+00 1.583771e+00 2.346127e+00 3.262857e+00 2.503055e+00 2.742384e+00 2.295292e+00 2.054619e+00 2.093258e+00 6.579347e+00 6.329391e-01 5.594054e-01 6.089903e-01 3.562293e-01 3.012258e-01 5.205359e-01 4.741236e-01 4.841860e-01 5.016173e-01 4.205110e-01 3.545970e-01 3.348778e-01 8.483027e-01
<GCONST> 1.216116e+02
<STATE> 4
<MEAN> 39
 -8.195457e-01 -5.173062e+00 7.728519e+00 -9.825348e-01 -7.092237e+00 6.669390e+00 -7.267311e+00 1.396141e+00 2.201177e+00 -4.996680e+00 2.682879e+00 -3.081756e+00 3.722339e+01 -6.534112e-03 3.581219e-03 -3.236621e-03 1.092750e-03 1.889822e-03 -3.489357e-03 3.516136e-03 2.793494e-04 6.694367e-05 2.952913e-03 -1.045358e-03 2.430103e-04 -7.143300e-03 6.969837e-04 -2.048812e-03 5.668770e-04 -7.080589e-04 -5.335921e-04 6.099225e-04 -5.906558e-04 3.308878e-04 6.591374e-04 -2.585197e-04 6.194895e-04 8.877527e-05 1.591041e-03
<VARIANCE> 39
 8.452620e+01 3.844359e+01 3.661742e+01 3.665541e+01 4.633584e+01 2.220748e+01 3.469213e+01 2.464083e+01 3.005584e+01 2.017683e+01 1.793841e+01 1.570727e+01 1.159558e+02 1.138463e+00 1.694306e+00 1.704685e+00 1.438338e+00 1.802351e+00 1.657224e+00 1.828529e+00 1.767390e+00 1.741985e+00 1.665447e+00 1.575177e+00 1.376820e+00 1.640859e+00 1.743613e-01 2.942243e-01 2.810203e-01 2.546824e-01 3.261101e-01 3.261748e-01 3.450722e-01 3.319696e-01 3.253071e-01 3.271244e-01 3.128248e-01 2.764263e-01 2.016523e-01
<GCONST> 1.073060e+02
<TRANSP> 5
 0.000000e+00 1.000000e+00 0.000000e+00 0.000000e+00 0.000000e+00
 0.000000e+00 9.225909e-01 7.740918e-02 0.000000e+00 0.000000e+00
 0.000000e+00 0.000000e+00 7.966805e-01 2.033195e-01 0.000000e+00
 0.000000e+00 0.000000e+00 0.000000e+00 9.982890e-01 1.711013e-03
 0.000000e+00 0.000000e+00 0.000000e+00 0.000000e+00 0.000000e+00
<ENDHMM>
~h "g"
<BEGINHMM>
<NUMSTATES> 5
<STATE> 2
<MEAN> 39
 -2.750060e+00 -5.613724e+00 6.326416e+00 7.578342e-01 -5.956340e+00 6.488793e+00 -5.738351e+00 8.355758e-01 1.884705e+00 -5.232219e+00 2.101083e+00 -1.990336e+00 3.480424e+01 1.159645e+00 -1.201067e+00 -7.787405e-01 -1.091110e+00 -7.561574e-01 -7.183155e-03 -6.000584e-01 -1.639798e-01 2.212998e-01 -1.431831e-01 -2.891637e-03 -2.926909e-01 1.522475e+00 6.354321e-01 -4.260700e-01 1.956621e-01 -3.237197e-01 -2.912506e-01 2.078497e-01 -4.302807e-01 9.319232e-02 1.622490e-01 -4.162579e-02 2.345967e-01 -1.490775e-01 8.465658e-01
<VARIANCE> 39
 5.465232e+01 6.115979e+01 5.242365e+01 2.845641e+01 3.195108e+01 2.390874e+01 2.461592e+01 1.761854e+01 1.915245e+01 1.821769e+01 1.350724e+01 1.585984e+01 4.998970e+01 5.671169e+00 5.870758e+00 3.604650e+00 3.711503e+00 3.160312e+00 2.674651e+00 2.863969e+00 1.851387e+00 2.330644e+00 2.566953e+00 1.441350e+00 1.904516e+00 8.448467e+00 6.503259e-01 8.477799e-01 8.034467e-01 5.764650e-01 5.999906e-01 4.556870e-01 5.218954e-01 3.424779e-01 2.889693e-01 3.523546e-01 2.976712e-01 4.025258e-01 8.478993e-01
<GCONST> 1.208232e+02
<STATE> 3
<MEAN> 39
 1.017173e+01 -1.201461e+01 9.562796e+00 -5.686665e+00 -1.231057e+01 7.632849e+00 -1.356037e+01 1.999053e+00 5.952623e+00 -6.603919e+00 3.620627e+00 -4.465792e+00 5.113274e+01 -5.184893e-02 4.690322e-01 2.664485e-01 1.874762e-01 8.224640e-02 -4.076353e-02 5.817977e-02 7.019502e-02 2.342055e-02 1.525952e-01 3.807833e-02 1.873689e-02 -2.566723e-01 -2.441455e-01 1.613769e-01 -4.866973e-02 1.505386e-01 1.126903e-01 -5.823431e-02 1.738052e-01 -1.469393e-03 -6.202395e-02 4.467935e-02 -5.816709e-02 5.666009e-02 -3.081995e-01
<VARIANCE> 39
 7.738184e+01 7.320376e+01 7.177203e+01 3.197504e+01 6.179328e+01 4.900431e+01 4.787815e+01 5.184100e+01 4.970599e+01 2.803438e+01 2.503386e+01 2.261725e+01 1.151618e+02 3.255487e+00 3.917803e+00 3.984148e+00 2.296867e+00 2.795096e+00 2.347569e+00 3.788809e+00 3.117964e+00 2.211441e+00 2.425863e+00 1.813465e+00 1.696315e+00 5.809913e+00 4.392772e-01 7.092097e-01 6.357473e-01 4.184741e-01 4.271585e-01 4.319602e-01 6.109011e-01 5.458782e-01 3.855928e-01 4.742197e-01 3.083115e-01 3.238330e-01 6.615788e-01
<GCONST> 1.261935e+02
<STATE> 4
<MEAN> 39
 -6.605551e+00 -3.311389e+00 7.172693e+00 1.715934e+00 -4.527423e+00 5.388208e+00 -5.602917e+00 1.537595e+00 1.341805e+00 -3.552123e+00 2.899803e+00 -2.391364e+00 3.082070e+01 -5.250134e-02 1.153658e-02 1.212454e-02 5.753896e-02 3.145729e-02 -2.273300e-02 -4.014657e-03 -3.193421e-02 -2.716686e-02 3.321884e-02 1.623160e-02 -4.976100e-03 -4.608012e-02 1.994706e-02 -2.550584e-02 -1.364088e-02 -2.411614e-02 -1.653244e-02 6.771774e-03 -3.208982e-03 -5.612694e-03 -2.861311e-05 -4.045987e-03 7.445922e-05 -3.344011e-03 2.379344e-02
<VARIANCE> 39
 1.363533e+01 1.511663e+01 1.352354e+01 1.369303e+01 1.751060e+01 1.456069e+01 1.436290e+01 1.600867e+01 1.671070e+01 1.522997e+01 1.329315e+01 1.164736e+01 5.983881e+00 4.890829e-01 8.169116e-01 8.038862e-01 9.472145e-01 1.030166e+00 1.206921e+00 1.426435e+00 1.453760e+00 1.450939e+00 1.452449e+00 1.333581e+00 1.169743e+00 1.970479e-01 8.134362e-02 1.803752e-01 1.471919e-01 1.938798e-01 2.057965e-01 2.386010e-01 3.040719e-01 3.016814e-01 2.967091e-01 3.014345e-01 2.764558e-01 2.441182e-01 2.730844e-02
<GCONST> 8.300797e+01
<TRANSP> 5
 0.000000e+00 1.000000e+00 0.000000e+00 0.000000e+00 0.000000e+00
 0.000000e+00 5.426951e-01 4.573049e-01 0.000000e+00 0.000000e+00
 0.000000e+00 0.000000e+00 8.626380e-01 1.373619e-01 0.000000e+00
 0.000000e+00 0.000000e+00 0.000000e+00 9.575339e-01 4.246608e-02
 0.000000e+00 0.000000e+00 0.000000e+00 0.000000e+00 0.000000e+00
<ENDHMM>
~h "m"
<BEGINHMM>
<NUMSTATES> 5
<STATE> 2
<MEAN> 39
 -3.657384e+00 -3.286049e+00 6.473158e+00 6.221551e-01 -6.498075e+00 4.459584e+00 -5.443254e+00 5.527634e-01 1.051034e+00 -4.011539e+00 2.288174e+00 -2.199446e+00 3.306855e+01 6.027165e-01 -1.262319e+00 2.619596e-02 -5.110834e-01 -1.284426e+00 -3.880396e-01 -4.423816e-01 -2.871323e-02 2.589539e-01 2.566476e-02 1.562120e-01 -2.205806e-01 1.201348e+00 6.286582e-01 -5.306696e-01 3.062452e-01 -2.732095e-01 -4.203953e-01 2.460969e-01 -3.194654e-01 8.207556e-02 1.473347e-01 -1.039245e-01 2.149412e-01 -1.547199e-01 8.886379e-01
<VARIANCE> 39
 6.670124e+01 2.578341e+01 3.636927e+01 1.452683e+01 3.803955e+01 2.325275e+01 2.462207e+01 1.267996e+01 1.298634e+01 1.448306e+01 1.144704e+01 1.617846e+01 5.514444e+01 6.526356e+00 4.863909e+00 3.985487e+00 3.207524e+00 4.736892e+00 2.333389e+00 3.318894e+00 1.650635e+00 2.485899e+00 2.326589e+00 2.141242e+00 1.465218e+00 8.854359e+00 6.822515e-01 7.593639e-01 4.636314e-01 3.553647e-01 7.021656e-01 3.817172e-01 3.680403e-01 3.655673e-01 3.921044e-01 3.384941e-01 3.473698e-01 3.982279e-01 9.789123e-01
<GCONST> 1.177802e+02
<STATE> 3
<MEAN> 39
 1.142653e+01 -1.086668e+01 1.139324e+01 -5.092927e+00 -1.403917e+01 5.992341e+00 -1.355058e+01 2.692471e+00 6.668973e+00 -6.151679e+00 2.524554e+00 -5.828796e+00 5.213103e+01 -2.611211e-03 2.550247e-01 -1.748665e-02 6.861830e-02 2.193022e-01 3.260716e-02 2.771996e-02 1.336073e-01 3.977674e-02 9.134566e-03 -9.414845e-02 -9.794956e-02 -1.398356e-01 -1.725363e-01 1.448538e-01 -1.039498e-01 6.157010e-02 1.463906e-01 -9.805197e-03 1.136139e-01 -1.968686e-02 -7.848728e-02 1.735831e-02 -4.308889e-02 3.921870e-02 -2.421751e-01
<VARIANCE> 39
 5.855211e+01 7.290129e+01 7.888489e+01 3.158605e+01 6.811707e+01 2.600102e+01 4.194512e+01 4.523089e+01 5.192474e+01 2.184209e+01 2.577227e+01 2.183173e+01 1.013096e+02 2.884298e+00 5.393182e+00 3.792654e+00 1.863899e+00 3.352048e+00 2.164516e+00 3.626702e+00 2.732076e+00 2.684737e+00 1.710248e+00 2.115609e+00 1.667819e+00 5.689868e+00 3.368990e-01 9.052495e-01 4.758997e-01 2.822548e-01 5.889670e-01 4.021678e-01 5.470202e-01 3.896941e-01 3.670274e-01 3.334350e-01 4.240677e-01 2.860017e-01 5.794992e-01
<GCONST> 1.234312e+02
<STATE> 4
<MEAN> 39
 -5.337212e+00 -2.805718e+00 6.870951e+00 1.575730e+00 -4.009619e+00 6.226069e+00 -5.036869e+00 1.419612e+00 3.714079e-01 -4.705188e+00 2.325078e+00 -2.553222e+00 3.152536e+01 -5.894520e-02 1.170551e-02 -4.835745e-03 1.114516e-02 3.141178e-02 7.889549e-03 1.986846e-02 -1.129006e-02 -4.181907e-02 -1.617235e-02 -1.883433e-03 1.481652e-02 -4.945057e-02 1.733552e-02 -1.434619e-02 -1.835237e-03 -8.471205e-03 -2.667687e-03 1.298265e-02 -2.973104e-03 -4.108871e-04 6.088327e-03 -5.367311e-03 4.211216e-03 3.872839e-03 1.928677e-02
<VARIANCE> 39
 9.059059e+00 8.785538e+00 1.516094e+01 1.587439e+01 1.385074e+01 1.490233e+01 1.495603e+01 1.483985e+01 1.578498e+01 1.685649e+01 1.435356e+01 1.300951e+01 4.672445e+00 3.423311e-01 6.220734e-01 6.591314e-01 8.375204e-01 9.828275e-01 1.182028e+00 1.202544e+00 1.416977e+00 1.553934e+00 1.585469e+00 1.479602e+00 1.260819e+00 1.379836e-01 7.081410e-02 1.310412e-01 1.382002e-01 1.707627e-01 2.036738e-01 2.482144e-01 2.464417e-01 2.990035e-01 3.114358e-01 3.311661e-01 3.196565e-01 2.612889e-01 3.825779e-02
<GCONST> 8.067477e+01
<TRANSP> 5
 0.000000e+00 1.000000e+00 0.000000e+00 0.000000e+00 0.000000e+00
 0.000000e+00 4.166689e-01 5.833311e-01 0.000000e+00 0.000000e+00
 0.000000e+00 0.000000e+00 8.776731e-01 1.223269e-01 0.000000e+00
 0.000000e+00 0.000000e+00 0.000000e+00 9.698492e-01 3.015085e-02
 0.000000e+00 0.000000e+00 0.000000e+00 0.000000e+00 0.000000e+00
<ENDHMM>
~h "n"
<BEGINHMM>
<NUMSTATES> 5
<STATE> 2
<MEAN> 39
 1.683505e+00 -4.825574e+00 7.531652e+00 -2.184596e+00 -1.086789e+01 5.116124e+00 -5.568007e+00 4.109186e+00 6.494885e+00 -5.675070e+00 3.744286e-01 -3.077377e+00 3.812197e+01 4.264460e-01 -8.266203e-01 -1.103195e-01 -9.436600e-01 -8.890960e-01 1.045804e+00 -1.171049e-03 -1.100121e+00 -1.114991e+00 -1.924739e+00 -3.386633e-01 8.414394e-01 8.827286e-01 6.489424e-01 9.992660e-03 5.150876e-01 -2.349579e-01 -6.124839e-01 -1.483457e-01 -6.383208e-01 -3.481293e-01 5.544063e-03 6.431406e-01 9.576255e-01 3.004879e-01 7.078970e-01
<VARIANCE> 39
 2.578597e+01 7.966481e+01 4.997688e+01 1.178364e+01 1.319550e+01 6.757051e+00 5.418773e+01 6.548090e+00 1.005127e+01 2.883612e+01 2.134215e+01 2.570913e+01 2.395846e+01 6.262100e-01 1.305928e+00 1.026800e+00 2.453883e+00 1.204622e+00 2.234901e+00 4.920498e-01 1.432569e+00 7.664551e-01 3.483447e+00 1.365973e+00 1.074705e+00 1.318016e+00 4.001813e-01 2.377948e-01 7.612880e-01 1.599965e-01 8.068489e-01 2.046804e-01 5.919511e-01 9.462719e-02 3.574880e-01 4.055253e-01 2.034385e-01 3.999545e-01 6.397131e-01
<GCONST> 1.001768e+02
<STATE> 3
<MEAN> 39
 1.358040e+01 -1.264331e+01 8.044629e+00 -1.323462e+01 -1.770852e+01 8.224664e+00 -1.368762e+01 1.138429e+00 6.389784e+00 -5.061338e+00 5.254521e+00 -5.689164e+00 5.829649e+01 1.199560e-01 9.270023e-02 1.298757e-01 -1.714855e-02 -1.082912e-02 -1.999060e-02 -1.025735e-01 -4.138974e-02 -6.285748e-02 -1.026212e-02 6.231240e-02 -5.680804e-02 1.156124e-01 -2.310169e-02 1.337258e-02 -3.314657e-03 3.739814e-02 3.357701e-02 -1.581764e-02 7.408638e-03 9.650122e-03 -3.052839e-03 9.670763e-03 -1.096250e-02 -1.987424e-02 -3.454826e-02
<VARIANCE> 39
 2.743855e+01 6.053508e+01 9.200653e+01 3.607643e+01 3.538398e+01 2.942821e+01 3.956694e+01 3.615723e+01 3.798799e+01 2.148117e+01 1.877951e+01 2.535813e+01 7.692313e+01 1.654365e+00 3.300143e+00 3.427553e+00 2.189564e+00 2.523445e+00 2.058610e+00 2.471968e+00 2.169421e+00 2.154765e+00 1.264482e+00 1.309925e+00 1.649906e+00 4.011182e+00 2.711568e-01 5.241330e-01 4.366438e-01 3.525980e-01 4.357511e-01 3.831923e-01 4.184954e-01 3.383143e-01 3.124223e-01 2.560302e-01 2.644914e-01 2.794926e-01 4.386493e-01
<GCONST> 1.153077e+02
<STATE> 4
<MEAN> 39
 1.093157e+01 -1.748591e+00 1.802287e+01 -1.604263e+00 -1.141353e+01 5.645397e+00 -1.515814e+01 -1.937205e+00 -1.862941e+00 -1.091937e+01 3.118991e+00 -7.659902e+00 4.769628e+01 -9.412799e-01 1.412496e-01 -6.604906e-01 8.042256e-01 9.094341e-01 2.759129e-01 9.609947e-01 -5.224622e-02 -2.725519e-01 -3.623023e-02 -3.829098e-01 8.435977e-02 -1.274213e+00 -1.288440e-01 -6.095110e-02 -2.895946e-01 -2.368288e-01 -7.614995e-02 1.964383e-02 1.990035e-01 1.737588e-01 1.159439e-01 1.594721e-01 2.127576e-01 2.268761e-01 -1.157747e-01
<VARIANCE> 39
 1.990072e+01 3.675874e+00 1.597259e+01 2.171397e+01 2.807946e+01 1.369813e+01 1.536437e+01 6.341975e+00 5.792980e+00 1.552869e+01 1.413984e+01 1.365407e+01 3.205524e+01 5.318078e-01 4.077959e-01 2.193173e+00 1.234720e+00 1.239567e+00 1.547876e+00 1.596932e+00 1.026415e+00 1.189311e+00 1.765331e+00 2.323074e+00 1.825171e+00 7.087477e-01 2.555929e-02 8.774002e-02 2.189680e-01 1.273312e-01 2.515559e-01 4.277913e-01 2.158395e-01 3.463010e-01 2.129816e-01 2.275895e-01 3.337536e-01 2.607860e-01 5.616280e-02
<GCONST> 8.518503e+01
<TRANSP> 5
 0.000000e+00 1.000000e+00 0.000000e+00 0.000000e+00 0.000000e+00
 0.000000e+00 1.855488e-01 8.144512e-01 0.000000e+00 0.000000e+00
 0.000000e+00 0.000000e+00 9.796105e-01 2.038952e-02 0.000000e+00
 0.000000e+00 0.000000e+00 0.000000e+00 8.482410e-01 1.517591e-01
 0.000000e+00 0.000000e+00 0.000000e+00 0.000000e+00 0.000000e+00
<ENDHMM>
~h "p"
<BEGINHMM>
<NUMSTATES> 5
<STATE> 2
<MEAN> 39
 -4.089536e+00 -4.703185e+00 5.491900e+00 5.503905e-01 -5.149034e+00 6.301233e+00 -5.609677e+00 8.743594e-01 1.074037e+00 -4.790702e+00 2.308978e+00 -2.020709e+00 3.317821e+01 1.355313e+00 -1.436164e+00 -8.802570e-01 -1.240066e+00 -6.945813e-01 6.227889e-01 -3.919216e-01 -2.227327e-01 2.437404e-01 -2.247857e-01 3.034663e-01 1.352690e-01 1.614083e+00 7.967481e-01 -1.893331e-01 2.748386e-01 -3.564180e-01 -4.571879e-01 6.629683e-02 -3.651125e-01 4.537802e-02 2.598957e-01 -7.257814e-02 6.849708e-02 -1.161911e-01 8.625469e-01
<VARIANCE> 39
 3.571571e+01 2.728794e+01 3.940672e+01 2.246792e+01 2.592102e+01 3.290255e+01 2.560675e+01 1.794714e+01 2.142524e+01 1.711252e+01 1.834919e+01 1.673268e+01 3.414378e+01 6.030479e+00 5.804195e+00 5.434678e+00 3.315063e+00 4.811470e+00 3.414935e+00 3.837999e+00 3.078588e+00 3.147733e+00 2.300551e+00 2.707179e+00 2.556813e+00 7.218203e+00 6.911911e-01 9.273179e-01 1.255874e+00 4.753130e-01 5.831318e-01 5.613993e-01 5.261075e-01 4.852803e-01 4.345451e-01 3.930836e-01 4.050569e-01 4.998469e-01 8.240805e-01
<GCONST> 1.239919e+02
<STATE> 3
<MEAN> 39
 1.261815e+01 -9.455372e+00 1.287475e+01 -5.956548e+00 -1.468698e+01 7.408800e+00 -1.361170e+01 3.062616e-02 3.492928e+00 -8.328469e+00 2.556653e+00 -4.820271e+00 5.327082e+01 1.346688e-01 3.126984e-01 4.220426e-01 2.542363e-01 1.289503e-01 2.065330e-02 -9.918611e-02 1.892907e-03 -5.197549e-02 -1.263100e-01 -1.061807e-01 -1.078467e-01 3.604173e-02 -2.565926e-01 1.470092e-01 -5.071991e-02 1.556052e-01 1.701101e-01 -4.304855e-02 1.334943e-01 -2.583501e-03 -4.801312e-02 5.813601e-02 -5.358712e-02 2.368811e-02 -3.151780e-01
<VARIANCE> 39
 4.111689e+01 5.730839e+01 1.097264e+02 3.061539e+01 8.425468e+01 3.431611e+01 3.920135e+01 4.456244e+01 3.577512e+01 2.276018e+01 2.959562e+01 2.291656e+01 8.064256e+01 2.734426e+00 3.080871e+00 5.125769e+00 2.149947e+00 4.155823e+00 2.166962e+00 3.197636e+00 2.314653e+00 1.986147e+00 2.136794e+00 1.868882e+00 1.642730e+00 5.339214e+00 3.184712e-01 5.622770e-01 7.164964e-01 3.962898e-01 5.603846e-01 3.702019e-01 5.072331e-01 3.740833e-01 3.306466e-01 3.702962e-01 2.969519e-01 3.109897e-01 4.781440e-01
<GCONST> 1.221470e+02
<STATE> 4
<MEAN> 39
 -3.357051e+00 -3.910790e+00 5.099332e+00 1.329573e+00 -2.059457e+00 9.396142e+00 -2.791539e+00 2.124482e+00 -6.039402e-01 -6.259746e+00 2.123001e+00 -1.786866e+00 3.315525e+01 -8.716069e-02 6.996296e-02 3.376656e-02 8.954716e-02 3.951680e-02 -7.129125e-02 1.322576e-02 5.519288e-03 2.325511e-02 2.773870e-02 -4.092082e-02 9.962531e-03 -9.530187e-02 3.697108e-02 -3.400313e-02 -1.235367e-02 -5.256558e-02 -5.526944e-02 -3.909952e-03 -1.598600e-02 -8.734695e-03 4.636476e-03 2.272968e-03 1.381409e-02 1.209211e-02 4.808531e-02
<VARIANCE> 39
 1.537492e+01 1.984166e+01 3.278183e+01 2.712614e+01 2.659873e+01 3.158787e+01 3.747213e+01 1.916564e+01 1.818367e+01 2.661812e+01 1.695498e+01 1.495363e+01 1.110606e+01 4.615523e-01 1.157080e+00 1.175382e+00 1.144003e+00 1.438560e+00 1.861089e+00 1.972988e+00 1.805240e+00 1.700885e+00 1.530254e+00 1.604100e+00 1.274039e+00 3.839110e-01 8.681908e-02 2.254990e-01 2.240822e-01 2.230193e-01 2.992418e-01 3.743731e-01 3.877425e-01 3.806388e-01 3.502477e-01 2.806821e-01 3.333928e-01 2.564024e-01 8.673093e-02
<GCONST> 9.600550e+01
<TRANSP> 5
 0.000000e+00 1.000000e+00 0.000000e+00 0.000000e+00 0.000000e+00
 0.000000e+00 5.941949e-01 4.058051e-01 0.000000e+00 0.000000e+00
 0.000000e+00 0.000000e+00 8.871680e-01 1.128320e-01 0.000000e+00
 0.000000e+00 0.000000e+00 0.000000e+00 9.184283e-01 8.157171e-02
 0.000000e+00 0.000000e+00 0.000000e+00 0.000000e+00 0.000000e+00
<ENDHMM>
~h "s"
<BEGINHMM>
<NUMSTATES> 5
<STATE> 2
<MEAN> 39
 -6.713232e+00 -2.639000e+00 4.798423e+00 1.439490e-01 -4.756692e+00 4.227612e+00 -4.785717e+00 1.931339e+00 2.364218e+00 -2.566078e+00 2.206115e+00 -9.800989e-01 3.042485e+01 4.337690e-02 7.278938e-02 -1.475030e-01 -1.717072e-01 3.784635e-02 2.595754e-01 -1.510958e-02 -1.230691e-01 2.675570e-03 -3.878096e-01 -2.143373e-01 -1.079189e-02 1.192089e-01 1.520880e-01 -4.083382e-02 1.945048e-02 -9.705615e-02 -2.915474e-02 9.541219e-02 -9.953254e-02 -5.979560e-02 -9.625430e-02 -9.086745e-02 -6.305091e-02 -1.177952e-01 1.404926e-01
<VARIANCE> 39
 1.063029e+02 2.771565e+01 5.012507e+01 1.788121e+01 2.211171e+01 1.833818e+01 3.872116e+01 1.157988e+01 2.073356e+01 1.460392e+01 8.381969e+00 1.125538e+01 1.070470e+02 1.289876e+00 1.753253e+00 1.892788e+00 1.786437e+00 1.652662e+00 1.783878e+00 1.746565e+00 1.740686e+00 1.747974e+00 2.089202e+00 1.226685e+00 1.769202e+00 1.143215e+00 3.017757e-01 2.571766e-01 3.284084e-01 1.833859e-01 1.717745e-01 2.246382e-01 4.143110e-01 2.232221e-01 1.875708e-01 3.147626e-01 1.809758e-01 3.034345e-01 2.664713e-01
<GCONST> 1.018838e+02
<STATE> 3
<MEAN> 39
 6.588156e+00 -7.200276e+00 8.545635e+00 -5.335204e+00 -1.055493e+01 7.193165e+00 -1.215216e+01 9.530311e-01 6.085873e+00 -4.261896e+00 4.063779e+00 -2.214789e+00 4.572123e+01 7.980071e-03 7.888248e-02 1.094418e-02 4.575276e-02 9.382527e-02 6.047536e-02 -8.198497e-03 -5.307336e-02 -9.957314e-02 -8.036607e-02 -1.112173e-01 -1.678071e-01 -2.926235e-02 -5.601653e-02 -1.092772e-02 4.054292e-02 8.910389e-02 5.745969e-02 -3.857062e-02 -2.547916e-02 -4.119128e-02 -7.553292e-02 1.724461e-02 -2.592869e-02 -5.007183e-02 -8.646397e-02
<VARIANCE> 39
 1.475862e+02 4.122215e+01 4.365041e+01 4.125592e+01 3.755878e+01 2.066412e+01 6.330685e+01 2.242233e+01 4.139695e+01 2.027090e+01 2.171757e+01 1.941781e+01 1.929112e+02 2.192178e+00 1.724990e+00 2.378189e+00 2.311673e+00 1.661442e+00 1.476847e+00 2.380188e+00 1.652528e+00 2.053889e+00 2.077854e+00 1.934494e+00 1.621564e+00 3.859064e+00 2.325463e-01 3.392151e-01 4.389947e-01 3.270627e-01 3.017249e-01 3.755960e-01 4.009671e-01 3.715186e-01 4.302984e-01 4.198510e-01 3.660263e-01 3.567181e-01 3.282122e-01
<GCONST> 1.156609e+02
<STATE> 4
<MEAN> 39
 -6.526100e+00 -8.271672e-01 9.060339e+00 2.587061e+00 -3.331889e+00 5.841898e+00 -5.680310e+00 1.276981e+00 4.786566e-01 -4.963683e+00 1.991321e+00 -2.939519e+00 3.025494e+01 -1.347976e-02 -8.630198e-03 7.665301e-03 3.856178e-03 5.561430e-03 -3.173463e-03 -1.822750e-02 -1.887373e-02 -6.448171e-03 2.921585e-03 -5.890287e-03 -1.717154e-02 -8.342739e-03 3.145595e-03 -6.188624e-03 -6.141973e-04 -8.315803e-03 -1.376825e-02 -2.068254e-03 -1.719786e-03 1.058993e-04 6.852786e-03 8.412330e-03 8.470311e-03 9.991543e-03 4.589860e-03
<VARIANCE> 39
 1.717956e+01 8.903843e+00 9.476998e+00 1.070181e+01 1.354158e+01 1.351590e+01 1.682183e+01 1.937263e+01 1.937449e+01 1.757887e+01 1.257991e+01 1.052559e+01 7.938844e+00 3.168177e-01 4.952138e-01 6.202791e-01 7.761741e-01 1.111183e+00 1.347417e+00 1.325152e+00 1.405003e+00 1.468278e+00 1.446880e+00 1.244318e+00 1.186617e+00 1.251507e-01 6.165921e-02 1.013781e-01 1.274649e-01 1.591309e-01 2.315731e-01 2.903621e-01 2.766873e-01 2.982584e-01 3.144695e-01 3.043988e-01 2.677933e-01 2.545669e-01 2.193576e-02
<GCONST> 7.959940e+01
<TRANSP> 5
 0.000000e+00 1.000000e+00 0.000000e+00 0.000000e+00 0.000000e+00
 0.000000e+00 2.055012e-01 7.944988e-01 0.000000e+00 0.000000e+00
 0.000000e+00 0.000000e+00 6.001617e-01 3.998383e-01 0.000000e+00
 0.000000e+00 0.000000e+00 0.000000e+00 9.725522e-01 2.744775e-02
 0.000000e+00 0.000000e+00 0.000000e+00 0.000000e+00 0.000000e+00
<ENDHMM>
~h "t"
<BEGINHMM>
<NUMSTATES> 5
<STATE> 2
<MEAN> 39
 -3.974890e+00 -4.127794e+00 4.775186e+00 -2.952461e-01 -5.424060e+00 5.936687e+00 -5.193362e+00 1.593045e+00 2.002542e+00 -3.922019e+00 2.324973e+00 -2.085329e+00 3.287047e+01 7.516873e-01 -8.482506e-01 -4.338557e-01 -6.137505e-01 -5.810035e-01 2.449310e-01 -3.967979e-01 -4.553750e-01 -9.990429e-02 -3.035356e-01 6.394749e-02 1.086215e-01 9.027305e-01 4.860224e-01 -2.020918e-01 2.614656e-01 -2.138781e-01 -3.790432e-01 4.774394e-02 -3.088024e-01 -7.557834e-02 9.219788e-02 -1.029016e-01 6.456054e-02 -4.814981e-02 5.861874e-01
<VARIANCE> 39
 5.397294e+01 2.416027e+01 2.807050e+01 2.315186e+01 2.389981e+01 2.376442e+01 2.534829e+01 1.587261e+01 1.954357e+01 1.977130e+01 1.374982e+01 1.523801e+01 4.291668e+01 3.894168e+00 4.286964e+00 2.634009e+00 2.927999e+00 5.003621e+00 2.951563e+00 2.300838e+00 2.075586e+00 2.256118e+00 2.189353e+00 1.605955e+00 1.689338e+00 4.492309e+00 6.774560e-01 6.526662e-01 6.671284e-01 3.962182e-01 6.008751e-01 4.793456e-01 3.935013e-01 3.981566e-01 3.688970e-01 3.698128e-01 3.440112e-01 3.245092e-01 7.023035e-01
<GCONST> 1.161562e+02
<STATE> 3
<MEAN> 39
 1.203557e+01 -1.006134e+01 1.196763e+01 -6.191026e+00 -1.406726e+01 8.511221e+00 -1.278382e+01 1.430482e-02 4.564732e+00 -6.147396e+00 3.518184e+00 -4.706187e+00 5.291130e+01 -2.706041e-02 1.958301e-01 1.195910e-01 1.381820e-01 1.403277e-01 2.833845e-03 1.484190e-03 7.037646e-03 -5.256253e-03 4.563764e-02 2.220174e-02 -9.672952e-03 -9.352879e-02 -1.383428e-01 6.053685e-02 -3.924883e-02 5.616418e-02 8.313927e-02 -3.424253e-02 6.716672e-02 3.386625e-02 -1.067101e-02 3.098222e-02 -3.133053e-02 3.241818e-03 -1.540783e-01
<VARIANCE> 39
 5.501605e+01 6.130176e+01 1.004782e+02 3.625186e+01 7.697195e+01 3.117076e+01 3.707194e+01 5.766656e+01 3.934579e+01 2.712594e+01 3.081241e+01 2.050173e+01 9.674659e+01 1.988888e+00 3.283093e+00 4.324560e+00 1.874144e+00 3.008006e+00 2.087671e+00 2.625138e+00 3.082172e+00 2.110016e+00 1.995468e+00 2.277875e+00 1.470335e+00 3.626867e+00 2.170232e-01 5.560250e-01 5.045691e-01 3.154382e-01 4.619560e-01 3.916132e-01 4.167735e-01 4.448851e-01 3.221914e-01 3.391005e-01 3.636448e-01 2.655800e-01 3.074521e-01
<GCONST> 1.201981e+02
<STATE> 4
<MEAN> 39
 -7.008007e+00 -2.434680e+00 8.180621e+00 2.458605e+00 -3.822210e+00 5.703580e+00 -5.841611e+00 7.146263e-01 2.709138e-01 -4.778631e+00 2.094148e+00 -2.680180e+00 3.033560e+01 -3.991124e-02 -5.486466e-05 1.644401e-03 3.278321e-03 -6.221618e-04 -1.982602e-02 -4.120800e-03 1.124526e-04 -7.021890e-03 2.781915e-03 -7.132054e-05 -1.199219e-04 -3.000177e-02 1.172197e-02 -1.038191e-02 -5.015650e-03 -9.418061e-03 -7.039523e-03 5.312458e-03 -2.031496e-03 -1.520725e-03 1.486648e-03 -1.316309e-03 -1.809509e-03 -2.391978e-03 1.297203e-02
<VARIANCE> 39
 1.356977e+01 9.600449e+00 1.044243e+01 1.123937e+01 1.156268e+01 1.260792e+01 1.498087e+01 1.644727e+01 1.524246e+01 1.594244e+01 1.314748e+01 1.135435e+01 5.637197e+00 3.975520e-01 6.193243e-01 6.323113e-01 7.903937e-01 9.923663e-01 1.194025e+00 1.305735e+00 1.388020e+00 1.327304e+00 1.423332e+00 1.349825e+00 1.223573e+00 1.338456e-01 7.623146e-02 1.283847e-01 1.250482e-01 1.618567e-01 2.067753e-01 2.484137e-01 2.728240e-01 2.943470e-01 2.748672e-01 2.999142e-01 2.836024e-01 2.526211e-01 2.460783e-02
<GCONST> 7.897150e+01
<TRANSP> 5
 0.000000e+00 1.000000e+00 0.000000e+00 0.000000e+00 0.000000e+00
 0.000000e+00 4.442880e-01 5.557120e-01 0.000000e+00 0.000000e+00
 0.000000e+00 0.000000e+00 8.937078e-01 1.062922e-01 0.000000e+00
 0.000000e+00 0.000000e+00 0.000000e+00 9.738991e-01 2.610097e-02
 0.000000e+00 0.000000e+00 0.000000e+00 0.000000e+00 0.000000e+00
<ENDHMM>
~h "#N"
<BEGINHMM>
<NUMSTATES> 5
<STATE> 2
<MEAN> 39
 -1.631518e+01 -2.557736e+00 -5.626111e-01 -8.025926e-02 -1.764280e+00 2.372852e+00 -1.234423e+00 1.863361e+00 2.093409e-01 -1.093129e+00 4.419609e-01 -4.441268e-01 2.194514e+01 4.662084e-01 3.270427e-01 1.784209e-01 1.310381e-01 1.083447e-01 1.315040e-01 9.782808e-02 -9.077657e-02 3.331135e-02 -6.575976e-02 1.238216e-01 1.412334e-01 2.365839e-01 3.851655e-01 -2.762097e-01 1.671305e-01 -1.417237e-01 -2.807225e-01 9.734870e-02 -2.717484e-01 8.712313e-02 8.271696e-02 -1.080532e-01 8.984433e-02 -4.179610e-02 4.245818e-01
<VARIANCE> 39
 5.584053e+01 4.296782e+01 2.622695e+01 9.122234e+00 1.257699e+01 1.453905e+01 2.495844e+01 1.330618e+01 7.722337e+00 1.313084e+01 8.612719e+00 1.123199e+01 6.160948e+01 7.914929e+00 5.881711e+00 2.740860e+00 1.894943e+00 2.877796e+00 1.783726e+00 3.472631e+00 1.633378e+00 9.717382e-01 1.514630e+00 1.121864e+00 1.323975e+00 9.787439e+00 7.282480e-01 4.759540e-01 2.830735e-01 1.842835e-01 2.313209e-01 2.099811e-01 2.355380e-01 2.367648e-01 1.857956e-01 2.104376e-01 1.262319e-01 2.106208e-01 6.330156e-01
<GCONST> 1.039359e+02
<STATE> 3
<MEAN> 39
 -4.369182e-01 -9.040876e+00 5.727433e+00 -4.462626e+00 -9.652191e+00 8.820586e+00 -7.228064e+00 2.392325e+00 3.758075e+00 -6.127932e+00 4.140831e+00 -1.593617e+00 3.808694e+01 2.732456e-02 1.843125e-01 -1.147464e-01 2.608931e-01 4.930734e-02 -9.560851e-02 2.863718e-01 -1.715899e-01 2.686999e-02 -4.818068e-02 -2.637675e-02 7.249080e-02 -1.496599e-01 -2.723822e-01 2.884650e-01 -8.524681e-02 8.778404e-02 1.293862e-01 -2.116445e-01 1.003624e-01 -5.945938e-02 -1.187236e-01 1.388800e-01 -1.080147e-01 -1.168737e-02 -3.541980e-01
<VARIANCE> 39
 1.027309e+02 9.267199e+01 4.511419e+01 4.103611e+01 5.482318e+01 4.352725e+01 4.772863e+01 1.472907e+01 2.389900e+01 2.996999e+01 1.975608e+01 1.551570e+01 1.041943e+02 5.416589e+00 9.025105e+00 4.141342e+00 3.192353e+00 3.526635e+00 5.022937e+00 4.865391e+00 2.485506e+00 1.958285e+00 3.327325e+00 1.930499e+00 1.783103e+00 8.924694e+00 1.083883e+00 1.289169e+00 6.365682e-01 5.304937e-01 7.356085e-01 9.791432e-01 9.472174e-01 4.759240e-01 4.584354e-01 6.465846e-01 3.613791e-01 2.797173e-01 1.480184e+00
<GCONST> 1.317864e+02
<STATE> 4
<MEAN> 39
 -3.292785e+00 -1.244783e+00 7.912558e+00 1.069302e+00 -5.867974e+00 5.839875e+00 -4.113576e+00 2.228701e+00 1.369272e+00 -4.386225e+00 2.698984e+00 -1.647838e+00 3.258889e+01 -8.105033e-02 1.745468e-01 -2.553342e-03 4.823535e-02 1.470529e-02 -8.031628e-02 6.070421e-02 -2.917006e-02 6.876308e-03 4.123744e-02 -1.543854e-02 5.939496e-02 -1.509976e-01 4.668089e-02 -8.036270e-02 2.129252e-02 -3.697227e-02 -4.201231e-02 1.985325e-02 -4.201525e-02 3.504298e-02 2.351159e-02 -3.374369e-02 -1.563086e-02 -3.455279e-02 7.485674e-02
<VARIANCE> 39
 3.395873e+01 2.918231e+01 2.901283e+01 2.287702e+01 3.097900e+01 1.900318e+01 1.602032e+01 1.445551e+01 1.683540e+01 1.589854e+01 1.423903e+01 1.318490e+01 2.106915e+01 5.282288e-01 1.311118e+00 1.067330e+00 1.043156e+00 1.466882e+00 1.494648e+00 1.595873e+00 1.446702e+00 1.721607e+00 1.621976e+00 1.598170e+00 1.301075e+00 8.424042e-01 9.856707e-02 2.074322e-01 2.076436e-01 2.159701e-01 3.022098e-01 3.063032e-01 3.371386e-01 3.131448e-01 3.648663e-01 3.770203e-01 3.579777e-01 2.508148e-01 1.507237e-01
<GCONST> 9.580950e+01
<TRANSP> 5
 0.000000e+00 1.000000e+00 0.000000e+00 0.000000e+00 0.000000e+00
 0.000000e+00 7.200917e-01 2.799083e-01 0.000000e+00 0.000000e+00
 0.000000e+00 0.000000e+00 7.034698e-01 2.965302e-01 0.000000e+00
 0.000000e+00 0.000000e+00 0.000000e+00 8.788779e-01 1.211221e-01
 0.000000e+00 0.000000e+00 0.000000e+00 0.000000e+00 0.000000e+00
<ENDHMM>
~h "aa"
<BEGINHMM>
<NUMSTATES> 5
<STATE> 2
<MEAN> 39
 -3.592789e+00 -7.399274e+00 4.746034e+00 4.114923e-01 -4.366426e+00 7.774226e+00 -7.692894e+00 6.294142e-01 1.867925e+00 -3.921209e+00 4.075663e+00 -3.534339e+00 3.458981e+01 9.749548e-01 -2.203424e+00 -7.208876e-01 -1.067164e+00 -9.562855e-01 8.508777e-01 -3.757810e-01 -7.891033e-01 -1.273826e-01 -1.278480e+00 -3.835161e-01 2.420343e-01 1.605675e+00 3.561356e-01 -1.090586e-01 6.754441e-01 -3.620137e-01 -9.527112e-01 -2.319996e-01 3.864611e-03 -1.202732e-01 1.613795e-01 -5.730045e-02 4.303252e-02 2.651998e-01 6.942935e-01
<VARIANCE> 39
 2.317868e+01 9.773862e+01 9.048795e+01 3.513727e+00 5.700898e+01 3.398029e+01 2.652164e+01 1.620443e+01 2.081934e+01 1.340923e+01 8.814057e+00 9.627082e+00 2.822848e+01 2.908300e+00 1.290475e+01 7.904919e+00 3.849968e+00 1.543827e+01 7.276295e+00 3.146196e+00 3.152661e+00 1.654568e+00 2.258534e+00 1.359138e+00 2.761001e+00 5.697624e+00 3.980418e-01 2.870553e+00 2.151888e+00 2.961835e-01 2.157712e+00 1.167325e+00 6.865078e-01 3.980370e-01 3.483871e-01 4.893985e-01 2.735712e-01 4.537558e-01 1.127507e+00
<GCONST> 1.262212e+02
<STATE> 3
<MEAN> 39
 7.200341e+00 -1.121744e+01 2.257762e+01 -6.923104e+00 -2.427263e+01 5.717809e+00 -1.420117e+01 -4.292181e+00 6.045663e-01 -1.027429e+01 6.393144e+00 -3.259042e+00 5.421756e+01 1.063943e+00 1.210526e-01 2.877859e+00 -3.314481e-01 -1.968484e+00 -1.101050e+00 -1.672784e+00 -4.626143e-01 4.124017e-01 3.499454e-01 5.308654e-01 -2.939237e-01 2.052409e+00 -2.478417e-01 2.723566e-01 -2.809231e-01 3.153250e-01 5.605374e-01 4.233089e-03 1.510384e-01 7.101278e-02 3.385020e-02 3.781276e-01 1.583017e-03 -4.783183e-02 -5.795034e-01
<VARIANCE> 39
 3.184993e+01 3.794254e+01 1.357230e+02 2.249759e+01 9.650856e+01 4.188741e+01 7.956608e+01 1.657677e+01 1.491984e+01 1.630062e+01 1.564478e+01 2.003098e+01 7.102575e+01 1.892912e+00 4.907127e+00 1.196389e+01 1.893623e+00 1.054035e+01 3.841444e+00 7.827577e+00 1.535151e+00 1.675636e+00 2.694961e+00 1.993733e+00 3.203012e+00 7.472769e+00 2.594962e-01 1.502602e+00 2.318449e+00 4.228649e-01 1.857852e+00 1.140980e+00 1.929418e+00 3.259502e-01 2.705669e-01 4.958907e-01 4.172273e-01 8.919036e-01 5.352479e-01
<GCONST> 1.304050e+02
<STATE> 4
<MEAN> 39
 8.051832e+00 -4.483765e+00 2.495182e+01 -2.241336e+00 -1.904884e+01 5.054076e+00 -1.640410e+01 -5.148167e+00 2.079975e+00 -6.115986e+00 5.544085e+00 -3.706023e+00 4.866566e+01 7.965393e-02 7.358518e-01 -5.493203e-01 6.514267e-01 9.838957e-01 2.435649e-02 1.985601e-01 4.008070e-02 2.016758e-02 1.965918e-01 -2.993284e-01 -5.657316e-02 -7.537248e-01 -8.395311e-04 -1.890270e-01 -4.906073e-02 -5.976949e-02 -1.217140e-01 -3.281504e-02 -5.014291e-02 -3.747176e-02 8.486818e-03 1.396319e-02 1.128708e-02 -5.353881e-02 1.594983e-01
<VARIANCE> 39
 4.952955e+01 2.289256e+01 1.061176e+02 1.973897e+01 7.130551e+01 6.946455e+00 2.223244e+01 2.382966e+01 6.621271e+00 1.615221e+01 9.716522e+00 7.128589e+00 1.020622e+02 1.311107e-01 2.016234e+00 8.811960e-01 9.943363e-01 2.189619e+00 8.841692e-01 7.116047e-01 1.047268e+00 5.862695e-01 5.327182e-01 1.354158e+00 4.029310e-01 9.085727e-01 4.894945e-02 2.527345e-01 1.866276e-01 2.883534e-01 5.145181e-01 1.458518e-01 1.834445e-01 2.142159e-01 1.317815e-01 9.948518e-02 3.077585e-01 7.886322e-02 1.820571e-01
<GCONST> 8.651264e+01
<TRANSP> 5
 0.000000e+00 1.000000e+00 0.000000e+00 0.000000e+00 0.000000e+00
 0.000000e+00 6.962301e-01 3.037699e-01 0.000000e+00 0.000000e+00
 0.000000e+00 0.000000e+00 7.873556e-01 2.126444e-01 0.000000e+00
 0.000000e+00 0.000000e+00 0.000000e+00 8.811089e-01 1.188912e-01
 0.000000e+00 0.000000e+00 0.000000e+00 0.000000e+00 0.000000e+00
<ENDHMM>
~h "ah"
<BEGINHMM>
<NUMSTATES> 5
<STATE> 2
<MEAN> 39
 -2.824616e+00 -4.544478e+00 6.282972e+00 2.121934e-01 -5.842940e+00 6.380707e+00 -5.866316e+00 5.920150e-01 1.573997e+00 -4.248128e+00 2.209347e+00 -2.419835e+00 3.430567e+01 1.098470e+00 -9.967043e-01 -4.021214e-01 -1.032278e+00 -1.096229e+00 2.732714e-01 -1.481586e-01 -3.439622e-02 2.632890e-01 -2.363047e-01 1.510631e-01 2.573018e-01 1.308250e+00 5.668881e-01 -3.138504e-01 1.080412e-01 -3.819250e-01 -4.156312e-01 1.078542e-01 -2.834936e-01 1.196667e-01 2.160804e-01 -8.246830e-02 1.501561e-01 -1.067805e-02 7.006638e-01
<VARIANCE> 39
 6.059990e+01 3.455752e+01 3.795943e+01 2.158669e+01 3.123631e+01 2.612021e+01 2.724735e+01 2.103728e+01 2.481286e+01 2.230325e+01 1.109986e+01 1.340564e+01 5.239415e+01 5.426604e+00 5.577189e+00 3.967989e+00 3.237796e+00 4.341335e+00 3.416373e+00 3.452296e+00 2.685110e+00 2.522180e+00 2.784056e+00 1.715126e+00 1.639781e+00 6.303283e+00 6.961174e-01 6.714569e-01 5.953214e-01 4.152177e-01 4.979649e-01 4.466775e-01 4.793724e-01 4.253396e-01 4.090811e-01 4.167813e-01 2.810921e-01 3.170836e-01 8.063164e-01
<GCONST> 1.204232e+02
<STATE> 3
<MEAN> 39
 1.141373e+01 -1.025393e+01 9.310874e+00 -7.229443e+00 -1.341539e+01 8.033092e+00 -1.302549e+01 1.912646e+00 6.748220e+00 -5.828753e+00 3.281947e+00 -4.085455e+00 5.173080e+01 5.752800e-03 2.189841e-01 1.085798e-01 9.418986e-02 8.993005e-02 -2.978092e-02 6.096047e-02 1.245781e-01 4.305395e-02 5.412552e-02 2.217284e-02 -5.210260e-02 -9.973446e-02 -2.101721e-01 1.235498e-01 -4.065177e-02 1.332147e-01 1.540631e-01 -4.478787e-02 9.055223e-02 -2.147998e-02 -6.826204e-02 2.705545e-02 -3.312562e-02 9.901102e-03 -2.508380e-01
<VARIANCE> 39
 6.534943e+01 6.271054e+01 7.149409e+01 3.525140e+01 4.739962e+01 3.464600e+01 4.447240e+01 3.925311e+01 4.760993e+01 2.654006e+01 2.551064e+01 2.073117e+01 1.029050e+02 2.881647e+00 3.855910e+00 3.786710e+00 2.609600e+00 2.827327e+00 2.323311e+00 3.219770e+00 2.293930e+00 2.476370e+00 2.041031e+00 2.108669e+00 1.659685e+00 5.269011e+00 3.466208e-01 7.248108e-01 6.152266e-01 4.378990e-01 5.107060e-01 5.082923e-01 5.579801e-01 4.132032e-01 4.086236e-01 4.021730e-01 3.725389e-01 3.144244e-01 4.855336e-01
<GCONST> 1.236763e+02
<STATE> 4
<MEAN> 39
 -5.261706e+00 -4.001506e+00 6.169736e+00 7.558182e-01 -5.069485e+00 5.974490e+00 -5.209376e+00 1.439661e+00 1.136101e+00 -4.331945e+00 2.586481e+00 -2.311599e+00 3.199972e+01 -2.365350e-01 4.418604e-02 -4.375747e-02 1.101615e-01 1.257495e-01 -4.834283e-02 5.495262e-02 -3.587929e-02 -5.233818e-02 3.939488e-02 6.692117e-04 3.926538e-02 -2.142233e-01 5.584269e-02 -6.147722e-02 2.369005e-03 -2.830068e-02 -3.782534e-02 1.920825e-02 -5.180710e-02 -2.060641e-02 2.122985e-02 -1.271305e-02 -1.900109e-03 -6.383924e-03 7.560644e-02
<VARIANCE> 39
 3.021206e+01 1.701584e+01 2.373424e+01 1.729739e+01 1.957093e+01 2.055717e+01 2.292757e+01 1.737559e+01 2.057225e+01 2.127468e+01 1.474762e+01 1.383803e+01 2.102149e+01 6.131216e-01 8.937095e-01 1.020376e+00 9.852240e-01 1.137852e+00 1.375219e+00 1.485236e+00 1.445940e+00 1.433540e+00 1.621354e+00 1.455088e+00 1.329867e+00 4.444255e-01 1.282432e-01 2.005868e-01 2.022830e-01 2.103563e-01 2.488156e-01 2.774457e-01 3.252854e-01 2.882864e-01 2.759541e-01 3.431544e-01 3.166251e-01 2.870893e-01 1.132311e-01
<GCONST> 9.288480e+01
<TRANSP> 5
 0.000000e+00 1.000000e+00 0.000000e+00 0.000000e+00 0.000000e+00
 0.000000e+00 4.672572e-01 5.327429e-01 0.000000e+00 0.000000e+00
 0.000000e+00 0.000000e+00 8.743165e-01 1.256835e-01 0.000000e+00
 0.000000e+00 0.000000e+00 0.000000e+00 8.015442e-01 1.984558e-01
 0.000000e+00 0.000000e+00 0.000000e+00 0.000000e+00 0.000000e+00
<ENDHMM>
~h "ao"
<BEGINHMM>
<NUMSTATES> 5
<STATE> 2
<MEAN> 39
 -1.280472e+00 -1.781796e+00 6.920009e+00 7.219802e-03 -6.770460e+00 4.831911e+00 -3.964566e+00 5.154506e+00 4.797575e+00 -2.768851e+00 4.295965e+00 -2.335858e+00 3.446571e+01 1.043405e+00 -1.200653e+00 -3.823250e-01 -2.241794e-01 -2.955961e-01 7.077798e-01 -3.495237e-01 1.975965e-01 1.540855e-01 -6.794007e-01 1.508469e-01 3.907816e-01 1.094382e+00 2.531148e-01 -3.974694e-01 -4.809162e-02 -3.624161e-01 -3.162569e-01 3.409551e-02 -3.407336e-01 -1.081744e-01 -1.787267e-01 -1.752334e-01 2.323248e-01 2.551413e-01 3.113634e-01
<VARIANCE> 39
 1.003972e+01 5.063319e+01 2.969193e+01 2.538059e+01 8.607604e+00 1.199714e+01 1.054920e+01 1.198850e+01 8.683240e+00 1.820929e+01 1.347879e+01 1.512338e+01 6.278945e+00 2.284837e+00 2.243892e+00 3.367453e+00 3.125233e+00 3.071225e+00 2.745995e+00 7.452424e-01 1.028776e+00 1.384024e+00 1.021527e+00 1.835408e+00 1.595229e+00 1.265001e+00 2.308335e-01 2.088403e-01 1.916689e-01 2.201127e-01 1.692869e-01 5.835693e-02 8.932929e-02 2.235225e-01 1.252057e-01 1.358317e-01 2.383020e-01 4.341651e-01 1.582537e-01
<GCONST> 9.082370e+01
<STATE> 3
<MEAN> 39
 1.246666e+01 -1.213781e+01 8.277781e+00 -1.157923e+01 -1.668730e+01 8.116236e+00 -1.335544e+01 2.313831e+00 7.266963e+00 -5.732719e+00 5.057953e+00 -3.980062e+00 5.587590e+01 2.582987e-02 4.274573e-02 7.848955e-02 2.977734e-02 1.830032e-04 -2.566181e-03 -3.893625e-02 -3.790798e-02 -1.430892e-02 -9.142637e-03 -3.652804e-02 -4.098172e-02 1.881860e-02 -2.837222e-02 2.446875e-02 3.232763e-03 1.914988e-02 5.497202e-03 -2.837825e-02 4.935982e-03 -6.670583e-04 2.974079e-03 1.392100e-02 -1.164304e-02 -2.956741e-03 -3.267059e-02
<VARIANCE> 39
 3.682066e+01 6.527496e+01 8.848512e+01 4.517040e+01 2.900603e+01 3.764266e+01 3.911397e+01 3.532034e+01 4.096627e+01 2.722863e+01 2.557719e+01 2.722093e+01 8.787737e+01 1.766479e+00 3.468809e+00 4.306942e+00 2.692639e+00 2.310483e+00 2.569623e+00 2.948554e+00 2.268511e+00 2.367560e+00 2.089476e+00 1.931350e+00 1.615578e+00 4.284008e+00 2.864200e-01 5.757247e-01 6.455453e-01 4.328991e-01 4.364620e-01 5.115770e-01 5.447783e-01 4.097051e-01 3.798024e-01 4.188395e-01 3.332558e-01 2.798564e-01 5.468411e-01
<GCONST> 1.212665e+02
<STATE> 4
<MEAN> 39
 -2.000590e+00 -5.889278e+00 5.328651e+00 -8.002425e-01 -6.987607e+00 7.611967e+00 -5.705206e+00 1.786235e+00 3.793278e+00 -5.390569e+00 1.886315e+00 -2.303252e+00 3.489375e+01 -1.289032e-01 -1.285114e-01 -1.577896e-01 -4.054283e-02 2.207772e-02 3.371391e-02 2.397376e-02 8.238192e-03 7.515176e-02 3.373498e-02 -4.335534e-02 9.534017e-03 -8.481850e-02 5.073005e-02 -5.262153e-02 -3.316866e-02 -5.129794e-02 -1.520872e-02 3.472248e-02 -7.836865e-03 -2.103267e-02 -1.141128e-02 -1.496680e-02 2.623500e-02 8.812417e-03 6.022229e-02
<VARIANCE> 39
 5.075094e+00 2.548542e+01 1.140792e+01 7.359086e+00 8.312059e+00 1.845774e+01 1.411082e+01 1.196065e+01 1.638841e+01 1.851005e+01 1.339784e+01 1.464618e+01 5.162943e+00 3.439148e-01 7.711782e-01 1.180616e+00 9.535521e-01 7.064841e-01 1.279855e+00 1.622344e+00 1.382035e+00 1.296454e+00 1.338448e+00 1.333030e+00 1.342216e+00 3.294111e-01 3.479286e-02 1.291763e-01 1.903452e-01 2.056404e-01 1.203272e-01 2.742029e-01 3.314646e-01 2.702942e-01 2.557106e-01 2.548747e-01 3.006371e-01 3.048031e-01 3.196264e-02
<GCONST> 8.025462e+01
<TRANSP> 5
 0.000000e+00 1.000000e+00 0.000000e+00 0.000000e+00 0.000000e+00
 0.000000e+00 4.033250e-01 5.966750e-01 0.000000e+00 0.000000e+00
 0.000000e+00 0.000000e+00 9.818851e-01 1.811488e-02 0.000000e+00
 0.000000e+00 0.000000e+00 0.000000e+00 9.543914e-01 4.560860e-02
 0.000000e+00 0.000000e+00 0.000000e+00 0.000000e+00 0.000000e+00
<ENDHMM>
~h "ih"
<BEGINHMM>
<NUMSTATES> 5
<STATE> 2
<MEAN> 39
 -4.960667e+00 -3.131456e+00 7.118824e+00 1.302917e+00 -4.730107e+00 5.754754e+00 -5.706316e+00 1.191940e+00 3.707380e-01 -4.942623e+00 1.895146e+00 -2.723614e+00 3.194858e+01 7.633944e-01 -1.430971e+00 -7.415840e-01 -6.477306e-01 -7.688867e-01 3.282647e-01 -2.514524e-01 -5.586908e-01 -9.353960e-02 -8.734744e-02 1.406186e-01 -3.517620e-02 1.084132e+00 4.963091e-01 -3.542449e-01 -1.796216e-02 -2.885975e-01 -4.089558e-01 1.139643e-01 -1.788504e-01 -5.426754e-02 2.460883e-01 6.868986e-02 3.094601e-01 5.009541e-02 5.868975e-01
<VARIANCE> 39
 3.459158e+01 3.049477e+01 2.493472e+01 1.564621e+01 2.129325e+01 2.547174e+01 2.109745e+01 1.625735e+01 1.681169e+01 1.966366e+01 1.305394e+01 1.380808e+01 2.123022e+01 2.773335e+00 6.220081e+00 3.644943e+00 3.457627e+00 5.365176e+00 3.397531e+00 2.717174e+00 2.271836e+00 3.134020e+00 2.722225e+00 2.203369e+00 1.314060e+00 3.281962e+00 4.269493e-01 8.277999e-01 6.951543e-01 3.805275e-01 8.201053e-01 5.336706e-01 4.869437e-01 3.917543e-01 2.852788e-01 3.930661e-01 3.562854e-01 3.089192e-01 5.039281e-01
<GCONST> 1.153564e+02
<STATE> 3
<MEAN> 39
 8.386984e+00 -9.756847e+00 1.238072e+01 -4.067542e+00 -1.395375e+01 7.459185e+00 -1.216001e+01 -8.462337e-01 2.865657e+00 -6.297366e+00 4.417894e+00 -3.777181e+00 4.848252e+01 1.040834e-01 1.240165e-01 2.217572e-01 1.056860e-01 5.063633e-02 1.858384e-02 -1.710697e-02 1.119452e-01 7.372454e-02 -5.819025e-02 4.011524e-02 -4.852965e-03 4.684044e-02 -2.139464e-01 2.409667e-01 7.974509e-03 1.199401e-01 1.564292e-01 -9.017465e-02 1.035155e-01 6.970193e-02 -2.166010e-02 1.663076e-02 -9.107788e-02 -5.668722e-03 -2.876737e-01
<VARIANCE> 39
 8.463194e+01 7.243088e+01 1.090640e+02 4.194666e+01 9.545847e+01 5.538299e+01 4.492500e+01 4.901336e+01 3.842397e+01 2.365789e+01 2.234451e+01 1.815772e+01 1.042289e+02 2.100208e+00 5.054762e+00 4.586172e+00 2.593920e+00 5.094503e+00 2.853402e+00 2.783984e+00 2.962684e+00 2.287439e+00 1.853266e+00 2.169525e+00 1.627377e+00 4.177586e+00 2.229791e-01 1.033998e+00 7.410728e-01 4.281298e-01 8.313247e-01 5.455288e-01 4.402003e-01 4.634610e-01 4.348534e-01 3.663667e-01 4.152618e-01 2.855739e-01 4.027610e-01
<GCONST> 1.264481e+02
<STATE> 4
<MEAN> 39
 -3.432262e+00 -5.023982e+00 4.807192e+00 -2.999848e-01 -5.774154e+00 5.743331e+00 -6.078905e+00 1.912304e+00 2.441205e+00 -3.834888e+00 3.265292e+00 -2.561712e+00 3.349966e+01 -2.728656e-01 1.181075e-01 -2.042701e-02 8.773910e-02 7.608080e-02 -5.386294e-02 2.236992e-01 1.006769e-01 -5.440659e-02 -1.000865e-01 -1.687399e-01 -2.131546e-02 -2.558359e-01 5.308099e-02 -8.871526e-02 4.626804e-04 -2.853926e-02 -5.078175e-02 3.223789e-02 -2.746740e-02 -4.932334e-02 -4.187973e-02 -3.389712e-02 -8.733373e-03 1.419101e-02 8.809577e-02
<VARIANCE> 39
 3.165617e+01 3.547749e+01 2.928272e+01 3.850867e+01 6.166407e+01 2.941772e+01 2.200404e+01 2.685663e+01 2.517712e+01 2.196204e+01 1.256972e+01 1.581703e+01 2.102300e+01 8.606602e-01 1.390718e+00 1.542478e+00 1.432738e+00 1.932294e+00 1.958359e+00 1.927487e+00 2.517791e+00 1.365579e+00 1.398128e+00 1.350572e+00 1.376502e+00 6.732009e-01 1.690046e-01 2.191266e-01 2.695071e-01 2.957100e-01 3.915902e-01 3.311934e-01 4.015595e-01 5.095202e-01 3.110451e-01 3.232346e-01 2.900518e-01 3.094907e-01 1.104054e-01
<GCONST> 1.026554e+02
<TRANSP> 5
 0.000000e+00 1.000000e+00 0.000000e+00 0.000000e+00 0.000000e+00
 0.000000e+00 5.565398e-01 4.434602e-01 0.000000e+00 0.000000e+00
 0.000000e+00 0.000000e+00 8.483415e-01 1.516585e-01 0.000000e+00
 0.000000e+00 0.000000e+00 0.000000e+00 6.903039e-01 3.096961e-01
 0.000000e+00 0.000000e+00 0.000000e+00 0.000000e+00 0.000000e+00
<ENDHMM>
~h "oh"
<BEGINHMM>
<NUMSTATES> 5
<STATE> 2
<MEAN> 39
 -1.431774e+00 -6.282319e+00 5.927928e+00 8.545040e-01 -6.096668e+00 6.430628e+00 -6.874565e+00 1.663672e+00 5.882062e+00 -1.292596e+00 3.883826e+00 -1.531523e+00 3.558558e+01 -4.260592e-02 -1.146001e+00 -7.059650e-01 -4.585724e-01 -4.171763e-01 -1.626478e-01 -2.069266e-01 -4.193973e-01 -2.600905e-01 -1.080343e-01 3.465848e-01 8.457559e-01 3.147982e-01 2.762626e-01 1.275517e-01 -1.878545e-02 -3.489267e-01 -4.794635e-01 -1.366077e-01 3.094623e-02 1.458978e-01 -3.432539e-02 -5.450555e-01 -2.307626e-01 5.020633e-02 2.542569e-01
<VARIANCE> 39
 4.711359e+00 5.085472e+01 2.208873e+01 9.815804e+00 1.705824e+01 3.684682e+01 2.043307e+01 2.818227e+01 2.755920e+01 2.477108e+01 1.048611e+01 5.156168e+00 4.568000e+00 6.340601e-01 2.919584e+00 1.837577e+00 2.308842e+00 3.767620e-01 1.470573e+00 1.541325e+00 1.320076e+00 7.906163e-01 1.448035e+00 1.119811e+00 2.318563e+00 6.809744e-01 2.607857e-01 1.824068e-01 7.427221e-02 1.632970e-01 3.216677e-01 4.597684e-01 4.889472e-01 6.585889e-01 4.606572e-01 2.175052e-01 1.555747e-01 1.867775e-01 1.206067e-01
<GCONST> 9.179927e+01
<STATE> 3
<MEAN> 39
 1.300744e+01 -9.998218e+00 8.300445e+00 -1.153701e+01 -1.620884e+01 7.141842e+00 -1.443772e+01 2.427321e+00 9.474518e+00 -4.030491e+00 3.923436e+00 -4.071054e+00 5.527822e+01 9.473858e-02 4.581068e-02 4.348546e-02 -6.162868e-02 -1.256960e-01 -9.125869e-02 -2.934404e-02 -1.072362e-02 3.425146e-02 6.851099e-02 3.499591e-02 -1.415128e-02 7.526222e-02 -3.791896e-02 -3.113500e-03 5.742991e-03 3.585881e-02 2.361981e-02 7.854581e-03 2.061993e-02 5.964663e-03 -9.136958e-03 -2.337138e-02 -2.904972e-02 -1.983742e-02 -3.231465e-02
<VARIANCE> 39
 2.431442e+01 3.766045e+01 8.233427e+01 3.482134e+01 2.790138e+01 2.549435e+01 3.959159e+01 3.285172e+01 5.696873e+01 2.558664e+01 2.603779e+01 2.294106e+01 8.949088e+01 2.333337e+00 2.508858e+00 4.587724e+00 3.295781e+00 2.173038e+00 2.443077e+00 2.667655e+00 2.377412e+00 3.546010e+00 2.543114e+00 1.787477e+00 2.521211e+00 7.478934e+00 3.387485e-01 3.928076e-01 6.928740e-01 5.441667e-01 4.241922e-01 5.135465e-01 4.184536e-01 4.382362e-01 5.528042e-01 5.513179e-01 3.318210e-01 4.865181e-01 9.037673e-01
<GCONST> 1.227579e+02
<STATE> 4
<MEAN> 39
 -4.865238e-01 -1.228311e+01 5.334620e+00 -3.221874e+00 -1.259309e+01 6.354932e+00 -9.268298e+00 1.440678e+00 7.221285e+00 -3.796031e+00 3.604438e+00 -2.091217e+00 3.883192e+01 -5.137021e-01 -1.723473e-01 1.742920e-01 5.001367e-01 5.707048e-01 3.738565e-01 1.186055e-01 9.834077e-03 -4.272957e-01 -9.534680e-01 -8.141802e-01 -1.631936e-01 -3.223812e-01 2.890174e-01 1.605431e-01 8.531270e-02 -2.149429e-01 -4.680056e-04 3.110429e-01 7.884856e-03 -1.119925e-01 -3.874370e-02 1.297487e-03 1.035532e-01 1.712505e-01 2.341761e-01
<VARIANCE> 39
 3.539552e+01 7.686951e+01 6.141418e+01 1.823870e+01 1.672652e+01 2.620857e+01 2.539741e+01 1.202183e+01 1.848263e+01 1.100665e+01 7.370706e+00 1.841449e+01 2.476618e+01 6.574211e-01 1.618841e+00 6.601091e-01 1.032336e+00 1.537084e+00 1.865754e+00 2.406047e+00 1.379548e+00 1.640051e+00 2.320638e+00 1.883806e+00 5.391150e-01 4.790500e-01 8.493399e-02 9.911458e-02 2.747701e-01 2.526336e-01 2.020315e-01 3.400283e-01 4.021361e-01 3.884169e-01 3.346051e-01 1.999152e-01 2.180905e-01 2.442008e-01 1.429548e-01
<GCONST> 9.483292e+01
<TRANSP> 5
 0.000000e+00 1.000000e+00 0.000000e+00 0.000000e+00 0.000000e+00
 0.000000e+00 7.495368e-02 9.250463e-01 0.000000e+00 0.000000e+00
 0.000000e+00 0.000000e+00 9.689587e-01 3.104126e-02 0.000000e+00
 0.000000e+00 0.000000e+00 0.000000e+00 6.154971e-01 3.845030e-01
 0.000000e+00 0.000000e+00 0.000000e+00 0.000000e+00 0.000000e+00
<ENDHMM>
~h "uh"
<BEGINHMM>
<NUMSTATES> 5
<STATE> 2
<MEAN> 39
 -5.211404e+00 -3.641070e+00 5.653113e+00 -2.819536e-01 -5.474041e+00 5.665268e+00 -5.796862e+00 9.500909e-01 2.090571e+00 -2.598059e+00 2.630482e+00 -2.846583e+00 3.201512e+01 5.979825e-01 -1.515771e-01 -3.005364e-01 -9.355792e-01 -1.012191e+00 8.791403e-02 8.224400e-02 7.480794e-02 5.376332e-01 4.222660e-01 1.681716e-01 1.978239e-01 4.729293e-01 1.602321e-01 -1.372638e-01 3.786207e-02 -1.342323e-01 -2.357999e-01 -1.618773e-02 -9.263329e-02 8.928597e-03 -4.799861e-02 -2.316907e-01 4.062918e-02 9.177315e-02 2.083610e-01
<VARIANCE> 39
 5.660036e+01 2.217699e+01 2.519702e+01 2.606952e+01 2.875308e+01 2.307010e+01 2.630922e+01 1.920971e+01 2.517702e+01 1.955856e+01 1.903556e+01 1.405019e+01 5.178542e+01 1.942281e+00 3.039812e+00 3.973125e+00 3.562990e+00 3.634454e+00 3.626259e+00 2.471741e+00 2.264623e+00 2.572858e+00 2.368410e+00 1.103364e+00 1.621089e+00 9.814505e-01 3.998185e-01 4.352144e-01 5.749065e-01 4.221716e-01 5.075988e-01 6.052275e-01 4.353334e-01 3.784240e-01 4.294915e-01 5.130034e-01 2.753525e-01 2.802384e-01 2.448384e-01
<GCONST> 1.132248e+02
<STATE> 3
<MEAN> 39
 2.916546e+00 -1.020657e+01 7.259181e+00 -6.524674e+00 -1.280791e+01 9.636178e+00 -8.776772e+00 3.394828e+00 8.236727e+00 -4.865231e+00 3.172181e+00 -2.005383e+00 4.261181e+01 1.564904e-01 -8.291689e-02 -7.730380e-02 -1.118307e-01 1.875201e-02 -8.025768e-02 -1.255429e-01 1.197144e-01 7.871974e-02 -2.344904e-02 5.519596e-02 6.541130e-02 2.174989e-01 -1.581244e-01 9.758003e-02 1.274146e-02 2.093272e-01 2.488755e-01 -4.587325e-02 4.728341e-02 -7.728294e-02 -1.551840e-01 -1.000832e-02 -7.924489e-02 -6.932106e-02 -1.350280e-01
<VARIANCE> 39
 9.567829e+01 7.491879e+01 2.908934e+01 4.826189e+01 3.691878e+01 5.523098e+01 4.463931e+01 2.642837e+01 4.868066e+01 3.092093e+01 2.347079e+01 2.043808e+01 1.332555e+02 2.713859e+00 3.506593e+00 2.090871e+00 2.814544e+00 2.294743e+00 3.538059e+00 3.091739e+00 2.221871e+00 2.197111e+00 2.298415e+00 1.903824e+00 2.004542e+00 3.778166e+00 5.415792e-01 6.520938e-01 4.902814e-01 5.249842e-01 5.235224e-01 7.801517e-01 5.862307e-01 4.567893e-01 4.511195e-01 4.644799e-01 3.870058e-01 3.955792e-01 4.785530e-01
<GCONST> 1.244240e+02
<STATE> 4
<MEAN> 39
 -4.107348e+00 -4.787373e+00 4.814016e+00 -2.256606e+00 -7.449900e+00 6.399030e+00 -5.425141e+00 1.807311e+00 2.996067e+00 -4.037282e+00 2.590296e+00 -1.965586e+00 3.314572e+01 -1.864772e-01 -1.317171e-01 -3.744998e-02 -8.232107e-03 6.482779e-02 1.906017e-01 9.269251e-02 -1.096651e-01 -4.058089e-02 -8.957328e-02 -8.300240e-02 -4.604122e-02 -5.536561e-02 6.608500e-02 -1.357559e-01 1.496571e-02 -6.802748e-02 -1.413358e-01 4.660514e-02 -2.741179e-02 -1.433261e-02 3.364871e-02 -2.465519e-02 3.100048e-02 -2.859843e-02 1.042869e-01
<VARIANCE> 39
 3.054528e+01 2.504563e+01 1.459055e+01 1.689911e+01 1.576110e+01 3.080164e+01 2.147498e+01 1.777145e+01 2.023567e+01 1.566194e+01 1.571495e+01 1.500786e+01 3.057560e+01 8.792399e-01 6.820748e-01 9.029599e-01 8.693759e-01 1.175663e+00 1.283038e+00 1.213906e+00 1.697125e+00 1.523821e+00 1.312497e+00 1.218958e+00 1.292157e+00 6.536667e-01 1.784624e-01 1.549909e-01 1.688143e-01 1.891772e-01 2.355963e-01 2.798711e-01 2.430422e-01 3.656053e-01 2.587000e-01 2.226908e-01 2.540169e-01 2.490055e-01 1.470440e-01
<GCONST> 9.199593e+01
<TRANSP> 5
 0.000000e+00 1.000000e+00 0.000000e+00 0.000000e+00 0.000000e+00
 0.000000e+00 3.539831e-01 6.460168e-01 0.000000e+00 0.000000e+00
 0.000000e+00 0.000000e+00 6.868020e-01 3.131979e-01 0.000000e+00
 0.000000e+00 0.000000e+00 0.000000e+00 7.151214e-01 2.848786e-01
 0.000000e+00 0.000000e+00 0.000000e+00 0.000000e+00 0.000000e+00
<ENDHMM>
~h "uw"
<BEGINHMM>
<NUMSTATES> 5
<STATE> 2
<MEAN> 39
 -3.764486e+00 -8.316368e+00 6.636580e+00 -6.345838e-01 -8.841543e+00 6.658188e+00 -6.508334e+00 4.357990e-01 3.093969e+00 -4.244640e+00 2.393806e+00 -2.665067e+00 3.529075e+01 5.377816e-01 -3.651919e-01 -1.710578e-01 -4.077889e-01 -4.036936e-01 2.299261e-01 -1.730206e-01 -3.019284e-01 1.273312e-01 -1.819014e-01 1.594281e-01 2.581938e-01 6.122127e-01 3.560088e-01 3.693379e-02 3.126754e-02 -2.345149e-01 -1.156294e-01 2.723102e-02 -1.263202e-01 7.886441e-02 4.234622e-02 5.321242e-02 9.932906e-02 -1.995241e-02 3.166853e-01
<VARIANCE> 39
 7.981613e+01 5.945109e+01 3.458517e+01 2.329189e+01 3.109016e+01 2.923851e+01 2.376396e+01 2.176330e+01 2.918248e+01 3.211105e+01 1.657208e+01 1.776875e+01 7.692203e+01 3.428659e+00 5.407639e+00 3.509935e+00 3.027898e+00 3.433679e+00 4.098158e+00 1.994496e+00 2.313148e+00 2.536188e+00 4.010869e+00 1.652103e+00 2.252824e+00 3.351510e+00 6.271774e-01 7.599881e-01 6.117079e-01 4.931675e-01 6.395484e-01 5.758812e-01 3.875627e-01 4.107852e-01 3.641203e-01 5.839424e-01 3.620279e-01 3.768552e-01 7.339162e-01
<GCONST> 1.224397e+02
<STATE> 3
<MEAN> 39
 1.310598e+01 -9.299306e+00 8.176348e+00 -8.664942e+00 -1.266116e+01 9.076414e+00 -1.257524e+01 2.873817e+00 6.971916e+00 -5.167067e+00 5.130634e+00 -3.545026e+00 5.226905e+01 2.706749e-02 1.056700e-01 -1.438473e-01 3.616161e-03 1.605803e-01 9.543896e-02 1.910685e-01 1.102469e-01 -2.776790e-02 6.854574e-02 -1.810519e-02 -2.614559e-03 -8.601191e-02 -1.014372e-01 4.183776e-02 -5.111990e-03 8.534191e-02 6.560916e-02 -3.171337e-02 5.621759e-02 -1.251373e-02 -4.938950e-02 6.544178e-03 -1.851314e-02 1.012692e-02 -1.114602e-01
<VARIANCE> 39
 5.693968e+01 5.027843e+01 4.014894e+01 2.932624e+01 2.224686e+01 2.822492e+01 3.333085e+01 3.086844e+01 4.170642e+01 2.509980e+01 3.082752e+01 1.978253e+01 6.883288e+01 2.024818e+00 2.604259e+00 2.144735e+00 2.131310e+00 1.640484e+00 2.256648e+00 2.257456e+00 1.813952e+00 1.984001e+00 1.747978e+00 1.769596e+00 1.298438e+00 2.967249e+00 2.680891e-01 4.752682e-01 3.757807e-01 3.308393e-01 3.199989e-01 4.802602e-01 3.957520e-01 3.123848e-01 3.260256e-01 3.640292e-01 2.931801e-01 2.427000e-01 3.067609e-01
<GCONST> 1.126846e+02
<STATE> 4
<MEAN> 39
 -3.590169e+00 -5.666788e+00 5.666865e+00 -1.614239e+00 -7.417066e+00 7.867517e+00 -5.119184e+00 1.838923e+00 3.733153e+00 -4.020933e+00 2.408568e+00 -2.274942e+00 3.408295e+01 -2.875891e-01 3.618500e-02 3.593753e-02 3.296080e-01 2.324628e-01 -8.641629e-02 1.657975e-01 -5.510806e-02 -1.827237e-01 -9.754739e-02 -9.139220e-02 2.806843e-02 -2.708715e-01 1.746709e-01 -7.242231e-02 6.707571e-02 -1.272621e-01 -1.663525e-01 2.668497e-03 -7.272667e-02 2.897370e-02 5.696334e-02 -4.144714e-02 4.464122e-02 -3.535102e-02 1.868662e-01
<VARIANCE> 39
 3.443847e+01 2.718091e+01 2.007824e+01 1.847176e+01 3.065457e+01 2.982574e+01 1.643620e+01 2.414139e+01 2.386238e+01 1.866285e+01 1.188616e+01 1.370540e+01 3.242088e+01 1.108836e+00 1.159850e+00 1.389122e+00 1.407697e+00 1.795608e+00 1.601717e+00 1.937744e+00 2.030041e+00 2.243663e+00 1.656037e+00 1.199595e+00 1.621122e+00 8.442997e-01 2.126413e-01 2.489037e-01 2.602264e-01 3.057929e-01 3.449354e-01 3.282305e-01 3.445337e-01 3.988920e-01 4.160822e-01 3.211757e-01 2.428480e-01 3.602685e-01 2.094437e-01
<GCONST> 1.014186e+02
<TRANSP> 5
 0.000000e+00 1.000000e+00 0.000000e+00 0.000000e+00 0.000000e+00
 0.000000e+00 4.184299e-01 5.815701e-01 0.000000e+00 0.000000e+00
 0.000000e+00 0.000000e+00 9.123759e-01 8.762410e-02 0.000000e+00
 0.000000e+00 0.000000e+00 0.000000e+00 6.753680e-01 3.246320e-01
 0.000000e+00 0.000000e+00 0.000000e+00 0.000000e+00 0.000000e+00
<ENDHMM>
~h "sil"
<BEGINHMM>
<NUMSTATES> 5
<STATE> 2
<MEAN> 39
 -3.026822e+00 -4.126695e+00 4.777176e+00 1.861449e-01 -5.702384e+00 5.363167e+00 -4.951387e+00 1.446903e+00 1.517663e+00 -4.548260e+00 1.642010e+00 -2.635998e+00 3.350570e+01 4.141299e-01 -4.173240e-01 -5.661182e-01 -5.963217e-01 -6.070773e-01 -1.722908e-01 -4.447049e-02 -8.235370e-02 2.190720e-01 7.650255e-02 -6.215040e-02 2.755359e-02 5.178595e-01 5.878879e-01 -3.281376e-01 2.590418e-01 -3.982219e-01 -4.168993e-01 1.744954e-01 -3.550255e-01 5.617346e-02 1.663518e-01 -4.909650e-02 1.513103e-01 -1.025241e-01 7.953641e-01
<VARIANCE> 39
 7.688255e+01 2.671940e+01 3.589111e+01 1.697468e+01 2.222528e+01 1.805333e+01 2.900488e+01 2.224530e+01 2.052176e+01 1.882263e+01 1.348630e+01 1.426943e+01 5.870493e+01 4.705835e+00 4.535631e+00 2.400888e+00 3.388998e+00 3.026324e+00 2.790902e+00 3.290908e+00 2.728126e+00 2.663887e+00 2.314573e+00 1.539898e+00 1.879685e+00 6.877300e+00 6.368134e-01 7.072773e-01 4.957328e-01 4.194539e-01 4.428728e-01 4.564453e-01 5.962834e-01 4.165026e-01 3.493740e-01 3.538123e-01 3.307095e-01 3.872465e-01 8.412187e-01
<GCONST> 1.180873e+02
<STATE> 3
<MEAN> 39
 1.177276e+01 -9.098857e+00 9.490715e+00 -7.702194e+00 -1.446930e+01 7.650160e+00 -1.118540e+01 1.919840e+00 4.637071e+00 -6.459900e+00 3.188942e+00 -4.959232e+00 5.168096e+01 -2.230186e-01 5.352375e-02 -1.542721e-01 5.999900e-02 1.520247e-01 2.495853e-02 1.582226e-01 8.423116e-02 8.468284e-03 -5.677099e-03 -1.194089e-01 -1.362561e-02 -2.731017e-01 -1.334247e-01 6.499597e-02 7.844733e-03 1.044817e-01 1.116737e-01 -1.975692e-02 3.924778e-02 -8.057808e-03 -4.575889e-02 1.628831e-02 -5.560630e-04 1.554476e-02 -1.550066e-01
<VARIANCE> 39
 6.149324e+01 4.739650e+01 8.386954e+01 3.576000e+01 6.252198e+01 3.556339e+01 3.856193e+01 4.540673e+01 3.670609e+01 2.781842e+01 3.203182e+01 2.312911e+01 1.129902e+02 1.973552e+00 2.542106e+00 3.111911e+00 2.156074e+00 2.848912e+00 2.131047e+00 2.173059e+00 2.241209e+00 1.979951e+00 1.827099e+00 1.858370e+00 1.637399e+00 4.038576e+00 2.125445e-01 3.970437e-01 4.464636e-01 3.320627e-01 4.208215e-01 3.910993e-01 3.562614e-01 3.563356e-01 3.307010e-01 3.175530e-01 3.330762e-01 3.242391e-01 3.568269e-01
<GCONST> 1.180376e+02
<STATE> 4
<MEAN> 39
 -4.357995e+00 -3.641400e+00 5.196683e+00 4.446514e-01 -4.453831e+00 6.550637e+00 -4.299358e+00 2.226023e+00 1.289516e+00 -4.208354e+00 2.357750e+00 -2.697503e+00 3.229336e+01 -5.929069e-02 3.391078e-02 4.013611e-02 3.647041e-02 3.272430e-02 -1.891586e-02 -3.110284e-03 2.463146e-04 -1.128260e-02 1.697556e-02 1.522804e-02 8.285202e-03 -4.927467e-02 1.403812e-02 -3.450633e-03 8.919038e-05 -6.017152e-03 -5.933243e-03 3.451366e-03 -2.856815e-04 -1.089020e-04 6.009124e-03 -2.891615e-03 5.641039e-04 -3.304012e-04 1.325932e-02
<VARIANCE> 39
 7.684444e+00 1.033880e+01 1.091513e+01 1.046572e+01 1.130828e+01 1.343318e+01 1.374038e+01 1.520130e+01 1.564030e+01 1.545127e+01 1.443470e+01 1.287124e+01 3.894165e+00 2.318926e-01 4.342501e-01 5.953566e-01 7.589015e-01 9.700081e-01 1.126264e+00 1.161517e+00 1.350124e+00 1.439224e+00 1.385489e+00 1.406991e+00 1.249286e+00 8.043515e-02 4.266211e-02 8.672278e-02 1.194014e-01 1.507640e-01 1.987875e-01 2.297597e-01 2.343843e-01 2.709894e-01 2.914599e-01 2.801616e-01 2.958282e-01 2.558784e-01 1.486122e-02
<GCONST> 7.465460e+01
<TRANSP> 5
 0.000000e+00 1.000000e+00 0.000000e+00 0.000000e+00 0.000000e+00
 0.000000e+00 4.822548e-01 5.177452e-01 0.000000e+00 0.000000e+00
 0.000000e+00 0.000000e+00 8.814051e-01 1.185949e-01 0.000000e+00
 0.000000e+00 0.000000e+00 0.000000e+00 9.785355e-01 2.146450e-02
 0.000000e+00 0.000000e+00 0.000000e+00 0.000000e+00 0.000000e+00
<ENDHMM>
