~o
<STREAMINFO> 1 15
<VECSIZE> 15<NULLD><USER><DIAGC>
~h "d"
<BEGINHMM>
<NUMSTATES> 5
<STATE> 2
<MEAN> 15
 2.189121e-01 -1.612692e-01 -3.292263e-02 1.238881e-01 5.611883e-03 3.097645e-02 9.523752e-02 1.870373e-02 2.378518e-02 -6.364767e-02 -2.508811e-01 -2.287351e-02 7.235840e-02 8.393091e-02 -1.603990e-02
<VARIANCE> 15
 5.746396e-01 4.331803e-01 3.429831e-02 1.487454e-01 7.455163e-02 9.737992e-02 2.605682e-01 3.392168e-01 1.824696e-01 2.387585e-01 2.028611e-01 2.311528e-01 2.065279e-01 1.196913e-01 3.013997e-02
<GCONST> 1.525104e-01
<STATE> 3
<MEAN> 15
 2.954203e-01 -5.230783e-01 1.451574e-02 4.175464e-03 -1.481695e-02 -7.676274e-02 -6.540577e-02 6.036533e-02 2.945377e-02 7.316770e-02 1.124363e-01 4.626573e-02 6.221849e-02 -5.328154e-04 2.249726e-02
<VARIANCE> 15
 2.235586e+00 2.476116e+00 2.884949e-01 3.300047e-01 3.579414e-01 3.355754e-01 3.832880e-01 3.652319e-01 7.904795e-01 4.233616e-01 7.605230e-01 6.809129e-01 4.696135e-01 3.607949e-01 2.278395e-01
<GCONST> 1.783501e+01
<STATE> 4
<MEAN> 15
 1.229292e-02 3.799579e-02 -6.212163e-03 -3.061287e-02 -2.755394e-02 4.177374e-02 6.200816e-02 2.050051e-02 1.983193e-02 -6.340922e-03 5.124899e-02 -1.073079e-03 -4.246577e-02 -6.007663e-02 1.114301e-02
<VARIANCE> 15
 7.376606e-01 6.523731e-02 1.380877e-02 3.785033e-02 6.269146e-02 8.560567e-02 1.117334e-01 1.064880e-01 1.996933e-01 2.332642e-01 2.700841e-01 2.558751e-01 2.160251e-01 1.336718e-01 7.253896e-03
<GCONST> -6.890893e+00
<TRANSP> 5
 0.000000e+00 1.000000e+00 0.000000e+00 0.000000e+00 0.000000e+00
 0.000000e+00 5.602316e-01 4.397685e-01 0.000000e+00 0.000000e+00
 0.000000e+00 0.000000e+00 7.703004e-01 2.296996e-01 0.000000e+00
 0.000000e+00 0.000000e+00 0.000000e+00 7.528086e-01 2.471914e-01
 0.000000e+00 0.000000e+00 0.000000e+00 0.000000e+00 0.000000e+00
<ENDHMM>
~h "s"
<BEGINHMM>
<NUMSTATES> 5
<STATE> 2
<MEAN> 15
 3.048775e-01 -4.895918e-01 -2.986843e-02 2.379311e-02 1.987837e-02 -2.768466e-02 -5.258542e-02 7.877821e-02 -1.040089e-02 -2.690805e-02 7.440400e-03 -5.111088e-03 1.772719e-01 -5.193509e-02 -4.849961e-02
<VARIANCE> 15
 8.606880e-01 3.246961e-01 2.524898e-02 1.050048e-01 6.720874e-02 1.452101e-01 1.991893e-01 3.488362e-01 1.807958e-01 2.603721e-01 1.733109e-01 1.520479e-01 2.159839e-01 2.143156e-01 2.749061e-02
<GCONST> -2.946577e-01
<STATE> 3
<MEAN> 15
 3.184104e-01 -5.023149e-01 6.085375e-03 -2.687558e-02 2.241295e-02 -3.081558e-02 -1.532209e-02 4.869640e-02 3.734668e-02 -2.533236e-02 1.837795e-02 8.287707e-02 1.403066e-02 -1.531522e-02 1.559607e-02
<VARIANCE> 15
 2.562928e+00 1.934824e+00 2.840747e-01 2.327078e-01 1.746610e-01 4.001038e-01 2.756351e-01 4.615929e-01 4.026677e-01 3.100652e-01 3.416164e-01 5.984084e-01 3.339448e-01 4.366065e-01 1.654664e-01
<GCONST> 1.433750e+01
<STATE> 4
<MEAN> 15
 -3.889928e-02 -9.007957e-02 4.167565e-02 4.145458e-02 -3.711123e-02 -9.466893e-03 6.434783e-03 -5.152622e-02 -1.773922e-02 -3.623468e-02 -4.874261e-02 -6.757877e-02 -1.533578e-01 -1.127210e-01 3.682644e-02
<VARIANCE> 15
 1.145683e+00 3.572522e-02 1.328201e-02 2.996295e-02 7.944635e-02 4.362563e-02 9.130062e-02 2.588607e-01 1.026269e-01 2.100135e-01 1.588116e-01 1.181602e-01 1.937733e-01 1.588846e-01 1.032215e-02
<GCONST> -8.733822e+00
<TRANSP> 5
 0.000000e+00 1.000000e+00 0.000000e+00 0.000000e+00 0.000000e+00
 0.000000e+00 6.807954e-01 3.192046e-01 0.000000e+00 0.000000e+00
 0.000000e+00 0.000000e+00 8.534583e-01 1.465418e-01 0.000000e+00
 0.000000e+00 0.000000e+00 0.000000e+00 7.190074e-01 2.809926e-01
 0.000000e+00 0.000000e+00 0.000000e+00 0.000000e+00 0.000000e+00
<ENDHMM>
~h "t"
<BEGINHMM>
<NUMSTATES> 5
<STATE> 2
<MEAN> 15
 1.416717e-02 1.225303e-01 -2.078554e-02 3.187752e-02 -6.506506e-03 2.160775e-03 -5.071290e-02 -3.992366e-02 -1.546949e-02 3.232565e-01 3.742927e-01 7.942769e-02 3.565616e-03 3.882829e-02 5.584572e-03
<VARIANCE> 15
 1.420076e+00 4.323146e-02 2.527226e-02 7.323095e-02 1.372986e-01 2.273146e-01 1.258578e-01 3.203858e-01 1.392918e-01 1.703862e-01 2.346483e-01 2.134027e-01 2.869894e-01 2.883191e-01 1.288850e-02
<GCONST> -1.770887e+00
<STATE> 3
<MEAN> 15
 2.239035e-02 -1.538524e-02 -6.528997e-04 9.202038e-03 -2.081222e-02 -1.440393e-04 2.555970e-02 4.299870e-02 -1.250377e-03 -3.906375e-02 -1.318224e-02 2.324248e-02 6.207110e-03 5.591460e-03 -6.758941e-03
<VARIANCE> 15
 2.777116e+00 2.614812e+00 4.676419e-01 4.464571e-01 2.704457e-01 4.008746e-01 3.592117e-01 2.789453e-01 7.635894e-01 5.788518e-01 5.350449e-01 7.636429e-01 5.596441e-01 5.181069e-01 3.024714e-01
<GCONST> 1.931664e+01
<STATE> 4
<MEAN> 15
 7.260457e-02 -2.419650e-02 -1.626513e-02 -1.064035e-02 7.489530e-03 -4.146045e-02 1.362697e-02 -2.136765e-02 -2.216505e-02 1.151067e-01 1.325603e-01 -7.183427e-04 -8.081171e-02 -4.180107e-02 -2.691406e-03
<VARIANCE> 15
 9.614178e-01 2.278221e-02 1.242622e-02 4.533405e-02 5.937909e-02 9.144752e-02 1.189755e-01 1.297150e-01 1.328295e-01 2.147672e-01 2.592013e-01 2.244691e-01 3.994849e-01 2.100370e-01 8.194096e-03
<GCONST> -6.805117e+00
<TRANSP> 5
 0.000000e+00 1.000000e+00 0.000000e+00 0.000000e+00 0.000000e+00
 0.000000e+00 3.968276e-01 6.031724e-01 0.000000e+00 0.000000e+00
 0.000000e+00 0.000000e+00 9.252689e-01 7.473107e-02 0.000000e+00
 0.000000e+00 0.000000e+00 0.000000e+00 7.735614e-01 2.264386e-01
 0.000000e+00 0.000000e+00 0.000000e+00 0.000000e+00 0.000000e+00
<ENDHMM>
~h "#N"
<BEGINHMM>
<NUMSTATES> 5
<STATE> 2
<MEAN> 15
 -4.315896e-02 -3.774200e-02 -3.822027e-02 -3.011584e-02 5.544835e-03 1.831520e-03 -9.856589e-03 -2.307578e-02 -9.901715e-03 -3.297279e-02 6.646260e-04 -1.451860e-02 4.356292e-03 4.584733e-02 3.120668e-02
<VARIANCE> 15
 1.259373e+00 2.520468e-01 3.575831e-02 8.768087e-02 1.037099e-01 1.512336e-01 1.960389e-01 3.057778e-01 3.347853e-01 2.644285e-01 4.182668e-01 1.564182e-01 1.903863e-01 2.355188e-01 2.328994e-02
<GCONST> 1.670473e+00
<STATE> 3
<MEAN> 15
 -2.056800e-03 -2.352875e-02 -2.707315e-03 -8.732653e-04 -2.405862e-03 2.691644e-03 2.891667e-03 6.867751e-03 4.742432e-03 2.069149e-04 -3.924658e-03 -5.773370e-03 2.657586e-03 -3.418218e-03 -1.470013e-03
<VARIANCE> 15
 2.361769e+00 1.893628e+00 3.005109e-01 3.517027e-01 2.519390e-01 3.481933e-01 2.969864e-01 3.863556e-01 5.626944e-01 4.095629e-01 4.728031e-01 6.325685e-01 4.634612e-01 4.125950e-01 2.112571e-01
<GCONST> 1.633646e+01
<STATE> 4
<MEAN> 15
 -1.647336e-02 -1.569975e-02 -5.339857e-04 1.321797e-03 1.073739e-03 4.697191e-03 6.328004e-03 9.721324e-03 1.832737e-03 -3.366184e-03 -4.965742e-03 -1.016706e-02 -1.746386e-02 -8.566323e-03 1.674115e-03
<VARIANCE> 15
 9.248829e-01 2.770270e-02 1.292410e-02 2.954921e-02 7.063325e-02 8.220720e-02 9.347926e-02 1.218311e-01 1.551399e-01 1.762530e-01 2.401444e-01 2.011036e-01 1.835587e-01 1.807826e-01 1.000000e-02
<GCONST> -8.230984e+00
<TRANSP> 5
 0.000000e+00 1.000000e+00 0.000000e+00 0.000000e+00 0.000000e+00
 0.000000e+00 9.732143e-01 2.678571e-02 0.000000e+00 0.000000e+00
 0.000000e+00 0.000000e+00 9.965358e-01 3.464203e-03 0.000000e+00
 0.000000e+00 0.000000e+00 0.000000e+00 9.901639e-01 9.836067e-03
 0.000000e+00 0.000000e+00 0.000000e+00 0.000000e+00 0.000000e+00
<ENDHMM>
~h "ah"
<BEGINHMM>
<NUMSTATES> 5
<STATE> 2
<MEAN> 15
 6.308283e-02 1.184106e-01 -4.978856e-02 -5.383802e-02 -7.937474e-02 1.093107e-01 -5.486931e-02 -4.218474e-02 6.061175e-02 -2.746442e-02 -7.970302e-02 -9.364612e-02 1.642817e-01 1.223074e-02 4.715241e-02
<VARIANCE> 15
 1.361993e+00 1.094905e-01 3.463621e-02 6.936122e-02 1.328848e-01 1.848265e-01 1.829555e-01 2.894002e-01 3.242680e-01 2.925273e-01 2.198452e-01 2.202755e-01 1.568298e-01 3.528733e-01 2.328448e-02
<GCONST> 9.515376e-01
<STATE> 3
<MEAN> 15
 -9.248652e-02 9.407458e-02 1.895256e-02 1.791314e-02 -2.756709e-03 -4.889844e-02 -6.228582e-03 3.751833e-02 7.540402e-03 -3.606870e-02 -4.272647e-02 -1.216927e-02 1.709123e-02 3.549666e-02 -6.679272e-03
<VARIANCE> 15
 2.770673e+00 2.488589e+00 4.639755e-01 5.257979e-01 2.815866e-01 4.273656e-01 2.883873e-01 5.211244e-01 7.765669e-01 3.557318e-01 5.045072e-01 7.303637e-01 5.203074e-01 4.909069e-01 3.095293e-01
<GCONST> 1.925318e+01
<STATE> 4
<MEAN> 15
 9.771007e-02 -3.702107e-03 -1.038257e-03 -1.020184e-02 1.447007e-02 -1.301756e-02 -2.802422e-02 4.659118e-02 1.590266e-02 7.216112e-02 2.107529e-02 -7.025693e-02 1.211609e-02 3.167358e-02 -2.954755e-03
<VARIANCE> 15
 1.127426e+00 3.307834e-02 1.540710e-02 2.794996e-02 9.454887e-02 7.586250e-02 1.149862e-01 1.390910e-01 1.381394e-01 1.912093e-01 2.662522e-01 1.894325e-01 1.893819e-01 2.146928e-01 7.289143e-03
<GCONST> -7.288910e+00
<TRANSP> 5
 0.000000e+00 1.000000e+00 0.000000e+00 0.000000e+00 0.000000e+00
 0.000000e+00 5.578787e-01 4.421212e-01 0.000000e+00 0.000000e+00
 0.000000e+00 0.000000e+00 9.040074e-01 9.599257e-02 0.000000e+00
 0.000000e+00 0.000000e+00 0.000000e+00 7.473080e-01 2.526921e-01
 0.000000e+00 0.000000e+00 0.000000e+00 0.000000e+00 0.000000e+00
<ENDHMM>
~h "uh"
<BEGINHMM>
<NUMSTATES> 5
<STATE> 2
<MEAN> 15
 -2.601577e-01 1.057171e-01 2.009005e-02 -6.817741e-02 1.072578e-01 1.558352e-01 -6.407586e-02 -2.910454e-01 -4.555576e-02 1.187256e-01 -1.343859e-01 1.114828e-01 -7.168977e-03 -1.852031e-01 3.744686e-02
<VARIANCE> 15
 1.549698e+00 2.209845e-01 2.018808e-02 8.008362e-02 8.047944e-02 1.503961e-01 2.499086e-01 2.225618e-01 1.059511e-01 4.518644e-01 3.241798e-01 3.342498e-01 3.518794e-01 2.846054e-01 1.790847e-02
<GCONST> 1.180684e+00
<STATE> 3
<MEAN> 15
 -4.681313e-01 2.587446e-01 -1.806650e-02 -3.124352e-02 -1.664561e-02 1.077572e-01 -5.995248e-02 -8.555792e-02 -1.355357e-02 -9.123375e-02 -4.758827e-02 -6.046809e-02 -8.990154e-02 2.444399e-02 -1.207974e-02
<VARIANCE> 15
 3.077195e+00 1.816152e+00 3.083737e-01 3.523863e-01 2.155989e-01 3.011784e-01 3.654829e-01 3.096954e-01 6.538672e-01 4.972577e-01 4.428052e-01 6.720280e-01 5.510246e-01 5.180529e-01 2.100108e-01
<GCONST> 1.700650e+01
<STATE> 4
<MEAN> 15
 -3.710691e-02 -9.715797e-03 -1.739292e-02 -1.580239e-03 7.771970e-03 2.091933e-02 -5.082116e-03 -4.809151e-03 2.925600e-02 -4.671489e-02 -3.185526e-02 -5.298494e-02 -1.528404e-02 3.879748e-02 -1.646070e-03
<VARIANCE> 15
 8.231331e-01 4.233802e-02 1.169054e-02 4.223407e-02 5.834742e-02 7.466696e-02 1.267953e-01 1.327150e-01 1.838970e-01 1.669881e-01 2.555598e-01 2.689188e-01 2.289214e-01 1.486757e-01 1.386974e-02
<GCONST> -6.742112e+00
<TRANSP> 5
 0.000000e+00 1.000000e+00 0.000000e+00 0.000000e+00 0.000000e+00
 0.000000e+00 5.087790e-01 4.912210e-01 0.000000e+00 0.000000e+00
 0.000000e+00 0.000000e+00 7.803456e-01 2.196545e-01 0.000000e+00
 0.000000e+00 0.000000e+00 0.000000e+00 8.356617e-01 1.643382e-01
 0.000000e+00 0.000000e+00 0.000000e+00 0.000000e+00 0.000000e+00
<ENDHMM>
~h "uw"
<BEGINHMM>
<NUMSTATES> 5
<STATE> 2
<MEAN> 15
 2.179441e-01 9.892586e-02 -4.149081e-02 -8.916773e-03 4.158979e-02 1.570922e-01 4.133451e-02 -1.792990e-01 -8.319588e-02 -8.266002e-02 1.365505e-01 1.234642e-01 3.186106e-02 -2.268317e-02 1.301643e-02
<VARIANCE> 15
 6.753976e-01 2.849269e-01 5.196450e-02 8.965746e-02 9.324905e-02 1.377112e-01 1.820102e-01 2.477310e-01 2.739765e-01 1.841329e-01 2.529713e-01 2.358889e-01 1.713275e-01 1.959708e-01 1.591443e-02
<GCONST> -2.431371e-01
<STATE> 3
<MEAN> 15
 2.384854e-02 1.293995e-01 2.508203e-02 1.299543e-02 3.780890e-02 -1.229997e-01 4.519282e-02 4.356937e-02 1.249760e-03 7.160344e-02 -9.130380e-03 2.941884e-02 5.846641e-02 -1.350635e-03 -1.214162e-02
<VARIANCE> 15
 3.269652e+00 2.999240e+00 3.799489e-01 5.401877e-01 4.658436e-01 4.813775e-01 4.340110e-01 3.749029e-01 9.898083e-01 7.875336e-01 1.176061e+00 8.980556e-01 6.813443e-01 5.476695e-01 3.321320e-01
<GCONST> 2.267442e+01
<STATE> 4
<MEAN> 15
 1.784581e-02 6.032936e-03 8.759776e-03 -2.911336e-02 1.906523e-02 -7.402075e-02 -4.063056e-02 -2.420567e-02 5.180419e-02 4.125893e-02 -8.475280e-02 7.552110e-04 -6.475193e-02 -1.859918e-02 4.750386e-03
<VARIANCE> 15
 1.062814e+00 3.762433e-02 9.526771e-03 3.094839e-02 6.777049e-02 1.577562e-01 1.061843e-01 1.357935e-01 1.927965e-01 2.143926e-01 3.109147e-01 1.911634e-01 1.811934e-01 1.589562e-01 8.040454e-03
<GCONST> -6.937160e+00
<TRANSP> 5
 0.000000e+00 1.000000e+00 0.000000e+00 0.000000e+00 0.000000e+00
 0.000000e+00 6.454874e-01 3.545126e-01 0.000000e+00 0.000000e+00
 0.000000e+00 0.000000e+00 8.574272e-01 1.425729e-01 0.000000e+00
 0.000000e+00 0.000000e+00 0.000000e+00 6.399353e-01 3.600647e-01
 0.000000e+00 0.000000e+00 0.000000e+00 0.000000e+00 0.000000e+00
<ENDHMM>
~h "sil"
<BEGINHMM>
<NUMSTATES> 5
<STATE> 2
<MEAN> 15
 -3.136301e-01 -7.113902e-02 3.799785e-03 -1.110769e-01 4.563220e-02 2.071152e-01 1.266392e-01 -2.018183e-01 -2.037989e-01 7.687896e-02 8.725711e-02 6.900793e-03 -1.299389e-01 -7.089271e-02 4.138711e-02
<VARIANCE> 15
 1.761880e+00 4.542276e-01 3.470605e-02 5.603827e-02 1.583151e-01 1.871593e-01 1.590148e-01 4.062597e-01 3.959609e-01 2.334161e-01 3.749695e-01 2.164108e-01 2.336160e-01 1.813900e-01 1.796308e-02
<GCONST> 2.770855e+00
<STATE> 3
<MEAN> 15
 -1.287925e-01 3.235194e-02 -3.127944e-02 -1.554446e-02 -1.260156e-02 1.132934e-02 1.262892e-02 1.515599e-02 1.699960e-02 -1.976469e-02 6.275950e-03 -2.467213e-02 -2.542651e-02 1.836719e-02 5.885277e-03
<VARIANCE> 15
 2.519621e+00 2.180993e+00 3.553313e-01 4.328065e-01 3.347552e-01 4.284107e-01 3.867821e-01 5.023350e-01 5.863881e-01 4.088088e-01 4.859818e-01 7.784259e-01 4.816419e-01 4.444039e-01 2.598706e-01
<GCONST> 1.852997e+01
<STATE> 4
<MEAN> 15
 -1.567262e-02 -1.325130e-02 -4.682282e-03 9.858808e-03 1.201980e-03 1.424367e-02 8.893225e-03 6.645202e-03 -2.301792e-03 1.101316e-03 -2.015939e-02 -2.247649e-02 -1.138392e-02 -8.544934e-03 -2.583716e-03
<VARIANCE> 15
 9.416043e-01 2.625808e-02 1.306173e-02 3.360559e-02 7.067378e-02 9.238824e-02 8.029483e-02 1.190921e-01 1.453242e-01 2.190605e-01 2.319173e-01 2.129538e-01 1.792158e-01 1.886048e-01 6.784711e-03
<GCONST> -8.379873e+00
<TRANSP> 5
 0.000000e+00 1.000000e+00 0.000000e+00 0.000000e+00 0.000000e+00
 0.000000e+00 4.746868e-01 5.253132e-01 0.000000e+00 0.000000e+00
 0.000000e+00 0.000000e+00 9.388642e-01 6.113580e-02 0.000000e+00
 0.000000e+00 0.000000e+00 0.000000e+00 9.413381e-01 5.866182e-02
 0.000000e+00 0.000000e+00 0.000000e+00 0.000000e+00 0.000000e+00
<ENDHMM>
