~o
<STREAMINFO> 1 15
<VECSIZE> 15<NULLD><USER><DIAGC>
~h "d"
<BEGINHMM>
<NUMSTATES> 5
<STATE> 2
<MEAN> 15
 3.382746e-01 -6.337815e-01 7.537764e-03 2.519887e-01 -5.165543e-02 -9.565499e-03 5.744598e-02 1.481225e-01 4.754443e-02 -2.107960e-01 -4.301986e-01 -5.125689e-02 4.183010e-01 1.144351e-01 -1.132936e-01
<VARIANCE> 15
 3.689952e-01 3.735107e-01 3.428565e-02 1.077092e-01 6.873323e-02 6.071740e-02 2.398781e-01 4.613051e-01 2.100934e-01 1.432213e-01 1.197704e-01 2.098301e-01 3.117722e-01 9.991129e-02 3.843208e-02
<GCONST> -1.610360e+00
<STATE> 3
<MEAN> 15
 8.183618e-01 -1.294583e+00 5.940684e-03 -3.853161e-02 2.741779e-02 -1.570769e-01 -1.581886e-01 3.833777e-02 9.371820e-02 1.522871e-01 1.448248e-01 1.675140e-01 5.208842e-02 -1.011072e-02 9.118673e-02
<VARIANCE> 15
 7.505377e-01 1.034030e+00 1.804803e-01 1.628495e-01 3.217069e-01 3.219243e-01 4.263663e-01 2.950839e-01 5.696994e-01 2.003358e-01 8.628111e-01 3.965419e-01 2.428477e-01 1.218660e-01 1.044931e-01
<GCONST> 1.042536e+01
<STATE> 4
<MEAN> 15
 -4.647099e-03 5.970497e-02 5.249312e-03 -4.484912e-02 -5.902342e-02 3.989214e-02 8.253915e-02 3.002681e-02 2.051302e-02 1.252000e-02 1.103473e-01 -5.380208e-02 -7.936349e-02 -5.481212e-02 3.403560e-02
<VARIANCE> 15
 7.129417e-01 9.874036e-02 1.474192e-02 4.673387e-02 6.916338e-02 9.498820e-02 1.120461e-01 8.610751e-02 2.100369e-01 2.952333e-01 2.602648e-01 3.123869e-01 2.883228e-01 1.020744e-01 5.220199e-03
<GCONST> -6.103076e+00
<TRANSP> 5
 0.000000e+00 1.000000e+00 0.000000e+00 0.000000e+00 0.000000e+00
 0.000000e+00 6.640069e-01 3.359931e-01 0.000000e+00 0.000000e+00
 0.000000e+00 0.000000e+00 7.518628e-01 2.481372e-01 0.000000e+00
 0.000000e+00 0.000000e+00 0.000000e+00 7.217618e-01 2.782382e-01
 0.000000e+00 0.000000e+00 0.000000e+00 0.000000e+00 0.000000e+00
<ENDHMM>
~h "s"
<BEGINHMM>
<NUMSTATES> 5
<STATE> 2
<MEAN> 15
 1.844127e-01 -5.264734e-01 -1.863586e-02 8.854322e-02 1.259384e-02 -9.371930e-02 -4.250868e-02 9.994655e-02 -8.322781e-02 1.172441e-02 6.047354e-02 -2.016836e-02 2.340572e-01 3.026592e-02 -8.666982e-02
<VARIANCE> 15
 9.953581e-01 3.283826e-01 2.475793e-02 9.935223e-02 5.676509e-02 1.419772e-01 2.435784e-01 2.902653e-01 1.914902e-01 2.821269e-01 1.428233e-01 1.564912e-01 1.857788e-01 2.145550e-01 2.772968e-02
<GCONST> -5.548208e-01
<STATE> 3
<MEAN> 15
 3.211472e-01 -7.991793e-01 -2.093538e-02 -4.120652e-02 2.709078e-02 -2.818741e-02 -2.181044e-02 6.957489e-02 4.115663e-02 -8.154212e-03 2.813610e-02 6.739666e-02 4.194997e-02 6.835074e-03 1.029570e-02
<VARIANCE> 15
 2.831944e+00 1.379792e+00 7.515478e-02 2.027354e-01 1.213729e-01 1.859518e-01 2.111050e-01 2.740823e-01 3.135685e-01 2.616254e-01 2.484148e-01 3.621053e-01 3.515413e-01 4.718713e-01 8.496097e-02
<GCONST> 8.935019e+00
<STATE> 4
<MEAN> 15
 -5.715524e-03 -1.401642e-01 7.275949e-02 2.338298e-02 -1.233891e-01 -5.232110e-02 8.109540e-02 4.201159e-02 -1.918536e-02 -7.403407e-02 -8.323061e-02 -1.256755e-01 -1.595984e-01 -1.691254e-01 6.119771e-02
<VARIANCE> 15
 1.221376e+00 2.315091e-02 1.624399e-02 3.308238e-02 5.038413e-02 4.498747e-02 1.109342e-01 3.252558e-01 1.317245e-01 1.986064e-01 1.303338e-01 1.354955e-01 1.853713e-01 1.649454e-01 9.028168e-03
<GCONST> -8.812675e+00
<TRANSP> 5
 0.000000e+00 1.000000e+00 0.000000e+00 0.000000e+00 0.000000e+00
 0.000000e+00 6.887466e-01 3.112533e-01 0.000000e+00 0.000000e+00
 0.000000e+00 0.000000e+00 8.341835e-01 1.658165e-01 0.000000e+00
 0.000000e+00 0.000000e+00 0.000000e+00 7.079484e-01 2.920516e-01
 0.000000e+00 0.000000e+00 0.000000e+00 0.000000e+00 0.000000e+00
<ENDHMM>
~h "t"
<BEGINHMM>
<NUMSTATES> 5
<STATE> 2
<MEAN> 15
 6.881767e-02 1.186445e-01 -3.678820e-02 4.589345e-02 5.184435e-02 -7.536482e-02 -1.248348e-01 -1.787483e-01 8.778775e-02 4.410086e-01 3.289805e-01 -3.486145e-02 -4.421975e-02 1.399270e-01 -2.956766e-02
<VARIANCE> 15
 1.373102e+00 3.798150e-02 2.815147e-02 7.870761e-02 1.431084e-01 2.428852e-01 1.136414e-01 2.406559e-01 1.678909e-01 1.081316e-01 2.782528e-01 3.059462e-01 3.638417e-01 3.998496e-01 1.193088e-02
<GCONST> -1.284762e+00
<STATE> 3
<MEAN> 15
 5.523879e-02 -3.129686e-02 -1.994129e-03 1.749714e-02 -2.642520e-02 1.485958e-03 1.086303e-02 3.511940e-02 1.791004e-02 -3.894164e-02 -2.007261e-02 2.896071e-02 2.432464e-02 7.750980e-03 -7.205405e-03
<VARIANCE> 15
 2.796418e+00 2.756500e+00 5.093032e-01 4.714409e-01 2.798119e-01 3.933056e-01 3.903741e-01 2.971514e-01 8.409655e-01 6.289366e-01 5.699715e-01 7.862328e-01 5.716548e-01 5.206609e-01 3.272994e-01
<GCONST> 2.005446e+01
<STATE> 4
<MEAN> 15
 1.641458e-01 -3.455038e-02 -1.815727e-02 -2.422422e-02 -4.025036e-02 -6.174871e-02 4.351249e-04 -3.802596e-02 -2.381574e-03 1.660621e-01 1.996589e-01 1.428206e-02 -1.070006e-01 -8.420303e-02 1.043275e-02
<VARIANCE> 15
 1.138408e+00 1.890698e-02 1.489724e-02 4.791676e-02 7.169051e-02 8.579274e-02 1.208803e-01 1.609064e-01 1.408591e-01 2.093127e-01 2.594440e-01 2.126079e-01 4.394493e-01 2.419667e-01 7.064420e-03
<GCONST> -6.161725e+00
<TRANSP> 5
 0.000000e+00 1.000000e+00 0.000000e+00 0.000000e+00 0.000000e+00
 0.000000e+00 4.779861e-01 5.220139e-01 0.000000e+00 0.000000e+00
 0.000000e+00 0.000000e+00 9.328554e-01 6.714460e-02 0.000000e+00
 0.000000e+00 0.000000e+00 0.000000e+00 7.801426e-01 2.198574e-01
 0.000000e+00 0.000000e+00 0.000000e+00 0.000000e+00 0.000000e+00
<ENDHMM>
~h "#N"
<BEGINHMM>
<NUMSTATES> 5
<STATE> 2
<MEAN> 15
 -4.315896e-02 -3.774200e-02 -3.822027e-02 -3.011584e-02 5.544835e-03 1.831520e-03 -9.856589e-03 -2.307578e-02 -9.901715e-03 -3.297279e-02 6.646260e-04 -1.451860e-02 4.356292e-03 4.584733e-02 3.120668e-02
<VARIANCE> 15
 1.259373e+00 2.520468e-01 3.575831e-02 8.768087e-02 1.037099e-01 1.512336e-01 1.960389e-01 3.057778e-01 3.347853e-01 2.644285e-01 4.182668e-01 1.564182e-01 1.903863e-01 2.355188e-01 2.328994e-02
<GCONST> 1.670473e+00
<STATE> 3
<MEAN> 15
 -2.056800e-03 -2.352875e-02 -2.707315e-03 -8.732653e-04 -2.405862e-03 2.691644e-03 2.891667e-03 6.867751e-03 4.742432e-03 2.069149e-04 -3.924658e-03 -5.773370e-03 2.657586e-03 -3.418218e-03 -1.470013e-03
<VARIANCE> 15
 2.361769e+00 1.893628e+00 3.005109e-01 3.517027e-01 2.519390e-01 3.481933e-01 2.969864e-01 3.863556e-01 5.626944e-01 4.095629e-01 4.728031e-01 6.325685e-01 4.634612e-01 4.125950e-01 2.112571e-01
<GCONST> 1.633646e+01
<STATE> 4
<MEAN> 15
 -1.647336e-02 -1.569975e-02 -5.339857e-04 1.321797e-03 1.073739e-03 4.697191e-03 6.328004e-03 9.721324e-03 1.832737e-03 -3.366184e-03 -4.965742e-03 -1.016706e-02 -1.746386e-02 -8.566323e-03 1.674115e-03
<VARIANCE> 15
 9.248829e-01 2.770270e-02 1.292410e-02 2.954921e-02 7.063325e-02 8.220720e-02 9.347926e-02 1.218311e-01 1.551399e-01 1.762530e-01 2.401444e-01 2.011036e-01 1.835587e-01 1.807826e-01 1.000000e-02
<GCONST> -8.230984e+00
<TRANSP> 5
 0.000000e+00 1.000000e+00 0.000000e+00 0.000000e+00 0.000000e+00
 0.000000e+00 9.732143e-01 2.678571e-02 0.000000e+00 0.000000e+00
 0.000000e+00 0.000000e+00 9.965358e-01 3.464203e-03 0.000000e+00
 0.000000e+00 0.000000e+00 0.000000e+00 9.901639e-01 9.836067e-03
 0.000000e+00 0.000000e+00 0.000000e+00 0.000000e+00 0.000000e+00
<ENDHMM>
~h "ah"
<BEGINHMM>
<NUMSTATES> 5
<STATE> 2
<MEAN> 15
 1.844735e-01 1.394890e-01 -5.896555e-02 -7.238825e-02 -4.272304e-02 1.536261e-01 -3.894649e-02 4.511144e-03 7.643165e-02 -1.119500e-01 -1.484405e-01 -1.224165e-01 2.084151e-01 -6.261305e-03 5.516624e-02
<VARIANCE> 15
 1.277526e+00 6.863179e-02 3.729700e-02 7.711957e-02 1.452887e-01 1.695874e-01 1.731539e-01 2.714377e-01 3.335149e-01 2.244614e-01 2.339457e-01 2.395111e-01 1.210939e-01 3.645799e-01 2.280702e-02
<GCONST> 1.469951e-01
<STATE> 3
<MEAN> 15
 -5.636939e-02 1.437898e-01 2.238224e-02 1.850409e-02 -4.237353e-03 -5.115056e-02 6.928738e-04 3.951757e-02 -1.214532e-02 -4.248142e-02 -4.920758e-02 -2.340181e-03 1.700324e-02 3.214050e-02 -5.402531e-03
<VARIANCE> 15
 3.060528e+00 2.592370e+00 5.005216e-01 5.516611e-01 2.739176e-01 4.699040e-01 3.202136e-01 5.188953e-01 7.936452e-01 3.423738e-01 5.594074e-01 7.358448e-01 5.269842e-01 5.459301e-01 3.349177e-01
<GCONST> 1.997711e+01
<STATE> 4
<MEAN> 15
 6.546628e-02 8.742276e-05 -2.211573e-02 1.168918e-02 6.296096e-02 3.077781e-03 -7.099928e-02 1.269942e-02 8.219495e-02 2.027160e-01 1.270914e-01 -1.228249e-01 -1.576371e-02 -1.503679e-02 -1.416826e-02
<VARIANCE> 15
 1.327065e+00 5.228197e-02 2.069459e-02 2.202121e-02 1.206798e-01 6.268462e-02 1.107367e-01 1.355122e-01 1.576359e-01 2.463621e-01 3.045633e-01 2.301593e-01 1.977168e-01 3.065603e-01 1.309458e-02
<GCONST> -4.922255e+00
<TRANSP> 5
 0.000000e+00 1.000000e+00 0.000000e+00 0.000000e+00 0.000000e+00
 0.000000e+00 5.487966e-01 4.512034e-01 0.000000e+00 0.000000e+00
 0.000000e+00 0.000000e+00 9.092556e-01 9.074443e-02 0.000000e+00
 0.000000e+00 0.000000e+00 0.000000e+00 6.141722e-01 3.858278e-01
 0.000000e+00 0.000000e+00 0.000000e+00 0.000000e+00 0.000000e+00
<ENDHMM>
~h "uh"
<BEGINHMM>
<NUMSTATES> 5
<STATE> 2
<MEAN> 15
 -6.244324e-01 2.733323e-01 1.944265e-02 -1.912006e-01 2.136290e-01 2.726185e-01 -5.239527e-03 -3.764249e-01 -7.048022e-02 1.314642e-01 -9.881670e-02 2.713130e-01 -1.626859e-01 -4.338634e-01 1.006022e-01
<VARIANCE> 15
 1.188184e+00 2.670542e-01 1.765193e-02 9.901423e-02 7.301902e-02 1.114257e-01 3.009489e-01 1.635696e-01 6.860994e-02 3.792837e-01 2.613411e-01 3.164585e-01 3.647682e-01 2.122731e-01 1.960103e-02
<GCONST> -3.837142e-01
<STATE> 3
<MEAN> 15
 -1.697870e+00 8.695860e-01 -7.686578e-02 -7.520802e-02 9.233076e-03 2.827009e-01 -7.697453e-02 -1.729882e-01 -1.167239e-01 -2.369034e-01 6.056246e-02 -3.299974e-01 -4.597321e-01 1.451660e-01 -4.273446e-02
<VARIANCE> 15
 1.913193e+00 4.213140e-01 2.272966e-02 2.557894e-01 1.081416e-01 6.986936e-02 1.747803e-01 1.903342e-01 2.489849e-01 1.696430e-01 2.805871e-01 4.087011e-01 4.677115e-01 4.543867e-01 7.565369e-02
<GCONST> 4.456062e+00
<STATE> 4
<MEAN> 15
 8.852429e-03 -1.878805e-02 -1.575773e-02 4.711356e-05 -1.103056e-02 8.618942e-03 -1.004437e-02 3.092233e-02 1.030269e-02 -5.509768e-02 -4.381372e-02 -1.520220e-02 3.240396e-02 4.641133e-02 -1.874687e-02
<VARIANCE> 15
 6.730374e-01 4.222221e-02 1.027860e-02 4.536045e-02 5.156142e-02 6.255528e-02 1.282076e-01 1.422919e-01 1.800742e-01 1.570988e-01 2.451440e-01 2.682666e-01 2.181153e-01 1.354970e-01 1.639077e-02
<GCONST> -7.323601e+00
<TRANSP> 5
 0.000000e+00 1.000000e+00 0.000000e+00 0.000000e+00 0.000000e+00
 0.000000e+00 5.566812e-01 4.433188e-01 0.000000e+00 0.000000e+00
 0.000000e+00 0.000000e+00 6.951106e-01 3.048894e-01 0.000000e+00
 0.000000e+00 0.000000e+00 0.000000e+00 8.698459e-01 1.301542e-01
 0.000000e+00 0.000000e+00 0.000000e+00 0.000000e+00 0.000000e+00
<ENDHMM>
~h "uw"
<BEGINHMM>
<NUMSTATES> 5
<STATE> 2
<MEAN> 15
 3.089854e-01 1.483249e-01 -2.614414e-02 -2.011315e-02 6.549152e-02 2.406021e-01 7.581658e-02 -1.937306e-01 -1.118606e-01 -8.570354e-02 1.744168e-01 1.370747e-01 2.298118e-02 2.479140e-02 2.548335e-02
<VARIANCE> 15
 6.447562e-01 2.690639e-01 6.178218e-02 7.320291e-02 9.970562e-02 1.605224e-01 1.524412e-01 2.860714e-01 3.041574e-01 1.919003e-01 1.810202e-01 1.567926e-01 1.607419e-01 1.444379e-01 1.626800e-02
<GCONST> -1.133923e+00
<STATE> 3
<MEAN> 15
 3.695398e-02 2.692927e-01 2.725809e-02 2.064591e-02 3.376438e-02 -1.160822e-01 7.873109e-02 5.147954e-02 -1.769458e-02 6.583995e-02 -1.936787e-02 1.143914e-02 6.047319e-02 1.414714e-02 -1.140245e-02
<VARIANCE> 15
 3.254071e+00 3.342738e+00 4.632048e-01 6.387932e-01 5.074396e-01 5.202151e-01 4.126725e-01 3.600412e-01 1.163544e+00 8.683255e-01 1.168568e+00 9.468651e-01 7.421868e-01 6.056581e-01 3.993277e-01
<GCONST> 2.389246e+01
<STATE> 4
<MEAN> 15
 2.487113e-01 1.255724e-02 1.030814e-02 -3.581157e-02 8.209442e-03 -6.740658e-02 -3.730600e-02 -3.970335e-02 3.956999e-02 2.977329e-02 -1.384094e-01 3.019708e-02 -2.957871e-02 6.570185e-03 4.497209e-03
<VARIANCE> 15
 9.746948e-01 4.193723e-02 8.327320e-03 3.027305e-02 5.322892e-02 1.813129e-01 8.234497e-02 1.648506e-01 2.005301e-01 2.222315e-01 3.642885e-01 2.061853e-01 1.145249e-01 1.734659e-01 7.532540e-03
<GCONST> -7.361882e+00
<TRANSP> 5
 0.000000e+00 1.000000e+00 0.000000e+00 0.000000e+00 0.000000e+00
 0.000000e+00 6.414253e-01 3.585747e-01 0.000000e+00 0.000000e+00
 0.000000e+00 0.000000e+00 8.642029e-01 1.357972e-01 0.000000e+00
 0.000000e+00 0.000000e+00 0.000000e+00 7.044206e-01 2.955794e-01
 0.000000e+00 0.000000e+00 0.000000e+00 0.000000e+00 0.000000e+00
<ENDHMM>
~h "sil"
<BEGINHMM>
<NUMSTATES> 5
<STATE> 2
<MEAN> 15
 -5.531188e-01 3.355506e-02 9.420531e-03 -1.099260e-01 2.179091e-02 1.920045e-01 6.673674e-02 -2.932234e-01 -7.529761e-02 2.199383e-02 9.920612e-02 1.607100e-01 -3.587282e-01 -1.414740e-01 7.939376e-02
<VARIANCE> 15
 1.797012e+00 5.731894e-01 3.573972e-02 5.731774e-02 1.915543e-01 1.643589e-01 1.376990e-01 3.898669e-01 3.232566e-01 1.756953e-01 3.021661e-01 1.775069e-01 3.296277e-01 1.714476e-01 2.386558e-02
<GCONST> 2.621755e+00
<STATE> 3
<MEAN> 15
 -1.565583e-01 5.778444e-02 -3.136576e-02 -2.453062e-02 -1.804296e-02 4.738372e-03 1.570257e-02 3.143868e-02 9.521680e-03 -2.822514e-02 7.730943e-03 -1.852996e-02 -1.594318e-02 1.203039e-02 6.924998e-03
<VARIANCE> 15
 2.279693e+00 2.173597e+00 3.870315e-01 4.162298e-01 3.659045e-01 4.904625e-01 3.877890e-01 5.955663e-01 5.841138e-01 4.412053e-01 4.485199e-01 8.828225e-01 4.574713e-01 3.889310e-01 2.601541e-01
<GCONST> 1.880427e+01
<STATE> 4
<MEAN> 15
 -3.168455e-04 -1.301994e-02 -3.275353e-03 6.124757e-03 6.618328e-03 2.532299e-02 1.065572e-02 -5.179644e-03 -9.043810e-03 7.382258e-03 -1.502888e-02 -2.481306e-02 -1.391172e-02 -1.071333e-02 -2.958702e-03
<VARIANCE> 15
 9.642497e-01 2.219752e-02 1.320884e-02 3.399508e-02 7.553055e-02 8.943297e-02 9.352291e-02 1.177885e-01 1.507816e-01 2.195747e-01 2.181691e-01 1.989453e-01 1.565277e-01 1.887979e-01 5.973340e-03
<GCONST> -8.677574e+00
<TRANSP> 5
 0.000000e+00 1.000000e+00 0.000000e+00 0.000000e+00 0.000000e+00
 0.000000e+00 4.839905e-01 5.160095e-01 0.000000e+00 0.000000e+00
 0.000000e+00 0.000000e+00 9.325988e-01 6.740125e-02 0.000000e+00
 0.000000e+00 0.000000e+00 0.000000e+00 9.429164e-01 5.708360e-02
 0.000000e+00 0.000000e+00 0.000000e+00 0.000000e+00 0.000000e+00
<ENDHMM>
