~o
<STREAMINFO> 1 15
<VECSIZE> 15<NULLD><USER><DIAGC>
~h "initial_PCA10"
<BEGINHMM>
<NUMSTATES> 5
<STATE> 2
<MEAN> 15
 3.023591e-02 9.538109e-02 2.224767e-03 -1.123981e-03 -1.036885e-02 -8.685843e-03 -1.214080e-02 -1.168926e-02 1.417458e-02 2.568853e-02 2.178116e-02 2.818124e-03 -2.060953e-04 7.902215e-03 2.677378e-03
<VARIANCE> 15
 1.925314e+00 1.113152e+00 1.089722e-01 1.583429e-01 2.174029e-01 2.516375e-01 2.768703e-01 3.233541e-01 4.132157e-01 2.745016e-01 4.480459e-01 2.690004e-01 4.087264e-01 3.872296e-01 1.031623e-01
<GCONST> 1.054442e+01
<STATE> 3
<MEAN> 15
 -3.107898e-02 -3.090406e-02 -4.868211e-03 2.174597e-03 1.304224e-02 9.714643e-03 1.485849e-03 3.479446e-04 -4.543030e-03 -1.162024e-02 -1.277127e-02 -2.087335e-03 5.659919e-03 9.914946e-03 -3.345285e-03
<VARIANCE> 15
 1.284296e+00 2.273212e+00 2.471990e-01 3.236831e-01 3.151250e-01 3.500612e-01 2.464528e-01 3.547752e-01 4.400991e-01 2.622118e-01 4.214543e-01 2.863187e-01 2.634545e-01 2.135804e-01 2.015613e-01
<GCONST> 1.271939e+01
<STATE> 4
<MEAN> 15
 -3.219141e-02 -3.822483e-02 3.436939e-03 -2.903386e-03 -1.064393e-02 -1.547786e-03 4.003147e-03 -1.268908e-03 6.880774e-03 9.032989e-03 -8.042802e-04 8.104403e-03 -1.187833e-02 -1.600358e-02 2.717452e-03
<VARIANCE> 15
 1.155420e+00 2.582710e-02 1.263885e-02 3.654184e-02 8.390586e-02 1.172611e-01 1.360013e-01 1.451715e-01 1.394380e-01 1.778058e-01 2.114142e-01 2.670239e-01 3.237445e-01 2.310306e-01 1.000000e-02
<GCONST> -5.940058e+00
<TRANSP> 5
 0.000000e+00 1.000000e+00 0.000000e+00 0.000000e+00 0.000000e+00
 0.000000e+00 9.902439e-01 9.756098e-03 0.000000e+00 0.000000e+00
 0.000000e+00 0.000000e+00 9.928825e-01 7.117437e-03 0.000000e+00
 0.000000e+00 0.000000e+00 0.000000e+00 9.912280e-01 8.771930e-03
 0.000000e+00 0.000000e+00 0.000000e+00 0.000000e+00 0.000000e+00
<ENDHMM>
