~o
<STREAMINFO> 1 39
<VECSIZE> 39<NULLD><MFCC_D_A_0><DIAGC>
~s "silst"
<NUMMIXES> 3
<MIXTURE> 1 2.500000e-01
<MEAN> 39
 1.611146e+00 -1.379594e+00 -1.558163e+01 -7.781860e+00 -1.114138e+01 -7.836659e+00 -9.484092e-01 -2.529587e+00 -2.548494e+00 -2.086045e+00 -2.839196e+00 -1.223688e+00 5.787924e+01 7.302539e-01 6.336846e-01 5.889332e-01 5.826782e-01 6.967120e-01 7.516952e-01 8.296649e-01 7.475246e-01 6.525729e-01 5.391303e-01 5.584052e-01 5.345551e-01 1.105488e+00 2.123890e-01 2.218872e-01 2.849475e-01 2.737378e-01 3.213857e-01 3.476827e-01 3.270539e-01 3.024473e-01 3.247678e-01 2.368112e-01 2.640823e-01 2.019016e-01 2.578965e-01
<VARIANCE> 39
 4.205086e+01 2.647596e+01 3.589272e+01 2.769906e+01 3.297289e+01 6.215195e+01 4.824424e+01 7.425184e+01 3.133758e+01 2.163431e+01 2.767833e+01 2.004668e+01 1.432428e+02 2.441934e+00 1.900033e+00 2.626636e+00 2.555074e+00 3.273509e+00 3.381591e+00 3.706978e+00 3.821502e+00 2.888824e+00 2.004772e+00 2.480985e+00 1.762405e+00 4.368847e+00 3.877904e-01 3.610728e-01 4.332452e-01 5.374036e-01 6.186389e-01 6.443579e-01 6.732642e-01 5.931758e-01 5.458435e-01 3.715067e-01 4.496292e-01 3.317121e-01 5.500674e-01
<GCONST> 1.230481e+02
<MIXTURE> 2 5.000000e-01
<MEAN> 39
 -2.279652e+00 -4.466882e+00 -1.917626e+01 -1.093965e+01 -1.458670e+01 -1.256685e+01 -5.115893e+00 -7.699757e+00 -5.907292e+00 -4.876807e+00 -5.995808e+00 -3.910099e+00 5.069820e+01 -2.073475e-01 -1.933655e-01 -3.834808e-01 -3.763978e-01 -3.888584e-01 -3.516510e-01 -3.255460e-01 -4.253951e-01 -3.672196e-01 -3.104095e-01 -3.866633e-01 -2.619786e-01 -1.486192e-01 -1.612480e-01 -1.386488e-01 -1.099807e-01 -1.661091e-01 -1.505359e-01 -1.339488e-01 -1.652622e-01 -1.596602e-01 -1.185196e-01 -1.288969e-01 -1.382441e-01 -1.436651e-01 -1.871027e-01
<VARIANCE> 39
 4.205086e+01 2.647596e+01 3.589272e+01 2.769906e+01 3.297289e+01 6.215195e+01 4.824424e+01 7.425184e+01 3.133758e+01 2.163431e+01 2.767833e+01 2.004668e+01 1.432428e+02 2.441934e+00 1.900033e+00 2.626636e+00 2.555074e+00 3.273509e+00 3.381591e+00 3.706978e+00 3.821502e+00 2.888824e+00 2.004772e+00 2.480985e+00 1.762405e+00 4.368847e+00 3.877904e-01 3.610728e-01 4.332452e-01 5.374036e-01 6.186389e-01 6.443579e-01 6.732642e-01 5.931758e-01 5.458435e-01 3.715067e-01 4.496292e-01 3.317121e-01 5.500674e-01
<GCONST> 1.230481e+02
<MIXTURE> 3 2.500000e-01
<MEAN> 39
 -9.827197e-01 -3.437786e+00 -1.797805e+01 -9.887056e+00 -1.343826e+01 -1.099012e+01 -3.726732e+00 -5.976367e+00 -4.787693e+00 -3.946553e+00 -4.943604e+00 -3.014629e+00 5.309188e+01 1.051863e-01 8.231786e-02 -5.934277e-02 -5.670577e-02 -2.700162e-02 1.613101e-02 5.952430e-02 -3.442189e-02 -2.728873e-02 -2.722955e-02 -7.164049e-02 3.532618e-03 2.694165e-01 -3.670231e-02 -1.847016e-02 2.166207e-02 -1.949351e-02 6.771326e-03 2.659504e-02 -1.156807e-03 -5.624384e-03 2.924287e-02 -6.994203e-03 -4.135266e-03 -2.847625e-02 -3.876966e-02
<VARIANCE> 39
 4.205086e+01 2.647596e+01 3.589272e+01 2.769906e+01 3.297289e+01 6.215195e+01 4.824424e+01 7.425184e+01 3.133758e+01 2.163431e+01 2.767833e+01 2.004668e+01 1.432428e+02 2.441934e+00 1.900033e+00 2.626636e+00 2.555074e+00 3.273509e+00 3.381591e+00 3.706978e+00 3.821502e+00 2.888824e+00 2.004772e+00 2.480985e+00 1.762405e+00 4.368847e+00 3.877904e-01 3.610728e-01 4.332452e-01 5.374036e-01 6.186389e-01 6.443579e-01 6.732642e-01 5.931758e-01 5.458435e-01 3.715067e-01 4.496292e-01 3.317121e-01 5.500674e-01
<GCONST> 1.230481e+02
~h "s"
<BEGINHMM>
<NUMSTATES> 5
<STATE> 2
<NUMMIXES> 3
<MIXTURE> 1 1.482073e-01
<MEAN> 39
 -1.084792e+01 -2.028398e+00 -4.941073e-01 6.239819e+00 -1.458480e+01 1.302991e+01 -8.988979e+00 -2.703355e+00 4.174648e+00 -6.849247e+00 5.220120e-01 -6.933509e-01 3.995319e+01 8.142605e-02 -6.668162e-02 -2.200453e-01 1.105656e-01 6.767355e-01 7.161338e-01 5.232093e-01 3.696104e-01 6.606115e-01 4.086553e-01 8.083069e-01 5.357754e-01 9.628876e-02 -1.386990e-02 1.767713e-02 8.453418e-02 1.057014e-02 1.811167e-01 2.248143e-02 -7.435687e-03 1.788134e-01 -6.206200e-02 -4.619475e-02 2.684216e-02 -2.517404e-01 1.957202e-02
<VARIANCE> 39
 6.715979e-01 1.032007e+00 2.324906e+00 3.633408e+00 4.048109e+00 5.350220e+00 4.285506e+00 1.110869e+01 1.012408e+01 2.063910e+01 1.865919e+01 5.880930e+00 3.407350e-01 5.358486e-02 1.165879e-01 2.184743e-01 4.198751e-01 4.141989e-01 3.081411e-01 7.499614e-01 7.518850e-01 7.452992e-01 1.426039e+00 7.788857e-01 9.447514e-01 1.697668e-02 9.146187e-03 1.505038e-02 4.718183e-02 6.929316e-02 1.631554e-01 1.412304e-01 1.921507e-01 1.437713e-01 1.722536e-01 4.600885e-01 3.180129e-01 2.144974e-01 2.911042e-03
<GCONST> 4.189578e+01
<MIXTURE> 2 4.600234e-01
<MEAN> 39
 -1.117280e+01 -2.254503e+00 -2.968761e-02 6.067232e+00 -1.387985e+01 1.273541e+01 -9.826113e+00 -2.080121e+00 3.322676e+00 -8.216482e+00 -2.791315e-01 -2.599775e+00 4.013478e+01 -3.865101e-02 7.107615e-03 4.011893e-02 -1.232650e-01 -4.369213e-01 -3.815362e-01 -2.053186e-01 -1.413953e-01 -4.351697e-01 -4.052349e-01 -5.064781e-01 -2.900845e-01 -4.963003e-02 3.325190e-02 -6.173261e-03 -2.547592e-02 3.272992e-02 -6.675760e-02 -4.694956e-02 -1.912516e-02 -1.397393e-01 -3.015071e-02 4.284222e-02 -2.507071e-03 5.020051e-02 1.211638e-02
<VARIANCE> 39
 6.759908e-01 1.499530e+00 4.290959e+00 5.936883e+00 6.782477e+00 6.449282e+00 1.050625e+01 1.206875e+01 9.988172e+00 1.049747e+01 1.234229e+01 1.042729e+01 4.461487e-01 5.222892e-02 1.192971e-01 3.257698e-01 5.361016e-01 8.031663e-01 7.432535e-01 1.043835e+00 7.396419e-01 9.623150e-01 1.568888e+00 1.753708e+00 1.123651e+00 1.956018e-02 9.592751e-03 2.776440e-02 5.538189e-02 1.113971e-01 1.761025e-01 1.414863e-01 2.540650e-01 1.307658e-01 1.945410e-01 4.058083e-01 3.980325e-01 2.673092e-01 4.588824e-03
<GCONST> 5.123108e+01
<MIXTURE> 3 3.917700e-01
<MEAN> 39
 -1.130225e+01 -1.965439e+00 1.872984e-01 6.355461e+00 -1.405231e+01 1.265647e+01 -8.786580e+00 -2.411423e+00 2.980792e+00 -7.870727e+00 -5.424371e-01 -2.527712e+00 3.989064e+01 1.445377e-02 -4.383147e-04 -3.351839e-02 -3.326482e-02 1.236796e-02 -2.209373e-02 -6.131385e-02 1.183190e-01 1.667291e-01 2.067699e-01 2.943043e-01 1.145649e-01 4.398042e-03 2.148350e-02 -4.989389e-02 -6.091351e-02 -2.863565e-03 3.687272e-02 4.828896e-02 -6.346730e-02 -2.714402e-03 3.245228e-02 2.731983e-02 3.927792e-02 -6.899148e-03 2.388100e-02
<VARIANCE> 39
 9.271107e-01 1.958626e+00 3.319430e+00 4.667378e+00 7.344929e+00 8.254146e+00 8.595617e+00 1.073756e+01 1.004011e+01 8.824600e+00 8.907087e+00 1.213108e+01 5.271885e-01 4.933514e-02 1.253616e-01 3.057126e-01 4.654992e-01 6.981570e-01 6.533050e-01 8.931527e-01 6.460779e-01 7.373761e-01 1.228737e+00 1.021007e+00 1.514587e+00 2.032407e-02 1.045712e-02 3.060676e-02 4.982013e-02 9.289389e-02 1.700884e-01 1.640227e-01 2.077140e-01 1.086730e-01 1.742520e-01 2.398288e-01 2.671926e-01 3.294999e-01 4.067869e-03
<GCONST> 4.833894e+01
<STATE> 3
<NUMMIXES> 3
<MIXTURE> 1 1.898330e-01
<MEAN> 39
 -1.057495e+01 -9.721027e-02 -4.889963e-01 7.655537e+00 -1.356284e+01 1.369046e+01 -8.965100e+00 -6.216199e+00 -2.993121e+00 -1.188120e+01 -2.909029e+00 -6.514032e-01 3.980979e+01 2.566431e-01 -9.262241e-01 -2.652152e-01 1.697817e+00 8.027431e-01 1.546616e+00 8.175970e-01 -2.168832e-01 9.108131e-02 -5.883817e-01 -1.394491e+00 -1.331807e+00 3.663521e-01 -1.120638e-01 -1.296297e+00 -6.831748e-03 9.783383e-01 3.515615e-01 -9.329597e-02 -7.836169e-01 1.009314e+00 1.738449e+00 -2.660903e-01 3.028346e-03 -4.818229e-01 3.633258e-01
<VARIANCE> 39
 2.402767e-04 1.962879e-04 2.862798e-03 8.301489e-06 8.701287e-02 2.958740e-03 1.064069e-02 3.681415e-02 1.072857e-01 4.223445e-02 4.272299e-02 2.787002e-02 5.006282e-05 3.982579e-05 1.163277e-03 8.913117e-03 5.591258e-04 7.030942e-04 1.231445e-02 1.163357e-02 3.183515e-05 3.230552e-04 1.760823e-03 2.307572e-05 2.650577e-03 1.700340e-04 8.071850e-05 2.846823e-04 2.105820e-03 5.054684e-03 9.849262e-04 1.354728e-04 9.803419e-04 1.956974e-03 2.412143e-03 2.609853e-04 2.233686e-05 8.441461e-04 3.955070e-05
<GCONST> -1.963564e+02
<MIXTURE> 2 3.791545e-01
<MEAN> 39
 -1.054517e+01 -3.682190e+00 -2.658962e+00 1.956032e+00 -1.948208e+01 8.300642e+00 -1.049628e+01 -5.919455e-01 2.432193e+00 -9.916135e+00 -6.365888e-01 -3.028913e+00 4.087994e+01 3.932590e-01 -1.028811e+00 -7.777873e-01 6.667812e-01 -3.006656e-01 -7.909691e-01 -2.251375e+00 -1.116304e+00 4.569148e-02 5.483174e-01 1.383650e+00 -1.777439e+00 4.495363e-01 1.874082e-01 4.389464e-03 -1.458828e-01 -1.195195e-01 3.338796e-01 1.172778e-01 -2.136476e-01 -2.744548e-01 6.912257e-02 -2.063179e-01 -5.820737e-02 -1.059650e-01 1.194766e-01
<VARIANCE> 39
 8.595474e-01 2.920750e-01 1.347039e-02 4.309863e+00 1.158999e+01 4.898573e-01 8.603556e+00 2.554185e-01 1.811136e-01 1.256927e-01 2.282208e+01 1.069452e+01 1.991127e+00 1.183197e-03 6.946338e-04 3.882872e-01 3.440273e-02 1.312079e-03 1.189020e-01 4.139281e-02 3.819641e-02 1.154436e-02 8.807007e-01 9.990711e-01 2.906730e-01 5.074091e-02 2.009747e-03 4.166510e-02 1.806346e-01 6.751566e-03 4.697353e-03 7.099530e-02 6.430376e-03 1.873895e-02 2.623158e-01 3.737389e-01 6.639668e-03 7.549553e-02 1.525171e-03
<GCONST> -1.950575e+01
<MIXTURE> 3 4.310125e-01
<MEAN> 39
 -1.048264e+01 -1.113751e+00 -2.334117e+00 6.926628e+00 -9.419900e+00 1.329081e+01 -9.314192e+00 8.911757e-02 4.714824e+00 -7.296911e+00 1.799803e+00 -4.142686e+00 3.991820e+01 5.097165e-01 -9.853289e-01 -1.864905e+00 1.084860e+00 1.355760e+00 -1.080269e+00 -1.527168e+00 -2.245103e-01 -2.874476e-01 1.157741e-01 -1.673201e+00 -5.354056e-01 5.899865e-01 9.289491e-02 -7.587963e-01 -9.468741e-01 -4.189633e-01 -2.848345e-01 -8.552885e-02 -2.456096e-01 -1.832209e-01 2.533881e-01 -4.227418e-02 -1.615745e-01 6.175921e-02 1.717531e-01
<VARIANCE> 39
 2.988187e-01 3.628351e-01 1.232125e+00 2.008120e+00 6.930837e+00 4.485044e+00 5.530682e+00 4.585259e+00 1.838364e+00 4.169977e-01 1.072119e+01 7.179126e-01 8.969592e-02 9.434333e-03 1.190613e+00 1.412764e+00 5.015814e-01 4.021341e-02 1.355797e-02 8.750456e-02 2.594087e-02 3.142605e-02 1.165596e-01 2.742854e-02 1.770079e-01 2.471750e-02 1.253060e-04 1.379796e-02 4.157344e-02 2.952785e-01 3.751837e-02 1.641401e-01 1.031835e-01 4.213786e-02 1.459138e-01 5.273880e-02 3.252580e-01 1.960792e-02 1.250475e-03
<GCONST> -1.480612e+00
<STATE> 4
<NUMMIXES> 3
<MIXTURE> 1 1.322048e-01
<MEAN> 39
 -4.279684e+00 -9.601334e+00 -3.425786e+00 2.110461e+00 -1.835242e+01 9.725678e+00 -1.557285e+01 1.104239e+00 6.842037e+00 -1.016767e+01 4.923125e+00 -3.069388e+00 4.776432e+01 1.514213e+00 1.792631e-01 -2.394618e-02 -1.113803e-01 2.434705e-01 -5.511421e-01 -6.651148e-01 2.542239e-01 5.604171e-01 2.017341e-01 4.136457e-01 7.692845e-01 1.136665e+00 2.586153e-01 9.920137e-02 1.342584e-01 -2.503801e-01 -6.976473e-02 -1.102387e-01 -1.954542e-01 1.966400e-01 3.767701e-01 4.065565e-01 3.515986e-02 1.046303e-01 2.195604e-01
<VARIANCE> 39
 5.715503e+01 5.241316e+01 1.320533e+01 5.527639e+01 1.905540e+01 1.453686e+01 2.504814e+01 8.865189e+00 1.531836e+01 1.864198e+01 3.494772e+01 2.359292e+01 2.874617e+01 5.545108e+00 6.218957e+00 2.409825e+00 2.619148e+00 1.104631e+00 2.164325e+00 4.015572e+00 2.547250e+00 4.917164e+00 2.422499e+00 8.369117e-01 1.662688e+00 3.754472e+00 6.302862e-01 7.200516e-01 2.977528e-01 4.938032e-01 1.979526e-01 2.858350e-01 4.487463e-01 3.925207e-01 3.163180e-01 3.193116e-01 1.911570e-01 4.930335e-01 2.662459e-01
<GCONST> 1.124470e+02
<MIXTURE> 2 4.972645e-01
<MEAN> 39
 -3.371104e+00 -4.292601e+00 6.891863e-01 2.396234e+00 -1.833795e+01 9.969424e+00 -1.610621e+01 -3.578964e+00 1.078212e+00 -1.019168e+01 2.948162e+00 -4.421079e+00 4.724104e+01 -2.981448e-01 7.932797e-02 9.088553e-02 4.279647e-02 -1.629185e-01 -2.148826e-01 -2.984333e-02 -2.154745e-01 -1.827417e-01 -2.293102e-01 -3.179584e-01 -3.038504e-01 -2.524577e-01 -2.613718e-02 -9.955551e-03 -1.827886e-02 6.538910e-03 4.254998e-02 2.368714e-02 4.957908e-02 -1.914501e-02 -4.401673e-02 -6.954834e-02 -8.540668e-02 -5.310572e-02 -1.724739e-02
<VARIANCE> 39
 8.903618e+01 3.253276e+01 1.852606e+01 6.496593e+01 2.981550e+01 1.461701e+01 3.990982e+01 3.495980e+01 6.600423e+01 2.924597e+01 4.866315e+01 1.148477e+01 6.394028e+01 4.035026e-01 6.873956e-01 7.348529e-01 1.119732e+00 1.403647e+00 1.256221e+00 1.252211e+00 1.436446e+00 2.076933e+00 1.987252e+00 1.382881e+00 9.969602e-01 4.142246e-01 3.412163e-02 1.353529e-01 1.413513e-01 1.867058e-01 3.475714e-01 2.864963e-01 2.244039e-01 3.344026e-01 5.132498e-01 4.063935e-01 2.336383e-01 2.028842e-01 3.072238e-02
<GCONST> 9.663497e+01
<MIXTURE> 3 3.705309e-01
<MEAN> 39
 -1.756648e+00 -6.459905e+00 -1.390389e+00 4.322509e-01 -1.714995e+01 1.016395e+01 -1.630214e+01 -5.774856e-01 5.575397e+00 -7.992860e+00 3.096676e+00 -4.210780e+00 4.936017e+01 -1.207363e-01 -1.726068e-01 5.898752e-02 4.703596e-03 6.636396e-02 4.324153e-01 1.484067e-01 -1.214885e-02 -5.827243e-02 1.136139e-01 2.195071e-01 6.577508e-03 -3.596460e-02 -7.128353e-02 3.365716e-02 6.072227e-03 1.588695e-02 -7.852381e-02 1.531588e-02 4.398400e-02 -2.534209e-02 -8.824603e-02 -4.714531e-02 9.473509e-02 7.227118e-02 -8.231878e-02
<VARIANCE> 39
 9.643351e+01 3.136750e+01 3.219917e+01 7.128324e+01 2.332825e+01 1.376454e+01 4.559107e+01 2.673552e+01 4.943420e+01 2.267451e+01 4.021620e+01 1.426101e+01 8.978575e+01 6.441765e-01 1.312165e+00 1.046848e+00 1.963513e+00 1.399003e+00 1.267259e+00 1.605944e+00 1.454611e+00 2.284533e+00 1.563294e+00 1.296882e+00 1.477590e+00 1.006432e+00 1.219213e-01 1.993707e-01 1.902955e-01 3.261383e-01 2.773433e-01 2.755330e-01 2.921111e-01 3.029583e-01 4.742497e-01 3.007761e-01 1.911257e-01 2.717161e-01 8.989107e-02
<GCONST> 1.032749e+02
<TRANSP> 5
 0.000000e+00 1.000000e+00 0.000000e+00 0.000000e+00 0.000000e+00
 0.000000e+00 9.690128e-01 3.098722e-02 0.000000e+00 0.000000e+00
 0.000000e+00 0.000000e+00 2.419566e-01 7.580434e-01 0.000000e+00
 0.000000e+00 0.000000e+00 0.000000e+00 9.740904e-01 2.590961e-02
 0.000000e+00 0.000000e+00 0.000000e+00 0.000000e+00 0.000000e+00
<ENDHMM>
~h "t-uh"
<BEGINHMM>
<NUMSTATES> 5
<STATE> 2
<NUMMIXES> 3
<MIXTURE> 2 7.499995e-01
<MEAN> 39
 -9.468800e+00 -3.428123e+00 -7.575015e-01 3.979241e-01 -2.378036e+01 8.725259e+00 -1.300667e+01 -1.061554e+00 9.921621e+00 -3.073769e+00 2.952098e-01 -4.572241e+00 4.182062e+01 -2.132663e-02 -5.171263e-01 3.373021e-01 1.443298e+00 1.249539e+00 4.175497e-01 -1.141624e+00 -1.186382e+00 -1.367097e+00 -1.373412e+00 2.685519e-01 1.061239e+00 1.403422e-01 3.177965e-01 -2.608865e-01 -5.248767e-01 -1.236054e-01 1.080676e-01 3.628766e-01 6.381727e-01 3.513092e-01 -2.108290e-01 -6.622861e-01 -5.815148e-02 3.342990e-01 2.635681e-01
<VARIANCE> 39
 1.427914e+00 5.151310e-01 8.310350e-01 1.485168e+01 1.764605e+01 8.245485e+00 5.575500e+00 1.108030e+01 3.085553e+01 6.297444e+00 8.223398e-01 5.138688e+00 1.720824e+00 2.784030e-01 6.666306e-01 2.076668e-01 7.629430e-01 2.031717e+00 1.144645e-01 1.113856e+00 6.867437e-01 4.042843e-02 1.981408e-01 1.344710e+00 5.591099e-02 1.484912e-01 2.474703e-02 1.476704e-02 3.863134e-02 1.736941e-01 1.930362e-01 1.755165e-01 4.627329e-01 3.931690e-02 6.819217e-02 6.247088e-02 2.095711e-01 2.868446e-01 2.794250e-02
<GCONST> 4.350733e+01
<MIXTURE> 3 2.500004e-01
<MEAN> 39
 -9.680662e+00 -5.218434e+00 1.540845e-02 5.919928e+00 -2.063014e+01 1.243493e+01 -8.591724e+00 -8.190332e-01 1.399332e+01 3.090574e-01 3.644886e+00 -3.274575e+00 4.144021e+01 -1.406206e-01 7.502354e-01 7.973850e-01 -1.345709e-01 -1.061514e+00 8.956854e-02 -1.659655e+00 -1.061274e+00 4.504105e-01 -2.233638e-01 4.986345e-01 4.204150e-01 -2.883427e-01 3.279033e-01 -4.011160e-01 -8.676032e-01 -6.869685e-01 1.010776e-01 2.486688e-01 -1.050933e-01 3.470232e-01 -3.839302e-01 -1.082016e+00 -5.123334e-01 -1.425342e-01 3.514518e-01
<VARIANCE> 39
 0.000000e+00 0.000000e+00 1.858391e-13 0.000000e+00 0.000000e+00 0.000000e+00 0.000000e+00 3.585548e-11 4.084828e-10 9.493764e-13 7.524616e-10 0.000000e+00 0.000000e+00 2.824985e-11 1.421299e-10 0.000000e+00 0.000000e+00 1.451210e-09 0.000000e+00 0.000000e+00 2.276518e-10 0.000000e+00 6.291857e-11 2.828029e-10 0.000000e+00 0.000000e+00 0.000000e+00 0.000000e+00 0.000000e+00 0.000000e+00 0.000000e+00 0.000000e+00 2.786098e-10 2.123472e-12 0.000000e+00 0.000000e+00 2.127968e-12 0.000000e+00 0.000000e+00
<GCONST> -2.500001e+11
<STATE> 3
<NUMMIXES> 3
<MIXTURE> 1 1.573135e-01
<MEAN> 39
 2.092718e+00 5.618204e+00 3.605632e+00 2.720756e+00 -1.868518e+01 1.168697e+01 -1.115468e+01 -8.793769e-01 3.583086e+00 -5.369068e+00 5.915361e+00 -9.105600e-01 4.783160e+01 -1.039411e+00 -1.113278e-01 1.791238e-01 1.430351e+00 1.063468e+00 3.519930e-01 8.522198e-01 4.251800e-01 6.728314e-01 1.462134e-01 -1.085335e+00 -3.313393e-01 -8.680661e-01 -9.498776e-02 -1.910707e-01 -6.157412e-02 -6.147205e-03 7.263504e-03 4.689461e-02 -1.229801e-01 -2.748368e-01 -2.169019e-01 -5.489111e-02 1.384477e-01 1.549357e-02 5.233482e-03
<VARIANCE> 39
 1.831926e+01 3.114621e+00 1.600812e+01 4.966646e+01 2.622809e+01 1.576879e+01 1.585661e+01 1.573065e+01 1.558408e+01 5.606824e+00 1.688521e+01 4.013370e+00 1.041957e+01 9.882859e-01 3.962181e-01 2.880234e-01 1.798701e+00 2.210426e+00 1.786842e+00 8.826885e-01 2.026345e+00 1.661349e+00 5.347130e-01 1.039025e+00 5.273846e-01 4.327523e-01 2.218483e-01 7.691301e-02 3.546432e-02 3.295245e-01 4.595405e-01 4.245996e-01 1.854044e-01 2.267916e-01 2.825924e-01 1.130231e-01 1.688827e-01 8.797278e-02 1.056829e-01
<GCONST> 8.055234e+01
<MIXTURE> 2 2.956495e-01
<MEAN> 39
 -5.723270e-01 -4.875261e+00 -3.758590e+00 -2.660671e+00 -2.223203e+01 9.211904e+00 -1.644053e+01 -1.480268e+00 7.596121e+00 -6.693917e+00 5.540574e+00 -2.801065e-02 4.909180e+01 1.587705e+00 1.909939e-02 -6.569426e-02 -5.630293e-01 -1.185000e-01 -3.042065e-01 -9.804562e-01 -4.800660e-01 -1.015917e+00 -3.150400e-01 7.072942e-01 7.862757e-02 1.292566e+00 8.176605e-02 9.157883e-02 8.540698e-02 -1.253764e-01 -9.397244e-02 1.257290e-01 1.350802e-01 2.509915e-02 -1.760913e-01 4.498126e-02 6.089202e-02 -9.360363e-02 5.395791e-02
<VARIANCE> 39
 5.399213e+01 1.864125e+01 1.570813e+01 2.088516e+01 1.739113e+01 1.815243e+01 4.240599e+01 1.275715e+01 1.616191e+01 1.317719e+01 3.959049e+01 2.461621e+01 3.779889e+01 3.035892e+00 2.732479e+00 2.632698e+00 1.965634e+00 1.970919e+00 2.147864e+00 3.941406e+00 1.063483e+00 1.857007e+00 1.477890e+00 1.891573e+00 2.422619e+00 2.136565e+00 5.252607e-01 5.220074e-01 5.010637e-01 4.311287e-01 3.997837e-01 3.997961e-01 5.109915e-01 2.265016e-01 2.540199e-01 2.697943e-01 2.880420e-01 4.166110e-01 3.719647e-01
<GCONST> 1.096288e+02
<MIXTURE> 3 5.470368e-01
<MEAN> 39
 9.611754e+00 1.188116e-01 2.066140e+00 -5.983734e+00 -2.218558e+01 1.149307e+01 -2.095177e+01 -7.789921e+00 -4.871552e+00 -8.507218e+00 1.233683e+01 4.586964e-01 5.644733e+01 -2.169772e-01 3.237022e-01 4.881621e-02 5.205281e-02 5.788637e-03 1.552166e-01 4.654509e-01 1.121131e-02 -9.017231e-02 3.257759e-02 1.476647e-01 2.628516e-01 -3.136708e-01 -6.949104e-02 -1.861637e-02 -5.225668e-02 6.740329e-02 4.397115e-02 -4.950034e-02 3.635829e-02 8.508267e-02 1.622210e-01 1.565460e-02 -1.060581e-01 -9.173601e-03 -6.151201e-02
<VARIANCE> 39
 5.602378e+00 4.689661e+00 5.071579e+00 2.847383e+00 5.602038e+00 8.103139e+00 2.720538e+01 7.031130e+00 1.440212e+01 1.310534e+01 6.523393e+00 1.061940e+01 6.599008e+00 2.634506e-01 2.272431e-01 3.357908e-01 2.655577e-01 5.404589e-01 7.294621e-01 1.158141e+00 6.793845e-01 1.106484e+00 9.841464e-01 8.648065e-01 8.132747e-01 1.782407e-01 3.452264e-02 4.521727e-02 4.782563e-02 4.684240e-02 9.267278e-02 1.212819e-01 2.315199e-01 1.376682e-01 1.357016e-01 1.735187e-01 1.540170e-01 1.690540e-01 2.844851e-02
<GCONST> 5.820110e+01
<STATE> 4
<NUMMIXES> 3
<MIXTURE> 1 1.874094e-01
<MEAN> 39
 -3.604656e+00 -2.921133e+00 -6.175228e+00 -4.718453e+00 -2.172698e+01 1.491593e+01 -5.320479e+00 -1.895383e+00 -6.253623e-01 -5.998874e+00 8.805479e+00 4.810393e-01 4.534708e+01 -2.231048e-01 -5.784307e-01 -5.941686e-01 -2.188035e-01 1.542892e-01 2.133781e-01 -4.796527e-01 3.545021e-01 1.003501e+00 1.021705e+00 6.227474e-01 7.866094e-01 -2.124720e-01 -6.222520e-02 1.867920e-01 2.481346e-01 3.328966e-01 1.433411e-01 -9.841575e-02 -2.198861e-01 -3.872386e-02 1.991247e-01 1.548188e-01 -1.082489e-01 2.465895e-01 -2.418941e-02
<VARIANCE> 39
 2.580141e-01 5.079899e-01 1.284593e+00 1.074145e+00 4.370796e+00 2.114738e+00 5.687161e+00 1.632203e+01 2.856808e+01 1.530738e+01 3.113879e+00 4.747915e+00 7.543857e-02 2.834316e-02 2.529484e-01 3.623180e-01 8.028618e-02 1.342635e-01 1.603021e-01 1.256196e-01 1.806719e+00 7.665889e-01 1.768554e-02 4.531269e-01 4.935521e-01 2.707274e-03 2.894745e-02 7.064576e-03 1.184263e-01 6.609126e-02 1.154076e-01 1.658257e-02 3.916448e-02 6.462993e-01 6.272568e-01 3.707861e-01 2.662291e-01 5.506353e-02 2.166940e-03
<GCONST> 2.230829e+01
<MIXTURE> 2 4.257028e-01
<MEAN> 39
 -4.137765e+00 -2.621196e+00 -4.530181e+00 -1.272510e+00 -2.193835e+01 1.309269e+01 -5.388326e+00 -1.305983e+00 1.363676e+00 -8.861530e+00 6.338826e+00 2.489663e+00 4.513300e+01 -3.155906e-01 -4.564752e-01 -2.912378e-01 1.063437e-01 3.674833e-01 4.779949e-01 -1.411570e-01 -4.320516e-01 -5.260900e-01 -1.174928e+00 -6.824613e-01 -6.140411e-01 -7.640416e-02 -2.668414e-01 -1.223137e-01 -2.075763e-02 -1.674253e-01 3.826375e-02 -4.720881e-01 -5.727774e-01 -1.766953e-01 5.821919e-02 2.802390e-01 -1.977612e-01 -4.385710e-01 -1.906828e-01
<VARIANCE> 39
 5.922819e+00 8.852790e+00 3.164148e+00 1.185078e+01 4.564021e+00 1.414224e+00 8.319205e+00 4.520291e+00 2.786825e+00 1.178950e+01 5.940782e+00 3.960976e+00 1.265656e+00 5.692763e-01 3.528787e-01 1.091913e+00 5.237230e-01 1.108059e+00 4.222062e-01 1.112317e+00 9.337272e-01 1.024276e+00 8.993159e-01 5.572328e-01 9.026372e-01 1.857774e-01 1.300447e-01 1.517202e-01 1.256481e-01 9.666570e-02 2.090148e-01 4.022282e-02 2.847495e-01 1.452261e-01 7.778686e-02 2.076236e-01 8.530883e-02 2.087495e-01 4.975990e-02
<GCONST> 5.884569e+01
<MIXTURE> 3 3.868878e-01
<MEAN> 39
 -4.810696e+00 1.285433e+00 4.497451e-01 5.795294e+00 -1.483147e+01 1.519141e+01 -7.594246e+00 -3.091801e+00 3.127377e+00 -5.648963e+00 2.400715e+00 -3.375139e+00 4.346233e+01 -1.275614e+00 -1.486456e+00 -7.805575e-01 -5.041720e-01 -7.489907e-01 -2.352804e-01 -1.388618e+00 -6.923999e-01 5.118304e-01 5.785004e-01 2.486117e-01 -1.680370e-01 -4.899016e-01 1.750078e-01 1.002498e-01 4.064805e-02 -2.934075e-01 -3.730853e-01 -2.626788e-01 -1.937355e-01 1.367601e-01 3.047972e-01 1.152497e-01 4.040620e-01 4.217210e-01 1.534806e-01
<VARIANCE> 39
 6.541800e-01 1.124493e+01 1.530978e+01 2.835855e+01 3.371252e+01 2.377239e+00 3.569841e+00 1.251638e+01 9.117627e+00 1.692103e+01 7.329230e+00 6.800106e+00 8.146827e-01 4.958638e-01 2.375169e-01 9.388808e-02 3.083147e-01 1.146806e+00 3.523581e-01 7.620341e-01 2.152225e+00 1.024651e+00 6.964630e-01 4.654189e-01 7.030372e-01 1.311550e-01 4.629704e-02 8.163601e-02 4.878163e-02 2.695729e-01 5.894979e-01 4.098614e-02 1.711130e-01 2.223823e-01 8.720185e-02 3.045278e-01 1.374435e-01 8.696494e-02 2.850819e-02
<GCONST> 5.857943e+01
<TRANSP> 5
 0.000000e+00 1.000000e+00 0.000000e+00 0.000000e+00 0.000000e+00
 0.000000e+00 5.911658e-41 1.000000e+00 0.000000e+00 0.000000e+00
 0.000000e+00 0.000000e+00 9.666958e-01 3.330417e-02 0.000000e+00
 0.000000e+00 0.000000e+00 0.000000e+00 7.501183e-01 2.498816e-01
 0.000000e+00 0.000000e+00 0.000000e+00 0.000000e+00 0.000000e+00
<ENDHMM>
~h "d+uw"
<BEGINHMM>
<NUMSTATES> 5
<STATE> 2
<NUMMIXES> 3
<MIXTURE> 1 1.325065e-01
<MEAN> 39
 1.225267e+00 5.398572e+00 1.549665e+00 2.737993e+00 -2.320232e+01 5.232281e+00 -1.709229e+01 -6.188754e+00 2.826430e-01 -1.145743e+01 1.927236e+00 -5.626633e+00 4.672755e+01 2.285250e+00 2.123821e+00 3.476495e+00 1.474026e+00 1.087409e+00 5.572951e-01 8.584997e-01 1.686564e+00 1.985663e+00 9.768929e-01 4.236704e-01 -1.121294e+00 1.551766e+00 -1.671976e-02 -3.715591e-01 1.789288e-01 -3.687444e-02 1.472976e-01 4.383529e-02 -1.277135e-01 4.520618e-01 1.648972e-01 5.014348e-02 2.002923e-01 4.175715e-01 1.824700e-01
<VARIANCE> 39
 1.691825e+01 1.011367e+01 1.296769e+01 1.449553e+01 1.309023e+01 1.291747e+01 2.514738e+01 4.170176e+01 2.174694e+01 1.479058e+01 2.212357e+00 3.738303e+00 5.845353e+00 1.518150e+00 9.275194e-01 6.182060e-01 1.670458e-01 2.957503e-01 2.360721e+00 1.183301e+00 1.917619e+00 2.650920e+00 1.127833e+00 4.454005e-01 1.740007e+00 4.791801e-01 1.238256e-01 2.623944e-01 3.825957e-01 1.024772e-01 1.011204e-01 1.609995e-01 8.656691e-01 6.199032e-01 8.346369e-01 2.979780e-01 2.631446e-02 3.902756e-02 3.106592e-02
<GCONST> 7.927975e+01
<MIXTURE> 2 4.492867e-01
<MEAN> 39
 -6.135461e+00 -1.806093e+00 -6.376099e+00 -3.054870e+00 -2.377498e+01 7.322999e+00 -1.109129e+01 -2.409365e+00 2.951840e+00 -9.506022e+00 1.463053e+00 -2.824497e+00 4.248865e+01 1.107759e+00 7.228401e-01 9.825607e-02 -2.454524e-01 -8.496376e-01 -1.352258e+00 -1.662307e+00 -1.353130e+00 -1.264227e+00 -8.472898e-01 7.279355e-02 8.305733e-01 6.023981e-01 2.588902e-01 2.729329e-01 3.420148e-01 3.970246e-01 7.119402e-02 5.021454e-02 -2.328725e-01 -1.964202e-01 -1.348023e-01 -1.440572e-01 -1.227837e-01 -2.090895e-01 1.251733e-01
<VARIANCE> 39
 1.917598e+01 5.508083e+00 1.888928e+01 3.286443e+01 3.047966e+01 2.617211e+01 2.727686e+01 2.069131e+01 9.476208e+00 1.178321e+01 1.295289e+01 1.879024e+01 6.194660e+00 4.699334e-01 2.819442e-01 1.896921e+00 2.896464e+00 1.730317e+00 1.833087e+00 2.118506e+00 1.265333e+00 1.761869e+00 2.050750e+00 2.618933e+00 1.890254e+00 1.465189e-01 1.519731e-01 1.161877e-01 1.783918e-01 3.029777e-01 2.007941e-01 3.206513e-01 4.249137e-01 4.085234e-01 4.169818e-01 4.593029e-01 4.724245e-01 4.989054e-01 4.216365e-02
<GCONST> 9.289313e+01
<MIXTURE> 3 4.182067e-01
<MEAN> 39
 1.696546e+00 6.615831e+00 7.011479e+00 6.643241e+00 -2.179723e+01 4.950815e+00 -1.910416e+01 -8.047791e+00 -2.190973e+00 -1.252247e+01 2.050874e+00 -3.886446e+00 4.715984e+01 1.633081e+00 7.966514e-01 2.023983e+00 9.164207e-01 9.853484e-02 1.904236e-02 -1.309183e+00 6.230098e-02 -4.769219e-01 -2.164583e-01 8.415865e-01 -5.635784e-01 1.318948e+00 -2.082525e-01 -3.190956e-01 -2.245158e-01 -2.088953e-01 1.295852e-01 3.078031e-01 2.076936e-01 2.018947e-01 1.405713e-01 1.840357e-01 8.420369e-02 -1.435645e-01 -5.715857e-02
<VARIANCE> 39
 2.299854e+01 1.261544e+01 3.529071e+01 1.677891e+01 1.933770e+01 1.901959e+01 1.879528e+01 1.452267e+01 1.855035e+01 9.366528e+00 1.552293e+01 6.177761e+00 1.519712e+01 4.628268e-01 2.075375e+00 5.632757e-01 9.721979e-01 1.284865e+00 1.814758e+00 1.128723e+00 7.148985e-01 3.021418e-01 6.519482e-01 8.700144e-01 6.750184e-01 3.025652e-01 1.751296e-01 2.728288e-01 3.929889e-01 1.057853e-01 2.042188e-01 3.669608e-01 3.336226e-01 4.141661e-01 5.035987e-01 2.550341e-01 3.220285e-01 8.922816e-02 1.310508e-01
<GCONST> 8.590150e+01
<STATE> 3
<NUMMIXES> 3
<MIXTURE> 1 4.401882e-01
<MEAN> 39
 1.305018e+01 -1.011693e+01 -1.619212e+00 -1.188102e+01 -1.999710e+01 1.441126e+01 -1.804202e+01 6.072060e+00 4.129422e+00 -1.048252e+01 3.574095e+00 -9.146461e+00 6.395446e+01 -3.849151e-02 -2.336292e-02 -1.452812e-01 7.218926e-02 5.243356e-02 6.471280e-02 3.340874e-01 1.093007e-01 -7.052266e-02 -1.776417e-01 -2.577769e-02 2.254384e-01 -7.182124e-02 -4.925624e-03 -1.689884e-02 -4.720159e-02 3.730495e-02 1.012514e-01 2.080186e-02 -6.234919e-02 -1.209045e-01 -1.579661e-03 1.167982e-01 8.865177e-02 2.877896e-02 1.211686e-03
<VARIANCE> 39
 1.219545e+00 3.304191e+01 9.098009e+00 1.211993e+01 1.569281e+01 8.886393e+00 1.253163e+01 2.578779e+01 5.538571e+01 1.947352e+01 3.653818e+01 4.558145e+01 6.787096e+00 7.529088e-02 3.375396e-01 1.873715e-01 8.372832e-01 5.967915e-01 6.064245e-01 6.181636e-01 6.083084e-01 5.124753e-01 1.362537e+00 1.053778e+00 6.778185e-01 1.585480e-01 1.465648e-02 5.542690e-02 2.773147e-02 1.125894e-01 8.664072e-02 1.107322e-01 1.226844e-01 7.730304e-02 1.175938e-01 1.260197e-01 1.687330e-01 1.501571e-01 1.600047e-02
<GCONST> 6.284000e+01
<MIXTURE> 2 2.361738e-01
<MEAN> 39
 8.407770e+00 2.479236e+00 9.520232e+00 5.052076e+00 -2.012162e+01 7.708774e+00 -2.299770e+01 -3.939020e+00 9.844379e-01 -1.002339e+01 5.733848e+00 -4.848313e+00 5.496598e+01 6.052079e-01 -1.031305e+00 -8.121598e-01 -1.305698e+00 -1.084929e-01 6.089985e-01 -2.625945e-01 -1.553270e-01 -2.357957e-01 3.741860e-01 6.276010e-01 3.414129e-01 8.883852e-01 -2.751120e-02 7.520725e-02 -1.214972e-01 -1.874724e-01 -9.282106e-02 8.259612e-02 2.115877e-01 -5.614689e-02 -2.059246e-01 -1.264272e-01 8.051394e-02 9.305621e-02 -5.298770e-02
<VARIANCE> 39
 8.769611e+00 3.518357e+01 2.165720e+01 4.464569e+01 8.200607e+00 1.618404e+01 1.441292e+01 1.383038e+01 1.486527e+01 2.304110e+01 1.610473e+01 1.479459e+01 2.000253e+01 7.826251e-01 2.547490e+00 1.288250e+00 4.333535e+00 1.080822e+00 3.673686e+00 2.146820e+00 1.752501e+00 3.684248e+00 3.577713e+00 2.606292e+00 1.141699e+00 1.512397e+00 1.872005e-01 5.844290e-01 2.490586e-01 6.230295e-01 1.904692e-01 7.837969e-01 5.504351e-01 3.363909e-01 6.543219e-01 8.521807e-01 5.153400e-01 1.911009e-01 3.655470e-01
<GCONST> 1.063958e+02
<MIXTURE> 3 3.236369e-01
<MEAN> 39
 1.334718e+01 -6.470369e+00 -7.565694e-01 -1.386075e+01 -2.101239e+01 1.435363e+01 -1.965076e+01 -1.572280e+00 -1.639726e+00 -5.925568e+00 1.153808e+01 -4.971521e+00 6.328340e+01 -7.991058e-02 -4.446021e-01 -2.739607e-01 -7.312439e-02 2.763628e-01 9.605624e-02 7.095675e-03 7.076485e-01 8.412134e-01 7.551689e-02 -7.326064e-01 -9.033236e-01 7.817912e-02 -3.563773e-02 1.060888e-02 8.017844e-02 1.581830e-01 -7.495905e-02 -1.622839e-01 -1.245760e-02 1.311035e-01 1.311160e-01 -1.003962e-01 -2.254588e-01 -2.421643e-02 -5.976942e-02
<VARIANCE> 39
 1.286605e+00 2.528279e+01 1.283756e+01 1.779785e+01 1.414452e+01 9.779656e+00 1.563548e+01 2.043298e+01 5.821017e+01 4.860863e+01 2.921809e+01 5.308984e+01 4.918908e+00 1.090489e-01 1.214620e+00 2.907345e-01 1.158083e+00 7.898206e-01 1.163348e+00 1.993078e+00 1.359466e+00 2.903249e+00 2.991627e+00 2.839935e+00 3.168856e+00 2.866611e-01 2.398223e-02 1.264995e-01 4.129829e-02 1.479005e-01 7.418675e-02 2.934033e-01 2.662456e-01 2.730666e-01 3.343365e-01 3.859630e-01 4.254337e-01 4.555816e-01 3.371519e-02
<GCONST> 8.466310e+01
<STATE> 4
<NUMMIXES> 3
<MIXTURE> 1 4.850982e-01
<MEAN> 39
 1.073652e+01 -8.954434e+00 -2.850966e+00 -7.946687e-01 -1.385935e+01 1.763478e+01 -1.801608e+01 6.197705e+00 7.795636e+00 -1.209091e+01 2.108428e+00 -8.401457e+00 5.919966e+01 -5.185106e-01 6.390753e-01 -2.455018e-02 1.256113e+00 7.360238e-01 2.001429e-01 5.533109e-01 1.719200e-02 7.512116e-01 4.325534e-01 -3.744088e-01 -9.864296e-02 -7.985956e-01 -1.387178e-01 1.416104e-01 1.240767e-01 -9.177741e-02 -1.389144e-01 1.397203e-01 4.006644e-01 2.247640e-01 1.279350e-01 -1.710090e-01 -1.481305e-01 -1.256827e-01 -1.261311e-01
<VARIANCE> 39
 1.156304e+00 2.481522e+00 8.203539e-01 5.299058e+00 7.647672e+00 3.739376e+00 3.972355e+00 6.175085e+00 9.931073e+00 2.545418e+00 9.922860e+00 3.291484e+00 2.299216e+00 8.972261e-02 1.876127e-01 8.618667e-02 6.803668e-01 1.724858e-01 5.319478e-01 2.736147e+00 1.274984e+00 7.889556e-01 4.669734e-01 3.411162e-01 3.192109e-01 1.719549e-01 1.415125e-02 2.620786e-02 2.898186e-02 1.368669e-01 2.082790e-02 3.882633e-02 2.642039e-01 1.949164e-01 2.197509e-01 1.369882e-01 2.451111e-02 4.853874e-02 9.465713e-03
<GCONST> 3.685326e+01
<MIXTURE> 2 3.384911e-01
<MEAN> 39
 8.262033e+00 -9.202895e+00 -3.278147e+00 -3.146479e+00 -1.450391e+01 1.527043e+01 -1.333778e+01 2.669939e+00 5.703801e+00 -1.001165e+01 -3.742720e+00 -1.084429e+01 5.839511e+01 -7.572717e-01 6.751601e-01 1.647516e-01 1.167172e+00 1.603974e-02 -3.641199e-01 -9.696700e-01 -1.325975e+00 -1.201973e+00 -1.026906e+00 -7.467059e-01 3.110373e-01 -1.126022e+00 -5.412827e-02 -1.243190e-01 -2.377999e-01 -1.712744e-01 -1.769206e-02 1.464177e-01 -3.190796e-01 4.251467e-02 -2.083253e-02 -3.280251e-01 2.297695e-01 -4.117634e-01 -3.918777e-02
<VARIANCE> 39
 2.005810e+01 3.744881e+01 2.857130e+01 7.200864e+01 6.026549e+00 1.657935e+01 3.019359e+01 5.751455e+00 1.017546e+01 1.870345e+01 7.741333e+00 1.051815e+01 3.867606e+01 2.515275e-01 1.932726e-01 4.342870e-01 4.095934e-01 1.134296e+00 1.012993e+00 1.911240e+00 1.269792e+00 1.952718e-01 2.040737e+00 3.499264e-01 6.982444e-01 5.717444e-02 6.216576e-03 3.208668e-02 2.130448e-02 2.697179e-01 5.784741e-02 3.780164e-02 3.286581e-01 2.100094e-01 8.535005e-02 1.368002e-01 1.540246e-01 3.808738e-02 2.488462e-02
<GCONST> 6.431711e+01
<MIXTURE> 3 1.764107e-01
<MEAN> 39
 4.559786e+00 -3.330809e+00 -2.776480e-01 8.545085e+00 -1.025036e+01 2.410430e+01 -4.713684e+00 6.511829e+00 9.395182e+00 -1.231565e+01 3.620499e-01 -1.048824e+01 5.160978e+01 -1.369405e+00 1.205620e+00 1.541286e+00 1.515590e+00 -1.094307e-01 1.807359e-01 1.390337e+00 -1.246529e+00 -7.246962e-01 -1.860478e-01 -8.555480e-01 -5.770701e-02 -1.386876e+00 1.385440e-02 1.076011e-02 2.155586e-01 -3.657118e-01 -2.186604e-01 -7.067161e-01 -1.110518e+00 -4.257395e-01 -3.587779e-01 1.636154e-01 -4.682978e-02 1.131508e-01 1.258543e-01
<VARIANCE> 39
 2.248958e+00 1.370505e+00 5.769523e+00 3.030899e+00 3.757056e-01 6.143223e+00 7.687850e+00 2.078179e+01 1.959504e+00 3.482780e-01 4.188701e+00 2.399897e+00 3.100128e+00 6.895767e-02 1.479377e-02 1.333701e-01 8.242629e-01 1.333470e-01 1.793425e+00 5.238446e+00 3.053264e-01 1.591621e-01 3.048407e-01 2.787699e-01 1.334516e-01 7.554707e-02 1.022224e-02 1.474743e-03 8.076088e-02 4.149083e-02 6.017020e-03 8.214380e-02 1.859208e-01 1.089880e-01 6.232503e-02 8.130274e-02 3.193398e-03 1.187650e-02 4.125514e-03
<GCONST> 1.640693e+01
<TRANSP> 5
 0.000000e+00 1.000000e+00 0.000000e+00 0.000000e+00 0.000000e+00
 0.000000e+00 9.118137e-01 8.818632e-02 0.000000e+00 0.000000e+00
 0.000000e+00 0.000000e+00 9.796618e-01 2.033822e-02 0.000000e+00
 0.000000e+00 0.000000e+00 0.000000e+00 8.236153e-01 1.763847e-01
 0.000000e+00 0.000000e+00 0.000000e+00 0.000000e+00 0.000000e+00
<ENDHMM>
~h "s-ah+t"
<BEGINHMM>
<NUMSTATES> 5
<STATE> 2
<NUMMIXES> 3
<MIXTURE> 1 1.350216e-01
<MEAN> 39
 -1.042251e+01 -3.891548e+00 7.027361e-01 8.617673e+00 -1.281739e+01 1.386322e+01 -1.086699e+01 -3.614706e+00 2.943353e+00 -9.481049e+00 -4.170338e+00 -5.268185e+00 4.103883e+01 -1.156127e-01 -5.192381e-01 -8.250206e-01 -4.583232e-01 -1.112696e-01 5.516407e-01 4.734921e-01 5.415453e-01 1.058258e+00 9.469780e-01 7.374721e-01 1.117025e+00 1.853535e-02 1.278374e-01 6.947465e-02 -3.179003e-02 -2.611806e-01 -3.102367e-01 -1.904922e-02 2.590513e-01 1.581987e-01 -2.474029e-01 -2.980821e-01 1.135498e-01 -7.379222e-02 7.862280e-02
<VARIANCE> 39
 1.583155e+00 4.976165e+00 8.196998e+00 3.767087e+00 5.428879e+00 7.205972e+00 7.139719e+00 5.005829e+00 1.187509e+01 1.342092e+01 9.999004e+00 1.692284e+01 1.137753e+00 1.471181e-01 3.093375e-01 9.164311e-01 1.602496e+00 1.110988e+00 7.180645e-01 7.490766e-01 8.595704e-01 2.102720e+00 8.979861e-01 7.942878e-01 1.462865e+00 6.190854e-02 9.628956e-03 3.745638e-02 9.454687e-02 6.774599e-02 1.078943e-01 1.591465e-01 1.134636e-01 1.793454e-01 3.997971e-01 4.922329e-01 2.216325e-01 6.233732e-01 4.323029e-03
<GCONST> 5.939144e+01
<MIXTURE> 2 3.035599e-01
<MEAN> 39
 -1.042363e+01 -2.203882e+00 -1.188955e-01 5.630756e+00 -1.696574e+01 9.675025e+00 -1.181564e+01 -3.795975e+00 2.543917e+00 -9.476072e+00 -3.460885e-01 -4.175242e+00 4.050596e+01 -9.444933e-03 -1.205073e-01 -2.369766e-01 -3.795117e-01 -2.052274e-01 -3.413087e-01 -2.300518e-01 -4.836209e-02 -3.698718e-01 -7.673615e-01 -4.267943e-01 -3.022118e-02 5.090633e-02 -5.352939e-02 1.189988e-02 8.981607e-02 4.083749e-02 2.068157e-01 1.995658e-01 1.483723e-01 1.484461e-01 -1.156857e-02 -3.172809e-02 -1.993246e-01 -5.726787e-02 -3.000306e-02
<VARIANCE> 39
 1.583038e+00 2.294475e+00 3.314283e+00 5.149852e+00 5.284593e+00 8.864830e+00 1.700350e+01 9.229072e+00 1.236805e+01 1.181166e+01 1.153203e+01 1.135299e+01 9.170091e-01 1.117002e-01 1.886728e-01 3.958058e-01 6.526721e-01 8.264842e-01 8.027281e-01 1.081099e+00 9.477651e-01 1.781082e+00 1.362713e+00 1.626925e+00 9.963827e-01 4.362350e-02 7.267032e-03 3.901891e-02 7.259800e-02 1.238482e-01 1.523250e-01 1.575529e-01 2.082864e-01 3.393628e-01 2.526998e-01 2.072805e-01 3.605644e-01 3.513539e-01 2.457705e-03
<GCONST> 5.683484e+01
<MIXTURE> 3 5.614182e-01
<MEAN> 39
 -1.121499e+01 -1.950555e+00 1.113977e+00 6.723996e+00 -1.469324e+01 1.176253e+01 -1.052481e+01 -3.146743e+00 2.191645e+00 -9.966770e+00 -2.230531e+00 -5.371776e+00 3.995436e+01 -2.936224e-02 2.592700e-02 6.661937e-03 -2.942524e-02 -1.160174e-02 3.039751e-02 1.834871e-01 1.706205e-01 2.565132e-01 3.621940e-01 2.370681e-01 3.291164e-02 -3.422897e-02 2.360819e-02 1.558997e-02 -2.194215e-02 -6.068537e-03 -9.681888e-02 -1.266492e-01 -7.095256e-02 -4.095607e-02 1.972687e-02 6.136128e-03 6.073684e-02 6.292666e-02 1.809653e-02
<VARIANCE> 39
 1.019925e+00 1.616135e+00 2.717108e+00 3.791857e+00 7.164396e+00 9.283749e+00 1.144543e+01 1.099684e+01 1.247669e+01 1.170547e+01 1.352677e+01 1.164774e+01 4.347291e-01 6.488270e-02 1.906477e-01 4.066088e-01 5.696686e-01 8.528644e-01 9.748806e-01 8.440261e-01 1.601688e+00 1.175997e+00 1.140497e+00 1.392116e+00 1.848097e+00 1.974788e-02 1.086936e-02 5.114182e-02 9.373759e-02 1.177763e-01 1.272384e-01 2.027248e-01 1.640385e-01 3.049385e-01 3.358979e-01 3.162373e-01 2.769811e-01 3.150185e-01 4.272465e-03
<GCONST> 5.553749e+01
<STATE> 3
<NUMMIXES> 3
<MIXTURE> 1 5.203225e-01
<MEAN> 39
 -8.202500e+00 -6.250158e+00 -9.301432e+00 -2.671789e+00 -2.183000e+01 5.778339e+00 -1.424789e+01 -1.395579e+00 9.970899e+00 3.128315e-01 6.132309e+00 1.858146e+00 4.272138e+01 8.095405e-01 -4.390440e-01 -2.066958e+00 -1.114088e+00 6.227007e-03 1.225526e+00 7.078050e-01 3.220789e-01 -2.394104e-01 4.733513e-01 1.986178e+00 1.580072e+00 5.106218e-01 1.135037e-01 1.151614e-01 6.048024e-02 3.847166e-01 5.162253e-01 3.887921e-01 7.211044e-02 -4.181959e-01 -4.765725e-01 -5.083992e-01 -2.316277e-02 -2.102914e-01 1.300818e-02
<VARIANCE> 39
 2.306755e+00 6.064913e-01 1.421822e+01 2.442706e+00 1.281888e+00 7.547134e+00 2.277532e+00 8.793720e+00 3.477400e+00 5.530499e+00 2.235191e+01 1.762941e+01 9.681260e-01 2.613201e-01 2.413702e-01 2.345066e-01 1.275365e-01 4.365572e-01 8.888425e-01 6.952965e-01 2.109573e+00 1.083046e+00 1.822456e+00 2.074513e-01 2.003805e-01 2.227619e-02 6.506254e-02 2.536508e-02 2.928767e-01 3.998579e-02 1.637898e-02 1.817434e-01 1.343573e-01 3.121407e-01 6.729476e-02 1.467340e-01 4.002947e-01 4.572569e-01 1.161719e-02
<GCONST> 4.597294e+01
<MIXTURE> 2 1.040690e-01
<MEAN> 39
 -1.198673e+01 1.689596e+00 3.656378e+00 6.351576e+00 -1.597184e+01 8.761923e+00 -1.181602e+01 -3.573459e+00 1.828629e+00 -1.237801e+01 -4.416732e+00 -2.635133e+00 3.889659e+01 8.317775e-02 9.258047e-01 5.347143e-01 -3.203614e-02 -1.080200e+00 -4.790019e-01 -8.148415e-02 3.067953e-01 1.224544e+00 -1.021425e+00 -3.103043e+00 -1.060364e+00 -7.543909e-02 5.218136e-02 -1.022853e-01 -2.524941e-01 -1.879258e-01 3.594683e-01 5.191578e-01 6.120349e-01 -9.838108e-03 -4.070073e-01 5.515254e-01 5.997849e-01 -1.196963e-01 5.267474e-02
<VARIANCE> 39
 0.000000e+00 3.260971e-08 0.000000e+00 0.000000e+00 0.000000e+00 2.731222e-08 0.000000e+00 6.080521e-07 0.000000e+00 0.000000e+00 0.000000e+00 8.144418e-09 0.000000e+00 1.997114e-08 3.251854e-09 4.515165e-12 0.000000e+00 6.916806e-09 0.000000e+00 2.665398e-07 0.000000e+00 0.000000e+00 4.940524e-10 6.739277e-07 0.000000e+00 0.000000e+00 1.974492e-10 4.709690e-11 3.908672e-11 0.000000e+00 0.000000e+00 0.000000e+00 0.000000e+00 0.000000e+00 0.000000e+00 1.779623e-08 2.294343e-08 9.002454e-10 0.000000e+00
<GCONST> -2.200001e+11
<MIXTURE> 3 3.756085e-01
<MEAN> 39
 -6.472418e+00 -7.478798e+00 -1.005458e+01 -1.848648e+00 -1.902618e+01 1.293690e+01 -9.715712e+00 -3.512577e+00 4.419731e+00 -4.916937e+00 5.984017e+00 1.244977e+00 4.384826e+01 4.000890e-01 -5.274336e-01 -3.732262e-01 -3.481549e-01 4.560816e-01 5.792170e-01 7.365581e-01 1.066538e+00 -1.282580e+00 -1.880532e+00 -1.531996e-01 -7.379922e-01 4.183372e-01 -3.193092e-01 -4.924005e-02 6.237521e-01 6.068833e-01 3.044395e-01 -2.279702e-01 -1.898127e-01 7.652334e-01 4.004584e-01 -1.679327e-01 -5.082135e-01 -3.780706e-01 -7.895131e-02
<VARIANCE> 39
 5.333228e+00 2.039636e+00 1.930830e+01 1.500101e+01 8.253969e+00 1.222305e+01 2.063054e+01 1.651386e+00 8.806817e+00 2.450074e+01 3.705075e+01 2.953896e+01 3.880475e-01 1.095819e-01 1.619702e-01 5.308458e-01 1.829500e+00 3.234268e+00 1.056752e-01 5.411907e-01 1.056095e+00 6.267679e-01 9.078037e-02 4.447288e-01 2.199123e+00 4.162183e-02 5.444638e-02 2.685189e-02 7.892968e-02 7.243919e-02 7.581845e-02 4.435296e-02 3.336198e-01 1.114144e-01 7.967012e-02 5.286481e-02 2.302070e-01 9.809542e-01 8.364666e-03
<GCONST> 5.511806e+01
<STATE> 4
<NUMMIXES> 3
<MIXTURE> 1 4.068939e-01
<MEAN> 39
 -6.861293e+00 -8.095471e+00 -5.790949e+00 1.967529e+00 -1.801568e+01 1.256547e+01 -1.143142e+01 1.960505e+00 1.600691e+00 -1.319050e+01 1.143236e+00 -1.985196e+00 4.427079e+01 5.334597e-02 -5.715130e-01 -1.329744e-01 6.390376e-02 -3.197144e-01 4.071121e-01 1.387312e+00 2.394894e+00 6.440923e-01 -1.071582e+00 7.056075e-02 1.024607e+00 4.611298e-01 -2.992135e-01 -7.979384e-02 2.851153e-01 3.996675e-01 5.574664e-01 2.137795e-01 1.054926e-01 -1.985547e-01 3.777463e-01 6.694923e-01 1.354222e-01 -4.544014e-02 -7.874675e-02
<VARIANCE> 39
 2.152396e+00 2.320221e-01 2.904634e+00 8.647016e-01 2.622066e+00 1.555279e+01 4.070387e+01 4.449757e+00 6.086083e+00 6.422932e-01 1.180785e+01 7.065563e+00 3.883488e-01 3.999029e-02 3.604857e-02 2.117599e-02 1.724353e-01 3.246909e-01 8.280054e-02 1.424389e-01 6.841058e-01 1.507186e-01 2.897943e-02 5.165596e-01 4.081867e+00 6.932996e-03 1.612960e-02 1.527641e-02 2.163467e-02 1.299837e-01 3.150796e-02 4.356837e-02 3.771983e-01 1.186940e-01 1.873459e-02 1.828764e-01 2.151575e-01 1.703002e-01 3.411392e-04
<GCONST> 1.704870e+01
<MIXTURE> 2 1.886257e-01
<MEAN> 39
 -4.791245e+00 -7.675358e+00 -1.450517e+01 -8.515736e-01 -1.316968e+01 1.215739e+01 -9.258915e+00 -1.849486e+00 1.968127e+00 -5.979004e+00 8.640816e+00 2.944153e-01 4.499915e+01 -6.470004e-01 -5.277011e-01 1.162465e+00 1.626329e+00 2.346128e+00 5.167348e-01 -5.446491e-01 2.106596e+00 1.578280e-01 -2.545084e+00 -2.172236e+00 -2.588535e+00 -2.194124e-02 -2.786514e-01 -2.085963e-01 5.008159e-02 -1.983921e-01 -4.847472e-01 -3.235779e-01 -4.286467e-01 1.794927e-01 9.395453e-01 2.175438e-01 -6.637918e-01 3.263686e-01 -9.962332e-02
<VARIANCE> 39
 7.971514e-03 1.082605e-01 2.077864e-01 1.488753e+00 2.191480e+00 7.838970e-01 3.956940e-02 3.673703e-01 3.159247e+00 1.140644e+00 4.369253e-01 5.007376e+00 8.616020e-02 6.727974e-02 1.975131e-02 3.092826e-04 4.964430e-02 1.914541e-02 6.119860e-02 3.343254e-01 2.987951e-02 6.586580e-02 3.210143e-01 3.001713e-01 4.203398e-02 5.030670e-04 1.557970e-02 7.459236e-04 6.499667e-02 5.983472e-02 6.282374e-02 9.002209e-05 6.294035e-02 6.374063e-02 6.370332e-04 6.398513e-02 1.246088e-02 2.813896e-01 8.945779e-04
<GCONST> -4.280862e+01
<MIXTURE> 3 4.044804e-01
<MEAN> 39
 -9.574855e+00 -3.777767e+00 -1.935928e+00 4.875391e+00 -1.768653e+01 1.016551e+01 -9.284361e+00 1.255161e+00 4.425246e+00 -1.365132e+01 -2.569542e+00 -2.280284e+00 4.175434e+01 -1.185279e-01 -2.885056e-01 -4.077695e-02 5.004723e-03 8.011581e-01 7.716142e-01 6.715767e-01 2.956594e-01 1.013222e-02 4.341466e-01 -5.265731e-03 1.741873e-01 1.565309e-01 9.572943e-03 -1.505373e-01 -2.140762e-01 -4.044581e-01 3.426856e-01 1.164345e-01 -1.873130e-01 -5.465570e-01 -2.805073e-01 5.618214e-01 9.321539e-01 -1.034175e-01 1.195684e-03
<VARIANCE> 39
 3.018909e+00 1.120537e+01 9.444848e+00 2.417224e+00 1.536472e+00 6.467220e-01 1.097884e+01 3.611970e+00 6.917583e-01 1.033117e+01 1.487821e+01 2.049823e+01 5.606729e+00 1.987884e-01 3.566957e-01 2.680141e-01 5.375735e-01 2.236619e-01 2.594548e-01 6.577486e-01 9.446789e-02 1.359065e-01 6.867403e-01 1.561123e+00 4.101420e-01 8.834726e-03 7.571426e-03 5.041060e-03 1.500506e-02 2.355175e-02 1.461475e-02 1.147858e-01 8.958992e-02 3.517417e-02 6.020139e-03 2.352979e-02 1.251607e-01 3.670819e-01 5.310312e-03
<GCONST> 2.620344e+01
<TRANSP> 5
 0.000000e+00 1.000000e+00 0.000000e+00 0.000000e+00 0.000000e+00
 0.000000e+00 9.481130e-01 5.188706e-02 0.000000e+00 0.000000e+00
 0.000000e+00 0.000000e+00 5.837272e-01 4.162727e-01 0.000000e+00
 0.000000e+00 0.000000e+00 0.000000e+00 4.574754e-01 5.425246e-01
 0.000000e+00 0.000000e+00 0.000000e+00 0.000000e+00 0.000000e+00
<ENDHMM>
~h "d-uw+ah"
<BEGINHMM>
<NUMSTATES> 5
<STATE> 2
<NUMMIXES> 3
<MIXTURE> 1 2.353421e-01
<MEAN> 39
 8.216106e+00 -9.049296e+00 -6.415028e+00 -1.739900e-01 -1.230331e+01 1.716629e+01 -1.813049e+01 8.951475e+00 1.389159e+01 -1.504512e+01 -4.239170e+00 -8.602140e+00 5.641495e+01 -4.171662e-01 4.998503e-01 -5.902409e-01 6.932614e-01 9.097118e-01 4.053763e-01 1.584565e+00 -2.601266e-02 -6.095341e-01 -1.211001e+00 6.307234e-01 2.386445e+00 -7.908267e-01 -1.831571e-02 -3.221599e-02 -8.509154e-02 1.615611e-01 -8.202412e-02 3.052557e-01 6.101323e-01 -4.579222e-01 -1.442566e-01 1.034611e+00 6.177785e-01 1.839910e-01 -4.871472e-02
<VARIANCE> 39
 3.427755e+00 7.272288e+00 1.238535e+01 1.186183e+01 3.263953e+00 5.427357e+00 3.149592e+00 9.491680e+00 2.418508e-01 1.268691e+01 3.363941e+00 7.142975e-01 7.594900e-01 8.717848e-03 1.778632e-01 1.510683e-01 7.045273e-02 6.781434e-02 7.498340e-02 2.459497e-01 2.484985e-01 5.754776e-02 6.257379e-01 9.046100e-01 1.016848e+00 1.283325e-03 1.835042e-02 3.545526e-02 1.143031e-01 5.103573e-02 2.227807e-01 1.161694e-01 1.764009e-01 2.444200e-03 1.086304e-01 4.038920e-01 1.790426e-02 3.185440e-01 1.583828e-03
<GCONST> 2.009753e+01
<MIXTURE> 2 2.307704e-01
<MEAN> 39
 6.148055e+00 -7.347687e+00 -4.003119e+00 2.149050e+00 -9.861272e+00 1.559154e+01 -1.938341e+01 -4.143458e+00 3.319036e-01 -1.714251e+01 -5.023453e+00 -1.054427e+01 5.492698e+01 -8.716193e-01 4.464225e-01 -5.274840e-01 1.971406e-01 -3.348896e-01 2.641392e-01 -5.405871e-01 -1.592307e+00 -2.104610e+00 -2.056105e+00 -2.992374e-02 -1.671576e+00 -1.134188e+00 -1.070666e-02 3.934906e-02 2.944415e-02 -6.956770e-01 -8.817290e-01 3.636013e-02 9.159204e-01 7.051811e-01 2.101106e-01 4.850895e-01 3.676777e-01 -1.198804e-01 6.868943e-02
<VARIANCE> 39
 2.900807e+01 3.690061e+01 4.701342e+01 7.554511e+01 1.786608e+00 1.798795e+01 8.341637e+01 1.890065e+00 9.695616e+00 2.497779e+01 1.280648e+00 4.963028e-01 3.898045e+01 5.547321e-01 1.629171e-02 9.284563e-01 6.828956e-01 9.137372e-01 9.545571e-01 4.445196e-02 1.285433e+00 1.123394e+00 2.239156e+00 4.476986e-01 2.627113e-01 9.503815e-02 5.756186e-03 1.973602e-01 2.570062e-01 4.005625e-02 2.827741e-01 1.095765e-01 1.970129e-01 5.293100e-02 2.039897e-01 2.821999e-01 4.056174e-02 7.567990e-02 6.783146e-03
<GCONST> 5.929770e+01
<MIXTURE> 3 5.338874e-01
<MEAN> 39
 7.007763e+00 -1.180180e+01 -8.151670e+00 -5.091230e+00 -1.534708e+01 1.791817e+01 -1.698660e+01 6.692501e+00 1.089632e+01 -1.007173e+01 -1.001440e+00 -1.387534e+01 5.655827e+01 -4.298340e-01 5.726463e-01 -4.683433e-01 3.420772e-01 9.372063e-01 2.105808e-01 -3.124011e-01 1.437093e-01 1.844252e-01 -9.765635e-01 4.864890e-02 8.273805e-01 -6.314821e-01 -4.824802e-03 3.068208e-02 -2.287559e-02 1.100549e-01 3.170519e-01 7.921956e-02 2.110259e-02 -2.907926e-01 9.204218e-03 3.467387e-01 8.944780e-02 1.504063e-01 -1.508732e-02
<VARIANCE> 39
 2.420850e+00 5.752645e+00 9.796514e+00 3.956475e+00 1.280100e+01 1.612002e+00 6.071763e+00 5.255676e+00 3.289377e+00 4.238771e+00 1.083551e+01 2.842331e+01 2.244467e+00 5.694101e-02 2.196467e-01 3.352034e-01 8.223888e-01 1.774201e+00 9.648495e-02 1.245792e-01 1.460007e+00 3.691193e-01 7.562895e-01 1.623417e+00 2.266145e+00 2.037168e-03 1.553610e-02 3.934091e-02 6.574311e-02 1.921005e-01 3.095704e-01 1.328112e-02 1.521878e-01 9.218443e-02 1.310811e-01 7.706781e-02 2.923980e-01 8.068690e-01 1.239635e-02
<GCONST> 4.636082e+01
<STATE> 3
<NUMMIXES> 3
<MIXTURE> 1 1.875004e-01
<MEAN> 39
 8.307073e+00 -6.817072e+00 -6.276924e+00 2.160525e+00 -1.157947e+01 1.964802e+01 -9.550093e+00 8.979156e+00 1.260803e+01 -1.231463e+01 -8.490404e-01 -1.501610e+00 5.465897e+01 -1.150282e+00 -5.915546e-01 -1.215266e+00 1.022732e+00 1.935213e+00 2.040157e+00 3.019076e+00 -3.149474e-01 1.232668e+00 3.601133e+00 1.272579e+00 1.100446e+00 -9.250628e-01 -3.243120e-01 -3.413004e-01 4.806744e-02 1.389104e-01 3.743556e-01 1.594066e-01 -3.498405e-01 -9.093101e-02 8.364524e-02 2.509381e-01 9.625912e-02 -4.367272e-01 -1.859826e-02
<VARIANCE> 39
 4.635791e-01 1.485335e+00 4.251796e+00 2.875240e+00 8.916964e-01 1.940187e+00 1.334478e+01 2.899731e-02 1.634029e+01 3.248671e+01 5.924870e+00 7.042245e+00 4.685574e-01 2.387290e-01 2.327683e-01 1.876940e-03 2.012884e-01 6.755427e-01 1.045417e-01 1.538731e-01 9.057439e-02 2.897587e-01 8.097365e-01 1.613893e-01 7.008701e-01 3.652590e-03 5.007558e-03 2.273841e-03 2.979487e-02 1.829603e-02 4.339483e-02 1.160217e-01 3.194818e-01 2.852664e-03 2.404182e-01 1.349525e+00 3.746513e-02 3.068039e-02 6.727635e-04
<GCONST> 9.329645e+00
<MIXTURE> 2 4.180689e-01
<MEAN> 39
 6.775158e+00 -6.359695e+00 -8.203918e+00 -5.123045e+00 -1.703349e+01 1.552374e+01 -2.028468e+01 -4.749781e+00 -2.052271e+00 -1.787060e+01 -2.465876e+00 -1.390720e+01 5.443072e+01 -1.506024e+00 1.405335e+00 4.762574e-01 1.473451e+00 -7.474225e-01 -7.169900e-01 7.097781e-01 -8.426303e-01 2.525055e-01 1.580672e+00 1.171360e-01 -4.219059e-01 -1.807666e+00 -4.329201e-01 -2.265491e-01 -4.816303e-02 4.129296e-01 4.327422e-01 -1.672739e-01 1.414863e-01 2.837358e-01 6.559786e-01 6.202524e-01 4.014194e-02 4.226545e-01 -2.508560e-01
<VARIANCE> 39
 6.880935e+00 8.702666e+00 4.722365e+00 1.211401e+01 2.450891e+01 9.240690e+00 3.158705e+00 1.948843e+01 5.183001e+01 3.243569e+01 1.410017e+01 1.477467e+01 7.991133e+00 5.296545e-01 5.589644e-01 3.604498e-01 2.421444e+00 3.594032e+00 1.140557e+00 6.554005e-01 2.528234e-01 1.326382e+00 6.665446e-01 6.433783e-01 5.529090e-01 4.545800e-01 3.865498e-02 2.971108e-01 2.012680e-01 2.754978e-01 3.758796e-01 3.386181e-01 1.099086e-01 7.241836e-02 1.089687e-01 3.400301e-01 6.528105e-02 1.056950e-01 6.894354e-02
<GCONST> 7.531843e+01
<MIXTURE> 3 3.944308e-01
<MEAN> 39
 -2.023340e+00 -1.657745e+00 -1.230322e+00 7.129476e+00 -1.459161e+01 1.403469e+01 -1.232332e+01 -2.518817e+00 4.565006e+00 -1.017272e+01 -2.326143e+00 -1.227785e+01 4.611235e+01 -1.718758e+00 -9.896986e-01 -8.580190e-01 1.917508e-01 4.189009e-01 2.156127e-01 8.121104e-01 7.793362e-01 1.331008e+00 1.502317e+00 9.699301e-01 8.917459e-01 -1.175945e+00 1.424088e-01 -5.654773e-01 -4.060172e-01 -5.254276e-01 9.259445e-02 5.514529e-01 1.427390e-01 1.055147e-01 -8.030655e-02 -1.045496e-01 3.125853e-01 5.710101e-01 2.771383e-01
<VARIANCE> 39
 1.015423e+01 1.761131e+01 6.331797e+01 2.000269e+01 3.214249e+01 1.728938e+01 3.486981e+01 1.564434e+01 2.197924e+01 1.129286e+01 6.198969e+00 6.562918e+00 8.025076e+00 4.195558e-01 6.007072e-01 7.529556e-01 2.110121e+00 1.795539e+00 8.095765e-01 2.745491e-01 7.596154e-01 1.109425e+00 1.329066e+00 4.241519e-01 1.076896e+00 3.507133e-01 1.010167e-01 1.190438e-01 1.701578e-01 8.856797e-02 1.458685e-01 1.933760e-01 1.588162e-02 2.212040e-01 2.348264e-01 8.223539e-02 2.354701e-02 4.807082e-02 8.975895e-02
<GCONST> 7.340384e+01
<STATE> 4
<NUMMIXES> 3
<MIXTURE> 1 1.583240e-01
<MEAN> 39
 -4.963277e+00 -8.626822e+00 -5.447343e+00 9.142886e+00 -8.758607e+00 1.910361e+01 -1.137848e+01 -1.343902e+00 1.190603e+01 -2.072702e+00 9.326899e-01 -4.685158e+00 4.599755e+01 -1.200153e+00 -3.863136e-01 5.831467e-02 3.782570e-01 3.045639e-01 2.553973e-02 5.646046e-01 4.344465e-01 8.417726e-01 8.570487e-01 3.142877e-02 -6.721538e-01 -7.264625e-01 1.829012e-01 -8.901256e-02 -4.631026e-01 -5.702760e-01 -3.695750e-02 3.402838e-01 5.332192e-02 1.786156e-01 -5.340789e-02 -8.832145e-01 1.024362e-01 3.625398e-01 6.378736e-02
<VARIANCE> 39
 2.475263e+01 6.550022e-01 3.704890e+00 3.254158e+00 1.058493e+01 1.692589e+01 2.322661e+01 4.227489e+01 2.875389e+01 8.296291e+00 6.081410e+00 4.932548e+00 1.292319e+01 1.200943e-01 3.251517e-01 1.418443e+00 1.559353e+00 1.516020e+00 1.495823e+00 5.551561e-02 1.238023e+00 4.302919e-01 1.604407e+00 4.174831e-01 3.596441e-01 1.876667e-02 1.764324e-02 3.857415e-02 1.927013e-01 1.207142e-01 1.751395e-01 4.108711e-01 6.312489e-01 3.720234e-01 6.628473e-01 2.579629e-01 3.398743e-02 5.905262e-02 3.587129e-03
<GCONST> 6.117313e+01
<MIXTURE> 2 4.617557e-01
<MEAN> 39
 -4.671547e+00 -8.821225e+00 -9.651948e+00 5.034860e+00 -9.621010e+00 1.904058e+01 -1.273356e+01 -3.134426e+00 5.949749e+00 -8.790215e+00 1.731470e+00 -4.325126e+00 4.542261e+01 -9.084715e-01 1.963833e-01 2.323581e-01 -2.037298e-01 -1.165802e+00 -5.580111e-01 7.341849e-01 -1.194232e+00 -1.110949e+00 -6.534402e-01 -4.345859e-01 7.169057e-01 -6.952586e-01 2.414326e-01 2.628620e-01 1.599330e-01 -3.221651e-01 -5.167074e-01 -4.458865e-01 -1.841430e-01 -4.344163e-03 3.794156e-04 3.611765e-03 -2.290367e-01 -2.722397e-01 1.399459e-01
<VARIANCE> 39
 4.541801e+00 1.874043e+00 6.345139e+00 6.946415e+00 2.249805e+01 9.658628e+00 2.343596e+01 2.562429e+01 2.939969e+01 1.163468e+01 1.609226e+01 1.809304e+01 2.744331e+00 7.925169e-01 3.549460e-01 3.416992e-01 1.016926e+00 1.304846e+00 1.678599e+00 3.772395e+00 2.169284e+00 4.901110e-01 8.096616e-01 1.708356e+00 1.670501e+00 4.407885e-01 5.892950e-02 9.183873e-02 7.709274e-02 8.778855e-02 1.687283e-01 3.593628e-01 5.489850e-01 3.574081e-01 3.515851e-01 4.334652e-01 2.185681e-01 1.142191e-01 4.521650e-02
<GCONST> 7.845399e+01
<MIXTURE> 3 3.799205e-01
<MEAN> 39
 -4.378857e+00 -9.463391e+00 -8.396255e+00 5.154330e+00 -9.840137e+00 2.124108e+01 -9.992945e+00 -1.180857e+00 1.004131e+01 -6.519841e+00 2.418633e+00 -4.488244e+00 4.594744e+01 -1.005434e+00 -2.147432e-01 -1.249655e-01 -4.658754e-01 -5.321500e-01 1.209162e-01 -5.212823e-01 -1.257565e+00 -1.088127e+00 1.401561e-01 2.481262e-01 5.547268e-01 -7.213619e-01 1.863323e-01 2.785537e-01 3.908161e-01 5.315961e-02 -3.381359e-01 -4.318627e-01 -2.653355e-01 -1.645296e-01 -2.971753e-01 -9.150758e-02 -1.926323e-01 3.247950e-02 1.151442e-01
<VARIANCE> 39
 1.970033e+01 6.122817e+00 7.103650e+00 5.589880e+00 2.330373e+01 9.381725e+00 1.413494e+01 4.462177e+01 9.220083e+00 1.250132e+01 6.425766e+00 1.400295e+01 1.227014e+01 6.029163e-01 1.283728e+00 1.767919e+00 1.270914e+00 1.440477e+00 1.833586e+00 1.416763e+00 1.520167e+00 1.707352e+00 1.299797e+00 7.638065e-01 2.081993e+00 2.862259e-01 4.776410e-02 4.479901e-02 5.575990e-02 1.819025e-01 2.366134e-01 2.597008e-01 3.593872e-01 6.791713e-01 4.233162e-01 3.687364e-01 4.802900e-02 1.735219e-01 4.117861e-02
<GCONST> 8.126911e+01
<TRANSP> 5
 0.000000e+00 1.000000e+00 0.000000e+00 0.000000e+00 0.000000e+00
 0.000000e+00 6.923071e-01 3.076929e-01 0.000000e+00 0.000000e+00
 0.000000e+00 0.000000e+00 7.499995e-01 2.500005e-01 0.000000e+00
 0.000000e+00 0.000000e+00 0.000000e+00 8.399972e-01 1.600029e-01
 0.000000e+00 0.000000e+00 0.000000e+00 0.000000e+00 0.000000e+00
<ENDHMM>
~h "sil"
<BEGINHMM>
<NUMSTATES> 5
<STATE> 2
<NUMMIXES> 3
<MIXTURE> 1 3.344695e-01
<MEAN> 39
 -8.825332e+00 -3.260901e+00 -2.708800e+00 2.858260e+00 -1.842549e+01 9.766504e+00 -1.337868e+01 -4.033326e+00 4.094406e+00 -7.134082e+00 2.330653e+00 -3.526261e+00 4.169561e+01 -4.240372e-01 -6.778294e-02 3.558750e-01 6.356701e-01 1.039968e+00 8.524803e-01 6.549445e-01 5.511156e-01 2.181920e-01 2.995212e-01 4.301396e-01 1.683711e-01 -1.985142e-01 8.647709e-02 9.798238e-02 6.474997e-02 2.168128e-01 2.080835e-01 2.813639e-01 4.036347e-01 2.101558e-01 1.475846e-01 5.901757e-02 -2.062882e-01 7.825637e-02 2.895920e-02
<VARIANCE> 39
 1.523855e+00 6.450926e+00 1.276398e+01 1.952961e+01 1.849423e+01 1.141916e+01 8.142933e+00 1.173324e+01 1.054735e+01 2.072154e+01 1.551459e+01 8.127934e+00 2.705810e-01 2.054312e-01 4.068398e-01 2.799804e-01 4.330247e-01 9.141081e-01 9.899596e-01 1.209001e+00 1.954208e+00 3.756293e-01 2.305044e+00 1.143718e+00 2.880865e-01 5.639101e-02 2.362754e-02 5.771991e-02 7.635695e-02 7.800964e-02 1.768415e-01 2.011043e-01 2.062296e-01 3.462217e-01 6.359076e-02 3.353389e-01 3.588532e-01 1.308938e-01 9.879936e-03
<GCONST> 6.112875e+01
<MIXTURE> 2 3.886118e-01
<MEAN> 39
 -5.692011e+00 -1.222766e+00 -4.781024e+00 -2.938949e-01 -2.454869e+01 5.997202e+00 -1.529503e+01 -8.088507e+00 1.933382e+00 -8.314198e+00 2.261773e+00 -7.122632e-01 4.262113e+01 -3.554483e-01 -1.964589e-01 -2.135856e-02 6.172493e-02 5.090463e-01 1.698785e-01 -2.925465e-01 3.469894e-02 -1.762837e-01 1.227779e-01 -3.749820e-01 -5.258353e-01 -1.603489e-01 -7.548966e-02 4.480156e-03 6.330554e-02 7.785743e-02 5.850073e-02 -6.462960e-02 -1.598031e-02 5.927395e-02 1.988219e-02 1.273681e-01 1.752098e-01 1.203795e-01 -3.114303e-02
<VARIANCE> 39
 4.582711e+00 7.648268e+00 3.711047e+00 5.413655e+00 1.076361e+01 1.193076e+01 1.908531e+01 1.406111e+01 1.037107e+01 1.102014e+01 1.117709e+01 1.187152e+01 6.632648e-01 1.108359e-01 1.339932e-01 4.659928e-01 9.887977e-01 7.007214e-01 5.256492e-01 7.971093e-01 1.061403e+00 6.989468e-01 1.233086e+00 2.075965e+00 1.375791e+00 5.343670e-02 1.272295e-02 3.934720e-02 1.236335e-01 1.657676e-01 1.452551e-01 6.810318e-02 1.567831e-01 2.137026e-01 7.757545e-02 9.761849e-02 1.466100e-01 1.047114e-01 7.760559e-03
<GCONST> 5.630135e+01
<MIXTURE> 3 2.769188e-01
<MEAN> 39
 -7.181160e+00 -3.094512e+00 -3.554129e+00 6.343237e-01 -2.161167e+01 8.557243e+00 -1.411216e+01 -6.280994e+00 3.826975e+00 -4.296094e+00 6.898517e+00 1.373747e+00 4.285826e+01 -4.118850e-01 -2.821169e-01 2.893139e-01 1.846567e-01 3.039058e-01 -1.789312e-02 1.367529e-01 2.147821e-01 6.790959e-01 1.148538e-01 1.158347e-02 -2.404554e-01 -1.876311e-01 5.561955e-02 -3.248797e-03 -5.823967e-02 -7.480892e-02 1.619430e-02 1.561965e-01 1.576917e-01 1.385454e-01 2.267349e-03 -1.404254e-01 -1.318678e-01 -1.604209e-01 1.210849e-02
<VARIANCE> 39
 2.344292e+00 5.546392e+00 3.601340e+00 9.315580e+00 8.674430e+00 1.113677e+01 1.315595e+01 2.674976e+01 2.644167e+01 1.827175e+01 9.514857e+00 9.705853e+00 5.742478e-01 8.322173e-02 2.343972e-01 2.872411e-01 7.429300e-01 8.726044e-01 1.507884e+00 7.039338e-01 8.668736e-01 1.307228e+00 9.453727e-01 9.018320e-01 7.237456e-01 3.676900e-02 8.525068e-03 2.349463e-02 5.273039e-02 1.030163e-01 1.324920e-01 1.898496e-01 4.392784e-02 1.610058e-01 2.758576e-01 2.438436e-01 2.113243e-01 1.118635e-01 5.047103e-03
<GCONST> 5.502314e+01
<STATE> 3
~s "silst"
<STATE> 4
<NUMMIXES> 3
<MIXTURE> 1 1.468531e-01
<MEAN> 39
 -1.007952e+01 -4.483950e+00 -4.347038e+00 2.331185e+00 -1.936281e+01 1.347287e+01 -8.661574e+00 -6.323746e-01 7.063232e+00 -7.209776e+00 -1.921321e+00 -8.001433e+00 4.058584e+01 -4.075171e-02 2.418242e-02 2.322495e-01 3.714779e-01 4.999652e-01 5.769941e-01 5.441471e-01 4.826241e-01 8.745391e-02 1.430263e-01 1.619862e-01 4.111908e-01 -4.156873e-02 8.171135e-02 1.178388e-01 9.407011e-02 1.026862e-01 3.461239e-02 -7.705869e-02 -1.078042e-01 -1.861059e-01 -1.334889e-01 7.966629e-02 2.736301e-01 4.122667e-01 2.866839e-02
<VARIANCE> 39
 7.816876e-01 2.293273e+00 6.208586e+00 9.611374e+00 1.688224e+01 1.302984e+01 9.423705e+00 1.461079e+01 1.366404e+01 4.605593e+00 1.220863e+01 1.686581e+01 3.348349e-01 1.093828e-01 2.187517e-01 4.248826e-01 7.196015e-01 9.175462e-01 1.156866e+00 9.948417e-01 1.118403e+00 7.300135e-01 9.993800e-01 9.748736e-01 1.444549e+00 2.219015e-02 2.315131e-02 3.010543e-02 7.875251e-02 1.742630e-01 3.071515e-01 3.548136e-01 2.093178e-01 1.894610e-01 2.337831e-01 1.711426e-01 2.296782e-01 3.461153e-01 5.017978e-03
<GCONST> 5.846439e+01
<MIXTURE> 2 4.152037e-01
<MEAN> 39
 -9.779972e+00 -3.450386e+00 -3.741941e+00 2.887056e+00 -1.901777e+01 1.277414e+01 -8.689045e+00 -1.808587e+00 5.826668e+00 -6.921591e+00 1.443379e-01 -5.369196e+00 4.051472e+01 -3.565930e-02 -2.110416e-02 -1.124787e-01 -2.307562e-01 -2.032387e-01 -2.647837e-01 -2.257615e-01 -2.693274e-01 -1.754815e-01 -3.450072e-01 -3.629181e-01 -3.638272e-01 -2.890554e-02 -1.476407e-02 -5.962355e-02 -1.880184e-02 3.575990e-02 7.648201e-02 4.297126e-02 -5.217547e-02 -3.086524e-02 -9.032828e-02 -1.088079e-01 -1.055353e-01 -6.518440e-02 -5.807685e-04
<VARIANCE> 39
 6.526061e-01 1.765143e+00 2.116976e+00 4.424694e+00 6.575412e+00 6.661444e+00 8.545216e+00 1.058927e+01 1.051316e+01 1.122782e+01 9.560217e+00 1.463969e+01 2.883970e-01 4.756453e-02 1.271446e-01 3.073440e-01 5.180582e-01 7.599598e-01 8.067242e-01 6.829111e-01 1.234268e+00 1.335080e+00 1.165857e+00 9.802259e-01 1.561360e+00 1.282037e-02 9.598548e-03 2.704184e-02 5.510268e-02 1.121855e-01 1.509541e-01 1.838243e-01 1.959310e-01 2.539219e-01 2.310182e-01 2.618077e-01 2.010770e-01 3.931726e-01 2.762067e-03
<GCONST> 4.855257e+01
<MIXTURE> 3 4.379417e-01
<MEAN> 39
 -1.003654e+01 -3.751319e+00 -3.293234e+00 4.342676e+00 -1.726844e+01 1.371124e+01 -9.115828e+00 -2.612580e+00 4.602042e+00 -8.071493e+00 -6.582636e-01 -4.948788e+00 4.039628e+01 -2.235628e-02 4.837548e-02 7.402403e-02 1.159336e-01 5.585505e-02 7.794104e-02 1.804371e-01 1.914169e-01 1.258738e-01 2.151098e-01 1.974896e-01 2.030570e-01 -2.165277e-02 1.118405e-02 2.402589e-02 -2.935090e-02 -1.232383e-01 -1.550874e-01 -6.458536e-02 3.677197e-02 6.789052e-02 1.196003e-01 7.559928e-02 3.497662e-02 -6.034515e-02 7.619179e-03
<VARIANCE> 39
 5.471973e-01 1.844173e+00 2.839498e+00 4.367596e+00 5.767381e+00 5.613493e+00 6.235097e+00 9.814494e+00 9.664955e+00 1.009766e+01 8.107102e+00 8.874545e+00 2.917430e-01 4.059661e-02 1.448586e-01 2.585628e-01 4.923319e-01 7.409183e-01 5.329950e-01 7.530338e-01 1.043609e+00 1.224131e+00 1.376158e+00 8.223063e-01 1.298358e+00 1.148912e-02 7.079871e-03 2.667210e-02 6.059905e-02 9.629282e-02 1.286475e-01 1.138452e-01 1.241797e-01 2.301480e-01 2.609946e-01 3.244780e-01 1.635187e-01 2.348644e-01 2.002794e-03
<GCONST> 4.373502e+01
<TRANSP> 5
 0.000000e+00 1.000000e+00 0.000000e+00 0.000000e+00 0.000000e+00
 0.000000e+00 8.408880e-01 3.766836e-33 1.591121e-01 0.000000e+00
 0.000000e+00 0.000000e+00 0.000000e+00 1.000000e+00 0.000000e+00
 0.000000e+00 1.362977e-03 0.000000e+00 9.668100e-01 3.182701e-02
 0.000000e+00 0.000000e+00 0.000000e+00 0.000000e+00 0.000000e+00
<ENDHMM>
~h "uw-ah"
<BEGINHMM>
<NUMSTATES> 5
<STATE> 2
<NUMMIXES> 3
<MIXTURE> 1 5.163436e-02
<MEAN> 39
 -8.557865e+00 -4.669107e+00 -1.668284e+00 6.433751e+00 -1.603810e+01 1.496937e+01 -9.327217e+00 1.681839e-01 9.214499e+00 -6.547352e+00 4.515062e-02 -8.879082e+00 4.169877e+01 -2.508418e-01 -5.340533e-01 -7.018469e-01 -6.048374e-01 5.342604e-02 3.974035e-01 3.469802e-01 -1.776284e+00 -1.358945e+00 7.428669e-01 1.651170e+00 1.855851e+00 -8.477397e-02 2.437610e-01 5.552288e-01 4.648965e-01 -1.015725e-01 -3.654150e-01 -4.311675e-01 -2.102001e-01 -3.339309e-01 -6.106263e-01 -3.823580e-01 -2.029808e-01 -1.270417e-02 1.067865e-01
<VARIANCE> 39
 6.604802e-01 1.295853e+00 4.779900e+00 2.285910e+00 2.568464e+00 5.997324e+00 1.920796e+00 3.270316e+00 6.146779e+00 2.641550e+01 4.932303e+00 1.136621e+01 1.078569e+00 1.533894e-01 1.505698e-01 2.352966e-01 2.240551e-01 1.424233e-01 9.383829e-01 5.022705e-01 8.925765e-01 2.984985e-01 8.264775e-02 1.036895e+00 8.884753e-01 5.506941e-02 2.259247e-02 1.045047e-01 1.404148e-01 1.371319e-02 9.769256e-02 2.744705e-01 1.667351e-01 5.026950e-02 2.413096e-01 3.616286e-01 6.865177e-02 4.319549e-01 4.669235e-03
<GCONST> 3.944250e+01
<MIXTURE> 2 5.854421e-01
<MEAN> 39
 -8.591111e+00 -4.373621e+00 -3.674427e+00 3.459823e+00 -1.969403e+01 1.255659e+01 -1.091305e+01 -3.539778e+00 4.548584e+00 -7.506526e+00 1.876967e+00 -3.477513e+00 4.178971e+01 -1.596600e-01 2.573351e-02 -1.286595e-01 -3.606929e-01 -3.981388e-01 -4.620769e-01 -3.587795e-01 2.114124e-01 4.487793e-01 7.623641e-02 -2.637700e-01 -2.332933e-01 -1.473651e-01 -1.648174e-02 -1.203740e-02 4.052913e-02 1.052868e-01 1.213053e-01 -7.429134e-03 -3.719458e-02 4.586323e-02 6.368700e-02 -4.876889e-03 -4.757721e-02 -8.790565e-02 -9.025140e-04
<VARIANCE> 39
 1.815784e+00 1.460869e+00 3.907794e+00 4.794777e+00 6.670982e+00 1.484251e+01 2.578715e+01 2.261211e+01 1.613935e+01 7.469290e+00 1.088052e+01 1.361827e+01 1.110061e+00 7.553825e-02 1.448122e-01 3.471520e-01 5.477471e-01 9.263648e-01 1.155283e+00 8.743981e-01 8.510764e-01 2.000355e+00 8.314881e-01 8.627542e-01 1.729395e+00 3.075201e-02 9.862669e-03 2.569886e-02 6.477782e-02 1.244601e-01 1.905555e-01 2.729424e-01 4.055018e-01 3.300275e-01 4.111987e-01 1.602848e-01 2.486582e-01 3.529058e-01 2.970465e-03
<GCONST> 5.842575e+01
<MIXTURE> 3 3.629236e-01
<MEAN> 39
 -9.382499e+00 -4.101755e+00 -3.037525e+00 4.452744e+00 -1.829444e+01 1.299510e+01 -1.098651e+01 -2.765318e+00 5.309736e+00 -6.882761e+00 9.483828e-01 -4.098006e+00 4.122622e+01 -9.108449e-02 1.036033e-01 2.748961e-01 3.999083e-01 2.419213e-01 1.788621e-01 4.122062e-01 2.129098e-01 -4.736712e-02 2.137572e-01 2.324460e-01 9.488609e-02 -5.429247e-02 6.824350e-02 -2.176313e-02 -3.618886e-02 -3.978018e-02 -9.234601e-02 -6.996369e-02 -6.440373e-02 -1.558521e-01 -9.408218e-02 -5.601707e-02 1.565997e-01 6.905134e-02 4.310511e-02
<VARIANCE> 39
 1.257761e+00 1.716873e+00 4.527256e+00 3.454986e+00 6.239102e+00 1.369667e+01 1.182079e+01 1.351718e+01 1.106285e+01 9.262425e+00 1.510890e+01 1.590310e+01 7.748870e-01 4.882879e-02 1.822310e-01 5.903127e-01 4.378980e-01 6.835446e-01 1.226135e+00 1.988093e+00 1.948413e+00 8.449291e-01 8.207860e-01 1.554083e+00 1.763523e+00 1.508858e-02 1.043636e-02 4.328502e-02 9.972912e-02 8.124255e-02 1.419594e-01 1.409841e-01 2.117934e-01 1.757154e-01 4.178557e-01 1.434832e-01 3.907325e-01 4.877726e-01 2.035950e-03
<GCONST> 5.573734e+01
<STATE> 3
<NUMMIXES> 3
<MIXTURE> 2 7.777784e-01
<MEAN> 39
 -5.502399e+00 2.671216e-01 -1.874500e+00 1.798517e+00 -2.202672e+01 5.487319e+00 -1.899946e+01 -1.142489e+01 -1.471209e+00 -8.409085e+00 2.255491e+00 -1.759686e+00 4.259108e+01 1.236631e+00 1.344744e+00 4.497137e-01 1.983972e-02 -1.556781e+00 -2.802154e+00 -2.125309e+00 -1.012865e+00 -1.341528e+00 -1.356365e+00 -4.362950e-01 2.340552e-01 4.157544e-01 -7.587488e-02 -1.693271e-01 -2.565151e-01 1.204454e-01 5.974975e-02 1.782297e-01 3.894454e-01 6.038681e-01 5.644652e-01 -1.128656e-01 -3.540180e-01 -3.386621e-01 -6.085846e-02
<VARIANCE> 39
 1.205012e+01 2.541236e+01 7.331547e+00 2.559538e+00 1.887847e+01 6.207219e+01 3.473714e+01 4.835982e+00 1.714533e+01 1.998220e+01 1.049567e+01 3.771605e+00 1.495111e+00 5.984414e-01 1.680323e+00 1.344785e+00 3.238029e-01 8.630373e-01 1.553126e+00 1.993937e+00 2.452428e+00 3.597791e+00 1.411301e+00 1.268748e+00 9.135430e-01 1.292531e-01 2.113297e-01 4.829947e-01 4.034900e-01 5.345004e-02 2.964544e-01 8.511407e-01 8.814006e-01 1.050659e-01 5.352669e-01 5.507964e-01 2.025703e-01 3.640161e-02 3.235028e-02
<GCONST> 8.378430e+01
<MIXTURE> 3 2.222215e-01
<MEAN> 39
 -7.694376e+00 -5.887978e+00 -7.495982e+00 -5.198193e-01 -2.111144e+01 1.042555e+01 -1.019729e+01 -2.328418e+00 5.203284e+00 -1.326558e+01 -6.862885e+00 -7.556033e+00 4.289253e+01 -2.694800e-01 1.068190e-01 7.327164e-01 -7.929952e-01 -1.345166e+00 -1.378904e+00 -9.063456e-01 -4.428914e-01 2.466220e-01 -3.118025e-02 4.671740e-01 1.296632e-01 -1.609250e-01 3.471502e-02 1.048672e-01 2.612565e-01 3.523380e-01 5.938981e-01 8.783001e-01 -7.984054e-03 -2.229423e-02 1.067702e-01 7.186237e-01 6.742896e-01 -1.637925e-01 3.343594e-03
<VARIANCE> 39
 2.611575e+00 3.705701e-03 3.262708e+00 9.753980e-02 2.523561e+01 1.119054e+01 4.837369e+00 8.964842e-02 4.873015e-01 1.857166e+00 5.648875e+00 4.036255e-01 7.743347e-01 1.815323e-02 4.502131e-02 3.900411e-03 2.852729e-01 4.906859e-01 4.293333e-01 9.138047e-01 3.662100e-01 1.409816e+00 8.936496e-01 1.177863e-01 1.328122e+00 4.074326e-02 1.101889e-02 1.555912e-02 1.193002e-02 6.944915e-03 1.010355e-01 7.332043e-02 2.505395e-01 2.562216e-02 6.077649e-02 7.549606e-02 1.817381e-01 2.201042e-01 5.804137e-04
<GCONST> 5.705399e+00
<STATE> 4
<NUMMIXES> 3
<MIXTURE> 2 5.729036e-01
<MEAN> 39
 -4.736252e+00 -8.949554e-01 -4.955729e+00 1.635209e+00 -2.495788e+01 5.979474e+00 -1.446638e+01 -5.341849e+00 5.684467e+00 -9.064051e+00 -1.474194e+00 -6.203619e+00 4.284926e+01 -1.544045e-01 9.716776e-02 8.515623e-02 1.678758e-01 4.720690e-02 2.450618e-01 4.222899e-01 -2.223907e-01 3.876571e-01 -1.355851e+00 -1.312058e+00 -6.246926e-01 -1.622992e-01 -2.249446e-01 -1.865973e-01 1.299160e-01 -1.606777e-01 4.961732e-01 4.149713e-01 5.867429e-02 -1.416248e-01 -4.198778e-01 1.725301e-02 2.193154e-01 1.654741e-01 -2.435935e-02
<VARIANCE> 39
 1.184259e+01 2.629320e+01 4.390583e+00 4.242526e+00 1.888940e+01 6.901933e+01 6.152992e+01 1.078589e+01 2.264641e+01 3.637884e+01 2.978608e+01 1.013890e+01 6.333074e-01 6.228552e-02 1.128936e-01 9.304891e-01 1.029323e+00 1.061708e+00 8.140471e-01 1.610036e+00 1.368258e+00 8.846375e-01 9.448490e-01 1.399182e+00 8.925896e-01 5.827260e-03 1.222749e-02 7.966905e-03 6.692494e-02 1.374441e-01 1.363971e-01 2.209481e-01 4.155916e-01 1.827230e-01 3.722026e-02 4.126715e-01 6.196355e-01 2.426956e-01 2.584141e-03
<GCONST> 6.448837e+01
<MIXTURE> 3 4.270964e-01
<MEAN> 39
 -7.785915e+00 -5.714864e+00 -6.387811e+00 2.910097e-02 -2.004385e+01 1.399865e+01 -8.552773e+00 -5.998492e-01 7.436001e+00 -6.438541e+00 6.326054e-01 -5.832737e+00 4.283612e+01 -1.517795e-01 4.110085e-01 4.443963e-01 -1.812509e-01 -1.013719e+00 8.666783e-02 4.376698e-01 3.916426e-01 5.208184e-01 1.417418e+00 1.470229e+00 2.471586e-01 -2.161177e-01 8.900265e-02 7.593181e-03 -1.259488e-01 2.608080e-01 2.505404e-01 3.396110e-01 2.657551e-01 -1.764233e-01 -5.957716e-02 -1.012042e-01 -2.876068e-01 -1.598384e-01 -1.060883e-02
<VARIANCE> 39
 1.657277e+00 2.390433e+00 8.727629e+00 4.454853e+00 4.356703e-01 2.005990e+00 2.295212e+00 1.190933e+01 2.567256e+00 8.577994e+00 6.301043e+00 1.028804e+01 2.575732e-01 9.103499e-02 3.781385e-02 3.129827e-01 6.008907e-02 1.150526e+00 1.334411e-01 7.721016e-01 9.322496e-01 2.384930e-01 6.734707e-01 1.059842e+00 8.984057e-02 7.574198e-03 7.707955e-03 1.761853e-03 4.622217e-02 1.472973e-02 3.222384e-02 6.624497e-02 1.725745e-01 2.462092e-01 4.328781e-02 5.918822e-01 5.401056e-01 2.341620e-01 1.695291e-03
<GCONST> 2.496494e+01
<TRANSP> 5
 0.000000e+00 1.000000e+00 0.000000e+00 0.000000e+00 0.000000e+00
 0.000000e+00 9.130445e-01 8.695548e-02 0.000000e+00 0.000000e+00
 0.000000e+00 0.000000e+00 5.555566e-01 4.444434e-01 0.000000e+00
 0.000000e+00 0.000000e+00 0.000000e+00 6.598603e-01 3.401398e-01
 0.000000e+00 0.000000e+00 0.000000e+00 0.000000e+00 0.000000e+00
<ENDHMM>
~h "ah-t+uh"
<BEGINHMM>
<NUMSTATES> 5
<STATE> 2
<NUMMIXES> 3
<MIXTURE> 1 1.934894e-01
<MEAN> 39
 -7.118446e+00 -1.381279e+01 -9.828868e+00 -1.864883e-01 -1.691250e+01 1.420946e+01 -7.163371e+00 5.384055e+00 4.578793e+00 -1.274158e+01 3.041677e+00 -2.994075e+00 4.580547e+01 3.477713e-01 3.204353e-01 4.732933e-01 -8.801222e-01 -1.185341e+00 -6.830268e-01 -1.071377e+00 -3.797921e-01 3.464701e-01 1.018013e+00 8.652224e-01 2.876425e-01 2.822903e-01 9.158444e-01 8.861881e-01 1.894112e-01 -5.166804e-01 -4.067337e-01 -2.847314e-01 -5.897310e-01 -4.653785e-01 7.066635e-01 8.493401e-01 3.840916e-01 4.352129e-01 5.278582e-01
<VARIANCE> 39
 4.445482e-01 8.789114e-01 2.219545e+01 2.396862e+00 1.238105e+01 1.700495e+00 1.599617e+00 3.352529e+00 6.555046e+00 2.072927e+01 1.238909e+01 2.250959e+01 6.931955e-01 8.360871e-02 8.273805e-01 1.016307e+00 1.010888e-01 8.657093e-01 2.249984e-01 2.011809e-01 4.721869e-01 1.475647e+00 1.130074e+00 5.799775e-01 1.302411e+00 2.426900e-02 1.168709e-01 3.533868e-02 1.212642e-01 1.664083e-02 4.095848e-02 1.073196e-01 1.348722e-01 6.216447e-02 9.144974e-02 2.429283e-01 5.356343e-01 3.516219e-01 5.394996e-02
<GCONST> 4.689011e+01
<MIXTURE> 2 3.491187e-01
<MEAN> 39
 -8.723807e+00 -9.817994e+00 -6.344047e+00 1.519921e+00 -1.460561e+01 1.489449e+01 -1.088160e+01 1.361488e-01 4.327780e+00 -7.970336e+00 6.365997e+00 -4.926337e-02 4.418100e+01 -1.255786e-01 -4.706703e-01 -4.409379e-01 -7.677937e-01 2.038504e-01 3.015605e-01 1.484933e-01 5.746240e-02 -4.579718e-02 -5.691630e-01 3.314989e-01 3.097990e-01 5.574577e-02 1.526916e-01 1.724574e-02 -2.980241e-01 -1.344444e-01 -2.921745e-01 -1.402794e-01 2.423372e-01 1.463981e-01 -1.243109e-01 -2.543718e-01 -1.105936e-01 -7.578346e-02 1.266958e-02
<VARIANCE> 39
 2.025788e+00 1.310752e+01 1.930542e+01 9.009709e+00 7.690867e+00 7.143675e+00 1.980942e+00 2.215907e+01 1.162732e+01 4.315312e+01 3.209408e+01 6.550341e+00 2.339034e+00 1.272134e-01 2.971033e-01 3.914589e-01 4.789902e-01 8.809406e-01 1.295205e+00 2.102377e+00 1.529913e+00 7.885972e-01 3.238945e+00 3.914521e+00 1.267369e+00 1.086473e-02 6.443998e-03 3.053999e-02 4.836870e-02 1.536979e-01 1.275916e-01 1.753395e-01 3.471166e-01 4.086437e-01 8.194649e-02 1.106405e+00 9.934325e-01 4.226461e-01 3.122415e-03
<GCONST> 6.646149e+01
<MIXTURE> 3 4.573919e-01
<MEAN> 39
 -7.796040e+00 -1.182982e+01 -8.959376e+00 7.929662e-01 -1.479383e+01 1.562732e+01 -6.709725e+00 3.768402e+00 4.722103e+00 -1.117812e+01 5.966515e+00 -1.176494e+00 4.518719e+01 1.385864e-01 -5.208960e-01 -6.453930e-02 4.619495e-01 -4.659033e-02 -3.269030e-01 6.902704e-03 4.395901e-01 3.426387e-02 1.256277e-01 1.400916e-01 -5.035433e-01 1.987591e-01 1.047157e-02 1.036504e-01 2.723005e-01 2.727324e-02 -1.275671e-01 -2.276091e-01 -4.535293e-01 -2.667871e-01 7.513091e-03 3.064466e-01 1.209338e-01 1.306857e-01 9.082916e-03
<VARIANCE> 39
 1.073550e+00 3.158682e+00 1.234140e+01 5.729993e+00 5.760692e+00 1.202021e+01 1.150529e+01 1.216199e+01 1.133883e+01 2.071285e+01 1.464397e+01 1.494184e+01 5.100744e-01 8.696429e-02 8.824966e-02 8.546757e-01 3.252004e-01 4.766924e-01 6.384327e-01 1.172701e+00 1.770873e+00 8.952768e-01 4.846695e+00 5.139768e+00 1.845177e+00 5.201710e-02 1.501326e-02 4.563723e-02 8.134151e-02 1.836132e-01 1.369649e-01 9.862299e-02 1.993527e-01 2.723868e-01 2.493056e-01 8.175882e-01 7.891092e-01 4.573978e-01 1.282244e-02
<GCONST> 6.498816e+01
<STATE> 3
<NUMMIXES> 3
<MIXTURE> 1 1.357326e-01
<MEAN> 39
 -6.393803e+00 -9.219912e+00 -6.562909e+00 -8.330684e-01 -1.855818e+01 1.056149e+01 -1.221675e+01 2.454232e+00 6.150570e+00 -8.388135e+00 7.644571e+00 -2.093807e-01 4.569353e+01 3.510030e+00 2.241757e+00 6.843543e-01 -1.736581e+00 -1.692081e+00 -1.753172e+00 -2.456148e+00 -5.568956e-01 2.004709e+00 2.173510e+00 4.975926e-01 6.131164e-01 2.205910e+00 9.757832e-01 -2.500104e-01 -1.291203e-02 -5.645036e-01 -2.532481e-02 9.484378e-02 -3.829998e-01 3.926631e-01 6.615480e-01 -2.687540e-01 -5.430819e-01 -2.990919e-01 9.058482e-01
<VARIANCE> 39
 7.007336e+00 2.595548e+01 3.799246e+01 5.608500e+00 1.006069e+01 5.511353e+00 4.733696e+00 8.770323e+00 1.593580e+01 2.288199e+01 5.406049e+00 1.195778e+01 5.607923e+00 2.736321e+00 1.625911e+00 4.881541e-01 8.250846e-01 5.970692e-01 2.122669e-01 6.503490e-01 7.472593e-01 1.181047e+00 1.747278e+00 1.035943e+00 7.043772e-01 1.211825e+00 2.535271e-01 3.625223e-01 2.380334e-01 2.333027e-01 3.190846e-01 8.305024e-02 7.021652e-02 1.784242e-01 2.356978e-01 3.959114e-01 1.040281e-01 2.127250e-01 1.183550e-01
<GCONST> 7.856850e+01
<MIXTURE> 2 3.588247e-01
<MEAN> 39
 1.003080e+01 -9.448754e+00 -4.624796e+00 -1.054102e+01 -2.233703e+01 9.210911e+00 -2.088536e+01 6.321424e+00 1.620570e+01 -6.512234e+00 2.077269e+00 -2.752660e+00 6.025090e+01 9.998598e-01 -7.839542e-01 2.496561e-01 -1.031950e+00 6.927903e-01 5.177166e-01 -1.595283e-01 1.201827e+00 1.291972e+00 -6.332168e-01 -1.742092e+00 -1.034115e+00 1.460196e+00 -7.609422e-01 -6.102742e-01 -1.608358e-01 2.365424e-01 5.820696e-01 4.904297e-01 7.332473e-01 2.300151e-01 -4.464957e-01 -5.950171e-01 -2.820152e-01 -2.966641e-02 -3.092765e-01
<VARIANCE> 39
 4.614489e+00 2.150113e+01 1.886112e+01 2.040553e+01 1.147670e+01 9.901010e+00 2.285013e+01 1.255388e+01 1.600824e+01 8.736371e+00 1.211019e+01 1.429706e+01 1.436064e+01 7.131170e+00 5.179317e+00 1.144364e+00 5.979407e+00 2.576965e+00 8.339253e-01 4.973764e+00 1.634581e+00 3.024694e+00 2.102400e+00 6.061440e-01 3.783346e-01 8.697818e+00 2.431082e-01 7.456535e-01 2.051519e-01 4.246106e-01 3.163599e-01 1.458000e-01 2.486937e-01 3.077773e-01 5.048469e-01 3.729303e-01 2.182481e-01 2.161998e-01 1.374896e-01
<GCONST> 9.980940e+01
<MIXTURE> 3 5.054427e-01
<MEAN> 39
 1.194084e+01 -1.648385e+01 -1.357479e+00 -1.372070e+01 -1.870128e+01 1.400871e+01 -2.195496e+01 1.079110e+01 1.653921e+01 -1.205499e+01 -1.903236e+00 -4.719328e+00 6.666599e+01 -2.606399e-01 4.845103e-01 3.846453e-01 8.644670e-01 2.472767e-02 4.729297e-01 -2.861655e-01 -5.520490e-01 8.533991e-02 1.112079e-01 2.991128e-02 -5.049408e-02 -5.739027e-01 -2.035695e-01 4.108979e-01 -1.954198e-01 2.399600e-01 -1.938373e-01 -1.421790e-01 1.132843e-01 -2.641461e-01 9.084447e-02 3.173662e-01 1.381740e-01 4.420377e-02 -4.779802e-01
<VARIANCE> 39
 4.202968e+00 1.311615e+01 4.257028e+00 1.607763e+01 7.716411e+00 1.018315e+01 2.495155e+01 1.376533e+01 1.319190e+01 7.646822e+00 6.883905e+00 7.320420e+00 1.375166e+01 9.187951e-01 2.348965e+00 1.149344e+00 1.713777e+00 1.492940e+00 1.253291e+00 4.211613e+00 1.334612e+00 2.151693e+00 1.467284e+00 1.520666e+00 7.519361e-01 2.365481e+00 1.323962e-01 2.818875e-01 1.621497e-01 3.189314e-01 3.542339e-01 1.789752e-01 9.337611e-01 2.028429e-01 4.321023e-01 1.322216e-01 4.078528e-01 1.718932e-01 1.009857e-01
<GCONST> 8.873054e+01
<STATE> 4
<NUMMIXES> 3
<MIXTURE> 1 1.314551e-01
<MEAN> 39
 -5.606936e+00 -3.921853e+00 -4.423825e+00 -2.855253e+00 -2.591621e+01 9.889838e+00 -6.103307e+00 9.627557e+00 2.152654e+01 -3.683010e+00 -6.399739e+00 -8.494345e+00 4.422417e+01 -9.902247e-01 2.190683e-01 1.063589e+00 7.705080e-01 -4.242148e-01 -3.416487e-01 4.236506e-01 -1.178719e-01 5.769518e-01 9.683756e-01 8.383307e-01 -3.452697e-01 -6.698440e-01 2.643746e-01 -1.146979e-01 1.186955e-01 -5.479627e-02 3.979285e-01 6.661673e-01 -7.765586e-01 -9.542578e-01 -7.497828e-01 -5.864407e-02 7.402201e-01 8.110914e-01 3.260178e-01
<VARIANCE> 39
 4.324827e-01 5.060287e+00 5.704745e+00 8.192245e+00 3.960069e+00 3.175863e+01 1.672822e+01 4.965356e+00 2.940926e+01 3.773235e+00 2.065648e+01 1.665439e+01 2.866828e-01 9.213684e-02 6.838643e-01 1.278084e+00 2.554545e-01 9.940854e-01 8.827230e-01 6.313620e-01 2.164367e+00 2.355844e+00 3.023253e-01 1.765518e+00 2.496328e+00 1.240674e-01 1.226877e-02 7.209883e-02 1.103884e-01 8.158524e-02 1.987863e-01 4.306495e-01 3.649756e-01 6.464322e-02 2.921706e-01 2.644300e-02 3.148253e-01 4.419290e-01 1.192920e-02
<GCONST> 6.100487e+01
<MIXTURE> 2 4.160253e-01
<MEAN> 39
 -4.422890e-01 -5.810141e+00 -5.253968e+00 -3.275299e+00 -1.957981e+01 1.456147e+01 -1.312868e+01 4.004079e+00 1.679482e+01 -6.960330e+00 -4.317220e+00 -5.289635e+00 4.908748e+01 -1.541327e+00 4.970673e-01 -9.553579e-01 -2.143789e-01 -1.009769e+00 -6.207360e-01 1.619746e+00 -1.497420e-01 -4.060259e-01 5.443971e-01 -3.806898e-02 3.424127e-01 -1.597722e+00 6.270929e-02 -1.731302e-01 2.881373e-01 -1.016872e-01 -3.298471e-01 -1.872519e-01 -8.937792e-02 1.993412e-01 -1.471999e-01 1.130875e-01 2.301032e-01 1.157196e-03 2.054147e-01
<VARIANCE> 39
 2.562310e+01 7.504274e+00 9.282428e+00 1.922006e+01 1.658509e+01 1.933717e+01 1.572106e+01 1.275839e+01 3.699628e+01 1.697500e+01 8.889722e+00 5.048650e+00 1.959868e+01 6.311491e-01 4.253829e-01 1.755146e+00 7.564589e-01 1.059694e+00 2.443687e+00 2.125049e+00 1.329057e+00 3.038610e+00 1.682734e+00 1.362071e+00 1.665492e+00 7.564951e-01 1.773104e-02 6.403577e-02 1.519829e-01 3.112853e-01 3.559536e-01 3.909651e-01 2.653663e-01 1.686500e-01 7.469051e-01 4.078437e-01 2.602625e-01 3.642050e-01 2.845646e-02
<GCONST> 8.752949e+01
<MIXTURE> 3 4.525195e-01
<MEAN> 39
 -7.349666e+00 -5.755991e+00 -6.176470e+00 -2.712624e+00 -2.282227e+01 1.365450e+01 -5.541801e+00 5.300221e+00 1.393870e+01 -3.541324e+00 -1.762060e+00 -4.517522e+00 4.363766e+01 -8.173103e-01 6.284036e-02 6.371843e-01 6.116591e-01 -9.456073e-02 -1.353508e-01 6.651618e-02 -4.964298e-01 -6.406356e-01 4.003237e-01 4.903845e-01 1.742878e-01 -5.627193e-01 1.895568e-01 4.168640e-02 1.695814e-01 1.402804e-01 2.075659e-01 -1.264296e-01 -3.854938e-01 -6.632025e-02 9.346896e-02 -2.382552e-01 -1.733890e-01 -8.859138e-02 1.509565e-01
<VARIANCE> 39
 4.923841e+00 4.738485e+00 1.557505e+01 1.594863e+01 1.190816e+01 1.267554e+01 7.325760e+00 5.805841e+00 1.300624e+01 1.043859e+01 6.977111e+00 6.022490e+00 2.251231e+00 3.773090e-01 2.032582e-01 6.042113e-01 3.733835e-01 6.972590e-01 1.419814e+00 2.898380e+00 1.465204e+00 1.405562e+00 1.316354e+00 1.118406e+00 1.217582e+00 2.849926e-01 2.085597e-02 5.611566e-02 2.482183e-01 7.967856e-02 2.207031e-01 2.619948e-01 2.379481e-01 1.773135e-01 3.811778e-01 2.897747e-01 1.918626e-01 2.579444e-01 3.463237e-02
<GCONST> 7.035601e+01
<TRANSP> 5
 0.000000e+00 1.000000e+00 0.000000e+00 0.000000e+00 0.000000e+00
 0.000000e+00 8.710433e-01 1.289567e-01 0.000000e+00 0.000000e+00
 0.000000e+00 0.000000e+00 9.224470e-01 7.755300e-02 0.000000e+00
 0.000000e+00 0.000000e+00 0.000000e+00 8.955876e-01 1.044124e-01
 0.000000e+00 0.000000e+00 0.000000e+00 0.000000e+00 0.000000e+00
<ENDHMM>
~h "s+ah"
<BEGINHMM>
<NUMSTATES> 5
<STATE> 2
<NUMMIXES> 3
<MIXTURE> 1 1.628479e-01
<MEAN> 39
 -1.071840e+01 -2.135422e+00 -5.931318e-01 6.272209e+00 -1.489511e+01 1.275213e+01 -8.955433e+00 -2.933270e+00 3.788248e+00 -7.175160e+00 4.506721e-01 -2.165708e-01 4.013646e+01 3.819997e-02 -6.252095e-02 -1.514294e-01 1.988948e-01 6.814746e-01 6.544446e-01 3.885204e-01 3.135096e-01 6.928673e-01 4.947951e-01 7.451904e-01 5.464106e-01 8.246232e-02 -2.686664e-02 1.255469e-02 1.149132e-01 -3.280032e-02 1.277544e-01 4.835509e-02 -6.584093e-02 1.334912e-01 -6.970389e-02 4.075018e-02 1.958122e-02 -2.695048e-01 6.906679e-03
<VARIANCE> 39
 4.324097e-01 8.638307e-01 1.606183e+00 3.002921e+00 3.531779e+00 5.568015e+00 5.038193e+00 1.076675e+01 1.112501e+01 2.260502e+01 1.864808e+01 5.031739e+00 1.150943e-01 7.900620e-02 1.249397e-01 7.515521e-02 2.997572e-01 4.552071e-01 2.565840e-01 7.536905e-01 6.461701e-01 5.392942e-01 1.718321e+00 9.174171e-01 1.051943e+00 1.013726e-02 8.670582e-03 1.358221e-02 3.800058e-02 6.348773e-02 1.523804e-01 1.350048e-01 1.643865e-01 1.091871e-01 2.093312e-01 4.897828e-01 3.257114e-01 1.904179e-01 2.795411e-03
<GCONST> 3.724839e+01
<MIXTURE> 2 4.543417e-01
<MEAN> 39
 -1.106184e+01 -2.450378e+00 -1.576188e-01 6.015790e+00 -1.379563e+01 1.285408e+01 -1.011717e+01 -2.113035e+00 3.387467e+00 -8.109900e+00 -7.633126e-02 -2.253293e+00 4.031023e+01 -6.056055e-02 6.536162e-03 6.169947e-02 -1.344419e-01 -4.745046e-01 -4.020870e-01 -1.492207e-01 -1.548355e-01 -5.833226e-01 -5.076581e-01 -6.599908e-01 -3.787510e-01 -5.936845e-02 3.995135e-02 2.338556e-02 -2.116352e-03 2.470894e-02 -1.046866e-01 -6.384660e-02 1.312354e-02 -1.458786e-01 -2.453522e-02 3.271852e-02 -5.744022e-05 3.739949e-02 7.894643e-03
<VARIANCE> 39
 6.047571e-01 1.199303e+00 4.609028e+00 6.042240e+00 6.345679e+00 6.456850e+00 1.071897e+01 1.291371e+01 9.642739e+00 1.179727e+01 1.338597e+01 8.889504e+00 2.664246e-01 4.908434e-02 1.039155e-01 3.173770e-01 6.331498e-01 7.938012e-01 8.149431e-01 1.057285e+00 6.612770e-01 8.949094e-01 1.628928e+00 1.953797e+00 1.050662e+00 1.903153e-02 1.030654e-02 2.264250e-02 5.057400e-02 1.173236e-01 1.745334e-01 1.458361e-01 2.675175e-01 1.293727e-01 2.079763e-01 4.905990e-01 4.520819e-01 2.083271e-01 4.114540e-03
<GCONST> 5.031161e+01
<MIXTURE> 3 3.828099e-01
<MEAN> 39
 -1.121931e+01 -2.151771e+00 4.238284e-01 6.081158e+00 -1.462294e+01 1.267105e+01 -9.131458e+00 -2.975786e+00 2.885098e+00 -7.931953e+00 -1.043861e+00 -2.667777e+00 4.009662e+01 3.374324e-02 -7.677195e-03 -7.933545e-02 -4.881046e-02 2.775069e-02 -2.275516e-02 -7.586524e-02 4.410045e-02 2.874373e-01 3.392636e-01 3.633462e-01 1.390007e-01 5.306506e-03 1.667077e-02 -7.307045e-02 -7.642110e-02 1.662866e-02 5.406042e-02 4.123712e-02 -8.905447e-02 2.187718e-02 3.724883e-02 -8.711052e-03 5.897482e-02 5.885778e-03 2.710869e-02
<VARIANCE> 39
 9.432197e-01 1.934162e+00 3.094225e+00 5.498370e+00 6.968317e+00 9.150976e+00 7.510840e+00 9.035165e+00 8.504958e+00 6.619045e+00 8.712475e+00 1.356261e+01 2.231280e-01 3.872238e-02 1.306998e-01 3.094639e-01 4.813510e-01 6.475112e-01 5.848969e-01 9.613839e-01 4.794312e-01 5.410714e-01 1.049880e+00 7.583792e-01 1.374206e+00 2.049281e-02 8.876573e-03 3.403596e-02 4.860745e-02 9.563439e-02 1.716201e-01 1.525422e-01 1.982661e-01 7.256458e-02 1.340469e-01 1.939025e-01 2.280162e-01 3.654356e-01 4.586297e-03
<GCONST> 4.456042e+01
<STATE> 3
<NUMMIXES> 3
<MIXTURE> 1 3.333339e-01
<MEAN> 39
 -1.057559e+01 -9.662978e-02 -4.867794e-01 7.655656e+00 -1.357506e+01 1.369271e+01 -8.960826e+00 -6.224149e+00 -3.006693e+00 -1.188972e+01 -2.917593e+00 -6.444862e-01 3.981009e+01 2.563816e-01 -9.248109e-01 -2.613035e-01 1.698796e+00 8.016444e-01 1.551214e+00 8.220660e-01 -2.171169e-01 9.182602e-02 -5.901203e-01 -1.394292e+00 -1.333940e+00 3.658118e-01 -1.124360e-01 -1.296996e+00 -4.930384e-03 9.812841e-01 3.528618e-01 -9.377823e-02 -7.849142e-01 1.011147e+00 1.740484e+00 -2.667597e-01 2.832519e-03 -4.830267e-01 3.635864e-01
<VARIANCE> 39
 0.000000e+00 0.000000e+00 9.097210e-14 5.760361e-16 0.000000e+00 0.000000e+00 1.125040e-12 0.000000e+00 0.000000e+00 4.934787e-12 4.101024e-13 0.000000e+00 0.000000e+00 0.000000e+00 0.000000e+00 0.000000e+00 0.000000e+00 1.598720e-14 0.000000e+00 1.452617e-13 0.000000e+00 9.493789e-15 0.000000e+00 0.000000e+00 3.956034e-13 1.131910e-14 0.000000e+00 0.000000e+00 5.641044e-14 2.479463e-13 0.000000e+00 0.000000e+00 0.000000e+00 0.000000e+00 0.000000e+00 1.600078e-14 0.000000e+00 6.610181e-14 0.000000e+00
<GCONST> -2.500001e+11
<MIXTURE> 2 6.666661e-01
<MEAN> 39
 -1.054505e+01 -3.682907e+00 -2.659054e+00 1.954588e+00 -1.948487e+01 8.298355e+00 -1.049745e+01 -5.928531e-01 2.431262e+00 -9.917041e+00 -6.378472e-01 -3.028603e+00 4.088022e+01 3.931838e-01 -1.029152e+00 -7.777269e-01 6.665536e-01 -3.012573e-01 -7.908693e-01 -2.251684e+00 -1.116571e+00 4.581623e-02 5.485402e-01 1.384807e+00 -1.777734e+00 4.495270e-01 1.874444e-01 4.630647e-03 -1.456213e-01 -1.195610e-01 3.340467e-01 1.174664e-01 -2.135427e-01 -2.744313e-01 6.918071e-02 -2.063018e-01 -5.802516e-02 -1.059768e-01 1.194689e-01
<VARIANCE> 39
 8.597314e-01 2.907212e-01 1.310248e-02 4.305130e+00 1.157277e+01 4.739695e-01 8.601903e+00 2.523387e-01 1.780947e-01 1.233479e-01 2.282235e+01 1.069785e+01 1.991597e+00 1.167431e-03 1.122747e-04 3.880428e-01 3.409162e-02 3.203264e-04 1.189108e-01 4.113168e-02 3.800893e-02 1.149403e-02 8.808722e-01 9.957321e-01 2.905170e-01 5.075248e-02 2.006710e-03 4.151952e-02 1.805066e-01 6.672862e-03 4.612322e-03 7.088128e-02 6.378156e-03 1.873338e-02 2.623748e-01 3.738613e-01 6.456597e-03 7.552191e-02 1.525533e-03
<GCONST> -2.296804e+01
<STATE> 4
<NUMMIXES> 3
<MIXTURE> 1 1.927728e-01
<MEAN> 39
 -1.124900e+01 -1.532112e+01 -2.247402e+00 1.387035e+01 -1.243098e+01 1.036473e+01 -1.431425e+01 1.836270e+00 1.036902e+01 -1.297155e+01 -1.140966e+00 -5.399830e+00 4.426213e+01 -1.822323e-01 -2.266396e+00 -5.552389e-01 1.125910e+00 7.191344e-01 -1.248050e-01 -7.394350e-02 1.855224e+00 2.507469e+00 8.556239e-02 1.232309e+00 6.751112e-01 5.992821e-01 5.193234e-02 3.682903e-01 -4.661386e-02 -5.563167e-01 -3.451516e-01 -1.604423e-01 2.207566e-01 2.390762e-01 -4.776289e-02 4.948094e-01 2.048925e-01 1.185436e-01 -9.294058e-02
<VARIANCE> 39
 1.187820e+00 4.765073e+01 4.830428e+00 1.254102e+01 1.170965e+01 1.155744e+01 3.156194e+01 1.097256e+01 2.813982e+01 6.827444e+00 2.313879e+01 1.299591e+01 3.606095e+00 1.320725e-01 1.115454e+01 2.398016e+00 2.291981e+00 1.462249e+00 8.272442e-01 3.144848e+00 2.385121e+00 1.016651e+01 1.472194e+00 1.447689e+00 1.245622e+00 8.065460e-01 4.202862e-02 7.938991e-01 1.112131e-01 4.963328e-01 2.990049e-01 2.508766e-01 5.140080e-01 5.389946e-01 1.314663e+00 1.436180e-01 3.795547e-01 3.962653e-01 4.440190e-02
<GCONST> 9.334986e+01
<MIXTURE> 2 6.105983e-01
<MEAN> 39
 -9.841477e+00 -7.803048e+00 2.483138e+00 1.266537e+01 -1.301315e+01 1.058349e+01 -1.203655e+01 -1.655789e+00 3.943244e+00 -1.373884e+01 -2.789132e+00 -6.256909e+00 4.309048e+01 1.669853e-01 6.006879e-01 2.232328e-01 -2.425353e-01 4.282559e-02 1.040189e-01 -2.265944e-01 -9.120458e-01 -8.874626e-01 -2.046745e-01 -5.164308e-01 -3.457337e-01 -8.482599e-02 -4.563508e-02 -9.013145e-02 -7.730040e-02 -5.356458e-02 3.201507e-02 3.829451e-02 -1.559238e-02 2.352701e-02 1.052945e-01 9.690889e-03 -2.236107e-02 8.851390e-02 -2.738443e-03
<VARIANCE> 39
 1.132046e+00 3.974112e+01 1.602711e+01 1.328011e+01 1.767975e+01 9.913981e+00 1.431174e+01 2.379848e+01 4.114803e+01 2.341356e+01 2.447241e+01 7.875136e+00 2.190151e+00 1.182196e-01 8.764532e-01 6.359780e-01 1.599447e+00 3.174027e+00 1.633335e+00 1.771421e+00 7.110277e-01 1.691558e+00 2.149964e+00 8.945380e-01 1.001560e+00 8.919361e-02 2.584712e-02 1.492220e-01 1.216206e-01 4.340181e-01 8.137045e-01 2.526197e-01 2.949186e-01 2.212428e-01 5.392178e-01 4.753532e-01 1.568390e-01 1.902629e-01 9.048846e-03
<GCONST> 8.075826e+01
<MIXTURE> 3 1.966289e-01
<MEAN> 39
 -1.054261e+01 -1.374508e+01 -2.325756e+00 1.077501e+01 -1.472469e+01 9.117751e+00 -1.356920e+01 2.727024e+00 1.013939e+01 -1.023207e+01 -7.981855e-02 -4.976469e+00 4.418321e+01 2.280646e-01 -1.329744e-01 1.804932e-01 -8.130332e-02 -2.318779e-01 -3.917798e-02 -2.692921e-01 7.933256e-02 -1.860572e-01 -6.859542e-02 -2.728461e-02 -5.960474e-01 2.079290e-01 4.147375e-02 2.280129e-01 1.493784e-01 -2.536987e-02 -7.848852e-03 7.217058e-03 -5.339208e-02 -1.951029e-01 -2.969863e-01 -2.922336e-01 -1.908681e-01 -5.345810e-02 -4.391782e-02
<VARIANCE> 39
 1.937349e+00 6.320289e+01 1.630575e+01 1.244342e+01 1.026801e+01 5.391774e+00 1.676063e+01 2.650119e+01 5.640508e+01 1.545660e+01 1.517402e+01 4.567290e+00 4.175467e+00 1.941665e-01 3.797443e+00 9.945197e-01 2.302791e+00 1.542854e+00 9.334881e-01 3.117787e+00 2.118412e+00 3.277443e+00 1.873621e+00 7.480490e-01 1.148146e+00 2.424273e-01 3.219615e-02 8.973424e-01 2.622711e-01 2.590945e-01 3.219022e-01 1.265943e-01 4.833574e-01 9.927881e-01 1.839723e+00 3.295625e-01 2.525320e-01 2.932529e-01 5.218967e-02
<GCONST> 9.114445e+01
<TRANSP> 5
 0.000000e+00 1.000000e+00 0.000000e+00 0.000000e+00 0.000000e+00
 0.000000e+00 9.733962e-01 2.660374e-02 0.000000e+00 0.000000e+00
 0.000000e+00 0.000000e+00 0.000000e+00 1.000000e+00 0.000000e+00
 0.000000e+00 0.000000e+00 0.000000e+00 8.877987e-01 1.122013e-01
 0.000000e+00 0.000000e+00 0.000000e+00 0.000000e+00 0.000000e+00
<ENDHMM>
