~o
<STREAMINFO> 1 39
<VECSIZE> 39<NULLD><MFCC_D_A_0><DIAGC>
~h "a"
<BEGINHMM>
<NUMSTATES> 6
<STATE> 2
<MEAN> 39
 -4.728082e+00 -7.524584e+00 -7.583552e+00 -1.201597e+01 -5.321330e+00 -1.159887e+01 -3.479557e+00 1.004722e+00 -1.764328e+00 -1.059209e+00 -5.477999e+00 -9.533658e+00 7.226156e+01 5.466110e-01 -1.790920e+00 -1.191055e+00 -8.977375e-01 1.090053e+00 1.650356e-01 9.779981e-01 9.568275e-01 3.914214e-01 -9.213701e-01 -1.261672e+00 -1.294654e+00 1.627367e+00 -4.729184e-01 5.146061e-01 3.211035e-01 5.617739e-01 3.110367e-01 3.385752e-01 6.192746e-02 -4.138306e-01 -2.691442e-01 -5.513005e-02 5.148410e-02 4.903987e-01 -8.317810e-01
<VARIANCE> 39
 2.083532e+01 2.185977e+01 5.860608e+01 3.557417e+01 7.561494e+01 7.466517e+01 6.995542e+01 8.649283e+01 5.932228e+01 5.819917e+01 6.592583e+01 5.384852e+01 4.683713e+01 2.162869e+00 1.638562e+00 2.627773e+00 2.706574e+00 3.826374e+00 3.252416e+00 3.995426e+00 4.301590e+00 3.908654e+00 3.355008e+00 3.554085e+00 3.424076e+00 2.483602e+00 4.101816e-01 3.529746e-01 4.850290e-01 4.545671e-01 8.051526e-01 7.505093e-01 7.129477e-01 8.595056e-01 7.425642e-01 6.807495e-01 7.336103e-01 6.552685e-01 4.114077e-01
<GCONST> 1.307898e+02
<STATE> 3
<MEAN> 39
 -4.587462e+00 -9.147568e+00 -9.066275e+00 -1.219376e+01 -1.572526e+00 -8.904225e+00 -2.196450e+00 1.164740e+00 -2.329883e+00 -3.441201e+00 -7.401137e+00 -1.046985e+01 7.322475e+01 -9.016035e-03 -2.087748e-02 -1.665065e-01 1.758557e-01 3.583508e-01 1.750831e-02 2.063812e-01 -9.768642e-02 -8.353025e-02 -1.966487e-01 -3.569836e-01 5.670166e-02 -1.232304e-01 2.324789e-02 4.096685e-01 2.761803e-01 2.220183e-01 -3.222958e-01 -1.211521e-01 -2.200095e-01 -2.410572e-01 -1.418785e-02 2.717334e-01 2.318543e-01 2.347688e-01 -3.804355e-01
<VARIANCE> 39
 2.055949e+01 1.743157e+01 4.343832e+01 3.839422e+01 5.372996e+01 5.409863e+01 6.451238e+01 8.460307e+01 5.072567e+01 5.935126e+01 5.506366e+01 5.774108e+01 4.766857e+01 3.524713e-01 6.756422e-01 1.027679e+00 1.058160e+00 2.073162e+00 1.963039e+00 1.653314e+00 2.051843e+00 1.725761e+00 1.734345e+00 1.860779e+00 1.625242e+00 3.778072e-01 9.408228e-02 1.887990e-01 1.757674e-01 2.300092e-01 3.070178e-01 2.896379e-01 3.817653e-01 4.582008e-01 3.475902e-01 3.430635e-01 3.468820e-01 3.374992e-01 1.330877e-01
<GCONST> 1.063094e+02
<STATE> 4
<MEAN> 39
 -4.497356e+00 -8.212863e+00 -8.915249e+00 -1.106988e+01 -3.389237e+00 -1.082936e+01 -1.918366e+00 4.765151e-01 -1.948725e+00 -2.742435e+00 -7.923112e+00 -9.634845e+00 7.199858e+01 3.640706e-01 1.436581e+00 9.023994e-01 1.102268e+00 -9.093792e-01 -4.792824e-01 -7.352532e-01 -9.945046e-01 -4.800553e-02 9.686503e-01 3.768762e-01 7.870319e-01 -1.608506e+00 -8.463922e-02 7.349197e-01 6.162743e-01 5.500672e-01 -8.337771e-02 1.562017e-01 -2.400215e-01 -5.374029e-01 -1.871849e-01 1.972183e-01 2.146668e-01 2.802483e-01 -8.559463e-01
<VARIANCE> 39
 2.010406e+01 1.856008e+01 4.932943e+01 3.880135e+01 5.971735e+01 6.465762e+01 7.178304e+01 8.552991e+01 5.335019e+01 5.866011e+01 6.346476e+01 5.952071e+01 4.718664e+01 7.320735e-01 1.378503e+00 1.932543e+00 2.059587e+00 3.429717e+00 3.295068e+00 3.408749e+00 4.208477e+00 3.107686e+00 3.063661e+00 3.426674e+00 2.962923e+00 1.107013e+00 1.995238e-01 2.880134e-01 3.467085e-01 4.231011e-01 6.052950e-01 6.120525e-01 6.875081e-01 8.236185e-01 6.289017e-01 6.393566e-01 5.902776e-01 5.403172e-01 3.408144e-01
<GCONST> 1.239607e+02
<STATE> 5
<MEAN> 39
 -5.246254e+00 -2.920331e+00 -5.826636e+00 -6.636734e+00 -3.332750e+00 -1.002873e+01 -3.908057e+00 -1.484415e+00 -2.672461e+00 -1.918899e-01 -6.049904e+00 -5.841367e+00 6.287410e+01 -7.049605e-01 2.559845e+00 1.962781e+00 2.309265e+00 5.312768e-02 8.312723e-01 -5.235116e-01 -1.484020e+00 -4.051591e-01 3.189512e-01 5.843739e-01 1.183281e+00 -3.587614e+00 -3.775705e-01 -8.156992e-04 1.841357e-01 1.215923e-01 2.144687e-01 4.111829e-01 2.287945e-01 -2.698619e-02 -8.297407e-02 -2.751194e-01 2.881475e-03 -2.264760e-02 -2.165860e-01
<VARIANCE> 39
 3.552207e+01 3.179636e+01 5.183871e+01 5.425873e+01 7.493399e+01 8.209332e+01 6.593996e+01 7.267748e+01 5.748279e+01 6.115781e+01 6.929514e+01 5.657504e+01 1.187523e+02 3.004611e+00 4.148829e+00 3.990138e+00 4.610290e+00 4.894571e+00 5.245355e+00 5.614667e+00 7.376175e+00 4.878743e+00 5.332563e+00 4.930201e+00 4.165231e+00 5.890173e+00 4.931858e-01 5.668695e-01 5.506496e-01 7.434648e-01 7.264614e-01 1.044627e+00 7.530941e-01 8.472388e-01 7.619991e-01 8.104900e-01 9.112403e-01 6.848361e-01 8.334448e-01
<GCONST> 1.414937e+02
<TRANSP> 6
 0.000000e+00 1.000000e+00 0.000000e+00 0.000000e+00 0.000000e+00 0.000000e+00
 0.000000e+00 5.016953e-01 4.983047e-01 0.000000e+00 0.000000e+00 0.000000e+00
 0.000000e+00 0.000000e+00 7.482288e-01 2.517712e-01 0.000000e+00 0.000000e+00
 0.000000e+00 0.000000e+00 0.000000e+00 4.531609e-01 5.468392e-01 0.000000e+00
 0.000000e+00 0.000000e+00 0.000000e+00 0.000000e+00 5.099506e-01 4.900494e-01
 0.000000e+00 0.000000e+00 0.000000e+00 0.000000e+00 0.000000e+00 0.000000e+00
<ENDHMM>
~h "b"
<BEGINHMM>
<NUMSTATES> 6
<STATE> 2
<MEAN> 39
 -1.441679e+00 9.800663e+00 3.076869e+00 1.063658e+00 -3.077166e+00 -2.456333e+00 -5.244366e+00 -9.183973e+00 -1.097674e+01 -3.647851e+00 -3.328557e+00 -6.207932e+00 5.061985e+01 2.722789e-01 2.490050e+00 1.347990e+00 1.454475e+00 1.062538e+00 7.105835e-01 7.090992e-01 1.167606e-01 -4.006740e-01 -1.330345e+00 -1.095374e+00 -7.065584e-02 -2.053571e+00 -3.203839e-01 -7.798479e-01 -3.208608e-01 -6.735099e-01 -3.064043e-01 -3.601171e-01 -1.690870e-01 4.210716e-01 5.073479e-01 2.795379e-01 2.130391e-01 5.214640e-02 9.514362e-01
<VARIANCE> 39
 2.130416e+01 1.885390e+01 1.460646e+01 2.201139e+01 2.607063e+01 3.390369e+01 3.244041e+01 3.532124e+01 3.839339e+01 3.173223e+01 4.848788e+01 2.892568e+01 4.162081e+01 3.659381e+00 2.689859e+00 3.369415e+00 4.483388e+00 3.599136e+00 3.645406e+00 4.856901e+00 5.033145e+00 4.374746e+00 4.060494e+00 4.549638e+00 3.508732e+00 5.779624e+00 2.709134e-01 4.192948e-01 5.540692e-01 5.355709e-01 5.919480e-01 5.096422e-01 7.569470e-01 8.114722e-01 7.301667e-01 6.829733e-01 7.048122e-01 6.233385e-01 4.234548e-01
<GCONST> 1.260749e+02
<STATE> 3
<MEAN> 39
 -1.018132e+00 1.263063e+01 4.625917e+00 1.777366e+00 -2.372900e+00 -2.779459e+00 -4.722727e+00 -6.717492e+00 -8.988728e+00 -5.140529e+00 -4.516835e+00 -5.754188e+00 4.870774e+01 -1.474480e-01 1.023997e-01 5.894397e-02 -1.436887e-01 2.963067e-01 8.191007e-02 6.288970e-02 3.828529e-01 2.737477e-01 -2.135887e-01 7.536929e-02 2.219370e-01 2.200684e-01 -2.101840e-01 -8.175014e-01 -5.020551e-01 -5.975970e-01 -2.790758e-01 -2.726818e-01 -2.850633e-01 -4.659324e-02 1.361872e-01 3.898953e-01 4.428651e-01 7.944039e-02 9.418567e-01
<VARIANCE> 39
 1.474634e+01 1.308907e+01 1.086755e+01 1.814867e+01 2.200325e+01 2.723219e+01 2.737833e+01 3.090301e+01 3.154515e+01 2.484076e+01 3.482214e+01 2.214776e+01 2.578343e+01 1.311647e+00 1.063162e+00 1.057740e+00 1.437496e+00 1.390282e+00 1.405595e+00 1.443885e+00 1.797887e+00 1.844229e+00 1.738795e+00 1.946912e+00 1.553717e+00 1.468256e+00 2.511865e-01 3.687930e-01 4.085914e-01 4.926850e-01 4.594471e-01 4.349976e-01 5.705419e-01 5.921115e-01 6.159756e-01 5.882810e-01 5.264113e-01 4.381039e-01 5.339532e-01
<GCONST> 1.071670e+02
<STATE> 4
<MEAN> 39
 -2.962234e+00 1.046009e+01 3.866054e+00 1.057782e+00 -1.037814e+00 -1.797589e+00 -4.339686e+00 -6.967891e+00 -9.302191e+00 -4.997046e+00 -3.558181e+00 -4.717202e+00 5.098162e+01 -6.288372e-01 -2.603521e+00 -1.962713e+00 -2.596524e+00 -8.387276e-01 -1.215980e+00 -1.344759e+00 2.217246e-01 9.409081e-01 1.408245e+00 1.887517e+00 3.131992e-01 4.003837e+00 1.328777e-01 -8.427222e-01 -5.159522e-01 -8.311026e-01 -7.979424e-01 -4.128099e-01 -4.227606e-01 1.323472e-01 2.731931e-01 5.497407e-01 4.002697e-01 -3.967254e-01 1.162883e+00
<VARIANCE> 39
 2.798865e+01 2.097906e+01 1.350776e+01 2.127535e+01 2.254201e+01 2.681884e+01 2.702741e+01 2.768367e+01 3.151273e+01 2.352537e+01 3.079419e+01 2.124423e+01 4.325577e+01 1.943105e+00 2.234001e+00 3.277521e+00 4.215727e+00 3.464614e+00 3.344038e+00 4.602541e+00 4.749060e+00 5.061450e+00 4.722070e+00 4.010113e+00 3.418064e+00 3.263240e+00 4.145387e-01 6.241404e-01 6.231980e-01 5.205452e-01 5.858688e-01 6.635261e-01 7.410277e-01 8.339950e-01 1.022949e+00 8.335648e-01 8.999034e-01 7.203422e-01 5.316283e-01
<GCONST> 1.250689e+02
<STATE> 5
<MEAN> 39
 -3.316319e+00 1.428383e+00 -3.326615e+00 -8.679936e+00 -5.152372e+00 -5.797757e+00 -1.011038e+01 -6.689206e+00 -5.864774e+00 1.939361e+00 3.336189e+00 -5.662616e+00 6.494666e+01 5.417457e-02 -3.242136e+00 -1.980081e+00 -3.089184e+00 -1.898530e+00 -1.413529e+00 -1.446709e+00 1.270556e+00 1.572791e+00 1.783454e+00 1.199803e+00 -1.427774e+00 4.508162e+00 1.158200e-01 3.762690e-01 5.052422e-01 6.137300e-01 -1.071660e-01 1.371337e-01 5.352393e-01 2.227738e-01 -1.589242e-01 -5.819206e-01 -8.254484e-01 -2.911011e-01 -7.321510e-01
<VARIANCE> 39
 2.700001e+01 2.829724e+01 3.488163e+01 5.632074e+01 2.763880e+01 4.056638e+01 4.366041e+01 3.917166e+01 4.782025e+01 5.907428e+01 6.526244e+01 4.000075e+01 6.583463e+01 2.192488e+00 4.107913e+00 5.686562e+00 4.713364e+00 4.973892e+00 4.794459e+00 6.879322e+00 7.963310e+00 8.657521e+00 6.759218e+00 7.432201e+00 6.421294e+00 3.863447e+00 3.436532e-01 4.899590e-01 3.880905e-01 9.139473e-01 6.991830e-01 5.817905e-01 8.275597e-01 7.590359e-01 7.373149e-01 1.063928e+00 1.066765e+00 7.133501e-01 5.589239e-01
<GCONST> 1.370337e+02
<TRANSP> 6
 0.000000e+00 1.000000e+00 0.000000e+00 0.000000e+00 0.000000e+00 0.000000e+00
 0.000000e+00 3.552070e-01 6.447930e-01 0.000000e+00 0.000000e+00 0.000000e+00
 0.000000e+00 0.000000e+00 6.570677e-01 3.429323e-01 0.000000e+00 0.000000e+00
 0.000000e+00 0.000000e+00 0.000000e+00 3.977008e-01 6.022992e-01 0.000000e+00
 0.000000e+00 0.000000e+00 0.000000e+00 0.000000e+00 3.859136e-01 6.140864e-01
 0.000000e+00 0.000000e+00 0.000000e+00 0.000000e+00 0.000000e+00 0.000000e+00
<ENDHMM>
~h "c"
<BEGINHMM>
<NUMSTATES> 6
<STATE> 2
<MEAN> 39
 -1.391328e+01 8.544396e+00 3.713134e+00 2.849735e+00 2.274018e+00 -3.110852e+00 -3.336535e+00 -5.266684e+00 -5.716703e+00 -3.545881e+00 -3.597134e+00 -1.995304e+00 4.574256e+01 -2.185641e+00 -1.320925e+00 -1.165246e+00 2.378817e-01 1.563301e+00 2.188712e+00 9.251448e-01 2.909978e-01 7.165934e-01 3.853959e-01 4.206640e-01 3.279347e-01 -1.738930e+00 -3.262914e-01 -7.490413e-01 -4.961913e-01 -1.068439e+00 -7.653952e-01 -5.523340e-01 5.564046e-02 3.980467e-01 2.120353e-01 3.747924e-01 2.874223e-01 2.232158e-01 1.466571e+00
<VARIANCE> 39
 2.993365e+01 3.288842e+01 2.800932e+01 2.540665e+01 2.280993e+01 2.934936e+01 2.579524e+01 3.066298e+01 2.660491e+01 2.461492e+01 2.381187e+01 2.091846e+01 4.556643e+01 3.898665e+00 3.843822e+00 3.578187e+00 4.247667e+00 4.055555e+00 7.414721e+00 3.697729e+00 3.711480e+00 3.430485e+00 2.372168e+00 3.143703e+00 2.705068e+00 1.253937e+01 6.522141e-01 1.083081e+00 6.902223e-01 6.478607e-01 7.762632e-01 6.660543e-01 7.030088e-01 8.020807e-01 5.826098e-01 6.035563e-01 6.351337e-01 4.874701e-01 8.935330e-01
<GCONST> 1.283328e+02
<STATE> 3
<MEAN> 39
 -1.823056e+01 2.275765e+00 -1.239903e+00 7.062793e-01 2.116549e+00 -3.445238e-01 -2.639156e-01 -1.542447e+00 -2.165233e+00 -3.954521e-01 -4.482567e-01 5.638451e-01 4.199829e+01 -1.483356e+00 -8.089117e-01 -9.918044e-01 -1.440474e+00 -8.534959e-02 -1.385152e-01 2.627203e-01 3.875475e-01 4.652857e-01 5.773136e-01 4.047793e-01 4.994412e-01 1.249203e+00 -4.219288e-02 3.437175e-01 1.787310e-01 -4.927142e-01 -3.684926e-01 -6.229987e-01 -2.245764e-01 -8.841276e-02 -1.675019e-01 -3.473675e-02 -1.194685e-01 -2.955143e-02 1.212810e+00
<VARIANCE> 39
 1.533676e+01 1.538481e+01 1.311071e+01 1.888760e+01 1.455272e+01 1.955861e+01 1.729807e+01 2.156925e+01 2.314884e+01 1.704728e+01 1.607688e+01 1.528526e+01 3.503926e+01 3.191315e+00 2.845990e+00 2.477242e+00 3.542101e+00 2.297400e+00 3.836887e+00 2.679959e+00 2.692174e+00 2.560418e+00 2.181271e+00 2.139138e+00 1.835102e+00 8.642681e+00 5.068772e-01 5.144569e-01 4.139690e-01 5.819317e-01 6.416340e-01 7.808933e-01 4.852365e-01 5.454170e-01 4.900241e-01 4.150131e-01 4.128488e-01 3.673544e-01 1.033259e+00
<GCONST> 1.148056e+02
<STATE> 4
<MEAN> 39
 -2.594778e+01 5.103829e+00 -4.296477e-01 -9.080299e+00 -9.923038e-01 -6.186896e+00 -1.439934e+00 -1.879905e+00 -3.277633e+00 4.274976e-01 -9.859912e-01 1.165545e+00 6.157866e+01 9.764028e-01 3.768823e-02 1.107043e+00 -6.006729e-01 -1.836263e+00 -1.417642e+00 -6.355484e-01 4.186580e-02 -4.082763e-01 -3.072703e-01 -2.331670e-01 -2.276807e-01 2.779964e+00 1.385217e+00 -4.506944e-01 2.609206e-01 5.057575e-01 -3.954858e-01 -1.912809e-01 -2.477197e-01 5.606806e-02 -8.286290e-02 -2.184843e-01 -3.835970e-02 -2.868253e-01 -6.058459e-01
<VARIANCE> 39
 4.872673e+01 2.768663e+01 3.471679e+01 2.170570e+01 4.687937e+01 3.231495e+01 3.018606e+01 2.513635e+01 2.218091e+01 1.791553e+01 1.754342e+01 1.442081e+01 5.761675e+01 1.305408e+01 4.240944e+00 3.954334e+00 4.479755e+00 5.448672e+00 4.944099e+00 3.205614e+00 3.263352e+00 2.941722e+00 2.504121e+00 2.305207e+00 2.143784e+00 7.480199e+00 1.339247e+00 8.635389e-01 8.364800e-01 7.199844e-01 9.626203e-01 8.996455e-01 7.114974e-01 6.157024e-01 6.465309e-01 5.290681e-01 5.415238e-01 4.638692e-01 6.370297e-01
<GCONST> 1.289363e+02
<STATE> 5
<MEAN> 39
 -1.167710e+01 2.492876e+00 4.691726e+00 -7.052568e+00 -1.043487e+01 -1.387538e+01 -6.285640e+00 -2.304204e+00 -5.756519e+00 -2.927881e+00 -2.985447e+00 -6.507742e-01 6.657153e+01 5.329643e+00 -2.586608e+00 5.910746e-01 -1.875243e-01 -2.701190e+00 -2.513779e+00 -1.744197e+00 5.265628e-01 -2.993843e-01 -7.041616e-01 -1.371032e-01 -1.402091e+00 1.566988e+00 -5.913869e-01 -3.399287e-01 -8.355110e-01 -2.924954e-01 8.745067e-01 7.270687e-01 3.834167e-01 1.390279e-01 2.739328e-01 3.264605e-01 1.891878e-01 -2.675780e-01 -3.959214e-01
<VARIANCE> 39
 4.194470e+01 4.046397e+01 4.958350e+01 3.134715e+01 5.422274e+01 4.994734e+01 3.764113e+01 5.237805e+01 3.478073e+01 2.403864e+01 2.590394e+01 2.003534e+01 8.149689e+01 4.105243e+00 5.481646e+00 5.894060e+00 3.479397e+00 8.297501e+00 5.862305e+00 5.921800e+00 6.154410e+00 6.422756e+00 4.585283e+00 5.038248e+00 4.059611e+00 2.245087e+00 6.791930e-01 4.301295e-01 5.137043e-01 6.759354e-01 8.936010e-01 7.435219e-01 7.098987e-01 6.478029e-01 5.719025e-01 4.822946e-01 4.733418e-01 3.916898e-01 5.192950e-01
<GCONST> 1.330565e+02
<TRANSP> 6
 0.000000e+00 1.000000e+00 0.000000e+00 0.000000e+00 0.000000e+00 0.000000e+00
 0.000000e+00 0.000000e+00 1.000000e+00 0.000000e+00 0.000000e+00 0.000000e+00
 0.000000e+00 0.000000e+00 7.710363e-01 2.289637e-01 0.000000e+00 0.000000e+00
 0.000000e+00 0.000000e+00 0.000000e+00 7.968276e-01 2.031724e-01 0.000000e+00
 0.000000e+00 0.000000e+00 0.000000e+00 0.000000e+00 0.000000e+00 1.000000e+00
 0.000000e+00 0.000000e+00 0.000000e+00 0.000000e+00 0.000000e+00 0.000000e+00
<ENDHMM>
~h "d"
<BEGINHMM>
<NUMSTATES> 6
<STATE> 2
<MEAN> 39
 -3.400018e+00 9.599795e+00 7.077785e+00 4.931806e+00 -4.691473e+00 -8.526876e+00 -6.835534e+00 -4.709459e+00 -5.683813e+00 -4.950036e+00 -7.672702e+00 -6.013329e+00 4.955775e+01 3.251114e-01 1.323328e+00 7.995447e-01 7.624168e-01 9.383373e-01 2.611949e-01 5.194582e-02 2.596308e-01 -3.064076e-02 -5.357857e-01 -4.909274e-01 -3.211691e-01 -8.578433e-01 -5.482427e-01 -8.840165e-01 -2.979144e-01 -8.506469e-01 -3.187951e-01 3.489580e-02 3.497710e-02 1.756875e-01 3.882198e-02 2.364072e-01 5.750316e-01 3.078065e-01 1.027739e+00
<VARIANCE> 39
 1.894212e+01 2.102223e+01 1.645582e+01 2.695707e+01 3.742054e+01 3.419932e+01 3.137274e+01 3.719159e+01 3.127805e+01 3.031728e+01 3.273195e+01 2.778726e+01 4.503262e+01 3.026899e+00 3.383911e+00 2.435729e+00 3.039442e+00 4.763008e+00 3.795755e+00 3.029811e+00 4.375906e+00 3.193603e+00 2.971179e+00 3.247968e+00 2.618226e+00 5.761694e+00 3.821281e-01 5.106083e-01 4.679633e-01 7.054729e-01 8.365647e-01 6.736624e-01 6.237332e-01 1.076277e+00 7.080240e-01 6.132976e-01 6.335634e-01 5.467708e-01 7.648701e-01
<GCONST> 1.255235e+02
<STATE> 3
<MEAN> 39
 -3.945863e+00 9.978335e+00 7.856559e+00 5.467319e+00 -2.725951e+00 -7.243067e+00 -6.623878e+00 -3.719018e+00 -5.095157e+00 -5.176940e+00 -7.353307e+00 -6.028062e+00 4.930004e+01 -1.676136e+00 -1.884179e+00 -1.665734e-02 -2.145133e+00 -2.764817e-01 1.920525e-01 -4.132418e-02 2.791296e-01 -2.885264e-01 1.083301e-01 1.446020e+00 1.036835e+00 2.967306e+00 -3.292264e-01 -1.060721e+00 -3.209042e-01 -1.099823e+00 -1.233081e+00 -5.513791e-01 -1.885806e-01 5.514603e-02 -1.163315e-01 3.858195e-01 7.502157e-01 2.065512e-01 1.673716e+00
<VARIANCE> 39
 2.005201e+01 2.126523e+01 1.632487e+01 2.948014e+01 3.490669e+01 3.128348e+01 2.897553e+01 3.180192e+01 2.700963e+01 2.646473e+01 3.075052e+01 2.732802e+01 4.100197e+01 2.322257e+00 2.547183e+00 2.861711e+00 3.654768e+00 4.599061e+00 4.851159e+00 3.865825e+00 5.255184e+00 3.810177e+00 3.270891e+00 3.388522e+00 2.758305e+00 5.360256e+00 4.688182e-01 6.169003e-01 6.469807e-01 6.587675e-01 8.177738e-01 7.362485e-01 6.877552e-01 1.417103e+00 8.928688e-01 6.552681e-01 6.857805e-01 5.997890e-01 5.774779e-01
<GCONST> 1.268285e+02
<STATE> 4
<MEAN> 39
 -1.082261e+01 2.409167e+00 6.123246e+00 -1.994216e+00 -2.916968e+00 -4.532504e+00 -5.061416e+00 -3.545038e+00 -5.641894e+00 -4.064420e+00 -3.126771e+00 -2.264724e+00 5.729749e+01 -1.213595e+00 -2.435321e+00 -2.661279e-01 -2.874269e+00 -2.576106e+00 -1.363517e+00 -6.301778e-01 4.738474e-01 -3.253679e-01 6.526781e-01 2.146281e+00 7.501384e-01 4.632203e+00 5.562646e-01 8.680277e-02 -1.416354e-01 7.317538e-03 -8.788902e-01 -5.764729e-01 -1.925743e-01 6.460487e-02 7.989544e-03 1.787374e-01 -5.950446e-03 -4.099889e-01 2.072961e-01
<VARIANCE> 39
 2.951748e+01 2.779695e+01 3.783392e+01 3.713771e+01 4.146882e+01 4.707698e+01 4.220419e+01 4.164365e+01 3.723595e+01 2.943689e+01 2.770247e+01 2.296425e+01 1.004585e+02 2.897487e+00 3.608531e+00 4.595336e+00 4.208627e+00 5.177051e+00 5.118283e+00 4.449992e+00 9.119299e+00 5.863079e+00 3.896247e+00 3.917559e+00 3.072593e+00 6.320735e+00 4.382982e-01 5.988648e-01 7.420998e-01 6.832556e-01 9.967822e-01 9.979940e-01 1.005088e+00 9.813065e-01 8.209237e-01 7.472561e-01 8.198137e-01 5.936037e-01 6.073141e-01
<GCONST> 1.347549e+02
<STATE> 5
<MEAN> 39
 -8.667371e+00 -2.759208e-01 5.625760e+00 -5.996504e+00 -1.273872e+01 -1.295937e+01 -8.925262e+00 -1.713000e+00 -5.247308e+00 -2.456038e+00 4.948596e-01 -1.694787e+00 6.779503e+01 2.240167e-01 -1.757915e+00 -8.250523e-01 -2.107614e+00 -2.942653e+00 -1.844507e+00 -4.907890e-01 1.094639e+00 1.985300e-01 7.738475e-01 1.169525e+00 -5.184236e-01 3.543491e+00 4.958132e-01 5.946528e-01 -1.847098e-01 6.561689e-01 6.473302e-01 4.201200e-01 3.498523e-01 -9.036126e-02 7.369669e-02 -1.174434e-01 -7.585912e-01 -6.541110e-01 -1.197875e+00
<VARIANCE> 39
 2.733573e+01 3.111386e+01 4.515141e+01 3.136864e+01 5.734362e+01 6.040382e+01 5.557703e+01 7.813250e+01 6.319920e+01 3.528117e+01 3.388247e+01 2.770959e+01 7.545451e+01 2.690237e+00 4.015845e+00 6.034902e+00 4.024597e+00 6.529680e+00 5.567652e+00 6.564483e+00 9.350250e+00 6.773858e+00 4.317862e+00 5.513398e+00 3.571937e+00 4.705369e+00 3.724222e-01 3.979554e-01 4.456453e-01 6.026087e-01 1.182347e+00 9.460469e-01 9.163108e-01 8.785810e-01 8.047191e-01 7.541618e-01 7.858658e-01 5.467885e-01 4.034349e-01
<GCONST> 1.366876e+02
<TRANSP> 6
 0.000000e+00 1.000000e+00 0.000000e+00 0.000000e+00 0.000000e+00 0.000000e+00
 0.000000e+00 6.040691e-01 3.959309e-01 0.000000e+00 0.000000e+00 0.000000e+00
 0.000000e+00 0.000000e+00 3.720212e-01 6.279788e-01 0.000000e+00 0.000000e+00
 0.000000e+00 0.000000e+00 0.000000e+00 1.851432e-01 8.148567e-01 0.000000e+00
 0.000000e+00 0.000000e+00 0.000000e+00 0.000000e+00 3.385883e-01 6.614117e-01
 0.000000e+00 0.000000e+00 0.000000e+00 0.000000e+00 0.000000e+00 0.000000e+00
<ENDHMM>
~h "e"
<BEGINHMM>
<NUMSTATES> 6
<STATE> 2
<MEAN> 39
 -4.506510e+00 -3.848072e+00 -1.708123e+00 -9.131371e+00 -1.025675e+01 -1.384096e+01 -8.153575e+00 -3.956546e-01 -4.052854e+00 6.628259e-01 -4.777475e-01 -7.349394e+00 6.932402e+01 1.297415e+00 -1.631932e+00 5.340767e-02 -1.095238e+00 -1.580786e+00 -1.225266e+00 -2.636008e-01 1.104009e+00 3.432890e-01 4.160656e-02 2.144926e-01 -1.141877e+00 2.037468e+00 -6.355853e-01 5.281237e-01 1.982526e-01 6.510558e-01 5.098056e-01 6.231410e-01 5.164184e-01 -3.910460e-01 -1.382671e-01 -9.709132e-02 -1.796952e-01 4.270629e-01 -1.158685e+00
<VARIANCE> 39
 2.613020e+01 2.938990e+01 6.987000e+01 3.750435e+01 6.573657e+01 8.038264e+01 8.346230e+01 9.015131e+01 5.982064e+01 5.168522e+01 7.226161e+01 5.012839e+01 4.799783e+01 4.190145e+00 2.250063e+00 3.796520e+00 3.345925e+00 4.677484e+00 4.792562e+00 6.005460e+00 6.429756e+00 5.645665e+00 4.291669e+00 5.353784e+00 4.081140e+00 3.044705e+00 6.129908e-01 5.122122e-01 8.874385e-01 6.889985e-01 8.975665e-01 9.677293e-01 9.153112e-01 1.025872e+00 9.816824e-01 8.150250e-01 1.008572e+00 7.698854e-01 7.008009e-01
<GCONST> 1.400413e+02
<STATE> 3
<MEAN> 39
 -5.836775e+00 -4.360309e+00 1.564742e+00 -1.022267e+01 -1.424913e+01 -1.545674e+01 -4.734764e+00 1.056229e+00 -5.315436e+00 -3.959463e-01 9.425992e-01 -7.365198e+00 7.111538e+01 1.285192e-01 2.373835e-02 -1.204825e-02 1.864689e-01 -6.035015e-02 -5.504134e-02 2.192323e-01 -1.343004e-01 5.680988e-03 2.711741e-02 -1.856785e-01 -3.724914e-02 -1.885327e-01 -1.352290e-01 4.665557e-01 9.464850e-02 4.671855e-01 3.537478e-01 2.639306e-01 -2.740540e-02 -4.103485e-01 -1.035927e-01 -4.209249e-03 -1.486656e-01 2.407243e-01 -6.575577e-01
<VARIANCE> 39
 2.438548e+01 3.339293e+01 7.591520e+01 3.517264e+01 7.163523e+01 6.770799e+01 8.950353e+01 1.028331e+02 6.710382e+01 5.294255e+01 7.620283e+01 5.306590e+01 4.374371e+01 7.940531e-01 1.021561e+00 1.529029e+00 1.747350e+00 2.009904e+00 2.140687e+00 2.379908e+00 2.371262e+00 2.480367e+00 2.111879e+00 2.249651e+00 1.681187e+00 8.370280e-01 3.285636e-01 3.650034e-01 4.660444e-01 4.026036e-01 5.600326e-01 5.420508e-01 6.927215e-01 7.743930e-01 6.019250e-01 5.338995e-01 5.653155e-01 4.846624e-01 4.304920e-01
<GCONST> 1.220321e+02
<STATE> 4
<MEAN> 39
 -3.814630e+00 -3.884591e+00 -1.360492e+00 -8.170856e+00 -1.105755e+01 -1.403198e+01 -7.059762e+00 -1.347922e+00 -4.666347e+00 7.999972e-01 -6.872663e-01 -7.181896e+00 6.868432e+01 9.651155e-02 1.765915e+00 6.655048e-01 1.943884e+00 7.675103e-01 7.757855e-01 1.263469e-01 -1.621455e+00 -4.517874e-01 -4.119890e-02 -6.376460e-01 6.513622e-01 -2.506357e+00 -4.057713e-01 6.728419e-01 3.017966e-01 4.886551e-01 5.180164e-01 5.935529e-01 1.812794e-01 -3.753133e-01 -1.170324e-01 -1.582561e-01 -2.200385e-01 2.275259e-01 -8.891004e-01
<VARIANCE> 39
 2.564235e+01 2.962499e+01 7.293640e+01 4.748539e+01 6.728688e+01 8.455384e+01 7.935725e+01 9.796006e+01 7.743131e+01 5.772122e+01 7.830976e+01 5.191451e+01 4.762503e+01 1.670243e+00 2.810781e+00 3.444954e+00 3.044470e+00 4.454799e+00 4.621499e+00 5.241383e+00 5.458745e+00 4.907592e+00 4.559811e+00 4.799556e+00 3.795209e+00 3.131656e+00 5.071632e-01 4.104591e-01 7.035813e-01 6.750640e-01 8.056581e-01 9.435223e-01 9.057517e-01 1.096330e+00 1.075658e+00 8.688195e-01 9.242626e-01 6.618552e-01 4.781741e-01
<GCONST> 1.381786e+02
<STATE> 5
<MEAN> 39
 -5.676164e+00 7.658310e-01 -2.140592e-01 -3.853211e+00 -8.865781e+00 -1.104657e+01 -5.287681e+00 -4.438441e+00 -4.689966e+00 8.077980e-01 -2.056890e+00 -4.814352e+00 6.070145e+01 -5.634273e-01 1.677697e+00 7.294124e-01 1.839528e+00 1.431291e+00 1.561414e+00 2.547707e-01 -1.300637e+00 -1.402539e-01 -3.952387e-01 -8.224018e-01 6.043575e-01 -2.770365e+00 -2.762969e-01 -1.564806e-01 -9.551127e-03 -2.546050e-01 8.435144e-02 1.775405e-01 8.327440e-02 1.906634e-01 1.477368e-02 -6.489521e-02 6.843375e-02 -5.886832e-02 1.600692e-01
<VARIANCE> 39
 4.231578e+01 3.780371e+01 5.516070e+01 4.393227e+01 6.678362e+01 7.611464e+01 6.292221e+01 7.388380e+01 6.952146e+01 5.183129e+01 6.373210e+01 4.556374e+01 1.056971e+02 3.321512e+00 4.263167e+00 4.931896e+00 4.308408e+00 6.416408e+00 6.400450e+00 5.892383e+00 7.685852e+00 5.888412e+00 5.398692e+00 5.557570e+00 4.265755e+00 6.130054e+00 4.793477e-01 4.781356e-01 4.858850e-01 5.479311e-01 7.187758e-01 8.545995e-01 6.633061e-01 7.820765e-01 8.704290e-01 6.794378e-01 7.168164e-01 5.428272e-01 4.689441e-01
<GCONST> 1.401562e+02
<TRANSP> 6
 0.000000e+00 1.000000e+00 0.000000e+00 0.000000e+00 0.000000e+00 0.000000e+00
 0.000000e+00 2.766251e-01 7.233749e-01 0.000000e+00 0.000000e+00 0.000000e+00
 0.000000e+00 0.000000e+00 6.746045e-01 3.253955e-01 0.000000e+00 0.000000e+00
 0.000000e+00 0.000000e+00 0.000000e+00 2.238341e-01 7.761660e-01 0.000000e+00
 0.000000e+00 0.000000e+00 0.000000e+00 0.000000e+00 2.803839e-01 7.196161e-01
 0.000000e+00 0.000000e+00 0.000000e+00 0.000000e+00 0.000000e+00 0.000000e+00
<ENDHMM>
~h "f"
<BEGINHMM>
<NUMSTATES> 6
<STATE> 2
<MEAN> 39
 -1.178098e+01 3.682266e+00 -1.495489e+00 -2.194088e+00 -1.282745e+00 -3.653076e+00 -2.653295e+00 -2.794580e+00 -5.031797e+00 -9.487719e-01 -1.981291e+00 -7.765075e-01 5.872770e+01 -3.761322e+00 4.262125e-01 5.040351e-01 2.335124e+00 1.510895e+00 1.477051e+00 5.234975e-01 1.069102e+00 1.472383e+00 -2.214551e-01 -1.558648e-01 8.974897e-01 -1.171285e+00 -5.372207e-01 -7.106703e-01 -2.532966e-01 -3.610771e-01 -4.338287e-01 -2.646022e-01 -4.888207e-02 1.180580e-01 1.219061e-01 1.922431e-01 6.883342e-02 -1.931019e-01 2.089543e-01
<VARIANCE> 39
 5.340117e+01 1.892710e+01 3.067549e+01 2.843721e+01 2.665778e+01 3.602187e+01 2.736379e+01 2.730954e+01 2.630486e+01 2.494878e+01 2.316500e+01 1.876166e+01 7.953611e+01 5.262043e+00 3.362021e+00 6.480615e+00 5.959207e+00 5.882108e+00 5.339679e+00 4.198578e+00 5.957122e+00 5.103659e+00 3.537524e+00 4.279630e+00 3.242658e+00 4.276472e+00 4.978124e-01 4.735708e-01 4.100274e-01 4.775217e-01 5.928008e-01 5.614169e-01 5.498497e-01 5.936306e-01 6.286318e-01 5.448138e-01 4.885143e-01 4.264263e-01 2.809728e-01
<GCONST> 1.267525e+02
<STATE> 3
<MEAN> 39
 -1.965305e+01 1.997205e+00 -5.642557e-01 1.842910e+00 1.341461e+00 -1.269273e+00 -1.036207e+00 -3.212171e-01 -2.164330e+00 -5.272651e-01 -2.236933e+00 -3.382599e-02 5.769548e+01 -3.245849e+00 -1.025236e+00 -6.342921e-01 5.168969e-01 5.978165e-02 2.932241e-01 1.444326e-01 7.668850e-01 9.898718e-01 3.326439e-01 2.069704e-01 5.826811e-01 -5.553691e-01 7.188799e-01 -3.547079e-01 -3.971423e-01 -8.331478e-01 -6.320077e-01 -5.533668e-01 -2.506468e-01 -2.789501e-01 -3.395827e-01 1.362256e-01 8.991130e-02 -2.058253e-01 3.835067e-01
<VARIANCE> 39
 3.677613e+01 1.788017e+01 2.081855e+01 1.744851e+01 2.513775e+01 2.401539e+01 2.176009e+01 2.054774e+01 2.189489e+01 1.935662e+01 1.803248e+01 1.549170e+01 7.485340e+01 4.451061e+00 2.007472e+00 3.221945e+00 3.700877e+00 2.992129e+00 3.383266e+00 2.711920e+00 3.055563e+00 2.706876e+00 2.599535e+00 2.449864e+00 2.021886e+00 2.190766e+00 6.144969e-01 5.066421e-01 6.238626e-01 5.652258e-01 6.241322e-01 5.769057e-01 5.054852e-01 6.824845e-01 6.442613e-01 5.206586e-01 5.235822e-01 4.354674e-01 3.038720e-01
<GCONST> 1.179407e+02
<STATE> 4
<MEAN> 39
 -2.306837e+01 -1.216481e+00 -4.635205e+00 -1.138286e+00 -1.826569e+00 -3.397187e+00 -2.306967e+00 -4.773283e-01 -1.903665e+00 3.106520e-01 -1.113416e+00 9.600829e-01 5.520262e+01 2.085766e-02 -1.754408e-01 -1.207605e-01 -1.783316e-01 -1.515112e-01 -2.121093e-01 -1.036748e-01 -4.105499e-02 -6.007947e-03 5.335931e-02 5.832538e-03 -1.783982e-02 6.886010e-02 5.700474e-01 1.476611e-01 1.806113e-01 -3.790542e-02 2.106220e-02 -3.824737e-02 4.706806e-04 -7.563025e-02 -1.315468e-01 -6.478623e-02 -1.355061e-02 -1.250459e-01 6.112767e-02
<VARIANCE> 39
 2.795854e+01 1.203837e+01 1.310297e+01 1.327414e+01 1.900705e+01 2.029606e+01 1.856261e+01 1.773551e+01 1.916760e+01 1.685961e+01 1.471808e+01 1.304522e+01 9.328973e+01 1.468457e+00 8.491139e-01 1.098231e+00 1.196561e+00 1.396189e+00 1.584585e+00 1.525410e+00 1.579379e+00 1.615642e+00 1.568109e+00 1.474809e+00 1.344211e+00 1.314605e+00 4.813761e-01 2.052510e-01 2.596747e-01 2.870109e-01 3.117180e-01 3.619835e-01 3.423552e-01 3.803209e-01 4.010729e-01 3.500255e-01 3.310599e-01 3.132070e-01 2.064930e-01
<GCONST> 9.909379e+01
<STATE> 5
<MEAN> 39
 -1.600136e+01 -2.679408e-01 -2.294764e+00 -2.542443e+00 -3.282903e+00 -5.530863e+00 -2.576514e+00 -1.257267e+00 -3.300788e+00 -5.507237e-02 -1.046910e+00 -1.012694e+00 5.797205e+01 3.277941e+00 2.738763e-01 5.419883e-01 -1.072108e+00 -9.368298e-01 -7.341506e-01 -4.026338e-01 -5.278991e-01 -1.129716e+00 -3.900148e-01 2.536635e-01 -1.042976e+00 7.411056e-01 2.482034e-01 -1.229668e-01 3.237153e-02 -2.974562e-01 -3.496833e-01 -1.222544e-01 -9.642015e-02 -6.786678e-02 -2.068974e-01 -3.478734e-02 1.272634e-01 -2.142136e-01 3.088211e-01
<VARIANCE> 39
 7.118861e+01 2.521201e+01 3.742394e+01 3.612814e+01 5.158731e+01 4.904839e+01 3.381169e+01 3.503348e+01 3.300481e+01 2.676114e+01 2.720732e+01 2.421564e+01 1.004560e+02 7.898355e+00 3.449981e+00 5.041612e+00 5.602593e+00 5.091942e+00 5.216896e+00 3.978842e+00 5.075270e+00 5.004018e+00 3.347207e+00 3.985442e+00 3.541703e+00 5.841712e+00 1.228796e+00 5.235009e-01 5.621617e-01 7.363443e-01 7.529341e-01 6.918494e-01 7.205693e-01 7.627054e-01 8.435625e-01 5.900310e-01 6.574033e-01 5.416394e-01 5.495002e-01
<GCONST> 1.344348e+02
<TRANSP> 6
 0.000000e+00 1.000000e+00 0.000000e+00 0.000000e+00 0.000000e+00 0.000000e+00
 0.000000e+00 0.000000e+00 1.000000e+00 0.000000e+00 0.000000e+00 0.000000e+00
 0.000000e+00 0.000000e+00 5.633442e-01 4.366558e-01 0.000000e+00 0.000000e+00
 0.000000e+00 0.000000e+00 0.000000e+00 8.525407e-01 1.474592e-01 0.000000e+00
 0.000000e+00 0.000000e+00 0.000000e+00 0.000000e+00 7.125340e-01 2.874659e-01
 0.000000e+00 0.000000e+00 0.000000e+00 0.000000e+00 0.000000e+00 0.000000e+00
<ENDHMM>
~h "g"
<BEGINHMM>
<NUMSTATES> 6
<STATE> 2
<MEAN> 39
 -2.869114e+00 1.108941e+01 6.603688e+00 2.406133e+00 -6.585738e+00 -7.911181e+00 -4.675335e+00 -5.629292e+00 -9.021148e+00 -2.359245e+00 -4.484265e+00 -7.735208e+00 4.995918e+01 -1.468732e-01 7.726683e-01 3.689257e-01 6.908396e-01 8.656777e-01 4.978878e-01 2.276860e-01 -1.655320e-03 3.524538e-01 -4.955004e-01 -3.328544e-01 3.638039e-01 -1.088101e+00 -5.313526e-01 -8.411632e-01 -4.304444e-01 -6.261278e-01 1.481963e-01 -1.500029e-01 -1.479110e-01 1.911439e-01 -3.084563e-02 1.919120e-01 1.697751e-01 3.137714e-01 1.069335e+00
<VARIANCE> 39
 1.651049e+01 1.752277e+01 2.202174e+01 2.085323e+01 3.451871e+01 3.558766e+01 2.804767e+01 3.647180e+01 3.587127e+01 2.817678e+01 3.910838e+01 2.991301e+01 3.712900e+01 2.189825e+00 2.773740e+00 2.984952e+00 2.650179e+00 4.429273e+00 3.695317e+00 3.233917e+00 4.161651e+00 3.579048e+00 2.901471e+00 3.061162e+00 2.838586e+00 3.717164e+00 3.754481e-01 4.953590e-01 5.488762e-01 5.414510e-01 7.532891e-01 5.892249e-01 7.629887e-01 8.888935e-01 7.235911e-01 5.987097e-01 5.938292e-01 5.494242e-01 6.900794e-01
<GCONST> 1.237746e+02
<STATE> 3
<MEAN> 39
 -5.902909e+00 1.001239e+01 6.536313e+00 3.569068e+00 -2.266291e+00 -5.693611e+00 -4.388167e+00 -5.444648e+00 -8.892178e+00 -3.198368e+00 -4.479071e+00 -5.448061e+00 4.921056e+01 -1.879117e+00 -2.424416e+00 -1.733122e+00 -1.522128e+00 1.553432e+00 -2.430369e-01 -1.651637e-01 9.034505e-01 -1.201779e-01 5.081463e-01 -1.730325e-01 1.396290e+00 2.635309e+00 -3.986963e-02 -6.396407e-01 -3.979428e-01 -9.315811e-01 -8.008204e-01 -5.968941e-01 -3.312603e-01 1.967295e-01 -2.289371e-01 4.445382e-01 5.070693e-01 4.044043e-03 1.403979e+00
<VARIANCE> 39
 2.498163e+01 2.383232e+01 2.634177e+01 2.958867e+01 4.201870e+01 4.085369e+01 2.570072e+01 2.942783e+01 3.228946e+01 2.426580e+01 2.966782e+01 2.455282e+01 5.099637e+01 2.555988e+00 3.454707e+00 4.759208e+00 3.954522e+00 5.256519e+00 5.013116e+00 4.399978e+00 4.687276e+00 4.729298e+00 3.458738e+00 3.697120e+00 2.783682e+00 4.450462e+00 3.661337e-01 5.827312e-01 6.618034e-01 5.061080e-01 8.363326e-01 7.266611e-01 7.122175e-01 8.332164e-01 6.424846e-01 5.895687e-01 6.448172e-01 4.702336e-01 5.246886e-01
<GCONST> 1.275506e+02
<STATE> 4
<MEAN> 39
 -1.163355e+01 1.469490e+00 -5.858147e-01 -3.457813e+00 5.121247e-01 -6.797280e+00 -5.235757e+00 -3.024656e+00 -9.283862e+00 2.422053e-01 -4.751451e+00 -1.286251e+00 5.993517e+01 -3.521001e-01 -1.122309e+00 -6.817478e-01 -2.086620e+00 -1.477739e+00 -1.690865e+00 -1.094496e+00 3.953176e-01 -7.142722e-01 6.867655e-01 1.388090e+00 4.839362e-01 3.603954e+00 8.587058e-01 5.524029e-01 6.665046e-01 1.033013e-01 -1.300800e+00 -2.630611e-01 -2.120979e-01 -1.321850e-01 5.748250e-02 -2.080601e-01 6.148338e-01 -6.940862e-01 -1.961902e-01
<VARIANCE> 39
 3.828270e+01 3.550223e+01 7.322102e+01 4.840812e+01 5.456885e+01 6.807283e+01 5.294247e+01 4.947124e+01 4.999685e+01 3.152134e+01 3.548183e+01 2.950985e+01 9.352126e+01 3.463436e+00 4.795984e+00 5.579854e+00 3.749304e+00 6.525933e+00 4.991878e+00 4.433433e+00 5.478161e+00 4.235284e+00 3.709960e+00 4.434319e+00 3.134703e+00 4.454147e+00 4.493724e-01 8.065931e-01 9.608658e-01 8.703611e-01 1.139124e+00 9.659223e-01 9.629231e-01 9.752404e-01 9.821203e-01 7.236542e-01 8.606665e-01 6.397687e-01 6.972697e-01
<GCONST> 1.389551e+02
<STATE> 5
<MEAN> 39
 -7.102462e+00 2.614032e+00 3.892356e+00 -5.752972e+00 -1.163427e+01 -1.482360e+01 -9.151115e+00 -2.221823e+00 -1.090641e+01 1.998089e-01 2.556560e+00 -4.295303e+00 6.703185e+01 1.237528e+00 -9.801463e-01 -7.511125e-02 -1.595927e+00 -2.775128e+00 -1.098422e+00 -6.585552e-01 1.074707e+00 7.734194e-01 -1.606961e-02 1.655881e+00 -1.229009e+00 2.032489e+00 9.604085e-02 -1.390319e-01 -2.574644e-01 2.068318e-01 5.843935e-01 6.543781e-01 4.805100e-01 4.156643e-02 5.214476e-01 -1.913817e-01 -6.556696e-01 -3.586106e-01 -6.097618e-01
<VARIANCE> 39
 2.784088e+01 3.827238e+01 6.212616e+01 3.495576e+01 7.253539e+01 7.705617e+01 6.667905e+01 8.280680e+01 5.218689e+01 3.841940e+01 5.859818e+01 3.262274e+01 7.009708e+01 1.844860e+00 3.479101e+00 4.521930e+00 3.349126e+00 6.587016e+00 4.595986e+00 5.953426e+00 6.588428e+00 5.925757e+00 4.125382e+00 5.919429e+00 3.530389e+00 1.864234e+00 3.771703e-01 4.150288e-01 5.731583e-01 4.308329e-01 1.333303e+00 7.198337e-01 6.707991e-01 7.914834e-01 7.219049e-01 7.003182e-01 8.758514e-01 5.737155e-01 2.922761e-01
<GCONST> 1.349734e+02
<TRANSP> 6
 0.000000e+00 1.000000e+00 0.000000e+00 0.000000e+00 0.000000e+00 0.000000e+00
 0.000000e+00 6.470035e-01 3.529965e-01 0.000000e+00 0.000000e+00 0.000000e+00
 0.000000e+00 0.000000e+00 3.758950e-01 6.241050e-01 0.000000e+00 0.000000e+00
 0.000000e+00 0.000000e+00 0.000000e+00 5.141808e-01 4.858192e-01 0.000000e+00
 0.000000e+00 0.000000e+00 0.000000e+00 0.000000e+00 5.063339e-01 4.936661e-01
 0.000000e+00 0.000000e+00 0.000000e+00 0.000000e+00 0.000000e+00 0.000000e+00
<ENDHMM>
~h "h"
<BEGINHMM>
<NUMSTATES> 6
<STATE> 2
<MEAN> 39
 -8.268905e+00 -9.360802e-01 -3.046154e+00 -5.768648e+00 7.491910e-01 -4.649966e+00 2.496259e-01 -2.936503e+00 -5.721149e+00 -2.216809e+00 -5.371389e+00 -2.377949e+00 6.427094e+01 -8.737876e-01 1.187625e-01 1.038193e+00 1.386949e+00 1.587655e+00 1.171497e+00 7.264949e-01 4.111330e-01 1.205024e-01 -3.211122e-01 2.310682e-01 9.120097e-01 -1.095253e+00 -1.275205e-01 -2.543337e-01 -1.847316e-02 -1.852687e-01 -2.001296e-01 -8.497030e-03 -1.867724e-01 1.031633e-01 1.014825e-01 1.027569e-01 1.671123e-01 -2.098508e-01 -2.601943e-02
<VARIANCE> 39
 3.725538e+01 3.763053e+01 6.555889e+01 4.201689e+01 6.965901e+01 5.455941e+01 5.968127e+01 6.722752e+01 4.716436e+01 5.433474e+01 5.755567e+01 4.116818e+01 9.193712e+01 2.057725e+00 3.547802e+00 4.302890e+00 4.221034e+00 4.509817e+00 3.809637e+00 3.656045e+00 4.745313e+00 3.900841e+00 3.250757e+00 3.587005e+00 3.267257e+00 3.385950e+00 2.654692e-01 3.976941e-01 3.591868e-01 4.492149e-01 5.662975e-01 5.276700e-01 5.976865e-01 7.162756e-01 6.301408e-01 5.539517e-01 5.726727e-01 4.960881e-01 2.972678e-01
<GCONST> 1.306770e+02
<STATE> 3
<MEAN> 39
 -1.021255e+01 -2.273127e+00 -1.040791e+00 -2.688529e+00 4.807043e+00 -1.901048e+00 2.408074e+00 -1.782236e+00 -5.405076e+00 -3.091638e+00 -5.344709e+00 -1.084493e+00 6.311413e+01 -1.035677e+00 -5.311047e-01 5.993072e-01 6.668448e-01 1.060030e+00 8.862348e-01 3.510969e-01 5.799268e-01 3.232462e-01 3.943475e-02 4.551519e-01 5.497334e-01 -1.007730e+00 1.459388e-01 -1.010247e-01 -4.147899e-01 -5.456346e-01 -6.111922e-01 -4.063087e-01 -3.297352e-01 -1.116858e-01 2.694829e-02 1.487471e-01 3.961653e-02 -2.610175e-01 1.579925e-01
<VARIANCE> 39
 3.270523e+01 3.345802e+01 4.538797e+01 4.317007e+01 6.839362e+01 5.187353e+01 5.639244e+01 5.306185e+01 4.264037e+01 4.493485e+01 5.123325e+01 3.932470e+01 7.978412e+01 1.865915e+00 2.677653e+00 3.341349e+00 3.055686e+00 3.418258e+00 3.154178e+00 3.260958e+00 3.834345e+00 3.557502e+00 3.399729e+00 3.175688e+00 2.680164e+00 2.327496e+00 2.337129e-01 3.853695e-01 4.279973e-01 5.209243e-01 5.756568e-01 5.691394e-01 5.830689e-01 6.889947e-01 6.301679e-01 5.225728e-01 5.553164e-01 5.138148e-01 2.480243e-01
<GCONST> 1.265989e+02
<STATE> 4
<MEAN> 39
 -1.276718e+01 -4.838123e+00 -2.723356e+00 -3.846368e+00 4.115846e+00 -1.588049e+00 1.367804e+00 -5.726374e-01 -3.709514e+00 -2.501627e+00 -3.313289e+00 5.637857e-01 5.701377e+01 -8.344084e-02 1.545842e-01 -2.348081e-01 -5.364293e-02 -3.447767e-01 -1.315626e-01 -2.135144e-01 -7.038637e-02 3.461369e-02 8.830431e-02 1.196528e-01 -1.925153e-02 -5.904234e-01 2.159650e-01 2.214716e-01 -3.300941e-02 -2.877059e-02 -2.149083e-01 -1.259376e-01 -8.229044e-02 -1.052107e-01 -5.968054e-02 2.675375e-02 -4.013667e-02 -1.467891e-01 8.449412e-02
<VARIANCE> 39
 3.424167e+01 4.030780e+01 4.237325e+01 3.837411e+01 5.161213e+01 3.899765e+01 4.514317e+01 4.016584e+01 3.684311e+01 3.567607e+01 3.616137e+01 3.121676e+01 9.329718e+01 1.323780e+00 1.647794e+00 1.738399e+00 1.978867e+00 2.096040e+00 2.195630e+00 2.360451e+00 2.388183e+00 2.338109e+00 2.348095e+00 2.306501e+00 1.999596e+00 1.861129e+00 2.439399e-01 2.953599e-01 3.370216e-01 4.046695e-01 4.444203e-01 4.462474e-01 4.540843e-01 5.023450e-01 4.792912e-01 4.620804e-01 4.248509e-01 3.869117e-01 1.753211e-01
<GCONST> 1.165085e+02
<STATE> 5
<MEAN> 39
 -1.110105e+01 -6.451011e-01 -2.532073e+00 -3.544361e+00 1.317283e+00 -3.448845e+00 1.324035e-01 -2.462020e+00 -4.418644e+00 -1.611151e+00 -3.589153e+00 -1.339321e+00 5.773283e+01 7.304702e-01 8.285083e-01 -3.224574e-02 -1.498843e-01 -9.676788e-01 -5.360519e-01 -5.675954e-01 -5.434095e-01 -1.172935e-01 1.115114e-01 1.367392e-01 -6.541147e-01 -6.774033e-02 7.755880e-02 -1.934334e-01 -5.602036e-02 -1.848942e-01 -1.624940e-01 -7.458894e-02 -8.476757e-02 -4.419866e-02 -3.757816e-02 -5.846032e-02 2.454162e-02 -1.402622e-01 2.270854e-01
<VARIANCE> 39
 4.864773e+01 4.622604e+01 5.726452e+01 4.248864e+01 6.506264e+01 5.257895e+01 5.210672e+01 5.454483e+01 4.300727e+01 4.424171e+01 4.677341e+01 3.919183e+01 1.330520e+02 4.423422e+00 3.400585e+00 4.065977e+00 4.069487e+00 4.150785e+00 3.979578e+00 3.967841e+00 4.632522e+00 4.108496e+00 3.634476e+00 3.896324e+00 3.468821e+00 7.705188e+00 4.986018e-01 4.938542e-01 5.033612e-01 5.592266e-01 6.731768e-01 6.654154e-01 6.683874e-01 7.241224e-01 6.695133e-01 6.309489e-01 6.328558e-01 5.355541e-01 6.617711e-01
<GCONST> 1.352655e+02
<TRANSP> 6
 0.000000e+00 1.000000e+00 0.000000e+00 0.000000e+00 0.000000e+00 0.000000e+00
 0.000000e+00 2.761346e-06 9.999973e-01 0.000000e+00 0.000000e+00 0.000000e+00
 0.000000e+00 0.000000e+00 4.075352e-01 5.924649e-01 0.000000e+00 0.000000e+00
 0.000000e+00 0.000000e+00 0.000000e+00 7.232403e-01 2.767597e-01 0.000000e+00
 0.000000e+00 0.000000e+00 0.000000e+00 0.000000e+00 5.341626e-01 4.658374e-01
 0.000000e+00 0.000000e+00 0.000000e+00 0.000000e+00 0.000000e+00 0.000000e+00
<ENDHMM>
~h "i"
<BEGINHMM>
<NUMSTATES> 6
<STATE> 2
<MEAN> 39
 -9.974174e+00 4.751525e+00 1.273821e+01 -5.388198e+00 -1.790765e+01 -1.183563e+01 -7.224255e+00 -8.030874e+00 -1.401106e+01 -2.407489e+00 1.795376e+00 -5.440184e+00 6.541886e+01 5.802633e-01 2.864433e-01 1.952047e+00 -1.108832e+00 -2.737212e+00 -2.014073e-01 -9.388453e-01 -9.125698e-01 -1.431112e+00 1.810087e-01 7.028937e-01 -9.096966e-01 1.431539e+00 -2.815590e-01 5.863463e-02 -7.280946e-01 1.436935e-01 9.037572e-01 4.202177e-01 2.258781e-01 2.019504e-01 7.064120e-01 1.818278e-01 -3.328762e-01 1.843387e-01 -6.689090e-01
<VARIANCE> 39
 2.170474e+01 4.431445e+01 4.320045e+01 3.239608e+01 4.152958e+01 6.131501e+01 5.175163e+01 9.574026e+01 4.568994e+01 4.072791e+01 5.197877e+01 3.046511e+01 4.529412e+01 4.091740e+00 3.024190e+00 3.777697e+00 3.209021e+00 4.867092e+00 5.330737e+00 5.648420e+00 5.471049e+00 4.908630e+00 3.980044e+00 4.279846e+00 3.161956e+00 2.542206e+00 6.146613e-01 5.485685e-01 5.153344e-01 5.136815e-01 7.462747e-01 7.073545e-01 7.812289e-01 9.629098e-01 6.657674e-01 5.820506e-01 7.240855e-01 5.049352e-01 5.071706e-01
<GCONST> 1.330849e+02
<STATE> 3
<MEAN> 39
 -1.126696e+01 7.917535e+00 1.446005e+01 -8.936325e+00 -1.911848e+01 -8.703482e+00 -8.769007e+00 -1.096782e+01 -1.259722e+01 -1.790549e+00 8.871851e-01 -6.935412e+00 6.613683e+01 4.818397e-02 5.847005e-02 -9.090152e-02 -1.304492e-01 -6.593811e-02 -2.740176e-02 8.504920e-02 -6.771448e-02 2.480902e-02 3.071302e-01 -9.418744e-02 -3.028269e-03 -1.548140e-01 7.189942e-02 -7.039791e-02 -3.565597e-01 3.146808e-01 4.503297e-01 -1.101970e-01 2.116363e-01 2.118749e-01 1.697526e-01 -5.917634e-03 -1.245972e-01 1.437938e-01 -3.215542e-01
<VARIANCE> 39
 1.842664e+01 4.078810e+01 3.901366e+01 3.612521e+01 3.363145e+01 6.215455e+01 5.255368e+01 9.221954e+01 5.028479e+01 4.628000e+01 6.403224e+01 3.352771e+01 4.550431e+01 5.152003e-01 1.191575e+00 1.019867e+00 1.285187e+00 1.535428e+00 1.791457e+00 1.715236e+00 1.851548e+00 1.600770e+00 1.585104e+00 1.512697e+00 1.253523e+00 7.670131e-01 1.843796e-01 2.410596e-01 3.068889e-01 3.044203e-01 6.244635e-01 4.104867e-01 4.545381e-01 4.895228e-01 4.600894e-01 3.752471e-01 4.051454e-01 2.984616e-01 2.315381e-01
<GCONST> 1.104989e+02
<STATE> 4
<MEAN> 39
 -9.155041e+00 4.205501e+00 1.232660e+01 -6.718730e+00 -1.908693e+01 -1.255073e+01 -6.667575e+00 -7.697439e+00 -1.468874e+01 3.350877e-01 1.693854e+00 -5.818967e+00 6.552982e+01 6.366723e-01 2.312813e-01 -1.737238e+00 1.463828e+00 2.132008e+00 -4.857705e-01 6.818680e-01 8.289457e-01 1.076955e+00 -9.798127e-02 -7.289043e-01 5.032542e-01 -1.836527e+00 -7.861061e-02 2.298407e-01 -5.342591e-01 3.987372e-01 1.061679e+00 4.789350e-01 4.826387e-02 7.574488e-02 6.619915e-01 -2.960632e-01 -4.445011e-01 1.133676e-01 -7.326739e-01
<VARIANCE> 39
 2.010352e+01 4.034364e+01 4.392031e+01 3.743763e+01 3.833630e+01 6.973335e+01 5.488654e+01 1.095214e+02 5.333157e+01 4.900421e+01 6.431783e+01 3.772081e+01 5.117989e+01 2.078030e+00 3.135897e+00 2.678443e+00 2.881632e+00 4.317898e+00 3.999874e+00 4.157279e+00 5.078678e+00 4.010920e+00 3.711423e+00 3.891316e+00 2.902419e+00 3.880116e+00 3.880660e-01 4.696640e-01 4.601526e-01 4.783137e-01 6.441432e-01 7.960703e-01 7.439228e-01 1.033886e+00 6.680734e-01 6.507127e-01 7.073407e-01 5.204473e-01 4.334119e-01
<GCONST> 1.314536e+02
<STATE> 5
<MEAN> 39
 -1.015017e+01 5.452730e+00 5.338711e+00 -1.839504e+00 -8.869802e+00 -9.442476e+00 -4.570091e+00 -6.010366e+00 -7.644984e+00 -8.152386e-01 -1.366766e+00 -2.787328e+00 5.499683e+01 -1.996420e-01 -1.107988e-02 -1.863686e+00 1.198692e+00 2.828047e+00 1.192815e+00 6.541687e-01 6.986102e-01 1.627732e+00 -3.369970e-01 -9.157733e-01 3.977025e-01 -2.202739e+00 -2.190923e-01 -1.600597e-01 1.382119e-01 -3.021727e-01 -2.085457e-01 3.018780e-01 -3.619233e-02 -8.693255e-02 -9.134172e-02 3.109749e-02 6.704155e-02 -1.174258e-01 2.397075e-01
<VARIANCE> 39
 3.914857e+01 4.273795e+01 4.602701e+01 3.638712e+01 6.731308e+01 7.929535e+01 5.060399e+01 6.979498e+01 5.317209e+01 4.106538e+01 5.021061e+01 3.812370e+01 1.273731e+02 3.860724e+00 4.596518e+00 3.662194e+00 3.922164e+00 6.889763e+00 5.551075e+00 5.350632e+00 7.733534e+00 5.158488e+00 4.534570e+00 5.286316e+00 3.543729e+00 5.807527e+00 4.889551e-01 5.664088e-01 5.867669e-01 5.318825e-01 8.577555e-01 9.787610e-01 7.198673e-01 9.169659e-01 8.061032e-01 6.849575e-01 7.169909e-01 5.488661e-01 5.208653e-01
<GCONST> 1.389001e+02
<TRANSP> 6
 0.000000e+00 1.000000e+00 0.000000e+00 0.000000e+00 0.000000e+00 0.000000e+00
 0.000000e+00 5.018242e-01 4.981758e-01 0.000000e+00 0.000000e+00 0.000000e+00
 0.000000e+00 0.000000e+00 7.718827e-01 2.281174e-01 0.000000e+00 0.000000e+00
 0.000000e+00 0.000000e+00 0.000000e+00 5.040306e-01 4.959693e-01 0.000000e+00
 0.000000e+00 0.000000e+00 0.000000e+00 0.000000e+00 5.278895e-01 4.721105e-01
 0.000000e+00 0.000000e+00 0.000000e+00 0.000000e+00 0.000000e+00 0.000000e+00
<ENDHMM>
~h "j"
<BEGINHMM>
<NUMSTATES> 6
<STATE> 2
<MEAN> 39
 -6.548236e+00 1.172693e+01 6.781267e+00 1.401281e+00 -3.101784e+00 -6.859668e+00 -4.903656e+00 -3.832492e+00 -6.564301e+00 -5.349665e+00 -5.347191e+00 -4.520976e+00 5.134965e+01 1.487535e-01 1.611146e+00 4.230298e-01 6.483780e-01 1.530267e+00 1.199452e+00 3.167730e-01 2.159772e-01 6.412984e-01 -4.531651e-01 -8.350618e-01 -3.265407e-01 -1.487382e+00 -5.295919e-01 -7.218922e-01 -1.589307e-01 -5.090461e-01 -2.930155e-01 -1.440803e-01 -1.221449e-01 5.625109e-02 7.836930e-02 2.914465e-01 3.515817e-01 2.760017e-01 8.897620e-01
<VARIANCE> 39
 3.515294e+01 2.281388e+01 2.366681e+01 2.605090e+01 2.957454e+01 3.742011e+01 2.881748e+01 3.322462e+01 2.763159e+01 2.366972e+01 3.309704e+01 2.592530e+01 4.962895e+01 5.898448e+00 3.313777e+00 3.158331e+00 3.730741e+00 5.571839e+00 5.766623e+00 3.842851e+00 4.486516e+00 3.592503e+00 3.021389e+00 3.237303e+00 2.811192e+00 9.268793e+00 5.993149e-01 4.921627e-01 4.957468e-01 5.804006e-01 7.001529e-01 6.391399e-01 6.663417e-01 8.148574e-01 6.229606e-01 5.190098e-01 5.367524e-01 4.993002e-01 5.703169e-01
<GCONST> 1.274914e+02
<STATE> 3
<MEAN> 39
 -8.967456e+00 1.206700e+01 6.876853e+00 1.438875e+00 -1.808709e-01 -4.702868e+00 -3.775043e+00 -2.897026e+00 -4.980539e+00 -4.874176e+00 -5.276546e+00 -3.570839e+00 5.023440e+01 -2.033632e+00 -4.044784e-01 -1.125922e-01 -9.826418e-01 5.092221e-01 4.015558e-01 1.882931e-01 -9.533675e-02 2.322625e-02 3.653236e-01 2.815679e-01 5.790179e-01 1.512239e+00 -3.539447e-01 -4.595027e-01 -6.646814e-03 -4.384455e-01 -6.972361e-01 -5.069199e-01 -1.723168e-01 -1.136797e-01 -2.429441e-01 1.564409e-01 3.313646e-01 2.112382e-01 9.781727e-01
<VARIANCE> 39
 6.038759e+01 2.640812e+01 2.436784e+01 2.873147e+01 3.359308e+01 3.333268e+01 2.309177e+01 2.706364e+01 2.352127e+01 2.172747e+01 2.146422e+01 1.791485e+01 5.177221e+01 6.040128e+00 2.950251e+00 2.728937e+00 4.030709e+00 3.968580e+00 3.684438e+00 2.259202e+00 3.049057e+00 2.474579e+00 2.103880e+00 2.161514e+00 1.912063e+00 6.835772e+00 1.230147e+00 6.346753e-01 5.044907e-01 6.946782e-01 1.100348e+00 8.190686e-01 5.384539e-01 6.803079e-01 5.211816e-01 4.427341e-01 4.674367e-01 3.742157e-01 7.924427e-01
<GCONST> 1.242316e+02
<STATE> 4
<MEAN> 39
 -1.818318e+01 8.207355e+00 7.905632e+00 -5.417944e+00 -6.743734e+00 -8.530478e+00 -5.246359e+00 -4.990607e+00 -7.881552e+00 -2.803246e+00 -1.281752e+00 1.430114e-01 6.521689e+01 1.467899e+00 -1.715077e+00 7.716552e-01 -4.809069e-01 -3.954690e+00 -2.744833e+00 -1.364210e+00 3.112057e-01 -7.470387e-01 -2.205433e-02 1.489296e+00 2.131842e-01 2.802135e+00 1.394485e+00 -4.442004e-01 -3.192668e-01 3.693564e-01 -1.126587e-01 -1.564935e-01 -2.290923e-01 5.136569e-01 3.198652e-01 -1.209157e-01 -2.438543e-02 -5.544634e-01 -6.627788e-01
<VARIANCE> 39
 4.749213e+01 3.556639e+01 4.285462e+01 2.747377e+01 7.203123e+01 6.207400e+01 3.271630e+01 3.209458e+01 2.743592e+01 2.603091e+01 2.213644e+01 1.834258e+01 4.486720e+01 8.640050e+00 4.481997e+00 4.417511e+00 4.566909e+00 5.489691e+00 5.082407e+00 3.697343e+00 5.003652e+00 3.964797e+00 3.345062e+00 2.954009e+00 2.494851e+00 3.063479e+00 1.274462e+00 6.454901e-01 1.097952e+00 7.890379e-01 2.027924e+00 1.309468e+00 9.176373e-01 7.051719e-01 8.430361e-01 6.343051e-01 6.525887e-01 4.695631e-01 2.887577e-01
<GCONST> 1.336845e+02
<STATE> 5
<MEAN> 39
 -8.931337e+00 1.371025e+00 8.996226e+00 -5.201140e+00 -1.637218e+01 -1.546087e+01 -1.010399e+01 -1.786467e+00 -8.700268e+00 -3.764705e+00 2.526362e+00 -1.078381e+00 6.891116e+01 2.853005e+00 -2.933966e+00 -1.514816e+00 -6.785280e-01 -1.548139e+00 -1.324967e+00 -1.193932e+00 1.827450e+00 9.849690e-01 2.138241e-01 6.789406e-01 -1.420622e+00 1.182911e+00 -4.367974e-01 3.529997e-01 -8.734120e-01 -1.666675e-01 1.696720e+00 1.105812e+00 6.158615e-01 -2.863222e-02 4.793010e-01 1.920215e-01 -6.848653e-01 -4.917276e-01 -6.787183e-01
<VARIANCE> 39
 2.545013e+01 3.299786e+01 4.507635e+01 4.715806e+01 4.516388e+01 4.941848e+01 4.335778e+01 5.928455e+01 4.025201e+01 3.778250e+01 3.423644e+01 2.596724e+01 5.292490e+01 2.703224e+00 3.223606e+00 4.444051e+00 2.737975e+00 5.250344e+00 3.765705e+00 7.216362e+00 5.763154e+00 5.238650e+00 4.170269e+00 3.652842e+00 2.739249e+00 1.523098e+00 5.722277e-01 3.085638e-01 4.152211e-01 7.195456e-01 9.142590e-01 9.020938e-01 6.629751e-01 6.866942e-01 5.576931e-01 7.311891e-01 6.373339e-01 4.513790e-01 2.244130e-01
<GCONST> 1.293456e+02
<TRANSP> 6
 0.000000e+00 1.000000e+00 0.000000e+00 0.000000e+00 0.000000e+00 0.000000e+00
 0.000000e+00 0.000000e+00 1.000000e+00 0.000000e+00 0.000000e+00 0.000000e+00
 0.000000e+00 0.000000e+00 7.777126e-01 2.222874e-01 0.000000e+00 0.000000e+00
 0.000000e+00 0.000000e+00 0.000000e+00 6.960098e-01 3.039903e-01 0.000000e+00
 0.000000e+00 0.000000e+00 0.000000e+00 0.000000e+00 0.000000e+00 1.000000e+00
 0.000000e+00 0.000000e+00 0.000000e+00 0.000000e+00 0.000000e+00 0.000000e+00
<ENDHMM>
~h "k"
<BEGINHMM>
<NUMSTATES> 6
<STATE> 2
<MEAN> 39
 -1.276520e+01 5.329404e+00 1.067986e+00 2.123498e+00 1.318783e+00 -3.408116e+00 -4.199531e+00 -3.929590e+00 -5.289986e+00 -2.003116e+00 -3.750279e+00 -2.238147e+00 4.553238e+01 -2.329528e+00 -6.495452e-01 -3.277265e-01 1.616970e+00 1.449884e+00 2.358444e+00 1.038584e+00 2.701515e-01 1.341679e+00 -2.969281e-01 3.721871e-01 1.204387e+00 -3.210828e+00 1.031250e-01 -9.063357e-01 -6.704555e-01 -1.012580e+00 -5.355439e-01 -5.200023e-01 1.353799e-01 3.084680e-01 -2.817357e-02 4.252183e-01 2.222264e-01 -8.009896e-02 1.518685e+00
<VARIANCE> 39
 2.305242e+01 2.613514e+01 3.077869e+01 2.810515e+01 3.408141e+01 4.148415e+01 3.883711e+01 4.440293e+01 4.350309e+01 3.723728e+01 3.042244e+01 2.601609e+01 4.944139e+01 4.508674e+00 4.714454e+00 6.026653e+00 5.018773e+00 6.114510e+00 8.233287e+00 5.123084e+00 6.615984e+00 5.684763e+00 4.600037e+00 5.153345e+00 3.303974e+00 8.649014e+00 4.328253e-01 8.573194e-01 7.537953e-01 7.537556e-01 9.262567e-01 8.366631e-01 1.100569e+00 1.047260e+00 8.338766e-01 9.811891e-01 9.259684e-01 5.743477e-01 8.331497e-01
<GCONST> 1.369925e+02
<STATE> 3
<MEAN> 39
 -1.721184e+01 1.201920e+00 -1.597308e+00 1.587041e+00 1.576788e+00 1.281273e-01 -4.773118e-01 -1.099291e+00 -1.899825e+00 5.324496e-02 -4.564154e-01 5.796281e-01 4.105858e+01 -6.103756e-01 -1.299563e+00 -1.280177e+00 -8.468161e-01 3.038707e-02 -3.792789e-01 5.164984e-02 5.041940e-01 2.239237e-01 5.654057e-01 6.871980e-02 5.055581e-01 1.007086e+00 5.737079e-01 -4.549327e-02 -2.478988e-01 -6.645432e-01 -3.016952e-01 -9.327625e-01 -4.083765e-01 2.840886e-02 -4.520043e-01 1.306934e-01 -3.135622e-01 -3.258208e-01 1.550036e+00
<VARIANCE> 39
 9.672417e+00 1.041898e+01 1.098275e+01 1.163051e+01 1.441093e+01 2.009002e+01 1.876425e+01 2.354589e+01 2.352226e+01 1.779488e+01 1.722844e+01 1.604173e+01 3.107006e+01 3.026600e+00 2.856343e+00 3.601174e+00 3.701377e+00 3.293378e+00 6.100117e+00 4.320926e+00 3.572325e+00 4.133912e+00 3.068492e+00 3.441936e+00 2.463808e+00 9.388420e+00 4.529457e-01 5.544877e-01 6.521976e-01 6.773434e-01 7.573102e-01 9.469750e-01 7.009738e-01 7.855306e-01 6.737592e-01 6.336676e-01 6.397938e-01 4.668450e-01 1.019084e+00
<GCONST> 1.202271e+02
<STATE> 4
<MEAN> 39
 -1.578393e+01 -3.417587e+00 -8.453849e+00 -5.801630e+00 2.013690e+00 -8.600865e+00 -4.653430e+00 7.173697e-01 -5.093749e+00 3.038115e+00 -4.765259e+00 -2.085229e-02 5.822396e+01 1.420094e+00 1.225562e-01 -2.998123e-01 -1.545072e+00 -9.196306e-01 -2.108661e+00 -7.345434e-01 4.183350e-01 -9.296629e-01 7.148840e-02 -4.718623e-01 -1.045391e+00 3.834041e+00 6.353899e-01 4.308388e-01 8.119511e-01 1.840848e-01 -5.687459e-01 2.513578e-01 2.529693e-01 -1.717272e-01 2.511131e-02 -4.615037e-01 4.423959e-01 -4.879090e-01 -4.264792e-01
<VARIANCE> 39
 3.797966e+01 3.517986e+01 5.346834e+01 5.218040e+01 5.657927e+01 5.825377e+01 4.964001e+01 4.466779e+01 4.003923e+01 3.349642e+01 3.239718e+01 2.745577e+01 8.848529e+01 4.280317e+00 4.003622e+00 6.520614e+00 4.480062e+00 5.644320e+00 6.663013e+00 4.575781e+00 5.220531e+00 4.492023e+00 3.915891e+00 4.251090e+00 3.669506e+00 9.385059e+00 6.930211e-01 7.935170e-01 9.879371e-01 9.276864e-01 1.117300e+00 1.084128e+00 1.086918e+00 9.602214e-01 1.047406e+00 7.622558e-01 8.385577e-01 7.624873e-01 1.081025e+00
<GCONST> 1.409128e+02
<STATE> 5
<MEAN> 39
 -1.006766e+01 1.274612e+00 -4.401429e+00 -6.500632e+00 -2.531835e+00 -1.157529e+01 -4.981041e+00 1.541461e-01 -7.440514e+00 5.434232e-01 -3.901239e+00 -3.818401e+00 6.081563e+01 2.534647e+00 1.437578e-01 1.137721e+00 -1.114625e+00 -2.160774e+00 -1.131527e+00 1.856384e-01 -5.029069e-02 -4.538432e-01 -1.034899e+00 8.434458e-01 -1.875996e+00 2.323359e+00 -1.744872e-01 -4.033742e-01 -1.336343e-02 1.606972e-01 1.190550e-01 6.948159e-01 3.473413e-01 -1.514312e-01 3.716258e-01 -1.387575e-01 2.047904e-01 6.988560e-02 -5.983896e-01
<VARIANCE> 39
 4.668724e+01 3.506244e+01 5.382296e+01 4.372898e+01 5.574959e+01 9.000449e+01 4.747365e+01 6.247360e+01 4.471740e+01 3.205293e+01 3.501845e+01 2.782876e+01 1.016288e+02 6.018706e+00 4.593750e+00 5.633930e+00 4.702376e+00 6.455666e+00 5.365145e+00 5.991020e+00 7.478545e+00 6.471654e+00 4.532799e+00 5.352080e+00 5.315045e+00 4.122020e+00 4.067818e-01 5.452357e-01 7.333510e-01 6.070458e-01 8.826525e-01 1.107602e+00 8.546371e-01 7.727217e-01 8.747056e-01 5.796865e-01 6.237240e-01 4.988329e-01 9.657660e-01
<GCONST> 1.395806e+02
<TRANSP> 6
 0.000000e+00 1.000000e+00 0.000000e+00 0.000000e+00 0.000000e+00 0.000000e+00
 0.000000e+00 0.000000e+00 1.000000e+00 0.000000e+00 0.000000e+00 0.000000e+00
 0.000000e+00 0.000000e+00 7.318819e-01 2.681181e-01 0.000000e+00 0.000000e+00
 0.000000e+00 0.000000e+00 0.000000e+00 6.398206e-01 3.601794e-01 0.000000e+00
 0.000000e+00 0.000000e+00 0.000000e+00 0.000000e+00 0.000000e+00 1.000000e+00
 0.000000e+00 0.000000e+00 0.000000e+00 0.000000e+00 0.000000e+00 0.000000e+00
<ENDHMM>
~h "l"
<BEGINHMM>
<NUMSTATES> 6
<STATE> 2
<MEAN> 39
 -2.090047e+00 -1.832445e+00 -2.882230e+00 -8.820732e+00 -7.351475e+00 -1.049812e+01 -1.006142e+01 -9.885426e+00 -1.501266e+00 4.485084e+00 -3.711257e+00 -6.952471e+00 6.691415e+01 2.058508e-01 4.319004e-01 2.790765e-01 7.868089e-02 2.833923e-01 -1.411107e-01 -6.620256e-01 -5.931472e-01 -1.095064e-01 4.005021e-01 -3.676580e-02 9.567820e-02 -4.774766e-01 -1.814050e-01 -3.600355e-02 -1.041963e-01 -1.217868e-01 4.152344e-02 1.842734e-01 2.298334e-01 3.533491e-01 -8.568031e-02 -2.500649e-01 5.219514e-02 -5.025924e-02 7.975101e-02
<VARIANCE> 39
 2.078813e+01 2.888983e+01 5.233291e+01 8.102625e+01 6.916637e+01 6.725759e+01 7.992005e+01 8.838126e+01 9.434560e+01 7.967463e+01 7.006870e+01 5.441615e+01 5.156367e+01 6.806396e-01 1.129783e+00 1.676483e+00 2.309018e+00 2.310698e+00 2.711505e+00 3.257113e+00 3.368922e+00 3.097309e+00 3.036272e+00 2.859378e+00 2.124132e+00 1.039432e+00 1.265301e-01 2.123097e-01 2.534246e-01 4.441559e-01 4.984196e-01 4.982115e-01 5.710744e-01 6.482905e-01 5.584206e-01 5.523498e-01 5.141599e-01 3.950499e-01 1.276515e-01
<GCONST> 1.212376e+02
<STATE> 3
<MEAN> 39
 -2.079545e+00 -7.963966e-01 -1.183084e+00 -6.789830e+00 -7.989916e+00 -1.049527e+01 -1.309896e+01 -1.088872e+01 -2.813994e+00 4.062016e+00 -3.018765e+00 -7.344379e+00 6.527393e+01 -2.256046e-01 8.927158e-02 -3.661362e-02 -2.269379e-01 7.404783e-02 3.243941e-01 -1.869333e-01 3.618588e-01 4.108048e-02 -2.019960e-01 1.213900e-01 -1.773459e-01 9.652287e-02 -3.306493e-01 -3.060773e-01 -3.525563e-01 -2.513838e-01 -7.688163e-02 2.201408e-01 7.976258e-01 7.184988e-01 8.600285e-02 -3.805002e-01 -6.383570e-02 -7.076825e-02 3.336836e-01
<VARIANCE> 39
 2.069830e+01 3.115465e+01 5.593641e+01 7.685832e+01 6.369783e+01 6.386861e+01 8.374873e+01 9.769745e+01 8.999017e+01 7.644238e+01 7.231950e+01 5.209502e+01 4.950809e+01 7.051942e-01 1.347538e+00 2.124873e+00 2.947854e+00 2.459751e+00 2.719285e+00 3.501781e+00 3.536182e+00 3.669636e+00 3.372255e+00 2.770200e+00 2.414025e+00 1.600509e+00 1.729421e-01 3.986793e-01 4.125383e-01 7.583783e-01 9.146914e-01 7.944328e-01 1.104959e+00 1.145113e+00 9.168242e-01 9.369749e-01 1.135377e+00 6.613192e-01 2.816696e-01
<GCONST> 1.302665e+02
<STATE> 4
<MEAN> 39
 -2.758772e+00 -1.077415e+00 -1.907752e+00 -7.464170e+00 -8.111352e+00 -9.602014e+00 -1.191749e+01 -1.028800e+01 -2.428841e+00 3.885301e+00 -2.984047e+00 -7.247244e+00 6.572044e+01 -6.936775e-01 -4.682142e-01 -5.615749e-01 -5.025655e-01 -4.974968e-02 4.820640e-01 1.138892e+00 1.616479e+00 1.867989e-01 -8.381990e-01 -2.226660e-01 -2.254409e-01 6.181828e-01 -2.682597e-01 -1.936105e-01 -1.906908e-01 -1.519656e-01 1.199868e-01 7.823300e-02 6.908671e-01 5.295012e-01 -1.348637e-01 -3.565515e-01 -1.114824e-01 -2.236276e-02 1.731595e-01
<VARIANCE> 39
 2.135702e+01 3.160299e+01 5.932755e+01 7.435288e+01 6.611900e+01 6.317914e+01 7.624755e+01 8.674814e+01 8.562356e+01 7.243188e+01 6.748774e+01 4.887626e+01 5.511487e+01 8.279634e-01 2.429505e+00 3.096133e+00 4.740753e+00 4.202581e+00 4.087335e+00 5.031891e+00 5.804853e+00 5.177823e+00 4.415094e+00 4.955868e+00 3.294556e+00 2.680769e+00 1.875730e-01 3.757840e-01 3.672532e-01 6.950297e-01 8.423292e-01 6.476178e-01 1.016076e+00 8.713922e-01 7.868134e-01 9.134297e-01 9.379327e-01 5.518571e-01 2.975401e-01
<GCONST> 1.341265e+02
<STATE> 5
<MEAN> 39
 -6.742707e+00 -1.034958e+00 -3.511763e+00 -6.646763e+00 -5.511816e+00 -7.292121e+00 -7.141260e+00 -5.888441e+00 -1.964918e+00 1.714202e+00 -3.605814e+00 -5.146179e+00 6.082833e+01 -1.004694e+00 -2.955804e-01 -2.256533e-01 -4.881147e-02 2.528858e-01 4.669409e-01 1.340271e+00 1.407481e+00 -2.221632e-01 -9.863592e-01 -1.207291e-02 9.755254e-02 -7.862788e-02 1.187646e-02 5.179596e-03 5.148238e-02 -1.018420e-01 5.445851e-02 -2.992344e-02 1.228676e-01 -6.900782e-02 -1.990125e-01 4.265430e-03 8.173666e-03 -2.749537e-02 4.683890e-02
<VARIANCE> 39
 4.164824e+01 3.274686e+01 6.043156e+01 6.588947e+01 8.338565e+01 7.985469e+01 7.574021e+01 7.276670e+01 7.311038e+01 6.307752e+01 6.062864e+01 5.478697e+01 1.533767e+02 2.165348e+00 3.532596e+00 3.831236e+00 6.557590e+00 6.001195e+00 4.935701e+00 6.590336e+00 7.146909e+00 5.471223e+00 5.559573e+00 6.402022e+00 4.201751e+00 5.857635e+00 3.466062e-01 3.581159e-01 4.041221e-01 6.871387e-01 7.814129e-01 7.758540e-01 8.446731e-01 8.694563e-01 8.304288e-01 8.507586e-01 7.114334e-01 5.733085e-01 4.545853e-01
<GCONST> 1.409451e+02
<TRANSP> 6
 0.000000e+00 1.000000e+00 0.000000e+00 0.000000e+00 0.000000e+00 0.000000e+00
 0.000000e+00 6.427892e-01 3.572107e-01 0.000000e+00 0.000000e+00 0.000000e+00
 0.000000e+00 0.000000e+00 2.735921e-01 7.264079e-01 0.000000e+00 0.000000e+00
 0.000000e+00 0.000000e+00 0.000000e+00 7.319466e-02 9.268053e-01 0.000000e+00
 0.000000e+00 0.000000e+00 0.000000e+00 0.000000e+00 4.218329e-01 5.781670e-01
 0.000000e+00 0.000000e+00 0.000000e+00 0.000000e+00 0.000000e+00 0.000000e+00
<ENDHMM>
~h "m"
<BEGINHMM>
<NUMSTATES> 6
<STATE> 2
<MEAN> 39
 -2.857450e+00 3.840283e+00 2.233515e+00 -9.411151e-01 -6.404794e+00 -4.933693e+00 -6.045994e+00 -1.368155e+01 -1.227859e+01 4.672736e-01 -2.751971e+00 -8.103334e+00 5.702550e+01 2.746991e-01 7.164162e-01 1.705952e+00 1.602447e+00 -8.781415e-02 -3.001405e-01 -2.851722e-01 -1.841002e+00 -1.721981e+00 2.031412e-01 -5.502155e-01 -6.811587e-01 -1.810855e-01 -2.082452e-01 -5.285391e-01 -4.886790e-01 -6.668624e-01 1.816550e-02 5.535053e-02 6.443206e-02 6.287370e-01 5.105098e-01 -7.396878e-02 1.179233e-01 1.102822e-01 5.286498e-01
<VARIANCE> 39
 1.459851e+01 2.462238e+01 2.630702e+01 3.463679e+01 4.188210e+01 6.816428e+01 4.565327e+01 4.657513e+01 5.197456e+01 4.667665e+01 8.740025e+01 4.886420e+01 5.821329e+01 3.322229e+00 1.997462e+00 3.283818e+00 4.188381e+00 3.319595e+00 3.697739e+00 3.633649e+00 3.823995e+00 4.266711e+00 3.496261e+00 5.372997e+00 4.602455e+00 5.272359e+00 2.815163e-01 2.712270e-01 5.509489e-01 4.575830e-01 5.184284e-01 4.972353e-01 6.686212e-01 6.272911e-01 6.927621e-01 6.179316e-01 7.811449e-01 6.265899e-01 3.212188e-01
<GCONST> 1.285657e+02
<STATE> 3
<MEAN> 39
 -2.661592e+00 3.202223e+00 3.438011e+00 -1.259887e+00 -6.507660e+00 -4.734767e+00 -4.928741e+00 -1.402092e+01 -1.225286e+01 1.080794e-01 -4.719944e+00 -7.487266e+00 5.878984e+01 1.150713e-02 1.056701e-02 4.028066e-02 -5.419304e-02 -4.193379e-02 1.146899e-01 6.956153e-02 -2.130683e-02 -7.901220e-02 -1.338445e-01 -7.993530e-02 3.903430e-02 1.360424e-01 8.192532e-03 -1.308994e-01 -4.605574e-01 -4.599995e-01 -4.920174e-02 4.917625e-02 3.145520e-02 4.486959e-01 3.664336e-01 -2.231451e-02 2.226128e-01 1.121533e-01 1.736214e-01
<VARIANCE> 39
 9.257288e+00 2.356759e+01 2.509207e+01 3.612470e+01 4.515662e+01 8.335804e+01 4.724546e+01 5.282301e+01 5.932353e+01 5.113584e+01 1.064475e+02 5.970419e+01 4.423460e+01 5.237868e-01 7.391618e-01 8.398846e-01 1.217613e+00 1.322608e+00 1.260373e+00 1.264167e+00 1.474816e+00 1.565490e+00 1.547524e+00 1.938186e+00 1.455651e+00 1.203268e+00 1.374958e-01 1.902094e-01 3.604761e-01 3.922308e-01 2.945203e-01 3.548183e-01 3.577591e-01 4.606079e-01 5.363604e-01 4.074403e-01 5.455998e-01 4.441262e-01 1.782259e-01
<GCONST> 1.084815e+02
<STATE> 4
<MEAN> 39
 -2.726752e+00 3.364780e+00 2.583902e+00 -1.429401e+00 -6.766297e+00 -4.467976e+00 -5.531117e+00 -1.428018e+01 -1.324359e+01 -1.171070e-01 -3.222519e+00 -7.707090e+00 5.868461e+01 1.588310e-01 -7.235005e-01 -1.895842e+00 -2.033580e+00 -1.432999e-01 3.483472e-01 5.619805e-02 1.453608e+00 1.449358e+00 -1.678304e-01 7.795656e-01 3.147432e-01 1.279345e+00 -1.178916e-01 -3.797712e-01 -5.568497e-01 -5.584826e-01 1.243934e-01 1.175913e-01 -2.712251e-02 6.804348e-01 7.359390e-01 -5.554602e-02 5.377590e-02 -1.065182e-02 3.020035e-01
<VARIANCE> 39
 1.112156e+01 2.354813e+01 2.494600e+01 3.347182e+01 4.229917e+01 7.088203e+01 4.547616e+01 4.668465e+01 5.389637e+01 4.552289e+01 9.913438e+01 5.303511e+01 4.842902e+01 1.083520e+00 2.166444e+00 3.401566e+00 3.930799e+00 2.654492e+00 3.185149e+00 2.970855e+00 2.895463e+00 4.195294e+00 3.083565e+00 4.425577e+00 3.553313e+00 3.514030e+00 2.161035e-01 2.645246e-01 4.821754e-01 4.333680e-01 5.065235e-01 4.630684e-01 5.697809e-01 5.388127e-01 7.454195e-01 5.374253e-01 7.301625e-01 5.892988e-01 2.916202e-01
<GCONST> 1.241482e+02
<STATE> 5
<MEAN> 39
 -2.818963e+00 5.343990e-01 -3.734494e+00 -8.009274e+00 -6.367854e+00 -2.075960e+00 -5.642429e+00 -9.182129e+00 -7.822841e+00 -2.971897e-01 -5.125534e-01 -6.540036e+00 6.178463e+01 -1.257700e-01 -1.271253e+00 -1.843110e+00 -1.810164e+00 3.872011e-01 3.544288e-01 -3.071957e-01 2.019479e+00 2.033895e+00 -6.670789e-02 3.121521e-01 -2.447448e-01 1.406160e+00 -2.306452e-01 -1.223399e-02 4.825739e-01 4.764632e-01 9.966103e-02 -2.554394e-01 5.437245e-03 3.937382e-02 -6.728739e-02 -7.948513e-02 -4.080894e-01 -1.139706e-01 -1.640611e-01
<VARIANCE> 39
 2.665041e+01 3.043644e+01 4.969271e+01 6.456418e+01 4.505524e+01 6.038518e+01 4.592961e+01 5.258841e+01 5.399903e+01 4.266453e+01 6.541914e+01 4.651128e+01 9.271910e+01 1.442489e+00 3.218182e+00 5.087010e+00 4.580992e+00 4.341241e+00 3.936587e+00 4.914081e+00 4.469577e+00 6.210156e+00 3.933579e+00 5.254144e+00 4.537859e+00 4.426138e+00 2.313024e-01 2.646967e-01 5.556640e-01 7.470095e-01 5.902948e-01 6.135851e-01 5.433866e-01 6.104271e-01 7.133580e-01 5.833455e-01 7.903342e-01 6.204053e-01 3.142263e-01
<GCONST> 1.323676e+02
<TRANSP> 6
 0.000000e+00 1.000000e+00 0.000000e+00 0.000000e+00 0.000000e+00 0.000000e+00
 0.000000e+00 4.097359e-01 5.902641e-01 0.000000e+00 0.000000e+00 0.000000e+00
 0.000000e+00 0.000000e+00 7.127635e-01 2.872365e-01 0.000000e+00 0.000000e+00
 0.000000e+00 0.000000e+00 0.000000e+00 3.193817e-01 6.806183e-01 0.000000e+00
 0.000000e+00 0.000000e+00 0.000000e+00 0.000000e+00 3.657486e-01 6.342514e-01
 0.000000e+00 0.000000e+00 0.000000e+00 0.000000e+00 0.000000e+00 0.000000e+00
<ENDHMM>
~h "n"
<BEGINHMM>
<NUMSTATES> 6
<STATE> 2
<MEAN> 39
 -2.360373e+00 2.177455e+00 3.383409e+00 -8.059457e-01 -1.050411e+01 -1.162236e+01 -6.017834e+00 -1.061294e+01 -4.166576e+00 2.218611e+00 -8.966236e+00 -7.542278e+00 6.002082e+01 1.098429e-01 2.051579e+00 1.794260e+00 9.885088e-01 -5.207317e-01 9.796336e-02 3.341775e-01 -2.658624e+00 -4.141665e-01 8.982785e-01 -8.326731e-01 -5.798064e-02 -2.041782e+00 -2.146266e-01 -4.712474e-01 -4.768867e-01 -6.770760e-01 2.097476e-01 2.123393e-01 1.171462e-01 8.015092e-01 1.578736e-02 -4.455838e-01 2.462501e-01 4.864131e-02 6.444551e-01
<VARIANCE> 39
 9.831216e+00 2.549213e+01 2.557570e+01 2.874209e+01 4.702344e+01 5.756804e+01 3.939525e+01 4.271273e+01 5.578651e+01 8.016615e+01 5.265668e+01 4.404710e+01 4.796865e+01 8.978439e-01 1.928213e+00 3.389185e+00 2.502000e+00 3.044054e+00 4.235261e+00 4.230588e+00 4.743337e+00 4.900996e+00 4.682782e+00 3.945513e+00 2.741116e+00 1.760706e+00 1.410709e-01 2.703608e-01 4.319177e-01 3.096523e-01 5.168253e-01 4.909788e-01 6.295272e-01 7.253694e-01 5.689306e-01 5.935946e-01 5.334001e-01 4.136851e-01 1.883040e-01
<GCONST> 1.217804e+02
<STATE> 3
<MEAN> 39
 -2.797182e+00 4.544790e+00 4.904468e+00 -1.692221e+00 -1.006957e+01 -1.081974e+01 -4.617712e+00 -1.131173e+01 -3.874183e+00 8.998188e-01 -9.766658e+00 -5.642970e+00 5.832640e+01 -7.862057e-02 5.347576e-01 1.066897e-01 6.434789e-02 1.657455e-01 3.266920e-01 4.602136e-02 -8.972387e-02 -1.621373e-01 -1.596912e-01 -1.475312e-02 1.896417e-01 -5.411215e-01 -1.062500e-01 -1.928479e-01 -2.366052e-01 -7.498953e-02 2.231700e-01 7.371636e-02 -9.500846e-02 4.529561e-01 -4.502073e-02 -1.615422e-01 2.217548e-01 2.419338e-02 1.468631e-01
<VARIANCE> 39
 8.805560e+00 2.355501e+01 2.364385e+01 3.379652e+01 4.748463e+01 5.929050e+01 3.757467e+01 4.114391e+01 6.209458e+01 9.735787e+01 5.127014e+01 4.757147e+01 4.833937e+01 3.207726e-01 8.416267e-01 8.243228e-01 9.857979e-01 1.386210e+00 1.297587e+00 1.429106e+00 1.580000e+00 1.644534e+00 1.642565e+00 1.484243e+00 1.301277e+00 5.198025e-01 1.116237e-01 2.591665e-01 3.382706e-01 3.122470e-01 3.932882e-01 3.619820e-01 3.900599e-01 6.058993e-01 4.509364e-01 4.879941e-01 4.109964e-01 3.124141e-01 2.155572e-01
<GCONST> 1.059649e+02
<STATE> 4
<MEAN> 39
 -3.158611e+00 6.168593e+00 4.231210e+00 -1.349392e+00 -9.792588e+00 -9.991289e+00 -6.024500e+00 -1.164085e+01 -6.070521e+00 9.648615e-01 -9.460510e+00 -6.684795e+00 5.641242e+01 -8.192666e-01 3.581094e-01 -1.486133e-01 1.348844e-01 1.408912e+00 7.373775e-01 -4.036554e-01 1.179183e+00 -3.121285e-01 -7.688516e-01 8.885922e-01 4.048612e-01 -8.046554e-01 -4.632658e-01 -4.266425e-01 -2.521211e-01 -9.328856e-02 3.832515e-01 2.592351e-01 9.343652e-02 6.186389e-01 1.840549e-01 -2.318594e-01 3.662881e-01 1.703396e-01 1.022727e-01
<VARIANCE> 39
 1.082796e+01 2.687998e+01 2.321374e+01 2.974965e+01 4.763177e+01 5.352713e+01 4.382106e+01 4.103701e+01 5.696112e+01 7.928958e+01 5.743263e+01 4.825385e+01 6.057815e+01 1.257605e+00 2.619124e+00 2.250940e+00 2.638015e+00 3.599596e+00 2.887481e+00 3.005115e+00 3.692762e+00 3.936146e+00 4.132855e+00 3.206842e+00 2.880792e+00 3.283700e+00 2.474886e-01 3.775788e-01 4.583963e-01 4.765230e-01 6.070911e-01 5.412694e-01 6.269367e-01 7.183941e-01 6.872826e-01 7.130877e-01 6.201136e-01 5.055713e-01 4.110727e-01
<GCONST> 1.250316e+02
<STATE> 5
<MEAN> 39
 -9.221238e+00 3.901162e+00 2.311558e+00 2.477480e-01 -3.646460e+00 -5.192316e+00 -4.573841e+00 -5.530171e+00 -3.987196e+00 -1.128137e+00 -4.853549e+00 -2.581068e+00 5.042949e+01 -1.211536e+00 -6.969596e-01 -7.811483e-01 -2.600227e-01 9.297121e-01 9.004244e-01 3.588652e-01 1.347903e+00 2.180757e-01 -4.092847e-01 1.011422e+00 4.977540e-01 -4.539032e-01 -1.374010e-02 -1.889664e-01 -1.098732e-01 -2.062745e-01 -1.893099e-01 -1.045161e-01 1.137617e-01 -2.261654e-02 4.331873e-02 1.130719e-01 -4.732502e-02 -2.162764e-02 2.663041e-01
<VARIANCE> 39
 3.903091e+01 3.832811e+01 3.556456e+01 3.573182e+01 5.277071e+01 5.092307e+01 4.405997e+01 5.288729e+01 4.597314e+01 4.380125e+01 4.400478e+01 4.071898e+01 9.808256e+01 2.543640e+00 3.173459e+00 3.181540e+00 3.560746e+00 4.553311e+00 4.163413e+00 3.962452e+00 5.062504e+00 4.252929e+00 4.641862e+00 4.000068e+00 3.096898e+00 4.457540e+00 4.535173e-01 5.650575e-01 5.015351e-01 5.222154e-01 6.390721e-01 6.712155e-01 7.241692e-01 7.917575e-01 7.075157e-01 6.699383e-01 6.344302e-01 5.440794e-01 4.340102e-01
<GCONST> 1.321714e+02
<TRANSP> 6
 0.000000e+00 1.000000e+00 0.000000e+00 0.000000e+00 0.000000e+00 0.000000e+00
 0.000000e+00 4.360006e-01 5.639994e-01 0.000000e+00 0.000000e+00 0.000000e+00
 0.000000e+00 0.000000e+00 7.308151e-01 2.691849e-01 0.000000e+00 0.000000e+00
 0.000000e+00 0.000000e+00 0.000000e+00 3.983325e-01 6.016675e-01 0.000000e+00
 0.000000e+00 0.000000e+00 0.000000e+00 0.000000e+00 5.543712e-01 4.456288e-01
 0.000000e+00 0.000000e+00 0.000000e+00 0.000000e+00 0.000000e+00 0.000000e+00
<ENDHMM>
~h "o"
<BEGINHMM>
<NUMSTATES> 6
<STATE> 2
<MEAN> 39
 -1.490181e+00 -8.359179e-01 -9.025504e+00 -1.680424e+01 -8.567038e+00 -4.414860e+00 -6.186650e+00 -5.865843e+00 -6.256996e+00 1.565244e+00 3.204001e+00 -6.610281e+00 6.746508e+01 1.269243e+00 -6.349310e-01 -1.041662e+00 -2.198042e+00 -5.049052e-01 8.288980e-01 5.642049e-01 -3.451726e-01 -2.698260e-01 9.309993e-02 1.200148e+00 -6.716541e-01 1.505322e+00 -6.461166e-01 8.488942e-02 2.989094e-01 5.763740e-01 4.178431e-01 1.373612e-01 2.805686e-01 6.658380e-02 9.256991e-03 -8.390461e-02 -2.469110e-01 3.039795e-01 -6.173373e-01
<VARIANCE> 39
 2.257425e+01 3.761925e+01 6.058008e+01 6.045502e+01 5.562518e+01 6.051419e+01 9.466270e+01 8.400427e+01 7.903851e+01 6.358051e+01 6.971465e+01 4.978164e+01 5.592908e+01 3.032319e+00 2.317791e+00 3.874887e+00 4.103878e+00 5.148478e+00 4.386383e+00 5.254982e+00 5.419899e+00 5.410180e+00 4.882673e+00 4.033151e+00 4.255459e+00 3.089330e+00 5.029461e-01 4.674502e-01 5.680664e-01 8.818349e-01 8.192403e-01 8.013281e-01 9.149839e-01 9.189531e-01 1.023284e+00 8.526920e-01 8.321030e-01 7.104542e-01 5.214833e-01
<GCONST> 1.388097e+02
<STATE> 3
<MEAN> 39
 -1.763134e-01 -1.650006e-01 -9.104826e+00 -2.122650e+01 -8.921590e+00 -7.235817e-01 -4.107815e+00 -5.435121e+00 -8.262082e+00 1.164636e-01 5.068883e+00 -5.660579e+00 6.795974e+01 -9.609560e-04 -2.620957e-02 -1.168737e-01 -9.548663e-02 1.607073e-01 1.623087e-01 2.288809e-01 -8.278658e-02 7.425765e-03 2.546071e-02 -1.305863e-01 -5.587263e-02 -5.966375e-02 -9.415800e-02 6.413104e-02 1.592269e-01 5.373245e-01 3.255697e-02 -2.139746e-01 -1.473217e-01 -6.961235e-02 1.507071e-01 6.402007e-02 -2.799110e-01 3.172921e-03 -2.383883e-01
<VARIANCE> 39
 1.769603e+01 3.884422e+01 4.339965e+01 4.884483e+01 5.227364e+01 4.541669e+01 8.033313e+01 8.245232e+01 7.388985e+01 6.979705e+01 7.749108e+01 6.107992e+01 4.536072e+01 3.247038e-01 9.454281e-01 8.151532e-01 2.012465e+00 1.495541e+00 1.551790e+00 2.105741e+00 1.907637e+00 2.249063e+00 2.158026e+00 1.970391e+00 1.726688e+00 6.260149e-01 9.966847e-02 1.699389e-01 2.018807e-01 3.424443e-01 3.287746e-01 3.146777e-01 3.759633e-01 3.987696e-01 3.918754e-01 3.991815e-01 4.056738e-01 3.524321e-01 1.320471e-01
<GCONST> 1.104063e+02
<STATE> 4
<MEAN> 39
 -1.108706e+00 -3.072917e+00 -1.039484e+01 -1.641798e+01 -8.216039e+00 -3.130155e+00 -5.198688e+00 -7.407861e+00 -4.368824e+00 2.434086e+00 2.802305e+00 -8.963033e+00 6.942085e+01 -1.808831e-02 -7.784129e-02 6.781534e-01 2.419958e+00 -2.856005e-01 -1.226551e+00 -5.202554e-01 -4.746481e-01 8.629915e-01 4.453893e-01 -1.514951e+00 -8.941375e-03 -7.761739e-01 -1.150776e-01 4.111737e-01 5.233021e-01 6.719192e-01 9.241541e-02 -2.752577e-01 -6.922441e-02 -3.271291e-02 -1.665110e-01 -2.221007e-01 -3.469730e-01 3.411613e-01 -6.243023e-01
<VARIANCE> 39
 1.894036e+01 3.206474e+01 5.207562e+01 5.190415e+01 4.949545e+01 4.896609e+01 8.932447e+01 9.566938e+01 7.818205e+01 6.641175e+01 8.083580e+01 6.350852e+01 4.960130e+01 6.377780e-01 2.107929e+00 1.925880e+00 3.976954e+00 3.092414e+00 3.899139e+00 4.210464e+00 4.527975e+00 4.939301e+00 4.859582e+00 4.336693e+00 3.920254e+00 1.368563e+00 1.880785e-01 3.172580e-01 3.416528e-01 6.232128e-01 6.561912e-01 6.979860e-01 8.203869e-01 1.005021e+00 8.413684e-01 8.642170e-01 7.889660e-01 6.500593e-01 2.412891e-01
<GCONST> 1.301839e+02
<STATE> 5
<MEAN> 39
 -3.667150e+00 5.099573e-01 -7.188795e+00 -1.006647e+01 -6.148718e+00 -4.013862e+00 -4.165848e+00 -6.214411e+00 -5.406945e+00 8.152610e-01 -5.690206e-01 -3.779590e+00 5.939344e+01 -1.175596e+00 9.109461e-01 1.715050e+00 3.058991e+00 1.032259e+00 -2.553389e-01 -1.748112e-01 -2.969507e-02 2.311230e-01 -5.438836e-01 -1.183281e+00 6.484597e-01 -2.596799e+00 -3.078949e-01 3.124848e-02 2.126729e-01 -2.899091e-02 1.384861e-01 2.309436e-01 6.423826e-02 6.454456e-02 -5.315937e-02 -8.172724e-02 1.281794e-01 -4.849106e-02 -7.533511e-02
<VARIANCE> 39
 4.613584e+01 4.106773e+01 5.340935e+01 8.410014e+01 6.864844e+01 7.907840e+01 7.731689e+01 7.398059e+01 8.811520e+01 6.872013e+01 6.741040e+01 5.426439e+01 1.364009e+02 3.183798e+00 3.981723e+00 4.295118e+00 6.171399e+00 5.453345e+00 5.256583e+00 6.339130e+00 7.235207e+00 6.405833e+00 6.110546e+00 5.908239e+00 4.500302e+00 4.661389e+00 5.613137e-01 5.600312e-01 5.276026e-01 1.341121e+00 7.875953e-01 8.948669e-01 8.221330e-01 8.940275e-01 1.168672e+00 9.824207e-01 8.303663e-01 6.699677e-01 6.753423e-01
<GCONST> 1.451981e+02
<TRANSP> 6
 0.000000e+00 1.000000e+00 0.000000e+00 0.000000e+00 0.000000e+00 0.000000e+00
 0.000000e+00 5.836635e-01 4.163365e-01 0.000000e+00 0.000000e+00 0.000000e+00
 0.000000e+00 0.000000e+00 7.752923e-01 2.247077e-01 0.000000e+00 0.000000e+00
 0.000000e+00 0.000000e+00 0.000000e+00 5.303567e-01 4.696433e-01 0.000000e+00
 0.000000e+00 0.000000e+00 0.000000e+00 0.000000e+00 5.674580e-01 4.325420e-01
 0.000000e+00 0.000000e+00 0.000000e+00 0.000000e+00 0.000000e+00 0.000000e+00
<ENDHMM>
~h "p"
<BEGINHMM>
<NUMSTATES> 6
<STATE> 2
<MEAN> 39
 -9.614650e+00 8.654902e+00 3.929991e+00 3.521124e+00 1.026903e+00 -1.310061e+00 -4.102047e+00 -6.389647e+00 -7.259063e+00 -4.754247e+00 -4.311831e+00 -3.544488e+00 4.430603e+01 -2.839848e+00 -6.532990e-01 1.413516e-01 1.566867e+00 1.289061e+00 1.089850e+00 8.810505e-01 1.129629e+00 1.139391e+00 -2.251777e-01 -5.972925e-02 8.895452e-01 -2.690116e+00 3.994028e-02 -1.115131e+00 -8.721777e-01 -1.064471e+00 -5.999541e-01 -3.445414e-01 7.387781e-02 2.979909e-01 3.300738e-01 7.294005e-01 5.429053e-01 4.128609e-02 1.312820e+00
<VARIANCE> 39
 2.746792e+01 2.106990e+01 1.576961e+01 1.744713e+01 1.728728e+01 2.190264e+01 2.318846e+01 2.705636e+01 2.600475e+01 2.302721e+01 2.260440e+01 2.048780e+01 3.187773e+01 3.177520e+00 4.908044e+00 4.787394e+00 5.788218e+00 3.059185e+00 3.573176e+00 3.407575e+00 3.950156e+00 3.836702e+00 4.112081e+00 4.593400e+00 2.684438e+00 6.777880e+00 7.103695e-01 7.100884e-01 6.690072e-01 7.696279e-01 6.326126e-01 6.130365e-01 6.816595e-01 7.964272e-01 7.207364e-01 6.727920e-01 7.090220e-01 5.393518e-01 6.962634e-01
<GCONST> 1.253195e+02
<STATE> 3
<MEAN> 39
 -1.730992e+01 9.169164e-01 -1.661445e+00 1.451360e+00 1.225717e+00 1.057466e+00 -1.937290e-01 -4.451142e-01 -9.142839e-01 2.225331e-01 4.887848e-01 1.078235e+00 4.041800e+01 -2.725216e-01 -7.722480e-01 -7.702112e-01 -8.610016e-01 -4.518270e-01 -4.417823e-01 3.385466e-02 3.562045e-01 5.242435e-01 6.184443e-01 5.111170e-01 4.236394e-01 1.125341e+00 9.291210e-01 2.758620e-01 6.972179e-02 -4.653710e-01 -3.380708e-01 -4.535197e-01 -3.779168e-01 -4.067200e-01 -3.967682e-01 -9.992147e-02 -1.660761e-01 -4.152689e-01 1.329773e+00
<VARIANCE> 39
 5.712619e+00 6.866239e+00 7.125515e+00 7.813604e+00 8.962807e+00 1.220473e+01 1.313396e+01 1.616663e+01 1.596139e+01 1.440438e+01 1.378937e+01 1.261355e+01 2.912158e+01 2.101870e+00 1.850831e+00 1.701596e+00 1.746494e+00 1.421409e+00 2.188021e+00 2.089096e+00 2.389810e+00 2.451734e+00 2.204468e+00 2.059215e+00 1.866920e+00 6.065654e+00 4.243029e-01 3.507510e-01 4.354746e-01 5.396662e-01 4.126962e-01 4.879105e-01 4.351417e-01 4.962308e-01 4.772292e-01 4.682988e-01 4.605634e-01 4.112386e-01 8.353117e-01
<GCONST> 1.035829e+02
<STATE> 4
<MEAN> 39
 -1.420172e+01 1.651072e+00 -1.611674e+00 -1.602076e+00 -7.737159e-01 -3.399089e+00 -2.715514e+00 -2.174311e+00 -1.936133e+00 3.475970e-01 -3.520093e-01 2.426432e-01 5.184489e+01 3.424334e+00 -2.335718e-01 -9.631597e-01 -2.839656e+00 -1.553627e+00 -1.442773e+00 -1.044722e+00 -7.113122e-01 -8.304825e-01 2.458028e-01 2.777542e-01 -1.507961e+00 5.964776e+00 7.919639e-01 -2.902085e-01 -2.371332e-01 -5.454712e-01 -3.637376e-01 3.361268e-02 -1.070748e-01 -1.531162e-01 -3.080367e-01 -6.367618e-02 9.338658e-02 -6.613315e-01 4.534557e-01
<VARIANCE> 39
 2.001183e+01 1.849073e+01 1.512915e+01 1.863107e+01 1.890865e+01 2.456610e+01 2.296738e+01 2.429229e+01 2.401394e+01 2.079320e+01 1.737731e+01 1.631436e+01 1.044873e+02 3.755199e+00 3.616794e+00 5.069422e+00 5.554814e+00 3.991996e+00 4.598630e+00 3.819506e+00 4.876770e+00 3.955543e+00 3.872016e+00 4.088439e+00 3.486344e+00 7.136152e+00 5.493767e-01 7.414207e-01 7.744521e-01 7.739003e-01 8.156747e-01 7.951907e-01 7.691434e-01 8.809023e-01 8.323216e-01 6.858342e-01 8.117287e-01 6.392758e-01 1.586580e+00
<GCONST> 1.283520e+02
<STATE> 5
<MEAN> 39
 -3.640197e+00 -1.775593e-01 -6.524106e+00 -1.079883e+01 -4.331048e+00 -4.715704e+00 -4.678607e+00 -4.548718e+00 -4.987311e+00 1.234351e+00 1.409292e+00 -5.277596e+00 6.426710e+01 3.119395e+00 -1.861246e+00 -1.643169e+00 -3.137148e+00 -1.498352e+00 -9.358991e-01 -6.592429e-01 -5.244566e-01 -6.203597e-01 3.996035e-01 2.457157e-01 -2.474222e+00 4.922815e+00 -8.877776e-01 -1.917240e-01 3.541115e-01 8.296468e-01 2.190053e-01 1.378022e-01 2.510762e-01 2.515923e-01 2.328176e-01 -1.920947e-01 -3.546635e-01 1.344207e-01 -1.333517e+00
<VARIANCE> 39
 3.868541e+01 3.612668e+01 4.905652e+01 6.849125e+01 3.996535e+01 4.632320e+01 4.418579e+01 4.914482e+01 4.126277e+01 3.940403e+01 4.863291e+01 3.691258e+01 8.013519e+01 3.772187e+00 5.185339e+00 7.663616e+00 6.633882e+00 7.455630e+00 6.286466e+00 6.213553e+00 7.513650e+00 6.463751e+00 5.463330e+00 7.165648e+00 5.338222e+00 8.586718e+00 5.951524e-01 5.353880e-01 5.799199e-01 1.016575e+00 6.920232e-01 6.782396e-01 6.930998e-01 8.054749e-01 7.301601e-01 6.655968e-01 8.489166e-01 6.630194e-01 8.172386e-01
<GCONST> 1.409587e+02
<TRANSP> 6
 0.000000e+00 1.000000e+00 0.000000e+00 0.000000e+00 0.000000e+00 0.000000e+00
 0.000000e+00 5.883524e-01 4.116475e-01 0.000000e+00 0.000000e+00 0.000000e+00
 0.000000e+00 0.000000e+00 7.162035e-01 2.837966e-01 0.000000e+00 0.000000e+00
 0.000000e+00 0.000000e+00 0.000000e+00 4.418441e-01 5.581558e-01 0.000000e+00
 0.000000e+00 0.000000e+00 0.000000e+00 0.000000e+00 3.486706e-01 6.513294e-01
 0.000000e+00 0.000000e+00 0.000000e+00 0.000000e+00 0.000000e+00 0.000000e+00
<ENDHMM>
~h "r"
<BEGINHMM>
<NUMSTATES> 6
<STATE> 2
<MEAN> 39
 -5.941039e+00 -9.378363e-01 -1.651034e+00 -5.276632e-01 -5.618104e+00 -9.116099e+00 -7.668341e+00 -4.457909e+00 4.423545e-01 -6.757623e-01 -4.248258e+00 -3.638012e+00 6.145741e+01 -4.217816e-01 1.625286e-01 7.633837e-01 5.910937e-01 1.995575e-01 3.666482e-01 -5.736052e-01 6.412317e-02 -1.184697e-01 -4.233676e-01 8.926435e-02 7.774150e-01 -4.794168e-01 1.993409e-01 -3.852932e-01 -3.346086e-01 -7.606854e-01 -3.589523e-01 -1.539617e-01 1.305593e-01 3.558260e-01 -4.080559e-01 7.657821e-02 3.220236e-01 -4.360725e-01 7.371255e-01
<VARIANCE> 39
 3.543207e+01 2.713280e+01 5.305265e+01 3.460115e+01 5.002395e+01 4.601862e+01 4.382019e+01 5.874472e+01 4.445116e+01 4.665989e+01 4.043689e+01 3.594762e+01 7.742386e+01 3.753144e+00 2.545148e+00 3.399293e+00 3.076929e+00 4.692974e+00 4.011049e+00 4.119380e+00 5.051640e+00 4.826041e+00 4.177722e+00 4.175982e+00 3.434280e+00 2.719756e+00 7.664551e-01 6.570674e-01 7.572352e-01 7.666506e-01 1.120811e+00 9.567841e-01 1.049421e+00 1.340477e+00 1.053959e+00 1.027862e+00 1.123020e+00 8.311022e-01 7.416939e-01
<GCONST> 1.370599e+02
<STATE> 3
<MEAN> 39
 -6.020320e+00 -2.637585e+00 -2.656973e+00 -2.590899e+00 -7.031177e+00 -1.022960e+01 -8.989203e+00 -3.741586e+00 2.073220e-01 -6.741744e-01 -3.486876e+00 -2.790849e+00 6.509552e+01 5.560338e-01 -6.787441e-01 -1.589327e-01 -4.847883e-01 -9.854342e-01 -2.825862e-01 -4.159258e-01 4.214841e-01 -6.080651e-01 -6.125338e-02 6.286923e-01 -2.731140e-01 9.306961e-01 2.151018e-01 -1.382400e-01 -2.256513e-01 -4.578796e-01 -2.573909e-01 -3.743690e-02 3.128417e-01 1.490503e-01 -3.756219e-01 1.098166e-01 1.783541e-01 -5.093983e-01 2.948015e-01
<VARIANCE> 39
 3.417226e+01 2.404830e+01 5.361127e+01 3.233456e+01 5.154755e+01 4.705810e+01 4.308618e+01 6.145555e+01 4.327718e+01 4.781237e+01 3.724387e+01 3.454568e+01 6.134853e+01 3.433361e+00 3.055171e+00 3.907496e+00 2.699787e+00 4.713535e+00 3.905778e+00 3.707700e+00 4.815108e+00 4.520612e+00 3.673725e+00 3.876453e+00 3.153161e+00 2.596164e+00 6.426204e-01 5.434102e-01 5.994268e-01 7.280517e-01 1.037407e+00 8.315989e-01 1.019569e+00 1.169100e+00 1.012201e+00 1.000984e+00 9.579034e-01 7.426044e-01 5.281016e-01
<GCONST> 1.343827e+02
<STATE> 4
<MEAN> 39
 -2.656222e+00 -4.758009e+00 -5.710375e+00 -3.371162e+00 -1.073447e+01 -1.215326e+01 -8.931944e+00 -4.109429e+00 -5.435422e-01 8.604369e-01 -2.641445e+00 -5.769789e+00 6.727496e+01 5.400299e-01 -2.073772e-01 -1.085499e-01 -5.107890e-01 -7.362350e-01 3.047953e-02 1.253397e-01 3.014442e-01 -9.905737e-01 5.210836e-02 6.223592e-01 -5.772062e-01 2.631573e-01 -3.184926e-01 3.723416e-01 2.643689e-01 -1.232306e-01 3.854781e-01 3.144526e-01 3.569520e-01 1.721923e-03 -2.537922e-01 -1.247643e-01 -8.810411e-02 -1.203530e-02 -4.034096e-01
<VARIANCE> 39
 3.607413e+01 3.147974e+01 8.110311e+01 4.423425e+01 7.209179e+01 5.803384e+01 5.636532e+01 9.002728e+01 5.900203e+01 6.248619e+01 6.554900e+01 4.352116e+01 5.304461e+01 2.912003e+00 3.891903e+00 4.103342e+00 3.282338e+00 5.744818e+00 4.306269e+00 4.767018e+00 5.834322e+00 5.370616e+00 4.576363e+00 4.673222e+00 3.723669e+00 4.168481e+00 4.735619e-01 4.570655e-01 5.453746e-01 6.690897e-01 8.735737e-01 6.819718e-01 8.016284e-01 8.784685e-01 8.021828e-01 8.886968e-01 7.495138e-01 6.530656e-01 5.424488e-01
<GCONST> 1.378843e+02
<STATE> 5
<MEAN> 39
 -6.582967e+00 -1.672394e+00 -2.762626e+00 -2.853669e+00 -6.633790e+00 -8.351207e+00 -6.010326e+00 -2.627235e+00 -2.625338e+00 -5.410579e-01 -2.017086e+00 -3.699790e+00 5.921834e+01 -5.186943e-01 5.390912e-01 5.523459e-01 -1.255209e-01 3.724706e-01 6.977477e-01 5.725349e-01 1.171785e-01 -7.901561e-01 -3.180821e-01 1.491520e-01 -2.550492e-02 -8.786668e-01 -1.585822e-01 8.296308e-02 5.976288e-02 -2.439302e-02 1.596156e-01 8.327486e-02 1.285996e-01 -7.372206e-02 4.500528e-02 -6.669005e-03 -1.275415e-01 2.869207e-02 -9.288420e-02
<VARIANCE> 39
 5.808800e+01 4.838934e+01 6.923499e+01 4.698029e+01 8.563840e+01 7.355214e+01 6.048599e+01 8.103834e+01 5.743389e+01 5.306176e+01 5.858686e+01 4.498102e+01 1.499564e+02 3.527988e+00 4.226617e+00 3.642609e+00 3.848999e+00 5.466416e+00 4.340426e+00 4.246141e+00 4.880934e+00 4.843178e+00 4.378965e+00 4.083250e+00 3.740344e+00 6.390542e+00 5.694159e-01 5.306946e-01 5.256629e-01 5.827942e-01 8.286918e-01 8.053033e-01 7.203203e-01 7.896842e-01 7.491648e-01 7.131269e-01 7.118385e-01 5.891466e-01 6.383841e-01
<GCONST> 1.397431e+02
<TRANSP> 6
 0.000000e+00 1.000000e+00 0.000000e+00 0.000000e+00 0.000000e+00 0.000000e+00
 0.000000e+00 2.450479e-01 7.549521e-01 0.000000e+00 0.000000e+00 0.000000e+00
 0.000000e+00 0.000000e+00 1.307802e-01 8.692198e-01 0.000000e+00 0.000000e+00
 0.000000e+00 0.000000e+00 0.000000e+00 3.465579e-01 6.534421e-01 0.000000e+00
 0.000000e+00 0.000000e+00 0.000000e+00 0.000000e+00 5.418016e-01 4.581984e-01
 0.000000e+00 0.000000e+00 0.000000e+00 0.000000e+00 0.000000e+00 0.000000e+00
<ENDHMM>
~h "s"
<BEGINHMM>
<NUMSTATES> 6
<STATE> 2
<MEAN> 39
 -2.237126e+01 9.550107e+00 3.359150e-01 -2.822479e+00 2.821945e+00 -7.156634e+00 -1.272061e+00 -2.464907e-02 -3.631435e+00 -1.853663e+00 -1.998249e+00 2.668443e-01 6.264784e+01 -4.821609e+00 1.141330e+00 -6.543540e-01 1.560462e-01 1.616298e+00 1.180786e+00 1.288668e+00 9.695325e-01 5.173613e-01 -2.056859e-01 9.040968e-01 7.368038e-01 -4.904523e-01 5.160245e-01 -7.692627e-01 -4.295933e-01 -4.327504e-01 -6.706086e-01 -1.620656e-01 -2.606623e-01 -2.787037e-01 -7.988904e-02 2.096297e-01 -5.654480e-02 -2.993856e-01 5.867453e-02
<VARIANCE> 39
 6.473972e+01 2.647223e+01 3.044545e+01 2.627476e+01 3.202141e+01 3.809905e+01 5.698342e+01 3.775837e+01 2.910041e+01 2.562341e+01 2.451918e+01 1.866976e+01 6.047052e+01 3.387575e+00 4.182043e+00 4.450554e+00 3.565527e+00 5.210765e+00 4.511378e+00 4.209856e+00 5.061747e+00 3.516303e+00 3.491382e+00 4.025741e+00 2.528694e+00 2.329161e+00 1.054362e+00 5.325380e-01 5.086707e-01 5.695915e-01 6.841742e-01 7.779680e-01 7.154844e-01 6.984714e-01 6.363317e-01 5.649337e-01 5.998092e-01 4.453091e-01 2.905026e-01
<GCONST> 1.280173e+02
<STATE> 3
<MEAN> 39
 -3.095918e+01 8.810257e+00 -4.745543e+00 -5.044485e+00 2.997692e+00 -6.924906e+00 9.954488e-01 6.222856e-03 -3.023621e+00 -8.235793e-01 -4.160862e-01 1.194060e+00 6.073704e+01 -2.818978e-01 -2.728411e-01 -3.042126e-01 -3.282521e-01 -3.025011e-01 -1.545646e-01 1.929113e-02 -4.130582e-02 2.217607e-02 1.022219e-01 3.371491e-02 8.967111e-02 -5.300472e-03 8.424452e-01 -1.977004e-01 2.781017e-01 5.072781e-02 -2.078007e-01 -1.498889e-01 -1.745250e-01 -6.797653e-02 -3.853582e-02 -1.528203e-03 -1.444284e-01 -9.108321e-02 -8.888125e-03
<VARIANCE> 39
 1.716231e+01 1.964667e+01 2.127061e+01 2.151295e+01 2.248203e+01 2.256464e+01 3.584039e+01 2.520331e+01 1.908261e+01 1.700709e+01 1.504652e+01 1.190056e+01 4.345475e+01 1.590250e+00 1.193909e+00 1.331189e+00 1.234140e+00 1.391678e+00 1.485244e+00 1.513124e+00 1.588150e+00 1.547603e+00 1.504838e+00 1.336354e+00 1.187593e+00 9.687614e-01 4.889347e-01 2.576433e-01 2.789581e-01 2.758533e-01 3.579773e-01 3.891338e-01 3.663402e-01 3.815537e-01 3.404085e-01 3.291250e-01 3.355817e-01 2.704895e-01 1.777044e-01
<GCONST> 1.005257e+02
<STATE> 4
<MEAN> 39
 -2.763048e+01 5.519637e+00 -3.132456e+00 -5.722756e+00 8.893221e-01 -7.121045e+00 7.012505e-02 1.004613e+00 -2.366341e+00 -6.202520e-01 -4.590207e-01 1.769088e+00 6.024930e+01 3.402968e+00 -9.279985e-01 9.493192e-01 1.934519e-01 -1.172676e+00 -5.735880e-01 -1.030860e+00 -6.307127e-01 -1.153464e-01 -7.672198e-02 -6.845267e-01 -6.638566e-01 -3.893159e-01 1.193688e+00 -1.219833e-01 2.608752e-01 2.810005e-02 -3.603423e-01 -1.102635e-01 -5.583692e-01 -3.962819e-01 -2.189613e-01 -3.220238e-02 -1.803405e-01 -4.940496e-01 1.205615e-01
<VARIANCE> 39
 2.917550e+01 2.474933e+01 2.760990e+01 2.395321e+01 2.728121e+01 3.309068e+01 4.292158e+01 3.159864e+01 2.528503e+01 2.355620e+01 1.883772e+01 1.559236e+01 7.494766e+01 4.900670e+00 2.145653e+00 3.273903e+00 2.536792e+00 3.206028e+00 3.963267e+00 3.297156e+00 3.404747e+00 2.774781e+00 2.531945e+00 2.657996e+00 2.181108e+00 3.616120e+00 6.319384e-01 4.728639e-01 5.148348e-01 5.690789e-01 6.308565e-01 7.354655e-01 6.729655e-01 7.533781e-01 6.057137e-01 6.118304e-01 6.449546e-01 4.979638e-01 5.085788e-01
<GCONST> 1.228956e+02
<STATE> 5
<MEAN> 39
 -1.566017e+01 4.225758e+00 -8.222685e-01 -4.175154e+00 -1.691567e+00 -8.599950e+00 -4.361175e+00 -2.364036e+00 -3.079417e+00 -9.547622e-01 -3.785316e+00 -1.792109e+00 5.821574e+01 4.538904e+00 -1.379529e+00 6.160428e-01 -4.152261e-01 -1.719389e+00 -5.303625e-01 -1.756103e+00 -1.057101e+00 -5.374542e-01 1.725384e-01 -5.312375e-01 -1.596241e+00 5.060755e-01 -4.516185e-01 -1.156819e-01 -2.316479e-01 -2.786748e-01 -1.245784e-03 1.865559e-01 1.388749e-01 1.207558e-01 -8.184355e-02 3.849120e-02 3.225031e-01 -3.384401e-02 3.529414e-01
<VARIANCE> 39
 5.819216e+01 3.357483e+01 4.171742e+01 2.741095e+01 4.007068e+01 5.242783e+01 5.116971e+01 4.257822e+01 3.901683e+01 2.968842e+01 3.204955e+01 2.613642e+01 1.092223e+02 7.253720e+00 4.303006e+00 5.336234e+00 4.968015e+00 6.224618e+00 6.246377e+00 6.315408e+00 6.815986e+00 5.117344e+00 4.753896e+00 5.674341e+00 4.311285e+00 6.766358e+00 8.109028e-01 4.522843e-01 4.189864e-01 5.140312e-01 6.885627e-01 7.844155e-01 8.031653e-01 6.475149e-01 6.732726e-01 5.939255e-01 6.042168e-01 4.843954e-01 5.617297e-01
<GCONST> 1.360236e+02
<TRANSP> 6
 0.000000e+00 1.000000e+00 0.000000e+00 0.000000e+00 0.000000e+00 0.000000e+00
 0.000000e+00 6.210783e-01 3.789217e-01 0.000000e+00 0.000000e+00 0.000000e+00
 0.000000e+00 0.000000e+00 8.049476e-01 1.950525e-01 0.000000e+00 0.000000e+00
 0.000000e+00 0.000000e+00 0.000000e+00 5.698153e-01 4.301847e-01 0.000000e+00
 0.000000e+00 0.000000e+00 0.000000e+00 0.000000e+00 4.428627e-01 5.571373e-01
 0.000000e+00 0.000000e+00 0.000000e+00 0.000000e+00 0.000000e+00 0.000000e+00
<ENDHMM>
~h "t"
<BEGINHMM>
<NUMSTATES> 6
<STATE> 2
<MEAN> 39
 -9.602887e+00 9.946623e+00 3.554465e+00 2.469148e+00 1.284967e-01 -6.680773e+00 -6.707273e+00 -6.560088e+00 -5.480047e+00 -3.199059e+00 -5.293639e+00 -4.459591e+00 4.732633e+01 -2.258176e+00 1.452609e-01 8.062150e-01 2.200313e+00 1.848520e+00 3.313611e+00 1.190249e+00 2.906603e-01 -2.730365e-01 -1.282572e+00 3.303384e-01 1.229275e+00 -4.536135e+00 -3.444965e-01 -1.411502e+00 -8.655456e-01 -9.673540e-01 -5.052648e-01 -2.406206e-02 5.135012e-01 5.266110e-01 3.662020e-01 5.099012e-01 3.863593e-01 1.165750e-01 1.173312e+00
<VARIANCE> 39
 2.998092e+01 1.988915e+01 2.212596e+01 2.220306e+01 2.412818e+01 3.747990e+01 3.088087e+01 2.912243e+01 2.797228e+01 2.902589e+01 2.615951e+01 2.670508e+01 4.486352e+01 3.316247e+00 4.664337e+00 5.240982e+00 4.362524e+00 4.725008e+00 5.648293e+00 4.769938e+00 4.622221e+00 4.582729e+00 4.640165e+00 5.161115e+00 3.475513e+00 6.606800e+00 4.513396e-01 5.829809e-01 6.555055e-01 6.817943e-01 7.165161e-01 9.280384e-01 7.648147e-01 8.794605e-01 7.475784e-01 7.704480e-01 7.224470e-01 5.233898e-01 8.625783e-01
<GCONST> 1.303865e+02
<STATE> 3
<MEAN> 39
 -1.510800e+01 4.848561e+00 1.586967e+00 3.811481e+00 2.899565e+00 -1.675239e-01 -1.997996e+00 -3.990142e+00 -4.820742e+00 -3.398716e+00 -3.202807e+00 -1.920293e+00 4.224902e+01 -2.018083e+00 -2.339767e+00 -1.559986e+00 -6.589056e-01 2.384026e-01 1.487897e+00 1.521717e+00 1.424445e+00 1.188187e+00 8.087272e-01 1.215471e+00 1.265317e+00 -9.871058e-01 5.029352e-01 -3.459417e-01 -5.004325e-01 -1.051054e+00 -8.287334e-01 -1.132849e+00 -3.111257e-01 6.031616e-02 2.680068e-01 5.719342e-01 9.988365e-02 -1.688471e-01 1.720536e+00
<VARIANCE> 39
 1.438290e+01 1.333974e+01 1.489649e+01 1.424863e+01 1.516602e+01 1.990302e+01 2.085665e+01 2.418970e+01 2.308029e+01 2.023083e+01 1.829945e+01 1.723105e+01 3.189313e+01 2.495288e+00 2.000336e+00 2.262753e+00 2.757652e+00 2.523292e+00 4.357912e+00 2.979543e+00 2.828828e+00 2.743584e+00 2.743555e+00 2.524549e+00 2.316694e+00 5.874478e+00 4.108666e-01 5.294306e-01 6.292199e-01 6.101478e-01 6.783969e-01 7.099285e-01 6.329584e-01 6.370717e-01 6.400191e-01 6.770663e-01 6.652935e-01 5.006987e-01 8.579571e-01
<GCONST> 1.169003e+02
<STATE> 4
<MEAN> 39
 -1.794611e+01 3.542019e-01 -2.494204e+00 6.012343e-01 1.057176e+00 5.267031e-01 -2.372622e-02 -3.233671e-01 -5.847223e-01 6.934873e-01 7.576708e-01 1.475464e+00 4.077571e+01 -3.138262e-01 -7.662040e-01 -7.381963e-01 -1.307861e+00 -6.837308e-01 -8.375018e-01 -8.127578e-02 1.717672e-01 2.364334e-01 3.004833e-01 2.370718e-01 2.621675e-01 1.871966e+00 5.441862e-01 3.551120e-01 1.818673e-01 -3.044734e-01 -2.887886e-01 -7.355646e-01 -4.386118e-01 -3.356502e-01 -3.087355e-01 -1.797408e-01 -3.616605e-01 -4.632573e-01 1.311558e+00
<VARIANCE> 39
 6.317783e+00 5.943422e+00 7.114433e+00 9.246879e+00 9.456913e+00 1.401035e+01 1.368044e+01 1.582017e+01 1.476835e+01 1.336690e+01 1.327122e+01 1.199915e+01 3.697271e+01 1.343776e+00 1.607377e+00 1.983661e+00 2.743035e+00 1.905021e+00 3.164189e+00 2.267591e+00 2.393685e+00 2.358744e+00 2.253403e+00 2.075894e+00 1.872092e+00 8.961992e+00 4.058739e-01 2.794221e-01 3.812898e-01 4.115986e-01 4.366220e-01 6.065236e-01 5.147716e-01 5.051526e-01 4.648401e-01 4.615614e-01 4.633113e-01 4.678549e-01 9.414512e-01
<GCONST> 1.050592e+02
<STATE> 5
<MEAN> 39
 -1.666969e+01 2.392603e-02 -3.766553e+00 -6.210944e+00 -2.702269e+00 -7.563477e+00 -2.709509e+00 -2.133840e+00 -2.205281e+00 -4.923144e-01 -1.587924e+00 -3.818873e-01 5.847002e+01 2.187263e+00 -7.462046e-03 -1.338607e-01 -1.730202e+00 -1.596010e+00 -2.385093e+00 -1.386352e+00 -4.412995e-01 -3.452752e-01 8.985487e-02 -6.770312e-01 -1.791101e+00 5.041383e+00 7.280582e-01 6.328525e-02 2.969468e-01 3.184540e-01 -1.574370e-02 3.555920e-01 -2.212526e-01 -1.022730e-01 -1.777819e-01 2.607002e-02 4.923504e-03 -4.842310e-01 -6.491005e-01
<VARIANCE> 39
 2.999835e+01 2.284990e+01 2.820205e+01 3.171110e+01 3.045422e+01 4.113638e+01 3.572151e+01 3.306654e+01 2.747770e+01 2.546301e+01 2.623029e+01 2.516261e+01 1.123654e+02 4.260078e+00 3.430725e+00 5.987948e+00 4.939473e+00 4.822485e+00 5.831732e+00 5.144693e+00 5.496378e+00 4.803383e+00 4.062865e+00 4.786219e+00 4.669977e+00 1.119579e+01 6.666428e-01 7.419080e-01 8.435184e-01 7.234960e-01 7.848841e-01 1.023825e+00 9.481930e-01 9.280730e-01 8.092581e-01 6.941819e-01 8.343954e-01 7.745844e-01 1.333837e+00
<GCONST> 1.359473e+02
<TRANSP> 6
 0.000000e+00 1.000000e+00 0.000000e+00 0.000000e+00 0.000000e+00 0.000000e+00
 0.000000e+00 4.096069e-01 5.903931e-01 0.000000e+00 0.000000e+00 0.000000e+00
 0.000000e+00 0.000000e+00 3.912080e-01 6.087921e-01 0.000000e+00 0.000000e+00
 0.000000e+00 0.000000e+00 0.000000e+00 7.026193e-01 2.973807e-01 0.000000e+00
 0.000000e+00 0.000000e+00 0.000000e+00 0.000000e+00 5.901966e-01 4.098035e-01
 0.000000e+00 0.000000e+00 0.000000e+00 0.000000e+00 0.000000e+00 0.000000e+00
<ENDHMM>
~h "u"
<BEGINHMM>
<NUMSTATES> 6
<STATE> 2
<MEAN> 39
 -2.611769e+00 4.281978e+00 -2.400568e+00 -9.026587e+00 -1.008098e+01 -6.798665e+00 -1.299721e+01 -8.207949e+00 -8.114762e+00 -1.941244e+00 1.036471e+00 -5.574393e+00 6.341500e+01 2.272125e+00 7.136258e-01 -9.520059e-01 -2.092998e+00 -1.354955e+00 7.735673e-01 -1.632184e+00 -1.389055e+00 -1.387547e+00 3.127072e-01 1.729673e+00 -9.425513e-01 1.200645e+00 -6.170341e-01 3.076071e-02 5.721023e-02 1.292702e-01 4.244184e-01 5.439172e-01 6.645769e-01 1.984892e-01 2.322571e-02 3.612445e-02 -4.588581e-02 2.727150e-01 -6.628373e-01
<VARIANCE> 39
 2.386766e+01 4.297207e+01 5.167426e+01 6.477702e+01 4.919056e+01 6.110894e+01 7.185361e+01 8.081038e+01 6.418018e+01 5.862394e+01 6.911304e+01 3.726133e+01 6.119655e+01 3.862179e+00 3.434984e+00 5.009040e+00 4.634911e+00 5.812238e+00 4.952698e+00 6.107250e+00 7.492940e+00 6.833565e+00 5.983304e+00 6.723515e+00 4.928474e+00 2.999063e+00 5.715081e-01 6.665109e-01 5.959484e-01 9.401637e-01 7.862422e-01 9.307813e-01 1.076618e+00 1.073441e+00 1.020459e+00 8.793700e-01 8.641527e-01 6.941603e-01 6.496192e-01
<GCONST> 1.420623e+02
<STATE> 3
<MEAN> 39
 -1.063202e+00 4.552413e+00 -4.076773e+00 -1.225112e+01 -1.052689e+01 -2.890078e+00 -1.408601e+01 -1.022853e+01 -1.100616e+01 -8.817832e-01 5.366689e+00 -6.216938e+00 6.469727e+01 5.431235e-01 7.050642e-01 -6.180544e-01 -1.577503e+00 -2.578522e-01 1.250962e+00 3.694955e-01 -1.693909e-01 -1.299600e+00 -3.059269e-01 8.810189e-01 2.522833e-01 -6.979286e-02 -5.843809e-01 -4.570424e-02 3.522573e-01 7.215919e-01 4.414189e-01 -2.838126e-01 6.583693e-01 4.212759e-01 4.613451e-01 -2.023621e-01 -8.235599e-01 2.784107e-01 -5.270148e-01
<VARIANCE> 39
 1.943156e+01 4.120308e+01 5.089840e+01 5.116077e+01 4.461143e+01 5.302136e+01 7.789975e+01 9.717421e+01 7.536732e+01 7.224942e+01 9.571429e+01 4.982492e+01 4.264838e+01 8.333850e-01 2.205311e+00 2.075547e+00 3.069675e+00 3.453610e+00 3.152644e+00 4.841592e+00 4.496886e+00 4.924056e+00 4.336613e+00 4.098621e+00 3.125791e+00 1.938505e+00 4.093902e-01 4.999675e-01 5.793149e-01 7.300701e-01 8.286011e-01 6.809902e-01 1.041580e+00 1.243215e+00 1.039762e+00 1.096414e+00 9.998764e-01 7.913508e-01 3.251595e-01
<GCONST> 1.339684e+02
<STATE> 4
<MEAN> 39
 2.455990e-02 7.926991e+00 -5.307946e+00 -1.619706e+01 -1.162328e+01 -1.726139e+00 -1.010787e+01 -8.085108e+00 -1.288503e+01 -3.880128e+00 3.444659e+00 -4.688164e+00 6.271184e+01 -1.188114e-01 -2.361469e-01 7.644454e-03 2.873474e-01 2.532187e-01 -9.427114e-02 2.350929e-01 -1.292241e-01 4.158455e-01 3.577889e-01 -2.637362e-01 1.563351e-02 -1.740153e-01 -2.442964e-01 -2.034315e-01 2.189691e-01 6.370822e-01 2.644685e-01 -2.565320e-01 5.132552e-02 2.726049e-02 4.138820e-01 1.843517e-01 -3.437642e-01 -9.091447e-02 -2.037835e-01
<VARIANCE> 39
 1.553794e+01 4.217412e+01 3.962360e+01 4.557466e+01 4.454097e+01 4.697401e+01 6.597383e+01 8.409695e+01 7.624397e+01 7.883772e+01 1.111140e+02 5.973077e+01 4.342421e+01 5.169564e-01 2.048924e+00 1.333938e+00 2.806247e+00 2.609622e+00 2.141722e+00 3.575820e+00 3.977829e+00 3.414460e+00 4.003381e+00 3.836151e+00 2.644866e+00 1.763280e+00 1.887317e-01 2.629305e-01 3.127300e-01 4.900800e-01 4.887340e-01 4.847213e-01 5.675176e-01 6.869457e-01 6.881689e-01 6.582775e-01 7.846677e-01 5.596889e-01 2.117060e-01
<GCONST> 1.240254e+02
<STATE> 5
<MEAN> 39
 -3.567455e+00 3.910679e+00 -3.044081e+00 -7.913159e+00 -8.426386e+00 -4.999461e+00 -1.020349e+01 -9.170330e+00 -6.951689e+00 -4.376102e-03 4.054775e-01 -4.800322e+00 5.990712e+01 -1.243269e+00 -2.192254e-01 1.271946e+00 2.518365e+00 1.292223e+00 -6.070259e-01 8.352323e-01 6.811945e-01 1.392480e+00 -9.215234e-02 -1.700934e+00 -4.053234e-02 -1.662779e+00 -3.368175e-01 1.392939e-01 1.466524e-01 7.624506e-02 1.783272e-01 1.771864e-01 2.568978e-01 2.403378e-01 -6.575411e-02 -2.894695e-01 -1.064462e-01 1.087761e-01 -2.452438e-01
<VARIANCE> 39
 3.449648e+01 4.019850e+01 5.597092e+01 6.684964e+01 5.930243e+01 6.260117e+01 8.229582e+01 9.216973e+01 7.161548e+01 6.517633e+01 7.406644e+01 5.298033e+01 1.122807e+02 3.082967e+00 4.179738e+00 3.905493e+00 5.210542e+00 5.511780e+00 5.508144e+00 6.469283e+00 7.239761e+00 6.278870e+00 6.530551e+00 6.694987e+00 5.453507e+00 4.963107e+00 5.078129e-01 6.593832e-01 5.780529e-01 1.005025e+00 9.206514e-01 9.236729e-01 1.132959e+00 1.264443e+00 1.092230e+00 1.131834e+00 1.088897e+00 8.086152e-01 6.279240e-01
<GCONST> 1.456588e+02
<TRANSP> 6
 0.000000e+00 1.000000e+00 0.000000e+00 0.000000e+00 0.000000e+00 0.000000e+00
 0.000000e+00 3.269332e-01 6.730667e-01 0.000000e+00 0.000000e+00 0.000000e+00
 0.000000e+00 0.000000e+00 3.369544e-01 6.630456e-01 0.000000e+00 0.000000e+00
 0.000000e+00 0.000000e+00 0.000000e+00 7.261910e-01 2.738089e-01 0.000000e+00
 0.000000e+00 0.000000e+00 0.000000e+00 0.000000e+00 6.191932e-01 3.808068e-01
 0.000000e+00 0.000000e+00 0.000000e+00 0.000000e+00 0.000000e+00 0.000000e+00
<ENDHMM>
~h "w"
<BEGINHMM>
<NUMSTATES> 6
<STATE> 2
<MEAN> 39
 -1.244118e+00 2.572702e+00 -5.297606e+00 -1.242112e+01 -8.301223e+00 -4.278481e+00 -7.438760e+00 -6.491973e+00 -9.659592e+00 2.367305e-01 3.012175e+00 -5.672065e+00 6.175795e+01 1.260334e+00 1.077783e+00 -4.049284e-01 -1.671992e+00 -9.534577e-01 7.589699e-01 3.548863e-01 -2.183540e-01 -1.443306e+00 -6.778914e-01 9.817278e-01 8.335233e-01 -4.640596e-02 -3.011463e-01 -1.441670e-01 2.252403e-01 9.348848e-02 -1.313403e-01 -1.854274e-01 2.351374e-01 3.543409e-01 1.524448e-01 -2.042047e-01 -2.021548e-01 8.330913e-02 3.452267e-02
<VARIANCE> 39
 3.407981e+01 5.294799e+01 6.281872e+01 7.244331e+01 6.337933e+01 7.004132e+01 7.685497e+01 7.756783e+01 6.194247e+01 6.209858e+01 7.136680e+01 5.257629e+01 9.611978e+01 2.226158e+00 2.645401e+00 2.583531e+00 3.722019e+00 4.312951e+00 4.357291e+00 3.821999e+00 4.363619e+00 4.283201e+00 3.731051e+00 4.666702e+00 4.145532e+00 4.363822e+00 3.766094e-01 4.923849e-01 3.921800e-01 5.688633e-01 7.850403e-01 6.216332e-01 7.718076e-01 7.045708e-01 7.472678e-01 8.171408e-01 8.193994e-01 6.417527e-01 2.755409e-01
<GCONST> 1.357946e+02
<STATE> 3
<MEAN> 39
 2.330290e+00 5.649653e+00 -5.412071e+00 -1.833436e+01 -1.201594e+01 -2.714083e+00 -4.737200e+00 -2.969545e+00 -1.226548e+01 -2.794498e+00 2.807669e+00 -4.020866e+00 6.193684e+01 2.940179e-01 6.195949e-01 2.800018e-01 -3.986423e-01 -7.350081e-01 -1.585229e-01 7.362750e-02 3.920908e-01 -2.346203e-01 -5.747979e-01 -1.650519e-01 3.496187e-01 -3.388622e-01 -2.360736e-01 -4.480221e-01 -9.148178e-02 2.222784e-01 3.530395e-01 -2.820287e-02 -1.003097e-01 -9.412989e-02 3.144589e-01 3.376631e-01 -7.000867e-03 -2.692538e-01 2.632134e-01
<VARIANCE> 39
