\data\
ngram 1=2186
ngram 2=4105

\1-grams:
-99.999	!ENTER	-3.8142
-0.8662	SILENCE	-1.6198
-3.7025	ab	-1.3423
-3.7025	abba	-1.3423
-3.7025	abdi	-1.3423
-3.7025	abdul	-1.3423
-3.7025	abdullah	-1.3423
-3.2254	abdurrahman	-1.4547
-3.7025	abg	-1.2789
-3.7025	absennya	-1.3423
-3.2254	abu	-1.3419
-2.8574	acara	-1.4830
-2.8574	aceh	-1.3444
-2.7994	ada	-1.3353
-2.3223	adalah	-1.3536
-3.7025	adalam	-1.3423
-3.4015	adanya	-1.3423
-3.7025	adapun	-1.3423
-3.7025	adi	-1.3423
-3.7025	adiora	-1.2789
-3.7025	adisusanto	-1.3423
-3.7025	adiyaksa	-1.3351
-3.7025	adlani	-1.3351
-3.7025	adnan	-1.3423
-3.7025	advokasi	-1.3423
-3.1005	afganistan	-1.3949
-3.7025	afp	-1.3423
-3.7025	agama	-1.3421
-3.2254	agenda	-1.3418
-3.7025	agil	-1.3409
-3.7025	agniezka	-1.3404
-3.4015	agus	-1.3350
-3.7025	agustine	-1.3423
-3.7025	agva	-1.2789
-3.2254	ahli	-1.3421
-3.7025	ahqam	-1.3422
-3.7025	ai	-1.2789
-3.7025	air	-1.3423
-3.7025	ajwar	-1.3423
-2.3408	akan	-1.3570
-3.7025	aken	-1.3422
-3.7025	akhir	-1.3365
-3.7025	akhmad	-1.3423
-3.2254	akibat	-1.3377
-3.7025	akibatnya	-1.3423
-3.7025	aktivis	-1.3423
-3.7025	aktris	-1.3423
-2.9244	al	-1.3418
-3.7025	alam	-1.3423
-3.7025	alasan	-1.3423
-3.4015	alasannya	-1.2779
-3.7025	alat	-1.3422
-3.4015	album	-1.3423
-3.4015	alex	-1.3423
-3.4015	alexander	-1.3423
-3.7025	alfa	-1.3416
-3.7025	ali	-1.3351
-3.7025	alimuddin	-1.3423
-3.7025	almarhum	-1.3419
-3.7025	alqaeda	-1.3351
-3.7025	alquran	-1.3422
-3.7025	amazon	-1.3423
-3.7025	amedeo	-1.3423
-2.9244	amerika	-1.3557
-3.7025	ampuh	-1.2789
-3.7025	anak	-1.3423
-3.7025	anam	-1.3423
-3.7025	ancaman	-1.3391
-3.7025	anda	-1.3420
-3.7025	andrae	-1.3423
-3.7025	andyanto	-1.3411
-2.9244	anggota	-1.3411
-3.7025	angie	-1.3413
-3.7025	angka	-1.3423
-3.7025	angkasa	-1.3421
-3.7025	angkatan	-1.3423
-3.7025	anglo	-1.3423
-3.7025	anjlok	-1.3333
-2.7483	antara	-1.5960
-3.4015	antaranya	-1.3419
-3.7025	anthrax	-1.3423
-3.7025	anumerta	-1.3408
-3.7025	anwar	-1.3409
-3.0035	apa	-1.4376
-3.2254	apakah	-1.3416
-3.4015	apalagi	-1.3415
-3.7025	aparat	-1.3422
-3.7025	apbn	-1.2789
-3.1005	api	-1.3931
-3.7025	aqsa	-1.3423
-3.7025	aquino	-1.2789
-3.7025	arabia	-1.2789
-3.4015	arah	-1.3358
-3.7025	arantxa	-1.3423
-3.4015	arif	-1.3350
-3.7025	arifin	-1.3423
-3.7025	aritonang	-1.2789
-3.7025	arqam	-1.3423
-3.7025	arroyo	-1.3416
-3.7025	arryman	-1.3423
-3.7025	artho	-1.3423
-3.7025	arus	-1.3423
-3.7025	ary	-1.3423
-2.8574	as	-1.3430
-3.4015	asap	-1.3423
-3.7025	asas	-1.3423
-3.4015	asia	-1.2787
-3.4015	asing	-1.2721
-3.7025	aspek	-1.3423
-3.7025	assidiqqiah	-1.3423
-3.7025	astagfirullah	-1.2789
-3.7025	aston	-1.3423
-3.7025	asuransi	-1.3410
-3.7025	asyraf	-1.2789
-3.7025	at	-1.3423
-3.7025	atal	-1.3423
-3.0035	atas	-1.3418
-2.4984	atau	-1.3298
-3.7025	atraksi	-1.3423
-3.7025	audi	-1.3423
-3.7025	austria	-1.3420
-3.7025	avi	-1.3423
-3.7025	avtur	-1.3404
-3.7025	awan	-1.3333
-3.4015	award	-1.2704
-3.7025	ayam	-1.3422
-3.7025	azam	-1.3423
-3.7025	aziz	-1.3351
-3.7025	azman	-1.3423
-3.7025	azwar	-1.3423
-3.4015	b	-1.6418
-3.7025	baasyir	-1.3423
-3.7025	bada	-1.3418
-3.7025	badai	-1.3423
-3.4015	badan	-1.3418
-3.7025	bagaimana	-1.3423
-3.7025	bagi	-1.3419
-3.7025	bagian	-1.3417
-3.2254	bahan	-1.5181
-3.4015	bahkan	-1.3415
-3.7025	bahu	-1.3423
-2.7483	bahwa	-1.3378
-3.7025	baihaqi	-1.3333
-3.2254	bakar	-1.3420
-3.7025	balik	-1.3422
-3.7025	balkan	-1.3423
-3.7025	bandang	-1.2789
-3.0035	bandara	-1.3328
-3.7025	bandung	-1.2789
-3.4015	bangku	-1.3423
-3.4015	bangsa	-1.3395
-3.4015	banjir	-1.2788
-3.2254	bank	-1.3422
-3.2254	bantuan	-1.3410
-3.7025	bantuannya	-1.3423
-3.0035	banyak	-1.4379
-3.7025	banyumas	-1.2789
-3.7025	banyuwangi	-1.3423
-3.7025	barak	-1.3423
-3.7025	barang	-1.3423
-3.4015	barat	-1.2776
-3.7025	bareng	-1.3423
-3.7025	barna	-1.3423
-3.7025	barrel	-1.2789
-3.7025	barthez	-1.2789
-3.7025	bartok	-1.3423
-3.2254	baru	-1.3347
-3.7025	basis	-1.3423
-3.7025	batu	-1.3397
-3.4015	bawah	-1.3419
-3.7025	bayern	-1.3423
-3.4015	bayi	-1.3422
-3.7025	bca	-1.3423
-3.7025	bebas	-1.3394
-3.4015	beberapa	-1.3422
-3.4015	begitu	-1.3423
-3.7025	behari	-1.3423
-3.7025	beijing	-1.3416
-3.7025	bejbel	-1.2789
-3.7025	bekasi	-1.3423
-3.2254	bekerja	-1.5155
-3.7025	belaka	-1.3403
-3.7025	belakang	-1.3423
-3.7025	belas	-1.3423
-3.7025	belfas	-1.3423
-2.7025	belum	-1.3839
-3.4015	benar	-1.3422
-3.7025	bencana	-1.3423
-3.7025	bendera	-1.3423
-3.4015	bentuk	-1.3421
-3.1005	berada	-1.9353
-3.0035	berangkat	-1.3397
-3.7025	berapa	-1.2789
-3.7025	berarti	-1.2789
-3.7025	berawal	-1.3423
-3.7025	berbagai	-1.3423
-3.7025	berbagi	-1.3423
-3.7025	berbahasa	-1.3419
-3.7025	berbalik	-1.3410
-3.4015	berbeda	-1.5799
-3.7025	berbicara	-1.3333
-3.7025	berbobot	-1.2789
-3.4015	berbuat	-1.3419
-3.7025	berdasarkan	-1.3423
-3.7025	berdemonstrasi	-1.3423
-3.7025	berfungsi	-1.3418
-3.4015	berhasil	-1.3423
-3.7025	beringin	-1.3333
-3.1005	berita	-1.3416
-3.7025	beritahukan	-1.3421
-3.2254	berjalan	-1.3313
-3.7025	berjangkit	-1.3333
-3.4015	berkaitan	-1.3402
-3.7025	berkat	-1.3423
-3.7025	berkedok	-1.3419
-3.7025	berkekuatan	-1.3423
-3.7025	berkelana	-1.3333
-3.7025	berlindung	-1.3333
-3.4015	bermain	-1.3418
-3.7025	bermalam	-1.3419
-3.7025	bermotor	-1.2789
-3.7025	bermula	-1.3394
-3.4015	bernard	-1.3423
-3.7025	bernomor	-1.3420
-3.7025	berobat	-1.3406
-3.7025	berpelat	-1.3423
-3.4015	berpendapat	-1.3415
-3.7025	berpengaruh	-1.3410
-3.7025	berpidato	-1.3333
-3.7025	berpromosi	-1.3412
-3.7025	bersalaman	-1.3403
-3.1005	bersama	-1.2762
-3.7025	bersamaan	-1.3403
-3.7025	bersedia	-1.3420
-3.7025	bersembunyi	-1.3333
-3.4015	bersenjata	-1.2788
-3.7025	bersikap	-1.3423
-3.7025	bertaburan	-1.3423
-3.7025	berteduh	-1.3333
-3.7025	bertenaga	-1.3423
-3.7025	bertindak	-1.2789
-3.7025	berturut	-1.3423
-3.7025	berucap	-1.3391
-3.4015	berupa	-1.3407
-3.4015	berwarna	-1.3423
-3.7025	besar	-1.2789
-3.7025	besuk	-1.3391
-3.7025	bhakti	-1.2789
-3.7025	bi	-1.3421
-3.7025	bidang	-1.3423
-3.7025	bigxu	-1.2789
-3.7025	bilateral	-1.3416
-3.7025	bimas	-1.3423
-3.4015	bin	-1.3423
-3.7025	bird	-1.3394
-3.7025	biru	-1.2789
-2.7994	bisa	-1.3393
-3.7025	bishop	-1.3423
-3.7025	bisnisnya	-1.2789
-3.7025	black	-1.3423
-3.7025	bleszinsky	-1.3422
-3.4015	boediono	-1.5799
-3.7025	bogor	-1.3422
-3.4015	bola	-1.3423
-3.7025	boleh	-1.3423
-3.7025	bolton	-1.3423
-3.7025	bom	-1.3423
-3.7025	box	-1.3391
-3.7025	boyce	-1.3418
-3.7025	boyke	-1.3423
-3.4015	bppn	-1.2776
-3.7025	bq	-1.3365
-3.7025	bramhs	-1.3351
-3.7025	braxton	-1.3416
-3.4015	brigjen	-1.3423
-3.7025	bromartani	-1.2789
-3.7025	buah	-1.3422
-3.7025	buatan	-1.3423
-3.7025	budiman	-1.3423
-3.0035	bukan	-1.3411
-3.7025	bukanlah	-1.3423
-3.7025	bukit	-1.3423
-3.7025	bukti	-1.3423
-3.2254	buku	-1.2785
-3.2254	bulan	-1.3419
-3.7025	bunga	-1.3333
-3.7025	bungsu	-1.3421
-3.7025	bunker	-1.3423
-3.7025	bunuh	-1.3420
-3.7025	bupati	-1.3418
-3.7025	bursa	-1.3423
-3.7025	burung	-1.3423
-3.4015	bus	-1.3423
-3.7025	busana	-1.3423
-3.7025	bush	-1.3413
-3.7025	buwono	-1.2789
-3.7025	buyung	-1.3423
-3.7025	bypass	-1.3423
-3.4015	cabang	-1.6433
-3.7025	calon	-1.3394
-3.7025	caltex	-1.3418
-3.7025	canio	-1.3423
-3.7025	cao	-1.3423
-3.7025	carboni	-1.3351
-3.7025	cb	-1.3365
-3.7025	cc	-1.3409
-3.7025	cdma	-1.3409
-3.7025	cedera	-1.3423
-3.7025	ceko	-1.3421
-3.7025	celcius	-1.2789
-3.7025	cendrawasih	-1.3420
-3.7025	center	-1.3410
-3.7025	centra	-1.3423
-3.2254	cepat	-1.3422
-3.7025	cerah	-1.3423
-3.7025	cetak	-1.2789
-3.7025	cf	-1.3423
-3.7025	cgi	-1.3351
-3.7025	chaeruddin	-1.3422
-3.7025	chaerul	-1.3423
-3.7025	chagquan	-1.3420
-3.7025	change	-1.2789
-3.7025	chauvinisme	-1.2789
-3.7025	chopin	-1.3423
-3.7025	chris	-1.3423
-3.7025	cijantung	-1.3423
-3.7025	cina	-1.3423
-3.7025	cinta	-1.3365
-3.7025	club	-1.3423
-3.7025	cnrm	-1.2789
-3.7025	coimbra	-1.3423
-3.7025	college	-1.3423
-3.7025	com	-1.3422
-3.4015	contoh	-1.3363
-3.7025	cowpens	-1.3421
-3.7025	cpm	-1.3423
-3.7025	cpo	-1.3410
-3.2254	cq	-1.3415
-3.7025	crawford	-1.3423
-3.7025	cs	-1.2789
-3.7025	cuaca	-1.3333
-3.7025	cungkilan	-1.3423
-3.7025	cv	-1.3423
-3.7025	dahlan	-1.2789
-2.3408	dalam	-1.3768
-3.4015	damai	-1.3402
-3.4015	dampak	-1.3423
-3.7025	damri	-1.3423
-1.7782	dan	-1.3349
-3.7025	dana	-1.3423
-3.7025	dance	-1.2789
-3.4015	dangdut	-1.3423
-3.7025	dansa	-1.3423
-3.0035	dapat	-1.3414
-3.4015	darah	-1.3391
-2.1584	dari	-1.3328
-3.7025	darmawan	-1.3423
-3.7025	darul	-1.3423
-3.7025	daruqutni	-1.3423
-3.7025	darussalam	-1.3410
-3.4015	dasar	-1.3394
-3.1005	datang	-1.6416
-3.7025	daud	-1.3423
-3.7025	david	-1.3423
-3.7025	davids	-1.3410
-3.7025	de	-1.3423
-3.7025	debat	-1.3423
-3.4015	debitor	-1.2721
-3.7025	defoe	-1.3406
-3.7025	dekat	-1.3423
-3.4015	delapan	-1.3380
-3.7025	demikian	-1.3413
-2.3046	dengan	-1.3370
-3.2254	depan	-1.3410
-3.7025	departemen	-1.3423
-3.7025	depdiknas	-1.2789
-3.7025	derajat	-1.3423
-3.7025	dermawan	-1.3351
-3.7025	desa	-1.3423
-3.7025	detektor	-1.3423
-3.7025	dewan	-1.3422
-3.7025	dhabi	-1.3423
-3.7025	dharma	-1.3423
-1.6813	di	-1.3995
-2.8574	dia	-1.3390
-3.4015	diadakan	-1.3332
-3.7025	diantaranya	-1.3423
-3.7025	diawali	-1.3423
-3.7025	dibacakan	-1.3423
-3.7025	dibawa	-1.3423
-3.7025	diberangkatkan	-1.3421
-3.7025	diberlakukan	-1.3333
-3.7025	dibicarakan	-1.3416
-3.7025	dibudidayakan	-1.3411
-3.7025	dicabut	-1.2789
-3.7025	dicalonkan	-1.3408
-3.7025	dicapai	-1.3423
-3.7025	diciduk	-1.3391
-3.7025	dicocokkan	-1.3403
-3.7025	dicurigai	-1.3423
-3.7025	didampingi	-1.3420
-3.7025	diderita	-1.3423
-3.7025	dididik	-1.3397
-3.7025	diduduki	-1.3423
-3.7025	diduga	-1.3423
-3.7025	didukung	-1.3422
-3.4015	digelar	-1.3416
-3.4015	digunakan	-1.3387
-3.7025	dihadapi	-1.3422
-3.4015	dihadiri	-1.3407
-3.7025	dihapuskannya	-1.3423
-3.7025	dihubungi	-1.3408
-3.7025	diikuti	-1.3408
-3.4015	diingatkan	-1.6408
-3.7025	diiringi	-1.3422
-3.7025	diizinkan	-1.3423
-3.7025	dijadikan	-1.3423
-3.4015	dikabarkan	-1.3418
-3.4015	dikatakan	-1.3421
-3.7025	dikategorikan	-1.3419
-3.7025	dikdasmen	-1.3423
-3.7025	dikembalikan	-1.3422
-3.4015	dikemudikan	-1.3422
-3.7025	dikemukakan	-1.3423
-3.7025	dikenallah	-1.3423
-3.7025	dikerjakan	-1.3408
-3.7025	dikeroyok	-1.3423
-3.7025	dikoordinir	-1.3423
-2.7994	dilakukan	-1.3974
-3.7025	dilalui	-1.2789
-3.7025	dilanda	-1.3423
-3.7025	dilaporkan	-1.3406
-3.7025	dilaporkannya	-1.3391
-3.7025	dilepas	-1.3408
-3.7025	dilepaskan	-1.3403
-3.7025	dilimpahkan	-1.3406
-3.4015	dimaksudkan	-1.6408
-3.7025	dimana	-1.3423
-3.7025	dimulai	-1.3422
-3.7025	din	-1.3423
-3.7025	dinas	-1.3397
-3.7025	dinilai	-1.3423
-3.7025	dioperasi	-1.2789
-3.7025	dipacu	-1.3333
-3.7025	dipadu	-1.3403
-3.7025	diperhatikan	-1.2789
-3.4015	diperiksa	-1.3346
-3.7025	diperkirakan	-1.3404
-3.7025	diperlombakan	-1.2789
-3.7025	diperlukan	-1.3420
-3.7025	dipertanggungjawabkan	-1.2789
-3.7025	dipertimbangkan	-1.2789
-3.4015	dipimpin	-1.3417
-3.7025	diproses	-1.3422
-3.7025	dirawat	-1.3333
-3.7025	direktorat	-1.3423
-3.2254	direktur	-1.3419
-3.0035	diri	-1.2586
-3.7025	diringkus	-1.3423
-3.7025	dirintis	-1.3408
-3.2254	dirinya	-1.2740
-3.7025	dirjen	-1.3423
-3.4015	disahkan	-1.2773
-3.7025	disalahpahami	-1.2789
-3.7025	disambut	-1.3408
-3.2254	disampaikan	-1.3408
-3.7025	disbursement	-1.3410
-3.7025	diserbu	-1.3351
-3.7025	disergap	-1.3351
-3.7025	disiapkan	-1.3419
-3.4015	distrik	-1.3421
-3.7025	disukai	-1.3418
-3.7025	disumbangkan	-1.3423
-3.4015	disusul	-1.3422
-3.7025	ditandatangani	-1.3422
-3.7025	ditangani	-1.3408
-3.7025	ditangkap	-1.3333
-3.7025	ditanya	-1.3423
-3.4015	ditarik	-1.3405
-3.7025	ditayangkan	-1.3423
-3.4015	ditempatkan	-1.3314
-3.2254	ditemukan	-1.3400
-3.7025	diterapkan	-1.3397
-3.7025	ditodong	-1.3423
-3.7025	dituju	-1.3408
-3.7025	dituntut	-1.3423
-3.7025	diusulkan	-1.3420
-3.1005	diwakili	-1.9428
-3.7025	dki	-1.3351
-3.7025	dokter	-1.3423
-3.7025	dollar	-1.3418
-3.7025	donald	-1.3423
-3.7025	dosen	-1.3422
-3.2254	dot	-1.3422
-3.7025	double	-1.3423
-3.7025	downer	-1.2789
-3.7025	dpp	-1.3423
-3.2254	dpr	-1.4549
-3.7025	draft	-1.3422
-3.7025	drastis	-1.2789
-2.4472	dua	-1.4161
-3.4015	duduk	-1.3314
-3.7025	duet	-1.3423
-3.4015	duka	-1.3351
-3.7025	dulu	-1.3420
-3.7025	dumas	-1.3423
-3.7025	dunant	-1.3423
-3.2254	dunia	-1.3417
-3.7025	dur	-1.3351
-3.7025	duri	-1.2789
-3.7025	dzulhijjah	-1.3423
-3.7025	e	-1.3423
-3.7025	edgar	-1.3423
-3.7025	edinburgh	-1.3423
-3.7025	edmon	-1.3403
-3.7025	edward	-1.3423
-3.7025	effendi	-1.3409
-3.7025	efrain	-1.3423
-3.7025	eggi	-1.3423
-3.7025	eh	-1.3423
-3.7025	ekonomi	-1.3419
-3.7025	eks	-1.3423
-3.7025	eksploitasi	-1.2789
-3.7025	eksplorasi	-1.3351
-3.7025	ekstra	-1.3422
-3.7025	elvy	-1.3423
-3.7025	elza	-1.3423
-3.7025	emas	-1.3423
-3.7025	emoi	-1.2789
-3.0035	empat	-1.3405
-3.7025	emval	-1.3421
-3.2254	enam	-1.3418
-3.7025	endriartono	-1.3422
-3.7025	enggano	-1.3418
-3.7025	equity	-1.3423
-3.7025	era	-1.3423
-3.7025	eriksson	-1.3423
-3.7025	estu	-1.3423
-3.7025	etnis	-1.3416
-3.7025	exciting	-1.3421
-3.7025	executive	-1.2789
-3.7025	exhaust	-1.2789
-3.7025	explorer	-1.3418
-3.7025	exxon	-1.3421
-3.7025	exxonmobil	-1.3423
-3.7025	f	-1.2789
-3.7025	fabien	-1.3423
-3.7025	failure	-1.2789
-3.7025	faqih	-1.3423
-3.4015	farid	-1.3423
-3.7025	faroq	-1.3403
-3.7025	fashion	-1.3423
-3.4015	fatwa	-1.2782
-3.7025	fault	-1.3420
-3.7025	fawzy	-1.2789
-3.7025	fbr	-1.2789
-3.7025	feith	-1.2789
-3.7025	felix	-1.3423
-3.7025	felx	-1.3412
-3.7025	ferguson	-1.3416
-3.7025	feroza	-1.2789
-3.2254	filipina	-1.2769
-3.7025	film	-1.3410
-3.7025	filsafat	-1.3423
-3.7025	final	-1.3418
-3.7025	fiqh	-1.3423
-3.7025	fireworks	-1.3423
-3.7025	fitzpatrick	-1.3423
-3.7025	foil	-1.3423
-3.7025	fordem	-1.3416
-3.7025	forensik	-1.3410
-3.7025	forum	-1.3423
-3.7025	foxnews	-1.3404
-3.1005	fraksi	-1.2570
-3.7025	franjo	-1.3423
-3.7025	franklin	-1.3423
-3.7025	freshener	-1.3351
-3.7025	fretilin	-1.3397
-3.7025	fungsionaris	-1.3423
-3.4015	fx	-1.3421
-3.7025	g	-1.3423
-3.7025	ga	-1.2789
-3.7025	gagal	-1.3404
-3.7025	gaizka	-1.3423
-3.7025	galaxi	-1.3423
-3.4015	gam	-1.2683
-3.7025	gambar	-1.3423
-3.7025	gambir	-1.3406
-3.7025	gandhi	-1.2789
-3.7025	gangguan	-1.3405
-3.7025	ganti	-1.3423
-3.7025	garland	-1.2789
-3.4015	gawang	-1.3423
-3.7025	gcg	-1.2789
-3.7025	gde	-1.3423
-3.2254	gedung	-1.3422
-3.7025	gelandang	-1.3423
-3.4015	geleng	-1.3418
-3.7025	genetika	-1.2789
-3.7025	gentar	-1.3423
-3.7025	geologi	-1.3423
-3.7025	gerak	-1.3422
-3.2254	gerakan	-1.3416
-3.7025	gerbong	-1.3423
-3.4015	gerilya	-1.3363
-3.4015	gerung	-1.3350
-3.7025	gijzeling	-1.3403
-3.4015	gilimanuk	-1.2773
-3.7025	giliran	-1.3423
-3.7025	gizjeling	-1.3410
-3.7025	glas	-1.3423
-3.7025	global	-1.3416
-3.4015	gol	-1.3423
-3.7025	gold	-1.3420
-3.7025	goldstein	-1.3423
-3.7025	golkar	-1.3423
-3.7025	gong	-1.3413
-3.7025	gonzales	-1.3423
-3.7025	goran	-1.3423
-3.7025	granat	-1.3422
-3.7025	growth	-1.2789
-3.7025	grup	-1.3423
-3.4015	gugatan	-1.3390
-3.7025	gugur	-1.3333
-3.7025	gumay	-1.3423
-3.7025	gumpalan	-1.3423
-3.7025	guna	-1.3423
-3.7025	gunnar	-1.3423
-3.7025	gunung	-1.3423
-3.7025	gus	-1.3423
-3.7025	gyanendra	-1.2789
-3.7025	gymnastiar	-1.3418
-3.7025	h	-1.3423
-3.7025	ha	-1.3423
-3.7025	habibie	-1.3422
-3.7025	hadar	-1.3423
-3.2254	hadir	-1.3287
-3.7025	hafizhah	-1.3423
-3.7025	hai	-1.3423
-3.4015	haji	-1.3423
-3.7025	hakim	-1.3365
-2.7994	hal	-1.7631
-3.7025	halaman	-1.3423
-3.7025	halfvolley	-1.3423
-3.7025	halimah	-1.3423
-3.7025	hamas	-1.3351
-3.7025	hambatan	-1.2789
-3.7025	hamengku	-1.3423
-3.7025	hampir	-1.3423
-3.4015	hamzah	-1.3421
-2.8574	hanya	-1.3376
-3.7025	harga	-1.3423
-2.7994	hari	-1.3331
-3.7025	harian	-1.3423
-3.7025	harinya	-1.3404
-3.7025	harry	-1.3423
-2.8574	harus	-1.3418
-3.7025	hasan	-1.3423
-3.7025	hasanuddin	-1.3423
-3.4015	hasil	-1.3423
-3.7025	hasilnya	-1.3404
-3.7025	hasjrul	-1.3423
-3.7025	hasyim	-1.3423
-3.7025	hati	-1.3423
-3.7025	hawk	-1.3365
-3.7025	hayam	-1.3423
-3.7025	haz	-1.3418
-3.7025	hdc	-1.3422
-3.7025	hematologi	-1.3351
-3.7025	hendak	-1.3423
-3.7025	henny	-1.3423
-3.7025	henry	-1.3423
-3.7025	heramudin	-1.3423
-3.7025	herut	-1.3423
-3.4015	hidup	-1.3404
-3.7025	hidupnya	-1.3412
-3.7025	hijau	-1.2789
-3.7025	himbauan	-1.3412
-3.7025	himpunan	-1.3423
-3.4015	hingga	-1.3416
-3.7025	hitam	-1.3351
-3.7025	hitzfeld	-1.3421
-3.7025	hizbullah	-1.3423
-3.7025	hoirul	-1.3423
-3.7025	hollywood	-1.3423
-3.4015	hong	-1.3423
-3.7025	hongkong	-1.2789
-3.4015	hotel	-1.2788
-3.7025	hudbhoy	-1.3394
-2.9244	hukum	-1.3413
-3.7025	hutan	-1.3423
-3.7025	hyde	-1.3423
-3.7025	hydraulic	-1.3423
-3.7025	hystrixs	-1.3351
-3.2254	i	-1.3420
-3.1005	ia	-1.3406
-3.4015	ibadah	-1.3418
-3.7025	icw	-1.3351
-3.7025	ide	-1.3423
-3.7025	idris	-1.3423
-3.7025	ignatius	-1.3423
-3.7025	ihsan	-1.3409
-3.7025	ihza	-1.3423
-3.7025	iii	-1.3333
-3.7025	ikang	-1.3423
-3.7025	ilegal	-1.2789
-3.0035	imam	-1.3358
-3.7025	indah	-1.2789
-3.7025	india	-1.3423
-2.6233	indonesia	-1.3903
-3.7025	indra	-1.3423
-3.7025	industri	-1.2789
-3.7025	inggris	-1.3423
-3.4015	ingin	-1.3420
-3.7025	ingkar	-1.3423
-2.3601	ini	-1.3442
-3.4015	insiden	-1.3410
-3.7025	instalasi	-1.3365
-3.2254	internasional	-1.2682
-3.7025	interupsi	-1.3365
-3.7025	investasi	-1.3423
-3.7025	investigasi	-1.3423
-3.4015	iqbal	-1.2773
-3.7025	iqra	-1.3423
-3.7025	iqtissadia	-1.3423
-3.7025	irak	-1.2789
-3.7025	irama	-1.3351
-3.7025	irgun	-1.3423
-3.7025	islam	-1.3351
-3.4015	islamabad	-1.3422
-3.2254	ismail	-1.2761
-3.7025	israel	-1.3423
-3.7025	istiqlal	-1.2789
-3.7025	istirahat	-1.3351
-3.7025	istrinya	-1.3423
-3.7025	itecezet	-1.2789
-2.1227	itu	-1.3586
-3.7025	ivan	-1.3423
-3.2254	jadi	-1.3330
-3.7025	jadwal	-1.2789
-3.4015	jafar	-1.3420
-2.8574	jakarta	-1.4161
-3.7025	jakasetia	-1.3423
-2.9244	jalan	-1.4153
-3.7025	jalil	-1.2789
-3.2254	jam	-1.3417
-3.7025	jamwas	-1.3423
-3.2254	jangan	-1.3413
-3.7025	janji	-1.2789
-3.7025	jankulovski	-1.3409
-3.7025	jaringan	-1.3394
-3.7025	jasa	-1.3423
-3.7025	jasmi	-1.2789
-3.7025	jateng	-1.2789
-3.7025	jati	-1.3423
-3.7025	jatim	-1.3423
-3.4015	jatuh	-1.2772
-3.1005	jauh	-1.3382
-3.7025	javnosti	-1.3423
-3.7025	jawa	-1.3417
-3.4015	jazz	-1.3393
-3.7025	jemaah	-1.3423
-3.7025	jembatan	-1.3423
-3.4015	jenazah	-1.3364
-3.4015	jenderal	-1.3423
-3.7025	jendral	-1.3423
-3.7025	jenewa	-1.2789
-3.2254	jenis	-1.3363
-3.2254	jepang	-1.4549
-3.7025	jeremy	-1.2789
-3.7025	jermain	-1.3423
-3.7025	jerman	-1.3365
-3.7025	jet	-1.3423
-3.7025	jiaxuan	-1.3351
-3.4015	jihad	-1.2788
-3.4015	jika	-1.3416
-3.7025	jiwanya	-1.3422
-3.7025	jk	-1.3423
-3.7025	joey	-1.3423
-3.7025	john	-1.3423
-3.7025	joint	-1.3423
-3.7025	joko	-1.3423
-3.7025	juan	-1.3423
-3.7025	juanito	-1.3423
-3.7025	judy	-1.3423
-2.5886	juga	-1.3362
-3.7025	jugsor	-1.3423
-3.2254	jumat	-1.3395
-3.7025	jumlah	-1.3413
-3.7025	jumpa	-1.3423
-3.7025	jumrah	-1.2789
-3.7025	junichiro	-1.3423
-3.7025	juoro	-1.3423
-3.7025	jurnal	-1.3423
-3.7025	jurusan	-1.3423
-3.4015	justru	-1.3423
-3.2254	juta	-1.3420
-3.7025	jutaan	-1.3422
-3.4015	kabar	-1.2783
-3.7025	kabinet	-1.3404
-3.7025	kafelnikov	-1.2789
-3.4015	kaki	-1.3352
-3.7025	kalangan	-1.3423
-3.0035	kalau	-1.3376
-3.4015	kali	-1.2783
-3.7025	kalian	-1.3423
-3.7025	kamboja	-1.3423
-3.1005	kami	-1.3410
-3.7025	kamil	-1.3422
-3.7025	kampung	-1.3423
-3.7025	kampus	-1.2789
-3.7025	kamtibmas	-1.3417
-3.2254	kamu	-1.2765
-3.7025	kamus	-1.3423
-3.7025	kan	-1.2789
-3.7025	kanada	-1.3365
-3.7025	kanan	-1.3421
-3.4015	kantor	-1.2788
-3.1005	kapal	-1.3330
-3.7025	kapolres	-1.3418
-3.7025	kapolwil	-1.2789
-3.7025	kapuspenkum	-1.3423
-3.4015	karang	-1.3423
-3.7025	karangan	-1.3423
-2.7483	karena	-1.3905
-3.7025	karl	-1.3423
-3.7025	karo	-1.3418
-3.4015	kartu	-1.3422
-3.4015	karya	-1.3422
-3.4015	karyawan	-1.3410
-3.7025	kasaroh	-1.2789
-3.0035	kasus	-1.3349
-2.7994	kata	-1.3414
-3.4015	katanya	-1.5799
-3.7025	kathmandu	-1.3419
-3.7025	kaufman	-1.3365
-3.2254	kawasan	-1.3403
-3.7025	kayhatu	-1.3423
-3.7025	kayu	-1.3391
-3.7025	kbri	-1.3423
-2.3803	ke	-1.4048
-3.7025	keadaan	-1.3423
-3.7025	keadilan	-1.2789
-3.7025	keajaiban	-1.3394
-3.2254	keamanan	-1.3328
-3.7025	kebetulan	-1.3410
-3.7025	kebijakan	-1.3351
-3.7025	kebohongan	-1.3365
-3.4015	kecamatan	-1.3423
-3.7025	kecil	-1.3422
-3.7025	kedamaian	-1.3423
-3.7025	kedapatan	-1.3421
-3.7025	kedatangan	-1.3412
-3.1005	kedua	-1.2769
-3.7025	keempat	-1.3423
-3.7025	keengganan	-1.3422
-3.7025	kehadiran	-1.3423
-3.7025	kehancuran	-1.2789
-3.7025	kehormatan	-1.2789
-3.7025	kehutanan	-1.3351
-3.7025	keinginan	-1.3423
-3.7025	kejahatan	-1.3391
-3.7025	kejakgung	-1.3423
-3.7025	kekacauan	-1.3333
-3.7025	kekalahan	-1.3423
-3.7025	kekuatan	-1.2789
-3.4015	kelas	-1.3406
-3.7025	kelompok	-1.3423
-3.7025	keluar	-1.3394
-3.7025	keluarga	-1.3412
-3.7025	kelurahan	-1.3423
-3.7025	kemajuan	-1.3423
-3.7025	kemajuannya	-1.3423
-3.4015	kemarin	-1.3418
-3.2254	kembali	-1.3325
-3.4015	kembang	-1.3420
-3.7025	kemenangan	-1.3410
-3.4015	kemudian	-1.3410
-3.2254	kemungkinan	-1.3405
-3.7025	kenangan	-1.3394
-3.4015	kenapa	-1.3420
-3.4015	kendala	-1.3396
-3.7025	kendaraan	-1.3423
-2.5564	kepada	-1.4447
-3.0035	kepala	-1.3412
-3.7025	keperluan	-1.3423
-3.7025	keping	-1.2789
-3.7025	kepolisian	-1.3351
-3.2254	keputusan	-1.3410
-3.7025	keputusannya	-1.3423
-3.7025	keraguan	-1.3423
-3.7025	kerajaan	-1.3423
-3.2254	kereta	-1.5151
-3.7025	kerinduan	-1.3423
-3.7025	kerjasama	-1.3423
-3.7025	kesalahan	-1.3423
-3.7025	kesalahpahaman	-1.3422
-3.7025	kesatria	-1.3417
-3.7025	kesatuan	-1.3423
-3.7025	kesehatan	-1.3418
-3.7025	keseimbangan	-1.3423
-3.7025	kesejahteraan	-1.3351
-3.4015	kesepakatan	-1.3396
-3.7025	kesimpulan	-1.3422
-3.7025	kesukaan	-1.3423
-3.7025	ketetapan	-1.3423
-3.7025	ketidakcermatan	-1.3417
-3.2254	ketiga	-1.5179
-3.7025	ketik	-1.3417
-3.1005	ketika	-1.3415
-3.2254	ketua	-1.3418
-3.2254	keuangan	-1.3416
-3.7025	kewenangan	-1.2789
-3.7025	keyakinannya	-1.3416
-3.7025	keyboard	-1.2789
-3.7025	keytimu	-1.2789
-3.7025	kfc	-1.2789
-3.4015	kh	-1.3422
-3.4015	khairul	-1.2788
-3.7025	khaqzar	-1.3404
-3.7025	khawatir	-1.3423
-3.7025	khoirul	-1.3423
-3.7025	khotbah	-1.3422
-3.1005	khusus	-1.2741
-3.7025	kinerja	-1.3422
-3.1005	kini	-1.3410
-3.1005	kita	-1.2763
-3.7025	kitty	-1.3423
-3.7025	kkb	-1.3423
-3.7025	klasemen	-1.3423
-3.7025	klaten	-1.2789
-3.7025	kliennya	-1.3423
-3.7025	klinik	-1.3351
-3.7025	klipvideo	-1.3365
-3.7025	koizumi	-1.3351
-3.4015	kolaborasi	-1.3383
-3.7025	kolusi	-1.3351
-3.7025	komando	-1.3423
-2.9244	komisi	-1.3557
-3.7025	komite	-1.3333
-3.7025	komitmen	-1.3410
-3.7025	komjen	-1.3423
-3.4015	komoditas	-1.3419
-3.7025	kompas	-1.3419
-3.7025	komponis	-1.3414
-3.7025	kompyang	-1.3423
-3.4015	kondisi	-1.3423
-3.7025	konferensi	-1.3423
-3.4015	konflik	-1.2782
-3.7025	konfrontatif	-1.3423
-3.7025	kongres	-1.2789
-3.2254	konstitusi	-1.2713
-3.7025	konsuler	-1.3423
-3.7025	konvoi	-1.3419
-3.7025	kooperatif	-1.3423
-3.7025	koordinasi	-1.3397
-3.7025	kopassus	-1.2789
-3.7025	koperasi	-1.3423
-3.7025	kopi	-1.2789
-3.4015	koran	-1.3408
-3.4015	korban	-1.3418
-3.7025	korps	-1.3423
-3.7025	korupsi	-1.3423
-3.4015	kosong	-1.3392
-3.1005	kota	-1.3401
-3.7025	kotawaringin	-1.3423
-3.7025	kremasi	-1.3423
-3.7025	kritik	-1.3418
-3.7025	kroasia	-1.2789
-3.7025	kuasa	-1.3419
-3.2254	kuat	-1.3365
-3.7025	kuatrianus	-1.3423
-3.7025	kubu	-1.3423
-3.7025	kuda	-1.3423
-3.7025	kuman	-1.3423
-3.7025	kumau	-1.3423
-3.7025	kuning	-1.3416
-3.7025	kunjungi	-1.3423
-3.7025	kupwara	-1.2789
-3.1005	kurang	-1.3388
-3.7025	kusdarto	-1.3423
-3.7025	kyai	-1.3423
-3.7025	kyrgyzstan	-1.3423
-3.7025	l	-1.3409
-3.7025	labfor	-1.2789
-3.4015	laboratorium	-1.2788
-3.7025	laden	-1.3421
-3.1005	lagi	-1.3408
-3.0035	lagu	-1.3416
-3.7025	lah	-1.3416
-3.7025	lahan	-1.3423
-2.7025	lain	-1.3132
-3.0035	lainnya	-1.2650
-3.7025	lajnah	-1.3423
-3.7025	laksma	-1.3423
-2.9244	lalu	-1.3455
-3.4015	lama	-1.3423
-3.7025	lamgeueu	-1.3423
-3.7025	lancar	-1.2789
-3.7025	langit	-1.2789
-3.7025	langkah	-1.3417
-3.1005	langsung	-1.3418
-3.4015	lanjut	-1.2754
-3.7025	lanskap	-1.3421
-3.4015	lantai	-1.3421
-3.7025	lapangan	-1.2789
-3.7025	laporan	-1.3423
-3.7025	laporkan	-1.3412
-3.7025	laras	-1.3423
-3.7025	lari	-1.3406
-3.7025	laskar	-1.3423
-3.7025	le	-1.3423
-3.0035	lebih	-1.3388
-3.7025	ledakan	-1.3333
-3.7025	legendaris	-1.3423
-3.7025	legislatif	-1.2789
-3.4015	lembaga	-1.3423
-3.7025	leo	-1.3423
-3.4015	letda	-1.3423
-3.7025	letjen	-1.3423
-3.7025	leumi	-1.3351
-3.4015	lewat	-1.3423
-3.7025	lhoknga	-1.3423
-3.7025	liga	-1.3423
-3.7025	lihat	-1.3417
-2.5264	lima	-1.3951
-3.7025	lini	-1.3420
-3.7025	linkvping	-1.2789
-3.7025	lintas	-1.3333
-3.7025	lippo	-1.3423
-3.7025	liputan	-1.3422
-3.7025	liriknya	-1.3422
-3.7025	live	-1.3423
-3.7025	lizt	-1.3423
-3.7025	loebby	-1.3423
-3.7025	logtrans	-1.3423
-3.7025	logwell	-1.3423
-3.7025	lohame	-1.3423
-3.7025	lokal	-1.3423
-3.7025	lokasi	-1.3423
-3.7025	lokomotif	-1.3423
-3.7025	lokon	-1.2789
-3.7025	loqman	-1.3423
-3.7025	lord	-1.3423
-3.4015	luar	-1.3422
-3.7025	lubis	-1.2789
-3.7025	ludwijk	-1.3412
-3.4015	luka	-1.3420
-3.7025	lupa	-1.3423
-3.7025	lutfhi	-1.2789
-3.7025	lutheran	-1.3394
-3.7025	luxor	-1.3423
-3.7025	maaf	-1.3417
-3.7025	made	-1.3423
-3.7025	mahasiswa	-1.3423
-3.7025	mahatma	-1.3423
-3.7025	mahendra	-1.3416
-3.7025	mahfud	-1.3423
-3.7025	mahjuddin	-1.3421
-3.7025	main	-1.3423
-3.7025	majalah	-1.3423
-3.7025	maju	-1.3421
-3.7025	majyen	-1.2789
-3.7025	maka	-1.3423
-3.2254	makan	-1.3415
-3.7025	makasih	-1.3420
-3.7025	makassar	-1.3391
-3.7025	makmur	-1.3351
-3.7025	malah	-1.3404
-2.9244	malam	-1.2746
-3.7025	malang	-1.3423
-3.4015	malaysia	-1.2787
-3.7025	malino	-1.3409
-3.7025	maluku	-1.3423
-3.7025	mampu	-1.3423
-3.7025	manajemen	-1.3421
-3.7025	manajer	-1.3423
-3.7025	manakala	-1.3423
-3.7025	manchester	-1.3421
-3.7025	manggala	-1.3423
-3.7025	manifesto	-1.3420
-3.7025	manit	-1.3423
-3.7025	mantan	-1.3423
-3.7025	manuputty	-1.3422
-3.4015	manusia	-1.3421
-3.7025	maqdir	-1.3422
-3.7025	marchuk	-1.3397
-3.7025	marek	-1.3423
-3.7025	mari	-1.2789
-3.2254	mario	-1.3349
-3.7025	market	-1.3423
-3.7025	maruf	-1.3351
-3.7025	marx	-1.3423
-3.7025	marzuki	-1.3423
-3.4015	masalah	-1.3421
-3.7025	mashil	-1.3423
-3.1005	masih	-1.3409
-3.2254	masjid	-1.3417
-3.7025	massa	-1.2789
-3.7025	masukan	-1.3351
-3.7025	masuknya	-1.3423
-2.8574	masyarakat	-1.2758
-3.7025	masyarakatnya	-1.2789
-3.7025	matori	-1.3423
-3.2254	mau	-1.3420
-3.7025	maubere	-1.3410
-3.7025	mawas	-1.3420
-3.7025	maxwell	-1.3411
-3.7025	maya	-1.3420
-3.4015	mayjen	-1.2779
-3.7025	md	-1.3423
-3.7025	medan	-1.3404
-3.7025	media	-1.3411
-3.7025	mediator	-1.3423
-3.7025	medis	-1.2789
-3.4015	mega	-1.2788
-3.4015	megawati	-1.3420
-3.4015	melahirkan	-1.3422
-2.8574	melakukan	-1.3416
-3.2254	melalui	-1.3417
-3.7025	melangkah	-1.3420
-3.7025	melanjutkan	-1.3423
-3.7025	melantunkan	-1.3423
-3.7025	melarikan	-1.3423
-3.7025	melati	-1.2789
-3.7025	melayani	-1.3418
-3.7025	melempar	-1.3423
-3.7025	meletakan	-1.3423
-3.4015	melihat	-1.3422
-3.7025	memacetkan	-1.3419
-3.7025	memahami	-1.3423
-3.7025	memainkan	-1.3423
-3.7025	memaklumi	-1.3404
-3.4015	memang	-1.3397
-3.7025	memanggil	-1.3423
-3.7025	membaca	-1.3419
-3.7025	membahu	-1.3397
-3.4015	membantah	-1.3414
-3.1005	membawa	-1.3404
-3.7025	membebaskan	-1.3423
-3.7025	membeli	-1.3423
-3.7025	membelot	-1.2789
-3.7025	membenarkan	-1.3417
-3.7025	membenci	-1.3419
-3.4015	membentuk	-1.3423
-3.7025	membentur	-1.3420
-3.4015	memberi	-1.3419
-3.4015	memberikan	-1.3419
-3.7025	memberitakan	-1.3423
-3.7025	membiarkan	-1.3423
-2.9244	membuat	-1.3416
-3.7025	membuka	-1.3423
-3.7025	mementingkan	-1.3423
-3.7025	memeriksa	-1.3423
-3.7025	memerintahkan	-1.3423
-3.7025	memerlukan	-1.3423
-3.7025	memfasilitasi	-1.3423
-3.7025	memilih	-1.3423
-3.7025	memiliki	-1.3423
-3.7025	memimpin	-1.3416
-3.7025	meminta	-1.3412
-3.7025	memisahkan	-1.3423
-3.7025	mempelajari	-1.3423
-3.7025	memperomosikan	-1.3421
-3.7025	mempraperadilankan	-1.3410
-3.7025	mempresentasikan	-1.3423
-3.7025	memprioritaskan	-1.3423
-3.7025	mempunyai	-1.3423
-3.7025	memuat	-1.3411
-3.7025	memulai	-1.3419
-3.7025	memutuskan	-1.3423
-3.7025	memvonis	-1.3423
-3.7025	menambah	-1.3423
-3.7025	menampilkan	-1.3420
-3.7025	menandatangani	-1.3423
-3.7025	menang	-1.3409
-3.7025	menangkap	-1.3423
-3.7025	menangkis	-1.3421
-3.7025	menanyakan	-1.3422
-3.7025	menargetkan	-1.3410
-3.2254	mencapai	-1.3420
-3.7025	mencari	-1.3423
-3.7025	mencarter	-1.3423
-3.7025	mencatat	-1.3423
-3.7025	mencemaskan	-1.3409
-3.7025	menciduk	-1.3423
-3.7025	menciptakan	-1.3423
-3.7025	mendaftarkan	-1.3423
-3.7025	mendalam	-1.3419
-3.7025	mendampingi	-1.3422
-3.7025	mendapat	-1.3423
-3.7025	mendatang	-1.3423
-3.7025	mendatar	-1.3421
-3.7025	mendegradasikan	-1.3423
-3.7025	mendengar	-1.3423
-3.7025	mendiami	-1.3421
-3.7025	mendidik	-1.3423
-3.7025	mendieta	-1.3404
-3.7025	menegaskan	-1.3410
-3.7025	menelepon	-1.3333
-3.7025	menelpon	-1.3413
-3.7025	menembak	-1.3391
-3.7025	menembakkan	-1.3416
-3.7025	menembus	-1.3420
-3.7025	menempatkan	-1.3423
-3.7025	menemui	-1.3423
-3.7025	menemukan	-1.3423
-3.2254	menengah	-1.3417
-3.7025	menentang	-1.3423
-3.0035	menerima	-1.3418
-3.7025	mengacu	-1.3412
-3.7025	mengadakan	-1.3423
-3.7025	mengadili	-1.3419
-3.7025	mengait	-1.3423
-3.2254	mengaku	-1.5151
-3.7025	mengalahkan	-1.3423
-3.7025	mengalami	-1.3351
-3.7025	mengambil	-1.3423
-3.7025	mengapa	-1.3419
-2.4472	mengatakan	-1.4140
-3.7025	mengecewakan	-1.3391
-3.4015	mengemukakan	-1.3422
-3.7025	mengenai	-1.3423
-3.7025	mengenal	-1.3422
-3.7025	mengerjakan	-1.3423
-3.7025	mengerti	-1.3410
-3.7025	mengetahui	-1.3423
-3.7025	menggalang	-1.3423
-3.7025	menggelar	-1.3423
-3.2254	menggunakan	-1.3421
-3.7025	menghadapi	-1.3422
-3.7025	menghadiri	-1.3422
-3.7025	menghayati	-1.3410
-3.7025	menghirupnya	-1.3404
-3.7025	menghukum	-1.3423
-3.7025	mengikuti	-1.3422
-3.2254	mengingatkan	-1.3403
-3.7025	menginginkan	-1.3423
-3.7025	mengintensifkan	-1.3423
-3.7025	mengonsumsi	-1.3423
-3.7025	mengoreksi	-1.3420
-3.7025	mengulurkan	-1.3423
-3.7025	mengumumkan	-1.3416
-3.7025	mengundurkan	-1.3420
-3.7025	mengungguli	-1.3422
-3.7025	menilai	-1.3423
-3.7025	meninggalkan	-1.3422
-3.2254	menit	-1.3421
-2.7025	menjadi	-1.3403
-3.7025	menjaga	-1.3423
-3.7025	menjelang	-1.3423
-3.4015	menjelaskan	-1.3411
-3.7025	menkehham	-1.3423
-3.7025	menkeu	-1.3423
-3.4015	menko	-1.6432
-3.7025	menkop	-1.3351
-3.7025	menlu	-1.3423
-3.2254	menolak	-1.3416
-3.7025	mentah	-1.2789
-2.9244	menteri	-1.4206
-3.7025	menuding	-1.3423
-3.4015	menuju	-1.3422
-3.7025	menuntaskan	-1.3420
-3.7025	menurun	-1.3423
-2.8574	menurut	-1.3416
-3.7025	menyajikan	-1.3421
-3.7025	menyaksikan	-1.3423
-3.7025	menyampaikan	-1.3423
-3.7025	menyangkut	-1.3333
-3.7025	menyanyikan	-1.3420
-2.8574	menyatakan	-1.3357
-3.4015	menyayangkan	-1.3421
-3.2254	menyebutkan	-1.3416
-3.7025	menyelamatkan	-1.3423
-3.7025	menyelimuti	-1.3423
-3.7025	menyeluarkan	-1.3423
-3.7025	menyempatkan	-1.3397
-3.7025	menyerah	-1.3333
-3.4015	menyerahkan	-1.3421
-3.7025	menyerang	-1.3423
-3.7025	menyimpan	-1.3423
-3.7025	menyinggung	-1.3423
-3.7025	menyosialisasikan	-1.3412
-3.7025	menyukai	-1.3423
-3.7025	menyusul	-1.3422
-3.7025	menyusun	-1.3423
-3.7025	merah	-1.3423
-3.7025	meraih	-1.3423
-3.7025	merdeka	-1.3410
-2.5564	mereka	-1.4000
-3.7025	meridien	-1.3423
-3.7025	merindukan	-1.3420
-3.7025	mertoyudan	-1.3423
-3.0035	merupakan	-1.4375
-3.7025	meruya	-1.3418
-3.7025	mesin	-1.3423
-3.7025	mesir	-1.3410
-3.7025	meter	-1.3394
-3.7025	metode	-1.3423
-3.7025	metro	-1.3423
-3.7025	meyakinkan	-1.3418
-3.7025	migzen	-1.2789
-3.7025	milik	-1.3423
-3.7025	milisi	-1.2789
-3.7025	militan	-1.3423
-3.7025	milosevic	-1.3404
-3.7025	mimpi	-1.3365
-3.2254	minggu	-1.3415
-3.4015	minyak	-1.3418
-3.7025	mirip	-1.3423
-3.7025	mitigasi	-1.3423
-3.1005	mobil	-1.3385
-3.4015	mohammad	-1.3422
-3.7025	molitisasi	-1.3419
-3.7025	monsanto	-1.3410
-3.7025	mostovoi	-1.3365
-3.2254	mpr	-1.2733
-3.4015	mtv	-1.2721
-3.7025	mu	-1.3394
-3.7025	muak	-1.2789
-3.7025	mubazir	-1.3423
-3.7025	muenchen	-1.2789
-3.7025	mufzar	-1.2789
-3.7025	muhadjir	-1.3423
-3.1005	muhammad	-1.3421
-3.7025	muhammadiyah	-1.3423
-3.7025	mujahir	-1.3423
-3.7025	mujfaba	-1.3422
-3.7025	muktamar	-1.3423
-3.7025	muljohardjo	-1.3409
-3.7025	mullah	-1.3423
-3.7025	mulyo	-1.3423
-3.2254	muncul	-1.3299
-3.4015	mungkin	-1.3404
-3.4015	murid	-1.3419
-3.7025	museum	-1.3423
-3.7025	musharraf	-1.3397
-3.7025	musibah	-1.3423
-3.4015	music	-1.3423
-3.2254	musik	-1.3411
-3.7025	musni	-1.3423
-3.7025	mustahil	-1.3404
-3.7025	mutiara	-1.3417
-3.7025	muzadi	-1.3423
-3.7025	muzdalifah	-1.3421
-3.7025	nabi	-1.3421
-3.7025	nacl	-1.3351
-3.7025	nainggolan	-1.2789
-3.0035	nama	-1.3403
-3.2254	namun	-1.3417
-3.4015	nancy	-1.3423
-3.7025	nanggroe	-1.3418
-3.7025	nanquan	-1.3423
-3.4015	nanti	-1.3417
-3.4015	nasional	-1.2787
-3.7025	naskah	-1.3423
-3.7025	nasser	-1.3423
-3.7025	nasution	-1.3423
-3.7025	nato	-1.3423
-3.7025	nazri	-1.3423
-3.7025	nebojsa	-1.3423
-3.7025	nedved	-1.3351
-2.9244	negara	-1.2738
-3.7025	negatif	-1.3423
-3.4015	negeri	-1.3416
-3.7025	negosiasi	-1.3417
-3.7025	nekat	-1.2789
-3.7025	nepotisme	-1.3422
-3.7025	newcastle	-1.3423
-3.7025	newmont	-1.3423
-3.7025	ngaitkan	-1.3403
-3.7025	ngurah	-1.3423
-3.7025	ni	-1.3423
-3.7025	nias	-1.3423
-3.7025	nietzche	-1.3423
-3.7025	nigeria	-1.3423
-3.7025	ninoy	-1.3423
-3.4015	nistelrooy	-1.3376
-3.7025	nol	-1.2789
-3.4015	nomor	-1.3421
-3.7025	nonton	-1.3403
-3.7025	nontonnya	-1.3422
-3.7025	norberto	-1.3423
-3.7025	nostalgia	-1.3419
-3.7025	november	-1.2789
-3.7025	noyvach	-1.2789
-3.7025	ntt	-1.3423
-3.7025	nu	-1.2789
-3.7025	nuansa	-1.3404
-3.7025	nur	-1.3422
-3.7025	nurani	-1.2789
-3.7025	nusantara	-1.3423
-3.7025	nuwa	-1.3423
-3.7025	objek	-1.3423
-3.7025	obligor	-1.3420
-3.7025	obyek	-1.3423
-3.4015	oknum	-1.3423
-3.7025	oktaviano	-1.3423
-3.7025	ole	-1.3423
-2.4238	oleh	-1.3371
-3.7025	omzetnya	-1.3423
-3.7025	onh	-1.3423
-3.7025	online	-1.3423
-3.7025	opresi	-1.2789
-2.5886	orang	-1.3020
-3.7025	organisasi	-1.3423
-3.7025	oruzgan	-1.2789
-3.7025	osama	-1.3423
-3.7025	otot	-1.3423
-3.7025	ottmar	-1.3423
-3.7025	oxford	-1.3423
-3.7025	p	-1.3423
-3.7025	pabugpen	-1.3423
-3.7025	pacific	-1.3423
-2.4721	pada	-1.3631
-3.1005	padahal	-1.3403
-3.7025	padang	-1.3423
-3.7025	padangbai	-1.3423
-3.7025	pagi	-1.3420
-3.7025	pahlawan	-1.3423
-3.7025	pajajaran	-1.3333
-3.7025	pajak	-1.3422
-3.7025	pak	-1.3423
-3.7025	paket	-1.3421
-3.4015	pakistan	-1.2772
-3.7025	pakpak	-1.3351
-3.7025	paksa	-1.3423
-3.7025	palangkaraya	-1.3423
-3.4015	palestina	-1.2779
-3.7025	pameran	-1.3421
-3.7025	panas	-1.3421
-3.7025	pandai	-1.3423
-3.7025	pandu	-1.3351
-3.7025	pangeran	-1.3423
-3.4015	panggung	-1.2764
-3.7025	panglima	-1.3423
-3.7025	panjang	-1.3422
-3.7025	paolo	-1.3333
-3.4015	para	-1.3421
-3.7025	paradigma	-1.3423
-3.7025	paripurna	-1.3422
-3.4015	paris	-1.3421
-3.7025	park	-1.3333
-3.7025	parkir	-1.3420
-3.7025	partai	-1.3423
-3.4015	pasalnya	-1.3421
-3.7025	pasar	-1.3403
-3.7025	pasti	-1.3404
-3.4015	pasukan	-1.3417
-3.7025	patut	-1.3397
-3.4015	pavel	-1.3423
-3.7025	pdi	-1.3423
-3.7025	pecinan	-1.3333
-3.7025	pedagang	-1.3423
-3.7025	pedongkelan	-1.3423
-3.7025	peixing	-1.3423
-3.4015	pejabat	-1.3328
-3.4015	pekerjaan	-1.6430
-3.4015	pelabuhan	-1.6433
-3.4015	pelaku	-1.3423
-3.7025	pelanggaran	-1.3422
-3.7025	pelangi	-1.3417
-3.4015	pelatih	-1.3423
-3.7025	pelatihannya	-1.3404
-3.7025	pelayanan	-1.3423
-3.4015	peledak	-1.3364
-3.7025	peledakan	-1.3333
-3.7025	pellegrino	-1.2789
-3.7025	peluang	-1.3423
-3.7025	pembacaan	-1.3422
-3.7025	pembacokan	-1.3423
-3.7025	pembakaran	-1.3423
-3.1005	pembangunan	-1.3310
-3.7025	pembentukan	-1.3419
-3.7025	pemberantasan	-1.3423
-3.7025	pembuat	-1.3421
-3.4015	pemegang	-1.3422
-2.4984	pemerintah	-1.3927
-3.7025	pemerintahan	-1.3419
-3.7025	pemetaan	-1.3422
-3.7025	pemihakan	-1.3423
-3.7025	pemikiran	-1.3420
-3.7025	pemilu	-1.3423
-3.7025	pemimpin	-1.3419
-3.7025	pemohon	-1.3410
-3.7025	penadbiran	-1.3419
-3.4015	penahanan	-1.3421
-3.7025	penalti	-1.3365
-3.4015	penampungan	-1.3410
-3.7025	penandatanganan	-1.3411
-3.4015	penangguhan	-1.3419
-3.7025	penangkapan	-1.3351
-3.7025	penasihat	-1.3419
-3.7025	pencairan	-1.3423
-3.7025	pencapaian	-1.3423
-3.7025	pencarian	-1.3413
-3.7025	pendapat	-1.3423
-3.7025	pendiri	-1.3422
-3.7025	peneliti	-1.2789
-3.7025	penelitian	-1.3365
-3.7025	penembakan	-1.3411
-3.7025	penerbitan	-1.3423
-3.4015	penerimaan	-1.3422
-3.7025	penetapan	-1.3423
-3.7025	pengadilan	-1.3423
-3.7025	pengakuan	-1.3420
-3.7025	pengalaman	-1.3423
-3.7025	pengemudi	-1.3423
-3.7025	pengganti	-1.3419
-3.7025	penghibur	-1.3420
-3.7025	penghinaan	-1.3351
-3.7025	penguasa	-1.3419
-3.4015	pengungsi	-1.3380
-3.7025	penipu	-1.3423
-3.7025	penipuan	-1.3403
-3.7025	penjahat	-1.3423
-3.7025	penjara	-1.2789
-3.7025	penjelajah	-1.3423
-3.7025	penobatan	-1.3423
-3.7025	penuh	-1.3420
-3.7025	penumpang	-1.3422
-3.7025	penyakit	-1.3423
-3.7025	penyalahgunaan	-1.3423
-3.7025	penyanyi	-1.3423
-3.4015	penyebab	-1.3420
-3.7025	penyegar	-1.3423
-3.4015	penyelenggara	-1.2788
-3.7025	penyerang	-1.3423
-3.7025	penyidik	-1.3423
-3.7025	perampokan	-1.3423
-3.7025	peranan	-1.3423
-3.2254	peraturan	-1.3396
-3.7025	perawatan	-1.3333
-3.7025	perbandingan	-1.3333
-3.7025	perbankan	-1.2789
-3.4015	perbatasan	-1.3423
-3.7025	perdagangan	-1.3351
-3.7025	perdana	-1.3419
-3.2254	perekonomian	-1.3398
-3.2254	perempuan	-1.3420
-3.7025	perih	-1.3351
-3.7025	perilaku	-1.3419
-3.7025	peringatan	-1.3394
-3.7025	peringkat	-1.3421
-3.4015	perjalanan	-1.3422
-3.7025	perjanjian	-1.3423
-3.7025	perjuangan	-1.3421
-3.7025	perjuangkan	-1.3421
-3.7025	perlindungan	-1.3404
-3.7025	perlu	-1.3423
-3.7025	permasalahan	-1.3423
-3.7025	permohonan	-1.3423
-3.4015	pernah	-1.6426
-3.4015	pernyataan	-1.3390
-3.7025	perpustakaan	-1.3423
-3.4015	pers	-1.3273
-3.7025	persen	-1.3417
-3.7025	persetujuan	-1.3410
-3.2254	persidangan	-1.2742
-3.7025	persoalan	-1.3423
-3.2254	personel	-1.3399
-3.2254	pertahanan	-1.3421
-3.4015	pertama	-1.3406
-3.4015	pertamina	-1.3405
-3.7025	pertandingan	-1.3423
-3.7025	pertanian	-1.2789
-3.7025	pertemuan	-1.3423
-3.7025	pertengkaran	-1.3416
-3.4015	perubahan	-1.3390
-3.7025	perusaahaan	-1.3423
-3.1005	perusahaan	-1.3419
-3.2254	pervez	-1.3403
-3.7025	perwira	-1.3423
-3.7025	pes	-1.2789
-3.7025	pesantren	-1.3423
-3.2254	pesawat	-1.3421
-3.2254	peserta	-1.3359
-3.2254	petani	-1.2787
-3.7025	petenis	-1.3419
-3.7025	petir	-1.3416
-3.7025	petugas	-1.3422
-3.7025	peukan	-1.3423
-3.7025	pfaff	-1.3423
-3.7025	phao	-1.3351
-3.7025	philip	-1.3423
-3.7025	piala	-1.3423
-3.7025	pidana	-1.2789
-3.2254	pihak	-1.3421
-3.7025	pihaknya	-1.3423
-3.4015	pimpinan	-1.3416
-3.7025	pinjaman	-1.3391
-3.7025	plaza	-1.3423
-3.7025	plus	-1.3423
-3.7025	pns	-1.3422
-3.7025	pohon	-1.3423
-3.7025	pol	-1.3423
-3.7025	polis	-1.3423
-3.0035	polisi	-1.3357
-3.0035	politik	-1.3660
-3.7025	polres	-1.3423
-2.9244	polri	-1.3552
-3.7025	pondok	-1.3423
-3.4015	populer	-1.3329
-3.7025	portabel	-1.3365
-3.7025	portugal	-1.3423
-3.7025	pos	-1.3423
-3.7025	potret	-1.3423
-3.7025	praktik	-1.3423
-3.7025	pramuka	-1.3423
-3.4015	praperadilan	-1.2783
-3.7025	pravda	-1.3422
-2.7994	presiden	-1.2686
-3.7025	press	-1.3423
-3.4015	produk	-1.3423
-3.4015	prof	-1.6432
-3.7025	profesional	-1.2789
-3.4015	program	-1.3417
-3.7025	proses	-1.3419
-3.4015	provinsi	-1.3388
-3.4015	proyek	-1.3423
-3.7025	pt	-1.3423
-3.7025	puasanya	-1.3404
-3.7025	publik	-1.2789
-3.4015	pukul	-1.3409
-3.4015	pula	-1.3415
-3.4015	pulang	-1.3419
-2.7994	puluh	-1.3960
-3.7025	pun	-1.3422
-3.4015	puncak	-1.3423
-3.7025	pusat	-1.3423
-3.7025	putin	-1.3409
-3.7025	putra	-1.3423
-3.7025	qolbu	-1.3410
-3.7025	quaid	-1.3423
-3.7025	quran	-1.3403
-3.7025	r&b	-1.3423
-3.7025	rabu	-1.2789
-3.7025	radar	-1.3422
-3.7025	radek	-1.3423
-3.7025	radin	-1.3423
-3.7025	raehana	-1.3351
-3.7025	rai	-1.2789
-3.7025	raja	-1.3423
-3.7025	rajghat	-1.3397
-3.7025	raka	-1.2789
-3.7025	rakitan	-1.3422
-3.7025	raksasa	-1.3423
-3.4015	rakyat	-1.3422
-3.7025	ramadhan	-1.3423
-3.7025	ramai	-1.3422
-3.7025	ramli	-1.2789
-3.4015	rangkaian	-1.3363
-3.4015	rapat	-1.3363
-3.7025	rapatnya	-1.2789
-3.4015	rasa	-1.3403
-3.7025	rasanya	-1.3423
-3.7025	ratu	-1.3423
-3.0035	ratus	-1.3402
-3.7025	rawda	-1.3333
-3.7025	ray	-1.3423
-3.4015	raya	-1.3423
-3.7025	rdx	-1.2789
-3.7025	reaksi	-1.3365
-3.7025	reboisasi	-1.3397
-3.7025	redford	-1.3420
-3.7025	referendum	-1.2789
-3.7025	referensi	-1.3423
-3.4015	reformasi	-1.3350
-3.7025	rejoso	-1.2789
-3.7025	rekayasa	-1.3423
-3.4015	rektor	-1.3420
-3.7025	relatif	-1.3420
-3.7025	rembrandt	-1.3404
-3.7025	renaldy	-1.3423
-3.2254	rencana	-1.3370
-3.7025	renovasi	-1.3422
-3.7025	repka	-1.3351
-3.7025	republik	-1.3423
-3.7025	reserse	-1.3419
-3.7025	resmi	-1.3423
-3.7025	revolusi	-1.3397
-3.7025	rhoma	-1.3423
-3.7025	ri	-1.3422
-3.1005	ribu	-1.3372
-3.7025	ribunya	-1.2789
-3.7025	riefqi	-1.3419
-3.7025	riuh	-1.3351
-3.7025	riwayat	-1.3423
-3.7025	riyadh	-1.3423
-3.7025	rizal	-1.3423
-3.7025	robert	-1.3423
-3.7025	robertson	-1.3409
-3.7025	roda	-1.3423
-3.7025	rodhi	-1.3423
-3.7025	roky	-1.3423
-3.7025	roma	-1.2789
-3.0035	rombongan	-1.5632
-3.7025	romli	-1.2789
-3.7025	ron	-1.3423
-3.7025	ronggowarsito	-1.3351
-3.7025	roring	-1.3351
-3.7025	rowling	-1.3423
-3.7025	royfani	-1.3409
-3.7025	rscm	-1.3394
-3.7025	rspp	-1.2789
-3.4015	ruang	-1.3418
-3.4015	ruangan	-1.3423
-3.7025	ruko	-1.3333
-3.7025	rully	-1.3423
-3.0035	rumah	-1.2675
-3.7025	rumsfeld	-1.3422
-3.7025	runtuwene	-1.3351
-3.2254	rupiah	-1.2695
-3.7025	rusdoihardjo	-1.3423
-2.9244	rusia	-1.3544
-3.7025	ruud	-1.3423
-3.7025	ryacudu	-1.3423
-3.7025	ryamizard	-1.3423
-3.7025	sa	-1.3423
-2.7483	saat	-1.3843
-3.7025	sabtu	-1.3351
-3.7025	sadar	-1.3423
-3.7025	safnil	-1.3423
-3.4015	saham	-1.3411
-3.7025	said	-1.3423
-3.7025	saifulloh	-1.3420
-3.1005	sakit	-1.2697
-3.7025	saksi	-1.3404
-2.5264	salah	-1.7379
-3.7025	salinan	-1.3422
-3.1005	sama	-1.4549
-3.7025	sambil	-1.3422
-3.4015	sampai	-1.3421
-3.7025	samudra	-1.3422
-3.7025	sana	-1.3420
-3.7025	sanchez	-1.3423
-3.7025	sandra	-1.3423
-3.2254	sangat	-1.3421
-3.7025	sanxingdui	-1.2789
-3.7025	sarah	-1.3423
-3.7025	sarang	-1.3423
-3.7025	sarapan	-1.3423
-3.7025	satgas	-1.3423
-3.7025	satpam	-1.3391
-2.4238	satu	-1.2622
-3.7025	satunya	-1.3404
-3.7025	saudi	-1.3423
-3.7025	sawit	-1.3423
-3.7025	saxon	-1.2789
-2.7994	saya	-1.3797
-3.7025	sctv	-1.2789
-3.7025	sebab	-1.3416
-2.9244	sebagai	-1.3408
-3.7025	sebagainya	-1.2789
-3.7025	sebaiknya	-1.3410
-3.7025	sebanding	-1.3410
-3.7025	sebelum	-1.3423
-3.2254	sebelumnya	-1.3418
-2.7025	sebuah	-1.3408
-3.7025	sebulan	-1.3419
-2.9244	secara	-1.3418
-3.7025	sechan	-1.3422
-3.0035	sedang	-1.3415
-3.7025	sedangkan	-1.3423
-3.7025	sedikitnya	-1.3423
-3.4015	segera	-1.3423
-3.7025	seharusnya	-1.3422
-3.4015	sehingga	-1.3396
-3.2254	sejak	-1.3411
-3.2254	sejumlah	-1.3416
-3.4015	sekali	-1.2788
-3.4015	sekarang	-1.2765
-3.0035	sekitar	-1.4358
-3.7025	sekitarnya	-1.2789
-3.7025	sekjen	-1.3423
-3.4015	sekolah	-1.2786
-3.7025	sekretaris	-1.3423
-3.7025	seksi	-1.3422
-3.7025	sel	-1.3423
-3.4015	selain	-1.3422
-3.4015	selalu	-1.3422
-3.2254	selama	-1.3403
-3.7025	selamat	-1.3423
-3.7025	selasa	-1.3333
-3.4015	selatan	-1.5799
-3.7025	seluruh	-1.3423
-3.7025	semarang	-1.2789
-3.2254	sembilan	-1.3417
-3.7025	sembuh	-1.3394
-3.0035	sementara	-1.5608
-3.7025	seminar	-1.3333
-3.7025	seminari	-1.3423
-3.7025	semoga	-1.3423
-2.9244	sempat	-1.3416
-3.7025	sempurna	-1.2789
-3.7025	semua	-1.3423
-3.7025	semula	-1.3423
-3.7025	senada	-1.3413
-3.7025	sendiri	-1.2789
-3.4015	senin	-1.6431
-3.4015	senjata	-1.3420
-2.9244	seorang	-1.3415
-3.7025	sepak	-1.3423
-3.7025	sepakat	-1.3397
-3.7025	sepasang	-1.3423
-3.1005	seperti	-1.4613
-3.7025	september	-1.3423
-3.2254	sepuluh	-1.2778
-3.1005	serangan	-1.3413
-3.7025	serangkaian	-1.3423
-3.4015	seratus	-1.3423
-3.7025	seriatopora	-1.3423
-3.7025	serikat	-1.2789
-3.4015	sering	-1.3410
-2.9244	serta	-1.3403
-3.7025	sesaat	-1.3419
-3.4015	sesama	-1.3329
-3.4015	sesuai	-1.3402
-3.7025	sesudah	-1.3406
-3.7025	set	-1.3423
-3.7025	setahun	-1.3423
-3.7025	setaraf	-1.3403
-2.9244	setelah	-1.3412
-3.7025	setempat	-1.2789
-3.7025	setiap	-1.3423
-3.4015	setuju	-1.3409
-3.7025	sexy	-1.3423
-3.7025	shalat	-1.3423
-3.7025	shevchenko	-1.3423
-3.7025	shi	-1.3423
-3.7025	show	-1.3423
-3.7025	showbiz	-1.3423
-3.7025	si	-1.3423
-3.4015	sia	-1.3421
-3.1005	siang	-1.4035
-3.4015	siap	-1.3423
-3.7025	siapa	-1.3422
-2.9244	sidang	-1.2762
-3.7025	sidi	-1.3404
-3.7025	sido	-1.3423
-3.7025	sihotang	-1.3423
-3.4015	sikap	-1.3409
-3.7025	simalungun	-1.3423
-3.7025	simmonds	-1.3409
-3.7025	simpang	-1.3411
-3.7025	siner	-1.3423
-3.7025	singkat	-1.2789
-3.7025	singkatan	-1.3394
-3.2254	sisi	-1.3359
-3.7025	sistem	-1.3423
-3.7025	sitepu	-1.3423
-3.7025	sitohang	-1.3423
-3.7025	situ	-1.3423
-3.7025	situasi	-1.3420
-3.7025	siyasah	-1.3422
-3.7025	sj	-1.2789
-3.7025	skylite	-1.3423
-3.7025	sma	-1.2789
-3.7025	society	-1.2789
-3.7025	soeharto	-1.3423
-3.7025	sofjan	-1.3418
-3.7025	sofwan	-1.2789
-3.4015	sofyan	-1.3423
-3.7025	solo	-1.2789
-3.7025	solowiejczyk	-1.3419
-3.7025	solskjaer	-1.3351
-3.7025	sophie	-1.3404
-3.7025	sosok	-1.3423
-3.7025	sounding	-1.3423
-3.7025	spanyol	-1.2789
-3.7025	square	-1.2789
-3.7025	sricek	-1.3423
-3.7025	staf	-1.3422
-3.4015	stafnya	-1.2788
-3.2254	stasiun	-1.3418
-3.7025	status	-1.3423
-3.7025	studi	-1.3391
-3.7025	suadmodjo	-1.3423
-3.7025	suaminya	-1.3419
-3.4015	suasana	-1.3331
-3.7025	subject	-1.3423
-3.7025	subuh	-1.2789
-3.7025	subur	-1.2789
-3.7025	subversif	-1.3365
-2.4984	sudah	-1.3363
-3.7025	sudiarta	-1.3419
-3.7025	sudirman	-1.3423
-3.7025	sugiarto	-1.3351
-3.7025	suhu	-1.3422
-3.7025	sujana	-1.3423
-3.7025	sukaesih	-1.3422
-3.7025	sukarnoisasi	-1.2789
-3.7025	sulaiman	-1.3351
-3.7025	sulit	-1.3365
-3.7025	sulsel	-1.2789
-3.7025	sultan	-1.3423
-3.7025	sumantri	-1.3409
-3.7025	sumatra	-1.3422
-3.7025	sumayya	-1.3423
-3.7025	sumber	-1.3333
-3.7025	sundulan	-1.3423
-3.7025	sunnah	-1.2789
-3.4015	supaya	-1.3403
-3.7025	supolo	-1.3423
-3.7025	suprapto	-1.2789
-3.7025	surabaya	-1.3423
-3.2254	surat	-1.3404
-3.7025	suta	-1.3409
-3.7025	suwartoyo	-1.3404
-3.7025	sven	-1.3423
-3.7025	swedia	-1.3418
-3.7025	syahbana	-1.3423
-3.7025	syahidah	-1.3423
-3.7025	syahmardan	-1.3423
-3.7025	syamsuddin	-1.3333
-3.7025	syarief	-1.3409
-3.7025	sylvia	-1.3423
-3.7025	tabrakan	-1.3391
-3.7025	tadi	-1.3421
-3.7025	tafsir	-1.2789
-3.7025	tafsiran	-1.3420
-2.8574	tahun	-1.4031
-3.7025	tak	-1.3423
-3.7025	taksi	-1.3423
-3.7025	takzim	-1.3423
-3.2254	taliban	-1.4482
-3.4015	taman	-1.3423
-3.7025	tamara	-1.3423
-3.7025	tambah	-1.3423
-3.2254	tampil	-1.3419
-3.7025	tampubolon	-1.2789
-3.7025	tamu	-1.3423
-3.7025	tan	-1.3409
-3.0035	tanah	-1.3731
-3.7025	tanaman	-1.3423
-3.7025	tandfidziyah	-1.3423
-3.7025	tang	-1.3423
-3.7025	tangannya	-1.3412
-3.7025	tanpa	-1.3422
-3.4015	taolu	-1.3423
-3.7025	taqwa	-1.3333
-3.7025	target	-1.3423
-3.7025	taru	-1.2789
-3.7025	tas	-1.3403
-3.7025	tata	-1.3423
-3.7025	tathawwu	-1.3423
-3.7025	taufik	-1.3423
-3.4015	tayangan	-1.3389
-3.7025	tazul	-1.3423
-3.7025	te	-1.3423
-3.7025	teater	-1.3423
-3.7025	tebal	-1.3423
-3.7025	tegas	-1.3419
-3.7025	teguh	-1.3423
-3.7025	tehnis	-1.3423
-3.7025	tehvust	-1.2789
-3.4015	tekanan	-1.3422
-3.7025	teknis	-1.3333
-3.1005	telah	-1.3416
-3.4015	telepon	-1.3421
-3.2254	televisi	-1.3271
-3.7025	television	-1.3423
-3.7025	telkom	-1.3403
-3.7025	teman	-1.3417
-3.4015	tempat	-1.3423
-3.7025	tempo	-1.3409
-3.7025	tempur	-1.3418
-3.7025	tenau	-1.3422
-3.4015	tendangan	-1.3423
-3.0035	tengah	-1.3388
-3.4015	tentang	-1.3420
-3.7025	tentara	-1.3423
-3.4015	tentu	-1.3398
-3.4015	tepat	-1.2787
-3.7025	terang	-1.3423
-3.4015	terbaik	-1.2683
-3.7025	terbang	-1.2789
-3.7025	terbentuk	-1.3423
-3.7025	terbukti	-1.3419
-3.7025	terdakwa	-1.3404
-3.7025	terdapat	-1.3423
-3.7025	terdeteksi	-1.2789
-3.4015	tergantung	-1.3379
-3.7025	terguncang	-1.3423
-2.9244	terhadap	-1.3411
-3.7025	teritori	-1.2789
-2.8574	terjadi	-1.3981
-3.4015	terjadinya	-1.3422
-3.7025	terjawab	-1.3410
-3.7025	terkemuka	-1.3333
-3.7025	terkenal	-1.3423
-3.7025	terlalu	-1.3421
-3.2254	terlambat	-1.4546
-3.7025	terlarang	-1.3333
-3.4015	terletak	-1.3328
-3.2254	terlihat	-1.3412
-3.2254	termasuk	-1.3393
-3.7025	terminal	-1.3351
-3.7025	ternyata	-1.3419
-3.7025	terompet	-1.3423
-3.4015	teroris	-1.3314
-3.7025	terorisme	-1.3333
-3.7025	terowongan	-1.3410
-3.7025	terpelihara	-1.2789
-3.7025	terpisah	-1.3333
-3.7025	tersambar	-1.3423
-3.7025	tersangka	-1.3365
-2.4984	tersebut	-1.3938
-3.4015	tersedia	-1.3324
-3.7025	tertangkap	-1.3416
-3.7025	tertinggi	-1.3423
-3.7025	terungkap	-1.3404
-3.4015	terus	-1.3416
-3.4015	tetap	-1.3420
-3.7025	tetapi	-1.3423
-3.2254	tewas	-1.3313
-3.7025	texmaco	-1.3422
-3.4015	thailand	-1.3345
-3.7025	three	-1.3351
-3.7025	tiap	-1.3423
-3.1005	tiba	-1.4547
-2.3046	tidak	-1.3897
-2.4472	tiga	-1.3507
-3.7025	tiket	-1.3410
-3.0035	tim	-1.3419
-3.7025	time	-1.2789
-3.7025	timnya	-1.2789
-3.4015	timor	-1.3416
-2.7994	timur	-1.3336
-3.7025	tindak	-1.3423
-3.4015	tindakan	-1.3404
-3.7025	tinggi	-1.3351
-3.7025	tingkat	-1.3423
-3.7025	tinju	-1.3414
-3.7025	tni	-1.3419
-3.7025	to	-1.3423
-3.7025	togo	-1.3421
-3.7025	toilet	-1.2789
-3.2254	tokoh	-1.3358
-3.7025	tomas	-1.3423
-3.7025	tommy	-1.3422
-3.7025	toni	-1.3423
-3.7025	topeng	-1.3419
-3.7025	topi	-1.3351
-3.7025	tor	-1.3423
-3.7025	tosari	-1.3423
-3.7025	toyota	-1.3423
-3.7025	trafalgar	-1.3423
-3.7025	tragedi	-1.3423
-3.7025	transaksi	-1.3333
-3.7025	transgenik	-1.2789
-3.7025	transit	-1.3333
-3.7025	triwulan	-1.3423
-3.7025	tropis	-1.3410
-3.7025	tua	-1.3423
-3.7025	tuanya	-1.3423
-3.4015	tubuh	-1.2787
-3.7025	tudjman	-1.3394
-3.7025	tugbot	-1.3423
-3.2254	tujuh	-1.5176
-3.7025	tunggal	-1.3423
-3.7025	turis	-1.3423
-3.7025	turut	-1.2789
-3.7025	tyx	-1.3404
-3.7025	ua	-1.3404
-3.2254	udara	-1.2763
-3.7025	ugm	-1.3418
-3.2254	ujar	-1.3421
-3.7025	ujiannya	-1.3422
-3.2254	umar	-1.3417
-3.4015	umum	-1.3422
-2.9244	undang	-1.4474
-3.7025	unggulan	-1.3423
-3.7025	unhcr	-1.3421
-3.4015	unit	-1.3421
-3.7025	united	-1.3351
-3.2254	universitas	-1.3422
-3.7025	unjuk	-1.3423
-3.4015	unsur	-1.3409
-2.2112	untuk	-1.3361
-3.7025	upja	-1.3404
-3.7025	uri	-1.3351
-3.4015	urusan	-1.3329
-3.7025	usaha	-1.3423
-3.7025	usai	-1.2789
-3.7025	usmanuddin	-1.2789
-3.4015	uss	-1.3423
-3.4015	ustadz	-1.3421
-3.4015	utama	-1.3423
-3.7025	utang	-1.3422
-3.2254	utara	-1.3407
-3.4015	utusan	-1.6431
-3.7025	uu	-1.3410
-3.7025	vajpaye	-1.3423
-3.7025	valas	-1.3333
-3.7025	valencia	-1.3423
-3.4015	valindo	-1.2704
-3.7025	van	-1.3423
-3.7025	vazquez	-1.3423
-3.7025	velasco	-1.3423
-3.7025	venezuela	-1.3420
-3.7025	verbal	-1.3418
-3.4015	versi	-1.3413
-3.7025	vi	-1.3423
-3.7025	vicario	-1.3423
-3.7025	vidakovic	-1.2789
-3.7025	video	-1.3422
-3.7025	villa	-1.2789
-3.7025	vital	-1.2789
-3.7025	vj	-1.3423
-3.7025	vladimir	-1.3423
-3.7025	vmi	-1.3423
-3.7025	vokalnya	-1.3404
-3.7025	vriens	-1.3351
-3.7025	vulkanologi	-1.3351
-3.7025	vvip	-1.3365
-3.7025	wabah	-1.3423
-3.2254	wahid	-1.2782
-3.7025	wahyu	-1.3423
-3.7025	wajdi	-1.3423
-3.7025	wajib	-1.3351
-3.7025	wakapolri	-1.3423
-3.0035	waktu	-1.3342
-3.7025	waljhi	-1.3423
-3.7025	wana	-1.3423
-3.7025	wanderers	-1.2789
-3.4015	wanita	-1.2785
-3.7025	wapimcab	-1.3422
-3.7025	wapres	-1.2789
-2.9244	warga	-1.4199
-3.1005	wartawan	-1.3283
-3.7025	wartel	-1.3333
-3.7025	warung	-1.3423
-3.7025	wasit	-1.3423
-3.7025	waspada	-1.3419
-3.7025	wea	-1.2789
-3.7025	website	-1.3423
-3.7025	white	-1.3423
-3.7025	wijaya	-1.2789
-3.7025	wilayah	-1.3422
-3.4015	william	-1.3423
-3.7025	wilson	-1.3419
-3.7025	winter	-1.3423
-3.7025	wong	-1.3423
-3.7025	wreda	-1.3423
-3.7025	wuruk	-1.2789
-3.4015	wushu	-1.3363
-3.7025	www	-1.3422
-3.7025	wynne	-1.3409
-3.7025	x	-1.3391
-3.7025	xanana	-1.3423
-3.7025	ya	-1.2789
-3.0035	yaitu	-1.3417
-1.8700	yang	-1.3714
-3.7025	yappika	-1.2789
-3.7025	ye	-1.3423
-3.7025	yevgeny	-1.3423
-3.7025	yevhen	-1.3423
-3.7025	yogyakarta	-1.2789
-3.7025	yonif	-1.3411
-3.7025	yugoslavia	-1.3423
-3.7025	yuni	-1.3423
-3.7025	yuniwati	-1.3423
-3.7025	yusa	-1.3423
-3.4015	yusril	-1.3422
-3.4015	yusuf	-1.3420
-3.7025	z	-1.3423
-3.7025	zaenuddin	-1.3409
-3.7025	zaenudin	-1.3423
-3.7025	zahovic	-1.3423
-3.7025	zainal	-1.3423
-3.7025	zaman	-1.3423
-3.7025	zarkasih	-1.3423
-3.7025	zero	-1.3423
-3.7025	zheng	-1.3423
-3.7025	zimbabwe	-1.2789
-3.7025	zivkovic	-1.3423
-3.7025	zlatko	-1.3423
-3.7025	znet	-1.3423
-3.7025	zoetmulder	-1.3333
-3.7025	zohra	-1.3423
-3.7025	zoran	-1.3423
-3.7025	zuhur	-1.3333
-3.7025	zvai	-1.3423
-3.7025	zygnus	-1.2789
-1.1672	!EXIT

\2-grams:
-0.0001	!ENTER SILENCE
-2.8565	SILENCE abdullah
-2.8565	SILENCE absennya
-2.8565	SILENCE abu
-2.3658	SILENCE acara
-2.5453	SILENCE ada
-2.8565	SILENCE adapun
-2.8565	SILENCE adi
-2.8565	SILENCE adnan
-2.8565	SILENCE afp
-2.8565	SILENCE agenda
-2.8565	SILENCE agniezka
-2.8565	SILENCE agus
-2.8565	SILENCE ahqam
-2.8565	SILENCE ajwar
-2.8565	SILENCE akibatnya
-2.8565	SILENCE al
-2.8565	SILENCE alasannya
-2.5453	SILENCE alex
-2.8565	SILENCE alfa
-2.8565	SILENCE alquran
-2.8565	SILENCE amazon
-2.8565	SILENCE angie
-2.8565	SILENCE angka
-2.8565	SILENCE anwar
-2.5453	SILENCE apakah
-2.5453	SILENCE apalagi
-2.8565	SILENCE aparat
-2.8565	SILENCE arif
-2.8565	SILENCE ary
-2.8565	SILENCE atal
-2.8565	SILENCE audi
-2.8565	SILENCE avtur
-2.8565	SILENCE bagaimana
-2.8565	SILENCE bahan
-2.5453	SILENCE bahkan
-2.8565	SILENCE bayi
-2.8565	SILENCE bendera
-2.8565	SILENCE berita
-2.8565	SILENCE bisa
-2.8565	SILENCE bom
-2.8565	SILENCE boyce
-2.8565	SILENCE buku
-2.8565	SILENCE bursa
-2.8565	SILENCE bush
-2.8565	SILENCE cabang
-2.8565	SILENCE cepat
-2.8565	SILENCE contoh
-2.8565	SILENCE cuaca
-2.8565	SILENCE cungkilan
-2.5453	SILENCE dalam
-2.3658	SILENCE dari
-2.8565	SILENCE darul
-2.8565	SILENCE demikian
-2.8565	SILENCE departemen
-2.8565	SILENCE detektor
-1.8383	SILENCE di
-2.2392	SILENCE dia
-2.8565	SILENCE dimana
-2.5453	SILENCE direktur
-2.8565	SILENCE dirjen
-2.8565	SILENCE disbursement
-2.8565	SILENCE disusul
-2.8565	SILENCE dokter
-2.8565	SILENCE dosen
-2.1413	SILENCE dua
-2.8565	SILENCE edmon
-2.8565	SILENCE elza
-2.8565	SILENCE exxonmobil
-2.8565	SILENCE felx
-2.8565	SILENCE foxnews
-2.8565	SILENCE fungsionaris
-2.8565	SILENCE gerakan
-2.8565	SILENCE gol
-2.8565	SILENCE habibie
-2.8565	SILENCE hadir
-2.8565	SILENCE hai
-2.2392	SILENCE hal
-2.8565	SILENCE halimah
-2.8565	SILENCE hamzah
-2.8565	SILENCE hanya
-2.8565	SILENCE harga
-2.8565	SILENCE hari
-2.8565	SILENCE harian
-2.8565	SILENCE hasilnya
-2.8565	SILENCE henny
-2.8565	SILENCE hoirul
-2.3658	SILENCE ia
-2.8565	SILENCE ihsan
-2.8565	SILENCE imam
-2.3658	SILENCE ini
-2.8565	SILENCE insiden
-2.8565	SILENCE interupsi
-2.8565	SILENCE ivan
-2.8565	SILENCE jadi
-2.8565	SILENCE jam
-2.3658	SILENCE jangan
-2.8565	SILENCE jemaah
-2.8565	SILENCE jenazah
-2.8565	SILENCE jenderal
-2.8565	SILENCE jendral
-2.8565	SILENCE jenis
-2.8565	SILENCE joko
-2.8565	SILENCE jugsor
-2.3658	SILENCE kalau
-2.8565	SILENCE kalian
-2.8565	SILENCE kami
-2.8565	SILENCE kampung
-2.8565	SILENCE kamus
-2.5453	SILENCE kapal
-2.8565	SILENCE kapolres
-2.8565	SILENCE kapuspenkum
-2.8565	SILENCE karl
-2.8565	SILENCE kata
-2.8565	SILENCE keempat
-2.8565	SILENCE kembali
-2.8565	SILENCE kemudian
-2.8565	SILENCE kemungkinan
-2.5453	SILENCE kenapa
-2.3658	SILENCE kepala
-2.8565	SILENCE keputusannya
-2.8565	SILENCE keraguan
-2.8565	SILENCE kerinduan
-2.8565	SILENCE kesatuan
-2.8565	SILENCE ketetapan
-2.8565	SILENCE ketiga
-2.8565	SILENCE ketika
-2.8565	SILENCE ketua
-2.5453	SILENCE kh
-2.8565	SILENCE kkb
-2.8565	SILENCE komisi
-2.8565	SILENCE komitmen
-2.8565	SILENCE konflik
-2.8565	SILENCE koordinasi
-2.8565	SILENCE kuasa
-2.8565	SILENCE lalu
-2.8565	SILENCE langkah
-2.8565	SILENCE lanskap
-2.8565	SILENCE lima
-2.8565	SILENCE loebby
-2.8565	SILENCE maaf
-2.8565	SILENCE majalah
-2.8565	SILENCE maka
-2.8565	SILENCE makasih
-2.8565	SILENCE malam
-2.8565	SILENCE manajer
-2.8565	SILENCE manchester
-2.5453	SILENCE manusia
-2.8565	SILENCE maqdir
-2.8565	SILENCE masjid
-2.8565	SILENCE masyarakat
-2.8565	SILENCE megawati
-2.8565	SILENCE melalui
-2.8565	SILENCE mengapa
-2.8565	SILENCE menkop
-2.8565	SILENCE menlu
-2.5453	SILENCE menteri
-2.2392	SILENCE menurut
-2.1413	SILENCE mereka
-2.8565	SILENCE metode
-2.8565	SILENCE minggu
-2.8565	SILENCE mpr
-2.8565	SILENCE mullah
-2.8565	SILENCE mungkin
-2.8565	SILENCE nama
-2.3658	SILENCE namun
-2.8565	SILENCE nanti
-2.8565	SILENCE naskah
-2.8565	SILENCE negara
-2.8565	SILENCE ntt
-2.8565	SILENCE osama
-2.8565	SILENCE ottmar
-2.3658	SILENCE padahal
-2.8565	SILENCE pak
-2.5453	SILENCE pasalnya
-2.8565	SILENCE pedagang
-2.8565	SILENCE pelaku
-2.8565	SILENCE pembakaran
-2.3658	SILENCE pemerintah
-2.8565	SILENCE penangguhan
-2.8565	SILENCE penetapan
-2.8565	SILENCE penipu
-2.8565	SILENCE penyebab
-2.8565	SILENCE perampokan
-2.8565	SILENCE peraturan
-2.8565	SILENCE perdana
-2.8565	SILENCE peringkat
-2.8565	SILENCE persoalan
-2.8565	SILENCE personel
-2.8565	SILENCE pertamina
-2.8565	SILENCE perusahaan
-2.8565	SILENCE polisi
-2.3658	SILENCE presiden
-2.8565	SILENCE raja
-2.8565	SILENCE rapat
-2.8565	SILENCE rasanya
-2.8565	SILENCE reaksi
-2.8565	SILENCE rektor
-2.5453	SILENCE rencana
-2.8565	SILENCE renovasi
-2.8565	SILENCE republik
-2.8565	SILENCE robert
-2.3658	SILENCE rombongan
-2.8565	SILENCE saat
-2.8565	SILENCE said
-2.8565	SILENCE salah
-2.8565	SILENCE sangat
-2.8565	SILENCE sarah
-2.8565	SILENCE satu
-2.8565	SILENCE sebelumnya
-2.8565	SILENCE secara
-2.8565	SILENCE sedang
-2.8565	SILENCE sekitar
-2.8565	SILENCE selain
-2.8565	SILENCE selama
-2.2392	SILENCE sementara
-2.8565	SILENCE semoga
-2.5453	SILENCE seorang
-2.8565	SILENCE seperti
-2.8565	SILENCE sepuluh
-2.8565	SILENCE seratus
-2.8565	SILENCE setelah
-2.8565	SILENCE shevchenko
-2.8565	SILENCE siapa
-2.8565	SILENCE sidang
-2.8565	SILENCE simmonds
-2.8565	SILENCE sisi
-2.8565	SILENCE sistem
-2.8565	SILENCE skylite
-2.8565	SILENCE soeharto
-2.8565	SILENCE sofjan
-2.8565	SILENCE sofyan
-2.8565	SILENCE solowiejczyk
-2.8565	SILENCE status
-2.8565	SILENCE suasana
-2.5453	SILENCE supaya
-2.8565	SILENCE surat
-2.8565	SILENCE suwartoyo
-2.8565	SILENCE tabrakan
-2.8565	SILENCE tahun
-2.8565	SILENCE taolu
-2.8565	SILENCE tayangan
-2.8565	SILENCE teguh
-2.8565	SILENCE tekanan
-2.8565	SILENCE tentu
-2.8565	SILENCE terjadi
-2.8565	SILENCE tetapi
-2.8565	SILENCE thailand
-2.8565	SILENCE tiap
-2.0615	SILENCE tiga
-2.8565	SILENCE tokoh
-2.8565	SILENCE toni
-2.8565	SILENCE tor
-2.8565	SILENCE tyx
-2.8565	SILENCE ujar
-2.3658	SILENCE untuk
-2.8565	SILENCE upja
-2.8565	SILENCE uss
-2.8565	SILENCE wakapolri
-2.8565	SILENCE waljhi
-2.8565	SILENCE warga
-2.8565	SILENCE wasit
-2.8565	SILENCE www
-2.8565	SILENCE xanana
-2.8565	SILENCE yang
-2.8565	SILENCE yusril
-2.8565	SILENCE zaenuddin
-2.8565	SILENCE zohra
-0.3011	SILENCE !EXIT
-0.0202	ab three
-0.0202	abba gold
-0.0202	abdi darmawan
-0.0202	abdul jalil
-0.0202	abdullah gymnastiar
-0.4973	abdurrahman SILENCE
-0.1861	abdurrahman wahid
-0.0202	abg SILENCE
-0.0202	absennya alexander
-0.4973	abu bakar
-0.4973	abu dhabi
-0.4973	abu sofyan
-0.8653	acara akan
-0.3746	acara itu
-0.8653	acara liputan
-0.8653	acara live
-0.8653	acara nontonnya
-0.5541	aceh SILENCE
-0.8653	aceh besar
-0.8653	aceh darussalam
-0.8653	aceh nias
-0.8653	aceh timur
-0.8653	aceh utara
-0.9233	ada hambatan
-0.9233	ada keajaiban
-0.9233	ada keputusan
-0.9233	ada lagi
-0.9233	ada main
-0.9233	ada pula
-0.9233	ada tindakan
-0.9233	ada yang
-1.4004	adalah anggota
-1.4004	adalah bahan
-1.4004	adalah calon
-1.4004	adalah hizbullah
-1.4004	adalah hong
-1.4004	adalah hydraulic
-1.4004	adalah ibadah
-1.4004	adalah jenis
-1.4004	adalah karang
-1.4004	adalah karo
-1.4004	adalah khoirul
-1.4004	adalah masjid
-1.4004	adalah mulyo
-1.4004	adalah nama
-1.0892	adalah salah
-1.4004	adalah satu
-1.4004	adalah sebuah
-1.4004	adalah singkatan
-1.4004	adalah sisi
-1.4004	adalah tathawwu
-1.4004	adalah wahyu
-1.4004	adalah website
-1.4004	adalah zlatko
-0.0202	adalam mantan
-0.3212	adanya komponis
-0.3212	adanya terowongan
-0.0202	adapun nancy
-0.0202	adi pandai
-0.0202	adiora SILENCE
-0.0202	adisusanto sj
-0.0202	adiyaksa dan
-0.0202	adlani dan
-0.0202	adnan buyung
-0.0202	advokasi pusat
-0.3110	afganistan SILENCE
-0.6223	afganistan dan
-0.6223	afganistan tengah
-0.0202	afp membantah
-0.0202	agama diwakili
-0.4973	agenda agenda
-0.4973	agenda perjalanan
-0.4973	agenda perubahan
-0.0202	agil mengatakan
-0.0202	agniezka adalah
-0.3212	agus budiman
-0.3212	agus dan
-0.0202	agustine nancy
-0.0202	agva SILENCE
-0.4973	ahli hematologi
-0.4973	ahli kesehatan
-0.4973	ahli menko
-0.0202	ahqam mengaku
-0.0202	ai SILENCE
-0.0202	air freshener
-0.0202	ajwar menentang
-1.3819	akan berbuat
-1.3819	akan berpengaruh
-1.3819	akan bertindak
-1.3819	akan dapat
-1.3819	akan diadakan
-1.3819	akan dilanda
-1.3819	akan ditangani
-1.3819	akan ditempatkan
-1.3819	akan diwakili
-1.3819	akan jauh
-1.3819	akan kami
-1.3819	akan kita
-1.3819	akan memainkan
-1.3819	akan membenci
-1.3819	akan menambah
-1.3819	akan mendegradasikan
-1.0707	akan menjadi
-1.3819	akan sangat
-1.3819	akan segera
-1.3819	akan terdeteksi
-1.3819	akan terjadinya
-1.3819	akan terus
-0.0202	aken i
-0.0202	akhir yang
-0.0202	akhmad heramudin
-0.4973	akibat dari
-0.4973	akibat tekanan
-0.4973	akibat tiga
-0.0202	akibatnya masukan
-0.0202	aktivis laskar
-0.0202	aktris legendaris
-0.7984	al aqsa
-0.7984	al faroq
-0.7984	al iqtissadia
-0.7984	al letda
-0.7984	al mujahir
-0.7984	al quran
-0.0202	alam sekitarnya
-0.0202	alasan medis
-0.3212	alasannya SILENCE
-0.3212	alasannya belum
-0.0202	alat musik
-0.3212	album abba
-0.3212	album subject
-0.3212	alex ferguson
-0.3212	alex manuputty
-0.3212	alexander downer
-0.3212	alexander mostovoi
-0.0202	alfa menjadi
-0.0202	ali dan
-0.0202	alimuddin mendampingi
-0.0202	almarhum secara
-0.0202	alqaeda dan
-0.0202	alquran mengingatkan
-0.0202	amazon explorer
-0.0202	amedeo carboni
-0.4871	amerika SILENCE
-0.7984	amerika ke
-0.7984	amerika menyerah
-0.7984	amerika sepakat
-0.7984	amerika serikat
-0.0202	ampuh SILENCE
-0.0202	anak kelas
-0.0202	anam berpendapat
-0.0202	ancaman itu
-0.0202	anda dapat
-0.0202	andrae pernah
-0.0202	andyanto salah
-0.7984	anggota alqaeda
-0.7984	anggota fbr
-0.7984	anggota fordem
-0.7984	anggota himpunan
-0.7984	anggota komisi
-0.7984	anggota tim
-0.0202	angie juga
-0.0202	angka tertinggi
-0.0202	angkasa seperti
-0.0202	angkatan bersenjata
-0.0202	anglo saxon
-0.0202	anjlok di
-0.9744	antara kedua
-0.9744	antara kepolisian
-0.2592	antara lain
-0.9744	antara oknum
-0.9744	antara petani
-0.3212	antaranya muhammad
-0.3212	antaranya rektor
-0.0202	anthrax wabah
-0.0202	anumerta oleh
-0.0202	anwar mengatakan
-0.4079	apa apa
-0.7192	apa kabar
-0.7192	apa karena
-0.7192	apa padahal
-0.4973	apakah kamu
-0.4973	apakah keputusan
-0.4973	apakah peserta
-0.3212	apalagi pihak
-0.3212	apalagi saya
-0.0202	aparat keamanan
-0.0202	apbn SILENCE
-0.6223	api SILENCE
-0.3110	api di
-0.6223	api mutiara
-0.0202	aqsa terletak
-0.0202	aquino SILENCE
-0.0202	arabia SILENCE
-0.3212	arah timur
-0.3212	arah yang
-0.0202	arantxa sanchez
-0.3212	arif arryman
-0.3212	arif dan
-0.0202	arifin pelaku
-0.0202	aritonang SILENCE
-0.0202	arqam dikategorikan
-0.0202	arroyo saat
-0.0202	arryman adalam
-0.0202	artho mufzar
-0.0202	arus valindo
-0.0202	ary suta
-0.8653	as SILENCE
-0.8653	as bukanlah
-0.5541	as dalam
-0.8653	as dikabarkan
-0.8653	as pembuat
-0.8653	as sa
-0.3212	asap kendaraan
-0.3212	asap tebal
-0.0202	asas keadilan
-0.3212	asia SILENCE
-0.3212	asia disusul
-0.3212	asing SILENCE
-0.3212	asing yang
-0.0202	aspek showbiz
-0.0202	assidiqqiah meruya
-0.0202	astagfirullah SILENCE
-0.0202	aston villa
-0.0202	asuransi tersebut
-0.0202	asyraf SILENCE
-0.0202	at taqwa
-0.0202	atal behari
-0.7192	atas bantuannya
-0.7192	atas hasil
-0.7192	atas panggung
-0.7192	atas penangkapan
-0.7192	atas setiap
-1.2243	atau bunker
-1.2243	atau cnrm
-1.2243	atau di
-1.2243	atau hati
-1.2243	atau hdc
-1.2243	atau hukum
-1.2243	atau itecezet
-1.2243	atau labfor
-1.2243	atau lebih
-1.2243	atau menggelar
-1.2243	atau minyak
-1.2243	atau padangbai
-1.2243	atau pencairan
-1.2243	atau salah
-1.2243	atau vmi
-1.2243	atau zero
-0.0202	atraksi kembang
-0.0202	audi berhasil
-0.0202	austria yaitu
-0.0202	avi meraih
-0.0202	avtur adalah
-0.0202	awan di
-0.3212	award SILENCE
-0.3212	award dan
-0.0202	ayam bakar
-0.0202	azam islamabad
-0.0202	aziz dan
-0.0202	azman usmanuddin
-0.0202	azwar menyayangkan
-0.0100	b satu
-0.0202	baasyir mempraperadilankan
-0.0202	bada aceh
-0.0202	badai tropis
-0.3212	badan gijzeling
-0.3212	badan terhadap
-0.0202	bagaimana jika
-0.0202	bagi rusia
-0.0202	bagian timur
-0.4973	bahan bakar
-0.1861	bahan peledak
-0.3212	bahkan bukan
-0.3212	bahkan undang
-0.0202	bahu membahu
-0.9744	bahwa dirinya
-0.9744	bahwa hari
-0.9744	bahwa kliennya
-0.9744	bahwa negosiasi
-0.9744	bahwa pada
-0.9744	bahwa pemerintahan
-0.9744	bahwa pernyataan
-0.9744	bahwa program
-0.9744	bahwa tiga
-0.0202	baihaqi di
-0.4973	bakar baasyir
-0.4973	bakar pesawat
-0.4973	bakar wong
-0.0202	balik petani
-0.0202	balkan franjo
-0.0202	bandang SILENCE
-0.7192	bandara di
-0.7192	bandara hasanuddin
-0.7192	bandara internasional
-0.7192	bandara ngurah
-0.7192	bandara penjahat
-0.0202	bandung SILENCE
-0.3212	bangku pengemudi
-0.3212	bangku sma
-0.3212	bangsa indonesia
-0.3212	bangsa ini
-0.3212	banjir SILENCE
-0.3212	banjir bandang
-0.4973	bank aken
-0.4973	bank lippo
-0.4973	bank mashil
-0.4973	bantuan cgi
-0.4973	bantuan kepada
-0.4973	bantuan teknis
-0.0202	bantuannya sebulan
-0.7192	banyak dibudidayakan
-0.7192	banyak kalangan
-0.7192	banyak kendala
-0.4079	banyak orang
-0.0202	banyumas SILENCE
-0.0202	banyuwangi luka
-0.0202	barak penampungan
-0.0202	barang bukti
-0.3212	barat SILENCE
-0.3212	barat juga
-0.0202	bareng anak
-0.0202	barna sumantri
-0.0202	barrel SILENCE
-0.0202	barthez SILENCE
-0.0202	bartok lizt
-0.4973	baru atau
-0.4973	baru berangkat
-0.4973	baru yang
-0.0202	basis berawal
-0.0202	batu untuk
-0.3212	bawah pohon
-0.3212	bawah tanah
-0.0202	bayern muenchen
-0.3212	bayi memerlukan
-0.3212	bayi pertama
-0.0202	bca hampir
-0.0202	bebas dari
-0.3212	beberapa pekerjaan
-0.3212	beberapa referensi
-0.3212	begitu memahami
-0.3212	begitu pemimpin
-0.0202	behari vajpaye
-0.0202	beijing saat
-0.0202	bejbel SILENCE
-0.0202	bekasi selatan
-0.1861	bekerja sama
-0.4973	bekerja untuk
-0.0202	belaka dengan
-0.0202	belakang kanan
-0.0202	belas derajat
-0.0202	belfas memfasilitasi
-0.7090	belum ada
-1.0202	belum akan
-1.0202	belum dapat
-1.0202	belum mau
-1.0202	belum menerima
-1.0202	belum mengerjakan
-1.0202	belum menghayati
-1.0202	belum sembuh
-1.0202	belum siap
-0.3212	benar benar
-0.3212	benar dipertimbangkan
-0.0202	bencana geologi
-0.0202	bendera lama
-0.3212	bentuk bantuan
-0.3212	bentuk grup
-0.0050	berada di
-0.7192	berangkat dengan
-0.7192	berangkat menuju
-0.7192	berangkat pukul
-0.7192	berangkat sabtu
-0.7192	berangkat sesuai
-0.0202	berapa SILENCE
-0.0202	berarti SILENCE
-0.0202	berawal rapat
-0.0202	berbagai kolaborasi
-0.0202	berbagi teritori
-0.0202	berbahasa rusia
-0.0202	berbalik pada
-0.0100	berbeda SILENCE
-0.0202	berbicara di
-0.0202	berbobot SILENCE
-0.3212	berbuat apa
-0.3212	berbuat nekat
-0.0202	berdasarkan pengalaman
-0.0202	berdemonstrasi sambil
-0.0202	berfungsi melakukan
-0.3212	berhasil menangkap
-0.3212	berhasil menciduk
-0.0202	beringin di
-0.6223	berita berita
-0.6223	berita duka
-0.6223	berita tentang
-0.6223	berita versi
-0.0202	beritahukan jauh
-0.4973	berjalan di
-0.4973	berjalan ke
-0.4973	berjalan lancar
-0.0202	berjangkit di
-0.3212	berkaitan dengan
-0.3212	berkaitan kongres
-0.0202	berkat gol
-0.0202	berkedok sebagai
-0.0202	berkekuatan sebanding
-0.0202	berkelana di
-0.0202	berlindung di
-0.3212	bermain alat
-0.3212	bermain sebagai
-0.0202	bermalam serta
-0.0202	bermotor SILENCE
-0.0202	bermula dari
-0.3212	bernard menurun
-0.3212	bernard sihotang
-0.0202	bernomor polisi
-0.0202	berobat ke
-0.0202	berpelat nomor
-0.3212	berpendapat bahwa
-0.3212	berpendapat berbeda
-0.0202	berpengaruh pada
-0.0202	berpidato di
-0.0202	berpromosi kepada
-0.0202	bersalaman dengan
-0.6223	bersama SILENCE
-0.6223	bersama boyke
-0.6223	bersama dengan
-0.6223	bersama suaminya
-0.0202	bersamaan dengan
-0.0202	bersedia menerima
-0.0202	bersembunyi di
-0.3212	bersenjata SILENCE
-0.3212	bersenjata venezuela
-0.0202	bersikap kesatria
-0.0202	bertaburan begitu
-0.0202	berteduh di
-0.0202	bertenaga kuda
-0.0202	bertindak SILENCE
-0.0202	berturut turut
-0.0202	berucap itu
-0.3212	berupa satu
-0.3212	berupa utang
-0.3212	berwarna biru
-0.3212	berwarna merah
-0.0202	besar SILENCE
-0.0202	besuk itu
-0.0202	bhakti SILENCE
-0.0202	bi masih
-0.0202	bidang konsuler
-0.0202	bigxu SILENCE
-0.0202	bilateral antara
-0.0202	bimas islam
-0.3212	bin laden
-0.3212	bin nasser
-0.0202	bird dari
-0.0202	biru SILENCE
-0.9233	bisa dengan
-0.9233	bisa dilepaskan
-0.9233	bisa disahkan
-0.9233	bisa diterapkan
-0.9233	bisa melahirkan
-0.9233	bisa melayani
-0.9233	bisa menembus
-0.9233	bisa tampil
-0.0202	bishop lutheran
-0.0202	bisnisnya SILENCE
-0.0202	black september
-0.0202	bleszinsky muncul
-0.0100	boediono SILENCE
-0.0202	bogor minggu
-0.3212	bola bareng
-0.3212	bola liga
-0.0202	boleh lihat
-0.0202	bolton wanderers
-0.0202	bom rakitan
-0.0202	box itu
-0.0202	boyce menyatakan
-0.0202	boyke roring
-0.3212	bppn SILENCE
-0.3212	bppn juga
-0.0202	bq yang
-0.0202	bramhs dan
-0.0202	braxton menjadi
-0.3212	brigjen edward
-0.3212	brigjen ludwijk
-0.0202	bromartani SILENCE
-0.0202	buah bahan
-0.0202	buatan jerman
-0.0202	budiman dikabarkan
-0.7192	bukan hanya
-0.7192	bukan lagi
-0.7192	bukan mustahil
-0.7192	bukan revolusi
-0.7192	bukan urusan
-0.0202	bukanlah tragedi
-0.0202	bukit duri
-0.0202	bukti berupa
-0.4973	buku SILENCE
-0.4973	buku buku
-0.4973	buku filsafat
-0.4973	bulan lagi
-0.4973	bulan november
-0.4973	bulan ramadhan
-0.0202	bunga di
-0.0202	bungsu muhammad
-0.0202	bunker bawah
-0.0202	bunuh diri
-0.0202	bupati aceh
-0.0202	bursa saham
-0.0202	burung seriatopora
-0.3212	bus cv
-0.3212	bus damri
-0.0202	busana berbeda
-0.0202	bush juga
-0.0202	buwono SILENCE
-0.0202	buyung nasution
-0.0202	bypass klaten
-0.0100	cabang wushu
-0.0202	calon dari
-0.0202	caltex menyatakan
-0.0202	canio disambut
-0.0202	cao diperlukan
-0.0202	carboni dan
-0.0202	cb yang
-0.0202	cc dua
-0.0202	cdma dua
-0.0202	cedera ternyata
-0.0202	ceko diwakili
-0.0202	celcius SILENCE
-0.0202	cendrawasih sedang
-0.0202	center atau
-0.0202	centra arus
-0.4973	cepat disiapkan
-0.4973	cepat istirahat
-0.4973	cepat memeriksa
-0.0202	cerah sedangkan
-0.0202	cetak SILENCE
-0.0202	cf winter
-0.0202	cgi dan
-0.0202	chaeruddin ismail
-0.0202	chaerul azwar
-0.0202	chagquan merupakan
-0.0202	change SILENCE
-0.0202	chauvinisme SILENCE
-0.0202	chopin bramhs
-0.0202	chris siner
-0.0202	cijantung mempunyai
-0.0202	cina tang
-0.0202	cinta yang
-0.0202	club iii
-0.0202	cnrm SILENCE
-0.0202	coimbra portugal
-0.0202	college yogyakarta
-0.0202	com dot
-0.3212	contoh darah
-0.3212	contoh yang
-0.0202	cowpens telah
-0.0202	cpm yonif
-0.0202	cpo atau
-0.4973	cq atas
-0.4973	cq kepala
-0.4973	cq korps
-0.0202	crawford berbalik
-0.0202	cs SILENCE
-0.0202	cuaca di
-0.0202	cungkilan paolo
-0.0202	cv pelangi
-0.0202	dahlan SILENCE
-1.0707	dalam SILENCE
-1.3819	dalam acara
-1.0707	dalam bentuk
-1.3819	dalam dalam
-1.3819	dalam dua
-1.3819	dalam film
-1.3819	dalam jumpa
-0.8912	dalam kasus
-1.3819	dalam keadaan
-1.3819	dalam klipvideo
-1.3819	dalam konferensi
-1.3819	dalam lagu
-1.3819	dalam liriknya
-1.3819	dalam sebuah
-1.3819	dalam sel
-1.3819	dalam suasana
-1.0707	dalam waktu
-1.3819	dalam znet
-0.3212	damai dengan
-0.3212	damai malino
-0.3212	dampak ekonomi
-0.3212	dampak negatif
-0.0202	damri bernomor
-1.9445	dan as
-1.6332	dan bernard
-1.9445	dan bolton
-1.9445	dan bukan
-1.9445	dan cao
-1.9445	dan centra
-1.9445	dan cf
-1.9445	dan chris
-1.9445	dan dahlan
-1.9445	dan dicocokkan
-1.9445	dan dihadiri
-1.9445	dan dikeroyok
-1.9445	dan ditodong
-1.9445	dan edgar
-1.9445	dan eksploitasi
-1.9445	dan exhaust
-1.9445	dan haji
-1.9445	dan harus
-1.9445	dan hijau
-1.9445	dan hongkong
-1.9445	dan i
-1.9445	dan ibadah
-1.9445	dan investasi
-1.9445	dan jateng
-1.9445	dan jihad
-1.9445	dan karang
-1.9445	dan kasaroh
-1.9445	dan kaufman
-1.9445	dan ketiga
-1.9445	dan keuangan
-1.9445	dan khairul
-1.9445	dan kompyang
-1.9445	dan kopassus
-1.9445	dan kritik
-1.9445	dan kupwara
-1.9445	dan lain
-1.9445	dan lainnya
-1.9445	dan mega
-1.9445	dan membiarkan
-1.9445	dan menengah
-1.9445	dan mengatakan
-1.9445	dan menghirupnya
-1.9445	dan menyatakan
-1.9445	dan mimpi
-1.9445	dan mitigasi
-1.9445	dan muak
-1.9445	dan music
-1.9445	dan nepotisme
-1.9445	dan nistelrooy
-1.9445	dan oknum
-1.9445	dan opresi
-1.9445	dan p
-1.9445	dan pakistan
-1.9445	dan panas
-1.9445	dan pellegrino
-1.9445	dan pemikiran
-1.9445	dan penadbiran
-1.9445	dan penahanan
-1.9445	dan petani
-1.9445	dan pimpinan
-1.9445	dan pramuka
-1.9445	dan radek
-1.9445	dan ratu
-1.6332	dan rombongan
-1.9445	dan rumah
-1.9445	dan sebagainya
-1.9445	dan sejumlah
-1.9445	dan sekretaris
-1.9445	dan sempat
-1.9445	dan si
-1.9445	dan stafnya
-1.9445	dan stasiun
-1.9445	dan sylvia
-1.9445	dan tidak
-1.9445	dan topeng
-1.9445	dan transit
-1.9445	dan usaha
-1.9445	dan warga
-1.9445	dan waspada
-1.9445	dan yappika
-1.9445	dan zaenudin
-1.9445	dan zheng
-0.0202	dana reboisasi
-0.0202	dance SILENCE
-0.3212	dangdut elvy
-0.3212	dangdut rhoma
-0.0202	dansa terompet
-0.7192	dapat dilakukan
-0.7192	dapat dipacu
-0.7192	dapat membaca
-0.7192	dapat menembak
-0.7192	dapat menghadiri
-0.3212	darah dari
-0.3212	darah mario
-1.5643	dari album
-1.5643	dari asap
-1.5643	dari beberapa
-1.5643	dari bogor
-1.5643	dari cedera
-1.5643	dari dua
-1.5643	dari dulu
-1.5643	dari fraksi
-1.5643	dari fretilin
-1.5643	dari indonesia
-1.5643	dari jalan
-1.5643	dari jawa
-1.5643	dari jazz
-1.5643	dari kedua
-1.5643	dari ketidakcermatan
-1.5643	dari kroasia
-1.5643	dari lagu
-1.5643	dari langit
-1.5643	dari lapangan
-1.5643	dari lima
-1.5643	dari linkvping
-1.5643	dari menteri
-1.5643	dari newcastle
-1.5643	dari pendapat
-1.5643	dari pertemuan
-1.5643	dari pertengkaran
-1.5643	dari potret
-1.5643	dari prof
-1.5643	dari rangkaian
-1.5643	dari ruang
-1.5643	dari stasiun
-1.5643	dari tubuh
-1.5643	dari unhcr
-1.5643	dari unit
-1.5643	dari universitas
-0.0202	darmawan menuding
-0.0202	darul arqam
-0.0202	daruqutni adiyaksa
-0.0202	darussalam sudah
-0.3212	dasar fraksi
-0.3212	dasar untuk
-0.1316	datang ke
-0.6223	datang sesudah
-0.0202	daud forum
-0.0202	david bermain
-0.0202	davids sudah
-0.0202	de sukarnoisasi
-0.0202	debat mahasiswa
-0.3212	debitor SILENCE
-0.3212	debitor yang
-0.0202	defoe ke
-0.0202	dekat pihaknya
-0.3212	delapan itu
-0.3212	delapan orang
-0.0202	demikian juga
-1.4181	dengan as
-1.4181	dengan asas
-1.4181	dengan bantuan
-1.4181	dengan bartok
-1.4181	dengan berlindung
-1.4181	dengan busana
-1.4181	dengan cdma
-1.4181	dengan cepat
-1.4181	dengan empat
-1.4181	dengan equity
-1.4181	dengan ikang
-1.4181	dengan jaringan
-1.4181	dengan jenderal
-1.4181	dengan kyai
-1.4181	dengan mencarter
-1.4181	dengan mobil
-1.4181	dengan mohammad
-1.4181	dengan peledakan
-1.4181	dengan pemberantasan
-1.4181	dengan pemerintah
-1.4181	dengan praktik
-1.4181	dengan pt
-1.4181	dengan sounding
-1.4181	dengan tafsiran
-1.4181	dengan waktu
-0.4973	depan ada
-0.4973	depan kawasan
-0.4973	depan rumah
-0.0202	departemen agama
-0.0202	depdiknas SILENCE
-0.0202	derajat celcius
-0.0202	dermawan dan
-0.0202	desa lamgeueu
-0.0202	detektor kuman
-0.0202	dewan pertahanan
-0.0202	dhabi sebelum
-0.0202	dharma wanita
-2.0414	di abu
-2.0414	di acara
-1.7301	di aceh
-2.0414	di afganistan
-2.0414	di amerika
-2.0414	di angkasa
-1.7301	di antaranya
-1.7301	di asia
-2.0414	di atas
-2.0414	di balik
-1.5507	di bandara
-2.0414	di bangku
-2.0414	di bawah
-2.0414	di beijing
-2.0414	di bulan
-2.0414	di canio
-2.0414	di cijantung
-1.7301	di dalam
-2.0414	di depan
-2.0414	di distrik
-2.0414	di dpr
-2.0414	di dunia
-2.0414	di edinburgh
-2.0414	di final
-1.5507	di gedung
-2.0414	di halaman
-2.0414	di hari
-2.0414	di hotel
-2.0414	di ignatius
-2.0414	di india
-2.0414	di indonesia
-2.0414	di islamabad
-1.4241	di jakarta
-1.3262	di jalan
-2.0414	di jenewa
-2.0414	di kantor
-2.0414	di kathmandu
-2.0414	di kawasan
-2.0414	di kelurahan
-2.0414	di koran
-2.0414	di kota
-2.0414	di kubu
-2.0414	di kyrgyzstan
-2.0414	di laboratorium
-2.0414	di lantai
-2.0414	di logtrans
-2.0414	di luar
-2.0414	di luxor
-2.0414	di malaysia
-2.0414	di masjid
-2.0414	di mpr
-2.0414	di muzdalifah
-2.0414	di negara
-2.0414	di palangkaraya
-2.0414	di palestina
-2.0414	di panggung
-2.0414	di paris
-2.0414	di perbatasan
-2.0414	di perpustakaan
-2.0414	di plaza
-2.0414	di polres
-2.0414	di pondok
-1.7301	di provinsi
-2.0414	di puncak
-2.0414	di riyadh
-2.0414	di roda
-2.0414	di rscm
-2.0414	di ruang
-2.0414	di rumah
-2.0414	di salah
-2.0414	di sana
-2.0414	di satu
-2.0414	di saudi
-1.7301	di sebuah
-2.0414	di sekitar
-2.0414	di situ
-2.0414	di swedia
-2.0414	di televisi
-2.0414	di tempat
-2.0414	di tengah
-1.7301	di timur
-2.0414	di tingkat
-2.0414	di trafalgar
-2.0414	di utara
-2.0414	di wartel
-2.0414	di warung
-2.0414	di wilayah
-0.8653	dia duduk
-0.8653	dia melantunkan
-0.8653	dia memerintahkan
-0.8653	dia mengalahkan
-0.8653	dia menjelaskan
-0.8653	dia menyatakan
-0.8653	dia tidak
-0.3212	diadakan di
-0.3212	diadakan eks
-0.0202	diantaranya dampak
-0.0202	diawali pembacaan
-0.0202	dibacakan riwayat
-0.0202	dibawa lari
-0.0202	diberangkatkan bersama
-0.0202	diberlakukan di
-0.0202	dibicarakan karena
-0.0202	dibudidayakan salah
-0.0202	dicabut SILENCE
-0.0202	dicalonkan oleh
-0.0202	dicapai album
-0.0202	diciduk itu
-0.0202	dicocokkan dengan
-0.0202	dicurigai menyimpan
-0.0202	didampingi empat
-0.0202	diderita mu
-0.0202	dididik untuk
-0.0202	diduduki koperasi
-0.0202	diduga iqbal
-0.0202	didukung taliban
-0.3212	digelar acara
-0.3212	digelar karya
-0.3212	digunakan adalah
-0.3212	digunakan oleh
-0.0202	dihadapi perekonomian
-0.3212	dihadiri oleh
-0.3212	dihadiri semua
-0.0202	dihapuskannya pajak
-0.0202	dihubungi oleh
-0.0202	diikuti oleh
-0.0100	diingatkan untuk
-0.0202	diiringi musik
-0.0202	diizinkan berobat
-0.0202	dijadikan dasar
-0.3212	dikabarkan bekerja
-0.3212	dikabarkan kini
-0.3212	dikatakan ahli
-0.3212	dikatakan dikdasmen
-0.0202	dikategorikan sebagai
-0.0202	dikdasmen indra
-0.0202	dikembalikan selama
-0.3212	dikemudikan fx
-0.3212	dikemudikan romli
-0.0202	dikemukakan prof
-0.0202	dikenallah sosok
-0.0202	dikerjakan oleh
-0.0202	dikeroyok massa
-0.0202	dikoordinir mujfaba
-0.9233	dilakukan antara
-0.9233	dilakukan hingga
-0.9233	dilakukan icw
-0.6120	dilakukan oleh
-0.9233	dilakukan sekarang
-0.9233	dilakukan setahun
-0.9233	dilakukan telkom
-0.0202	dilalui SILENCE
-0.0202	dilanda kehancuran
-0.0202	dilaporkan ke
-0.0202	dilaporkannya itu
-0.0202	dilepas oleh
-0.0202	dilepaskan dengan
-0.0202	dilimpahkan ke
-0.0100	dimaksudkan untuk
-0.0202	dimana tempat
-0.0202	dimulai jumat
-0.0202	din syamsuddin
-0.0202	dinas untuk
-0.0202	dinilai ingkar
-0.0202	dioperasi SILENCE
-0.0202	dipacu di
-0.0202	dipadu dengan
-0.0202	diperhatikan SILENCE
-0.3212	diperiksa dan
-0.3212	diperiksa sebagai
-0.0202	diperkirakan akan
-0.0202	diperlombakan SILENCE
-0.0202	diperlukan waktu
-0.0202	dipertanggungjawabkan SILENCE
-0.0202	dipertimbangkan SILENCE
-0.3212	dipimpin farid
-0.3212	dipimpin seorang
-0.0202	diproses melalui
-0.0202	dirawat di
-0.0202	direktorat vulkanologi
-0.4973	direktur advokasi
-0.4973	direktur executive
-0.4973	direktur perusahaan
-0.7192	diri SILENCE
-0.7192	diri dan
-0.7192	diri di
-0.7192	diri karena
-0.7192	diri nabi
-0.0202	diringkus satgas
-0.0202	dirintis oleh
-0.4973	dirinya SILENCE
-0.4973	dirinya adalah
-0.4973	dirinya tidak
-0.0202	dirjen bimas
-0.3212	disahkan SILENCE
-0.3212	disahkan tersebut
-0.0202	disalahpahami SILENCE
-0.0202	disambut oleh
-0.4973	disampaikan john
-0.4973	disampaikan norberto
-0.4973	disampaikan pada
-0.0202	disbursement atau
-0.0202	diserbu dan
-0.0202	disergap dan
-0.0202	disiapkan rusia
-0.3212	distrik distrik
-0.3212	distrik perbatasan
-0.0202	disukai masyarakat
-0.0202	disumbangkan marek
-0.3212	disusul akhmad
-0.3212	disusul malaysia
-0.0202	ditandatangani ketua
-0.0202	ditangani oleh
-0.0202	ditangkap di
-0.0202	ditanya dampak
-0.3212	ditarik ke
-0.3212	ditarik lokomotif
-0.0202	ditayangkan mtv
-0.3212	ditempatkan di
-0.3212	ditempatkan ke
-0.4973	ditemukan adalah
-0.4973	ditemukan menyangkut
-0.4973	ditemukan tewas
-0.0202	diterapkan untuk
-0.0202	ditodong senjata
-0.0202	dituju oleh
-0.0202	dituntut memberikan
-0.0202	diusulkan banyak
-0.0050	diwakili oleh
-0.0202	dki dan
-0.0202	dokter musni
-0.0202	dollar as
-0.0202	donald h
-0.0202	dosen universitas
-0.4973	dot com
-0.4973	dot pravda
-0.4973	dot ua
-0.0202	double fault
-0.0202	downer SILENCE
-0.0202	dpp partai
-0.1861	dpr SILENCE
-0.4973	dpr laksma
-0.0202	draft konstitusi
-0.0202	drastis SILENCE
-1.2755	dua buah
-1.2755	dua f
-1.2755	dua gelandang
-1.2755	dua kekalahan
-1.2755	dua kosong
-1.2755	dua menit
-1.2755	dua orang
-1.2755	dua paket
-1.2755	dua pemerintah
-1.2755	dua personel
-1.2755	dua perusaahaan
-0.7848	dua puluh
-0.9642	dua ribu
-1.2755	dua ribunya
-1.2755	dua tahun
-0.3212	duduk di
-0.3212	duduk ke
-0.0202	duet penyerang
-0.3212	duka tersebut
-0.3212	duka yang
-0.0202	dulu banyak
-0.0202	dumas valindo
-0.0202	dunant center
-0.4973	dunia perbankan
-0.4973	dunia politik
-0.4973	dunia unsur
-0.0202	dur dan
-0.0202	duri SILENCE
-0.0202	dzulhijjah jatuh
-0.0202	e azam
-0.0202	edgar davids
-0.0202	edinburgh digelar
-0.0202	edmon tidak
-0.0202	edward aritonang
-0.0202	effendi mengatakan
-0.0202	efrain vazquez
-0.0202	eggi sujana
-0.0202	eh avi
-0.0202	ekonomi setelah
-0.0202	eks karyawan
-0.0202	eksploitasi SILENCE
-0.0202	eksplorasi dan
-0.0202	ekstra kuat
-0.0202	elvy sukaesih
-0.0202	elza syarief
-0.0202	emas lewat
-0.0202	emoi SILENCE
-0.7192	empat belas
-0.7192	empat jam
-0.7192	empat kali
-0.7192	empat orang
-0.7192	empat personel
-0.0202	emval tiba
-0.4973	enam penumpang
-0.4973	enam ratus
-0.4973	enam sctv
-0.0202	endriartono dirinya
-0.0202	enggano hanya
-0.0202	equity market
-0.0202	era menko
-0.0202	eriksson terjawab
-0.0202	estu subur
-0.0202	etnis lain
-0.0202	exciting ketika
-0.0202	executive SILENCE
-0.0202	exhaust SILENCE
-0.0202	explorer hanya
-0.0202	exxon mobil
-0.0202	exxonmobil raksasa
-0.0202	f SILENCE
-0.0202	fabien barthez
-0.0202	failure SILENCE
-0.0202	faqih mega
-0.3212	farid maruf
-0.3212	farid wajdi
-0.0202	faroq tidak
-0.0202	fashion show
-0.3212	fatwa SILENCE
-0.3212	fatwa harus
-0.0202	fault sementara
-0.0202	fawzy SILENCE
-0.0202	fbr SILENCE
-0.0202	feith SILENCE
-0.0202	felix tampubolon
-0.0202	felx kepada
-0.0202	ferguson belum
-0.0202	feroza SILENCE
-0.4973	filipina SILENCE
-0.4973	filipina satu
-0.4973	filipina terbentuk
-0.0202	film tersebut
-0.0202	filsafat nietzche
-0.0202	final dia
-0.0202	fiqh siyasah
-0.0202	fireworks mengadakan
-0.0202	fitzpatrick setuju
-0.0202	foil buatan
-0.0202	fordem antara
-0.0202	forensik atau
-0.0202	forum debat
-0.0202	foxnews adalah
-0.6223	fraksi SILENCE
-0.6223	fraksi dan
-0.6223	fraksi di
-0.6223	fraksi tidak
-0.0202	franjo tudjman
-0.0202	franklin william
-0.0202	freshener dan
-0.0202	fretilin untuk
-0.0202	fungsionaris dpp
-0.3212	fx adisusanto
-0.3212	fx mario
-0.0202	g vriens
-0.0202	ga SILENCE
-0.0202	gagal adalah
-0.0202	gaizka mendieta
-0.0202	galaxi jakasetia
-0.3212	gam SILENCE
-0.3212	gam di
-0.0202	gambar putra
-0.0202	gambir ke
-0.0202	gandhi SILENCE
-0.0202	gangguan ini
-0.0202	ganti seratus
-0.0202	garland SILENCE
-0.3212	gawang aston
-0.3212	gawang fabien
-0.0202	gcg SILENCE
-0.0202	gde dermawan
-0.4973	gedung depdiknas
-0.4973	gedung manggala
-0.4973	gedung sudirman
-0.0202	gelandang bertenaga
-0.3212	geleng geleng
-0.3212	geleng kepala
-0.0202	genetika SILENCE
-0.0202	gentar menghadapi
-0.0202	geologi mengemukakan
-0.0202	gerak cepat
-0.4973	gerakan taliban
-0.4973	gerakan tanah
-0.4973	gerakan terorisme
-0.0202	gerbong anjlok
-0.3212	gerilya gerilya
-0.3212	gerilya yang
-0.3212	gerung dan
-0.3212	gerung milik
-0.0202	gijzeling tidak
-0.3212	gilimanuk SILENCE
-0.3212	gilimanuk atau
-0.0202	giliran tendangan
-0.0202	gizjeling atau
-0.0202	glas javnosti
-0.0202	global bahwa
-0.3212	gol penghibur
-0.3212	gol tunggal
-0.0202	gold lebih
-0.0202	goldstein berpromosi
-0.0202	golkar rully
-0.0202	gong juga
-0.0202	gonzales utusan
-0.0202	goran eriksson
-0.0202	granat ujar
-0.0202	growth SILENCE
-0.0202	grup gong
-0.3212	gugatan itu
-0.3212	gugatan praperadilan
-0.0202	gugur di
-0.0202	gumay mengemukakan
-0.0202	gumpalan awan
-0.0202	guna mengetahui
-0.0202	gunnar solskjaer
-0.0202	gunung lokon
-0.0202	gus dur
-0.0202	gyanendra SILENCE
-0.0202	gymnastiar menyatakan
-0.0202	h rumsfeld
-0.0202	ha nazri
-0.0202	habibie sangat
-0.0202	hadar gumay
-0.4973	hadir dari
-0.4973	hadir di
-0.4973	hadir pada
-0.0202	hafizhah raehana
-0.0202	hai selamat
-0.3212	haji faqih
-0.3212	haji taufik
-0.0202	hakim yang
-0.2081	hal ini
-0.6120	hal itu
-0.9233	hal senada
-0.0202	halaman parkir
-0.0202	halfvolley membentur
-0.0202	halimah menyempatkan
-0.0202	hamas dan
-0.0202	hambatan SILENCE
-0.0202	hamengku buwono
-0.0202	hampir bersamaan
-0.3212	hamzah baru
-0.3212	hamzah haz
-0.8653	hanya akan
-0.8653	hanya berucap
-0.8653	hanya dalam
-0.8653	hanya mampu
-0.8653	hanya mencatat
-0.8653	hanya permasalahan
-0.8653	hanya sebagai
-0.0202	harga tiket
-0.9233	hari SILENCE
-0.6120	hari ini
-0.9233	hari jumat
-0.9233	hari kalau
-0.9233	hari lalu
-0.9233	hari rabu
-0.9233	hari selasa
-0.0202	harian glas
-0.0202	harinya adalah
-0.0202	harry logwell
-0.8653	harus bebas
-0.8653	harus dikerjakan
-0.8653	harus dioperasi
-0.8653	harus diproses
-0.8653	harus dituntut
-0.8653	harus melangkah
-0.8653	harus memprioritaskan
-0.0202	hasan lutfhi
-0.0202	hasanuddin membenarkan
-0.3212	hasil muktamar
-0.3212	hasil studi
-0.0202	hasilnya akan
-0.0202	hasjrul dimaksudkan
-0.0202	hasyim muzadi
-0.0202	hati nurani
-0.0202	hawk yang
-0.0202	hayam wuruk
-0.0202	haz hanya
-0.0202	hdc pihak
-0.0202	hematologi dan
-0.0202	hendak menelepon
-0.0202	henny supolo
-0.0202	henry dunant
-0.0202	heramudin sumayya
-0.0202	herut israel
-0.3212	hidup almarhum
-0.3212	hidup dalam
-0.0202	hidupnya kepada
-0.0202	hijau SILENCE
-0.0202	himbauan kepada
-0.0202	himpunan pandu
-0.3212	hingga ada
-0.3212	hingga senin
-0.0202	hitam dan
-0.0202	hitzfeld kini
-0.0202	hizbullah hamas
-0.0202	hoirul anam
-0.0202	hollywood judy
-0.3212	hong peixing
-0.3212	hong shi
-0.0202	hongkong SILENCE
-0.3212	hotel SILENCE
-0.3212	hotel le
-0.0202	hudbhoy dari
-0.7984	hukum anglo
-0.7984	hukum badan
-0.7984	hukum juan
-0.7984	hukum sesuai
-0.7984	hukum ustadz
-0.7984	hukum yaitu
-0.0202	hutan tanaman
-0.0202	hyde park
-0.0202	hydraulic failure
-0.0202	hystrixs dan
-0.4973	i dpr
-0.4973	i gde
-0.4973	i made
-0.6223	ia dicalonkan
-0.6223	ia juga
-0.6223	ia menargetkan
-0.6223	ia sempat
-0.3212	ibadah malam
-0.3212	ibadah wajib
-0.0202	icw dan
-0.0202	ide konfrontatif
-0.0202	idris marzuki
-0.0202	ignatius college
-0.0202	ihsan mengatakan
-0.0202	ihza mahendra
-0.0202	iii di
-0.0202	ikang fawzy
-0.0202	ilegal SILENCE
-0.7192	imam cs
-0.7192	imam daruqutni
-0.7192	imam samudra
-0.7192	imam sedang
-0.7192	imam yang
-0.0202	indah SILENCE
-0.0202	india mengenai
-0.6087	indonesia SILENCE
-1.0994	indonesia antara
-1.0994	indonesia atau
-1.0994	indonesia dari
-1.0994	indonesia diperkirakan
-1.0994	indonesia ditangkap
-1.0994	indonesia memilih
-1.0994	indonesia tampil
-0.7881	indonesia yang
-0.0202	indra jati
-0.0202	industri SILENCE
-0.0202	inggris berkat
-0.3212	ingin dituju
-0.3212	ingin lagi
-0.0202	ingkar janji
-1.0514	ini SILENCE
-0.8719	ini akan
-1.3626	ini bppn
-1.0514	ini bukan
-1.3626	ini di
-1.3626	ini dikatakan
-1.3626	ini jafar
-1.3626	ini kebohongan
-1.3626	ini menurut
-1.3626	ini merupakan
-1.3626	ini peraturan
-1.3626	ini sebelumnya
-1.3626	ini secara
-1.3626	ini sudah
-1.3626	ini terjadi
-1.3626	ini tersambar
-1.3626	ini tidak
-1.3626	ini tommy
-0.3212	insiden bermula
-0.3212	insiden tersebut
-0.0202	instalasi yang
-0.4973	internasional SILENCE
-0.4973	internasional di
-0.4973	internasional ninoy
-0.0202	interupsi yang
-0.0202	investasi asing
-0.0202	investigasi penuh
-0.3212	iqbal SILENCE
-0.3212	iqbal sudah
-0.0202	iqra terbukti
-0.0202	iqtissadia memberitakan
-0.0202	irak SILENCE
-0.0202	irama dan
-0.0202	irgun zvai
-0.0202	islam dan
-0.3212	islamabad khotbah
-0.3212	islamabad pakistan
-0.4973	ismail SILENCE
-0.4973	ismail belum
-0.4973	ismail mengatakan
-0.0202	israel irgun
-0.0202	istiqlal SILENCE
-0.0202	istirahat dan
-0.0202	istrinya sendiri
-0.0202	itecezet SILENCE
-0.8049	itu SILENCE
-1.6000	itu adalah
-1.6000	itu anggota
-1.2887	itu dan
-1.6000	itu dibacakan
-1.6000	itu dibawa
-1.6000	itu dilakukan
-1.6000	itu diringkus
-1.6000	itu diserbu
-1.6000	itu fatwa
-1.6000	itu ilegal
-1.6000	itu langsung
-1.6000	itu manakala
-1.6000	itu masih
-1.6000	itu memacetkan
-1.6000	itu membuat
-1.6000	itu menurut
-1.6000	itu merupakan
-1.6000	itu muncul
-1.6000	itu sejumlah
-1.6000	itu sekjen
-1.6000	itu sudah
-1.6000	itu telah
-1.2887	itu terjadi
-1.6000	itu terlihat
-1.6000	itu terungkap
-1.2887	itu tidak
-1.6000	itu unggulan
-1.6000	itu urusan
-1.6000	itu yuni
-0.0202	ivan royfani
-0.4973	jadi di
-0.4973	jadi kan
-0.4973	jadi komoditas
-0.0202	jadwal SILENCE
-0.3212	jafar senin
-0.3212	jafar umar
-0.3746	jakarta SILENCE
-0.8653	jakarta barat
-0.8653	jakarta dan
-0.8653	jakarta dimulai
-0.8653	jakarta selatan
-0.0202	jakasetia bekasi
-0.7984	jalan bypass
-0.7984	jalan letjen
-0.7984	jalan lhoknga
-0.4871	jalan raya
-0.7984	jalan yang
-0.0202	jalil SILENCE
-0.4973	jam berapa
-0.4973	jam malam
-0.4973	jam ugm
-0.0202	jamwas syahmardan
-0.4973	jangan belum
-0.4973	jangan lupa
-0.4973	jangan sampai
-0.0202	janji SILENCE
-0.0202	jankulovski dua
-0.0202	jaringan dari
-0.0202	jasa pertanian
-0.0202	jasmi SILENCE
-0.0202	jateng SILENCE
-0.0202	jati sidi
-0.0202	jatim dki
-0.3212	jatuh SILENCE
-0.3212	jatuh pada
-0.6223	jauh dari
-0.6223	jauh hari
-0.6223	jauh jauh
-0.6223	jauh katanya
-0.0202	javnosti selalu
-0.0202	jawa timur
-0.3212	jazz dari
-0.3212	jazz society
-0.0202	jemaah dilepas
-0.0202	jembatan kesejahteraan
-0.3212	jenazah emval
-0.3212	jenazah yang
-0.3212	jenderal rusdoihardjo
-0.3212	jenderal ryamizard
-0.0202	jendral efrain
-0.0202	jenewa SILENCE
-0.4973	jenis migzen
-0.4973	jenis rdx
-0.4973	jenis yang
-0.1861	jepang SILENCE
-0.4973	jepang junichiro
-0.0202	jeremy SILENCE
-0.0202	jermain defoe
-0.0202	jerman yang
-0.0202	jet foil
-0.0202	jiaxuan dan
-0.3212	jihad SILENCE
-0.3212	jihad takzim
-0.3212	jika dipadu
-0.3212	jika saya
-0.0202	jiwanya ujar
-0.0202	jk rowling
-0.0202	joey crawford
-0.0202	john maxwell
-0.0202	joint komite
-0.0202	joko eh
-0.0202	juan felix
-0.0202	juanito renaldy
-0.0202	judy garland
-1.1341	juga dihadiri
-1.1341	juga empat
-1.1341	juga melakukan
-1.1341	juga memanggil
-1.1341	juga mengonsumsi
-1.1341	juga mengumumkan
-1.1341	juga muncul
-1.1341	juga peringatan
-1.1341	juga pernah
-1.1341	juga sudah
-1.1341	juga terjadi
-1.1341	juga tidak
-1.1341	juga wapimcab
-0.0202	jugsor sitohang
-0.4973	jumat ini
-0.4973	jumat karena
-0.4973	jumat mengingatkan
-0.0202	jumlah orang
-0.0202	jumpa pers
-0.0202	jumrah SILENCE
-0.0202	junichiro koizumi
-0.0202	juoro sia
-0.0202	jurnal bromartani
-0.0202	jurusan surabaya
-0.3212	justru disukai
-0.3212	justru penyakit
-0.4973	juta dollar
-0.4973	juta keping
-0.4973	juta rupiah
-0.0202	jutaan rupiah
-0.3212	kabar SILENCE
-0.3212	kabar al
-0.0202	kabinet akan
-0.0202	kafelnikov SILENCE
-0.3212	kaki lima
-0.3212	kaki yang
-0.0202	kalangan dimaksudkan
-0.7192	kalau belum
-0.7192	kalau dikembalikan
-0.7192	kalau itu
-0.7192	kalau mobil
-0.7192	kalau umar
-0.3212	kali SILENCE
-0.3212	kali membuat
-0.0202	kalian boleh
-0.0202	kamboja mengungguli
-0.6223	kami beritahukan
-0.6223	kami bermalam
-0.6223	kami ganti
-0.6223	kami juga
-0.0202	kamil menyebutkan
-0.0202	kampung pedongkelan
-0.0202	kampus SILENCE
-0.0202	kamtibmas dilakukan
-0.4973	kamu SILENCE
-0.4973	kamu saya
-0.4973	kamu sudah
-0.0202	kamus oxford
-0.0202	kan SILENCE
-0.0202	kanada yang
-0.0202	kanan mobil
-0.3212	kantor SILENCE
-0.3212	kantor pos
-0.6223	kapal itu
-0.6223	kapal penjelajah
-0.6223	kapal tugbot
-0.6223	kapal yang
-0.0202	kapolres aceh
-0.0202	kapolwil SILENCE
-0.0202	kapuspenkum kejakgung
-0.3212	karang melati
-0.3212	karang sarang
-0.0202	karangan bunga
-0.9744	karena alasan
-0.9744	karena belum
-0.9744	karena disergap
-0.9744	karena kesalahpahaman
-0.9744	karena mereka
-0.6632	karena sakit
-0.9744	karena terlalu
-0.9744	karena terlambat
-0.0202	karl marx
-0.0202	karo aceh
-0.3212	kartu kuning
-0.3212	kartu telepon
-0.3212	karya karya
-0.3212	karya rembrandt
-0.3212	karyawan emoi
-0.3212	karyawan tersebut
-0.0202	kasaroh SILENCE
-0.7192	kasus balkan
-0.7192	kasus penyalahgunaan
-0.7192	kasus pidana
-0.7192	kasus tersebut
-0.7192	kasus yang
-0.9233	kata abu
-0.9233	kata brigjen
-0.9233	kata hasan
-0.9233	kata mayjen
-0.9233	kata nebojsa
-0.9233	kata nuwa
-0.9233	kata sultan
-0.9233	kata yuniwati
-0.0100	katanya SILENCE
-0.0202	kathmandu setelah
-0.0202	kaufman yang
-0.4973	kawasan ini
-0.4973	kawasan kecamatan
-0.4973	kawasan pecinan
-0.0202	kayhatu berpendapat
-0.0202	kayu itu
-0.0202	kbri khairul
-1.0312	ke afganistan
-1.3424	ke amerika
-1.3424	ke arah
-1.3424	ke bangku
-1.3424	ke depan
-1.0312	ke gawang
-1.3424	ke jakarta
-1.3424	ke jepang
-1.3424	ke kantor
-1.3424	ke kotawaringin
-1.3424	ke menteri
-1.3424	ke negara
-1.0312	ke pelabuhan
-1.3424	ke pengadilan
-1.3424	ke sekolah
-1.3424	ke sulsel
-1.3424	ke taman
-1.3424	ke toilet
-0.0202	keadaan cerah
-0.0202	keadilan SILENCE
-0.0202	keajaiban dari
-0.4973	keamanan bandara
-0.4973	keamanan di
-0.4973	keamanan menemukan
-0.0202	kebetulan pada
-0.0202	kebijakan dan
-0.0202	kebohongan yang
-0.3212	kecamatan peukan
-0.3212	kecamatan rejoso
-0.0202	kecil menengah
-0.0202	kedamaian terpelihara
-0.0202	kedapatan membawa
-0.0202	kedatangan mereka
-0.6223	kedua SILENCE
-0.6223	kedua diduduki
-0.6223	kedua negara
-0.6223	kedua orang
-0.0202	keempat korban
-0.0202	keengganan mpr
-0.0202	kehadiran pasukan
-0.0202	kehancuran SILENCE
-0.0202	kehormatan SILENCE
-0.0202	kehutanan dan
-0.0202	keinginan merdeka
-0.0202	kejahatan itu
-0.0202	kejakgung muljohardjo
-0.0202	kekacauan di
-0.0202	kekalahan diderita
-0.0202	kekuatan SILENCE
-0.3212	kelas dua
-0.3212	kelas dunia
-0.0202	kelompok militan
-0.0202	keluar dari
-0.0202	keluarga kepada
-0.0202	kelurahan bukit
-0.0202	kemajuan berarti
-0.0202	kemajuannya sebab
-0.3212	kemarin malam
-0.3212	kemarin membebaskan
-0.4973	kembali di
-0.4973	kembali dia
-0.4973	kembali diperiksa
-0.3212	kembang api
-0.3212	kembang bandung
-0.0202	kemenangan pada
-0.3212	kemudian giliran
-0.3212	kemudian pemerintah
-0.4973	kemungkinan lainnya
-0.4973	kemungkinan mereka
-0.4973	kemungkinan pihak
-0.0202	kenangan dari
-0.3212	kenapa kapal
-0.3212	kenapa menkehham
-0.3212	kendala kendala
-0.3212	kendala untuk
-0.0202	kendaraan bermotor
-0.8551	kepada abdurrahman
-1.1663	kepada debitor
-1.1663	kepada hakim
-1.1663	kepada hukum
-1.1663	kepada imam
-1.1663	kepada joint
-1.1663	kepada korban
-1.1663	kepada pemegang
-1.1663	kepada sesama
-1.1663	kepada tempo
-0.6756	kepada wartawan
-0.7192	kepala bidang
-0.7192	kepala mendengar
-0.7192	kepala polisi
-0.7192	kepala polri
-0.7192	kepala seksi
-0.0202	keperluan melempar
-0.0202	keping SILENCE
-0.0202	kepolisian dan
-0.4973	keputusan kabinet
-0.4973	keputusan kata
-0.4973	keputusan presiden
-0.0202	keputusannya nanti
-0.0202	keraguan pelatih
-0.0202	kerajaan berwarna
-0.1861	kereta api
-0.4973	kereta dari
-0.0202	kerinduan keluarga
-0.0202	kerjasama bilateral
-0.0202	kesalahan ketik
-0.0202	kesalahpahaman tokoh
-0.0202	kesatria kata
-0.0202	kesatuan komando
-0.0202	kesehatan masyarakat
-0.0202	keseimbangan tubuh
-0.0202	kesejahteraan dan
-0.3212	kesepakatan damai
-0.3212	kesepakatan untuk
-0.0202	kesimpulan direktur
-0.0202	kesukaan maya
-0.0202	ketetapan berkaitan
-0.0202	ketidakcermatan presiden
-0.4973	ketiga ayam
-0.1861	ketiga warga
-0.0202	ketik kata
-0.6223	ketika berjalan
-0.6223	ketika gambar
-0.6223	ketika kuatrianus
-0.6223	ketika polri
-0.4973	ketua ha
-0.4973	ketua lajnah
-0.4973	ketua tim
-0.4973	keuangan amerika
-0.4973	keuangan berupa
-0.4973	keuangan boediono
-0.0202	kewenangan SILENCE
-0.0202	keyakinannya bahwa
-0.0202	keyboard SILENCE
-0.0202	keytimu SILENCE
-0.0202	kfc SILENCE
-0.3212	kh idris
-0.3212	kh yusuf
-0.3212	khairul SILENCE
-0.3212	khairul sulaiman
-0.0202	khaqzar adalah
-0.0202	khawatir milosevic
-0.0202	khoirul jasmi
-0.0202	khotbah jumat
-0.6223	khusus SILENCE
-0.6223	khusus arroyo
-0.6223	khusus pemerintah
-0.6223	khusus untuk
-0.0202	kinerja rupiah
-0.6223	kini berada
-0.6223	kini bersembunyi
-0.6223	kini ditempatkan
-0.6223	kini menjadi
-0.6223	kita SILENCE
-0.6223	kita bahwa
-0.6223	kita laporkan
-0.6223	kita sudah
-0.0202	kitty hawk
-0.0202	kkb berfungsi
-0.0202	klasemen sepak
-0.0202	klaten SILENCE
-0.0202	kliennya diizinkan
-0.0202	klinik dan
-0.0202	klipvideo yang
-0.0202	koizumi dan
-0.3212	kolaborasi dalam
-0.3212	kolaborasi dengan
-0.0202	kolusi dan
-0.0202	komando maluku
-0.7984	komisi SILENCE
-0.7984	komisi fatwa
-0.7984	komisi i
-0.4871	komisi konstitusi
-0.7984	komisi pemerintah
-0.0202	komite di
-0.0202	komitmen tersebut
-0.0202	komjen pol
-0.3212	komoditas cpo
-0.3212	komoditas politik
-0.0202	kompas secara
-0.0202	komponis indonesia
-0.0202	kompyang raka
-0.3212	kondisi kedamaian
-0.3212	kondisi sulit
-0.0202	konferensi pers
-0.3212	konflik SILENCE
-0.3212	konflik terjadi
-0.0202	konfrontatif tanpa
-0.0202	kongres SILENCE
-0.4973	konstitusi SILENCE
-0.4973	konstitusi hanya
-0.4973	konstitusi yang
-0.0202	konsuler kbri
-0.0202	konvoi anggota
-0.0202	kooperatif patut
-0.0202	koordinasi untuk
-0.0202	kopassus SILENCE
-0.0202	koperasi jembatan
-0.0202	kopi SILENCE
-0.3212	koran mengatakan
-0.3212	koran online
-0.3212	korban musibah
-0.3212	korban sempat
-0.0202	korps reserse
-0.0202	korupsi kolusi
-0.3212	kosong satu
-0.3212	kosong tiga
-0.6223	kota dalam
-0.6223	kota kembang
-0.6223	kota medan
-0.6223	kota semarang
-0.0202	kotawaringin barat
-0.0202	kremasi mahatma
-0.0202	kritik masyarakat
-0.0202	kroasia SILENCE
-0.0202	kuasa hukum
-0.4973	kuat dari
-0.4973	kuat sehingga
-0.4973	kuat untuk
-0.0202	kuatrianus hendak
-0.0202	kubu valencia
-0.0202	kuda pavel
-0.0202	kuman portabel
-0.0202	kumau versi
-0.0202	kuning karena
-0.0202	kunjungi museum
-0.0202	kupwara SILENCE
-0.6223	kurang berbobot
-0.6223	kurang dari
-0.6223	kurang mendidik
-0.6223	kurang tanah
-0.0202	kusdarto memulai
-0.0202	kyai haji
-0.0202	kyrgyzstan tentara
-0.0202	l tiga
-0.0202	labfor SILENCE
-0.3212	laboratorium SILENCE
-0.3212	laboratorium forensik
-0.0202	laden kini
-0.6223	lagi kepada
-0.6223	lagi melihat
-0.6223	lagi penerimaan
-0.6223	lagi zaman
-0.7192	lagu kesukaan
-0.7192	lagu lagu
-0.7192	lagu ni
-0.7192	lagu nostalgia
-0.7192	lagu white
-0.0202	lah karena
-0.0202	lahan penyebab
-1.0202	lain SILENCE
-1.0202	lain akan
-1.0202	lain black
-1.0202	lain dikoordinir
-1.0202	lain kata
-1.0202	lain lain
-1.0202	lain menyerang
-1.0202	lain roky
-0.7090	lain yang
-0.7192	lainnya SILENCE
-0.7192	lainnya adalah
-0.7192	lainnya di
-0.7192	lainnya tewas
-0.7192	lainnya yaitu
-0.0202	lajnah tandfidziyah
-0.0202	laksma franklin
-0.4871	lalu SILENCE
-0.7984	lalu di
-0.7984	lalu kapal
-0.7984	lalu lintas
-0.7984	lalu mereka
-0.3212	lama kerajaan
-0.3212	lama merindukan
-0.0202	lamgeueu kecamatan
-0.0202	lancar SILENCE
-0.0202	langit SILENCE
-0.0202	langkah presiden
-0.6223	langsung bertaburan
-0.6223	langsung ditarik
-0.6223	langsung memvonis
-0.6223	langsung menolak
-0.3212	lanjut SILENCE
-0.3212	lanjut dari
-0.0202	lanskap kota
-0.3212	lantai sepuluh
-0.3212	lantai vi
-0.0202	lapangan SILENCE
-0.0202	laporan kemajuannya
-0.0202	laporkan kepada
-0.0202	laras panjang
-0.0202	lari ke
-0.0202	laskar jihad
-0.0202	le meridien
-0.7192	lebih dari
-0.7192	lebih kuat
-0.7192	lebih lanjut
-0.7192	lebih mementingkan
-0.7192	lebih singkat
-0.0202	ledakan di
-0.0202	legendaris hollywood
-0.0202	legislatif SILENCE
-0.3212	lembaga legislatif
-0.3212	lembaga perdagangan
-0.0202	leo andyanto
-0.3212	letda aziz
-0.3212	letda jeremy
-0.0202	letjen suprapto
-0.0202	leumi dan
-0.3212	lewat manit
-0.3212	lewat penerbitan
-0.0202	lhoknga simpang
-0.0202	liga inggris
-0.0202	lihat saya
-1.1963	lima bq
-1.1963	lima desa
-1.1963	lima juta
-1.1963	lima kerjasama
-1.1963	lima kosong
-1.1963	lima lima
-1.1963	lima menit
-0.7056	lima ratus
-1.1963	lima ribu
-1.1963	lima tepat
-1.1963	lima tokoh
-1.1963	lima yang
-1.1963	lima z
