~o
<STREAMINFO> 1 39
<VECSIZE> 39<NULLD><MFCC_D_A_0><DIAGC>
~h "e"
<BEGINHMM>
<NUMSTATES> 5
<STATE> 2
<MEAN> 39
 -4.440283e+00 1.520020e+00 2.542329e+00 3.762247e+00 -3.027499e+00 -1.136919e+01 6.342225e+00 3.255238e+00 6.415025e+00 -1.070898e+01 1.958394e+00 -2.490430e+00 7.877144e+01 3.863810e-02 6.608925e-01 5.097638e-01 -3.862112e-02 1.001414e+00 -1.127404e-02 -2.845128e-01 1.219954e-01 -1.446454e-01 1.250090e-01 -3.895812e-01 2.464024e-01 1.985316e-01 -3.392764e-01 1.345111e-02 7.205269e-02 -3.473610e-01 4.856187e-01 1.361077e-02 -1.250096e-01 -1.564103e-01 -1.966870e-01 2.747108e-01 -5.173539e-02 1.707001e-01 -1.721400e-01
<VARIANCE> 39
 6.954465e+00 1.129291e+01 1.069012e+01 1.359435e+01 3.311035e+01 5.483740e+01 1.455246e+01 2.055436e+01 1.577552e+01 2.300510e+01 1.296319e+01 1.196518e+01 2.649443e+01 1.847979e+00 1.061044e+00 1.300688e+00 2.593072e+00 5.448908e+00 1.431655e+00 1.320392e+00 1.903147e+00 1.787501e+00 2.647013e+00 1.515858e+00 1.546009e+00 1.086043e+00 1.708075e-01 2.388204e-01 2.933708e-01 3.257510e-01 4.422955e-01 3.530608e-01 3.510739e-01 2.286320e-01 2.529697e-01 3.754998e-01 2.982864e-01 2.302323e-01 1.864183e-01
<GCONST> 9.915462e+01
<STATE> 3
<MEAN> 39
 -8.914003e+00 3.780573e+00 8.416432e+00 -1.589601e+00 1.217732e+01 -1.418797e+01 4.244277e+00 1.699504e+00 2.169557e+00 -6.614169e+00 -2.523762e+00 2.080210e+00 7.702360e+01 -3.277854e+00 6.521069e-01 3.718837e-01 -2.949110e+00 2.865368e+00 -1.051018e+00 -1.059192e-02 4.581560e-01 -7.270442e-01 9.597103e-01 -9.273688e-01 7.971123e-01 3.690384e-01 -3.740333e-01 4.814157e-01 -8.146055e-01 -6.872966e-02 -9.136987e-01 7.160042e-04 7.486951e-02 2.718630e-01 5.848826e-01 -3.501276e-01 4.155956e-01 -4.393021e-01 4.106454e-01
<VARIANCE> 39
 8.850170e-01 3.956598e+00 1.015640e+01 1.037292e+01 6.749517e+00 4.537682e+00 2.397079e+00 8.762775e+00 2.066955e+00 1.355610e+01 4.297328e+00 8.913748e+00 2.134557e+01 3.735824e-01 2.543217e+00 5.297293e-01 2.752548e+00 1.158760e-01 5.940636e+00 1.043311e+00 1.327468e-01 5.617136e-01 5.936521e-01 7.507396e-01 1.518441e+00 1.063349e-02 1.439093e-01 1.177147e-01 5.250814e-02 3.578653e-01 4.264526e-02 9.543986e-02 1.337416e-01 9.230508e-02 1.657062e-01 6.538687e-01 3.152319e-01 1.158473e-01 1.642850e-02
<GCONST> 5.896626e+01
<STATE> 4
<MEAN> 39
 -1.341777e+01 3.864195e+00 5.698232e+00 -3.205618e+00 1.407941e+01 -1.565019e+01 3.277971e+00 -1.168059e-01 3.421025e+00 -5.389583e+00 -3.724558e+00 2.384223e+00 7.847310e+01 -3.470350e+00 1.507853e+00 -7.680740e-01 -2.948493e+00 1.282252e+00 -5.937666e-01 7.497990e-01 8.344091e-01 6.802902e-02 3.492687e-01 -1.898796e-01 -3.665040e-02 8.170252e-01 6.171053e-02 2.564597e-01 -4.628062e-01 5.079092e-01 -1.022597e+00 1.128193e-01 -4.218081e-02 2.269292e-01 4.245357e-01 -3.622493e-01 4.606726e-01 -3.221189e-01 1.094901e-01
<VARIANCE> 39
 3.218518e+00 1.731884e+01 1.458640e+01 4.301610e+01 5.670386e+00 1.936831e+00 4.957154e+00 1.512719e+01 1.819315e+00 2.218681e+00 2.776233e+00 1.368034e+01 3.028984e+01 5.074611e-01 4.201472e+00 1.017824e+00 9.040321e-01 2.022171e-01 1.519595e+00 1.412634e+00 4.311802e-01 2.473073e+00 2.131145e+00 1.867400e+00 2.007540e+00 6.248863e-02 2.661464e-01 2.248358e-01 6.370606e-02 6.644169e-01 1.099689e-01 4.696866e-01 4.384949e-02 2.424504e-01 1.643170e-01 3.207800e-02 1.339183e-02 1.597598e-01 4.295931e-02
<GCONST> 6.847955e+01
<TRANSP> 5
 0.000000e+00 1.000000e+00 0.000000e+00 0.000000e+00 0.000000e+00
 0.000000e+00 9.062505e-01 9.374953e-02 0.000000e+00 0.000000e+00
 0.000000e+00 0.000000e+00 1.794729e-15 1.000000e+00 0.000000e+00
 0.000000e+00 0.000000e+00 0.000000e+00 0.000000e+00 1.000000e+00
 0.000000e+00 0.000000e+00 0.000000e+00 0.000000e+00 0.000000e+00
<ENDHMM>
