~o
<STREAMINFO> 1 39
<VECSIZE> 39<NULLD><MFCC_D_A_0><DIAGC>
~h "e"
<BEGINHMM>
<NUMSTATES> 5
<STATE> 2
<MEAN> 39
 -4.438429e+00 1.516952e+00 2.546744e+00 3.756607e+00 -3.021016e+00 -1.137617e+01 6.349257e+00 3.247729e+00 6.423505e+00 -1.071868e+01 1.968731e+00 -2.500278e+00 7.877074e+01 3.935020e-02 6.597860e-01 5.111678e-01 -4.013809e-02 1.002908e+00 -1.278453e-02 -2.830791e-01 1.207123e-01 -1.435697e-01 1.241222e-01 -3.887244e-01 2.456250e-01 1.982497e-01 -3.389627e-01 1.297304e-02 7.267094e-02 -3.481143e-01 4.864539e-01 1.275989e-02 -1.242096e-01 -1.571367e-01 -1.960120e-01 2.741292e-01 -5.122723e-02 1.702333e-01 -1.722690e-01
<VARIANCE> 39
 6.960704e+00 1.127164e+01 1.072133e+01 1.357474e+01 3.318285e+01 5.483012e+01 1.446372e+01 2.054390e+01 1.577545e+01 2.293953e+01 1.292781e+01 1.193623e+01 2.649829e+01 1.847145e+00 1.064207e+00 1.297816e+00 2.591934e+00 5.457542e+00 1.439759e+00 1.309811e+00 1.905965e+00 1.783825e+00 2.638093e+00 1.507688e+00 1.543920e+00 1.086138e+00 1.714192e-01 2.388260e-01 2.931632e-01 3.244115e-01 4.432109e-01 3.536205e-01 3.482757e-01 2.293002e-01 2.528620e-01 3.735986e-01 2.973663e-01 2.305816e-01 1.863791e-01
<GCONST> 9.912115e+01
<STATE> 3
<MEAN> 39
 -8.900211e+00 3.759457e+00 8.444100e+00 -1.622641e+00 1.221422e+01 -1.422668e+01 4.282500e+00 1.661930e+00 2.206742e+00 -6.649959e+00 -2.489687e+00 2.049859e+00 7.701813e+01 -3.279029e+00 6.536907e-01 3.699761e-01 -2.946816e+00 2.862625e+00 -1.048303e+00 -1.280338e-02 4.597568e-01 -7.284964e-01 9.618074e-01 -9.301568e-01 8.002590e-01 3.695106e-01 -3.749857e-01 4.828434e-01 -8.165095e-01 -6.649356e-02 -9.161426e-01 3.417857e-03 7.208111e-02 2.747079e-01 5.820082e-01 -3.473971e-01 4.129468e-01 -4.366024e-01 4.110097e-01
<VARIANCE> 39
 8.791025e-01 3.961943e+00 1.029043e+01 1.033796e+01 6.884601e+00 4.417809e+00 2.297863e+00 8.792681e+00 2.073061e+00 1.348351e+01 4.184803e+00 9.067121e+00 2.138370e+01 3.716203e-01 2.551377e+00 5.239964e-01 2.754495e+00 1.166199e-01 5.949312e+00 1.050858e+00 1.330874e-01 5.634730e-01 5.914233e-01 7.518967e-01 1.509475e+00 1.051951e-02 1.437021e-01 1.174068e-01 5.270049e-02 3.574693e-01 4.269275e-02 9.625570e-02 1.335173e-01 9.318172e-02 1.642335e-01 6.547697e-01 3.145745e-01 1.173743e-01 1.644869e-02
<GCONST> 5.892488e+01
<STATE> 4
<MEAN> 39
 -1.341132e+01 3.854427e+00 5.710772e+00 -3.219489e+00 1.409371e+01 -1.566546e+01 3.292250e+00 -1.295148e-01 3.430972e+00 -5.397902e+00 -3.716418e+00 2.376893e+00 7.847074e+01 -3.472630e+00 1.511194e+00 -7.724143e-01 -2.943284e+00 1.276400e+00 -5.876535e-01 7.436228e-01 8.403590e-01 6.194494e-02 3.552795e-01 -1.957569e-01 -3.077189e-02 8.178739e-01 6.156484e-02 2.567720e-01 -4.632542e-01 5.082734e-01 -1.022786e+00 1.131260e-01 -4.253912e-02 2.274552e-01 4.240144e-01 -3.619433e-01 4.605018e-01 -3.219865e-01 1.095326e-01
<VARIANCE> 39
 3.204191e+00 1.739344e+01 1.462964e+01 4.293353e+01 5.695824e+00 1.978277e+00 4.888536e+00 1.522576e+01 1.826207e+00 2.187659e+00 2.797058e+00 1.354873e+01 3.031403e+01 5.062787e-01 4.199485e+00 1.016248e+00 9.081689e-01 2.045213e-01 1.513019e+00 1.411260e+00 4.343091e-01 2.466341e+00 2.132687e+00 1.865290e+00 2.018087e+00 6.269056e-02 2.658729e-01 2.255121e-01 6.273475e-02 6.655746e-01 1.086263e-01 4.709423e-01 4.452197e-02 2.448347e-01 1.628015e-01 3.268854e-02 1.314712e-02 1.587473e-01 4.300132e-02
<GCONST> 6.849525e+01
<TRANSP> 5
 0.000000e+00 1.000000e+00 0.000000e+00 0.000000e+00 0.000000e+00
 0.000000e+00 9.062498e-01 9.375018e-02 0.000000e+00 0.000000e+00
 0.000000e+00 0.000000e+00 4.108942e-16 1.000000e+00 0.000000e+00
 0.000000e+00 0.000000e+00 0.000000e+00 0.000000e+00 1.000000e+00
 0.000000e+00 0.000000e+00 0.000000e+00 0.000000e+00 0.000000e+00
<ENDHMM>
