~o
<STREAMINFO> 1 39
<VECSIZE> 39<NULLD><MFCC_D_A_0><DIAGC>
~h "k"
<BEGINHMM>
<NUMSTATES> 5
<STATE> 2
<MEAN> 39
 -1.082656e+01 -1.858166e+00 -7.149587e-01 -1.815088e+00 1.227905e+01 -9.511960e+00 2.738460e+00 2.369693e+00 3.810561e+00 4.705682e-01 1.721477e+00 2.053581e+00 6.993618e+01 1.394101e+00 2.602016e-01 9.864905e-02 -2.359618e-01 -2.780427e+00 1.882844e+00 9.456775e-01 -1.640114e+00 -7.586518e-03 -4.571784e-02 -8.176263e-01 1.497634e-01 -1.284507e+00 -6.671103e-01 3.561409e-01 3.391673e-01 -6.833261e-01 2.534642e-02 3.232042e-02 1.517799e-01 -1.049314e-01 -2.700970e-01 -1.156347e-01 8.373227e-02 -8.818327e-02 5.977758e-01
<VARIANCE> 39
 8.489220e+00 9.485380e+00 9.109601e+00 2.779567e+00 2.550910e+01 3.583394e+01 6.578896e+00 7.072114e+00 7.630976e+00 6.634503e+00 2.827733e+01 6.566494e+00 6.640426e+00 2.016711e+00 4.710318e-01 1.337224e+00 2.063189e+00 7.533912e-01 1.508907e+00 7.944005e-01 1.013228e-01 1.330665e+00 9.490605e-01 8.467411e-01 1.244222e+00 1.723789e+00 1.342840e-01 1.536693e-01 4.354275e-01 1.779813e-01 3.468014e-01 5.191867e-01 1.814521e-01 9.235566e-02 1.830815e-01 1.153463e-01 2.201531e-01 2.202543e-01 2.876508e-01
<GCONST> 8.002753e+01
<STATE> 3
<MEAN> 39
 -1.028522e+01 -4.613839e-01 1.388406e+00 -5.028246e+00 9.565859e+00 -6.034947e+00 4.836080e+00 -1.059383e+00 3.650313e+00 1.605951e+00 -3.908543e-01 8.011320e-01 6.882554e+01 1.948758e-01 6.376078e-02 -4.825679e-02 -2.234144e+00 -1.612057e+00 2.266976e+00 7.298089e-01 -1.634470e+00 -1.755904e+00 -4.185274e-01 -1.391099e-01 -9.241287e-01 4.050837e-01 -5.850527e-02 -1.424369e-01 -1.407768e-01 2.901458e-01 6.261655e-01 -5.660467e-01 -5.102429e-01 5.150356e-01 -4.331065e-02 -4.569640e-01 2.608694e-01 -3.596690e-01 3.645528e-01
<VARIANCE> 39
 3.433033e+00 2.540087e+00 6.563392e+00 2.538211e+00 1.614583e+01 2.301974e+01 1.604639e+01 1.721271e+01 7.811931e+00 2.097788e+01 7.426060e+00 4.627229e+00 8.745385e-01 1.223851e-01 2.670241e-02 2.941821e-01 2.972429e-02 1.605153e+00 2.559059e+00 3.712152e-01 1.311301e+00 9.505907e-01 2.610879e+00 5.726263e-01 4.993996e-01 7.365682e-01 1.103946e-01 2.309993e-02 1.389090e-01 7.728774e-02 2.593966e-01 4.743958e-01 2.612923e-01 5.411896e-02 6.480940e-02 3.785693e-01 7.233129e-02 1.491622e-03 1.423348e-02
<GCONST> 5.232453e+01
<STATE> 4
<MEAN> 39
 -9.899303e+00 -1.918324e+00 -4.023227e-01 -7.613514e+00 4.855414e+00 -4.636988e+00 1.958240e+00 -1.507947e+00 -2.125570e+00 -2.129187e+00 -4.896516e-01 -1.716641e+00 7.038322e+01 3.944574e-01 1.862764e-01 2.108568e-01 -1.554268e-01 -7.215442e-01 -6.808756e-01 -1.191603e+00 5.211607e-02 -2.655092e-01 -5.566290e-01 7.530381e-01 -9.278699e-01 1.591859e-01 1.759122e-02 1.017621e-01 -1.088399e-01 5.231355e-01 6.842903e-01 -6.980619e-01 -2.354361e-01 2.887492e-01 9.438898e-01 4.904422e-01 5.659295e-01 4.954219e-02 3.904776e-02
<VARIANCE> 39
 4.409489e-01 3.479354e-01 3.493437e+00 1.456870e+01 2.001832e+01 2.275167e+01 3.387086e+01 5.172433e+00 2.372193e+01 1.435829e+01 6.725041e+00 8.645909e+00 3.056791e+00 6.036327e-01 2.308686e-01 4.176685e-01 2.281406e-01 1.177032e+00 1.716525e+00 1.190023e+00 4.374608e-01 9.500478e-01 3.588789e+00 1.956016e+00 5.313345e-01 3.730594e-01 2.014735e-01 7.194693e-02 1.328947e-01 2.682447e-01 5.661311e-01 3.648388e-01 7.677848e-01 4.758717e-01 6.806628e-02 2.317896e-01 1.041970e-01 2.086342e-01 6.912920e-02
<GCONST> 7.123698e+01
<TRANSP> 5
 0.000000e+00 1.000000e+00 0.000000e+00 0.000000e+00 0.000000e+00
 0.000000e+00 6.249992e-01 3.750008e-01 0.000000e+00 0.000000e+00
 0.000000e+00 0.000000e+00 2.499982e-01 7.500018e-01 0.000000e+00
 0.000000e+00 0.000000e+00 0.000000e+00 5.714297e-01 4.285704e-01
 0.000000e+00 0.000000e+00 0.000000e+00 0.000000e+00 0.000000e+00
<ENDHMM>
