~o
<STREAMINFO> 1 39
<VECSIZE> 39<NULLD><MFCC_D_A_0><DIAGC>
~h "k"
<BEGINHMM>
<NUMSTATES> 5
<STATE> 2
<MEAN> 39
 -1.084022e+01 -1.837932e+00 -7.404629e-01 -1.784196e+00 1.224323e+01 -9.474463e+00 2.702026e+00 2.403530e+00 3.777680e+00 5.020565e-01 1.691602e+00 2.080431e+00 6.994170e+01 1.391944e+00 2.633563e-01 9.441354e-02 -2.299927e-01 -2.788194e+00 1.891159e+00 9.376763e-01 -1.632376e+00 -1.562896e-02 -3.710511e-02 -8.254322e-01 1.558001e-01 -1.283590e+00 -6.658727e-01 3.543557e-01 3.413542e-01 -6.859414e-01 2.844884e-02 2.917654e-02 1.545997e-01 -1.072699e-01 -2.679408e-01 -1.177692e-01 8.588943e-02 -9.014481e-02 5.972669e-01
<VARIANCE> 39
 8.406866e+00 9.525103e+00 8.976016e+00 2.781767e+00 2.580138e+01 3.648185e+01 6.338310e+00 6.955156e+00 7.593725e+00 6.629508e+00 2.798689e+01 6.668369e+00 6.614879e+00 2.001271e+00 4.664292e-01 1.319790e+00 2.091065e+00 7.726452e-01 1.549577e+00 7.788620e-01 1.140703e-01 1.302670e+00 9.428136e-01 8.533116e-01 1.235297e+00 1.719506e+00 1.326579e-01 1.550697e-01 4.312600e-01 1.791861e-01 3.559259e-01 5.344523e-01 1.755546e-01 9.238080e-02 1.755815e-01 1.189272e-01 2.237767e-01 2.190995e-01 2.867658e-01
<GCONST> 8.009542e+01
<STATE> 3
<MEAN> 39
 -1.028420e+01 -4.621447e-01 1.389015e+00 -5.028457e+00 9.564536e+00 -6.032571e+00 4.833126e+00 -1.054662e+00 3.640829e+00 1.619976e+00 -4.088759e-01 8.190155e-01 6.882513e+01 1.976305e-01 6.001486e-02 -4.338906e-02 -2.241259e+00 -1.602203e+00 2.255753e+00 7.406301e-01 -1.644080e+00 -1.746866e+00 -4.279062e-01 -1.301670e-01 -9.315198e-01 4.039397e-01 -5.931553e-02 -1.411367e-01 -1.424641e-01 2.919585e-01 6.243779e-01 -5.640104e-01 -5.126401e-01 5.172764e-01 -4.457181e-02 -4.568641e-01 2.614745e-01 -3.601806e-01 3.648694e-01
<VARIANCE> 39
 3.416741e+00 2.579798e+00 6.441990e+00 2.626695e+00 1.593295e+01 2.341452e+01 1.574817e+01 1.738760e+01 7.945667e+00 2.094361e+01 7.299932e+00 4.682952e+00 8.776915e-01 1.184040e-01 2.548579e-02 2.880434e-01 3.521872e-02 1.581150e+00 2.624725e+00 3.834472e-01 1.343050e+00 9.293683e-01 2.668524e+00 5.496762e-01 5.044941e-01 7.317274e-01 1.103079e-01 2.264627e-02 1.383441e-01 7.515439e-02 2.598926e-01 4.812020e-01 2.578586e-01 5.499137e-02 6.764820e-02 3.793249e-01 7.207997e-02 1.725964e-03 1.429682e-02
<GCONST> 5.261509e+01
<STATE> 4
<MEAN> 39
 -9.900289e+00 -1.915972e+00 -4.053854e-01 -7.612653e+00 4.857945e+00 -4.641101e+00 1.961776e+00 -1.511201e+00 -2.119970e+00 -2.139557e+00 -4.749432e-01 -1.732177e+00 7.038361e+01 3.927927e-01 1.889611e-01 2.069795e-01 -1.506464e-01 -7.270927e-01 -6.742101e-01 -1.199376e+00 6.023631e-02 -2.722571e-01 -5.518813e-01 7.499694e-01 -9.253497e-01 1.598339e-01 1.777953e-02 1.013321e-01 -1.083368e-01 5.228850e-01 6.842122e-01 -6.980938e-01 -2.352221e-01 2.886803e-01 9.433553e-01 4.919304e-01 5.636612e-01 5.198241e-02 3.898003e-02
<VARIANCE> 39
 4.483514e-01 3.326551e-01 3.538112e+00 1.459152e+01 1.989955e+01 2.268702e+01 3.402131e+01 5.220956e+00 2.364370e+01 1.449769e+01 6.691547e+00 8.735946e+00 3.044452e+00 6.052611e-01 2.303472e-01 4.092391e-01 2.257515e-01 1.162346e+00 1.722248e+00 1.209921e+00 4.550890e-01 9.482050e-01 3.638017e+00 1.940899e+00 5.384554e-01 3.712700e-01 2.036034e-01 6.997514e-02 1.316008e-01 2.688561e-01 5.536069e-01 3.590930e-01 7.828830e-01 4.907734e-01 6.828767e-02 2.393288e-01 1.035573e-01 2.140534e-01 6.850194e-02
<GCONST> 7.129734e+01
<TRANSP> 5
 0.000000e+00 1.000000e+00 0.000000e+00 0.000000e+00 0.000000e+00
 0.000000e+00 6.249997e-01 3.750003e-01 0.000000e+00 0.000000e+00
 0.000000e+00 0.000000e+00 2.499981e-01 7.500019e-01 0.000000e+00
 0.000000e+00 0.000000e+00 0.000000e+00 5.714290e-01 4.285710e-01
 0.000000e+00 0.000000e+00 0.000000e+00 0.000000e+00 0.000000e+00
<ENDHMM>
