~o
<STREAMINFO> 1 39
<VECSIZE> 39<NULLD><MFCC_D_A_0><DIAGC>
~h "p"
<BEGINHMM>
<NUMSTATES> 5
<STATE> 2
<MEAN> 39
 -7.137708e+00 5.160060e-01 2.108237e+00 -5.033344e+00 1.069532e+01 -2.560208e+00 2.608400e+00 -2.735875e+00 2.413249e+00 1.112949e+00 5.949904e+00 -2.915818e+00 6.906674e+01 -1.436243e+00 -1.093916e+00 3.187322e-01 -1.348750e+00 -1.665593e+00 -7.665824e-01 -9.037799e-01 5.513377e-01 -7.252459e-01 1.930259e-01 -2.762939e-01 3.803679e-01 -7.915456e-01 2.051130e-01 -2.242677e-02 -4.038137e-01 7.895132e-02 -3.825354e-01 1.505020e-02 2.765022e-01 2.180456e-02 1.985092e-01 -2.888142e-01 -6.776451e-01 -4.611788e-01 2.503875e-01
<VARIANCE> 39
 2.769159e+00 9.516498e+00 3.527081e+00 1.501528e+01 1.313898e+01 3.464308e+00 1.711793e+01 3.690138e+00 9.316547e+00 8.928340e+00 4.833111e+00 1.256260e+01 9.151153e-01 2.415600e-01 1.046244e+00 5.711296e-01 6.329776e-01 1.345213e+00 4.928703e-01 7.072538e-01 4.059891e-01 1.315921e+00 5.303475e-01 2.447478e+00 2.369447e+00 2.218339e-01 6.572502e-02 1.725911e-01 6.814021e-02 3.035354e-01 3.727878e-01 1.079025e-01 1.434433e-01 3.805525e-02 1.740827e-01 1.731309e-01 2.135733e-01 3.756343e-01 6.294364e-03
<GCONST> 6.328698e+01
<STATE> 3
<MEAN> 39
 -9.067468e+00 -6.258082e-01 1.694350e+00 -5.608795e+00 7.776476e+00 -4.473167e+00 2.377002e+00 -1.827505e+00 -4.767160e-01 -3.542467e-01 2.336005e+00 -7.458472e-01 6.791537e+01 1.738830e-02 1.402807e-01 7.308629e-02 1.866351e-01 1.633421e-01 -1.987270e-01 3.602417e-02 2.205113e-01 1.610640e-01 -1.624897e-01 1.100776e-01 4.060270e-01 1.098664e-01 1.741483e-01 1.003220e-01 -2.547332e-02 1.163618e-01 1.689419e-01 1.406440e-01 6.707650e-02 -9.242037e-02 1.482560e-01 4.551367e-03 1.917337e-01 -1.349615e-01 1.520466e-01
<VARIANCE> 39
 9.452173e-01 4.548398e+00 5.991183e+00 7.602432e+00 9.731372e+00 6.732409e+00 1.591969e+01 8.862914e+00 1.998282e+01 8.664278e+00 1.292624e+01 2.403709e+01 6.162800e-01 2.239656e-01 3.697296e-01 4.818812e-01 5.604228e-01 1.072675e+00 1.157240e+00 2.080824e+00 1.078224e+00 1.341944e+00 1.086744e+00 1.983748e+00 1.483377e+00 2.769006e-01 5.974358e-02 8.942498e-02 1.214434e-01 1.841693e-01 3.408192e-01 2.444674e-01 3.383342e-01 3.432279e-01 2.318935e-01 1.913106e-01 3.502629e-01 4.406801e-01 4.094647e-02
<GCONST> 7.204169e+01
<STATE> 4
<MEAN> 39
 -4.033565e+00 1.926119e+00 -1.243750e+00 -2.149694e+00 8.088209e+00 -7.637174e-01 5.508399e+00 -3.261923e+00 4.514997e+00 -1.786712e+00 6.656615e+00 -6.834529e+00 7.359037e+01 1.085309e+00 1.278567e-01 -1.354654e+00 7.184022e-01 -5.805808e-01 8.920352e-01 8.297567e-01 -1.303322e+00 9.119391e-03 -2.277129e-01 4.263315e-01 -2.661050e+00 1.072330e+00 -1.300227e-01 -8.394606e-02 -6.641170e-02 -3.811310e-02 -2.995727e-01 -2.233555e-01 1.000405e-01 5.592565e-02 -2.631634e-01 3.934398e-02 -1.639294e-01 -4.689445e-02 -1.468986e-01
<VARIANCE> 39
 1.293281e+01 3.357667e+00 2.472643e+01 1.529471e+01 1.527454e+01 1.405093e+01 1.113144e+01 1.883558e+01 1.115923e+01 9.718428e+00 3.071487e+00 6.037590e+01 1.167027e+01 7.656550e-01 5.993111e-01 2.144124e+00 1.405739e+00 2.151287e+00 2.218498e+00 7.828730e-01 2.334136e+00 1.943803e+00 6.301534e-01 3.664315e-01 1.679372e+00 9.679064e-01 1.663415e-01 1.249203e-01 4.479610e-01 2.151417e-01 2.526379e-01 4.996925e-01 2.109416e-01 6.433429e-01 2.980661e-01 1.286571e-01 6.332590e-02 5.876600e-01 7.936773e-02
<GCONST> 8.727296e+01
<TRANSP> 5
 0.000000e+00 1.000000e+00 0.000000e+00 0.000000e+00 0.000000e+00
 0.000000e+00 6.250963e-01 3.749037e-01 0.000000e+00 0.000000e+00
 0.000000e+00 0.000000e+00 9.117569e-01 8.824316e-02 0.000000e+00
 0.000000e+00 0.000000e+00 0.000000e+00 8.000144e-01 1.999855e-01
 0.000000e+00 0.000000e+00 0.000000e+00 0.000000e+00 0.000000e+00
<ENDHMM>
