~o
<STREAMINFO> 1 39
<VECSIZE> 39<NULLD><MFCC_D_A_0><DIAGC>
~h "s"
<BEGINHMM>
<NUMSTATES> 5
<STATE> 2
<MEAN> 39
 -1.975212e+01 5.437759e+00 4.144718e+00 -5.921470e+00 1.558710e+01 -1.571793e+01 3.198594e+00 3.889309e+00 3.074668e+00 -3.421744e+00 -6.081374e-01 2.077970e+00 7.856104e+01 -6.409517e-01 -5.767416e-01 -6.089219e-01 -1.283867e-01 8.285311e-01 1.143744e-01 -3.344826e-01 6.110893e-01 1.925236e-01 7.094705e-01 7.063496e-01 -5.597293e-02 -4.161860e-01 6.637381e-01 -2.916365e-01 -1.457371e-01 3.651277e-01 -3.925417e-01 2.460566e-01 -1.118341e-02 -1.150444e-01 4.005513e-02 -6.785594e-02 9.482334e-02 -7.822885e-02 -2.370538e-01
<VARIANCE> 39
 2.009223e+01 2.119648e+01 2.445619e+01 3.056563e+01 1.710114e+01 6.321877e+00 1.715800e+01 1.144117e+01 1.061568e+01 1.274638e+01 1.472075e+01 1.205364e+01 1.526830e+01 5.460481e+00 3.338085e+00 1.826275e+00 2.295731e+00 2.054048e+00 1.107242e+00 9.544339e-01 1.163470e+00 9.953545e-01 1.390937e+00 1.336717e+00 1.608217e+00 9.481743e-01 2.366627e-01 4.881940e-01 3.567368e-01 3.693542e-01 6.162214e-01 1.902634e-01 1.438340e-01 2.865008e-01 2.289326e-01 3.070574e-01 3.053736e-01 3.750471e-01 1.199804e-01
<GCONST> 9.696322e+01
<STATE> 3
<MEAN> 39
 -1.469488e+01 -1.991213e+00 1.318430e+00 -3.719925e+00 1.881599e+01 -1.208090e+01 2.634990e-01 6.924627e+00 3.773556e+00 7.785532e-01 5.077559e+00 3.991574e+00 7.373274e+01 2.543189e+00 -1.109646e+00 -1.476291e+00 3.310746e-01 -1.962915e+00 1.297247e+00 3.989674e-01 -1.141887e+00 -6.730129e-01 -1.315616e-01 -4.395583e-01 2.395027e-01 -1.836492e+00 -1.999584e-01 7.576727e-01 2.653251e-01 -3.070397e-01 -1.162128e+00 2.951769e-01 3.550708e-01 -8.230870e-01 -2.456238e-01 -3.164950e-01 -7.687678e-01 -1.345232e-01 -5.375152e-02
<VARIANCE> 39
 1.112938e+01 2.101645e+00 2.491934e+00 7.846004e+00 5.539261e+00 7.618079e-01 2.144042e+00 2.055720e+00 5.486794e+00 9.115373e+00 3.069660e+01 1.084513e+01 7.989723e+00 1.280600e+00 2.383927e-01 3.102824e+00 1.920487e+00 8.178342e-01 1.744325e-01 5.711331e-01 7.859107e-01 2.692172e-02 9.388832e-01 4.234916e-01 8.328796e-01 1.291949e+00 1.159282e-01 4.884810e-02 9.133749e-02 2.968401e-02 2.012597e-01 2.892551e-01 6.793530e-02 8.806032e-02 5.251825e-01 4.266985e-03 1.696744e-01 4.130992e-01 1.396244e-01
<GCONST> 5.613591e+01
<STATE> 4
<MEAN> 39
 -1.398486e+01 -4.623975e+00 -2.875012e+00 -3.248717e+00 1.607059e+01 -1.335688e+01 4.994782e-01 3.637677e+00 3.944013e+00 1.483108e+00 4.062514e+00 1.890385e+00 7.245015e+01 2.115909e+00 -1.712545e-01 -5.602438e-01 5.222740e-01 -2.773291e+00 1.894608e+00 4.892290e-01 -1.584465e+00 -2.916686e-01 -3.144538e-01 -1.496656e+00 -1.402091e-01 -1.698435e+00 -4.362502e-01 7.504241e-01 6.428238e-01 -3.367844e-01 -5.388321e-01 2.909213e-01 2.457472e-01 -3.549886e-01 -3.701857e-02 9.319622e-03 -4.174132e-01 -1.648375e-01 1.865524e-01
<VARIANCE> 39
 6.606217e-01 8.107585e+00 5.397810e+00 3.054782e-01 3.575736e+01 9.105253e+00 3.529753e+00 1.954634e+00 9.703277e+00 8.447945e+00 2.724545e+01 1.268284e+01 6.270557e+00 2.092332e+00 3.815853e-01 1.823839e+00 2.120319e+00 7.460349e-01 1.035578e+00 1.179553e-01 1.595661e-01 2.080055e+00 1.234490e+00 3.390489e-01 2.624163e+00 1.797181e+00 2.230854e-02 6.239893e-02 2.554445e-01 9.234473e-02 2.877385e-01 4.723796e-02 1.749257e-01 3.809128e-03 2.690059e-01 9.583201e-02 1.662296e-01 1.827007e-01 7.772992e-02
<GCONST> 6.032603e+01
<TRANSP> 5
 0.000000e+00 1.000000e+00 0.000000e+00 0.000000e+00 0.000000e+00
 0.000000e+00 8.800001e-01 1.199999e-01 0.000000e+00 0.000000e+00
 0.000000e+00 0.000000e+00 0.000000e+00 1.000000e+00 0.000000e+00
 0.000000e+00 0.000000e+00 0.000000e+00 0.000000e+00 1.000000e+00
 0.000000e+00 0.000000e+00 0.000000e+00 0.000000e+00 0.000000e+00
<ENDHMM>
