~o
<STREAMINFO> 1 39
<VECSIZE> 39<NULLD><MFCC_D_A_0><DIAGC>
~h "t"
<BEGINHMM>
<NUMSTATES> 5
<STATE> 2
<MEAN> 39
 -5.681296e+00 -7.337478e+00 1.419556e+00 -2.191746e+00 -6.366799e+00 4.246985e+00 -6.420567e+00 2.271763e+00 1.894609e+00 -4.436094e+00 1.598381e+00 -3.675637e+00 3.721831e+01 -1.326330e+00 -1.300230e-01 -1.175458e-01 4.233403e-01 5.364785e-01 6.875202e-02 5.434531e-01 -1.816400e-01 -4.831188e-01 2.478375e-01 2.312415e-01 4.248963e-01 -9.997329e-01 2.869182e-01 -1.235064e-01 -6.222400e-02 -1.831501e-01 -1.230580e-01 2.835627e-02 -1.182115e-01 5.355911e-02 1.160127e-01 -2.774284e-02 -1.363733e-02 -4.123352e-02 2.718981e-01
<VARIANCE> 39
 3.861650e+01 1.926471e+01 8.923498e+00 1.226179e+01 1.797103e+01 1.077058e+01 1.628585e+01 1.817505e+01 1.609967e+01 1.589073e+01 1.474296e+01 1.345275e+01 1.604408e+01 1.579151e+00 1.599473e+00 9.489487e-01 1.608154e+00 1.694045e+00 1.104687e+00 1.693816e+00 1.901109e+00 1.586071e+00 1.652757e+00 1.427566e+00 1.272598e+00 1.243758e+00 1.575471e-01 3.772428e-01 2.703327e-01 2.914254e-01 2.921387e-01 2.601971e-01 3.017818e-01 4.101354e-01 2.939544e-01 3.663490e-01 2.645668e-01 2.881919e-01 8.251947e-02
<GCONST> 9.514719e+01
<STATE> 3
<MEAN> 39
 -8.263422e+00 -7.258513e+00 1.156490e+00 -1.269366e+00 -3.991038e+00 5.499660e+00 -4.629256e+00 2.512485e+00 7.619625e-01 -3.026936e+00 3.657328e+00 -1.054245e+00 3.524938e+01 2.071195e+00 1.723184e+00 1.012495e+00 -4.775042e-01 -1.235455e+00 -1.250829e+00 -1.295635e+00 -9.520597e-01 -3.362122e-01 8.708529e-02 1.219724e-01 -3.078598e-01 1.102816e+00 8.677292e-01 4.359699e-01 5.309734e-01 -2.882931e-01 -9.735840e-01 -6.054702e-01 -7.466927e-01 -4.938233e-01 1.033364e-04 -8.594353e-02 -6.304016e-02 -2.446564e-01 5.820639e-01
<VARIANCE> 39
 1.271572e+01 1.487040e+01 1.177067e+01 1.443309e+01 1.741480e+01 1.164552e+01 1.236030e+01 1.843342e+01 1.213689e+01 1.265903e+01 1.286927e+01 1.176379e+01 4.191957e+00 2.454883e+00 2.744376e+00 3.473634e+00 2.246438e+00 3.690534e+00 2.996532e+00 2.787767e+00 2.856789e+00 1.860298e+00 1.843180e+00 1.292487e+00 1.155719e+00 1.052607e+00 2.314630e-01 3.662218e-01 4.513503e-01 3.679333e-01 6.135810e-01 4.242853e-01 3.602905e-01 4.043058e-01 3.669086e-01 2.249923e-01 2.797929e-01 2.633876e-01 1.613018e-01
<GCONST> 9.994617e+01
<STATE> 4
<MEAN> 39
 3.269349e+00 -1.123479e-01 6.806863e+00 -4.862695e+00 -1.382557e+01 -1.943585e+00 -1.260505e+01 -2.176948e+00 4.788190e-01 -3.665169e+00 3.115996e+00 -3.840982e+00 4.224799e+01 3.111194e+00 5.723622e-01 1.998325e+00 -1.451202e+00 -3.722822e+00 -1.196252e+00 -2.538006e+00 -1.354571e+00 4.555612e-01 -2.031426e-01 3.428208e-01 -5.650592e-01 2.569113e+00 -6.056781e-01 -8.061670e-01 -2.883843e-01 6.213563e-03 3.888663e-01 8.592100e-01 4.049139e-01 1.211356e-01 1.031292e-01 -9.187570e-02 4.582477e-02 1.507771e-01 -1.639898e-01
<VARIANCE> 39
 3.459162e+01 2.719636e+01 5.654663e+01 4.397218e+01 5.973612e+01 2.959992e+01 2.761764e+01 2.490596e+01 2.716989e+01 2.282577e+01 1.152442e+01 9.055007e+00 2.122437e+01 3.268939e+00 5.131877e+00 5.541880e+00 2.837030e+00 7.615652e+00 5.691478e+00 3.176999e+00 2.527356e+00 2.547551e+00 9.025853e-01 1.357655e+00 1.251717e+00 2.098932e+00 3.924289e-01 3.434042e-01 4.454105e-01 4.396093e-01 1.052243e+00 6.721377e-01 5.498898e-01 4.022482e-01 3.960564e-01 2.895028e-01 2.450596e-01 1.870286e-01 2.176956e-01
<GCONST> 1.157552e+02
<TRANSP> 5
 0.000000e+00 1.000000e+00 0.000000e+00 0.000000e+00 0.000000e+00
 0.000000e+00 8.739778e-01 1.260221e-01 0.000000e+00 0.000000e+00
 0.000000e+00 0.000000e+00 6.015468e-01 3.984531e-01 0.000000e+00
 0.000000e+00 0.000000e+00 0.000000e+00 5.202898e-01 4.797103e-01
 0.000000e+00 0.000000e+00 0.000000e+00 0.000000e+00 0.000000e+00
<ENDHMM>
