~o
<STREAMINFO> 1 39
<VECSIZE> 39<NULLD><MFCC_D_A_0><DIAGC>
<PARENTXFORM>~a "SEMITIED"
~h "a"
<BEGINHMM>
<NUMSTATES> 6
<STATE> 2
<MEAN> 39
 -5.547429e+01 -4.351430e+01 -2.518795e+01 6.473035e+00 4.215272e+00 6.676274e+00 8.321420e+00 -4.691922e+00 -4.950915e-02 6.109084e-01 -2.713405e+00 7.257838e+00 1.187921e+01 -1.414270e-01 3.348697e+00 -7.871901e-01 -7.623470e-01 -7.757254e-01 1.052438e+00 3.253528e-02 -1.316917e-01 1.684388e+00 -2.527308e+00 9.641375e-02 1.241100e+00 3.173167e+00 3.313451e-01 2.650507e+00 4.916008e-01 -8.660003e-02 -5.246360e-01 -4.349939e-01 1.310613e-01 -1.010182e+00 4.612856e-02 -1.370131e+00 1.894994e-01 6.020591e-01 8.330376e-01
<VARIANCE> 39
 2.132243e+01 2.157088e+01 7.143845e+01 2.336247e+01 9.725645e+01 3.977325e+01 6.578522e+01 1.231652e+02 5.913480e+01 4.999687e+01 6.159385e+01 4.150503e+01 4.215266e+01 9.082104e-01 2.085769e+00 1.849142e+00 2.094768e+00 4.233522e+00 2.550478e+00 3.193356e+00 3.847947e+00 3.683949e+00 2.928087e+00 5.592773e+00 3.129582e+00 7.845871e+00 4.127481e-01 7.654392e-01 3.682568e-01 4.102155e-01 6.648448e-01 5.220437e-01 6.193772e-01 7.060663e-01 5.780348e-01 3.612463e-01 7.117399e-01 3.454853e-01 4.993550e-01
<GCONST> 1.276587e+02
<STATE> 3
<MEAN> 39
 -5.695171e+01 -4.528254e+01 -2.497886e+01 4.900915e+00 4.747074e+00 3.976404e+00 8.922859e+00 -2.651191e+00 7.901680e-01 -4.864677e+00 -1.763615e+00 6.680610e+00 1.426448e+01 3.615360e-01 2.719546e+00 -6.957459e-01 -6.959593e-01 -1.279137e+00 6.951378e-01 2.853468e-01 -1.040436e+00 -3.909786e-02 -1.639157e+00 -5.576063e-01 5.981911e-01 -5.495548e-01 5.350435e-01 2.239374e+00 6.153100e-01 -1.711624e-01 -4.902635e-01 -3.825479e-01 1.110110e-01 -9.260172e-01 6.404168e-01 -1.330111e+00 2.365005e-01 4.054419e-01 1.564167e+00
<VARIANCE> 39
 1.610111e+01 1.588053e+01 7.618313e+01 2.130620e+01 7.052390e+01 3.568112e+01 6.785259e+01 1.279054e+02 4.428064e+01 5.676237e+01 6.061369e+01 4.823652e+01 3.791627e+01 2.238481e-01 1.132726e+00 1.036750e+00 8.128686e-01 2.639314e+00 1.148957e+00 1.803133e+00 2.524175e+00 1.207102e+00 1.876276e+00 3.879445e+00 2.078667e+00 1.232562e+00 4.436030e-02 1.974623e-01 2.199760e-01 1.548433e-01 5.831516e-01 2.370841e-01 4.005477e-01 4.439709e-01 2.532562e-01 2.967077e-01 3.658151e-01 1.880616e-01 3.027376e-01
<GCONST> 1.068709e+02
<STATE> 4
<MEAN> 39
 -5.569069e+01 -4.386988e+01 -2.481501e+01 5.391646e+00 4.146253e+00 4.297474e+00 9.423055e+00 -3.054420e+00 3.127607e+00 -3.908062e+00 -3.502959e+00 6.524681e+00 1.460461e+01 6.866236e-01 2.196378e+00 -5.087999e-01 -6.636538e-01 -1.656577e+00 5.604729e-01 4.822839e-01 -1.889106e+00 -1.236319e+00 -2.842006e-02 -9.053227e-01 -6.363440e-02 -3.656905e+00 5.044329e-01 2.359470e+00 4.586844e-01 -3.437449e-01 -4.225150e-01 -2.878457e-01 3.095709e-01 -7.359447e-01 5.323747e-01 -1.463130e+00 5.912248e-01 5.100842e-01 1.081820e+00
<VARIANCE> 39
 2.039470e+01 1.756674e+01 7.235525e+01 2.031059e+01 7.537569e+01 3.572908e+01 6.450797e+01 1.271609e+02 7.049213e+01 4.405703e+01 5.674553e+01 4.618233e+01 3.998944e+01 5.413183e-01 2.583519e+00 1.957238e+00 1.581472e+00 3.715949e+00 1.844599e+00 3.863919e+00 4.920808e+00 2.550876e+00 2.585980e+00 4.472038e+00 1.968792e+00 3.093488e+00 6.596711e-02 2.587625e-01 3.308277e-01 2.763758e-01 6.633915e-01 3.254959e-01 7.746566e-01 8.030263e-01 4.005459e-01 3.103098e-01 6.625565e-01 3.316346e-01 3.939325e-01
<GCONST> 1.198870e+02
<STATE> 5
<MEAN> 39
 -5.244175e+01 -3.547492e+01 -2.439779e+01 6.150288e+00 2.608940e+00 5.682393e+00 9.891881e+00 -4.087696e+00 2.686937e+00 -3.425412e+00 -5.800906e+00 7.868834e+00 1.438929e+01 2.067087e-01 2.730551e+00 -6.587721e-01 -1.055827e+00 -1.602213e+00 9.745873e-01 7.811462e-01 -1.562232e+00 -1.666113e+00 3.009447e-01 -1.580224e-01 -7.657957e-02 -6.956674e+00 3.659374e-01 2.476575e+00 4.216575e-01 -4.628167e-01 -1.360847e-01 -2.410423e-01 6.092722e-01 -2.676236e-01 1.415862e-01 -1.464388e+00 3.468475e-01 1.756270e-02 2.010395e+00
<VARIANCE> 39
 3.339401e+01 7.018037e+01 6.098630e+01 2.626141e+01 9.430697e+01 4.271823e+01 6.470167e+01 1.078544e+02 7.193701e+01 5.193112e+01 6.806210e+01 4.490514e+01 5.103157e+01 2.279920e+00 5.943652e+00 2.697628e+00 3.014666e+00 4.768955e+00 4.036956e+00 6.291630e+00 5.742054e+00 4.240741e+00 3.299401e+00 4.436797e+00 2.595214e+00 1.156628e+01 2.414212e-01 3.195103e-01 4.134048e-01 5.804962e-01 7.460017e-01 5.087860e-01 7.314426e-01 7.738844e-01 7.563285e-01 6.458049e-01 8.156823e-01 7.753457e-01 6.429181e-01
<GCONST> 1.357838e+02
<TRANSP> 6
 0.000000e+00 1.000000e+00 0.000000e+00 0.000000e+00 0.000000e+00 0.000000e+00
 0.000000e+00 4.955040e-01 5.044960e-01 0.000000e+00 0.000000e+00 0.000000e+00
 0.000000e+00 0.000000e+00 7.011852e-01 2.988148e-01 0.000000e+00 0.000000e+00
 0.000000e+00 0.000000e+00 0.000000e+00 4.470248e-01 5.529752e-01 0.000000e+00
 0.000000e+00 0.000000e+00 0.000000e+00 0.000000e+00 4.970452e-01 5.029549e-01
 0.000000e+00 0.000000e+00 0.000000e+00 0.000000e+00 0.000000e+00 0.000000e+00
<ENDHMM>
~h "b"
<BEGINHMM>
<NUMSTATES> 6
<STATE> 2
<MEAN> 39
 -4.461267e+01 -2.070578e+01 -2.168301e+01 3.495071e+00 3.448599e+00 1.366592e+01 1.102568e+01 -9.424986e+00 1.185769e+00 1.141021e+01 -3.502653e+00 1.235669e+01 1.710125e+01 8.477515e-01 2.577832e+00 -1.008934e+00 -8.902847e-01 -5.886370e-01 1.242489e+00 -4.909913e-02 -1.021161e+00 1.222546e+00 3.001479e-01 -2.890907e-01 1.326123e-01 -3.738102e+00 1.925742e-02 2.289959e+00 9.482501e-01 6.587177e-01 -5.493641e-01 -8.075972e-01 -4.739984e-02 -4.943639e-01 6.202201e-01 -2.564794e+00 2.491491e-02 -1.291686e-01 2.616699e+00
<VARIANCE> 39
 3.062148e+00 1.479351e+01 1.039482e+01 4.149326e+01 2.842580e+01 4.857595e+01 2.074353e+01 1.420764e+01 5.468015e+01 3.200972e+01 2.750138e+01 2.765480e+01 5.127245e+01 1.147431e+00 7.292434e-01 1.669639e+00 2.785547e+00 1.925602e+00 2.207043e+00 4.243680e+00 3.343809e+00 4.427137e+00 3.066033e+00 2.412028e+00 1.636138e+00 1.166053e+01 5.308183e-01 3.094406e-01 6.613347e-01 1.029403e+00 1.084996e+00 5.379040e-01 1.201809e+00 7.740525e-01 5.456006e-01 4.706318e-01 8.562868e-01 9.211356e-01 7.532420e-01
<GCONST> 1.197261e+02
<STATE> 3
<MEAN> 39
 -4.424883e+01 -1.869600e+01 -2.118629e+01 9.125729e-01 1.684594e+00 1.140882e+01 1.107971e+01 -9.478126e+00 2.608147e+00 1.387911e+01 -4.149971e+00 1.316472e+01 2.106265e+01 1.882133e-01 2.908584e+00 6.094655e-02 6.031476e-02 -1.212744e+00 4.040490e-01 3.780365e-03 -1.059653e+00 -6.507334e-02 4.069702e-02 1.085761e-01 2.200709e-01 4.419812e-01 3.049469e-01 2.223365e+00 6.158107e-01 1.934473e-01 -5.094382e-01 -7.362052e-01 2.458507e-02 -5.229858e-01 5.434732e-02 -2.609107e+00 3.308237e-01 4.593454e-01 2.176976e+00
<VARIANCE> 39
 2.283003e+00 6.048397e+00 5.081851e+00 4.194089e+01 1.986809e+01 3.378545e+01 1.151109e+01 8.303880e+00 2.377511e+01 2.589342e+01 1.640385e+01 2.805612e+01 5.436919e+01 6.629756e-01 8.435546e-01 9.126167e-01 3.091356e+00 9.601446e-01 1.632348e+00 2.263708e+00 1.176304e+00 2.559814e+00 2.375738e+00 1.457770e+00 1.738590e+00 2.951071e+00 2.224994e-01 1.372685e-01 4.372230e-01 6.194173e-01 4.062833e-01 3.645729e-01 4.970333e-01 5.022845e-01 4.830297e-01 5.139420e-01 6.040183e-01 5.459988e-01 7.668430e-01
<GCONST> 1.021255e+02
<STATE> 4
<MEAN> 39
 -4.630420e+01 -2.024367e+01 -2.140244e+01 6.772347e-01 1.669164e+00 1.186994e+01 1.008658e+01 -9.601921e+00 6.919149e-01 1.173890e+01 -4.595476e+00 1.224895e+01 1.968845e+01 -3.613554e-02 3.261280e+00 1.208306e+00 7.895334e-01 -2.519022e+00 -1.049782e+00 4.447877e-02 -1.072226e+00 -1.894802e+00 -3.126177e-01 9.754249e-01 -9.397208e-03 6.144188e+00 5.217289e-01 1.958317e+00 9.473778e-01 -5.696484e-01 -6.945171e-01 -4.708976e-01 -3.800591e-02 -4.483752e-01 5.016641e-02 -2.380247e+00 4.466712e-01 -2.193303e-01 2.247916e+00
<VARIANCE> 39
 1.291815e+01 1.234532e+01 6.856458e+00 6.228483e+01 2.099048e+01 3.167544e+01 1.351456e+01 9.600553e+00 3.309545e+01 4.320342e+01 1.804380e+01 2.453561e+01 5.502642e+01 1.674254e+00 2.062942e+00 3.330700e+00 1.079479e+01 3.960411e+00 3.212455e+00 3.187137e+00 3.926947e+00 4.898377e+00 3.277228e+00 5.040375e+00 5.913759e+00 7.152047e+00 2.526788e-01 1.935069e-01 4.529264e-01 6.663535e-01 4.760455e-01 5.665741e-01 4.700565e-01 6.231714e-01 8.761830e-01 5.585199e-01 7.429061e-01 7.175421e-01 6.566457e-01
<GCONST> 1.210488e+02
<STATE> 5
<MEAN> 39
 -5.081252e+01 -3.213774e+01 -2.340607e+01 4.915510e+00 7.072158e+00 1.188644e+01 8.870540e+00 -1.035437e+01 -6.040148e-02 1.154582e+01 -2.521879e+00 1.188352e+01 1.396779e+01 1.325976e-02 2.875317e+00 1.765374e+00 2.487730e-01 -3.532516e+00 -3.684498e-01 2.096578e-01 -1.452917e-01 1.257852e+00 -2.375073e-01 7.468823e-01 -1.893492e-01 6.569113e+00 6.617550e-01 2.145051e+00 2.141319e-01 -7.970886e-01 -3.732707e-01 7.976898e-02 4.408023e-01 -7.132018e-01 -1.626442e-01 -2.108198e+00 -4.553793e-01 -7.465952e-01 7.376565e-01
<VARIANCE> 39
 1.580161e+01 5.127676e+01 2.380446e+01 5.274375e+01 5.165967e+01 2.860248e+01 2.948509e+01 3.864172e+01 3.127446e+01 3.324782e+01 4.729037e+01 2.869088e+01 4.773196e+01 1.565681e+00 2.685027e+00 4.858528e+00 1.028418e+01 6.161601e+00 4.699506e+00 3.644304e+00 6.022654e+00 1.348558e+01 4.284375e+00 6.372617e+00 6.523448e+00 9.698681e+00 2.325106e-01 1.838405e-01 4.564116e-01 1.059031e+00 5.140316e-01 5.559084e-01 8.582855e-01 6.057614e-01 7.149155e-01 5.409711e-01 1.125574e+00 7.162333e-01 4.361144e-01
<GCONST> 1.319479e+02
<TRANSP> 6
 0.000000e+00 1.000000e+00 0.000000e+00 0.000000e+00 0.000000e+00 0.000000e+00
 0.000000e+00 3.062678e-01 6.937321e-01 0.000000e+00 0.000000e+00 0.000000e+00
 0.000000e+00 0.000000e+00 6.925817e-01 3.074183e-01 0.000000e+00 0.000000e+00
 0.000000e+00 0.000000e+00 0.000000e+00 3.290263e-01 6.709737e-01 0.000000e+00
 0.000000e+00 0.000000e+00 0.000000e+00 0.000000e+00 3.865207e-01 6.134794e-01
 0.000000e+00 0.000000e+00 0.000000e+00 0.000000e+00 0.000000e+00 0.000000e+00
<ENDHMM>
~h "c"
<BEGINHMM>
<NUMSTATES> 6
<STATE> 2
<MEAN> 39
 -5.079253e+01 -1.503016e+01 -2.279668e+01 6.747075e+00 -3.959290e+00 1.431962e+01 7.209089e+00 -7.843331e+00 3.435132e-01 2.135645e+00 -7.510548e+00 1.180401e+01 8.193511e+00 -1.246097e+00 4.572887e+00 -2.660658e-01 -6.375651e-01 -4.668447e-01 7.561956e-01 4.716687e-01 -1.069576e+00 -6.107920e-01 -2.625164e+00 4.513539e-01 -4.949635e-02 -9.966162e-01 1.034024e+00 3.407881e+00 6.104559e-01 -4.246384e-01 7.077728e-02 -6.533391e-01 3.804114e-01 -6.013187e-01 9.612836e-01 -8.297466e-01 1.181681e-01 1.464623e-02 2.429538e+00
<VARIANCE> 39
 3.349360e+01 7.859574e+00 1.674654e+01 1.674602e+01 1.891362e+01 2.891619e+01 1.933980e+01 1.739696e+01 4.762149e+01 3.195587e+01 1.564888e+01 1.543319e+01 4.043087e+01 4.616786e+00 1.597292e+01 2.461988e+00 2.100075e+00 4.128397e+00 3.914791e+00 2.226106e+00 2.784008e+00 2.140517e+00 5.003798e+00 2.596280e+00 1.907022e+00 1.081987e+01 4.838002e-01 9.361328e-01 7.030586e-01 5.246177e-01 7.664979e-01 1.058441e+00 7.443838e-01 5.656525e-01 9.539011e-01 9.137780e-01 5.595969e-01 5.468190e-01 8.923659e-01
<GCONST> 1.241271e+02
<STATE> 3
<MEAN> 39
 -5.008842e+01 -1.521227e+01 -2.146403e+01 7.244932e+00 -2.731920e+00 1.344253e+01 7.592404e+00 -8.762497e+00 -1.129353e-01 1.785805e+00 -7.588110e+00 1.043948e+01 6.828370e+00 1.304708e+00 6.541447e+00 -1.379413e-01 -8.969789e-01 -1.443479e-01 -2.173608e-01 6.342171e-01 -1.048721e+00 -2.269993e-01 -3.799329e-01 3.311732e-02 3.884048e-02 1.367373e+00 1.022206e+00 3.114673e+00 4.262309e-01 -2.487582e-01 6.552661e-02 -5.559759e-02 1.913826e-01 -5.134383e-01 6.842918e-01 5.476992e-02 9.147117e-02 2.416303e-01 1.844658e+00
<VARIANCE> 39
 3.845510e+01 5.037818e+00 1.272176e+01 1.115710e+01 9.782372e+00 1.589130e+01 1.367165e+01 1.271306e+01 2.985216e+01 2.139592e+01 1.286564e+01 1.136487e+01 3.396120e+01 3.513298e+00 1.699984e+01 2.019884e+00 1.566568e+00 2.845913e+00 4.206116e+00 1.611026e+00 2.058409e+00 2.036197e+00 3.476665e+00 2.045936e+00 1.333369e+00 6.725173e+00 7.357761e-01 1.042164e+00 3.319936e-01 3.547603e-01 4.286325e-01 9.824684e-01 4.230933e-01 4.185074e-01 8.930380e-01 6.193442e-01 4.144689e-01 3.652979e-01 5.592192e-01
<GCONST> 1.128008e+02
<STATE> 4
<MEAN> 39
 -7.398051e+01 -2.172901e+01 -2.188314e+01 7.760090e+00 -6.757205e+00 1.641817e+01 5.788596e+00 -9.092505e+00 1.575780e+00 4.054770e+00 -1.004611e+01 1.093999e+01 6.631659e+00 1.806666e+00 1.401711e+00 8.879890e-01 -7.116829e-01 -1.339397e+00 1.673739e+00 3.703967e-01 -9.488462e-01 -8.568691e-02 4.465279e-02 -4.637537e-01 8.688872e-01 2.544864e+00 -1.652572e-02 1.966743e+00 -1.962922e-02 -1.666799e-01 -6.847510e-02 -2.364478e-01 7.145512e-02 -3.677407e-01 2.404254e-01 -2.521155e-01 1.443944e-01 1.340325e-01 1.306943e+00
<VARIANCE> 39
 6.638825e+01 3.555074e+01 2.481316e+01 1.215309e+01 2.118964e+01 2.983162e+01 3.998255e+01 3.691085e+01 2.722513e+01 1.993550e+01 2.199582e+01 1.945420e+01 4.241942e+01 2.676531e+00 3.012105e+01 4.642533e+00 1.771808e+00 3.691467e+00 6.787751e+00 2.017566e+00 3.486829e+00 2.358939e+00 2.500577e+00 2.673731e+00 3.035630e+00 7.094687e+00 5.756899e-01 3.497858e+00 6.156073e-01 3.127443e-01 5.403498e-01 1.291245e+00 7.279687e-01 5.980043e-01 5.839637e-01 4.661427e-01 4.230667e-01 3.333359e-01 4.885722e-01
<GCONST> 1.263834e+02
<STATE> 5
<MEAN> 39
 -6.026794e+01 -3.158737e+01 -2.276480e+01 7.375430e+00 -7.567057e+00 1.430557e+01 5.796025e+00 -6.788060e+00 3.115014e+00 5.506358e+00 -8.932421e+00 1.080838e+01 1.027313e+01 1.108957e+00 -2.099616e-01 -7.099659e-01 -8.518345e-01 -2.449166e+00 8.585047e-02 4.833319e-01 -3.355586e-01 4.440766e-01 4.971938e-02 -1.676935e-01 1.133014e+00 4.394218e+00 -7.708532e-01 5.107256e+00 4.968607e-01 -5.351166e-01 1.543243e-01 -7.229693e-01 -4.612498e-01 -8.950521e-01 1.787822e-01 -1.524623e+00 3.947270e-01 7.801532e-02 1.652996e+00
<VARIANCE> 39
 3.675900e+01 5.461409e+01 3.610846e+01 2.306619e+01 2.761610e+01 4.229732e+01 4.176732e+01 7.448341e+01 2.466955e+01 2.311520e+01 2.196484e+01 2.737167e+01 4.705617e+01 2.072906e+00 6.273228e+00 6.512336e+00 1.913859e+00 7.111340e+00 6.107553e+00 3.448072e+00 4.826731e+00 6.019385e+00 3.966073e+00 5.997300e+00 3.991657e+00 1.097429e+01 3.792364e-01 6.441536e-01 5.033934e-01 4.791824e-01 4.983369e-01 1.334150e+00 4.183484e-01 5.543509e-01 5.854676e-01 6.380022e-01 3.840607e-01 2.942401e-01 2.099800e-01
<GCONST> 1.286972e+02
<TRANSP> 6
 0.000000e+00 1.000000e+00 0.000000e+00 0.000000e+00 0.000000e+00 0.000000e+00
 0.000000e+00 0.000000e+00 1.000000e+00 0.000000e+00 0.000000e+00 0.000000e+00
 0.000000e+00 0.000000e+00 7.786648e-01 2.213352e-01 0.000000e+00 0.000000e+00
 0.000000e+00 0.000000e+00 0.000000e+00 8.189479e-01 1.810522e-01 0.000000e+00
 0.000000e+00 0.000000e+00 0.000000e+00 0.000000e+00 0.000000e+00 1.000000e+00
 0.000000e+00 0.000000e+00 0.000000e+00 0.000000e+00 0.000000e+00 0.000000e+00
<ENDHMM>
~h "d"
<BEGINHMM>
<NUMSTATES> 6
<STATE> 2
<MEAN> 39
 -4.385076e+01 -2.060604e+01 -2.245352e+01 4.888790e+00 -5.320447e+00 8.530483e+00 8.380486e+00 -9.211266e+00 3.060000e-01 1.004072e+01 -8.978024e+00 1.095908e+01 2.222454e+01 3.986785e-01 3.075067e+00 -1.060318e-01 -9.980866e-01 -1.028271e+00 8.133739e-01 3.962987e-01 -7.796487e-01 8.925123e-01 2.284348e-01 -1.902687e-01 6.072372e-01 -1.339129e+00 -1.887368e-02 2.549332e+00 1.255187e+00 4.723903e-03 -4.566288e-01 -7.437621e-01 4.677511e-01 -5.099106e-01 2.321454e-01 -2.688577e+00 -2.298372e-02 6.412113e-01 2.421311e+00
<VARIANCE> 39
 5.556719e+00 1.494462e+01 7.342505e+00 2.083730e+01 1.782564e+01 4.920469e+01 1.877654e+01 1.198073e+01 4.407116e+01 2.767704e+01 3.578486e+01 2.165842e+01 5.573799e+01 1.503533e+00 1.977258e+00 3.588092e+00 2.601177e+00 2.293385e+00 2.155301e+00 3.005557e+00 3.486395e+00 3.590188e+00 3.501537e+00 1.977421e+00 2.012687e+00 9.549559e+00 5.434534e-01 3.758646e-01 1.000057e+00 5.116205e-01 1.114948e+00 4.629630e-01 7.066103e-01 9.666131e-01 6.871074e-01 4.583430e-01 6.072738e-01 7.850004e-01 1.139771e+00
<GCONST> 1.194727e+02
<STATE> 3
<MEAN> 39
 -4.433458e+01 -2.024006e+01 -2.334027e+01 4.631307e+00 -5.514642e+00 6.884520e+00 7.301888e+00 -9.339329e+00 -6.569258e-01 1.099941e+01 -7.921216e+00 1.091850e+01 2.237517e+01 -3.102353e-01 4.729483e+00 3.335029e+00 -3.113554e-01 -2.050787e+00 -3.968882e-01 -3.735163e-02 -7.957343e-01 -2.093605e+00 -8.456051e-01 -2.988509e-01 1.552651e+00 4.520175e+00 5.246889e-01 2.199574e+00 1.362647e+00 -1.881683e-01 -5.940371e-01 -7.268089e-01 4.882353e-01 -4.025553e-01 2.683345e-02 -2.683755e+00 -9.817403e-02 5.715383e-01 2.636255e+00
<VARIANCE> 39
 7.790156e+00 1.247571e+01 9.065104e+00 2.298661e+01 1.967456e+01 5.175192e+01 2.097588e+01 1.349775e+01 4.094036e+01 2.663324e+01 3.825819e+01 2.673626e+01 5.558887e+01 1.627044e+00 3.786097e+00 4.350541e+00 4.130251e+00 5.473495e+00 2.394864e+00 5.006869e+00 5.312693e+00 4.343703e+00 3.029082e+00 4.386985e+00 3.702771e+00 8.424991e+00 3.452749e-01 3.209456e-01 9.048837e-01 3.981907e-01 8.835924e-01 6.087864e-01 6.958917e-01 8.015048e-01 9.460484e-01 5.202249e-01 7.049687e-01 8.582533e-01 7.837737e-01
<GCONST> 1.242847e+02
<STATE> 4
<MEAN> 39
 -5.119997e+01 -2.712350e+01 -2.359856e+01 5.888095e+00 -5.751153e+00 1.140835e+01 4.632360e+00 -8.519245e+00 -5.296457e-01 7.303995e+00 -8.200217e+00 1.233602e+01 1.641607e+01 2.490980e-01 4.531217e+00 3.918881e+00 -2.738910e-01 -3.071739e+00 -7.293434e-01 -1.832367e-02 -3.978761e-01 -2.187141e+00 -4.605419e-01 4.232958e-02 1.520227e+00 6.244749e+00 6.961109e-01 1.872043e+00 1.193330e-01 -4.339648e-01 -4.298767e-01 -2.664456e-01 1.594122e-02 -3.158297e-01 1.564188e-01 -2.028615e+00 8.095811e-02 -4.120695e-01 1.424998e+00
<VARIANCE> 39
 3.564879e+01 3.832665e+01 3.591206e+01 2.261822e+01 2.828950e+01 5.418139e+01 3.696377e+01 5.072113e+01 3.781893e+01 3.118848e+01 3.584958e+01 2.797552e+01 6.511931e+01 2.971530e+00 4.247329e+00 7.298728e+00 2.737547e+00 6.104909e+00 4.125206e+00 4.108806e+00 5.468997e+00 7.070964e+00 4.196142e+00 5.013515e+00 4.090523e+00 1.211562e+01 3.023693e-01 2.846523e-01 6.753623e-01 5.916153e-01 6.638907e-01 6.057684e-01 6.284663e-01 7.604327e-01 9.801651e-01 8.144059e-01 6.904807e-01 7.556137e-01 4.309196e-01
<GCONST> 1.326648e+02
<STATE> 5
<MEAN> 39
 -5.364465e+01 -3.636492e+01 -2.700849e+01 6.279912e+00 -8.853141e+00 1.040419e+01 2.687934e+00 -9.154635e+00 -3.994418e-02 8.902306e+00 -6.436837e+00 1.165564e+01 1.442558e+01 -5.440664e-02 3.480690e+00 1.452302e+00 -7.178731e-01 -2.823016e+00 2.013143e-01 3.769676e-01 1.456649e-01 3.354273e-01 2.601300e-01 3.839043e-01 7.830464e-01 4.585195e+00 6.008998e-01 1.798521e+00 -6.934819e-01 -3.624600e-01 -1.727881e-01 1.173762e-01 -1.923080e-01 -6.211562e-01 -2.488445e-01 -2.161686e+00 1.751374e-01 -8.470924e-01 5.847704e-01
<VARIANCE> 39
 2.701670e+01 5.896756e+01 4.680693e+01 1.898027e+01 4.052102e+01 7.429443e+01 3.861605e+01 8.305711e+01 3.642509e+01 2.712097e+01 3.833925e+01 3.514759e+01 5.461105e+01 1.718761e+00 3.220921e+00 9.885306e+00 2.081762e+00 7.125500e+00 4.712558e+00 3.385210e+00 5.949412e+00 1.129629e+01 5.109411e+00 5.130518e+00 3.853803e+00 1.164906e+01 3.180998e-01 3.253946e-01 4.728196e-01 5.800577e-01 5.777137e-01 5.601862e-01 5.655771e-01 7.060055e-01 6.597283e-01 7.369133e-01 5.633691e-01 6.701781e-01 3.151031e-01
<GCONST> 1.323141e+02
<TRANSP> 6
 0.000000e+00 1.000000e+00 0.000000e+00 0.000000e+00 0.000000e+00 0.000000e+00
 0.000000e+00 6.443453e-01 3.556547e-01 0.000000e+00 0.000000e+00 0.000000e+00
 0.000000e+00 0.000000e+00 2.802668e-01 7.197332e-01 0.000000e+00 0.000000e+00
 0.000000e+00 0.000000e+00 0.000000e+00 1.126005e-01 8.873995e-01 0.000000e+00
 0.000000e+00 0.000000e+00 0.000000e+00 0.000000e+00 3.535519e-01 6.464481e-01
 0.000000e+00 0.000000e+00 0.000000e+00 0.000000e+00 0.000000e+00 0.000000e+00
<ENDHMM>
~h "e"
<BEGINHMM>
<NUMSTATES> 6
<STATE> 2
<MEAN> 39
 -5.291682e+01 -4.015974e+01 -2.619532e+01 8.988333e+00 -5.511876e-01 1.139432e+01 7.844552e+00 -6.286120e+00 3.289651e-01 7.556366e+00 -3.320273e+00 8.593452e+00 1.088606e+01 -1.332743e-01 2.747728e+00 1.092708e+00 -1.144878e+00 -1.790659e+00 5.148200e-01 5.558581e-01 -4.997559e-01 1.233873e+00 6.616148e-03 -2.882679e-01 1.148436e+00 3.139316e+00 -4.285735e-02 2.799133e+00 8.139217e-02 -2.046743e-01 -3.654533e-01 -2.743336e-01 6.532730e-02 -1.095105e+00 5.627450e-02 -1.683796e+00 2.821429e-01 2.716950e-01 4.375918e-01
<VARIANCE> 39
 2.834589e+01 3.425252e+01 5.225476e+01 2.991633e+01 1.354132e+02 4.970648e+01 5.864782e+01 1.076269e+02 6.231680e+01 3.851764e+01 5.255584e+01 3.999103e+01 4.834819e+01 1.240421e+00 3.542653e+00 4.375324e+00 3.232767e+00 4.925472e+00 3.614625e+00 4.365917e+00 6.480360e+00 4.243499e+00 3.290041e+00 5.371632e+00 5.193987e+00 6.939414e+00 6.383610e-01 1.248898e+00 6.659279e-01 8.124796e-01 8.392438e-01 8.829428e-01 1.049684e+00 1.045589e+00 4.885661e-01 4.624090e-01 1.276669e+00 6.940529e-01 7.360632e-01
<GCONST> 1.380783e+02
<STATE> 3
<MEAN> 39
 -5.505255e+01 -4.374584e+01 -2.544884e+01 7.643641e+00 -8.348452e+00 1.350958e+01 7.447483e+00 -7.001903e+00 7.344044e-01 7.068084e+00 -1.300898e+00 8.378724e+00 1.169337e+01 7.795398e-02 2.780309e+00 -6.755697e-02 -5.772443e-01 -1.388266e+00 7.005374e-01 6.322532e-01 -1.233082e+00 -1.520378e-01 -6.294271e-01 -4.056623e-01 6.782323e-01 -9.781339e-01 3.951958e-01 2.365568e+00 2.718344e-01 -3.525576e-02 -3.530319e-01 -2.739886e-01 3.066933e-01 -8.589215e-01 7.861734e-02 -1.575701e+00 2.029672e-01 2.790345e-01 1.171483e+00
<VARIANCE> 39
 2.178282e+01 2.926753e+01 5.620029e+01 3.315292e+01 1.375611e+02 8.023110e+01 7.785305e+01 1.360922e+02 5.043939e+01 6.473434e+01 5.313322e+01 4.473551e+01 5.157497e+01 5.373659e-01 1.988427e+00 2.327042e+00 1.733088e+00 2.951673e+00 1.927309e+00 2.653752e+00 4.594490e+00 2.089929e+00 1.762789e+00 3.629175e+00 2.512559e+00 2.667005e+00 1.319262e-01 4.788907e-01 4.959888e-01 3.568456e-01 6.628499e-01 4.493142e-01 6.526624e-01 6.499016e-01 3.933799e-01 4.121604e-01 6.606296e-01 4.060102e-01 7.756473e-01
<GCONST> 1.242934e+02
<STATE> 4
<MEAN> 39
 -5.269089e+01 -4.055780e+01 -2.628787e+01 7.774163e+00 -1.516209e+00 1.181606e+01 8.078445e+00 -6.231115e+00 1.594758e+00 5.856211e+00 -4.269729e+00 8.688313e+00 1.281955e+01 1.983872e-01 2.493279e+00 -1.042788e+00 -8.657989e-01 -1.074798e+00 1.048329e+00 7.304559e-01 -1.870543e+00 -1.252945e+00 -8.195590e-01 -2.831557e-01 -2.998721e-01 -5.074770e+00 3.467905e-01 2.574426e+00 2.927977e-01 -2.884153e-01 -3.380314e-01 -1.190323e-01 3.384107e-01 -5.556265e-01 1.587056e-02 -1.759880e+00 3.296978e-01 8.779812e-02 1.091802e+00
<VARIANCE> 39
 3.111718e+01 3.445030e+01 5.701669e+01 3.522888e+01 1.593276e+02 7.146280e+01 7.590599e+01 1.287179e+02 5.834194e+01 4.682061e+01 7.374800e+01 4.636068e+01 5.774847e+01 1.348682e+00 4.443732e+00 3.797781e+00 3.473119e+00 4.806209e+00 3.476232e+00 5.828248e+00 7.446712e+00 3.815043e+00 2.282261e+00 5.261904e+00 3.521742e+00 8.146456e+00 1.200715e-01 4.421937e-01 5.886806e-01 6.686332e-01 7.579108e-01 4.746827e-01 1.086268e+00 9.599887e-01 6.378509e-01 4.023711e-01 1.065488e+00 6.122749e-01 4.806958e-01
<GCONST> 1.356622e+02
<STATE> 5
<MEAN> 39
 -4.991827e+01 -3.206408e+01 -2.389055e+01 7.753339e+00 -2.422919e+00 1.302802e+01 9.023622e+00 -7.742564e+00 1.251373e+00 5.547152e+00 -6.161750e+00 9.193383e+00 1.332105e+01 2.411122e-02 2.652542e+00 -1.135633e+00 -1.082855e+00 -1.200910e+00 1.174318e+00 5.042897e-01 -1.316222e+00 -1.087306e+00 -1.024577e+00 -6.527474e-02 -5.032695e-01 -4.923106e+00 4.055351e-01 2.523280e+00 7.221735e-01 -2.147890e-01 -2.557273e-01 -2.841104e-01 6.474844e-01 -3.164031e-01 2.290267e-01 -1.671859e+00 2.078510e-01 -1.717815e-01 2.198171e+00
<VARIANCE> 39
 3.696084e+01 7.076986e+01 4.512594e+01 3.792867e+01 1.301028e+02 7.803778e+01 7.142961e+01 8.803306e+01 6.543172e+01 5.353320e+01 7.950764e+01 4.685793e+01 6.933192e+01 2.284457e+00 5.284651e+00 4.877890e+00 3.445085e+00 4.517416e+00 4.065522e+00 7.326443e+00 6.864962e+00 5.055980e+00 3.869691e+00 4.284127e+00 3.770858e+00 1.197850e+01 2.740956e-01 3.668363e-01 5.450717e-01 6.298250e-01 7.835685e-01 6.104771e-01 1.377169e+00 9.158006e-01 7.310067e-01 9.261590e-01 7.693964e-01 6.001386e-01 4.531271e-01
<GCONST> 1.401409e+02
<TRANSP> 6
 0.000000e+00 1.000000e+00 0.000000e+00 0.000000e+00 0.000000e+00 0.000000e+00
 0.000000e+00 2.681056e-01 7.318944e-01 0.000000e+00 0.000000e+00 0.000000e+00
 0.000000e+00 0.000000e+00 6.239046e-01 3.760954e-01 0.000000e+00 0.000000e+00
 0.000000e+00 0.000000e+00 0.000000e+00 1.989513e-01 8.010487e-01 0.000000e+00
 0.000000e+00 0.000000e+00 0.000000e+00 0.000000e+00 2.818424e-01 7.181576e-01
 0.000000e+00 0.000000e+00 0.000000e+00 0.000000e+00 0.000000e+00 0.000000e+00
<ENDHMM>
~h "f"
<BEGINHMM>
<NUMSTATES> 6
<STATE> 2
<MEAN> 39
 -5.737050e+01 -2.383955e+01 -2.536656e+01 9.030684e+00 -8.950418e-01 1.421342e+01 1.246215e+01 -9.130707e+00 8.078864e-02 1.595628e-01 -7.250544e+00 1.080542e+01 8.585101e+00 -1.569124e+00 7.168150e+00 -1.104562e-01 5.866654e-01 -1.848167e+00 7.614832e-01 -2.144019e-01 -1.141686e+00 -7.200984e-01 -1.827469e+00 -1.112301e+00 2.107037e-01 -2.347492e+00 4.121695e-01 2.303215e+00 6.541095e-01 -5.888147e-01 -1.851773e-01 -9.903232e-01 1.039730e-01 -6.557416e-01 7.029938e-01 -7.218181e-01 5.501382e-01 1.725613e-01 2.315831e+00
<VARIANCE> 39
 4.485610e+01 2.362328e+01 2.462846e+01 4.602066e+01 7.643108e+01 4.101276e+01 2.416140e+01 2.516481e+01 5.142412e+01 4.443868e+01 2.194460e+01 2.393229e+01 7.002652e+01 1.662628e+00 4.587288e+00 2.390659e+00 3.427768e+00 2.746860e+00 4.039428e+00 3.179756e+00 4.274519e+00 2.865917e+00 4.251569e+00 2.701028e+00 2.479469e+00 8.463493e+00 3.401079e-01 4.875753e-01 5.331752e-01 5.623789e-01 8.973575e-01 7.631670e-01 1.030659e+00 7.170219e-01 8.331467e-01 6.846960e-01 4.747140e-01 5.472376e-01 5.469106e-01
<GCONST> 1.278770e+02
<STATE> 3
<MEAN> 39
 -6.276158e+01 -2.221286e+01 -2.767074e+01 1.060419e+01 -2.804621e+00 1.559852e+01 1.215378e+01 -1.025329e+01 1.643411e+00 -1.085104e+00 -8.629477e+00 1.059972e+01 7.660869e+00 -1.169836e+00 5.293000e+00 -1.401866e-01 -5.445414e-01 -2.036059e+00 -1.094801e+00 5.817670e-01 -1.135250e+00 -7.012197e-01 -4.099262e-01 -1.120739e+00 2.319062e-01 -2.161968e-01 1.013716e+00 2.053958e+00 1.457043e-01 -9.363671e-01 -1.776595e-01 -6.689039e-01 1.524081e-01 -6.330837e-01 8.435395e-01 -1.297656e-01 5.633772e-01 2.645694e-01 2.064261e+00
<VARIANCE> 39
 4.568745e+01 1.661761e+01 2.449651e+01 3.273621e+01 4.716985e+01 2.812280e+01 1.528975e+01 1.644842e+01 3.952868e+01 3.542600e+01 1.964558e+01 2.814164e+01 6.926892e+01 1.704237e+00 4.230921e+00 1.529221e+00 2.025692e+00 1.589818e+00 5.039554e+00 2.104408e+00 1.830908e+00 2.932354e+00 4.540661e+00 1.585537e+00 1.593909e+00 3.000188e+00 4.068222e-01 4.765447e-01 4.048672e-01 6.037459e-01 6.813154e-01 8.045765e-01 8.938259e-01 7.099315e-01 7.826071e-01 5.211231e-01 5.806965e-01 4.810507e-01 4.977619e-01
<GCONST> 1.196873e+02
<STATE> 4
<MEAN> 39
 -6.503721e+01 -2.104601e+01 -2.969895e+01 1.249541e+01 -4.314643e+00 1.499147e+01 1.220579e+01 -1.204946e+01 1.255960e+00 -1.277517e+00 -9.477826e+00 8.270670e+00 1.714535e+00 9.194029e-01 3.089995e+00 -4.690838e-01 -1.062214e+00 -1.203067e+00 6.156708e-01 6.640547e-01 -1.069774e+00 -3.244002e-01 -4.103210e-01 1.010249e-02 2.166138e-01 -3.546801e-01 6.492317e-01 2.963896e+00 1.747921e-01 -3.724502e-01 -1.894181e-01 2.166224e-01 1.425654e-01 -5.123758e-01 1.958011e-01 3.877307e-01 3.232637e-01 2.695987e-01 1.613421e+00
<VARIANCE> 39
 3.871352e+01 1.482705e+01 2.427561e+01 2.259680e+01 3.294743e+01 2.142595e+01 1.415817e+01 1.239533e+01 2.194481e+01 2.237237e+01 1.490986e+01 1.618325e+01 3.588259e+01 1.208208e+00 3.246253e+00 1.183117e+00 1.582942e+00 1.224638e+00 2.936523e+00 1.590688e+00 1.155545e+00 1.998109e+00 2.411249e+00 1.702845e+00 1.504417e+00 2.455759e+00 2.601218e-01 3.700126e-01 1.828236e-01 3.201209e-01 2.241574e-01 5.749981e-01 3.387213e-01 3.194028e-01 5.364155e-01 3.331011e-01 3.475243e-01 3.397454e-01 2.282232e-01
<GCONST> 1.038332e+02
<STATE> 5
<MEAN> 39
 -5.828963e+01 -2.522157e+01 -2.508764e+01 1.036443e+01 -4.370059e+00 1.515838e+01 1.104522e+01 -9.928322e+00 -3.062208e+00 1.626245e+00 -7.331825e+00 8.850619e+00 4.454052e+00 2.637023e+00 2.723005e-01 9.464637e-02 -2.017064e+00 -1.607972e+00 1.038376e+00 1.264018e+00 -3.616538e-01 1.876960e-01 -4.062792e-01 1.456761e+00 2.938012e-01 1.780295e+00 -2.121902e-01 3.552618e+00 5.300298e-01 -1.089313e-01 -4.762463e-01 -4.211238e-01 2.032169e-01 -4.387636e-01 5.064431e-01 -4.795751e-01 3.642724e-01 -1.631258e-02 1.822425e+00
<VARIANCE> 39
 5.719497e+01 4.664631e+01 2.692018e+01 3.215967e+01 6.687489e+01 4.016842e+01 2.781478e+01 4.660701e+01 3.468369e+01 3.844151e+01 3.062114e+01 1.885480e+01 4.342180e+01 4.580292e+00 6.801693e+00 5.236479e+00 5.376861e+00 4.647789e+00 5.137703e+00 3.436809e+00 5.242193e+00 3.124583e+00 3.744217e+00 6.015971e+00 5.451094e+00 1.384140e+01 6.607567e-01 7.484736e-01 3.797863e-01 7.851818e-01 4.996886e-01 7.615604e-01 5.079688e-01 5.714046e-01 7.770221e-01 8.986081e-01 5.632334e-01 4.514512e-01 4.465481e-01
<GCONST> 1.334843e+02
<TRANSP> 6
 0.000000e+00 1.000000e+00 0.000000e+00 0.000000e+00 0.000000e+00 0.000000e+00
 0.000000e+00 0.000000e+00 1.000000e+00 0.000000e+00 0.000000e+00 0.000000e+00
 0.000000e+00 0.000000e+00 5.714494e-01 4.285505e-01 0.000000e+00 0.000000e+00
 0.000000e+00 0.000000e+00 0.000000e+00 8.735126e-01 1.264874e-01 0.000000e+00
 0.000000e+00 0.000000e+00 0.000000e+00 0.000000e+00 7.042013e-01 2.957987e-01
 0.000000e+00 0.000000e+00 0.000000e+00 0.000000e+00 0.000000e+00 0.000000e+00
<ENDHMM>
~h "g"
<BEGINHMM>
<NUMSTATES> 6
<STATE> 2
<MEAN> 39
 -4.503164e+01 -2.052390e+01 -2.301963e+01 4.941844e+00 -5.069297e+00 1.485454e+01 8.736121e+00 -1.011025e+01 -1.486555e+00 1.239608e+01 -1.908849e+00 9.237608e+00 1.974389e+01 7.983691e-02 3.064767e+00 -8.603423e-02 -7.296354e-01 -1.085343e+00 6.399275e-01 -2.304775e-02 -1.038399e+00 1.919189e-01 3.396040e-01 -2.049901e-01 3.068788e-01 -1.023586e+00 3.024989e-01 2.689341e+00 1.042833e+00 1.373267e-01 -4.335877e-01 -6.206644e-01 1.343311e-01 -1.451445e-01 -1.020701e-01 -2.943557e+00 1.361063e-01 6.370665e-01 2.399882e+00
<VARIANCE> 39
 8.668784e+00 1.346195e+01 1.980159e+01 4.402363e+01 4.429026e+01 6.720599e+01 3.188238e+01 1.616986e+01 5.767097e+01 2.731233e+01 5.381026e+01 3.444591e+01 6.366034e+01 8.995095e-01 3.049434e+00 3.198055e+00 3.703459e+00 3.266711e+00 1.394598e+00 3.756351e+00 4.196444e+00 4.139291e+00 3.155702e+00 2.871511e+00 2.877009e+00 6.974057e+00 2.851119e-01 4.199395e-01 8.073955e-01 5.723131e-01 7.412942e-01 3.197765e-01 9.883123e-01 1.161670e+00 9.224622e-01 4.291851e-01 7.231931e-01 8.827778e-01 6.919764e-01
<GCONST> 1.249305e+02
<STATE> 3
<MEAN> 39
 -4.616149e+01 -2.026911e+01 -2.352729e+01 3.867852e+00 -5.069208e+00 1.466274e+01 7.395358e+00 -9.685461e+00 1.637804e+00 1.320676e+01 -1.901959e+00 9.879418e+00 1.766389e+01 -5.839872e-01 5.358812e+00 1.108889e+00 -1.111190e-01 -2.299593e+00 -1.413697e-01 -5.114331e-01 1.464796e-01 -2.673211e+00 -2.200657e+00 -4.535922e-01 1.010865e+00 5.002696e+00 9.102206e-01 2.204612e+00 1.022166e+00 -3.496354e-01 -5.725808e-01 -5.248145e-01 3.191440e-01 -1.906421e-01 -3.321745e-01 -2.712810e+00 4.820230e-01 1.188128e-01 2.130585e+00
<VARIANCE> 39
 1.501692e+01 1.835015e+01 2.513248e+01 4.750544e+01 3.885375e+01 6.460158e+01 3.710822e+01 1.842020e+01 3.618529e+01 3.281820e+01 4.954610e+01 3.163970e+01 7.178799e+01 1.284021e+00 3.729247e+00 6.393991e+00 6.106941e+00 6.119889e+00 1.962990e+00 4.138286e+00 5.573696e+00 4.857252e+00 3.709165e+00 4.751642e+00 4.610251e+00 6.855484e+00 2.377523e-01 3.540378e-01 5.545254e-01 6.029853e-01 5.715096e-01 4.134519e-01 6.467502e-01 1.232832e+00 1.095713e+00 4.849144e-01 6.116123e-01 6.146435e-01 4.645218e-01
<GCONST> 1.285884e+02
<STATE> 4
<MEAN> 39
 -5.556189e+01 -2.718932e+01 -2.705179e+01 6.604634e+00 -2.170887e+00 1.293514e+01 6.373750e+00 -7.386763e+00 3.521274e+00 8.579714e+00 -2.052594e+00 1.141943e+01 1.150397e+01 1.306391e+00 3.896829e+00 1.882315e+00 -6.700273e-01 -3.332769e+00 -4.062690e-01 4.354030e-01 9.994961e-02 -2.046333e+00 -1.428924e+00 1.017292e+00 1.555020e+00 3.759352e+00 8.421108e-01 1.580759e+00 5.281155e-01 -5.499803e-01 -4.557953e-01 -1.332055e-01 4.761397e-01 -5.115765e-01 7.421216e-01 -1.814410e+00 5.227069e-01 -7.614906e-01 9.520599e-01
<VARIANCE> 39
 4.569784e+01 3.553746e+01 4.453839e+01 5.144434e+01 8.551013e+01 7.437585e+01 5.324960e+01 3.640202e+01 4.498298e+01 3.641290e+01 5.042131e+01 3.271006e+01 6.108816e+01 2.593285e+00 4.462812e+00 4.793030e+00 2.569608e+00 5.961027e+00 3.669993e+00 3.120740e+00 5.596600e+00 5.168513e+00 6.375498e+00 4.505516e+00 3.571273e+00 9.295531e+00 4.186960e-01 4.409879e-01 5.952201e-01 1.158660e+00 5.881525e-01 5.507245e-01 7.392697e-01 1.315771e+00 1.137738e+00 6.713505e-01 6.910365e-01 8.275108e-01 6.272244e-01
<GCONST> 1.369532e+02
<STATE> 5
<MEAN> 39
 -5.533337e+01 -3.465300e+01 -2.887001e+01 8.434862e+00 -8.053603e+00 1.426741e+01 3.133165e+00 -1.132901e+01 -4.743046e-01 1.050865e+01 2.786454e+00 1.150271e+01 9.776888e+00 -3.217212e-02 1.774732e+00 7.948514e-01 -9.821209e-01 -2.430611e+00 5.589776e-01 3.276191e-01 -2.784865e-01 9.464827e-01 1.209571e+00 1.064334e+00 8.218380e-01 2.765122e+00 1.895820e-01 2.329641e+00 -3.069936e-01 -1.164909e-02 -9.406280e-02 4.113999e-02 -1.270301e-01 -1.010688e+00 1.972972e-01 -2.353687e+00 -1.675033e-01 -5.658296e-01 1.486136e+00
<VARIANCE> 39
 2.937575e+01 5.612171e+01 4.933767e+01 4.920401e+01 9.651786e+01 7.146560e+01 5.669873e+01 6.902447e+01 4.734683e+01 2.949820e+01 5.687258e+01 4.063058e+01 4.936569e+01 1.951166e+00 3.082154e+00 4.944325e+00 2.214622e+00 6.829252e+00 3.522128e+00 3.802178e+00 5.203146e+00 6.069057e+00 4.461777e+00 5.600179e+00 3.951114e+00 6.500550e+00 3.253774e-01 4.464515e-01 4.728936e-01 4.815165e-01 5.067583e-01 4.966378e-01 5.902411e-01 9.428182e-01 8.847318e-01 3.191885e-01 5.573325e-01 6.190900e-01 3.375628e-01
<GCONST> 1.327079e+02
<TRANSP> 6
 0.000000e+00 1.000000e+00 0.000000e+00 0.000000e+00 0.000000e+00 0.000000e+00
 0.000000e+00 7.007744e-01 2.992256e-01 0.000000e+00 0.000000e+00 0.000000e+00
 0.000000e+00 0.000000e+00 2.379296e-01 7.620704e-01 0.000000e+00 0.000000e+00
 0.000000e+00 0.000000e+00 0.000000e+00 5.043057e-01 4.956944e-01 0.000000e+00
 0.000000e+00 0.000000e+00 0.000000e+00 0.000000e+00 5.612302e-01 4.387697e-01
 0.000000e+00 0.000000e+00 0.000000e+00 0.000000e+00 0.000000e+00 0.000000e+00
<ENDHMM>
~h "h"
<BEGINHMM>
<NUMSTATES> 6
<STATE> 2
<MEAN> 39
 -5.656301e+01 -3.151768e+01 -2.083388e+01 6.177834e+00 1.606662e+00 1.223569e+01 1.126959e+01 -6.027155e+00 3.796738e-01 -3.708415e+00 -8.478726e+00 1.246468e+01 1.648853e+01 -3.283408e-01 3.449120e+00 -1.933945e-01 -5.011815e-01 -9.911542e-01 1.908293e+00 -2.319471e-01 -1.550512e+00 -5.461354e-01 -1.458211e+00 4.251663e-01 3.626770e-01 -2.160419e+00 5.001351e-01 2.482975e+00 6.433191e-01 -3.967931e-01 -1.780148e-01 -7.125658e-01 2.305801e-02 -5.170782e-01 3.145241e-01 -9.791614e-01 4.711404e-01 2.126001e-01 2.003766e+00
<VARIANCE> 39
 3.589510e+01 5.181455e+01 4.910181e+01 5.019199e+01 9.149831e+01 6.547755e+01 6.016486e+01 7.296782e+01 5.788411e+01 9.227497e+01 4.940553e+01 5.935038e+01 8.971060e+01 1.719920e+00 3.678482e+00 2.964864e+00 2.866906e+00 3.556589e+00 3.777315e+00 3.182335e+00 3.778914e+00 3.775846e+00 3.301708e+00 3.054778e+00 2.275318e+00 1.112220e+01 2.508573e-01 3.979384e-01 4.256050e-01 5.412968e-01 7.203140e-01 8.030347e-01 7.266523e-01 7.401163e-01 5.668826e-01 8.052292e-01 5.431699e-01 5.526749e-01 5.145432e-01
<GCONST> 1.335121e+02
<STATE> 3
<MEAN> 39
 -5.663187e+01 -2.994605e+01 -1.929285e+01 7.972905e+00 1.307533e+00 1.343187e+01 1.133173e+01 -7.186017e+00 1.846707e-01 -6.140724e+00 -8.774045e+00 1.509354e+01 1.867621e+01 -2.488954e-01 3.094775e+00 -1.540279e-01 -8.270300e-01 -1.187401e+00 9.629833e-01 5.535959e-02 -1.008335e+00 -5.028139e-01 -1.330077e+00 2.607732e-01 1.070078e-01 -1.104453e+00 7.700875e-01 2.512867e+00 3.285674e-01 -6.279752e-01 -9.660962e-02 -9.238139e-01 1.035411e-01 -6.273634e-01 6.158437e-01 -6.855065e-01 4.455559e-01 2.116818e-01 2.099395e+00
<VARIANCE> 39
 3.857977e+01 4.492561e+01 4.240589e+01 5.055523e+01 8.483813e+01 6.176365e+01 5.181423e+01 5.374724e+01 5.161800e+01 8.624558e+01 4.362018e+01 5.841857e+01 1.140031e+02 2.102222e+00 2.660406e+00 2.524868e+00 2.496312e+00 3.027548e+00 5.669985e+00 2.738741e+00 2.827942e+00 3.436109e+00 3.635379e+00 2.522620e+00 2.165615e+00 6.403306e+00 3.180051e-01 3.041354e-01 3.859729e-01 5.645497e-01 7.203190e-01 8.858073e-01 6.373889e-01 5.511857e-01 6.933581e-01 8.074180e-01 5.224550e-01 5.313483e-01 4.635626e-01
<GCONST> 1.308285e+02
<STATE> 4
<MEAN> 39
 -5.478038e+01 -2.854013e+01 -1.775369e+01 9.023365e+00 6.337849e-01 1.221430e+01 1.022704e+01 -7.361865e+00 2.380462e+00 -6.889874e+00 -8.999698e+00 1.627446e+01 1.867815e+01 8.758371e-01 2.736226e+00 -6.514284e-01 -1.104600e+00 -1.166079e+00 2.823160e-01 5.472528e-01 -8.215005e-01 -7.191139e-02 -3.828985e-01 -8.560523e-02 2.519962e-01 -4.576378e-01 6.300344e-01 2.591918e+00 2.123103e-01 -3.270591e-01 -1.440181e-01 -1.957303e-01 2.679243e-01 -6.473944e-01 3.557296e-01 -7.164404e-02 2.144850e-01 4.232988e-01 1.736253e+00
<VARIANCE> 39
 4.797075e+01 4.590100e+01 3.867294e+01 4.543689e+01 6.214654e+01 5.804537e+01 4.513694e+01 4.092813e+01 3.122515e+01 7.107265e+01 3.634123e+01 5.327485e+01 1.343800e+02 2.061667e+00 1.575502e+00 1.522314e+00 1.824996e+00 2.169891e+00 5.656765e+00 2.086487e+00 1.861385e+00 2.546843e+00 2.937155e+00 2.112138e+00 1.618156e+00 4.388763e+00 3.434286e-01 2.062919e-01 2.500832e-01 3.796938e-01 3.850844e-01 9.479477e-01 4.084854e-01 4.207498e-01 6.002213e-01 1.069844e+00 3.998266e-01 4.550135e-01 2.698565e-01
<GCONST> 1.222893e+02
<STATE> 5
<MEAN> 39
 -5.511281e+01 -2.736961e+01 -2.056232e+01 8.028337e+00 7.903016e-01 1.269819e+01 9.922798e+00 -7.172368e+00 3.071810e+00 -2.741114e+00 -8.433137e+00 1.357118e+01 1.719452e+01 1.144732e+00 2.519371e+00 -4.138878e-01 -1.358713e+00 -1.683958e+00 -4.684682e-01 1.038381e+00 -3.018120e-01 -1.248777e-02 -3.390998e-02 1.415875e-02 2.255542e-01 1.449477e-01 1.422732e-01 2.668819e+00 4.501481e-01 -1.954229e-01 -8.670169e-02 -2.832036e-01 2.993330e-01 -5.981489e-01 3.035025e-01 -7.910630e-01 1.443757e-01 2.174446e-01 1.890085e+00
<VARIANCE> 39
 5.842563e+01 7.629983e+01 4.249987e+01 5.148250e+01 8.056736e+01 6.703906e+01 6.258867e+01 6.524355e+01 4.091655e+01 7.408807e+01 4.239146e+01 4.486729e+01 1.083081e+02 3.871150e+00 3.616441e+00 3.313058e+00 3.021280e+00 4.165651e+00 6.371005e+00 3.214121e+00 3.991904e+00 3.777447e+00 3.941807e+00 3.660794e+00 2.497288e+00 1.676819e+01 6.829894e-01 3.964480e-01 4.751998e-01 6.048231e-01 5.522907e-01 1.067951e+00 6.245519e-01 6.008127e-01 7.599077e-01 1.112098e+00 5.376940e-01 5.772979e-01 5.302560e-01
<GCONST> 1.374040e+02
<TRANSP> 6
 0.000000e+00 1.000000e+00 0.000000e+00 0.000000e+00 0.000000e+00 0.000000e+00
 0.000000e+00 2.763030e-05 9.999723e-01 0.000000e+00 0.000000e+00 0.000000e+00
 0.000000e+00 0.000000e+00 3.833229e-01 6.166771e-01 0.000000e+00 0.000000e+00
 0.000000e+00 0.000000e+00 0.000000e+00 7.164387e-01 2.835614e-01 0.000000e+00
 0.000000e+00 0.000000e+00 0.000000e+00 0.000000e+00 5.349344e-01 4.650656e-01
 0.000000e+00 0.000000e+00 0.000000e+00 0.000000e+00 0.000000e+00 0.000000e+00
<ENDHMM>
~h "i"
<BEGINHMM>
<NUMSTATES> 6
<STATE> 2
<MEAN> 39
 -5.690319e+01 -3.262641e+01 -2.681141e+01 9.269022e+00 -1.362685e+01 2.520490e+01 -2.933724e+00 -1.126499e+01 1.820565e+00 9.120655e+00 -4.464607e+00 1.120461e+01 8.608928e+00 3.970187e-01 3.767776e+00 3.378115e+00 -1.106234e+00 -3.196672e+00 1.649914e-01 9.677572e-01 2.927997e-01 -2.298604e-01 2.690506e-01 2.548698e-01 -4.502812e-01 4.237061e-01 -3.779075e-01 2.662903e+00 -7.246565e-01 -1.653673e-01 -1.632726e-02 -6.633382e-02 -3.902910e-02 -9.121330e-01 1.001634e-01 -2.672460e+00 -2.564969e-01 -1.022389e-01 1.300426e+00
<VARIANCE> 39
 3.264157e+01 3.005974e+01 4.585981e+01 2.762461e+01 2.555723e+01 4.435180e+01 6.892790e+01 9.575535e+01 4.155080e+01 1.948935e+01 4.608125e+01 4.531456e+01 4.661213e+01 1.810723e+00 4.253679e+00 4.915987e+00 2.465022e+00 5.485172e+00 3.580681e+00 3.817890e+00 5.256509e+00 3.314116e+00 2.803061e+00 3.459585e+00 4.434488e+00 3.883152e+00 8.204929e-01 1.405521e+00 8.812755e-01 4.853234e-01 7.950271e-01 7.661552e-01 8.150619e-01 8.246852e-01 4.185419e-01 3.147197e-01 6.486050e-01 5.554035e-01 3.206233e-01
<GCONST> 1.307647e+02
<STATE> 3
<MEAN> 39
 -5.978870e+01 -3.248712e+01 -2.651753e+01 8.863856e+00 -1.436539e+01 3.028178e+01 -8.936531e+00 -1.233576e+01 2.264824e+00 1.171488e+01 -4.166883e+00 1.076728e+01 8.084356e+00 -1.949966e-01 2.832498e+00 4.278332e-01 -5.414763e-01 -1.141013e+00 4.770406e-01 1.052449e+00 -9.553550e-01 -3.379494e-01 -2.218593e-01 -1.919841e-01 5.792682e-01 -7.279985e-01 3.643014e-01 2.584327e+00 9.060991e-02 1.443545e-02 -9.305130e-02 -1.250671e-01 4.035389e-01 -7.538503e-01 2.013343e-01 -2.799263e+00 -1.246830e-01 1.577882e-02 1.516070e+00
<VARIANCE> 39
 2.279998e+01 2.654227e+01 5.078844e+01 3.198377e+01 2.104677e+01 4.210337e+01 7.574628e+01 1.250659e+02 3.280310e+01 1.850795e+01 5.182502e+01 5.889553e+01 4.194920e+01 5.359924e-01 2.236107e+00 1.769282e+00 1.138115e+00 2.712566e+00 1.632417e+00 1.889090e+00 2.625943e+00 1.725340e+00 1.324817e+00 2.067708e+00 2.222772e+00 2.040996e+00 1.043462e-01 4.090741e-01 7.842053e-01 2.067080e-01 5.423579e-01 3.786879e-01 5.067924e-01 5.488495e-01 3.033334e-01 3.408650e-01 3.194678e-01 3.386075e-01 1.917528e-01
<GCONST> 1.126427e+02
<STATE> 4
<MEAN> 39
 -5.572747e+01 -3.373808e+01 -2.667371e+01 8.960550e+00 -1.550848e+01 2.941891e+01 -3.295943e+00 -1.179323e+01 2.611118e+00 1.133638e+01 -3.372286e+00 1.062195e+01 8.297010e+00 -7.206348e-01 1.559287e+00 -3.486365e+00 -7.452735e-01 1.171444e-01 1.361823e+00 2.405016e-01 -1.480477e+00 -3.876017e-01 -1.002013e-02 -1.620763e-01 3.223220e-01 -2.282660e+00 5.597314e-01 2.834991e+00 2.684609e-01 -9.326882e-02 -2.735808e-01 -6.118149e-02 -3.795075e-01 -4.481215e-01 1.635791e-01 -2.616993e+00 -1.469203e-01 -6.581046e-02 1.264815e+00
<VARIANCE> 39
 3.070523e+01 3.046830e+01 4.736087e+01 2.648723e+01 2.428852e+01 6.055018e+01 6.476772e+01 9.925394e+01 4.153900e+01 2.195234e+01 5.632036e+01 4.988483e+01 5.058606e+01 1.579343e+00 6.033752e+00 4.098737e+00 2.162279e+00 4.471031e+00 3.778807e+00 3.974503e+00 4.672885e+00 4.529747e+00 2.645844e+00 2.968983e+00 3.013305e+00 7.218141e+00 1.323782e-01 4.427582e-01 7.624651e-01 3.342862e-01 6.288809e-01 4.874225e-01 7.894237e-01 9.688125e-01 6.725467e-01 3.574266e-01 5.364110e-01 6.024449e-01 3.204366e-01
<GCONST> 1.278836e+02
<STATE> 5
<MEAN> 39
 -5.117409e+01 -2.469178e+01 -2.280226e+01 8.047906e+00 -8.904080e+00 2.095265e+01 3.303485e+00 -9.973698e+00 1.164741e+00 9.310368e+00 -6.220295e+00 1.094755e+01 1.128056e+01 -5.518353e-01 2.497552e+00 -2.811403e+00 -9.630709e-01 -5.297610e-01 1.411887e+00 -6.474550e-02 -1.222726e+00 -7.583268e-02 -8.518758e-01 -6.513201e-02 -2.994437e-01 -2.073842e+00 8.443772e-01 2.912697e+00 1.638389e+00 -1.367753e-01 -3.555679e-01 -4.949423e-01 4.726331e-01 -5.813727e-01 1.120622e-01 -1.843905e+00 2.496663e-01 -4.398053e-02 1.702280e+00
<VARIANCE> 39
 5.294033e+01 6.504288e+01 3.229367e+01 2.743009e+01 4.653895e+01 7.961102e+01 5.704678e+01 5.630110e+01 4.698490e+01 3.754161e+01 5.106189e+01 4.196325e+01 8.343576e+01 3.283661e+00 5.572454e+00 5.640623e+00 2.512735e+00 3.768426e+00 5.360874e+00 4.683180e+00 5.596215e+00 5.177771e+00 5.100774e+00 2.859667e+00 3.771480e+00 8.379311e+00 3.972131e-01 4.700572e-01 7.875856e-01 5.560822e-01 8.171974e-01 8.015490e-01 8.763259e-01 8.709040e-01 8.936707e-01 1.265271e+00 5.400802e-01 6.636689e-01 3.813588e-01
<GCONST> 1.370126e+02
<TRANSP> 6
 0.000000e+00 1.000000e+00 0.000000e+00 0.000000e+00 0.000000e+00 0.000000e+00
 0.000000e+00 5.077534e-01 4.922466e-01 0.000000e+00 0.000000e+00 0.000000e+00
 0.000000e+00 0.000000e+00 7.436194e-01 2.563805e-01 0.000000e+00 0.000000e+00
 0.000000e+00 0.000000e+00 0.000000e+00 5.043528e-01 4.956472e-01 0.000000e+00
 0.000000e+00 0.000000e+00 0.000000e+00 0.000000e+00 5.085898e-01 4.914103e-01
 0.000000e+00 0.000000e+00 0.000000e+00 0.000000e+00 0.000000e+00 0.000000e+00
<ENDHMM>
~h "j"
<BEGINHMM>
<NUMSTATES> 6
<STATE> 2
<MEAN> 39
 -4.921163e+01 -1.959108e+01 -2.282490e+01 4.430978e+00 -7.293890e+00 1.005852e+01 7.166283e+00 -8.557528e+00 8.759376e-01 1.214843e+01 -5.911756e+00 1.226344e+01 1.980127e+01 6.491672e-01 3.286934e+00 -1.223131e+00 -1.100664e+00 -3.418235e-01 1.335628e+00 3.065463e-01 -1.158627e+00 1.729455e+00 1.413018e-01 5.452671e-02 -2.915331e-01 -2.470569e+00 1.937744e-01 2.885316e+00 9.447691e-01 7.936966e-02 -3.700161e-01 -8.906048e-01 5.395926e-01 -4.662791e-01 5.559196e-01 -2.579643e+00 4.139634e-04 5.246236e-01 2.100902e+00
<VARIANCE> 39
 2.826735e+01 1.597992e+01 1.592060e+01 1.642481e+01 2.490023e+01 4.199192e+01 3.228635e+01 2.046057e+01 5.108384e+01 2.786007e+01 3.565095e+01 2.318803e+01 5.891039e+01 1.696324e+00 9.936221e+00 5.163529e+00 3.147061e+00 4.224645e+00 3.019946e+00 2.741176e+00 4.160039e+00 4.066036e+00 4.358886e+00 2.266504e+00 2.409189e+00 9.007538e+00 6.594093e-01 9.487700e-01 7.733012e-01 5.287132e-01 6.949518e-01 6.840967e-01 6.362912e-01 8.681090e-01 8.935568e-01 4.190218e-01 4.498009e-01 7.336364e-01 4.884343e-01
<GCONST> 1.267114e+02
<STATE> 3
<MEAN> 39
 -5.055293e+01 -1.780581e+01 -2.234183e+01 3.883598e+00 -5.395291e+00 9.549763e+00 7.465024e+00 -9.310163e+00 3.839620e-01 1.241671e+01 -6.884394e+00 1.205987e+01 2.312479e+01 1.661015e-01 6.514388e+00 7.818844e-01 -3.127166e-01 -4.106694e-01 1.669176e-01 3.955375e-01 -1.494765e+00 -6.353554e-01 -9.503237e-01 -2.459702e-01 5.635754e-01 1.046655e+00 6.283064e-01 2.575607e+00 7.031147e-01 -1.176703e-01 -1.365148e-01 -7.183951e-01 6.317165e-01 -4.057156e-01 -9.771722e-03 -2.409143e+00 -3.172425e-02 4.367907e-01 1.907463e+00
<VARIANCE> 39
 6.376960e+01 9.475557e+00 1.551973e+01 1.941985e+01 1.270604e+01 3.001983e+01 2.710348e+01 1.635214e+01 3.122472e+01 2.834229e+01 2.387018e+01 1.624587e+01 6.882994e+01 1.030398e+00 1.327016e+01 4.071799e+00 2.124477e+00 2.845077e+00 2.547010e+00 1.852656e+00 2.930134e+00 4.115617e+00 4.696718e+00 2.095752e+00 1.904632e+00 7.443903e+00 3.833176e-01 1.581588e+00 6.519275e-01 4.708879e-01 5.126940e-01 5.717747e-01 5.388760e-01 6.358544e-01 8.408425e-01 5.511720e-01 4.183040e-01 6.681015e-01 5.272266e-01
<GCONST> 1.209401e+02
<STATE> 4
<MEAN> 39
 -6.936304e+01 -2.424012e+01 -2.355075e+01 7.360560e+00 -9.738811e+00 1.375564e+01 5.188814e+00 -1.179269e+01 1.900461e+00 1.056537e+01 -9.154151e+00 1.468383e+01 1.244138e+01 1.165824e+00 -1.636073e-01 1.816033e+00 -3.321361e-01 -2.632714e+00 -8.586355e-01 -4.908907e-02 -7.784079e-01 -1.677454e+00 7.755440e-03 3.279966e-01 2.117723e+00 3.502958e+00 2.648709e-01 1.759221e+00 -1.188570e-01 -3.900295e-01 -1.350776e-01 4.311001e-02 -5.455477e-01 2.876136e-02 5.468558e-01 -1.918152e+00 1.729839e-01 -4.763495e-01 1.369615e+00
<VARIANCE> 39
 5.326986e+01 3.324549e+01 3.138758e+01 1.504991e+01 2.979218e+01 4.823452e+01 4.183089e+01 3.927513e+01 3.612582e+01 2.722444e+01 2.420531e+01 2.525898e+01 4.246657e+01 2.330338e+00 1.594599e+01 6.009768e+00 1.573086e+00 4.659319e+00 5.957253e+00 2.746073e+00 4.701889e+00 4.262459e+00 5.486078e+00 4.970768e+00 3.115075e+00 4.803685e+00 4.742016e-01 3.174251e+00 7.718400e-01 3.121355e-01 5.437116e-01 8.422224e-01 1.356179e+00 8.940521e-01 7.642654e-01 5.499602e-01 4.519364e-01 6.265258e-01 2.302891e-01
<GCONST> 1.310493e+02
<STATE> 5
<MEAN> 39
 -5.875027e+01 -3.595455e+01 -2.446442e+01 8.449443e+00 -1.186769e+01 1.292916e+01 2.908705e+00 -1.226061e+01 1.352813e+00 1.117966e+01 -6.114560e+00 1.521072e+01 1.032698e+01 -5.296594e-01 5.868168e-01 -7.147704e-01 -7.811057e-01 -3.034163e+00 8.878481e-01 -4.506678e-02 5.109803e-01 8.132361e-01 1.030181e+00 1.142867e+00 -2.084774e-01 3.953257e+00 1.459770e-01 4.557154e+00 -1.793582e-01 -5.775815e-01 1.506485e-03 3.929678e-01 -6.540663e-01 -1.233798e+00 -2.448351e-01 -2.387745e+00 3.275669e-01 -5.726333e-01 1.203060e+00
<VARIANCE> 39
 2.341544e+01 3.347073e+01 4.776680e+01 1.594428e+01 2.163979e+01 4.402356e+01 3.751266e+01 7.449255e+01 4.686406e+01 2.046467e+01 2.688815e+01 3.659359e+01 2.999090e+01 9.931369e-01 3.787478e+00 5.792243e+00 1.481219e+00 4.145328e+00 3.102191e+00 2.351211e+00 3.555921e+00 9.402225e+00 2.981094e+00 6.994926e+00 4.228043e+00 6.123360e+00 3.485575e-01 7.397043e-01 9.028224e-01 5.144512e-01 6.304118e-01 9.068989e-01 7.791059e-01 6.355163e-01 6.221353e-01 2.488936e-01 4.965993e-01 3.807942e-01 1.263347e-01
<GCONST> 1.246299e+02
<TRANSP> 6
 0.000000e+00 1.000000e+00 0.000000e+00 0.000000e+00 0.000000e+00 0.000000e+00
 0.000000e+00 0.000000e+00 1.000000e+00 0.000000e+00 0.000000e+00 0.000000e+00
 0.000000e+00 0.000000e+00 7.980982e-01 2.019018e-01 0.000000e+00 0.000000e+00
 0.000000e+00 0.000000e+00 0.000000e+00 7.376955e-01 2.623045e-01 0.000000e+00
 0.000000e+00 0.000000e+00 0.000000e+00 0.000000e+00 0.000000e+00 1.000000e+00
 0.000000e+00 0.000000e+00 0.000000e+00 0.000000e+00 0.000000e+00 0.000000e+00
<ENDHMM>
~h "k"
<BEGINHMM>
<NUMSTATES> 6
<STATE> 2
<MEAN> 39
 -5.029576e+01 -1.723794e+01 -2.393524e+01 6.934815e+00 -5.886285e-01 1.194562e+01 8.056244e+00 -9.027381e+00 2.168529e+00 8.139696e-01 -5.889253e+00 1.085039e+01 6.931611e+00 -1.477481e+00 2.542073e+00 -9.107249e-01 -8.045236e-01 -1.325923e+00 6.956815e-01 1.872510e-01 -6.894128e-01 -9.158378e-01 -1.604200e+00 -4.445738e-01 2.030161e-01 -2.726141e+00 1.148682e+00 2.726525e+00 6.117488e-01 -4.969205e-01 -3.504080e-01 -4.892685e-01 2.150099e-01 -5.946834e-01 7.614335e-01 -7.292193e-01 4.016247e-01 -6.294868e-02 2.922225e+00
<VARIANCE> 39
 2.970024e+01 1.875211e+01 2.918512e+01 7.270307e+01 6.134186e+01 7.238609e+01 3.450436e+01 2.525878e+01 7.193763e+01 4.317057e+01 3.147397e+01 2.374681e+01 5.831646e+01 3.540360e+00 4.016164e+00 3.804089e+00 6.398839e+00 3.329279e+00 4.292060e+00 5.160163e+00 4.379799e+00 4.565084e+00 4.526905e+00 3.233186e+00 3.919004e+00 1.562883e+01 5.433813e-01 7.308946e-01 7.868808e-01 9.895968e-01 9.560177e-01 9.654235e-01 1.712550e+00 1.136502e+00 9.160548e-01 9.274566e-01 7.731851e-01 8.380830e-01 9.312236e-01
<GCONST> 1.382371e+02
<STATE> 3
<MEAN> 39
 -4.793193e+01 -1.583762e+01 -2.292985e+01 7.310833e+00 -1.689629e+00 1.184476e+01 8.297926e+00 -8.957581e+00 1.396706e+00 1.155450e+00 -6.367342e+00 1.033977e+01 5.569454e+00 1.254029e+00 3.585892e+00 -7.512212e-01 -5.844067e-01 -1.254598e+00 -5.237803e-01 4.264110e-01 -8.124116e-01 -4.416509e-01 -3.036873e-01 -1.493561e-01 2.116484e-01 1.970626e+00 1.157556e+00 2.786843e+00 3.208433e-01 -1.442297e-01 -3.019204e-01 -1.999498e-01 9.478301e-02 -3.716949e-01 5.587140e-01 -7.413857e-02 2.817545e-01 2.616842e-01 2.408142e+00
<VARIANCE> 39
 1.675968e+01 8.439706e+00 1.572513e+01 4.393035e+01 2.149401e+01 3.439282e+01 1.869985e+01 1.347337e+01 5.033031e+01 2.992307e+01 1.954922e+01 1.639510e+01 4.171164e+01 3.706800e+00 4.609811e+00 3.103652e+00 5.050667e+00 3.044131e+00 4.677806e+00 3.283929e+00 3.142803e+00 3.429745e+00 3.847268e+00 3.467459e+00 3.850778e+00 1.473543e+01 6.594631e-01 5.201177e-01 4.996395e-01 8.256863e-01 5.803127e-01 9.511345e-01 1.091993e+00 9.583560e-01 9.232059e-01 6.914436e-01 6.231160e-01 6.519902e-01 1.031646e+00
<GCONST> 1.267395e+02
<STATE> 4
<MEAN> 39
 -5.781336e+01 -2.509509e+01 -2.626585e+01 8.278042e+00 1.984039e+00 8.214900e+00 1.005963e+01 -7.575851e+00 1.271868e+00 1.719634e+00 -4.468076e+00 9.705645e+00 3.804600e+00 2.562582e+00 2.859617e+00 -9.170130e-02 -1.032357e+00 -1.190155e+00 1.707381e+00 9.512443e-01 -5.681563e-01 6.720977e-01 -2.188525e-02 6.118218e-01 6.747093e-01 3.473396e+00 1.387106e-01 1.963246e+00 5.471305e-01 -5.578607e-01 -4.125655e-02 3.406548e-01 3.724493e-01 -5.609919e-01 2.547352e-02 -3.714132e-01 4.650274e-01 -1.796242e-01 1.211131e+00
<VARIANCE> 39
 4.962547e+01 3.878994e+01 4.215707e+01 7.017896e+01 8.480536e+01 5.507639e+01 5.133263e+01 4.146963e+01 5.699779e+01 3.232257e+01 3.513426e+01 2.239852e+01 4.415119e+01 3.516470e+00 9.512273e+00 3.772658e+00 4.346559e+00 4.648970e+00 6.577542e+00 4.322084e+00 4.637116e+00 4.967039e+00 4.013549e+00 4.969803e+00 4.019941e+00 1.585343e+01 8.901338e-01 6.558663e-01 4.616086e-01 1.207894e+00 6.374725e-01 1.177224e+00 1.082404e+00 9.580409e-01 8.344042e-01 6.247289e-01 8.069256e-01 6.677278e-01 1.016267e+00
<GCONST> 1.401683e+02
<STATE> 5
<MEAN> 39
 -5.581052e+01 -2.790340e+01 -2.421313e+01 6.558329e+00 1.063715e+00 9.378027e+00 1.027660e+01 -7.907304e+00 -1.895395e+00 2.106781e+00 -2.916240e+00 9.498659e+00 7.166727e+00 1.444489e+00 1.350071e+00 7.749261e-01 -1.758694e+00 -1.468407e+00 1.716472e+00 1.872797e+00 4.835111e-02 1.361409e+00 -6.179971e-01 8.155954e-01 6.980777e-01 3.529833e+00 -7.505885e-01 2.746914e+00 2.372714e-01 -9.709978e-02 -3.230346e-01 -4.331243e-01 -9.781229e-02 -4.525959e-01 1.935307e-01 -1.272096e+00 5.958705e-02 3.837009e-01 1.427576e+00
<VARIANCE> 39
 5.614845e+01 7.513313e+01 3.858206e+01 6.962856e+01 7.315240e+01 4.736527e+01 5.759467e+01 4.699322e+01 4.463919e+01 3.646952e+01 4.154868e+01 2.767832e+01 4.340976e+01 3.019917e+00 7.680735e+00 3.711330e+00 3.624063e+00 7.381741e+00 4.838464e+00 5.212130e+00 5.737833e+00 5.907779e+00 4.152029e+00 7.276840e+00 4.631148e+00 1.299466e+01 6.893446e-01 5.286224e-01 3.413426e-01 7.241579e-01 4.925584e-01 9.725523e-01 7.782480e-01 7.049497e-01 6.247699e-01 8.151240e-01 5.080122e-01 4.784836e-01 6.528687e-01
<GCONST> 1.379272e+02
<TRANSP> 6
 0.000000e+00 1.000000e+00 0.000000e+00 0.000000e+00 0.000000e+00 0.000000e+00
 0.000000e+00 0.000000e+00 1.000000e+00 0.000000e+00 0.000000e+00 0.000000e+00
 0.000000e+00 0.000000e+00 6.986071e-01 3.013929e-01 0.000000e+00 0.000000e+00
 0.000000e+00 0.000000e+00 0.000000e+00 6.612394e-01 3.387606e-01 0.000000e+00
 0.000000e+00 0.000000e+00 0.000000e+00 0.000000e+00 0.000000e+00 1.000000e+00
 0.000000e+00 0.000000e+00 0.000000e+00 0.000000e+00 0.000000e+00 0.000000e+00
<ENDHMM>
~h "l"
<BEGINHMM>
<NUMSTATES> 6
<STATE> 2
<MEAN> 39
 -5.181795e+01 -3.790298e+01 -1.942969e+01 1.151990e+01 8.143564e+00 1.052994e+01 2.190313e+00 -3.252839e-01 7.119779e-01 8.608727e+00 -1.110578e+01 5.542285e+00 1.224219e+01 2.872538e-01 2.589056e+00 -1.382095e-01 -3.904988e-01 -1.043360e+00 4.936408e-01 4.124696e-01 -5.676029e-01 -7.375959e-01 3.492367e-02 -4.039872e-01 -8.227047e-01 -1.168409e+00 2.944627e-01 2.533783e+00 5.233195e-01 -5.076387e-01 -8.442863e-01 -1.255765e-01 3.621087e-01 -4.119782e-01 8.550898e-02 -2.230043e+00 -1.006831e-01 -2.937731e-01 2.205855e+00
<VARIANCE> 39
 3.590113e+01 3.651989e+01 5.723219e+01 5.769802e+01 7.227065e+01 8.536351e+01 1.088308e+02 1.286606e+02 7.584670e+01 5.698700e+01 9.208253e+01 6.458806e+01 6.833782e+01 4.256551e-01 1.420773e+00 2.001084e+00 1.493249e+00 4.394735e+00 1.214929e+00 3.814135e+00 4.744190e+00 2.944931e+00 2.696715e+00 4.086069e+00 2.725675e+00 4.299642e+00 1.625732e-01 3.198760e-01 3.730654e-01 6.229470e-01 9.769834e-01 2.593582e-01 1.132877e+00 1.220009e+00 3.719741e-01 5.035779e-01 7.127572e-01 4.434435e-01 3.753826e-01
<GCONST> 1.283510e+02
<STATE> 3
<MEAN> 39
 -5.031689e+01 -3.610847e+01 -2.036696e+01 1.285692e+01 6.437081e+00 1.241497e+01 1.458488e+00 -1.009012e+00 2.760223e+00 7.737601e+00 -1.068385e+01 5.939313e+00 1.156636e+01 -3.185547e-01 3.513289e+00 -4.063202e-01 -9.450178e-01 -2.611783e+00 1.042071e+00 6.118822e-01 -1.103311e+00 6.961501e-01 -1.960064e-01 -4.199207e-01 4.969634e-01 -1.632849e-01 2.599269e-01 2.588716e+00 3.277301e-01 -5.077307e-01 -8.807551e-01 -4.599869e-02 6.977413e-01 -3.144813e-01 1.917965e-02 -2.374819e+00 -3.547625e-01 -6.958218e-01 2.520623e+00
<VARIANCE> 39
 3.410486e+01 3.122888e+01 5.239582e+01 5.450092e+01 6.437575e+01 8.191539e+01 1.067963e+02 1.194452e+02 6.833242e+01 4.815643e+01 9.198807e+01 6.609742e+01 5.868977e+01 6.584697e-01 1.965201e+00 2.317914e+00 2.617004e+00 4.672590e+00 1.448084e+00 4.453233e+00 6.132738e+00 3.877650e+00 2.608131e+00 4.487998e+00 4.937427e+00 5.845443e+00 1.602796e-01 3.287605e-01 4.523723e-01 5.624728e-01 1.108083e+00 3.150345e-01 1.460556e+00 1.588505e+00 7.424207e-01 4.269165e-01 1.016584e+00 7.704642e-01 6.325554e-01
<GCONST> 1.335965e+02
<STATE> 4
<MEAN> 39
 -5.078245e+01 -3.580450e+01 -2.169959e+01 1.299128e+01 6.375647e+00 1.342327e+01 1.884694e+00 -1.567034e+00 4.479938e+00 8.832664e+00 -1.059594e+01 5.643684e+00 1.060783e+01 -5.761061e-01 4.201701e+00 -8.049749e-01 -1.587746e+00 -2.635273e+00 1.398679e+00 6.477002e-01 -1.463078e+00 2.012647e+00 -8.793093e-01 1.182077e-01 1.641551e+00 7.850388e-01 5.279477e-01 2.301164e+00 4.253505e-01 -1.594740e-01 -2.353642e-01 -2.574257e-01 2.216004e-01 -5.303213e-01 -4.585731e-02 -2.286975e+00 -1.091860e-01 -4.019468e-01 2.286388e+00
<VARIANCE> 39
 2.787352e+01 3.475368e+01 5.157742e+01 5.160290e+01 7.230593e+01 7.788784e+01 1.039593e+02 1.136747e+02 5.321441e+01 4.584568e+01 9.003194e+01 6.273294e+01 5.599183e+01 1.012169e+00 2.634078e+00 2.956729e+00 3.801942e+00 5.589100e+00 1.944605e+00 6.439305e+00 8.190339e+00 6.585793e+00 2.650628e+00 5.405061e+00 7.321133e+00 1.000474e+01 9.688214e-02 3.739954e-01 3.894331e-01 3.581353e-01 8.650716e-01 2.918827e-01 8.616126e-01 1.218020e+00 8.960061e-01 5.215038e-01 7.325130e-01 5.379851e-01 4.171163e-01
<GCONST> 1.343274e+02
<STATE> 5
<MEAN> 39
 -5.173195e+01 -3.218285e+01 -2.249668e+01 1.099837e+01 3.573206e+00 1.076047e+01 4.509119e+00 -4.627265e+00 2.726806e+00 6.289565e+00 -1.053945e+01 5.142085e+00 1.123423e+01 -2.633008e-01 3.754313e+00 -5.655457e-01 -1.629882e+00 -2.037956e+00 1.093975e+00 9.585268e-01 -1.131006e+00 8.956704e-01 -1.455468e+00 5.737994e-01 1.254394e+00 -3.990082e-01 7.135201e-01 2.039295e+00 5.848835e-01 8.169303e-03 1.937394e-01 -4.490301e-01 -3.723834e-01 -8.444080e-01 9.467227e-02 -1.661900e+00 2.317339e-01 6.095283e-02 1.860543e+00
<VARIANCE> 39
 2.924694e+01 9.632712e+01 4.367316e+01 4.410425e+01 8.821116e+01 6.429637e+01 7.600842e+01 9.869946e+01 6.367612e+01 6.289178e+01 7.277233e+01 6.292047e+01 5.635236e+01 2.053036e+00 3.931216e+00 3.826709e+00 3.806420e+00 5.182686e+00 3.374546e+00 6.467422e+00 7.975289e+00 7.660683e+00 5.065482e+00 4.185749e+00 6.057276e+00 1.447502e+01 2.885147e-01 4.744890e-01 4.860601e-01 5.105557e-01 8.617942e-01 4.834293e-01 9.534847e-01 1.265899e+00 7.401549e-01 1.263477e+00 7.350504e-01 5.472726e-01 3.743193e-01
<GCONST> 1.406119e+02
<TRANSP> 6
 0.000000e+00 1.000000e+00 0.000000e+00 0.000000e+00 0.000000e+00 0.000000e+00
 0.000000e+00 5.215564e-01 4.784436e-01 0.000000e+00 0.000000e+00 0.000000e+00
 0.000000e+00 0.000000e+00 2.983748e-01 7.016252e-01 0.000000e+00 0.000000e+00
 0.000000e+00 0.000000e+00 0.000000e+00 6.466651e-02 9.353335e-01 0.000000e+00
 0.000000e+00 0.000000e+00 0.000000e+00 0.000000e+00 4.305125e-01 5.694875e-01
 0.000000e+00 0.000000e+00 0.000000e+00 0.000000e+00 0.000000e+00 0.000000e+00
<ENDHMM>
~h "m"
<BEGINHMM>
<NUMSTATES> 6
<STATE> 2
<MEAN> 39
 -4.591278e+01 -2.740863e+01 -2.405548e+01 5.803716e+00 6.417405e+00 1.878972e+01 9.918480e+00 -6.648479e+00 5.325983e+00 4.728842e+00 -2.000156e+00 1.047208e+01 8.584772e+00 6.607335e-01 2.334115e+00 3.437479e-01 1.070925e-01 -1.717032e+00 4.698282e-01 3.235070e+00 7.158560e-02 -7.791676e-01 -3.771372e-01 2.033056e-01 -4.662260e-01 -1.515076e+00 2.543754e-02 2.357568e+00 6.302096e-01 -2.217321e-01 -4.605480e-01 -2.057948e-01 -2.834856e-01 -4.519225e-01 1.418056e-01 -2.339265e+00 -7.294889e-01 -5.535391e-02 2.371886e+00
<VARIANCE> 39
 7.556541e+00 2.456060e+01 3.852428e+01 4.817026e+01 2.888094e+01 5.917360e+01 4.527705e+01 7.270871e+01 6.299270e+01 4.151017e+01 5.949317e+01 3.715711e+01 3.959096e+01 9.150442e-01 7.420111e-01 1.952550e+00 2.330660e+00 1.961017e+00 2.123658e+00 4.495997e+00 3.041047e+00 3.979926e+00 2.981358e+00 2.955627e+00 1.869639e+00 1.307562e+01 4.866631e-01 2.432052e-01 5.882770e-01 6.871653e-01 6.685935e-01 4.230027e-01 9.854320e-01 7.752644e-01 3.881011e-01 3.359374e-01 8.293259e-01 5.308853e-01 5.733137e-01
<GCONST> 1.231563e+02
<STATE> 3
<MEAN> 39
 -4.561221e+01 -2.765750e+01 -2.398186e+01 4.316774e+00 6.496640e+00 2.086022e+01 9.059202e+00 -6.011213e+00 4.663814e+00 7.747931e+00 -2.359553e+00 1.029014e+01 7.259564e+00 2.727900e-01 2.456823e+00 -1.829439e-01 -8.433434e-01 -1.471089e+00 5.790358e-01 3.741157e-01 -1.067764e+00 -3.603794e-01 -3.519376e-01 3.955053e-01 -3.566235e-01 -8.770066e-02 3.812291e-01 2.163067e+00 2.984293e-01 -7.009050e-02 -6.128537e-01 -2.248136e-01 -1.140367e-01 -6.062276e-01 2.103002e-01 -2.470663e+00 -4.268834e-01 7.810926e-02 1.928767e+00
<VARIANCE> 39
 6.766935e+00 1.592305e+01 3.710669e+01 4.890821e+01 2.261569e+01 7.354454e+01 5.286727e+01 7.026139e+01 3.263023e+01 3.140810e+01 6.334920e+01 3.520465e+01 4.170272e+01 3.366954e-01 5.359806e-01 9.509703e-01 1.557039e+00 1.409092e+00 1.214316e+00 2.293582e+00 1.562237e+00 1.598037e+00 1.261441e+00 1.792718e+00 1.283792e+00 3.128555e+00 1.316458e-01 1.013789e-01 2.676034e-01 3.055968e-01 3.553756e-01 2.488654e-01 3.731882e-01 4.597574e-01 2.977880e-01 2.981367e-01 7.872907e-01 3.218904e-01 3.366986e-01
<GCONST> 1.051476e+02
<STATE> 4
<MEAN> 39
 -4.597417e+01 -2.728268e+01 -2.415424e+01 5.542097e+00 5.819864e+00 2.139997e+01 8.778584e+00 -6.447803e+00 1.970065e+00 6.001104e+00 -2.304030e+00 1.110551e+01 7.365982e+00 -1.181430e-01 2.780323e+00 -8.044186e-01 -1.292625e+00 -1.532488e+00 8.625773e-01 -2.177087e+00 -1.548035e+00 -8.642073e-03 1.005206e-01 9.673919e-01 -4.804184e-01 1.944170e+00 3.994634e-01 2.164732e+00 6.733440e-01 3.313151e-01 -3.825302e-01 -1.499870e-01 -1.892122e-01 -6.931335e-01 1.683323e-01 -2.475220e+00 -5.383714e-01 -9.691767e-02 1.999217e+00
<VARIANCE> 39
 8.247911e+00 1.878337e+01 3.644020e+01 4.970453e+01 2.290448e+01 6.891374e+01 4.585856e+01 6.510294e+01 3.815509e+01 3.157201e+01 6.324200e+01 3.633380e+01 4.213230e+01 8.861332e-01 1.210026e+00 2.474037e+00 4.212551e+00 2.836601e+00 2.116270e+00 4.839884e+00 2.959518e+00 3.323664e+00 1.848554e+00 4.682278e+00 3.166215e+00 9.474765e+00 1.282241e-01 1.439398e-01 3.907446e-01 4.822673e-01 4.769172e-01 2.846988e-01 3.591819e-01 5.530406e-01 4.686576e-01 2.992168e-01 7.624624e-01 3.820634e-01 3.904206e-01
<GCONST> 1.183777e+02
<STATE> 5
<MEAN> 39
 -4.788675e+01 -3.021708e+01 -2.347078e+01 4.759420e+00 9.631010e+00 1.635872e+01 6.905488e+00 -8.448982e+00 -1.869488e+00 5.484319e+00 -4.528422e+00 1.199435e+01 7.139278e+00 -1.594734e-01 3.061758e+00 -6.288148e-02 2.163623e-01 -1.511410e+00 1.271070e+00 -2.412130e+00 -7.729276e-01 9.542606e-01 -5.046616e-01 1.187570e-01 -1.264636e-01 2.482540e+00 5.929202e-01 2.178247e+00 8.449338e-01 3.668158e-01 -1.934148e-01 -2.794566e-01 4.182793e-01 -9.248672e-01 -1.150689e-02 -2.085157e+00 4.369279e-01 -7.137473e-02 1.483858e+00
<VARIANCE> 39
 1.272943e+01 4.963522e+01 3.671061e+01 4.580597e+01 5.927706e+01 5.141921e+01 5.211543e+01 5.771784e+01 4.114779e+01 3.735051e+01 5.584494e+01 3.198214e+01 4.247117e+01 1.033108e+00 1.832110e+00 4.367360e+00 7.097286e+00 3.471500e+00 2.226522e+00 6.105234e+00 4.438200e+00 4.723391e+00 2.923862e+00 6.043688e+00 4.079117e+00 1.177838e+01 1.508166e-01 1.447056e-01 4.186341e-01 8.839030e-01 5.314307e-01 3.406452e-01 7.392798e-01 7.985803e-01 3.781292e-01 5.322401e-01 7.658328e-01 5.758519e-01 3.060426e-01
<GCONST> 1.272107e+02
<TRANSP> 6
 0.000000e+00 1.000000e+00 0.000000e+00 0.000000e+00 0.000000e+00 0.000000e+00
 0.000000e+00 3.433001e-01 6.566998e-01 0.000000e+00 0.000000e+00 0.000000e+00
 0.000000e+00 0.000000e+00 7.031745e-01 2.968255e-01 0.000000e+00 0.000000e+00
 0.000000e+00 0.000000e+00 0.000000e+00 2.171215e-01 7.828784e-01 0.000000e+00
 0.000000e+00 0.000000e+00 0.000000e+00 0.000000e+00 3.751767e-01 6.248233e-01
 0.000000e+00 0.000000e+00 0.000000e+00 0.000000e+00 0.000000e+00 0.000000e+00
<ENDHMM>
~h "n"
<BEGINHMM>
<NUMSTATES> 6
<STATE> 2
<MEAN> 39
 -4.555748e+01 -2.903258e+01 -2.440527e+01 7.337537e+00 3.945433e-01 1.350646e+01 8.837409e+00 -6.369932e+00 -1.534875e+00 2.993752e+00 -1.135163e+01 1.073569e+01 1.230193e+01 5.792248e-01 2.458955e+00 -1.125398e-01 -1.271170e+00 -1.196493e+00 3.084965e-01 2.062422e+00 -2.084604e+00 -1.386547e+00 5.738602e-01 5.445087e-01 -9.893016e-01 -3.994407e+00 2.351726e-01 2.544805e+00 6.806437e-01 -8.094373e-02 4.326273e-02 -1.935416e-01 7.306548e-01 2.373506e-01 2.523602e-01 -2.560249e+00 -4.562908e-01 -1.146779e-01 2.801196e+00
<VARIANCE> 39
 1.004630e+01 1.969829e+01 3.349366e+01 1.579383e+01 3.637138e+01 7.784425e+01 6.144588e+01 6.480662e+01 6.716338e+01 4.628149e+01 5.506013e+01 3.965174e+01 3.905914e+01 3.681056e-01 1.005166e+00 2.819537e+00 1.866556e+00 2.795004e+00 1.322487e+00 4.541645e+00 7.570562e+00 3.292031e+00 2.513785e+00 2.750410e+00 2.150253e+00 4.955450e+00 1.359758e-01 2.931412e-01 7.812930e-01 5.387117e-01 1.075505e+00 2.723202e-01 8.716314e-01 1.175073e+00 2.442290e-01 2.592308e-01 7.393631e-01 3.420266e-01 3.610350e-01
<GCONST> 1.194268e+02
<STATE> 3
<MEAN> 39
 -4.505559e+01 -2.628626e+01 -2.406801e+01 7.061245e+00 1.108298e+00 1.665193e+01 7.356390e+00 -7.470899e+00 -5.182506e-01 7.518509e+00 -1.154181e+01 1.181830e+01 1.084745e+01 2.172187e-01 2.636369e+00 -2.573525e-01 -4.226235e-01 -1.405440e+00 4.481054e-01 5.973197e-01 -6.266919e-01 -1.062462e-01 -1.758595e-01 -3.553666e-01 7.556842e-02 -1.041779e+00 4.594559e-01 2.181752e+00 4.132522e-01 1.493817e-01 -2.767789e-01 -2.252965e-01 2.850730e-01 -2.024136e-01 1.366737e-01 -2.688407e+00 -2.710553e-01 -5.871535e-02 1.859439e+00
<VARIANCE> 39
 8.491705e+00 1.569925e+01 2.963047e+01 2.281125e+01 2.662254e+01 9.587499e+01 6.560612e+01 5.092304e+01 3.331724e+01 4.701057e+01 6.259141e+01 3.794474e+01 4.290271e+01 3.618700e-01 8.645166e-01 1.136422e+00 1.274016e+00 1.589129e+00 1.150147e+00 2.273264e+00 2.456455e+00 1.467729e+00 1.001932e+00 1.808689e+00 1.583231e+00 1.576888e+00 6.282404e-02 1.733539e-01 4.871038e-01 2.712353e-01 5.921422e-01 2.149334e-01 4.592544e-01 9.189656e-01 2.358668e-01 2.637556e-01 6.893027e-01 2.876962e-01 5.286511e-01
<GCONST> 1.068565e+02
<STATE> 4
<MEAN> 39
 -4.495012e+01 -2.430464e+01 -2.382925e+01 7.058141e+00 6.834211e-01 1.710559e+01 8.762815e+00 -7.279339e+00 2.055670e-01 6.356228e+00 -1.165597e+01 1.109467e+01 1.058154e+01 -4.180734e-01 3.538912e+00 -4.678114e-01 -2.270715e-02 -1.218311e+00 1.035601e+00 -1.919515e-01 3.170010e-01 3.519500e-01 -3.386402e-01 -9.249605e-02 9.074634e-01 -9.243624e-01 3.981696e-01 2.275028e+00 6.303095e-01 2.949904e-02 -2.909448e-01 -1.412497e-01 6.851753e-02 -3.954214e-01 -9.080867e-02 -2.624396e+00 -3.407352e-01 5.362997e-02 1.966193e+00
<VARIANCE> 39
 7.698584e+00 2.045633e+01 2.678662e+01 2.314083e+01 2.931061e+01 8.494386e+01 4.901540e+01 4.277561e+01 3.612268e+01 4.088903e+01 5.724430e+01 3.587996e+01 4.129779e+01 1.271055e+00 2.519502e+00 3.307272e+00 2.377260e+00 2.838295e+00 2.663718e+00 5.048654e+00 5.883099e+00 2.790633e+00 1.756191e+00 3.032752e+00 2.812299e+00 7.678043e+00 1.050602e-01 2.293332e-01 5.606891e-01 3.958170e-01 6.127147e-01 3.487844e-01 4.981452e-01 8.236575e-01 5.133367e-01 3.404155e-01 8.871729e-01 4.265324e-01 5.863322e-01
<GCONST> 1.207763e+02
<STATE> 5
<MEAN> 39
 -4.714356e+01 -2.147323e+01 -2.273399e+01 6.907877e+00 -8.273160e-01 1.487575e+01 8.291289e+00 -7.032298e+00 3.070715e-01 4.493196e+00 -9.785390e+00 1.173765e+01 9.203714e+00 -6.077136e-01 3.563756e+00 -1.959576e-01 -6.910228e-01 -1.099220e+00 7.815884e-01 1.157601e-01 -7.979242e-02 3.355150e-01 -8.818023e-01 -1.205289e-01 5.478947e-01 1.567024e-02 7.353508e-01 2.190440e+00 4.638606e-01 -2.000921e-01 -3.787495e-01 -2.964862e-01 -1.653650e-02 -9.018824e-01 1.621351e-01 -1.714676e+00 1.461746e-01 1.697901e-01 1.693429e+00
<VARIANCE> 39
 2.020269e+01 3.994012e+01 2.467037e+01 2.301876e+01 3.680163e+01 5.980816e+01 3.351334e+01 3.768030e+01 3.922570e+01 4.610228e+01 4.495692e+01 2.927752e+01 4.970766e+01 2.433263e+00 3.923433e+00 4.081879e+00 3.060537e+00 3.056659e+00 3.925461e+00 4.830918e+00 5.376286e+00 3.529565e+00 3.514293e+00 2.744649e+00 3.338289e+00 1.000664e+01 3.669888e-01 3.046283e-01 4.622890e-01 5.012615e-01 6.222935e-01 5.926301e-01 5.973594e-01 9.167402e-01 6.853201e-01 1.189038e+00 7.398009e-01 5.770181e-01 5.103639e-01
<GCONST> 1.287169e+02
<TRANSP> 6
 0.000000e+00 1.000000e+00 0.000000e+00 0.000000e+00 0.000000e+00 0.000000e+00
 0.000000e+00 3.713584e-01 6.286417e-01 0.000000e+00 0.000000e+00 0.000000e+00
 0.000000e+00 0.000000e+00 6.770495e-01 3.229505e-01 0.000000e+00 0.000000e+00
 0.000000e+00 0.000000e+00 0.000000e+00 2.191890e-01 7.808111e-01 0.000000e+00
 0.000000e+00 0.000000e+00 0.000000e+00 0.000000e+00 5.361329e-01 4.638671e-01
 0.000000e+00 0.000000e+00 0.000000e+00 0.000000e+00 0.000000e+00 0.000000e+00
<ENDHMM>
~h "o"
<BEGINHMM>
<NUMSTATES> 6
<STATE> 2
<MEAN> 39
 -5.392015e+01 -3.772284e+01 -2.595813e+01 -1.828592e+00 1.132147e+01 1.360176e+01 3.214068e+00 -5.361663e+00 1.991292e+00 1.229596e+01 -5.541778e+00 8.084476e+00 7.570591e+00 -1.873025e-01 3.067769e+00 5.868467e-03 -9.483783e-01 -1.951970e+00 1.171102e+00 1.536390e+00 1.068213e-01 6.795986e-02 1.478915e-01 7.974447e-01 -9.679013e-01 2.728090e+00 9.629363e-02 2.764008e+00 3.901952e-01 1.076202e+00 -4.161395e-01 -2.077308e-01 7.854528e-01 -7.200551e-01 1.341169e-01 -1.365005e+00 -4.473388e-01 7.289157e-02 1.081474e+00
<VARIANCE> 39
 2.684201e+01 2.901929e+01 6.940958e+01 1.025921e+02 4.890697e+01 2.892639e+01 6.773321e+01 1.282508e+02 5.561349e+01 3.960312e+01 8.160888e+01 4.483009e+01 5.523241e+01 1.107661e+00 2.255525e+00 2.664412e+00 7.523826e+00 5.682244e+00 2.220725e+00 4.184656e+00 5.952454e+00 3.202406e+00 2.672335e+00 5.028638e+00 3.264663e+00 7.952765e+00 5.565235e-01 8.583651e-01 6.115867e-01 1.233409e+00 8.592847e-01 5.383787e-01 1.167929e+00 9.773232e-01 4.299801e-01 5.227988e-01 7.952206e-01 5.057599e-01 5.076377e-01
<GCONST> 1.353860e+02
<STATE> 3
<MEAN> 39
 -5.479760e+01 -3.827270e+01 -2.608921e+01 -8.166142e+00 1.358013e+01 1.524584e+01 1.410890e+00 -4.040287e+00 2.873091e+00 1.287183e+01 -5.567913e+00 7.909496e+00 7.730865e+00 2.709787e-01 2.867613e+00 -4.547040e-01 7.290107e-01 -1.365712e+00 1.030544e+00 7.595087e-01 -1.099607e+00 -4.503090e-02 -5.617311e-01 6.871205e-02 -2.813857e-01 -5.493945e-01 4.317172e-01 2.342613e+00 4.523163e-01 5.741423e-01 -4.588259e-01 -3.410306e-01 1.354097e-01 -9.796337e-01 1.166934e-01 -1.337284e+00 -2.873797e-01 -1.514188e-01 1.672719e+00
<VARIANCE> 39
 2.532772e+01 2.992753e+01 7.003469e+01 1.128100e+02 3.507269e+01 3.156549e+01 7.072488e+01 1.398473e+02 3.601911e+01 4.926156e+01 7.690086e+01 5.172230e+01 5.564828e+01 3.198918e-01 1.013156e+00 9.966570e-01 4.224798e+00 2.747109e+00 1.083277e+00 2.410576e+00 3.438583e+00 1.909474e+00 1.230229e+00 2.816858e+00 1.432304e+00 2.113199e+00 6.808674e-02 1.990594e-01 2.560683e-01 5.066684e-01 6.697077e-01 2.200674e-01 3.681196e-01 6.439829e-01 2.168019e-01 4.741479e-01 5.177521e-01 2.682250e-01 2.739138e-01
<GCONST> 1.145520e+02
<STATE> 4
<MEAN> 39
 -5.477645e+01 -3.959908e+01 -2.559128e+01 -4.442983e-01 1.542038e+01 1.446971e+01 4.646127e+00 -6.077407e+00 4.800207e+00 1.108700e+01 -5.129950e+00 6.864140e+00 8.568576e+00 5.736535e-01 2.082530e+00 -4.710088e-01 1.636360e+00 -8.978191e-01 7.187890e-01 -1.176406e-01 -2.920939e+00 1.130967e-01 -8.809474e-01 -1.076453e+00 6.979218e-01 -2.287767e+00 4.044129e-01 2.240926e+00 5.803103e-01 -4.316614e-01 -3.662367e-01 -2.759874e-01 -4.275605e-02 -8.832148e-01 3.479996e-02 -1.380663e+00 -1.910063e-01 6.293171e-02 1.308821e+00
<VARIANCE> 39
 2.359693e+01 2.777539e+01 6.867556e+01 7.952882e+01 3.396670e+01 3.118949e+01 7.192702e+01 1.358844e+02 5.416733e+01 4.978595e+01 7.079458e+01 4.965396e+01 5.509383e+01 5.486508e-01 2.188616e+00 2.052606e+00 4.393527e+00 3.985219e+00 1.726089e+00 4.500154e+00 9.400680e+00 2.886384e+00 1.916947e+00 3.942847e+00 2.810977e+00 3.928444e+00 8.292937e-02 2.305938e-01 3.448223e-01 1.004631e+00 9.916210e-01 3.140237e-01 4.997144e-01 1.042707e+00 4.355583e-01 4.202036e-01 1.005977e+00 4.316210e-01 3.013099e-01
<GCONST> 1.259670e+02
<STATE> 5
<MEAN> 39
 -5.174706e+01 -3.263747e+01 -2.385288e+01 -8.450904e-01 1.037088e+01 1.390972e+01 6.500605e+00 -6.506838e+00 3.068469e+00 8.226130e+00 -8.391525e+00 8.216628e+00 8.800745e+00 -6.199707e-02 2.451915e+00 -4.056022e-01 3.949002e-01 -8.841875e-01 1.224929e+00 -5.749999e-03 -1.657127e+00 -5.734630e-01 -1.080611e+00 -7.677573e-01 1.000143e+00 -5.402237e+00 3.344822e-01 2.509436e+00 6.760406e-01 -6.078450e-01 -3.479190e-01 -2.439920e-01 -4.421399e-01 -4.710018e-01 4.715834e-02 -1.201535e+00 5.375813e-01 -1.305295e-01 1.937086e+00
<VARIANCE> 39
 4.023948e+01 8.294850e+01 5.585104e+01 1.005036e+02 5.691051e+01 3.575015e+01 7.973930e+01 1.188606e+02 6.265569e+01 5.418261e+01 8.565563e+01 5.059361e+01 6.319596e+01 2.113419e+00 4.565076e+00 3.183347e+00 6.767806e+00 5.204627e+00 3.136113e+00 6.844644e+00 7.725994e+00 4.725167e+00 3.411881e+00 4.141256e+00 3.324127e+00 1.034353e+01 3.226576e-01 2.887239e-01 3.958322e-01 1.025185e+00 9.395964e-01 5.031694e-01 8.138723e-01 1.048151e+00 7.758525e-01 8.920350e-01 9.220603e-01 6.075385e-01 5.877579e-01
<GCONST> 1.400222e+02
<TRANSP> 6
 0.000000e+00 1.000000e+00 0.000000e+00 0.000000e+00 0.000000e+00 0.000000e+00
 0.000000e+00 5.635151e-01 4.364848e-01 0.000000e+00 0.000000e+00 0.000000e+00
 0.000000e+00 0.000000e+00 7.338613e-01 2.661387e-01 0.000000e+00 0.000000e+00
 0.000000e+00 0.000000e+00 0.000000e+00 5.120780e-01 4.879220e-01 0.000000e+00
 0.000000e+00 0.000000e+00 0.000000e+00 0.000000e+00 5.272112e-01 4.727889e-01
 0.000000e+00 0.000000e+00 0.000000e+00 0.000000e+00 0.000000e+00 0.000000e+00
<ENDHMM>
~h "p"
<BEGINHMM>
<NUMSTATES> 6
<STATE> 2
<MEAN> 39
 -4.613781e+01 -1.533573e+01 -2.167552e+01 4.250620e+00 -7.703191e-01 1.495556e+01 8.696574e+00 -8.621269e+00 2.931035e+00 2.747783e+00 -5.899943e+00 1.304942e+01 1.030735e+01 -1.934405e+00 3.135802e+00 1.050398e-01 -1.448867e-01 -1.047635e+00 1.706435e-02 -3.238942e-01 -1.226608e+00 -3.825921e-01 -2.192886e+00 -6.031783e-01 8.463664e-02 -2.511420e+00 8.461176e-01 2.228409e+00 4.938439e-01 -5.157308e-01 -4.447004e-01 -4.244638e-01 -1.335315e-01 -5.915033e-01 6.063216e-01 -1.036171e+00 7.409093e-01 1.334134e-01 3.056720e+00
<VARIANCE> 39
 3.648714e+00 5.185346e+00 6.619953e+00 3.078466e+01 1.205734e+01 2.232722e+01 1.155989e+01 8.616696e+00 4.945528e+01 2.775086e+01 1.480594e+01 1.744376e+01 5.851000e+01 4.413063e+00 1.020909e+00 1.325211e+00 3.021191e+00 1.285324e+00 6.388056e+00 2.785340e+00 1.823945e+00 3.285063e+00 3.807733e+00 2.316174e+00 1.440233e+00 2.031791e+01 5.980055e-01 3.637233e-01 4.854670e-01 8.980937e-01 7.448347e-01 1.367092e+00 8.746545e-01 7.945250e-01 1.103817e+00 7.927479e-01 7.296819e-01 6.419077e-01 1.029499e+00
<GCONST> 1.167804e+02
<STATE> 3
<MEAN> 39
 -4.594180e+01 -1.547630e+01 -2.142275e+01 5.827295e+00 -1.597427e+00 1.360763e+01 8.842600e+00 -9.157588e+00 2.305394e+00 2.058654e+00 -6.823399e+00 1.166041e+01 8.254449e+00 2.001773e+00 2.950941e+00 -3.334611e-01 -5.783299e-01 -9.817556e-01 4.377125e-01 6.976371e-01 -1.278615e+00 -5.689068e-01 -3.434725e-02 3.522553e-01 2.749109e-01 2.530399e+00 1.227483e+00 2.271318e+00 1.865185e-01 -3.597828e-01 -3.822655e-01 2.716849e-01 1.030523e-01 -4.539492e-01 5.450165e-01 8.426899e-02 4.332914e-01 3.158028e-01 2.137642e+00
<VARIANCE> 39
 3.903644e+00 3.781040e+00 4.828216e+00 2.108335e+01 6.456470e+00 1.404019e+01 7.884687e+00 6.600139e+00 2.174714e+01 2.194369e+01 1.040905e+01 1.271133e+01 4.478018e+01 4.491148e+00 1.036462e+00 1.045096e+00 2.892112e+00 1.015493e+00 6.364324e+00 1.341985e+00 1.394945e+00 2.545041e+00 3.079715e+00 1.798700e+00 1.592759e+00 1.061630e+01 6.643950e-01 2.710384e-01 2.182223e-01 4.695840e-01 2.696755e-01 1.130149e+00 3.199413e-01 4.200133e-01 7.722899e-01 5.128604e-01 4.345667e-01 4.525645e-01 7.165008e-01
<GCONST> 1.028435e+02
<STATE> 4
<MEAN> 39
 -5.278225e+01 -2.398035e+01 -2.172835e+01 6.925925e+00 -5.801825e-02 1.356904e+01 1.026256e+01 -9.521942e+00 -5.925457e-01 3.642632e+00 -7.386412e+00 1.152009e+01 8.710009e+00 3.412590e+00 1.701388e+00 -5.979239e-01 -2.049504e+00 -2.186326e+00 2.155780e+00 1.362352e+00 -1.003489e+00 1.529113e-01 1.043510e+00 1.862266e+00 -5.466227e-01 7.840274e+00 -5.403193e-01 2.027307e+00 5.430008e-01 -5.525935e-01 -2.952394e-01 -3.664638e-01 1.013519e-01 -4.398523e-01 2.256610e-01 -6.262807e-01 2.089032e-01 -2.230500e-01 1.462040e+00
<VARIANCE> 39
 2.522803e+01 3.146090e+01 1.418935e+01 3.633292e+01 1.936453e+01 1.998082e+01 1.909538e+01 1.455813e+01 3.601684e+01 2.732240e+01 1.681675e+01 1.895822e+01 6.510301e+01 3.496507e+00 3.070007e+00 3.183150e+00 7.109630e+00 4.797797e+00 9.822536e+00 2.929093e+00 4.811674e+00 4.566242e+00 3.239357e+00 6.340279e+00 5.753341e+00 1.632866e+01 8.510741e-01 2.738143e-01 4.333048e-01 8.471670e-01 5.271029e-01 2.016928e+00 4.720368e-01 6.790434e-01 9.337978e-01 5.711908e-01 5.734490e-01 7.080498e-01 1.004592e+00
<GCONST> 1.290316e+02
<STATE> 5
<MEAN> 39
 -5.071410e+01 -3.407487e+01 -2.228131e+01 5.850722e+00 7.114338e+00 1.235534e+01 1.023987e+01 -8.360231e+00 -3.188252e+00 4.446092e+00 -3.506496e+00 1.055758e+01 1.079125e+01 6.994374e-01 1.972408e+00 2.985501e-01 -6.996907e-01 -2.558151e+00 1.684383e-01 1.211080e+00 -1.909449e-01 1.756061e+00 9.796406e-02 1.096355e+00 -5.503576e-01 6.341307e+00 -9.358686e-01 2.735355e+00 5.679215e-01 5.334345e-01 -2.011173e-01 -9.728540e-01 5.343875e-01 -8.058754e-01 -1.709314e-01 -1.417666e+00 -6.780658e-01 9.641884e-02 2.738328e-01
<VARIANCE> 39
 2.053446e+01 7.035654e+01 2.683426e+01 4.512983e+01 5.258024e+01 2.011419e+01 4.035066e+01 6.285973e+01 3.855541e+01 3.256473e+01 5.022018e+01 2.402432e+01 5.672182e+01 3.347820e+00 3.737365e+00 4.900166e+00 7.832631e+00 6.793699e+00 8.146454e+00 4.117325e+00 9.322614e+00 5.648350e+00 5.163791e+00 7.978127e+00 6.279283e+00 1.607531e+01 6.719301e-01 3.337629e-01 3.096759e-01 1.610850e+00 5.241453e-01 2.062223e+00 6.766480e-01 5.924844e-01 7.500757e-01 5.299231e-01 7.933140e-01 4.986786e-01 6.752359e-01
<GCONST> 1.377539e+02
<TRANSP> 6
 0.000000e+00 1.000000e+00 0.000000e+00 0.000000e+00 0.000000e+00 0.000000e+00
 0.000000e+00 5.502363e-01 4.497637e-01 0.000000e+00 0.000000e+00 0.000000e+00
 0.000000e+00 0.000000e+00 7.138409e-01 2.861591e-01 0.000000e+00 0.000000e+00
 0.000000e+00 0.000000e+00 0.000000e+00 4.403394e-01 5.596606e-01 0.000000e+00
 0.000000e+00 0.000000e+00 0.000000e+00 0.000000e+00 2.894112e-01 7.105888e-01
 0.000000e+00 0.000000e+00 0.000000e+00 0.000000e+00 0.000000e+00 0.000000e+00
<ENDHMM>
~h "r"
<BEGINHMM>
<NUMSTATES> 6
<STATE> 2
<MEAN> 39
 -4.795953e+01 -3.184951e+01 -2.540739e+01 9.915331e+00 2.106644e+00 1.082773e+01 1.103212e+01 -1.321171e+01 -1.365362e+00 4.712472e+00 -1.525520e+01 9.645907e+00 1.646866e+01 4.365577e-01 2.478981e+00 -7.117484e-02 -1.097471e+00 -2.445731e+00 9.963499e-01 -1.438060e-01 -1.152109e+00 -9.686635e-01 -5.979429e-01 -6.577235e-01 5.547283e-01 -9.922541e-01 4.679698e-01 2.714781e+00 5.704898e-01 -5.644914e-01 -4.868795e-01 -4.817123e-01 3.104383e-01 -8.899493e-02 3.944017e-01 -1.668534e+00 5.517417e-01 -1.847047e-01 2.946410e+00
<VARIANCE> 39
 2.310806e+01 4.924228e+01 4.147173e+01 3.497861e+01 8.263676e+01 4.848261e+01 6.522934e+01 6.416227e+01 8.934334e+01 5.803548e+01 6.727431e+01 4.926031e+01 6.492702e+01 1.296500e+00 2.649295e+00 3.063907e+00 2.336885e+00 5.956405e+00 4.156698e+00 4.469976e+00 1.017530e+01 3.349415e+00 2.895531e+00 3.953197e+00 3.502620e+00 7.622383e+00 4.576948e-01 4.541347e-01 9.414104e-01 4.671216e-01 1.551152e+00 1.135561e+00 1.249947e+00 1.565108e+00 5.723704e-01 4.977359e-01 1.036135e+00 6.096758e-01 1.134812e+00
<GCONST> 1.378778e+02
<STATE> 3
<MEAN> 39
 -4.907206e+01 -3.442928e+01 -2.746509e+01 1.046658e+01 1.470350e+00 1.035754e+01 1.087927e+01 -1.319660e+01 1.954313e-01 5.929496e+00 -1.570819e+01 1.025428e+01 1.517755e+01 5.793108e-01 3.152674e+00 -1.210712e-01 -1.201115e+00 -3.221352e+00 5.556087e-01 1.094593e+00 -6.854016e-01 -3.303654e-01 -1.607828e-01 -7.075847e-01 7.664367e-01 2.238346e+00 3.955014e-01 2.544546e+00 4.427920e-01 -3.474787e-01 -2.827082e-01 -3.638317e-01 2.687629e-01 -4.851096e-01 3.083469e-01 -1.605493e+00 4.729150e-01 -2.445027e-01 2.485588e+00
<VARIANCE> 39
 2.385819e+01 4.022168e+01 4.664297e+01 3.366042e+01 8.868326e+01 4.601567e+01 7.221342e+01 7.710562e+01 6.361141e+01 4.738229e+01 7.019133e+01 5.381424e+01 6.548089e+01 1.770338e+00 3.765005e+00 4.975230e+00 2.966288e+00 6.772481e+00 5.811424e+00 5.282554e+00 1.110339e+01 4.708056e+00 2.621220e+00 6.020445e+00 5.190746e+00 7.692198e+00 2.283666e-01 4.160642e-01 7.037099e-01 4.144882e-01 1.403968e+00 7.325676e-01 7.472149e-01 1.175326e+00 6.130518e-01 4.981050e-01 9.981275e-01 5.274132e-01 8.573543e-01
<GCONST> 1.379298e+02
<STATE> 4
<MEAN> 39
 -4.839199e+01 -3.871923e+01 -3.152577e+01 1.159889e+01 3.678393e+00 1.118742e+01 1.327887e+01 -1.449894e+01 2.220055e+00 6.116617e+00 -1.670208e+01 8.971211e+00 1.568011e+01 2.332750e-01 3.223154e+00 -1.715959e-01 -1.167267e+00 -1.971004e+00 8.911124e-01 1.474670e+00 3.382109e-01 -9.096017e-02 -1.126867e-01 -9.236801e-02 4.922228e-01 9.381321e-01 3.124084e-01 2.282710e+00 4.319775e-01 -2.342408e-01 -7.933079e-02 -2.126703e-01 2.399429e-01 -5.064011e-01 3.083396e-02 -1.763676e+00 1.070941e-01 -7.063812e-02 1.368914e+00
<VARIANCE> 39
 2.596345e+01 3.561501e+01 6.415440e+01 3.404509e+01 1.030188e+02 5.002887e+01 8.783406e+01 1.238918e+02 5.069255e+01 4.326632e+01 9.553268e+01 5.665220e+01 6.879770e+01 1.444730e+00 3.877316e+00 5.387259e+00 3.370177e+00 7.706594e+00 5.072363e+00 5.620405e+00 1.104674e+01 5.098382e+00 2.881904e+00 5.850569e+00 4.825154e+00 1.407689e+01 1.876631e-01 3.448081e-01 4.690364e-01 4.797312e-01 1.185458e+00 7.432976e-01 6.657309e-01 1.067591e+00 5.464823e-01 4.810098e-01 8.127000e-01 5.510570e-01 8.499228e-01
<GCONST> 1.386480e+02
<STATE> 5
<MEAN> 39
 -4.928456e+01 -3.216279e+01 -2.788603e+01 1.011402e+01 1.399066e-01 1.151052e+01 1.052685e+01 -1.008978e+01 4.726223e-01 4.286495e+00 -1.297628e+01 1.053025e+01 1.623516e+01 -1.207126e-02 3.269914e+00 9.547790e-03 -1.232284e+00 -9.627707e-01 1.035634e+00 1.112257e+00 9.370353e-01 -1.231060e-01 -7.698662e-01 3.642835e-01 3.741966e-01 -1.715960e+00 4.067983e-01 2.119272e+00 3.424210e-01 -3.757699e-02 -6.872738e-01 -3.531586e-01 1.449521e-01 -7.844663e-01 5.948142e-02 -1.371591e+00 -1.338483e-01 -8.575862e-02 1.598709e+00
<VARIANCE> 39
 3.193464e+01 1.035957e+02 6.067565e+01 3.661821e+01 1.103271e+02 5.531263e+01 6.742402e+01 9.374489e+01 5.399062e+01 5.370169e+01 8.516550e+01 5.248349e+01 9.840831e+01 2.310782e+00 3.895761e+00 4.042470e+00 3.118715e+00 6.330835e+00 5.059631e+00 5.347267e+00 9.146977e+00 4.512443e+00 4.086410e+00 4.402249e+00 4.045479e+00 1.871912e+01 3.072528e-01 3.227538e-01 4.667968e-01 6.169389e-01 1.188386e+00 9.115808e-01 6.984951e-01 9.215839e-01 8.209535e-01 1.096833e+00 7.394571e-01 6.344745e-01 6.510873e-01
<GCONST> 1.415272e+02
<TRANSP> 6
 0.000000e+00 1.000000e+00 0.000000e+00 0.000000e+00 0.000000e+00 0.000000e+00
 0.000000e+00 2.648870e-01 7.351130e-01 0.000000e+00 0.000000e+00 0.000000e+00
 0.000000e+00 0.000000e+00 8.241579e-02 9.175842e-01 0.000000e+00 0.000000e+00
 0.000000e+00 0.000000e+00 0.000000e+00 3.482536e-01 6.517464e-01 0.000000e+00
 0.000000e+00 0.000000e+00 0.000000e+00 0.000000e+00 4.904451e-01 5.095549e-01
 0.000000e+00 0.000000e+00 0.000000e+00 0.000000e+00 0.000000e+00 0.000000e+00
<ENDHMM>
~h "s"
<BEGINHMM>
<NUMSTATES> 6
<STATE> 2
<MEAN> 39
 -7.363086e+01 -1.878988e+01 -2.753121e+01 7.983665e+00 -6.001849e+00 1.342800e+01 8.335256e+00 -9.739652e+00 1.188321e+00 2.582747e+00 -8.736077e+00 1.211598e+01 1.112194e+01 -9.900489e-01 7.905458e+00 -6.370712e-01 -1.357642e+00 -1.766132e+00 6.815851e-01 6.263387e-01 3.268829e-02 -4.908794e-01 -7.749356e-01 1.584932e-01 -2.732590e-01 -8.423785e-01 8.599348e-01 1.987814e+00 2.072717e-01 -4.469562e-01 2.876629e-02 -1.139200e+00 4.585104e-02 -8.015219e-01 5.195104e-01 -6.550359e-01 4.945397e-01 3.002151e-02 2.157922e+00
<VARIANCE> 39
 6.431205e+01 2.070937e+01 2.824637e+01 1.994279e+01 4.218600e+01 7.065189e+01 8.464362e+01 4.037817e+01 4.804559e+01 3.387010e+01 3.342282e+01 3.030724e+01 7.086198e+01 2.012507e+00 5.628903e+00 2.443818e+00 1.988679e+00 2.842209e+00 7.584443e+00 3.169246e+00 3.789950e+00 2.997359e+00 3.800276e+00 2.498720e+00 2.243132e+00 4.947872e+00 4.934555e-01 4.617602e-01 5.259629e-01 4.322729e-01 9.305353e-01 1.274108e+00 8.815081e-01 8.032642e-01 5.896073e-01 6.273988e-01 6.330377e-01 4.465952e-01 5.140687e-01
<GCONST> 1.291799e+02
<STATE> 3
<MEAN> 39
 -8.144805e+01 -1.667908e+01 -2.854886e+01 7.716599e+00 -5.639983e+00 1.343988e+01 9.052818e+00 -1.237158e+01 2.016866e+00 2.560199e+00 -7.234928e+00 1.068314e+01 6.947100e+00 9.570956e-01 3.704068e+00 -5.382708e-01 -8.907856e-01 -1.032779e+00 2.138866e-01 8.198596e-01 -1.357262e+00 -1.903735e-01 -7.475103e-01 -2.259613e-01 2.370185e-02 5.261438e-02 7.101598e-01 3.446347e+00 7.729335e-02 -2.344251e-01 1.566337e-01 -3.260326e-02 1.421183e-01 -5.712221e-01 3.128906e-01 4.506643e-02 2.134826e-01 1.956986e-01 1.474366e+00
<VARIANCE> 39
 2.335154e+01 1.586456e+01 2.995410e+01 1.567034e+01 2.155005e+01 4.358800e+01 9.873714e+01 3.581770e+01 2.086469e+01 1.730559e+01 3.050898e+01 2.235641e+01 4.623187e+01 9.203753e-01 3.562940e+00 1.568174e+00 1.146232e+00 1.458363e+00 3.535764e+00 1.936501e+00 1.790780e+00 1.374600e+00 1.642471e+00 1.578239e+00 1.638646e+00 1.227159e+00 2.771807e-01 5.823180e-01 2.039454e-01 2.069266e-01 2.666066e-01 6.998273e-01 3.841498e-01 4.651549e-01 3.651562e-01 2.850598e-01 3.677858e-01 2.597163e-01 1.405966e-01
<GCONST> 1.066715e+02
<STATE> 4
<MEAN> 39
 -7.487565e+01 -2.033432e+01 -2.818515e+01 8.251410e+00 -6.487249e+00 1.354465e+01 7.889831e+00 -1.105757e+01 1.034003e+00 3.114052e+00 -8.879526e+00 9.825747e+00 6.636970e+00 2.795265e+00 -1.353231e+00 -3.977473e-01 -7.767758e-01 -7.747983e-01 6.964785e-01 5.347725e-01 -1.707432e+00 -2.194519e-01 -7.844024e-01 -2.228628e-01 -3.917035e-01 1.195983e-01 4.399173e-01 4.086066e+00 3.762049e-01 -5.335885e-01 1.088745e-01 -8.322582e-02 -2.250300e-01 -4.706769e-01 2.801480e-01 -6.573745e-02 4.817480e-01 7.441420e-02 1.699165e+00
<VARIANCE> 39
 4.047850e+01 1.713464e+01 3.440655e+01 1.478298e+01 2.957706e+01 5.666153e+01 8.813629e+01 3.540782e+01 3.760145e+01 2.002621e+01 3.188789e+01 2.358397e+01 4.632557e+01 3.602860e+00 4.402539e+00 3.798527e+00 2.093221e+00 3.141441e+00 6.138514e+00 3.039509e+00 4.097994e+00 2.447573e+00 2.068828e+00 3.190538e+00 2.836953e+00 6.240757e+00 3.752747e-01 5.372056e-01 4.211769e-01 3.500997e-01 5.615473e-01 8.699154e-01 5.272367e-01 6.853980e-01 5.086052e-01 3.330908e-01 5.489751e-01 3.862131e-01 5.004892e-01
<GCONST> 1.237094e+02
<STATE> 5
<MEAN> 39
 -6.029707e+01 -2.306339e+01 -2.484918e+01 8.707504e+00 -2.132800e+00 1.123777e+01 9.449657e+00 -7.797263e+00 -1.438488e-01 3.927795e+00 -9.446263e+00 9.274333e+00 9.384796e+00 1.742956e+00 3.150827e-01 -2.242139e-01 -1.502036e+00 -1.230587e+00 2.415917e-01 9.138498e-01 -8.391622e-01 3.416834e-01 -6.755123e-01 -1.516173e-01 -4.996992e-01 1.872101e+00 -2.438244e-01 4.810301e+00 5.384768e-01 -4.689968e-01 -1.681854e-01 -2.875089e-01 2.537605e-01 -1.135802e-01 3.574601e-01 -8.793991e-01 2.692479e-01 1.558278e-01 1.656397e+00
<VARIANCE> 39
 7.973069e+01 4.528277e+01 3.317612e+01 1.904687e+01 4.577889e+01 5.219503e+01 6.642901e+01 4.591742e+01 3.521251e+01 2.734912e+01 3.125242e+01 2.819823e+01 5.286007e+01 4.616179e+00 6.564071e+00 4.101378e+00 3.198977e+00 6.198267e+00 5.949843e+00 3.979498e+00 5.628310e+00 4.676075e+00 3.976342e+00 4.857611e+00 3.767132e+00 1.839473e+01 6.981399e-01 9.316275e-01 4.292035e-01 5.699601e-01 5.347782e-01 1.170808e+00 5.542008e-01 6.940944e-01 6.974231e-01 1.085848e+00 5.929109e-01 4.407965e-01 4.093075e-01
<GCONST> 1.354072e+02
<TRANSP> 6
 0.000000e+00 1.000000e+00 0.000000e+00 0.000000e+00 0.000000e+00 0.000000e+00
 0.000000e+00 6.251046e-01 3.748954e-01 0.000000e+00 0.000000e+00 0.000000e+00
 0.000000e+00 0.000000e+00 8.361230e-01 1.638770e-01 0.000000e+00 0.000000e+00
 0.000000e+00 0.000000e+00 0.000000e+00 5.222576e-01 4.777425e-01 0.000000e+00
 0.000000e+00 0.000000e+00 0.000000e+00 0.000000e+00 4.977049e-01 5.022951e-01
 0.000000e+00 0.000000e+00 0.000000e+00 0.000000e+00 0.000000e+00 0.000000e+00
<ENDHMM>
~h "t"
<BEGINHMM>
<NUMSTATES> 6
<STATE> 2
<MEAN> 39
 -4.861758e+01 -1.617797e+01 -2.198739e+01 6.423086e+00 -1.976439e+00 1.068732e+01 8.362732e+00 -7.388321e+00 -1.457491e+00 2.953727e+00 -7.794370e+00 9.885915e+00 1.135451e+01 -2.361459e+00 2.535941e+00 6.719692e-03 -1.396864e+00 -1.666548e+00 1.125891e+00 5.496347e-01 -1.311804e+00 -1.149330e+00 -2.829956e+00 2.645121e-01 4.540640e-01 -5.113679e+00 6.320232e-01 2.879455e+00 5.628082e-01 -6.871623e-02 -2.091185e-01 -4.577615e-01 2.083657e-02 -5.965078e-01 2.012396e-01 -1.500387e+00 9.459368e-02 -1.282674e-01 3.201301e+00
<VARIANCE> 39
 2.856911e+01 9.975593e+00 1.253023e+01 1.786335e+01 2.025967e+01 3.700336e+01 2.395537e+01 2.082635e+01 6.726556e+01 3.751707e+01 1.880687e+01 2.281430e+01 4.898348e+01 2.733573e+00 4.119156e+00 2.472388e+00 2.757396e+00 3.055386e+00 4.155772e+00 3.568996e+00 3.594180e+00 3.161881e+00 4.501911e+00 2.476811e+00 2.065687e+00 1.746145e+01 4.950153e-01 7.810500e-01 7.898884e-01 6.099494e-01 1.100120e+00 9.260815e-01 1.480881e+00 6.901634e-01 9.127899e-01 7.992498e-01 6.385248e-01 7.046554e-01 1.119309e+00
<GCONST> 1.272996e+02
<STATE> 3
<MEAN> 39
 -4.719705e+01 -1.492029e+01 -2.194126e+01 7.369667e+00 -2.650195e+00 1.204961e+01 8.149245e+00 -8.393510e+00 -4.784350e-01 1.948824e+00 -7.976103e+00 1.005713e+01 8.949203e+00 -6.974551e-01 3.359373e+00 1.131094e-02 -6.674702e-01 -1.014806e+00 -1.442294e-01 5.345208e-01 -1.145572e+00 -7.453561e-01 -2.014816e+00 -2.426880e-01 -4.146515e-02 1.040889e+00 1.766030e+00 2.814516e+00 3.123312e-01 -6.630318e-02 -7.078227e-02 -4.715507e-01 -8.455408e-02 -6.342385e-01 1.475272e+00 -8.176481e-01 1.525615e-01 -9.146601e-02 2.861033e+00
<VARIANCE> 39
 1.447303e+01 4.828506e+00 8.470185e+00 1.657501e+01 9.427522e+00 2.550961e+01 1.526155e+01 1.056895e+01 4.087700e+01 2.522379e+01 1.375045e+01 1.760404e+01 3.762694e+01 3.240000e+00 3.936906e+00 1.628394e+00 2.251371e+00 2.215880e+00 4.279175e+00 1.988927e+00 2.145428e+00 2.721471e+00 4.220526e+00 2.041511e+00 2.125635e+00 9.218186e+00 4.366434e-01 8.250951e-01 6.735163e-01 4.741975e-01 7.984601e-01 9.510026e-01 9.760611e-01 6.077698e-01 8.646885e-01 7.881582e-01 7.045802e-01 6.472802e-01 1.016576e+00
<GCONST> 1.170533e+02
<STATE> 4
<MEAN> 39
 -4.706913e+01 -1.586979e+01 -2.183372e+01 7.230213e+00 -2.315003e+00 1.188236e+01 8.210938e+00 -8.744343e+00 6.259552e-02 1.701632e+00 -7.643898e+00 1.011630e+01 6.814470e+00 2.574584e+00 3.993359e+00 -1.409651e-01 -4.629981e-01 -8.097888e-01 5.693215e-02 4.016710e-01 -9.865163e-01 -2.514667e-01 1.540826e-02 -2.846141e-01 4.210021e-02 2.680118e+00 1.150248e+00 2.519459e+00 2.513214e-01 -1.384539e-01 -1.593502e-01 1.582761e-02 -4.340754e-02 -4.620560e-01 5.394572e-01 1.365262e-04 1.632762e-01 1.735583e-01 1.956282e+00
<VARIANCE> 39
 1.493242e+01 7.498172e+00 6.456467e+00 1.209438e+01 7.751942e+00 1.608284e+01 1.196322e+01 8.624873e+00 2.722129e+01 2.235349e+01 1.119258e+01 1.274595e+01 3.290302e+01 3.788696e+00 3.210516e+00 2.056504e+00 2.009701e+00 1.855978e+00 3.946408e+00 2.269951e+00 2.157128e+00 2.845876e+00 3.116226e+00 2.079359e+00 2.366892e+00 1.200167e+01 6.735864e-01 6.530053e-01 3.355810e-01 3.434670e-01 4.727669e-01 7.377666e-01 4.621692e-01 4.132034e-01 7.711212e-01 6.067224e-01 4.074184e-01 4.742044e-01 6.937715e-01
<GCONST> 1.103788e+02
<STATE> 5
<MEAN> 39
 -5.719639e+01 -2.431117e+01 -2.277117e+01 7.414321e+00 -2.076251e+00 1.129459e+01 8.009889e+00 -7.897983e+00 2.379719e-01 3.890733e+00 -8.449857e+00 1.014325e+01 6.943878e+00 2.858120e+00 2.610960e+00 -1.003198e-01 -6.858894e-01 -2.369586e+00 1.293484e+00 1.476440e-01 -5.329267e-01 7.581183e-01 8.957312e-01 -3.813039e-01 -6.743378e-01 5.974328e+00 -5.270950e-01 1.885102e+00 4.377212e-01 -4.431761e-01 -3.336842e-01 -7.080934e-03 -1.048229e-02 -3.871971e-01 -1.611981e-02 -9.165185e-01 2.971602e-01 1.019284e-01 1.022591e+00
<VARIANCE> 39
 4.307911e+01 3.516574e+01 2.157851e+01 1.930050e+01 3.024948e+01 3.216807e+01 4.462481e+01 2.952713e+01 3.449678e+01 2.871989e+01 2.398613e+01 2.362064e+01 4.681923e+01 5.663404e+00 5.641411e+00 6.182214e+00 3.266642e+00 6.116005e+00 6.387556e+00 3.869725e+00 4.715222e+00 7.184863e+00 4.244772e+00 4.716394e+00 4.633005e+00 2.114407e+01 9.485655e-01 4.795595e-01 5.187270e-01 6.200625e-01 6.996471e-01 1.035342e+00 6.707246e-01 6.154623e-01 9.146175e-01 7.366353e-01 6.085457e-01 6.015690e-01 8.232787e-01
<GCONST> 1.340491e+02
<TRANSP> 6
 0.000000e+00 1.000000e+00 0.000000e+00 0.000000e+00 0.000000e+00 0.000000e+00
 0.000000e+00 3.680034e-01 6.319966e-01 0.000000e+00 0.000000e+00 0.000000e+00
 0.000000e+00 0.000000e+00 3.472733e-01 6.527267e-01 0.000000e+00 0.000000e+00
 0.000000e+00 0.000000e+00 0.000000e+00 6.597098e-01 3.402902e-01 0.000000e+00
 0.000000e+00 0.000000e+00 0.000000e+00 0.000000e+00 5.573893e-01 4.426107e-01
 0.000000e+00 0.000000e+00 0.000000e+00 0.000000e+00 0.000000e+00 0.000000e+00
<ENDHMM>
~h "u"
<BEGINHMM>
<NUMSTATES> 6
<STATE> 2
<MEAN> 39
 -5.286969e+01 -2.943918e+01 -2.936607e+01 3.310915e+00 6.291393e+00 1.252779e+01 1.401377e+00 -1.477919e+01 8.631436e-01 1.076124e+01 -8.133759e+00 1.258416e+01 7.381697e+00 5.158182e-01 3.294678e+00 7.943983e-02 -2.439839e+00 -4.322184e+00 3.276036e-01 1.316216e+00 -2.728160e-01 -1.220920e+00 4.986496e-01 1.161593e+00 -1.814970e+00 1.544906e+00 -4.548467e-01 2.660358e+00 2.703857e-01 4.885550e-01 1.181484e-01 -4.319930e-02 1.027933e+00 -8.638560e-01 7.236810e-02 -2.613969e+00 -2.780342e-01 -1.622475e-01 1.015172e+00
<VARIANCE> 39
 2.595238e+01 3.501723e+01 5.526194e+01 1.118919e+02 4.596027e+01 3.898003e+01 6.243955e+01 7.910896e+01 4.827275e+01 2.864250e+01 8.548098e+01 4.339220e+01 6.053755e+01 2.075876e+00 2.804461e+00 3.860710e+00 5.709196e+00 6.361976e+00 3.192620e+00 4.959253e+00 9.296110e+00 6.451252e+00 3.331840e+00 4.527689e+00 3.627003e+00 4.993089e+00 9.409491e-01 1.077466e+00 6.575221e-01 1.825800e+00 7.187630e-01 6.899220e-01 9.381340e-01 1.097902e+00 4.395159e-01 3.742874e-01 9.522887e-01 9.134353e-01 4.918791e-01
<GCONST> 1.388103e+02
<STATE> 3
<MEAN> 39
 -5.393531e+01 -3.029105e+01 -3.196093e+01 4.508104e+00 9.853499e+00 1.481940e+01 -8.265113e-03 -1.619983e+01 2.385319e+00 1.148889e+01 -6.236169e+00 1.427817e+01 5.335213e+00 -2.332520e-01 3.162501e+00 -8.168653e-02 -8.239089e-01 -1.950811e+00 7.511407e-01 1.040752e+00 -1.608643e-01 -3.873457e-01 -2.928326e-01 2.126789e-01 -4.581279e-01 -5.957632e-01 2.174503e-01 2.436973e+00 2.099517e-02 1.388172e+00 2.665214e-02 -1.721334e-01 9.377695e-01 -8.632644e-01 6.676300e-02 -2.694329e+00 -7.192026e-01 -4.359713e-01 1.211336e+00
<VARIANCE> 39
 2.779940e+01 2.594140e+01 6.226944e+01 1.073626e+02 4.214578e+01 3.926179e+01 5.724018e+01 8.910977e+01 5.031477e+01 2.933061e+01 9.683510e+01 4.861424e+01 6.322098e+01 9.078323e-01 1.839306e+00 2.054355e+00 7.183616e+00 4.692875e+00 1.920176e+00 3.792932e+00 7.548206e+00 5.534611e+00 1.975407e+00 3.990693e+00 2.857105e+00 5.479152e+00 2.961594e-01 4.412400e-01 5.536413e-01 1.085602e+00 9.939302e-01 4.199120e-01 8.117891e-01 1.078291e+00 4.642835e-01 3.520915e-01 1.128208e+00 9.990318e-01 3.402320e-01
<GCONST> 1.318780e+02
<STATE> 4
<MEAN> 39
 -5.300440e+01 -2.880206e+01 -3.257483e+01 -5.029503e+00 9.678133e+00 1.554319e+01 -7.276985e-01 -1.377829e+01 2.413576e+00 1.305216e+01 -5.847724e+00 1.357689e+01 5.768421e+00 -1.815551e-01 2.613684e+00 -2.906319e-01 1.515021e+00 -7.013905e-01 9.365462e-01 9.047348e-01 -1.279605e+00 -1.468169e-01 -2.878583e-01 -1.479224e-02 -1.313689e-02 -5.805755e-01 4.450216e-01 2.389445e+00 3.572792e-01 7.469882e-01 -4.252299e-01 -2.144102e-01 1.574163e-01 -7.340395e-01 2.135505e-01 -2.704367e+00 -2.128396e-02 -1.014865e-01 1.512960e+00
<VARIANCE> 39
 2.422524e+01 3.336159e+01 6.371741e+01 1.462975e+02 3.958590e+01 4.137655e+01 6.070515e+01 1.004836e+02 4.405689e+01 3.445416e+01 9.987132e+01 5.171609e+01 6.757359e+01 7.437021e-01 1.859877e+00 1.669610e+00 7.115918e+00 4.080108e+00 1.594012e+00 3.306581e+00 5.581940e+00 6.253844e+00 1.666756e+00 3.446637e+00 2.248531e+00 6.466612e+00 1.143495e-01 1.979369e-01 4.058892e-01 8.413192e-01 7.088895e-01 2.532057e-01 4.776908e-01 8.208313e-01 3.801433e-01 4.672510e-01 6.867383e-01 6.229501e-01 2.472345e-01
<GCONST> 1.260716e+02
<STATE> 5
<MEAN> 39
 -5.204075e+01 -2.887334e+01 -2.771321e+01 2.566771e+00 7.440297e+00 1.551701e+01 2.960632e+00 -1.350593e+01 2.010551e+00 1.119917e+01 -7.816104e+00 1.278752e+01 5.468290e+00 -4.668885e-01 2.408885e+00 -3.047515e-01 1.101463e+00 6.482540e-01 1.352634e+00 3.069259e-01 -1.151414e+00 1.111807e+00 -7.280915e-01 -9.422290e-01 9.221579e-01 -2.734173e+00 6.215273e-01 2.619392e+00 6.505349e-01 -8.037778e-01 -8.716415e-01 -2.934459e-01 -6.416948e-01 -2.292834e-01 1.293316e-01 -2.237542e+00 5.740887e-02 -1.800132e-01 1.510285e+00
<VARIANCE> 39
 3.762235e+01 6.388424e+01 5.340724e+01 8.956423e+01 7.285696e+01 5.064185e+01 8.059487e+01 1.024383e+02 5.360600e+01 4.384878e+01 1.099280e+02 4.528787e+01 6.673486e+01 2.284424e+00 6.377908e+00 3.972065e+00 1.153619e+01 5.082764e+00 2.906615e+00 5.536518e+00 9.699492e+00 6.942522e+00 3.962547e+00 3.962510e+00 3.747608e+00 9.559991e+00 2.605418e-01 3.556101e-01 6.979623e-01 1.411187e+00 1.093285e+00 4.496257e-01 1.001508e+00 1.307760e+00 8.192303e-01 8.480211e-01 1.106966e+00 1.019104e+00 4.895276e-01
<GCONST> 1.433005e+02
<TRANSP> 6
 0.000000e+00 1.000000e+00 0.000000e+00 0.000000e+00 0.000000e+00 0.000000e+00
 0.000000e+00 3.275930e-01 6.724070e-01 0.000000e+00 0.000000e+00 0.000000e+00
 0.000000e+00 0.000000e+00 3.673717e-01 6.326283e-01 0.000000e+00 0.000000e+00
 0.000000e+00 0.000000e+00 0.000000e+00 6.426443e-01 3.573557e-01 0.000000e+00
 0.000000e+00 0.000000e+00 0.000000e+00 0.000000e+00 6.333976e-01 3.666024e-01
 0.000000e+00 0.000000e+00 0.000000e+00 0.000000e+00 0.000000e+00 0.000000e+00
<ENDHMM>
~h "w"
<BEGINHMM>
<NUMSTATES> 6
<STATE> 2
<MEAN> 39
 -5.060741e+01 -3.142332e+01 -2.890004e+01 -2.159189e+00 6.622221e+00 1.392770e+01 3.558927e+00 -1.061726e+01 2.762522e+00 9.959449e+00 -1.140999e+00 9.564679e+00 6.040271e+00 8.200646e-01 2.620288e+00 -9.951323e-02 -2.605959e+00 -2.208862e+00 4.079755e-01 7.565507e-01 -3.933816e-01 3.676420e-01 3.117559e-01 -8.008356e-02 -1.932788e-01 -1.347971e+00 9.239314e-02 2.300701e+00 6.533214e-01 1.125867e+00 -2.200854e-01 -1.683150e-01 8.259254e-01 -5.274743e-01 2.393990e-01 -2.075773e+00 -3.306242e-01 -6.297602e-01 1.773738e+00
<VARIANCE> 39
 1.909243e+01 8.001501e+01 5.156554e+01 8.616160e+01 6.557730e+01 4.689470e+01 4.923231e+01 8.223872e+01 5.414766e+01 4.022857e+01 1.009670e+02 5.407710e+01 5.661079e+01 1.897720e+00 1.167482e+00 1.859818e+00 5.062182e+00 3.157784e+00 2.126596e+00 3.282203e+00 2.923651e+00 6.078583e+00 2.638173e+00 3.216229e+00 2.633666e+00 8.884060e+00 6.583214e-01 2.879864e-01 4.910441e-01 1.257395e+00 5.577099e-01 4.285145e-01 1.366031e+00 6.262624e-01 4.977162e-01 8.417270e-01 7.600647e-01 1.263747e+00 3.567195e-01
<GCONST> 1.326984e+02
<STATE> 3
<MEAN> 39
 -4.990326e+01 -2.922758e+01 -2.891754e+01 -1.398005e+01 6.749979e+00 1.251611e+01 2.054970e+00 -1.004260e+01 4.124855e+00 1.409958e+01 -5.072888e+00 8.946897e+00 9.182961e+00 1.142889e-01 2.404575e+00 -4.018087e-02 -6.825708e-01 -1.640172e+00 7.447180e-01 6.309770e-01 -7.379895e-01 5.224281e-01 3.365332e-01 -2.725202e-02 -1.278193e-01 -6.613147e-01 1.030689e-01 2.300519e+00 5.556852e-01 7.750165e-01 -4.602140e-01 -1.091828e-01 1.167067e-01 -7.139271e-01 1.727018e-01 -2.416768e+00 3.046951e-01 2.087414e-01 2.238292e+00
<VARIANCE> 39
