~o
<STREAMINFO> 1 39
<VECSIZE> 39<NULLD><MFCC_D_A_0><DIAGC>
~h "i"
<BEGINHMM>
<NUMSTATES> 5
<STATE> 2
<MEAN> 39
 4.389960e+00 1.387765e+00 1.510864e+01 -2.383948e+00 -1.989166e+01 -3.958391e+00 -1.600530e+01 -6.853481e+00 -1.189900e+00 -5.256388e+00 3.587776e+00 -2.113649e+00 4.379794e+01 1.274180e+00 -4.176897e-01 1.607873e+00 -1.014016e+00 -2.986487e+00 -4.104507e-01 -1.149716e+00 -1.079630e+00 1.955479e-01 -2.272771e-01 1.612301e-01 -3.308683e-01 1.481220e+00 -6.886565e-01 -4.594621e-01 -5.062554e-01 2.318545e-01 9.688137e-01 6.673187e-01 5.592605e-01 3.757243e-01 1.017191e-01 -7.500798e-03 -9.132501e-02 -2.555512e-02 -4.330184e-01
<VARIANCE> 39
 1.336385e+01 1.447351e+01 2.918543e+01 1.402310e+01 6.986273e+01 1.813560e+01 2.004923e+01 1.907618e+01 1.383344e+01 1.127985e+01 1.048394e+01 9.481837e+00 1.363636e+01 1.281213e+00 3.703849e+00 2.350101e+00 1.176865e+00 4.239288e+00 3.911860e+00 2.572372e+00 2.509044e+00 1.683108e+00 1.702358e+00 1.452912e+00 1.084841e+00 7.372602e-01 2.306199e-01 3.772717e-01 4.213226e-01 2.614047e-01 8.023548e-01 4.067759e-01 4.908183e-01 4.704492e-01 3.294134e-01 2.572176e-01 2.143531e-01 2.360234e-01 1.329014e-01
<GCONST> 1.020564e+02
<STATE> 3
<MEAN> 39
 6.914373e+00 -2.161999e+00 1.934033e+01 -3.737719e+00 -2.557389e+01 -2.749639e+00 -1.721298e+01 -7.003720e+00 7.734377e-01 -6.003378e+00 4.882719e+00 -2.966053e+00 4.797682e+01 6.449626e-03 -4.258653e-03 -2.990081e-01 7.543793e-02 4.921131e-01 1.425653e-01 7.602242e-02 1.111473e-01 -1.748534e-02 -5.644242e-02 -4.487152e-02 4.489685e-03 -4.949044e-02 -1.634152e-01 2.589286e-01 -2.981189e-01 2.171202e-01 6.179154e-01 2.670597e-02 1.341054e-01 1.007716e-01 -7.369510e-02 5.515987e-02 -1.226606e-01 7.752914e-03 -2.993273e-01
<VARIANCE> 39
 5.363465e+00 1.619505e+01 2.511468e+01 1.329814e+01 2.626106e+01 3.015141e+01 1.893124e+01 1.598255e+01 1.279125e+01 1.766351e+01 1.335006e+01 8.694283e+00 8.477081e+00 1.953644e-01 7.945415e-01 1.472065e+00 8.756685e-01 2.288726e+00 1.288607e+00 1.060959e+00 1.080902e+00 1.097019e+00 9.450922e-01 9.282009e-01 7.473482e-01 3.920695e-01 6.230859e-02 1.234272e-01 1.538331e-01 1.753364e-01 2.904051e-01 2.984492e-01 2.374752e-01 2.691469e-01 2.199305e-01 1.896514e-01 2.395380e-01 1.896293e-01 6.287275e-02
<GCONST> 8.228278e+01
<STATE> 4
<MEAN> 39
 1.338055e+00 1.572639e+00 1.123939e+01 -8.805681e-01 -1.204169e+01 -5.001627e-01 -1.329664e+01 -5.032344e+00 -2.216769e+00 -6.467535e+00 1.624159e+00 -3.200655e+00 4.065821e+01 -9.049281e-01 1.586629e-01 -8.681409e-01 6.305445e-01 1.926457e+00 6.929945e-01 8.459523e-01 5.247625e-01 -6.710778e-02 1.399243e-01 -4.146336e-01 -1.735926e-01 -9.312981e-01 -1.006584e-01 -1.921662e-01 -7.510433e-02 -3.368044e-02 -3.630858e-02 3.137968e-02 4.708390e-02 3.748221e-02 6.716485e-02 6.124373e-02 1.127375e-01 1.280066e-02 -2.987817e-03
<VARIANCE> 39
 2.060685e+01 1.755157e+01 2.486460e+01 1.474451e+01 4.367740e+01 2.420242e+01 2.335636e+01 1.641999e+01 1.710996e+01 1.333158e+01 1.615576e+01 1.011238e+01 1.424742e+01 3.280981e-01 1.779038e+00 8.857663e-01 1.169709e+00 2.961060e+00 1.621614e+00 2.193496e+00 1.641626e+00 1.786029e+00 1.322334e+00 1.872065e+00 9.469956e-01 5.422629e-01 4.712673e-02 1.270160e-01 1.350340e-01 1.575599e-01 2.913786e-01 2.321125e-01 3.039734e-01 2.658287e-01 2.955174e-01 2.431692e-01 3.118815e-01 2.064929e-01 4.271007e-02
<GCONST> 9.002770e+01
<TRANSP> 5
 0.000000e+00 1.000000e+00 0.000000e+00 0.000000e+00 0.000000e+00
 0.000000e+00 5.043247e-01 4.956753e-01 0.000000e+00 0.000000e+00
 0.000000e+00 0.000000e+00 8.356850e-01 1.643150e-01 0.000000e+00
 0.000000e+00 0.000000e+00 0.000000e+00 7.446819e-01 2.553181e-01
 0.000000e+00 0.000000e+00 0.000000e+00 0.000000e+00 0.000000e+00
<ENDHMM>
