~o
<STREAMINFO> 1 39
<VECSIZE> 39<NULLD><MFCC_D_A_0><DIAGC>
~h "k"
<BEGINHMM>
<NUMSTATES> 5
<STATE> 2
<MEAN> 39
 -1.104200e+01 -8.298651e+00 2.357176e+00 6.475523e-01 -3.894403e+00 4.291729e+00 -5.799864e+00 -1.361051e-01 -3.755552e+00 -3.598226e+00 3.178856e+00 -5.655729e-01 3.362999e+01 2.728081e-01 -1.187718e-01 -8.750478e-01 -4.451523e-01 5.832728e-01 1.309965e+00 1.731155e-01 -3.194292e-01 -3.963591e-01 7.146838e-02 -1.346380e-01 -5.980505e-02 2.394285e-01 4.767058e-01 2.859579e-01 1.701426e-02 -2.171496e-01 -5.642524e-01 -2.631875e-01 -2.117497e-01 -1.304649e-01 4.182546e-01 1.438335e-01 2.886671e-01 -2.119634e-01 2.519144e-01
<VARIANCE> 39
 2.056909e+01 2.068838e+01 2.407118e+01 7.156501e+00 2.164660e+01 1.644768e+01 1.253131e+01 1.375078e+01 1.852972e+01 1.334643e+01 1.868351e+01 1.004776e+01 4.971839e+00 1.433558e+00 8.057883e-01 8.582718e-01 1.121901e+00 1.266254e+00 3.067288e+00 3.328187e-01 1.192216e+00 2.121176e+00 5.451934e-01 2.110025e+00 1.805001e+00 5.020273e-01 1.147664e-01 1.302983e-01 1.968417e-01 1.322919e-01 2.715405e-01 4.430759e-01 1.905273e-01 2.142204e-01 4.693006e-01 2.156879e-01 3.760085e-01 1.650894e-01 4.449946e-02
<GCONST> 8.623643e+01
<STATE> 3
<MEAN> 39
 -6.507065e+00 -6.525041e+00 1.228420e+00 -2.603369e+00 -8.217788e+00 3.235081e+00 -8.059103e+00 -2.026054e+00 -9.343916e-01 -1.810563e+00 5.514370e+00 -2.478155e+00 3.640149e+01 2.876665e+00 2.071080e+00 7.804816e-01 -2.027975e+00 -3.201717e+00 -2.252240e+00 -1.590050e+00 -7.540075e-01 1.696465e-01 -3.658833e-01 5.913848e-01 3.781205e-01 1.489837e+00 7.140030e-01 2.812873e-01 8.286969e-02 -7.001973e-01 -5.225229e-01 -9.045701e-02 -3.226388e-01 -2.239422e-01 -3.488016e-01 -4.654662e-01 1.305441e-01 5.124896e-01 4.554434e-01
<VARIANCE> 39
 2.065140e+01 3.561665e+01 3.228169e+01 8.842621e+00 4.538109e+01 6.506539e+01 2.283270e+01 7.689305e+00 1.784462e+01 7.701407e+00 1.848051e+01 1.026766e+01 3.966593e+00 3.078045e+00 3.199703e+00 3.462605e+00 3.224726e+00 3.478154e+00 4.081443e+00 1.510683e+00 1.480245e+00 1.957000e+00 2.006527e+00 2.694465e+00 2.228723e+00 1.016094e+00 2.999389e-01 7.398946e-01 8.689051e-01 3.798233e-01 1.072986e+00 2.300330e+00 3.338590e-01 3.099401e-01 3.159254e-01 1.930389e-01 5.363848e-01 3.228762e-01 1.075516e-01
<GCONST> 1.092123e+02
<STATE> 4
<MEAN> 39
 5.923323e+00 1.643730e+00 2.076940e+00 -1.461276e+01 -2.080865e+01 -4.087802e+00 -1.303225e+01 -5.731448e+00 -4.501007e+00 -6.876559e+00 8.234062e+00 2.509808e+00 4.319067e+01 3.866366e+00 4.520688e-01 -1.257200e+00 -3.766032e+00 -1.538835e+00 1.491832e+00 -1.397866e+00 -1.463397e+00 -1.360883e+00 -1.436511e+00 1.211783e+00 1.514545e+00 2.744123e+00 -7.958874e-01 -1.186129e+00 -3.766584e-01 8.952524e-01 1.209008e+00 1.193420e+00 3.645331e-01 1.080594e-01 3.264835e-01 5.282719e-01 -3.413215e-02 -5.201475e-01 -1.957046e-01
<VARIANCE> 39
 2.813678e+00 2.721534e+00 8.861638e+00 3.223498e+00 4.454937e+00 1.043794e+01 6.739365e+00 7.368850e+00 9.154563e+00 3.086665e+00 7.975635e+00 1.365639e+00 2.593796e+00 1.658458e+00 1.684050e+00 5.493170e-01 1.027569e+00 1.939518e+00 3.679715e+00 2.004113e+00 8.279532e-01 1.275204e+00 5.076041e-01 1.641253e-01 4.087622e-01 4.446156e-01 1.270275e-01 3.547379e-01 5.560594e-01 1.637703e-01 2.453798e-01 5.769955e-01 2.178158e-01 2.579108e-01 1.190828e-01 2.001830e-01 1.808808e-01 1.219041e-01 4.187467e-02
<GCONST> 6.941791e+01
<TRANSP> 5
 0.000000e+00 1.000000e+00 0.000000e+00 0.000000e+00 0.000000e+00
 0.000000e+00 6.369965e-01 3.630035e-01 0.000000e+00 0.000000e+00
 0.000000e+00 0.000000e+00 7.497000e-01 2.503000e-01 0.000000e+00
 0.000000e+00 0.000000e+00 0.000000e+00 3.333321e-01 6.666679e-01
 0.000000e+00 0.000000e+00 0.000000e+00 0.000000e+00 0.000000e+00
<ENDHMM>
