~o
<STREAMINFO> 1 39
<VECSIZE> 39<NULLD><MFCC_D_A_0><DIAGC>
~h "c"
<BEGINHMM>
<NUMSTATES> 6
<STATE> 2
<MEAN> 39
 -1.201732e+01 1.038927e+01 5.868300e+00 -2.832141e+00 7.523462e-01 -7.349359e+00 -4.284018e+00 -6.709612e+00 -4.375766e+00 -1.660435e+00 -4.875039e+00 -9.226356e+00 6.079877e+01 -1.310526e+00 -1.871129e+00 -5.157920e-01 4.576305e-01 7.597825e-02 1.277994e+00 2.467074e+00 1.857923e-01 -1.540411e+00 -4.290532e-01 -5.610658e-01 -1.095119e+00 -2.358899e+00 1.782916e-01 -1.165844e+00 -9.924912e-01 -2.842168e-01 -8.273014e-01 5.658933e-01 -1.735352e-01 -2.145354e-01 -1.043733e-02 -1.897824e-01 -4.029385e-01 1.200967e+00 1.916831e-01
<VARIANCE> 39
 6.239347e+01 1.302738e+01 1.854775e+01 1.614381e+01 4.765355e+01 2.312108e+01 2.414501e+01 1.339497e+00 4.171267e+01 3.553515e+00 9.010194e+01 2.489603e+01 8.079386e+01 9.410450e-01 1.557876e+00 1.298812e+00 9.456453e-01 2.038477e+00 2.738391e+00 3.216043e+00 2.191264e-03 3.118132e+00 3.216403e+00 4.250648e+00 4.499385e+00 3.671925e-01 5.617542e-01 3.843527e-02 1.716001e-01 5.903641e-01 1.037727e+00 8.448642e-01 4.393819e-02 8.877192e-02 8.969311e-01 4.364567e-01 7.125103e-01 1.116228e-01 6.037309e-01
<GCONST> 9.749687e+01
<STATE> 3
<MEAN> 39
 -1.741771e+01 3.376564e+00 -1.784450e+00 -5.565070e+00 -5.086821e-01 -3.453020e+00 -6.614393e-01 -6.732669e+00 -6.533126e+00 -3.515351e+00 -3.383746e+00 -2.930177e+00 6.127170e+01 -2.961914e+00 -3.362409e-01 -1.418194e+00 -1.674349e+00 -5.201337e-01 -4.777367e-01 3.827717e-01 1.572047e-02 2.380899e-01 8.343483e-01 5.908462e-01 1.513177e+00 1.913698e+00 4.458408e-01 4.477197e-01 6.353172e-01 -7.713206e-02 -6.979204e-01 -6.368347e-01 -6.943321e-01 -1.274870e-01 1.841712e-01 2.198612e-01 -7.175703e-02 5.996158e-02 8.311831e-01
<VARIANCE> 39
 5.807947e+01 2.131360e+01 5.416618e+01 3.500232e+01 9.238353e+00 3.093133e+01 1.787635e+01 1.548541e+01 6.067238e+01 2.395543e+01 3.133082e+01 2.262476e+01 9.911470e+01 4.082650e+00 4.644290e+00 5.912684e+00 3.931367e+00 2.875653e+00 5.753237e+00 3.172138e+00 1.398510e+00 1.105879e+01 2.685069e+00 6.639564e+00 1.811771e+00 1.098129e+01 1.976694e+00 5.886674e-01 1.395253e+00 1.036695e+00 3.019937e-01 1.013675e+00 3.591884e-01 2.219948e-01 2.164196e+00 5.585799e-01 1.103426e+00 9.757726e-01 1.600331e+00
<GCONST> 1.322664e+02
<STATE> 4
<MEAN> 39
 -2.880179e+01 6.477854e+00 8.738027e-01 -1.037182e+01 -2.063355e+00 -4.481341e+00 -7.584532e-01 -6.362887e+00 -5.155363e+00 -2.001157e-01 -2.788056e+00 2.660300e-02 6.735387e+01 4.827818e+00 -1.002140e+00 2.555403e+00 5.524561e-01 -3.673226e+00 -2.025918e+00 -3.161539e+00 6.730803e-01 -3.004665e-01 -4.340315e-02 -1.023906e+00 -4.522309e-02 1.376251e+00 2.514536e+00 -1.455943e+00 1.834957e-01 1.509284e-01 -7.700354e-01 -4.299169e-01 -8.391330e-01 9.943749e-01 -2.242424e-01 2.325965e-01 -4.671121e-01 -2.599041e-02 -5.938066e-01
<VARIANCE> 39
 2.742166e+01 1.535381e+00 7.888098e+00 5.859186e+00 2.404980e+00 8.820703e+00 9.240549e+00 1.334774e+01 3.070554e+01 4.096870e+00 9.841239e+00 1.712877e+00 3.341975e+01 9.381548e+00 5.617558e+00 6.563476e-01 1.167269e+00 2.896463e+00 5.603947e+00 5.147060e+00 6.594985e+00 2.088771e+00 5.384574e-01 1.748002e+00 2.538289e+00 2.784628e-01 1.726253e+00 4.156475e-01 5.918101e-02 5.785195e-01 3.226038e-01 5.288173e-01 6.696971e-01 2.743039e-01 1.550881e+00 3.792112e-01 1.400399e-01 2.931700e-01 1.518656e-01
<GCONST> 9.585007e+01
<STATE> 5
<MEAN> 39
 -1.082113e+01 6.048198e+00 3.698223e+00 -9.022304e+00 -1.380465e+01 -1.645090e+01 -1.043105e+01 -7.200728e+00 -6.533210e+00 -2.766414e+00 -3.492369e+00 8.908779e-01 7.219911e+01 5.982413e+00 -2.551043e+00 2.749956e+00 -4.109978e-01 -5.628517e+00 -3.076647e+00 -3.593951e+00 1.583245e+00 -3.805598e-01 2.012178e+00 -2.084027e+00 -2.248348e-01 1.601354e+00 -5.530741e-01 -6.728733e-01 -6.126018e-01 -3.753907e-01 2.546867e-01 7.624323e-01 8.836412e-01 7.872766e-01 5.813081e-01 6.954226e-01 -2.254133e-01 -1.810886e-01 -6.266937e-01
<VARIANCE> 39
 2.577017e+01 6.356853e+01 8.926533e+00 4.468453e+00 1.121778e+00 1.589274e+01 1.180646e+01 4.493193e+01 2.844784e+01 5.964639e+00 4.874630e+00 8.516798e+00 3.174648e+01 1.228518e+00 2.100268e+00 8.239980e-02 4.035629e+00 4.618734e+00 3.234730e+00 6.920106e+00 9.491721e+00 3.231030e+00 2.533771e-02 1.020539e+00 4.675676e+00 7.321149e-01 9.328920e-01 6.392110e-01 1.382974e-01 1.521341e-01 1.020080e-01 9.182367e-02 1.106308e-01 8.933818e-02 6.475430e-01 7.965031e-02 2.818886e-01 1.754740e-01 1.632618e-02
<GCONST> 8.596899e+01
<TRANSP> 6
 0.000000e+00 1.000000e+00 0.000000e+00 0.000000e+00 0.000000e+00 0.000000e+00
 0.000000e+00 0.000000e+00 1.000000e+00 0.000000e+00 0.000000e+00 0.000000e+00
 0.000000e+00 0.000000e+00 8.125004e-01 1.874997e-01 0.000000e+00 0.000000e+00
 0.000000e+00 0.000000e+00 0.000000e+00 3.999955e-01 6.000046e-01 0.000000e+00
 0.000000e+00 0.000000e+00 0.000000e+00 0.000000e+00 0.000000e+00 1.000000e+00
 0.000000e+00 0.000000e+00 0.000000e+00 0.000000e+00 0.000000e+00 0.000000e+00
<ENDHMM>
