~o
<STREAMINFO> 1 39
<VECSIZE> 39<NULLD><MFCC_D_A_0><DIAGC>
~h "s"
<BEGINHMM>
<NUMSTATES> 6
<STATE> 2
<MEAN> 39
 -2.572457e+01 9.171510e+00 -1.847175e+00 -4.128061e-01 3.331805e+00 -5.648257e+00 2.928891e+00 -1.330729e+00 -4.262970e+00 -1.109161e+00 -2.377020e+00 -1.104806e-01 6.342907e+01 -3.803622e+00 5.272534e-01 -9.643983e-01 4.799711e-01 2.026383e+00 9.532753e-01 4.774438e-01 8.418197e-01 7.075366e-01 6.708312e-01 9.902593e-01 2.201262e-01 -6.319824e-01 7.524827e-01 -8.474992e-01 -8.220927e-02 -5.925723e-01 -1.229633e+00 -5.635500e-01 -5.216292e-01 -3.647692e-01 -2.071956e-01 2.496760e-01 -2.737940e-01 1.238524e-01 3.578142e-01
<VARIANCE> 39
 3.490956e+01 2.132938e+01 8.111439e+00 1.818117e+01 3.986180e+01 2.792598e+01 3.977497e+01 2.814493e+01 1.308676e+01 2.244136e+01 1.924686e+01 1.799194e+01 1.269922e+02 2.228933e+00 4.128293e+00 1.058739e+00 1.222588e+00 5.916880e+00 5.852096e+00 2.431452e+00 2.720178e+00 2.972642e+00 2.270702e+00 3.416986e+00 1.834289e+00 3.917796e+00 1.098715e+00 6.524159e-01 4.780397e-01 3.776297e-01 1.009191e+00 6.587288e-01 8.559798e-01 4.787238e-01 5.513089e-01 5.984518e-01 3.874786e-01 2.705730e-01 1.921412e-01
<GCONST> 1.183559e+02
<STATE> 3
<MEAN> 39
 -3.022803e+01 6.111589e+00 -4.598114e+00 -2.049168e+00 2.394884e-01 -6.527057e+00 3.265250e+00 -3.618403e+00 -4.242211e+00 7.147489e-02 5.209374e-01 1.716776e+00 6.917980e+01 -6.019975e-01 -7.155215e-01 -6.136188e-01 -9.948340e-01 -3.012006e-01 -3.760066e-01 -1.211722e-01 2.744522e-01 2.350838e-01 4.343651e-01 3.992306e-01 8.184885e-01 1.298524e-01 1.145121e+00 -9.788056e-02 4.769556e-01 -1.639737e-01 -5.921994e-01 -5.558644e-01 -2.553606e-01 -1.672582e-01 -1.133846e-01 -1.375185e-01 -4.963264e-01 -1.938250e-02 1.557665e-01
<VARIANCE> 39
 2.054121e+01 1.140682e+01 1.044416e+01 1.034734e+01 3.321351e+01 1.294179e+01 2.414468e+01 4.136563e+01 7.872509e+00 1.322430e+01 1.417070e+01 1.063837e+01 9.638952e+01 2.025897e+00 1.081004e+00 1.464248e+00 1.327881e+00 2.267832e+00 1.790014e+00 1.606422e+00 1.944404e+00 1.653558e+00 1.664888e+00 1.965748e+00 1.231652e+00 6.554982e-01 6.386352e-01 2.412573e-01 3.140134e-01 3.992302e-01 8.711632e-01 5.650867e-01 4.566357e-01 5.011060e-01 3.750856e-01 4.430631e-01 3.724024e-01 1.941147e-01 1.860934e-01
<GCONST> 1.022458e+02
<STATE> 4
<MEAN> 39
 -2.997571e+01 4.971206e+00 -3.786281e+00 -5.377847e+00 -1.201651e+00 -1.028590e+01 2.596927e+00 -1.805413e+00 -3.394653e+00 -4.455853e-01 -1.054537e+00 2.362506e+00 6.583385e+01 3.319566e+00 -5.680774e-01 8.917768e-01 -6.059075e-01 -3.026927e+00 -2.713435e+00 -1.822944e+00 -9.439314e-01 -6.359056e-01 6.532895e-02 -1.380968e+00 -5.103251e-01 5.126396e-01 1.623455e+00 -1.264760e-01 2.405306e-01 -4.074281e-02 -7.142537e-01 6.537432e-03 -7.357987e-01 -3.777284e-01 -2.628540e-01 3.425090e-01 -2.404827e-01 -4.218968e-01 1.700483e-01
<VARIANCE> 39
 2.368840e+01 1.730037e+01 1.505569e+01 6.826130e+00 2.213271e+01 1.892334e+01 1.563840e+01 1.565943e+01 2.292114e+01 1.833593e+01 1.921456e+01 1.907911e+01 8.017946e+01 9.561344e+00 2.038100e+00 4.425562e+00 2.110991e+00 4.592476e+00 3.361493e+00 3.317785e+00 4.984849e+00 3.621348e+00 1.188823e+00 1.985703e+00 1.919117e+00 2.673975e+00 6.158291e-01 3.872069e-01 6.123376e-01 3.291520e-01 8.956241e-01 7.736309e-01 9.060112e-01 1.130813e+00 7.133178e-01 2.597025e-01 3.198960e-01 4.841123e-01 2.339566e-01
<GCONST> 1.163393e+02
<STATE> 5
<MEAN> 39
 -1.508391e+01 3.656555e+00 -3.135905e+00 -7.156689e+00 -9.385681e+00 -1.589579e+01 -6.213308e+00 -4.490023e+00 -2.929331e+00 2.910367e+00 -5.524201e+00 1.859573e+00 6.508250e+01 5.541739e+00 -1.102027e+00 4.620860e-01 -1.254533e+00 -3.204995e+00 -3.495294e-01 -3.303849e+00 -2.209727e+00 3.266912e-01 1.744399e+00 -1.208685e+00 -1.121541e+00 1.007933e+00 -6.226753e-01 2.241301e-02 -1.904150e-01 1.031325e-01 7.060859e-01 1.246407e+00 3.261198e-01 -1.474815e-01 4.964168e-02 -5.606554e-02 3.462523e-01 -6.406679e-01 2.270448e-01
<VARIANCE> 39
 3.831474e+01 1.056413e+01 5.341913e+01 4.471439e+01 3.133284e+01 2.525819e+01 6.563002e+01 4.989585e+01 6.294291e+01 3.570251e+01 3.658796e+01 3.712579e+01 3.744131e+01 2.839859e+00 1.761950e+00 8.577831e+00 3.518967e+00 6.690943e+00 5.815203e+00 7.551694e+00 9.245977e+00 1.157465e+01 2.718502e+00 1.747852e+00 4.006144e+00 1.956233e+00 6.254292e-01 3.294553e-01 3.510723e-01 4.255103e-01 7.783960e-01 5.878243e-01 1.050163e+00 1.098310e+00 1.364214e+00 4.276929e-01 6.321921e-01 5.231329e-01 5.240707e-01
<GCONST> 1.313605e+02
<TRANSP> 6
 0.000000e+00 1.000000e+00 0.000000e+00 0.000000e+00 0.000000e+00 0.000000e+00
 0.000000e+00 4.998918e-01 5.001082e-01 0.000000e+00 0.000000e+00 0.000000e+00
 0.000000e+00 0.000000e+00 6.671969e-01 3.328032e-01 0.000000e+00 0.000000e+00
 0.000000e+00 0.000000e+00 0.000000e+00 5.698417e-01 4.301583e-01 0.000000e+00
 0.000000e+00 0.000000e+00 0.000000e+00 0.000000e+00 4.015291e-01 5.984709e-01
 0.000000e+00 0.000000e+00 0.000000e+00 0.000000e+00 0.000000e+00 0.000000e+00
<ENDHMM>
