~o
<STREAMINFO> 1 39
<VECSIZE> 39<NULLD><MFCC_D_A_0><DIAGC>
~h "z"
<BEGINHMM>
<NUMSTATES> 6
<STATE> 2
<MEAN> 39
 -2.313760e+01 1.578293e+01 -2.702143e+00 -4.630998e-01 -6.910712e+00 -1.419203e+01 -2.091831e+00 -5.808276e+00 -9.458868e+00 -6.365553e+00 -1.019684e+00 -2.571392e+00 6.214096e+01 -2.276270e+00 3.526846e+00 -3.681163e-01 2.362697e-01 4.858889e+00 1.559670e+00 -1.609013e+00 9.447879e-01 2.043802e+00 -6.387761e-01 1.572828e+00 9.658303e-01 -1.830934e+00 2.119163e-02 -8.474990e-01 7.771202e-01 2.069045e-01 1.701542e-01 3.582249e-01 3.191837e-01 -3.134893e-01 -2.097934e-01 3.662424e-01 -4.262583e-01 -5.054902e-01 -1.723664e-01
<VARIANCE> 39
 7.841927e+00 7.486015e+00 1.619900e+01 5.960136e+00 2.288687e+01 2.439237e+01 5.819204e-01 3.854276e+00 2.548535e+01 2.086969e+01 5.030711e+01 6.499115e+00 1.771140e+01 3.651750e-01 3.595242e+00 2.592079e-01 2.569080e+00 2.048776e+00 6.685661e+00 1.324625e-01 1.240534e+00 2.201338e+00 3.358556e+00 1.254549e+00 1.730948e+00 1.147911e-01 1.265396e-01 1.137358e+00 4.757127e-02 1.529621e-01 1.482238e-01 1.829193e-01 1.180646e-01 5.926083e-01 2.550065e-01 5.715380e-01 3.703385e-01 1.627758e-01 1.375030e-01
<GCONST> 8.383333e+01
<STATE> 3
<MEAN> 39
 -2.855308e+01 1.918709e+01 -7.669610e-03 6.804869e-01 5.996681e+00 -8.852587e+00 -1.677013e+00 -5.653255e+00 -1.060901e+01 -4.737140e+00 -5.752932e+00 -2.727971e+00 5.876190e+01 -4.021870e-01 -5.538871e-01 5.507366e-01 2.964968e-01 9.836475e-01 4.875967e-01 4.503010e-01 1.094241e-01 4.848654e-01 1.445306e-01 -4.871969e-01 -3.581204e-02 -2.261863e-01 7.134238e-01 -8.554963e-01 -7.389756e-02 -2.663293e-01 -1.068190e+00 -5.684153e-01 1.728151e-01 -8.243959e-02 -1.225984e-01 2.174475e-02 -9.851383e-02 -9.390454e-02 4.401510e-01
<VARIANCE> 39
 1.163598e+01 1.229012e+01 1.602008e+01 2.048178e+01 1.754103e+01 2.157887e+01 1.066301e+01 1.820530e+01 3.083380e+01 1.002006e+01 3.718921e+01 6.167242e+00 6.707720e+00 4.831455e+00 4.107378e+00 1.457637e+00 1.434988e+00 6.860123e+00 4.249262e+00 1.350353e+00 1.887724e+00 2.198237e+00 1.575904e+00 1.074483e+00 4.860192e-01 2.207617e+00 3.060641e-01 5.792059e-01 3.974091e-01 3.505715e-01 2.878855e-01 6.217957e-01 4.982227e-01 4.430379e-01 7.321239e-01 3.934488e-01 4.338291e-01 2.513025e-01 1.284768e-01
<GCONST> 1.036838e+02
<STATE> 4
<MEAN> 39
 -1.969569e+01 3.698995e+00 -1.334849e+00 -3.989094e-02 2.012660e+00 -8.845553e+00 3.852941e+00 1.254079e+00 -4.236925e+00 -3.444727e+00 -5.056591e+00 -2.740649e+00 6.210559e+01 1.880731e+00 -1.903407e+00 -8.984344e-01 -6.006186e-01 -1.032934e+00 -2.595579e-01 7.393954e-02 7.602949e-02 6.382168e-01 1.230160e-01 -5.159594e-01 -4.408912e-01 9.833643e-01 2.128642e-01 -7.023484e-02 -5.205926e-02 -1.364086e-01 -5.859100e-02 2.203140e-01 -1.997486e-01 6.724739e-02 2.805263e-03 1.838812e-01 -3.339177e-01 -2.125988e-01 1.226123e-01
<VARIANCE> 39
 9.192438e+01 5.965856e+01 1.135253e+01 1.046554e+01 3.641189e+01 4.313193e+01 2.604443e+01 8.333877e+01 2.257627e+01 2.482347e+01 5.344455e+01 1.221832e+01 1.672887e+01 7.937005e+00 2.808197e+00 1.659941e+00 3.384420e+00 7.017026e+00 3.885726e+00 3.210695e+00 8.500010e+00 2.764132e+00 1.126525e+00 3.267165e+00 1.847861e+00 6.842113e-01 1.241407e+00 4.936432e-01 2.636436e-01 3.924200e-01 1.118802e+00 9.512507e-01 3.690552e-01 1.430168e+00 4.744403e-01 2.676297e-01 3.748937e-01 2.726002e-01 1.493859e-01
<GCONST> 1.201493e+02
<STATE> 5
<MEAN> 39
 -8.650429e+00 -3.192078e+00 -6.568648e+00 -3.226881e+00 -8.802012e+00 -1.302208e+01 -1.340963e+00 -5.465304e+00 -6.901571e-01 -5.585549e+00 -9.764880e+00 -5.282377e+00 6.891720e+01 3.093925e+00 -3.820973e+00 -1.037739e+00 -2.344956e+00 -2.515702e+00 1.208971e+00 -1.577882e+00 2.247595e+00 1.235466e+00 1.505671e+00 -2.837875e+00 -2.054436e+00 1.897096e+00 -1.290302e+00 2.165124e-01 2.553464e-01 -1.305200e-01 1.128555e+00 8.432252e-01 4.904803e-01 1.206731e+00 -2.696650e-01 1.673704e-01 1.049986e-01 -2.130415e-01 -2.429255e-01
<VARIANCE> 39
 7.603868e+00 3.738298e+01 2.543404e+01 2.732492e+01 3.943582e+01 1.764341e+00 5.158670e+01 2.351137e+01 9.223396e+01 1.873305e+01 1.800910e+01 6.755325e+01 1.927048e+01 8.636384e-01 3.302933e+00 3.612445e+00 6.604322e-01 2.721836e+00 3.381319e+00 6.532430e-01 4.630678e+00 2.248207e+00 2.220535e+00 7.659869e-01 3.674889e-01 9.664973e-01 1.953435e-01 7.215299e-02 1.758240e-01 5.771817e-01 2.343132e-01 8.561457e-03 3.844348e-01 9.576257e-01 1.336400e+00 2.644194e-02 1.919248e-01 9.163959e-01 1.294870e-01
<GCONST> 9.739586e+01
<TRANSP> 6
 0.000000e+00 1.000000e+00 0.000000e+00 0.000000e+00 0.000000e+00 0.000000e+00
 0.000000e+00 5.718872e-28 1.000000e+00 0.000000e+00 0.000000e+00 0.000000e+00
 0.000000e+00 0.000000e+00 8.233538e-01 1.766462e-01 0.000000e+00 0.000000e+00
 0.000000e+00 0.000000e+00 0.000000e+00 8.696627e-01 1.303373e-01 0.000000e+00
 0.000000e+00 0.000000e+00 0.000000e+00 0.000000e+00 0.000000e+00 1.000000e+00
 0.000000e+00 0.000000e+00 0.000000e+00 0.000000e+00 0.000000e+00 0.000000e+00
<ENDHMM>
