~o
<STREAMINFO> 1 39
<VECSIZE> 39<NULLD><MFCC_D_A_0><DIAGC>
~h "o"
<BEGINHMM>
<NUMSTATES> 6
<STATE> 2
<MEAN> 39
 -3.453168e+00 -3.186187e-01 -1.218841e+01 -1.427919e+01 -1.029676e+01 -8.041183e+00 -1.071428e+01 -1.369483e+01 -7.994201e-02 5.355581e+00 -3.115601e+00 -4.909611e+00 7.121019e+01 1.566167e+00 -1.228370e+00 -4.384337e-01 -1.352891e+00 -1.568166e+00 1.416777e+00 -7.496987e-02 1.769201e-01 -4.043422e-01 3.675359e-01 5.146650e-01 -1.340648e+00 1.863862e+00 -5.415115e-01 9.394174e-02 6.499631e-01 2.703911e-01 3.449791e-01 4.340405e-01 6.088496e-01 7.166910e-01 -6.920978e-01 -2.417232e-01 3.025031e-01 1.992909e-01 -4.310192e-01
<VARIANCE> 39
 2.223535e+01 1.814758e+01 4.529838e+01 3.573965e+01 7.238937e+01 3.403350e+01 7.605602e+01 6.577622e+01 8.242570e+01 3.705151e+01 5.243412e+01 3.964176e+01 6.473162e+01 2.470314e+00 1.805359e+00 2.635978e+00 1.746909e+00 4.956878e+00 3.556640e+00 7.832899e+00 5.899815e+00 4.705601e+00 2.529716e+00 5.080034e+00 4.207804e+00 1.936099e+00 5.045826e-01 3.686715e-01 5.817764e-01 4.242925e-01 1.253881e+00 8.016794e-01 1.417878e+00 4.783982e-01 8.379542e-01 3.801217e-01 1.063829e+00 7.549548e-01 7.579643e-01
<GCONST> 1.320486e+02
<STATE> 3
<MEAN> 39
 -2.595996e+00 -2.320082e-01 -1.023322e+01 -1.425437e+01 -1.318352e+01 -8.806081e+00 -1.074606e+01 -8.065981e+00 -6.574133e+00 -3.720596e+00 -2.406506e+00 -2.507313e+00 8.363403e+01 1.128399e-01 -1.251759e-02 1.403187e-01 -6.704337e-01 -2.318054e-01 7.682305e-01 4.924727e-01 7.074193e-01 -6.201227e-01 -4.118345e-01 2.920253e-01 -8.730374e-02 7.730313e-02 -7.766593e-02 1.926340e-01 8.621808e-02 1.171025e-01 1.891550e-01 8.759275e-02 1.687925e-01 -3.329932e-01 -7.316105e-02 1.873744e-01 -2.430102e-01 -1.414917e-01 -2.922637e-01
<VARIANCE> 39
 9.508906e+00 2.185826e+01 1.719853e+01 1.740520e+01 2.085082e+01 4.077332e+01 3.670972e+01 3.061176e+01 3.141536e+01 5.574613e+01 2.461897e+01 1.686862e+01 5.013047e+01 5.499182e-01 1.130816e+00 7.206775e-01 1.055565e+00 2.227943e+00 2.670758e+00 1.810953e+00 3.603900e+00 2.544484e+00 1.537102e+00 3.107137e+00 1.822819e+00 7.828674e-01 1.289221e-01 2.046795e-01 2.257458e-01 3.329161e-01 4.925962e-01 4.908597e-01 5.073744e-01 3.632891e-01 2.714117e-01 3.133221e-01 6.981013e-01 3.929597e-01 8.855051e-02
<GCONST> 1.041450e+02
<STATE> 4
<MEAN> 39
 2.178178e+00 -5.712566e+00 -6.405674e+00 -2.022008e+01 -8.319240e+00 5.572153e-01 -7.944759e+00 -4.203624e+00 -1.089032e+01 8.619546e+00 9.659924e-01 -3.862073e+00 7.155131e+01 -7.003415e-02 3.196068e-01 4.523612e-01 -8.950963e-02 -6.014723e-02 1.857539e-01 1.308840e+00 -1.886126e-01 -6.767274e-01 1.865534e-01 -1.556747e-01 -7.218190e-01 -5.960112e-01 -2.412779e-01 2.235691e-01 2.309635e-01 5.186275e-01 1.079620e-01 -3.334070e-01 -3.839169e-01 -2.694454e-01 4.505903e-01 -1.055560e-01 -2.804313e-01 -9.191327e-02 -3.156658e-01
<VARIANCE> 39
 1.118160e+01 2.795756e+01 3.018167e+01 2.885896e+01 4.205117e+01 2.265992e+01 5.051234e+01 4.609776e+01 6.856706e+01 7.794640e+01 2.690926e+01 2.420035e+01 3.097286e+01 3.621659e-01 1.244499e+00 2.047010e+00 4.372622e+00 2.444176e+00 3.416386e+00 6.583374e+00 3.804763e+00 3.502200e+00 2.954690e+00 4.806620e+00 2.311328e+00 1.145868e+00 6.337854e-02 1.589765e-01 2.860485e-01 2.913825e-01 9.063826e-01 5.222635e-01 1.036802e+00 1.134233e+00 6.597769e-01 4.801528e-01 4.181847e-01 4.542212e-01 8.865205e-02
<GCONST> 1.160171e+02
<STATE> 5
<MEAN> 39
 -3.274679e+00 1.286594e-01 -1.001680e+01 -1.269544e+01 -1.097298e+01 -3.615689e+00 -6.606132e+00 -1.161496e+01 -3.573996e+00 3.907916e+00 -1.497228e+00 -7.156469e+00 6.909770e+01 -4.083646e-01 4.762497e-01 2.059724e+00 1.716808e+00 5.422468e-01 -5.094076e-01 -2.891060e-01 6.677727e-02 -4.331711e-01 4.742549e-02 -2.180086e+00 3.180936e-01 -1.803674e+00 7.435575e-02 -3.634122e-02 2.586328e-01 2.655414e-01 1.971083e-01 -7.651971e-02 -1.916106e-01 2.494384e-02 -1.031625e-02 -8.328455e-02 -4.976431e-01 2.436258e-01 -1.355965e-01
<VARIANCE> 39
 1.822662e+01 5.055872e+01 5.741298e+01 7.599074e+01 5.514029e+01 6.468720e+01 3.125810e+01 9.306367e+01 1.244228e+02 1.111321e+02 7.138033e+01 3.705452e+01 9.502152e+01 1.876596e+00 4.772424e+00 3.870693e+00 4.701315e+00 5.032158e+00 2.564779e+00 3.336452e+00 5.679271e+00 1.148841e+01 7.762141e+00 9.171322e+00 4.294947e+00 3.826196e+00 2.607270e-01 7.285848e-01 6.717294e-01 1.013674e+00 7.749016e-01 6.138124e-01 4.988244e-01 1.139592e+00 1.329855e+00 9.241326e-01 1.815060e+00 9.258338e-01 7.022688e-01
<GCONST> 1.421257e+02
<TRANSP> 6
 0.000000e+00 1.000000e+00 0.000000e+00 0.000000e+00 0.000000e+00 0.000000e+00
 0.000000e+00 6.409642e-01 3.590358e-01 0.000000e+00 0.000000e+00 0.000000e+00
 0.000000e+00 0.000000e+00 7.060511e-01 2.939490e-01 0.000000e+00 0.000000e+00
 0.000000e+00 0.000000e+00 0.000000e+00 6.340635e-01 3.659366e-01 0.000000e+00
 0.000000e+00 0.000000e+00 0.000000e+00 0.000000e+00 6.268744e-01 3.731256e-01
 0.000000e+00 0.000000e+00 0.000000e+00 0.000000e+00 0.000000e+00 0.000000e+00
<ENDHMM>
