~o
<STREAMINFO> 1 39
<VECSIZE> 39<NULLD><MFCC_D_A_0><DIAGC>
~h "b"
<BEGINHMM>
<NUMSTATES> 5
<STATE> 2
<MEAN> 39
 -1.144633e+01 -6.647944e+00 6.886733e-01 7.306581e+00 -1.594629e+01 1.504153e+01 -1.394031e+01 -4.550599e+00 7.002969e+00 -1.201618e+01 2.251585e+00 1.270235e+00 4.139301e+01 1.069634e+00 -2.210958e-02 -6.440755e-02 1.493982e-01 -9.542859e-02 -9.590785e-01 -9.495028e-01 -8.552140e-02 4.078205e-02 3.439713e-01 2.118157e-01 -1.372852e-01 6.701730e-01 2.022608e-01 -2.778231e-01 -5.297619e-01 -4.179994e-01 -2.674896e-01 8.494834e-02 2.033831e-02 1.610648e-01 3.303062e-01 5.288798e-01 -3.565982e-03 -2.033024e-01 1.314093e-01
<VARIANCE> 39
 1.472352e+01 5.073359e+00 2.623054e+01 2.267159e+00 6.587183e+00 2.646596e+01 1.806161e+01 4.669472e+00 1.708517e+01 4.265262e+00 8.388874e+00 2.332608e+00 3.342199e+00 1.351888e+00 3.320552e-01 1.022580e+00 7.590767e-01 5.628359e-01 3.205940e-01 1.031877e+00 7.015563e-01 1.449355e+00 1.709084e+00 3.927859e-01 4.433470e-01 6.846406e-01 1.261002e-01 1.056934e-01 2.501883e-01 4.285943e-01 1.635588e-01 2.612011e-01 3.188321e-01 9.329314e-02 6.572741e-01 4.740064e-01 1.164535e-01 1.198104e-01 9.045944e-02
<GCONST> 7.277180e+01
<STATE> 3
<MEAN> 39
 8.631299e+00 -7.346839e+00 5.814247e+00 1.441710e+00 -2.195687e+01 7.197534e+00 -2.163977e+01 2.962406e-02 1.807387e+00 -1.282713e+01 2.685334e+00 -6.364140e+00 5.918821e+01 -1.405761e-03 7.189542e-02 1.293340e-01 7.974935e-02 9.670801e-03 4.104360e-02 -8.986428e-03 -3.594221e-02 -5.251708e-02 -2.825595e-02 -3.973178e-02 -1.382834e-02 -1.406772e-02 -4.233046e-02 -5.368597e-03 5.827384e-03 1.440196e-02 1.145671e-02 2.981314e-03 7.577782e-03 -3.798721e-03 -1.622966e-02 -2.064596e-02 -9.668835e-03 -6.338123e-03 -2.723058e-02
<VARIANCE> 39
 3.947875e+01 6.305980e+01 6.415948e+01 2.546500e+01 2.963131e+01 2.112585e+01 2.933048e+01 6.797156e+01 2.232196e+01 6.067548e+01 1.692232e+01 2.644513e+01 5.030910e+01 1.306253e+00 2.209051e+00 1.471320e+00 1.970036e+00 1.402082e+00 1.311731e+00 1.910073e+00 2.820182e+00 1.738404e+00 2.600553e+00 1.518233e+00 1.313281e+00 1.112329e+00 1.965121e-01 3.581415e-01 1.787818e-01 3.367355e-01 2.513829e-01 2.695149e-01 3.374309e-01 4.851892e-01 3.317171e-01 3.899688e-01 3.357746e-01 2.201073e-01 1.364500e-01
<GCONST> 1.082809e+02
<STATE> 4
<MEAN> 39
 -1.084738e+01 -4.890387e+00 3.172352e+00 8.284348e+00 -1.690845e+01 1.517432e+01 -1.371076e+01 -5.746210e+00 6.415179e+00 -1.028320e+01 1.404213e+00 -6.626061e-01 4.151402e+01 -5.047852e-01 -6.243827e-01 -5.711491e-01 -4.741563e-01 -4.265609e-01 1.054951e-01 2.977229e-01 1.419197e-01 -1.341284e-01 -2.699084e-02 7.418137e-02 9.267572e-03 -2.095608e-01 1.252015e-01 1.208430e-01 8.130273e-02 -6.545484e-02 4.611527e-03 7.205664e-03 2.276516e-02 1.195134e-01 -6.830552e-03 2.042957e-02 7.910640e-02 3.568060e-02 6.615283e-02
<VARIANCE> 39
 6.193062e+00 9.673073e+00 1.023295e+01 5.137841e+00 9.990488e+00 8.386753e+00 1.167628e+01 8.213796e+00 7.286317e+00 7.574553e+00 8.118038e+00 1.157447e+01 9.256327e-01 2.853802e-01 3.784279e-01 3.174120e-01 7.980754e-01 9.216242e-01 1.339732e+00 3.231777e-01 9.376323e-01 1.579253e+00 8.829764e-01 1.362722e+00 1.422000e+00 4.829084e-02 2.349119e-02 2.045786e-02 3.265104e-02 1.569354e-01 2.322301e-01 2.862800e-01 1.230960e-01 2.049534e-01 1.884242e-01 2.497252e-01 3.304211e-01 2.377835e-01 1.424595e-02
<GCONST> 6.142555e+01
<TRANSP> 5
 0.000000e+00 1.000000e+00 0.000000e+00 0.000000e+00 0.000000e+00
 0.000000e+00 3.359808e-01 6.640192e-01 0.000000e+00 0.000000e+00
 0.000000e+00 0.000000e+00 9.631615e-01 3.683849e-02 0.000000e+00
 0.000000e+00 0.000000e+00 0.000000e+00 7.382836e-01 2.617165e-01
 0.000000e+00 0.000000e+00 0.000000e+00 0.000000e+00 0.000000e+00
<ENDHMM>
~h "d"
<BEGINHMM>
<NUMSTATES> 5
<STATE> 2
<MEAN> 39
 -5.300129e+00 -9.494557e-01 -4.688697e+00 -1.667156e+00 -2.354545e+01 7.354730e+00 -1.224367e+01 -4.203949e+00 1.585524e+00 -1.036759e+01 9.884449e-01 -3.844029e+00 4.292927e+01 1.031037e+00 8.644508e-01 7.039604e-01 1.015670e-01 -3.369487e-01 -6.316503e-01 -7.315944e-01 -4.475273e-01 -4.390777e-01 -3.185273e-01 1.589623e-01 3.049575e-01 5.538901e-01 1.874842e-01 1.834629e-01 2.397653e-01 2.394110e-01 4.764464e-02 9.048745e-03 -1.165984e-01 1.845824e-02 3.371010e-02 1.210207e-02 1.096234e-02 -4.094622e-02 1.046833e-01
<VARIANCE> 39
 2.473328e+01 8.687634e+00 2.301323e+01 3.348550e+01 2.754128e+01 2.281943e+01 2.812668e+01 2.522489e+01 2.646001e+01 1.954818e+01 1.377645e+01 1.840280e+01 8.239017e+00 7.295883e-01 7.213102e-01 2.311655e+00 2.989052e+00 1.524683e+00 1.738115e+00 2.424308e+00 2.608748e+00 2.836511e+00 2.135576e+00 1.941694e+00 2.653315e+00 1.873983e-01 1.070786e-01 8.717016e-02 1.510637e-01 3.442939e-01 2.103532e-01 2.488003e-01 3.994891e-01 5.424588e-01 6.014017e-01 5.205994e-01 4.645404e-01 5.290186e-01 2.738534e-02
<GCONST> 9.819913e+01
<STATE> 3
<MEAN> 39
 1.131148e+01 -5.784300e+00 9.744305e-01 -7.123491e+00 -1.965662e+01 1.289739e+01 -1.938572e+01 1.559883e+00 2.464216e+00 -9.306072e+00 5.587711e+00 -7.188210e+00 6.066392e+01 1.460876e-01 -2.039637e-01 -1.118857e-01 -7.729679e-02 1.358300e-01 1.579664e-01 1.222364e-02 1.886485e-01 1.227917e-01 -1.221015e-02 -3.932810e-02 -8.036619e-02 1.920086e-01 -3.761785e-02 -1.651695e-02 -3.646497e-02 -2.334344e-03 2.142984e-03 5.371747e-03 7.785758e-03 -2.976669e-02 -1.945775e-02 -2.620444e-02 -1.851295e-02 4.080934e-03 -3.327189e-02
<VARIANCE> 39
 1.444749e+01 6.251369e+01 3.262438e+01 8.206676e+01 1.556938e+01 2.167226e+01 1.963651e+01 4.648642e+01 4.781188e+01 2.915813e+01 4.185236e+01 3.556424e+01 3.574215e+01 4.414670e-01 1.292479e+00 8.464944e-01 1.792318e+00 7.852183e-01 1.410403e+00 1.807387e+00 1.315567e+00 1.949118e+00 2.177519e+00 1.874714e+00 1.301071e+00 7.115708e-01 5.100222e-02 1.932345e-01 1.019576e-01 2.016874e-01 1.109205e-01 2.884689e-01 3.188932e-01 2.389711e-01 3.083139e-01 3.617553e-01 2.904659e-01 1.813116e-01 8.515628e-02
<GCONST> 9.783547e+01
<STATE> 4
<MEAN> 39
 3.558016e+00 -4.759078e+00 -1.474193e+00 4.242973e+00 -1.258828e+01 1.963168e+01 -8.881221e+00 4.153038e+00 7.460491e+00 -1.264887e+01 -1.415149e+00 -9.136786e+00 5.180209e+01 -7.250814e-01 7.096822e-01 5.219306e-01 8.417806e-01 5.511881e-02 -2.852010e-01 -7.689484e-01 -1.351934e+00 -1.094581e+00 -1.142492e+00 -7.574533e-01 1.771975e-02 -9.173746e-01 1.051271e-01 5.053166e-02 -1.877723e-02 -2.724320e-01 -1.920996e-01 -3.767056e-01 -4.941743e-01 -2.365030e-01 -3.088554e-01 5.307331e-02 9.692754e-02 3.038297e-02 1.260402e-01
<VARIANCE> 39
 5.269593e+01 1.020941e+01 8.800887e+00 4.031909e+01 5.991438e+00 3.278083e+01 3.950264e+01 1.733080e+01 1.137406e+01 2.995723e+00 1.322530e+01 7.142774e+00 4.579260e+01 3.677176e-01 3.222126e-01 1.346955e+00 6.504374e-01 1.491471e+00 2.082063e+00 3.511148e+00 1.727785e+00 1.007898e+00 1.580265e+00 2.639631e-01 1.998729e-01 3.884375e-01 3.697440e-02 4.943405e-02 5.283627e-02 9.547487e-02 2.578687e-02 2.818702e-01 7.419240e-01 9.644412e-02 5.507388e-02 2.163401e-01 6.246626e-02 1.341555e-01 1.055328e-02
<GCONST> 7.187630e+01
<TRANSP> 5
 0.000000e+00 1.000000e+00 0.000000e+00 0.000000e+00 0.000000e+00
 0.000000e+00 8.601285e-01 1.398715e-01 0.000000e+00 0.000000e+00
 0.000000e+00 0.000000e+00 9.791960e-01 2.080399e-02 0.000000e+00
 0.000000e+00 0.000000e+00 0.000000e+00 3.367233e-01 6.632767e-01
 0.000000e+00 0.000000e+00 0.000000e+00 0.000000e+00 0.000000e+00
<ENDHMM>
~h "g"
<BEGINHMM>
<NUMSTATES> 5
<STATE> 2
<MEAN> 39
 -8.700152e+00 -3.336382e+00 -5.340548e+00 1.105885e+00 -1.952041e+01 1.317384e+01 -7.765173e+00 -2.255738e+00 6.964755e+00 -6.309440e+00 9.214658e-01 -6.060089e+00 4.093192e+01 7.881030e-01 -9.008154e-02 -4.159034e-01 -9.323040e-01 -7.903551e-01 2.484592e-01 -8.810294e-01 -1.113638e+00 -7.443940e-01 -1.336290e-01 8.705338e-01 6.834667e-01 6.322312e-01 5.474954e-01 8.640888e-02 3.453115e-01 -1.956467e-01 -6.073867e-01 -2.492855e-01 -3.653388e-01 -2.791310e-01 -3.924486e-01 -1.138213e-01 2.961604e-01 4.162574e-01 4.751475e-01
<VARIANCE> 39
 2.335130e+00 2.218722e+00 6.249594e+00 1.067649e+01 8.720572e+00 6.129919e+00 1.333617e+01 1.297169e+01 3.480812e+00 1.514160e+01 9.917729e+00 1.353533e+01 1.015375e+00 7.989021e-01 4.249665e-01 7.483538e-01 1.707160e+00 1.527179e+00 5.291119e-01 1.085691e+00 1.650296e+00 1.042781e+00 7.416064e-01 1.729815e+00 1.829676e+00 5.641071e-01 1.532540e-01 1.018334e-01 5.486172e-01 2.640466e-01 2.932864e-01 2.593534e-01 1.543487e-01 3.003989e-01 1.459863e-01 2.321364e-01 3.010748e-01 2.827892e-01 1.027855e-01
<GCONST> 7.552916e+01
<STATE> 3
<MEAN> 39
 7.818405e+00 -6.125073e+00 7.430673e+00 -3.626087e+00 -2.793062e+01 1.336598e+01 -1.541847e+01 -9.271458e-01 4.022935e+00 -1.148431e+01 1.591810e+00 -4.129768e+00 5.829375e+01 6.631199e-02 -1.490725e-02 4.204808e-02 7.614945e-02 1.010155e-01 1.168550e-01 8.042471e-02 1.100055e-01 -7.312452e-03 -1.560317e-01 -9.285968e-02 2.873968e-02 5.813640e-02 -5.429167e-02 -1.216616e-02 -2.691035e-02 2.526493e-02 4.384530e-02 1.440347e-02 4.655913e-02 3.198670e-02 2.832870e-02 5.966124e-03 -1.843373e-02 -2.011676e-02 -4.375261e-02
<VARIANCE> 39
 1.739104e+01 3.746341e+01 8.487298e+01 4.319475e+01 5.569637e+01 2.666690e+01 2.917230e+01 8.238313e+01 3.273561e+01 2.810590e+01 2.046243e+01 1.440029e+01 3.322109e+01 1.246708e+00 1.388475e+00 3.187281e+00 2.263336e+00 3.489650e+00 2.525572e+00 1.782231e+00 2.108009e+00 1.592291e+00 1.673213e+00 1.454654e+00 1.105363e+00 1.791777e+00 9.696247e-02 2.067740e-01 4.122598e-01 2.675084e-01 4.439428e-01 4.991909e-01 2.511122e-01 3.231637e-01 2.422058e-01 2.691918e-01 2.553521e-01 2.021892e-01 1.176886e-01
<GCONST> 1.075613e+02
<STATE> 4
<MEAN> 39
 -8.851996e+00 -4.567568e+00 -2.494395e+00 4.485258e+00 -1.775405e+01 1.520601e+01 -8.537166e+00 -2.944268e+00 4.668956e+00 -9.839363e+00 -5.111609e-01 -3.705166e+00 4.173526e+01 -9.876227e-02 3.780237e-02 7.606838e-02 2.285014e-02 -7.208357e-02 -1.272120e-01 1.802027e-03 -8.434889e-03 4.697497e-02 1.531861e-01 3.307614e-02 -1.252135e-02 -7.482520e-02 1.268485e-02 1.286807e-02 1.598048e-02 2.189719e-04 -7.731402e-03 -5.763432e-03 -3.958594e-02 -1.325608e-02 1.098343e-02 1.226806e-02 -6.197712e-03 -3.749541e-03 8.049437e-03
<VARIANCE> 39
 4.677339e+00 4.132413e+00 5.134777e+00 5.933750e+00 6.652641e+00 1.311023e+01 1.228111e+01 1.595287e+01 1.056718e+01 1.694439e+01 1.001888e+01 8.780213e+00 3.233274e+00 1.054874e-01 1.843437e-01 3.610164e-01 5.419646e-01 8.716077e-01 1.104880e+00 9.593962e-01 1.316507e+00 9.690605e-01 1.109643e+00 1.240937e+00 8.011110e-01 3.106214e-02 1.973903e-02 2.940322e-02 7.016557e-02 9.866106e-02 1.816457e-01 2.212009e-01 2.028158e-01 2.722435e-01 1.854610e-01 2.422058e-01 2.552841e-01 1.632041e-01 6.580323e-03
<GCONST> 6.001873e+01
<TRANSP> 5
 0.000000e+00 1.000000e+00 0.000000e+00 0.000000e+00 0.000000e+00
 0.000000e+00 7.780888e-01 2.219112e-01 0.000000e+00 0.000000e+00
 0.000000e+00 0.000000e+00 9.844339e-01 1.556605e-02 0.000000e+00
 0.000000e+00 0.000000e+00 0.000000e+00 9.717034e-01 2.829669e-02
 0.000000e+00 0.000000e+00 0.000000e+00 0.000000e+00 0.000000e+00
<ENDHMM>
~h "h"
<BEGINHMM>
<NUMSTATES> 5
<STATE> 2
<MEAN> 39
 -1.194640e+01 -7.037327e+00 -2.324453e+00 4.565241e+00 -1.838671e+01 1.430219e+01 -1.129223e+01 -1.934242e+00 5.879665e+00 -1.149236e+01 1.900072e+00 -3.925480e-01 4.042492e+01 -3.925746e-02 1.166963e-02 8.735897e-03 5.764613e-02 1.760225e-01 1.304756e-01 1.272651e-01 1.085570e-01 3.351298e-02 -1.560062e-01 -1.885858e-01 -1.122778e-01 -4.058787e-02 4.348790e-02 -2.044023e-03 -3.626475e-02 -3.238017e-02 -6.466897e-02 -7.250305e-02 -2.839322e-02 -6.551797e-02 1.760477e-02 7.726551e-02 6.747639e-02 -6.756398e-03 2.512016e-02
<VARIANCE> 39
 1.481131e+00 3.293507e+00 9.447890e+00 5.058489e+00 8.392002e+00 1.011361e+01 8.605238e+00 1.766150e+01 1.482868e+01 1.497235e+01 1.106583e+01 1.217853e+01 4.561843e-01 8.222406e-02 1.568716e-01 2.239722e-01 4.638826e-01 1.002895e+00 1.126456e+00 1.005807e+00 1.759396e+00 1.450247e+00 1.586302e+00 1.281783e+00 8.932657e-01 2.495855e-02 3.143527e-02 3.930515e-02 5.079308e-02 1.003915e-01 2.336169e-01 2.313031e-01 1.819634e-01 3.678081e-01 2.849003e-01 2.882898e-01 2.172808e-01 1.732970e-01 1.216461e-02
<GCONST> 5.968585e+01
<STATE> 3
<MEAN> 39
 6.335360e+00 -8.420876e+00 4.017972e-01 -1.492243e+00 -2.064450e+01 1.125872e+01 -2.085537e+01 -6.377416e+00 -6.274947e-01 -7.550794e+00 9.681715e+00 -2.631339e+00 5.657609e+01 1.105530e-01 -8.416224e-02 -2.014457e-01 -9.153781e-02 6.777033e-03 -3.631462e-02 -1.144540e-01 -8.840665e-02 2.752573e-02 1.706656e-01 1.791034e-01 -8.159445e-04 8.490215e-02 -1.906344e-02 4.552629e-03 1.796839e-02 6.032092e-03 4.579308e-03 2.275954e-02 1.424901e-02 2.395833e-02 5.639443e-03 -5.982877e-03 -5.584518e-03 -1.012498e-02 -1.164258e-02
<VARIANCE> 39
 5.165177e+01 5.276953e+01 1.153584e+02 6.314881e+01 2.987515e+01 3.670683e+01 4.444329e+01 2.825848e+01 5.043950e+01 3.658662e+01 2.901152e+01 2.503794e+01 5.283390e+01 1.938164e+00 2.824902e+00 2.160702e+00 3.053649e+00 2.896773e+00 2.686855e+00 3.379991e+00 2.170825e+00 2.697762e+00 1.996293e+00 1.381633e+00 1.512646e+00 1.958749e+00 2.044182e-01 4.472325e-01 3.184680e-01 3.446400e-01 5.312682e-01 4.364814e-01 6.249435e-01 4.008697e-01 4.592466e-01 3.771020e-01 2.380984e-01 2.826380e-01 1.854170e-01
<GCONST> 1.178329e+02
<STATE> 4
<MEAN> 39
 -9.024935e+00 -8.054982e+00 -7.668433e+00 2.603981e+00 -1.696089e+01 1.426902e+01 -1.266790e+01 -3.350233e+00 7.965976e+00 -4.299869e+00 7.065347e+00 6.997269e-02 4.219683e+01 -3.538016e-01 -4.186311e-02 3.229271e-01 6.728853e-02 -2.309016e-01 5.582827e-02 2.495171e-01 1.809398e-01 -9.223647e-02 -3.964532e-01 -3.983957e-01 -3.185434e-01 -2.136043e-01 1.841153e-02 -7.112671e-03 -1.732734e-04 1.745896e-02 -4.387776e-02 -9.339793e-02 -8.493460e-02 -1.042836e-01 -7.331854e-02 -9.694082e-02 -5.380946e-02 3.945135e-03 7.010829e-03
<VARIANCE> 39
 1.117818e+01 3.661180e+00 4.211747e+01 1.904810e+01 9.538155e+00 1.565375e+01 1.529375e+01 1.883789e+01 2.075531e+01 3.202369e+01 2.760914e+01 1.555231e+01 4.406511e+00 1.639266e-01 2.348960e-01 7.476835e-01 8.768082e-01 1.166219e+00 8.354015e-01 9.706523e-01 1.155069e+00 1.832590e+00 2.750665e+00 1.889001e+00 1.287003e+00 6.570767e-02 1.961318e-02 4.997113e-02 1.041316e-01 1.416264e-01 2.247172e-01 2.043635e-01 1.594915e-01 1.938037e-01 3.009109e-01 5.112382e-01 3.300663e-01 2.175201e-01 9.744552e-03
<GCONST> 7.614413e+01
<TRANSP> 5
 0.000000e+00 1.000000e+00 0.000000e+00 0.000000e+00 0.000000e+00
 0.000000e+00 9.098019e-01 9.019810e-02 0.000000e+00 0.000000e+00
 0.000000e+00 0.000000e+00 9.726141e-01 2.738590e-02 0.000000e+00
 0.000000e+00 0.000000e+00 0.000000e+00 8.807740e-01 1.192261e-01
 0.000000e+00 0.000000e+00 0.000000e+00 0.000000e+00 0.000000e+00
<ENDHMM>
~h "j"
<BEGINHMM>
<NUMSTATES> 5
<STATE> 2
<MEAN> 39
 -1.739940e+01 -2.461192e+00 -2.592847e-01 6.078187e+00 -1.395674e+01 1.731985e+01 -8.675917e+00 -1.852869e+00 5.907843e+00 -9.862759e+00 1.028948e-01 -9.040720e-02 3.478182e+01 1.137884e+00 -5.682510e-01 1.077706e+00 -4.777888e-02 -6.075814e-01 9.264254e-01 2.400344e-01 -4.187387e-01 8.657020e-01 2.866980e-01 1.302560e-03 8.544765e-01 1.191146e+00 4.524671e-01 -6.920230e-01 4.713475e-02 -8.334609e-02 -4.610615e-01 -9.599937e-02 -3.120665e-01 -3.844591e-02 1.880179e-01 -2.207811e-02 3.198621e-01 1.659836e-01 6.445939e-01
<VARIANCE> 39
 3.318826e+01 3.369286e+01 4.227427e+01 7.461411e+00 9.940225e+00 3.273584e+01 6.661187e+01 1.501507e+01 1.107242e+01 4.270818e+01 7.041638e+00 2.776139e+00 5.140005e+01 2.125016e+00 1.030169e+00 8.251120e+00 2.182509e-01 3.355430e+00 3.411928e+00 3.690541e+00 6.978751e-01 3.165328e+00 2.719117e+00 9.496312e-01 1.386795e+00 3.425362e+00 1.779519e-01 1.789106e-01 4.782418e-01 1.344889e-01 1.172112e-01 1.077660e-01 1.033639e+00 3.402760e-01 3.168786e-01 5.851290e-01 9.262892e-02 1.399278e-01 3.050016e-01
<GCONST> 9.980386e+01
<STATE> 3
<MEAN> 39
 5.485099e+00 -1.034583e+01 9.252774e-01 1.454510e+00 -1.944491e+01 1.118831e+01 -2.283344e+01 -6.293845e+00 1.649418e+00 -5.505297e+00 1.025636e+01 -4.144532e+00 5.637782e+01 1.414347e-01 -1.647954e-01 -6.646008e-02 -5.632560e-02 -3.254727e-02 -1.713998e-02 -1.153316e-01 -7.176892e-02 1.353194e-01 7.007883e-02 6.666830e-02 6.262781e-02 1.705814e-01 -5.264102e-02 3.088351e-02 -3.101338e-02 5.702049e-03 2.726048e-02 -1.902198e-02 1.922903e-02 -1.035618e-04 -4.101490e-03 1.012756e-02 -8.707217e-03 -1.225586e-03 -5.641281e-02
<VARIANCE> 39
 5.175599e+01 6.805533e+01 1.633962e+02 4.335883e+01 3.167474e+01 3.191425e+01 4.912240e+01 1.876449e+01 3.408252e+01 2.766006e+01 2.567235e+01 2.556335e+01 4.383200e+01 1.910245e+00 3.598133e+00 2.340353e+00 2.341340e+00 2.624963e+00 2.855413e+00 4.272337e+00 2.142577e+00 2.746383e+00 3.161415e+00 1.227327e+00 1.235284e+00 2.284480e+00 1.838165e-01 4.898436e-01 3.930145e-01 3.053242e-01 4.417819e-01 5.483955e-01 7.136214e-01 3.799758e-01 4.848919e-01 6.822704e-01 1.859808e-01 2.162549e-01 1.981059e-01
<GCONST> 1.176420e+02
<STATE> 4
<MEAN> 39
 -1.125347e+01 -8.714749e+00 -2.417573e+00 5.060957e+00 -1.627542e+01 1.726122e+01 -1.127994e+01 -4.068368e+00 1.290254e+01 -2.708204e+00 4.937784e+00 2.446428e+00 4.162260e+01 -2.004748e-01 -6.554138e-02 -9.447474e-02 4.072385e-01 -2.513467e-01 -1.747244e-01 -4.742473e-01 -3.571020e-01 -1.680516e-01 2.154996e-01 6.533303e-01 6.226315e-01 -9.431307e-02 -6.430244e-02 1.234719e-01 2.010350e-02 -7.107738e-02 -2.158314e-01 -1.775855e-01 -2.743323e-01 -2.068907e-02 -6.210953e-01 -6.468601e-01 -1.972409e-01 5.220255e-02 -9.004002e-02
<VARIANCE> 39
 2.088409e+01 8.282804e+00 9.723066e+01 1.046686e+01 3.538042e+00 5.911177e+01 2.282249e+01 7.700456e+00 3.369644e+00 4.571334e+01 2.550127e+01 1.479950e+01 7.404617e+00 3.516079e-01 1.385273e+00 1.121232e+00 5.536091e-01 9.712729e-01 4.672904e-01 9.828327e-01 5.143395e-01 1.700753e+00 2.878179e+00 2.163338e+00 1.099025e+00 2.644443e-01 1.242428e-01 2.423438e-01 1.754218e-01 5.416036e-02 1.806396e-01 1.907903e-01 3.691986e-01 2.019355e-01 2.692750e-01 7.742450e-01 2.913872e-01 9.795558e-02 2.670662e-01
<GCONST> 8.512833e+01
<TRANSP> 5
 0.000000e+00 1.000000e+00 0.000000e+00 0.000000e+00 0.000000e+00
 0.000000e+00 3.757090e-01 6.242911e-01 0.000000e+00 0.000000e+00
 0.000000e+00 0.000000e+00 9.528859e-01 4.711413e-02 0.000000e+00
 0.000000e+00 0.000000e+00 0.000000e+00 4.492645e-01 5.507354e-01
 0.000000e+00 0.000000e+00 0.000000e+00 0.000000e+00 0.000000e+00
<ENDHMM>
~h "l"
<BEGINHMM>
<NUMSTATES> 5
<STATE> 2
<MEAN> 39
 -1.430655e+01 -5.713614e+00 1.371143e-01 4.246841e+00 -1.778932e+01 1.561519e+01 -1.032085e+01 -3.142599e+00 7.191415e+00 -9.699430e+00 1.221684e+00 7.547094e-01 3.880080e+01 1.226165e-01 -2.263435e-01 -4.247229e-01 -3.002302e-01 -1.001656e-01 -1.702859e-01 -3.115613e-01 -9.037752e-02 1.663588e-01 8.943494e-02 1.568016e-02 -2.509523e-01 1.142604e-01 7.765848e-02 -1.085988e-01 -1.137266e-01 3.914869e-02 3.359157e-02 -1.170164e-01 -1.038550e-01 7.739469e-02 7.912970e-02 5.267272e-02 3.924157e-02 -7.584026e-03 8.135904e-02
<VARIANCE> 39
 1.904013e+01 9.403280e+00 2.699623e+01 5.711479e+00 2.183032e+01 3.018830e+01 1.852449e+01 1.478674e+01 1.692644e+01 1.243945e+01 1.417531e+01 9.746487e+00 1.971202e+01 1.459385e-01 3.227636e-01 5.541899e-01 6.297396e-01 1.021775e+00 8.574342e-01 1.355255e+00 2.023160e+00 1.388633e+00 1.564564e+00 1.337227e+00 1.004524e+00 8.870805e-02 2.896628e-02 7.243552e-02 9.504265e-02 1.574511e-01 1.307750e-01 2.808823e-01 3.586250e-01 4.933030e-01 3.114984e-01 2.404910e-01 2.493661e-01 2.225742e-01 2.338149e-02
<GCONST> 7.803934e+01
<STATE> 3
<MEAN> 39
 2.847440e+00 -9.620546e+00 1.224725e+00 1.487638e+00 -1.984398e+01 9.171049e+00 -1.827752e+01 1.114060e+00 5.609419e+00 -1.082554e+01 9.152833e-01 -5.588480e+00 5.459336e+01 2.802809e-01 -2.163043e-01 -1.235131e-01 2.126341e-02 6.741240e-02 2.540062e-02 -1.890993e-01 5.244048e-02 1.681986e-01 -5.425316e-02 -5.422798e-02 -6.179657e-02 2.746509e-01 -3.796387e-02 5.423639e-02 5.876085e-02 3.641932e-03 -1.430317e-02 1.823018e-02 3.805187e-02 -3.559731e-02 -4.426602e-02 4.274973e-03 1.609288e-02 -2.638547e-03 -3.799640e-02
<VARIANCE> 39
 1.183875e+02 6.520940e+01 1.030148e+02 2.700351e+01 4.408653e+01 4.255125e+01 4.704430e+01 5.760428e+01 3.439259e+01 4.320444e+01 3.940167e+01 3.978144e+01 1.204473e+02 1.946633e+00 3.005160e+00 2.316803e+00 2.217848e+00 2.034861e+00 3.092216e+00 3.970231e+00 2.584591e+00 1.752250e+00 2.631545e+00 2.625685e+00 1.402895e+00 2.037508e+00 2.299071e-01 4.116109e-01 2.954164e-01 4.304159e-01 3.875667e-01 5.494755e-01 7.712984e-01 3.871413e-01 3.460248e-01 4.874614e-01 5.641218e-01 2.505809e-01 2.079575e-01
<GCONST> 1.220862e+02
<STATE> 4
<MEAN> 39
 -1.369230e+01 -7.570733e+00 1.942561e+00 5.126916e+00 -1.750981e+01 1.936574e+01 -1.071172e+01 -1.959125e+00 1.148950e+01 -1.025295e+01 3.796022e-02 1.505414e+00 4.043042e+01 -6.882930e-02 1.496873e-01 8.485972e-02 -3.899862e-02 -1.658501e-01 -5.399267e-02 4.050829e-02 -8.469574e-02 6.630061e-02 1.520549e-01 5.980887e-02 -1.123828e-01 -8.115505e-02 2.683761e-02 4.797979e-02 7.902950e-02 6.603878e-03 -9.377293e-02 -4.839314e-02 -1.405117e-02 -7.342483e-03 -4.151423e-02 7.864033e-02 1.303903e-01 4.821988e-02 8.070503e-03
<VARIANCE> 39
 1.570922e+01 9.450563e+00 3.960465e+01 4.245409e+00 1.372684e+01 2.614300e+01 1.102217e+01 1.378274e+01 1.462035e+01 2.002721e+01 2.333235e+01 2.636572e+01 9.178480e+00 1.620979e-01 4.380521e-01 4.261158e-01 5.781710e-01 1.142795e+00 1.035928e+00 1.158593e+00 1.510361e+00 1.355128e+00 1.595988e+00 1.624210e+00 9.949050e-01 9.577052e-02 2.433041e-02 5.326075e-02 8.269314e-02 1.071953e-01 1.795464e-01 1.503853e-01 2.667321e-01 2.389985e-01 2.119108e-01 3.439901e-01 3.414172e-01 2.105622e-01 1.615308e-02
<GCONST> 7.549879e+01
<TRANSP> 5
 0.000000e+00 1.000000e+00 0.000000e+00 0.000000e+00 0.000000e+00
 0.000000e+00 7.052443e-01 2.947557e-01 0.000000e+00 0.000000e+00
 0.000000e+00 0.000000e+00 8.974649e-01 1.025351e-01 0.000000e+00
 0.000000e+00 0.000000e+00 0.000000e+00 6.930806e-01 3.069195e-01
 0.000000e+00 0.000000e+00 0.000000e+00 0.000000e+00 0.000000e+00
<ENDHMM>
~h "m"
<BEGINHMM>
<NUMSTATES> 5
<STATE> 2
<MEAN> 39
 -1.051415e+01 -4.117759e+00 -2.490425e+00 5.158817e+00 -1.509343e+01 1.203423e+01 -1.133652e+01 -2.375575e+00 4.160585e+00 -7.231761e+00 3.140426e+00 6.189994e-01 4.070541e+01 1.746412e-01 -4.643884e-01 1.421742e-02 -7.599701e-02 4.372319e-02 4.011940e-01 -4.511369e-01 -4.010718e-01 1.949771e-01 1.351892e-01 2.637956e-01 4.947254e-01 3.401905e-01 4.521064e-01 -2.787838e-02 1.335671e-01 4.878189e-02 -1.291359e-01 -2.298114e-01 -2.082544e-01 6.084213e-02 1.713955e-01 -2.397635e-01 -2.629189e-01 2.197378e-02 3.917436e-01
<VARIANCE> 39
 6.975462e+01 1.336899e+01 2.200062e+01 8.147245e+00 1.455221e+01 1.911674e+01 2.293172e+01 2.736372e+01 1.536262e+01 1.139729e+01 9.838621e+00 1.222940e+01 5.464953e+01 9.454765e-01 6.377482e-01 2.860332e+00 8.328297e-01 1.448639e+00 2.984871e+00 1.737171e+00 2.450359e+00 2.114485e+00 2.442296e+00 9.969872e-01 1.445519e+00 1.103514e+00 1.708691e-01 2.403085e-01 5.200413e-01 1.198351e-01 2.171854e-01 6.732881e-01 4.066085e-01 4.754995e-01 2.619200e-01 3.026615e-01 1.825507e-01 1.531720e-01 2.119331e-01
<GCONST> 9.791354e+01
<STATE> 3
<MEAN> 39
 8.264928e+00 -1.083319e+01 3.785564e+00 8.434253e-01 -1.700792e+01 1.187006e+01 -2.238311e+01 -3.192696e+00 2.959174e+00 -1.058107e+01 5.015822e-01 -7.006536e+00 6.029994e+01 5.810280e-02 1.654162e-02 8.623850e-02 5.225153e-02 2.324265e-02 7.869214e-02 -2.973618e-02 -9.203651e-02 -2.786508e-02 -4.788784e-02 -8.228380e-02 -4.194773e-02 5.199055e-02 -3.854786e-02 -1.761856e-04 -1.827913e-02 -1.161484e-02 -2.214425e-03 6.365981e-03 3.471196e-02 1.425261e-02 -2.005785e-03 4.457632e-03 1.800463e-03 4.887444e-03 -3.146646e-02
<VARIANCE> 39
 3.844863e+01 7.472746e+01 5.175958e+01 3.570104e+01 5.183393e+01 3.262822e+01 3.381215e+01 9.559560e+01 2.487325e+01 7.108273e+01 3.252000e+01 2.216688e+01 6.271348e+01 1.694397e+00 2.221067e+00 1.795614e+00 1.272897e+00 1.532168e+00 1.736026e+00 1.903067e+00 3.381195e+00 1.290708e+00 2.835368e+00 1.690492e+00 1.193969e+00 2.051813e+00 1.712103e-01 2.556359e-01 2.331670e-01 2.020638e-01 2.125328e-01 2.995955e-01 2.919546e-01 4.863303e-01 2.407439e-01 3.814689e-01 3.119638e-01 2.185879e-01 1.903935e-01
<GCONST> 1.109615e+02
<STATE> 4
<MEAN> 39
 -1.174649e+01 -5.364187e+00 -1.518217e+00 6.370156e+00 -1.415175e+01 1.420063e+01 -1.096284e+01 -1.861324e+00 6.091230e+00 -9.535904e+00 6.516171e-01 -4.079544e-01 4.038198e+01 -1.917538e-01 -8.743373e-02 -8.441266e-02 -8.964898e-02 -1.039610e-01 -1.683571e-02 5.940272e-02 8.481104e-03 8.137705e-03 1.639341e-03 5.098236e-02 7.639348e-02 -1.181500e-01 5.310756e-02 4.264961e-02 3.141589e-02 2.131450e-02 -7.812538e-03 -2.698251e-02 -6.399398e-02 -3.780288e-02 -4.133665e-02 -2.885692e-02 1.454670e-02 -7.890784e-03 2.596267e-02
<VARIANCE> 39
 6.995050e+00 4.441957e+00 8.420278e+00 6.226893e+00 1.221267e+01 1.005899e+01 1.496973e+01 1.239573e+01 1.699464e+01 1.274955e+01 1.085712e+01 1.232970e+01 3.000967e+00 2.679566e-01 3.807564e-01 4.908122e-01 6.546034e-01 1.121234e+00 1.068039e+00 1.589062e+00 1.399227e+00 1.729119e+00 1.654642e+00 1.235006e+00 1.205397e+00 7.706310e-02 4.510651e-02 6.583030e-02 8.208802e-02 1.086848e-01 2.150217e-01 2.243572e-01 3.273666e-01 2.893409e-01 3.610273e-01 3.487345e-01 2.101885e-01 2.494250e-01 2.422179e-02
<GCONST> 7.226070e+01
<TRANSP> 5
 0.000000e+00 1.000000e+00 0.000000e+00 0.000000e+00 0.000000e+00
 0.000000e+00 3.146741e-01 6.853259e-01 0.000000e+00 0.000000e+00
 0.000000e+00 0.000000e+00 9.715598e-01 2.844012e-02 0.000000e+00
 0.000000e+00 0.000000e+00 0.000000e+00 8.855767e-01 1.144233e-01
 0.000000e+00 0.000000e+00 0.000000e+00 0.000000e+00 0.000000e+00
<ENDHMM>
~h "n"
<BEGINHMM>
<NUMSTATES> 5
<STATE> 2
<MEAN> 39
 -1.236240e+01 -4.423258e+00 -7.588276e-01 4.168183e+00 -1.805042e+01 1.359889e+01 -1.024600e+01 -2.977802e+00 5.562780e+00 -9.771404e+00 1.919168e+00 5.710917e-02 3.971366e+01 -5.768152e-02 -1.492276e-02 -2.931373e-02 -7.517743e-03 5.942232e-02 1.501300e-02 3.852897e-02 8.117084e-02 4.593763e-02 -2.084523e-02 -3.448989e-02 -4.133160e-02 -4.423567e-02 1.311365e-02 -8.915157e-03 -5.592076e-03 2.937149e-02 1.884183e-02 3.601653e-02 8.534485e-03 1.239683e-02 -7.104976e-03 2.856579e-03 -3.671892e-03 2.680858e-03 1.107905e-02
<VARIANCE> 39
 2.341932e+00 3.378922e+00 5.093738e+00 5.273257e+00 1.284578e+01 8.638327e+00 1.084643e+01 1.130112e+01 9.891302e+00 1.329498e+01 8.307148e+00 1.014453e+01 6.597712e-01 9.423161e-02 2.459312e-01 3.346008e-01 4.435022e-01 7.043238e-01 6.692584e-01 9.150282e-01 1.064498e+00 1.121028e+00 8.442711e-01 6.429700e-01 1.000337e+00 2.461749e-02 2.071499e-02 5.380421e-02 7.236886e-02 8.604015e-02 1.575962e-01 1.394544e-01 1.883728e-01 2.096528e-01 2.506010e-01 2.133728e-01 1.107314e-01 1.871277e-01 6.651037e-03
<GCONST> 5.405418e+01
<STATE> 3
<MEAN> 39
 3.931993e+00 -1.006880e+01 -5.574654e-01 1.572350e+00 -1.607816e+01 1.349949e+01 -1.841099e+01 8.999840e-01 7.080634e+00 -1.146091e+01 -1.125782e+00 -7.321159e+00 5.502372e+01 5.507677e-02 -2.267949e-02 -1.311175e-02 7.867973e-02 4.201213e-02 1.740886e-02 -2.028162e-02 3.678147e-02 -3.722733e-02 -6.107396e-02 -1.668109e-01 -1.187930e-01 2.625273e-02 -1.972482e-02 3.443622e-03 1.786008e-02 -1.161754e-02 -1.787481e-02 2.468795e-02 4.719247e-02 -1.352066e-02 -4.338244e-02 -1.156310e-02 1.457090e-02 2.289526e-02 -1.302950e-02
<VARIANCE> 39
 9.458882e+01 7.433724e+01 3.892509e+01 2.204748e+01 3.155939e+01 4.616307e+01 5.172329e+01 4.649942e+01 5.409411e+01 4.185805e+01 2.539798e+01 3.290588e+01 9.757446e+01 2.817794e+00 2.523972e+00 1.606608e+00 1.520990e+00 1.742508e+00 2.397016e+00 2.666757e+00 2.726966e+00 2.702577e+00 2.491536e+00 2.496152e+00 2.618112e+00 2.884286e+00 3.294205e-01 3.452051e-01 3.022203e-01 2.897186e-01 2.760210e-01 3.435843e-01 3.465496e-01 5.585317e-01 5.038831e-01 4.423878e-01 4.978411e-01 5.799446e-01 3.139988e-01
<GCONST> 1.199971e+02
<STATE> 4
<MEAN> 39
 -1.214348e+01 -4.488582e+00 -7.891346e-01 6.266303e+00 -1.491648e+01 1.502188e+01 -9.873005e+00 -2.043656e+00 5.546390e+00 -1.003963e+01 8.085828e-01 4.520554e-01 3.989215e+01 -1.192259e-01 -1.768339e-01 -4.789703e-02 -2.227518e-01 -3.091264e-01 -2.331335e-02 7.683913e-02 -3.251350e-01 -4.507911e-01 -8.678172e-02 1.759762e-01 3.481299e-01 -3.405217e-02 5.453946e-02 3.729670e-02 7.557310e-03 -7.338416e-02 -4.432333e-02 -1.310578e-01 -1.598709e-01 -1.242931e-01 3.177612e-02 1.172244e-01 8.520423e-02 1.976030e-02 3.102376e-02
<VARIANCE> 39
 2.980481e+00 5.003697e+00 1.533882e+01 6.299922e+00 9.891200e+00 1.195446e+01 1.174721e+01 1.106330e+01 1.573446e+01 1.673114e+01 1.322459e+01 1.675286e+01 1.083088e+00 2.087625e-01 5.127918e-01 6.201558e-01 7.211545e-01 6.535392e-01 8.487950e-01 1.162558e+00 9.864687e-01 1.943988e+00 1.970733e+00 1.484805e+00 1.046607e+00 5.732843e-02 2.696465e-02 5.825968e-02 7.540184e-02 1.097632e-01 1.336714e-01 1.706019e-01 3.531893e-01 1.618276e-01 2.798352e-01 1.838059e-01 2.819792e-01 2.095558e-01 8.154858e-03
<GCONST> 6.657913e+01
<TRANSP> 5
 0.000000e+00 1.000000e+00 0.000000e+00 0.000000e+00 0.000000e+00
 0.000000e+00 9.348349e-01 6.516504e-02 0.000000e+00 0.000000e+00
 0.000000e+00 0.000000e+00 8.984750e-01 1.015250e-01 0.000000e+00
 0.000000e+00 0.000000e+00 0.000000e+00 6.704986e-01 3.295014e-01
 0.000000e+00 0.000000e+00 0.000000e+00 0.000000e+00 0.000000e+00
<ENDHMM>
~h "p"
<BEGINHMM>
<NUMSTATES> 5
<STATE> 2
<MEAN> 39
 -1.047251e+01 -5.344298e+00 -1.341237e+00 3.817431e+00 -1.866336e+01 1.328742e+01 -1.197008e+01 -4.265373e+00 5.925800e+00 -7.624413e+00 1.774615e+00 2.789394e-02 4.145039e+01 -2.069793e-01 3.572319e-02 1.531562e-02 7.243743e-04 -1.066707e-02 -1.292693e-02 -2.798594e-02 1.751000e-02 3.883101e-01 -1.323388e-01 -9.128799e-02 -1.916024e-01 -1.366783e-01 3.922430e-01 2.349885e-02 7.350622e-03 -1.621185e-01 -7.996259e-02 2.143480e-01 1.187018e-01 4.994990e-02 1.567371e-01 1.075714e-02 1.330990e-01 -1.247333e-01 2.703847e-01
<VARIANCE> 39
 1.567706e+01 1.045623e+01 2.048655e+01 1.092316e+01 1.404238e+01 2.407590e+01 1.180982e+01 1.352675e+01 2.013497e+01 2.413482e+01 2.337996e+01 1.555427e+01 4.285946e+00 2.315347e-01 3.874290e-01 4.916419e-01 2.868869e-01 7.533289e-01 9.883570e-01 9.575640e-01 8.536777e-01 1.452998e+00 1.171794e+00 1.405912e+00 9.967657e-01 5.891411e-02 1.209236e-01 1.038886e-01 1.106516e-01 1.742675e-01 1.574725e-01 2.521938e-01 2.247249e-01 2.234023e-01 3.297534e-01 2.674934e-01 3.402413e-01 1.418654e-01 7.157633e-02
<GCONST> 7.715397e+01
<STATE> 3
<MEAN> 39
 6.805491e+00 -1.112880e+01 -1.216283e+00 -3.597911e+00 -1.856878e+01 1.352945e+01 -1.818102e+01 3.061254e+00 7.823090e+00 -1.273204e+01 -1.449974e+00 -7.387091e+00 5.849525e+01 2.376564e-01 6.137585e-02 3.909928e-02 -5.208427e-02 -4.453993e-02 -2.850693e-02 -7.639150e-02 3.405669e-02 5.082096e-02 1.594542e-02 -2.901120e-02 -6.045408e-02 1.619471e-01 -5.000426e-02 1.406941e-04 -7.334188e-03 7.902551e-03 2.296422e-03 -3.124162e-02 2.915961e-04 -1.625816e-02 -8.023885e-03 1.734264e-02 -4.105337e-03 1.964064e-02 -3.912229e-02
<VARIANCE> 39
 5.095166e+01 8.483394e+01 3.665513e+01 3.800821e+01 2.079973e+01 3.166228e+01 4.623366e+01 4.294280e+01 1.543183e+01 3.448212e+01 2.387953e+01 2.766345e+01 7.645345e+01 2.850875e+00 3.225225e+00 1.468551e+00 2.591964e+00 1.594095e+00 2.012070e+00 2.242188e+00 2.637624e+00 1.191296e+00 2.932012e+00 1.501422e+00 2.320005e+00 3.762247e+00 3.161363e-01 3.868176e-01 2.634181e-01 4.039093e-01 2.799263e-01 3.319461e-01 3.778425e-01 4.226733e-01 1.964511e-01 5.003486e-01 2.870635e-01 4.444675e-01 3.294478e-01
<GCONST> 1.147589e+02
<STATE> 4
<MEAN> 39
 -7.597419e+00 -4.544112e+00 -5.748665e-02 3.945160e+00 -1.819065e+01 1.604236e+01 -1.107695e+01 -4.077748e+00 7.268867e+00 -8.762938e+00 1.071100e+00 -9.989366e-02 4.339803e+01 -6.612519e-01 -1.933696e-01 -1.225983e-01 -2.369407e-02 -3.366367e-01 -5.395875e-01 -1.781160e-01 -8.188898e-02 2.565440e-01 7.319406e-02 7.951479e-02 1.270865e-01 -4.340352e-01 1.665873e-01 -3.231395e-03 1.472847e-01 9.075042e-02 -3.138899e-02 1.360878e-01 -1.096914e-01 3.379138e-02 -9.092968e-02 -1.958524e-01 -5.540281e-03 -1.613867e-01 1.491839e-01
<VARIANCE> 39
 4.139791e+01 2.058351e+01 3.506801e+01 2.124741e+01 1.458555e+01 2.809669e+01 3.307561e+01 1.721419e+01 2.008702e+01 1.632022e+01 3.048198e+01 3.072719e+01 1.514980e+01 5.101351e-01 1.071872e+00 1.062880e+00 9.300476e-01 6.680238e-01 8.089820e-01 1.509079e+00 2.094419e+00 2.041360e+00 1.344846e+00 1.680096e+00 1.363763e+00 1.666044e-01 4.968704e-02 1.107195e-01 1.412380e-01 1.784675e-01 2.167274e-01 2.104754e-01 1.910111e-01 3.030917e-01 3.214649e-01 2.754865e-01 1.683478e-01 1.807617e-01 2.269862e-02
<GCONST> 8.819653e+01
<TRANSP> 5
 0.000000e+00 1.000000e+00 0.000000e+00 0.000000e+00 0.000000e+00
 0.000000e+00 4.635562e-01 5.364438e-01 0.000000e+00 0.000000e+00
 0.000000e+00 0.000000e+00 9.585901e-01 4.140991e-02 0.000000e+00
 0.000000e+00 0.000000e+00 0.000000e+00 4.931834e-01 5.068167e-01
 0.000000e+00 0.000000e+00 0.000000e+00 0.000000e+00 0.000000e+00
<ENDHMM>
~h "s"
<BEGINHMM>
<NUMSTATES> 5
<STATE> 2
<MEAN> 39
 -1.101165e+01 -2.826062e+00 -5.291605e-01 5.894723e+00 -1.529912e+01 1.139789e+01 -1.055137e+01 -2.526357e+00 2.849146e+00 -9.727381e+00 -6.900691e-01 -3.318506e+00 4.016518e+01 6.412312e-02 -1.733940e-01 -1.786311e-01 -2.415906e-02 -3.654741e-02 -1.137232e-01 -1.232693e-01 8.413537e-02 7.950508e-02 -1.565704e-02 5.003571e-02 3.750793e-02 8.250111e-02 1.730397e-02 -4.299958e-02 -3.895843e-02 -9.808887e-03 -9.616910e-03 -1.209691e-02 -2.970750e-02 -2.358188e-03 4.261801e-02 2.606507e-02 6.064937e-03 -5.755908e-03 2.893072e-02
<VARIANCE> 39
 4.256258e+00 8.368774e+00 9.127616e+00 6.154769e+00 1.095960e+01 9.107068e+00 1.123555e+01 1.043032e+01 1.266926e+01 1.310223e+01 1.303096e+01 1.603912e+01 3.563116e+00 1.104674e-01 3.965005e-01 6.094079e-01 5.950063e-01 9.463629e-01 8.912175e-01 1.143118e+00 1.207291e+00 1.184735e+00 1.628002e+00 1.371255e+00 1.606942e+00 9.323321e-02 1.745350e-02 6.454108e-02 1.025674e-01 1.472382e-01 1.930364e-01 1.761224e-01 2.280370e-01 2.397968e-01 2.509869e-01 3.557337e-01 2.955073e-01 3.525850e-01 1.249955e-02
<GCONST> 6.912543e+01
<STATE> 3
<MEAN> 39
 3.806617e+00 -8.688633e+00 2.952281e+00 3.227146e+00 -2.199778e+01 7.161664e+00 -1.942221e+01 1.276983e+00 3.695920e+00 -1.247391e+01 4.138166e+00 -4.883064e+00 5.474299e+01 4.991302e-02 1.391300e-01 1.488282e-01 5.510403e-02 1.385026e-02 -2.132356e-02 -5.837990e-02 1.042048e-02 1.974103e-02 -5.780446e-02 9.528844e-03 1.764315e-02 1.790338e-02 -3.196328e-02 2.836342e-02 9.287050e-03 -7.381355e-03 1.561143e-02 2.557947e-02 6.008913e-02 -6.013287e-03 -3.300446e-02 -1.442963e-02 -8.973240e-03 8.101566e-03 -3.611738e-02
<VARIANCE> 39
 8.019704e+01 8.852643e+01 7.433469e+01 2.452127e+01 3.668773e+01 3.319937e+01 4.339855e+01 7.765962e+01 3.599641e+01 3.552374e+01 3.137640e+01 1.964220e+01 5.495480e+01 1.648701e+00 3.294073e+00 1.954635e+00 1.936348e+00 1.809117e+00 2.704989e+00 2.560703e+00 3.892932e+00 2.046106e+00 2.039866e+00 1.972490e+00 1.720255e+00 1.451856e+00 1.503364e-01 4.930914e-01 2.679326e-01 3.765585e-01 3.096673e-01 4.220994e-01 4.690803e-01 6.064497e-01 3.536949e-01 3.731518e-01 3.470492e-01 2.891368e-01 1.238929e-01
<GCONST> 1.161985e+02
<STATE> 4
<MEAN> 39
 -1.055764e+01 -4.670487e+00 9.469587e-01 7.518993e+00 -1.587850e+01 1.343496e+01 -1.071017e+01 -1.638250e+00 5.421142e+00 -1.198843e+01 -5.399070e-01 -2.771326e+00 4.118449e+01 -1.330851e-01 -1.358760e-01 -2.655567e-01 -3.426269e-01 -7.305676e-02 2.409123e-01 3.580354e-01 1.681841e-01 1.996790e-01 2.329711e-01 -8.868394e-02 -6.845471e-02 -9.082485e-02 7.951894e-02 1.846633e-02 -1.397622e-03 -3.970530e-02 -7.677229e-02 -3.980029e-02 -4.369769e-02 -5.299681e-03 -5.795873e-02 2.178726e-02 8.662937e-02 -1.752278e-03 5.577133e-02
<VARIANCE> 39
 8.554693e+00 1.601668e+01 1.996965e+01 2.100335e+01 2.140138e+01 1.467163e+01 9.649796e+00 1.839936e+01 2.631073e+01 2.199844e+01 2.171167e+01 1.880453e+01 8.534768e+00 2.872037e-01 9.875122e-01 8.566613e-01 1.178383e+00 1.529957e+00 1.133158e+00 8.973412e-01 1.433111e+00 1.851746e+00 1.238414e+00 1.324035e+00 1.394603e+00 9.890015e-02 4.482936e-02 7.567641e-02 1.738568e-01 1.950074e-01 3.045321e-01 2.206340e-01 2.332433e-01 2.772340e-01 3.558312e-01 2.501640e-01 2.136455e-01 2.394582e-01 1.276177e-02
<GCONST> 8.250030e+01
<TRANSP> 5
 0.000000e+00 1.000000e+00 0.000000e+00 0.000000e+00 0.000000e+00
 0.000000e+00 9.271846e-01 7.281536e-02 0.000000e+00 0.000000e+00
 0.000000e+00 0.000000e+00 9.355807e-01 6.441931e-02 0.000000e+00
 0.000000e+00 0.000000e+00 0.000000e+00 8.237473e-01 1.762527e-01
 0.000000e+00 0.000000e+00 0.000000e+00 0.000000e+00 0.000000e+00
<ENDHMM>
~h "t"
<BEGINHMM>
<NUMSTATES> 5
<STATE> 2
<MEAN> 39
 -9.405497e+00 -8.804884e+00 -5.734617e+00 3.044104e+00 -1.610436e+01 1.422978e+01 -8.812578e+00 6.830355e-01 5.312240e+00 -8.074078e+00 4.190008e+00 -1.905751e+00 4.289531e+01 -1.908460e-03 -3.904713e-01 -2.048974e-02 -4.068077e-02 -2.165900e-01 -1.720084e-01 -2.188021e-01 2.355851e-01 -2.364534e-01 -2.527757e-01 -5.372309e-02 1.266100e-02 1.296747e-01 1.377744e-01 8.248041e-02 -6.081651e-02 -2.649883e-01 -2.105834e-01 -1.107112e-01 -1.029072e-01 -5.395290e-02 5.987810e-02 7.516577e-02 7.404204e-02 6.981289e-02 7.154000e-02
<VARIANCE> 39
 1.631364e+01 2.421579e+01 3.596505e+01 1.337953e+01 1.301309e+01 1.728293e+01 1.579160e+01 2.792693e+01 1.980968e+01 2.880173e+01 2.604488e+01 1.261615e+01 1.675141e+01 1.574880e-01 2.605203e-01 6.961469e-01 8.802803e-01 6.296031e-01 1.044162e+00 1.592630e+00 2.105256e+00 1.619778e+00 2.976616e+00 3.126662e+00 1.624025e+00 5.246440e-02 3.898634e-02 1.041568e-01 1.296093e-01 1.707482e-01 1.132592e-01 1.860532e-01 3.189231e-01 4.735583e-01 3.650289e-01 7.499467e-01 6.343919e-01 3.315739e-01 1.888698e-02
<GCONST> 8.576353e+01
<STATE> 3
<MEAN> 39
 5.216362e+00 -9.050874e+00 3.624093e-01 -4.150289e+00 -1.987022e+01 1.189163e+01 -2.045771e+01 -2.589901e-01 7.288929e+00 -7.497293e+00 4.237843e+00 -4.394540e+00 5.666783e+01 1.402527e-01 1.085118e-01 -4.830335e-02 -1.437762e-01 -1.446405e-01 -4.748535e-02 -6.975657e-02 9.607966e-03 2.562909e-01 2.374118e-01 -9.060990e-02 -1.018386e-01 6.184207e-02 -4.917169e-02 -3.300862e-03 -5.852895e-05 2.355902e-02 -2.672439e-03 -9.903054e-03 3.943970e-02 1.200667e-02 2.022477e-02 -3.045166e-03 -1.499004e-02 -2.231922e-02 -3.826862e-02
<VARIANCE> 39
 6.877319e+01 3.987083e+01 7.992712e+01 5.944402e+01 2.282703e+01 2.961506e+01 7.582417e+01 7.006488e+01 9.434286e+01 2.586279e+01 4.441124e+01 1.717743e+01 8.388158e+01 3.170927e+00 2.869076e+00 1.950817e+00 2.762024e+00 2.216497e+00 2.099101e+00 4.801636e+00 1.885592e+00 2.904535e+00 2.237603e+00 2.095649e+00 1.171719e+00 3.674852e+00 3.225088e-01 4.489292e-01 2.808222e-01 3.448600e-01 4.492681e-01 3.544559e-01 7.233877e-01 3.229335e-01 5.549530e-01 4.473481e-01 4.031058e-01 2.230123e-01 2.817924e-01
<GCONST> 1.210970e+02
<STATE> 4
<MEAN> 39
 -8.892562e+00 -4.766448e+00 -3.708032e+00 4.929293e-01 -2.156103e+01 1.262725e+01 -7.703075e+00 2.350124e+00 1.070198e+01 -4.261428e+00 1.689175e-01 -3.711921e+00 4.215158e+01 -3.439715e-01 1.032176e-01 3.508537e-01 1.463981e-01 -1.351263e-01 -2.623884e-01 -2.740099e-01 -3.258019e-01 -2.129923e-01 -1.092203e-01 1.241983e-01 1.812449e-02 -2.099208e-01 6.904779e-02 3.601770e-02 2.127603e-02 5.766515e-02 1.266713e-01 7.438661e-02 -1.063934e-01 -1.815853e-01 -2.975581e-02 -1.913249e-01 -7.235961e-02 3.240620e-03 3.707798e-02
<VARIANCE> 39
 1.651735e+01 1.091877e+01 1.746928e+01 1.584068e+01 2.113086e+01 2.332981e+01 1.539815e+01 2.102976e+01 4.394893e+01 1.382599e+01 1.758337e+01 1.529973e+01 1.313524e+01 2.589843e-01 3.254933e-01 9.422763e-01 7.683412e-01 7.690372e-01 1.271333e+00 1.468454e+00 1.413241e+00 1.767444e+00 1.187842e+00 1.500526e+00 1.047652e+00 9.891794e-02 3.694157e-02 5.495502e-02 1.432694e-01 1.092585e-01 2.027420e-01 2.712494e-01 3.671024e-01 2.095744e-01 3.815756e-01 2.223579e-01 2.622586e-01 2.457695e-01 2.067770e-02
<GCONST> 8.093774e+01
<TRANSP> 5
 0.000000e+00 1.000000e+00 0.000000e+00 0.000000e+00 0.000000e+00
 0.000000e+00 5.936108e-01 4.063892e-01 0.000000e+00 0.000000e+00
 0.000000e+00 0.000000e+00 8.953747e-01 1.046254e-01 0.000000e+00
 0.000000e+00 0.000000e+00 0.000000e+00 6.144714e-01 3.855285e-01
 0.000000e+00 0.000000e+00 0.000000e+00 0.000000e+00 0.000000e+00
<ENDHMM>
~h "ah"
<BEGINHMM>
<NUMSTATES> 5
<STATE> 2
<MEAN> 39
 -9.681881e+00 -2.764321e+00 -1.465325e+00 3.898711e+00 -1.841563e+01 1.007816e+01 -1.191917e+01 -3.573367e+00 3.649404e+00 -8.694116e+00 -5.227774e-01 -3.539843e+00 4.107942e+01 -9.836835e-02 3.172555e-04 -2.742769e-02 8.762310e-02 3.114778e-02 6.626606e-03 6.280176e-02 8.854836e-02 6.547484e-02 1.059996e-01 2.167385e-01 1.022800e-01 -7.727801e-02 5.735499e-02 -1.726329e-02 -3.962128e-02 7.218904e-04 4.634138e-02 5.360391e-02 1.420941e-02 3.572489e-02 3.393557e-02 -2.019383e-02 3.284619e-03 2.341864e-02 4.120016e-02
<VARIANCE> 39
 1.940643e+01 9.008929e+00 1.317887e+01 7.164290e+00 1.414392e+01 1.944640e+01 1.933487e+01 2.687758e+01 2.193460e+01 2.047928e+01 1.857079e+01 1.874093e+01 1.254383e+01 1.536282e-01 3.114537e-01 5.806911e-01 5.913997e-01 7.735476e-01 8.919960e-01 1.077191e+00 1.391860e+00 1.345424e+00 1.649298e+00 1.633514e+00 1.355453e+00 8.074050e-02 3.373943e-02 6.844134e-02 1.311746e-01 1.375717e-01 1.875106e-01 2.365894e-01 2.169797e-01 2.689093e-01 2.734035e-01 3.317662e-01 3.256656e-01 2.686970e-01 1.418812e-02
<GCONST> 7.761481e+01
<STATE> 3
<MEAN> 39
 2.595845e+00 -6.147450e+00 -1.251033e-01 1.101498e+00 -1.744876e+01 1.307647e+01 -1.605049e+01 -2.196467e+00 2.925055e+00 -1.025047e+01 2.366969e+00 -3.635293e+00 5.255673e+01 4.538600e-02 -6.323308e-02 -3.897006e-02 5.796315e-02 -1.047185e-02 9.423105e-02 -2.705108e-02 -1.553532e-01 -5.971900e-02 -5.500573e-02 1.123195e-02 9.652507e-02 4.518731e-02 -6.313726e-02 -1.536378e-02 1.819519e-02 -2.850324e-03 -1.226079e-02 -6.435642e-03 1.290239e-02 1.279587e-02 3.059495e-03 -6.757230e-03 -7.581457e-03 -1.480360e-02 -3.600060e-02
<VARIANCE> 39
 8.266997e+01 5.560652e+01 8.566860e+01 4.097249e+01 4.374430e+01 4.710538e+01 4.893056e+01 6.007721e+01 4.132603e+01 3.159795e+01 4.477269e+01 2.797742e+01 8.469991e+01 2.659389e+00 2.190837e+00 2.685524e+00 2.278576e+00 2.046606e+00 2.877480e+00 2.881084e+00 2.898561e+00 1.938652e+00 2.076891e+00 2.377979e+00 1.705915e+00 2.623367e+00 2.317729e-01 3.010836e-01 3.794475e-01 4.018326e-01 3.767057e-01 4.870392e-01 4.983116e-01 4.383346e-01 3.185091e-01 3.518251e-01 4.119256e-01 2.987906e-01 2.444773e-01
<GCONST> 1.204118e+02
<STATE> 4
<MEAN> 39
 -1.119156e+01 -6.043418e+00 -2.553114e+00 4.984063e+00 -1.542063e+01 1.550894e+01 -9.348692e+00 -1.809347e+00 6.811540e+00 -9.143551e+00 -1.411586e-01 -1.038898e+00 4.098707e+01 -2.011053e-01 -3.697025e-02 5.176308e-02 -1.077749e-01 -1.830123e-01 -1.092177e-01 8.579539e-02 -5.217939e-03 -1.262693e-01 -2.034370e-02 1.258972e-01 4.446034e-02 -1.238819e-01 3.191962e-02 -2.623661e-03 1.696042e-02 -4.218623e-03 -1.510571e-02 -8.042693e-02 -9.413243e-02 -3.282605e-02 -1.791965e-02 2.697695e-02 3.340394e-02 -2.546955e-02 2.545947e-02
<VARIANCE> 39
 1.033732e+01 7.906332e+00 1.832365e+01 8.212443e+00 1.438051e+01 1.566356e+01 1.532055e+01 1.256268e+01 1.625629e+01 1.329674e+01 1.371842e+01 2.173598e+01 3.940099e+00 1.996046e-01 4.437050e-01 6.249105e-01 7.191923e-01 1.018253e+00 1.148118e+00 1.541656e+00 1.381637e+00 1.501849e+00 1.421569e+00 1.359278e+00 1.179829e+00 6.329052e-02 2.938711e-02 7.300418e-02 8.872101e-02 1.084519e-01 1.684833e-01 2.366178e-01 2.907524e-01 2.680202e-01 3.027143e-01 3.011158e-01 3.098225e-01 2.483059e-01 1.388468e-02
<GCONST> 7.457643e+01
<TRANSP> 5
 0.000000e+00 1.000000e+00 0.000000e+00 0.000000e+00 0.000000e+00
 0.000000e+00 7.714446e-01 2.285554e-01 0.000000e+00 0.000000e+00
 0.000000e+00 0.000000e+00 8.658283e-01 1.341717e-01 0.000000e+00
 0.000000e+00 0.000000e+00 0.000000e+00 7.784748e-01 2.215252e-01
 0.000000e+00 0.000000e+00 0.000000e+00 0.000000e+00 0.000000e+00
<ENDHMM>
~h "eh"
<BEGINHMM>
<NUMSTATES> 5
<STATE> 2
<MEAN> 39
 -1.090050e+01 -5.683354e+00 -4.346325e+00 2.807784e+00 -1.926253e+01 1.171772e+01 -1.166884e+01 -1.053015e+00 7.858089e+00 -8.164778e+00 3.282285e+00 -2.592401e-01 4.047924e+01 1.237377e-01 -3.091949e-01 -3.432586e-01 -5.565956e-02 -5.856004e-03 -7.530190e-02 -9.782211e-02 1.118915e-01 1.099642e-01 1.611705e-01 8.732602e-02 -2.373523e-01 1.504159e-01 2.991870e-02 -4.369730e-03 2.520139e-02 1.291737e-02 2.640893e-02 6.974484e-02 4.901158e-02 -1.580999e-02 -1.236899e-01 -9.754350e-02 -1.870009e-02 2.131562e-02 2.102271e-02
<VARIANCE> 39
 1.200570e+01 1.183290e+01 2.145633e+01 1.334323e+01 1.935160e+01 2.482904e+01 1.211266e+01 1.410729e+01 1.948327e+01 2.867163e+01 1.405137e+01 1.081930e+01 1.064683e+01 2.927862e-01 3.895088e-01 8.692644e-01 1.432472e+00 1.627037e+00 1.621285e+00 1.334550e+00 1.454053e+00 1.629813e+00 2.720992e+00 1.351149e+00 7.148978e-01 1.605735e-01 7.212345e-02 7.125375e-02 1.064115e-01 2.182531e-01 2.417486e-01 2.729605e-01 2.374545e-01 3.078288e-01 2.831958e-01 4.522544e-01 2.403311e-01 9.441636e-02 3.006418e-02
<GCONST> 8.291484e+01
<STATE> 3
<MEAN> 39
 8.262468e+00 -2.291131e+00 2.962746e+00 -3.586867e+00 -2.286591e+01 1.079771e+01 -1.926589e+01 -5.093886e+00 -4.402320e+00 -1.212149e+01 7.567785e+00 -1.870680e+00 5.622697e+01 2.991381e-01 1.416704e-01 -1.165416e-03 -4.097358e-02 5.055808e-02 -1.834650e-02 -1.298177e-01 -1.079725e-01 -2.639410e-01 -6.531931e-02 1.953109e-01 1.148190e-01 1.812060e-01 -3.155441e-02 -2.557292e-02 2.020791e-03 2.163187e-02 4.204472e-02 2.509679e-02 1.931149e-02 1.101875e-02 4.110325e-02 3.488086e-02 2.201010e-02 1.040813e-02 -1.192985e-02
<VARIANCE> 39
 6.134600e+01 2.188004e+01 2.339140e+01 5.803544e+01 2.834775e+01 1.677119e+01 3.951650e+01 3.498465e+01 5.636161e+01 3.788777e+01 1.635535e+01 2.691675e+01 4.665110e+01 2.236802e+00 1.206356e+00 1.355953e+00 3.254249e+00 2.162880e+00 2.017567e+00 1.995921e+00 2.004094e+00 2.493138e+00 3.308307e+00 1.582825e+00 1.878739e+00 1.446462e+00 2.277582e-01 2.117744e-01 2.089115e-01 3.286833e-01 3.006130e-01 3.744560e-01 2.622168e-01 3.826286e-01 3.359375e-01 5.756723e-01 3.133128e-01 3.486282e-01 1.244786e-01
<GCONST> 1.098560e+02
<STATE> 4
<MEAN> 39
 -9.091421e+00 -4.193972e+00 -1.461211e+00 5.029128e+00 -1.560945e+01 1.722475e+01 -1.137966e+01 -3.862717e+00 4.904357e+00 -9.732606e+00 5.524681e+00 -1.010505e-02 4.181776e+01 -2.222890e-01 -6.901900e-01 -1.630536e-01 3.207666e-03 3.316854e-01 5.259920e-01 8.152369e-04 1.908300e-01 -1.752823e-02 -1.467649e-01 1.161733e-02 1.838342e-01 7.002408e-02 1.353610e-01 -1.568940e-02 4.428064e-01 -9.074203e-02 -1.891316e-01 -6.556621e-02 -4.606217e-01 -3.114461e-01 4.157216e-01 5.281605e-02 -2.292137e-01 1.798573e-01 1.739461e-01
<VARIANCE> 39
 1.215513e+02 2.603991e+01 8.336533e+01 1.802787e+01 2.463220e+01 3.333453e+01 3.252573e+01 2.368095e+01 1.581460e+01 2.876520e+01 2.992839e+01 2.312016e+01 8.045744e+01 6.470971e-01 7.513663e-01 1.429187e+00 1.083826e+00 2.123818e+00 2.024959e+00 1.711674e+00 2.641430e+00 3.446673e+00 9.772229e-01 6.711821e-01 9.301148e-01 4.809411e-01 9.125277e-02 2.624573e-01 4.823713e-01 1.446454e-01 1.279435e-01 4.159894e-01 5.994872e-01 2.549902e-01 4.074117e-01 4.568784e-01 2.546889e-01 2.482418e-01 2.428018e-01
<GCONST> 1.030886e+02
<TRANSP> 5
 0.000000e+00 1.000000e+00 0.000000e+00 0.000000e+00 0.000000e+00
 0.000000e+00 8.154715e-01 1.845285e-01 0.000000e+00 0.000000e+00
 0.000000e+00 0.000000e+00 9.358651e-01 6.413489e-02 0.000000e+00
 0.000000e+00 0.000000e+00 0.000000e+00 8.873264e-02 9.112673e-01
 0.000000e+00 0.000000e+00 0.000000e+00 0.000000e+00 0.000000e+00
<ENDHMM>
~h "ih"
<BEGINHMM>
<NUMSTATES> 5
<STATE> 2
<MEAN> 39
 -1.294059e+01 -4.814242e+00 -8.206885e-01 4.740225e+00 -1.724845e+01 1.419107e+01 -1.037184e+01 -2.912676e+00 5.968966e+00 -9.198960e+00 -2.945268e-01 -1.609493e-01 3.934458e+01 4.176674e-01 3.105596e-01 -5.929484e-02 -1.331114e-01 -6.900807e-01 -9.877135e-01 -4.751003e-01 -2.947981e-01 -1.464895e-01 -1.117459e-02 6.360870e-02 -6.472692e-02 1.672024e-01 1.739407e-01 7.757562e-02 1.802807e-02 2.958944e-02 6.727111e-02 -1.028163e-01 -5.944264e-02 -5.474250e-02 2.977815e-02 -2.303694e-02 -5.779146e-02 -4.780783e-02 1.108760e-01
<VARIANCE> 39
 1.909549e+01 9.684834e+00 2.704378e+01 8.479893e+00 2.093931e+01 3.803804e+01 1.595251e+01 1.149038e+01 1.001874e+01 1.810759e+01 1.129763e+01 1.385741e+01 1.433010e+01 8.998274e-01 4.242430e-01 3.027595e-01 3.228891e-01 1.634666e+00 3.097220e+00 2.528202e+00 1.357855e+00 9.290572e-01 9.657569e-01 1.165722e+00 9.576630e-01 2.733035e-01 7.601584e-02 9.023901e-02 9.239215e-02 1.899423e-01 3.868252e-01 5.595427e-01 2.594221e-01 1.955021e-01 1.669745e-01 3.736832e-01 2.051805e-01 2.546135e-01 2.883242e-02
<GCONST> 8.260271e+01
<STATE> 3
<MEAN> 39
 6.684803e+00 -7.139908e+00 6.292457e+00 1.733502e+00 -2.071479e+01 9.140801e+00 -2.095107e+01 -3.272382e+00 7.826939e-01 -1.018281e+01 1.717579e+00 -6.769187e+00 5.765993e+01 1.666660e-01 -6.274366e-02 6.293127e-03 1.826765e-02 1.058211e-01 1.308613e-01 8.508691e-02 1.203419e-01 7.263476e-02 6.045970e-03 1.255590e-02 -6.617249e-02 1.448161e-01 -3.124657e-02 -3.613880e-02 -1.414305e-02 7.087023e-03 4.283227e-02 5.827621e-02 5.398982e-02 3.710324e-02 3.897619e-02 5.460914e-03 -3.245571e-02 1.685256e-02 -1.519661e-02
<VARIANCE> 39
 7.380605e+01 4.016901e+01 6.214374e+01 2.436601e+01 5.103969e+01 6.999523e+01 3.173174e+01 7.560857e+01 2.326962e+01 3.810781e+01 2.427578e+01 3.417048e+01 7.823909e+01 4.773842e-01 9.548370e-01 9.650525e-01 1.267734e+00 1.711412e+00 1.317092e+00 9.987708e-01 2.690201e+00 1.174540e+00 2.014233e+00 1.250502e+00 1.169433e+00 5.180672e-01 3.562148e-02 1.260964e-01 1.347370e-01 1.646311e-01 2.579975e-01 2.529077e-01 1.616361e-01 3.965092e-01 2.438618e-01 3.900252e-01 2.205845e-01 2.512586e-01 3.705523e-02
<GCONST> 9.939533e+01
<STATE> 4
<MEAN> 39
 -1.347869e+01 -5.181400e+00 -1.260626e+00 5.360428e+00 -1.521822e+01 1.435282e+01 -9.193816e+00 -5.902658e-01 7.800470e+00 -8.343435e+00 -5.154460e-01 -1.964327e-01 3.921520e+01 9.642413e-03 1.683683e-02 -3.024164e-02 -9.794747e-03 2.567117e-02 -3.226018e-02 5.149140e-02 3.520961e-02 -1.803974e-02 -7.183484e-03 -3.031751e-02 -2.815041e-02 -1.453109e-02 7.555782e-03 -6.727841e-03 -4.049776e-04 -4.738345e-03 -1.444052e-03 1.097902e-02 -2.830147e-02 -3.322569e-02 -4.299440e-03 -1.662887e-03 6.294045e-03 5.515054e-03 1.004643e-02
<VARIANCE> 39
 6.648545e+00 5.420808e+00 9.973851e+00 4.833298e+00 8.982765e+00 1.318903e+01 1.118583e+01 1.201797e+01 1.144314e+01 1.385967e+01 1.262913e+01 1.477244e+01 2.896789e+00 6.709664e-02 1.791755e-01 3.400410e-01 4.576761e-01 5.541312e-01 7.408188e-01 8.041132e-01 8.171910e-01 9.694459e-01 1.368978e+00 9.885846e-01 1.035695e+00 2.079031e-02 1.582907e-02 3.525402e-02 7.399735e-02 9.076343e-02 1.061928e-01 1.572429e-01 1.594137e-01 1.735110e-01 1.884960e-01 3.010155e-01 1.996353e-01 1.999629e-01 1.032375e-02
<GCONST> 5.817566e+01
<TRANSP> 5
 0.000000e+00 1.000000e+00 0.000000e+00 0.000000e+00 0.000000e+00
 0.000000e+00 3.183059e-01 6.816941e-01 0.000000e+00 0.000000e+00
 0.000000e+00 0.000000e+00 8.580076e-01 1.419925e-01 0.000000e+00
 0.000000e+00 0.000000e+00 0.000000e+00 9.471201e-01 5.287991e-02
 0.000000e+00 0.000000e+00 0.000000e+00 0.000000e+00 0.000000e+00
<ENDHMM>
~h "uh"
<BEGINHMM>
<NUMSTATES> 5
<STATE> 2
<MEAN> 39
 -1.069318e+01 -9.636191e+00 -3.507231e+00 3.228163e+00 -1.742773e+01 1.455020e+01 -1.380566e+01 -1.982334e+00 9.928509e+00 -6.836192e+00 4.943658e+00 -1.604151e-01 4.242216e+01 -8.335464e-02 -2.359806e-01 4.378201e-01 -7.612443e-02 -4.213253e-01 -3.837690e-01 -6.718158e-01 -1.331246e-01 -6.936408e-01 -7.292347e-01 2.208716e-01 -3.621678e-01 7.432412e-02 7.574062e-02 5.616525e-02 8.007266e-03 -4.072370e-02 -8.006240e-02 1.812502e-02 1.301374e-01 1.209788e-01 -1.158059e-01 -8.644832e-02 -1.506658e-01 -8.885749e-02 5.027454e-02
<VARIANCE> 39
 3.348782e+01 3.078120e+01 7.087747e+01 9.096606e+00 2.183289e+01 3.084838e+01 2.553327e+01 2.139050e+01 1.804857e+01 2.719940e+01 3.276775e+01 2.177295e+01 2.781907e+01 4.420721e-01 6.123253e-01 8.549352e-01 1.046576e+00 1.666742e+00 8.126806e-01 1.550034e+00 1.657098e+00 1.998831e+00 1.734840e+00 1.120286e+00 1.706009e+00 1.534920e-01 6.474807e-02 2.170858e-01 2.032285e-01 1.475690e-01 1.592127e-01 1.728405e-01 3.111758e-01 4.310217e-01 2.808733e-01 3.527808e-01 3.790494e-01 1.925873e-01 6.085631e-02
<GCONST> 9.273582e+01
<STATE> 3
<MEAN> 39
 2.402246e+00 -4.390591e+00 -5.854475e-01 -1.384242e+00 -2.106599e+01 9.515800e+00 -1.871722e+01 -2.963867e+00 4.163442e+00 -6.577798e+00 8.502559e+00 -1.130057e+00 5.171511e+01 2.819261e-02 3.610370e-01 2.465768e-01 1.080279e-01 -3.455326e-02 7.891539e-03 1.709692e-01 -3.987963e-02 -1.062655e-01 7.636748e-03 -6.440935e-02 1.190887e-01 -8.472855e-02 -4.875155e-02 -4.127539e-03 1.160401e-03 9.311398e-03 2.800223e-02 5.520845e-02 7.412022e-02 7.525072e-03 -9.395828e-03 -1.098017e-02 -3.839472e-02 5.516354e-03 -3.535371e-02
<VARIANCE> 39
 6.689832e+01 5.244573e+01 5.301325e+01 4.072362e+01 2.673896e+01 3.014875e+01 4.664147e+01 2.641905e+01 6.417559e+01 2.252241e+01 2.333646e+01 2.334751e+01 5.125526e+01 2.638464e+00 1.918871e+00 1.615940e+00 1.925705e+00 2.020003e+00 1.979686e+00 2.422854e+00 1.343418e+00 2.029834e+00 1.474675e+00 1.496638e+00 1.725811e+00 2.091438e+00 2.600512e-01 3.964193e-01 2.341767e-01 3.308189e-01 3.797699e-01 3.533122e-01 3.581711e-01 2.491960e-01 3.564192e-01 2.830982e-01 2.641066e-01 3.273307e-01 1.925356e-01
<GCONST> 1.113022e+02
<STATE> 4
<MEAN> 39
 -1.280467e+01 -5.176037e+00 -5.022550e-01 5.137646e+00 -1.678276e+01 1.665561e+01 -1.027524e+01 -3.037891e+00 7.361578e+00 -9.468264e+00 1.730411e+00 1.040944e+00 3.953541e+01 -8.581356e-02 -1.855130e-02 -6.214284e-03 -6.819470e-03 3.977751e-02 4.742225e-02 7.631036e-02 4.472160e-02 -6.191165e-02 -1.067658e-01 -6.435530e-02 -1.645787e-02 -5.377981e-02 2.945508e-02 -6.699911e-03 -1.396510e-02 -1.057946e-02 -6.747171e-03 -1.357031e-02 -2.626103e-02 2.351021e-03 3.416819e-02 1.283882e-02 4.471336e-03 3.177158e-03 2.228181e-02
<VARIANCE> 39
 4.696476e+00 3.324522e+00 1.210520e+01 5.991081e+00 7.874373e+00 1.596837e+01 1.203839e+01 1.164700e+01 1.603172e+01 1.231318e+01 1.266153e+01 1.521693e+01 2.259276e+00 1.613239e-01 2.518733e-01 4.382609e-01 5.543203e-01 5.619619e-01 8.304628e-01 1.135459e+00 1.224474e+00 1.338350e+00 1.327395e+00 1.082265e+00 9.851416e-01 4.147242e-02 2.283259e-02 4.210501e-02 9.582710e-02 1.209199e-01 1.124571e-01 1.679130e-01 2.165713e-01 2.711486e-01 2.658294e-01 2.526784e-01 2.075235e-01 2.116419e-01 1.170403e-02
<GCONST> 6.377010e+01
<TRANSP> 5
 0.000000e+00 1.000000e+00 0.000000e+00 0.000000e+00 0.000000e+00
 0.000000e+00 2.252744e-01 7.747256e-01 0.000000e+00 0.000000e+00
 0.000000e+00 0.000000e+00 9.086277e-01 9.137228e-02 0.000000e+00
 0.000000e+00 0.000000e+00 0.000000e+00 9.246565e-01 7.534354e-02
 0.000000e+00 0.000000e+00 0.000000e+00 0.000000e+00 0.000000e+00
<ENDHMM>
~h "uw"
<BEGINHMM>
<NUMSTATES> 5
<STATE> 2
<MEAN> 39
 2.092246e+00 -6.292487e+00 -4.497788e+00 9.951020e-01 -1.460130e+01 1.211559e+01 -1.887459e+01 -2.692420e+00 2.477932e+00 -1.507368e+01 -2.229272e+00 -6.376761e+00 5.111992e+01 1.396396e-01 8.392844e-01 -2.568605e-01 2.121559e-01 -6.632407e-01 -4.486162e-01 -1.130387e+00 -1.687388e+00 -1.650882e+00 -1.349120e+00 -3.309763e-01 -7.605956e-01 -3.060929e-01 2.178350e-01 3.628485e-01 4.084579e-01 3.102294e-03 -1.523051e-01 2.279679e-01 8.028437e-01 3.914640e-01 2.523793e-01 5.815053e-01 3.086617e-01 -1.483680e-01 1.410196e-01
<VARIANCE> 39
 7.711170e+01 1.875824e+01 2.400424e+01 2.497407e+01 2.811367e+01 4.146413e+01 4.684692e+01 4.773603e+01 3.514632e+01 2.388579e+01 7.036435e+00 2.417596e+01 6.676524e+01 1.265255e+00 3.464490e-01 8.793646e-01 5.396324e-01 1.365236e+00 2.031358e+00 3.488163e+00 1.925642e+00 1.375879e+00 2.295564e+00 1.038700e+00 1.465923e+00 7.909424e-01 2.021800e-01 2.175742e-01 4.187291e-01 3.346903e-01 6.659386e-01 2.244710e-01 2.348461e-01 2.203029e-01 2.308547e-01 3.209847e-01 8.357853e-02 1.370234e-01 5.617358e-02
<GCONST> 9.898251e+01
<STATE> 3
<MEAN> 39
 8.927729e+00 -3.559673e+00 6.850801e-01 -4.572049e+00 -2.020258e+01 1.192781e+01 -1.868769e+01 -1.257745e+00 1.959509e-01 -1.050613e+01 4.391528e+00 -7.138600e+00 5.724973e+01 -7.245652e-02 -8.260364e-02 -1.184454e-01 8.718589e-02 1.691507e-01 2.337867e-01 3.171705e-01 1.711760e-01 3.682813e-01 3.521431e-01 1.174754e-01 3.721152e-02 -6.406140e-02 -8.959061e-02 -9.811679e-02 -5.330279e-02 2.910460e-02 1.041086e-01 6.433436e-02 5.895548e-02 2.770115e-02 8.001327e-02 1.091841e-01 6.140006e-02 1.158414e-01 -3.910303e-02
<VARIANCE> 39
 2.287763e+01 5.329856e+01 6.200694e+01 9.523183e+01 2.183439e+01 3.172128e+01 1.832184e+01 3.058603e+01 5.840599e+01 4.235658e+01 4.688749e+01 6.504346e+01 3.574793e+01 1.733535e+00 2.123589e+00 1.886798e+00 3.301251e+00 1.688278e+00 2.197942e+00 1.773807e+00 1.066866e+00 2.405027e+00 3.055377e+00 2.605566e+00 3.624356e+00 1.709897e+00 1.243428e-01 2.854116e-01 1.717234e-01 4.309095e-01 2.395049e-01 4.684270e-01 2.595837e-01 2.076453e-01 3.717639e-01 4.253532e-01 4.183385e-01 4.682458e-01 1.552935e-01
<GCONST> 1.132191e+02
<STATE> 4
<MEAN> 39
 -1.569563e+00 -8.646421e+00 -7.519722e+00 5.786529e+00 -9.370812e+00 2.036781e+01 -1.051087e+01 -6.506224e-01 9.746090e+00 -7.061574e+00 1.667299e+00 -3.919254e+00 4.803737e+01 -1.286533e+00 -1.243105e-01 2.465331e-01 4.108993e-01 -2.070461e-01 -2.904087e-01 -3.914390e-01 -1.248135e+00 -4.394709e-01 4.396488e-01 4.172515e-01 1.334540e-01 -8.936998e-01 1.116642e-01 1.462929e-01 7.884837e-02 -2.270778e-01 -3.932655e-01 -3.230191e-01 -2.596969e-01 1.318944e-02 -1.249687e-01 -2.589386e-01 -1.183216e-01 -1.899136e-01 5.091575e-02
<VARIANCE> 39
 2.174150e+01 9.660046e+00 1.647065e+01 1.918416e+01 2.202269e+01 1.567529e+01 2.137960e+01 5.466193e+01 3.707288e+01 1.098994e+01 9.400908e+00 1.589438e+01 1.380660e+01 3.899835e-01 9.420394e-01 7.764240e-01 6.359476e-01 2.311394e+00 2.198301e+00 1.829710e+00 2.414866e+00 1.471260e+00 1.824508e+00 8.650208e-01 2.058478e+00 2.125855e-01 4.666779e-02 1.586533e-01 1.925288e-01 1.215459e-01 3.081360e-01 3.664055e-01 4.353746e-01 6.453636e-01 4.095857e-01 5.709707e-01 9.167976e-02 2.027765e-01 3.013251e-02
<GCONST> 8.969821e+01
<TRANSP> 5
 0.000000e+00 1.000000e+00 0.000000e+00 0.000000e+00 0.000000e+00
 0.000000e+00 3.610272e-01 6.389728e-01 0.000000e+00 0.000000e+00
 0.000000e+00 0.000000e+00 9.288761e-01 7.112393e-02 0.000000e+00
 0.000000e+00 0.000000e+00 0.000000e+00 7.458910e-01 2.541090e-01
 0.000000e+00 0.000000e+00 0.000000e+00 0.000000e+00 0.000000e+00
<ENDHMM>
~h "sil"
<BEGINHMM>
<NUMSTATES> 5
<STATE> 2
<MEAN> 39
 -9.448859e+00 -3.513906e+00 -1.941709e+00 2.614813e+00 -2.000410e+01 1.024727e+01 -1.275085e+01 -5.260543e+00 4.181816e+00 -7.086553e+00 2.151451e+00 -1.339099e+00 4.144132e+01 -1.888084e-01 -6.860857e-02 1.800834e-02 -1.483808e-02 -5.634380e-02 -5.214782e-02 1.375365e-02 1.274942e-01 1.320399e-01 8.817154e-02 1.353175e-01 7.860135e-02 -1.153231e-01 3.044960e-02 3.299526e-02 2.940914e-02 7.343991e-02 1.020154e-01 7.037386e-02 7.202617e-02 7.402023e-02 2.461898e-02 2.700026e-02 7.974268e-03 -6.943781e-03 1.107296e-02
<VARIANCE> 39
 7.137491e+00 8.984057e+00 1.311195e+01 1.185054e+01 1.692961e+01 2.413337e+01 1.812819e+01 2.489913e+01 2.169172e+01 1.990692e+01 1.689178e+01 1.428076e+01 2.578464e+00 1.356718e-01 2.555407e-01 4.922958e-01 6.864169e-01 9.076405e-01 1.045209e+00 1.309053e+00 1.457060e+00 1.117783e+00 1.192472e+00 1.722096e+00 9.928312e-01 3.450280e-02 2.452863e-02 4.969675e-02 9.456305e-02 1.223629e-01 1.618627e-01 1.965513e-01 2.535518e-01 2.578396e-01 2.003428e-01 2.349877e-01 3.081337e-01 1.983878e-01 6.002042e-03
<GCONST> 7.080224e+01
<STATE> 3
<MEAN> 39
 -4.085053e-01 -3.056259e+00 6.715429e-01 -2.372283e-01 -2.175108e+01 1.059579e+01 -1.747889e+01 -5.293212e+00 1.882363e+00 -9.464458e+00 4.222049e+00 -2.707668e+00 4.893233e+01 -1.321415e-01 -2.913935e-03 8.296688e-02 2.101151e-01 1.982134e-01 1.595789e-01 9.418796e-02 5.605553e-02 1.203313e-02 -9.380282e-02 -1.551723e-01 -2.224581e-01 -1.125524e-01 -1.408202e-02 -2.197593e-02 -2.459148e-02 -6.636923e-03 5.460520e-02 6.946737e-02 9.928255e-02 5.525387e-02 3.876187e-02 8.016862e-03 -6.558546e-02 2.824725e-02 1.264986e-04
<VARIANCE> 39
 9.901746e+01 1.722133e+01 2.117990e+01 3.811707e+01 2.198725e+01 2.917014e+01 4.018190e+01 2.447043e+01 5.072866e+01 2.480733e+01 3.867867e+01 1.776641e+01 6.378938e+01 1.213519e+00 6.793053e-01 9.785831e-01 1.030911e+00 1.342855e+00 1.669624e+00 2.016886e+00 1.571673e+00 1.389642e+00 1.795492e+00 1.514039e+00 7.468629e-01 8.970894e-01 1.149097e-01 1.076323e-01 1.500873e-01 1.651628e-01 2.941754e-01 2.625800e-01 2.795622e-01 2.631271e-01 2.547663e-01 3.301085e-01 2.786387e-01 1.540892e-01 8.404142e-02
<GCONST> 9.833735e+01
<STATE> 4
<MEAN> 39
 -1.182369e+01 -4.636765e+00 -1.930704e+00 4.797704e+00 -1.671715e+01 1.352196e+01 -9.520248e+00 -1.607059e+00 5.468932e+00 -8.655015e+00 1.091328e+00 -1.714913e+00 3.992759e+01 -2.745374e-02 2.418965e-02 1.330617e-02 -3.667586e-03 2.284477e-03 -8.606502e-03 2.561062e-02 2.154410e-02 -6.149963e-03 4.873194e-03 -1.454328e-02 -8.883105e-04 -2.573597e-02 4.026970e-03 -2.535362e-03 -7.233195e-03 -8.111725e-03 -9.882773e-03 -7.399343e-03 -8.160210e-03 -3.623469e-03 -5.081293e-03 -1.314252e-03 -3.461200e-03 1.380974e-03 3.240357e-03
<VARIANCE> 39
 3.066917e+00 3.440184e+00 4.743698e+00 5.871493e+00 1.044005e+01 8.036728e+00 9.571517e+00 1.101811e+01 1.165999e+01 1.253730e+01 1.164115e+01 1.408404e+01 1.094502e+00 7.141946e-02 1.579714e-01 3.044479e-01 5.481926e-01 7.478515e-01 7.596148e-01 8.875744e-01 1.032422e+00 1.188732e+00 1.212527e+00 1.123419e+00 1.103798e+00 2.034715e-02 1.385587e-02 3.204413e-02 6.219336e-02 1.114485e-01 1.503749e-01 1.557941e-01 1.815998e-01 2.086366e-01 2.382815e-01 2.479125e-01 2.309609e-01 2.328147e-01 3.880492e-03
<GCONST> 5.535912e+01
<TRANSP> 5
 0.000000e+00 1.000000e+00 0.000000e+00 0.000000e+00 0.000000e+00
 0.000000e+00 8.225767e-01 1.774233e-01 0.000000e+00 0.000000e+00
 0.000000e+00 0.000000e+00 6.017430e-01 3.982569e-01 0.000000e+00
 0.000000e+00 0.000000e+00 0.000000e+00 9.758291e-01 2.417088e-02
 0.000000e+00 0.000000e+00 0.000000e+00 0.000000e+00 0.000000e+00
<ENDHMM>
