~o
<STREAMINFO> 1 15
<VECSIZE> 15<NULLD><USER><DIAGC>
~h "d"
<BEGINHMM>
<NUMSTATES> 5
<STATE> 2
<MEAN> 15
 -3.980250e-02 -1.333876e-01 3.906476e-02 -3.929116e-02 1.533871e-03 4.828917e-02 3.280373e-02 1.832967e-02 -6.128134e-02 -1.046849e-02 -6.069056e-02 -1.689816e-01 1.059352e-01 1.349046e-01 8.594271e-03
<VARIANCE> 15
 9.198968e-01 5.079839e-01 5.224560e-02 8.390439e-02 9.049706e-02 2.785217e-01 4.281889e-01 1.596039e-01 5.489693e-01 3.956522e-01 3.081899e-01 2.544825e-01 6.464434e-01 1.324436e-01 4.347906e-02
<GCONST> 5.347695e+00
<STATE> 3
<MEAN> 15
 1.719727e-01 3.884574e-01 3.878229e-02 -6.765033e-03 1.017773e-02 -3.394511e-02 -7.697280e-02 -6.041908e-02 -6.911596e-02 -1.683082e-02 5.925888e-02 7.590318e-02 7.051142e-02 2.307034e-02 3.266796e-02
<VARIANCE> 15
 2.065148e+00 1.695516e+00 3.327526e-01 3.504677e-01 7.068093e-01 6.897029e-01 2.861705e-01 3.704815e-01 5.562078e-01 1.710398e-01 2.342651e-01 3.302379e-01 1.657491e-01 4.788946e-01 2.286227e-01
<GCONST> 1.478894e+01
<STATE> 4
<MEAN> 15
 -2.305675e-02 9.790922e-02 -2.123978e-02 8.866849e-02 -6.820334e-02 2.671951e-02 5.051402e-02 -1.094699e-01 3.469416e-02 9.307169e-02 2.542433e-01 2.583832e-01 7.542009e-03 -9.266367e-02 -2.425671e-03
<VARIANCE> 15
 7.422488e-01 8.055507e-02 1.749373e-02 4.700302e-02 1.052569e-01 2.149372e-01 1.351907e-01 2.141626e-01 2.851382e-01 1.061154e-01 3.101030e-01 1.853519e-01 2.333237e-01 1.758427e-01 8.586547e-03
<GCONST> -3.988446e+00
<TRANSP> 5
 0.000000e+00 1.000000e+00 0.000000e+00 0.000000e+00 0.000000e+00
 0.000000e+00 7.764081e-01 2.235920e-01 0.000000e+00 0.000000e+00
 0.000000e+00 0.000000e+00 8.917481e-01 1.082519e-01 0.000000e+00
 0.000000e+00 0.000000e+00 0.000000e+00 6.695139e-01 3.304860e-01
 0.000000e+00 0.000000e+00 0.000000e+00 0.000000e+00 0.000000e+00
<ENDHMM>
~h "s"
<BEGINHMM>
<NUMSTATES> 5
<STATE> 2
<MEAN> 15
 -1.099164e-01 -4.575849e-02 -4.365936e-02 1.105313e-02 -7.704155e-02 -9.669451e-02 -5.878645e-02 -5.247049e-02 5.100663e-02 1.984003e-01 3.921195e-01 2.285789e-01 1.076808e-01 6.491423e-02 1.120625e-02
<VARIANCE> 15
 2.855234e+00 6.321476e-02 2.297144e-02 2.841609e-02 1.306996e-01 1.321395e-01 3.375008e-01 2.370696e-01 3.035044e-01 2.973606e-01 2.384591e-01 1.826732e-01 4.326854e-01 5.456516e-01 8.582532e-03
<GCONST> 1.971211e-01
<STATE> 3
<MEAN> 15
 -4.812427e-01 8.246551e-02 4.792555e-02 4.821452e-02 -1.035815e-01 -1.673382e-01 7.459518e-02 2.341696e-02 -1.820984e-01 -3.042139e-01 -4.249531e-03 -7.451495e-02 -1.269572e-02 3.303645e-01 3.326940e-02
<VARIANCE> 15
 1.722965e+00 7.890960e-01 8.628919e-02 1.557219e-01 1.701415e-01 3.027997e-01 2.371113e-01 1.591475e-01 2.705168e-01 2.833194e-01 2.070253e-01 2.163244e-01 5.143712e-01 4.115740e-01 7.930835e-02
<GCONST> 7.561162e+00
<STATE> 4
<MEAN> 15
 -1.767534e-01 -1.675052e-02 7.072616e-02 1.252447e-01 5.659942e-02 -7.411356e-02 -2.863147e-02 -3.062209e-02 2.620296e-02 -2.292580e-02 -1.437218e-01 -8.938532e-03 -7.708580e-02 3.451765e-02 9.846181e-03
<VARIANCE> 15
 1.723441e+00 2.597652e-02 3.925992e-02 1.099052e-01 7.161059e-02 1.826962e-01 1.184320e-01 1.697249e-01 3.675189e-01 2.467587e-01 2.085342e-01 2.237909e-01 5.799564e-01 5.263290e-01 1.158520e-02
<GCONST> -3.368864e-01
<TRANSP> 5
 0.000000e+00 1.000000e+00 0.000000e+00 0.000000e+00 0.000000e+00
 0.000000e+00 4.295246e-01 5.704755e-01 0.000000e+00 0.000000e+00
 0.000000e+00 0.000000e+00 2.471932e-01 7.528068e-01 0.000000e+00
 0.000000e+00 0.000000e+00 0.000000e+00 7.250260e-01 2.749740e-01
 0.000000e+00 0.000000e+00 0.000000e+00 0.000000e+00 0.000000e+00
<ENDHMM>
~h "t"
<BEGINHMM>
<NUMSTATES> 5
<STATE> 2
<MEAN> 15
 1.415275e-01 5.184803e-01 -3.940044e-02 1.108135e-02 2.026678e-01 7.982013e-02 -3.263181e-01 -1.137305e-01 -2.351896e-01 -3.119902e-02 7.104501e-01 5.129167e-01 -1.262471e-02 -1.127695e-01 -1.062906e-01
<VARIANCE> 15
 2.713124e+00 1.298930e-01 6.000084e-02 1.043048e-01 4.344639e-02 1.381961e-01 6.407461e-02 4.043313e-01 3.571874e-01 2.809969e-01 4.003533e-01 1.327809e-01 1.525799e-01 2.957347e-01 7.205793e-02
<GCONST> 1.720825e+00
<STATE> 3
<MEAN> 15
 -1.758897e-02 3.128210e-01 -2.456797e-02 2.482266e-03 -2.137786e-03 2.647788e-03 -2.694889e-02 -1.987246e-02 -3.024683e-02 -1.767314e-02 4.111383e-02 7.253121e-03 -1.539037e-03 1.498569e-02 -9.081299e-03
<VARIANCE> 15
 1.537855e+00 3.059147e+00 3.274845e-01 4.498014e-01 4.378909e-01 3.558872e-01 3.230906e-01 4.420012e-01 6.295581e-01 2.348109e-01 3.600948e-01 2.388503e-01 3.460533e-01 2.970854e-01 3.205107e-01
<GCONST> 1.561847e+01
<STATE> 4
<MEAN> 15
 -1.593153e-01 1.643718e-02 -3.299362e-02 5.811163e-02 -1.104935e-02 -4.020947e-02 -4.545669e-04 -2.307731e-02 1.745523e-02 -3.822498e-02 -8.437746e-02 -1.979469e-02 7.170004e-02 -1.538542e-02 -2.823001e-02
<VARIANCE> 15
 1.208974e+00 8.010536e-02 1.264211e-02 7.587862e-02 1.053733e-01 1.503490e-01 2.104254e-01 3.148801e-01 1.489360e-01 3.194266e-01 2.693446e-01 2.191519e-01 3.247415e-01 2.652039e-01 1.497776e-02
<GCONST> -1.103449e+00
<TRANSP> 5
 0.000000e+00 1.000000e+00 0.000000e+00 0.000000e+00 0.000000e+00
 0.000000e+00 2.719712e-01 7.280288e-01 0.000000e+00 0.000000e+00
 0.000000e+00 0.000000e+00 8.865370e-01 1.134630e-01 0.000000e+00
 0.000000e+00 0.000000e+00 0.000000e+00 8.113691e-01 1.886308e-01
 0.000000e+00 0.000000e+00 0.000000e+00 0.000000e+00 0.000000e+00
<ENDHMM>
~h "ah"
<BEGINHMM>
<NUMSTATES> 5
<STATE> 2
<MEAN> 15
 -7.299268e-02 7.926232e-02 3.586547e-02 1.003381e-02 -9.010901e-02 -6.584890e-03 5.606540e-02 -3.198275e-02 -1.043094e-01 6.848143e-03 2.116016e-01 7.233766e-02 2.670814e-02 1.229841e-01 7.291274e-03
<VARIANCE> 15
 3.171612e+00 4.888789e-01 1.317221e-01 2.453725e-01 1.390170e-01 2.221951e-01 2.554072e-01 1.828050e-01 3.936202e-01 2.897341e-01 3.999675e-01 3.283845e-01 4.591697e-01 5.173896e-01 7.972018e-02
<GCONST> 9.865492e+00
<STATE> 3
<MEAN> 15
 -1.013566e-03 1.394790e-01 -1.510440e-02 -4.671985e-02 -3.554531e-03 2.151879e-03 4.287614e-02 7.254766e-02 9.587649e-03 5.293792e-06 -4.400295e-02 -6.330694e-02 -1.040941e-02 -2.250222e-03 1.886906e-02
<VARIANCE> 15
 1.610341e+00 3.440888e+00 3.190016e-01 3.313670e-01 2.874682e-01 2.896206e-01 2.613223e-01 4.529354e-01 5.493248e-01 3.720389e-01 5.882983e-01 3.225130e-01 3.232465e-01 2.833173e-01 2.517972e-01
<GCONST> 1.539380e+01
<STATE> 4
<MEAN> 15
 2.523167e-01 4.980868e-02 2.135559e-03 4.335621e-02 -2.321541e-04 3.749510e-02 -1.181551e-02 -5.357354e-02 -1.822170e-02 -1.706529e-02 -7.365518e-02 -6.978342e-03 7.684822e-03 -6.472715e-02 -2.577401e-02
<VARIANCE> 15
 1.598888e+00 1.117755e-01 1.936918e-02 6.111499e-02 9.121186e-02 1.015370e-01 1.188346e-01 1.492471e-01 1.573265e-01 2.543653e-01 3.177450e-01 2.453615e-01 3.190299e-01 3.832430e-01 2.098573e-02
<GCONST> -1.342362e+00
<TRANSP> 5
 0.000000e+00 1.000000e+00 0.000000e+00 0.000000e+00 0.000000e+00
 0.000000e+00 6.913667e-01 3.086333e-01 0.000000e+00 0.000000e+00
 0.000000e+00 0.000000e+00 9.114493e-01 8.855068e-02 0.000000e+00
 0.000000e+00 0.000000e+00 0.000000e+00 8.097931e-01 1.902070e-01
 0.000000e+00 0.000000e+00 0.000000e+00 0.000000e+00 0.000000e+00
<ENDHMM>
~h "uh"
<BEGINHMM>
<NUMSTATES> 5
<STATE> 2
<MEAN> 15
 1.844892e-02 3.923787e-01 -3.803042e-02 -1.634223e-02 8.682714e-02 -2.322385e-03 -7.288221e-02 1.369331e-02 1.205889e-01 4.301893e-02 -1.410577e-01 -5.540061e-02 -2.518616e-02 -9.581045e-02 -7.986966e-02
<VARIANCE> 15
 1.590222e+00 4.033436e-01 7.974799e-02 9.238026e-02 1.532515e-01 2.158882e-01 1.202906e-01 2.449875e-01 4.106201e-01 4.842366e-02 5.704653e-01 1.346979e-01 2.451580e-01 2.767713e-01 4.485532e-02
<GCONST> 3.001668e+00
<STATE> 3
<MEAN> 15
 7.989480e-02 -1.117105e+00 -8.876971e-02 -6.343485e-02 -5.355411e-02 -9.671479e-02 3.904381e-02 2.354482e-01 2.970158e-01 8.470329e-03 -1.211923e-01 -1.435254e-03 -1.746271e-01 -1.807368e-01 -2.966068e-02
<VARIANCE> 15
 7.254775e-01 2.099278e+00 1.013430e-01 1.795653e-01 2.488171e-01 5.508798e-01 5.024308e-01 5.457771e-01 5.006429e-01 2.967181e-01 1.136501e+00 3.050587e-01 4.333966e-01 1.652805e-01 1.877813e-01
<GCONST> 1.342642e+01
<STATE> 4
<MEAN> 15
 -4.458658e-01 -1.075786e-01 -3.329610e-03 1.391523e-01 9.975582e-02 1.271466e-01 1.798241e-01 6.968441e-02 1.036671e-02 -1.320123e-01 -2.563813e-01 -2.070228e-01 -2.104383e-01 1.654668e-02 -1.581283e-02
<VARIANCE> 15
 8.017622e-01 1.074512e-01 3.411871e-02 3.509921e-02 6.553791e-02 2.114241e-01 1.668574e-01 1.293700e-01 2.064552e-01 4.990564e-02 2.766582e-01 2.507992e-01 2.149560e-01 1.831358e-01 1.498862e-02
<GCONST> -4.404385e+00
<TRANSP> 5
 0.000000e+00 1.000000e+00 0.000000e+00 0.000000e+00 0.000000e+00
 0.000000e+00 6.925469e-01 3.074531e-01 0.000000e+00 0.000000e+00
 0.000000e+00 0.000000e+00 7.396711e-01 2.603290e-01 0.000000e+00
 0.000000e+00 0.000000e+00 0.000000e+00 5.682056e-01 4.317944e-01
 0.000000e+00 0.000000e+00 0.000000e+00 0.000000e+00 0.000000e+00
<ENDHMM>
~h "uw"
<BEGINHMM>
<NUMSTATES> 5
<STATE> 2
<MEAN> 15
 -1.485866e-01 -1.428342e-01 -4.678334e-02 -3.127825e-03 -3.106861e-02 7.732494e-02 9.882222e-03 -6.969109e-02 1.391027e-02 1.888607e-01 2.184743e-01 2.828912e-02 -1.112282e-01 -6.508300e-02 -3.551108e-02
<VARIANCE> 15
 9.281785e-01 5.520862e-01 4.405577e-02 1.054676e-01 8.692896e-02 1.782594e-01 2.068769e-01 1.387099e-01 8.251273e-02 2.278782e-01 3.967215e-01 2.988269e-01 2.518666e-01 1.519887e-01 1.748938e-02
<GCONST> 3.946166e-01
<STATE> 3
<MEAN> 15
 2.085586e-03 1.801363e-01 1.566542e-02 -2.944706e-02 7.508762e-03 -2.575944e-04 2.078565e-02 3.089098e-02 1.203248e-02 1.790296e-02 -3.916380e-02 -4.377176e-02 -5.427777e-03 1.584013e-02 1.075666e-02
<VARIANCE> 15
 1.033233e+00 2.789066e+00 3.374873e-01 4.754201e-01 4.713621e-01 4.880146e-01 2.903187e-01 4.022612e-01 4.950147e-01 3.076102e-01 4.738535e-01 3.452442e-01 2.611186e-01 1.479221e-01 2.866782e-01
<GCONST> 1.498411e+01
<STATE> 4
<MEAN> 15
 -4.046684e-01 7.603489e-04 -5.386614e-02 -2.256143e-02 7.759253e-02 6.195702e-02 4.220101e-03 2.903864e-03 -1.307649e-02 -1.220648e-02 2.215630e-02 1.345826e-02 2.792209e-02 -2.330880e-02 -3.487031e-02
<VARIANCE> 15
 1.369616e+00 3.858401e-02 2.573646e-02 1.035618e-01 7.364840e-02 1.402299e-01 1.987705e-01 1.869000e-01 3.974978e-01 9.308290e-02 2.029452e-01 1.602341e-01 3.135273e-01 2.397873e-01 9.716045e-03
<GCONST> -3.109990e+00
<TRANSP> 5
 0.000000e+00 1.000000e+00 0.000000e+00 0.000000e+00 0.000000e+00
 0.000000e+00 7.459442e-01 2.540558e-01 0.000000e+00 0.000000e+00
 0.000000e+00 0.000000e+00 9.456805e-01 5.431949e-02 0.000000e+00
 0.000000e+00 0.000000e+00 0.000000e+00 7.397181e-01 2.602818e-01
 0.000000e+00 0.000000e+00 0.000000e+00 0.000000e+00 0.000000e+00
<ENDHMM>
~h "sil"
<BEGINHMM>
<NUMSTATES> 5
<STATE> 2
<MEAN> 15
 -3.347748e-03 -6.101707e-01 -4.619962e-02 9.410729e-02 3.210828e-02 3.849298e-02 1.025346e-01 6.591710e-02 7.152537e-02 -1.340794e-01 -3.770520e-02 6.132805e-02 2.055494e-02 1.369048e-01 -5.712486e-02
<VARIANCE> 15
 2.235195e+00 1.912134e-01 3.570916e-02 1.177991e-01 1.275017e-01 7.248188e-02 1.980639e-01 3.646541e-01 1.895631e-01 1.710737e-01 2.568322e-01 6.477375e-02 1.380007e-01 2.590942e-01 3.010110e-02
<GCONST> -4.241536e-01
<STATE> 3
<MEAN> 15
 -6.323906e-02 -1.117838e+00 5.291403e-02 -4.203102e-02 2.027676e-02 7.739874e-03 -1.188416e-01 -1.453867e-01 1.535117e-02 4.795275e-02 3.304236e-02 7.612309e-02 5.659410e-02 1.928550e-02 6.930232e-02
<VARIANCE> 15
 1.322414e+00 1.268097e+00 9.656636e-02 1.858500e-01 2.313366e-01 1.955178e-01 2.178278e-01 4.292193e-01 3.518446e-01 1.947096e-01 4.073470e-01 1.653793e-01 2.306772e-01 2.710968e-01 1.861821e-01
<GCONST> 8.767509e+00
<STATE> 4
<MEAN> 15
 -1.030763e-02 -2.438110e-02 4.971006e-03 -1.213947e-04 -8.245918e-03 -2.754972e-03 -1.552771e-02 -1.812822e-02 1.175326e-02 1.879148e-02 -4.554702e-03 8.611361e-03 -7.665658e-03 -1.185024e-02 2.777179e-03
<VARIANCE> 15
 1.120048e+00 2.200522e-02 1.227767e-02 3.385215e-02 7.910350e-02 1.150844e-01 1.445767e-01 1.506359e-01 1.429768e-01 1.727145e-01 1.992260e-01 2.710204e-01 3.354858e-01 2.082730e-01 4.248955e-03
<GCONST> -7.188825e+00
<TRANSP> 5
 0.000000e+00 1.000000e+00 0.000000e+00 0.000000e+00 0.000000e+00
 0.000000e+00 6.460645e-01 3.539355e-01 0.000000e+00 0.000000e+00
 0.000000e+00 0.000000e+00 7.220759e-01 2.779240e-01 0.000000e+00
 0.000000e+00 0.000000e+00 0.000000e+00 9.725906e-01 2.740944e-02
 0.000000e+00 0.000000e+00 0.000000e+00 0.000000e+00 0.000000e+00
<ENDHMM>
