~o
<STREAMINFO> 1 39
<VECSIZE> 39<NULLD><MFCC_D_A_0><DIAGC>
~h "a"
<BEGINHMM>
<NUMSTATES> 5
<STATE> 2
<MEAN> 39
 -3.019136e+00 -5.718848e+00 -5.603840e+00 -1.199009e+01 -4.094843e+00 -8.336311e+00 -5.265785e+00 2.027149e-01 -2.158196e+00 1.657777e+00 -3.317001e+00 -9.390236e+00 6.947412e+01 6.657202e-01 -1.801722e+00 -7.972560e-01 -9.396895e-01 6.829599e-01 -2.766102e-01 6.931334e-01 1.158522e+00 5.952231e-01 -5.559553e-01 -1.069160e+00 -1.257885e+00 1.866874e+00 -4.042403e-01 4.382460e-01 3.098698e-01 6.414688e-01 1.817958e-01 1.279327e-01 2.635508e-01 -2.766152e-01 -1.918935e-01 -2.838964e-01 -1.258408e-02 4.431822e-01 -8.595446e-01
<VARIANCE> 39
 2.307154e+01 2.932789e+01 4.729155e+01 3.129120e+01 7.719482e+01 6.751521e+01 5.919972e+01 7.839326e+01 6.785197e+01 7.550411e+01 5.488965e+01 4.797784e+01 5.050142e+01 2.542444e+00 1.722828e+00 2.400296e+00 2.895273e+00 3.183793e+00 3.431523e+00 4.312308e+00 4.484405e+00 3.606875e+00 4.204277e+00 3.748335e+00 3.308982e+00 2.436186e+00 4.181121e-01 3.605964e-01 4.613137e-01 5.267168e-01 6.615406e-01 8.423807e-01 7.302697e-01 6.879387e-01 7.384210e-01 8.926098e-01 7.605586e-01 7.967798e-01 4.822225e-01
<GCONST> 1.315042e+02
<STATE> 3
<MEAN> 39
 -3.717009e+00 -8.523402e+00 -7.303751e+00 -1.089637e+01 -2.248209e+00 -8.446138e+00 -2.442280e+00 1.695147e+00 -7.110190e-01 -2.781149e+00 -6.428177e+00 -9.872819e+00 7.179933e+01 7.792761e-02 2.609757e-01 2.085114e-01 5.337784e-01 -1.324168e-01 -4.369132e-01 7.368041e-02 8.395831e-02 -1.481000e-01 -1.095870e-01 -2.628008e-02 3.759995e-01 -3.710011e-01 -2.564429e-03 5.419867e-01 3.536626e-01 3.206855e-01 -3.198881e-01 1.805525e-02 -3.109141e-01 -2.931640e-01 -1.553439e-01 2.895027e-01 2.987558e-01 2.405519e-01 -5.770111e-01
<VARIANCE> 39
 2.158747e+01 1.514265e+01 3.281207e+01 2.514689e+01 4.504768e+01 4.309602e+01 6.232523e+01 8.147205e+01 5.733089e+01 7.594569e+01 5.749281e+01 5.122948e+01 4.681918e+01 4.328808e-01 1.089262e+00 1.194506e+00 1.278014e+00 2.063750e+00 2.556553e+00 2.013298e+00 2.223328e+00 1.986460e+00 2.714408e+00 2.031949e+00 1.642549e+00 6.118189e-01 1.482264e-01 2.488148e-01 2.082476e-01 2.489254e-01 2.960461e-01 3.725932e-01 3.975850e-01 6.160419e-01 4.565858e-01 4.235319e-01 3.947754e-01 3.800428e-01 2.874821e-01
<GCONST> 1.110737e+02
<STATE> 4
<MEAN> 39
 -2.549832e+00 -2.394568e+00 -3.645327e+00 -6.707918e+00 -4.503581e+00 -1.123398e+01 -4.112966e+00 -2.321675e-01 -3.701168e+00 1.319907e+00 -3.534483e+00 -7.151923e+00 6.442821e+01 -3.066564e-01 2.809827e+00 1.873409e+00 2.510026e+00 -4.654537e-01 5.089474e-01 -7.768602e-01 -1.488211e+00 -9.366762e-01 4.296176e-01 2.635597e-01 9.554612e-01 -3.567079e+00 -3.408307e-01 8.064752e-02 2.031369e-01 1.788198e-01 2.713933e-01 5.631931e-01 2.548555e-01 -2.600386e-01 -5.000053e-02 -3.479273e-01 -2.176009e-01 1.008622e-01 -4.434713e-01
<VARIANCE> 39
 2.103548e+01 3.788604e+01 4.825539e+01 4.564345e+01 6.254943e+01 5.991526e+01 5.981575e+01 8.197868e+01 7.030747e+01 6.901999e+01 5.473608e+01 5.223389e+01 7.455453e+01 2.621860e+00 2.628119e+00 2.715850e+00 3.020844e+00 3.392793e+00 4.905325e+00 4.653561e+00 8.319317e+00 5.240592e+00 5.343229e+00 4.851009e+00 4.001809e+00 3.939140e+00 3.840770e-01 7.132029e-01 4.801998e-01 8.923886e-01 5.408119e-01 9.334893e-01 7.097774e-01 1.190482e+00 9.443625e-01 7.385982e-01 7.772601e-01 5.712410e-01 9.218704e-01
<GCONST> 1.374634e+02
<TRANSP> 5
 0.000000e+00 1.000000e+00 0.000000e+00 0.000000e+00 0.000000e+00
 0.000000e+00 5.577810e-01 4.422190e-01 0.000000e+00 0.000000e+00
 0.000000e+00 0.000000e+00 7.875208e-01 2.124792e-01 0.000000e+00
 0.000000e+00 0.000000e+00 0.000000e+00 6.071571e-01 3.928429e-01
 0.000000e+00 0.000000e+00 0.000000e+00 0.000000e+00 0.000000e+00
<ENDHMM>
~h "b"
<BEGINHMM>
<NUMSTATES> 5
<STATE> 2
<MEAN> 39
 6.609012e-01 9.590664e+00 2.724889e+00 3.758465e-01 -2.052524e+00 -1.927277e+00 -5.748619e+00 -9.480107e+00 -1.159799e+01 -2.782274e+00 -2.138060e+00 -5.115464e+00 5.285647e+01 -1.262866e-02 2.697145e+00 1.485849e+00 1.393027e+00 1.104296e+00 1.331218e+00 1.172065e+00 2.232768e-01 -1.191696e+00 -1.244433e+00 -6.332250e-01 1.290889e-01 -2.567896e+00 -4.039205e-01 -8.854027e-01 -3.374134e-01 -4.945396e-01 -3.787748e-01 -7.023078e-01 -1.518896e-01 4.295290e-01 8.672550e-01 1.786941e-01 -6.948903e-02 7.690255e-02 1.075061e+00
<VARIANCE> 39
 7.733637e+00 1.663432e+01 1.238460e+01 2.105554e+01 1.205288e+01 2.385343e+01 2.822752e+01 2.863098e+01 2.868099e+01 2.302209e+01 4.186655e+01 2.080968e+01 4.799926e+01 1.799720e+00 2.798463e+00 2.340976e+00 4.197409e+00 2.493788e+00 2.152770e+00 4.680067e+00 5.407099e+00 3.958640e+00 4.031538e+00 4.053325e+00 3.164904e+00 4.601133e+00 2.321711e-01 4.156187e-01 5.024514e-01 5.177625e-01 4.487156e-01 3.773437e-01 8.400109e-01 6.714334e-01 6.779786e-01 7.512771e-01 6.135681e-01 4.810084e-01 4.383187e-01
<GCONST> 1.184958e+02
<STATE> 3
<MEAN> 39
 -3.937881e-01 1.213217e+01 3.937310e+00 1.323440e+00 -1.077450e+00 -1.062047e+00 -3.621836e+00 -7.299546e+00 -1.073038e+01 -4.295835e+00 -2.787304e+00 -3.956110e+00 4.985898e+01 -7.531521e-01 -9.600581e-01 -5.648989e-01 -4.718070e-01 -4.251294e-02 -4.974756e-01 -4.594350e-01 1.130818e-01 7.794957e-01 8.314328e-02 6.231698e-01 3.324940e-01 1.591414e+00 -1.051832e-01 -1.073165e+00 -5.763385e-01 -5.126991e-01 -4.717759e-01 -5.374911e-01 -6.083096e-01 -1.276997e-01 3.892264e-01 5.460042e-01 5.185600e-01 -9.026056e-02 1.294007e+00
<VARIANCE> 39
 1.044856e+01 7.461675e+00 7.975888e+00 1.570867e+01 1.602086e+01 2.305730e+01 2.438557e+01 2.916501e+01 3.604569e+01 2.397704e+01 3.172346e+01 1.602534e+01 2.520114e+01 1.121706e+00 2.342869e+00 1.759561e+00 2.479079e+00 1.852365e+00 2.051532e+00 2.357237e+00 2.931984e+00 2.705667e+00 2.378752e+00 2.750039e+00 1.278673e+00 3.909723e+00 2.689839e-01 3.004418e-01 4.213962e-01 5.893825e-01 5.195645e-01 4.651730e-01 7.240012e-01 8.758134e-01 6.734577e-01 5.078119e-01 5.748525e-01 4.398866e-01 2.364995e-01
<GCONST> 1.100794e+02
<STATE> 4
<MEAN> 39
 -4.642865e+00 3.252992e+00 -1.810843e+00 -2.365163e+00 -3.791567e+00 -4.739399e+00 -1.051512e+01 -9.756783e+00 -6.484785e+00 -1.026248e+00 3.617506e+00 -3.700558e+00 6.412454e+01 -9.090409e-02 -3.005144e+00 -1.224675e+00 -1.307113e+00 -1.659190e+00 -2.133718e+00 -2.468295e+00 1.505559e-01 1.631156e+00 1.803904e+00 1.347359e+00 -8.347584e-01 4.132096e+00 4.219035e-01 2.448536e-01 3.878216e-01 1.331364e-01 -1.479274e-01 -1.009156e-01 3.426332e-01 2.686071e-01 -1.772397e-01 1.740558e-02 -7.054772e-01 -3.272130e-01 -5.742366e-01
<VARIANCE> 39
 2.284389e+01 1.658635e+01 2.418893e+01 5.044114e+01 5.223370e+01 3.333462e+01 4.415273e+01 4.562621e+01 4.011347e+01 4.782106e+01 5.214636e+01 1.842857e+01 7.913026e+01 1.605712e+00 2.073986e+00 5.595249e+00 5.525728e+00 7.049815e+00 4.784747e+00 6.817790e+00 9.205036e+00 6.888278e+00 6.342338e+00 7.918079e+00 3.957363e+00 2.963938e+00 3.638010e-01 4.005633e-01 4.946216e-01 8.331873e-01 1.393448e+00 8.798107e-01 9.562840e-01 1.211862e+00 6.532994e-01 1.064786e+00 1.091699e+00 3.628725e-01 6.315477e-01
<GCONST> 1.349805e+02
<TRANSP> 5
 0.000000e+00 1.000000e+00 0.000000e+00 0.000000e+00 0.000000e+00
 0.000000e+00 5.918874e-01 4.081126e-01 0.000000e+00 0.000000e+00
 0.000000e+00 0.000000e+00 7.179277e-01 2.820723e-01 0.000000e+00
 0.000000e+00 0.000000e+00 0.000000e+00 5.477104e-01 4.522897e-01
 0.000000e+00 0.000000e+00 0.000000e+00 0.000000e+00 0.000000e+00
<ENDHMM>
~h "c"
<BEGINHMM>
<NUMSTATES> 5
<STATE> 2
<MEAN> 39
 -1.430187e+01 5.837903e+00 5.753339e-01 -1.314021e+00 1.748867e+00 -4.118358e+00 -1.222020e+00 -5.050916e+00 -5.147215e+00 -3.539894e+00 -3.371606e+00 -3.197508e+00 4.619808e+01 -1.969515e+00 -1.990607e+00 -1.409861e+00 -6.807764e-01 6.028749e-01 5.908761e-01 5.408162e-01 5.711464e-01 1.126554e-02 7.433941e-01 7.892532e-01 9.092873e-01 -1.877827e-01 -3.225437e-02 2.032589e-01 -8.566742e-02 -5.388165e-01 -4.043698e-01 -3.888032e-01 -2.208732e-01 3.639032e-02 1.078636e-01 1.718194e-01 8.293192e-03 2.538402e-01 1.133901e+00
<VARIANCE> 39
 3.111213e+01 6.115678e+01 2.630891e+01 1.725543e+01 2.379182e+01 5.313404e+01 1.956541e+01 2.468329e+01 4.612962e+01 2.677529e+01 3.102411e+01 2.527856e+01 8.145734e+01 2.545346e+00 3.040176e+00 1.869678e+00 3.499663e+00 2.802815e+00 3.807892e+00 2.146793e+00 1.892038e+00 3.975793e+00 2.698279e+00 3.294574e+00 3.080994e+00 9.379336e+00 5.916799e-01 1.143441e+00 5.449892e-01 2.911264e-01 5.090370e-01 7.605022e-01 3.289767e-01 3.937738e-01 9.098394e-01 4.834207e-01 4.311334e-01 7.073702e-01 1.005816e+00
<GCONST> 1.242473e+02
<STATE> 3
<MEAN> 39
 -2.411666e+01 2.523178e+00 -4.557844e+00 -9.191729e+00 1.710268e+00 -5.932865e+00 -4.086035e-01 -1.976619e+00 -4.340770e+00 9.489061e-01 6.280078e-01 4.804323e-01 6.117828e+01 -2.028031e+00 1.523880e+00 8.348206e-01 -1.655300e+00 -6.437208e-01 -9.663703e-01 -5.968574e-02 2.893866e-01 -2.803266e-01 8.671743e-01 3.505701e-01 3.445789e-02 4.797549e+00 1.380760e+00 2.137892e-02 1.060629e+00 5.359564e-01 -9.366678e-01 -3.023203e-01 -2.645850e-01 -2.198045e-01 -1.996344e-01 -2.820603e-01 -3.186528e-01 -1.948278e-01 -2.826118e-01
<VARIANCE> 39
 4.049627e+01 2.850426e+01 1.998044e+01 2.630578e+01 2.135848e+01 2.348391e+01 1.534608e+01 2.144646e+01 3.127273e+01 2.896417e+01 1.599174e+01 1.950354e+01 5.284082e+01 6.206879e+00 2.360472e+00 5.973447e+00 2.144184e+00 1.739540e+00 2.852717e+00 1.835422e+00 1.893162e+00 5.470698e+00 1.517487e+00 2.435067e+00 2.594256e+00 4.933887e+00 1.517514e+00 1.080541e+00 6.277293e-01 7.392405e-01 4.410857e-01 7.158395e-01 6.019205e-01 3.006076e-01 7.315721e-01 4.158629e-01 5.055870e-01 3.951953e-01 1.228148e+00
<GCONST> 1.214333e+02
<STATE> 4
<MEAN> 39
 -2.101901e+01 5.951002e+00 2.854570e+00 -9.369252e+00 -4.247090e+00 -9.248075e+00 -2.246339e+00 -2.188329e+00 -5.226171e+00 3.365240e-01 -1.846936e+00 -1.091641e+00 6.893227e+01 4.974601e+00 -1.315565e+00 2.667641e+00 4.641537e-01 -4.604149e+00 -3.143343e+00 -2.280587e+00 -2.968357e-01 -6.444451e-01 -2.051023e-01 -6.452088e-01 2.532502e-01 1.877279e+00 1.132558e+00 -1.087178e+00 -1.503883e-01 -4.283388e-02 -6.415405e-01 -2.778123e-01 -2.666158e-01 1.839163e-01 -7.501061e-03 4.276772e-02 -3.105416e-02 -1.186390e-02 -7.388991e-01
<VARIANCE> 39
 8.368623e+01 3.525865e+01 3.049843e+01 1.322900e+01 3.920084e+01 4.244559e+01 2.475486e+01 3.973419e+01 3.274580e+01 2.840009e+01 1.371208e+01 1.644382e+01 2.521837e+01 5.524129e+00 4.306584e+00 2.024395e+00 2.798033e+00 5.848483e+00 2.693323e+00 4.692163e+00 5.615221e+00 3.164553e+00 2.462081e+00 2.581057e+00 2.105799e+00 1.334006e+00 2.139337e+00 4.704219e-01 5.969427e-01 7.272337e-01 9.854888e-01 7.066794e-01 8.050380e-01 7.144364e-01 1.034177e+00 6.489224e-01 5.840105e-01 3.584383e-01 2.631706e-01
<GCONST> 1.253815e+02
<TRANSP> 5
 0.000000e+00 1.000000e+00 0.000000e+00 0.000000e+00 0.000000e+00
 0.000000e+00 7.650744e-01 2.349256e-01 0.000000e+00 0.000000e+00
 0.000000e+00 0.000000e+00 6.339011e-01 3.660990e-01 0.000000e+00
 0.000000e+00 0.000000e+00 0.000000e+00 5.481520e-01 4.518481e-01
 0.000000e+00 0.000000e+00 0.000000e+00 0.000000e+00 0.000000e+00
<ENDHMM>
~h "d"
<BEGINHMM>
<NUMSTATES> 5
<STATE> 2
<MEAN> 39
 -3.306891e+00 7.943558e+00 6.383024e+00 2.733100e+00 -5.593566e+00 -8.190148e+00 -6.766691e+00 -4.894042e+00 -7.654827e+00 -4.776860e+00 -9.182591e+00 -6.354460e+00 5.095522e+01 1.248067e+00 1.870214e+00 1.184276e+00 1.170907e+00 6.803316e-01 -1.428704e-01 -3.791765e-01 3.689208e-01 -1.887879e-01 -1.007013e+00 -7.836292e-01 -7.086862e-01 -5.330476e-01 -6.967553e-01 -8.097807e-01 -4.482063e-01 -5.306932e-01 1.381489e-01 2.002538e-01 1.408045e-01 3.983157e-01 4.512234e-01 4.119360e-01 6.621103e-01 3.605705e-01 7.784942e-01
<VARIANCE> 39
 2.270107e+01 3.635780e+01 1.923896e+01 4.312561e+01 3.113683e+01 3.970988e+01 3.883566e+01 4.780888e+01 3.569909e+01 4.661544e+01 4.651460e+01 2.359392e+01 8.195667e+01 2.611416e+00 4.102523e+00 1.996583e+00 4.757990e+00 5.349324e+00 3.678664e+00 2.685078e+00 5.641774e+00 3.681276e+00 4.813511e+00 3.312472e+00 2.234196e+00 6.201792e+00 4.221826e-01 8.214786e-01 1.849449e-01 8.127027e-01 7.769546e-01 8.730996e-01 6.499521e-01 1.673981e+00 6.041319e-01 1.044649e+00 8.915432e-01 6.427321e-01 7.943712e-01
<GCONST> 1.311008e+02
<STATE> 3
<MEAN> 39
 -2.473951e+00 9.193595e+00 7.261063e+00 4.866195e+00 -4.391866e+00 -8.011180e+00 -6.253510e+00 -2.965184e+00 -5.285099e+00 -5.066571e+00 -9.342573e+00 -6.163228e+00 5.144973e+01 -1.576595e+00 -1.396738e+00 4.092125e-01 -1.534430e+00 -7.431111e-03 -1.346448e-01 -6.131953e-01 4.262249e-01 3.640977e-01 1.085759e-01 1.591821e+00 9.806702e-01 3.099028e+00 -6.205695e-01 -1.143260e+00 -4.395922e-01 -1.141776e+00 -1.222934e+00 -6.577498e-01 -1.319690e-01 -1.732565e-01 -6.050550e-02 2.836492e-01 8.122910e-01 4.036396e-01 1.771608e+00
<VARIANCE> 39
 1.685164e+01 1.478472e+01 1.785424e+01 2.543766e+01 2.732018e+01 1.516925e+01 2.435203e+01 2.651222e+01 3.157130e+01 3.755434e+01 3.607382e+01 3.239089e+01 6.230105e+01 4.157888e+00 3.741758e+00 1.723414e+00 3.355803e+00 4.371186e+00 6.238334e+00 4.283003e+00 5.665483e+00 2.185232e+00 3.921798e+00 4.179560e+00 2.241074e+00 5.526352e+00 5.544353e-01 8.799245e-01 6.014234e-01 9.889730e-01 9.176916e-01 4.856376e-01 6.073338e-01 1.776748e+00 7.762089e-01 1.161184e+00 5.702977e-01 5.923109e-01 4.747105e-01
<GCONST> 1.272700e+02
<STATE> 4
<MEAN> 39
 -9.795479e+00 2.323853e+00 7.273111e+00 -2.460776e+00 -7.289412e+00 -7.905032e+00 -9.893718e+00 -4.002656e+00 -3.366371e+00 -5.930031e+00 -1.552101e+00 -1.393370e+00 6.544022e+01 -9.925213e-01 -2.676334e+00 -7.427512e-01 -3.033506e+00 -3.684434e+00 -2.374713e+00 -7.044864e-01 5.757008e-01 7.867360e-02 7.246995e-01 2.257808e+00 7.536010e-01 5.690993e+00 7.139819e-01 1.147569e-01 -3.306214e-01 1.058400e-01 -5.412706e-01 -5.297458e-01 5.031370e-01 2.134987e-01 -1.550600e-01 2.810158e-01 -4.610904e-01 -5.629502e-01 -3.375911e-01
<VARIANCE> 39
 2.030468e+01 2.190470e+01 3.652776e+01 3.960831e+01 7.275449e+01 8.134140e+01 4.428127e+01 4.686895e+01 3.748880e+01 2.118649e+01 4.235239e+01 3.134505e+01 1.425279e+02 3.339999e+00 3.985846e+00 3.561543e+00 4.457519e+00 3.005805e+00 2.929503e+00 2.669982e+00 1.005047e+01 3.901988e+00 6.597803e+00 3.446173e+00 2.119334e+00 1.872934e+00 4.582227e-01 3.967147e-01 4.006422e-01 6.772290e-01 1.860071e+00 1.246152e+00 7.442439e-01 8.902169e-01 4.189413e-01 6.858128e-01 1.224870e+00 5.199664e-01 1.062588e+00
<GCONST> 1.326682e+02
<TRANSP> 5
 0.000000e+00 1.000000e+00 0.000000e+00 0.000000e+00 0.000000e+00
 0.000000e+00 5.279564e-01 4.720436e-01 0.000000e+00 0.000000e+00
 0.000000e+00 0.000000e+00 5.090426e-01 4.909575e-01 0.000000e+00
 0.000000e+00 0.000000e+00 0.000000e+00 4.439543e-01 5.560458e-01
 0.000000e+00 0.000000e+00 0.000000e+00 0.000000e+00 0.000000e+00
<ENDHMM>
~h "e"
<BEGINHMM>
<NUMSTATES> 5
<STATE> 2
<MEAN> 39
 -5.314535e+00 -4.944322e+00 -1.344311e+00 -9.661301e+00 -1.141172e+01 -1.661196e+01 -7.250510e+00 8.629151e-02 -1.769668e+00 6.991783e-01 -3.193760e+00 -5.778173e+00 7.231004e+01 1.247243e+00 -1.852033e+00 1.284416e-01 -8.926150e-01 -1.124262e+00 -1.414078e+00 2.393944e-01 1.503781e+00 5.794711e-01 -5.614537e-02 -7.072880e-01 -8.502848e-01 1.758048e+00 -6.086373e-01 4.455440e-01 4.053307e-02 4.354315e-01 5.025250e-01 8.496496e-01 4.670655e-01 -3.577759e-01 -2.109332e-01 1.854025e-03 1.318327e-01 1.010654e-01 -9.885719e-01
<VARIANCE> 39
 2.777552e+01 2.595611e+01 6.252095e+01 3.016034e+01 6.555730e+01 4.049012e+01 9.980369e+01 6.992893e+01 5.559939e+01 5.686267e+01 6.915142e+01 5.532588e+01 6.127624e+01 3.676505e+00 1.954594e+00 2.725694e+00 2.624508e+00 5.310014e+00 4.255180e+00 6.359911e+00 3.925081e+00 3.269061e+00 4.333751e+00 4.398648e+00 3.273769e+00 3.558697e+00 6.655998e-01 3.695109e-01 9.290920e-01 6.715863e-01 9.992921e-01 6.461657e-01 9.387985e-01 9.308596e-01 6.744360e-01 7.452573e-01 8.257043e-01 6.211773e-01 7.310786e-01
<GCONST> 1.357054e+02
<STATE> 3
<MEAN> 39
 -4.675777e+00 -7.411217e+00 -5.060416e-02 -1.132102e+01 -1.181191e+01 -1.786786e+01 -3.732716e+00 5.550676e+00 -3.201338e+00 5.354311e-01 -3.356797e+00 -6.766481e+00 7.380186e+01 2.366257e-01 3.902008e-02 -2.061390e-01 5.059725e-01 1.903353e-01 3.602328e-01 2.393754e-01 -3.302228e-01 -1.305279e-01 -3.211727e-02 1.157013e-01 -1.106217e-01 -3.196924e-01 -5.702316e-02 4.424914e-01 4.472868e-02 3.791524e-01 2.290651e-01 4.546734e-01 -1.009536e-01 -6.182709e-01 -1.495705e-01 9.570006e-02 1.891516e-01 1.614509e-01 -5.241036e-01
<VARIANCE> 39
 2.162529e+01 2.288223e+01 5.460717e+01 2.597272e+01 6.054638e+01 3.732425e+01 8.781731e+01 8.635412e+01 5.135587e+01 4.543288e+01 6.531384e+01 5.453811e+01 4.614961e+01 7.660370e-01 9.980624e-01 1.448076e+00 1.604538e+00 1.838949e+00 1.941967e+00 2.615590e+00 2.581376e+00 1.970257e+00 2.137979e+00 2.245010e+00 2.069548e+00 1.091612e+00 1.746637e-01 3.080092e-01 3.890459e-01 3.739161e-01 4.093909e-01 3.630973e-01 6.270112e-01 5.214361e-01 5.155866e-01 5.244625e-01 5.430486e-01 3.734630e-01 3.771884e-01
<GCONST> 1.166267e+02
<STATE> 4
<MEAN> 39
 -5.109150e+00 -2.799176e+00 -2.292544e+00 -4.460123e+00 -9.119119e+00 -1.250322e+01 -2.018725e+00 -3.289339e+00 -2.262001e+00 1.599518e+00 -2.975140e+00 -5.291816e+00 6.571188e+01 -2.086458e-01 1.102107e+00 2.725058e-01 1.349329e+00 9.455990e-01 1.687072e+00 3.892425e-01 -1.329614e+00 -3.936299e-01 1.316972e-01 1.388015e-01 5.545562e-01 -2.067516e+00 -1.323709e-01 2.811278e-02 4.699979e-02 -1.596871e-01 -2.593837e-02 1.942307e-03 2.719862e-02 1.124065e-01 -1.617212e-01 -6.186004e-02 4.767293e-02 6.099845e-02 3.637375e-02
<VARIANCE> 39
 3.518573e+01 2.099829e+01 5.088922e+01 3.942526e+01 7.647787e+01 4.249667e+01 1.153174e+02 9.086617e+01 5.269115e+01 5.055774e+01 6.693584e+01 6.060587e+01 1.069407e+02 2.493132e+00 2.662987e+00 3.443798e+00 3.873883e+00 3.905529e+00 4.928887e+00 3.997420e+00 4.687875e+00 4.073759e+00 4.526304e+00 4.302594e+00 3.261334e+00 3.773263e+00 4.158119e-01 4.386219e-01 3.740070e-01 5.547305e-01 5.806069e-01 7.939658e-01 6.559977e-01 5.475580e-01 5.390328e-01 7.888018e-01 5.776569e-01 5.853959e-01 6.710759e-01
<GCONST> 1.339425e+02
<TRANSP> 5
 0.000000e+00 1.000000e+00 0.000000e+00 0.000000e+00 0.000000e+00
 0.000000e+00 4.190915e-01 5.809085e-01 0.000000e+00 0.000000e+00
 0.000000e+00 0.000000e+00 7.272176e-01 2.727824e-01 0.000000e+00
 0.000000e+00 0.000000e+00 0.000000e+00 6.199024e-01 3.800975e-01
 0.000000e+00 0.000000e+00 0.000000e+00 0.000000e+00 0.000000e+00
<ENDHMM>
~h "f"
<BEGINHMM>
<NUMSTATES> 5
<STATE> 2
<MEAN> 39
 -1.357687e+01 1.420511e+00 5.132899e-01 1.669160e+00 2.350376e+00 -2.090664e+00 -1.992810e+00 -9.428062e-01 -3.077211e+00 3.463943e-01 -3.314042e+00 -6.296684e-01 6.273483e+01 -3.785040e+00 5.076469e-01 -1.609037e-01 1.714561e+00 1.005378e+00 1.864715e+00 9.247851e-01 8.298800e-02 1.003137e+00 -1.288668e-01 9.068946e-01 1.098555e+00 -1.626200e+00 3.884026e-01 -8.708130e-01 -6.039228e-01 -6.337661e-01 -8.346788e-01 -1.056567e+00 -2.738309e-01 3.594954e-01 2.130493e-02 1.091528e-02 3.421995e-02 -4.018419e-01 5.242805e-01
<VARIANCE> 39
 7.136203e+01 2.266593e+01 1.222217e+01 2.911377e+01 1.579373e+01 1.785053e+01 1.635988e+01 2.152934e+01 1.779923e+01 2.040023e+01 1.872246e+01 1.200917e+01 7.388303e+01 4.636228e+00 3.670280e+00 4.534695e+00 3.503831e+00 2.984451e+00 2.235204e+00 1.306797e+00 4.127252e+00 2.730903e+00 1.411682e+00 3.798037e+00 1.529667e+00 1.643690e+00 9.042518e-01 6.206355e-01 4.015575e-01 6.241314e-01 2.421850e-01 5.841213e-01 2.631280e-01 7.077037e-01 6.179963e-01 2.588708e-01 7.458881e-01 2.401837e-01 1.789488e-01
<GCONST> 1.139765e+02
<STATE> 3
<MEAN> 39
 -1.730784e+01 7.073182e-01 -3.042529e+00 3.652878e+00 2.918216e+00 -1.242574e+00 -1.654466e+00 -1.901026e+00 -1.013148e+00 2.667227e+00 -9.276744e-01 -7.229352e-01 6.188910e+01 -8.724148e-01 -1.907231e-01 -4.562406e-01 1.243574e-01 -6.524916e-01 -3.955290e-01 -6.844333e-01 -8.624206e-01 -1.309434e-01 5.529006e-01 4.260257e-01 2.576449e-02 -7.602388e-01 6.660081e-01 -7.412598e-02 1.939890e-01 -4.868288e-01 -1.856440e-01 -4.840426e-01 -1.202888e-01 5.333719e-02 -1.810931e-01 -1.033190e-01 -1.984566e-01 -2.414563e-03 1.921311e-01
<VARIANCE> 39
 6.912189e+01 2.800316e+01 2.196205e+01 1.723525e+01 2.494920e+01 1.385264e+01 2.954284e+01 1.679815e+01 4.079948e+01 1.029373e+01 1.635061e+01 1.491804e+01 8.628766e+01 3.554446e+00 9.692545e-01 1.276761e+00 1.611178e+00 8.734813e-01 1.927588e+00 1.450222e+00 5.401962e-01 1.151578e+00 1.337148e+00 1.591494e+00 1.452408e+00 3.252502e-01 4.740281e-01 3.545204e-01 4.472568e-01 3.499700e-01 1.233957e-01 3.900683e-01 2.192104e-01 4.736021e-01 5.036090e-01 1.773532e-01 4.381470e-01 3.223023e-01 1.673100e-01
<GCONST> 1.005125e+02
<STATE> 4
<MEAN> 39
 -1.717130e+01 8.255635e-01 -3.243732e+00 1.221427e+00 1.588096e-01 -3.169694e+00 -3.662113e+00 -1.205854e+00 -1.567830e+00 1.600337e+00 -1.069337e+00 -3.065757e-01 5.836480e+01 5.744508e-01 2.191004e-01 -4.494000e-01 -5.367310e-01 -1.891009e-01 1.108194e-01 -3.751467e-01 1.399533e-01 -1.060575e-01 8.510254e-02 5.031779e-01 3.827050e-01 -1.482222e+00 5.774049e-01 1.437463e-01 2.532695e-02 -1.381489e-01 1.612244e-02 -1.146953e-02 -1.976673e-01 -1.007443e-01 -2.639899e-01 9.072011e-04 1.487797e-01 4.048267e-02 3.698737e-02
<VARIANCE> 39
 3.211674e+01 1.155548e+01 1.103926e+01 2.328671e+01 2.821256e+01 2.546720e+01 2.452754e+01 1.243404e+01 1.941145e+01 1.349097e+01 1.198344e+01 1.029183e+01 5.400272e+01 2.936275e+00 9.998319e-01 1.772324e+00 1.098726e+00 9.386229e-01 1.436480e+00 1.701228e+00 2.026262e+00 2.683783e+00 1.246716e+00 1.369004e+00 1.365801e+00 1.125409e+00 5.341374e-01 2.208328e-01 2.986302e-01 2.414791e-01 1.912758e-01 3.259333e-01 3.760683e-01 3.641765e-01 5.137618e-01 2.128322e-01 2.373299e-01 3.117266e-01 2.574742e-01
<GCONST> 9.933963e+01
<TRANSP> 5
 0.000000e+00 1.000000e+00 0.000000e+00 0.000000e+00 0.000000e+00
 0.000000e+00 6.003113e-01 3.996887e-01 0.000000e+00 0.000000e+00
 0.000000e+00 0.000000e+00 5.042160e-01 4.957840e-01 0.000000e+00
 0.000000e+00 0.000000e+00 0.000000e+00 7.367311e-01 2.632689e-01
 0.000000e+00 0.000000e+00 0.000000e+00 0.000000e+00 0.000000e+00
<ENDHMM>
~h "g"
<BEGINHMM>
<NUMSTATES> 5
<STATE> 2
<MEAN> 39
 -2.711216e+00 8.770392e+00 5.922710e+00 -1.582431e-02 -7.739579e+00 -7.884765e+00 -3.504615e+00 -6.550776e+00 -1.166761e+01 -7.863491e-01 -5.313416e+00 -4.059018e+00 5.371075e+01 -1.032521e-01 1.490079e+00 -5.912235e-01 5.620586e-01 1.574245e+00 1.846923e+00 7.639031e-01 -9.003498e-01 5.735417e-02 -1.177170e+00 1.687002e-01 2.489897e-01 -2.044496e+00 -3.500999e-01 -5.750855e-01 -4.073173e-01 -8.999076e-01 2.039921e-01 8.625520e-02 -1.350542e-01 3.193205e-01 3.213759e-01 -1.309880e-02 5.886818e-02 7.698364e-02 8.265322e-01
<VARIANCE> 39
 1.197323e+01 1.425803e+01 2.807770e+01 4.762930e+01 4.898799e+01 6.424231e+01 2.072564e+01 4.934057e+01 5.542313e+01 3.255746e+01 6.873111e+01 3.475280e+01 4.448088e+01 1.728367e+00 2.748975e+00 6.310564e+00 4.112425e+00 4.264938e+00 4.101897e+00 2.982867e+00 9.338675e+00 6.549530e+00 3.229593e+00 3.960419e+00 2.207870e+00 3.452611e+00 4.576521e-01 4.918319e-01 5.169525e-01 5.010831e-01 7.975223e-01 8.232361e-01 7.912833e-01 8.149287e-01 7.790719e-01 6.916852e-01 6.364537e-01 4.458896e-01 7.886002e-01
<GCONST> 1.297175e+02
<STATE> 3
<MEAN> 39
 -3.420051e+00 1.100220e+01 2.572933e+00 -1.275932e+00 -3.806239e+00 -4.276250e+00 -1.156143e+00 -6.360186e+00 -1.340775e+01 -3.202541e+00 -4.365318e+00 -3.280728e+00 5.257916e+01 -1.536930e+00 -6.074466e-01 -9.031075e-01 -2.282471e+00 1.234042e+00 1.044347e+00 -4.502760e-01 -1.434681e-01 5.144936e-01 1.836522e-01 5.324990e-01 6.639265e-01 1.609299e+00 -2.592296e-01 -8.494162e-01 3.612669e-01 -6.277148e-01 -5.648937e-01 -6.544867e-01 -6.174737e-01 1.020493e-01 3.079080e-01 3.391281e-01 3.428547e-01 1.420690e-01 1.288920e+00
<VARIANCE> 39
 1.070572e+01 1.241988e+01 8.465087e+01 9.990069e+01 4.066820e+01 2.612733e+01 3.561975e+01 3.195717e+01 3.778260e+01 2.975171e+01 4.499430e+01 1.869779e+01 7.492926e+01 3.130680e+00 3.381054e+00 7.310448e+00 2.023043e+00 7.176445e+00 3.106081e+00 5.567890e+00 2.898351e+00 4.529748e+00 4.155910e+00 6.241200e+00 2.020636e+00 3.514683e+00 6.015403e-01 4.156424e-01 1.137812e+00 9.442194e-01 1.237041e+00 2.728542e-01 7.045959e-01 8.318056e-01 6.733908e-01 6.781037e-01 6.867299e-01 3.402131e-01 3.812730e-01
<GCONST> 1.292204e+02
<STATE> 4
<MEAN> 39
 -1.181828e+01 6.503827e+00 3.496089e+00 -7.070745e+00 -8.573421e-01 -4.487918e+00 -2.818219e+00 -8.348343e+00 -6.683088e+00 -1.634535e+00 -3.467812e+00 -3.892051e-01 5.870293e+01 -1.238540e+00 -8.316444e-01 3.577941e-01 -2.313211e+00 -3.583405e-01 -3.288246e-01 -1.416784e+00 -1.080476e-02 2.360477e-01 8.028997e-02 1.374445e+00 6.151623e-01 2.796762e+00 7.048479e-01 2.441448e-01 3.828696e-01 3.241739e-01 -7.741727e-01 -3.008081e-01 -3.206830e-01 5.162406e-02 -5.323188e-01 -8.754505e-02 3.427389e-01 -3.708499e-01 -4.869448e-02
<VARIANCE> 39
 6.005538e+01 2.681419e+01 9.595947e+01 4.923652e+01 5.218648e+01 2.704639e+01 3.605653e+01 4.302266e+01 7.387472e+01 1.890347e+01 2.362305e+01 1.513234e+01 8.570952e+01 5.535658e+00 2.912392e+00 5.273548e+00 5.589682e+00 5.893093e+00 2.730139e+00 4.299163e+00 4.240463e+00 4.367895e+00 1.770604e+00 2.939143e+00 1.830271e+00 2.550781e+00 5.120695e-01 5.428607e-01 7.837164e-01 5.747309e-01 1.124570e+00 4.330349e-01 8.361605e-01 6.631743e-01 8.432484e-01 4.195341e-01 9.001215e-01 5.694380e-01 8.685064e-01
<GCONST> 1.309672e+02
<TRANSP> 5
 0.000000e+00 1.000000e+00 0.000000e+00 0.000000e+00 0.000000e+00
 0.000000e+00 6.771984e-01 3.228016e-01 0.000000e+00 0.000000e+00
 0.000000e+00 0.000000e+00 3.735359e-01 6.264641e-01 0.000000e+00
 0.000000e+00 0.000000e+00 0.000000e+00 5.271063e-01 4.728936e-01
 0.000000e+00 0.000000e+00 0.000000e+00 0.000000e+00 0.000000e+00
<ENDHMM>
~h "h"
<BEGINHMM>
<NUMSTATES> 5
<STATE> 2
<MEAN> 39
 -1.123256e+01 -4.410523e+00 -5.806620e+00 -2.418368e+00 4.082188e+00 -3.882586e+00 2.486415e+00 2.405002e-01 -4.835560e+00 -4.698454e+00 -4.907545e+00 1.339143e+00 5.321471e+01 -3.697490e-02 -7.389218e-01 -7.007926e-01 -4.396740e-01 1.687275e-01 7.894120e-02 -3.424652e-01 5.923405e-03 -1.040197e-01 -5.859900e-01 -4.684136e-01 -1.313305e-01 8.669756e-02 -3.354312e-02 7.249001e-02 2.804745e-02 -3.814130e-02 -1.364487e-01 -5.050983e-02 -1.145608e-01 1.163212e-01 8.947936e-02 1.816967e-01 4.911367e-02 -7.516401e-02 4.097044e-03
<VARIANCE> 39
 8.728206e+00 1.870235e+01 5.341642e+01 2.534599e+01 5.523056e+01 2.495359e+01 3.989244e+01 4.049016e+01 4.720649e+01 2.991392e+01 3.842665e+01 5.617101e+01 8.415242e+01 3.766269e-01 6.182145e-01 8.992453e-01 9.924268e-01 1.730626e+00 1.961963e+00 1.315207e+00 1.374907e+00 2.419184e+00 1.877518e+00 1.678518e+00 1.245627e+00 2.197828e+00 6.720963e-02 1.948422e-01 2.199023e-01 2.269481e-01 3.385549e-01 3.684100e-01 2.531771e-01 3.875092e-01 3.501226e-01 3.107846e-01 3.938066e-01 2.614220e-01 1.262130e-01
<GCONST> 1.029457e+02
<STATE> 3
<MEAN> 39
 -1.024414e+01 -7.783347e+00 -4.779750e+00 -5.909296e+00 3.179974e+00 -2.220626e+00 1.577463e+00 2.677134e+00 -4.011500e+00 -3.588372e+00 -6.651674e+00 -4.300288e-01 5.716516e+01 6.930172e-01 2.468507e-01 1.281039e-01 -1.624882e-01 9.529548e-04 -1.445220e-01 -4.809400e-01 -6.556924e-02 -8.972075e-02 2.729619e-01 -4.813697e-01 -5.950596e-01 1.218714e+00 2.623825e-01 3.401192e-01 1.501022e-01 1.559646e-01 -9.886916e-03 -2.131750e-01 -1.653128e-01 -9.050901e-02 -4.937029e-02 3.976597e-02 3.571567e-02 -2.150482e-01 1.041575e-01
<VARIANCE> 39
 3.314098e+01 2.222957e+01 4.103346e+01 2.264410e+01 5.019314e+01 2.746035e+01 4.243307e+01 3.422726e+01 2.777663e+01 5.317147e+01 2.637200e+01 3.785254e+01 6.367881e+01 1.876214e+00 2.096466e+00 1.900385e+00 1.970668e+00 2.032645e+00 1.004065e+00 2.099557e+00 3.499983e+00 2.455978e+00 3.204029e+00 1.327236e+00 2.888301e+00 2.251827e+00 3.391817e-01 3.272271e-01 3.090803e-01 3.719961e-01 4.001346e-01 2.499624e-01 3.230982e-01 4.512254e-01 4.394175e-01 5.375335e-01 3.185292e-01 4.511448e-01 2.024395e-01
<GCONST> 1.140274e+02
<STATE> 4
<MEAN> 39
 -5.915250e+00 -4.540703e+00 -2.716858e+00 -5.951573e+00 4.571703e-01 -8.273232e+00 -5.046190e-01 3.938331e+00 -7.019499e+00 -1.641036e+00 -1.034252e+01 -4.294813e+00 6.604803e+01 8.306101e-01 4.093449e-01 5.909776e-01 -8.078162e-02 -1.372061e+00 -1.324822e+00 -5.541354e-01 4.764819e-01 -1.229791e-01 1.552521e-01 6.240117e-01 -7.654883e-01 1.106459e+00 -1.876538e-01 -2.101738e-01 5.873325e-02 -1.641435e-01 -3.867168e-01 6.514276e-02 -3.501549e-03 1.814349e-03 1.330487e-01 2.166064e-01 6.530110e-01 1.407022e-01 -8.268269e-02
<VARIANCE> 39
 2.812297e+01 2.446650e+01 2.890425e+01 2.817055e+01 4.920967e+01 5.505956e+01 8.906059e+01 9.162991e+01 4.511559e+01 1.040036e+02 2.998804e+01 3.508147e+01 7.953647e+01 2.353664e+00 1.580499e+00 1.940208e+00 2.255555e+00 3.013772e+00 2.089458e+00 3.364633e+00 2.359299e+00 2.670043e+00 2.665861e+00 2.762508e+00 4.096293e+00 4.094192e+00 2.006282e-01 4.008228e-01 2.107500e-01 3.908708e-01 2.700406e-01 3.028685e-01 4.004725e-01 4.961524e-01 5.701526e-01 6.199612e-01 2.533345e-01 4.852483e-01 2.252278e-01
<GCONST> 1.203501e+02
<TRANSP> 5
 0.000000e+00 1.000000e+00 0.000000e+00 0.000000e+00 0.000000e+00
 0.000000e+00 7.598929e-01 2.401070e-01 0.000000e+00 0.000000e+00
 0.000000e+00 0.000000e+00 7.197104e-01 2.802896e-01 0.000000e+00
 0.000000e+00 0.000000e+00 0.000000e+00 5.874656e-01 4.125344e-01
 0.000000e+00 0.000000e+00 0.000000e+00 0.000000e+00 0.000000e+00
<ENDHMM>
~h "i"
<BEGINHMM>
<NUMSTATES> 5
<STATE> 2
<MEAN> 39
 -7.933026e+00 2.556764e+00 1.282431e+01 -5.809823e+00 -1.640773e+01 -1.047414e+01 -8.872823e+00 -4.879756e+00 -1.494594e+01 -3.964166e-01 2.709636e+00 -4.925569e+00 6.638219e+01 5.759841e-02 3.847867e-02 1.458746e+00 -1.154528e+00 -2.296853e+00 -4.557406e-01 -4.088285e-01 -5.088165e-01 -1.169333e+00 4.528652e-01 7.979900e-01 -3.566674e-01 1.688681e+00 -1.579499e-01 3.047267e-01 -7.023988e-01 3.408771e-01 8.101927e-01 2.122239e-01 4.744274e-01 -7.192697e-02 5.858374e-01 -4.040733e-03 -3.614428e-01 1.176037e-01 -7.198399e-01
<VARIANCE> 39
 2.186862e+01 3.557203e+01 4.216447e+01 5.404737e+01 3.735935e+01 8.389687e+01 4.548664e+01 7.858623e+01 4.772783e+01 8.106605e+01 5.164916e+01 3.288818e+01 3.609126e+01 3.187977e+00 2.290934e+00 3.872761e+00 3.352250e+00 5.225274e+00 5.816384e+00 5.338973e+00 4.492164e+00 3.592167e+00 3.741686e+00 4.449011e+00 3.111402e+00 3.969256e+00 5.861408e-01 6.362661e-01 5.688412e-01 6.169059e-01 8.009881e-01 1.038316e+00 7.734672e-01 8.607199e-01 6.057338e-01 7.538980e-01 7.520177e-01 4.431650e-01 4.246908e-01
<GCONST> 1.339659e+02
<STATE> 3
<MEAN> 39
 -1.102747e+01 8.361302e+00 1.185977e+01 -7.665366e+00 -1.683283e+01 -9.436391e+00 -7.150431e+00 -9.982823e+00 -1.084357e+01 -2.003801e+00 1.084324e+00 -5.506991e+00 6.607941e+01 5.646994e-02 1.808175e-01 -6.452115e-01 3.659168e-01 3.264807e-01 -3.408060e-01 4.593899e-01 -6.397799e-02 2.561760e-01 3.854078e-02 -2.266826e-01 2.793221e-01 -4.834318e-01 2.883476e-02 7.038036e-03 -2.552771e-01 3.331108e-01 5.371273e-01 8.637363e-02 6.802484e-02 2.178722e-01 1.669664e-01 -6.447306e-02 -1.866056e-01 7.097688e-02 -4.346627e-01
<VARIANCE> 39
 2.013334e+01 4.056604e+01 3.441965e+01 4.725413e+01 6.756319e+01 6.070754e+01 4.188989e+01 8.077312e+01 4.887802e+01 4.121659e+01 6.106596e+01 4.090543e+01 7.851160e+01 7.534497e-01 1.650635e+00 1.410413e+00 2.127236e+00 3.043059e+00 2.265408e+00 2.167476e+00 2.606056e+00 2.294677e+00 1.819000e+00 2.411105e+00 1.789166e+00 1.373105e+00 2.472242e-01 2.840927e-01 2.820331e-01 3.209634e-01 7.541009e-01 4.899907e-01 4.572726e-01 6.418028e-01 5.291315e-01 4.068694e-01 5.545638e-01 4.063902e-01 3.212889e-01
<GCONST> 1.187629e+02
<STATE> 4
<MEAN> 39
 -1.031825e+01 7.294818e+00 5.911806e+00 -1.740632e+00 -1.070511e+01 -1.265380e+01 -3.051329e+00 -6.690722e+00 -9.706679e+00 -1.597728e+00 -4.923727e-01 -2.802375e+00 5.977904e+01 -7.207818e-01 5.389584e-01 -1.783924e+00 1.512681e+00 3.302896e+00 1.181231e+00 7.060629e-01 7.624749e-01 1.749486e+00 -5.573232e-01 -1.079190e+00 1.676619e-01 -2.430928e+00 -3.149561e-01 -2.372858e-01 8.630014e-02 -3.016734e-01 8.991063e-02 7.370862e-01 -1.325155e-01 -3.389269e-02 8.105382e-02 6.582454e-02 -5.804021e-02 -1.912997e-01 -1.009490e-01
<VARIANCE> 39
 3.705029e+01 3.076828e+01 2.750007e+01 3.545163e+01 7.309135e+01 8.654529e+01 3.871316e+01 5.648930e+01 4.870829e+01 4.087121e+01 4.312165e+01 3.773219e+01 1.180177e+02 6.075084e+00 5.359226e+00 2.842134e+00 3.212029e+00 6.359657e+00 5.690819e+00 4.122722e+00 6.459596e+00 4.412292e+00 4.869421e+00 4.517845e+00 4.360117e+00 4.679087e+00 4.243630e-01 4.734904e-01 3.371868e-01 3.859203e-01 1.065367e+00 1.082703e+00 4.930255e-01 8.104191e-01 6.470450e-01 5.940794e-01 6.693400e-01 4.573674e-01 6.474095e-01
<GCONST> 1.349658e+02
<TRANSP> 5
 0.000000e+00 1.000000e+00 0.000000e+00 0.000000e+00 0.000000e+00
 0.000000e+00 6.449035e-01 3.550965e-01 0.000000e+00 0.000000e+00
 0.000000e+00 0.000000e+00 8.236349e-01 1.763651e-01 0.000000e+00
 0.000000e+00 0.000000e+00 0.000000e+00 5.687425e-01 4.312576e-01
 0.000000e+00 0.000000e+00 0.000000e+00 0.000000e+00 0.000000e+00
<ENDHMM>
~h "j"
<BEGINHMM>
<NUMSTATES> 5
<STATE> 2
<MEAN> 39
 -2.140663e+00 1.139167e+01 7.138013e+00 3.086753e+00 -2.969475e+00 -4.381013e+00 -4.653557e+00 -2.887044e+00 -3.675318e+00 -4.119689e+00 -6.355441e+00 -6.645945e+00 5.241988e+01 -3.052565e+00 -1.370793e+00 9.290382e-01 -1.139596e+00 7.062846e-01 2.763061e+00 4.471560e-01 -2.142176e-01 2.538373e-01 -7.864772e-02 1.834436e-01 7.487527e-01 1.605437e+00 -7.509782e-01 -4.836417e-01 4.960565e-02 -8.201346e-01 -7.753672e-01 -5.823349e-01 -6.427342e-01 -1.129289e-01 -5.355487e-01 -1.957651e-01 6.899090e-01 8.237171e-01 1.460224e+00
<VARIANCE> 39
 1.034897e+01 1.395374e+01 7.748673e+00 1.667579e+01 1.953897e+01 2.414553e+01 6.334275e+00 3.559163e+01 2.463736e+01 1.467933e+01 3.793479e+01 2.439938e+01 7.161449e+01 2.551844e+00 4.958217e+00 1.176290e+00 3.053361e+00 2.999002e+00 1.802611e+00 2.249226e+00 2.975524e+00 1.338775e+00 3.180551e+00 5.856474e+00 3.852324e+00 5.088534e+00 3.926359e-01 1.460942e-01 2.139930e-01 2.300594e-01 4.641212e-01 9.064366e-01 3.709182e-01 7.628509e-01 4.060336e-01 4.262365e-01 2.952661e-01 2.646350e-01 1.262961e-01
<GCONST> 1.093050e+02
<STATE> 3
<MEAN> 39
 -1.399213e+01 3.325447e+00 1.047781e+01 -4.154309e+00 -2.124220e+00 4.132890e+00 -7.304883e+00 -1.806000e+00 -4.001188e+00 -5.923051e+00 -3.624351e+00 -1.556870e+00 6.059513e+01 -3.139598e+00 -1.512451e+00 5.150625e-01 -1.827746e+00 -2.314189e+00 -1.236836e+00 -8.221291e-01 -8.584880e-01 -1.038078e+00 -9.662681e-02 1.389589e+00 2.054513e+00 4.694096e+00 1.433109e+00 3.612836e-01 -4.970170e-01 6.435958e-01 -9.725558e-01 -1.983878e+00 -2.271395e-01 -2.951516e-01 -4.916939e-01 1.641286e-01 4.231990e-01 -2.446181e-01 1.292083e-02
<VARIANCE> 39
 1.642212e+01 2.603412e+01 1.263340e+01 3.277094e+01 3.191671e+01 2.432003e+01 1.872630e+01 3.813480e+01 1.452730e+01 2.750789e+01 4.078206e+01 1.410953e+01 7.628064e+01 4.319253e+00 1.240588e+00 2.079640e+00 2.656773e+00 4.868403e+00 7.763072e+00 1.670692e+00 4.292686e+00 2.105796e+00 1.669017e+00 3.440622e+00 2.349635e+00 6.676236e-01 7.422862e-01 9.673768e-01 3.751608e-01 4.818995e-01 7.230448e-01 4.321982e-01 3.049445e-01 1.012442e+00 3.941776e-01 8.337210e-01 1.317497e+00 5.593273e-01 4.714821e-01
<GCONST> 1.190497e+02
<STATE> 4
<MEAN> 39
 -1.544384e+01 7.137858e+00 1.026281e+01 -2.969994e+00 -9.707862e+00 -7.547680e+00 -8.155735e+00 -9.563565e+00 -7.197409e+00 -4.009839e+00 -9.666118e-01 4.084302e-01 6.776812e+01 1.588097e+00 -1.023295e+00 -1.159013e+00 9.344921e-01 -3.487966e+00 -4.551319e+00 -1.121482e+00 -1.294681e+00 -1.793564e+00 8.680714e-01 1.490123e+00 2.911490e-01 2.651481e+00 1.751263e+00 8.609644e-03 -6.912795e-01 6.952325e-01 2.410212e-01 -1.756690e-01 -4.074738e-01 4.310247e-01 3.660874e-01 9.709015e-03 -7.062373e-02 -8.368422e-01 -1.064684e+00
<VARIANCE> 39
 2.813484e+01 1.537463e+01 3.499267e+01 2.044180e+01 1.927806e+01 7.552619e+01 1.706355e+01 5.210314e+01 1.402087e+01 9.298062e+00 1.265499e+01 1.910353e+01 7.544775e+01 4.731544e+00 4.293341e+00 3.908934e+00 9.753228e-01 2.491496e+00 3.848790e+00 2.283182e+00 7.424506e+00 2.762617e+00 4.868849e+00 7.115751e+00 2.591102e+00 1.604479e+00 5.009159e-01 3.034661e-01 3.624094e-01 5.590950e-01 7.917361e-01 1.298246e+00 6.658541e-01 1.088062e+00 3.426882e-01 6.309986e-01 1.056483e+00 2.368054e-01 1.334574e-01
<GCONST> 1.197959e+02
<TRANSP> 5
 0.000000e+00 1.000000e+00 0.000000e+00 0.000000e+00 0.000000e+00
 0.000000e+00 4.384944e-01 5.615057e-01 0.000000e+00 0.000000e+00
 0.000000e+00 0.000000e+00 4.728757e-01 5.271243e-01 0.000000e+00
 0.000000e+00 0.000000e+00 0.000000e+00 1.830291e-01 8.169709e-01
 0.000000e+00 0.000000e+00 0.000000e+00 0.000000e+00 0.000000e+00
<ENDHMM>
~h "k"
<BEGINHMM>
<NUMSTATES> 5
<STATE> 2
<MEAN> 39
 -1.475888e+01 5.145185e+00 1.963677e-01 3.652416e+00 4.912704e+00 -3.639355e-02 -2.019002e+00 -2.402962e+00 -3.258256e+00 4.358973e-01 -4.235100e+00 -2.984910e+00 4.246052e+01 -2.327352e+00 -1.044176e+00 -3.887775e-01 3.445032e-01 -5.394020e-01 9.388667e-01 9.324897e-01 1.047691e-01 4.218454e-01 -1.121961e+00 -1.907261e-01 1.425797e+00 -1.558871e+00 1.167124e+00 -1.168305e+00 -1.059161e+00 -1.203159e+00 -2.172772e-01 -1.331854e+00 -2.501408e-01 2.819116e-01 -1.682822e-02 6.710622e-01 -6.181733e-02 -2.692733e-01 2.530417e+00
<VARIANCE> 39
 1.741846e+01 7.458196e+00 6.183598e+00 1.005846e+01 1.166769e+01 2.489479e+01 1.990676e+01 4.778214e+01 3.529047e+01 2.958618e+01 1.707999e+01 2.182271e+01 9.622405e+00 4.864644e+00 3.831833e+00 2.755005e+00 4.039798e+00 2.509800e+00 6.711658e+00 2.379224e+00 7.244480e+00 4.332608e+00 5.610899e+00 1.547451e+00 2.089883e+00 1.235655e+01 6.654628e-01 4.868996e-01 2.510574e-01 2.954707e-01 6.317359e-01 1.274961e+00 7.351801e-01 1.826100e+00 8.760680e-01 6.930242e-01 3.838369e-01 3.469034e-01 5.517315e-01
<GCONST> 1.194642e+02
<STATE> 3
<MEAN> 39
 -1.485337e+01 -1.843477e+00 -8.426653e+00 -1.356830e+00 3.055146e+00 -7.221622e+00 -4.286872e+00 -1.870103e+00 2.635773e-01 3.304455e+00 -4.250931e+00 1.125887e+00 5.103231e+01 1.279442e+00 -1.846614e+00 -2.603129e+00 -9.614974e-01 2.487394e-01 -3.074234e+00 -1.020984e+00 7.914835e-01 1.104355e-01 5.113330e-01 -1.236879e+00 -4.538969e-01 4.156237e+00 6.348259e-01 5.778913e-01 6.204574e-01 4.249297e-02 1.923820e-01 -2.377436e-01 1.132388e-01 4.826953e-01 -4.857410e-01 -1.786243e-01 7.974897e-02 -7.453004e-01 3.281460e-01
<VARIANCE> 39
 2.994468e+01 2.448583e+01 3.306343e+01 9.256246e+00 1.474060e+01 6.844218e+01 4.309186e+01 6.912925e+00 2.558427e+01 2.162573e+01 2.620623e+01 2.570505e+01 1.027384e+02 3.531438e+00 2.366671e+00 2.256487e+00 1.467760e+00 2.331531e+00 7.057546e+00 3.312526e+00 8.535563e+00 4.130028e+00 4.875388e+00 1.802492e+00 3.013934e+00 4.797530e+00 7.191019e-01 5.881473e-01 1.175962e+00 2.662835e-01 4.151506e-01 1.651404e+00 1.395117e+00 1.049905e+00 5.312737e-01 1.184420e+00 5.461447e-01 5.272208e-01 2.133189e+00
<GCONST> 1.268307e+02
<STATE> 4
<MEAN> 39
 -1.002697e+01 -2.185436e+00 -7.793878e+00 -1.789281e+00 4.513082e+00 -1.368147e+01 -3.452054e+00 4.907534e+00 -2.517691e+00 2.025650e+00 -7.328110e+00 -3.689089e+00 5.941988e+01 2.480451e+00 -1.010002e-02 1.267368e+00 -1.150936e+00 -9.013554e-01 -1.520943e+00 4.471690e-01 1.124475e+00 -1.298396e+00 -3.761039e-01 8.390885e-01 -1.353728e+00 2.553264e+00 1.987703e-01 -1.547603e-01 3.686301e-01 -3.941384e-01 -4.570040e-01 7.296648e-01 2.138746e-01 -4.876124e-01 -1.112691e-01 -2.435451e-04 5.201606e-01 -1.252645e-01 -1.266282e-01
<VARIANCE> 39
 3.584952e+01 2.604891e+01 2.860395e+01 1.462775e+01 3.121521e+01 3.393117e+01 3.745577e+01 5.407240e+01 1.609305e+01 7.582158e+01 2.462223e+01 2.676656e+01 3.698053e+01 2.414938e+00 4.013258e+00 4.679543e+00 2.448928e+00 2.961893e+00 6.353041e+00 7.159529e+00 5.267719e+00 1.827120e+00 2.984251e+00 3.317997e+00 3.628199e+00 6.134849e+00 7.780617e-01 6.619039e-01 1.184183e+00 3.088461e-01 4.861947e-01 8.810798e-01 6.743309e-01 6.094058e-01 7.065298e-01 1.106277e+00 5.841843e-01 5.155815e-01 1.039630e+00
<GCONST> 1.287988e+02
<TRANSP> 5
 0.000000e+00 1.000000e+00 0.000000e+00 0.000000e+00 0.000000e+00
 0.000000e+00 6.699391e-01 3.300609e-01 0.000000e+00 0.000000e+00
 0.000000e+00 0.000000e+00 6.147695e-01 3.852305e-01 0.000000e+00
 0.000000e+00 0.000000e+00 0.000000e+00 6.007662e-01 3.992338e-01
 0.000000e+00 0.000000e+00 0.000000e+00 0.000000e+00 0.000000e+00
<ENDHMM>
~h "l"
<BEGINHMM>
<NUMSTATES> 5
<STATE> 2
<MEAN> 39
 -1.740958e+00 -3.400121e+00 -3.954377e+00 -1.031148e+01 -5.253804e+00 -5.326332e+00 -8.047417e+00 -7.986885e+00 -3.824298e+00 8.652721e+00 -4.811265e+00 -7.490501e+00 6.492273e+01 3.910360e-01 2.328462e-01 6.976084e-01 2.511646e-01 -4.372123e-01 -1.448874e-01 -7.003454e-01 -8.705472e-01 -1.604689e-01 7.286960e-01 1.417313e-01 -6.976543e-02 -1.541842e-01 -2.411600e-01 1.348561e-01 -1.052948e-01 1.196383e-02 2.238184e-01 -1.888936e-02 3.560864e-04 2.634142e-01 -7.058966e-02 -2.475324e-01 1.737869e-01 -6.856736e-02 -1.262979e-01
<VARIANCE> 39
 3.437642e+01 2.487921e+01 3.996193e+01 4.647620e+01 7.685315e+01 4.312611e+01 7.696107e+01 9.156437e+01 7.203477e+01 4.600963e+01 7.982124e+01 3.557394e+01 8.674463e+01 2.239554e+00 1.333589e+00 1.020468e+00 3.571806e+00 2.610889e+00 3.091724e+00 3.695992e+00 3.333089e+00 2.695030e+00 2.737058e+00 2.544356e+00 1.978447e+00 2.700981e+00 2.238870e-01 2.935136e-01 2.612220e-01 4.117307e-01 4.244251e-01 3.734794e-01 7.204189e-01 6.117431e-01 5.423553e-01 3.921171e-01 3.832664e-01 2.776783e-01 2.272114e-01
<GCONST> 1.221537e+02
<STATE> 3
<MEAN> 39
 -3.689833e+00 -4.789487e-01 -1.500110e+00 -4.669980e+00 -8.954264e+00 -8.013603e+00 -1.007508e+01 -1.426842e+01 -2.896938e+00 8.154812e+00 -4.204031e+00 -8.242530e+00 6.364856e+01 1.677386e-01 3.994947e-01 3.304984e-01 -2.800966e-01 4.044049e-01 -3.128714e-01 -1.299328e+00 5.186097e-01 -2.094466e-01 -3.590526e-01 6.884946e-01 -5.646950e-01 3.582201e-01 -2.598098e-01 -2.204194e-01 -2.856777e-01 -2.850201e-01 2.449553e-01 -1.774016e-02 4.362145e-01 9.519922e-01 1.770916e-01 -7.265010e-01 1.991940e-01 2.805052e-01 2.086021e-01
<VARIANCE> 39
 3.962041e+01 2.313775e+01 4.655862e+01 6.476318e+01 5.848440e+01 4.813593e+01 8.436317e+01 9.211961e+01 8.135579e+01 4.838783e+01 5.950984e+01 2.867698e+01 1.049572e+02 6.060951e+00 2.986866e+00 2.342393e+00 4.565445e+00 4.343223e+00 5.728491e+00 6.981158e+00 7.155768e+00 5.273372e+00 4.900534e+00 4.691925e+00 3.397982e+00 7.588882e+00 6.921996e-01 4.158458e-01 5.118907e-01 7.726308e-01 4.746167e-01 7.283818e-01 1.656528e+00 1.079123e+00 8.204246e-01 7.413732e-01 7.987841e-01 6.591877e-01 5.606599e-01
<GCONST> 1.398516e+02
<STATE> 4
<MEAN> 39
 -2.927999e+00 -1.936071e+00 -9.946374e-01 -8.297833e+00 -6.827815e+00 -1.008349e+01 -1.351508e+01 -6.666484e+00 -4.257181e+00 4.595290e+00 1.473326e+00 -9.890464e+00 6.702517e+01 -4.117850e-01 -7.159810e-01 -5.091729e-01 -5.545919e-01 -8.151057e-02 -6.316936e-01 6.498050e-01 2.505696e+00 8.680075e-01 -1.151889e+00 5.586410e-02 1.206947e-01 1.109758e+00 -9.271278e-02 -1.372016e-01 -1.845246e-01 -3.772954e-02 -7.980087e-02 -9.126358e-02 8.605165e-01 3.773561e-01 6.854676e-02 -1.911756e-01 -4.150082e-01 2.509145e-01 -1.034443e-01
<VARIANCE> 39
 2.186239e+01 2.508158e+01 2.554464e+01 4.949453e+01 6.331146e+01 5.611540e+01 6.663592e+01 9.729613e+01 9.585796e+01 6.569090e+01 7.046398e+01 4.609240e+01 7.349423e+01 1.489864e+00 2.396703e+00 2.219512e+00 5.295691e+00 2.354415e+00 3.757271e+00 8.357097e+00 6.366516e+00 5.218049e+00 4.381967e+00 6.656496e+00 4.023342e+00 3.553236e+00 3.437218e-01 2.047403e-01 2.868128e-01 5.006875e-01 8.358668e-01 6.830083e-01 1.152737e+00 1.260322e+00 1.170341e+00 7.887018e-01 8.980286e-01 4.493738e-01 2.597392e-01
<GCONST> 1.336687e+02
<TRANSP> 5
 0.000000e+00 1.000000e+00 0.000000e+00 0.000000e+00 0.000000e+00
 0.000000e+00 6.888483e-01 3.111517e-01 0.000000e+00 0.000000e+00
 0.000000e+00 0.000000e+00 4.704327e-01 5.295673e-01 0.000000e+00
 0.000000e+00 0.000000e+00 0.000000e+00 5.173970e-01 4.826030e-01
 0.000000e+00 0.000000e+00 0.000000e+00 0.000000e+00 0.000000e+00
<ENDHMM>
~h "m"
<BEGINHMM>
<NUMSTATES> 5
<STATE> 2
<MEAN> 39
 -7.229875e-01 2.766169e+00 2.687852e+00 -1.074872e+00 -6.677640e+00 -2.449921e+00 -3.166230e+00 -1.329064e+01 -1.606506e+01 1.856353e+00 -3.190270e+00 -7.802375e+00 5.989482e+01 -5.593381e-01 -1.800364e-01 1.622626e+00 1.700945e+00 3.465788e-01 -2.759179e-01 2.859842e-01 -1.226650e+00 -1.294737e+00 2.397004e-01 -1.788950e+00 7.518244e-03 -4.213482e-01 2.842234e-02 -5.197893e-01 -6.591981e-01 -1.236580e+00 1.038666e-01 -4.782319e-03 -3.134030e-01 6.202253e-01 1.067290e+00 -3.574675e-01 4.240624e-01 1.450332e-01 7.639657e-01
<VARIANCE> 39
 7.890423e+00 2.402756e+01 2.264573e+01 2.116270e+01 3.505191e+01 5.143111e+01 3.539820e+01 3.470728e+01 5.942615e+01 3.561717e+01 9.222001e+01 4.520004e+01 4.314189e+01 3.568290e-01 1.359011e+00 2.115923e+00 4.053347e+00 2.390938e+00 2.399590e+00 2.168999e+00 3.969854e+00 4.383296e+00 1.928434e+00 5.342566e+00 2.919025e+00 1.307793e+00 1.563652e-01 2.767157e-01 4.008185e-01 6.491047e-01 5.963117e-01 4.864055e-01 6.968595e-01 8.191380e-01 7.387482e-01 4.112880e-01 1.132522e+00 7.586455e-01 2.317985e-01
<GCONST> 1.188474e+02
<STATE> 3
<MEAN> 39
 -1.953865e+00 1.311368e+00 6.104128e+00 -3.029820e+00 -8.210573e+00 -2.930795e+00 -5.360538e+00 -9.454819e+00 -1.307637e+01 -5.352141e-01 -8.341892e+00 -5.955135e+00 6.340284e+01 -5.154406e-02 -2.982196e-01 -4.060346e-01 -6.271118e-01 -1.041311e-01 -1.461026e-01 -2.533662e-01 7.703521e-01 4.906270e-01 -3.131980e-01 2.699752e-01 3.948920e-01 4.509332e-01 2.583048e-02 -2.711596e-02 -5.204979e-01 -4.957916e-01 1.409160e-02 -1.005071e-02 1.478493e-02 3.170933e-01 2.843984e-01 7.643627e-02 4.352199e-01 -2.357112e-02 2.405492e-01
<VARIANCE> 39
 7.270319e+00 2.847580e+01 2.737995e+01 2.313797e+01 4.237425e+01 5.172303e+01 6.152380e+01 9.199196e+01 7.735634e+01 3.666082e+01 1.004130e+02 5.587557e+01 6.820285e+01 3.497273e-01 5.387288e-01 2.493327e+00 2.120697e+00 2.639701e+00 1.832903e+00 1.548134e+00 2.022865e+00 2.062969e+00 1.327770e+00 2.904404e+00 2.105229e+00 6.879364e-01 7.575504e-02 1.411126e-01 5.425228e-01 3.844121e-01 5.622240e-01 4.134448e-01 3.315335e-01 3.900695e-01 5.592747e-01 3.108940e-01 5.756443e-01 5.338780e-01 1.190586e-01
<GCONST> 1.110906e+02
<STATE> 4
<MEAN> 39
 -2.129010e+00 7.030745e-01 -2.502926e+00 -8.934372e+00 -7.456152e+00 -1.937475e+00 -3.605269e+00 -9.583510e+00 -9.288012e+00 -2.033581e+00 -4.662703e-01 -5.478859e+00 6.417296e+01 -3.705927e-01 -1.222796e+00 -2.413941e+00 -2.885168e+00 7.226179e-01 -8.146209e-02 1.698583e-01 1.509833e+00 2.498300e+00 3.428639e-01 1.034385e+00 -4.527937e-01 1.972506e+00 -1.496547e-01 -2.692690e-01 2.480025e-01 3.442922e-01 2.867294e-01 -1.281092e-01 -2.303899e-02 1.971660e-02 1.956176e-01 9.277090e-02 -4.549205e-01 -4.578280e-01 7.413851e-02
<VARIANCE> 39
 1.669269e+01 4.168623e+01 6.289835e+01 4.873856e+01 2.429255e+01 4.760511e+01 4.641476e+01 4.958664e+01 5.429371e+01 3.687544e+01 4.473979e+01 2.274401e+01 5.525819e+01 1.565008e+00 2.000713e+00 6.464541e+00 2.578405e+00 3.731719e+00 2.897073e+00 2.397210e+00 2.331051e+00 5.970556e+00 1.464210e+00 4.672877e+00 4.210784e+00 1.133498e+00 2.052175e-01 3.073053e-01 6.068808e-01 8.164451e-01 7.210884e-01 4.348411e-01 4.418965e-01 2.710009e-01 6.743365e-01 3.504135e-01 7.783880e-01 4.991414e-01 1.938826e-01
<GCONST> 1.221364e+02
<TRANSP> 5
 0.000000e+00 1.000000e+00 0.000000e+00 0.000000e+00 0.000000e+00
 0.000000e+00 5.307413e-01 4.692587e-01 0.000000e+00 0.000000e+00
 0.000000e+00 0.000000e+00 7.702444e-01 2.297556e-01 0.000000e+00
 0.000000e+00 0.000000e+00 0.000000e+00 5.032981e-01 4.967019e-01
 0.000000e+00 0.000000e+00 0.000000e+00 0.000000e+00 0.000000e+00
<ENDHMM>
~h "n"
<BEGINHMM>
<NUMSTATES> 5
<STATE> 2
<MEAN> 39
 -1.968312e+00 3.097859e+00 5.835351e+00 -4.633875e-01 -1.268916e+01 -1.124971e+01 -5.547233e+00 -9.929572e+00 -6.415277e+00 1.884545e+00 -8.387268e+00 -8.669868e+00 6.133937e+01 4.631246e-01 1.040656e+00 8.786687e-01 2.711478e-01 -7.811698e-01 1.301754e+00 2.650931e-01 -2.043509e+00 -8.910986e-02 6.565160e-01 -9.300647e-01 -4.466608e-01 -1.377014e+00 -2.794116e-01 -3.968492e-01 -3.646894e-01 -5.884732e-01 1.803082e-01 -4.833226e-03 -1.613295e-01 7.511005e-01 8.903117e-02 -4.109379e-01 4.503956e-01 2.875352e-01 7.215058e-01
<VARIANCE> 39
 9.430875e+00 2.063387e+01 2.055114e+01 2.171301e+01 3.633415e+01 3.437662e+01 4.052816e+01 3.140226e+01 6.412762e+01 6.142612e+01 6.537704e+01 3.506232e+01 7.347312e+01 7.431961e-01 2.255025e+00 2.617431e+00 2.278345e+00 2.636269e+00 3.349726e+00 3.998615e+00 4.877090e+00 4.892125e+00 3.007998e+00 3.451407e+00 2.291732e+00 1.993116e+00 1.669049e-01 2.058215e-01 5.972010e-01 3.700024e-01 7.210647e-01 4.712728e-01 5.881533e-01 7.695128e-01 4.682742e-01 4.601173e-01 5.235721e-01 3.392486e-01 1.893429e-01
<GCONST> 1.188581e+02
<STATE> 3
<MEAN> 39
 -1.061272e+00 5.095903e+00 6.084501e+00 -2.226716e+00 -1.119273e+01 -8.213005e+00 -5.305159e+00 -9.619150e+00 -4.799620e+00 -7.705297e-02 -7.685083e+00 -6.237996e+00 5.871503e+01 -2.137430e-01 5.882459e-01 1.165488e-02 -1.793114e-01 6.211029e-01 9.015285e-02 -5.349113e-02 3.003172e-01 -2.267115e-01 -2.445956e-01 2.039461e-01 8.846272e-02 -4.872841e-01 -3.018548e-01 -5.288729e-02 -1.061688e-01 -6.318965e-02 3.336742e-01 -1.417072e-01 3.187830e-02 3.994955e-01 -3.212486e-02 -1.137693e-01 1.895623e-01 2.972516e-02 1.094611e-01
<VARIANCE> 39
 6.197512e+00 2.937725e+01 1.663425e+01 2.058207e+01 3.113056e+01 3.218633e+01 4.084591e+01 2.440730e+01 6.992834e+01 7.217142e+01 7.261238e+01 4.902087e+01 6.258018e+01 5.710635e-01 9.271422e-01 8.022893e-01 1.016724e+00 1.806141e+00 1.317390e+00 1.445169e+00 1.783466e+00 1.861713e+00 1.434523e+00 2.198417e+00 1.560415e+00 9.173489e-01 1.378901e-01 1.617873e-01 2.688054e-01 3.441275e-01 4.392622e-01 3.758937e-01 4.047869e-01 5.832253e-01 4.704721e-01 3.475427e-01 5.166748e-01 3.975671e-01 2.477143e-01
<GCONST> 1.062579e+02
<STATE> 4
<MEAN> 39
 -4.268328e+00 6.115765e+00 4.500227e+00 -2.806684e+00 -7.968661e+00 -9.859150e+00 -5.836261e+00 -8.155021e+00 -6.141790e+00 -6.135307e-01 -6.693346e+00 -6.460850e+00 5.794233e+01 -1.282015e+00 -3.771847e-01 -5.357310e-01 -5.115431e-01 1.190437e+00 6.928528e-01 -4.814107e-02 1.339628e+00 5.200559e-01 -6.010208e-01 4.479551e-01 1.727821e-01 1.524088e-01 -2.381394e-01 -4.268432e-01 -1.416450e-01 -9.961456e-02 -1.434103e-01 3.827197e-01 -1.041839e-02 1.241673e-01 2.592433e-01 -9.283420e-02 8.372054e-02 4.206008e-02 1.834306e-01
<VARIANCE> 39
 1.704835e+01 4.907518e+01 2.984987e+01 2.913761e+01 4.055694e+01 4.099203e+01 4.056332e+01 3.846204e+01 6.274409e+01 4.971162e+01 6.987563e+01 5.909429e+01 1.005983e+02 1.370723e+00 2.538906e+00 3.324663e+00 4.066395e+00 3.882802e+00 2.802440e+00 3.461980e+00 3.849512e+00 3.963501e+00 3.296023e+00 4.481220e+00 3.434791e+00 4.727348e+00 2.841406e-01 3.785902e-01 3.973553e-01 5.246566e-01 4.506094e-01 5.799581e-01 5.871274e-01 6.510982e-01 6.860151e-01 5.650375e-01 6.403322e-01 6.593249e-01 3.625612e-01
<GCONST> 1.276852e+02
<TRANSP> 5
 0.000000e+00 1.000000e+00 0.000000e+00 0.000000e+00 0.000000e+00
 0.000000e+00 4.529343e-01 5.470658e-01 0.000000e+00 0.000000e+00
 0.000000e+00 0.000000e+00 7.250533e-01 2.749467e-01 0.000000e+00
 0.000000e+00 0.000000e+00 0.000000e+00 5.186899e-01 4.813101e-01
 0.000000e+00 0.000000e+00 0.000000e+00 0.000000e+00 0.000000e+00
<ENDHMM>
~h "o"
<BEGINHMM>
<NUMSTATES> 5
<STATE> 2
<MEAN> 39
 -9.890513e-01 -1.512788e+00 -1.047718e+01 -1.185281e+01 -9.036637e+00 -5.936163e+00 -9.464205e+00 -7.958558e+00 -4.414227e+00 2.963177e+00 4.088175e+00 -5.421003e+00 6.563697e+01 1.343535e+00 -7.609557e-01 -3.057454e-01 -1.613017e+00 -1.435075e+00 1.087676e+00 6.861951e-01 -3.693821e-01 -8.863705e-01 5.467431e-02 1.418188e+00 -4.249747e-01 1.411220e+00 -4.429228e-01 1.505096e-01 3.870713e-01 -7.200679e-04 2.789087e-01 2.230882e-01 5.033461e-01 2.376738e-01 -1.469565e-01 -2.364859e-01 -1.185061e-01 2.634566e-01 -3.319364e-01
<VARIANCE> 39
 3.691241e+01 2.529005e+01 5.010151e+01 6.810364e+01 4.665979e+01 5.003927e+01 7.863218e+01 7.731293e+01 8.966376e+01 5.813519e+01 7.624853e+01 4.305002e+01 6.551276e+01 2.613513e+00 1.441239e+00 3.403190e+00 2.873734e+00 4.459531e+00 4.736602e+00 6.363261e+00 5.229231e+00 4.391328e+00 3.840123e+00 5.392088e+00 4.515152e+00 2.414754e+00 4.059685e-01 3.039628e-01 5.887298e-01 6.769703e-01 9.000552e-01 8.370711e-01 1.074558e+00 9.283081e-01 8.043743e-01 5.315803e-01 1.016009e+00 6.786289e-01 6.373788e-01
<GCONST> 1.360482e+02
<STATE> 3
<MEAN> 39
 1.016483e+00 5.581053e-02 -6.851347e+00 -2.114776e+01 -1.080757e+01 -1.023063e+00 -6.673629e+00 -4.907237e+00 -1.026746e+01 -1.063677e+00 7.591308e+00 -2.759165e+00 6.964220e+01 4.399643e-02 3.123009e-01 1.207985e-01 -6.960225e-01 -5.578885e-02 2.696276e-01 5.045519e-01 3.964121e-01 -2.276206e-01 -4.019963e-01 -2.134873e-01 -7.735653e-02 -1.438527e-01 -3.833848e-02 6.330933e-02 4.245041e-02 3.163843e-01 4.575285e-02 -1.289925e-01 -8.915981e-02 -4.870884e-02 9.029102e-02 9.497167e-02 -2.066903e-01 -8.524940e-02 -1.828557e-01
<VARIANCE> 39
 1.371248e+01 2.489822e+01 2.469118e+01 3.197445e+01 4.521025e+01 3.615200e+01 6.032946e+01 4.854877e+01 6.780112e+01 9.923166e+01 1.055009e+02 5.611957e+01 6.405226e+01 2.760482e-01 6.490785e-01 5.891296e-01 1.559472e+00 1.304091e+00 1.522524e+00 2.066319e+00 1.726395e+00 1.482642e+00 1.904363e+00 1.982694e+00 1.373235e+00 6.289275e-01 7.023953e-02 1.065361e-01 1.424485e-01 2.213808e-01 2.943444e-01 2.856817e-01 3.496455e-01 2.966250e-01 2.984575e-01 3.362628e-01 3.874583e-01 2.833411e-01 5.643423e-02
<GCONST> 1.024758e+02
<STATE> 4
<MEAN> 39
 7.514884e-02 1.051192e+00 -8.591629e+00 -1.667363e+01 -1.090226e+01 -1.016544e+00 -2.797884e+00 -7.533499e+00 -6.807205e+00 -2.500871e+00 2.998825e+00 -5.491376e+00 6.314629e+01 -5.400243e-01 1.182961e-01 1.163199e+00 1.785509e+00 9.993935e-02 -3.326524e-01 -4.680557e-02 -5.523323e-02 1.327549e-01 4.847552e-01 -1.724868e+00 -2.121148e-01 -1.371616e+00 -1.468226e-01 -6.487387e-02 2.359369e-01 3.696150e-01 1.586851e-01 -1.485099e-01 -1.252410e-01 -5.380778e-02 2.784939e-02 7.396771e-02 -2.413370e-01 1.166673e-01 -1.356954e-01
<VARIANCE> 39
 2.537043e+01 3.599537e+01 4.635383e+01 6.785972e+01 8.048817e+01 5.452876e+01 4.988489e+01 8.711973e+01 8.890299e+01 1.101598e+02 1.137910e+02 5.473173e+01 8.016924e+01 1.897923e+00 2.339871e+00 2.590454e+00 5.989260e+00 3.797459e+00 3.260897e+00 3.716221e+00 4.503728e+00 5.934734e+00 5.075670e+00 6.236785e+00 4.047638e+00 2.567607e+00 2.148041e-01 3.053420e-01 4.202026e-01 8.008071e-01 6.765479e-01 6.258061e-01 5.128279e-01 8.329597e-01 8.594818e-01 7.898505e-01 1.052112e+00 6.166407e-01 3.585907e-01
<GCONST> 1.353965e+02
<TRANSP> 5
 0.000000e+00 1.000000e+00 0.000000e+00 0.000000e+00 0.000000e+00
 0.000000e+00 7.417261e-01 2.582738e-01 0.000000e+00 0.000000e+00
 0.000000e+00 0.000000e+00 8.609951e-01 1.390049e-01 0.000000e+00
 0.000000e+00 0.000000e+00 0.000000e+00 7.650307e-01 2.349693e-01
 0.000000e+00 0.000000e+00 0.000000e+00 0.000000e+00 0.000000e+00
<ENDHMM>
~h "p"
<BEGINHMM>
<NUMSTATES> 5
<STATE> 2
<MEAN> 39
 -1.489234e+01 2.242476e+00 -1.179991e+00 1.414429e+00 9.351462e-01 2.988559e-01 -1.581940e+00 -1.146629e+00 -1.213025e+00 7.903837e-01 -4.639500e-01 4.141311e-01 4.221810e+01 -1.724093e+00 -2.544374e-01 3.699687e-01 1.210460e+00 5.759955e-01 5.074725e-01 2.671703e-01 5.310715e-01 1.027267e-01 -1.121529e-01 1.519602e-01 6.197157e-01 -1.683684e+00 1.973501e-01 -2.473755e-01 -2.502094e-01 -4.955951e-01 -8.344984e-02 -3.165358e-01 8.024787e-02 -9.718800e-02 -8.095409e-02 -9.282443e-02 -8.016173e-03 -1.730373e-01 9.050424e-01
<VARIANCE> 39
 2.345177e+01 1.823767e+01 1.367012e+01 1.358844e+01 9.583402e+00 1.386063e+01 1.890850e+01 1.792715e+01 1.828599e+01 1.818513e+01 1.945001e+01 1.547800e+01 2.680738e+01 2.903350e+00 2.224753e+00 2.457289e+00 3.230817e+00 2.057578e+00 2.284924e+00 2.658749e+00 1.931304e+00 2.608408e+00 2.134640e+00 1.700657e+00 1.753826e+00 4.860706e+00 5.270875e-01 6.961247e-01 5.316184e-01 7.458394e-01 5.232739e-01 4.632827e-01 6.496659e-01 5.164807e-01 4.941795e-01 6.265207e-01 4.529335e-01 3.099552e-01 1.057127e+00
<GCONST> 1.124730e+02
<STATE> 3
<MEAN> 39
 -1.717588e+01 1.542008e-01 -2.009700e+00 3.033086e-03 2.718135e-01 -5.056979e-01 -1.170579e+00 -7.500935e-01 -6.124485e-01 9.125922e-01 6.727447e-01 1.714978e+00 4.405236e+01 1.692114e+00 -1.264461e-01 -3.757488e-01 -1.654618e+00 -7.289087e-01 -1.207589e+00 -8.296726e-01 -1.984515e-01 7.363494e-02 2.202842e-01 -1.420730e-01 -6.355582e-01 3.953406e+00 1.384123e+00 -3.949179e-02 -2.821455e-01 -7.111329e-01 -2.545647e-01 -3.427073e-01 -2.363162e-01 -2.230345e-01 -1.114758e-01 2.058168e-01 -2.189648e-01 -7.627133e-01 1.553097e+00
<VARIANCE> 39
 5.758743e+00 9.426398e+00 7.028760e+00 8.202303e+00 1.399086e+01 1.320836e+01 1.270772e+01 1.849385e+01 1.585395e+01 1.476768e+01 1.776653e+01 1.117319e+01 5.813684e+01 4.276221e+00 1.512934e+00 1.392015e+00 1.270003e+00 1.950004e+00 2.525088e+00 2.526721e+00 2.273307e+00 2.467427e+00 2.211116e+00 3.064542e+00 2.324661e+00 6.574300e+00 2.451344e-01 4.128805e-01 3.628231e-01 3.426107e-01 5.880784e-01 4.776186e-01 5.342138e-01 4.694224e-01 6.442086e-01 4.093167e-01 5.328814e-01 4.232805e-01 1.019663e+00
<GCONST> 1.067054e+02
<STATE> 4
<MEAN> 39
 -5.634845e+00 1.106938e+00 -4.329073e+00 -7.156852e+00 -2.085070e+00 -5.228019e+00 -5.509842e+00 -2.928916e+00 -2.321175e+00 1.384121e+00 -8.472879e-01 -3.641818e+00 6.076459e+01 4.052227e+00 -1.503068e+00 -1.687363e+00 -2.991210e+00 -8.107796e-01 -1.484759e+00 -5.337310e-01 -1.887123e-01 -5.310755e-01 9.441171e-01 -2.237078e-01 -2.585434e+00 5.791122e+00 -5.651048e-01 -6.496879e-01 -2.973420e-02 3.955685e-01 2.120195e-01 1.355477e-01 3.765528e-01 3.490233e-01 8.549998e-02 1.161137e-02 -1.787236e-01 2.869777e-02 -8.738341e-01
<VARIANCE> 39
 3.167251e+01 1.932874e+01 2.085262e+01 2.125461e+01 3.425311e+01 2.994217e+01 4.634809e+01 3.708786e+01 4.396366e+01 3.139222e+01 3.439875e+01 2.983860e+01 6.806545e+01 2.116187e+00 3.046886e+00 2.688841e+00 1.926884e+00 5.423886e+00 3.330049e+00 6.449617e+00 5.997098e+00 6.505933e+00 3.059146e+00 5.162889e+00 4.507226e+00 5.176079e+00 6.027699e-01 3.999150e-01 5.586002e-01 5.626351e-01 5.391628e-01 5.136650e-01 6.293691e-01 5.946875e-01 8.815664e-01 5.895483e-01 8.140066e-01 6.735337e-01 1.054026e+00
<GCONST> 1.287453e+02
<TRANSP> 5
 0.000000e+00 1.000000e+00 0.000000e+00 0.000000e+00 0.000000e+00
 0.000000e+00 6.523681e-01 3.476320e-01 0.000000e+00 0.000000e+00
 0.000000e+00 0.000000e+00 6.695469e-01 3.304531e-01 0.000000e+00
 0.000000e+00 0.000000e+00 0.000000e+00 5.181829e-01 4.818171e-01
 0.000000e+00 0.000000e+00 0.000000e+00 0.000000e+00 0.000000e+00
<ENDHMM>
~h "r"
<BEGINHMM>
<NUMSTATES> 5
<STATE> 2
<MEAN> 39
 -4.306769e+00 -1.344579e+00 -3.246356e+00 -5.455003e-01 -6.344823e+00 -9.394053e+00 -7.112758e+00 -5.188093e+00 1.287346e+00 -5.750904e-02 -2.229289e+00 -3.621552e+00 6.477813e+01 4.164343e-01 -1.455705e-01 -3.168568e-02 1.581513e-01 -9.493659e-02 -2.771527e-01 -7.076263e-01 -3.109267e-01 4.518728e-01 1.186790e-01 -9.217450e-02 3.467258e-01 -4.083863e-02 9.191348e-02 -1.155586e-01 -4.340493e-02 -2.388888e-01 1.176695e-01 8.602681e-02 1.246122e-01 7.341714e-02 -2.656458e-01 7.359574e-02 -7.861149e-02 -2.615272e-01 5.058516e-03
<VARIANCE> 39
 1.841352e+01 2.076645e+01 3.793826e+01 3.132793e+01 5.002959e+01 3.227440e+01 4.330607e+01 7.434796e+01 4.708158e+01 4.127979e+01 4.964700e+01 3.074732e+01 6.635892e+01 3.183387e+00 2.372595e+00 3.861727e+00 2.578441e+00 3.365644e+00 3.091287e+00 2.910675e+00 3.890338e+00 3.516509e+00 3.582623e+00 3.561235e+00 2.994794e+00 3.011659e+00 5.524807e-01 5.184419e-01 6.301038e-01 6.402354e-01 8.032726e-01 6.848474e-01 5.383413e-01 8.200371e-01 9.550973e-01 6.477556e-01 6.205195e-01 6.073452e-01 6.565969e-01
<GCONST> 1.289084e+02
<STATE> 3
<MEAN> 39
 -1.433813e+00 -3.426203e+00 -5.799257e+00 -3.386874e+00 -7.073064e+00 -1.218240e+01 -8.537526e+00 -5.528922e+00 -1.452670e+00 3.190469e+00 -2.052449e+00 -7.173694e+00 6.530202e+01 -4.486210e-01 9.444293e-01 6.291143e-01 6.375133e-01 1.223430e+00 7.684184e-01 -1.199858e-01 -2.899198e-02 -4.784597e-01 -2.968858e-01 1.135633e-01 5.554695e-01 -1.651214e+00 -6.246102e-01 4.546833e-01 3.292765e-01 2.996745e-01 2.724264e-01 5.187396e-01 4.267100e-01 2.360903e-01 -1.564353e-01 -2.910856e-01 6.904990e-02 1.852197e-01 -5.726178e-01
<VARIANCE> 39
 2.403144e+01 2.655235e+01 4.766019e+01 5.927433e+01 7.047038e+01 3.653127e+01 4.592932e+01 8.593159e+01 5.659396e+01 6.941521e+01 9.717720e+01 5.701390e+01 5.770104e+01 4.712766e+00 3.691781e+00 3.552006e+00 4.057631e+00 5.097721e+00 3.564996e+00 3.313629e+00 4.344234e+00 5.103362e+00 3.969846e+00 4.443567e+00 4.558838e+00 3.477731e+00 4.259091e-01 6.726237e-01 4.802558e-01 8.464019e-01 7.998827e-01 5.218539e-01 6.181450e-01 8.064669e-01 1.013397e+00 8.792129e-01 9.318725e-01 7.355435e-01 5.812982e-01
<GCONST> 1.367663e+02
<STATE> 4
<MEAN> 39
 -8.989651e+00 1.891890e-01 -4.007144e-01 2.347640e+00 -1.221008e+00 -4.863165e+00 -4.915610e+00 -1.718800e+00 -8.403253e-01 -8.366356e-01 -3.080544e+00 -1.410570e+00 5.609624e+01 -1.207922e+00 6.465501e-01 2.585006e-01 2.737637e-01 4.463494e-01 9.698254e-01 6.323577e-01 1.340506e-01 -4.087404e-01 -4.276300e-01 2.038903e-01 5.290524e-01 -1.541285e+00 1.779047e-01 -2.040824e-01 -2.871030e-01 -3.945334e-01 -5.656484e-01 -2.294648e-01 6.957500e-02 -9.045500e-02 -1.514762e-01 1.184432e-01 9.156538e-02 -1.881200e-01 3.679197e-01
<VARIANCE> 39
 5.714921e+01 3.008805e+01 5.283418e+01 3.259074e+01 5.901654e+01 3.733325e+01 4.796645e+01 6.438431e+01 2.958608e+01 4.858941e+01 4.367118e+01 3.768029e+01 7.794032e+01 5.796031e+00 3.816198e+00 4.322611e+00 4.433699e+00 5.125404e+00 3.403888e+00 3.740432e+00 4.632062e+00 3.959197e+00 5.071099e+00 4.681663e+00 3.219391e+00 4.167531e+00 7.125317e-01 6.226299e-01 7.305164e-01 6.092390e-01 9.087403e-01 6.830791e-01 5.558721e-01 9.226294e-01 6.006614e-01 8.241462e-01 9.687870e-01 4.996641e-01 5.795201e-01
<GCONST> 1.355033e+02
<TRANSP> 5
 0.000000e+00 1.000000e+00 0.000000e+00 0.000000e+00 0.000000e+00
 0.000000e+00 5.071658e-01 4.928342e-01 0.000000e+00 0.000000e+00
 0.000000e+00 0.000000e+00 5.294967e-01 4.705033e-01 0.000000e+00
 0.000000e+00 0.000000e+00 0.000000e+00 5.844842e-01 4.155159e-01
 0.000000e+00 0.000000e+00 0.000000e+00 0.000000e+00 0.000000e+00
<ENDHMM>
~h "s"
<BEGINHMM>
<NUMSTATES> 5
<STATE> 2
<MEAN> 39
 -2.601608e+01 9.940565e+00 -2.548853e+00 -1.543446e+00 2.133170e+00 -7.046834e+00 2.355797e+00 -1.187770e+00 -3.501569e+00 -1.137984e+00 -4.888963e-01 7.247723e-01 6.008772e+01 -1.858219e+00 -1.316594e-01 -1.130481e+00 -2.276916e-01 7.055319e-01 5.666691e-01 3.117439e-01 3.715725e-01 5.189244e-01 4.351308e-01 3.616949e-01 1.729987e-01 -4.648991e-01 7.426188e-01 -5.034971e-01 1.501679e-01 -3.730904e-01 -7.012187e-01 -3.794591e-01 -2.864926e-01 -1.219993e-01 -2.321397e-01 1.077844e-01 -1.061457e-01 -3.812799e-02 2.127600e-01
<VARIANCE> 39
 3.646810e+01 3.464582e+01 1.294178e+01 1.357499e+01 2.383496e+01 2.360720e+01 2.472317e+01 3.571518e+01 1.555400e+01 2.179479e+01 1.791503e+01 1.275475e+01 1.119733e+02 4.779500e+00 2.200128e+00 1.836313e+00 1.766611e+00 3.595053e+00 3.642554e+00 2.583827e+00 2.425870e+00 1.907610e+00 1.981641e+00 2.348463e+00 1.925442e+00 2.010088e+00 5.536299e-01 3.973716e-01 3.250563e-01 4.295778e-01 7.851031e-01 5.663843e-01 4.876700e-01 4.860165e-01 4.117931e-01 4.697131e-01 4.749574e-01 2.852778e-01 2.530581e-01
<GCONST> 1.138048e+02
<STATE> 3
<MEAN> 39
 -3.062168e+01 7.140896e+00 -5.613859e+00 -5.596128e+00 1.138023e+00 -8.121277e+00 3.211082e+00 2.728414e-01 -4.131567e+00 -1.249080e-01 -4.699878e-01 2.253827e+00 6.243366e+01 1.126236e+00 -8.745999e-01 4.637331e-01 -6.518257e-01 -1.083729e+00 -9.012272e-01 -6.061882e-01 -7.610986e-02 -3.672766e-01 -4.484916e-02 -4.660527e-01 -1.371845e-01 2.678065e-01 1.175103e+00 -3.114803e-02 5.832322e-01 7.141748e-02 -5.034846e-01 -3.933659e-01 -4.961937e-01 -3.296216e-01 -1.333960e-01 -5.990169e-02 -1.897015e-01 -2.773046e-01 8.848041e-02
<VARIANCE> 39
 2.102698e+01 1.818447e+01 1.425139e+01 1.265019e+01 1.889132e+01 1.884471e+01 2.560171e+01 2.298724e+01 1.807474e+01 1.294405e+01 1.481756e+01 1.363244e+01 5.091638e+01 4.262906e+00 1.046077e+00 2.467341e+00 1.514515e+00 2.700968e+00 2.768966e+00 2.323237e+00 2.705364e+00 1.866757e+00 1.522643e+00 1.847807e+00 1.455166e+00 1.000412e+00 5.477250e-01 2.218612e-01 3.735604e-01 2.954365e-01 6.381220e-01 5.916762e-01 5.845487e-01 5.057129e-01 4.339454e-01 3.536938e-01 3.567229e-01 3.128382e-01 2.119268e-01
<GCONST> 1.063390e+02
<STATE> 4
<MEAN> 39
 -1.841286e+01 4.763300e+00 -1.623556e+00 -5.725720e+00 -4.654759e+00 -1.361349e+01 -3.368569e+00 -1.914037e+00 -3.186282e+00 -3.888997e-01 -3.279045e+00 -7.189714e-02 6.098851e+01 4.853908e+00 -1.036833e+00 1.167506e+00 -8.025386e-01 -2.510985e+00 -1.127113e+00 -2.612392e+00 -1.488670e+00 4.247415e-02 6.188213e-01 -5.840581e-01 -1.118727e+00 5.712447e-01 -2.688341e-02 -1.348930e-02 -2.127480e-01 -1.888003e-01 6.729495e-02 6.297934e-01 -6.389591e-02 -1.080127e-01 -1.961036e-02 2.129373e-01 3.483413e-01 -2.994842e-01 2.811341e-01
<VARIANCE> 39
 5.287581e+01 2.366148e+01 4.466857e+01 2.524583e+01 3.778022e+01 5.523779e+01 7.515763e+01 4.646474e+01 4.348003e+01 3.600448e+01 2.415741e+01 2.463118e+01 7.460640e+01 4.171702e+00 3.727571e+00 7.369915e+00 4.573319e+00 7.893102e+00 7.412686e+00 8.218095e+00 5.653897e+00 7.393225e+00 4.605037e+00 2.768644e+00 3.321501e+00 4.978086e+00 1.013738e+00 5.233774e-01 4.901874e-01 5.391219e-01 9.751107e-01 1.283003e+00 1.426061e+00 1.080950e+00 6.958534e-01 7.049688e-01 5.545148e-01 5.849399e-01 5.482743e-01
<GCONST> 1.374696e+02
<TRANSP> 5
 0.000000e+00 1.000000e+00 0.000000e+00 0.000000e+00 0.000000e+00
 0.000000e+00 7.802626e-01 2.197374e-01 0.000000e+00 0.000000e+00
 0.000000e+00 0.000000e+00 7.543789e-01 2.456211e-01 0.000000e+00
 0.000000e+00 0.000000e+00 0.000000e+00 5.921479e-01 4.078521e-01
 0.000000e+00 0.000000e+00 0.000000e+00 0.000000e+00 0.000000e+00
<ENDHMM>
~h "t"
<BEGINHMM>
<NUMSTATES> 5
<STATE> 2
<MEAN> 39
 -9.206436e+00 9.694017e+00 4.835712e+00 3.629386e+00 7.266422e-01 -5.244155e+00 -6.095260e+00 -7.152044e+00 -7.135798e+00 -4.597398e+00 -5.924407e+00 -4.872294e+00 4.654999e+01 -2.474999e+00 -9.168750e-01 -6.102635e-01 1.039293e+00 1.752282e+00 3.072625e+00 1.128913e+00 7.706701e-01 5.526157e-01 -6.932509e-01 7.606843e-02 1.119809e+00 -3.367656e+00 -1.911951e-01 -1.155442e+00 -7.496886e-01 -9.457751e-01 -8.594859e-01 -2.913322e-01 4.070495e-01 3.685265e-01 3.154829e-01 6.456011e-01 6.063206e-01 7.907160e-02 1.206100e+00
<VARIANCE> 39
 2.052055e+01 1.629735e+01 2.095797e+01 1.875387e+01 2.101778e+01 3.797361e+01 2.251253e+01 1.851250e+01 2.458209e+01 2.208986e+01 2.397291e+01 2.385014e+01 5.185636e+01 2.245024e+00 3.797005e+00 4.590291e+00 4.062054e+00 5.599445e+00 5.283275e+00 3.395207e+00 3.535725e+00 4.240383e+00 4.335775e+00 5.231956e+00 3.465134e+00 6.545018e+00 5.199836e-01 6.062555e-01 6.117874e-01 6.137605e-01 7.328411e-01 1.200295e+00 6.215371e-01 6.547981e-01 7.357204e-01 5.438733e-01 7.750123e-01 5.164720e-01 7.915199e-01
<GCONST> 1.261750e+02
<STATE> 3
<MEAN> 39
 -1.723100e+01 1.025472e+00 -2.098658e+00 1.298666e+00 1.450044e+00 5.729583e-01 -8.655447e-02 -1.000741e+00 -1.624953e+00 -2.242992e-01 -4.456949e-01 -7.885455e-02 4.165329e+01 -6.654152e-01 -1.242646e+00 -1.217287e+00 -1.364912e+00 -7.758387e-01 -3.205175e-01 3.812113e-01 5.934439e-01 6.648486e-01 7.716766e-01 7.406448e-01 6.784880e-01 1.224024e+00 6.849814e-01 2.678595e-01 1.746635e-01 -4.096859e-01 -4.156550e-01 -9.112700e-01 -4.704285e-01 -3.384567e-01 -2.486781e-01 -4.114235e-02 -2.102023e-01 -3.644359e-01 1.415736e+00
<VARIANCE> 39
 7.339627e+00 6.343882e+00 8.992733e+00 1.189077e+01 1.095351e+01 1.442004e+01 1.318255e+01 1.644845e+01 1.881679e+01 1.582244e+01 1.543299e+01 1.581304e+01 5.060826e+01 1.919390e+00 1.669855e+00 2.023443e+00 2.511108e+00 2.429662e+00 3.920995e+00 2.682151e+00 2.382263e+00 2.547674e+00 2.433957e+00 2.475595e+00 2.188351e+00 9.466545e+00 2.920737e-01 3.034099e-01 4.136834e-01 5.789143e-01 5.686397e-01 6.868161e-01 4.014744e-01 4.345769e-01 5.115509e-01 6.848935e-01 5.977349e-01 4.347158e-01 9.397172e-01
<GCONST> 1.094128e+02
<STATE> 4
<MEAN> 39
 -1.476926e+01 2.949516e-01 -4.744032e+00 -6.686056e+00 -4.611606e+00 -8.811986e+00 -2.830503e+00 -3.469451e+00 -2.512583e+00 -2.163885e-01 -1.624754e+00 -5.297931e-01 6.052983e+01 2.495386e+00 -4.285823e-01 -3.902569e-01 -1.953465e+00 -1.806709e+00 -2.830671e+00 -1.511596e+00 -2.578437e-01 2.774880e-01 1.224143e-01 -4.608141e-01 -1.760074e+00 5.463439e+00 5.854334e-01 -1.493008e-01 3.766397e-01 3.454785e-01 3.036090e-01 3.981096e-01 -1.376470e-01 2.509514e-01 4.044872e-02 3.705953e-02 -8.769143e-02 -5.661620e-01 -7.296447e-01
<VARIANCE> 39
 3.104303e+01 1.558531e+01 1.952749e+01 2.368673e+01 2.663889e+01 4.212742e+01 3.149826e+01 3.799548e+01 2.647272e+01 2.473409e+01 2.270248e+01 2.572645e+01 1.201051e+02 4.069529e+00 2.611603e+00 4.641720e+00 3.636221e+00 4.394248e+00 4.810555e+00 3.905894e+00 4.648798e+00 5.074612e+00 4.245844e+00 4.720503e+00 5.590272e+00 1.151513e+01 7.001431e-01 5.133389e-01 7.583171e-01 4.511342e-01 7.557865e-01 1.035898e+00 9.350145e-01 9.667003e-01 8.065384e-01 5.588002e-01 7.354882e-01 7.985408e-01 1.001434e+00
<GCONST> 1.319058e+02
<TRANSP> 5
 0.000000e+00 1.000000e+00 0.000000e+00 0.000000e+00 0.000000e+00
 0.000000e+00 5.945041e-01 4.054959e-01 0.000000e+00 0.000000e+00
 0.000000e+00 0.000000e+00 7.496743e-01 2.503257e-01 0.000000e+00
 0.000000e+00 0.000000e+00 0.000000e+00 5.115693e-01 4.884308e-01
 0.000000e+00 0.000000e+00 0.000000e+00 0.000000e+00 0.000000e+00
<ENDHMM>
~h "u"
<BEGINHMM>
<NUMSTATES> 5
<STATE> 2
<MEAN> 39
 -5.389100e+00 1.320024e-01 4.248945e+00 -2.353673e+00 -1.302722e+01 -9.879030e+00 -1.661283e+01 -6.460115e+00 -7.680958e+00 -3.423608e+00 4.971138e+00 -3.528289e+00 6.963821e+01 1.828804e+00 -5.566483e-01 -1.509411e+00 -1.151409e+00 -9.483121e-02 -6.278292e-01 -1.614618e+00 -9.195068e-02 2.726193e-01 6.907249e-01 1.147519e+00 -9.259265e-01 6.165361e-01 2.468301e-02 1.864669e-01 -1.164889e-01 -2.541855e-02 6.592230e-01 7.148430e-01 4.429924e-01 -2.413767e-01 2.383500e-01 1.971707e-01 -4.744767e-01 -2.385143e-01 -6.144975e-01
<VARIANCE> 39
 3.877241e+01 3.036101e+01 6.941649e+01 4.913784e+01 1.767173e+01 4.925780e+01 5.737325e+01 1.096874e+02 4.256005e+01 5.823544e+01 5.265191e+01 4.496476e+01 5.842357e+01 3.080951e+00 2.404430e+00 2.520645e+00 4.630578e+00 3.193902e+00 5.472491e+00 6.286178e+00 6.875777e+00 3.946146e+00 5.643547e+00 4.123443e+00 3.534082e+00 1.108323e+00 8.506993e-01 2.853083e-01 4.288825e-01 7.902000e-01 6.498614e-01 8.952226e-01 1.404392e+00 8.498748e-01 1.353471e+00 8.122804e-01 8.742944e-01 1.098481e+00 1.948102e-01
<GCONST> 1.345800e+02
<STATE> 3
<MEAN> 39
 -2.083057e+00 -2.761142e-01 -2.345067e+00 -8.358754e+00 -1.154715e+01 -7.744910e+00 -1.736650e+01 -1.290971e+01 -4.559489e+00 2.743114e+00 4.430464e+00 -6.601237e+00 7.120308e+01 7.555688e-01 3.092490e-01 -7.089428e-01 -1.745392e-01 8.453740e-01 1.209043e+00 1.088416e+00 -7.596684e-01 -1.067893e-01 2.159976e-01 -3.599279e-01 1.001990e-01 -9.971977e-01 -1.834244e-01 1.609816e-01 4.386285e-01 1.108008e+00 2.325063e-01 -8.575107e-02 4.814907e-01 2.848939e-01 -2.365867e-01 -5.084231e-01 -4.089165e-01 1.660679e-01 -6.574769e-01
<VARIANCE> 39
 1.698215e+01 3.741131e+01 6.006891e+01 3.426641e+01 2.608809e+01 3.852777e+01 3.189720e+01 1.303350e+02 2.813989e+01 3.728436e+01 6.996345e+01 2.722054e+01 5.562648e+01 4.569703e-01 1.153711e+00 2.371716e+00 3.679293e+00 2.996813e+00 3.739372e+00 3.313484e+00 4.341706e+00 7.941288e+00 2.213656e+00 4.857775e+00 3.280722e+00 1.899160e+00 2.249867e-01 4.505581e-01 4.033251e-01 5.931181e-01 7.861615e-01 7.274719e-01 7.587498e-01 1.189901e+00 5.216921e-01 5.383315e-01 5.769998e-01 5.840812e-01 2.019605e-01
<GCONST> 1.240809e+02
<STATE> 4
<MEAN> 39
 -1.015093e+00 3.373517e+00 -2.259243e+00 -4.709970e+00 -7.780026e+00 -4.444241e+00 -1.262540e+01 -1.233445e+01 -8.406739e+00 2.593530e-01 3.319714e+00 -5.889795e+00 6.355367e+01 -4.366034e-02 5.771081e-01 3.761876e-01 2.097628e+00 8.325895e-01 -3.968948e-01 1.642194e+00 8.315361e-01 -5.929563e-01 -7.970871e-01 -1.172562e+00 -1.278030e-01 -1.982423e+00 -3.200408e-01 -3.059146e-01 3.444322e-01 1.443182e-01 -3.823953e-01 -3.990566e-01 -1.619197e-01 5.513797e-02 2.462723e-01 4.692393e-02 -1.768801e-01 -6.099840e-02 3.269781e-01
<VARIANCE> 39
 1.667542e+01 2.734177e+01 3.694315e+01 7.097765e+01 3.378993e+01 5.002919e+01 3.414843e+01 4.955111e+01 8.174841e+01 4.639953e+01 8.077190e+01 2.799881e+01 9.535288e+01 1.500515e+00 2.747652e+00 3.306796e+00 4.519975e+00 7.243805e+00 3.955190e+00 4.240522e+00 5.998388e+00 6.122706e+00 3.068643e+00 5.586304e+00 4.359246e+00 3.489208e+00 2.624617e-01 4.321297e-01 3.763208e-01 1.329078e+00 1.035742e+00 7.332613e-01 4.983808e-01 8.476249e-01 9.356036e-01 5.733827e-01 8.339630e-01 7.183486e-01 7.150120e-01
<GCONST> 1.336711e+02
<TRANSP> 5
 0.000000e+00 1.000000e+00 0.000000e+00 0.000000e+00 0.000000e+00
 0.000000e+00 6.251606e-01 3.748394e-01 0.000000e+00 0.000000e+00
 0.000000e+00 0.000000e+00 4.799069e-01 5.200931e-01 0.000000e+00
 0.000000e+00 0.000000e+00 0.000000e+00 6.247935e-01 3.752065e-01
 0.000000e+00 0.000000e+00 0.000000e+00 0.000000e+00 0.000000e+00
<ENDHMM>
~h "w"
<BEGINHMM>
<NUMSTATES> 5
<STATE> 2
<MEAN> 39
 1.294307e+00 3.928496e+00 -4.638540e+00 -1.776800e+01 -1.058651e+01 -5.900424e+00 -6.769068e+00 -1.138104e+00 -1.016952e+01 2.271562e-02 1.457360e+00 -4.986769e+00 6.346053e+01 1.253150e+00 6.187851e-01 -2.416518e-01 -8.764700e-01 4.028857e-02 3.873860e-01 2.205953e-01 -9.010462e-01 -1.209653e+00 -3.392903e-01 8.759118e-01 5.010403e-01 1.723849e-01 -1.995078e-01 -4.752457e-01 -1.233494e-01 -3.758563e-02 -2.046903e-02 7.447090e-02 3.213459e-01 2.036535e-02 9.807525e-03 -3.942256e-02 1.426782e-01 1.505157e-01 4.119731e-01
<VARIANCE> 39
 2.840000e+01 6.283181e+01 2.584120e+01 9.575010e+01 5.625112e+01 3.279196e+01 4.592856e+01 4.434913e+01 8.442225e+01 6.117784e+01 7.970704e+01 6.026228e+01 9.035307e+01 3.167477e+00 2.246875e+00 1.125782e+00 1.971541e+00 1.558494e+00 3.673851e+00 2.742676e+00 2.512082e+00 5.593250e+00 2.330239e+00 4.557685e+00 3.320357e+00 3.099514e+00 2.194468e-01 2.915208e-01 3.515573e-01 1.876064e-01 2.992793e-01 3.350639e-01 4.627064e-01 5.792285e-01 5.879856e-01 8.368985e-01 8.174756e-01 5.702620e-01 2.455691e-01
<GCONST> 1.245367e+02
<STATE> 3
<MEAN> 39
 2.960901e+00 2.728241e+00 -5.716216e+00 -1.539074e+01 -8.926576e+00 -4.327914e+00 -6.518364e+00 -4.932766e+00 -1.243338e+01 -3.705183e+00 7.238668e+00 -4.395442e+00 6.406421e+01 -1.884505e-01 -1.003776e+00 -3.073063e-01 6.948198e-02 1.241554e-01 -1.184821e-01 1.208677e-01 -5.891733e-01 5.510373e-02 3.973376e-01 5.235531e-01 -5.621578e-01 1.375034e+00 -5.503502e-01 -4.787528e-01 1.476087e-01 3.941919e-01 9.819023e-02 -2.694024e-01 9.824201e-02 1.998662e-01 5.835242e-01 3.058148e-01 -3.944719e-01 -4.986331e-01 1.919187e-01
<VARIANCE> 39
 1.333864e+01 4.437561e+01 4.531680e+01 9.901930e+01 2.797791e+01 3.626598e+01 9.427558e+01 6.550372e+01 4.839162e+01 4.465928e+01 1.183953e+02 3.886140e+01 5.806704e+01 1.512865e+00 2.938558e+00 3.511286e+00 1.925110e+00 3.105011e+00 2.964455e+00 4.856018e+00 3.037866e+00 4.780512e+00 4.751893e+00 4.539546e+00 3.941087e+00 2.601659e+00 2.619076e-01 2.705631e-01 3.560351e-01 2.825204e-01 5.411116e-01 4.854383e-01 6.720296e-01 5.726981e-01 6.758295e-01 4.975035e-01 1.066384e+00 7.862850e-01 2.849721e-01
<GCONST> 1.278148e+02
<STATE> 4
<MEAN> 39
 -9.822837e-01 -5.064250e+00 -8.738157e+00 -1.659300e+01 -6.885817e+00 -4.185389e+00 -3.350537e+00 -5.849433e+00 -6.260413e+00 2.333485e+00 4.431704e+00 -1.088296e+01 7.223599e+01 -1.202475e+00 -1.736057e+00 1.898899e-02 1.293499e+00 9.391232e-01 -9.425653e-01 3.206637e-01 2.488948e-01 1.433369e+00 6.090777e-01 -1.702586e+00 -2.558471e+00 1.489062e+00 2.941324e-02 3.535046e-01 3.174006e-01 7.862297e-02 -3.302822e-01 -1.860471e-01 -8.725899e-02 4.511763e-01 -1.155789e-01 -5.485865e-01 -5.107122e-01 3.184177e-01 -3.398511e-01
<VARIANCE> 39
 1.880041e+01 4.103819e+01 7.732882e+01 9.005251e+01 1.992389e+01 4.039688e+01 8.506167e+01 6.075795e+01 5.853905e+01 6.276735e+01 8.511290e+01 7.281729e+01 6.751768e+01 3.656075e-01 1.150557e+00 2.878845e+00 1.758285e+00 5.037319e+00 3.775337e+00 2.492123e+00 2.154363e+00 2.361862e+00 3.218585e+00 3.426084e+00 3.043003e+00 5.967517e-01 1.077496e-01 1.465597e-01 2.833149e-01 3.282529e-01 3.041935e-01 4.150088e-01 6.727421e-01 5.416679e-01 2.987660e-01 5.812480e-01 5.106215e-01 6.433351e-01 5.633631e-02
<GCONST> 1.174638e+02
<TRANSP> 5
 0.000000e+00 1.000000e+00 0.000000e+00 0.000000e+00 0.000000e+00
 0.000000e+00 5.931316e-01 4.068684e-01 0.000000e+00 0.000000e+00
 0.000000e+00 0.000000e+00 7.340009e-01 2.659990e-01 0.000000e+00
 0.000000e+00 0.000000e+00 0.000000e+00 5.965502e-01 4.034499e-01
 0.000000e+00 0.000000e+00 0.000000e+00 0.000000e+00 0.000000e+00
<ENDHMM>
~h "#N"
<BEGINHMM>
<NUMSTATES> 5
<STATE> 2
<MEAN> 39
 -2.005681e+01 3.381644e-01 -2.783715e+00 -1.002618e+00 -8.551803e-02 -2.383862e+00 2.234422e+00 -2.164606e-01 -1.200063e+00 1.455708e+00 -8.658093e-01 1.644481e+00 4.310998e+01 -2.921018e-01 1.116404e-01 5.063878e-01 -1.661041e-01 1.952574e-01 2.279152e-01 2.458837e-01 4.214810e-01 6.234007e-04 1.673415e-01 2.028543e-01 -1.672355e-01 1.430062e-01 2.018114e-02 -6.860918e-03 1.041743e-02 1.341813e-01 1.755980e-01 2.736545e-01 -2.282994e-01 1.410925e-01 1.472475e-01 -2.526549e-02 1.105892e-01 -1.831857e-02 -1.574534e-01
<VARIANCE> 39
 1.102729e+01 4.530673e+00 1.153143e+01 2.014522e+00 1.334554e+01 2.826995e+01 2.600884e+01 2.246284e+01 1.938945e+01 3.844257e+01 2.279236e+01 1.401431e+01 1.132558e+01 8.881171e-01 8.905063e-01 1.631606e+00 5.229167e-01 2.667232e+00 3.183686e+00 2.116291e+00 2.426391e+00 2.186880e+00 2.489928e+00 1.088611e+00 1.162095e+00 9.786650e-01 9.936338e-02 1.482870e-01 3.835133e-01 1.120219e-01 4.409081e-01 5.958796e-01 3.844438e-01 4.609177e-01 4.278986e-01 8.491240e-01 1.502487e-01 2.250288e-01 3.075176e-01
<GCONST> 9.512392e+01
<STATE> 3
<MEAN> 39
 -1.985184e+01 1.201721e+00 -1.418248e+00 -2.497389e-01 1.490772e+00 -3.695695e-01 1.096170e+00 1.144577e+00 -1.544284e+00 1.525258e+00 -1.158831e+00 -2.632416e-01 4.231147e+01 2.296518e-01 4.989923e-01 -2.900364e-01 1.039927e-01 1.970809e-01 2.432049e-02 -2.464698e-01 4.979463e-02 -6.181876e-01 -1.877142e-01 2.429347e-01 -8.306762e-03 1.867516e-01 2.426315e-01 -8.091684e-02 -1.385189e-01 1.122814e-02 -2.602325e-01 -1.690911e-01 2.449961e-02 -3.058546e-01 -2.129197e-01 -2.535360e-01 -1.922237e-01 1.461100e-01 9.314534e-02
<VARIANCE> 39
 1.076213e+01 1.099293e+01 1.225924e+01 1.009104e+01 2.844325e+01 2.198822e+01 1.088097e+01 1.270686e+01 2.937145e+01 1.723990e+01 9.847152e+00 1.226278e+01 7.853950e+00 1.128438e+00 5.311925e-01 5.510854e-01 1.042530e+00 1.772191e+00 1.236391e+00 1.009898e+00 1.161506e+00 1.096895e+00 4.355357e+00 9.874723e-01 1.012485e+00 1.021686e+00 3.548721e-01 2.145072e-01 4.182923e-01 3.008873e-01 4.783145e-01 4.446231e-01 1.429924e-01 1.894547e-01 1.761903e-01 6.391094e-01 1.688870e-01 2.912764e-01 3.173639e-01
<GCONST> 9.103297e+01
<STATE> 4
<MEAN> 39
 -1.630574e+01 2.792835e+00 -1.376415e+00 3.122313e-01 1.143060e+00 -6.045215e-01 -2.829922e-01 -3.333752e-01 -4.578218e+00 -2.300351e+00 -2.343869e+00 -1.091775e-01 4.282214e+01 1.140785e+00 -2.216100e-01 -7.792703e-02 2.984922e-01 -5.755041e-01 -5.306661e-01 -1.592137e-01 -5.913903e-01 -2.264731e-01 -3.261516e-01 -1.091434e-01 6.539363e-01 7.542486e-02 -1.199446e-01 -1.247570e-01 1.600257e-01 1.027467e-01 2.771752e-02 -1.999806e-01 3.023739e-01 2.292718e-01 2.589523e-01 5.049542e-01 2.125358e-01 1.359432e-01 1.287724e-01
<VARIANCE> 39
 1.463440e+01 1.215428e+01 2.306565e+01 2.604050e+01 1.468260e+01 6.517413e+00 3.156682e+01 4.412122e+01 2.648312e+01 2.166549e+01 9.809596e+00 1.089371e+01 7.899096e+00 1.898983e+00 1.482593e+00 2.884810e+00 3.217398e+00 6.103432e-01 2.537448e+00 2.197790e+00 2.387014e+00 1.560531e+00 3.291228e+00 2.548527e+00 1.508142e+00 2.204295e+00 2.067398e-01 1.966531e-01 1.937674e-01 3.385063e-01 1.248302e-01 2.420131e-01 3.944242e-01 4.790098e-01 3.697190e-01 6.950773e-02 1.854418e-01 2.369586e-01 3.267027e-01
<GCONST> 9.828034e+01
<TRANSP> 5
 0.000000e+00 1.000000e+00 0.000000e+00 0.000000e+00 0.000000e+00
 0.000000e+00 7.345615e-01 2.654386e-01 0.000000e+00 0.000000e+00
 0.000000e+00 0.000000e+00 6.373123e-01 3.626877e-01 0.000000e+00
 0.000000e+00 0.000000e+00 0.000000e+00 5.930716e-01 4.069284e-01
 0.000000e+00 0.000000e+00 0.000000e+00 0.000000e+00 0.000000e+00
<ENDHMM>
~h "ai"
<BEGINHMM>
<NUMSTATES> 5
<STATE> 2
<MEAN> 39
 -4.423013e+00 -9.496341e+00 -5.750209e+00 -8.873579e+00 -1.785332e+00 -8.183260e+00 3.308270e-01 1.318823e+00 -1.101189e+00 -9.950692e+00 -3.972904e+00 -1.119266e+01 7.276064e+01 -1.099730e-01 8.583478e-02 2.703030e-01 1.832582e-02 -1.003923e+00 -9.827951e-01 3.088638e-01 4.667166e-01 3.448594e-01 -2.274933e-01 3.681311e-01 4.564250e-01 4.250247e-01 -2.385042e-01 2.374678e-01 2.006661e-01 1.900177e-01 -1.492448e-02 2.205079e-02 1.473661e-01 -4.183854e-02 -1.766731e-01 1.137279e-01 2.878453e-02 2.838659e-01 -4.741654e-01
<VARIANCE> 39
 2.227005e+01 1.266377e+01 2.441486e+01 1.256083e+01 3.060268e+01 5.030611e+01 2.903428e+01 3.280754e+01 3.151632e+01 2.587574e+01 1.635108e+01 3.276824e+01 6.140131e+00 5.931592e-01 1.473163e+00 1.535003e+00 1.175273e+00 1.439099e+00 1.252053e+00 7.456246e-01 7.322925e-01 1.608990e+00 1.159806e+00 2.246397e+00 2.637255e+00 1.813424e+00 2.457997e-01 1.204429e-01 1.664556e-01 1.706054e-01 2.466389e-01 1.754905e-01 1.076113e-01 1.708150e-01 2.424583e-01 2.909394e-01 1.550028e-01 5.117666e-01 1.437679e-01
<GCONST> 9.413977e+01
<STATE> 3
<MEAN> 39
 -6.641820e+00 -7.280568e-01 4.644339e+00 -6.708636e+00 -1.404563e+01 -1.658217e+01 2.860254e+00 1.462336e+00 -7.441830e+00 -2.998655e+00 1.635327e+00 -3.114568e+00 6.813755e+01 -1.944755e-01 1.467281e+00 1.467824e+00 6.487229e-02 -1.001430e+00 1.830827e-01 -5.275305e-01 -8.448134e-01 -1.217944e+00 1.223061e+00 6.313029e-01 4.948216e-01 -1.087193e+00 -2.900166e-02 1.350460e-01 -1.694652e-01 7.533278e-03 4.226905e-01 2.788614e-01 -1.418256e-01 -1.979472e-01 6.859743e-02 1.198714e-02 -3.740776e-01 1.876778e-02 -1.537587e-01
<VARIANCE> 39
 2.438319e+01 2.303338e+01 4.549665e+01 1.624983e+01 3.300985e+01 7.484840e+01 6.240494e+01 6.480275e+01 5.899056e+01 5.282210e+01 3.559439e+01 3.074830e+01 1.420572e+01 3.976989e-01 5.561818e-01 1.024877e+00 1.017866e+00 2.291979e+00 1.644952e+00 1.380523e+00 2.043807e+00 1.462014e+00 1.913687e+00 1.777844e+00 1.798149e+00 2.758202e-01 8.606350e-02 8.834179e-02 1.395842e-01 2.167371e-01 2.024885e-01 1.294083e-01 1.980676e-01 3.815771e-01 2.959467e-01 3.016920e-01 3.175381e-01 2.982441e-01 2.564584e-02
<GCONST> 9.718987e+01
<STATE> 4
<MEAN> 39
 -9.798560e+00 9.334741e+00 1.077806e+01 -3.450341e+00 -9.637028e+00 -7.026284e+00 -6.659722e-01 -4.420191e+00 -1.228416e+01 2.027985e+00 -1.788289e+00 -5.849348e-01 5.824597e+01 -1.517053e+00 7.069499e-01 -1.131784e+00 1.027202e+00 1.738562e+00 1.010758e+00 9.253758e-01 -7.238594e-01 1.072385e+00 -6.619391e-01 -4.791194e-01 4.061644e-01 -1.385626e+00 -4.219777e-01 -4.048617e-01 -5.529343e-01 -8.141074e-02 2.059147e-01 2.161011e-02 2.167918e-01 3.792202e-01 2.595995e-01 -1.165550e-01 2.101401e-01 3.999403e-02 1.796249e-01
<VARIANCE> 39
 3.155234e+01 1.578177e+01 4.007928e+01 2.526225e+01 4.184057e+01 8.884618e+01 4.462785e+01 5.591247e+01 5.998939e+01 3.599181e+01 4.732717e+01 2.999867e+01 3.135573e+01 2.829430e+00 2.657054e+00 3.614132e+00 1.799788e+00 3.336666e+00 3.935526e+00 3.786743e+00 2.713969e+00 3.838846e+00 2.734489e+00 2.662513e+00 3.110817e+00 1.465790e+00 4.208513e-01 2.883475e-01 4.948647e-01 4.639094e-01 6.868942e-01 4.819435e-01 7.298891e-01 4.314582e-01 6.886359e-01 6.029682e-01 4.021532e-01 5.915542e-01 1.213808e-01
<GCONST> 1.226090e+02
<TRANSP> 5
 0.000000e+00 1.000000e+00 0.000000e+00 0.000000e+00 0.000000e+00
 0.000000e+00 7.917260e-01 2.082741e-01 0.000000e+00 0.000000e+00
 0.000000e+00 0.000000e+00 8.673771e-01 1.326229e-01 0.000000e+00
 0.000000e+00 0.000000e+00 0.000000e+00 8.305554e-01 1.694446e-01
 0.000000e+00 0.000000e+00 0.000000e+00 0.000000e+00 0.000000e+00
<ENDHMM>
~h "ng"
<BEGINHMM>
<NUMSTATES> 5
<STATE> 2
<MEAN> 39
 -1.976333e+00 1.538375e+00 1.088455e+00 -1.211203e+01 -1.714761e+01 -7.518533e-01 -5.515350e+00 -9.701921e+00 -6.248335e+00 3.218848e-01 -1.180770e+01 -7.885928e+00 6.451280e+01 -2.840198e-01 5.534519e-01 2.248288e+00 1.208870e+00 -6.375774e-01 -1.742637e-01 -2.040287e+00 -3.411097e-01 1.264940e+00 3.196759e-01 -1.387093e+00 -1.107119e-01 -8.884723e-01 1.352865e-01 -2.073509e-01 -6.200981e-01 -2.017794e-01 5.406246e-01 -1.954298e-01 2.105034e-01 2.362773e-01 -2.395652e-01 -4.147219e-01 1.281565e+00 9.516975e-02 3.091696e-01
<VARIANCE> 39
 5.669642e+00 2.160911e+01 2.930880e+01 1.841181e+01 3.180894e+01 2.364524e+01 3.587261e+01 3.982097e+01 4.674372e+01 3.297774e+01 6.154842e+01 5.320516e+01 7.453553e+01 1.814840e-01 5.491996e-01 2.087978e+00 1.647538e+00 1.070076e+00 1.577385e+00 1.787741e+00 2.753430e+00 2.827351e+00 1.917410e+00 6.818707e+00 2.825849e+00 9.804798e-01 4.392664e-02 7.966508e-02 2.488370e-01 3.800303e-01 1.543631e-01 3.910628e-01 4.876841e-01 2.319417e-01 3.642148e-01 4.146444e-01 8.177444e-01 5.830684e-01 4.464798e-02
<GCONST> 1.033451e+02
<STATE> 3
<MEAN> 39
 -4.494159e-01 -2.711931e-01 5.291594e+00 -9.301681e+00 -1.359854e+01 -2.991462e+00 -5.580397e+00 -8.786858e+00 -8.303223e+00 4.174659e+00 -4.695657e+00 -9.044612e+00 6.271165e+01 1.437540e-01 3.519482e-01 2.675655e-01 8.040404e-01 -2.937661e-01 -4.899597e-01 1.498982e-03 -4.719928e-01 -6.797956e-01 3.565238e-01 8.390103e-01 -7.266853e-02 -4.435996e-01 4.269891e-02 9.445681e-02 -2.072083e-01 2.034800e-02 1.003977e-01 8.712728e-02 2.950751e-01 -3.360949e-02 -4.411872e-01 -7.133542e-03 1.456317e-01 5.281704e-02 -9.251055e-02
<VARIANCE> 39
 6.927169e+00 1.857644e+01 9.244899e+00 3.559642e+01 1.894770e+01 1.942315e+01 2.255120e+01 1.125342e+01 7.944122e+01 5.490973e+01 7.170514e+01 3.684542e+01 5.988457e+01 8.801693e-02 1.617537e-01 2.263483e-01 2.816385e-01 6.792747e-01 5.701120e-01 5.245968e-01 6.410215e-01 8.845339e-01 5.971113e-01 5.077980e-01 9.716841e-01 7.343168e-02 1.984909e-02 5.119042e-02 1.844437e-01 1.189756e-01 1.270560e-01 9.821650e-02 1.189030e-01 2.027335e-01 2.307550e-01 2.000209e-01 4.508686e-01 1.358138e-01 8.077307e-02
<GCONST> 7.392361e+01
<STATE> 4
<MEAN> 39
 -1.161044e+00 3.077428e+00 5.296322e+00 -7.856259e+00 -1.598044e+01 -5.717999e+00 -5.938778e+00 -1.139211e+01 -1.026433e+01 3.070907e+00 -7.586482e+00 -5.801151e+00 6.237539e+01 -1.240727e-01 1.213362e+00 -5.107239e-01 8.418841e-01 1.113586e+00 3.002384e-01 7.263465e-01 -2.531188e-01 -1.700009e+00 -1.802305e-01 7.677812e-01 3.104800e-01 -1.122175e+00 -1.612611e-01 3.503960e-01 -9.323773e-01 -4.332960e-01 8.598516e-01 4.047666e-01 3.103923e-01 2.038609e-01 -9.613008e-02 -3.649493e-01 2.033651e-01 1.735075e-01 8.914671e-03
<VARIANCE> 39
 7.668783e+00 8.810704e+00 2.138606e+01 3.540705e+01 8.252875e+00 2.538817e+01 3.370229e+01 1.245597e+01 7.263463e+01 4.301201e+01 1.252681e+02 4.002455e+01 8.271538e+01 2.923573e-01 7.932547e-01 4.328836e+00 7.107509e-01 2.658123e+00 1.187246e+00 7.059410e-01 8.162151e-01 1.431586e+00 2.459755e+00 2.946524e+00 7.883473e-01 4.115665e-01 7.787009e-02 5.964446e-02 1.048050e+00 3.040907e-01 2.882933e-01 1.290033e-01 1.856732e-01 5.915521e-01 5.939545e-01 3.440061e-01 7.167471e-01 3.301671e-01 3.480399e-01
<GCONST> 1.002605e+02
<TRANSP> 5
 0.000000e+00 1.000000e+00 0.000000e+00 0.000000e+00 0.000000e+00
 0.000000e+00 5.865832e-01 4.134169e-01 0.000000e+00 0.000000e+00
 0.000000e+00 0.000000e+00 7.209114e-01 2.790885e-01 0.000000e+00
 0.000000e+00 0.000000e+00 0.000000e+00 3.095644e-01 6.904356e-01
 0.000000e+00 0.000000e+00 0.000000e+00 0.000000e+00 0.000000e+00
<ENDHMM>
~h "ny"
<BEGINHMM>
<NUMSTATES> 5
<STATE> 2
<MEAN> 39
 -5.934697e+00 1.821244e+00 6.597905e+00 -8.385603e+00 -1.267760e+01 -9.897516e+00 -1.065136e+01 -4.472202e+00 -7.016855e+00 -1.407104e+00 -4.415449e+00 -5.318311e+00 6.861697e+01 -1.198538e+00 -1.185649e-01 3.668111e-01 -1.751073e+00 -1.502454e+00 -3.016436e-01 9.002664e-01 1.081390e+00 1.859933e-01 6.457208e-01 1.002647e+00 -5.240090e-01 1.417715e+00 7.889524e-02 -3.407881e-01 -3.036367e-01 6.679769e-02 -3.910704e-01 1.681734e-02 5.225745e-02 4.428254e-01 -6.711382e-02 -1.622273e-01 -5.830203e-02 -2.298508e-01 2.195176e-01
<VARIANCE> 39
 2.773620e+01 4.041838e+01 2.934285e+01 2.427736e+01 6.296950e+01 3.080731e+01 2.213808e+01 6.626823e+01 3.146779e+01 4.534030e+01 5.875395e+01 1.559645e+01 1.001956e+02 9.296213e-01 1.231810e+00 2.007465e+00 2.443511e+00 4.563598e+00 3.482645e+00 1.588551e+00 1.492104e+00 1.110024e+00 2.070708e+00 1.946004e+00 2.184666e+00 8.366105e-01 1.664125e-01 3.045407e-01 2.336092e-01 3.570636e-01 7.091058e-01 1.788323e-01 1.640873e-01 4.746129e-01 2.696507e-01 4.407463e-01 4.379321e-01 5.149598e-01 1.073271e-01
<GCONST> 1.103408e+02
<STATE> 3
<MEAN> 39
 -8.795357e+00 1.508247e+00 5.150259e+00 -1.097236e+01 -1.638153e+01 -1.136943e+01 -8.945472e+00 -8.591864e-01 -7.305491e+00 -1.188739e+00 -2.714108e+00 -6.421356e+00 7.144197e+01 -6.941544e-01 -1.370816e+00 -6.005277e-01 -1.189309e+00 -9.539187e-01 -2.192264e-02 8.095291e-01 2.443529e+00 3.059685e-01 -6.989197e-01 6.040299e-01 1.340760e-01 1.769039e+00 5.180819e-01 -4.847196e-01 -4.923925e-01 4.190973e-01 5.777400e-01 1.958898e-01 1.303797e-01 1.662609e-01 -6.145706e-02 -4.889266e-01 -3.841354e-01 2.132846e-01 -1.199061e-01
<VARIANCE> 39
 2.097389e+01 1.957253e+01 4.175201e+01 8.938516e+00 8.220480e+01 6.774291e+01 3.117734e+01 6.906330e+01 2.074290e+01 2.824228e+01 1.022414e+02 4.637949e+01 1.152957e+02 6.780324e-01 1.195951e+00 2.562299e+00 1.309499e+00 4.282073e+00 3.815529e+00 1.795833e+00 3.178534e+00 1.754229e+00 3.465749e+00 2.994326e+00 2.595655e+00 7.654109e-01 6.696776e-02 1.305803e-01 3.025264e-01 2.638015e-01 1.321709e+00 2.918738e-01 1.197762e-01 4.200327e-01 1.592940e-01 4.179079e-01 1.758272e-01 6.804200e-01 5.108235e-02
<GCONST> 1.096090e+02
<STATE> 4
<MEAN> 39
 -6.939145e+00 -2.096505e+00 4.620116e+00 -1.185560e+01 -1.545121e+01 -7.794040e+00 -8.466743e+00 5.596263e+00 -8.001260e+00 -2.887945e+00 -1.606816e+00 -3.781905e+00 7.199863e+01 2.951013e-01 -1.647419e+00 -9.884475e-01 -3.202215e-01 -7.955816e-02 -6.608723e-02 9.114718e-01 1.758206e+00 1.699131e-02 -9.362072e-01 -1.769320e-01 2.142784e-01 1.069109e+00 2.457597e-01 2.190306e-02 -4.084114e-01 3.808450e-01 4.843404e-01 -2.650365e-01 3.255105e-02 -4.591086e-01 -3.097842e-02 -6.793005e-02 -3.778198e-01 -2.553363e-01 -2.863011e-01
<VARIANCE> 39
 2.377161e+01 2.836725e+01 5.465030e+01 2.373139e+00 5.587348e+01 7.142141e+01 4.326534e+01 1.031780e+02 2.207615e+01 3.797166e+01 1.306110e+02 3.494754e+01 9.487699e+01 2.587532e-01 1.475233e+00 1.480062e+00 9.913030e-01 5.645149e+00 2.454799e+00 7.832116e-01 2.403838e+00 1.705516e+00 3.978632e+00 3.179676e+00 3.317743e+00 1.144829e+00 8.714574e-02 1.072382e-01 4.172550e-01 3.622122e-01 5.955979e-01 3.459692e-01 2.346331e-01 3.949731e-01 2.065449e-01 4.638198e-01 5.022264e-01 3.142944e-01 1.537463e-02
<GCONST> 1.076622e+02
<TRANSP> 5
 0.000000e+00 1.000000e+00 0.000000e+00 0.000000e+00 0.000000e+00
 0.000000e+00 2.499928e-01 7.500073e-01 0.000000e+00 0.000000e+00
 0.000000e+00 0.000000e+00 3.094340e-01 6.905661e-01 0.000000e+00
 0.000000e+00 0.000000e+00 0.000000e+00 2.496807e-01 7.503192e-01
 0.000000e+00 0.000000e+00 0.000000e+00 0.000000e+00 0.000000e+00
<ENDHMM>
~h "sil"
<BEGINHMM>
<NUMSTATES> 5
<STATE> 2
<MEAN> 39
 -1.599026e+01 -7.415882e-01 -3.232528e+00 -8.009217e-01 4.738959e-01 -3.113277e-01 -1.367908e+00 -6.697330e-01 -1.055617e+00 -6.687528e-01 -6.431001e-01 1.310621e+00 4.236736e+01 -2.579657e-01 -1.812014e-01 -1.311060e-01 2.447672e-02 7.522491e-02 3.063551e-02 8.840920e-02 1.482067e-01 1.308942e-01 3.193087e-02 2.009935e-01 1.560743e-01 -3.201136e-01 1.167226e-01 5.222515e-02 3.686557e-02 -6.037205e-02 -8.202416e-02 -6.742058e-02 -5.425696e-02 -5.053836e-02 -1.866251e-02 3.066217e-02 -3.428731e-02 -5.666875e-02 1.164550e-01
<VARIANCE> 39
 1.628406e+01 1.794847e+01 2.280950e+01 1.767338e+01 1.812492e+01 2.302354e+01 2.807702e+01 2.237866e+01 2.834752e+01 2.401810e+01 2.271399e+01 1.793149e+01 3.727821e+01 1.035705e+00 1.221809e+00 1.554167e+00 1.572392e+00 1.842664e+00 1.837941e+00 1.911394e+00 2.129876e+00 2.237532e+00 2.139374e+00 2.149729e+00 1.854029e+00 1.110101e+00 1.986387e-01 1.840578e-01 2.652350e-01 3.044480e-01 3.367092e-01 3.513468e-01 3.655903e-01 4.164785e-01 4.578237e-01 4.479778e-01 4.068776e-01 3.534401e-01 2.039432e-01
<GCONST> 1.038327e+02
<STATE> 3
<MEAN> 39
 -1.775710e+01 -6.110829e-01 -2.819723e+00 -2.049303e-01 -5.025155e-02 -4.628578e-01 -7.024798e-01 2.331849e-01 -6.454491e-01 -1.199717e-01 7.215143e-01 2.040661e+00 4.142533e+01 -2.927382e-02 -1.131092e-02 -2.132597e-02 -9.603902e-04 1.131402e-02 4.023158e-03 -6.335220e-03 6.102321e-03 1.930588e-02 3.013567e-02 1.048782e-02 -8.388996e-03 -2.889172e-02 1.102437e-02 1.240978e-02 5.908075e-03 -3.894805e-03 3.334655e-03 2.066609e-03 1.228228e-03 -1.487684e-02 -2.851117e-02 -4.057593e-03 -1.174905e-02 -1.369007e-02 1.416961e-02
<VARIANCE> 39
 4.900177e+00 6.580869e+00 7.436713e+00 8.992057e+00 1.206964e+01 1.558086e+01 1.304332e+01 1.469133e+01 1.501158e+01 1.595119e+01 1.417301e+01 1.193508e+01 3.869337e+01 1.390216e-01 2.455028e-01 4.139056e-01 6.029723e-01 8.092577e-01 9.459918e-01 1.016841e+00 1.202977e+00 1.348508e+00 1.321681e+00 1.247074e+00 1.064459e+00 7.605789e-02 3.315302e-02 5.002358e-02 9.043597e-02 1.249983e-01 1.654948e-01 1.965781e-01 2.040022e-01 2.378538e-01 2.839532e-01 2.644925e-01 2.597706e-01 2.259987e-01 1.446110e-02
<GCONST> 7.056817e+01
<STATE> 4
<MEAN> 39
 -1.550240e+01 1.038716e-01 -2.805200e+00 -1.038010e+00 -7.803480e-01 -2.045502e+00 -7.973334e-01 -1.071885e+00 -1.913143e+00 -1.510257e+00 -4.344479e-01 -5.704803e-01 4.454807e+01 6.976510e-01 3.898295e-01 3.586424e-01 -1.492837e-01 -1.616337e-01 -2.408446e-01 -2.260825e-01 -4.501013e-01 -4.794806e-01 -1.526879e-01 -2.506854e-01 -4.846235e-01 7.676408e-01 1.910426e-01 4.760487e-02 1.043973e-01 -1.215779e-01 -1.145358e-01 -9.585322e-02 -1.205248e-01 -4.191278e-02 -7.362987e-02 -2.732364e-02 -2.328715e-02 -5.924970e-02 3.317067e-01
<VARIANCE> 39
 3.065791e+01 2.887950e+01 2.409687e+01 2.027764e+01 3.673466e+01 4.266407e+01 2.934917e+01 3.542183e+01 3.254236e+01 3.730025e+01 2.562884e+01 3.140008e+01 7.447919e+01 3.208480e+00 2.688984e+00 2.501242e+00 2.142403e+00 2.846230e+00 3.480294e+00 3.127660e+00 3.376993e+00 3.629076e+00 2.839917e+00 2.498621e+00 2.237037e+00 3.652847e+00 4.778931e-01 3.832346e-01 3.600422e-01 3.566329e-01 4.440598e-01 5.561876e-01 5.507565e-01 5.291871e-01 6.574388e-01 4.675651e-01 4.694737e-01 3.673357e-01 4.805486e-01
<GCONST> 1.208428e+02
<TRANSP> 5
 0.000000e+00 1.000000e+00 0.000000e+00 0.000000e+00 0.000000e+00
 0.000000e+00 8.886866e-01 1.113135e-01 0.000000e+00 0.000000e+00
 0.000000e+00 0.000000e+00 9.500418e-01 4.995825e-02 0.000000e+00
 0.000000e+00 0.000000e+00 0.000000e+00 8.469104e-01 1.530896e-01
 0.000000e+00 0.000000e+00 0.000000e+00 0.000000e+00 0.000000e+00
<ENDHMM>
