~o
<STREAMINFO> 1 39
<VECSIZE> 39<NULLD><MFCC_D_A_0><DIAGC>
~h "a"
<BEGINHMM>
<NUMSTATES> 5
<STATE> 2
<MEAN> 39
 1.005089e+01 -1.362331e+01 -1.132783e+00 -1.289006e+01 -1.538816e+01 7.910495e+00 -1.190913e+01 2.221776e+00 7.845247e+00 -5.485013e+00 1.055605e+00 -7.002424e+00 5.231287e+01 1.606057e+00 -2.791739e+00 -1.029919e+00 -1.030924e+00 -1.443528e-02 1.060046e+00 -8.878511e-01 1.412874e+00 1.659058e+00 -1.061293e+00 -1.008274e+00 -1.035606e+00 2.400309e+00 -8.603738e-01 4.842781e-01 4.806108e-01 8.853841e-01 6.167372e-01 -2.240475e-01 2.773243e-01 -1.449417e-02 -3.880511e-01 -1.503618e-01 -1.684157e-01 2.329904e-01 -8.264793e-01
<VARIANCE> 39
 1.187281e+01 5.064351e+01 9.394189e+01 2.764567e+01 1.517141e+02 6.407121e+01 2.608774e+01 2.294838e+01 2.670660e+01 4.118618e+01 2.182571e+01 2.110079e+01 1.872372e+01 3.378589e+00 2.846800e+00 4.022116e+00 3.056272e+00 3.641974e+00 2.712412e+00 3.298362e+00 2.429036e+00 2.239705e+00 2.791254e+00 1.726225e+00 1.901122e+00 3.287535e+00 3.723980e-01 7.479153e-01 9.067447e-01 4.902079e-01 9.689271e-01 7.896562e-01 5.274311e-01 5.310566e-01 4.373733e-01 7.461051e-01 3.984952e-01 4.114966e-01 3.490720e-01
<GCONST> 1.233259e+02
<STATE> 3
<MEAN> 39
 1.114845e+01 -1.807531e+01 -3.981439e+00 -1.349514e+01 -1.239275e+01 9.577213e+00 -1.145657e+01 7.805327e+00 1.090178e+01 -9.552601e+00 -3.505090e+00 -8.858166e+00 5.511255e+01 -4.419152e-02 2.426969e-01 -9.169173e-03 2.318868e-02 9.377681e-02 9.484600e-02 2.263136e-01 2.178521e-01 -6.867097e-02 -1.444295e-01 -4.339915e-02 4.539139e-02 -1.978615e-01 -1.378873e-01 4.211083e-01 1.440014e-01 1.187054e-01 -6.653727e-02 -1.671642e-01 1.493458e-01 -1.668989e-01 -2.188438e-01 2.007717e-01 2.245488e-01 1.442867e-01 -2.958329e-01
<VARIANCE> 39
 4.513592e+00 1.732820e+01 1.347868e+01 1.473895e+01 3.663514e+01 2.732845e+01 2.237694e+01 2.263375e+01 1.704882e+01 1.838818e+01 9.680840e+00 9.628683e+00 1.050892e+01 2.076473e-01 1.313166e+00 8.666109e-01 7.042791e-01 1.276815e+00 1.263335e+00 8.039209e-01 8.757151e-01 9.155027e-01 1.267529e+00 1.087187e+00 1.014294e+00 3.833536e-01 6.357906e-02 2.254238e-01 1.258135e-01 1.525149e-01 1.165124e-01 1.745054e-01 1.443079e-01 1.572685e-01 2.237169e-01 1.782597e-01 1.365558e-01 1.775004e-01 1.007529e-01
<GCONST> 7.960464e+01
<STATE> 4
<MEAN> 39
 6.561352e+00 -9.077650e+00 -2.403074e-01 -7.549233e+00 -9.772765e+00 7.834968e+00 -7.664192e+00 5.288729e+00 5.417622e+00 -7.487462e+00 -2.857760e-01 -5.579770e+00 4.715017e+01 -1.516569e+00 1.966063e+00 1.180705e+00 1.878176e+00 1.003302e+00 -5.472958e-01 8.091568e-01 -9.061370e-01 -1.524922e+00 4.581075e-01 6.126547e-01 7.319701e-01 -1.884671e+00 -2.975340e-01 -7.418171e-02 -4.255492e-02 1.367829e-01 2.711893e-01 9.145118e-02 5.597438e-02 -8.720047e-02 -9.650341e-02 -6.179959e-02 -4.010664e-02 2.614289e-02 -1.650096e-01
<VARIANCE> 39
 2.285696e+01 3.882143e+01 2.353853e+01 3.947657e+01 4.055170e+01 2.516576e+01 6.927303e+01 3.985069e+01 3.038610e+01 1.909423e+01 1.655812e+01 1.886127e+01 2.841497e+01 9.274921e-01 2.569715e+00 1.324304e+00 1.445270e+00 1.710250e+00 2.083127e+00 2.369311e+00 2.183764e+00 2.183040e+00 1.561447e+00 9.363507e-01 1.603601e+00 1.025328e+00 1.059265e-01 4.125068e-01 3.010738e-01 3.737829e-01 3.198328e-01 2.736989e-01 4.388698e-01 4.230918e-01 4.164551e-01 3.275971e-01 2.045963e-01 3.286628e-01 1.506807e-01
<GCONST> 1.056766e+02
<TRANSP> 5
 0.000000e+00 1.000000e+00 0.000000e+00 0.000000e+00 0.000000e+00
 0.000000e+00 6.890131e-01 3.109870e-01 0.000000e+00 0.000000e+00
 0.000000e+00 0.000000e+00 8.546185e-01 1.453815e-01 0.000000e+00
 0.000000e+00 0.000000e+00 0.000000e+00 7.694958e-01 2.305042e-01
 0.000000e+00 0.000000e+00 0.000000e+00 0.000000e+00 0.000000e+00
<ENDHMM>
