~o
<STREAMINFO> 1 39
<VECSIZE> 39<NULLD><MFCC_D_A_0><DIAGC>
~h "au"
<BEGINHMM>
<NUMSTATES> 5
<STATE> 2
<MEAN> 39
 6.802981e+00 -7.286605e-01 8.079830e+00 -1.214457e+01 -2.654309e+01 -6.462630e+00 -1.256690e+01 5.884342e+00 1.105050e+01 -1.648566e+00 3.981776e+00 -8.139529e-01 4.535109e+01 1.535386e+00 -1.855645e+00 -2.523541e+00 -2.041323e+00 -5.083005e-01 1.060241e+00 1.903478e+00 2.957299e+00 1.307530e+00 -3.935645e-01 -4.651756e-01 -7.991840e-01 1.657692e+00 -5.551769e-01 -4.657377e-01 -9.841857e-01 7.471217e-01 2.301208e+00 1.391519e+00 5.386197e-01 -4.361035e-01 -8.711862e-01 -1.592300e-01 -1.165274e-01 -5.990192e-01 -3.756151e-01
<VARIANCE> 39
 2.354189e+00 4.069641e+00 2.239804e+01 9.348725e+00 1.027167e+01 7.773003e+00 6.802495e+00 2.352422e+01 4.485596e+00 1.711875e+01 1.519840e+01 5.437084e+00 2.550942e+00 2.575487e-01 2.973932e-01 2.883154e+00 1.652000e+00 7.456155e+00 2.523835e+00 6.110976e-01 1.594173e+00 1.800108e+00 2.679830e+00 1.143378e+00 7.920414e-01 1.459078e-01 2.252898e-02 5.722171e-02 4.855365e-01 1.957291e-01 3.425213e-01 1.529754e-01 5.406384e-01 7.353520e-01 3.537892e-01 7.300334e-01 4.689456e-01 1.244196e-01 1.978640e-02
<GCONST> 7.888197e+01
<STATE> 3
<MEAN> 39
 4.066461e+00 -7.213808e+00 -5.459731e+00 -1.564430e+01 -1.539601e+01 4.388461e+00 -6.606761e+00 4.341368e+00 6.828058e+00 7.895888e-03 6.809088e+00 -2.982611e+00 4.412733e+01 -6.272434e-01 -1.420438e-01 -5.035992e-01 -9.569326e-02 4.375395e-01 3.754940e-01 4.257320e-01 -1.933711e-01 -4.538915e-01 9.599238e-02 2.329691e-01 2.386658e-01 -4.791021e-01 7.273270e-02 9.451328e-02 8.545592e-02 -1.194458e-01 -2.175701e-01 -9.725945e-02 -5.580371e-02 -6.209131e-02 -2.480107e-03 2.324948e-02 1.113830e-01 9.676994e-02 2.674288e-02
<VARIANCE> 39
 3.507463e+01 1.644756e+01 1.849045e+01 3.374324e+01 3.405010e+01 2.018796e+01 1.871436e+01 2.622552e+01 2.388707e+01 1.186734e+01 2.210684e+01 2.967728e+01 2.118036e+01 1.873781e+00 1.832341e+00 3.938166e+00 4.389540e+00 3.664226e+00 2.512215e+00 1.163412e+00 2.445369e+00 1.758008e+00 1.513458e+00 3.103720e+00 2.498825e+00 1.200765e+00 4.794705e-01 2.684619e-01 6.691823e-01 1.060338e+00 5.738957e-01 2.954108e-01 3.038048e-01 5.946831e-01 2.775685e-01 2.352778e-01 6.842560e-01 3.770768e-01 3.076957e-01
<GCONST> 1.118040e+02
<STATE> 4
<MEAN> 39
 1.866819e+00 -5.790040e+00 -1.043336e+01 -2.113152e+01 -1.970941e+01 4.065712e+00 -8.147067e-01 6.947500e+00 4.076578e+00 -1.023033e+00 9.084625e+00 1.801519e+00 4.149895e+01 2.866683e+00 -1.435198e+00 -2.665076e+00 -4.482649e+00 -2.654438e+00 1.327850e+00 6.408272e-01 9.175178e-01 5.163943e-01 4.571931e-01 2.043377e+00 1.766630e-02 2.404855e+00 1.840876e-02 -3.860970e-01 3.984480e-01 2.259809e-01 3.609000e-01 4.648801e-01 -1.675434e-01 -1.404841e-01 -5.975871e-02 -1.425020e-01 -2.693603e-01 -2.065016e-01 2.224339e-01
<VARIANCE> 39
 6.285616e+00 1.042977e+01 7.700979e+00 3.929477e+00 7.865508e+00 5.797161e+01 1.651901e+01 1.612338e+01 5.057987e+00 1.137298e+01 9.994303e+00 5.441627e+00 4.710055e+00 2.314680e+00 1.753154e-01 2.435769e+00 5.439407e+00 1.503422e+00 1.140175e+00 2.126817e-01 4.934498e-01 6.162921e-01 8.601782e-01 1.063748e+00 1.290154e+00 1.588892e+00 2.273416e-01 9.967613e-02 2.930622e-01 4.514126e-01 3.206698e-01 1.830120e-01 2.016140e-01 2.378542e-01 2.573249e-01 2.602537e-01 8.867636e-02 1.478865e-01 1.217214e-01
<GCONST> 7.986032e+01
<TRANSP> 5
 0.000000e+00 1.000000e+00 0.000000e+00 0.000000e+00 0.000000e+00
 0.000000e+00 6.000068e-01 3.999932e-01 0.000000e+00 0.000000e+00
 0.000000e+00 0.000000e+00 9.354838e-01 6.451627e-02 0.000000e+00
 0.000000e+00 0.000000e+00 0.000000e+00 2.000067e-01 7.999933e-01
 0.000000e+00 0.000000e+00 0.000000e+00 0.000000e+00 0.000000e+00
<ENDHMM>
