~o
<STREAMINFO> 1 39
<VECSIZE> 39<NULLD><MFCC_D_A_0><DIAGC>
~h "e"
<BEGINHMM>
<NUMSTATES> 5
<STATE> 2
<MEAN> 39
 7.927799e+00 -9.634018e+00 1.051264e+01 -1.253888e+01 -2.981422e+01 4.295766e+00 -8.816718e+00 -7.312763e-01 1.672508e+00 -7.343744e+00 4.714000e+00 -5.330036e+00 5.061356e+01 -2.651782e-02 -3.267747e+00 1.022124e+00 -1.663246e+00 -2.464856e+00 1.228222e+00 1.439702e+00 1.418391e+00 7.811226e-01 -6.811076e-02 1.990244e+00 -4.432105e-01 1.645501e+00 -2.958334e-01 9.000598e-01 5.515969e-01 7.514440e-01 7.538828e-01 -5.515353e-01 -9.143836e-01 -4.937310e-01 -5.096070e-01 -4.169815e-01 -5.189429e-02 3.240247e-01 -5.094910e-01
<VARIANCE> 39
 3.534720e-02 2.380021e+01 2.446937e+00 1.056548e+00 5.627193e+00 6.933247e+00 5.420100e+01 2.027105e-01 3.558499e+01 7.709742e+00 2.315786e+00 3.961634e+00 3.697813e+00 6.866813e-02 6.853215e-01 5.260896e-01 3.461086e+00 2.328149e-01 7.259961e-01 1.439312e-01 1.815993e+00 9.759309e-01 2.875014e-01 5.463026e-01 6.840500e-01 9.353876e-02 5.028617e-03 5.813059e-01 7.640917e-03 6.526799e-02 1.606165e-01 6.813092e-02 1.293842e+00 1.432486e-01 6.967283e-01 1.081299e-01 2.794811e-01 6.805838e-02 3.728468e-02
<GCONST> 4.797593e+01
<STATE> 3
<MEAN> 39
 7.912525e+00 -1.061465e+01 1.322881e+01 -1.376883e+01 -3.250058e+01 2.884515e+00 -8.645263e+00 1.744304e+00 3.285056e+00 -1.005690e+01 3.964170e+00 -5.370705e+00 5.169140e+01 1.634230e-01 -4.246083e-04 -2.909691e-01 -1.132311e-01 6.580854e-02 -2.309191e-01 5.828756e-03 5.640281e-01 2.421163e-01 -2.612884e-01 -1.187561e-01 2.650405e-01 7.332405e-02 9.010639e-03 1.068238e-01 -1.285524e-01 1.351464e-01 2.325002e-01 -1.135295e-01 -1.568300e-01 -8.380802e-03 5.816490e-02 3.064497e-02 -1.250647e-01 6.411940e-03 -6.951544e-02
<VARIANCE> 39
 1.602117e+00 8.192823e+00 1.223152e+01 5.472635e+00 7.220423e+00 6.549796e+00 1.101018e+01 1.199030e+01 8.575357e+00 5.735834e+00 6.153624e+00 9.172422e+00 1.384400e+00 1.001909e-01 9.986410e-01 1.104909e+00 6.396219e-01 1.139387e+00 6.571068e-01 1.177387e+00 9.474127e-01 7.691464e-01 5.696786e-01 6.776537e-01 5.818262e-01 2.077470e-01 1.539064e-02 2.155693e-01 8.464922e-02 1.538524e-01 1.700450e-01 1.077268e-01 2.595495e-01 1.584142e-01 1.549124e-01 1.196381e-01 1.092546e-01 1.020548e-01 5.245576e-02
<GCONST> 6.061943e+01
<STATE> 4
<MEAN> 39
 1.102025e+01 -1.137951e+01 4.664598e+00 -1.353936e+01 -2.740535e+01 -2.659515e+00 -9.142828e+00 9.792979e+00 7.829041e+00 -1.339334e+01 1.094397e+00 -2.477747e+00 5.246865e+01 1.673794e-01 -7.260016e-01 -1.191052e+00 1.346129e+00 2.226811e+00 -7.131120e-01 -2.330351e+00 6.498312e-01 1.820235e+00 6.414912e-01 -6.892895e-01 -5.983655e-01 9.908996e-02 -2.756286e-01 5.621395e-01 2.013773e-01 6.917277e-02 2.021367e-01 2.852831e-01 -1.364882e-01 -9.837404e-01 2.653014e-03 1.052843e+00 2.247340e-01 -3.851125e-01 -3.637485e-01
<VARIANCE> 39
 8.926392e-01 1.426422e+01 7.808383e+00 3.186491e+00 1.078053e+01 6.993650e+00 6.846917e+00 1.042017e+01 4.819313e+00 4.645696e+00 5.931963e-01 3.905482e+00 1.993340e+00 5.592427e-02 3.922886e-02 7.235423e-01 1.824004e-01 1.608747e-01 1.117908e-02 2.003321e+00 1.684216e-02 1.756055e+00 2.377609e-01 8.598347e-01 5.891019e-02 2.598475e-02 2.001555e-02 2.595379e-02 8.616119e-02 2.937354e-02 5.095055e-02 8.406180e-02 3.125564e-02 1.669394e-01 9.174792e-04 1.656296e-01 1.685320e-01 8.902138e-02 2.008640e-02
<GCONST> 2.415098e+01
<TRANSP> 5
 0.000000e+00 1.000000e+00 0.000000e+00 0.000000e+00 0.000000e+00
 0.000000e+00 7.799000e-33 1.000000e+00 0.000000e+00 0.000000e+00
 0.000000e+00 0.000000e+00 9.423077e-01 5.769237e-02 0.000000e+00
 0.000000e+00 0.000000e+00 0.000000e+00 0.000000e+00 1.000000e+00
 0.000000e+00 0.000000e+00 0.000000e+00 0.000000e+00 0.000000e+00
<ENDHMM>
