~o
<STREAMINFO> 1 39
<VECSIZE> 39<NULLD><MFCC_D_A_0><DIAGC>
~h "h"
<BEGINHMM>
<NUMSTATES> 5
<STATE> 2
<MEAN> 39
 -3.482922e+00 -6.424741e+00 1.329829e+00 3.260592e-03 -2.867070e+00 6.595652e+00 -3.844101e+00 2.987146e+00 1.866381e+00 -2.070970e+00 4.922147e+00 -9.894502e-01 3.834965e+01 -4.853128e-01 1.133874e+00 1.324826e+00 8.793905e-01 -2.373574e-03 -1.501855e-01 5.167751e-01 1.627625e-01 -9.101894e-02 1.906503e-01 4.761545e-01 5.520797e-01 -6.499656e-01 4.364657e-01 1.871667e-01 2.103184e-01 -2.131165e-01 -3.630542e-01 -2.086960e-01 -5.359715e-01 -2.334852e-01 -6.968854e-02 -1.871122e-01 -2.580032e-02 -2.125835e-02 3.209217e-01
<VARIANCE> 39
 3.777715e+01 4.475322e+01 2.085024e+01 1.447328e+01 2.590798e+01 4.248892e+01 2.782471e+01 1.956512e+01 1.443045e+01 1.946411e+01 1.423858e+01 9.621648e+00 2.019790e+01 2.710620e+00 1.363998e+00 1.028879e+00 1.551285e+00 1.817104e+00 4.878972e-01 2.172835e+00 2.551039e+00 1.278649e+00 9.245284e-01 8.678761e-01 1.502481e+00 1.668518e+00 1.577862e-01 3.926394e-01 1.724550e-01 1.673311e-01 1.984095e-01 1.941254e-01 3.866753e-01 3.647354e-01 2.484975e-01 2.254678e-01 2.198935e-01 2.982697e-01 5.860800e-02
<GCONST> 9.601328e+01
<STATE> 3
<MEAN> 39
 1.270543e+00 4.103759e+00 1.126998e+01 2.393760e+00 -6.813324e+00 4.596989e-01 -1.056715e+01 -6.314397e-01 1.847656e+00 -1.068772e+00 7.863470e+00 1.292272e+00 3.944969e+01 5.597861e-01 8.889217e-01 1.261783e+00 3.512398e-01 -8.016085e-01 -6.349230e-01 -8.091696e-01 -6.409080e-01 -1.158224e+00 -1.346037e+00 -6.584370e-01 -2.356858e-02 2.536881e-01 4.335701e-01 -3.436645e-01 -3.111371e-01 -5.800195e-01 -6.422621e-01 -2.747263e-01 -5.536738e-01 -4.384134e-01 -8.865088e-02 -3.562267e-02 -6.342477e-02 -3.068335e-01 4.369923e-01
<VARIANCE> 39
 8.668390e+00 3.020095e+01 1.964651e+01 5.814836e+00 1.314227e+01 2.808976e+01 2.499485e+01 1.228936e+01 2.230228e+01 2.514797e+01 1.174671e+01 6.595971e+00 2.019594e+00 2.135191e+00 1.777177e+00 7.694975e-01 1.510703e+00 2.810821e+00 9.964065e-01 1.792216e+00 2.975501e+00 1.382482e+00 1.549295e+00 1.226541e+00 1.471787e+00 8.504792e-01 1.037858e-01 7.442263e-02 8.384779e-02 1.550433e-01 3.572097e-01 1.525152e-01 8.530399e-02 3.608561e-01 5.281875e-01 5.410321e-01 2.749139e-01 1.745940e-01 6.017874e-02
<GCONST> 8.768584e+01
<STATE> 4
<MEAN> 39
 -1.030564e+00 -2.765083e+00 6.172647e+00 -1.058224e-01 -7.555121e+00 3.139558e+00 -7.905670e+00 -1.093441e+00 -7.178171e-01 -4.379639e+00 4.492967e+00 -6.647785e-01 3.961792e+01 3.564849e-01 1.072671e-01 2.284434e-01 -8.101190e-01 -1.379572e+00 -1.310960e+00 -1.221030e+00 -3.914892e-01 6.510497e-02 -9.023910e-02 -2.120177e-01 -5.554119e-01 3.607157e-01 -1.669326e-01 -2.424446e-01 -7.475104e-02 4.463408e-02 1.747676e-01 1.792516e-01 1.884933e-01 1.935824e-01 1.337822e-01 1.249440e-01 5.963220e-02 -2.088198e-02 -5.363832e-02
<VARIANCE> 39
 3.365215e+01 7.175747e+01 5.607689e+01 1.132859e+01 4.392496e+01 5.778300e+01 6.513783e+01 2.460215e+01 1.293451e+01 5.026555e+00 1.143497e+01 1.061896e+01 9.085676e+00 1.819177e+00 1.731282e+00 7.022464e-01 8.765303e-01 2.153414e+00 1.327909e+00 1.119544e+00 2.258250e+00 1.366226e+00 4.667825e-01 1.445499e+00 8.393148e-01 9.472124e-01 1.821573e-01 1.780368e-01 1.553036e-01 2.241347e-01 1.493316e-01 3.259524e-01 2.525951e-01 4.992480e-01 2.536270e-01 1.460321e-01 4.209726e-01 2.618476e-01 5.203222e-02
<GCONST> 9.431254e+01
<TRANSP> 5
 0.000000e+00 1.000000e+00 0.000000e+00 0.000000e+00 0.000000e+00
 0.000000e+00 6.575451e-01 3.424550e-01 0.000000e+00 0.000000e+00
 0.000000e+00 0.000000e+00 5.999746e-01 4.000255e-01 0.000000e+00
 0.000000e+00 0.000000e+00 0.000000e+00 7.070382e-01 2.929618e-01
 0.000000e+00 0.000000e+00 0.000000e+00 0.000000e+00 0.000000e+00
<ENDHMM>
