~o
<STREAMINFO> 1 39
<VECSIZE> 39<NULLD><MFCC_D_A_0><DIAGC>
~h "a"
<BEGINHMM>
<NUMSTATES> 5
<STATE> 2
<MEAN> 39
 1.005089e+01 -1.362331e+01 -1.132783e+00 -1.289006e+01 -1.538816e+01 7.910495e+00 -1.190913e+01 2.221776e+00 7.845247e+00 -5.485013e+00 1.055605e+00 -7.002424e+00 5.231287e+01 1.606057e+00 -2.791739e+00 -1.029919e+00 -1.030924e+00 -1.443528e-02 1.060046e+00 -8.878511e-01 1.412874e+00 1.659058e+00 -1.061293e+00 -1.008274e+00 -1.035606e+00 2.400309e+00 -8.603738e-01 4.842781e-01 4.806108e-01 8.853841e-01 6.167372e-01 -2.240475e-01 2.773243e-01 -1.449417e-02 -3.880511e-01 -1.503618e-01 -1.684157e-01 2.329904e-01 -8.264793e-01
<VARIANCE> 39
 1.187281e+01 5.064351e+01 9.394189e+01 2.764567e+01 1.517141e+02 6.407121e+01 2.608774e+01 2.294838e+01 2.670660e+01 4.118618e+01 2.182571e+01 2.110079e+01 1.872372e+01 3.378589e+00 2.846800e+00 4.022116e+00 3.056272e+00 3.641974e+00 2.712412e+00 3.298362e+00 2.429036e+00 2.239705e+00 2.791254e+00 1.726225e+00 1.901122e+00 3.287535e+00 3.723980e-01 7.479153e-01 9.067447e-01 4.902079e-01 9.689271e-01 7.896562e-01 5.274311e-01 5.310566e-01 4.373733e-01 7.461051e-01 3.984952e-01 4.114966e-01 3.490720e-01
<GCONST> 1.233259e+02
<STATE> 3
<MEAN> 39
 1.114845e+01 -1.807531e+01 -3.981439e+00 -1.349514e+01 -1.239275e+01 9.577213e+00 -1.145657e+01 7.805327e+00 1.090178e+01 -9.552601e+00 -3.505090e+00 -8.858166e+00 5.511255e+01 -4.419152e-02 2.426969e-01 -9.169173e-03 2.318868e-02 9.377681e-02 9.484600e-02 2.263136e-01 2.178521e-01 -6.867097e-02 -1.444295e-01 -4.339915e-02 4.539139e-02 -1.978615e-01 -1.378873e-01 4.211083e-01 1.440014e-01 1.187054e-01 -6.653727e-02 -1.671642e-01 1.493458e-01 -1.668989e-01 -2.188438e-01 2.007717e-01 2.245488e-01 1.442867e-01 -2.958329e-01
<VARIANCE> 39
 4.513592e+00 1.732820e+01 1.347868e+01 1.473895e+01 3.663514e+01 2.732845e+01 2.237694e+01 2.263375e+01 1.704882e+01 1.838818e+01 9.680840e+00 9.628683e+00 1.050892e+01 2.076473e-01 1.313166e+00 8.666109e-01 7.042791e-01 1.276815e+00 1.263335e+00 8.039209e-01 8.757151e-01 9.155027e-01 1.267529e+00 1.087187e+00 1.014294e+00 3.833536e-01 6.357906e-02 2.254238e-01 1.258135e-01 1.525149e-01 1.165124e-01 1.745054e-01 1.443079e-01 1.572685e-01 2.237169e-01 1.782597e-01 1.365558e-01 1.775004e-01 1.007529e-01
<GCONST> 7.960464e+01
<STATE> 4
<MEAN> 39
 6.561352e+00 -9.077650e+00 -2.403074e-01 -7.549233e+00 -9.772765e+00 7.834968e+00 -7.664192e+00 5.288729e+00 5.417622e+00 -7.487462e+00 -2.857760e-01 -5.579770e+00 4.715017e+01 -1.516569e+00 1.966063e+00 1.180705e+00 1.878176e+00 1.003302e+00 -5.472958e-01 8.091568e-01 -9.061370e-01 -1.524922e+00 4.581075e-01 6.126547e-01 7.319701e-01 -1.884671e+00 -2.975340e-01 -7.418171e-02 -4.255492e-02 1.367829e-01 2.711893e-01 9.145118e-02 5.597438e-02 -8.720047e-02 -9.650341e-02 -6.179959e-02 -4.010664e-02 2.614289e-02 -1.650096e-01
<VARIANCE> 39
 2.285696e+01 3.882143e+01 2.353853e+01 3.947657e+01 4.055170e+01 2.516576e+01 6.927303e+01 3.985069e+01 3.038610e+01 1.909423e+01 1.655812e+01 1.886127e+01 2.841497e+01 9.274921e-01 2.569715e+00 1.324304e+00 1.445270e+00 1.710250e+00 2.083127e+00 2.369311e+00 2.183764e+00 2.183040e+00 1.561447e+00 9.363507e-01 1.603601e+00 1.025328e+00 1.059265e-01 4.125068e-01 3.010738e-01 3.737829e-01 3.198328e-01 2.736989e-01 4.388698e-01 4.230918e-01 4.164551e-01 3.275971e-01 2.045963e-01 3.286628e-01 1.506807e-01
<GCONST> 1.056766e+02
<TRANSP> 5
 0.000000e+00 1.000000e+00 0.000000e+00 0.000000e+00 0.000000e+00
 0.000000e+00 6.890131e-01 3.109870e-01 0.000000e+00 0.000000e+00
 0.000000e+00 0.000000e+00 8.546185e-01 1.453815e-01 0.000000e+00
 0.000000e+00 0.000000e+00 0.000000e+00 7.694958e-01 2.305042e-01
 0.000000e+00 0.000000e+00 0.000000e+00 0.000000e+00 0.000000e+00
<ENDHMM>
~h "au"
<BEGINHMM>
<NUMSTATES> 5
<STATE> 2
<MEAN> 39
 6.803014e+00 -7.286978e-01 8.079939e+00 -1.214452e+01 -2.654312e+01 -6.462645e+00 -1.256694e+01 5.884297e+00 1.105056e+01 -1.648635e+00 3.981716e+00 -8.139163e-01 4.535114e+01 1.535390e+00 -1.855650e+00 -2.523541e+00 -2.041298e+00 -5.082740e-01 1.060230e+00 1.903488e+00 2.957314e+00 1.307530e+00 -3.935757e-01 -4.651647e-01 -7.991804e-01 1.657693e+00 -5.551794e-01 -4.657373e-01 -9.842003e-01 7.471266e-01 2.301223e+00 1.391520e+00 5.386198e-01 -4.360921e-01 -8.711815e-01 -1.592181e-01 -1.165314e-01 -5.990316e-01 -3.756203e-01
<VARIANCE> 39
 2.354200e+00 4.069666e+00 2.239764e+01 9.348672e+00 1.027181e+01 7.773120e+00 6.802555e+00 2.352447e+01 4.485424e+00 1.711905e+01 1.519818e+01 5.437123e+00 2.550879e+00 2.575503e-01 2.973988e-01 2.883205e+00 1.652018e+00 7.456257e+00 2.523861e+00 6.111027e-01 1.594201e+00 1.800128e+00 2.679873e+00 1.143382e+00 7.920582e-01 1.459097e-01 2.252926e-02 5.722256e-02 4.855292e-01 1.957330e-01 3.425156e-01 1.529767e-01 5.406489e-01 7.353585e-01 3.537957e-01 7.300475e-01 4.689499e-01 1.244150e-01 1.978533e-02
<GCONST> 7.888217e+01
<STATE> 3
<MEAN> 39
 4.066556e+00 -7.213764e+00 -5.459715e+00 -1.564429e+01 -1.539598e+01 4.388483e+00 -6.606778e+00 4.341341e+00 6.828055e+00 7.906080e-03 6.809074e+00 -2.982631e+00 4.412739e+01 -6.272410e-01 -1.420362e-01 -5.036004e-01 -9.570284e-02 4.375305e-01 3.754929e-01 4.257330e-01 -1.933717e-01 -4.538885e-01 9.599976e-02 2.329741e-01 2.386665e-01 -4.791030e-01 7.272904e-02 9.451286e-02 8.545981e-02 -1.194431e-01 -2.175705e-01 -9.725949e-02 -5.580361e-02 -6.209282e-02 -2.479926e-03 2.324907e-02 1.113817e-01 9.676874e-02 2.674064e-02
<VARIANCE> 39
 3.507404e+01 1.644771e+01 1.849008e+01 3.374237e+01 3.405014e+01 2.018830e+01 1.871465e+01 2.622586e+01 2.388727e+01 1.186745e+01 2.210673e+01 2.967779e+01 2.118015e+01 1.873724e+00 1.832342e+00 3.938095e+00 4.389400e+00 3.664269e+00 2.512233e+00 1.163413e+00 2.445380e+00 1.758011e+00 1.513471e+00 3.103691e+00 2.498857e+00 1.200737e+00 4.794574e-01 2.684629e-01 6.691631e-01 1.060306e+00 5.738987e-01 2.954125e-01 3.038048e-01 5.946811e-01 2.775660e-01 2.352790e-01 6.842486e-01 3.770786e-01 3.076888e-01
<GCONST> 1.118039e+02
<STATE> 4
<MEAN> 39
 1.866765e+00 -5.789941e+00 -1.043324e+01 -2.113144e+01 -1.970938e+01 4.065684e+00 -8.146377e-01 6.947374e+00 4.076577e+00 -1.022994e+00 9.084675e+00 1.801535e+00 4.149888e+01 2.866627e+00 -1.435179e+00 -2.665027e+00 -4.482577e+00 -2.654397e+00 1.327829e+00 6.408274e-01 9.175162e-01 5.164087e-01 4.572222e-01 2.043373e+00 1.761089e-02 2.404804e+00 1.842844e-02 -3.860928e-01 3.984233e-01 2.259538e-01 3.608827e-01 4.648764e-01 -1.675368e-01 -1.404664e-01 -5.974957e-02 -1.424989e-01 -2.693626e-01 -2.064845e-01 2.224456e-01
<VARIANCE> 39
 6.285520e+00 1.042999e+01 7.701078e+00 3.929388e+00 7.865810e+00 5.797331e+01 1.651970e+01 1.612356e+01 5.058091e+00 1.137332e+01 9.994355e+00 5.441779e+00 4.709872e+00 2.314719e+00 1.753106e-01 2.435785e+00 5.439502e+00 1.503424e+00 1.140207e+00 2.126826e-01 4.934639e-01 6.162907e-01 8.601900e-01 1.063789e+00 1.290137e+00 1.588909e+00 2.273346e-01 9.967560e-02 2.930550e-01 4.514014e-01 3.206681e-01 1.830167e-01 2.016209e-01 2.378516e-01 2.573308e-01 2.602662e-01 8.867449e-02 1.478817e-01 1.217172e-01
<GCONST> 7.986051e+01
<TRANSP> 5
 0.000000e+00 1.000000e+00 0.000000e+00 0.000000e+00 0.000000e+00
 0.000000e+00 6.000088e-01 3.999912e-01 0.000000e+00 0.000000e+00
 0.000000e+00 0.000000e+00 9.354841e-01 6.451595e-02 0.000000e+00
 0.000000e+00 0.000000e+00 0.000000e+00 1.999940e-01 8.000060e-01
 0.000000e+00 0.000000e+00 0.000000e+00 0.000000e+00 0.000000e+00
<ENDHMM>
~h "b"
<BEGINHMM>
<NUMSTATES> 5
<STATE> 2
<MEAN> 39
 -7.178780e-01 3.835629e+00 1.211803e+01 4.855424e+00 -4.276053e+00 -6.788685e-01 -1.355873e+01 -6.952338e+00 -5.675303e+00 -9.061307e+00 -2.256945e-01 -3.940933e+00 3.836952e+01 2.198760e+00 2.531345e+00 3.161260e+00 1.312988e+00 -5.538174e-01 -4.324840e-01 -1.892091e+00 -1.750200e+00 -1.627156e+00 -1.974015e+00 -2.878559e-02 1.873079e-01 1.187601e+00 -4.234544e-01 -6.212057e-01 -5.569842e-01 -1.068003e-01 9.866400e-02 4.153942e-01 5.367795e-01 5.143029e-01 3.572432e-01 4.875170e-01 2.956084e-01 2.271319e-01 -2.023699e-01
<VARIANCE> 39
 6.774780e+00 7.701715e+00 1.813476e+01 9.032244e+00 3.513379e+00 1.343488e+01 6.152992e+00 5.218020e+00 1.392488e+01 1.722250e+01 6.115207e+00 5.986012e+00 2.531878e+00 6.257415e-01 1.274292e+00 7.750801e-01 1.208890e+00 6.251111e-01 1.178840e+00 2.334469e+00 1.664656e+00 1.691298e+00 2.086642e+00 4.468848e-01 6.496260e-01 2.678303e-01 1.241274e-01 5.663998e-01 4.319032e-01 4.015390e-01 4.933812e-01 2.903776e-01 4.983514e-01 4.504983e-01 2.369909e-01 4.042010e-01 1.872485e-01 7.709698e-02 4.808438e-02
<GCONST> 8.006827e+01
<STATE> 3
<MEAN> 39
 1.648410e+00 4.739437e+00 1.532095e+01 6.961260e+00 -4.478022e+00 1.105749e+00 -1.366376e+01 -6.639489e+00 -5.715577e+00 -1.061731e+01 -3.093210e-02 -2.286827e+00 3.996122e+01 4.927385e-01 -1.981095e-01 1.362155e-01 -5.520300e-01 -1.171397e+00 -4.058830e-01 -2.038570e-02 5.093084e-01 8.332185e-01 3.927594e-01 2.696731e-01 4.846691e-01 4.544541e-01 -2.301359e-02 -3.705792e-01 -2.388880e-01 -4.653399e-01 -6.984122e-01 -3.687112e-01 5.396385e-02 1.951885e-01 2.526178e-01 4.146484e-01 2.652237e-01 -1.471422e-01 1.222509e-01
<VARIANCE> 39
 3.204642e+00 8.106503e+00 1.045459e+01 9.257854e+00 1.084163e+01 1.093396e+01 1.417017e+01 2.203833e+01 1.745090e+01 1.428553e+01 1.331000e+01 9.958938e+00 2.258154e+00 4.874899e-01 7.207974e-01 1.149600e+00 1.658028e+00 4.801723e+00 2.326757e+00 1.171016e+00 3.027308e+00 1.051495e+00 2.158470e+00 2.061246e+00 1.170301e+00 3.352842e-01 1.970802e-01 2.560217e-01 4.436576e-01 2.526833e-01 6.796208e-01 3.488024e-01 3.500255e-01 7.472776e-01 3.330127e-01 4.789169e-01 4.586840e-01 3.306837e-01 1.160634e-01
<GCONST> 9.130099e+01
<STATE> 4
<MEAN> 39
 5.795343e+00 3.550008e+00 1.548899e+01 6.485876e-01 -1.806142e+01 -5.988970e+00 -1.485390e+01 -4.506835e+00 -1.168793e+00 -5.542315e+00 4.886899e+00 -5.198686e-01 4.389813e+01 1.450401e+00 -1.678968e+00 1.009038e+00 -2.299607e+00 -5.466989e+00 -1.355049e+00 -3.897385e-01 -4.381207e-01 8.155054e-01 1.641832e+00 1.844917e+00 -8.818006e-01 2.095817e+00 -1.432346e-01 -4.407830e-01 3.078884e-01 2.099440e-01 2.382166e-01 6.319920e-01 -7.042720e-02 -3.099537e-01 -2.675072e-01 -3.276044e-01 -2.494975e-01 -3.156151e-01 1.107282e-01
<VARIANCE> 39
 2.613752e+00 2.324254e+01 7.458964e+00 1.053197e+01 4.837130e+01 1.693070e+01 8.803474e+00 2.050454e+01 4.436471e+00 3.446331e+00 9.380135e+00 6.582194e+00 8.497036e+00 2.641503e-01 2.257816e+00 1.698215e+00 1.783481e+00 1.062709e+00 4.762815e+00 2.651371e+00 1.930783e+00 1.227145e+00 1.842499e+00 2.196816e+00 7.689648e-01 2.206050e-01 3.717391e-02 3.888526e-01 1.529811e-01 2.604565e-01 1.136669e+00 4.136350e-01 2.695987e-01 3.646964e-01 1.919222e-01 2.670614e-01 2.267599e-01 2.648170e-01 1.098886e-01
<GCONST> 8.619073e+01
<TRANSP> 5
 0.000000e+00 1.000000e+00 0.000000e+00 0.000000e+00 0.000000e+00
 0.000000e+00 5.311936e-01 4.688064e-01 0.000000e+00 0.000000e+00
 0.000000e+00 0.000000e+00 8.219485e-01 1.780516e-01 0.000000e+00
 0.000000e+00 0.000000e+00 0.000000e+00 4.287595e-01 5.712406e-01
 0.000000e+00 0.000000e+00 0.000000e+00 0.000000e+00 0.000000e+00
<ENDHMM>
~h "d"
<BEGINHMM>
<NUMSTATES> 5
<STATE> 2
<MEAN> 39
 3.231534e+00 3.190013e+00 1.330876e+01 1.310631e+00 -9.827826e+00 -1.111387e+00 -1.475509e+01 -4.558391e+00 -6.727520e-01 -5.733755e+00 2.641085e+00 -3.260544e+00 4.168787e+01 -1.562964e+00 1.520768e+00 -1.363321e+00 1.169364e+00 3.715839e+00 1.623711e+00 1.785728e+00 1.110159e+00 -3.165767e-01 -1.758951e-02 -1.832641e+00 -4.273158e-01 -2.066875e+00 8.911017e-02 -3.990811e-01 -9.210901e-02 -1.220044e-01 -4.921549e-01 -3.576437e-01 -2.064253e-01 -4.305752e-02 1.276050e-01 4.444857e-01 4.159098e-01 -3.632612e-01 2.485074e-01
<VARIANCE> 39
 3.742777e+00 3.291242e+00 2.393139e+00 9.539049e-01 3.051026e+00 8.280437e+00 1.313734e+01 6.707678e+00 9.944942e+00 2.281954e+00 5.901549e+00 8.124187e-01 2.858683e+00 9.617634e-02 5.975833e-01 4.565291e-01 8.377928e-01 1.257719e+00 9.896308e-01 2.406287e+00 1.872285e+00 4.542693e-01 4.747587e-01 6.021347e-01 2.816968e-01 8.838557e-02 6.019597e-02 8.294798e-02 2.813773e-02 7.946375e-02 2.293417e-01 2.633845e-01 2.899990e-01 5.111098e-01 1.410127e-01 1.353696e-01 2.746763e-01 1.180745e-01 6.688233e-02
<GCONST> 5.442348e+01
<STATE> 3
<MEAN> 39
 2.723061e-01 3.814912e+00 1.079347e+01 3.757532e+00 -5.085511e+00 2.060225e-01 -1.297755e+01 -2.753917e+00 -9.340382e-01 -4.638549e+00 2.227620e+00 -5.113764e+00 3.883051e+01 -2.731693e-01 -1.841671e-01 -7.791539e-01 -6.068765e-01 -1.634910e-01 -4.932829e-01 -4.171230e-01 -7.549635e-02 2.656847e-01 5.016593e-01 5.817754e-01 2.087382e-01 -1.818563e-01 6.688635e-01 -1.974654e-01 3.077164e-01 -8.230366e-01 -1.659571e+00 -9.638100e-01 -7.457739e-01 -2.221082e-01 3.031238e-01 1.160750e-01 5.337667e-01 3.490098e-01 6.561791e-01
<VARIANCE> 39
 3.711776e+00 6.479612e+00 9.291168e+00 5.201027e+00 2.055796e+01 1.238398e+01 1.539149e+01 1.419742e+01 5.133557e+00 1.108034e+01 1.051289e+01 1.451700e+01 1.047026e+00 1.383503e+00 7.080069e-01 5.886506e-01 2.620921e+00 8.674629e+00 3.608412e+00 2.010416e+00 1.458396e+00 7.606961e-01 1.007155e+00 1.544312e+00 2.879333e+00 9.851868e-01 7.477976e-02 2.709994e-01 7.684291e-02 2.025325e-01 3.461595e-01 3.144857e-01 3.502925e-01 4.356569e-01 1.348262e-01 1.729957e-01 3.026407e-01 3.760454e-01 6.103291e-02
<GCONST> 8.403265e+01
<STATE> 4
<MEAN> 39
 3.850440e+00 4.049310e+00 1.115105e+01 -3.029222e+00 -1.560474e+01 -9.140116e+00 -1.995136e+01 -4.348309e+00 1.137725e+00 -3.123695e+00 5.631868e+00 -9.248486e-01 4.167834e+01 1.873146e+00 -1.108581e-01 3.842420e-01 -2.787256e+00 -4.294187e+00 -2.690057e+00 -2.454768e+00 -6.489354e-01 1.296635e+00 9.871057e-01 7.854621e-01 1.942230e-01 1.632357e+00 -7.548747e-02 -1.827994e-01 -1.101085e-01 1.855751e-01 6.243595e-01 7.771354e-01 3.370661e-01 -1.598403e-03 -4.788552e-02 1.376210e-01 -4.546095e-02 -4.442292e-01 -8.333065e-03
<VARIANCE> 39
 1.023896e+01 2.733994e+00 6.450733e+00 4.884164e+00 1.337930e+01 5.478765e+00 6.319315e+00 5.464361e+00 7.709380e+00 6.582732e+00 4.887076e+00 7.451418e+00 7.117910e+00 2.485055e-01 8.413933e-01 1.602098e-01 6.347821e-01 1.405207e+00 2.103609e+00 1.327377e+00 6.148970e-01 9.337389e-01 7.179956e-01 6.991832e-01 1.183533e+00 4.852153e-01 7.590411e-02 8.090644e-02 1.361575e-01 9.197253e-02 4.672338e-01 3.714598e-01 1.073733e-01 1.867235e-01 1.060033e-01 2.302722e-01 1.994260e-01 1.954774e-01 6.389164e-02
<GCONST> 6.665626e+01
<TRANSP> 5
 0.000000e+00 1.000000e+00 0.000000e+00 0.000000e+00 0.000000e+00
 0.000000e+00 1.666906e-01 8.333094e-01 0.000000e+00 0.000000e+00
 0.000000e+00 0.000000e+00 7.619027e-01 2.380973e-01 0.000000e+00
 0.000000e+00 0.000000e+00 0.000000e+00 4.444445e-01 5.555555e-01
 0.000000e+00 0.000000e+00 0.000000e+00 0.000000e+00 0.000000e+00
<ENDHMM>
~h "e"
<BEGINHMM>
<NUMSTATES> 5
<STATE> 2
<MEAN> 39
 7.927799e+00 -9.634018e+00 1.051264e+01 -1.253888e+01 -2.981422e+01 4.295766e+00 -8.816718e+00 -7.312763e-01 1.672508e+00 -7.343744e+00 4.714000e+00 -5.330036e+00 5.061356e+01 -2.651782e-02 -3.267747e+00 1.022124e+00 -1.663246e+00 -2.464856e+00 1.228222e+00 1.439702e+00 1.418391e+00 7.811226e-01 -6.811076e-02 1.990244e+00 -4.432105e-01 1.645501e+00 -2.958334e-01 9.000598e-01 5.515969e-01 7.514440e-01 7.538828e-01 -5.515353e-01 -9.143836e-01 -4.937310e-01 -5.096070e-01 -4.169815e-01 -5.189429e-02 3.240247e-01 -5.094910e-01
<VARIANCE> 39
 3.534720e-02 2.380021e+01 2.446937e+00 1.056548e+00 5.627193e+00 6.933247e+00 5.420100e+01 2.027105e-01 3.558499e+01 7.709742e+00 2.315786e+00 3.961634e+00 3.697813e+00 6.866813e-02 6.853215e-01 5.260896e-01 3.461086e+00 2.328149e-01 7.259961e-01 1.439312e-01 1.815993e+00 9.759309e-01 2.875014e-01 5.463026e-01 6.840500e-01 9.353876e-02 5.028617e-03 5.813059e-01 7.640917e-03 6.526799e-02 1.606165e-01 6.813092e-02 1.293842e+00 1.432486e-01 6.967283e-01 1.081299e-01 2.794811e-01 6.805838e-02 3.728468e-02
<GCONST> 4.797593e+01
<STATE> 3
<MEAN> 39
 7.912525e+00 -1.061465e+01 1.322881e+01 -1.376883e+01 -3.250058e+01 2.884515e+00 -8.645263e+00 1.744304e+00 3.285056e+00 -1.005690e+01 3.964170e+00 -5.370705e+00 5.169140e+01 1.634230e-01 -4.246083e-04 -2.909691e-01 -1.132311e-01 6.580854e-02 -2.309191e-01 5.828756e-03 5.640281e-01 2.421163e-01 -2.612884e-01 -1.187561e-01 2.650405e-01 7.332405e-02 9.010639e-03 1.068238e-01 -1.285524e-01 1.351464e-01 2.325002e-01 -1.135295e-01 -1.568300e-01 -8.380802e-03 5.816490e-02 3.064497e-02 -1.250647e-01 6.411940e-03 -6.951544e-02
<VARIANCE> 39
 1.602117e+00 8.192823e+00 1.223152e+01 5.472635e+00 7.220423e+00 6.549796e+00 1.101018e+01 1.199030e+01 8.575357e+00 5.735834e+00 6.153624e+00 9.172422e+00 1.384400e+00 1.001909e-01 9.986410e-01 1.104909e+00 6.396219e-01 1.139387e+00 6.571068e-01 1.177387e+00 9.474127e-01 7.691464e-01 5.696786e-01 6.776537e-01 5.818262e-01 2.077470e-01 1.539064e-02 2.155693e-01 8.464922e-02 1.538524e-01 1.700450e-01 1.077268e-01 2.595495e-01 1.584142e-01 1.549124e-01 1.196381e-01 1.092546e-01 1.020548e-01 5.245576e-02
<GCONST> 6.061943e+01
<STATE> 4
<MEAN> 39
 1.102025e+01 -1.137951e+01 4.664598e+00 -1.353936e+01 -2.740535e+01 -2.659515e+00 -9.142828e+00 9.792979e+00 7.829041e+00 -1.339334e+01 1.094397e+00 -2.477747e+00 5.246865e+01 1.673794e-01 -7.260016e-01 -1.191052e+00 1.346129e+00 2.226811e+00 -7.131120e-01 -2.330351e+00 6.498312e-01 1.820235e+00 6.414912e-01 -6.892895e-01 -5.983655e-01 9.908996e-02 -2.756286e-01 5.621395e-01 2.013773e-01 6.917277e-02 2.021367e-01 2.852831e-01 -1.364882e-01 -9.837404e-01 2.653014e-03 1.052843e+00 2.247340e-01 -3.851125e-01 -3.637485e-01
<VARIANCE> 39
 8.926392e-01 1.426422e+01 7.808383e+00 3.186491e+00 1.078053e+01 6.993650e+00 6.846917e+00 1.042017e+01 4.819313e+00 4.645696e+00 5.931963e-01 3.905482e+00 1.993340e+00 5.592427e-02 3.922886e-02 7.235423e-01 1.824004e-01 1.608747e-01 1.117908e-02 2.003321e+00 1.684216e-02 1.756055e+00 2.377609e-01 8.598347e-01 5.891019e-02 2.598475e-02 2.001555e-02 2.595379e-02 8.616119e-02 2.937354e-02 5.095055e-02 8.406180e-02 3.125564e-02 1.669394e-01 9.174792e-04 1.656296e-01 1.685320e-01 8.902138e-02 2.008640e-02
<GCONST> 2.415098e+01
<TRANSP> 5
 0.000000e+00 1.000000e+00 0.000000e+00 0.000000e+00 0.000000e+00
 0.000000e+00 7.799000e-33 1.000000e+00 0.000000e+00 0.000000e+00
 0.000000e+00 0.000000e+00 9.423077e-01 5.769237e-02 0.000000e+00
 0.000000e+00 0.000000e+00 0.000000e+00 0.000000e+00 1.000000e+00
 0.000000e+00 0.000000e+00 0.000000e+00 0.000000e+00 0.000000e+00
<ENDHMM>
~h "f"
<BEGINHMM>
<NUMSTATES> 5
<STATE> 2
<MEAN> 39
 5.940436e+00 -3.154180e+00 -3.344058e-01 -1.291546e+01 -1.282179e+01 8.198555e+00 -2.013847e+00 5.337398e+00 3.473674e+00 -4.605376e+00 4.877787e+00 -7.695225e-01 4.479986e+01 -2.728037e+00 1.262972e+00 5.438738e-01 4.031250e+00 2.968340e+00 -1.265776e+00 9.438087e-01 2.618322e-01 2.273951e-01 1.012543e+00 -5.177621e-01 2.757955e-01 -2.876722e+00 -3.257985e-01 -7.113189e-01 -4.183412e-01 -1.380834e-01 1.203414e-01 1.168476e-01 -5.573513e-01 -3.713652e-01 -2.589642e-01 -8.339614e-02 2.577915e-01 -2.630789e-01 -1.543428e-02
<VARIANCE> 39
 1.505346e+01 4.735021e+00 4.174120e+00 2.862840e+01 1.299725e+01 1.700157e+01 6.177539e+00 1.318413e+01 7.804907e+00 1.520097e+01 1.509508e+01 6.380091e+00 1.195638e+01 2.847238e-01 1.011135e+00 5.197007e-01 5.864405e-01 9.779031e-01 4.963731e-01 5.375837e-01 1.415499e+00 1.038592e+00 5.252413e-01 3.067908e-01 6.583538e-01 1.376825e-01 1.045067e-01 2.565805e-01 7.564983e-02 4.781838e-01 5.921417e-01 2.315610e-01 1.657650e-01 3.287288e-01 1.546017e-01 9.172845e-02 2.716850e-01 2.553634e-01 8.760952e-02
<GCONST> 7.353852e+01
<STATE> 3
<MEAN> 39
 -2.855293e-01 -3.317678e+00 -1.467867e+00 -7.375403e+00 -7.634011e+00 4.868440e+00 -4.415934e+00 3.179699e+00 3.510454e+00 -1.280232e+00 5.260152e+00 -2.171322e+00 3.956457e+01 -2.567155e+00 -6.903417e-01 -1.409589e-01 1.685046e+00 1.466734e+00 -1.116486e+00 -8.936453e-01 -6.793348e-02 -1.006289e-01 -1.499399e-01 -7.073894e-01 -3.001153e-01 -1.836714e+00 2.999654e-01 -4.817029e-01 -4.530283e-02 -6.454087e-01 -3.810861e-01 4.539689e-01 -1.739004e-01 1.728460e-01 1.269406e-02 -3.843831e-01 1.812108e-02 -6.703299e-02 4.928221e-01
<VARIANCE> 39
 9.858295e+00 1.232017e+01 7.476718e+00 9.420988e+00 8.404187e+00 1.055127e+01 1.173363e+01 1.002743e+01 7.161874e+00 7.207153e+00 1.744811e+01 8.731645e+00 4.548722e+00 4.072883e-01 1.760708e+00 4.790789e-01 7.433691e-01 1.142300e+00 2.431582e+00 1.107867e+00 1.596786e+00 1.588350e+00 1.611043e+00 1.787966e+00 9.280798e-01 4.418684e-01 1.290601e-01 2.056773e-01 1.045012e-01 1.714422e-01 3.015329e-01 2.942043e-01 3.444896e-01 3.480360e-01 2.855751e-01 2.632141e-01 2.534873e-01 1.967018e-01 3.304316e-02
<GCONST> 8.013448e+01
<STATE> 4
<MEAN> 39
 -6.003618e+00 -5.258401e+00 -1.501539e-01 -3.190177e+00 -3.434436e+00 5.788862e+00 -4.021091e+00 5.146844e+00 2.360238e+00 -2.407863e+00 3.890344e+00 -2.486697e+00 3.607840e+01 -8.894785e-01 -5.020126e-01 1.890250e-01 7.378931e-01 9.140223e-01 4.507374e-01 -4.961397e-02 -2.923326e-01 -4.368751e-01 2.962332e-02 -1.795056e-01 -1.104996e-01 -4.309494e-01 2.635110e-01 1.132301e-01 4.263819e-02 -9.916390e-02 -1.236592e-01 1.472262e-01 1.067726e-01 -1.511933e-01 1.319457e-02 1.815481e-01 1.214883e-01 3.953002e-02 1.691172e-01
<VARIANCE> 39
 4.497201e+00 1.305896e+01 6.617685e+00 7.581119e+00 8.981325e+00 1.341124e+01 1.012663e+01 1.077709e+01 1.589935e+01 1.400412e+01 1.323696e+01 1.238179e+01 1.067012e+00 4.166395e-01 5.302164e-01 6.671691e-01 6.598982e-01 8.143643e-01 1.328608e+00 1.267084e+00 2.146048e+00 1.174988e+00 1.146235e+00 7.705413e-01 4.860665e-01 9.449936e-02 5.247598e-02 5.466967e-02 1.164091e-01 9.405173e-02 1.399826e-01 2.308874e-01 1.780302e-01 3.268936e-01 3.362355e-01 2.495175e-01 2.723086e-01 1.366310e-01 2.317753e-02
<GCONST> 6.924595e+01
<TRANSP> 5
 0.000000e+00 1.000000e+00 0.000000e+00 0.000000e+00 0.000000e+00
 0.000000e+00 3.340247e-01 6.659753e-01 0.000000e+00 0.000000e+00
 0.000000e+00 0.000000e+00 6.468610e-01 3.531390e-01 0.000000e+00
 0.000000e+00 0.000000e+00 0.000000e+00 7.692321e-01 2.307679e-01
 0.000000e+00 0.000000e+00 0.000000e+00 0.000000e+00 0.000000e+00
<ENDHMM>
~h "g"
<BEGINHMM>
<NUMSTATES> 5
<STATE> 2
<MEAN> 39
 2.647412e+00 4.511077e+00 1.414657e+01 2.069488e+00 -7.898744e+00 4.872647e+00 -7.922131e+00 -4.421742e+00 -6.465270e+00 -1.172496e+01 -8.188985e-01 -3.010067e+00 4.076440e+01 -6.844420e-01 1.382780e-01 -7.664181e-01 5.309393e-01 1.634861e+00 6.542754e-01 1.017038e+00 5.138496e-01 -6.830574e-01 -6.805369e-01 -7.016852e-02 1.225343e-01 -7.278011e-01 8.536115e-02 -2.217272e-01 3.361501e-02 -2.997275e-01 -4.708664e-01 1.590530e-02 -1.714525e-01 -1.089555e-01 3.095579e-01 1.321997e-01 5.118543e-02 9.696860e-03 1.850070e-01
<VARIANCE> 39
 3.130051e+00 2.887912e+00 6.625179e+00 7.286657e+00 2.585615e+01 1.129933e+01 8.823385e+00 9.841305e+00 9.668549e+00 1.316540e+01 1.269504e+01 8.718773e+00 3.939742e+00 1.112973e-01 9.291051e-01 4.257344e-01 9.170741e-01 1.743032e+00 9.312228e-01 1.261239e+00 4.659045e-01 1.848073e+00 1.882360e+00 1.227878e+00 8.344392e-01 3.227116e-01 1.843163e-02 6.742109e-02 9.331287e-02 1.056981e-01 1.934422e-01 2.098233e-01 3.189004e-01 9.940781e-02 2.123814e-01 3.723149e-01 2.573854e-01 1.830447e-01 2.328620e-02
<GCONST> 6.838673e+01
<STATE> 3
<MEAN> 39
 5.083885e-01 3.086182e+00 1.011259e+01 8.834862e-02 -5.960309e+00 6.850117e+00 -4.638962e+00 -2.780764e+00 -4.893292e+00 -1.119689e+01 -1.166131e-01 -1.887886e+00 3.931283e+01 1.062084e+00 -3.890673e-01 2.990788e-01 -1.566494e+00 -3.393815e+00 -1.565548e+00 -1.143072e+00 -8.374175e-01 1.126072e+00 1.774360e+00 8.886327e-01 4.561975e-01 1.097517e+00 5.903379e-01 -3.585974e-01 5.363258e-01 -4.726681e-01 -1.642690e+00 -7.014410e-01 -6.742520e-01 -1.114780e-01 4.111769e-01 5.542904e-01 2.182884e-01 -1.278243e-01 6.851714e-01
<VARIANCE> 39
 7.765011e+00 4.787771e+00 3.359108e+00 6.288632e+00 1.817177e+01 2.029913e+01 3.066286e+01 2.117089e+01 1.312517e+01 2.836432e+01 8.645683e+00 9.787929e+00 3.245058e+00 1.546549e+00 1.276770e+00 1.752444e+00 9.554439e-01 8.306669e+00 2.349192e+00 4.523208e+00 1.886382e+00 8.919240e-01 2.992646e+00 9.062828e-01 8.718160e-01 1.188163e+00 1.277344e-01 5.880511e-01 2.017281e-01 1.170227e-01 4.260336e-01 3.011765e-01 7.107865e-01 5.213377e-01 2.597456e-01 4.479057e-01 9.747829e-02 2.759847e-01 4.914308e-02
<GCONST> 9.133310e+01
<STATE> 4
<MEAN> 39
 7.459786e+00 -1.581234e+00 1.545157e+01 -7.179057e+00 -2.818443e+01 -2.078488e+00 -1.144613e+01 -6.887451e+00 8.479949e-01 -1.591936e+00 3.388744e+00 -2.069882e+00 4.767572e+01 1.776323e+00 -3.522331e+00 1.021578e+00 -2.576893e+00 -6.358196e+00 -1.517478e+00 -3.917381e-01 1.607360e+00 2.711365e+00 1.907304e+00 9.127694e-01 -5.065133e-01 3.117193e+00 -3.666098e-01 -5.542741e-01 -8.882485e-01 2.391669e-01 1.505141e+00 8.827241e-01 1.080266e+00 1.371644e+00 1.184550e-01 -9.723729e-01 -3.659216e-01 -2.001798e-01 -1.426192e-01
<VARIANCE> 39
 4.069765e+00 2.737246e+01 2.899122e+01 6.875319e+00 5.005819e+01 1.316303e+01 5.918397e+00 2.097985e+01 1.347028e+01 1.134727e+01 1.424648e+01 8.289450e+00 1.626397e+01 5.516303e-01 2.657751e+00 3.446451e+00 6.866115e-01 5.793844e+00 1.616638e+00 2.464341e+00 4.529810e+00 1.370397e+00 3.644293e+00 1.288664e+00 1.311115e+00 3.513236e-01 7.962298e-02 6.001008e-01 3.868192e-01 7.630114e-02 1.014213e+00 2.001036e-01 4.193719e-01 3.304347e-01 1.340776e-01 3.942467e-01 2.677631e-01 2.174451e-01 1.597273e-01
<GCONST> 9.481483e+01
<TRANSP> 5
 0.000000e+00 1.000000e+00 0.000000e+00 0.000000e+00 0.000000e+00
 0.000000e+00 8.540085e-01 1.459915e-01 0.000000e+00 0.000000e+00
 0.000000e+00 0.000000e+00 7.382208e-01 2.617792e-01 0.000000e+00
 0.000000e+00 0.000000e+00 0.000000e+00 5.708691e-01 4.291309e-01
 0.000000e+00 0.000000e+00 0.000000e+00 0.000000e+00 0.000000e+00
<ENDHMM>
~h "h"
<BEGINHMM>
<NUMSTATES> 5
<STATE> 2
<MEAN> 39
 -3.482922e+00 -6.424741e+00 1.329829e+00 3.260592e-03 -2.867070e+00 6.595652e+00 -3.844101e+00 2.987146e+00 1.866381e+00 -2.070970e+00 4.922147e+00 -9.894502e-01 3.834965e+01 -4.853128e-01 1.133874e+00 1.324826e+00 8.793905e-01 -2.373574e-03 -1.501855e-01 5.167751e-01 1.627625e-01 -9.101894e-02 1.906503e-01 4.761545e-01 5.520797e-01 -6.499656e-01 4.364657e-01 1.871667e-01 2.103184e-01 -2.131165e-01 -3.630542e-01 -2.086960e-01 -5.359715e-01 -2.334852e-01 -6.968854e-02 -1.871122e-01 -2.580032e-02 -2.125835e-02 3.209217e-01
<VARIANCE> 39
 3.777715e+01 4.475322e+01 2.085024e+01 1.447328e+01 2.590798e+01 4.248892e+01 2.782471e+01 1.956512e+01 1.443045e+01 1.946411e+01 1.423858e+01 9.621648e+00 2.019790e+01 2.710620e+00 1.363998e+00 1.028879e+00 1.551285e+00 1.817104e+00 4.878972e-01 2.172835e+00 2.551039e+00 1.278649e+00 9.245284e-01 8.678761e-01 1.502481e+00 1.668518e+00 1.577862e-01 3.926394e-01 1.724550e-01 1.673311e-01 1.984095e-01 1.941254e-01 3.866753e-01 3.647354e-01 2.484975e-01 2.254678e-01 2.198935e-01 2.982697e-01 5.860800e-02
<GCONST> 9.601328e+01
<STATE> 3
<MEAN> 39
 1.270543e+00 4.103759e+00 1.126998e+01 2.393760e+00 -6.813324e+00 4.596989e-01 -1.056715e+01 -6.314397e-01 1.847656e+00 -1.068772e+00 7.863470e+00 1.292272e+00 3.944969e+01 5.597861e-01 8.889217e-01 1.261783e+00 3.512398e-01 -8.016085e-01 -6.349230e-01 -8.091696e-01 -6.409080e-01 -1.158224e+00 -1.346037e+00 -6.584370e-01 -2.356858e-02 2.536881e-01 4.335701e-01 -3.436645e-01 -3.111371e-01 -5.800195e-01 -6.422621e-01 -2.747263e-01 -5.536738e-01 -4.384134e-01 -8.865088e-02 -3.562267e-02 -6.342477e-02 -3.068335e-01 4.369923e-01
<VARIANCE> 39
 8.668390e+00 3.020095e+01 1.964651e+01 5.814836e+00 1.314227e+01 2.808976e+01 2.499485e+01 1.228936e+01 2.230228e+01 2.514797e+01 1.174671e+01 6.595971e+00 2.019594e+00 2.135191e+00 1.777177e+00 7.694975e-01 1.510703e+00 2.810821e+00 9.964065e-01 1.792216e+00 2.975501e+00 1.382482e+00 1.549295e+00 1.226541e+00 1.471787e+00 8.504792e-01 1.037858e-01 7.442263e-02 8.384779e-02 1.550433e-01 3.572097e-01 1.525152e-01 8.530399e-02 3.608561e-01 5.281875e-01 5.410321e-01 2.749139e-01 1.745940e-01 6.017874e-02
<GCONST> 8.768584e+01
<STATE> 4
<MEAN> 39
 -1.030564e+00 -2.765083e+00 6.172647e+00 -1.058224e-01 -7.555121e+00 3.139558e+00 -7.905670e+00 -1.093441e+00 -7.178171e-01 -4.379639e+00 4.492967e+00 -6.647785e-01 3.961792e+01 3.564849e-01 1.072671e-01 2.284434e-01 -8.101190e-01 -1.379572e+00 -1.310960e+00 -1.221030e+00 -3.914892e-01 6.510497e-02 -9.023910e-02 -2.120177e-01 -5.554119e-01 3.607157e-01 -1.669326e-01 -2.424446e-01 -7.475104e-02 4.463408e-02 1.747676e-01 1.792516e-01 1.884933e-01 1.935824e-01 1.337822e-01 1.249440e-01 5.963220e-02 -2.088198e-02 -5.363832e-02
<VARIANCE> 39
 3.365215e+01 7.175747e+01 5.607689e+01 1.132859e+01 4.392496e+01 5.778300e+01 6.513783e+01 2.460215e+01 1.293451e+01 5.026555e+00 1.143497e+01 1.061896e+01 9.085676e+00 1.819177e+00 1.731282e+00 7.022464e-01 8.765303e-01 2.153414e+00 1.327909e+00 1.119544e+00 2.258250e+00 1.366226e+00 4.667825e-01 1.445499e+00 8.393148e-01 9.472124e-01 1.821573e-01 1.780368e-01 1.553036e-01 2.241347e-01 1.493316e-01 3.259524e-01 2.525951e-01 4.992480e-01 2.536270e-01 1.460321e-01 4.209726e-01 2.618476e-01 5.203222e-02
<GCONST> 9.431254e+01
<TRANSP> 5
 0.000000e+00 1.000000e+00 0.000000e+00 0.000000e+00 0.000000e+00
 0.000000e+00 6.575451e-01 3.424550e-01 0.000000e+00 0.000000e+00
 0.000000e+00 0.000000e+00 5.999746e-01 4.000255e-01 0.000000e+00
 0.000000e+00 0.000000e+00 0.000000e+00 7.070382e-01 2.929618e-01
 0.000000e+00 0.000000e+00 0.000000e+00 0.000000e+00 0.000000e+00
<ENDHMM>
~h "i"
<BEGINHMM>
<NUMSTATES> 5
<STATE> 2
<MEAN> 39
 4.547594e+00 1.877257e+00 1.494463e+01 -2.162560e+00 -1.916648e+01 -3.840305e+00 -1.577410e+01 -6.424597e+00 -8.940727e-01 -4.602431e+00 3.901820e+00 -2.077311e+00 4.368290e+01 1.225254e+00 -4.213451e-01 1.395323e+00 -1.085690e+00 -3.035198e+00 -7.660640e-01 -1.167678e+00 -8.926455e-01 2.678193e-01 -4.415945e-02 2.613508e-01 -5.132719e-01 1.428675e+00 -5.744807e-01 -3.844658e-01 -4.204816e-01 2.411812e-01 8.787779e-01 5.746691e-01 4.436253e-01 3.226674e-01 3.656759e-02 -1.045989e-01 -1.247136e-01 -1.085552e-02 -3.587248e-01
<VARIANCE> 39
 1.405473e+01 1.615480e+01 2.270196e+01 1.648431e+01 6.477418e+01 2.211276e+01 1.883945e+01 2.093396e+01 9.823449e+00 8.191473e+00 1.171576e+01 1.068453e+01 1.325768e+01 1.194345e+00 3.446789e+00 2.317199e+00 1.276936e+00 4.293640e+00 3.731897e+00 2.211005e+00 2.836116e+00 1.665493e+00 1.809141e+00 1.782092e+00 1.238556e+00 7.786835e-01 2.028731e-01 3.493036e-01 3.502481e-01 3.010682e-01 7.689022e-01 4.451614e-01 4.606136e-01 4.978710e-01 2.973869e-01 1.909975e-01 2.314564e-01 3.009126e-01 1.070441e-01
<GCONST> 1.016199e+02
<STATE> 3
<MEAN> 39
 7.280765e+00 -1.182834e+00 1.820229e+01 -4.098849e+00 -2.463233e+01 -3.546568e+00 -1.763457e+01 -6.440466e+00 6.987230e-01 -5.799828e+00 5.406765e+00 -3.174898e+00 4.774714e+01 2.926334e-02 -3.634622e-02 -2.384507e-01 1.316245e-03 2.794009e-01 1.714043e-01 7.675947e-02 5.507577e-02 4.079713e-02 -7.203290e-02 -5.307146e-02 3.842022e-02 -1.518662e-02 -1.551973e-01 2.352951e-01 -2.682979e-01 2.287615e-01 6.144233e-01 8.009600e-02 1.575310e-01 7.629228e-02 -8.099283e-02 3.891860e-02 -1.577560e-01 3.794684e-02 -2.834529e-01
<VARIANCE> 39
 4.743004e+00 1.656005e+01 2.260831e+01 1.288404e+01 2.398533e+01 3.809900e+01 1.895981e+01 1.737596e+01 1.241267e+01 1.604126e+01 1.552317e+01 7.932518e+00 8.786576e+00 1.504736e-01 5.921736e-01 1.268215e+00 9.137899e-01 1.828398e+00 1.211930e+00 1.082594e+00 1.012510e+00 1.065991e+00 7.532502e-01 9.562911e-01 7.718605e-01 2.895011e-01 5.341746e-02 1.121451e-01 1.476354e-01 2.001982e-01 3.432129e-01 3.065154e-01 2.306263e-01 2.799254e-01 2.156563e-01 1.737745e-01 2.598006e-01 2.002108e-01 6.024339e-02
<GCONST> 8.078415e+01
<STATE> 4
<MEAN> 39
 1.873858e+00 1.700815e+00 1.138866e+01 -1.261881e+00 -1.271584e+01 -8.279983e-01 -1.363831e+01 -5.066439e+00 -1.889050e+00 -6.391610e+00 1.636980e+00 -3.117437e+00 4.105371e+01 -8.517610e-01 1.951600e-01 -8.183031e-01 6.409207e-01 2.017906e+00 7.244431e-01 7.308308e-01 4.146631e-01 -9.677487e-02 1.071500e-01 -4.544933e-01 -1.324197e-01 -8.878582e-01 -1.151224e-01 -1.651052e-01 -9.005298e-02 -4.293998e-02 -2.557140e-02 2.890967e-02 7.952870e-02 5.615915e-02 5.320341e-02 7.265197e-02 1.328436e-01 -4.176037e-04 -2.560480e-02
<VARIANCE> 39
 2.179518e+01 1.935462e+01 2.077818e+01 1.746199e+01 5.257180e+01 2.960152e+01 2.084925e+01 1.882051e+01 1.759022e+01 1.128228e+01 1.748282e+01 9.877356e+00 1.520917e+01 3.497572e-01 1.695163e+00 9.368518e-01 1.174182e+00 3.024594e+00 2.015602e+00 2.486473e+00 1.931270e+00 1.805223e+00 1.379984e+00 2.056928e+00 8.274641e-01 4.871226e-01 4.923806e-02 1.338919e-01 1.435240e-01 1.764229e-01 3.555786e-01 2.625563e-01 3.214431e-01 2.967673e-01 2.472512e-01 2.718066e-01 3.594164e-01 2.077778e-01 4.636709e-02
<GCONST> 9.199192e+01
<TRANSP> 5
 0.000000e+00 1.000000e+00 0.000000e+00 0.000000e+00 0.000000e+00
 0.000000e+00 5.059551e-01 4.940449e-01 0.000000e+00 0.000000e+00
 0.000000e+00 0.000000e+00 8.252224e-01 1.747776e-01 0.000000e+00
 0.000000e+00 0.000000e+00 0.000000e+00 7.615501e-01 2.384499e-01
 0.000000e+00 0.000000e+00 0.000000e+00 0.000000e+00 0.000000e+00
<ENDHMM>
~h "j"
<BEGINHMM>
<NUMSTATES> 5
<STATE> 2
<MEAN> 39
 -2.678732e+00 1.150237e+00 8.440039e+00 2.235835e+00 -2.021598e+00 6.785903e+00 -6.996761e+00 -3.247160e-01 -1.555826e+00 -8.027962e+00 -4.420797e-01 -3.275671e+00 3.732742e+01 -9.820083e-01 -1.449765e+00 -1.253461e+00 -5.164058e-01 1.252803e-01 2.889471e-01 1.284965e+00 1.701730e+00 8.315017e-01 3.875718e-01 8.513103e-01 7.707130e-01 -3.867345e-01 1.509358e-01 2.152288e-01 3.166359e-01 1.186898e-02 -4.830111e-01 -5.221058e-01 -3.537124e-01 -3.647853e-01 -1.093863e-01 2.180051e-01 2.368713e-01 2.380706e-02 9.456292e-02
<VARIANCE> 39
 2.762454e+00 5.649137e+00 1.250351e+01 4.341706e+00 6.653142e+00 6.286933e+00 1.039301e+01 1.307395e+01 9.201097e+00 7.325387e+00 9.466219e+00 1.453866e+01 5.813703e-01 2.276203e-01 1.926990e-01 1.220382e+00 3.874410e-01 1.203889e+00 1.297136e+00 1.076952e+00 5.582527e-01 5.152786e-01 8.331942e-01 3.941264e-01 1.134675e+00 6.105280e-02 4.405412e-02 1.483739e-01 2.671795e-01 1.290935e-01 1.376195e-01 1.290567e-01 2.423035e-01 2.255115e-01 1.111810e-01 9.522410e-02 2.679333e-01 3.661513e-01 6.475162e-03
<GCONST> 6.002741e+01
<STATE> 3
<MEAN> 39
 -3.751583e+00 -3.001908e-03 7.798846e+00 1.326054e+00 -5.215607e+00 2.998869e+00 -7.289166e+00 3.176839e-01 7.257929e-02 -4.168349e+00 2.800489e+00 -1.979367e+00 3.691240e+01 1.347172e+00 7.381239e-01 3.290060e-01 -1.593709e+00 -3.032209e+00 -2.151394e+00 -1.775043e+00 -9.859005e-01 8.058742e-01 9.706776e-01 8.750204e-01 3.017013e-01 8.176659e-01 6.733592e-01 4.649308e-02 1.947572e-02 -7.563842e-01 -1.042058e+00 -3.524044e-01 -3.894348e-01 2.431552e-01 5.304673e-01 -4.180079e-02 -6.995642e-02 3.553502e-02 5.015496e-01
<VARIANCE> 39
 5.806015e+00 4.956160e+00 2.778052e+00 8.583344e+00 1.353907e+01 8.858924e+00 1.380551e+01 1.516356e+01 1.003263e+01 8.655305e+00 7.125585e+00 4.539627e+00 1.444006e+00 1.599928e+00 3.019916e-01 1.217035e+00 3.022524e+00 5.845596e+00 1.275498e+00 2.095062e+00 1.407265e+00 1.998197e+00 6.101637e-01 8.580931e-01 4.329446e-01 8.318322e-01 8.802236e-02 3.050521e-01 4.887953e-01 1.801740e-01 4.673380e-01 3.479033e-01 7.667440e-01 1.107773e+00 3.658003e-01 3.049448e-01 1.547051e-01 6.662279e-02 4.563251e-02
<GCONST> 8.145428e+01
<STATE> 4
<MEAN> 39
 4.460252e+00 1.466370e+00 9.304059e+00 -8.976228e+00 -2.343692e+01 -7.355063e+00 -1.522439e+01 3.038730e-01 8.446211e+00 -3.871244e-01 5.368365e+00 1.924632e-02 4.280106e+01 2.409042e+00 -1.048792e+00 -5.696149e-01 -3.335707e+00 -4.565430e+00 -1.441688e+00 3.328264e-02 3.096610e+00 3.143201e+00 3.268740e-01 -1.614838e-01 1.077885e-01 2.217452e+00 -4.012428e-01 -7.585085e-01 -9.157789e-01 5.308487e-01 1.781232e+00 1.358873e+00 1.312755e+00 7.871412e-01 -4.012990e-01 -4.996303e-01 -4.698726e-01 -4.473612e-01 -1.154752e-01
<VARIANCE> 39
 4.081397e+00 5.702438e+00 2.652102e+01 1.029982e+01 2.384361e+01 1.116318e+01 7.647622e+00 2.565271e+01 5.298746e+00 5.593160e+00 1.294571e+01 1.013604e+00 3.148878e+00 3.889326e-01 2.351729e-01 2.322852e+00 7.209160e-01 3.793062e+00 2.167581e+00 2.170089e+00 1.211682e+00 1.679035e+00 4.041555e+00 9.235782e-01 3.269945e-01 1.842110e-01 8.513682e-02 5.621897e-02 5.588844e-01 3.047656e-01 4.983072e-01 1.690367e-01 1.741550e-01 5.031480e-01 2.134598e-01 1.934803e-01 1.813162e-01 4.804139e-02 4.888533e-02
<GCONST> 7.566209e+01
<TRANSP> 5
 0.000000e+00 1.000000e+00 0.000000e+00 0.000000e+00 0.000000e+00
 0.000000e+00 7.501225e-01 2.498775e-01 0.000000e+00 0.000000e+00
 0.000000e+00 0.000000e+00 7.645974e-01 2.354027e-01 0.000000e+00
 0.000000e+00 0.000000e+00 0.000000e+00 5.000001e-01 5.000000e-01
 0.000000e+00 0.000000e+00 0.000000e+00 0.000000e+00 0.000000e+00
<ENDHMM>
~h "k"
<BEGINHMM>
<NUMSTATES> 5
<STATE> 2
<MEAN> 39
 -1.103863e+01 -8.281634e+00 2.371445e+00 6.540474e-01 -3.903919e+00 4.268937e+00 -5.816985e+00 -1.395715e-01 -3.743728e+00 -3.608551e+00 3.163968e+00 -5.862675e-01 3.362878e+01 2.740845e-01 -1.158688e-01 -8.739600e-01 -4.443612e-01 5.764791e-01 1.300899e+00 1.663699e-01 -3.242450e-01 -3.917846e-01 7.084899e-02 -1.376800e-01 -6.041399e-02 2.399394e-01 4.794524e-01 2.864711e-01 1.500232e-02 -2.199636e-01 -5.642987e-01 -2.611733e-01 -2.111988e-01 -1.304989e-01 4.189814e-01 1.437314e-01 2.908250e-01 -2.092381e-01 2.534171e-01
<VARIANCE> 39
 2.055621e+01 2.072449e+01 2.401148e+01 7.093991e+00 2.163168e+01 1.622121e+01 1.256026e+01 1.374641e+01 1.858524e+01 1.334514e+01 1.860396e+01 9.965971e+00 4.955300e+00 1.433100e+00 8.055792e-01 8.561034e-01 1.118860e+00 1.281268e+00 3.094496e+00 3.413536e-01 1.194445e+00 2.135338e+00 5.382544e-01 2.096418e+00 1.803383e+00 5.016404e-01 1.156034e-01 1.303534e-01 1.943008e-01 1.310108e-01 2.708273e-01 4.362451e-01 1.900048e-01 2.135146e-01 4.682927e-01 2.154639e-01 3.730590e-01 1.642895e-01 4.448722e-02
<GCONST> 8.617310e+01
<STATE> 3
<MEAN> 39
 -5.352143e+00 -5.545178e+00 1.465140e+00 -3.862732e+00 -9.865932e+00 2.006736e+00 -8.631327e+00 -2.343603e+00 -1.012573e+00 -2.514953e+00 5.650766e+00 -1.947788e+00 3.695836e+01 2.999844e+00 1.930426e+00 5.235506e-01 -2.331189e+00 -3.005117e+00 -1.794982e+00 -1.528721e+00 -8.269452e-01 -9.087248e-02 -5.690334e-01 7.169017e-01 5.890568e-01 1.619299e+00 5.770262e-01 1.266784e-01 2.915750e-02 -5.527545e-01 -3.123579e-01 9.033431e-02 -2.453294e-01 -2.022240e-01 -3.126215e-01 -3.640747e-01 1.393572e-01 3.992414e-01 4.040378e-01
<VARIANCE> 39
 2.900531e+01 3.974972e+01 3.000917e+01 2.072212e+01 6.216283e+01 7.036539e+01 2.307413e+01 8.257088e+00 1.651395e+01 1.105160e+01 1.703412e+01 1.139701e+01 5.978274e+00 3.030909e+00 3.192556e+00 3.629118e+00 3.598459e+00 3.443828e+00 5.605345e+00 1.577800e+00 1.552395e+00 2.301626e+00 2.140741e+00 2.533399e+00 2.335444e+00 1.066588e+00 4.164808e-01 8.873251e-01 8.174246e-01 5.197183e-01 1.307436e+00 2.316161e+00 3.458507e-01 3.063602e-01 2.918606e-01 2.547561e-01 5.099531e-01 3.943975e-01 1.163683e-01
<GCONST> 1.138470e+02
<STATE> 4
<MEAN> 39
 6.955317e+00 1.285370e+00 1.395719e+00 -1.498789e+01 -1.968795e+01 -2.172239e+00 -1.290843e+01 -6.153939e+00 -5.956720e+00 -6.211491e+00 9.028897e+00 2.672530e+00 4.409566e+01 3.812098e+00 2.728733e-01 -1.120002e+00 -3.279987e+00 -1.583172e+00 1.324129e+00 -1.563946e+00 -1.478496e+00 -9.667976e-01 -1.058797e+00 9.688168e-01 1.138271e+00 2.792003e+00 -9.423798e-01 -1.226740e+00 -3.593887e-01 1.036955e+00 1.130971e+00 1.018199e+00 3.589816e-01 1.763135e-01 4.972733e-01 5.681235e-01 -1.624927e-01 -5.330826e-01 -2.938941e-01
<VARIANCE> 39
 9.685589e-01 2.585011e+00 8.254178e+00 2.917159e+00 2.912494e+00 4.633078e+00 9.867135e+00 7.779718e+00 4.620856e+00 2.505096e+00 7.890275e+00 1.800587e+00 1.417162e+00 1.690773e+00 1.596212e+00 6.799542e-01 8.010744e-01 2.742392e+00 3.998767e+00 2.023271e+00 3.893955e-01 1.277686e+00 2.337035e-01 1.212334e-02 1.826118e-01 5.224312e-01 1.104914e-01 3.499350e-01 7.472896e-01 1.412462e-01 3.475684e-01 7.670230e-01 3.242659e-01 2.532369e-01 8.861130e-02 2.931180e-01 8.300465e-02 1.608214e-01 3.383358e-02
<GCONST> 6.206497e+01
<TRANSP> 5
 0.000000e+00 1.000000e+00 0.000000e+00 0.000000e+00 0.000000e+00
 0.000000e+00 6.373945e-01 3.626055e-01 0.000000e+00 0.000000e+00
 0.000000e+00 0.000000e+00 7.773916e-01 2.226084e-01 0.000000e+00
 0.000000e+00 0.000000e+00 0.000000e+00 1.664001e-07 9.999998e-01
 0.000000e+00 0.000000e+00 0.000000e+00 0.000000e+00 0.000000e+00
<ENDHMM>
~h "lsil"
<BEGINHMM>
<NUMSTATES> 5
<STATE> 2
<MEAN> 39
 -1.077486e+01 -9.333584e+00 1.413910e+00 2.039191e-01 -3.668496e+00 4.096761e+00 -5.181645e+00 1.190386e+00 -2.139106e+00 -4.817292e+00 2.633730e+00 -2.687836e+00 3.412177e+01 -8.938168e-02 -5.059826e-02 -2.761694e-02 5.568086e-02 7.962190e-02 8.545666e-03 4.914599e-02 3.486577e-02 -7.498683e-03 3.640676e-02 3.751982e-02 1.694723e-02 -5.491551e-02 2.686344e-02 2.848274e-02 2.316540e-02 -5.520971e-03 -1.197401e-02 -3.435029e-04 -4.576977e-03 7.725567e-03 1.694760e-02 4.570256e-03 -1.182030e-02 7.273695e-04 1.321728e-02
<VARIANCE> 39
 9.195782e+00 1.171811e+01 1.022799e+01 1.436065e+01 1.322018e+01 1.263477e+01 1.162223e+01 1.318998e+01 1.687776e+01 1.513704e+01 1.308734e+01 8.482249e+00 2.094326e+00 4.573223e-01 7.081029e-01 1.071142e+00 8.286630e-01 8.760937e-01 1.098182e+00 1.384839e+00 1.481574e+00 1.789921e+00 1.423401e+00 1.373074e+00 9.834681e-01 1.394779e-01 8.098135e-02 1.293543e-01 1.965864e-01 1.576734e-01 1.731255e-01 2.048704e-01 2.720956e-01 3.316213e-01 3.863736e-01 2.980151e-01 3.017208e-01 1.975002e-01 2.614385e-02
<GCONST> 7.878529e+01
<STATE> 3
<MEAN> 39
 -7.265352e+00 -2.841565e+00 4.372551e+00 1.174660e+00 -1.724968e+00 6.108944e+00 -3.838180e+00 3.256001e+00 2.019260e+00 -1.811188e+00 3.666937e+00 -1.827846e+00 3.474449e+01 -5.944651e-02 4.466123e-03 2.114129e-02 1.551094e-02 -1.015393e-02 -4.520087e-02 -1.192702e-02 -2.209140e-03 -2.187082e-02 1.311604e-02 2.195717e-02 3.213786e-03 -4.305939e-02 -7.081867e-03 -1.053363e-02 -5.716191e-03 -9.741254e-04 -4.040825e-03 -1.301293e-03 -4.273668e-03 -1.052480e-02 -1.633434e-02 -1.032634e-02 1.691406e-03 -1.339944e-02 -2.107123e-03
<VARIANCE> 39
 2.764079e+00 8.619527e+00 1.182977e+01 1.083739e+01 1.356646e+01 1.629043e+01 1.208078e+01 1.208767e+01 1.294846e+01 1.309442e+01 1.138069e+01 9.941319e+00 1.901304e+00 2.036545e-01 3.792784e-01 5.038556e-01 7.055762e-01 1.000379e+00 1.109916e+00 1.323089e+00 1.282792e+00 1.294521e+00 1.287766e+00 1.413512e+00 1.153086e+00 1.091179e-01 4.075452e-02 7.290871e-02 1.003588e-01 1.408469e-01 1.933894e-01 2.274061e-01 2.674966e-01 2.530584e-01 2.507301e-01 2.507214e-01 2.941409e-01 2.455133e-01 2.187511e-02
<GCONST> 7.129880e+01
<STATE> 4
<MEAN> 39
 -1.196669e+01 -5.788521e+00 3.172338e+00 2.219315e+00 -1.415031e+00 4.638715e+00 -4.836958e+00 2.739287e-01 -1.383011e+00 -2.911082e+00 2.353121e+00 -2.116008e+00 3.213239e+01 -5.773995e-02 -6.945361e-02 -1.301760e-02 4.244506e-02 4.491509e-02 4.541802e-02 2.850328e-02 -7.431094e-02 -7.790294e-02 -1.564810e-02 -2.535396e-02 4.261403e-03 -2.213711e-02 1.375657e-02 5.142362e-03 -2.690312e-03 2.569098e-03 -3.973482e-03 -6.171634e-03 6.395268e-03 -1.358763e-02 -1.064447e-02 1.148040e-02 1.732331e-02 1.255320e-02 6.210639e-03
<VARIANCE> 39
 1.313731e+01 1.715282e+01 2.146932e+01 1.113386e+01 1.595790e+01 1.350419e+01 1.420089e+01 1.595239e+01 1.483030e+01 2.066559e+01 1.337523e+01 1.165401e+01 6.348238e+00 1.098183e+00 1.146973e+00 1.418562e+00 1.026958e+00 1.280337e+00 1.435858e+00 1.454465e+00 1.695701e+00 1.674647e+00 1.533273e+00 1.490500e+00 1.467017e+00 5.350448e-01 2.311148e-01 2.257349e-01 3.158593e-01 2.076863e-01 2.559817e-01 2.838629e-01 3.090343e-01 3.531165e-01 3.421113e-01 3.027467e-01 3.085657e-01 3.038487e-01 1.113661e-01
<GCONST> 9.186423e+01
<TRANSP> 5
 0.000000e+00 1.000000e+00 0.000000e+00 0.000000e+00 0.000000e+00
 0.000000e+00 9.550544e-01 4.494565e-02 0.000000e+00 0.000000e+00
 0.000000e+00 0.000000e+00 9.803028e-01 1.969723e-02 0.000000e+00
 0.000000e+00 0.000000e+00 0.000000e+00 9.746476e-01 2.535244e-02
 0.000000e+00 0.000000e+00 0.000000e+00 0.000000e+00 0.000000e+00
<ENDHMM>
~h "m"
<BEGINHMM>
<NUMSTATES> 5
<STATE> 2
<MEAN> 39
 7.043993e+00 -1.540076e+00 6.576734e+00 -1.629735e+00 -6.867682e+00 5.099783e+00 -1.429186e+01 -8.146847e+00 -6.356734e+00 -9.964662e+00 2.899058e+00 -3.175558e+00 4.541209e+01 -3.511202e-01 2.327627e+00 1.964172e+00 1.411500e+00 1.228751e-01 -1.187974e+00 -6.501076e-01 -1.064614e+00 -1.436657e+00 -7.156661e-01 2.371522e-01 8.241680e-01 -9.121759e-01 -1.726329e-01 -5.980598e-01 -3.951312e-01 -3.119512e-01 5.782594e-02 3.926567e-01 1.821612e-01 4.997729e-01 4.756603e-01 3.170592e-02 -2.106887e-01 -2.039919e-01 7.459713e-02
<VARIANCE> 39
 1.288850e+01 1.843861e+01 1.497479e+01 1.326073e+01 1.437646e+01 2.590202e+01 1.754803e+01 1.531789e+01 2.067360e+01 1.378219e+01 1.051618e+01 1.551964e+01 1.142098e+01 2.865421e+00 2.072718e+00 8.580427e-01 2.442321e+00 2.499666e+00 1.242819e+00 2.564306e+00 1.780777e+00 2.360815e+00 7.765772e-01 1.573683e+00 2.508124e+00 1.645178e+00 1.332002e-01 1.368028e-01 1.903034e-01 1.830018e-01 2.964245e-01 1.101966e-01 4.053053e-01 3.401365e-01 3.371722e-01 2.593151e-01 3.603160e-01 4.314583e-01 8.458678e-02
<GCONST> 9.525271e+01
<STATE> 3
<MEAN> 39
 2.048002e+00 3.262235e+00 9.932573e+00 -7.635396e-01 -8.448461e+00 8.545890e-01 -1.211858e+01 -4.229288e+00 -3.716328e+00 -7.807955e+00 1.985431e+00 -2.979658e+00 4.036093e+01 -1.227924e-01 1.289951e-01 1.659229e-01 3.849815e-01 3.145629e-01 1.523870e-01 2.656582e-01 8.863133e-02 7.220440e-02 -4.420180e-02 -4.194049e-01 -5.227426e-02 -1.293537e-01 -1.225787e-01 -4.575241e-01 -4.158742e-01 -1.909739e-01 6.025123e-03 2.074217e-01 2.416952e-01 2.163818e-01 2.476559e-01 1.470185e-01 1.379126e-02 -4.678246e-02 2.241444e-02
<VARIANCE> 39
 9.996094e+00 4.765324e+00 6.213242e+00 1.000112e+01 2.529636e+01 3.103951e+01 2.370448e+01 2.373016e+01 2.069967e+01 1.274057e+01 9.313117e+00 1.102717e+01 6.125944e+00 9.965916e-01 5.933980e-01 4.346099e-01 6.980913e-01 1.416824e+00 1.684909e+00 1.558998e+00 1.366447e+00 1.366433e+00 6.859422e-01 1.356883e+00 7.550219e-01 5.497279e-01 1.800057e-01 2.877161e-01 2.681377e-01 3.131495e-01 3.342959e-01 4.195972e-01 3.533384e-01 2.644868e-01 5.139444e-01 2.314966e-01 1.952020e-01 2.167266e-01 6.124288e-02
<GCONST> 8.610023e+01
<STATE> 4
<MEAN> 39
 4.050877e+00 -1.780994e+00 5.639579e+00 -3.748014e+00 -9.991106e+00 4.431260e+00 -1.036835e+01 -3.509403e+00 -1.696220e+00 -8.304706e+00 4.694409e-01 -4.083997e+00 4.315379e+01 -1.149092e-02 -2.533844e+00 -1.890216e+00 -1.314196e+00 -4.923845e-01 1.291496e+00 1.094487e+00 1.503153e+00 1.950199e+00 7.205364e-01 8.829428e-02 -8.364622e-01 7.397453e-01 -3.614830e-02 -4.977179e-01 -5.062211e-02 -5.939744e-02 -2.745498e-02 1.441140e-01 -2.184474e-02 2.388418e-01 1.823602e-01 3.045720e-02 2.076554e-01 -5.383980e-02 1.734162e-01
<VARIANCE> 39
 2.544254e+01 3.697727e+01 5.152987e+01 3.674587e+01 7.375526e+01 3.418377e+01 2.853703e+01 2.633745e+01 3.714035e+01 1.979330e+01 1.761090e+01 1.174370e+01 1.992253e+01 2.549145e+00 3.084275e+00 4.796165e+00 2.959245e+00 2.971585e+00 2.374395e+00 2.426443e+00 2.415367e+00 2.567227e+00 2.626917e+00 2.338458e+00 1.521700e+00 2.361865e+00 1.199394e-01 7.259175e-01 9.916298e-01 6.050459e-01 2.748393e-01 4.422628e-01 5.198020e-01 3.642956e-01 5.925601e-01 4.860101e-01 5.016952e-01 3.283717e-01 1.477151e-01
<GCONST> 1.162388e+02
<TRANSP> 5
 0.000000e+00 1.000000e+00 0.000000e+00 0.000000e+00 0.000000e+00
 0.000000e+00 6.853055e-01 3.146945e-01 0.000000e+00 0.000000e+00
 0.000000e+00 0.000000e+00 7.668017e-01 2.331983e-01 0.000000e+00
 0.000000e+00 0.000000e+00 0.000000e+00 6.735787e-01 3.264213e-01
 0.000000e+00 0.000000e+00 0.000000e+00 0.000000e+00 0.000000e+00
<ENDHMM>
~h "n"
<BEGINHMM>
<NUMSTATES> 5
<STATE> 2
<MEAN> 39
 6.823012e+00 2.545302e-01 7.597364e+00 -4.504832e+00 -1.245205e+01 9.441001e-01 -1.500102e+01 -6.267849e+00 -1.044797e+00 -5.984251e+00 1.384496e+00 -6.108891e+00 4.475595e+01 -1.135719e+00 2.326539e+00 2.041465e+00 2.181329e+00 4.850050e-01 -1.497887e+00 3.130767e-01 -3.848728e-01 -2.134847e+00 -1.534109e+00 -5.128374e-01 8.955122e-01 -1.609001e+00 2.065231e-01 -5.549788e-01 -4.107623e-01 -7.232648e-01 -1.459907e-01 4.319284e-01 -7.617715e-02 3.794322e-01 4.886962e-01 3.026752e-01 3.326391e-01 -1.445055e-01 4.238420e-01
<VARIANCE> 39
 7.566022e+00 7.549124e+00 6.833352e+00 1.008677e+01 2.275830e+01 1.204270e+01 1.349341e+01 1.529671e+01 1.834069e+01 1.528514e+01 6.378353e+00 9.542243e+00 8.083987e+00 2.306041e-01 8.640451e-01 6.672757e-01 1.861045e+00 1.525737e+00 8.624681e-01 1.454970e+00 2.779343e+00 2.517621e+00 1.496678e+00 1.191150e+00 1.284219e+00 3.929291e-01 2.721090e-02 1.047134e-01 8.636648e-02 1.308123e-01 1.369121e-01 1.216109e-01 2.454928e-01 2.627109e-01 3.708914e-01 3.502912e-01 2.262880e-01 2.508660e-01 3.148893e-02
<GCONST> 7.827764e+01
<STATE> 3
<MEAN> 39
 4.881201e+00 3.794197e+00 1.204189e+01 -9.671659e-01 -1.099614e+01 -3.920682e-01 -1.489850e+01 -5.450501e+00 -3.122262e+00 -8.304190e+00 1.226739e+00 -4.187775e+00 4.266118e+01 -5.470216e-01 1.202792e-01 3.911060e-01 7.609681e-01 6.528686e-01 3.396735e-01 4.448335e-01 2.772102e-02 -2.096896e-01 -8.063112e-02 -2.100106e-01 2.873354e-01 -4.225604e-01 -8.258798e-03 -3.224734e-01 -3.192215e-01 -1.132382e-01 1.591559e-01 3.151376e-01 1.398034e-01 1.557294e-01 2.255333e-01 1.066984e-01 2.173401e-02 -3.585669e-02 6.675121e-02
<VARIANCE> 39
 1.117178e+01 5.516971e+00 6.160439e+00 1.712356e+01 3.678291e+01 7.263972e+00 9.190408e+00 1.361689e+01 1.648194e+01 1.100074e+01 6.656435e+00 9.781869e+00 9.069713e+00 1.528599e-01 4.768475e-01 6.266555e-01 6.051217e-01 1.061959e+00 1.088405e+00 7.164625e-01 1.181861e+00 9.580930e-01 9.103363e-01 6.113083e-01 8.064066e-01 1.343086e-01 4.877190e-02 7.970262e-02 1.288196e-01 1.813695e-01 1.529398e-01 1.722929e-01 2.237966e-01 3.733335e-01 2.580191e-01 1.866842e-01 1.223164e-01 1.878941e-01 4.823060e-02
<GCONST> 7.073106e+01
<STATE> 4
<MEAN> 39
 2.424867e-01 1.167615e-01 9.492716e+00 8.262576e-01 -6.375563e+00 4.447579e+00 -9.878837e+00 -2.217015e+00 -9.129219e-01 -6.877233e+00 5.061908e-01 -3.268435e+00 3.988894e+01 -1.126827e+00 -1.143327e+00 -1.184448e+00 -6.580982e-01 3.320421e-01 6.857986e-01 1.345800e+00 1.411161e+00 8.875470e-01 5.634845e-01 4.696591e-01 2.108009e-01 -5.678771e-01 -6.380156e-02 -7.975227e-02 -1.345037e-01 -2.745846e-01 -3.499146e-01 -2.341981e-01 -3.355537e-02 -4.981486e-02 -7.007705e-03 1.458589e-01 1.593360e-01 -6.565997e-02 6.488287e-03
<VARIANCE> 39
 1.387408e+01 1.312190e+01 1.685451e+01 1.548147e+01 8.728828e+01 1.573245e+01 8.372923e+00 1.637029e+01 1.781516e+01 1.425801e+01 1.119184e+01 1.063326e+01 1.080316e+01 9.351287e-01 7.395599e-01 1.501512e+00 8.779806e-01 1.920731e+00 1.575522e+00 1.285189e+00 1.901071e+00 1.386914e+00 2.394606e+00 1.246459e+00 8.342953e-01 6.079712e-01 6.193988e-02 1.606276e-01 1.923044e-01 2.136967e-01 2.554520e-01 2.299117e-01 1.671171e-01 3.426874e-01 3.571810e-01 3.152768e-01 2.557139e-01 1.819140e-01 3.782387e-02
<GCONST> 8.791409e+01
<TRANSP> 5
 0.000000e+00 1.000000e+00 0.000000e+00 0.000000e+00 0.000000e+00
 0.000000e+00 6.064909e-01 3.935091e-01 0.000000e+00 0.000000e+00
 0.000000e+00 0.000000e+00 8.274035e-01 1.725965e-01 0.000000e+00
 0.000000e+00 0.000000e+00 0.000000e+00 7.224072e-01 2.775928e-01
 0.000000e+00 0.000000e+00 0.000000e+00 0.000000e+00 0.000000e+00
<ENDHMM>
~h "ng"
<BEGINHMM>
<NUMSTATES> 5
<STATE> 2
<MEAN> 39
 2.198023e+00 2.945885e+00 1.056582e+01 -4.898361e+00 -1.554749e+01 2.078429e-01 -1.264162e+01 -2.518074e+00 1.590910e+00 -5.737878e+00 -1.691202e+00 -6.479386e+00 4.091997e+01 -4.479562e-01 1.162731e+00 -7.592350e-01 3.364180e-01 1.152129e+00 -1.135632e+00 -3.002094e-01 -2.090079e-01 4.828544e-02 1.265336e-01 -1.591635e-01 2.991103e-01 -8.595990e-01 8.708436e-02 -2.781968e-01 1.185542e-01 1.147829e-01 -3.342767e-01 -1.723685e-01 -1.143758e-01 7.793203e-03 1.727823e-01 -1.255579e-02 4.093621e-01 5.044025e-02 1.509710e-01
<VARIANCE> 39
 1.669544e+00 2.670443e+00 3.501120e+00 2.203871e+01 2.827773e+01 8.433619e+00 6.779713e+00 5.368558e+00 2.762380e+00 1.436630e+01 5.884957e+00 8.371241e+00 1.985398e+00 7.344668e-02 6.550652e-01 9.730123e-01 1.441382e+00 3.840623e+00 6.545939e-01 1.310947e+00 2.243791e+00 1.722735e+00 1.110258e-01 8.313521e-01 1.899077e-01 4.435563e-01 3.729360e-02 1.221543e-01 5.407470e-02 9.623930e-02 3.472047e-02 1.477576e-01 1.053389e-01 1.480316e-02 3.692972e-02 2.231956e-01 2.053255e-01 4.704699e-01 9.861736e-03
<GCONST> 5.570206e+01
<STATE> 3
<MEAN> 39
 1.031183e+00 3.385089e+00 8.667443e+00 -3.662131e+00 -1.319676e+01 -2.200826e+00 -1.235793e+01 -1.185881e+00 8.334806e-01 -7.022936e+00 -7.627825e-01 -4.835715e+00 3.943415e+01 -6.152512e-01 -2.773623e-01 -5.165043e-01 2.680069e-01 1.185216e+00 7.376541e-01 3.407655e-01 2.962713e-01 -9.348182e-02 1.721477e-01 1.237266e-01 -5.049511e-02 -4.770643e-01 -1.102778e-01 -3.206092e-01 1.793004e-02 6.273881e-03 4.618687e-02 3.568335e-01 2.305964e-01 4.651808e-02 -5.690867e-02 1.294440e-01 4.400186e-02 -8.514103e-02 3.728773e-02
<VARIANCE> 39
 3.316716e+00 1.816075e+00 8.020537e+00 1.021254e+01 1.376515e+01 1.512659e+01 7.542090e+00 7.401460e+00 4.532935e+00 6.723187e+00 4.429569e+00 9.553459e+00 1.272423e+00 2.986745e-01 3.338860e-01 5.904521e-01 5.164630e-01 8.084220e-01 2.255465e+00 1.020246e+00 8.375624e-01 3.565140e-01 8.033277e-01 5.863267e-01 1.179818e+00 9.773666e-02 5.282370e-02 4.231637e-02 1.422331e-01 1.125556e-01 2.222891e-01 2.438902e-01 1.764372e-01 2.767364e-01 1.432298e-01 1.195872e-01 1.146913e-01 2.713078e-01 2.536170e-02
<GCONST> 6.026464e+01
<STATE> 4
<MEAN> 39
 -3.856911e+00 -2.501726e+00 5.634421e+00 -1.556714e+00 -6.765099e+00 4.582067e+00 -6.049374e+00 5.080631e-01 7.619071e-02 -5.354842e+00 3.023635e-01 -4.239234e+00 3.719500e+01 -1.107305e+00 -1.264619e+00 -3.113856e-01 5.128898e-01 4.765935e-01 4.036052e-01 8.707816e-01 3.410698e-01 -3.429279e-01 1.385238e-01 5.521676e-01 6.942345e-01 -4.100507e-01 -1.896324e-02 2.299351e-02 7.532208e-02 -3.928269e-02 -3.572544e-01 -3.406900e-01 -2.620642e-01 -5.333530e-02 7.920872e-02 -6.209850e-02 5.956395e-02 2.326722e-01 2.208229e-03
<VARIANCE> 39
 5.889522e+00 9.082111e+00 2.920201e+00 2.178879e+00 6.593298e+00 1.161325e+01 9.672512e+00 7.252875e+00 7.241890e+00 8.651197e+00 6.762074e+00 4.046781e+00 9.920865e-01 6.294155e-01 1.293595e+00 3.249174e-01 1.946247e-01 1.696463e+00 1.092305e+00 1.103958e+00 1.246704e+00 1.677783e+00 5.415875e-01 1.513328e+00 5.940208e-01 8.444665e-02 9.273297e-02 1.008243e-01 5.597952e-02 3.772021e-02 2.255961e-01 2.257714e-01 1.393302e-01 2.438104e-01 1.739744e-01 1.083533e-01 3.014396e-01 7.079304e-02 1.732632e-02
<GCONST> 5.976466e+01
<TRANSP> 5
 0.000000e+00 1.000000e+00 0.000000e+00 0.000000e+00 0.000000e+00
 0.000000e+00 0.000000e+00 1.000000e+00 0.000000e+00 0.000000e+00
 0.000000e+00 0.000000e+00 8.380268e-01 1.619733e-01 0.000000e+00
 0.000000e+00 0.000000e+00 0.000000e+00 7.814746e-01 2.185255e-01
 0.000000e+00 0.000000e+00 0.000000e+00 0.000000e+00 0.000000e+00
<ENDHMM>
~h "NNN"
<BEGINHMM>
<NUMSTATES> 5
<STATE> 2
<MEAN> 39
 4.250474e+00 -1.774012e+01 6.871217e+00 -3.102243e+00 -1.678109e+01 3.495689e-01 -1.290762e+01 2.986800e+00 -6.851239e-01 -1.122773e+01 7.910027e+00 -3.149292e+00 5.100584e+01 1.439725e+00 -1.876657e+00 2.038336e+00 -5.570405e-01 -1.973155e+00 1.333161e+00 -1.411934e+00 -1.235993e-01 6.642289e-01 -2.049397e+00 4.690171e-01 2.832735e-01 2.495427e+00 -8.627230e-01 4.444264e-01 -8.090160e-02 3.523287e-01 5.313442e-01 1.153193e-01 3.393986e-01 -4.459190e-01 -1.173653e-01 6.331433e-01 -4.353957e-01 -5.153559e-02 -9.247210e-01
<VARIANCE> 39
 1.246286e+02 5.836445e+01 3.848833e+01 1.632067e+01 5.653109e+01 4.715024e+01 5.239885e+01 1.466096e+01 1.791482e+01 4.510941e+01 2.954594e+01 1.702077e+01 1.184139e+02 1.047403e+01 4.152826e+00 3.712914e+00 1.816917e+00 6.405407e+00 1.496142e+00 3.659706e+00 2.095089e+00 3.502015e+00 6.348842e+00 4.488381e+00 2.217625e+00 9.816835e+00 9.660658e-01 7.385180e-01 1.163357e+00 4.708678e-01 1.389527e+00 7.424562e-01 5.190493e-01 3.311422e-01 4.381592e-01 9.717200e-01 6.938277e-01 4.885540e-01 1.181550e+00
<GCONST> 1.324576e+02
<STATE> 3
<MEAN> 39
 7.465244e+00 -1.500572e+01 7.983147e+00 -2.791412e+00 -1.956227e+01 -4.431804e+00 -1.564758e+01 6.553392e-01 -2.102041e+00 -1.199617e+01 4.593008e+00 -5.869087e+00 5.254322e+01 -1.502976e-03 6.788877e-01 -8.243850e-02 1.043036e-01 9.765700e-02 -2.645668e-01 1.854224e-01 -7.409061e-02 7.544310e-02 3.639457e-01 -1.280655e-01 -2.127051e-02 -3.966101e-01 5.293827e-02 3.332373e-02 -1.365400e-03 1.480794e-02 5.831957e-02 -2.156571e-03 -1.152794e-02 7.832107e-02 9.060440e-03 -4.137691e-02 2.729565e-02 -3.290733e-02 3.160967e-02
<VARIANCE> 39
 4.417223e+01 7.205966e+01 1.742235e+01 2.436969e+01 3.979457e+01 4.638425e+01 1.874449e+01 3.451504e+01 2.313487e+01 4.737262e+01 5.074599e+01 1.748108e+01 5.313998e+01 2.449407e+00 1.940647e+00 1.817878e+00 2.039847e+00 2.122362e+00 2.241317e+00 1.575071e+00 1.973455e+00 2.359671e+00 2.369577e+00 2.261490e+00 1.898116e+00 2.394049e+00 4.106607e-01 5.326673e-01 4.015006e-01 3.608577e-01 3.196220e-01 3.254563e-01 2.692549e-01 2.991131e-01 5.694125e-01 5.135985e-01 5.050137e-01 4.214429e-01 3.959754e-01
<GCONST> 1.152244e+02
<STATE> 4
<MEAN> 39
 1.346771e+00 -2.544515e+00 1.055618e+01 1.922240e+00 -9.592264e+00 2.505104e+00 -9.183695e+00 1.020936e+00 3.699556e+00 -4.483385e+00 3.529323e+00 -3.924977e+00 4.213035e+01 -1.055749e+00 -6.103104e-02 -6.172821e-01 3.088403e-01 1.377148e+00 6.402578e-01 5.867032e-01 5.008321e-01 1.130564e-01 3.353778e-01 -6.621934e-02 -2.650691e-02 -8.667341e-01 -1.042878e-01 -3.310541e-01 -1.721648e-01 -1.410345e-01 -9.758959e-02 -3.511231e-03 -6.369862e-03 3.164693e-02 -1.146143e-01 -5.342123e-02 1.664795e-01 1.349470e-01 4.494068e-02
<VARIANCE> 39
 4.842891e+01 3.573561e+01 1.390764e+01 9.323779e+00 3.616521e+01 4.080283e+01 3.494417e+01 1.293773e+01 1.120214e+01 2.173923e+01 1.153551e+01 9.963228e+00 2.988830e+01 1.321882e+00 3.064716e+00 2.221575e+00 1.176372e+00 1.563400e+00 1.336428e+00 1.761014e+00 1.181020e+00 1.202486e+00 3.025777e+00 2.145370e+00 2.441098e+00 2.159699e+00 6.798040e-02 1.219722e-01 2.880247e-01 1.155967e-01 2.792016e-01 1.665845e-01 1.427663e-01 3.011030e-01 3.039255e-01 1.731564e-01 4.945954e-01 3.979451e-01 3.945421e-02
<GCONST> 9.637994e+01
<TRANSP> 5
 0.000000e+00 1.000000e+00 0.000000e+00 0.000000e+00 0.000000e+00
 0.000000e+00 7.221716e-01 2.778284e-01 0.000000e+00 0.000000e+00
 0.000000e+00 0.000000e+00 9.252427e-01 7.475737e-02 0.000000e+00
 0.000000e+00 0.000000e+00 0.000000e+00 8.282929e-01 1.717071e-01
 0.000000e+00 0.000000e+00 0.000000e+00 0.000000e+00 0.000000e+00
<ENDHMM>
~h "o"
<BEGINHMM>
<NUMSTATES> 5
<STATE> 2
<MEAN> 39
 7.202162e+00 -1.093374e+01 -9.363699e+00 -2.283047e+01 -1.829544e+01 8.787237e+00 -5.296126e+00 4.108595e+00 4.809622e+00 -2.071186e+00 6.402411e+00 -4.811127e+00 4.822796e+01 1.734149e+00 -9.369567e-01 -4.129737e-01 -1.438099e+00 -4.273331e-01 1.335756e+00 -6.048484e-01 -4.231746e-01 9.713858e-02 -5.098597e-01 3.127031e-02 -8.145850e-01 1.826476e+00 -4.538989e-01 2.064304e-01 5.463042e-01 8.369865e-01 5.384563e-01 -9.914605e-02 -7.276728e-02 -1.992345e-01 -2.296070e-01 3.552901e-02 -4.885493e-02 6.743014e-02 -3.714750e-01
<VARIANCE> 39
 1.812321e+01 1.926792e+01 1.508846e+01 1.196562e+01 1.661784e+01 2.569583e+01 3.222121e+01 1.860815e+01 1.424644e+01 1.188416e+01 1.951288e+01 2.998278e+01 2.536314e+01 2.696304e+00 1.150322e+00 2.338230e+00 5.776605e+00 2.699275e+00 1.027727e+00 1.849139e+00 1.362756e+00 1.195853e+00 8.425858e-01 1.616524e+00 8.852264e-01 1.944920e+00 3.370924e-01 2.441586e-01 4.235094e-01 7.661511e-01 3.731427e-01 2.447756e-01 3.602740e-01 2.010407e-01 3.242118e-01 2.095692e-01 2.705513e-01 1.911248e-01 2.609957e-01
<GCONST> 1.009938e+02
<STATE> 3
<MEAN> 39
 1.237551e+01 -1.281086e+01 -5.969472e+00 -2.211356e+01 -1.546752e+01 1.388897e+01 -9.686135e+00 -3.441804e-01 2.844573e+00 -2.778446e+00 8.851700e+00 -7.671804e+00 5.419607e+01 1.132665e-01 1.778392e-01 3.539023e-01 2.739416e-01 1.431639e-02 -1.037376e-01 -2.276427e-01 1.490463e-02 1.028112e-01 2.793140e-02 5.591322e-03 -2.092520e-01 8.029414e-02 -1.327771e-01 1.850192e-01 9.003349e-02 1.995853e-01 -3.599435e-02 -3.062935e-01 -1.338910e-02 1.263960e-01 1.434338e-01 6.777946e-03 -1.676988e-01 7.920980e-02 -2.105330e-01
<VARIANCE> 39
 3.908836e+00 7.127573e+00 6.452498e+00 8.344150e+00 1.841180e+01 9.496819e+00 1.873376e+01 9.066961e+00 6.585922e+00 1.470373e+01 1.304995e+01 1.770025e+01 7.299332e+00 1.824083e-01 5.845854e-01 3.832959e-01 5.531375e-01 6.477045e-01 1.125234e+00 9.730796e-01 9.388601e-01 1.153480e+00 9.247007e-01 1.201977e+00 9.782715e-01 2.886307e-01 3.299794e-02 7.646606e-02 6.230441e-02 1.074355e-01 1.271503e-01 1.249144e-01 1.512156e-01 1.469900e-01 1.451415e-01 1.576685e-01 1.702479e-01 1.334759e-01 3.995011e-02
<GCONST> 6.636077e+01
<STATE> 4
<MEAN> 39
 1.063995e+01 -7.496122e+00 -4.159623e-01 -1.415671e+01 -1.417043e+01 7.137725e+00 -1.310298e+01 2.371836e-02 4.987525e+00 -2.886148e+00 5.239309e+00 -7.716050e+00 5.047613e+01 -1.261965e+00 2.402696e+00 1.951115e+00 2.905598e+00 8.369176e-01 -1.948365e+00 -1.505847e-01 -6.561759e-01 -8.856548e-01 -6.019806e-01 -9.945791e-01 8.866923e-01 -2.009943e+00 -2.724207e-01 2.385939e-01 1.664447e-01 2.581452e-01 2.419326e-01 4.662854e-02 2.026711e-01 -2.607667e-01 -5.795699e-01 -1.916449e-01 1.055483e-01 1.488378e-01 -2.648031e-01
<VARIANCE> 39
 8.917740e+00 2.232091e+01 1.712329e+01 3.579811e+01 2.282501e+01 2.569913e+01 3.937503e+01 1.967087e+01 1.804984e+01 1.430014e+01 1.236128e+01 1.991738e+01 1.692788e+01 5.659308e-01 1.357425e+00 1.000149e+00 1.445788e+00 1.876892e+00 7.716134e-01 1.871821e+00 2.241144e+00 3.800105e+00 1.968515e+00 1.090930e+00 1.370789e+00 4.681568e-01 7.400739e-02 3.755289e-01 2.202995e-01 4.135056e-01 2.812178e-01 2.179912e-01 2.741373e-01 3.363569e-01 5.049327e-01 3.317583e-01 2.134031e-01 2.914609e-01 1.534025e-01
<GCONST> 9.627607e+01
<TRANSP> 5
 0.000000e+00 1.000000e+00 0.000000e+00 0.000000e+00 0.000000e+00
 0.000000e+00 6.959993e-01 3.040008e-01 0.000000e+00 0.000000e+00
 0.000000e+00 0.000000e+00 8.824522e-01 1.175478e-01 0.000000e+00
 0.000000e+00 0.000000e+00 0.000000e+00 7.488158e-01 2.511843e-01
 0.000000e+00 0.000000e+00 0.000000e+00 0.000000e+00 0.000000e+00
<ENDHMM>
~h "p"
<BEGINHMM>
<NUMSTATES> 5
<STATE> 2
<MEAN> 39
 -3.589460e+00 -2.182694e+00 6.071679e+00 1.282354e+00 -4.364821e+00 3.656568e+00 -8.036251e+00 3.721522e-01 -2.479816e-01 -5.959692e+00 1.440311e+00 -3.245587e+00 3.748483e+01 -1.715038e+00 -1.331412e+00 -8.083868e-01 1.562947e-01 6.290664e-01 6.192217e-01 1.444214e+00 1.535397e+00 9.965788e-01 5.614722e-01 -1.881331e-01 -6.385642e-02 -9.381069e-01 2.108186e-01 -6.721827e-02 -6.975216e-02 -2.267806e-01 -2.985443e-01 -2.047531e-01 -2.300259e-01 -3.673236e-01 -2.753169e-01 1.284001e-01 3.749473e-01 2.132847e-01 1.791396e-01
<VARIANCE> 39
 8.957960e+00 1.236598e+01 9.034739e+00 1.215845e+01 1.608926e+01 1.077496e+01 2.052131e+01 2.510777e+01 1.555735e+01 1.836838e+01 1.537100e+01 1.023019e+01 1.947624e+00 6.678967e-01 1.275471e+00 1.578277e+00 1.401291e+00 2.081023e+00 1.799780e+00 1.704401e+00 3.069960e+00 2.632591e+00 2.934958e+00 2.495685e+00 1.466252e+00 2.631994e-01 9.660547e-02 2.526425e-01 2.149291e-01 1.925932e-01 2.356432e-01 2.242883e-01 1.912927e-01 3.665935e-01 4.043583e-01 4.439421e-01 4.762611e-01 2.424540e-01 3.457191e-02
<GCONST> 8.974312e+01
<STATE> 3
<MEAN> 39
 -8.401066e+00 -7.699430e+00 1.926833e+00 1.741607e-01 -4.743253e+00 3.325988e+00 -5.292598e+00 1.899500e+00 1.147418e+00 -3.454658e+00 3.097649e+00 -1.508375e+00 3.524186e+01 1.064740e+00 -2.692282e-02 -1.059065e+00 -1.677638e+00 -1.028872e+00 9.367679e-02 2.084732e-01 -3.721592e-03 3.696872e-01 5.385798e-01 2.029073e-01 -1.559568e-01 7.639633e-01 1.030551e+00 -3.804199e-03 -2.939807e-01 -8.345413e-01 -3.511583e-01 4.642421e-01 -3.092442e-01 -1.665656e-01 2.187671e-01 -7.770572e-02 -8.153656e-02 -4.438330e-01 8.179942e-01
<VARIANCE> 39
 5.442732e+00 1.447987e+01 1.154710e+01 1.012106e+01 1.335457e+01 1.282459e+01 9.569501e+00 1.181794e+01 1.282916e+01 9.418270e+00 1.283302e+01 6.407585e+00 1.334033e+00 4.556963e+00 1.507451e+00 2.289007e+00 5.736005e+00 2.627771e+00 1.539795e+00 1.269866e+00 1.505850e+00 1.780224e+00 1.286447e+00 1.906418e+00 1.369100e+00 2.293769e+00 3.234360e-01 5.966430e-01 5.060777e-01 7.782906e-01 3.297487e-01 4.474887e-01 2.766005e-01 3.124506e-01 3.921095e-01 2.780662e-01 4.344855e-01 2.818250e-01 3.359621e-01
<GCONST> 9.698917e+01
<STATE> 4
<MEAN> 39
 3.216579e+00 -7.081743e+00 -4.670928e+00 -1.329405e+01 -1.199144e+01 7.506709e+00 -4.752561e+00 1.693653e+00 3.716168e+00 -1.414658e+00 4.031939e+00 -5.349652e+00 4.372606e+01 3.565264e+00 -2.532476e+00 -2.156008e+00 -3.889365e+00 -1.459188e+00 2.582578e+00 -1.361219e+00 -2.934824e-01 1.418784e+00 3.496997e-01 6.970714e-02 -2.365209e+00 3.745333e+00 -5.380048e-01 -7.059018e-01 6.228533e-01 1.038133e+00 6.275973e-01 -1.179627e-01 -4.997680e-01 2.706042e-01 2.603400e-01 -4.620923e-01 -5.403212e-01 -2.141315e-01 -4.675339e-02
<VARIANCE> 39
 6.766797e+01 1.864990e+01 3.084286e+01 7.593750e+01 2.419588e+01 3.226483e+01 1.771324e+01 1.219997e+01 1.674105e+01 8.258861e+00 6.935254e+00 2.107461e+01 4.325930e+01 6.579283e+00 3.121399e+00 1.727837e+00 7.572887e+00 3.653917e+00 3.398881e+00 2.677456e+00 8.938656e-01 3.477509e+00 1.673102e+00 1.764549e+00 2.080656e+00 5.879553e+00 6.547437e-01 5.559501e-01 3.395906e-01 1.253066e+00 4.396526e-01 6.318475e-01 2.611910e-01 1.625630e-01 2.838140e-01 2.720170e-01 1.382990e-01 4.122725e-01 4.360694e-01
<GCONST> 1.135513e+02
<TRANSP> 5
 0.000000e+00 1.000000e+00 0.000000e+00 0.000000e+00 0.000000e+00
 0.000000e+00 7.832016e-01 2.167984e-01 0.000000e+00 0.000000e+00
 0.000000e+00 0.000000e+00 6.978145e-01 3.021856e-01 0.000000e+00
 0.000000e+00 0.000000e+00 0.000000e+00 4.351875e-01 5.648124e-01
 0.000000e+00 0.000000e+00 0.000000e+00 0.000000e+00 0.000000e+00
<ENDHMM>
~h "r"
<BEGINHMM>
<NUMSTATES> 5
<STATE> 2
<MEAN> 39
 9.487353e+00 -6.888426e+00 7.191322e+00 -8.150672e+00 -2.112157e+01 -2.821595e+00 -1.549336e+01 2.837810e+00 7.135239e+00 -7.000021e+00 2.287304e+00 -2.059694e+00 4.981329e+01 -6.452092e-01 8.476442e-01 -1.244940e+00 9.349563e-01 2.798393e+00 -6.879253e-02 -1.293235e+00 -9.281894e-01 9.255877e-01 1.703492e+00 -2.674258e-01 -6.773734e-01 -1.034157e+00 -4.531401e-02 1.350472e-01 -4.677051e-02 -2.970878e-01 -2.002915e-01 1.543316e-01 1.057942e-01 -5.098354e-01 -2.576247e-01 4.490657e-01 3.532471e-01 -2.595266e-01 -6.559770e-02
<VARIANCE> 39
 3.156169e+00 5.248041e+01 2.060831e+01 2.581554e+01 4.079807e+01 1.789367e+01 2.446445e+01 6.029524e+01 3.259865e+01 2.525870e+01 2.281291e+01 8.335196e+00 1.445787e+01 3.633789e-01 9.451730e-01 7.540712e-01 7.922346e-01 1.365203e+00 1.247075e+00 1.936919e+00 1.132501e+00 1.452533e+00 1.658156e+00 2.201887e+00 8.886425e-01 5.370592e-01 8.723396e-02 2.625289e-01 1.410414e-01 2.389605e-01 2.922727e-01 1.807906e-01 5.347828e-01 2.443363e-01 3.044686e-01 3.894987e-01 2.431479e-01 1.456223e-01 1.521243e-01
<GCONST> 9.274985e+01
<STATE> 3
<MEAN> 39
 6.221569e+00 5.794039e-01 7.254838e+00 -3.829471e+00 -1.350740e+01 -3.928658e+00 -1.837521e+01 -4.762708e+00 4.812362e+00 5.381563e-01 5.479478e+00 -3.711113e+00 4.416194e+01 1.631242e-01 -7.841985e-02 -1.691911e+00 -5.915649e-01 1.469604e+00 6.153086e-01 -1.222293e+00 -1.320951e+00 2.649848e-01 1.494846e+00 3.272000e-01 -8.256121e-01 -7.968727e-02 5.640014e-01 -5.317112e-01 -4.819399e-02 -5.978147e-01 -7.015041e-01 1.399969e-01 -9.004981e-02 2.986255e-02 -2.450820e-01 -3.256305e-01 3.361974e-01 1.012149e-01 6.750515e-01
<VARIANCE> 39
 3.848411e+00 1.695270e+01 1.427016e+01 1.928921e+01 2.857207e+01 1.991530e+01 1.905948e+01 2.875899e+01 1.415899e+01 9.387618e+00 1.279482e+01 8.314111e+00 7.027831e+00 8.381445e-01 1.034921e+00 1.115325e+00 1.516422e+00 2.587904e+00 5.833336e-01 2.313721e+00 1.303161e+00 9.767028e-01 1.138894e+00 1.225496e+00 1.181422e+00 1.053636e+00 5.718496e-02 1.397280e-01 2.784491e-01 3.245342e-01 4.662165e-01 1.825576e-01 4.995396e-01 3.430268e-01 3.354797e-01 2.805915e-01 3.691844e-01 3.042955e-01 7.152531e-02
<GCONST> 8.940943e+01
<STATE> 4
<MEAN> 39
 1.029871e+01 -5.679216e+00 1.280901e-02 -9.822868e+00 -1.298134e+01 4.674897e-01 -2.085259e+01 -4.777661e+00 9.160524e+00 1.365802e+00 4.697612e+00 -6.348636e+00 4.911903e+01 1.071337e+00 -1.227857e+00 -1.395368e+00 -1.468115e+00 7.032474e-01 1.489013e+00 -5.383684e-01 -5.144389e-01 -4.908338e-01 -2.813918e-01 4.464435e-01 -4.056877e-01 1.258734e+00 -4.733403e-02 -1.921987e-01 3.275396e-01 1.404788e-03 -3.168803e-01 2.215857e-01 5.779102e-01 4.891697e-01 -4.483976e-01 -7.299556e-01 -1.881405e-01 2.047500e-01 1.049159e-01
<VARIANCE> 39
 3.123081e+00 2.340743e+01 2.161219e+01 2.122883e+01 2.130691e+01 1.564767e+01 2.419034e+01 4.830655e+01 3.296943e+01 6.378849e+00 1.873787e+01 1.074691e+01 7.623097e+00 2.999655e-01 3.237481e-01 8.777841e-01 9.063567e-01 1.253557e+00 4.790798e-01 1.277639e+00 2.246226e+00 1.696250e+00 1.138546e+00 1.988473e+00 9.274129e-01 2.088647e-01 4.378676e-02 1.228929e-01 1.270778e-01 1.792625e-01 3.008196e-01 7.772280e-02 3.335918e-01 1.157086e-01 2.147862e-01 1.321586e-01 7.753321e-02 1.091494e-01 9.066465e-02
<GCONST> 7.859177e+01
<TRANSP> 5
 0.000000e+00 1.000000e+00 0.000000e+00 0.000000e+00 0.000000e+00
 0.000000e+00 4.224507e-01 5.775493e-01 0.000000e+00 0.000000e+00
 0.000000e+00 0.000000e+00 6.327859e-01 3.672141e-01 0.000000e+00
 0.000000e+00 0.000000e+00 0.000000e+00 4.999724e-01 5.000277e-01
 0.000000e+00 0.000000e+00 0.000000e+00 0.000000e+00 0.000000e+00
<ENDHMM>
~h "s"
<BEGINHMM>
<NUMSTATES> 5
<STATE> 2
<MEAN> 39
 -6.963004e+00 -4.957534e+00 4.244661e+00 -7.737611e-02 -4.756048e+00 5.005208e+00 -6.876384e+00 -5.626513e-01 -4.780872e-01 -3.599770e+00 2.654203e+00 -1.840557e+00 3.574877e+01 -7.026851e-01 -6.713485e-01 -7.928029e-01 -1.756421e-01 6.269815e-02 -8.852010e-02 4.613923e-01 4.262099e-01 6.720252e-02 5.957699e-01 1.931762e-01 -1.915349e-01 -4.125837e-01 5.098646e-01 2.556573e-01 2.446025e-01 1.836872e-02 -2.078342e-01 -2.158097e-01 -2.795569e-01 -5.149242e-02 6.402303e-02 -3.266061e-02 1.731367e-02 -1.459921e-01 3.086720e-01
<VARIANCE> 39
 1.919505e+01 1.800242e+01 1.672581e+01 1.049711e+01 9.526345e+00 8.200922e+00 8.335746e+00 1.463070e+01 1.108451e+01 1.185635e+01 1.167525e+01 1.071176e+01 3.849763e+00 9.518946e-01 1.167161e+00 1.105417e+00 1.006620e+00 8.623754e-01 6.041092e-01 1.121617e+00 1.145351e+00 1.346272e+00 1.118807e+00 1.652388e+00 1.820497e+00 3.836355e-01 2.225932e-01 2.862673e-01 2.101632e-01 2.348869e-01 2.739174e-01 1.800727e-01 2.635573e-01 2.412598e-01 3.809342e-01 2.501224e-01 3.413544e-01 4.924680e-01 7.681061e-02
<GCONST> 8.504405e+01
<STATE> 3
<MEAN> 39
 -6.151289e+00 -5.725796e+00 3.312573e+00 4.638132e-01 -4.936176e+00 3.047156e+00 -7.560716e+00 -2.221615e-01 9.237651e-01 -2.085480e+00 4.058950e+00 -2.674211e+00 3.623110e+01 4.111751e+00 1.585365e+00 -1.498622e-02 -1.902600e+00 -2.765362e+00 -2.187035e+00 -2.180928e+00 -9.843819e-03 2.471232e+00 8.715223e-01 -8.348346e-02 -7.236361e-01 2.602040e+00 1.210101e+00 -1.723283e-01 -5.528193e-02 -8.540816e-01 -8.322394e-01 -4.938465e-02 -6.347570e-01 1.917162e-01 6.701794e-01 1.094456e-01 -4.922800e-02 -2.704176e-01 1.083926e+00
<VARIANCE> 39
 1.141302e+01 1.247956e+01 7.968232e+00 1.293398e+01 1.845949e+01 1.543321e+01 3.367367e+01 2.424403e+01 1.634590e+01 9.483097e+00 9.938745e+00 1.041687e+01 2.332581e+00 2.417098e+00 1.667418e+00 1.738815e+00 2.318286e+00 3.162533e+00 1.123041e+00 2.219959e+00 1.326441e+00 2.656820e+00 1.319968e+00 1.819651e+00 1.491657e+00 1.593630e+00 2.813083e-01 4.895203e-01 7.728644e-02 2.077496e-01 3.067648e-01 4.570633e-01 6.235652e-01 2.766488e-01 5.066481e-01 2.882773e-01 4.628939e-01 3.520251e-01 5.842889e-02
<GCONST> 9.559903e+01
<STATE> 4
<MEAN> 39
 1.008848e+01 -2.218213e+00 3.702724e+00 -9.147364e+00 -1.782130e+01 -3.963530e+00 -1.665202e+01 4.461945e-01 1.117999e+01 1.497991e+00 3.048270e+00 -5.486299e+00 4.796088e+01 4.805613e+00 -1.481354e+00 -4.137185e-01 -2.676514e+00 -2.263931e+00 2.598905e-01 -2.219236e+00 1.492706e+00 2.609412e+00 3.483155e-01 3.274450e-01 -1.254140e+00 4.407763e+00 -1.108791e+00 -9.590757e-01 -2.891964e-01 6.101302e-01 1.306925e+00 1.132774e+00 6.141387e-01 2.262539e-01 -6.931562e-01 -5.377498e-01 2.755353e-03 1.312299e-01 -5.182852e-01
<VARIANCE> 39
 9.753491e+00 2.635625e+01 9.658974e+00 7.044433e+00 1.822276e+01 1.031956e+01 2.014454e+01 4.045427e+00 2.211500e+01 2.909497e+00 8.178087e+00 7.117143e+00 1.505501e+01 1.964829e+00 2.627948e+00 1.030245e+00 1.132949e+00 2.551582e+00 2.267435e+00 3.430849e+00 1.171466e+00 2.848522e+00 1.567705e+00 1.509740e+00 5.414479e-01 5.014691e-01 3.053998e-01 4.716179e-01 1.053030e-01 3.044572e-01 1.068670e-01 1.999035e-01 3.729636e-01 2.611588e-01 5.783483e-01 6.419556e-02 1.904792e-01 2.001639e-01 3.395328e-01
<GCONST> 8.837782e+01
<TRANSP> 5
 0.000000e+00 1.000000e+00 0.000000e+00 0.000000e+00 0.000000e+00
 0.000000e+00 8.461466e-01 1.538534e-01 0.000000e+00 0.000000e+00
 0.000000e+00 0.000000e+00 6.250454e-01 3.749546e-01 0.000000e+00
 0.000000e+00 0.000000e+00 0.000000e+00 4.999982e-01 5.000018e-01
 0.000000e+00 0.000000e+00 0.000000e+00 0.000000e+00 0.000000e+00
<ENDHMM>
~h "sil"
<BEGINHMM>
<NUMSTATES> 5
<STATE> 2
<MEAN> 39
 -1.218111e+01 -1.061126e+01 4.824019e-01 5.435997e-01 -2.910317e+00 5.115602e+00 -4.469261e+00 1.277617e+00 -1.323341e+00 -3.343164e+00 3.753440e+00 -1.992692e+00 3.339805e+01 -5.818749e-02 -2.647475e-02 -1.619514e-03 3.409568e-02 2.968119e-02 1.325687e-02 1.929433e-02 -1.793550e-02 -3.636513e-03 4.214242e-02 2.155561e-02 -5.820453e-03 -3.543823e-02 1.652843e-02 1.795127e-02 1.122114e-02 -5.088289e-03 -1.263537e-02 -1.180747e-02 -1.234237e-02 -9.458379e-03 -7.127796e-03 -7.957553e-03 -7.544462e-03 2.664166e-04 6.903283e-03
<VARIANCE> 39
 1.016588e+01 1.659662e+01 1.756093e+01 1.301434e+01 1.680776e+01 1.430285e+01 1.583339e+01 1.681182e+01 1.482445e+01 1.600418e+01 1.581976e+01 1.139167e+01 2.547366e+00 3.006864e-01 7.149654e-01 7.979407e-01 9.471964e-01 1.101019e+00 1.125358e+00 1.301318e+00 1.459813e+00 1.431298e+00 1.603865e+00 1.604990e+00 1.200387e+00 1.040181e-01 5.762634e-02 1.464667e-01 1.676705e-01 1.988871e-01 2.315915e-01 2.317038e-01 2.682146e-01 2.980158e-01 2.842925e-01 3.337642e-01 3.357799e-01 2.491007e-01 2.023011e-02
<GCONST> 8.080040e+01
<STATE> 3
<MEAN> 39
 -1.181506e+01 -6.231742e+00 4.551205e-01 8.372307e-01 -9.835806e-01 3.777927e+00 -4.145421e+00 1.215997e+00 -9.135092e-01 -1.793769e+00 2.869101e+00 -2.278833e+00 3.193647e+01 8.484913e-01 1.955226e-01 -3.559406e-02 -4.784139e-01 -4.574294e-01 -1.150701e-01 -4.072950e-01 -8.027920e-02 4.964210e-02 -2.707549e-01 -7.080564e-02 -8.213117e-02 6.004467e-01 3.141028e-01 1.442622e-02 -2.337079e-02 -2.033420e-01 -1.814388e-01 5.756320e-03 -1.216159e-01 -1.299773e-02 1.590844e-02 -2.081724e-01 -6.230601e-02 -1.179417e-02 2.551455e-01
<VARIANCE> 39
 3.090772e+01 2.290025e+01 2.240810e+01 2.045472e+01 2.099121e+01 2.170986e+01 1.975002e+01 1.959758e+01 1.772697e+01 1.884366e+01 1.575600e+01 1.063158e+01 2.057086e+01 4.695240e+00 3.345290e+00 3.979708e+00 3.962273e+00 2.917056e+00 2.690231e+00 2.185284e+00 2.320071e+00 1.756721e+00 2.048364e+00 1.604598e+00 1.131113e+00 2.741434e+00 6.774636e-01 5.389121e-01 5.420719e-01 5.734897e-01 4.248776e-01 5.028008e-01 4.210701e-01 4.691854e-01 3.360376e-01 3.780448e-01 3.141734e-01 2.337738e-01 4.277178e-01
<GCONST> 1.116193e+02
<STATE> 4
<MEAN> 39
 -9.123013e+00 -4.909853e+00 2.336993e+00 1.537377e-01 -2.582254e+00 5.977112e+00 -3.198316e+00 2.000090e+00 -4.086264e-01 -3.929349e+00 2.293090e+00 -1.204489e+00 3.379800e+01 1.405938e-01 -2.072061e-02 -4.064779e-02 -9.199792e-02 -3.711005e-02 -2.614472e-02 -1.295017e-01 -7.976442e-02 -4.653908e-02 -1.626114e-01 -7.240428e-02 1.332653e-02 1.211950e-01 2.343545e-02 8.231308e-03 2.589742e-02 2.001300e-02 1.336492e-02 9.971675e-03 -1.958378e-02 -7.033974e-03 -1.346313e-03 -8.775330e-03 -3.833213e-03 -3.269592e-03 2.122750e-02
<VARIANCE> 39
 2.840291e+01 1.978105e+01 2.330469e+01 1.720830e+01 1.499672e+01 2.234280e+01 1.988266e+01 1.761769e+01 1.436767e+01 2.091566e+01 1.244165e+01 1.123224e+01 1.767437e+01 1.729557e+00 1.524364e+00 1.330401e+00 1.480706e+00 1.317209e+00 1.133087e+00 1.631986e+00 1.585333e+00 1.369687e+00 1.713970e+00 1.430159e+00 1.050370e+00 1.116862e+00 1.790597e-01 2.074701e-01 2.010096e-01 2.168123e-01 2.437965e-01 1.986286e-01 2.886167e-01 3.038808e-01 2.548895e-01 3.269419e-01 2.942151e-01 2.038096e-01 9.026340e-02
<GCONST> 9.397094e+01
<TRANSP> 5
 0.000000e+00 1.000000e+00 0.000000e+00 0.000000e+00 0.000000e+00
 0.000000e+00 9.720069e-01 2.799313e-02 0.000000e+00 0.000000e+00
 0.000000e+00 0.000000e+00 7.926765e-01 2.073235e-01 0.000000e+00
 0.000000e+00 0.000000e+00 0.000000e+00 9.077884e-01 9.221162e-02
 0.000000e+00 0.000000e+00 0.000000e+00 0.000000e+00 0.000000e+00
<ENDHMM>
~h "t"
<BEGINHMM>
<NUMSTATES> 5
<STATE> 2
<MEAN> 39
 -5.260433e+00 -7.357565e+00 1.268791e+00 -2.537511e+00 -6.437826e+00 4.343372e+00 -6.192551e+00 2.673991e+00 1.802876e+00 -4.396883e+00 1.642950e+00 -3.953467e+00 3.756659e+01 -1.345927e+00 -4.298686e-02 -1.677454e-01 4.862796e-01 7.102980e-01 9.873906e-02 6.034358e-01 -1.279008e-01 -5.205482e-01 2.340773e-01 2.305745e-01 4.213517e-01 -1.063664e+00 2.860271e-01 -1.386881e-01 -6.214546e-02 -1.897837e-01 -1.313389e-01 1.784270e-02 -1.423490e-01 7.396761e-02 1.487385e-01 -1.763545e-02 -4.949778e-03 -2.425225e-02 2.790385e-01
<VARIANCE> 39
 3.771377e+01 1.939014e+01 9.383245e+00 1.302791e+01 2.022598e+01 1.009265e+01 1.771733e+01 1.786159e+01 1.697631e+01 1.765559e+01 1.665050e+01 1.368200e+01 1.629756e+01 1.457558e+00 1.526734e+00 8.208083e-01 1.622022e+00 1.639950e+00 1.048822e+00 1.848253e+00 1.923646e+00 1.758905e+00 1.888202e+00 1.619704e+00 1.270938e+00 1.276130e+00 1.240168e-01 3.514325e-01 2.525055e-01 2.952400e-01 2.551009e-01 2.352656e-01 2.987916e-01 3.998654e-01 3.154093e-01 4.322308e-01 2.954598e-01 2.796490e-01 7.255948e-02
<GCONST> 9.536284e+01
<STATE> 3
<MEAN> 39
 -7.616543e+00 -6.840469e+00 9.739136e-01 -1.239573e+00 -3.580435e+00 5.681491e+00 -4.299201e+00 3.565535e+00 9.604160e-01 -3.047551e+00 3.791147e+00 -8.339949e-01 3.555159e+01 1.839006e+00 1.402539e+00 6.311129e-01 -6.799849e-01 -1.285416e+00 -1.174510e+00 -1.227688e+00 -9.293333e-01 -1.972041e-01 3.218688e-01 1.453092e-01 -2.651784e-01 9.868978e-01 9.205063e-01 3.786370e-01 4.663775e-01 -4.123965e-01 -1.032933e+00 -5.947883e-01 -8.181356e-01 -5.194518e-01 1.334847e-01 -3.973569e-02 -7.660746e-02 -3.525740e-01 6.400360e-01
<VARIANCE> 39
 1.127578e+01 1.308920e+01 1.153641e+01 1.465813e+01 1.782516e+01 1.137398e+01 1.234398e+01 1.601598e+01 1.387780e+01 1.256047e+01 1.421211e+01 1.310665e+01 3.324290e+00 2.328577e+00 2.588663e+00 3.341955e+00 2.632551e+00 3.717081e+00 3.017179e+00 3.173066e+00 2.996694e+00 1.849264e+00 1.998062e+00 1.411021e+00 1.305586e+00 9.741337e-01 2.294818e-01 3.548200e-01 5.399739e-01 3.850319e-01 5.415619e-01 4.661188e-01 3.273457e-01 4.080495e-01 3.910534e-01 2.399569e-01 3.335934e-01 2.465606e-01 1.624821e-01
<GCONST> 1.003724e+02
<STATE> 4
<MEAN> 39
 3.589890e+00 -6.705779e-01 5.363710e+00 -6.161308e+00 -1.337615e+01 -1.158570e+00 -1.270248e+01 -1.543927e+00 1.351099e+00 -3.234246e+00 3.047536e+00 -3.894892e+00 4.255301e+01 2.966073e+00 3.641472e-01 1.694909e+00 -1.716331e+00 -3.406040e+00 -9.370897e-01 -2.708595e+00 -1.379374e+00 7.810526e-01 -1.862785e-02 5.382144e-01 -5.898154e-01 2.524134e+00 -5.150977e-01 -7.261323e-01 -1.673214e-01 2.675515e-02 3.991302e-01 8.749166e-01 3.892576e-01 1.115899e-01 5.299249e-02 -1.599672e-01 9.550600e-02 1.645855e-01 -9.670287e-02
<VARIANCE> 39
 3.977372e+01 3.093185e+01 5.734374e+01 4.597747e+01 5.441352e+01 3.035987e+01 3.240929e+01 2.677971e+01 2.844029e+01 2.440753e+01 1.282591e+01 1.045658e+01 2.362509e+01 3.195099e+00 4.919238e+00 5.805573e+00 2.847776e+00 6.597714e+00 6.328421e+00 2.876356e+00 2.787300e+00 2.399100e+00 8.105214e-01 1.476710e+00 1.299532e+00 1.979192e+00 3.760360e-01 3.523882e-01 4.505074e-01 4.911724e-01 9.863294e-01 7.671548e-01 6.237772e-01 4.301238e-01 4.456048e-01 2.254996e-01 2.585088e-01 2.146428e-01 2.010411e-01
<GCONST> 1.169045e+02
<TRANSP> 5
 0.000000e+00 1.000000e+00 0.000000e+00 0.000000e+00 0.000000e+00
 0.000000e+00 8.690139e-01 1.309861e-01 0.000000e+00 0.000000e+00
 0.000000e+00 0.000000e+00 5.840951e-01 4.159049e-01 0.000000e+00
 0.000000e+00 0.000000e+00 0.000000e+00 5.356464e-01 4.643536e-01
 0.000000e+00 0.000000e+00 0.000000e+00 0.000000e+00 0.000000e+00
<ENDHMM>
~h "u"
<BEGINHMM>
<NUMSTATES> 5
<STATE> 2
<MEAN> 39
 8.267114e+00 5.383368e-01 6.437269e+00 -9.605703e+00 -1.762504e+01 -4.557906e+00 -1.957700e+01 -5.129807e+00 2.760562e+00 -1.047844e+00 7.982224e+00 -2.326956e+00 4.597182e+01 1.505847e+00 -1.010055e+00 -6.574880e-01 -1.765373e+00 -9.322879e-01 1.009997e+00 -7.005792e-01 -5.076053e-01 2.525780e-03 -4.157102e-02 1.072963e+00 3.773594e-01 1.566180e+00 -7.173031e-01 -4.049515e-01 -2.876474e-01 6.229553e-01 1.014176e+00 8.758462e-01 8.149253e-01 1.499804e-01 -2.701225e-01 -2.577114e-02 -1.895728e-01 -4.985146e-02 -4.471537e-01
<VARIANCE> 39
 1.137567e+01 7.941946e+00 2.140680e+01 1.973062e+01 2.661608e+01 2.672089e+01 2.462998e+01 2.404927e+01 2.077557e+01 1.649503e+01 5.521231e+00 1.239990e+01 1.076382e+01 1.525493e+00 1.223452e+00 1.459637e+00 1.889459e+00 4.636313e+00 4.111733e+00 1.845146e+00 1.671370e+00 2.004858e+00 1.404456e+00 8.749478e-01 7.061253e-01 1.023014e+00 1.935926e-01 3.585536e-01 4.490896e-01 2.810663e-01 9.164259e-01 4.019741e-01 2.198737e-01 2.573774e-01 2.958849e-01 4.148725e-01 1.278953e-01 2.923635e-01 8.088830e-02
<GCONST> 9.739944e+01
<STATE> 3
<MEAN> 39
 1.135228e+01 -4.680903e+00 1.489631e+00 -1.358866e+01 -1.559929e+01 4.316988e+00 -1.763036e+01 -6.863111e+00 1.216317e+00 -4.266841e-01 1.110964e+01 -2.491920e+00 4.992380e+01 1.043334e-02 -7.178432e-01 -3.415315e-01 -2.917953e-01 4.442124e-01 1.377705e+00 5.876769e-01 -2.281823e-01 -2.223364e-01 -2.636151e-02 2.070148e-01 2.379734e-02 2.971829e-01 -3.819579e-01 2.813126e-01 3.420949e-01 4.615537e-01 1.126172e-01 -2.720301e-01 2.585317e-01 2.461748e-01 1.719764e-01 -5.769841e-02 -3.836649e-01 -9.384840e-02 -3.737868e-01
<VARIANCE> 39
 6.545022e+00 1.528594e+01 1.277798e+01 1.609721e+01 1.417641e+01 3.328415e+01 2.610796e+01 2.308076e+01 1.772088e+01 1.376853e+01 5.676177e+00 1.338629e+01 8.910285e+00 4.771680e-01 9.287071e-01 1.595951e+00 9.832142e-01 1.535411e+00 1.203687e+00 1.939967e+00 1.068768e+00 2.387541e+00 2.046507e+00 1.001863e+00 1.634600e+00 5.334647e-01 1.011873e-01 1.520536e-01 2.451848e-01 2.118731e-01 3.367703e-01 2.747259e-01 3.726174e-01 1.920054e-01 3.478017e-01 3.436874e-01 2.171719e-01 2.228603e-01 1.181436e-01
<GCONST> 8.917544e+01
<STATE> 4
<MEAN> 39
 7.777168e+00 -1.751832e+00 4.683066e+00 -8.453333e+00 -1.310124e+01 3.765905e+00 -1.399265e+01 -6.365909e+00 6.243491e-01 -2.303558e+00 7.327168e+00 -1.625887e+00 4.618395e+01 -1.295363e+00 8.622286e-01 9.251036e-01 1.518048e+00 8.189601e-01 -2.374749e-01 1.735119e+00 1.253017e+00 8.733661e-02 -4.382302e-01 -1.218341e+00 -2.934092e-01 -1.274215e+00 -5.569379e-02 1.067945e-01 1.176474e-01 1.143066e-01 3.847294e-02 -1.451097e-01 -1.056992e-01 1.454682e-01 -1.310415e-01 -2.932785e-02 5.334328e-02 -4.758637e-02 -7.205870e-02
<VARIANCE> 39
 1.447253e+01 2.055304e+01 1.359905e+01 2.561076e+01 2.496646e+01 3.197674e+01 2.509767e+01 2.261036e+01 3.088478e+01 2.920441e+01 1.862744e+01 1.576540e+01 1.742567e+01 8.057207e-01 9.933937e-01 1.982214e+00 1.508548e+00 2.324411e+00 2.327873e+00 1.989789e+00 1.441155e+00 1.735102e+00 1.548049e+00 2.039093e+00 1.476135e+00 7.173259e-01 8.607555e-02 1.350594e-01 2.035114e-01 2.003947e-01 2.157265e-01 2.286250e-01 4.241096e-01 3.110777e-01 4.048070e-01 3.545095e-01 2.796682e-01 3.737794e-01 1.014999e-01
<GCONST> 9.779030e+01
<TRANSP> 5
 0.000000e+00 1.000000e+00 0.000000e+00 0.000000e+00 0.000000e+00
 0.000000e+00 5.154482e-01 4.845518e-01 0.000000e+00 0.000000e+00
 0.000000e+00 0.000000e+00 7.517431e-01 2.482568e-01 0.000000e+00
 0.000000e+00 0.000000e+00 0.000000e+00 6.399921e-01 3.600079e-01
 0.000000e+00 0.000000e+00 0.000000e+00 0.000000e+00 0.000000e+00
<ENDHMM>
