~o
<STREAMINFO> 1 39
<VECSIZE> 39<NULLD><MFCC_D_A_0><DIAGC>
~h "a"
<BEGINHMM>
<NUMSTATES> 5
<STATE> 2
<MEAN> 39
 1.037062e+01 -1.313791e+01 -1.369626e+00 -1.246246e+01 -1.493406e+01 7.742926e+00 -1.186327e+01 1.983341e+00 7.648548e+00 -5.111856e+00 1.088227e+00 -7.290897e+00 5.225039e+01 1.360550e+00 -2.761442e+00 -1.245343e+00 -1.003780e+00 2.071087e-01 1.161556e+00 -7.147330e-01 1.375256e+00 1.763316e+00 -8.465160e-01 -1.130218e+00 -1.167616e+00 2.121395e+00 -7.235363e-01 5.045055e-01 5.169714e-01 7.348353e-01 4.582903e-01 -2.646704e-01 1.982846e-01 1.330235e-02 -4.013246e-01 -1.959434e-01 -8.984840e-02 2.552282e-01 -7.126415e-01
<VARIANCE> 39
 9.777663e+00 4.412143e+01 7.924306e+01 2.750680e+01 1.409578e+02 6.747752e+01 2.323953e+01 2.586545e+01 2.733254e+01 3.780442e+01 2.785287e+01 1.992947e+01 1.643015e+01 2.850550e+00 2.688821e+00 3.894416e+00 2.563863e+00 3.483043e+00 2.516093e+00 2.789109e+00 2.083998e+00 2.047827e+00 2.602738e+00 1.631656e+00 1.712684e+00 2.922316e+00 3.551225e-01 6.596073e-01 8.292518e-01 5.123177e-01 1.040960e+00 7.817103e-01 4.730710e-01 4.569586e-01 4.018192e-01 6.346349e-01 3.937791e-01 3.843229e-01 3.368571e-01
<GCONST> 1.207026e+02
<STATE> 3
<MEAN> 39
 1.110008e+01 -1.688713e+01 -4.965086e+00 -1.418401e+01 -1.214189e+01 9.603830e+00 -1.132803e+01 6.694613e+00 9.945829e+00 -7.948855e+00 -2.052960e+00 -9.458098e+00 5.423681e+01 -1.211825e-01 1.632362e-01 -8.326937e-02 -1.553550e-01 -5.262808e-02 1.233662e-01 3.669301e-01 2.644294e-01 -1.314414e-01 -1.936348e-01 -3.882251e-02 6.349300e-02 -2.071456e-01 -1.391044e-01 3.913357e-01 1.449838e-01 1.103669e-01 -8.140241e-02 -1.755124e-01 1.224149e-01 -1.583134e-01 -1.929079e-01 1.721717e-01 2.223730e-01 1.782626e-01 -2.751602e-01
<VARIANCE> 39
 4.492919e+00 1.783672e+01 1.290262e+01 2.215565e+01 2.953121e+01 2.292929e+01 1.824096e+01 2.389052e+01 1.827826e+01 2.762450e+01 2.380420e+01 9.651323e+00 1.072408e+01 2.199086e-01 1.109505e+00 7.426029e-01 7.680365e-01 1.160642e+00 1.318349e+00 7.629402e-01 1.019351e+00 8.053462e-01 1.148571e+00 1.002104e+00 1.005629e+00 3.700379e-01 5.260151e-02 1.975782e-01 1.066183e-01 1.437395e-01 1.293422e-01 1.680541e-01 1.291079e-01 1.630427e-01 2.087395e-01 1.796912e-01 1.235094e-01 1.693202e-01 8.291569e-02
<GCONST> 7.940778e+01
<STATE> 4
<MEAN> 39
 6.396559e+00 -9.702702e+00 -2.206687e+00 -1.001971e+01 -1.090286e+01 8.159463e+00 -7.193285e+00 5.038494e+00 5.787934e+00 -6.382895e+00 6.621054e-01 -6.054433e+00 4.707474e+01 -1.427869e+00 1.735402e+00 1.053352e+00 1.639239e+00 8.859210e-01 -5.231532e-01 7.057648e-01 -7.581427e-01 -1.202080e+00 5.113863e-01 5.870576e-01 7.324107e-01 -1.725047e+00 -2.028266e-01 -3.810941e-02 2.376183e-02 1.545098e-01 2.531142e-01 8.554175e-02 7.664765e-03 -1.085758e-01 -1.332543e-01 -4.691264e-02 -1.865606e-02 2.345087e-02 -1.035742e-01
<VARIANCE> 39
 2.146962e+01 3.278939e+01 3.539098e+01 6.081960e+01 3.905450e+01 2.243525e+01 5.574228e+01 3.230324e+01 2.536822e+01 2.384474e+01 2.132711e+01 1.681577e+01 2.448056e+01 1.143906e+00 2.625668e+00 1.606866e+00 2.015181e+00 1.800732e+00 1.927063e+00 2.053240e+00 2.015670e+00 2.174214e+00 1.400677e+00 9.959965e-01 1.388178e+00 1.240880e+00 2.040876e-01 3.775496e-01 2.999743e-01 4.466296e-01 3.402480e-01 2.652034e-01 3.922992e-01 3.793040e-01 3.611345e-01 2.865458e-01 2.130717e-01 2.829374e-01 1.960116e-01
<GCONST> 1.066674e+02
<TRANSP> 5
 0.000000e+00 1.000000e+00 0.000000e+00 0.000000e+00 0.000000e+00
 0.000000e+00 6.582166e-01 3.417834e-01 0.000000e+00 0.000000e+00
 0.000000e+00 0.000000e+00 8.524582e-01 1.475418e-01 0.000000e+00
 0.000000e+00 0.000000e+00 0.000000e+00 7.600092e-01 2.399908e-01
 0.000000e+00 0.000000e+00 0.000000e+00 0.000000e+00 0.000000e+00
<ENDHMM>
~h "au"
<BEGINHMM>
<NUMSTATES> 5
<STATE> 2
<MEAN> 39
 6.802981e+00 -7.286605e-01 8.079830e+00 -1.214457e+01 -2.654309e+01 -6.462630e+00 -1.256690e+01 5.884342e+00 1.105050e+01 -1.648566e+00 3.981776e+00 -8.139529e-01 4.535109e+01 1.535386e+00 -1.855645e+00 -2.523541e+00 -2.041323e+00 -5.083005e-01 1.060241e+00 1.903478e+00 2.957299e+00 1.307530e+00 -3.935645e-01 -4.651756e-01 -7.991840e-01 1.657692e+00 -5.551769e-01 -4.657377e-01 -9.841857e-01 7.471217e-01 2.301208e+00 1.391519e+00 5.386197e-01 -4.361035e-01 -8.711862e-01 -1.592300e-01 -1.165274e-01 -5.990192e-01 -3.756151e-01
<VARIANCE> 39
 2.354189e+00 4.069641e+00 2.239804e+01 9.348725e+00 1.027167e+01 7.773003e+00 6.802495e+00 2.352422e+01 4.485596e+00 1.711875e+01 1.519840e+01 5.437084e+00 2.550942e+00 2.575487e-01 2.973932e-01 2.883154e+00 1.652000e+00 7.456155e+00 2.523835e+00 6.110976e-01 1.594173e+00 1.800108e+00 2.679830e+00 1.143378e+00 7.920414e-01 1.459078e-01 2.252898e-02 5.722171e-02 4.855365e-01 1.957291e-01 3.425213e-01 1.529754e-01 5.406384e-01 7.353520e-01 3.537892e-01 7.300334e-01 4.689456e-01 1.244196e-01 1.978640e-02
<GCONST> 7.888197e+01
<STATE> 3
<MEAN> 39
 4.066461e+00 -7.213808e+00 -5.459731e+00 -1.564430e+01 -1.539601e+01 4.388461e+00 -6.606761e+00 4.341368e+00 6.828058e+00 7.895888e-03 6.809088e+00 -2.982611e+00 4.412733e+01 -6.272434e-01 -1.420438e-01 -5.035992e-01 -9.569326e-02 4.375395e-01 3.754940e-01 4.257320e-01 -1.933711e-01 -4.538915e-01 9.599238e-02 2.329691e-01 2.386658e-01 -4.791021e-01 7.273270e-02 9.451328e-02 8.545592e-02 -1.194458e-01 -2.175701e-01 -9.725945e-02 -5.580371e-02 -6.209131e-02 -2.480107e-03 2.324948e-02 1.113830e-01 9.676994e-02 2.674288e-02
<VARIANCE> 39
 3.507463e+01 1.644756e+01 1.849045e+01 3.374324e+01 3.405010e+01 2.018796e+01 1.871436e+01 2.622552e+01 2.388707e+01 1.186734e+01 2.210684e+01 2.967728e+01 2.118036e+01 1.873781e+00 1.832341e+00 3.938166e+00 4.389540e+00 3.664226e+00 2.512215e+00 1.163412e+00 2.445369e+00 1.758008e+00 1.513458e+00 3.103720e+00 2.498825e+00 1.200765e+00 4.794705e-01 2.684619e-01 6.691823e-01 1.060338e+00 5.738957e-01 2.954108e-01 3.038048e-01 5.946831e-01 2.775685e-01 2.352778e-01 6.842560e-01 3.770768e-01 3.076957e-01
<GCONST> 1.118040e+02
<STATE> 4
<MEAN> 39
 1.866819e+00 -5.790040e+00 -1.043336e+01 -2.113152e+01 -1.970941e+01 4.065712e+00 -8.147067e-01 6.947500e+00 4.076578e+00 -1.023033e+00 9.084625e+00 1.801519e+00 4.149895e+01 2.866683e+00 -1.435198e+00 -2.665076e+00 -4.482649e+00 -2.654438e+00 1.327850e+00 6.408272e-01 9.175178e-01 5.163943e-01 4.571931e-01 2.043377e+00 1.766630e-02 2.404855e+00 1.840876e-02 -3.860970e-01 3.984480e-01 2.259809e-01 3.609000e-01 4.648801e-01 -1.675434e-01 -1.404841e-01 -5.975871e-02 -1.425020e-01 -2.693603e-01 -2.065016e-01 2.224339e-01
<VARIANCE> 39
 6.285616e+00 1.042977e+01 7.700979e+00 3.929477e+00 7.865508e+00 5.797161e+01 1.651901e+01 1.612338e+01 5.057987e+00 1.137298e+01 9.994303e+00 5.441627e+00 4.710055e+00 2.314680e+00 1.753154e-01 2.435769e+00 5.439407e+00 1.503422e+00 1.140175e+00 2.126817e-01 4.934498e-01 6.162921e-01 8.601782e-01 1.063748e+00 1.290154e+00 1.588892e+00 2.273416e-01 9.967613e-02 2.930622e-01 4.514126e-01 3.206698e-01 1.830120e-01 2.016140e-01 2.378542e-01 2.573249e-01 2.602537e-01 8.867636e-02 1.478865e-01 1.217214e-01
<GCONST> 7.986032e+01
<TRANSP> 5
 0.000000e+00 1.000000e+00 0.000000e+00 0.000000e+00 0.000000e+00
 0.000000e+00 6.000068e-01 3.999932e-01 0.000000e+00 0.000000e+00
 0.000000e+00 0.000000e+00 9.354838e-01 6.451627e-02 0.000000e+00
 0.000000e+00 0.000000e+00 0.000000e+00 2.000067e-01 7.999933e-01
 0.000000e+00 0.000000e+00 0.000000e+00 0.000000e+00 0.000000e+00
<ENDHMM>
~h "b"
<BEGINHMM>
<NUMSTATES> 5
<STATE> 2
<MEAN> 39
 -6.290073e-01 4.127398e+00 1.250489e+01 5.140927e+00 -4.138683e+00 1.257059e-01 -1.331871e+01 -6.809626e+00 -5.560555e+00 -8.906795e+00 -1.122390e-02 -4.218812e+00 3.834211e+01 2.381615e+00 2.702397e+00 3.013339e+00 1.054237e+00 -5.760511e-01 -5.080945e-01 -1.965096e+00 -1.767186e+00 -1.448874e+00 -1.841193e+00 -3.433165e-01 1.404230e-02 1.210003e+00 -4.960328e-01 -7.440252e-01 -5.612704e-01 -2.027163e-01 -9.117053e-02 2.407554e-01 4.785502e-01 5.182853e-01 4.160665e-01 4.462346e-01 2.544209e-01 2.366968e-01 -2.073060e-01
<VARIANCE> 39
 5.196215e+00 6.319018e+00 1.637749e+01 9.364401e+00 6.713150e+00 1.260381e+01 5.853952e+00 5.407536e+00 1.069818e+01 1.313647e+01 6.382340e+00 6.434798e+00 1.957948e+00 6.960850e-01 1.308509e+00 6.548778e-01 1.216376e+00 1.148065e+00 1.204509e+00 1.839734e+00 1.854599e+00 1.885175e+00 2.185613e+00 6.833016e-01 6.828733e-01 2.365830e-01 1.311979e-01 4.846052e-01 3.573361e-01 4.241059e-01 5.263714e-01 3.036815e-01 3.921722e-01 4.289995e-01 2.059224e-01 3.162513e-01 1.655107e-01 8.262274e-02 3.701572e-02
<GCONST> 7.929166e+01
<STATE> 3
<MEAN> 39
 1.618078e+00 5.111487e+00 1.562523e+01 6.737133e+00 -4.648762e+00 1.032433e+00 -1.373893e+01 -6.357213e+00 -5.702200e+00 -1.045594e+01 -1.344837e-02 -2.566311e+00 3.980833e+01 5.805160e-01 -1.922668e-01 2.157649e-01 -5.937056e-01 -1.399820e+00 -5.043136e-01 -1.102867e-01 4.662127e-01 8.431198e-01 4.053802e-01 3.687955e-01 5.670102e-01 5.472713e-01 -6.602053e-02 -4.934250e-01 -2.247404e-01 -4.703177e-01 -8.048648e-01 -2.897682e-01 8.306686e-02 1.537174e-01 3.582014e-01 4.621474e-01 2.863913e-01 -6.452650e-02 1.429822e-01
<VARIANCE> 39
 2.753244e+00 6.909114e+00 8.750010e+00 8.901073e+00 1.048378e+01 9.443880e+00 1.286780e+01 1.858682e+01 1.572913e+01 1.292952e+01 1.134391e+01 1.006762e+01 2.002885e+00 4.995781e-01 7.245140e-01 1.081994e+00 1.779351e+00 5.098728e+00 1.974524e+00 1.031558e+00 2.547394e+00 1.072368e+00 1.993188e+00 1.763697e+00 1.084323e+00 3.523830e-01 1.935039e-01 2.789736e-01 4.348604e-01 2.303635e-01 6.622608e-01 3.246489e-01 3.188196e-01 7.001681e-01 3.181394e-01 4.531144e-01 3.701506e-01 3.038950e-01 1.098077e-01
<GCONST> 8.848985e+01
<STATE> 4
<MEAN> 39
 5.604798e+00 3.190026e+00 1.683486e+01 3.234154e-01 -1.937592e+01 -5.073774e+00 -1.511256e+01 -5.460658e+00 -6.905992e-01 -5.046503e+00 4.492326e+00 -5.950319e-01 4.408971e+01 1.228200e+00 -2.014567e+00 1.504403e+00 -2.155839e+00 -5.379711e+00 -7.158332e-01 -6.403029e-01 -7.566827e-01 1.301314e+00 1.355952e+00 1.319134e+00 -6.550812e-01 2.104362e+00 -1.818738e-01 -3.650040e-01 3.080661e-01 1.903534e-01 4.353083e-01 7.065842e-01 -3.814922e-02 -1.956311e-01 -2.790233e-01 -4.636285e-01 -2.632379e-01 -3.646889e-01 6.049929e-02
<VARIANCE> 39
 2.670366e+00 1.821609e+01 1.270313e+01 1.384374e+01 4.119020e+01 1.292503e+01 8.473154e+00 1.608291e+01 6.676159e+00 5.314795e+00 7.118075e+00 6.257671e+00 6.923440e+00 3.284586e-01 1.580685e+00 1.564653e+00 1.527556e+00 1.338124e+00 4.391794e+00 1.794626e+00 1.434691e+00 1.482424e+00 2.008486e+00 1.828608e+00 6.883043e-01 1.851568e-01 3.421857e-02 3.107942e-01 1.885790e-01 2.779523e-01 9.811859e-01 2.848787e-01 2.132669e-01 3.333248e-01 1.622378e-01 2.512441e-01 1.787695e-01 1.944336e-01 9.680020e-02
<GCONST> 8.348580e+01
<TRANSP> 5
 0.000000e+00 1.000000e+00 0.000000e+00 0.000000e+00 0.000000e+00
 0.000000e+00 5.035833e-01 4.964168e-01 0.000000e+00 0.000000e+00
 0.000000e+00 0.000000e+00 7.991033e-01 2.008967e-01 0.000000e+00
 0.000000e+00 0.000000e+00 0.000000e+00 5.019611e-01 4.980390e-01
 0.000000e+00 0.000000e+00 0.000000e+00 0.000000e+00 0.000000e+00
<ENDHMM>
~h "d"
<BEGINHMM>
<NUMSTATES> 5
<STATE> 2
<MEAN> 39
 -1.551824e+00 1.200531e+00 1.094042e+01 2.951975e+00 -5.605814e+00 2.618038e+00 -1.049081e+01 -2.332245e+00 -2.859268e+00 -7.341910e+00 1.666067e+00 -4.014536e+00 3.849375e+01 8.987448e-01 1.323499e+00 8.879965e-01 6.697926e-01 3.696134e-01 2.758665e-01 -2.055606e-01 -5.607623e-01 -5.966560e-01 -6.137856e-01 -5.670629e-01 -2.269213e-01 2.896037e-01 -1.586826e-01 -3.039089e-01 -3.579918e-01 -3.558456e-01 -2.416491e-01 -7.727987e-02 -5.619766e-03 1.289332e-01 2.747209e-01 3.127681e-01 3.103277e-01 1.449638e-01 -5.093293e-02
<VARIANCE> 39
 3.425776e+01 3.118712e+01 4.519152e+01 1.462293e+01 2.612207e+01 1.776178e+01 3.339593e+01 2.049017e+01 1.611379e+01 2.083241e+01 1.236545e+01 4.901140e+00 1.473052e+01 4.057133e+00 1.743100e+00 4.050243e+00 2.085962e+00 4.189397e+00 2.061851e+00 4.394677e+00 2.211965e+00 1.923439e+00 1.340307e+00 1.601326e+00 1.025488e+00 2.705284e+00 4.596419e-01 5.579495e-01 7.221426e-01 5.337700e-01 4.244408e-01 4.245289e-01 7.743320e-01 4.075952e-01 3.647312e-01 3.447198e-01 3.045273e-01 1.445678e-01 1.793181e-01
<GCONST> 1.092858e+02
<STATE> 3
<MEAN> 39
 1.092750e+00 4.244277e+00 1.199831e+01 2.938885e+00 -5.841754e+00 1.252388e+00 -1.270491e+01 -3.525734e+00 -2.164715e+00 -6.973395e+00 1.353192e+00 -4.663013e+00 3.946823e+01 2.021585e-01 1.170203e-01 -7.879004e-01 -9.190588e-01 -5.537065e-01 -7.992210e-01 -4.467074e-01 4.018771e-02 5.949191e-01 8.826784e-01 6.048217e-01 4.044819e-01 1.140823e-02 5.876817e-01 -2.773288e-01 8.644434e-02 -8.307662e-01 -1.427337e+00 -8.603111e-01 -6.513431e-01 -1.604413e-01 2.820298e-01 3.010451e-01 5.358760e-01 2.807145e-01 6.084209e-01
<VARIANCE> 39
 5.254013e+00 5.789811e+00 1.438159e+01 8.665978e+00 1.638743e+01 1.626441e+01 1.206412e+01 1.297844e+01 1.022861e+01 1.391867e+01 8.273582e+00 1.381462e+01 2.658333e+00 1.954173e+00 1.058272e+00 1.209470e+00 3.077270e+00 8.252465e+00 3.627992e+00 2.433748e+00 1.616906e+00 1.131041e+00 1.464747e+00 1.418833e+00 2.034787e+00 1.326089e+00 1.157819e-01 2.099953e-01 2.839939e-01 2.508535e-01 4.690011e-01 4.592050e-01 3.820021e-01 4.044167e-01 2.626248e-01 2.657039e-01 2.230274e-01 3.448440e-01 9.686445e-02
<GCONST> 9.256542e+01
<STATE> 4
<MEAN> 39
 6.244091e+00 3.637497e+00 9.765141e+00 -5.427176e+00 -1.656190e+01 -5.502566e+00 -1.728504e+01 -5.006368e+00 3.406644e-01 -3.319199e+00 5.813587e+00 3.429371e-02 4.356863e+01 1.685779e+00 -5.867648e-01 -4.375460e-01 -2.245927e+00 -2.910077e+00 -1.513742e+00 -1.498033e+00 -2.010895e-01 9.496168e-01 6.926090e-01 1.167309e+00 4.288709e-01 1.526072e+00 -2.378132e-01 -2.753972e-01 -1.294539e-01 2.821639e-01 6.916149e-01 8.061436e-01 3.426591e-01 3.067269e-02 -2.478687e-01 -2.944268e-01 -1.715349e-01 -2.609080e-01 -9.140321e-02
<VARIANCE> 39
 1.060137e+01 6.395805e+00 1.495294e+01 1.185526e+01 2.368469e+01 2.833727e+01 1.549892e+01 1.365062e+01 8.975676e+00 1.376111e+01 1.036049e+01 6.278686e+00 8.035710e+00 6.654549e-01 1.240732e+00 2.444761e+00 1.562712e+00 4.840583e+00 4.678788e+00 1.559396e+00 1.650173e+00 1.453970e+00 1.646110e+00 1.264269e+00 9.745870e-01 3.850927e-01 1.276454e-01 1.905114e-01 2.507358e-01 1.780581e-01 8.156930e-01 5.081915e-01 1.495366e-01 3.786236e-01 1.843386e-01 3.065304e-01 2.525566e-01 1.184893e-01 7.899027e-02
<GCONST> 8.985322e+01
<TRANSP> 5
 0.000000e+00 1.000000e+00 0.000000e+00 0.000000e+00 0.000000e+00
 0.000000e+00 6.003470e-01 3.996531e-01 0.000000e+00 0.000000e+00
 0.000000e+00 0.000000e+00 6.887145e-01 3.112855e-01 0.000000e+00
 0.000000e+00 0.000000e+00 0.000000e+00 6.315303e-01 3.684697e-01
 0.000000e+00 0.000000e+00 0.000000e+00 0.000000e+00 0.000000e+00
<ENDHMM>
~h "e"
<BEGINHMM>
<NUMSTATES> 5
<STATE> 2
<MEAN> 39
 8.194489e+00 -5.696788e+00 7.976273e+00 -1.353555e+01 -2.726628e+01 3.620246e+00 -5.522786e+00 1.129409e+00 2.091625e+00 -7.941726e+00 3.222027e+00 -4.383138e+00 4.887687e+01 1.992337e-01 -3.128564e+00 8.384374e-01 -1.676579e+00 -2.812112e+00 1.714810e+00 1.792608e+00 1.169582e+00 4.461465e-01 -1.217869e-01 1.484983e+00 1.169781e-02 1.649073e+00 -3.233881e-01 4.586302e-01 6.314832e-01 8.756650e-01 6.352403e-01 -4.387465e-01 -9.549510e-01 -5.447617e-01 -2.444528e-01 -1.879445e-01 -2.630460e-02 2.156656e-01 -3.573978e-01
<VARIANCE> 39
 1.332938e-01 3.755122e+01 1.192482e+01 3.066034e+00 1.338163e+01 5.493698e+00 4.922606e+01 5.990697e+00 2.360239e+01 6.041998e+00 9.331923e+00 3.821887e+00 6.750494e+00 1.432157e-01 5.889050e-01 4.863069e-01 2.109343e+00 3.353889e-01 1.032177e+00 2.813517e-01 1.642136e+00 9.387988e-01 2.473513e-01 7.854916e-01 7.659042e-01 6.203552e-02 1.400373e-02 6.454284e-01 1.614361e-02 6.409701e-02 1.244966e-01 6.012743e-02 8.679743e-01 1.224517e-01 5.987192e-01 1.916730e-01 3.496111e-01 6.606185e-02 6.742349e-02
<GCONST> 6.093999e+01
<STATE> 3
<MEAN> 39
 8.221211e+00 -9.288554e+00 1.109061e+01 -1.340817e+01 -3.067450e+01 3.077891e+00 -6.672837e+00 3.337430e+00 3.699649e+00 -9.700125e+00 3.083827e+00 -4.612941e+00 5.086425e+01 1.544071e-01 -1.964964e-01 -3.400544e-01 7.213420e-02 2.124014e-01 -3.295109e-01 -2.198906e-01 5.564225e-01 3.532783e-01 -2.219393e-01 -1.301118e-01 1.903755e-01 1.335900e-01 -1.459728e-02 1.376350e-01 -1.263601e-01 1.496599e-01 2.975080e-01 -1.536659e-01 -2.125457e-01 -4.545259e-02 6.496877e-02 7.419553e-02 -1.069808e-01 -4.352575e-02 -9.827006e-02
<VARIANCE> 39
 1.685324e+00 1.026440e+01 2.024497e+01 5.424747e+00 1.349819e+01 8.429390e+00 1.770621e+01 2.160035e+01 9.344237e+00 1.005061e+01 7.374846e+00 9.282961e+00 2.551970e+00 1.010546e-01 1.093972e+00 1.153167e+00 6.786306e-01 1.495327e+00 9.726781e-01 1.726830e+00 1.043910e+00 9.189966e-01 8.188944e-01 7.157215e-01 7.410002e-01 2.245076e-01 2.277465e-02 2.170036e-01 9.214691e-02 1.440027e-01 1.718716e-01 1.159437e-01 2.926291e-01 2.287509e-01 1.762720e-01 2.498099e-01 1.314754e-01 1.579681e-01 5.334484e-02
<GCONST> 6.953735e+01
<STATE> 4
<MEAN> 39
 1.070120e+01 -1.106651e+01 2.608995e+00 -1.101317e+01 -2.285653e+01 -3.901705e+00 -1.120264e+01 1.073829e+01 8.757799e+00 -1.240618e+01 -3.040280e-01 -2.772727e+00 5.158249e+01 -2.654559e-01 -6.099985e-02 -8.597617e-01 1.429839e+00 2.814343e+00 -8.334358e-01 -2.464441e+00 -4.869043e-01 1.684038e+00 1.904878e+00 -7.259747e-01 -1.166049e+00 -4.519257e-01 -1.796782e-01 3.469612e-01 1.254140e-01 -1.249095e-01 4.820128e-02 5.532125e-01 2.572124e-01 -8.444961e-01 3.336696e-02 9.139457e-01 8.996189e-02 -2.806337e-01 -2.080514e-01
<VARIANCE> 39
 1.529508e+00 1.023310e+01 1.151726e+01 1.304303e+01 3.765490e+01 9.248127e+00 1.053342e+01 1.542879e+01 6.767493e+00 1.370768e+01 3.290689e+00 2.478788e+00 3.943485e+00 3.151481e-01 7.074169e-01 6.982968e-01 4.527182e-01 6.174276e-01 3.136117e-02 1.301622e+00 2.081159e+00 1.124186e+00 2.541752e+00 5.317998e-01 6.717256e-01 4.858413e-01 5.094967e-02 1.997974e-01 6.813297e-02 1.116622e-01 8.865023e-02 2.026594e-01 3.009458e-01 2.673272e-01 7.713855e-02 2.187881e-01 1.294858e-01 7.123133e-02 9.407056e-02
<GCONST> 6.494609e+01
<TRANSP> 5
 0.000000e+00 1.000000e+00 0.000000e+00 0.000000e+00 0.000000e+00
 0.000000e+00 8.487628e-10 1.000000e+00 0.000000e+00 0.000000e+00
 0.000000e+00 0.000000e+00 9.367088e-01 6.329121e-02 0.000000e+00
 0.000000e+00 0.000000e+00 0.000000e+00 4.814658e-07 9.999995e-01
 0.000000e+00 0.000000e+00 0.000000e+00 0.000000e+00 0.000000e+00
<ENDHMM>
~h "f"
<BEGINHMM>
<NUMSTATES> 5
<STATE> 2
<MEAN> 39
 5.600763e+00 -2.362492e+00 -2.956902e-01 -1.172991e+01 -1.134399e+01 9.705052e+00 -8.859780e-01 4.606775e+00 2.691457e+00 -2.929799e+00 7.196711e+00 -1.052033e+00 4.406340e+01 -2.957052e+00 9.646831e-01 9.520527e-02 3.139213e+00 2.952800e+00 -8.189546e-01 6.932619e-01 -5.340795e-03 1.630156e-01 8.017308e-01 -9.960663e-01 -2.197294e-01 -2.899272e+00 -2.655522e-01 -7.018864e-01 -2.202529e-01 -2.124883e-01 -8.543643e-02 -5.597226e-02 -7.125849e-01 -3.135543e-01 -1.892607e-01 -1.996128e-01 5.107048e-02 -1.948149e-01 8.757610e-02
<VARIANCE> 39
 9.618629e+00 6.566502e+00 3.890534e+00 1.729403e+01 2.421719e+01 1.674581e+01 9.491784e+00 1.248763e+01 7.780096e+00 1.432290e+01 2.034453e+01 7.598828e+00 8.466187e+00 2.308902e-01 9.410391e-01 6.498500e-01 1.191142e+00 1.046612e+00 1.412348e+00 1.384399e+00 1.065556e+00 1.081526e+00 1.184390e+00 9.410808e-01 1.272148e+00 2.113878e-01 9.491124e-02 1.621135e-01 8.267982e-02 2.656406e-01 5.223177e-01 3.197702e-01 1.911602e-01 3.097559e-01 2.084907e-01 1.857532e-01 2.672946e-01 2.027367e-01 8.010887e-02
<GCONST> 7.927316e+01
<STATE> 3
<MEAN> 39
 -1.899755e+00 -3.560439e+00 -1.032509e+00 -7.178183e+00 -7.238820e+00 6.206976e+00 -4.338263e+00 2.678525e+00 3.291867e+00 -2.209031e+00 4.624813e+00 -1.827982e+00 3.848302e+01 -2.346925e+00 -9.264094e-01 9.059201e-02 1.698651e+00 1.171285e+00 -9.422580e-01 -1.104029e+00 -3.652894e-01 -2.256268e-01 -3.178890e-02 -6.743529e-01 -4.627214e-01 -1.496517e+00 4.547431e-01 -3.304969e-01 7.179063e-02 -3.833115e-01 -3.644326e-01 2.669137e-01 -9.453589e-02 4.392482e-02 -1.593428e-01 -1.882143e-01 1.695080e-01 -1.093031e-03 5.362830e-01
<VARIANCE> 39
 4.520283e+00 9.027607e+00 4.850863e+00 7.192222e+00 7.002845e+00 1.082873e+01 9.119670e+00 8.693321e+00 9.204768e+00 1.087723e+01 9.443264e+00 9.830818e+00 1.268075e+00 5.384731e-01 9.331455e-01 5.550968e-01 9.063964e-01 1.524659e+00 1.779875e+00 1.051668e+00 1.475380e+00 1.235827e+00 1.334733e+00 1.573964e+00 1.022811e+00 3.533964e-01 5.733156e-02 1.624694e-01 9.158742e-02 2.112308e-01 3.272939e-01 3.502983e-01 3.234252e-01 2.757870e-01 2.314929e-01 2.315475e-01 2.199074e-01 2.167450e-01 2.479287e-02
<GCONST> 7.414223e+01
<STATE> 4
<MEAN> 39
 -6.399920e+00 -5.874817e+00 7.829105e-02 -2.663335e+00 -3.337115e+00 5.941317e+00 -5.049007e+00 3.103332e+00 1.008509e+00 -2.899040e+00 3.290478e+00 -3.247102e+00 3.603748e+01 -9.003571e-01 -6.715041e-01 -6.818798e-02 4.824609e-01 6.667427e-01 2.337203e-01 -1.084615e-01 -2.874185e-01 -3.859738e-01 -1.522059e-01 -2.953182e-01 -1.539129e-01 -4.144726e-01 2.860837e-01 1.346768e-01 -7.202148e-02 -3.004869e-01 -2.363703e-01 1.678975e-01 1.683274e-01 -2.393261e-02 1.540584e-01 1.369921e-01 1.590395e-01 1.141229e-01 1.663848e-01
<VARIANCE> 39
 4.030544e+00 1.016988e+01 5.750396e+00 6.814450e+00 1.222563e+01 1.363234e+01 1.012983e+01 1.371377e+01 1.911166e+01 1.454886e+01 1.163173e+01 1.204904e+01 8.516359e-01 3.922254e-01 6.689973e-01 6.064941e-01 1.220612e+00 1.676049e+00 1.236403e+00 1.137808e+00 1.376610e+00 1.592972e+00 1.270285e+00 1.068451e+00 6.953701e-01 7.866453e-02 5.748992e-02 8.937900e-02 1.284078e-01 2.047253e-01 2.753954e-01 2.807131e-01 2.388864e-01 2.634602e-01 3.398462e-01 3.214718e-01 2.776331e-01 1.306451e-01 1.693101e-02
<GCONST> 7.307790e+01
<TRANSP> 5
 0.000000e+00 1.000000e+00 0.000000e+00 0.000000e+00 0.000000e+00
 0.000000e+00 4.825394e-01 5.174605e-01 0.000000e+00 0.000000e+00
 0.000000e+00 0.000000e+00 6.307755e-01 3.692245e-01 0.000000e+00
 0.000000e+00 0.000000e+00 0.000000e+00 7.408732e-01 2.591268e-01
 0.000000e+00 0.000000e+00 0.000000e+00 0.000000e+00 0.000000e+00
<ENDHMM>
~h "g"
<BEGINHMM>
<NUMSTATES> 5
<STATE> 2
<MEAN> 39
 2.348862e+00 4.605433e+00 1.465274e+01 2.940512e+00 -8.275298e+00 3.617527e+00 -8.022416e+00 -3.796133e+00 -5.214851e+00 -1.016087e+01 -4.251222e-01 -3.548722e+00 4.052761e+01 -7.317716e-01 1.777225e-01 -8.386274e-01 5.346481e-01 1.908483e+00 7.258008e-01 7.727917e-01 6.727142e-01 -4.667143e-01 -5.724017e-01 9.734506e-02 3.271301e-01 -7.847326e-01 8.695290e-02 -2.605116e-01 3.847658e-02 -3.189255e-01 -4.765105e-01 3.621918e-02 -1.962315e-01 -1.583369e-01 2.510827e-01 1.472702e-01 6.547448e-02 4.621742e-02 2.049282e-01
<VARIANCE> 39
 3.100271e+00 2.840173e+00 6.699178e+00 8.541142e+00 2.789776e+01 1.495260e+01 8.741670e+00 1.073361e+01 1.415277e+01 2.018503e+01 1.233387e+01 1.008990e+01 3.692964e+00 1.093545e-01 9.807810e-01 4.520517e-01 8.990384e-01 1.914855e+00 9.094573e-01 1.441117e+00 5.917804e-01 1.644686e+00 1.614760e+00 1.131374e+00 8.607311e-01 3.160847e-01 1.621309e-02 6.131586e-02 8.945803e-02 1.042236e-01 2.140065e-01 2.112791e-01 3.133112e-01 1.425159e-01 1.959363e-01 3.140694e-01 2.334421e-01 1.680538e-01 2.327881e-02
<GCONST> 6.973991e+01
<STATE> 3
<MEAN> 39
 1.241924e-01 3.222844e+00 1.103456e+01 1.308117e+00 -5.918821e+00 5.322359e+00 -6.204907e+00 -1.953115e+00 -3.086681e+00 -8.639783e+00 1.191500e+00 -1.373323e+00 3.902427e+01 1.091796e+00 -3.807378e-01 2.113065e-01 -1.700208e+00 -3.366948e+00 -1.718568e+00 -1.058274e+00 -6.824608e-01 8.307763e-01 1.278461e+00 8.912458e-01 3.572212e-01 1.128523e+00 6.589968e-01 -3.548758e-01 3.708935e-01 -4.923107e-01 -1.612739e+00 -7.141922e-01 -4.710787e-01 -1.576341e-02 3.379920e-01 2.869449e-01 1.178900e-01 -2.439304e-01 7.173609e-01
<VARIANCE> 39
 8.034404e+00 5.177174e+00 6.800604e+00 1.239743e+01 1.894904e+01 2.559357e+01 3.074311e+01 1.939031e+01 2.094031e+01 3.335814e+01 1.131519e+01 9.053831e+00 3.450677e+00 2.011675e+00 1.299080e+00 1.883055e+00 9.267463e-01 9.198461e+00 3.882728e+00 4.261612e+00 1.675685e+00 1.284299e+00 3.102677e+00 1.006701e+00 8.354392e-01 1.466329e+00 1.494949e-01 5.798185e-01 2.569684e-01 1.397299e-01 4.135477e-01 5.520626e-01 7.558720e-01 5.076512e-01 2.943648e-01 4.784907e-01 2.018988e-01 2.222740e-01 4.927605e-02
<GCONST> 9.720061e+01
<STATE> 4
<MEAN> 39
 7.981120e+00 -7.888361e-01 1.412085e+01 -6.914419e+00 -2.765038e+01 -4.704645e+00 -1.162904e+01 -3.748505e+00 1.559276e+00 -2.409822e+00 4.393594e+00 -2.764109e+00 4.758926e+01 2.008780e+00 -3.600935e+00 -2.794335e-01 -2.413687e+00 -5.348024e+00 -1.148187e+00 1.201152e-01 1.988597e+00 2.580385e+00 1.237425e+00 1.812927e-01 -9.279788e-01 3.105731e+00 -4.394032e-01 -6.965975e-01 -8.669272e-01 3.925045e-01 1.758441e+00 1.097385e+00 7.982640e-01 1.041754e+00 2.657186e-01 -5.573327e-01 -5.205908e-01 -2.028682e-01 -1.666054e-01
<VARIANCE> 39
 3.818874e+00 2.548857e+01 2.462047e+01 5.633573e+00 3.159531e+01 1.972152e+01 7.078578e+00 3.611077e+01 1.009866e+01 1.048321e+01 1.217332e+01 7.600443e+00 1.313552e+01 7.073827e-01 2.347709e+00 4.069767e+00 1.017165e+00 6.549318e+00 1.880633e+00 1.426458e+00 2.270376e+00 1.133320e+00 2.863357e+00 2.368103e+00 1.281067e+00 3.098533e-01 1.025152e-01 5.329930e-01 2.796649e-01 7.787026e-02 7.528061e-01 3.348166e-01 6.274249e-01 5.009494e-01 1.778344e-01 6.267200e-01 2.815333e-01 2.194456e-01 1.438224e-01
<GCONST> 9.547343e+01
<TRANSP> 5
 0.000000e+00 1.000000e+00 0.000000e+00 0.000000e+00 0.000000e+00
 0.000000e+00 8.335169e-01 1.664831e-01 0.000000e+00 0.000000e+00
 0.000000e+00 0.000000e+00 7.495866e-01 2.504134e-01 0.000000e+00
 0.000000e+00 0.000000e+00 0.000000e+00 5.714282e-01 4.285718e-01
 0.000000e+00 0.000000e+00 0.000000e+00 0.000000e+00 0.000000e+00
<ENDHMM>
~h "h"
<BEGINHMM>
<NUMSTATES> 5
<STATE> 2
<MEAN> 39
 -1.721050e+00 -4.030592e+00 1.526882e+00 -3.090574e+00 -7.046880e+00 4.099624e+00 -5.225426e+00 3.953474e+00 4.013378e+00 -1.073317e+00 5.273169e+00 -1.782580e+00 3.907535e+01 -1.202477e+00 3.736413e-01 8.715959e-01 1.255389e+00 9.551227e-01 2.993340e-01 1.031361e+00 6.310739e-01 -3.574083e-01 -9.619272e-02 -9.734219e-02 2.902458e-01 -9.872156e-01 2.012847e-01 -1.103841e-01 6.892338e-02 -1.311127e-01 -1.790861e-01 -3.645234e-02 -2.753427e-01 -1.348576e-01 -9.699643e-02 -9.866821e-02 2.753063e-02 -4.222952e-02 2.075240e-01
<VARIANCE> 39
 2.517406e+01 3.941150e+01 1.758197e+01 2.660361e+01 5.766949e+01 5.297522e+01 2.916768e+01 1.763338e+01 2.091944e+01 2.389588e+01 1.663485e+01 1.044397e+01 1.362278e+01 6.953408e-01 9.216051e-01 9.393127e-01 1.156217e+00 1.823288e+00 1.261260e+00 1.761962e+00 1.163254e+00 1.465631e+00 1.337783e+00 1.413861e+00 1.370235e+00 6.823668e-01 7.226111e-02 1.519439e-01 1.178821e-01 1.817423e-01 2.234722e-01 1.900622e-01 4.895076e-01 1.328752e-01 3.135984e-01 2.525609e-01 1.675889e-01 2.270305e-01 5.631373e-02
<GCONST> 9.218844e+01
<STATE> 3
<MEAN> 39
 -1.338136e+00 7.714232e-01 8.742124e+00 1.619463e+00 -6.053048e+00 1.378940e+00 -8.159883e+00 1.235285e+00 2.365421e+00 -1.137573e+00 6.427357e+00 -3.483182e-02 3.833355e+01 4.759894e-01 9.372517e-01 1.424910e+00 4.893090e-01 -5.405601e-01 -4.356291e-01 -6.425193e-01 -5.867924e-01 -8.153918e-01 -1.124485e+00 -3.404905e-01 1.624949e-01 1.726047e-01 5.656781e-01 -6.463728e-02 -1.363312e-01 -5.452495e-01 -6.758336e-01 -3.037786e-01 -7.751843e-01 -5.558607e-01 -1.323020e-01 -1.331260e-01 -5.016215e-02 -2.048883e-01 4.660070e-01
<VARIANCE> 39
 3.115355e+01 5.127151e+01 3.154500e+01 6.243464e+00 1.614257e+01 2.941025e+01 3.325003e+01 1.935219e+01 1.630239e+01 2.254083e+01 1.833458e+01 1.281180e+01 7.620713e+00 2.084132e+00 2.069822e+00 6.380396e-01 1.095576e+00 2.385554e+00 1.158666e+00 1.664334e+00 2.169850e+00 1.632864e+00 1.624223e+00 1.476780e+00 1.388480e+00 7.547298e-01 1.168601e-01 3.681915e-01 2.058687e-01 1.765452e-01 2.815426e-01 2.104736e-01 1.563228e-01 3.660116e-01 3.706048e-01 4.185634e-01 2.687646e-01 2.252660e-01 5.559341e-02
<GCONST> 9.547408e+01
<STATE> 4
<MEAN> 39
 1.395643e-01 -1.004560e+00 8.059760e+00 -3.687031e-01 -9.403407e+00 1.395426e+00 -9.587083e+00 -1.377286e+00 -2.554030e-01 -4.176532e+00 5.142590e+00 -9.265043e-01 4.014782e+01 4.642693e-01 -5.864011e-02 2.872138e-01 -9.008202e-01 -1.565407e+00 -1.092202e+00 -1.205008e+00 -5.844967e-01 -2.038585e-01 -1.593151e-01 -1.999004e-01 -4.510833e-01 5.108278e-01 -1.390162e-01 -2.829123e-01 -1.125154e-01 -4.470612e-02 9.093784e-02 1.441406e-01 1.478218e-01 1.238942e-01 1.758776e-01 1.644423e-01 1.834919e-02 1.012495e-02 -6.234131e-04
<VARIANCE> 39
 3.846791e+01 6.329744e+01 5.385237e+01 1.129049e+01 4.877551e+01 5.456112e+01 6.460133e+01 2.641156e+01 1.274389e+01 4.572689e+00 1.098042e+01 1.028081e+01 1.216490e+01 1.683252e+00 1.864846e+00 8.017430e-01 1.188261e+00 2.320711e+00 1.212806e+00 1.283583e+00 2.374575e+00 1.613219e+00 5.185100e-01 1.119626e+00 8.375871e-01 8.684757e-01 1.567675e-01 1.422730e-01 1.655000e-01 2.472052e-01 2.116581e-01 3.097518e-01 2.543117e-01 4.429723e-01 2.513246e-01 1.483796e-01 3.752261e-01 2.437705e-01 5.663664e-02
<GCONST> 9.490530e+01
<TRANSP> 5
 0.000000e+00 1.000000e+00 0.000000e+00 0.000000e+00 0.000000e+00
 0.000000e+00 6.312829e-01 3.687171e-01 0.000000e+00 0.000000e+00
 0.000000e+00 0.000000e+00 5.949698e-01 4.050303e-01 0.000000e+00
 0.000000e+00 0.000000e+00 0.000000e+00 6.960056e-01 3.039944e-01
 0.000000e+00 0.000000e+00 0.000000e+00 0.000000e+00 0.000000e+00
<ENDHMM>
~h "i"
<BEGINHMM>
<NUMSTATES> 5
<STATE> 2
<MEAN> 39
 4.389960e+00 1.387765e+00 1.510864e+01 -2.383948e+00 -1.989166e+01 -3.958391e+00 -1.600530e+01 -6.853481e+00 -1.189900e+00 -5.256388e+00 3.587776e+00 -2.113649e+00 4.379794e+01 1.274180e+00 -4.176897e-01 1.607873e+00 -1.014016e+00 -2.986487e+00 -4.104507e-01 -1.149716e+00 -1.079630e+00 1.955479e-01 -2.272771e-01 1.612301e-01 -3.308683e-01 1.481220e+00 -6.886565e-01 -4.594621e-01 -5.062554e-01 2.318545e-01 9.688137e-01 6.673187e-01 5.592605e-01 3.757243e-01 1.017191e-01 -7.500798e-03 -9.132501e-02 -2.555512e-02 -4.330184e-01
<VARIANCE> 39
 1.336385e+01 1.447351e+01 2.918543e+01 1.402310e+01 6.986273e+01 1.813560e+01 2.004923e+01 1.907618e+01 1.383344e+01 1.127985e+01 1.048394e+01 9.481837e+00 1.363636e+01 1.281213e+00 3.703849e+00 2.350101e+00 1.176865e+00 4.239288e+00 3.911860e+00 2.572372e+00 2.509044e+00 1.683108e+00 1.702358e+00 1.452912e+00 1.084841e+00 7.372602e-01 2.306199e-01 3.772717e-01 4.213226e-01 2.614047e-01 8.023548e-01 4.067759e-01 4.908183e-01 4.704492e-01 3.294134e-01 2.572176e-01 2.143531e-01 2.360234e-01 1.329014e-01
<GCONST> 1.020564e+02
<STATE> 3
<MEAN> 39
 6.914373e+00 -2.161999e+00 1.934033e+01 -3.737719e+00 -2.557389e+01 -2.749639e+00 -1.721298e+01 -7.003720e+00 7.734377e-01 -6.003378e+00 4.882719e+00 -2.966053e+00 4.797682e+01 6.449626e-03 -4.258653e-03 -2.990081e-01 7.543793e-02 4.921131e-01 1.425653e-01 7.602242e-02 1.111473e-01 -1.748534e-02 -5.644242e-02 -4.487152e-02 4.489685e-03 -4.949044e-02 -1.634152e-01 2.589286e-01 -2.981189e-01 2.171202e-01 6.179154e-01 2.670597e-02 1.341054e-01 1.007716e-01 -7.369510e-02 5.515987e-02 -1.226606e-01 7.752914e-03 -2.993273e-01
<VARIANCE> 39
 5.363465e+00 1.619505e+01 2.511468e+01 1.329814e+01 2.626106e+01 3.015141e+01 1.893124e+01 1.598255e+01 1.279125e+01 1.766351e+01 1.335006e+01 8.694283e+00 8.477081e+00 1.953644e-01 7.945415e-01 1.472065e+00 8.756685e-01 2.288726e+00 1.288607e+00 1.060959e+00 1.080902e+00 1.097019e+00 9.450922e-01 9.282009e-01 7.473482e-01 3.920695e-01 6.230859e-02 1.234272e-01 1.538331e-01 1.753364e-01 2.904051e-01 2.984492e-01 2.374752e-01 2.691469e-01 2.199305e-01 1.896514e-01 2.395380e-01 1.896293e-01 6.287275e-02
<GCONST> 8.228278e+01
<STATE> 4
<MEAN> 39
 1.338055e+00 1.572639e+00 1.123939e+01 -8.805681e-01 -1.204169e+01 -5.001627e-01 -1.329664e+01 -5.032344e+00 -2.216769e+00 -6.467535e+00 1.624159e+00 -3.200655e+00 4.065821e+01 -9.049281e-01 1.586629e-01 -8.681409e-01 6.305445e-01 1.926457e+00 6.929945e-01 8.459523e-01 5.247625e-01 -6.710778e-02 1.399243e-01 -4.146336e-01 -1.735926e-01 -9.312981e-01 -1.006584e-01 -1.921662e-01 -7.510433e-02 -3.368044e-02 -3.630858e-02 3.137968e-02 4.708390e-02 3.748221e-02 6.716485e-02 6.124373e-02 1.127375e-01 1.280066e-02 -2.987817e-03
<VARIANCE> 39
 2.060685e+01 1.755157e+01 2.486460e+01 1.474451e+01 4.367740e+01 2.420242e+01 2.335636e+01 1.641999e+01 1.710996e+01 1.333158e+01 1.615576e+01 1.011238e+01 1.424742e+01 3.280981e-01 1.779038e+00 8.857663e-01 1.169709e+00 2.961060e+00 1.621614e+00 2.193496e+00 1.641626e+00 1.786029e+00 1.322334e+00 1.872065e+00 9.469956e-01 5.422629e-01 4.712673e-02 1.270160e-01 1.350340e-01 1.575599e-01 2.913786e-01 2.321125e-01 3.039734e-01 2.658287e-01 2.955174e-01 2.431692e-01 3.118815e-01 2.064929e-01 4.271007e-02
<GCONST> 9.002770e+01
<TRANSP> 5
 0.000000e+00 1.000000e+00 0.000000e+00 0.000000e+00 0.000000e+00
 0.000000e+00 5.043247e-01 4.956753e-01 0.000000e+00 0.000000e+00
 0.000000e+00 0.000000e+00 8.356850e-01 1.643150e-01 0.000000e+00
 0.000000e+00 0.000000e+00 0.000000e+00 7.446819e-01 2.553181e-01
 0.000000e+00 0.000000e+00 0.000000e+00 0.000000e+00 0.000000e+00
<ENDHMM>
~h "j"
<BEGINHMM>
<NUMSTATES> 5
<STATE> 2
<MEAN> 39
 -6.756256e-01 4.415828e+00 1.299342e+01 3.415468e+00 -5.176385e+00 2.550303e+00 -1.146734e+01 -4.153757e+00 -3.268269e+00 -9.225492e+00 2.452775e-01 -4.336311e+00 3.823432e+01 -9.623178e-01 -1.017213e+00 -1.584770e+00 1.391737e-01 1.343542e+00 1.014803e+00 1.631101e+00 9.671654e-01 2.844419e-01 5.591731e-01 9.073241e-02 3.161814e-01 -6.151317e-01 -9.422883e-02 -3.965550e-01 4.127976e-02 -2.645943e-01 -5.064504e-01 -4.567787e-02 -6.529656e-02 1.715024e-01 1.911395e-01 1.660056e-01 3.732975e-01 1.729029e-01 1.233990e-01
<VARIANCE> 39
 2.535475e+00 4.805194e+00 1.202455e+01 3.047519e+00 1.594538e+01 1.741773e+01 1.619925e+01 1.125469e+01 1.368543e+01 1.174907e+01 8.792166e+00 9.667070e+00 1.008262e+00 2.309816e-01 1.462828e+00 5.226112e-01 7.741526e-01 1.334530e+00 7.204665e-01 7.819356e-01 1.314760e+00 1.005142e+00 1.283658e+00 1.378243e+00 1.189207e+00 2.014352e-01 3.979172e-02 1.413400e-01 1.453142e-01 5.255680e-02 1.517965e-01 2.648553e-01 2.106084e-01 2.550498e-01 2.794911e-01 2.192507e-01 2.155114e-01 2.344869e-01 3.473805e-02
<GCONST> 6.995641e+01
<STATE> 3
<MEAN> 39
 -5.322240e+00 -1.538764e+00 7.261599e+00 1.450638e+00 -4.332027e+00 4.798027e+00 -5.749982e+00 1.643871e+00 3.640217e-01 -5.119052e+00 1.767490e+00 -2.066773e+00 3.629774e+01 1.402032e-01 -1.396240e-01 4.045221e-02 -7.319521e-01 -1.713161e+00 -1.474771e+00 -7.726159e-01 -1.437699e-01 5.745305e-01 7.045019e-01 6.638946e-01 5.368796e-01 1.901564e-01 7.379849e-01 3.710266e-01 4.983169e-01 -2.353941e-01 -9.671475e-01 -7.344465e-01 -7.467345e-01 -4.432396e-01 -5.461880e-02 -1.263860e-01 1.043450e-02 -1.553912e-02 4.773806e-01
<VARIANCE> 39
 4.410912e+00 3.025134e+00 3.659519e+00 4.209261e+00 1.051083e+01 1.272898e+01 8.439007e+00 1.214736e+01 1.088354e+01 1.195278e+01 7.405444e+00 1.092939e+01 1.201181e+00 2.397091e+00 1.403357e+00 1.655107e+00 9.981916e-01 3.425784e+00 2.209620e+00 4.256184e+00 3.297290e+00 1.948499e+00 1.189934e+00 7.599376e-01 7.508439e-01 8.632549e-01 1.856207e-01 2.123425e-01 3.104225e-01 3.034062e-01 4.162007e-01 2.081540e-01 3.811169e-01 5.027770e-01 4.254129e-01 3.040791e-01 1.591931e-01 1.680062e-01 1.494886e-01
<GCONST> 8.522644e+01
<STATE> 4
<MEAN> 39
 2.796073e+00 2.888833e-01 1.097513e+01 -4.328935e+00 -2.124516e+01 -7.230918e+00 -1.468643e+01 -2.349729e+00 2.366262e+00 -3.084064e+00 5.433659e+00 -7.562055e-02 4.218120e+01 2.761027e+00 -1.037406e+00 4.751160e-01 -2.244832e+00 -5.321783e+00 -2.596606e+00 -8.498586e-01 1.528684e+00 1.772895e+00 -8.702790e-03 4.432937e-01 6.400648e-01 2.596157e+00 -2.311787e-01 -7.013662e-01 -7.592410e-01 1.970823e-02 1.008904e+00 9.771971e-01 9.953057e-01 1.072808e+00 3.698334e-01 -2.193541e-01 -3.818875e-01 -2.360732e-01 1.478490e-02
<VARIANCE> 39
 1.178107e+01 1.626080e+01 2.451125e+01 2.071786e+01 8.406403e+01 2.172608e+01 7.176328e+00 2.276371e+01 3.306171e+01 1.378166e+01 7.497339e+00 3.493848e+00 1.455597e+01 7.633100e-01 1.872599e+00 3.422310e+00 2.873976e+00 3.697262e+00 3.563049e+00 2.316562e+00 4.193482e+00 3.365356e+00 2.715756e+00 9.152465e-01 5.115432e-01 7.770720e-01 2.076918e-01 1.737470e-01 5.177887e-01 4.346260e-01 1.735279e+00 4.697667e-01 2.758216e-01 4.001975e-01 6.185738e-01 2.438743e-01 1.414179e-01 1.201215e-01 2.256980e-01
<GCONST> 1.018537e+02
<TRANSP> 5
 0.000000e+00 1.000000e+00 0.000000e+00 0.000000e+00 0.000000e+00
 0.000000e+00 7.304595e-01 2.695405e-01 0.000000e+00 0.000000e+00
 0.000000e+00 0.000000e+00 8.056005e-01 1.943995e-01 0.000000e+00
 0.000000e+00 0.000000e+00 0.000000e+00 6.503773e-01 3.496227e-01
 0.000000e+00 0.000000e+00 0.000000e+00 0.000000e+00 0.000000e+00
<ENDHMM>
~h "k"
<BEGINHMM>
<NUMSTATES> 5
<STATE> 2
<MEAN> 39
 -1.104200e+01 -8.298651e+00 2.357176e+00 6.475523e-01 -3.894403e+00 4.291729e+00 -5.799864e+00 -1.361051e-01 -3.755552e+00 -3.598226e+00 3.178856e+00 -5.655729e-01 3.362999e+01 2.728081e-01 -1.187718e-01 -8.750478e-01 -4.451523e-01 5.832728e-01 1.309965e+00 1.731155e-01 -3.194292e-01 -3.963591e-01 7.146838e-02 -1.346380e-01 -5.980505e-02 2.394285e-01 4.767058e-01 2.859579e-01 1.701426e-02 -2.171496e-01 -5.642524e-01 -2.631875e-01 -2.117497e-01 -1.304649e-01 4.182546e-01 1.438335e-01 2.886671e-01 -2.119634e-01 2.519144e-01
<VARIANCE> 39
 2.056909e+01 2.068838e+01 2.407118e+01 7.156501e+00 2.164660e+01 1.644768e+01 1.253131e+01 1.375078e+01 1.852972e+01 1.334643e+01 1.868351e+01 1.004776e+01 4.971839e+00 1.433558e+00 8.057883e-01 8.582718e-01 1.121901e+00 1.266254e+00 3.067288e+00 3.328187e-01 1.192216e+00 2.121176e+00 5.451934e-01 2.110025e+00 1.805001e+00 5.020273e-01 1.147664e-01 1.302983e-01 1.968417e-01 1.322919e-01 2.715405e-01 4.430759e-01 1.905273e-01 2.142204e-01 4.693006e-01 2.156879e-01 3.760085e-01 1.650894e-01 4.449946e-02
<GCONST> 8.623643e+01
<STATE> 3
<MEAN> 39
 -6.507065e+00 -6.525041e+00 1.228420e+00 -2.603369e+00 -8.217788e+00 3.235081e+00 -8.059103e+00 -2.026054e+00 -9.343916e-01 -1.810563e+00 5.514370e+00 -2.478155e+00 3.640149e+01 2.876665e+00 2.071080e+00 7.804816e-01 -2.027975e+00 -3.201717e+00 -2.252240e+00 -1.590050e+00 -7.540075e-01 1.696465e-01 -3.658833e-01 5.913848e-01 3.781205e-01 1.489837e+00 7.140030e-01 2.812873e-01 8.286969e-02 -7.001973e-01 -5.225229e-01 -9.045701e-02 -3.226388e-01 -2.239422e-01 -3.488016e-01 -4.654662e-01 1.305441e-01 5.124896e-01 4.554434e-01
<VARIANCE> 39
 2.065140e+01 3.561665e+01 3.228169e+01 8.842621e+00 4.538109e+01 6.506539e+01 2.283270e+01 7.689305e+00 1.784462e+01 7.701407e+00 1.848051e+01 1.026766e+01 3.966593e+00 3.078045e+00 3.199703e+00 3.462605e+00 3.224726e+00 3.478154e+00 4.081443e+00 1.510683e+00 1.480245e+00 1.957000e+00 2.006527e+00 2.694465e+00 2.228723e+00 1.016094e+00 2.999389e-01 7.398946e-01 8.689051e-01 3.798233e-01 1.072986e+00 2.300330e+00 3.338590e-01 3.099401e-01 3.159254e-01 1.930389e-01 5.363848e-01 3.228762e-01 1.075516e-01
<GCONST> 1.092123e+02
<STATE> 4
<MEAN> 39
 5.923323e+00 1.643730e+00 2.076940e+00 -1.461276e+01 -2.080865e+01 -4.087802e+00 -1.303225e+01 -5.731448e+00 -4.501007e+00 -6.876559e+00 8.234062e+00 2.509808e+00 4.319067e+01 3.866366e+00 4.520688e-01 -1.257200e+00 -3.766032e+00 -1.538835e+00 1.491832e+00 -1.397866e+00 -1.463397e+00 -1.360883e+00 -1.436511e+00 1.211783e+00 1.514545e+00 2.744123e+00 -7.958874e-01 -1.186129e+00 -3.766584e-01 8.952524e-01 1.209008e+00 1.193420e+00 3.645331e-01 1.080594e-01 3.264835e-01 5.282719e-01 -3.413215e-02 -5.201475e-01 -1.957046e-01
<VARIANCE> 39
 2.813678e+00 2.721534e+00 8.861638e+00 3.223498e+00 4.454937e+00 1.043794e+01 6.739365e+00 7.368850e+00 9.154563e+00 3.086665e+00 7.975635e+00 1.365639e+00 2.593796e+00 1.658458e+00 1.684050e+00 5.493170e-01 1.027569e+00 1.939518e+00 3.679715e+00 2.004113e+00 8.279532e-01 1.275204e+00 5.076041e-01 1.641253e-01 4.087622e-01 4.446156e-01 1.270275e-01 3.547379e-01 5.560594e-01 1.637703e-01 2.453798e-01 5.769955e-01 2.178158e-01 2.579108e-01 1.190828e-01 2.001830e-01 1.808808e-01 1.219041e-01 4.187467e-02
<GCONST> 6.941791e+01
<TRANSP> 5
 0.000000e+00 1.000000e+00 0.000000e+00 0.000000e+00 0.000000e+00
 0.000000e+00 6.369965e-01 3.630035e-01 0.000000e+00 0.000000e+00
 0.000000e+00 0.000000e+00 7.497000e-01 2.503000e-01 0.000000e+00
 0.000000e+00 0.000000e+00 0.000000e+00 3.333321e-01 6.666679e-01
 0.000000e+00 0.000000e+00 0.000000e+00 0.000000e+00 0.000000e+00
<ENDHMM>
~h "lsil"
<BEGINHMM>
<NUMSTATES> 5
<STATE> 2
<MEAN> 39
 -7.509039e+00 -3.520331e+00 3.693185e+00 3.619608e-01 -2.236487e+00 6.211235e+00 -3.872164e+00 2.863768e+00 1.406383e+00 -2.423598e+00 3.543020e+00 -1.866765e+00 3.473737e+01 -7.891662e-02 -1.865463e-02 7.511536e-03 3.291021e-02 7.202273e-03 -3.310051e-02 4.335560e-03 1.495646e-02 -9.048543e-04 2.704894e-02 6.490676e-03 1.532747e-03 -5.199910e-02 3.681563e-03 -6.416604e-04 3.780079e-03 2.195084e-03 -2.920613e-03 -3.754881e-03 -9.213666e-03 -5.920967e-03 -6.064861e-03 -4.218103e-03 -3.308126e-03 -1.035101e-02 2.776423e-03
<VARIANCE> 39
 3.772831e+00 1.236582e+01 1.406861e+01 1.300738e+01 1.411957e+01 1.644061e+01 1.198348e+01 1.273732e+01 1.390819e+01 1.403256e+01 1.164734e+01 9.763477e+00 1.942205e+00 2.825203e-01 4.751066e-01 6.210511e-01 7.606187e-01 9.957300e-01 1.156640e+00 1.292599e+00 1.289065e+00 1.260919e+00 1.229001e+00 1.347481e+00 1.096656e+00 1.175475e-01 5.145583e-02 8.475815e-02 1.163746e-01 1.476814e-01 1.924062e-01 2.322270e-01 2.604089e-01 2.609089e-01 2.539887e-01 2.417568e-01 2.846246e-01 2.271232e-01 2.308767e-02
<GCONST> 7.386398e+01
<STATE> 3
<MEAN> 39
 -1.125942e+01 -5.214529e+00 1.294167e+00 1.811299e+00 -9.379516e-01 3.712125e+00 -4.454220e+00 7.908162e-01 -2.942248e-01 -1.162651e+00 2.605731e+00 -2.076251e+00 3.204411e+01 -8.425769e-02 -4.388061e-02 -1.864648e-02 2.423678e-02 5.486225e-02 2.236411e-02 2.978790e-02 -5.745611e-03 -6.341660e-02 -1.758684e-02 -2.390677e-02 -1.673109e-02 -5.047105e-02 1.028313e-02 6.756734e-03 5.330161e-03 -1.018019e-03 -2.544013e-03 -1.197746e-03 5.386972e-03 -5.533766e-03 -7.232502e-03 4.617747e-03 1.775775e-02 1.798874e-02 6.769706e-03
<VARIANCE> 39
 1.329353e+01 1.640009e+01 1.465020e+01 1.140715e+01 1.283920e+01 1.282891e+01 1.260920e+01 1.450278e+01 1.440256e+01 1.504414e+01 1.201024e+01 1.193764e+01 7.534414e+00 1.234242e+00 1.500596e+00 1.508505e+00 1.165935e+00 1.252137e+00 1.586095e+00 1.329216e+00 1.690585e+00 1.829951e+00 1.521358e+00 1.414053e+00 1.586384e+00 6.249253e-01 2.587814e-01 3.203695e-01 3.359630e-01 2.385701e-01 2.506634e-01 3.294291e-01 2.610494e-01 3.484018e-01 3.848977e-01 3.062270e-01 2.965605e-01 3.423344e-01 1.278952e-01
<GCONST> 9.250761e+01
<STATE> 4
<MEAN> 39
 -1.301569e+01 -1.075340e+01 2.949116e+00 1.820721e+00 -3.881149e+00 4.127322e+00 -6.034638e+00 4.167128e-02 -1.920917e+00 -4.521358e+00 2.768535e+00 -2.578414e+00 3.316882e+01 -4.159624e-02 -7.684866e-02 2.094690e-04 4.718880e-02 1.649331e-02 2.953546e-03 8.546205e-03 -5.839773e-02 -3.713123e-02 -1.362150e-02 1.803514e-02 1.667136e-02 -5.104234e-03 6.624307e-03 2.769774e-03 -6.399593e-03 -4.256132e-03 7.975561e-04 9.862690e-04 5.572136e-03 -3.436875e-03 2.753499e-03 1.009961e-02 1.141723e-02 -2.215168e-03 2.978244e-03
<VARIANCE> 39
 4.175790e+00 1.005123e+01 1.526593e+01 1.102662e+01 1.590400e+01 1.200973e+01 1.324221e+01 1.440305e+01 1.716036e+01 1.733567e+01 1.345444e+01 1.000341e+01 1.099594e+00 3.657798e-01 7.412931e-01 9.794937e-01 7.131064e-01 1.106196e+00 1.078689e+00 1.513428e+00 1.552178e+00 1.604763e+00 1.557601e+00 1.559628e+00 1.162953e+00 8.877349e-02 7.354362e-02 1.396140e-01 1.945934e-01 1.382557e-01 2.172033e-01 2.141812e-01 3.218556e-01 3.204640e-01 3.236311e-01 3.174378e-01 3.270698e-01 2.428412e-01 1.752655e-02
<GCONST> 7.780615e+01
<TRANSP> 5
 0.000000e+00 1.000000e+00 0.000000e+00 0.000000e+00 0.000000e+00
 0.000000e+00 9.784141e-01 2.158591e-02 0.000000e+00 0.000000e+00
 0.000000e+00 0.000000e+00 9.615067e-01 3.849337e-02 0.000000e+00
 0.000000e+00 0.000000e+00 0.000000e+00 9.739968e-01 2.600325e-02
 0.000000e+00 0.000000e+00 0.000000e+00 0.000000e+00 0.000000e+00
<ENDHMM>
~h "m"
<BEGINHMM>
<NUMSTATES> 5
<STATE> 2
<MEAN> 39
 6.960222e+00 -9.726983e-01 6.516194e+00 -1.951542e+00 -7.086284e+00 5.141655e+00 -1.367749e+01 -7.117137e+00 -5.585434e+00 -9.586724e+00 2.886011e+00 -3.139397e+00 4.513614e+01 -4.792984e-01 2.225937e+00 2.077318e+00 1.569116e+00 1.992684e-01 -1.261927e+00 -7.281289e-01 -9.596617e-01 -1.386095e+00 -6.677032e-01 -5.152146e-03 6.812669e-01 -9.678515e-01 -9.086481e-02 -5.972156e-01 -3.114705e-01 -2.679976e-01 -1.167197e-02 3.015891e-01 8.904158e-02 3.717840e-01 4.591128e-01 6.287407e-02 -1.696362e-01 -2.167823e-01 1.518002e-01
<VARIANCE> 39
 1.090120e+01 1.867975e+01 1.489403e+01 1.285301e+01 1.381680e+01 1.985067e+01 1.816488e+01 2.215735e+01 2.540269e+01 1.364019e+01 1.071204e+01 1.532834e+01 1.062717e+01 2.584310e+00 1.989497e+00 8.517338e-01 2.122762e+00 2.573366e+00 1.164245e+00 2.243244e+00 2.339192e+00 2.312319e+00 1.057409e+00 2.163105e+00 2.332862e+00 1.513372e+00 1.044067e-01 1.294538e-01 2.397771e-01 1.663378e-01 2.746415e-01 1.433409e-01 4.667506e-01 4.597897e-01 3.338304e-01 2.690676e-01 3.265959e-01 3.363403e-01 7.331146e-02
<GCONST> 9.555278e+01
<STATE> 3
<MEAN> 39
 2.984627e+00 3.714430e+00 1.063550e+01 -7.760582e-01 -9.451440e+00 2.337084e-01 -1.264487e+01 -3.853612e+00 -3.248387e+00 -7.930148e+00 1.508351e+00 -3.373153e+00 4.101230e+01 9.283023e-02 1.440263e-01 4.488688e-02 1.507883e-01 6.369305e-02 9.934508e-02 1.790104e-01 -1.617507e-02 5.257487e-02 -7.622821e-02 -1.616387e-01 -6.026984e-02 1.575513e-02 -7.158291e-02 -5.146196e-01 -5.889490e-01 -3.123059e-01 5.141026e-02 3.504615e-01 3.507420e-01 2.039891e-01 2.054649e-01 1.605627e-01 7.121179e-02 -4.910924e-02 5.735370e-02
<VARIANCE> 39
 9.199758e+00 4.312289e+00 6.766579e+00 1.069970e+01 2.307010e+01 2.642248e+01 2.074864e+01 2.005765e+01 1.607205e+01 1.165973e+01 9.129979e+00 1.073707e+01 5.710911e+00 1.027793e+00 6.383006e-01 9.544316e-01 1.026769e+00 1.268976e+00 1.468639e+00 1.806390e+00 1.162988e+00 1.230239e+00 8.521228e-01 1.271099e+00 8.471969e-01 4.789612e-01 2.440563e-01 2.947877e-01 3.968352e-01 3.509638e-01 3.774255e-01 4.028823e-01 3.505037e-01 2.444379e-01 3.976420e-01 2.269536e-01 2.535731e-01 2.659690e-01 1.082748e-01
<GCONST> 8.768440e+01
<STATE> 4
<MEAN> 39
 5.066831e+00 -1.504472e+00 4.872231e+00 -4.233144e+00 -9.787018e+00 4.934165e+00 -9.937914e+00 -3.201223e+00 -1.718727e+00 -8.173345e+00 7.430871e-01 -4.577637e+00 4.367625e+01 3.561508e-01 -2.934432e+00 -2.437996e+00 -1.764768e+00 -2.264423e-01 1.842290e+00 1.174426e+00 1.467987e+00 1.983956e+00 5.910487e-01 -2.533032e-01 -1.096298e+00 1.086079e+00 -3.537325e-02 -4.947087e-01 8.703275e-02 2.990158e-02 -1.518891e-02 8.476124e-02 -1.638800e-01 2.185280e-01 2.470104e-01 -3.751570e-02 7.221877e-02 -3.154688e-02 1.888566e-01
<VARIANCE> 39
 2.264797e+01 3.569111e+01 5.296135e+01 4.024526e+01 6.996515e+01 3.620052e+01 2.379464e+01 2.544881e+01 3.342942e+01 1.779648e+01 1.750883e+01 1.306223e+01 1.717186e+01 2.346178e+00 2.676237e+00 5.816046e+00 2.908250e+00 3.702170e+00 2.722781e+00 2.334074e+00 2.126702e+00 2.616887e+00 2.273302e+00 2.543858e+00 1.952994e+00 2.099459e+00 1.226855e-01 7.090804e-01 1.027190e+00 6.388610e-01 2.729384e-01 5.536770e-01 3.859443e-01 3.121704e-01 5.803533e-01 4.158061e-01 4.813291e-01 3.703820e-01 1.619734e-01
<GCONST> 1.158147e+02
<TRANSP> 5
 0.000000e+00 1.000000e+00 0.000000e+00 0.000000e+00 0.000000e+00
 0.000000e+00 6.798031e-01 3.201969e-01 0.000000e+00 0.000000e+00
 0.000000e+00 0.000000e+00 7.851489e-01 2.148512e-01 0.000000e+00
 0.000000e+00 0.000000e+00 0.000000e+00 6.488186e-01 3.511814e-01
 0.000000e+00 0.000000e+00 0.000000e+00 0.000000e+00 0.000000e+00
<ENDHMM>
~h "n"
<BEGINHMM>
<NUMSTATES> 5
<STATE> 2
<MEAN> 39
 6.573347e+00 1.178123e-01 7.452048e+00 -4.380195e+00 -1.204140e+01 9.599808e-01 -1.541883e+01 -6.209360e+00 -1.280231e+00 -6.568535e+00 9.719943e-01 -6.106375e+00 4.460922e+01 -1.093580e+00 2.293597e+00 2.029945e+00 2.107507e+00 4.430507e-01 -1.406098e+00 2.778782e-01 -5.186359e-01 -2.121919e+00 -1.440063e+00 -5.631017e-01 8.689380e-01 -1.540377e+00 2.206597e-01 -5.454787e-01 -4.028343e-01 -7.534660e-01 -2.134065e-01 4.151802e-01 -5.176226e-02 3.846744e-01 5.251987e-01 3.411821e-01 3.784050e-01 -1.457661e-01 4.340202e-01
<VARIANCE> 39
 8.670285e+00 7.398108e+00 7.390042e+00 9.075605e+00 2.174997e+01 1.092697e+01 1.277588e+01 1.367752e+01 1.775341e+01 1.567822e+01 7.208771e+00 1.106052e+01 9.189413e+00 2.435945e-01 8.260347e-01 7.043617e-01 2.042521e+00 1.956944e+00 9.372541e-01 1.322682e+00 2.454537e+00 2.466273e+00 1.480642e+00 1.196276e+00 1.125890e+00 4.376449e-01 2.884298e-02 9.903356e-02 7.679927e-02 1.267901e-01 2.055463e-01 1.144928e-01 2.212162e-01 2.256535e-01 3.722962e-01 3.326398e-01 2.090966e-01 2.342947e-01 2.904510e-02
<GCONST> 7.833451e+01
<STATE> 3
<MEAN> 39
 5.072040e+00 3.759084e+00 1.244220e+01 -9.351450e-01 -1.136203e+01 -5.334335e-01 -1.533227e+01 -5.588784e+00 -3.162259e+00 -8.295612e+00 1.052539e+00 -4.572473e+00 4.292141e+01 -5.260428e-01 1.392660e-01 3.741009e-01 7.416531e-01 5.910553e-01 2.608826e-01 4.140261e-01 9.606092e-03 -2.104464e-01 -5.115366e-03 -1.353946e-01 3.013192e-01 -4.284739e-01 -2.411164e-02 -3.109076e-01 -3.269621e-01 -1.023353e-01 1.916569e-01 3.075756e-01 1.412543e-01 1.414432e-01 1.926983e-01 7.743824e-02 1.260738e-02 -1.470064e-02 4.543625e-02
<VARIANCE> 39
 1.073083e+01 5.132866e+00 8.382268e+00 1.639058e+01 3.381347e+01 7.579029e+00 1.063888e+01 1.304196e+01 1.537905e+01 1.025601e+01 6.506210e+00 1.102718e+01 9.282216e+00 1.545396e-01 4.573898e-01 6.440071e-01 5.669379e-01 1.146646e+00 1.127709e+00 6.774128e-01 1.156203e+00 9.031558e-01 9.567144e-01 6.024823e-01 8.622316e-01 1.439523e-01 4.597420e-02 8.797824e-02 1.193168e-01 1.639460e-01 1.503645e-01 1.570908e-01 2.061899e-01 3.467700e-01 2.401703e-01 1.936727e-01 1.128891e-01 1.809438e-01 4.567827e-02
<GCONST> 7.039291e+01
<STATE> 4
<MEAN> 39
 -1.854750e-01 1.731088e-02 9.005878e+00 4.839889e-01 -6.471100e+00 3.999377e+00 -1.000533e+01 -2.462032e+00 -1.436669e+00 -7.023688e+00 6.681628e-01 -3.254168e+00 3.957010e+01 -1.107799e+00 -1.096462e+00 -1.089917e+00 -5.254785e-01 4.598891e-01 6.477605e-01 1.217760e+00 1.253608e+00 7.619986e-01 5.122256e-01 4.530304e-01 2.304861e-01 -5.631610e-01 -5.175063e-02 -7.454962e-02 -1.257159e-01 -2.320461e-01 -2.843801e-01 -1.979697e-01 -4.639588e-02 -4.567729e-02 6.826869e-03 1.500953e-01 1.543071e-01 -5.004467e-02 9.243483e-03
<VARIANCE> 39
 1.425582e+01 1.261826e+01 1.759092e+01 1.544062e+01 7.563356e+01 1.595391e+01 9.533294e+00 1.601280e+01 1.775253e+01 1.388437e+01 1.023657e+01 9.725745e+00 9.969656e+00 8.352833e-01 6.824327e-01 1.451036e+00 9.177245e-01 2.034630e+00 1.506328e+00 1.517774e+00 1.838322e+00 1.371049e+00 2.313911e+00 1.156710e+00 8.101701e-01 5.408247e-01 6.189276e-02 1.462817e-01 1.884216e-01 2.165288e-01 3.511141e-01 2.467962e-01 1.884138e-01 3.081145e-01 3.182678e-01 2.904778e-01 2.296197e-01 1.673652e-01 3.859479e-02
<GCONST> 8.726007e+01
<TRANSP> 5
 0.000000e+00 1.000000e+00 0.000000e+00 0.000000e+00 0.000000e+00
 0.000000e+00 6.318513e-01 3.681488e-01 0.000000e+00 0.000000e+00
 0.000000e+00 0.000000e+00 8.272779e-01 1.727221e-01 0.000000e+00
 0.000000e+00 0.000000e+00 0.000000e+00 7.348770e-01 2.651230e-01
 0.000000e+00 0.000000e+00 0.000000e+00 0.000000e+00 0.000000e+00
<ENDHMM>
~h "ng"
<BEGINHMM>
<NUMSTATES> 5
<STATE> 2
<MEAN> 39
 2.198037e+00 2.945872e+00 1.056580e+01 -4.898400e+00 -1.554752e+01 2.078433e-01 -1.264162e+01 -2.518060e+00 1.590904e+00 -5.737910e+00 -1.691226e+00 -6.479357e+00 4.091999e+01 -4.479568e-01 1.162740e+00 -7.592422e-01 3.364274e-01 1.152143e+00 -1.135630e+00 -3.002129e-01 -2.090207e-01 4.827281e-02 1.265357e-01 -1.591543e-01 2.991147e-01 -8.596043e-01 8.708309e-02 -2.781990e-01 1.185560e-01 1.147835e-01 -3.342786e-01 -1.723675e-01 -1.143785e-01 7.793939e-03 1.727829e-01 -1.255390e-02 4.093647e-01 5.043194e-02 1.509715e-01
<VARIANCE> 39
 1.669557e+00 2.670448e+00 3.501120e+00 2.203877e+01 2.827765e+01 8.433558e+00 6.779663e+00 5.368543e+00 2.762367e+00 1.436635e+01 5.885004e+00 8.371284e+00 1.985415e+00 7.344616e-02 6.550708e-01 9.730139e-01 1.441381e+00 3.840620e+00 6.545897e-01 1.310937e+00 2.243796e+00 1.722741e+00 1.110257e-01 8.313583e-01 1.899087e-01 4.435570e-01 3.729348e-02 1.221539e-01 5.407470e-02 9.623875e-02 3.472067e-02 1.477568e-01 1.053391e-01 1.480310e-02 3.692949e-02 2.231946e-01 2.053252e-01 4.704758e-01 9.861710e-03
<GCONST> 5.570207e+01
<STATE> 3
<MEAN> 39
 1.016492e+00 3.380014e+00 8.669695e+00 -3.642963e+00 -1.317254e+01 -2.189950e+00 -1.234981e+01 -1.187501e+00 8.476380e-01 -7.008582e+00 -7.602017e-01 -4.825999e+00 3.942609e+01 -6.226684e-01 -2.825382e-01 -5.163309e-01 2.656834e-01 1.194119e+00 7.482238e-01 3.557344e-01 2.978667e-01 -9.417655e-02 1.738818e-01 1.264177e-01 -4.860394e-02 -4.799723e-01 -1.089138e-01 -3.194517e-01 1.737735e-02 5.347542e-03 4.264625e-02 3.516435e-01 2.307786e-01 4.852217e-02 -5.685846e-02 1.285909e-01 4.651105e-02 -8.442622e-02 3.796545e-02
<VARIANCE> 39
 3.333566e+00 1.809802e+00 7.974293e+00 1.021486e+01 1.378290e+01 1.505824e+01 7.508941e+00 7.358723e+00 4.540759e+00 6.718562e+00 4.404791e+00 9.513519e+00 1.275867e+00 3.062313e-01 3.364395e-01 5.869859e-01 5.143485e-01 8.170256e-01 2.261033e+00 1.052165e+00 8.331100e-01 3.544931e-01 7.991089e-01 5.841141e-01 1.173517e+00 9.860293e-02 5.282922e-02 4.229995e-02 1.414469e-01 1.120407e-01 2.230927e-01 2.469922e-01 1.754066e-01 2.758006e-01 1.423897e-01 1.190052e-01 1.150834e-01 2.698046e-01 2.529035e-02
<GCONST> 6.027193e+01
<STATE> 4
<MEAN> 39
 -3.876268e+00 -2.542288e+00 5.606847e+00 -1.565981e+00 -6.746355e+00 4.621942e+00 -6.009591e+00 5.239421e-01 5.068021e-02 -5.361045e+00 3.074156e-01 -4.247724e+00 3.718795e+01 -1.101136e+00 -1.265511e+00 -3.099678e-01 5.180454e-01 4.586904e-01 3.864471e-01 8.545815e-01 3.392440e-01 -3.439859e-01 1.358811e-01 5.519376e-01 6.976569e-01 -4.055347e-01 -2.009324e-02 2.417937e-02 7.654118e-02 -3.838557e-02 -3.556699e-01 -3.392191e-01 -2.662887e-01 -5.688203e-02 8.024115e-02 -6.247838e-02 5.625519e-02 2.342602e-01 9.986992e-04
<VARIANCE> 39
 5.890300e+00 8.949821e+00 2.848483e+00 2.184973e+00 6.602561e+00 1.150718e+01 9.552667e+00 7.279191e+00 7.218125e+00 8.715922e+00 6.813144e+00 4.069876e+00 9.938799e-01 6.296667e-01 1.303947e+00 3.272722e-01 1.928452e-01 1.670123e+00 1.064307e+00 1.079845e+00 1.256266e+00 1.691172e+00 5.450655e-01 1.525495e+00 5.972944e-01 8.255309e-02 9.331743e-02 1.014546e-01 5.624406e-02 3.791745e-02 2.270964e-01 2.273224e-01 1.382204e-01 2.441784e-01 1.752379e-01 1.092083e-01 3.024942e-01 7.103839e-02 1.728214e-02
<GCONST> 5.973503e+01
<TRANSP> 5
 0.000000e+00 1.000000e+00 0.000000e+00 0.000000e+00 0.000000e+00
 0.000000e+00 1.906747e-41 1.000000e+00 0.000000e+00 0.000000e+00
 0.000000e+00 0.000000e+00 8.389823e-01 1.610177e-01 0.000000e+00
 0.000000e+00 0.000000e+00 0.000000e+00 7.797116e-01 2.202884e-01
 0.000000e+00 0.000000e+00 0.000000e+00 0.000000e+00 0.000000e+00
<ENDHMM>
~h "NNN"
<BEGINHMM>
<NUMSTATES> 5
<STATE> 2
<MEAN> 39
 6.232840e+00 -1.639213e+01 3.856109e+00 -4.943598e+00 -1.477296e+01 1.695972e+00 -1.624011e+01 -9.994579e-01 6.158148e-01 -6.457757e+00 9.670680e+00 -2.178013e+00 5.127828e+01 1.097842e+00 -2.084795e+00 1.056260e+00 -4.377527e-01 -9.121032e-01 1.297136e+00 -1.160016e+00 3.527712e-01 5.389356e-01 -1.586635e+00 4.576996e-01 2.626880e-01 2.076323e+00 -7.369453e-01 6.213517e-01 7.909159e-02 3.067764e-01 3.687162e-01 -3.904030e-02 4.858296e-01 -7.225453e-02 -4.502900e-02 3.509443e-01 -5.383061e-01 -9.476622e-02 -8.721579e-01
<VARIANCE> 39
 8.367192e+01 6.402387e+01 6.597459e+01 1.867988e+01 6.667582e+01 4.479205e+01 6.247835e+01 5.913067e+01 2.101882e+01 6.108665e+01 3.269352e+01 2.528331e+01 7.316818e+01 6.568849e+00 4.490147e+00 4.644939e+00 1.696609e+00 6.861448e+00 1.796414e+00 4.082735e+00 3.775215e+00 3.149321e+00 4.758454e+00 3.414345e+00 2.048928e+00 6.822451e+00 6.368366e-01 7.442866e-01 9.791785e-01 4.095210e-01 1.340034e+00 7.625235e-01 6.313015e-01 6.060873e-01 2.949558e-01 8.761241e-01 4.744832e-01 3.427500e-01 7.629533e-01
<GCONST> 1.329930e+02
<STATE> 3
<MEAN> 39
 7.714494e+00 -1.478615e+01 7.292893e+00 -3.475636e+00 -1.902621e+01 -3.587583e+00 -1.555570e+01 8.514785e-01 -1.300656e+00 -1.123660e+01 4.813757e+00 -5.693888e+00 5.251073e+01 -3.925167e-02 7.612979e-01 -1.800493e-01 8.481735e-02 1.448369e-01 -2.917539e-01 3.227429e-01 -2.946424e-02 9.989896e-02 3.230641e-01 -2.551396e-01 -9.330465e-02 -4.729461e-01 3.500293e-02 6.072160e-02 1.817564e-02 4.418457e-02 6.931425e-02 8.234790e-03 -2.480869e-02 1.960601e-03 -2.770683e-02 -3.123784e-02 1.233933e-02 -3.549813e-02 7.306122e-03
<VARIANCE> 39
 4.186440e+01 6.918880e+01 2.343168e+01 2.711508e+01 4.058104e+01 5.181986e+01 2.039439e+01 4.032943e+01 3.269614e+01 5.004035e+01 4.981794e+01 2.164477e+01 4.918499e+01 2.280773e+00 2.058843e+00 1.937280e+00 1.940755e+00 2.121470e+00 2.218311e+00 2.020173e+00 1.964180e+00 2.419209e+00 2.280146e+00 2.249594e+00 1.840432e+00 2.364878e+00 3.817046e-01 5.275861e-01 3.874674e-01 3.575449e-01 3.785866e-01 3.350678e-01 3.607891e-01 3.638615e-01 5.545688e-01 4.837454e-01 4.716986e-01 3.943942e-01 3.830407e-01
<GCONST> 1.169007e+02
<STATE> 4
<MEAN> 39
 1.255100e+00 -5.034769e+00 6.706936e+00 -9.538088e-03 -7.756474e+00 3.837890e+00 -1.085839e+01 -1.099607e+00 2.884943e+00 -2.886664e+00 4.921137e+00 -3.064442e+00 4.243664e+01 -1.039487e+00 3.024581e-01 -2.884279e-01 2.972490e-01 1.113970e+00 5.849871e-01 9.030324e-01 6.126604e-01 4.717587e-02 2.122179e-02 -4.216284e-01 -2.047966e-01 -9.603794e-01 -6.752235e-02 -2.718050e-01 -8.964795e-02 -1.141185e-01 -1.479035e-01 -2.571926e-02 -1.278643e-02 5.163789e-02 -9.892920e-02 -1.135429e-01 1.111077e-01 1.016510e-01 7.202205e-02
<VARIANCE> 39
 4.682059e+01 5.359694e+01 5.872625e+01 1.970916e+01 4.690876e+01 3.983099e+01 4.266982e+01 3.372952e+01 2.407672e+01 2.806797e+01 2.153412e+01 1.775158e+01 2.984969e+01 1.083161e+00 2.924433e+00 2.133861e+00 1.323752e+00 1.903042e+00 1.629662e+00 2.010726e+00 1.193304e+00 1.207335e+00 3.324739e+00 2.304677e+00 1.996111e+00 1.750020e+00 7.266745e-02 1.493163e-01 2.796152e-01 1.096568e-01 2.538238e-01 2.229205e-01 1.806637e-01 2.705043e-01 3.092878e-01 2.230105e-01 4.185498e-01 3.136902e-01 4.534484e-02
<GCONST> 1.031992e+02
<TRANSP> 5
 0.000000e+00 1.000000e+00 0.000000e+00 0.000000e+00 0.000000e+00
 0.000000e+00 7.419344e-01 2.580656e-01 0.000000e+00 0.000000e+00
 0.000000e+00 0.000000e+00 8.909128e-01 1.090872e-01 0.000000e+00
 0.000000e+00 0.000000e+00 0.000000e+00 7.983039e-01 2.016961e-01
 0.000000e+00 0.000000e+00 0.000000e+00 0.000000e+00 0.000000e+00
<ENDHMM>
~h "o"
<BEGINHMM>
<NUMSTATES> 5
<STATE> 2
<MEAN> 39
 6.882801e+00 -1.019668e+01 -5.816333e+00 -1.932932e+01 -1.913856e+01 5.839947e+00 -6.819647e+00 3.673538e+00 5.505641e+00 -1.637644e+00 6.595312e+00 -4.225982e+00 4.783617e+01 1.253963e+00 -4.516482e-01 -5.334215e-01 -1.200248e+00 -2.523026e-01 1.005235e+00 -3.751478e-01 -3.239461e-01 1.159232e-01 -6.003692e-02 2.931935e-01 -5.031123e-01 1.202286e+00 -2.072340e-01 7.362295e-02 2.476167e-01 4.365516e-01 3.644284e-01 2.856828e-02 -9.148564e-02 -1.395337e-01 -1.410302e-01 -1.322090e-02 -4.798708e-02 -6.474216e-02 -1.564402e-01
<VARIANCE> 39
 1.769912e+01 1.977898e+01 6.753611e+01 5.726911e+01 3.719441e+01 8.309980e+01 4.352576e+01 2.095104e+01 1.595099e+01 1.669234e+01 1.760880e+01 2.275268e+01 2.160198e+01 2.516806e+00 1.538690e+00 2.091861e+00 3.646626e+00 3.353935e+00 1.945407e+00 1.744481e+00 1.922579e+00 1.577520e+00 1.435652e+00 1.550547e+00 1.262735e+00 2.424722e+00 4.014197e-01 2.721463e-01 4.607069e-01 7.340207e-01 6.755211e-01 3.914546e-01 3.219216e-01 2.707587e-01 3.268166e-01 2.282658e-01 2.761724e-01 2.136850e-01 3.643577e-01
<GCONST> 1.106407e+02
<STATE> 3
<MEAN> 39
 1.216442e+01 -1.262365e+01 -6.136318e+00 -2.222262e+01 -1.594158e+01 1.338251e+01 -9.127219e+00 -1.977350e-01 2.751905e+00 -2.550757e+00 9.257950e+00 -6.874498e+00 5.382583e+01 1.422990e-01 2.427396e-01 4.986986e-01 2.525765e-01 -4.788215e-02 -1.317513e-01 -2.384766e-01 -1.177917e-02 -1.179264e-01 -1.738416e-01 8.051065e-02 5.039344e-02 9.571458e-02 -1.526307e-01 1.920457e-01 7.714963e-02 1.665130e-01 -3.539508e-02 -2.385863e-01 5.418546e-02 1.381949e-01 1.284399e-01 3.383034e-03 -1.349950e-01 9.379892e-02 -2.271932e-01
<VARIANCE> 39
 4.460892e+00 7.652321e+00 7.738977e+00 7.167022e+00 1.322581e+01 1.195670e+01 1.637414e+01 8.131849e+00 8.804838e+00 1.233038e+01 1.104043e+01 1.663009e+01 8.054447e+00 2.209363e-01 6.189241e-01 2.800929e-01 5.274015e-01 6.650970e-01 8.659866e-01 1.030704e+00 8.844928e-01 1.027466e+00 8.775631e-01 9.681530e-01 1.049990e+00 3.571033e-01 3.669835e-02 7.937426e-02 5.203592e-02 1.130967e-01 1.166517e-01 1.204247e-01 1.575835e-01 1.309285e-01 1.544069e-01 1.530801e-01 1.460511e-01 1.313945e-01 4.302349e-02
<GCONST> 6.553709e+01
<STATE> 4
<MEAN> 39
 9.841393e+00 -6.527358e+00 -5.072847e-01 -1.493225e+01 -1.547148e+01 7.053677e+00 -1.092934e+01 7.693552e-01 4.414015e+00 -3.056488e+00 6.411378e+00 -5.629253e+00 4.942609e+01 -1.438551e+00 1.970755e+00 1.441019e+00 2.607223e+00 1.093660e+00 -1.393318e+00 2.824041e-01 -2.159325e-01 -3.879306e-01 -2.862284e-01 -1.017994e+00 5.307190e-01 -1.985673e+00 -3.336354e-01 8.422227e-02 6.086717e-02 2.845788e-01 3.627109e-01 2.419711e-02 8.735760e-02 -2.165097e-01 -3.970356e-01 -8.365392e-02 -1.830294e-02 3.974690e-02 -2.650421e-01
<VARIANCE> 39
 1.268578e+01 2.013150e+01 1.293801e+01 3.171610e+01 2.672022e+01 2.970525e+01 4.632524e+01 1.893882e+01 1.824310e+01 1.786268e+01 1.423675e+01 2.680840e+01 1.993817e+01 7.733230e-01 1.454455e+00 1.355317e+00 1.579892e+00 2.311492e+00 1.480230e+00 2.063531e+00 2.132359e+00 3.551545e+00 1.980167e+00 1.014211e+00 1.283462e+00 5.747119e-01 1.011431e-01 3.317314e-01 2.018056e-01 3.627373e-01 3.877192e-01 2.464753e-01 3.268229e-01 2.875876e-01 4.750426e-01 3.323251e-01 2.310579e-01 2.641698e-01 1.422913e-01
<GCONST> 9.935153e+01
<TRANSP> 5
 0.000000e+00 1.000000e+00 0.000000e+00 0.000000e+00 0.000000e+00
 0.000000e+00 7.666191e-01 2.333809e-01 0.000000e+00 0.000000e+00
 0.000000e+00 0.000000e+00 8.765785e-01 1.234216e-01 0.000000e+00
 0.000000e+00 0.000000e+00 0.000000e+00 7.519965e-01 2.480035e-01
 0.000000e+00 0.000000e+00 0.000000e+00 0.000000e+00 0.000000e+00
<ENDHMM>
~h "p"
<BEGINHMM>
<NUMSTATES> 5
<STATE> 2
<MEAN> 39
 -2.760256e+00 -1.283926e+00 6.442330e+00 5.991632e-01 -5.241475e+00 2.817046e+00 -9.213695e+00 -9.511750e-01 -8.131903e-01 -6.544596e+00 9.123802e-01 -3.797274e+00 3.790045e+01 -2.016995e+00 -1.446405e+00 -7.182855e-01 4.092664e-01 8.075089e-01 9.274837e-01 1.907007e+00 1.997493e+00 1.048287e+00 2.442511e-01 -5.535385e-01 -2.142735e-01 -1.103174e+00 1.618205e-01 -1.929567e-01 -1.321409e-01 -2.572585e-01 -3.175063e-01 -1.815273e-01 -3.127234e-01 -3.652990e-01 -1.891446e-01 3.948315e-01 6.288242e-01 3.141438e-01 1.747708e-01
<VARIANCE> 39
 7.889543e+00 8.837879e+00 8.300243e+00 1.137628e+01 1.427836e+01 9.308458e+00 1.550360e+01 2.085258e+01 1.396244e+01 1.800755e+01 1.581057e+01 1.193020e+01 1.583057e+00 4.326604e-01 9.856656e-01 1.675366e+00 1.326205e+00 1.989980e+00 1.685853e+00 1.984261e+00 2.934099e+00 2.752574e+00 3.642160e+00 3.382092e+00 1.877926e+00 2.581277e-01 6.016246e-02 1.818416e-01 2.084159e-01 1.702713e-01 2.479071e-01 2.409937e-01 2.690314e-01 3.592903e-01 2.562178e-01 4.339636e-01 4.773030e-01 2.811824e-01 3.455341e-02
<GCONST> 8.750347e+01
<STATE> 3
<MEAN> 39
 -8.032030e+00 -6.930561e+00 2.767096e+00 1.019750e+00 -4.043156e+00 4.101401e+00 -4.645573e+00 2.358184e+00 8.748942e-01 -3.326711e+00 3.208292e+00 -1.773444e+00 3.522900e+01 2.413271e-02 -1.237757e-01 -6.686637e-01 -7.410508e-01 -3.152629e-01 -1.606698e-01 3.231460e-01 1.817541e-01 2.800970e-01 7.208645e-01 2.724603e-01 8.296725e-02 4.894247e-03 7.552217e-01 2.150683e-01 -1.522385e-01 -5.876957e-01 -2.996991e-01 1.474724e-01 -2.717787e-01 -2.479775e-01 2.367042e-02 -1.512950e-01 -9.879706e-02 -2.299718e-01 5.246575e-01
<VARIANCE> 39
 5.469895e+00 1.430923e+01 1.122748e+01 9.661480e+00 1.373288e+01 1.176987e+01 1.186039e+01 1.615005e+01 1.150205e+01 1.057664e+01 1.189603e+01 7.794295e+00 1.408065e+00 2.792755e+00 1.453804e+00 1.182288e+00 2.564255e+00 1.624659e+00 1.180044e+00 1.346469e+00 1.666617e+00 1.563895e+00 1.472190e+00 1.839183e+00 1.040363e+00 1.119554e+00 3.745606e-01 2.986837e-01 4.160004e-01 6.864717e-01 2.704565e-01 4.086468e-01 2.784186e-01 4.464584e-01 5.818510e-01 2.871901e-01 3.964806e-01 2.464088e-01 2.722080e-01
<GCONST> 9.315510e+01
<STATE> 4
<MEAN> 39
 8.043516e-01 -6.426056e+00 -3.062021e+00 -1.038134e+01 -1.021393e+01 6.457974e+00 -5.053655e+00 1.661602e+00 3.743475e+00 -1.634447e+00 3.646248e+00 -4.438645e+00 4.177486e+01 3.454631e+00 -2.113269e+00 -2.319791e+00 -4.040695e+00 -1.702365e+00 2.213091e+00 -1.122809e+00 -3.571739e-01 1.307157e+00 3.734939e-01 1.008939e-01 -2.040781e+00 3.432172e+00 -1.868575e-01 -7.658641e-01 3.826362e-01 6.308813e-01 4.447403e-01 1.082892e-01 -4.898607e-01 1.802564e-01 2.238371e-01 -4.276387e-01 -4.444971e-01 -3.151025e-01 2.306064e-01
<VARIANCE> 39
 7.259185e+01 1.698421e+01 3.329924e+01 8.672829e+01 2.981984e+01 3.319483e+01 1.670533e+01 1.019049e+01 1.559848e+01 8.709766e+00 7.483570e+00 2.388350e+01 4.650974e+01 6.727846e+00 3.078234e+00 2.182953e+00 7.744165e+00 4.243317e+00 3.627581e+00 2.645566e+00 9.713210e-01 3.152505e+00 1.540540e+00 1.585332e+00 2.531772e+00 5.900525e+00 9.763762e-01 5.582872e-01 4.990551e-01 1.597205e+00 4.648986e-01 8.191015e-01 2.763598e-01 1.709516e-01 3.028747e-01 2.533269e-01 2.023652e-01 4.915421e-01 6.884634e-01
<GCONST> 1.169154e+02
<TRANSP> 5
 0.000000e+00 1.000000e+00 0.000000e+00 0.000000e+00 0.000000e+00
 0.000000e+00 7.169554e-01 2.830446e-01 0.000000e+00 0.000000e+00
 0.000000e+00 0.000000e+00 7.495643e-01 2.504357e-01 0.000000e+00
 0.000000e+00 0.000000e+00 0.000000e+00 5.018156e-01 4.981845e-01
 0.000000e+00 0.000000e+00 0.000000e+00 0.000000e+00 0.000000e+00
<ENDHMM>
~h "r"
<BEGINHMM>
<NUMSTATES> 5
<STATE> 2
<MEAN> 39
 8.793423e+00 -4.817064e+00 8.499228e+00 -5.182907e+00 -1.846650e+01 -3.330339e+00 -1.608319e+01 -4.206036e-01 4.572813e+00 -5.598300e+00 3.861613e+00 -1.558493e+00 4.839408e+01 -8.700315e-01 7.541747e-01 -1.419551e+00 1.373991e+00 3.732506e+00 2.117084e-01 -1.264908e+00 -6.059087e-01 1.013036e+00 1.308661e+00 -8.331653e-01 -8.991277e-01 -1.262830e+00 1.726817e-02 7.297737e-04 1.413475e-02 -1.910447e-01 -2.309809e-01 7.456337e-02 -5.445665e-02 -4.344657e-01 -1.618802e-01 4.008007e-01 2.477861e-01 -2.673934e-01 5.377005e-02
<VARIANCE> 39
 4.502394e+00 3.505349e+01 2.220859e+01 2.286510e+01 4.398017e+01 2.282713e+01 2.789866e+01 6.463221e+01 2.158621e+01 3.020576e+01 1.835100e+01 8.004591e+00 1.110842e+01 3.898083e-01 9.828320e-01 6.505403e-01 9.484633e-01 1.391554e+00 1.526230e+00 3.270732e+00 1.290838e+00 1.484917e+00 1.849284e+00 1.364196e+00 1.374262e+00 6.548652e-01 1.140138e-01 2.250818e-01 1.627554e-01 2.328219e-01 3.589849e-01 2.072594e-01 5.145369e-01 2.893911e-01 3.547842e-01 3.268239e-01 2.341629e-01 1.583356e-01 1.767252e-01
<GCONST> 9.460085e+01
<STATE> 3
<MEAN> 39
 7.709893e+00 -3.285158e+00 4.991991e+00 -4.963588e+00 -1.385937e+01 -2.996397e+00 -1.826544e+01 -2.271888e+00 7.126233e+00 -6.923617e-01 3.596672e+00 -4.787847e+00 4.658288e+01 2.947069e-01 -3.452161e-02 -1.545061e+00 -5.809955e-01 1.535411e+00 5.139938e-01 -1.301577e+00 -1.166153e+00 3.883308e-01 1.357707e+00 3.262949e-01 -7.883692e-01 5.661449e-02 3.882367e-01 -4.339771e-01 4.357322e-02 -5.578262e-01 -6.544934e-01 3.089477e-01 1.490985e-01 -4.010308e-03 -3.161386e-01 -3.647426e-01 2.625674e-01 1.255064e-01 5.208191e-01
<VARIANCE> 39
 6.602205e+00 3.294269e+01 2.598862e+01 2.952492e+01 3.514381e+01 2.264444e+01 3.363224e+01 4.677228e+01 2.914170e+01 1.818566e+01 1.643883e+01 1.018435e+01 1.413426e+01 9.474028e-01 1.487602e+00 9.155691e-01 1.839701e+00 2.550260e+00 1.576994e+00 2.205409e+00 1.579218e+00 1.160158e+00 1.657408e+00 1.379756e+00 8.332384e-01 1.391769e+00 1.384260e-01 2.370177e-01 2.511600e-01 2.846307e-01 4.575693e-01 3.618280e-01 6.130583e-01 4.567129e-01 2.597269e-01 4.558946e-01 3.224512e-01 2.202340e-01 1.818427e-01
<GCONST> 1.008025e+02
<STATE> 4
<MEAN> 39
 1.037160e+01 -4.981999e+00 8.994513e-01 -7.754527e+00 -1.087275e+01 -4.265486e-01 -2.223823e+01 -6.688539e+00 6.870447e+00 1.244159e+00 4.953487e+00 -5.755129e+00 4.867434e+01 1.204168e+00 -1.560653e+00 -1.267320e+00 -1.621668e+00 2.237241e-01 1.893720e+00 -4.744473e-01 -6.505378e-01 -5.711644e-01 -5.438488e-01 7.446620e-01 -2.899152e-02 1.470370e+00 -1.480529e-01 -4.977881e-03 4.418701e-01 9.830356e-02 -4.912270e-01 2.257368e-01 8.336697e-01 5.032588e-01 -3.977810e-01 -5.673367e-01 -3.836905e-02 2.827162e-01 -4.095430e-02
<VARIANCE> 39
 4.539115e+00 2.215116e+01 1.743918e+01 2.040141e+01 1.652441e+01 2.551983e+01 1.861274e+01 5.889722e+01 3.055259e+01 1.124454e+01 2.303275e+01 7.565427e+00 7.563553e+00 2.615238e-01 9.521743e-01 1.384523e+00 8.450123e-01 1.209565e+00 1.063161e+00 1.384618e+00 2.626391e+00 1.666914e+00 1.662471e+00 2.201850e+00 1.071886e+00 3.412291e-01 5.590200e-02 8.999506e-02 1.271377e-01 3.177191e-01 4.131202e-01 1.253579e-01 3.200320e-01 2.163018e-01 2.465971e-01 1.673707e-01 1.309766e-01 1.083278e-01 5.594955e-02
<GCONST> 8.488289e+01
<TRANSP> 5
 0.000000e+00 1.000000e+00 0.000000e+00 0.000000e+00 0.000000e+00
 0.000000e+00 1.938181e-06 9.999980e-01 0.000000e+00 0.000000e+00
 0.000000e+00 0.000000e+00 7.499958e-01 2.500042e-01 0.000000e+00
 0.000000e+00 0.000000e+00 0.000000e+00 6.072981e-05 9.999393e-01
 0.000000e+00 0.000000e+00 0.000000e+00 0.000000e+00 0.000000e+00
<ENDHMM>
~h "s"
<BEGINHMM>
<NUMSTATES> 5
<STATE> 2
<MEAN> 39
 -6.963005e+00 -4.957500e+00 4.244721e+00 -7.735523e-02 -4.756017e+00 5.005246e+00 -6.876395e+00 -5.626707e-01 -4.780873e-01 -3.599790e+00 2.654186e+00 -1.840585e+00 3.574876e+01 -7.026832e-01 -6.713418e-01 -7.928078e-01 -1.756408e-01 6.271034e-02 -8.852121e-02 4.613946e-01 4.262049e-01 6.719170e-02 5.957754e-01 1.931763e-01 -1.915306e-01 -4.125845e-01 5.098642e-01 2.556510e-01 2.445965e-01 1.836791e-02 -2.078358e-01 -2.158135e-01 -2.795593e-01 -5.149197e-02 6.402376e-02 -3.265797e-02 1.731752e-02 -1.459876e-01 3.086728e-01
<VARIANCE> 39
 1.919525e+01 1.800237e+01 1.672596e+01 1.049710e+01 9.526366e+00 8.200938e+00 8.335716e+00 1.463088e+01 1.108455e+01 1.185651e+01 1.167532e+01 1.071162e+01 3.849824e+00 9.518861e-01 1.167159e+00 1.105398e+00 1.006615e+00 8.623813e-01 6.041149e-01 1.121624e+00 1.145355e+00 1.346274e+00 1.118808e+00 1.652388e+00 1.820469e+00 3.836378e-01 2.225928e-01 2.862687e-01 2.101641e-01 2.348868e-01 2.739205e-01 1.800724e-01 2.635581e-01 2.412600e-01 3.809376e-01 2.501216e-01 3.413548e-01 4.924594e-01 7.681073e-02
<GCONST> 8.504413e+01
<STATE> 3
<MEAN> 39
 -6.151313e+00 -5.725822e+00 3.312558e+00 4.638275e-01 -4.936129e+00 3.047143e+00 -7.560764e+00 -2.222463e-01 9.237477e-01 -2.085446e+00 4.059008e+00 -2.674172e+00 3.623109e+01 4.111754e+00 1.585355e+00 -1.500291e-02 -1.902592e+00 -2.765360e+00 -2.187046e+00 -2.180945e+00 -9.835667e-03 2.471263e+00 8.715381e-01 -8.349296e-02 -7.236427e-01 2.602041e+00 1.210103e+00 -1.723203e-01 -5.527683e-02 -8.540838e-01 -8.322425e-01 -4.938033e-02 -6.347576e-01 1.917249e-01 6.701910e-01 1.094367e-01 -4.924362e-02 -2.704287e-01 1.083925e+00
<VARIANCE> 39
 1.141311e+01 1.247967e+01 7.968411e+00 1.293393e+01 1.845941e+01 1.543325e+01 3.367453e+01 2.424460e+01 1.634599e+01 9.482925e+00 9.938781e+00 1.041703e+01 2.332602e+00 2.417107e+00 1.667418e+00 1.738839e+00 2.318272e+00 3.162552e+00 1.123023e+00 2.219974e+00 1.326462e+00 2.656826e+00 1.319953e+00 1.819689e+00 1.491657e+00 1.593629e+00 2.813080e-01 4.895177e-01 7.728672e-02 2.077465e-01 3.067636e-01 4.570625e-01 6.235774e-01 2.766501e-01 5.066478e-01 2.882777e-01 4.628978e-01 3.520252e-01 5.842875e-02
<GCONST> 9.559916e+01
<STATE> 4
<MEAN> 39
 1.008849e+01 -2.218229e+00 3.702685e+00 -9.147335e+00 -1.782121e+01 -3.963513e+00 -1.665210e+01 4.461955e-01 1.118005e+01 1.497987e+00 3.048220e+00 -5.486339e+00 4.796088e+01 4.805603e+00 -1.481356e+00 -4.137345e-01 -2.676524e+00 -2.263926e+00 2.598938e-01 -2.219234e+00 1.492720e+00 2.609423e+00 3.482823e-01 3.274108e-01 -1.254157e+00 4.407754e+00 -1.108795e+00 -9.590787e-01 -2.891943e-01 6.101269e-01 1.306922e+00 1.132775e+00 6.141491e-01 2.262492e-01 -6.931695e-01 -5.377502e-01 2.761428e-03 1.312353e-01 -5.182862e-01
<VARIANCE> 39
 9.753495e+00 2.635635e+01 9.659181e+00 7.044477e+00 1.822298e+01 1.031969e+01 2.014470e+01 4.045382e+00 2.211494e+01 2.909522e+00 8.178085e+00 7.117124e+00 1.505502e+01 1.964860e+00 2.627943e+00 1.030264e+00 1.132947e+00 2.551627e+00 2.267466e+00 3.430916e+00 1.171489e+00 2.848498e+00 1.567703e+00 1.509733e+00 5.414442e-01 5.014729e-01 3.054003e-01 4.716094e-01 1.053013e-01 3.044563e-01 1.068660e-01 1.999047e-01 3.729654e-01 2.611631e-01 5.783416e-01 6.419501e-02 1.904770e-01 2.001619e-01 3.395320e-01
<GCONST> 8.837789e+01
<TRANSP> 5
 0.000000e+00 1.000000e+00 0.000000e+00 0.000000e+00 0.000000e+00
 0.000000e+00 8.461461e-01 1.538539e-01 0.000000e+00 0.000000e+00
 0.000000e+00 0.000000e+00 6.250452e-01 3.749548e-01 0.000000e+00
 0.000000e+00 0.000000e+00 0.000000e+00 5.000005e-01 4.999994e-01
 0.000000e+00 0.000000e+00 0.000000e+00 0.000000e+00 0.000000e+00
<ENDHMM>
~h "sil"
<BEGINHMM>
<NUMSTATES> 5
<STATE> 2
<MEAN> 39
 -1.353581e+01 -9.790933e+00 -1.324416e+00 -3.060296e-02 -1.572989e+00 5.362672e+00 -2.894122e+00 1.859219e+00 -1.312805e+00 -1.984969e+00 3.917304e+00 -1.604780e+00 3.179656e+01 -6.555843e-02 -2.382981e-02 -1.871028e-02 1.704556e-02 3.688856e-02 1.357894e-02 1.896974e-02 -7.897864e-03 7.317565e-03 4.313375e-02 2.351488e-02 9.300202e-03 -4.183082e-02 1.992856e-02 1.725840e-02 1.069613e-02 -6.723295e-03 -1.540708e-02 -1.064693e-02 -1.327217e-02 -9.197060e-03 -1.977889e-03 -1.208369e-02 -5.742372e-03 -5.726676e-04 1.058337e-02
<VARIANCE> 39
 1.571258e+01 2.299380e+01 2.110595e+01 1.202997e+01 1.644433e+01 1.746651e+01 1.585012e+01 1.763336e+01 1.587473e+01 1.590668e+01 1.968402e+01 1.132992e+01 9.847989e+00 5.785756e-01 9.695065e-01 7.937915e-01 1.062953e+00 1.131149e+00 1.244114e+00 1.248902e+00 1.717611e+00 1.677963e+00 1.558685e+00 1.880745e+00 1.286411e+00 3.417473e-01 1.197718e-01 2.055868e-01 1.675302e-01 2.231120e-01 2.344063e-01 2.574303e-01 2.597089e-01 3.629421e-01 3.450746e-01 3.228629e-01 4.039868e-01 2.696150e-01 7.122380e-02
<GCONST> 8.953741e+01
<STATE> 3
<MEAN> 39
 -1.070104e+01 -6.708359e+00 1.154591e+00 1.962962e-01 -2.275229e+00 4.371068e+00 -4.489509e+00 1.305084e+00 -1.786068e-01 -2.129537e+00 3.048541e+00 -2.473208e+00 3.311241e+01 1.419143e+00 5.279252e-01 3.178156e-01 -5.473235e-01 -8.464366e-01 -2.425495e-01 -7.877039e-01 -3.677567e-01 2.193051e-02 -4.246302e-01 -9.763272e-02 -1.214680e-01 9.659173e-01 4.877433e-01 7.636740e-02 3.703065e-02 -2.796094e-01 -3.349867e-01 -4.334120e-02 -2.193441e-01 -1.039898e-01 -3.968870e-02 -2.603812e-01 -8.976769e-02 -5.880757e-02 3.750791e-01
<VARIANCE> 39
 3.581911e+01 2.473633e+01 2.757841e+01 2.629740e+01 2.677559e+01 2.200573e+01 2.680784e+01 2.092278e+01 1.872802e+01 1.889249e+01 1.616343e+01 1.071510e+01 2.086746e+01 5.948421e+00 4.940207e+00 6.417055e+00 4.899078e+00 4.596070e+00 3.144408e+00 3.045561e+00 2.634873e+00 2.015156e+00 2.315440e+00 2.075359e+00 1.395755e+00 3.322037e+00 7.777494e-01 6.755081e-01 7.407384e-01 6.773680e-01 6.366765e-01 5.529753e-01 5.312462e-01 4.408709e-01 3.953325e-01 3.922614e-01 3.313973e-01 2.512881e-01 4.865641e-01
<GCONST> 1.183079e+02
<STATE> 4
<MEAN> 39
 -1.037249e+01 -8.576258e+00 1.991538e+00 4.304130e-01 -3.681401e+00 4.964048e+00 -4.880952e+00 1.156498e+00 -9.233639e-01 -4.071781e+00 2.929342e+00 -2.067295e+00 3.422624e+01 8.046145e-02 1.878180e-02 4.184177e-02 1.004275e-03 -3.157375e-02 -3.149064e-02 -7.520156e-02 -6.345446e-02 -4.564852e-02 -7.934713e-02 -2.816166e-02 -1.508546e-02 6.213635e-02 2.495657e-02 1.834880e-02 2.319464e-02 7.657292e-03 1.594719e-03 2.716027e-03 -1.424143e-02 -4.328471e-03 -2.210792e-04 -9.664884e-03 -9.340409e-03 -1.808182e-03 1.659943e-02
<VARIANCE> 39
 1.385523e+01 2.237522e+01 1.549736e+01 1.463942e+01 1.604619e+01 1.653880e+01 1.696560e+01 1.553028e+01 1.408030e+01 1.637502e+01 1.246508e+01 1.169541e+01 4.257305e+00 8.587798e-01 1.126001e+00 1.138572e+00 1.062389e+00 1.242353e+00 1.168775e+00 1.577175e+00 1.468816e+00 1.308528e+00 1.647634e+00 1.454630e+00 1.130145e+00 4.366245e-01 1.006048e-01 1.724872e-01 1.978926e-01 1.896697e-01 2.408974e-01 2.210601e-01 3.005646e-01 2.854004e-01 2.550140e-01 3.346888e-01 2.974767e-01 2.294092e-01 3.521842e-02
<GCONST> 8.645413e+01
<TRANSP> 5
 0.000000e+00 1.000000e+00 0.000000e+00 0.000000e+00 0.000000e+00
 0.000000e+00 9.625064e-01 3.749357e-02 0.000000e+00 0.000000e+00
 0.000000e+00 0.000000e+00 6.657171e-01 3.342830e-01 0.000000e+00
 0.000000e+00 0.000000e+00 0.000000e+00 9.566116e-01 4.338846e-02
 0.000000e+00 0.000000e+00 0.000000e+00 0.000000e+00 0.000000e+00
<ENDHMM>
~h "t"
<BEGINHMM>
<NUMSTATES> 5
<STATE> 2
<MEAN> 39
 -5.681296e+00 -7.337478e+00 1.419556e+00 -2.191746e+00 -6.366799e+00 4.246985e+00 -6.420567e+00 2.271763e+00 1.894609e+00 -4.436094e+00 1.598381e+00 -3.675637e+00 3.721831e+01 -1.326330e+00 -1.300230e-01 -1.175458e-01 4.233403e-01 5.364785e-01 6.875202e-02 5.434531e-01 -1.816400e-01 -4.831188e-01 2.478375e-01 2.312415e-01 4.248963e-01 -9.997329e-01 2.869182e-01 -1.235064e-01 -6.222400e-02 -1.831501e-01 -1.230580e-01 2.835627e-02 -1.182115e-01 5.355911e-02 1.160127e-01 -2.774284e-02 -1.363733e-02 -4.123352e-02 2.718981e-01
<VARIANCE> 39
 3.861650e+01 1.926471e+01 8.923498e+00 1.226179e+01 1.797103e+01 1.077058e+01 1.628585e+01 1.817505e+01 1.609967e+01 1.589073e+01 1.474296e+01 1.345275e+01 1.604408e+01 1.579151e+00 1.599473e+00 9.489487e-01 1.608154e+00 1.694045e+00 1.104687e+00 1.693816e+00 1.901109e+00 1.586071e+00 1.652757e+00 1.427566e+00 1.272598e+00 1.243758e+00 1.575471e-01 3.772428e-01 2.703327e-01 2.914254e-01 2.921387e-01 2.601971e-01 3.017818e-01 4.101354e-01 2.939544e-01 3.663490e-01 2.645668e-01 2.881919e-01 8.251947e-02
<GCONST> 9.514719e+01
<STATE> 3
<MEAN> 39
 -8.263422e+00 -7.258513e+00 1.156490e+00 -1.269366e+00 -3.991038e+00 5.499660e+00 -4.629256e+00 2.512485e+00 7.619625e-01 -3.026936e+00 3.657328e+00 -1.054245e+00 3.524938e+01 2.071195e+00 1.723184e+00 1.012495e+00 -4.775042e-01 -1.235455e+00 -1.250829e+00 -1.295635e+00 -9.520597e-01 -3.362122e-01 8.708529e-02 1.219724e-01 -3.078598e-01 1.102816e+00 8.677292e-01 4.359699e-01 5.309734e-01 -2.882931e-01 -9.735840e-01 -6.054702e-01 -7.466927e-01 -4.938233e-01 1.033364e-04 -8.594353e-02 -6.304016e-02 -2.446564e-01 5.820639e-01
<VARIANCE> 39
 1.271572e+01 1.487040e+01 1.177067e+01 1.443309e+01 1.741480e+01 1.164552e+01 1.236030e+01 1.843342e+01 1.213689e+01 1.265903e+01 1.286927e+01 1.176379e+01 4.191957e+00 2.454883e+00 2.744376e+00 3.473634e+00 2.246438e+00 3.690534e+00 2.996532e+00 2.787767e+00 2.856789e+00 1.860298e+00 1.843180e+00 1.292487e+00 1.155719e+00 1.052607e+00 2.314630e-01 3.662218e-01 4.513503e-01 3.679333e-01 6.135810e-01 4.242853e-01 3.602905e-01 4.043058e-01 3.669086e-01 2.249923e-01 2.797929e-01 2.633876e-01 1.613018e-01
<GCONST> 9.994617e+01
<STATE> 4
<MEAN> 39
 3.269349e+00 -1.123479e-01 6.806863e+00 -4.862695e+00 -1.382557e+01 -1.943585e+00 -1.260505e+01 -2.176948e+00 4.788190e-01 -3.665169e+00 3.115996e+00 -3.840982e+00 4.224799e+01 3.111194e+00 5.723622e-01 1.998325e+00 -1.451202e+00 -3.722822e+00 -1.196252e+00 -2.538006e+00 -1.354571e+00 4.555612e-01 -2.031426e-01 3.428208e-01 -5.650592e-01 2.569113e+00 -6.056781e-01 -8.061670e-01 -2.883843e-01 6.213563e-03 3.888663e-01 8.592100e-01 4.049139e-01 1.211356e-01 1.031292e-01 -9.187570e-02 4.582477e-02 1.507771e-01 -1.639898e-01
<VARIANCE> 39
 3.459162e+01 2.719636e+01 5.654663e+01 4.397218e+01 5.973612e+01 2.959992e+01 2.761764e+01 2.490596e+01 2.716989e+01 2.282577e+01 1.152442e+01 9.055007e+00 2.122437e+01 3.268939e+00 5.131877e+00 5.541880e+00 2.837030e+00 7.615652e+00 5.691478e+00 3.176999e+00 2.527356e+00 2.547551e+00 9.025853e-01 1.357655e+00 1.251717e+00 2.098932e+00 3.924289e-01 3.434042e-01 4.454105e-01 4.396093e-01 1.052243e+00 6.721377e-01 5.498898e-01 4.022482e-01 3.960564e-01 2.895028e-01 2.450596e-01 1.870286e-01 2.176956e-01
<GCONST> 1.157552e+02
<TRANSP> 5
 0.000000e+00 1.000000e+00 0.000000e+00 0.000000e+00 0.000000e+00
 0.000000e+00 8.739778e-01 1.260221e-01 0.000000e+00 0.000000e+00
 0.000000e+00 0.000000e+00 6.015468e-01 3.984531e-01 0.000000e+00
 0.000000e+00 0.000000e+00 0.000000e+00 5.202898e-01 4.797103e-01
 0.000000e+00 0.000000e+00 0.000000e+00 0.000000e+00 0.000000e+00
<ENDHMM>
~h "u"
<BEGINHMM>
<NUMSTATES> 5
<STATE> 2
<MEAN> 39
 8.507586e+00 1.260003e-01 6.244195e+00 -9.005553e+00 -1.714846e+01 -5.020649e+00 -2.048945e+01 -5.702083e+00 3.319783e+00 -3.488987e-01 7.854048e+00 -2.783474e+00 4.627440e+01 1.436390e+00 -1.072890e+00 -9.687717e-01 -1.707301e+00 -5.934523e-01 1.185377e+00 -6.481036e-01 -7.031852e-01 -8.187816e-02 1.210327e-01 1.223508e+00 3.086568e-01 1.485422e+00 -6.545592e-01 -2.931572e-01 -1.905990e-01 5.626245e-01 8.957382e-01 8.857740e-01 8.287767e-01 1.534096e-01 -3.425615e-01 -1.338665e-01 -1.473466e-01 1.961455e-03 -4.308801e-01
<VARIANCE> 39
 9.965898e+00 9.260451e+00 2.027507e+01 1.956308e+01 3.151177e+01 2.758949e+01 2.408591e+01 2.243031e+01 1.919707e+01 1.614759e+01 5.485607e+00 1.155598e+01 9.632787e+00 1.302061e+00 1.097312e+00 1.664535e+00 1.704668e+00 4.723049e+00 3.874887e+00 1.814922e+00 1.583843e+00 1.970507e+00 1.406177e+00 9.093091e-01 6.834416e-01 9.193367e-01 1.881349e-01 3.573000e-01 4.554964e-01 3.467748e-01 1.129768e+00 4.729638e-01 2.100318e-01 2.480265e-01 2.922668e-01 3.968908e-01 1.384158e-01 2.541963e-01 8.688482e-02
<GCONST> 9.714684e+01
<STATE> 3
<MEAN> 39
 1.126124e+01 -4.606419e+00 1.550470e+00 -1.274354e+01 -1.499387e+01 3.892541e+00 -1.836430e+01 -7.529441e+00 1.218351e+00 -3.020795e-02 1.103590e+01 -2.782539e+00 4.976748e+01 -5.690445e-02 -5.054324e-01 -2.008950e-01 -3.168344e-01 3.261959e-01 1.325718e+00 6.933376e-01 -1.035891e-01 -3.671086e-01 -1.193068e-01 3.183770e-01 1.274773e-01 1.838736e-01 -3.929837e-01 3.109492e-01 3.673478e-01 4.779012e-01 9.361400e-02 -3.128559e-01 2.856617e-01 3.201996e-01 1.895694e-01 -8.014995e-02 -4.200012e-01 -5.178110e-02 -3.908257e-01
<VARIANCE> 39
 5.780436e+00 1.354829e+01 1.096122e+01 1.728256e+01 1.419839e+01 3.164690e+01 2.587956e+01 2.299020e+01 1.734310e+01 1.326623e+01 6.296846e+00 1.292579e+01 7.890886e+00 4.595135e-01 1.032472e+00 1.429904e+00 1.059541e+00 1.537993e+00 1.271544e+00 1.787724e+00 1.165205e+00 2.262315e+00 1.828219e+00 1.041742e+00 1.599709e+00 5.488576e-01 9.835413e-02 1.485361e-01 2.359658e-01 1.933843e-01 2.997095e-01 2.671849e-01 3.538628e-01 2.014229e-01 3.372229e-01 2.947186e-01 2.439940e-01 2.290021e-01 1.102982e-01
<GCONST> 8.820946e+01
<STATE> 4
<MEAN> 39
 7.625112e+00 -1.246133e+00 4.672059e+00 -7.989482e+00 -1.285327e+01 3.187344e+00 -1.429188e+01 -5.953536e+00 7.931582e-01 -1.966841e+00 7.672306e+00 -1.408258e+00 4.584375e+01 -1.355688e+00 9.949746e-01 9.554739e-01 1.589888e+00 8.500883e-01 -2.398833e-01 1.954019e+00 1.342087e+00 -3.046244e-02 -6.883484e-01 -1.389615e+00 -2.002888e-01 -1.374175e+00 -6.504572e-02 5.879742e-02 1.711986e-01 1.652420e-01 5.572990e-02 -1.716224e-01 -1.183089e-01 1.160513e-01 -1.074197e-01 -8.160717e-02 -4.432959e-02 -1.314897e-01 -5.595586e-02
<VARIANCE> 39
 1.310839e+01 1.868552e+01 1.248541e+01 2.332318e+01 2.277127e+01 2.855166e+01 2.963095e+01 2.112605e+01 2.803656e+01 2.531968e+01 1.835703e+01 1.425798e+01 1.546966e+01 7.890875e-01 1.158019e+00 1.724982e+00 1.387824e+00 2.118054e+00 2.007580e+00 2.355702e+00 1.460992e+00 1.821648e+00 1.595595e+00 2.309691e+00 1.503956e+00 6.458178e-01 8.946302e-02 1.493237e-01 1.897225e-01 2.293643e-01 2.301807e-01 2.132027e-01 5.572066e-01 3.608264e-01 3.859954e-01 3.203165e-01 3.680722e-01 3.581988e-01 1.059409e-01
<GCONST> 9.755102e+01
<TRANSP> 5
 0.000000e+00 1.000000e+00 0.000000e+00 0.000000e+00 0.000000e+00
 0.000000e+00 5.171220e-01 4.828781e-01 0.000000e+00 0.000000e+00
 0.000000e+00 0.000000e+00 7.420326e-01 2.579674e-01 0.000000e+00
 0.000000e+00 0.000000e+00 0.000000e+00 6.528034e-01 3.471966e-01
 0.000000e+00 0.000000e+00 0.000000e+00 0.000000e+00 0.000000e+00
<ENDHMM>
~h "uw"
<BEGINHMM>
<NUMSTATES> 5
<STATE> 2
<MEAN> 39
 8.972313e+00 1.693525e+00 8.352228e+00 -8.572248e+00 -1.836217e+01 -2.442966e+00 -1.658228e+01 -4.232358e+00 -1.084083e+00 -6.112334e+00 7.013475e+00 1.235597e-01 4.646905e+01 6.641000e-01 -8.206494e-01 -9.482535e-01 -1.545357e+00 -8.041797e-01 8.291368e-01 -2.742592e-01 6.941980e-02 -3.627062e-01 -3.522641e-01 2.504221e-01 4.834817e-01 7.816311e-01 -3.524505e-01 6.697282e-02 1.968056e-02 3.458776e-01 5.676492e-01 3.799983e-01 4.546958e-01 1.004511e-01 -1.143617e-01 -1.032005e-01 -2.845001e-01 -3.945379e-02 -2.944455e-01
<VARIANCE> 39
 6.220706e+00 9.349537e+00 2.397908e+01 1.098109e+01 1.279926e+01 3.412881e+01 8.437165e+00 1.170846e+01 1.653774e+01 1.638165e+01 1.035946e+01 5.026295e+00 6.987819e+00 4.628392e-01 4.223064e-01 1.623150e+00 1.832778e+00 1.593885e+00 7.140769e-01 5.656149e-01 1.313926e+00 7.986915e-01 1.178568e+00 1.619760e+00 8.387311e-01 3.618015e-01 4.352431e-02 1.249803e-01 3.585736e-01 2.113416e-01 4.221649e-01 5.234171e-01 9.035221e-02 1.866104e-01 2.736822e-01 2.070239e-01 1.489011e-01 1.095684e-01 2.946264e-02
<GCONST> 7.810702e+01
<STATE> 3
<MEAN> 39
 8.929416e+00 1.053894e-01 4.362704e+00 -1.276767e+01 -1.918498e+01 6.876797e-01 -1.213626e+01 -2.505487e+00 -1.220010e+00 -6.269984e+00 7.360980e+00 2.333879e+00 4.652108e+01 2.018644e-01 -5.995875e-01 -9.208679e-01 -9.132180e-01 -1.177123e-01 8.164523e-01 7.149146e-01 2.912569e-01 3.098725e-01 3.609190e-01 6.383969e-01 -2.947958e-02 2.984899e-01 3.032897e-02 -1.622492e-01 -2.187313e-01 -3.371863e-02 2.048119e-01 1.592454e-01 -1.012289e-01 -8.058999e-02 1.057785e-01 3.131082e-01 1.828866e-01 -2.897067e-01 4.819681e-02
<VARIANCE> 39
 7.755133e+00 7.865304e+00 2.393170e+01 1.446762e+01 5.772624e+00 2.023137e+01 1.787300e+01 1.219206e+01 1.663704e+01 8.862787e+00 8.927107e+00 4.571539e+00 1.064607e+01 8.549735e-02 3.792590e-01 7.369068e-01 3.648735e-01 3.569821e-01 1.347564e+00 7.610061e-01 6.165838e-01 1.129753e+00 1.000334e+00 7.402052e-01 8.310641e-01 8.894869e-02 1.668431e-02 6.027132e-02 1.125917e-01 6.908676e-02 9.868005e-02 1.890211e-01 1.540017e-01 1.518775e-01 2.249283e-01 9.303711e-02 9.538527e-02 1.361467e-01 1.431666e-02
<GCONST> 6.188052e+01
<STATE> 4
<MEAN> 39
 1.128914e+01 -7.257876e+00 -3.729620e+00 -1.791679e+01 -1.649713e+01 7.883331e+00 -1.235015e+01 -2.536645e+00 2.409621e+00 -2.492562e-01 1.256500e+01 -2.911586e+00 5.025348e+01 2.134630e-01 -1.852840e+00 -1.767522e+00 -7.643834e-01 1.015156e+00 1.794189e+00 -7.512113e-03 1.223010e-01 1.113459e+00 1.349594e+00 -8.256846e-02 -1.997658e+00 6.473612e-01 -1.260479e-01 5.116501e-02 2.427542e-01 1.291673e-01 -9.083369e-02 -1.549559e-01 1.133990e-01 1.873501e-01 1.210466e-01 -2.676236e-01 -5.151284e-01 -1.376756e-01 -8.065749e-02
<VARIANCE> 39
 7.509125e+00 1.382684e+01 2.550278e+01 7.749703e+00 7.452660e+00 1.185225e+01 7.724589e+00 6.794622e+00 9.102340e+00 1.377105e+01 7.435382e+00 1.487077e+01 1.033035e+01 1.341990e-01 2.174717e-01 8.253890e-01 4.948320e-01 1.053141e+00 9.396744e-01 8.371973e-01 4.981603e-01 8.073887e-01 9.213105e-01 1.435838e+00 5.645493e-01 8.198529e-02 1.368085e-02 1.067151e-01 9.748298e-02 8.705701e-02 1.564404e-01 2.444946e-01 1.457916e-01 1.072239e-01 1.641324e-01 2.346233e-01 1.772869e-01 1.979056e-01 3.619563e-02
<GCONST> 6.495190e+01
<TRANSP> 5
 0.000000e+00 1.000000e+00 0.000000e+00 0.000000e+00 0.000000e+00
 0.000000e+00 6.185959e-01 3.814041e-01 0.000000e+00 0.000000e+00
 0.000000e+00 0.000000e+00 8.393589e-01 1.606411e-01 0.000000e+00
 0.000000e+00 0.000000e+00 0.000000e+00 7.414253e-01 2.585747e-01
 0.000000e+00 0.000000e+00 0.000000e+00 0.000000e+00 0.000000e+00
<ENDHMM>
