~o
<STREAMINFO> 1 39
<VECSIZE> 39<NULLD><MFCC_D_A_0><DIAGC>
~h "lsil"
<BEGINHMM>
<NUMSTATES> 5
<STATE> 2
<MEAN> 39
 -1.077486e+01 -9.333584e+00 1.413910e+00 2.039191e-01 -3.668496e+00 4.096761e+00 -5.181645e+00 1.190386e+00 -2.139106e+00 -4.817292e+00 2.633730e+00 -2.687836e+00 3.412177e+01 -8.938168e-02 -5.059826e-02 -2.761694e-02 5.568086e-02 7.962190e-02 8.545666e-03 4.914599e-02 3.486577e-02 -7.498683e-03 3.640676e-02 3.751982e-02 1.694723e-02 -5.491551e-02 2.686344e-02 2.848274e-02 2.316540e-02 -5.520971e-03 -1.197401e-02 -3.435029e-04 -4.576977e-03 7.725567e-03 1.694760e-02 4.570256e-03 -1.182030e-02 7.273695e-04 1.321728e-02
<VARIANCE> 39
 9.195782e+00 1.171811e+01 1.022799e+01 1.436065e+01 1.322018e+01 1.263477e+01 1.162223e+01 1.318998e+01 1.687776e+01 1.513704e+01 1.308734e+01 8.482249e+00 2.094326e+00 4.573223e-01 7.081029e-01 1.071142e+00 8.286630e-01 8.760937e-01 1.098182e+00 1.384839e+00 1.481574e+00 1.789921e+00 1.423401e+00 1.373074e+00 9.834681e-01 1.394779e-01 8.098135e-02 1.293543e-01 1.965864e-01 1.576734e-01 1.731255e-01 2.048704e-01 2.720956e-01 3.316213e-01 3.863736e-01 2.980151e-01 3.017208e-01 1.975002e-01 2.614385e-02
<GCONST> 7.878529e+01
<STATE> 3
<MEAN> 39
 -7.265352e+00 -2.841565e+00 4.372551e+00 1.174660e+00 -1.724968e+00 6.108944e+00 -3.838180e+00 3.256001e+00 2.019260e+00 -1.811188e+00 3.666937e+00 -1.827846e+00 3.474449e+01 -5.944651e-02 4.466123e-03 2.114129e-02 1.551094e-02 -1.015393e-02 -4.520087e-02 -1.192702e-02 -2.209140e-03 -2.187082e-02 1.311604e-02 2.195717e-02 3.213786e-03 -4.305939e-02 -7.081867e-03 -1.053363e-02 -5.716191e-03 -9.741254e-04 -4.040825e-03 -1.301293e-03 -4.273668e-03 -1.052480e-02 -1.633434e-02 -1.032634e-02 1.691406e-03 -1.339944e-02 -2.107123e-03
<VARIANCE> 39
 2.764079e+00 8.619527e+00 1.182977e+01 1.083739e+01 1.356646e+01 1.629043e+01 1.208078e+01 1.208767e+01 1.294846e+01 1.309442e+01 1.138069e+01 9.941319e+00 1.901304e+00 2.036545e-01 3.792784e-01 5.038556e-01 7.055762e-01 1.000379e+00 1.109916e+00 1.323089e+00 1.282792e+00 1.294521e+00 1.287766e+00 1.413512e+00 1.153086e+00 1.091179e-01 4.075452e-02 7.290871e-02 1.003588e-01 1.408469e-01 1.933894e-01 2.274061e-01 2.674966e-01 2.530584e-01 2.507301e-01 2.507214e-01 2.941409e-01 2.455133e-01 2.187511e-02
<GCONST> 7.129880e+01
<STATE> 4
<MEAN> 39
 -1.196669e+01 -5.788521e+00 3.172338e+00 2.219315e+00 -1.415031e+00 4.638715e+00 -4.836958e+00 2.739287e-01 -1.383011e+00 -2.911082e+00 2.353121e+00 -2.116008e+00 3.213239e+01 -5.773995e-02 -6.945361e-02 -1.301760e-02 4.244506e-02 4.491509e-02 4.541802e-02 2.850328e-02 -7.431094e-02 -7.790294e-02 -1.564810e-02 -2.535396e-02 4.261403e-03 -2.213711e-02 1.375657e-02 5.142362e-03 -2.690312e-03 2.569098e-03 -3.973482e-03 -6.171634e-03 6.395268e-03 -1.358763e-02 -1.064447e-02 1.148040e-02 1.732331e-02 1.255320e-02 6.210639e-03
<VARIANCE> 39
 1.313731e+01 1.715282e+01 2.146932e+01 1.113386e+01 1.595790e+01 1.350419e+01 1.420089e+01 1.595239e+01 1.483030e+01 2.066559e+01 1.337523e+01 1.165401e+01 6.348238e+00 1.098183e+00 1.146973e+00 1.418562e+00 1.026958e+00 1.280337e+00 1.435858e+00 1.454465e+00 1.695701e+00 1.674647e+00 1.533273e+00 1.490500e+00 1.467017e+00 5.350448e-01 2.311148e-01 2.257349e-01 3.158593e-01 2.076863e-01 2.559817e-01 2.838629e-01 3.090343e-01 3.531165e-01 3.421113e-01 3.027467e-01 3.085657e-01 3.038487e-01 1.113661e-01
<GCONST> 9.186423e+01
<TRANSP> 5
 0.000000e+00 1.000000e+00 0.000000e+00 0.000000e+00 0.000000e+00
 0.000000e+00 9.550544e-01 4.494565e-02 0.000000e+00 0.000000e+00
 0.000000e+00 0.000000e+00 9.803028e-01 1.969723e-02 0.000000e+00
 0.000000e+00 0.000000e+00 0.000000e+00 9.746476e-01 2.535244e-02
 0.000000e+00 0.000000e+00 0.000000e+00 0.000000e+00 0.000000e+00
<ENDHMM>
