~o
<STREAMINFO> 1 39
<VECSIZE> 39<NULLD><MFCC_D_A_0><DIAGC>
~h "lsil"
<BEGINHMM>
<NUMSTATES> 5
<STATE> 2
<MEAN> 39
 -7.509039e+00 -3.520331e+00 3.693185e+00 3.619608e-01 -2.236487e+00 6.211235e+00 -3.872164e+00 2.863768e+00 1.406383e+00 -2.423598e+00 3.543020e+00 -1.866765e+00 3.473737e+01 -7.891662e-02 -1.865463e-02 7.511536e-03 3.291021e-02 7.202273e-03 -3.310051e-02 4.335560e-03 1.495646e-02 -9.048543e-04 2.704894e-02 6.490676e-03 1.532747e-03 -5.199910e-02 3.681563e-03 -6.416604e-04 3.780079e-03 2.195084e-03 -2.920613e-03 -3.754881e-03 -9.213666e-03 -5.920967e-03 -6.064861e-03 -4.218103e-03 -3.308126e-03 -1.035101e-02 2.776423e-03
<VARIANCE> 39
 3.772831e+00 1.236582e+01 1.406861e+01 1.300738e+01 1.411957e+01 1.644061e+01 1.198348e+01 1.273732e+01 1.390819e+01 1.403256e+01 1.164734e+01 9.763477e+00 1.942205e+00 2.825203e-01 4.751066e-01 6.210511e-01 7.606187e-01 9.957300e-01 1.156640e+00 1.292599e+00 1.289065e+00 1.260919e+00 1.229001e+00 1.347481e+00 1.096656e+00 1.175475e-01 5.145583e-02 8.475815e-02 1.163746e-01 1.476814e-01 1.924062e-01 2.322270e-01 2.604089e-01 2.609089e-01 2.539887e-01 2.417568e-01 2.846246e-01 2.271232e-01 2.308767e-02
<GCONST> 7.386398e+01
<STATE> 3
<MEAN> 39
 -1.125942e+01 -5.214529e+00 1.294167e+00 1.811299e+00 -9.379516e-01 3.712125e+00 -4.454220e+00 7.908162e-01 -2.942248e-01 -1.162651e+00 2.605731e+00 -2.076251e+00 3.204411e+01 -8.425769e-02 -4.388061e-02 -1.864648e-02 2.423678e-02 5.486225e-02 2.236411e-02 2.978790e-02 -5.745611e-03 -6.341660e-02 -1.758684e-02 -2.390677e-02 -1.673109e-02 -5.047105e-02 1.028313e-02 6.756734e-03 5.330161e-03 -1.018019e-03 -2.544013e-03 -1.197746e-03 5.386972e-03 -5.533766e-03 -7.232502e-03 4.617747e-03 1.775775e-02 1.798874e-02 6.769706e-03
<VARIANCE> 39
 1.329353e+01 1.640009e+01 1.465020e+01 1.140715e+01 1.283920e+01 1.282891e+01 1.260920e+01 1.450278e+01 1.440256e+01 1.504414e+01 1.201024e+01 1.193764e+01 7.534414e+00 1.234242e+00 1.500596e+00 1.508505e+00 1.165935e+00 1.252137e+00 1.586095e+00 1.329216e+00 1.690585e+00 1.829951e+00 1.521358e+00 1.414053e+00 1.586384e+00 6.249253e-01 2.587814e-01 3.203695e-01 3.359630e-01 2.385701e-01 2.506634e-01 3.294291e-01 2.610494e-01 3.484018e-01 3.848977e-01 3.062270e-01 2.965605e-01 3.423344e-01 1.278952e-01
<GCONST> 9.250761e+01
<STATE> 4
<MEAN> 39
 -1.301569e+01 -1.075340e+01 2.949116e+00 1.820721e+00 -3.881149e+00 4.127322e+00 -6.034638e+00 4.167128e-02 -1.920917e+00 -4.521358e+00 2.768535e+00 -2.578414e+00 3.316882e+01 -4.159624e-02 -7.684866e-02 2.094690e-04 4.718880e-02 1.649331e-02 2.953546e-03 8.546205e-03 -5.839773e-02 -3.713123e-02 -1.362150e-02 1.803514e-02 1.667136e-02 -5.104234e-03 6.624307e-03 2.769774e-03 -6.399593e-03 -4.256132e-03 7.975561e-04 9.862690e-04 5.572136e-03 -3.436875e-03 2.753499e-03 1.009961e-02 1.141723e-02 -2.215168e-03 2.978244e-03
<VARIANCE> 39
 4.175790e+00 1.005123e+01 1.526593e+01 1.102662e+01 1.590400e+01 1.200973e+01 1.324221e+01 1.440305e+01 1.716036e+01 1.733567e+01 1.345444e+01 1.000341e+01 1.099594e+00 3.657798e-01 7.412931e-01 9.794937e-01 7.131064e-01 1.106196e+00 1.078689e+00 1.513428e+00 1.552178e+00 1.604763e+00 1.557601e+00 1.559628e+00 1.162953e+00 8.877349e-02 7.354362e-02 1.396140e-01 1.945934e-01 1.382557e-01 2.172033e-01 2.141812e-01 3.218556e-01 3.204640e-01 3.236311e-01 3.174378e-01 3.270698e-01 2.428412e-01 1.752655e-02
<GCONST> 7.780615e+01
<TRANSP> 5
 0.000000e+00 1.000000e+00 0.000000e+00 0.000000e+00 0.000000e+00
 0.000000e+00 9.784141e-01 2.158591e-02 0.000000e+00 0.000000e+00
 0.000000e+00 0.000000e+00 9.615067e-01 3.849337e-02 0.000000e+00
 0.000000e+00 0.000000e+00 0.000000e+00 9.739968e-01 2.600325e-02
 0.000000e+00 0.000000e+00 0.000000e+00 0.000000e+00 0.000000e+00
<ENDHMM>
