~o
<STREAMINFO> 1 39
<VECSIZE> 39<NULLD><MFCC_D_A_0><DIAGC>
~h "NNN"
<BEGINHMM>
<NUMSTATES> 5
<STATE> 2
<MEAN> 39
 6.232840e+00 -1.639213e+01 3.856109e+00 -4.943598e+00 -1.477296e+01 1.695972e+00 -1.624011e+01 -9.994579e-01 6.158148e-01 -6.457757e+00 9.670680e+00 -2.178013e+00 5.127828e+01 1.097842e+00 -2.084795e+00 1.056260e+00 -4.377527e-01 -9.121032e-01 1.297136e+00 -1.160016e+00 3.527712e-01 5.389356e-01 -1.586635e+00 4.576996e-01 2.626880e-01 2.076323e+00 -7.369453e-01 6.213517e-01 7.909159e-02 3.067764e-01 3.687162e-01 -3.904030e-02 4.858296e-01 -7.225453e-02 -4.502900e-02 3.509443e-01 -5.383061e-01 -9.476622e-02 -8.721579e-01
<VARIANCE> 39
 8.367192e+01 6.402387e+01 6.597459e+01 1.867988e+01 6.667582e+01 4.479205e+01 6.247835e+01 5.913067e+01 2.101882e+01 6.108665e+01 3.269352e+01 2.528331e+01 7.316818e+01 6.568849e+00 4.490147e+00 4.644939e+00 1.696609e+00 6.861448e+00 1.796414e+00 4.082735e+00 3.775215e+00 3.149321e+00 4.758454e+00 3.414345e+00 2.048928e+00 6.822451e+00 6.368366e-01 7.442866e-01 9.791785e-01 4.095210e-01 1.340034e+00 7.625235e-01 6.313015e-01 6.060873e-01 2.949558e-01 8.761241e-01 4.744832e-01 3.427500e-01 7.629533e-01
<GCONST> 1.329930e+02
<STATE> 3
<MEAN> 39
 7.714494e+00 -1.478615e+01 7.292893e+00 -3.475636e+00 -1.902621e+01 -3.587583e+00 -1.555570e+01 8.514785e-01 -1.300656e+00 -1.123660e+01 4.813757e+00 -5.693888e+00 5.251073e+01 -3.925167e-02 7.612979e-01 -1.800493e-01 8.481735e-02 1.448369e-01 -2.917539e-01 3.227429e-01 -2.946424e-02 9.989896e-02 3.230641e-01 -2.551396e-01 -9.330465e-02 -4.729461e-01 3.500293e-02 6.072160e-02 1.817564e-02 4.418457e-02 6.931425e-02 8.234790e-03 -2.480869e-02 1.960601e-03 -2.770683e-02 -3.123784e-02 1.233933e-02 -3.549813e-02 7.306122e-03
<VARIANCE> 39
 4.186440e+01 6.918880e+01 2.343168e+01 2.711508e+01 4.058104e+01 5.181986e+01 2.039439e+01 4.032943e+01 3.269614e+01 5.004035e+01 4.981794e+01 2.164477e+01 4.918499e+01 2.280773e+00 2.058843e+00 1.937280e+00 1.940755e+00 2.121470e+00 2.218311e+00 2.020173e+00 1.964180e+00 2.419209e+00 2.280146e+00 2.249594e+00 1.840432e+00 2.364878e+00 3.817046e-01 5.275861e-01 3.874674e-01 3.575449e-01 3.785866e-01 3.350678e-01 3.607891e-01 3.638615e-01 5.545688e-01 4.837454e-01 4.716986e-01 3.943942e-01 3.830407e-01
<GCONST> 1.169007e+02
<STATE> 4
<MEAN> 39
 1.255100e+00 -5.034769e+00 6.706936e+00 -9.538088e-03 -7.756474e+00 3.837890e+00 -1.085839e+01 -1.099607e+00 2.884943e+00 -2.886664e+00 4.921137e+00 -3.064442e+00 4.243664e+01 -1.039487e+00 3.024581e-01 -2.884279e-01 2.972490e-01 1.113970e+00 5.849871e-01 9.030324e-01 6.126604e-01 4.717587e-02 2.122179e-02 -4.216284e-01 -2.047966e-01 -9.603794e-01 -6.752235e-02 -2.718050e-01 -8.964795e-02 -1.141185e-01 -1.479035e-01 -2.571926e-02 -1.278643e-02 5.163789e-02 -9.892920e-02 -1.135429e-01 1.111077e-01 1.016510e-01 7.202205e-02
<VARIANCE> 39
 4.682059e+01 5.359694e+01 5.872625e+01 1.970916e+01 4.690876e+01 3.983099e+01 4.266982e+01 3.372952e+01 2.407672e+01 2.806797e+01 2.153412e+01 1.775158e+01 2.984969e+01 1.083161e+00 2.924433e+00 2.133861e+00 1.323752e+00 1.903042e+00 1.629662e+00 2.010726e+00 1.193304e+00 1.207335e+00 3.324739e+00 2.304677e+00 1.996111e+00 1.750020e+00 7.266745e-02 1.493163e-01 2.796152e-01 1.096568e-01 2.538238e-01 2.229205e-01 1.806637e-01 2.705043e-01 3.092878e-01 2.230105e-01 4.185498e-01 3.136902e-01 4.534484e-02
<GCONST> 1.031992e+02
<TRANSP> 5
 0.000000e+00 1.000000e+00 0.000000e+00 0.000000e+00 0.000000e+00
 0.000000e+00 7.419344e-01 2.580656e-01 0.000000e+00 0.000000e+00
 0.000000e+00 0.000000e+00 8.909128e-01 1.090872e-01 0.000000e+00
 0.000000e+00 0.000000e+00 0.000000e+00 7.983039e-01 2.016961e-01
 0.000000e+00 0.000000e+00 0.000000e+00 0.000000e+00 0.000000e+00
<ENDHMM>
