~o
<STREAMINFO> 1 39
<VECSIZE> 39<NULLD><MFCC_D_A_0><DIAGC>
~h "NNN"
<BEGINHMM>
<NUMSTATES> 5
<STATE> 2
<MEAN> 39
 4.250474e+00 -1.774012e+01 6.871217e+00 -3.102243e+00 -1.678109e+01 3.495689e-01 -1.290762e+01 2.986800e+00 -6.851239e-01 -1.122773e+01 7.910027e+00 -3.149292e+00 5.100584e+01 1.439725e+00 -1.876657e+00 2.038336e+00 -5.570405e-01 -1.973155e+00 1.333161e+00 -1.411934e+00 -1.235993e-01 6.642289e-01 -2.049397e+00 4.690171e-01 2.832735e-01 2.495427e+00 -8.627230e-01 4.444264e-01 -8.090160e-02 3.523287e-01 5.313442e-01 1.153193e-01 3.393986e-01 -4.459190e-01 -1.173653e-01 6.331433e-01 -4.353957e-01 -5.153559e-02 -9.247210e-01
<VARIANCE> 39
 1.246286e+02 5.836445e+01 3.848833e+01 1.632067e+01 5.653109e+01 4.715024e+01 5.239885e+01 1.466096e+01 1.791482e+01 4.510941e+01 2.954594e+01 1.702077e+01 1.184139e+02 1.047403e+01 4.152826e+00 3.712914e+00 1.816917e+00 6.405407e+00 1.496142e+00 3.659706e+00 2.095089e+00 3.502015e+00 6.348842e+00 4.488381e+00 2.217625e+00 9.816835e+00 9.660658e-01 7.385180e-01 1.163357e+00 4.708678e-01 1.389527e+00 7.424562e-01 5.190493e-01 3.311422e-01 4.381592e-01 9.717200e-01 6.938277e-01 4.885540e-01 1.181550e+00
<GCONST> 1.324576e+02
<STATE> 3
<MEAN> 39
 7.465244e+00 -1.500572e+01 7.983147e+00 -2.791412e+00 -1.956227e+01 -4.431804e+00 -1.564758e+01 6.553392e-01 -2.102041e+00 -1.199617e+01 4.593008e+00 -5.869087e+00 5.254322e+01 -1.502976e-03 6.788877e-01 -8.243850e-02 1.043036e-01 9.765700e-02 -2.645668e-01 1.854224e-01 -7.409061e-02 7.544310e-02 3.639457e-01 -1.280655e-01 -2.127051e-02 -3.966101e-01 5.293827e-02 3.332373e-02 -1.365400e-03 1.480794e-02 5.831957e-02 -2.156571e-03 -1.152794e-02 7.832107e-02 9.060440e-03 -4.137691e-02 2.729565e-02 -3.290733e-02 3.160967e-02
<VARIANCE> 39
 4.417223e+01 7.205966e+01 1.742235e+01 2.436969e+01 3.979457e+01 4.638425e+01 1.874449e+01 3.451504e+01 2.313487e+01 4.737262e+01 5.074599e+01 1.748108e+01 5.313998e+01 2.449407e+00 1.940647e+00 1.817878e+00 2.039847e+00 2.122362e+00 2.241317e+00 1.575071e+00 1.973455e+00 2.359671e+00 2.369577e+00 2.261490e+00 1.898116e+00 2.394049e+00 4.106607e-01 5.326673e-01 4.015006e-01 3.608577e-01 3.196220e-01 3.254563e-01 2.692549e-01 2.991131e-01 5.694125e-01 5.135985e-01 5.050137e-01 4.214429e-01 3.959754e-01
<GCONST> 1.152244e+02
<STATE> 4
<MEAN> 39
 1.346771e+00 -2.544515e+00 1.055618e+01 1.922240e+00 -9.592264e+00 2.505104e+00 -9.183695e+00 1.020936e+00 3.699556e+00 -4.483385e+00 3.529323e+00 -3.924977e+00 4.213035e+01 -1.055749e+00 -6.103104e-02 -6.172821e-01 3.088403e-01 1.377148e+00 6.402578e-01 5.867032e-01 5.008321e-01 1.130564e-01 3.353778e-01 -6.621934e-02 -2.650691e-02 -8.667341e-01 -1.042878e-01 -3.310541e-01 -1.721648e-01 -1.410345e-01 -9.758959e-02 -3.511231e-03 -6.369862e-03 3.164693e-02 -1.146143e-01 -5.342123e-02 1.664795e-01 1.349470e-01 4.494068e-02
<VARIANCE> 39
 4.842891e+01 3.573561e+01 1.390764e+01 9.323779e+00 3.616521e+01 4.080283e+01 3.494417e+01 1.293773e+01 1.120214e+01 2.173923e+01 1.153551e+01 9.963228e+00 2.988830e+01 1.321882e+00 3.064716e+00 2.221575e+00 1.176372e+00 1.563400e+00 1.336428e+00 1.761014e+00 1.181020e+00 1.202486e+00 3.025777e+00 2.145370e+00 2.441098e+00 2.159699e+00 6.798040e-02 1.219722e-01 2.880247e-01 1.155967e-01 2.792016e-01 1.665845e-01 1.427663e-01 3.011030e-01 3.039255e-01 1.731564e-01 4.945954e-01 3.979451e-01 3.945421e-02
<GCONST> 9.637994e+01
<TRANSP> 5
 0.000000e+00 1.000000e+00 0.000000e+00 0.000000e+00 0.000000e+00
 0.000000e+00 7.221716e-01 2.778284e-01 0.000000e+00 0.000000e+00
 0.000000e+00 0.000000e+00 9.252427e-01 7.475737e-02 0.000000e+00
 0.000000e+00 0.000000e+00 0.000000e+00 8.282929e-01 1.717071e-01
 0.000000e+00 0.000000e+00 0.000000e+00 0.000000e+00 0.000000e+00
<ENDHMM>
