~o
<STREAMINFO> 1 39
<VECSIZE> 39<NULLD><MFCC_D_A_0><DIAGC>
~h "o"
<BEGINHMM>
<NUMSTATES> 5
<STATE> 2
<MEAN> 39
 7.202162e+00 -1.093374e+01 -9.363699e+00 -2.283047e+01 -1.829544e+01 8.787237e+00 -5.296126e+00 4.108595e+00 4.809622e+00 -2.071186e+00 6.402411e+00 -4.811127e+00 4.822796e+01 1.734149e+00 -9.369567e-01 -4.129737e-01 -1.438099e+00 -4.273331e-01 1.335756e+00 -6.048484e-01 -4.231746e-01 9.713858e-02 -5.098597e-01 3.127031e-02 -8.145850e-01 1.826476e+00 -4.538989e-01 2.064304e-01 5.463042e-01 8.369865e-01 5.384563e-01 -9.914605e-02 -7.276728e-02 -1.992345e-01 -2.296070e-01 3.552901e-02 -4.885493e-02 6.743014e-02 -3.714750e-01
<VARIANCE> 39
 1.812321e+01 1.926792e+01 1.508846e+01 1.196562e+01 1.661784e+01 2.569583e+01 3.222121e+01 1.860815e+01 1.424644e+01 1.188416e+01 1.951288e+01 2.998278e+01 2.536314e+01 2.696304e+00 1.150322e+00 2.338230e+00 5.776605e+00 2.699275e+00 1.027727e+00 1.849139e+00 1.362756e+00 1.195853e+00 8.425858e-01 1.616524e+00 8.852264e-01 1.944920e+00 3.370924e-01 2.441586e-01 4.235094e-01 7.661511e-01 3.731427e-01 2.447756e-01 3.602740e-01 2.010407e-01 3.242118e-01 2.095692e-01 2.705513e-01 1.911248e-01 2.609957e-01
<GCONST> 1.009938e+02
<STATE> 3
<MEAN> 39
 1.237551e+01 -1.281086e+01 -5.969472e+00 -2.211356e+01 -1.546752e+01 1.388897e+01 -9.686135e+00 -3.441804e-01 2.844573e+00 -2.778446e+00 8.851700e+00 -7.671804e+00 5.419607e+01 1.132665e-01 1.778392e-01 3.539023e-01 2.739416e-01 1.431639e-02 -1.037376e-01 -2.276427e-01 1.490463e-02 1.028112e-01 2.793140e-02 5.591322e-03 -2.092520e-01 8.029414e-02 -1.327771e-01 1.850192e-01 9.003349e-02 1.995853e-01 -3.599435e-02 -3.062935e-01 -1.338910e-02 1.263960e-01 1.434338e-01 6.777946e-03 -1.676988e-01 7.920980e-02 -2.105330e-01
<VARIANCE> 39
 3.908836e+00 7.127573e+00 6.452498e+00 8.344150e+00 1.841180e+01 9.496819e+00 1.873376e+01 9.066961e+00 6.585922e+00 1.470373e+01 1.304995e+01 1.770025e+01 7.299332e+00 1.824083e-01 5.845854e-01 3.832959e-01 5.531375e-01 6.477045e-01 1.125234e+00 9.730796e-01 9.388601e-01 1.153480e+00 9.247007e-01 1.201977e+00 9.782715e-01 2.886307e-01 3.299794e-02 7.646606e-02 6.230441e-02 1.074355e-01 1.271503e-01 1.249144e-01 1.512156e-01 1.469900e-01 1.451415e-01 1.576685e-01 1.702479e-01 1.334759e-01 3.995011e-02
<GCONST> 6.636077e+01
<STATE> 4
<MEAN> 39
 1.063995e+01 -7.496122e+00 -4.159623e-01 -1.415671e+01 -1.417043e+01 7.137725e+00 -1.310298e+01 2.371836e-02 4.987525e+00 -2.886148e+00 5.239309e+00 -7.716050e+00 5.047613e+01 -1.261965e+00 2.402696e+00 1.951115e+00 2.905598e+00 8.369176e-01 -1.948365e+00 -1.505847e-01 -6.561759e-01 -8.856548e-01 -6.019806e-01 -9.945791e-01 8.866923e-01 -2.009943e+00 -2.724207e-01 2.385939e-01 1.664447e-01 2.581452e-01 2.419326e-01 4.662854e-02 2.026711e-01 -2.607667e-01 -5.795699e-01 -1.916449e-01 1.055483e-01 1.488378e-01 -2.648031e-01
<VARIANCE> 39
 8.917740e+00 2.232091e+01 1.712329e+01 3.579811e+01 2.282501e+01 2.569913e+01 3.937503e+01 1.967087e+01 1.804984e+01 1.430014e+01 1.236128e+01 1.991738e+01 1.692788e+01 5.659308e-01 1.357425e+00 1.000149e+00 1.445788e+00 1.876892e+00 7.716134e-01 1.871821e+00 2.241144e+00 3.800105e+00 1.968515e+00 1.090930e+00 1.370789e+00 4.681568e-01 7.400739e-02 3.755289e-01 2.202995e-01 4.135056e-01 2.812178e-01 2.179912e-01 2.741373e-01 3.363569e-01 5.049327e-01 3.317583e-01 2.134031e-01 2.914609e-01 1.534025e-01
<GCONST> 9.627607e+01
<TRANSP> 5
 0.000000e+00 1.000000e+00 0.000000e+00 0.000000e+00 0.000000e+00
 0.000000e+00 6.959993e-01 3.040008e-01 0.000000e+00 0.000000e+00
 0.000000e+00 0.000000e+00 8.824522e-01 1.175478e-01 0.000000e+00
 0.000000e+00 0.000000e+00 0.000000e+00 7.488158e-01 2.511843e-01
 0.000000e+00 0.000000e+00 0.000000e+00 0.000000e+00 0.000000e+00
<ENDHMM>
