~o
<STREAMINFO> 1 39
<VECSIZE> 39<NULLD><MFCC_D_A_0><DIAGC>
~h "p"
<BEGINHMM>
<NUMSTATES> 5
<STATE> 2
<MEAN> 39
 -3.589460e+00 -2.182694e+00 6.071679e+00 1.282354e+00 -4.364821e+00 3.656568e+00 -8.036251e+00 3.721522e-01 -2.479816e-01 -5.959692e+00 1.440311e+00 -3.245587e+00 3.748483e+01 -1.715038e+00 -1.331412e+00 -8.083868e-01 1.562947e-01 6.290664e-01 6.192217e-01 1.444214e+00 1.535397e+00 9.965788e-01 5.614722e-01 -1.881331e-01 -6.385642e-02 -9.381069e-01 2.108186e-01 -6.721827e-02 -6.975216e-02 -2.267806e-01 -2.985443e-01 -2.047531e-01 -2.300259e-01 -3.673236e-01 -2.753169e-01 1.284001e-01 3.749473e-01 2.132847e-01 1.791396e-01
<VARIANCE> 39
 8.957960e+00 1.236598e+01 9.034739e+00 1.215845e+01 1.608926e+01 1.077496e+01 2.052131e+01 2.510777e+01 1.555735e+01 1.836838e+01 1.537100e+01 1.023019e+01 1.947624e+00 6.678967e-01 1.275471e+00 1.578277e+00 1.401291e+00 2.081023e+00 1.799780e+00 1.704401e+00 3.069960e+00 2.632591e+00 2.934958e+00 2.495685e+00 1.466252e+00 2.631994e-01 9.660547e-02 2.526425e-01 2.149291e-01 1.925932e-01 2.356432e-01 2.242883e-01 1.912927e-01 3.665935e-01 4.043583e-01 4.439421e-01 4.762611e-01 2.424540e-01 3.457191e-02
<GCONST> 8.974312e+01
<STATE> 3
<MEAN> 39
 -8.401066e+00 -7.699430e+00 1.926833e+00 1.741607e-01 -4.743253e+00 3.325988e+00 -5.292598e+00 1.899500e+00 1.147418e+00 -3.454658e+00 3.097649e+00 -1.508375e+00 3.524186e+01 1.064740e+00 -2.692282e-02 -1.059065e+00 -1.677638e+00 -1.028872e+00 9.367679e-02 2.084732e-01 -3.721592e-03 3.696872e-01 5.385798e-01 2.029073e-01 -1.559568e-01 7.639633e-01 1.030551e+00 -3.804199e-03 -2.939807e-01 -8.345413e-01 -3.511583e-01 4.642421e-01 -3.092442e-01 -1.665656e-01 2.187671e-01 -7.770572e-02 -8.153656e-02 -4.438330e-01 8.179942e-01
<VARIANCE> 39
 5.442732e+00 1.447987e+01 1.154710e+01 1.012106e+01 1.335457e+01 1.282459e+01 9.569501e+00 1.181794e+01 1.282916e+01 9.418270e+00 1.283302e+01 6.407585e+00 1.334033e+00 4.556963e+00 1.507451e+00 2.289007e+00 5.736005e+00 2.627771e+00 1.539795e+00 1.269866e+00 1.505850e+00 1.780224e+00 1.286447e+00 1.906418e+00 1.369100e+00 2.293769e+00 3.234360e-01 5.966430e-01 5.060777e-01 7.782906e-01 3.297487e-01 4.474887e-01 2.766005e-01 3.124506e-01 3.921095e-01 2.780662e-01 4.344855e-01 2.818250e-01 3.359621e-01
<GCONST> 9.698917e+01
<STATE> 4
<MEAN> 39
 3.216579e+00 -7.081743e+00 -4.670928e+00 -1.329405e+01 -1.199144e+01 7.506709e+00 -4.752561e+00 1.693653e+00 3.716168e+00 -1.414658e+00 4.031939e+00 -5.349652e+00 4.372606e+01 3.565264e+00 -2.532476e+00 -2.156008e+00 -3.889365e+00 -1.459188e+00 2.582578e+00 -1.361219e+00 -2.934824e-01 1.418784e+00 3.496997e-01 6.970714e-02 -2.365209e+00 3.745333e+00 -5.380048e-01 -7.059018e-01 6.228533e-01 1.038133e+00 6.275973e-01 -1.179627e-01 -4.997680e-01 2.706042e-01 2.603400e-01 -4.620923e-01 -5.403212e-01 -2.141315e-01 -4.675339e-02
<VARIANCE> 39
 6.766797e+01 1.864990e+01 3.084286e+01 7.593750e+01 2.419588e+01 3.226483e+01 1.771324e+01 1.219997e+01 1.674105e+01 8.258861e+00 6.935254e+00 2.107461e+01 4.325930e+01 6.579283e+00 3.121399e+00 1.727837e+00 7.572887e+00 3.653917e+00 3.398881e+00 2.677456e+00 8.938656e-01 3.477509e+00 1.673102e+00 1.764549e+00 2.080656e+00 5.879553e+00 6.547437e-01 5.559501e-01 3.395906e-01 1.253066e+00 4.396526e-01 6.318475e-01 2.611910e-01 1.625630e-01 2.838140e-01 2.720170e-01 1.382990e-01 4.122725e-01 4.360694e-01
<GCONST> 1.135513e+02
<TRANSP> 5
 0.000000e+00 1.000000e+00 0.000000e+00 0.000000e+00 0.000000e+00
 0.000000e+00 7.832016e-01 2.167984e-01 0.000000e+00 0.000000e+00
 0.000000e+00 0.000000e+00 6.978145e-01 3.021856e-01 0.000000e+00
 0.000000e+00 0.000000e+00 0.000000e+00 4.351875e-01 5.648124e-01
 0.000000e+00 0.000000e+00 0.000000e+00 0.000000e+00 0.000000e+00
<ENDHMM>
