~o
<STREAMINFO> 1 39
<VECSIZE> 39<NULLD><MFCC_D_A_0><DIAGC>
~h "s"
<BEGINHMM>
<NUMSTATES> 5
<STATE> 2
<MEAN> 39
 -6.963004e+00 -4.957534e+00 4.244661e+00 -7.737611e-02 -4.756048e+00 5.005208e+00 -6.876384e+00 -5.626513e-01 -4.780872e-01 -3.599770e+00 2.654203e+00 -1.840557e+00 3.574877e+01 -7.026851e-01 -6.713485e-01 -7.928029e-01 -1.756421e-01 6.269815e-02 -8.852010e-02 4.613923e-01 4.262099e-01 6.720252e-02 5.957699e-01 1.931762e-01 -1.915349e-01 -4.125837e-01 5.098646e-01 2.556573e-01 2.446025e-01 1.836872e-02 -2.078342e-01 -2.158097e-01 -2.795569e-01 -5.149242e-02 6.402303e-02 -3.266061e-02 1.731367e-02 -1.459921e-01 3.086720e-01
<VARIANCE> 39
 1.919505e+01 1.800242e+01 1.672581e+01 1.049711e+01 9.526345e+00 8.200922e+00 8.335746e+00 1.463070e+01 1.108451e+01 1.185635e+01 1.167525e+01 1.071176e+01 3.849763e+00 9.518946e-01 1.167161e+00 1.105417e+00 1.006620e+00 8.623754e-01 6.041092e-01 1.121617e+00 1.145351e+00 1.346272e+00 1.118807e+00 1.652388e+00 1.820497e+00 3.836355e-01 2.225932e-01 2.862673e-01 2.101632e-01 2.348869e-01 2.739174e-01 1.800727e-01 2.635573e-01 2.412598e-01 3.809342e-01 2.501224e-01 3.413544e-01 4.924680e-01 7.681061e-02
<GCONST> 8.504405e+01
<STATE> 3
<MEAN> 39
 -6.151289e+00 -5.725796e+00 3.312573e+00 4.638132e-01 -4.936176e+00 3.047156e+00 -7.560716e+00 -2.221615e-01 9.237651e-01 -2.085480e+00 4.058950e+00 -2.674211e+00 3.623110e+01 4.111751e+00 1.585365e+00 -1.498622e-02 -1.902600e+00 -2.765362e+00 -2.187035e+00 -2.180928e+00 -9.843819e-03 2.471232e+00 8.715223e-01 -8.348346e-02 -7.236361e-01 2.602040e+00 1.210101e+00 -1.723283e-01 -5.528193e-02 -8.540816e-01 -8.322394e-01 -4.938465e-02 -6.347570e-01 1.917162e-01 6.701794e-01 1.094456e-01 -4.922800e-02 -2.704176e-01 1.083926e+00
<VARIANCE> 39
 1.141302e+01 1.247956e+01 7.968232e+00 1.293398e+01 1.845949e+01 1.543321e+01 3.367367e+01 2.424403e+01 1.634590e+01 9.483097e+00 9.938745e+00 1.041687e+01 2.332581e+00 2.417098e+00 1.667418e+00 1.738815e+00 2.318286e+00 3.162533e+00 1.123041e+00 2.219959e+00 1.326441e+00 2.656820e+00 1.319968e+00 1.819651e+00 1.491657e+00 1.593630e+00 2.813083e-01 4.895203e-01 7.728644e-02 2.077496e-01 3.067648e-01 4.570633e-01 6.235652e-01 2.766488e-01 5.066481e-01 2.882773e-01 4.628939e-01 3.520251e-01 5.842889e-02
<GCONST> 9.559903e+01
<STATE> 4
<MEAN> 39
 1.008848e+01 -2.218213e+00 3.702724e+00 -9.147364e+00 -1.782130e+01 -3.963530e+00 -1.665202e+01 4.461945e-01 1.117999e+01 1.497991e+00 3.048270e+00 -5.486299e+00 4.796088e+01 4.805613e+00 -1.481354e+00 -4.137185e-01 -2.676514e+00 -2.263931e+00 2.598905e-01 -2.219236e+00 1.492706e+00 2.609412e+00 3.483155e-01 3.274450e-01 -1.254140e+00 4.407763e+00 -1.108791e+00 -9.590757e-01 -2.891964e-01 6.101302e-01 1.306925e+00 1.132774e+00 6.141387e-01 2.262539e-01 -6.931562e-01 -5.377498e-01 2.755353e-03 1.312299e-01 -5.182852e-01
<VARIANCE> 39
 9.753491e+00 2.635625e+01 9.658974e+00 7.044433e+00 1.822276e+01 1.031956e+01 2.014454e+01 4.045427e+00 2.211500e+01 2.909497e+00 8.178087e+00 7.117143e+00 1.505501e+01 1.964829e+00 2.627948e+00 1.030245e+00 1.132949e+00 2.551582e+00 2.267435e+00 3.430849e+00 1.171466e+00 2.848522e+00 1.567705e+00 1.509740e+00 5.414479e-01 5.014691e-01 3.053998e-01 4.716179e-01 1.053030e-01 3.044572e-01 1.068670e-01 1.999035e-01 3.729636e-01 2.611588e-01 5.783483e-01 6.419556e-02 1.904792e-01 2.001639e-01 3.395328e-01
<GCONST> 8.837782e+01
<TRANSP> 5
 0.000000e+00 1.000000e+00 0.000000e+00 0.000000e+00 0.000000e+00
 0.000000e+00 8.461466e-01 1.538534e-01 0.000000e+00 0.000000e+00
 0.000000e+00 0.000000e+00 6.250454e-01 3.749546e-01 0.000000e+00
 0.000000e+00 0.000000e+00 0.000000e+00 4.999982e-01 5.000018e-01
 0.000000e+00 0.000000e+00 0.000000e+00 0.000000e+00 0.000000e+00
<ENDHMM>
