~o
<STREAMINFO> 1 39
<VECSIZE> 39<NULLD><MFCC_D_A_0><DIAGC>
~h "t"
<BEGINHMM>
<NUMSTATES> 5
<STATE> 2
<MEAN> 39
 -5.260433e+00 -7.357565e+00 1.268791e+00 -2.537511e+00 -6.437826e+00 4.343372e+00 -6.192551e+00 2.673991e+00 1.802876e+00 -4.396883e+00 1.642950e+00 -3.953467e+00 3.756659e+01 -1.345927e+00 -4.298686e-02 -1.677454e-01 4.862796e-01 7.102980e-01 9.873906e-02 6.034358e-01 -1.279008e-01 -5.205482e-01 2.340773e-01 2.305745e-01 4.213517e-01 -1.063664e+00 2.860271e-01 -1.386881e-01 -6.214546e-02 -1.897837e-01 -1.313389e-01 1.784270e-02 -1.423490e-01 7.396761e-02 1.487385e-01 -1.763545e-02 -4.949778e-03 -2.425225e-02 2.790385e-01
<VARIANCE> 39
 3.771377e+01 1.939014e+01 9.383245e+00 1.302791e+01 2.022598e+01 1.009265e+01 1.771733e+01 1.786159e+01 1.697631e+01 1.765559e+01 1.665050e+01 1.368200e+01 1.629756e+01 1.457558e+00 1.526734e+00 8.208083e-01 1.622022e+00 1.639950e+00 1.048822e+00 1.848253e+00 1.923646e+00 1.758905e+00 1.888202e+00 1.619704e+00 1.270938e+00 1.276130e+00 1.240168e-01 3.514325e-01 2.525055e-01 2.952400e-01 2.551009e-01 2.352656e-01 2.987916e-01 3.998654e-01 3.154093e-01 4.322308e-01 2.954598e-01 2.796490e-01 7.255948e-02
<GCONST> 9.536284e+01
<STATE> 3
<MEAN> 39
 -7.616543e+00 -6.840469e+00 9.739136e-01 -1.239573e+00 -3.580435e+00 5.681491e+00 -4.299201e+00 3.565535e+00 9.604160e-01 -3.047551e+00 3.791147e+00 -8.339949e-01 3.555159e+01 1.839006e+00 1.402539e+00 6.311129e-01 -6.799849e-01 -1.285416e+00 -1.174510e+00 -1.227688e+00 -9.293333e-01 -1.972041e-01 3.218688e-01 1.453092e-01 -2.651784e-01 9.868978e-01 9.205063e-01 3.786370e-01 4.663775e-01 -4.123965e-01 -1.032933e+00 -5.947883e-01 -8.181356e-01 -5.194518e-01 1.334847e-01 -3.973569e-02 -7.660746e-02 -3.525740e-01 6.400360e-01
<VARIANCE> 39
 1.127578e+01 1.308920e+01 1.153641e+01 1.465813e+01 1.782516e+01 1.137398e+01 1.234398e+01 1.601598e+01 1.387780e+01 1.256047e+01 1.421211e+01 1.310665e+01 3.324290e+00 2.328577e+00 2.588663e+00 3.341955e+00 2.632551e+00 3.717081e+00 3.017179e+00 3.173066e+00 2.996694e+00 1.849264e+00 1.998062e+00 1.411021e+00 1.305586e+00 9.741337e-01 2.294818e-01 3.548200e-01 5.399739e-01 3.850319e-01 5.415619e-01 4.661188e-01 3.273457e-01 4.080495e-01 3.910534e-01 2.399569e-01 3.335934e-01 2.465606e-01 1.624821e-01
<GCONST> 1.003724e+02
<STATE> 4
<MEAN> 39
 3.589890e+00 -6.705779e-01 5.363710e+00 -6.161308e+00 -1.337615e+01 -1.158570e+00 -1.270248e+01 -1.543927e+00 1.351099e+00 -3.234246e+00 3.047536e+00 -3.894892e+00 4.255301e+01 2.966073e+00 3.641472e-01 1.694909e+00 -1.716331e+00 -3.406040e+00 -9.370897e-01 -2.708595e+00 -1.379374e+00 7.810526e-01 -1.862785e-02 5.382144e-01 -5.898154e-01 2.524134e+00 -5.150977e-01 -7.261323e-01 -1.673214e-01 2.675515e-02 3.991302e-01 8.749166e-01 3.892576e-01 1.115899e-01 5.299249e-02 -1.599672e-01 9.550600e-02 1.645855e-01 -9.670287e-02
<VARIANCE> 39
 3.977372e+01 3.093185e+01 5.734374e+01 4.597747e+01 5.441352e+01 3.035987e+01 3.240929e+01 2.677971e+01 2.844029e+01 2.440753e+01 1.282591e+01 1.045658e+01 2.362509e+01 3.195099e+00 4.919238e+00 5.805573e+00 2.847776e+00 6.597714e+00 6.328421e+00 2.876356e+00 2.787300e+00 2.399100e+00 8.105214e-01 1.476710e+00 1.299532e+00 1.979192e+00 3.760360e-01 3.523882e-01 4.505074e-01 4.911724e-01 9.863294e-01 7.671548e-01 6.237772e-01 4.301238e-01 4.456048e-01 2.254996e-01 2.585088e-01 2.146428e-01 2.010411e-01
<GCONST> 1.169045e+02
<TRANSP> 5
 0.000000e+00 1.000000e+00 0.000000e+00 0.000000e+00 0.000000e+00
 0.000000e+00 8.690139e-01 1.309861e-01 0.000000e+00 0.000000e+00
 0.000000e+00 0.000000e+00 5.840951e-01 4.159049e-01 0.000000e+00
 0.000000e+00 0.000000e+00 0.000000e+00 5.356464e-01 4.643536e-01
 0.000000e+00 0.000000e+00 0.000000e+00 0.000000e+00 0.000000e+00
<ENDHMM>
