~o
<STREAMINFO> 1 39
<VECSIZE> 39<NULLD><MFCC_D_A_0><DIAGC>
~h "initial_0_D_A_6"
<BEGINHMM>
<NUMSTATES> 6
<STATE> 2
<MEAN> 39
 -7.396644e+00 9.737633e-01 1.017570e+01 -6.601083e+00 -1.492285e+01 -9.801525e+00 -9.973681e+00 -6.425333e+00 -1.433121e+01 2.388082e+00 -1.245795e+00 -4.137866e+00 6.876446e+01 3.146210e-01 -3.021394e-01 1.154066e+00 -1.414374e+00 -2.585877e+00 -8.426080e-01 -7.265118e-01 -6.110330e-03 -1.638204e+00 1.183427e+00 6.870223e-01 7.276136e-02 1.689867e+00 -3.054016e-02 3.625369e-01 -6.996347e-01 5.310442e-01 6.634002e-01 6.379338e-02 5.010695e-01 -1.495397e-02 5.161673e-01 -1.085727e-01 -2.507921e-01 8.049312e-02 -7.390108e-01
<VARIANCE> 39
 2.334308e+01 3.768824e+01 4.698248e+01 6.019988e+01 3.911589e+01 1.195141e+02 3.140741e+01 7.452614e+01 5.205060e+01 1.112860e+02 3.158320e+01 3.053214e+01 4.296861e+01 5.200490e+00 3.429287e+00 4.114686e+00 2.962869e+00 5.617221e+00 8.223736e+00 4.976609e+00 5.420176e+00 4.056720e+00 4.401345e+00 4.098211e+00 3.425022e+00 3.448656e+00 9.745895e-01 6.988246e-01 9.216312e-01 7.190334e-01 1.103767e+00 1.436785e+00 8.868442e-01 1.019562e+00 1.049719e+00 1.268353e+00 7.535191e-01 3.116810e-01 4.107360e-01
<GCONST> 1.386927e+02
<STATE> 3
<MEAN> 39
 -1.115091e+01 5.170400e+00 6.087798e+00 -7.270803e+00 -2.097160e+01 -1.453156e+01 -8.399851e+00 -1.439236e+01 -1.088086e+01 -1.057383e+00 -4.832279e+00 -6.850056e+00 7.671727e+01 -4.275607e-02 2.558802e-01 -7.235474e-01 3.591841e-01 6.579763e-01 -6.356590e-01 8.065600e-01 -4.340725e-01 3.222150e-01 -1.128625e-01 -2.744799e-01 5.059007e-01 -7.153928e-02 3.163408e-02 1.972913e-01 -1.859170e-01 4.909634e-01 1.051434e+00 4.709041e-01 8.499523e-02 2.883233e-01 3.692558e-01 -3.624634e-01 -2.209509e-01 -3.669381e-02 -8.041271e-01
<VARIANCE> 39
 1.500295e+01 2.973153e+01 3.441645e+01 3.561683e+01 3.085552e+01 6.714415e+01 5.574476e+01 6.262150e+01 4.968278e+01 4.190899e+01 4.103738e+01 4.048693e+01 7.338836e+01 1.183018e+00 2.019308e+00 1.039048e+00 2.280314e+00 3.659200e+00 2.632814e+00 2.552297e+00 2.155267e+00 3.219907e+00 3.572332e+00 3.431882e+00 2.145339e+00 1.271654e+00 5.915460e-01 5.203969e-01 4.921512e-01 3.529020e-01 1.177591e+00 8.096632e-01 7.529380e-01 7.042075e-01 8.551668e-01 7.713523e-01 1.136597e+00 5.115796e-01 3.719487e-01
<GCONST> 1.248603e+02
<STATE> 4
<MEAN> 39
 -1.217853e+01 1.107214e+01 8.956688e+00 -4.627563e+00 -8.166306e+00 -7.237518e+00 -6.169699e+00 -1.056443e+01 -7.814506e+00 -1.587155e+00 -4.201858e+00 -5.693849e-01 6.343911e+01 -8.194232e-02 2.509264e-01 -5.428159e-01 7.362332e-01 1.354626e+00 5.521528e-01 4.243451e-01 3.287822e-01 6.203991e-01 -4.581614e-02 -2.644185e-01 -3.886046e-02 -1.521904e+00 -6.557983e-02 -7.587247e-02 -8.492503e-02 1.074497e-01 9.145769e-02 2.212325e-01 -6.361473e-02 8.030636e-02 1.597924e-01 -1.169088e-02 -1.998807e-03 -1.376514e-01 -2.497274e-01
<VARIANCE> 39
 3.708458e+01 5.300862e+01 2.585355e+01 2.889646e+01 6.452937e+01 7.546799e+01 3.698933e+01 4.826873e+01 6.271576e+01 3.589402e+01 2.060535e+01 3.620896e+01 1.001994e+02 1.979130e+00 3.466505e+00 2.814704e+00 2.884025e+00 4.688985e+00 3.130876e+00 2.905850e+00 3.101083e+00 3.832691e+00 2.991345e+00 2.724033e+00 2.734310e+00 1.763652e+00 2.040226e-01 2.609372e-01 2.744906e-01 3.057025e-01 6.366636e-01 6.097280e-01 5.057817e-01 5.450057e-01 4.227645e-01 3.295688e-01 3.476741e-01 5.020833e-01 2.571512e-01
<GCONST> 1.219957e+02
<STATE> 5
<MEAN> 39
 -1.070548e+01 6.799927e+00 3.279774e+00 -1.202523e+00 -8.035880e+00 -1.059696e+01 -4.085936e+00 -8.233757e+00 -8.137859e+00 -4.990124e-01 -3.270336e+00 -2.902452e+00 6.242763e+01 -1.231928e+00 7.519056e-01 -1.274676e+00 1.720769e+00 2.924092e+00 1.981002e+00 5.565227e-01 7.371376e-01 2.208700e+00 -9.639134e-01 -3.650030e-01 -3.782538e-01 -2.779275e+00 -2.591384e-01 -5.431206e-01 2.591872e-01 -4.096119e-01 -4.124471e-01 3.650507e-01 -1.757342e-01 1.930590e-01 -4.043295e-01 2.891468e-01 1.139238e-01 -4.304222e-02 2.816788e-01
<VARIANCE> 39
 7.860799e+01 2.888183e+01 2.012887e+01 1.854865e+01 6.130607e+01 6.006339e+01 5.281833e+01 4.502459e+01 3.958344e+01 3.055340e+01 4.633125e+01 4.750161e+01 1.288407e+02 8.225871e+00 3.782539e+00 3.925365e+00 2.919652e+00 6.280405e+00 6.853024e+00 4.161707e+00 6.800951e+00 4.862772e+00 5.799080e+00 4.750257e+00 3.861741e+00 3.587745e+00 3.923191e-01 4.408000e-01 4.091543e-01 4.097996e-01 7.984579e-01 1.154111e+00 5.583280e-01 5.047970e-01 6.576735e-01 6.105658e-01 6.145757e-01 5.197695e-01 4.578926e-01
<GCONST> 1.337502e+02
<TRANSP> 6
 0.000000e+00 1.000000e+00 0.000000e+00 0.000000e+00 0.000000e+00 0.000000e+00
 0.000000e+00 5.526515e-01 4.473485e-01 0.000000e+00 0.000000e+00 0.000000e+00
 0.000000e+00 0.000000e+00 6.738089e-01 3.261911e-01 0.000000e+00 0.000000e+00
 0.000000e+00 0.000000e+00 0.000000e+00 7.090160e-01 2.909840e-01 0.000000e+00
 0.000000e+00 0.000000e+00 0.000000e+00 0.000000e+00 3.314214e-01 6.685786e-01
 0.000000e+00 0.000000e+00 0.000000e+00 0.000000e+00 0.000000e+00 0.000000e+00
<ENDHMM>
