~o
<STREAMINFO> 1 39
<VECSIZE> 39<NULLD><MFCC_D_A_0><DIAGC>
~h "initial_0_D_A_6"
<BEGINHMM>
<NUMSTATES> 6
<STATE> 2
<MEAN> 39
 -5.815560e+00 -7.261048e-01 -4.456361e+00 -2.298355e+00 -5.418697e+00 -7.918957e+00 -8.237823e+00 -7.445250e+00 -4.707808e-01 -9.598763e-01 -6.434930e+00 -3.618738e+00 6.718594e+01 -8.361872e-02 1.793679e-01 5.683379e-01 1.458905e-01 -7.403140e-01 4.242596e-02 -1.041236e+00 -6.103997e-01 3.655438e-01 -5.102645e-01 6.872860e-02 7.746600e-01 6.063179e-02 2.248346e-01 -1.945576e-01 -3.358667e-01 -3.929785e-01 -7.638890e-02 -2.458786e-01 1.192582e-01 1.458163e-01 -6.647805e-02 4.942998e-01 -2.515908e-01 -3.926144e-01 3.060924e-01
<VARIANCE> 39
 9.860873e+00 1.710066e+01 2.060430e+01 3.450803e+01 4.823881e+01 1.830840e+01 2.003209e+01 7.074186e+01 3.040999e+01 4.949466e+01 2.417600e+01 2.574380e+01 9.074418e+01 3.858989e+00 3.427045e+00 7.213750e+00 2.673157e+00 3.416703e+00 3.015566e+00 5.291790e+00 5.959586e+00 3.414663e+00 5.052278e+00 3.302652e+00 2.400272e+00 4.801560e+00 6.605656e-01 5.034199e-01 5.867546e-01 5.149558e-01 7.011424e-01 4.497246e-01 4.789895e-01 9.951918e-01 7.240793e-01 4.312559e-01 3.754973e-01 3.539532e-01 6.954112e-01
<GCONST> 1.257437e+02
<STATE> 3
<MEAN> 39
 -4.153913e+00 -9.030259e-01 -5.735172e+00 -1.836040e+00 -1.210110e+01 -1.056226e+01 -1.219460e+01 -1.072585e+01 1.267015e+00 -8.879805e-02 -9.924045e+00 -5.691223e+00 7.359744e+01 2.768635e-01 4.821209e-01 1.808120e-01 -3.288368e-01 7.376928e-01 2.109158e-01 -5.974224e-01 -4.766999e-01 -2.893531e-01 6.628798e-01 2.543791e-01 -3.754436e-01 -9.102986e-01 -2.510149e-01 1.826565e-01 1.795774e-01 4.588688e-02 4.728609e-01 3.446760e-01 4.726897e-01 3.499839e-01 -4.079643e-01 -3.956406e-02 1.992230e-01 -2.800493e-02 -4.288992e-01
<VARIANCE> 39
 2.033475e+01 2.521340e+01 6.243027e+01 4.004191e+01 7.893713e+01 3.803276e+01 3.739870e+01 7.236295e+01 4.584335e+01 5.775965e+01 5.280788e+01 3.762776e+01 8.497261e+01 3.519604e+00 2.292943e+00 4.761934e+00 1.910790e+00 4.225152e+00 2.193005e+00 2.423737e+00 4.589232e+00 5.643604e+00 2.432642e+00 2.836008e+00 2.072943e+00 2.158213e+00 3.779285e-01 5.219909e-01 7.367158e-01 6.959985e-01 9.988357e-01 4.119180e-01 6.460669e-01 9.971570e-01 1.065562e+00 9.149182e-01 6.079706e-01 5.325090e-01 5.281203e-01
<GCONST> 1.302509e+02
<STATE> 4
<MEAN> 39
 -6.635213e+00 -6.120213e-01 -2.568850e+00 -3.301602e+00 5.540797e-02 -7.512170e+00 -1.006381e+01 -5.829880e+00 -2.143272e+00 1.968603e+00 -6.232214e+00 -4.149434e+00 6.443758e+01 -1.445575e+00 1.272656e+00 6.308073e-01 1.584905e+00 1.157375e+00 1.248122e+00 1.114771e+00 3.299644e-01 1.270340e-01 -7.495608e-01 7.119204e-01 6.834720e-01 -2.387562e+00 -2.189546e-01 -3.513426e-02 -1.903474e-01 1.468131e-01 -4.790980e-01 2.800981e-01 5.856839e-01 2.759716e-01 -4.054600e-02 -1.996164e-01 7.925892e-02 1.058772e-01 -2.583478e-01
<VARIANCE> 39
 7.766379e+01 3.737257e+01 5.259084e+01 5.926498e+01 1.004063e+02 3.124889e+01 4.365343e+01 1.572426e+02 6.136641e+01 5.307034e+01 3.890335e+01 2.982567e+01 8.332713e+01 7.542874e+00 3.680326e+00 4.299994e+00 6.551383e+00 7.944622e+00 2.428760e+00 3.895623e+00 4.833355e+00 9.109156e+00 6.644536e+00 3.560591e+00 3.662181e+00 4.325340e+00 1.349760e+00 9.120668e-01 7.956918e-01 1.641184e+00 1.133039e+00 6.080161e-01 7.516947e-01 1.400507e+00 1.534536e+00 8.996418e-01 6.054122e-01 6.827168e-01 5.481488e-01
<GCONST> 1.438320e+02
<STATE> 5
<MEAN> 39
 -8.049130e+00 1.480009e+00 -2.966116e+00 2.048109e+00 -2.999859e+00 -3.569619e+00 -4.134070e+00 -4.314957e+00 -6.492085e-01 -5.325660e-01 -5.862175e+00 -1.756308e+00 5.839310e+01 -4.686296e-01 4.870611e-02 -2.924199e-01 -2.926369e-01 -3.597350e-01 1.032870e+00 1.110225e+00 3.875321e-01 -5.418250e-01 -3.455461e-01 3.932321e-01 3.766840e-01 -1.351794e+00 -3.770716e-02 -1.663933e-01 -6.079269e-02 -3.956606e-01 -2.715546e-01 -8.406659e-02 7.890053e-03 4.973025e-02 -1.023267e-01 2.734267e-04 1.282055e-01 -7.859566e-04 3.241522e-01
<VARIANCE> 39
 6.993044e+01 3.048877e+01 4.705907e+01 3.119831e+01 6.680366e+01 3.279916e+01 4.868391e+01 7.318198e+01 2.309587e+01 3.024303e+01 3.452866e+01 3.718157e+01 1.353428e+02 4.989562e+00 3.765552e+00 4.598325e+00 2.750552e+00 7.775240e+00 1.970891e+00 3.298974e+00 5.153995e+00 3.340028e+00 5.405749e+00 7.029995e+00 2.250619e+00 3.981712e+00 4.248573e-01 3.555067e-01 6.780711e-01 5.604604e-01 7.100483e-01 5.309699e-01 4.851989e-01 6.436619e-01 6.285365e-01 9.537231e-01 8.137837e-01 3.942527e-01 5.048254e-01
<GCONST> 1.318597e+02
<TRANSP> 6
 0.000000e+00 1.000000e+00 0.000000e+00 0.000000e+00 0.000000e+00 0.000000e+00
 0.000000e+00 3.331505e-01 6.668495e-01 0.000000e+00 0.000000e+00 0.000000e+00
 0.000000e+00 0.000000e+00 4.766560e-01 5.233440e-01 0.000000e+00 0.000000e+00
 0.000000e+00 0.000000e+00 0.000000e+00 3.380446e-01 6.619554e-01 0.000000e+00
 0.000000e+00 0.000000e+00 0.000000e+00 0.000000e+00 5.005028e-01 4.994972e-01
 0.000000e+00 0.000000e+00 0.000000e+00 0.000000e+00 0.000000e+00 0.000000e+00
<ENDHMM>
