~o
<STREAMINFO> 1 39
<VECSIZE> 39<NULLD><MFCC_D_A_0><DIAGC>
~h "a"
<BEGINHMM>
<NUMSTATES> 6
<STATE> 2
<MEAN> 39
 -8.580128e+00 -1.989360e+00 -8.190572e+00 -1.103486e+01 -1.111770e+01 -7.488220e+00 -8.788426e+00 -1.850324e+00 -3.061401e+00 -2.596791e+00 -8.097186e+00 -1.155943e+01 7.822213e+01 4.220032e-01 -1.431245e+00 -1.925487e+00 -7.783365e-01 7.109829e-02 1.813284e-01 6.360722e-01 1.758667e+00 2.837174e-01 -1.027428e+00 -1.127819e+00 -1.909261e+00 1.669998e+00 -2.989893e-01 1.796240e-01 2.387492e-01 4.554314e-01 6.148026e-01 1.889231e-01 2.681092e-01 -1.096265e-01 -8.396912e-02 -1.653513e-01 -1.657370e-02 3.704964e-01 -5.652733e-01
<VARIANCE> 39
 2.372894e+01 2.775347e+01 6.503537e+01 3.216292e+01 7.111929e+01 5.988439e+01 4.118913e+01 5.900523e+01 4.912910e+01 5.982858e+01 5.797806e+01 6.593094e+01 1.014707e+02 2.579514e+00 1.690975e+00 2.983220e+00 2.768116e+00 6.290893e+00 3.445311e+00 3.904219e+00 4.830973e+00 4.336417e+00 4.527994e+00 4.729568e+00 4.682827e+00 2.433878e+00 4.990871e-01 3.385257e-01 5.679389e-01 4.984695e-01 1.075844e+00 7.579880e-01 7.062032e-01 8.626878e-01 7.795662e-01 8.956067e-01 1.008523e+00 1.118156e+00 4.935318e-01
<GCONST> 1.346969e+02
<STATE> 3
<MEAN> 39
 -8.739447e+00 -5.218978e+00 -1.300035e+01 -1.031550e+01 -7.289120e+00 -6.282017e+00 -5.544418e+00 1.183943e+00 -3.193231e+00 -7.261443e+00 -1.237209e+01 -1.432457e+01 8.143446e+01 3.885279e-02 1.352243e-02 -1.054854e-01 2.708882e-01 1.540282e-01 -1.704066e-01 1.867343e-01 5.490656e-02 -1.347020e-01 -1.755466e-01 -3.591591e-01 1.373399e-01 -1.463264e-01 1.005669e-01 3.145768e-01 4.805705e-01 1.479419e-01 -2.700878e-01 -1.251351e-01 -2.913551e-01 -4.765798e-01 5.619168e-02 3.580707e-01 1.913185e-01 3.685016e-01 -3.631656e-01
<VARIANCE> 39
 1.034146e+01 1.187600e+01 3.418135e+01 1.725204e+01 3.745782e+01 3.816048e+01 3.329938e+01 5.088237e+01 3.711364e+01 4.443425e+01 3.698257e+01 4.653444e+01 7.378051e+01 3.890683e-01 6.037195e-01 1.377223e+00 1.092033e+00 2.507322e+00 2.273058e+00 1.988334e+00 2.634645e+00 2.395984e+00 2.618833e+00 2.511212e+00 2.762221e+00 3.150148e-01 9.129583e-02 1.253447e-01 2.184715e-01 2.317802e-01 3.854356e-01 3.471439e-01 4.174743e-01 5.394924e-01 4.343407e-01 4.145575e-01 4.428495e-01 4.902021e-01 1.163464e-01
<GCONST> 1.053528e+02
<STATE> 4
<MEAN> 39
 -7.377017e+00 -3.902317e+00 -1.111277e+01 -9.696086e+00 -9.282737e+00 -8.222947e+00 -6.249800e+00 5.690904e-01 -3.265098e+00 -4.568828e+00 -1.224514e+01 -1.294135e+01 7.896386e+01 7.193340e-01 1.317541e+00 1.844930e+00 9.654709e-01 -7.662371e-01 -4.326308e-01 -1.120160e+00 -2.075838e+00 2.401266e-01 1.150342e+00 3.893806e-01 1.473124e+00 -1.766401e+00 -8.688297e-02 5.013884e-01 7.978317e-01 4.869492e-01 2.259664e-01 1.990069e-01 -1.907760e-01 -7.007211e-01 -5.997574e-02 -8.240268e-02 2.654281e-01 3.541320e-01 -6.966490e-01
<VARIANCE> 39
 1.330481e+01 1.350486e+01 3.845386e+01 2.166919e+01 4.591672e+01 4.887975e+01 3.679795e+01 5.276580e+01 4.490822e+01 5.795102e+01 5.589222e+01 6.180192e+01 7.475542e+01 9.701775e-01 1.377618e+00 2.630239e+00 2.149052e+00 3.973983e+00 3.715204e+00 3.260773e+00 4.228264e+00 4.165787e+00 3.260000e+00 3.784044e+00 3.597705e+00 1.208056e+00 2.313590e-01 2.143351e-01 3.747296e-01 4.248686e-01 6.978022e-01 6.388720e-01 5.171057e-01 7.947256e-01 6.240689e-01 7.706175e-01 7.952574e-01 8.802927e-01 3.614383e-01
<GCONST> 1.233089e+02
<STATE> 5
<MEAN> 39
 -7.457574e+00 9.772886e-01 -5.888276e+00 -5.609225e+00 -8.220694e+00 -7.801281e+00 -8.167121e+00 -4.584840e+00 -3.500445e+00 -3.743238e+00 -1.008228e+01 -7.633972e+00 7.245466e+01 -2.891677e-01 1.682389e+00 2.644279e+00 1.742237e+00 6.096399e-01 4.028479e-01 -4.616433e-01 -1.933713e+00 9.285619e-03 1.990381e-01 7.179793e-01 1.692776e+00 -2.778158e+00 -3.539542e-01 -1.447741e-01 -1.103809e-02 1.206345e-02 2.677861e-01 2.619185e-01 3.374040e-01 2.542555e-01 -3.002373e-02 -1.915065e-01 1.546696e-01 -1.823143e-01 -6.049494e-02
<VARIANCE> 39
 2.837718e+01 3.389140e+01 5.478745e+01 4.857833e+01 8.690839e+01 6.523588e+01 4.906764e+01 4.887841e+01 5.503701e+01 6.331273e+01 6.366471e+01 5.666361e+01 1.171389e+02 3.533502e+00 3.369293e+00 4.848948e+00 3.960490e+00 6.651684e+00 4.353846e+00 4.945223e+00 6.627314e+00 4.637921e+00 4.958505e+00 4.798525e+00 5.159142e+00 4.871501e+00 4.152696e-01 4.881160e-01 6.643702e-01 6.993682e-01 9.133795e-01 1.046805e+00 7.007812e-01 8.326877e-01 8.119166e-01 8.763024e-01 9.289290e-01 7.570880e-01 5.751461e-01
<GCONST> 1.399922e+02
<TRANSP> 6
 0.000000e+00 1.000000e+00 0.000000e+00 0.000000e+00 0.000000e+00 0.000000e+00
 0.000000e+00 5.805609e-01 4.194390e-01 0.000000e+00 0.000000e+00 0.000000e+00
 0.000000e+00 0.000000e+00 8.131313e-01 1.868687e-01 0.000000e+00 0.000000e+00
 0.000000e+00 0.000000e+00 0.000000e+00 2.862951e-01 7.137048e-01 0.000000e+00
 0.000000e+00 0.000000e+00 0.000000e+00 0.000000e+00 4.999379e-01 5.000621e-01
 0.000000e+00 0.000000e+00 0.000000e+00 0.000000e+00 0.000000e+00 0.000000e+00
<ENDHMM>
~h "b"
<BEGINHMM>
<NUMSTATES> 6
<STATE> 2
<MEAN> 39
 -2.363504e+00 7.183159e+00 2.313026e+00 -3.623289e+00 -7.058296e+00 -3.812868e+00 -9.789709e+00 -1.309526e+01 -1.039093e+01 -5.021031e+00 -6.659645e+00 -7.466406e+00 6.222948e+01 2.599918e-01 1.802194e+00 1.131295e+00 1.137592e+00 1.475024e+00 5.257656e-01 6.884215e-01 -4.876602e-01 -9.809194e-01 -5.795482e-01 2.087642e-02 7.098504e-01 -1.964220e+00 -3.991465e-01 -4.660545e-01 -4.287488e-01 -3.785632e-01 -3.044223e-01 -3.202907e-01 -3.360994e-02 5.338890e-01 5.292966e-01 3.484964e-01 1.478264e-01 -1.786637e-01 8.624753e-01
<VARIANCE> 39
 1.037018e+01 2.248717e+01 2.889561e+01 2.352327e+01 3.994284e+01 2.646295e+01 2.761588e+01 3.277492e+01 2.853821e+01 4.266407e+01 4.591239e+01 3.167367e+01 9.520514e+01 1.806568e+00 2.371191e+00 4.398855e+00 3.830428e+00 4.426676e+00 2.684338e+00 4.241162e+00 4.924843e+00 4.017943e+00 4.570812e+00 4.229276e+00 4.489401e+00 4.579879e+00 1.976644e-01 3.954789e-01 6.030027e-01 5.001101e-01 8.538219e-01 5.068607e-01 5.636621e-01 7.646636e-01 7.509926e-01 5.990877e-01 7.852263e-01 6.564221e-01 3.978835e-01
<GCONST> 1.257243e+02
<STATE> 3
<MEAN> 39
 -2.424792e+00 1.042403e+01 3.577334e+00 -2.211879e+00 -5.815119e+00 -3.770895e+00 -8.674054e+00 -1.219913e+01 -9.940468e+00 -4.368975e+00 -5.880618e+00 -6.631879e+00 5.910225e+01 -3.267888e-01 1.250165e-03 -1.956515e-01 2.686863e-04 5.603905e-01 -1.370409e-01 2.437771e-01 5.931016e-01 3.003841e-01 2.461567e-01 4.723081e-01 1.535419e-01 3.384849e-01 -2.461974e-01 -8.597398e-01 -6.727810e-01 -5.483349e-01 -2.717498e-01 -3.244518e-01 -2.831918e-01 4.575883e-01 4.331343e-01 3.764714e-01 2.764521e-01 -2.134535e-01 1.195106e+00
<VARIANCE> 39
 6.962739e+00 1.461669e+01 1.279138e+01 2.114920e+01 2.734308e+01 1.836145e+01 2.447364e+01 2.993327e+01 2.609957e+01 3.144243e+01 3.850031e+01 2.825975e+01 7.889851e+01 9.014682e-01 1.541473e+00 2.070955e+00 1.618354e+00 2.137723e+00 1.497194e+00 1.774755e+00 2.290813e+00 1.994085e+00 2.237902e+00 2.682753e+00 1.821370e+00 2.343089e+00 1.983172e-01 3.196253e-01 5.492536e-01 4.753442e-01 7.539015e-01 4.431080e-01 5.574650e-01 7.417423e-01 8.285573e-01 6.695786e-01 6.871912e-01 6.646025e-01 4.175042e-01
<GCONST> 1.124966e+02
<STATE> 4
<MEAN> 39
 -3.657821e+00 8.393115e+00 2.674235e+00 -2.573116e+00 -3.782287e+00 -3.787017e+00 -8.577908e+00 -1.116477e+01 -9.738011e+00 -4.123752e+00 -4.832952e+00 -6.179523e+00 6.167953e+01 -8.854511e-01 -2.200093e+00 -2.054418e+00 -1.583608e+00 1.279570e-01 -1.294683e+00 -7.383016e-01 1.825050e+00 1.515306e+00 1.487132e+00 1.439828e+00 -4.133572e-01 3.776519e+00 -7.994532e-02 -5.146775e-01 -5.191705e-01 -6.687706e-01 -7.686308e-01 -2.149213e-01 -3.313949e-01 4.219723e-01 4.741436e-01 4.057965e-01 -1.050888e-01 -5.844551e-01 9.754818e-01
<VARIANCE> 39
 1.333933e+01 2.006454e+01 1.588279e+01 2.033283e+01 2.380789e+01 1.727836e+01 2.341282e+01 2.861670e+01 2.042356e+01 2.474303e+01 3.227862e+01 2.004401e+01 9.160410e+01 1.456294e+00 1.749127e+00 3.602729e+00 3.454724e+00 4.570143e+00 2.961921e+00 3.577233e+00 3.778550e+00 4.010303e+00 4.099926e+00 4.142547e+00 4.062402e+00 3.053297e+00 2.597283e-01 3.682555e-01 6.202722e-01 4.245450e-01 7.007499e-01 4.926651e-01 5.416320e-01 7.380297e-01 8.756967e-01 6.477740e-01 8.589236e-01 8.632218e-01 3.978755e-01
<GCONST> 1.207414e+02
<STATE> 5
<MEAN> 39
 -6.711471e+00 2.175780e+00 -1.780207e+00 -6.799293e+00 -6.201540e+00 -7.434988e+00 -1.056000e+01 -7.293389e+00 -5.942041e+00 -1.578555e-01 -1.809449e+00 -6.903472e+00 7.282670e+01 -5.465102e-01 -1.648866e+00 -1.906054e+00 -1.935110e+00 -1.310711e+00 -9.270791e-01 -8.616616e-01 1.743493e+00 1.435437e+00 1.482458e+00 5.053779e-01 -1.262017e+00 3.431075e+00 1.348284e-01 4.309425e-01 2.513258e-01 5.653930e-02 -5.372964e-01 2.702532e-01 1.272970e-01 -1.850440e-01 -1.357572e-01 -3.322956e-01 -6.703830e-01 -2.678119e-01 -5.082142e-01
<VARIANCE> 39
 2.396118e+01 1.748879e+01 4.104202e+01 3.368944e+01 5.507389e+01 2.919128e+01 3.756494e+01 2.925086e+01 2.879801e+01 4.878572e+01 3.162470e+01 2.965987e+01 1.169854e+02 1.493004e+00 2.907045e+00 5.879986e+00 3.906991e+00 6.594430e+00 4.121322e+00 4.180416e+00 6.209498e+00 7.111388e+00 4.965080e+00 5.283992e+00 7.070938e+00 5.124304e+00 2.896821e-01 4.422634e-01 4.347355e-01 6.752533e-01 7.726294e-01 5.461733e-01 6.321875e-01 7.092150e-01 5.738223e-01 8.371041e-01 9.489835e-01 6.483253e-01 4.880108e-01
<GCONST> 1.312831e+02
<TRANSP> 6
 0.000000e+00 1.000000e+00 0.000000e+00 0.000000e+00 0.000000e+00 0.000000e+00
 0.000000e+00 2.597475e-01 7.402526e-01 0.000000e+00 0.000000e+00 0.000000e+00
 0.000000e+00 0.000000e+00 5.678944e-01 4.321056e-01 0.000000e+00 0.000000e+00
 0.000000e+00 0.000000e+00 0.000000e+00 2.051219e-01 7.948781e-01 0.000000e+00
 0.000000e+00 0.000000e+00 0.000000e+00 0.000000e+00 3.641370e-01 6.358631e-01
 0.000000e+00 0.000000e+00 0.000000e+00 0.000000e+00 0.000000e+00 0.000000e+00
<ENDHMM>
~h "c"
<BEGINHMM>
<NUMSTATES> 6
<STATE> 2
<MEAN> 39
 -1.463151e+01 7.717683e+00 3.042197e+00 -2.121221e+00 -2.130180e+00 -4.954804e+00 -6.532523e+00 -6.834206e+00 -5.768122e+00 -2.623475e+00 -3.927466e+00 -3.275346e+00 6.000980e+01 -1.148997e+00 -3.542666e-01 -4.393100e-01 6.916886e-01 1.410504e+00 5.700715e-01 8.996018e-01 2.041854e-01 2.590780e-01 1.998806e-01 3.815949e-01 5.921934e-01 -1.134355e+00 -2.901062e-01 -3.980910e-01 -2.843203e-01 -3.489188e-01 -3.123660e-01 2.230809e-02 4.619427e-02 3.558407e-01 2.687809e-01 3.276908e-02 1.467289e-01 1.492701e-01 5.871629e-01
<VARIANCE> 39
 5.831884e+01 2.849592e+01 4.312982e+01 4.088049e+01 4.741616e+01 4.266177e+01 4.748238e+01 3.810759e+01 3.535493e+01 2.937723e+01 2.971916e+01 4.671207e+01 1.599320e+02 4.339727e+00 2.562423e+00 2.457948e+00 4.895894e+00 5.803151e+00 3.535971e+00 3.309013e+00 1.159740e-01 3.363941e+00 2.491272e+00 2.349187e+00 2.481658e+00 5.855705e+00 8.957073e-01 5.853068e-01 7.284632e-01 7.916418e-01 6.547564e-01 7.937866e-01 6.315795e-01 1.026353e+00 8.005276e-01 5.010812e-01 4.353613e-01 4.993019e-01 1.015179e+00
<GCONST> 1.288447e+02
<STATE> 3
<MEAN> 39
 -2.151758e+01 5.235459e+00 -6.809572e-01 -3.345647e+00 2.027966e+00 -2.580647e+00 -2.767088e+00 -2.943880e+00 -2.373825e+00 -1.190134e+00 -1.399050e+00 -2.095596e-01 6.007245e+01 -1.585819e+00 -1.678343e-01 -2.814071e-01 -1.079064e+00 5.047931e-02 -1.077624e-02 2.187759e-01 4.595915e-01 4.232721e-01 1.625320e-01 2.413927e-01 3.405387e-01 1.553207e+00 4.247048e-01 1.238648e-01 3.417501e-01 -2.156795e-01 -7.159967e-01 -2.860662e-01 -3.795048e-01 -2.060551e-01 -2.734697e-01 -9.292239e-02 -1.726069e-01 -2.801477e-01 5.080647e-01
<VARIANCE> 39
 6.401610e+01 2.780105e+01 3.358480e+01 4.360823e+01 2.763100e+01 2.374223e+01 3.285643e+01 3.197962e+01 3.216106e+01 2.703367e+01 2.239624e+01 2.535852e+01 1.493820e+02 5.652051e+00 3.021172e+00 4.537577e+00 5.209823e+00 4.483356e+00 3.631424e+00 4.221611e+00 3.723873e+00 3.746725e+00 2.978984e+00 2.620097e+00 2.611753e+00 8.903461e+00 1.405046e+00 5.477746e-01 7.339489e-01 1.040052e+00 8.812083e-01 6.213542e-01 7.117226e-01 6.639374e-01 7.516836e-01 5.445356e-01 4.799339e-01 4.937560e-01 1.223359e+00
<GCONST> 1.320629e+02
<STATE> 4
<MEAN> 39
 -2.616938e+01 7.138641e+00 2.334066e+00 -8.616157e+00 -1.244343e+00 -4.360476e+00 -4.560975e+00 -4.346679e+00 -3.135442e+00 -2.130366e+00 -2.534112e+00 -4.362434e-01 7.037906e+01 2.822816e+00 2.437066e-01 2.036835e+00 -5.792601e-01 -4.503587e+00 -1.452354e+00 -2.092275e+00 -1.255428e+00 -1.955676e+00 -2.617352e-01 -7.936197e-01 -1.622099e+00 1.982841e+00 1.307594e+00 -5.991968e-01 -1.991395e-01 3.039886e-01 -9.062765e-01 -1.381617e-01 -2.010851e-01 1.861278e-01 -1.271980e-01 3.675946e-01 7.714045e-02 -6.014181e-01 -3.851092e-01
<VARIANCE> 39
 5.106458e+01 2.056107e+01 3.176492e+01 2.347297e+01 3.738990e+01 2.543358e+01 3.352054e+01 2.699686e+01 3.130107e+01 2.310881e+01 2.007818e+01 1.911514e+01 1.173139e+02 7.354763e+00 2.420645e+00 3.676218e+00 2.840297e+00 8.618299e+00 3.127432e+00 4.778131e+00 5.391974e+00 3.933106e+00 2.380778e+00 2.836655e+00 3.388391e+00 3.237169e+00 1.433800e+00 4.243813e-01 5.051984e-01 6.215600e-01 1.212866e+00 5.673568e-01 6.596435e-01 6.848267e-01 6.875671e-01 5.678576e-01 4.114948e-01 6.227588e-01 4.149680e-01
<GCONST> 1.276497e+02
<STATE> 5
<MEAN> 39
 -1.886201e+01 7.593883e+00 4.711862e+00 -9.331745e+00 -9.864683e+00 -8.516917e+00 -9.039421e+00 -6.810851e+00 -6.943389e+00 -2.714766e+00 -3.874261e+00 -3.384145e+00 7.191861e+01 3.617520e+00 -9.158325e-01 1.164759e+00 -4.567951e-01 -4.863688e+00 -1.508191e+00 -1.765753e+00 -4.173636e-01 -1.350935e+00 7.162817e-01 -3.067373e-01 -2.203338e+00 1.795335e+00 1.703789e-01 -6.727627e-01 -7.985244e-01 1.897681e-01 4.655293e-01 3.301626e-01 4.572074e-01 6.242587e-01 4.962122e-01 2.920256e-01 1.831783e-01 -2.184249e-01 -3.501034e-01
<VARIANCE> 39
 5.325577e+01 2.885915e+01 3.648627e+01 2.510836e+01 6.803956e+01 4.177475e+01 4.139579e+01 4.324836e+01 3.300415e+01 3.361872e+01 2.245181e+01 2.813518e+01 1.240113e+02 7.415010e+00 3.050707e+00 3.145651e+00 3.199438e+00 1.076332e+01 3.569839e+00 5.725192e+00 5.562786e+00 4.111708e+00 1.758285e+00 2.848708e+00 4.685719e+00 2.754630e+00 1.361121e+00 3.767252e-01 5.267190e-01 4.672557e-01 1.267100e+00 6.905742e-01 7.019026e-01 7.422408e-01 6.718501e-01 1.007550e+00 4.526286e-01 6.017874e-01 3.278950e-01
<GCONST> 1.320170e+02
<TRANSP> 6
 0.000000e+00 1.000000e+00 0.000000e+00 0.000000e+00 0.000000e+00 0.000000e+00
 0.000000e+00 0.000000e+00 1.000000e+00 0.000000e+00 0.000000e+00 0.000000e+00
 0.000000e+00 0.000000e+00 8.299074e-01 1.700926e-01 0.000000e+00 0.000000e+00
 0.000000e+00 0.000000e+00 0.000000e+00 1.376865e-01 8.623136e-01 0.000000e+00
 0.000000e+00 0.000000e+00 0.000000e+00 0.000000e+00 0.000000e+00 1.000000e+00
 0.000000e+00 0.000000e+00 0.000000e+00 0.000000e+00 0.000000e+00 0.000000e+00
<ENDHMM>
~h "d"
<BEGINHMM>
<NUMSTATES> 6
<STATE> 2
<MEAN> 39
 -5.670829e+00 5.792459e+00 5.735684e+00 -4.973928e-01 -9.324652e+00 -7.131800e+00 -1.167201e+01 -9.092246e+00 -3.942299e+00 -6.289188e+00 -1.011417e+01 -4.238476e+00 6.337170e+01 6.857898e-01 1.526748e+00 1.616382e+00 1.285377e+00 1.948394e+00 -5.134997e-01 -3.497469e-01 -4.336874e-01 -7.683403e-01 -3.855010e-01 -4.202083e-01 -1.620273e-01 -1.623117e+00 -5.646361e-01 -2.936760e-01 -3.608164e-01 -6.274052e-01 -1.867026e-01 7.301448e-02 3.077002e-01 3.369585e-01 5.096128e-02 2.660199e-01 4.624118e-01 -1.375615e-01 9.205543e-01
<VARIANCE> 39
 2.598085e+01 2.378043e+01 2.590331e+01 3.510052e+01 5.334417e+01 3.265948e+01 3.645013e+01 4.523083e+01 3.624089e+01 3.804437e+01 4.407587e+01 2.666925e+01 1.079829e+02 3.092785e+00 2.640871e+00 3.221073e+00 5.228350e+00 9.090832e+00 3.556367e+00 3.828861e+00 6.063623e+00 4.335246e+00 4.246646e+00 4.368450e+00 4.091620e+00 8.219921e+00 3.323378e-01 3.925827e-01 4.197851e-01 6.702464e-01 8.219412e-01 6.089356e-01 7.793018e-01 9.051954e-01 6.495028e-01 5.769376e-01 6.453878e-01 6.133405e-01 6.568774e-01
<GCONST> 1.315403e+02
<STATE> 3
<MEAN> 39
 -4.721266e+00 8.522963e+00 7.428949e+00 1.799674e+00 -6.842535e+00 -8.623007e+00 -1.204006e+01 -8.729515e+00 -4.381083e+00 -6.596407e+00 -1.012602e+01 -4.751626e+00 6.060975e+01 -5.250377e-01 3.575990e-01 6.138040e-01 -2.747767e-01 8.829202e-01 1.457437e-01 4.262005e-01 2.462181e-01 -3.180866e-01 3.320102e-01 7.823007e-01 -1.027445e-01 3.342963e-01 -6.813191e-01 -7.389834e-01 -6.239549e-01 -1.013268e+00 -8.055873e-01 1.917836e-01 1.990916e-01 3.249836e-01 1.504642e-01 3.032169e-01 5.585655e-01 6.643248e-02 1.385241e+00
<VARIANCE> 39
 1.361247e+01 1.671544e+01 1.955582e+01 3.532940e+01 3.680171e+01 2.309843e+01 2.498101e+01 3.225676e+01 3.447212e+01 3.246199e+01 3.541071e+01 2.697372e+01 9.120995e+01 2.742500e+00 2.708927e+00 2.336673e+00 4.676602e+00 4.657286e+00 3.151013e+00 2.861202e+00 4.200139e+00 3.043636e+00 3.014318e+00 3.775097e+00 2.698872e+00 6.569025e+00 3.554327e-01 4.143923e-01 5.015308e-01 9.504789e-01 1.324301e+00 5.895094e-01 6.902009e-01 1.116273e+00 7.448909e-01 8.029168e-01 7.700631e-01 6.882049e-01 8.914151e-01
<GCONST> 1.270357e+02
<STATE> 4
<MEAN> 39
 -8.795233e+00 6.474967e+00 7.299663e+00 -1.842841e+00 -5.872283e+00 -5.838160e+00 -9.422632e+00 -7.770761e+00 -4.954108e+00 -5.159993e+00 -6.372289e+00 -4.142846e+00 6.550747e+01 -1.761790e+00 -1.086760e+00 -5.872647e-01 -2.250660e+00 -1.185840e+00 -1.450409e-01 7.931546e-02 4.546270e-01 -1.754530e-01 7.373136e-01 1.700549e+00 3.089872e-01 3.544313e+00 -1.859919e-02 -1.414528e-01 -3.417004e-01 -3.531544e-01 -1.024558e+00 -2.257095e-01 -2.376946e-01 4.425886e-02 1.135371e-01 8.273825e-02 -1.610250e-01 -2.506260e-01 5.865137e-01
<VARIANCE> 39
 3.310942e+01 2.148154e+01 2.338025e+01 3.794026e+01 4.566624e+01 3.030754e+01 3.320509e+01 3.512309e+01 2.990746e+01 2.706829e+01 4.002023e+01 2.412963e+01 1.294927e+02 2.329675e+00 2.165101e+00 2.971094e+00 4.419965e+00 6.873492e+00 3.638731e+00 3.651022e+00 6.841280e+00 3.543869e+00 3.479618e+00 4.441331e+00 2.649166e+00 5.950688e+00 4.843451e-01 3.979128e-01 6.081777e-01 5.779652e-01 1.174276e+00 5.810434e-01 8.214165e-01 9.502129e-01 6.859488e-01 6.287777e-01 9.017410e-01 5.883883e-01 8.787305e-01
<GCONST> 1.302247e+02
<STATE> 5
<MEAN> 39
 -1.230432e+01 3.404372e+00 5.553841e+00 -8.378835e+00 -1.077142e+01 -7.891567e+00 -1.046390e+01 -7.230371e+00 -5.172731e+00 -3.053714e+00 -2.621881e+00 -2.764868e+00 7.543285e+01 -1.160758e+00 -8.770797e-01 -1.034951e+00 -2.355859e+00 -3.325369e+00 -5.212119e-01 -3.859468e-01 6.742464e-01 1.711682e-01 8.009030e-01 7.548083e-01 -6.703869e-01 3.682596e+00 5.850443e-01 3.213443e-01 -2.209733e-01 5.373320e-01 -2.365295e-01 2.213491e-02 -6.523992e-02 7.272460e-02 1.907897e-01 -2.098247e-01 -8.584044e-01 -5.179423e-01 -8.829814e-01
<VARIANCE> 39
 1.941349e+01 2.177659e+01 2.924140e+01 2.916546e+01 5.699912e+01 4.083444e+01 3.675241e+01 6.476553e+01 4.223762e+01 2.939488e+01 2.913813e+01 2.395209e+01 1.214317e+02 2.205062e+00 2.825682e+00 5.210609e+00 3.541690e+00 6.198096e+00 3.738240e+00 5.292953e+00 9.579237e+00 4.227714e+00 4.283726e+00 3.727485e+00 3.129319e+00 4.231635e+00 2.706440e-01 3.405308e-01 4.241182e-01 5.272746e-01 1.157391e+00 5.963208e-01 8.416321e-01 8.679764e-01 6.824337e-01 7.490978e-01 9.707335e-01 5.757247e-01 4.332411e-01
<GCONST> 1.304249e+02
<TRANSP> 6
 0.000000e+00 1.000000e+00 0.000000e+00 0.000000e+00 0.000000e+00 0.000000e+00
 0.000000e+00 9.536620e-21 1.000000e+00 0.000000e+00 0.000000e+00 0.000000e+00
 0.000000e+00 0.000000e+00 5.182074e-01 4.817925e-01 0.000000e+00 0.000000e+00
 0.000000e+00 0.000000e+00 0.000000e+00 4.625540e-01 5.374461e-01 0.000000e+00
 0.000000e+00 0.000000e+00 0.000000e+00 0.000000e+00 3.543929e-30 1.000000e+00
 0.000000e+00 0.000000e+00 0.000000e+00 0.000000e+00 0.000000e+00 0.000000e+00
<ENDHMM>
~h "e"
<BEGINHMM>
<NUMSTATES> 6
<STATE> 2
<MEAN> 39
 -8.005324e+00 5.107094e-01 -2.195588e+00 -8.265265e+00 -1.502934e+01 -1.177420e+01 -1.029896e+01 -4.601121e+00 -6.058341e+00 -2.595302e-01 -5.889166e+00 -1.073546e+01 7.572770e+01 1.102242e+00 -9.753104e-01 -6.825635e-01 -1.008705e+00 -2.411750e+00 -8.488421e-01 -4.200803e-01 7.865179e-01 6.607069e-02 3.116247e-01 -6.585782e-01 -1.937128e+00 1.757903e+00 -4.882983e-01 1.000675e-01 2.211957e-01 4.351595e-01 7.410704e-01 5.655404e-01 4.870900e-01 -1.365453e-01 2.532705e-01 -1.056191e-01 1.906547e-02 5.798492e-01 -7.408596e-01
<VARIANCE> 39
 3.030972e+01 2.407215e+01 6.285221e+01 2.766506e+01 7.434908e+01 5.972679e+01 4.846498e+01 5.577453e+01 4.828213e+01 5.216306e+01 4.819212e+01 5.159935e+01 9.065036e+01 4.319879e+00 2.155806e+00 3.387518e+00 2.824407e+00 6.499183e+00 4.108481e+00 5.643342e+00 5.845525e+00 5.515119e+00 4.896194e+00 4.914240e+00 4.601579e+00 2.458600e+00 7.627012e-01 4.376922e-01 8.229120e-01 6.112208e-01 1.393035e+00 8.818353e-01 8.652838e-01 1.066657e+00 8.283816e-01 7.550216e-01 9.127753e-01 1.056331e+00 6.486875e-01
<GCONST> 1.381760e+02
<STATE> 3
<MEAN> 39
 -9.115047e+00 -1.640054e+00 -2.994151e+00 -1.003314e+01 -1.903722e+01 -1.305114e+01 -6.281534e+00 -9.467717e-01 -6.396237e+00 -5.437751e-01 -6.766754e+00 -1.314516e+01 7.822184e+01 1.254342e-01 -7.690506e-02 -9.988416e-02 1.942883e-01 -1.636891e-02 6.263927e-02 1.983555e-01 -2.108078e-01 2.099604e-01 7.710060e-03 -5.683419e-01 1.269739e-01 -1.304014e-01 -3.500133e-02 3.196818e-01 3.577051e-01 4.540575e-01 4.971713e-01 2.622887e-01 -1.232865e-01 -5.912752e-01 5.194788e-02 -1.375860e-01 5.657005e-02 5.656415e-01 -6.026683e-01
<VARIANCE> 39
 1.799759e+01 1.694448e+01 4.979840e+01 1.880242e+01 5.332578e+01 4.475269e+01 5.977058e+01 4.889754e+01 5.262339e+01 6.245196e+01 4.500369e+01 3.629356e+01 8.090287e+01 8.087689e-01 9.057301e-01 1.852178e+00 1.663335e+00 2.571934e+00 2.325975e+00 2.779712e+00 3.350000e+00 3.162329e+00 2.888119e+00 2.786364e+00 2.373166e+00 8.821613e-01 3.202482e-01 2.388756e-01 5.053461e-01 3.594548e-01 7.664332e-01 5.552909e-01 7.028999e-01 7.232078e-01 6.471244e-01 6.632773e-01 5.750065e-01 6.913323e-01 3.327711e-01
<GCONST> 1.200203e+02
<STATE> 4
<MEAN> 39
 -6.788612e+00 -5.000256e-01 -3.375236e+00 -8.117591e+00 -1.579720e+01 -1.136639e+01 -9.401976e+00 -5.137380e+00 -4.234212e+00 1.387902e-01 -8.858266e+00 -1.076550e+01 7.629830e+01 2.795600e-01 8.458865e-01 1.149938e+00 1.409921e+00 8.023617e-01 8.749040e-01 -1.530303e-01 -2.015299e+00 3.308834e-01 -4.589955e-01 -3.368760e-01 1.379032e+00 -1.672320e+00 -2.285467e-01 4.186840e-01 4.663423e-01 3.461487e-01 5.127733e-01 3.700086e-01 9.559071e-02 -3.119045e-01 -8.609882e-02 -2.937908e-01 2.836484e-01 3.729316e-01 -5.874096e-01
<VARIANCE> 39
 2.083486e+01 2.275609e+01 5.204099e+01 3.044010e+01 5.427883e+01 5.455412e+01 5.554047e+01 5.339493e+01 6.975645e+01 7.382175e+01 5.264022e+01 3.990736e+01 8.424684e+01 1.567330e+00 1.818323e+00 3.485147e+00 2.604704e+00 5.336901e+00 4.044326e+00 3.755852e+00 4.118487e+00 4.599180e+00 3.879873e+00 3.479112e+00 3.921952e+00 2.427586e+00 4.025362e-01 2.907661e-01 5.356264e-01 5.204703e-01 8.025151e-01 6.037138e-01 7.492847e-01 8.070620e-01 8.584741e-01 9.491495e-01 8.690223e-01 6.534508e-01 3.796981e-01
<GCONST> 1.308817e+02
<STATE> 5
<MEAN> 39
 -7.447106e+00 3.131817e+00 -2.528892e-01 -5.309172e+00 -1.333085e+01 -8.083807e+00 -8.694617e+00 -8.943708e+00 -5.165522e+00 -1.747952e+00 -7.710765e+00 -8.012090e+00 7.122318e+01 -1.482890e-01 8.578354e-01 1.043101e+00 1.199121e+00 1.167703e+00 9.638723e-01 6.274916e-02 -1.104143e+00 3.506546e-01 -7.596458e-01 1.167253e-01 1.074014e+00 -1.712547e+00 -2.132469e-01 -7.568973e-02 -5.853699e-02 -1.330289e-01 3.134910e-02 -7.238458e-04 6.051696e-02 3.471956e-01 5.889703e-03 -1.020631e-02 1.458540e-01 -1.193852e-01 8.305325e-02
<VARIANCE> 39
 3.064965e+01 3.522383e+01 5.512746e+01 4.121553e+01 6.813819e+01 5.661575e+01 5.445656e+01 5.043870e+01 6.838329e+01 6.642149e+01 5.131229e+01 5.368019e+01 1.086184e+02 2.470011e+00 2.439925e+00 4.016005e+00 3.377288e+00 6.330396e+00 3.851582e+00 4.130231e+00 5.271906e+00 4.451029e+00 4.910374e+00 3.938875e+00 4.356150e+00 3.900763e+00 3.236055e-01 3.630557e-01 5.335261e-01 4.919415e-01 7.050000e-01 6.570387e-01 6.188080e-01 7.104617e-01 8.101558e-01 7.383136e-01 6.846380e-01 6.663548e-01 3.760737e-01
<GCONST> 1.342151e+02
<TRANSP> 6
 0.000000e+00 1.000000e+00 0.000000e+00 0.000000e+00 0.000000e+00 0.000000e+00
 0.000000e+00 3.589926e-01 6.410074e-01 0.000000e+00 0.000000e+00 0.000000e+00
 0.000000e+00 0.000000e+00 6.446347e-01 3.553653e-01 0.000000e+00 0.000000e+00
 0.000000e+00 0.000000e+00 0.000000e+00 6.657954e-02 9.334205e-01 0.000000e+00
 0.000000e+00 0.000000e+00 0.000000e+00 0.000000e+00 4.858477e-01 5.141523e-01
 0.000000e+00 0.000000e+00 0.000000e+00 0.000000e+00 0.000000e+00 0.000000e+00
<ENDHMM>
~h "f"
<BEGINHMM>
<NUMSTATES> 6
<STATE> 2
<MEAN> 39
 -1.598803e+01 2.160823e+00 -1.153232e+00 -1.651544e+00 -1.585634e+00 -3.403308e+00 -4.546791e+00 -4.317074e+00 -4.614944e+00 -1.902172e+00 -3.640633e+00 -3.088023e+00 6.660870e+01 -2.656779e+00 -1.191971e-01 1.215434e+00 1.749432e+00 2.397018e+00 9.244148e-01 1.339256e+00 1.224066e+00 1.252651e+00 3.454900e-01 8.323118e-01 1.612615e+00 -8.588786e-01 -1.501802e-01 -3.330849e-01 -1.202222e-01 -2.111525e-01 -3.584875e-01 -5.003075e-02 1.047115e-01 2.757336e-01 2.613243e-01 1.783385e-01 1.257751e-01 -1.284873e-01 2.116242e-01
<VARIANCE> 39
 6.385247e+01 2.482329e+01 3.958796e+01 2.557486e+01 3.382981e+00 2.275031e+01 2.728412e+01 3.595626e+01 3.086531e+01 2.120206e+01 2.231785e+01 3.024355e+01 1.383509e+02 5.988027e+00 3.704517e+00 8.010178e+00 5.602713e+00 6.960253e+00 3.374688e+00 3.852805e+00 3.988192e+00 3.414925e+00 2.969433e+00 3.445486e+00 4.961863e+00 2.313104e+00 9.163720e-01 4.270372e-01 6.051536e-01 6.711046e-01 6.408021e-01 4.342683e-01 3.889063e-01 8.264233e-01 6.864910e-01 4.875591e-01 3.155796e-01 4.727212e-01 3.168827e-01
<GCONST> 1.255119e+02
<STATE> 3
<MEAN> 39
 -2.118717e+01 1.213361e+00 1.456226e+00 2.034493e+00 3.448962e+00 -1.177166e+00 -1.929733e+00 -1.525850e+00 -2.595886e+00 -1.759699e+00 -2.666374e+00 -1.693713e+00 6.632065e+01 -2.701083e+00 -1.064466e+00 2.113993e-01 8.431773e-01 1.066815e+00 5.728389e-01 1.203244e+00 1.573198e+00 1.732372e+00 8.593746e-01 1.187940e+00 1.360588e+00 -4.328427e-01 7.421440e-01 -2.304863e-01 -6.827918e-01 -7.688832e-01 -9.448335e-01 -3.588875e-01 -4.260586e-01 -2.277274e-01 -2.092307e-01 1.093009e-01 -1.146396e-01 -4.648185e-01 3.523768e-01
<VARIANCE> 39
 3.628361e+01 2.862251e+01 2.543970e+01 2.042008e+01 1.663359e+01 1.801201e+01 2.145227e+01 2.653160e+01 2.659274e+01 2.010890e+01 1.887726e+01 1.802271e+01 1.201661e+02 5.465292e+00 2.719254e+00 5.665413e+00 3.997679e+00 3.233129e+00 2.713114e+00 2.509494e+00 2.771642e+00 2.804537e+00 2.375651e+00 2.088428e+00 3.150700e+00 1.573157e+00 7.078295e-01 5.606862e-01 9.505849e-01 7.056916e-01 6.594601e-01 4.632433e-01 5.023529e-01 7.314583e-01 6.935503e-01 5.023015e-01 4.258198e-01 5.108715e-01 2.257949e-01
<GCONST> 1.204077e+02
<STATE> 4
<MEAN> 39
 -2.291925e+01 -8.734056e-01 -1.467819e+00 5.859634e-02 2.357556e+00 -1.399172e+00 -8.637793e-01 5.929156e-01 -2.892074e-01 1.241162e+00 -3.854646e-02 5.613351e-01 6.508471e+01 2.966244e-01 -1.647107e-01 -3.106084e-01 -3.086878e-01 -2.652831e-01 -2.617822e-01 -1.095119e-01 5.835916e-02 -1.126632e-02 1.647871e-01 1.107825e-01 -5.652972e-02 -7.366421e-02 4.875472e-01 2.042109e-01 6.549264e-02 -8.001070e-02 -2.305745e-01 -1.527930e-01 -2.026723e-01 -2.147608e-01 -3.090817e-01 -1.849809e-01 -1.603440e-01 -2.413610e-01 5.348313e-02
<VARIANCE> 39
 3.767091e+01 2.862656e+01 2.284992e+01 2.334059e+01 2.189000e+01 2.467257e+01 2.351111e+01 2.362294e+01 2.127113e+01 1.602434e+01 1.760821e+01 1.734857e+01 1.080595e+02 2.767974e+00 1.466196e+00 1.819143e+00 1.968685e+00 2.096496e+00 2.273969e+00 1.937165e+00 2.461815e+00 2.505915e+00 1.762643e+00 1.873516e+00 2.041329e+00 1.915820e+00 6.167950e-01 3.911510e-01 4.147436e-01 4.592000e-01 5.106826e-01 4.721279e-01 4.470426e-01 5.221339e-01 5.979384e-01 3.750224e-01 3.942403e-01 4.733439e-01 2.843087e-01
<GCONST> 1.126753e+02
<STATE> 5
<MEAN> 39
 -2.117558e+01 -1.185086e+00 -2.025112e+00 -5.877193e-01 5.239692e-01 -3.202304e+00 -2.086856e+00 2.560025e-01 -5.941604e-01 7.196763e-01 -2.754388e-01 -3.356365e-01 6.516257e+01 1.773031e+00 3.052137e-01 -6.252846e-02 -5.328233e-01 -1.274500e+00 -8.307137e-01 -8.444137e-01 -3.584664e-01 -9.091870e-01 -3.027640e-01 -2.407976e-01 -9.611927e-01 2.973810e-01 6.786802e-01 3.594430e-01 1.780148e-01 -2.071349e-01 -5.375545e-01 -8.784920e-02 -2.758306e-01 -3.952160e-01 -4.848066e-01 -1.940877e-01 -3.019567e-01 -5.081030e-01 1.747626e-01
<VARIANCE> 39
 5.236287e+01 2.919645e+01 2.032338e+01 1.707590e+01 2.449774e+01 2.464488e+01 2.647046e+01 2.669391e+01 2.404706e+01 1.484162e+01 1.845682e+01 2.755478e+01 1.249217e+02 5.890832e+00 3.303063e+00 4.073870e+00 3.658260e+00 5.455834e+00 3.667022e+00 3.389624e+00 3.807027e+00 3.852100e+00 2.521959e+00 2.056719e+00 3.574441e+00 2.893284e+00 9.815516e-01 4.853808e-01 1.661672e-01 2.165470e-01 6.118716e-01 3.546456e-01 5.479943e-01 7.411269e-01 6.983075e-01 3.994516e-01 4.731775e-01 5.870456e-01 4.052090e-01
<GCONST> 1.213576e+02
<TRANSP> 6
 0.000000e+00 1.000000e+00 0.000000e+00 0.000000e+00 0.000000e+00 0.000000e+00
 0.000000e+00 0.000000e+00 1.000000e+00 0.000000e+00 0.000000e+00 0.000000e+00
 0.000000e+00 0.000000e+00 4.731637e-01 5.268363e-01 0.000000e+00 0.000000e+00
 0.000000e+00 0.000000e+00 0.000000e+00 7.786306e-01 2.213694e-01 0.000000e+00
 0.000000e+00 0.000000e+00 0.000000e+00 0.000000e+00 1.099124e-28 1.000000e+00
 0.000000e+00 0.000000e+00 0.000000e+00 0.000000e+00 0.000000e+00 0.000000e+00
<ENDHMM>
~h "g"
<BEGINHMM>
<NUMSTATES> 6
<STATE> 2
<MEAN> 39
 -7.180198e+00 7.818679e+00 4.563939e+00 -2.899058e+00 -9.025843e+00 -7.511472e+00 -9.342753e+00 -1.200751e+01 -7.688792e+00 1.918929e-01 -9.634617e+00 -5.190176e+00 6.374816e+01 1.116613e-01 7.376063e-01 4.426634e-01 6.587048e-01 8.002758e-01 1.313698e-02 2.300506e-01 -2.086423e-01 -2.476973e-01 -1.906144e-01 2.323267e-01 4.517550e-01 -1.041162e+00 -4.679450e-01 -2.792307e-01 -4.503805e-01 -4.231428e-01 1.281374e-01 -1.609742e-02 -4.839486e-02 3.242851e-01 5.933974e-02 6.810625e-03 7.771958e-02 3.012126e-02 7.418698e-01
<VARIANCE> 39
 2.615945e+01 2.051667e+01 4.630013e+01 3.759061e+01 7.890237e+01 5.781104e+01 3.922214e+01 3.987632e+01 4.348677e+01 4.756823e+01 4.565533e+01 3.385910e+01 9.764003e+01 2.532663e+00 2.436628e+00 5.498114e+00 2.978782e+00 6.844418e+00 5.287717e+00 3.472086e+00 5.116722e+00 5.189321e+00 4.776383e+00 4.510300e+00 3.312000e+00 3.706487e+00 3.998607e-01 3.716448e-01 7.461011e-01 5.124103e-01 1.211282e+00 1.034398e+00 7.052007e-01 8.167462e-01 9.380300e-01 8.383315e-01 9.045069e-01 7.534577e-01 7.228478e-01
<GCONST> 1.349279e+02
<STATE> 3
<MEAN> 39
 -5.875535e+00 1.048044e+01 5.204986e+00 -1.056881e+00 -7.573662e+00 -7.471785e+00 -9.269444e+00 -1.159707e+01 -7.322930e+00 -1.633785e+00 -8.289391e+00 -4.854807e+00 6.083362e+01 -1.377889e+00 -5.387388e-01 -7.801536e-01 -4.403046e-01 1.593714e+00 -1.003763e-01 2.094052e-01 4.872786e-01 -4.350075e-01 1.123999e-01 2.039359e-01 7.652110e-01 1.146965e+00 -5.699562e-01 -6.019582e-01 -6.060259e-01 -6.831671e-01 -4.625534e-02 -1.127611e-01 -1.466766e-01 1.266966e-01 -1.278994e-02 3.617208e-01 -2.358229e-01 2.375743e-02 1.319423e+00
<VARIANCE> 39
 1.420963e+01 1.513293e+01 3.414867e+01 3.499047e+01 3.122554e+01 3.217909e+01 2.698715e+01 2.846044e+01 3.363075e+01 2.690227e+01 2.667915e+01 2.096840e+01 8.967989e+01 2.672966e+00 3.492535e+00 5.886758e+00 2.928983e+00 6.581480e+00 3.783898e+00 3.234328e+00 3.446160e+00 4.267300e+00 4.363003e+00 3.360394e+00 2.893944e+00 3.885951e+00 4.418162e-01 4.378210e-01 7.125674e-01 5.526398e-01 1.129324e+00 5.263124e-01 5.490306e-01 7.127650e-01 6.861131e-01 7.791746e-01 6.152068e-01 4.294306e-01 5.214633e-01
<GCONST> 1.259429e+02
<STATE> 4
<MEAN> 39
 -1.133638e+01 7.324958e+00 5.570856e-01 -5.698136e+00 -3.449067e+00 -5.942086e+00 -8.697801e+00 -1.074034e+01 -9.979138e+00 5.617290e-01 -8.863454e+00 -2.743143e+00 7.036823e+01 -9.468042e-01 -5.530881e-01 -8.868496e-01 -1.260426e+00 -3.967600e-01 -4.842230e-01 -6.794949e-01 1.720209e-01 -2.221861e-01 6.297205e-01 1.732854e-01 3.829203e-01 2.454763e+00 4.015834e-01 5.973781e-02 2.574954e-01 -1.311990e-01 -9.949745e-01 -1.503070e-01 -3.643933e-01 2.877954e-02 3.486535e-01 -3.591185e-02 1.436085e-01 -3.762620e-01 8.655795e-02
<VARIANCE> 39
 4.558951e+01 3.686170e+01 8.484802e+01 4.985064e+01 7.903030e+01 3.950793e+01 4.503967e+01 4.251764e+01 5.422617e+01 2.969649e+01 3.021704e+01 2.444221e+01 1.055401e+02 3.633066e+00 3.170024e+00 5.002455e+00 3.316327e+00 9.034677e+00 3.369485e+00 4.011110e+00 3.827074e+00 4.387985e+00 4.134207e+00 3.398903e+00 2.896959e+00 3.307265e+00 5.080878e-01 6.591436e-01 8.390191e-01 6.858618e-01 1.371955e+00 5.589057e-01 8.270909e-01 7.712062e-01 8.900800e-01 6.916274e-01 5.777625e-01 5.966467e-01 4.994716e-01
<GCONST> 1.348807e+02
<STATE> 5
<MEAN> 39
 -1.204839e+01 5.872764e+00 -3.469712e-02 -6.780061e+00 -5.925764e+00 -8.702652e+00 -1.142022e+01 -1.054426e+01 -8.435737e+00 5.985663e-01 -8.464600e+00 -2.326677e+00 7.325949e+01 -1.330778e-01 -5.617217e-01 -3.594889e-01 -1.384959e+00 -2.073293e+00 -8.035669e-01 -1.177710e+00 7.370072e-01 7.044003e-01 5.400903e-01 5.223721e-01 -5.188801e-01 2.215199e+00 4.897132e-01 -6.645163e-03 1.680512e-01 -3.148739e-03 -6.620184e-01 6.058520e-02 8.112963e-02 3.898529e-01 3.134154e-01 -1.460890e-01 2.151400e-02 -6.775039e-01 -2.905587e-01
<VARIANCE> 39
 4.009118e+01 3.080371e+01 7.989906e+01 3.909005e+01 1.109446e+02 4.165862e+01 3.786894e+01 4.832120e+01 4.145598e+01 4.017085e+01 4.200950e+01 3.581519e+01 9.472439e+01 2.364964e+00 2.420899e+00 3.194593e+00 3.839578e+00 6.016356e+00 3.792171e+00 4.842426e+00 4.335906e+00 5.649853e+00 3.467171e+00 2.316257e+00 2.920425e+00 2.772296e+00 4.821430e-01 6.239609e-01 8.178920e-01 5.696235e-01 2.223203e+00 5.203834e-01 6.267153e-01 9.131282e-01 6.924141e-01 1.005798e+00 8.716737e-01 8.914892e-01 2.955263e-01
<GCONST> 1.341976e+02
<TRANSP> 6
 0.000000e+00 1.000000e+00 0.000000e+00 0.000000e+00 0.000000e+00 0.000000e+00
 0.000000e+00 3.464562e-01 6.535438e-01 0.000000e+00 0.000000e+00 0.000000e+00
 0.000000e+00 0.000000e+00 3.323339e-01 6.676660e-01 0.000000e+00 0.000000e+00
 0.000000e+00 0.000000e+00 0.000000e+00 5.841947e-01 4.158052e-01 0.000000e+00
 0.000000e+00 0.000000e+00 0.000000e+00 0.000000e+00 6.040998e-42 1.000000e+00
 0.000000e+00 0.000000e+00 0.000000e+00 0.000000e+00 0.000000e+00 0.000000e+00
<ENDHMM>
~h "h"
<BEGINHMM>
<NUMSTATES> 6
<STATE> 2
<MEAN> 39
 -1.254268e+01 5.662737e-02 -4.574222e+00 -2.172138e+00 -3.144038e+00 -6.854150e-01 -4.269033e+00 -4.846600e+00 -6.788111e+00 -4.903959e+00 -7.626196e+00 -5.303962e+00 7.169910e+01 -4.371066e-01 -4.113683e-01 1.350484e-01 3.809472e-01 5.945136e-01 1.376405e-01 3.431118e-01 3.569623e-01 9.198225e-02 -2.050411e-01 1.013439e-01 4.537996e-01 -5.270853e-01 1.328281e-01 1.834323e-02 -2.440518e-01 -3.997659e-01 -3.089885e-01 -1.910811e-01 -2.006881e-01 -5.106893e-02 9.899091e-02 5.261934e-02 -3.584351e-02 -3.056046e-01 6.115398e-02
<VARIANCE> 39
 4.162029e+01 4.253128e+01 5.382845e+01 5.506260e+01 9.281973e+01 4.700698e+01 5.521025e+01 4.831178e+01 4.103708e+01 4.710441e+01 4.703993e+01 4.843072e+01 1.418672e+02 2.317548e+00 2.359188e+00 3.170076e+00 2.246435e+00 2.885469e+00 2.818009e+00 2.953504e+00 3.994651e+00 3.214639e+00 3.208232e+00 3.166372e+00 3.337196e+00 1.967159e+00 2.833384e-01 2.970670e-01 4.950637e-01 5.099267e-01 8.606543e-01 4.987434e-01 5.223820e-01 5.861384e-01 5.637565e-01 4.949486e-01 4.851667e-01 4.446724e-01 2.513009e-01
<GCONST> 1.271943e+02
<STATE> 3
<MEAN> 39
 -1.285404e+01 -5.105242e-01 -4.312355e+00 -1.618834e+00 -2.279166e+00 -6.485602e-01 -4.046727e+00 -4.975682e+00 -6.690924e+00 -5.140812e+00 -7.607430e+00 -5.202524e+00 7.181349e+01 -1.824696e-01 -2.683264e-01 -2.406433e-01 -1.113264e-01 1.843627e-01 -1.066796e-01 5.726412e-03 1.544796e-01 1.468648e-01 -1.743045e-01 6.962562e-02 -1.050116e-02 -4.566125e-01 1.785922e-01 1.298415e-01 -1.714944e-01 -3.231747e-01 -2.994497e-01 -1.508950e-01 -2.097301e-01 -1.056045e-01 4.233801e-02 1.059758e-01 3.363189e-02 -2.350504e-01 6.472486e-02
<VARIANCE> 39
 4.023408e+01 4.815626e+01 4.811651e+01 4.689892e+01 8.611926e+01 4.466110e+01 5.505212e+01 4.933805e+01 3.897219e+01 4.183284e+01 4.301329e+01 5.057843e+01 1.303194e+02 1.790554e+00 1.941774e+00 2.549128e+00 2.235252e+00 2.856799e+00 2.381827e+00 2.668370e+00 2.648802e+00 2.648202e+00 2.435655e+00 2.572947e+00 2.907617e+00 1.688764e+00 3.445389e-01 2.613636e-01 4.565370e-01 3.328610e-01 6.943890e-01 5.217996e-01 5.387816e-01 6.570473e-01 5.452508e-01 4.873437e-01 5.160470e-01 5.208101e-01 2.170667e-01
<GCONST> 1.238293e+02
<STATE> 4
<MEAN> 39
 -1.573747e+01 -4.182019e+00 -6.727060e+00 -1.263700e+00 2.357580e-02 9.519209e-02 -1.722761e+00 -2.464273e+00 -4.456201e+00 -3.266076e+00 -6.306299e+00 -3.332439e+00 6.689655e+01 3.633007e-01 4.752890e-01 -2.242708e-01 -2.925070e-01 -3.299301e-01 -3.047639e-01 -4.086669e-01 -2.701701e-01 -5.629083e-03 1.467770e-01 1.149453e-01 -3.739836e-01 -2.825271e-01 2.728808e-01 2.692812e-01 8.463001e-02 -1.515723e-01 -2.652546e-01 -1.079013e-01 -1.781278e-01 -1.868381e-01 -9.917568e-02 -3.298046e-02 2.481793e-02 -2.331526e-01 1.399810e-01
<VARIANCE> 39
 4.345249e+01 5.565536e+01 4.066102e+01 4.018658e+01 6.591171e+01 4.095375e+01 5.665172e+01 4.957312e+01 3.730979e+01 4.550650e+01 3.954931e+01 5.102750e+01 1.366924e+02 2.697383e+00 2.781450e+00 2.658034e+00 2.420627e+00 3.794273e+00 2.514952e+00 3.487929e+00 4.009216e+00 3.440867e+00 3.367227e+00 2.884027e+00 4.025153e+00 2.883188e+00 4.499266e-01 4.440932e-01 4.188731e-01 5.387399e-01 5.900615e-01 4.580411e-01 5.842390e-01 7.075555e-01 5.843799e-01 5.960022e-01 5.594774e-01 5.783149e-01 3.656097e-01
<GCONST> 1.289236e+02
<STATE> 5
<MEAN> 39
 -1.140449e+01 1.237867e+00 -5.770771e+00 -3.658397e+00 -3.818852e+00 -2.041442e+00 -5.893153e+00 -5.775754e+00 -6.946138e+00 -4.802922e+00 -7.585731e+00 -6.900606e+00 7.028143e+01 6.497248e-01 4.963264e-01 4.085558e-02 -7.102568e-01 -7.963946e-01 -5.158435e-01 -5.358505e-01 -3.917248e-01 -7.200325e-02 1.351557e-02 3.966765e-01 -6.872243e-01 3.901701e-02 -1.051290e-01 -1.286672e-01 5.558720e-02 -1.148362e-01 -1.158691e-01 1.538128e-02 1.463550e-01 9.580944e-02 2.072067e-01 9.897832e-02 1.074809e-01 1.035365e-01 1.260521e-01
<VARIANCE> 39
 4.336843e+01 4.347106e+01 5.381096e+01 4.679842e+01 7.600893e+01 4.625532e+01 5.698259e+01 5.490818e+01 4.252154e+01 4.682802e+01 3.240950e+01 5.221082e+01 1.399579e+02 4.048773e+00 2.629857e+00 4.447164e+00 3.210267e+00 5.752063e+00 3.157134e+00 3.394306e+00 4.437216e+00 3.021316e+00 3.141260e+00 3.748203e+00 4.379382e+00 4.046620e+00 3.712845e-01 3.691454e-01 4.063512e-01 4.574688e-01 5.463352e-01 4.481009e-01 6.404235e-01 7.220033e-01 5.779745e-01 5.707063e-01 5.392946e-01 4.767745e-01 3.759342e-01
<GCONST> 1.310228e+02
<TRANSP> 6
 0.000000e+00 1.000000e+00 0.000000e+00 0.000000e+00 0.000000e+00 0.000000e+00
 0.000000e+00 1.744012e-19 1.000000e+00 0.000000e+00 0.000000e+00 0.000000e+00
 0.000000e+00 0.000000e+00 1.596077e-01 8.403922e-01 0.000000e+00 0.000000e+00
 0.000000e+00 0.000000e+00 0.000000e+00 5.575492e-01 4.424509e-01 0.000000e+00
 0.000000e+00 0.000000e+00 0.000000e+00 0.000000e+00 2.880609e-13 1.000000e+00
 0.000000e+00 0.000000e+00 0.000000e+00 0.000000e+00 0.000000e+00 0.000000e+00
<ENDHMM>
~h "i"
<BEGINHMM>
<NUMSTATES> 6
<STATE> 2
<MEAN> 39
 -1.363807e+01 7.568592e+00 9.378378e+00 -7.565077e+00 -1.700743e+01 -6.615338e+00 -1.113294e+01 -1.275280e+01 -1.038863e+01 -2.297708e+00 -4.920886e+00 -7.370922e+00 7.242642e+01 2.388935e-01 9.195061e-01 1.722709e+00 -1.387058e+00 -3.295119e+00 6.815334e-02 -1.430768e+00 -1.734941e+00 -1.329594e+00 6.699975e-01 -3.599296e-01 -1.442476e+00 1.332894e+00 -9.890569e-02 -1.155964e-01 -4.070682e-01 1.492752e-01 5.281146e-01 1.653809e-01 2.523923e-01 3.113315e-01 6.365718e-01 1.726976e-01 -9.496115e-02 2.126408e-01 -4.348181e-01
<VARIANCE> 39
 2.749702e+01 3.091719e+01 3.605852e+01 3.320409e+01 6.837366e+01 4.427924e+01 4.139529e+01 5.307695e+01 4.124136e+01 4.761432e+01 3.810567e+01 3.617645e+01 9.737424e+01 4.277683e+00 2.417722e+00 2.854781e+00 2.824112e+00 6.798563e+00 3.578602e+00 5.823602e+00 5.581988e+00 4.760907e+00 4.867197e+00 4.396746e+00 3.811604e+00 2.314312e+00 6.595855e-01 4.648927e-01 5.032900e-01 5.802963e-01 1.379156e+00 6.959855e-01 9.308283e-01 1.195509e+00 9.112130e-01 9.035864e-01 9.600103e-01 6.422107e-01 5.178399e-01
<GCONST> 1.348252e+02
<STATE> 3
<MEAN> 39
 -1.397834e+01 8.585475e+00 9.858730e+00 -1.106446e+01 -2.237609e+01 -6.285079e+00 -1.305281e+01 -1.574696e+01 -8.578648e+00 -5.829357e-01 -7.153689e+00 -9.913627e+00 7.571541e+01 1.286670e-01 -5.138139e-04 -2.725482e-01 6.109335e-02 1.196695e-01 -1.278879e-01 1.964407e-01 1.140701e-02 1.772722e-01 2.372148e-01 -1.839145e-01 1.354756e-01 -1.595342e-01 1.347638e-01 -1.251735e-01 -3.159499e-01 3.962608e-01 7.981402e-01 -7.609377e-02 2.439566e-01 3.793330e-01 1.541177e-01 -2.411349e-01 3.928062e-02 3.100873e-01 -3.872017e-01
<VARIANCE> 39
 1.324032e+01 1.997270e+01 2.874805e+01 2.475401e+01 3.509024e+01 3.366436e+01 3.978347e+01 3.850181e+01 4.001019e+01 4.630449e+01 4.161713e+01 3.137978e+01 7.859315e+01 1.129065e+00 1.539123e+00 1.498593e+00 1.981556e+00 3.829159e+00 2.327776e+00 2.737416e+00 3.267650e+00 2.720067e+00 3.073170e+00 2.952155e+00 2.439176e+00 1.083128e+00 2.459094e-01 2.111892e-01 2.967504e-01 3.330522e-01 9.399328e-01 4.447592e-01 6.110963e-01 6.583882e-01 6.147766e-01 6.854331e-01 6.476700e-01 4.980837e-01 2.506351e-01
<GCONST> 1.170573e+02
<STATE> 4
<MEAN> 39
 -1.417922e+01 1.102984e+01 9.906460e+00 -8.587019e+00 -1.427971e+01 -4.526943e+00 -1.177949e+01 -1.411358e+01 -8.171383e+00 -2.321112e+00 -6.680875e+00 -5.994812e+00 7.026655e+01 3.018498e-01 -1.795589e-01 -6.765569e-01 8.354939e-01 1.398398e+00 -3.193720e-02 5.287023e-01 6.874515e-01 5.043825e-01 -2.902737e-01 -4.426159e-02 4.805850e-01 -1.008891e+00 3.548542e-03 -1.280453e-01 -1.346112e-01 1.274759e-01 1.832729e-01 7.857504e-02 5.404310e-02 1.799358e-01 1.382941e-01 -1.804719e-02 1.266327e-02 -1.355846e-03 -1.704095e-01
<VARIANCE> 39
 2.546003e+01 3.426590e+01 3.527293e+01 3.400643e+01 6.369929e+01 4.273152e+01 4.499439e+01 4.949881e+01 3.764556e+01 4.230687e+01 3.151812e+01 3.590327e+01 9.749291e+01 2.045971e+00 1.742747e+00 2.130948e+00 2.729732e+00 5.848223e+00 2.193791e+00 3.176831e+00 3.536849e+00 2.822564e+00 3.394128e+00 2.689359e+00 2.299906e+00 2.475725e+00 2.064319e-01 2.636067e-01 2.811903e-01 3.571044e-01 6.665595e-01 4.532053e-01 4.916274e-01 6.581733e-01 4.695301e-01 5.264617e-01 4.770372e-01 3.838042e-01 2.185160e-01
<GCONST> 1.209803e+02
<STATE> 5
<MEAN> 39
 -1.215556e+01 7.457675e+00 4.554869e+00 -3.262913e+00 -9.316605e+00 -6.699590e+00 -7.590093e+00 -9.886976e+00 -6.496518e+00 -2.129334e+00 -6.060958e+00 -4.632867e+00 6.559406e+01 7.794394e-02 -5.370575e-01 -1.169089e+00 1.384314e+00 2.765596e+00 5.828024e-01 7.573076e-01 1.609884e+00 1.160953e+00 -6.308677e-01 1.184529e-01 6.668471e-01 -1.899155e+00 -2.712057e-01 -1.535916e-01 1.012005e-01 -3.687058e-01 -4.313787e-01 2.723643e-01 -1.381577e-01 -5.365519e-02 1.134784e-03 1.744696e-01 3.132754e-02 -1.370323e-01 2.755737e-01
<VARIANCE> 39
 4.936435e+01 3.029217e+01 2.757672e+01 3.479215e+01 7.944020e+01 4.201847e+01 4.771048e+01 4.948624e+01 4.034740e+01 4.390382e+01 4.283072e+01 4.007071e+01 1.516418e+02 4.518453e+00 2.803615e+00 2.957513e+00 3.553973e+00 8.081237e+00 3.619580e+00 5.076204e+00 5.921155e+00 3.757400e+00 5.512247e+00 5.019499e+00 3.014133e+00 4.652359e+00 4.598643e-01 4.824226e-01 4.371092e-01 4.518737e-01 8.721942e-01 6.746844e-01 6.788867e-01 8.173327e-01 7.098908e-01 8.788170e-01 7.326759e-01 5.098115e-01 4.070497e-01
<GCONST> 1.340354e+02
<TRANSP> 6
 0.000000e+00 1.000000e+00 0.000000e+00 0.000000e+00 0.000000e+00 0.000000e+00
 0.000000e+00 4.467959e-01 5.532041e-01 0.000000e+00 0.000000e+00 0.000000e+00
 0.000000e+00 0.000000e+00 8.010237e-01 1.989763e-01 0.000000e+00 0.000000e+00
 0.000000e+00 0.000000e+00 0.000000e+00 6.771541e-01 3.228460e-01 0.000000e+00
 0.000000e+00 0.000000e+00 0.000000e+00 0.000000e+00 3.521293e-01 6.478707e-01
 0.000000e+00 0.000000e+00 0.000000e+00 0.000000e+00 0.000000e+00 0.000000e+00
<ENDHMM>
~h "j"
<BEGINHMM>
<NUMSTATES> 6
<STATE> 2
<MEAN> 39
 -6.841194e+00 1.241164e+01 6.696509e+00 -1.713046e+00 -6.240248e+00 -6.553192e+00 -9.117327e+00 -7.558618e+00 -6.326306e+00 -5.880807e+00 -4.675253e+00 -7.238819e+00 6.026202e+01 -1.104733e+00 7.923888e-01 1.911193e-01 -5.381914e-02 1.376485e+00 1.137109e-01 2.867253e-01 1.775478e-01 1.454291e-01 1.873651e-01 -6.183088e-02 2.794615e-01 -9.131040e-02 -1.092719e+00 -4.666692e-01 -1.254148e-01 -5.852102e-01 -1.120692e-01 -9.448268e-02 8.366735e-03 -3.141644e-02 -7.936577e-02 8.919404e-02 6.261330e-02 3.741697e-01 1.175363e+00
<VARIANCE> 39
 2.122729e+01 1.402034e+01 1.132600e+01 2.256288e+01 3.279536e+01 2.748378e+01 1.787447e+01 2.359856e+01 2.845143e+01 2.687455e+01 2.822698e+01 3.400591e+01 8.646910e+01 3.811752e+00 2.404921e+00 2.017250e+00 2.568217e+00 4.345472e+00 3.634654e+00 2.816189e+00 2.413851e+00 2.578299e+00 2.682250e+00 3.125368e+00 3.130508e+00 3.810493e+00 4.461508e-01 1.732831e-01 3.375788e-01 3.708088e-01 9.095382e-01 7.343080e-01 5.196236e-01 5.927023e-01 7.704256e-01 6.126602e-01 6.255547e-01 5.284888e-01 6.000854e-01
<GCONST> 1.192323e+02
<STATE> 3
<MEAN> 39
 -1.578730e+01 1.289663e+01 6.090826e+00 -4.431805e+00 -1.351712e+00 -6.005626e+00 -8.063255e+00 -7.155284e+00 -6.326865e+00 -5.499587e+00 -4.506804e+00 -4.816160e+00 6.465466e+01 -2.343099e+00 -1.753693e-01 2.863318e-01 -1.084716e+00 -1.661413e-01 -1.541400e-01 3.422297e-03 -4.521065e-01 -4.538953e-01 2.420315e-01 1.776936e-01 6.009892e-01 2.415947e+00 4.370952e-01 -4.147682e-01 1.152814e-01 -1.012968e-01 -1.157537e+00 -2.506263e-01 -2.670379e-01 -1.190220e-01 -1.479773e-01 1.414296e-01 1.357055e-01 -1.501916e-01 4.544930e-01
<VARIANCE> 39
 5.897964e+01 2.363539e+01 2.668656e+01 2.595065e+01 3.827826e+01 2.718791e+01 2.643167e+01 2.421003e+01 2.449524e+01 2.285141e+01 2.096095e+01 2.407847e+01 9.886366e+01 4.840394e+00 2.078988e+00 2.348668e+00 2.291314e+00 8.357567e+00 3.314817e+00 2.883922e+00 3.169090e+00 2.825963e+00 2.626584e+00 2.484709e+00 2.540035e+00 2.971668e+00 1.566763e+00 4.868566e-01 4.695215e-01 6.242463e-01 1.349823e+00 7.024538e-01 6.572604e-01 6.682196e-01 5.694026e-01 5.546718e-01 5.661102e-01 5.691516e-01 7.217827e-01
<GCONST> 1.254885e+02
<STATE> 4
<MEAN> 39
 -1.928453e+01 1.231412e+01 8.399747e+00 -7.437314e+00 -7.068926e+00 -7.788667e+00 -8.716364e+00 -1.074375e+01 -8.727843e+00 -4.611837e+00 -4.326650e+00 -3.688983e+00 7.279668e+01 1.293589e+00 -1.728331e+00 8.298308e-01 -6.939542e-01 -4.922589e+00 -1.167099e+00 -1.255606e+00 -3.302076e-01 -7.656290e-01 1.036489e+00 9.364955e-01 -6.063099e-01 2.294329e+00 1.218227e+00 -6.862681e-01 -4.645403e-01 1.728711e-01 -5.890748e-01 -5.789251e-02 -3.271990e-01 7.979465e-01 2.902426e-01 1.248176e-01 1.404373e-01 -6.271163e-01 -4.766441e-01
<VARIANCE> 39
 1.944372e+01 1.679566e+01 2.232796e+01 1.289438e+01 5.233383e+01 3.227098e+01 1.935582e+01 2.164561e+01 2.414209e+01 1.920929e+01 1.746352e+01 1.635864e+01 7.650065e+01 4.264946e+00 1.461325e+00 2.507638e+00 3.248832e+00 7.251327e+00 3.594106e+00 3.939398e+00 3.771277e+00 3.164067e+00 3.031621e+00 2.315458e+00 2.200174e+00 2.056908e+00 5.388628e-01 4.583124e-01 5.566367e-01 3.695442e-01 1.288769e+00 7.365561e-01 5.867627e-01 5.804826e-01 7.841790e-01 5.517217e-01 5.730303e-01 5.394213e-01 2.106202e-01
<GCONST> 1.195477e+02
<STATE> 5
<MEAN> 39
 -1.577909e+01 9.850959e+00 9.456608e+00 -7.201710e+00 -1.415916e+01 -9.943542e+00 -1.098534e+01 -1.054080e+01 -9.526000e+00 -2.826053e+00 -2.627912e+00 -5.038067e+00 7.445567e+01 2.242107e+00 -2.470510e+00 -7.389984e-02 -5.394872e-01 -4.697724e+00 -1.005982e+00 -1.469124e+00 9.187359e-01 -2.843843e-01 1.084290e+00 1.036072e+00 -1.296758e+00 1.688375e+00 4.787369e-01 -3.212116e-01 -8.715189e-01 9.037688e-02 8.158985e-01 2.483283e-01 8.599211e-02 9.337564e-01 5.458039e-01 -1.879192e-01 -2.617022e-01 -3.637118e-01 -5.550475e-01
<VARIANCE> 39
 2.126316e+01 1.665795e+01 1.804479e+01 1.251541e+01 6.988080e+01 3.253856e+01 2.200737e+01 2.655657e+01 2.412090e+01 1.996538e+01 1.858594e+01 1.666202e+01 7.886950e+01 2.179526e+00 2.462795e+00 3.408690e+00 3.192677e+00 5.889186e+00 3.655236e+00 3.932922e+00 3.815804e+00 4.223851e+00 3.565089e+00 2.924525e+00 2.395836e+00 1.999231e+00 6.404923e-01 3.157325e-01 4.092003e-01 2.747351e-01 1.499311e+00 6.406708e-01 8.261708e-01 6.843600e-01 5.717016e-01 6.021658e-01 5.075138e-01 4.345064e-01 1.396730e-01
<GCONST> 1.196032e+02
<TRANSP> 6
 0.000000e+00 1.000000e+00 0.000000e+00 0.000000e+00 0.000000e+00 0.000000e+00
 0.000000e+00 0.000000e+00 1.000000e+00 0.000000e+00 0.000000e+00 0.000000e+00
 0.000000e+00 0.000000e+00 7.519929e-01 2.480071e-01 0.000000e+00 0.000000e+00
 0.000000e+00 0.000000e+00 0.000000e+00 1.247732e-10 1.000000e+00 0.000000e+00
 0.000000e+00 0.000000e+00 0.000000e+00 0.000000e+00 0.000000e+00 1.000000e+00
 0.000000e+00 0.000000e+00 0.000000e+00 0.000000e+00 0.000000e+00 0.000000e+00
<ENDHMM>
~h "k"
<BEGINHMM>
<NUMSTATES> 6
<STATE> 2
<MEAN> 39
 -1.201521e+01 4.924837e+00 -5.026671e-01 -1.950279e+00 -1.902758e+00 -6.374296e+00 -6.718479e+00 -5.369380e+00 -6.090783e+00 -1.074033e+00 -6.325127e+00 -3.749866e+00 6.058661e+01 -1.162964e+00 -3.988124e-01 4.085116e-01 1.346108e+00 1.748323e+00 1.103874e+00 5.934075e-01 6.059487e-01 8.003538e-01 -3.481005e-01 9.149419e-01 1.359680e+00 -2.277694e+00 -2.422504e-01 -5.639522e-01 -5.299650e-01 -3.474453e-01 -2.657507e-01 9.621774e-02 2.356227e-01 3.019031e-01 2.429703e-01 1.522183e-01 1.160057e-01 -8.368235e-02 7.196428e-01
<VARIANCE> 39
 2.913174e+01 2.840281e+01 3.788693e+01 3.805439e+01 6.534774e+01 6.268097e+01 4.725626e+01 6.330780e+01 4.638917e+01 4.119976e+01 4.344794e+01 4.410180e+01 1.270650e+02 3.860709e+00 4.739066e+00 7.926719e+00 4.602784e+00 8.766339e+00 6.718822e+00 4.989261e+00 7.017660e+00 4.696785e+00 5.608127e+00 3.992892e+00 5.264724e+00 9.498586e+00 4.686637e-01 5.339660e-01 3.485662e-02 7.192996e-01 1.136384e+00 1.475230e+00 1.095023e+00 8.559105e-01 9.980962e-01 9.410006e-01 8.607432e-01 6.919962e-01 9.296541e-01
<GCONST> 1.393784e+02
<STATE> 3
<MEAN> 39
 -1.733209e+01 5.183050e-01 -3.770294e+00 -1.993725e+00 2.049229e+00 -4.300041e+00 -3.420854e+00 -1.931967e+00 -3.060675e+00 9.073398e-01 -3.722536e+00 3.653524e-01 5.950779e+01 -7.376967e-01 -5.214624e-01 -8.466555e-01 -4.829751e-01 5.240489e-01 -4.579706e-01 1.114234e-01 5.009885e-01 1.535840e-01 3.591691e-01 -1.520283e-01 4.196810e-01 9.698743e-01 4.537657e-01 2.415656e-01 -3.599339e-02 -3.232667e-01 -5.742681e-01 -3.771521e-01 -2.428046e-01 -1.605514e-01 -3.249180e-01 -1.018460e-01 -2.464151e-01 -5.371805e-01 6.068665e-01
<VARIANCE> 39
 3.288634e+01 3.426740e+01 5.513252e+01 4.157363e+01 5.586464e+01 5.471304e+01 3.989372e+01 3.989768e+01 3.633162e+01 3.537623e+01 3.665025e+01 3.701958e+01 1.418888e+02 4.108792e+00 4.796525e+00 5.480071e+00 4.767005e+00 6.632872e+00 8.061275e+00 5.408704e+00 5.028673e+00 5.093886e+00 4.319245e+00 5.598670e+00 4.549920e+00 1.054847e+01 7.805306e-01 9.647946e-01 1.271972e+00 9.480011e-01 1.466780e+00 1.349455e+00 1.023766e+00 9.506958e-01 8.876531e-01 1.006343e+00 9.420644e-01 9.208867e-01 1.627852e+00
<GCONST> 1.441683e+02
<STATE> 4
<MEAN> 39
 -1.752182e+01 2.647988e+00 -4.325668e+00 -3.814301e+00 1.888534e+00 -8.213314e+00 -5.348083e+00 -1.683009e+00 -4.505404e+00 7.010518e-01 -6.840054e+00 -1.035949e+00 6.499908e+01 2.118728e+00 9.578928e-01 1.947249e-02 -1.115942e+00 -2.721928e+00 -1.125020e+00 -7.041552e-01 -3.716757e-01 -1.280786e+00 -9.070826e-01 -3.618920e-01 -2.494427e+00 1.688159e+00 5.272343e-01 -3.487838e-01 -1.049908e-01 -2.860008e-01 -8.273373e-01 3.507863e-01 1.645292e-01 -1.273960e-02 2.063543e-02 -1.010602e-01 3.624220e-01 -6.180273e-01 2.598511e-01
<VARIANCE> 39
 5.056396e+01 2.962381e+01 5.543862e+01 3.781891e+01 8.171021e+01 5.041228e+01 4.505599e+01 5.234295e+01 3.947038e+01 4.468879e+01 4.230747e+01 4.150252e+01 1.146971e+02 5.656259e+00 4.133929e+00 4.758880e+00 3.524559e+00 8.954565e+00 5.894628e+00 5.701593e+00 5.956070e+00 5.269729e+00 4.081743e+00 4.252924e+00 7.243584e+00 4.303302e+00 7.251448e-01 4.914068e-01 7.327473e-01 5.002113e-01 1.503172e+00 9.816709e-01 9.011712e-01 8.673612e-01 7.845744e-01 9.883379e-01 8.777309e-01 9.374200e-01 9.236044e-01
<GCONST> 1.414116e+02
<STATE> 5
<MEAN> 39
 -1.275130e+01 3.838569e+00 -4.867732e+00 -6.126486e+00 -3.466341e+00 -1.065331e+01 -6.998019e+00 -3.630903e+00 -7.495749e+00 -1.009852e+00 -7.261029e+00 -5.016153e+00 6.767612e+01 2.221487e+00 -7.444058e-02 -4.327504e-01 -1.462079e+00 -3.206692e+00 -6.207978e-01 -3.627124e-01 -1.442412e-01 -9.146603e-01 -6.979268e-01 1.859498e-01 -2.864339e+00 2.348319e+00 -1.769629e-01 -6.029075e-01 -2.234728e-01 -2.588815e-02 3.621565e-02 5.554941e-01 3.317124e-01 2.127939e-01 4.064321e-01 1.130346e-01 2.991174e-01 5.734983e-02 1.274085e-01
<VARIANCE> 39
 5.908612e+01 3.430934e+01 6.021277e+01 4.433186e+01 7.859756e+01 7.304988e+01 4.860359e+01 6.222231e+01 4.443643e+01 3.703078e+01 4.386481e+01 4.933841e+01 1.154246e+02 5.543230e+00 2.604458e+00 4.292683e+00 2.948508e+00 1.021303e+01 4.510881e+00 5.345839e+00 5.528733e+00 5.120201e+00 4.598026e+00 3.248039e+00 9.071215e+00 3.857624e+00 6.375870e-01 7.092573e-01 6.270278e-01 5.461956e-01 1.143307e+00 1.175899e+00 8.373953e-01 8.694646e-01 7.963149e-01 7.985168e-01 8.809204e-01 6.709556e-01 6.769639e-01
<GCONST> 1.407466e+02
<TRANSP> 6
 0.000000e+00 1.000000e+00 0.000000e+00 0.000000e+00 0.000000e+00 0.000000e+00
 0.000000e+00 0.000000e+00 1.000000e+00 0.000000e+00 0.000000e+00 0.000000e+00
 0.000000e+00 0.000000e+00 8.152221e-01 1.847779e-01 0.000000e+00 0.000000e+00
 0.000000e+00 0.000000e+00 0.000000e+00 2.710610e-03 9.972894e-01 0.000000e+00
 0.000000e+00 0.000000e+00 0.000000e+00 0.000000e+00 0.000000e+00 1.000000e+00
 0.000000e+00 0.000000e+00 0.000000e+00 0.000000e+00 0.000000e+00 0.000000e+00
<ENDHMM>
~h "l"
<BEGINHMM>
<NUMSTATES> 6
<STATE> 2
<MEAN> 39
 -5.637909e+00 -1.248762e+00 -4.096772e+00 -7.945895e+00 -1.527732e+01 -5.424355e+00 -1.236646e+01 -1.226050e+01 9.032797e-01 1.651635e+00 -1.066791e+01 -7.488298e+00 7.504868e+01 3.306113e-01 -2.586867e-02 4.873407e-01 5.876913e-01 -4.913183e-01 2.206564e-02 -7.525982e-01 -1.291737e+00 4.177842e-01 7.493846e-01 -2.199387e-01 4.294750e-01 -4.604916e-01 -1.550600e-01 1.162000e-01 -1.487942e-01 -5.211482e-02 3.855687e-01 -1.529603e-01 2.724125e-01 3.375108e-01 -3.126898e-01 -1.202703e-01 8.685131e-02 -2.217624e-01 3.416955e-02
<VARIANCE> 39
 2.451963e+01 2.620945e+01 5.216602e+01 4.705633e+01 6.710633e+01 5.282834e+01 6.897620e+01 7.302170e+01 6.620327e+01 8.061569e+01 5.465325e+01 4.436826e+01 9.065195e+01 9.873221e-01 1.352736e+00 1.843028e+00 2.742109e+00 3.227340e+00 2.824767e+00 3.595445e+00 4.268320e+00 2.671920e+00 3.672669e+00 3.135008e+00 2.616662e+00 9.815737e-01 1.654804e-01 2.409493e-01 2.803484e-01 4.856643e-01 7.573521e-01 4.884169e-01 6.616650e-01 8.205248e-01 6.736833e-01 6.359885e-01 5.402637e-01 4.217971e-01 1.440277e-01
<GCONST> 1.236639e+02
<STATE> 3
<MEAN> 39
 -5.315289e+00 -1.170478e+00 -4.093970e+00 -5.176977e+00 -1.584735e+01 -7.656995e+00 -1.337146e+01 -1.565268e+01 1.861967e+00 3.808877e+00 -1.093731e+01 -7.064521e+00 7.370844e+01 6.828048e-04 3.454731e-01 2.283268e-01 3.518747e-01 4.511220e-01 -4.529052e-01 -3.536403e-01 -2.405149e-01 -5.161505e-01 3.678272e-01 5.211865e-02 -1.800221e-01 -3.809977e-01 -2.734860e-01 1.169718e-01 -2.533880e-01 -3.496283e-01 4.843989e-01 5.847088e-02 4.841534e-01 8.384105e-01 -4.039827e-01 -6.239296e-01 1.953030e-01 -1.943272e-01 1.799052e-01
<VARIANCE> 39
 2.564889e+01 2.318717e+01 5.653833e+01 4.481301e+01 5.176918e+01 4.981361e+01 7.289348e+01 7.585921e+01 6.108981e+01 7.035419e+01 5.259205e+01 4.940107e+01 9.349036e+01 1.164633e+00 1.664414e+00 2.202014e+00 3.169216e+00 3.190903e+00 3.386683e+00 3.761899e+00 4.123680e+00 4.550066e+00 3.807992e+00 3.484307e+00 2.725141e+00 1.480632e+00 2.487037e-01 2.936391e-01 3.869938e-01 6.153753e-01 6.849614e-01 6.298680e-01 1.073288e+00 1.010283e+00 7.067618e-01 8.293360e-01 8.840554e-01 6.948639e-01 2.487184e-01
<GCONST> 1.291397e+02
<STATE> 4
<MEAN> 39
 -5.950277e+00 7.252952e-02 -3.013170e+00 -4.402382e+00 -1.364718e+01 -7.322074e+00 -1.335910e+01 -1.426418e+01 -1.028931e+00 2.573467e+00 -9.835311e+00 -7.342187e+00 7.224880e+01 -1.756165e-01 3.133516e-01 -2.000877e-01 -3.456700e-01 8.186053e-01 -3.398305e-01 2.884209e-01 7.964483e-01 -8.048134e-01 -6.689618e-01 2.271326e-01 -4.133582e-01 2.358199e-01 -2.904312e-01 -9.198460e-02 -3.152053e-01 -3.856447e-01 2.106184e-01 1.128946e-01 5.844902e-01 7.891248e-01 -4.304537e-02 -4.221623e-01 3.742651e-02 -1.139070e-01 3.324351e-01
<VARIANCE> 39
 2.982387e+01 2.746441e+01 5.284289e+01 4.921630e+01 5.679546e+01 5.043967e+01 6.952200e+01 7.178513e+01 6.042197e+01 6.504386e+01 4.943463e+01 4.472153e+01 1.106628e+02 2.882144e+00 2.280691e+00 2.789363e+00 3.504773e+00 5.248760e+00 3.990121e+00 4.970048e+00 6.395300e+00 5.084540e+00 4.871609e+00 4.443840e+00 3.164811e+00 3.261724e+00 3.026233e-01 3.244884e-01 3.823501e-01 6.837041e-01 7.412778e-01 6.566666e-01 1.187567e+00 8.835186e-01 6.947005e-01 9.400944e-01 9.239303e-01 6.175475e-01 2.860229e-01
<GCONST> 1.345346e+02
<STATE> 5
<MEAN> 39
 -6.427004e+00 -1.669840e-01 -4.710773e+00 -6.910356e+00 -1.298072e+01 -8.474980e+00 -1.375040e+01 -1.057133e+01 -6.230997e-01 -9.686700e-02 -9.515314e+00 -8.636657e+00 7.425124e+01 -7.145520e-01 2.992620e-03 -6.798407e-01 -6.834325e-01 8.794342e-01 3.042398e-02 1.566557e+00 1.862339e+00 -5.297057e-01 -9.745591e-01 1.165516e-01 -2.602430e-01 5.184030e-01 -1.791175e-01 -3.646177e-02 -8.925586e-02 -1.150040e-01 -6.345765e-02 2.277450e-01 3.931695e-01 1.713981e-01 -8.784346e-02 -9.267951e-02 -9.387772e-02 -2.698117e-02 1.209196e-01
<VARIANCE> 39
 2.079389e+01 3.040286e+01 5.552113e+01 3.995355e+01 5.212274e+01 5.045850e+01 6.129467e+01 6.371070e+01 7.090794e+01 7.667034e+01 4.983525e+01 4.625822e+01 1.063224e+02 1.334369e+00 2.106961e+00 3.093312e+00 3.610078e+00 3.822868e+00 3.676337e+00 5.660923e+00 5.747026e+00 4.538351e+00 5.105912e+00 5.561697e+00 3.519453e+00 2.430090e+00 1.995520e-01 2.272035e-01 3.243151e-01 4.970870e-01 9.137335e-01 6.286792e-01 9.152904e-01 9.082164e-01 8.896470e-01 1.035246e+00 7.600806e-01 4.639951e-01 1.977128e-01
<GCONST> 1.311598e+02
<TRANSP> 6
 0.000000e+00 1.000000e+00 0.000000e+00 0.000000e+00 0.000000e+00 0.000000e+00
 0.000000e+00 5.284662e-01 4.715338e-01 0.000000e+00 0.000000e+00 0.000000e+00
 0.000000e+00 0.000000e+00 2.876211e-01 7.123789e-01 0.000000e+00 0.000000e+00
 0.000000e+00 0.000000e+00 0.000000e+00 1.452458e-01 8.547542e-01 0.000000e+00
 0.000000e+00 0.000000e+00 0.000000e+00 0.000000e+00 4.131831e-01 5.868169e-01
 0.000000e+00 0.000000e+00 0.000000e+00 0.000000e+00 0.000000e+00 0.000000e+00
<ENDHMM>
~h "m"
<BEGINHMM>
<NUMSTATES> 6
<STATE> 2
<MEAN> 39
 -3.896193e+00 2.567695e+00 4.041801e+00 -4.773654e+00 -1.193772e+01 -3.809896e+00 -1.127479e+01 -1.459847e+01 -8.649257e+00 -4.248739e+00 -7.135139e+00 -1.039877e+01 6.905381e+01 -1.315819e-01 2.814634e-01 2.270019e+00 1.414426e+00 -1.588770e-01 7.485577e-02 -3.736849e-01 -1.559138e+00 -5.145555e-01 -4.894874e-01 -6.554892e-01 6.837069e-01 -6.025259e-01 -3.226359e-01 -2.556258e-01 -5.307761e-01 -3.276057e-01 9.056242e-02 -3.350129e-02 1.277328e-01 5.562707e-01 3.441753e-01 -6.978400e-02 3.974324e-02 -1.381735e-01 3.564000e-01
<VARIANCE> 39
 1.797035e+01 1.768206e+01 3.824650e+01 3.863996e+01 4.109445e+01 3.640728e+01 4.034236e+01 4.731581e+01 3.333763e+01 5.829932e+01 5.195024e+01 4.347098e+01 8.758526e+01 8.873420e-01 1.606230e+00 5.339343e+00 3.485703e+00 2.813384e+00 2.688562e+00 2.914228e+00 4.452133e+00 3.536712e+00 4.219368e+00 4.833055e+00 4.419755e+00 2.009699e+00 2.038798e-01 2.232802e-01 6.352869e-01 4.946915e-01 6.919137e-01 4.681857e-01 5.871970e-01 7.811742e-01 6.085598e-01 6.277944e-01 7.109303e-01 5.741948e-01 2.235036e-01
<GCONST> 1.241858e+02
<STATE> 3
<MEAN> 39
 -4.289512e+00 2.029134e+00 6.973649e+00 -4.570665e+00 -1.331375e+01 -2.780972e+00 -1.254788e+01 -1.703987e+01 -8.237942e+00 -6.773386e+00 -8.640036e+00 -1.030627e+01 7.099950e+01 -2.291327e-01 -1.422308e-01 2.740253e-01 2.983711e-02 2.647525e-02 7.659561e-02 -1.815403e-02 -4.561482e-02 2.376184e-02 -4.752740e-01 -1.184422e-01 2.425309e-01 1.421135e-01 -1.337932e-02 -1.161231e-01 -8.190224e-01 -5.159799e-01 1.024315e-01 -1.371983e-02 1.942364e-01 6.163948e-01 1.815741e-01 2.237687e-01 2.019578e-01 -1.774355e-01 2.711025e-01
<VARIANCE> 39
 1.053400e+01 1.461880e+01 2.845209e+01 2.831831e+01 3.164043e+01 3.292033e+01 3.737110e+01 3.856991e+01 3.745320e+01 6.929182e+01 5.727500e+01 4.097797e+01 7.545982e+01 3.268101e-01 6.504902e-01 2.405336e+00 1.549064e+00 1.824960e+00 1.579967e+00 1.640404e+00 2.284093e+00 2.163802e+00 2.552174e+00 2.627746e+00 2.184643e+00 7.704499e-01 1.117925e-01 1.555648e-01 4.622208e-01 4.170564e-01 3.702864e-01 3.614847e-01 4.204873e-01 5.613278e-01 5.101256e-01 5.640229e-01 5.873150e-01 5.415867e-01 1.402616e-01
<GCONST> 1.094078e+02
<STATE> 4
<MEAN> 39
 -4.946199e+00 2.091645e+00 5.566962e+00 -4.004921e+00 -1.143686e+01 -3.307333e+00 -1.142376e+01 -1.522425e+01 -8.594382e+00 -6.329629e+00 -7.656731e+00 -8.849772e+00 6.905125e+01 -7.470019e-02 -3.522563e-01 -1.499561e+00 -1.204614e+00 9.830251e-02 7.528876e-02 4.515358e-01 1.317945e+00 5.356434e-01 3.529142e-01 3.646568e-01 -3.043241e-01 6.997825e-01 -3.537961e-02 -9.198845e-02 -6.376280e-01 -3.974404e-01 3.951208e-02 4.402322e-02 1.050770e-01 4.952638e-01 3.149157e-01 2.036503e-01 4.955792e-02 -3.727567e-01 1.929558e-01
<VARIANCE> 39
 1.711975e+01 1.858431e+01 3.249274e+01 3.245840e+01 3.906609e+01 3.504377e+01 3.660272e+01 4.893498e+01 3.773246e+01 6.131975e+01 5.251092e+01 4.451603e+01 8.746169e+01 8.863161e-01 1.067291e+00 4.075610e+00 2.846078e+00 2.273349e+00 1.989666e+00 2.264460e+00 3.171405e+00 2.684098e+00 3.345171e+00 3.132100e+00 2.773872e+00 1.841745e+00 1.607955e-01 1.960886e-01 5.064086e-01 3.644265e-01 4.493178e-01 3.721305e-01 3.555711e-01 5.962178e-01 5.921402e-01 5.276245e-01 5.777802e-01 5.867465e-01 1.829380e-01
<GCONST> 1.175015e+02
<STATE> 5
<MEAN> 39
 -4.879553e+00 6.773744e-01 4.008892e-01 -8.243120e+00 -1.134607e+01 -3.003587e+00 -1.031571e+01 -1.183262e+01 -6.829464e+00 -5.452690e+00 -6.299657e+00 -1.065753e+01 7.190028e+01 -2.817328e-01 -5.727387e-01 -2.399203e+00 -1.463532e+00 5.104092e-01 1.936256e-01 3.967935e-01 1.858607e+00 1.008864e+00 6.059054e-01 2.148197e-01 -1.214600e+00 9.740399e-01 -1.418201e-01 2.803062e-02 3.369272e-02 2.560810e-01 6.683963e-02 -7.278710e-02 -7.022686e-02 1.634743e-02 1.276757e-01 -7.681329e-02 -2.409530e-01 -9.644003e-02 -4.251437e-02
<VARIANCE> 39
 1.951230e+01 2.253673e+01 5.700579e+01 3.894910e+01 3.806823e+01 3.597095e+01 3.178742e+01 3.783023e+01 3.467489e+01 5.209203e+01 4.423122e+01 4.360057e+01 1.023872e+02 1.329150e+00 1.795655e+00 5.957183e+00 3.552809e+00 3.143488e+00 2.819434e+00 2.560867e+00 4.141559e+00 3.798761e+00 3.633589e+00 3.860523e+00 4.546279e+00 2.337591e+00 1.938829e-01 2.066813e-01 5.843811e-01 5.921318e-01 5.071176e-01 4.906239e-01 4.159783e-01 5.588931e-01 5.658954e-01 5.871142e-01 6.894228e-01 6.141732e-01 2.198258e-01
<GCONST> 1.236755e+02
<TRANSP> 6
 0.000000e+00 1.000000e+00 0.000000e+00 0.000000e+00 0.000000e+00 0.000000e+00
 0.000000e+00 7.733712e-02 9.226629e-01 0.000000e+00 0.000000e+00 0.000000e+00
 0.000000e+00 0.000000e+00 6.443334e-01 3.556666e-01 0.000000e+00 0.000000e+00
 0.000000e+00 0.000000e+00 0.000000e+00 1.238569e-01 8.761431e-01 0.000000e+00
 0.000000e+00 0.000000e+00 0.000000e+00 0.000000e+00 2.380237e-01 7.619762e-01
 0.000000e+00 0.000000e+00 0.000000e+00 0.000000e+00 0.000000e+00 0.000000e+00
<ENDHMM>
~h "n"
<BEGINHMM>
<NUMSTATES> 6
<STATE> 2
<MEAN> 39
 -3.711555e+00 3.408710e+00 4.704618e+00 -3.648645e+00 -1.622627e+01 -1.028068e+01 -1.054924e+01 -1.323137e+01 -1.380917e+00 -4.456407e+00 -1.411937e+01 -9.112536e+00 7.067977e+01 7.634504e-01 1.350501e+00 2.393290e+00 7.511593e-01 -8.437595e-01 -2.189143e-01 -5.391594e-02 -2.315089e+00 1.138537e-01 2.979123e-01 -3.293771e-01 -4.216119e-01 -1.595435e+00 -3.770931e-01 -2.821510e-01 -6.382740e-01 -4.492790e-01 1.712076e-01 2.120731e-01 2.089889e-01 7.921067e-01 -1.718037e-01 -1.305477e-01 2.252448e-01 -5.482749e-02 4.491248e-01
<VARIANCE> 39
 1.236364e+01 1.972428e+01 2.772886e+01 2.228960e+01 3.399806e+01 3.417432e+01 4.060448e+01 3.906787e+01 4.244004e+01 6.847048e+01 4.179156e+01 3.435551e+01 7.893993e+01 1.096813e+00 1.857441e+00 3.865830e+00 2.163885e+00 3.439332e+00 3.326773e+00 3.067503e+00 6.130278e+00 4.106235e+00 5.698878e+00 4.217461e+00 2.839598e+00 1.573676e+00 1.818322e-01 2.671721e-01 4.813316e-01 3.336055e-01 6.717272e-01 4.535183e-01 5.713561e-01 6.813746e-01 5.825704e-01 7.254246e-01 5.296795e-01 4.255111e-01 1.609200e-01
<GCONST> 1.207725e+02
<STATE> 3
<MEAN> 39
 -3.248122e+00 4.333216e+00 7.236760e+00 -4.148840e+00 -1.847312e+01 -8.591747e+00 -1.065557e+01 -1.503082e+01 -1.260348e-01 -5.092844e+00 -1.528971e+01 -8.769915e+00 7.070351e+01 -3.884313e-02 4.186528e-01 3.901943e-01 -1.986878e-02 1.158069e-01 2.246036e-01 -9.730342e-02 -1.841945e-01 -3.736375e-01 -1.513773e-01 1.271956e-01 2.327979e-01 -4.880012e-01 -3.036144e-01 -1.778459e-01 -5.476732e-01 -2.011774e-01 5.682283e-01 2.329904e-02 -2.937504e-02 6.139150e-01 -2.973259e-01 -5.173736e-02 2.386971e-01 6.792396e-02 2.600610e-01
<VARIANCE> 39
 7.532973e+00 1.386372e+01 1.948839e+01 1.862704e+01 2.206705e+01 2.893909e+01 3.394194e+01 2.797269e+01 3.416056e+01 6.994769e+01 3.917054e+01 3.283471e+01 6.870449e+01 4.369345e-01 9.151701e-01 1.580661e+00 1.012286e+00 2.079377e+00 1.513744e+00 1.613016e+00 2.150947e+00 2.446011e+00 2.222239e+00 1.969503e+00 1.524314e+00 7.540513e-01 1.770252e-01 2.107159e-01 4.605056e-01 3.110001e-01 4.957035e-01 3.759722e-01 3.948799e-01 6.650537e-01 5.222058e-01 6.698478e-01 5.107852e-01 4.209344e-01 1.784117e-01
<GCONST> 1.065972e+02
<STATE> 4
<MEAN> 39
 -3.397015e+00 5.828510e+00 6.300995e+00 -3.326575e+00 -1.567233e+01 -8.221292e+00 -1.114742e+01 -1.296715e+01 -3.458038e+00 -7.007925e+00 -1.293713e+01 -7.530292e+00 6.730840e+01 -8.007512e-01 3.540948e-01 -3.145319e-01 -3.720485e-01 1.780944e+00 1.176149e-02 -8.310500e-02 7.944549e-01 -1.171484e+00 2.371578e-02 7.943437e-01 3.140009e-02 -2.128620e-01 -4.307058e-01 -1.612298e-01 -3.698895e-01 -1.267861e-01 4.354831e-01 1.211648e-01 1.966394e-01 3.575940e-01 6.103856e-02 1.223259e-01 1.664891e-01 3.192815e-02 1.199763e-01
<VARIANCE> 39
 9.933121e+00 1.886918e+01 2.147709e+01 2.451166e+01 3.205858e+01 3.449190e+01 4.046021e+01 3.931330e+01 3.987883e+01 7.853205e+01 4.162490e+01 4.157544e+01 8.421383e+01 1.114731e+00 1.616475e+00 2.423074e+00 1.887677e+00 3.587749e+00 2.528222e+00 2.560124e+00 3.187833e+00 3.186393e+00 3.350053e+00 2.988572e+00 2.689010e+00 1.849896e+00 2.120430e-01 2.399017e-01 4.194053e-01 3.507922e-01 4.559897e-01 4.356432e-01 4.958067e-01 6.115373e-01 5.616021e-01 6.209295e-01 5.930696e-01 4.729359e-01 1.849659e-01
<GCONST> 1.172596e+02
<STATE> 5
<MEAN> 39
 -8.463965e+00 5.796781e+00 4.880913e+00 -4.488245e+00 -9.828936e+00 -7.418347e+00 -9.333140e+00 -1.053260e+01 -5.381400e+00 -4.563506e+00 -1.043213e+01 -6.538832e+00 6.633186e+01 -1.446651e+00 -3.782297e-01 -9.583240e-01 -1.640904e-01 1.704211e+00 8.204704e-01 6.051139e-01 1.307362e+00 -4.943229e-02 3.811822e-01 1.161833e+00 4.975675e-01 -4.426565e-01 -9.042449e-02 -2.600524e-01 -2.851636e-01 5.967820e-02 -1.855424e-01 1.911188e-01 1.963985e-01 1.261188e-01 3.193606e-01 7.395270e-02 1.012624e-01 1.006786e-01 5.949943e-02
<VARIANCE> 39
 2.637851e+01 3.091800e+01 4.244398e+01 3.953320e+01 6.758051e+01 4.650966e+01 4.533703e+01 4.547733e+01 4.726943e+01 4.377279e+01 4.412484e+01 5.315302e+01 1.164448e+02 2.424813e+00 2.839172e+00 3.471104e+00 2.956967e+00 5.181775e+00 3.625199e+00 3.614033e+00 4.252265e+00 4.478180e+00 4.379099e+00 4.318007e+00 3.800077e+00 3.324141e+00 3.390344e-01 4.169096e-01 5.034453e-01 4.735470e-01 7.532744e-01 6.651542e-01 6.590116e-01 6.406350e-01 8.697260e-01 6.287932e-01 6.889176e-01 6.825181e-01 3.215684e-01
<GCONST> 1.311052e+02
<TRANSP> 6
 0.000000e+00 1.000000e+00 0.000000e+00 0.000000e+00 0.000000e+00 0.000000e+00
 0.000000e+00 2.897517e-01 7.102483e-01 0.000000e+00 0.000000e+00 0.000000e+00
 0.000000e+00 0.000000e+00 6.872103e-01 3.127898e-01 0.000000e+00 0.000000e+00
 0.000000e+00 0.000000e+00 0.000000e+00 2.653713e-01 7.346287e-01 0.000000e+00
 0.000000e+00 0.000000e+00 0.000000e+00 0.000000e+00 5.798028e-01 4.201972e-01
 0.000000e+00 0.000000e+00 0.000000e+00 0.000000e+00 0.000000e+00 0.000000e+00
<ENDHMM>
~h "o"
<BEGINHMM>
<NUMSTATES> 6
<STATE> 2
<MEAN> 39
 -5.947415e+00 1.902034e+00 -1.046558e+01 -1.334302e+01 -1.044224e+01 -4.465102e+00 -1.004962e+01 -8.505431e+00 -5.274486e+00 1.254848e+00 -2.853400e+00 -1.133677e+01 7.461842e+01 1.195485e+00 -2.874717e-01 -1.412220e+00 -1.730105e+00 -1.094653e+00 7.028576e-01 -2.552130e-01 1.594240e-01 -2.444460e-01 -5.869015e-02 7.982030e-01 -1.773909e+00 1.499107e+00 -4.428854e-01 -3.154032e-02 3.748419e-01 3.126273e-01 3.933190e-01 1.808540e-01 3.773622e-01 2.443055e-01 6.424724e-02 -1.319822e-01 1.052658e-01 3.809988e-01 -3.776702e-01
<VARIANCE> 39
 3.268620e+01 2.726393e+01 5.173055e+01 5.042929e+01 7.714664e+01 4.850409e+01 7.925180e+01 6.388877e+01 6.830836e+01 5.401493e+01 4.775579e+01 7.302752e+01 8.603036e+01 3.389883e+00 2.465098e+00 3.471475e+00 3.587692e+00 7.841105e+00 4.421384e+00 4.453307e+00 4.526482e+00 5.158938e+00 4.664077e+00 3.943795e+00 5.947875e+00 2.654250e+00 6.737294e-01 4.942249e-01 5.482840e-01 8.513310e-01 1.445739e+00 7.672542e-01 8.672026e-01 8.312520e-01 1.006728e+00 8.030922e-01 7.960722e-01 1.217839e+00 5.148638e-01
<GCONST> 1.394323e+02
<STATE> 3
<MEAN> 39
 -4.504694e+00 1.690686e+00 -1.128208e+01 -1.666514e+01 -1.269986e+01 -3.065283e+00 -8.441546e+00 -6.517150e+00 -5.878096e+00 -2.568091e+00 -1.502068e+00 -1.058426e+01 8.005588e+01 2.796604e-02 3.788846e-02 -2.118789e-01 -3.766466e-01 2.966478e-02 4.256557e-01 2.443614e-01 2.294290e-01 -1.106799e-01 -2.482106e-01 2.157368e-01 -1.048811e-01 5.014576e-02 -5.017326e-02 1.047732e-01 2.386544e-01 3.222599e-01 1.411421e-01 -7.053231e-02 -6.975456e-02 -2.660564e-01 4.979594e-02 1.267312e-01 -2.822651e-01 1.065655e-01 -2.719566e-01
<VARIANCE> 39
 1.291827e+01 3.907165e+01 3.370247e+01 3.128059e+01 2.821755e+01 5.732109e+01 5.368338e+01 4.734031e+01 3.750031e+01 5.846072e+01 4.258767e+01 4.441031e+01 7.930724e+01 3.587553e-01 1.164907e+00 9.773688e-01 1.523563e+00 1.645437e+00 2.037525e+00 1.908866e+00 2.463277e+00 2.603878e+00 2.374876e+00 2.386191e+00 2.257456e+00 6.504355e-01 1.093601e-01 2.161552e-01 2.262176e-01 3.436848e-01 4.479094e-01 4.620247e-01 3.816907e-01 4.666467e-01 3.971040e-01 4.275702e-01 4.600087e-01 4.968730e-01 1.271925e-01
<GCONST> 1.101502e+02
<STATE> 4
<MEAN> 39
 -2.828059e+00 2.408245e+00 -1.156230e+01 -1.941225e+01 -1.167818e+01 4.502178e-01 -8.229442e+00 -6.991994e+00 -7.734550e+00 7.757783e-02 -2.559780e-01 -1.271416e+01 7.481056e+01 -2.932531e-02 9.019437e-02 4.355535e-02 3.277101e-01 2.134260e-01 1.407371e-01 3.027822e-02 -2.922659e-01 6.808475e-02 1.965209e-01 -3.481420e-01 -1.759744e-01 -2.677021e-01 -9.559332e-02 3.325921e-02 3.683136e-01 6.282162e-01 8.431726e-02 -3.545739e-01 -9.606153e-02 -2.360570e-01 2.454416e-01 1.451280e-02 -4.583172e-01 2.315919e-01 -2.764526e-01
<VARIANCE> 39
 1.476957e+01 3.006352e+01 4.100872e+01 4.009712e+01 3.521753e+01 4.428129e+01 5.271585e+01 4.233831e+01 4.882078e+01 6.246274e+01 5.141637e+01 5.957689e+01 7.437925e+01 3.582130e-01 1.183604e+00 1.427450e+00 2.449696e+00 1.972396e+00 2.661742e+00 2.552126e+00 2.981886e+00 3.414978e+00 3.160821e+00 3.244096e+00 2.671064e+00 8.824187e-01 8.171803e-02 1.803087e-01 2.362044e-01 3.013025e-01 5.291835e-01 4.176687e-01 4.308782e-01 5.820128e-01 5.393139e-01 4.801023e-01 5.032075e-01 5.037630e-01 1.326070e-01
<GCONST> 1.145979e+02
<STATE> 5
<MEAN> 39
 -5.848341e+00 2.305599e+00 -9.486295e+00 -1.212856e+01 -1.054323e+01 -2.686739e+00 -8.463449e+00 -8.421097e+00 -4.448686e+00 -8.800993e-01 -4.318353e+00 -1.143608e+01 7.303784e+01 -4.198501e-01 1.636730e-02 1.406953e+00 1.871137e+00 4.188040e-01 -5.441500e-01 1.093391e-02 -4.408091e-01 6.449041e-01 -5.087363e-02 -1.198210e+00 1.064719e+00 -1.137266e+00 -8.643118e-02 4.118704e-02 2.942235e-01 2.203514e-01 3.302848e-02 -2.708266e-02 4.625497e-02 -5.372150e-02 2.451287e-02 -1.099587e-01 2.198986e-02 2.138048e-01 -2.175961e-01
<VARIANCE> 39
 2.579116e+01 3.656564e+01 7.049144e+01 5.698841e+01 6.468759e+01 6.110096e+01 5.687068e+01 5.889626e+01 7.778589e+01 7.608672e+01 6.232988e+01 7.558508e+01 1.208060e+02 2.107264e+00 2.635132e+00 4.125553e+00 4.494143e+00 6.118589e+00 4.063770e+00 3.842515e+00 5.749083e+00 5.736430e+00 4.899573e+00 5.415276e+00 4.815050e+00 3.009299e+00 3.181835e-01 4.016557e-01 5.850862e-01 8.015314e-01 8.971391e-01 7.093320e-01 6.658482e-01 9.327800e-01 9.801161e-01 8.742449e-01 9.527918e-01 8.611804e-01 3.784747e-01
<GCONST> 1.387360e+02
<TRANSP> 6
 0.000000e+00 1.000000e+00 0.000000e+00 0.000000e+00 0.000000e+00 0.000000e+00
 0.000000e+00 6.243280e-01 3.756720e-01 0.000000e+00 0.000000e+00 0.000000e+00
 0.000000e+00 0.000000e+00 6.699739e-01 3.300262e-01 0.000000e+00 0.000000e+00
 0.000000e+00 0.000000e+00 0.000000e+00 4.290030e-01 5.709971e-01 0.000000e+00
 0.000000e+00 0.000000e+00 0.000000e+00 0.000000e+00 7.905284e-01 2.094716e-01
 0.000000e+00 0.000000e+00 0.000000e+00 0.000000e+00 0.000000e+00 0.000000e+00
<ENDHMM>
~h "p"
<BEGINHMM>
<NUMSTATES> 6
<STATE> 2
<MEAN> 39
 -1.246368e+01 5.749181e+00 2.426835e+00 1.624064e+00 5.177079e-01 -1.408025e+00 -4.254988e+00 -4.839814e+00 -5.139829e+00 -3.230925e+00 -3.351119e+00 -2.507688e+00 5.493209e+01 -1.779328e+00 -9.329463e-01 -3.296718e-01 1.233453e+00 1.084916e+00 1.059295e+00 1.416161e+00 1.335891e+00 1.195380e+00 4.229975e-01 8.299588e-01 1.432837e+00 -1.854536e+00 1.196213e-01 -5.031357e-01 -6.227791e-01 -7.411378e-01 -4.612924e-01 -1.367516e-01 -3.838216e-02 1.893960e-01 1.809234e-01 4.016357e-01 2.497309e-01 -2.300519e-01 1.012549e+00
<VARIANCE> 39
 2.540235e+01 2.358080e+01 2.119282e+01 2.515110e+01 2.283976e+01 2.381744e+01 2.316862e+01 3.335563e+01 3.448926e+01 2.588370e+01 3.189423e+01 3.230867e+01 9.426414e+01 3.650361e+00 3.103311e+00 3.869859e+00 4.352594e+00 2.305485e+00 2.724403e+00 2.877004e+00 3.466651e+00 3.326276e+00 3.390126e+00 3.085833e+00 3.071754e+00 4.906236e+00 5.115575e-01 8.551068e-01 9.697115e-01 1.083582e+00 6.998035e-01 6.630690e-01 5.402641e-01 7.355930e-01 7.075289e-01 7.870115e-01 6.390194e-01 6.175002e-01 8.717641e-01
<GCONST> 1.271086e+02
<STATE> 3
<MEAN> 39
 -1.702476e+01 1.048744e+00 -1.677781e+00 1.585961e+00 1.762431e+00 1.415077e+00 1.786969e-01 1.318921e-01 -3.146667e-01 5.371481e-01 9.434680e-01 1.735645e+00 5.123775e+01 -1.599261e-01 -7.271031e-01 -7.005749e-01 -1.035217e+00 -3.411121e-01 -4.907500e-01 1.963675e-01 5.360282e-01 7.206496e-01 7.537144e-01 6.455619e-01 2.701082e-01 2.001458e+00 1.010479e+00 3.667199e-01 7.576778e-03 -6.105430e-01 -5.462309e-01 -5.565532e-01 -6.942143e-01 -5.829319e-01 -5.575943e-01 -2.558877e-01 -3.940164e-01 -9.275723e-01 1.547639e+00
<VARIANCE> 39
 3.843767e+00 4.927396e+00 5.972992e+00 6.938902e+00 6.568531e+00 8.538729e+00 9.035256e+00 1.211308e+01 1.408685e+01 1.425530e+01 1.392200e+01 1.372923e+01 7.655016e+01 2.502519e+00 2.167301e+00 2.081621e+00 1.734197e+00 1.630818e+00 2.525049e+00 2.819227e+00 2.865740e+00 2.986326e+00 2.644967e+00 2.619943e+00 2.991238e+00 7.320059e+00 3.051678e-01 3.087237e-01 5.454085e-01 5.005286e-01 4.715790e-01 4.759961e-01 3.919230e-01 4.293289e-01 4.518758e-01 4.913892e-01 4.440483e-01 5.683737e-01 6.103052e-01
<GCONST> 1.042415e+02
<STATE> 4
<MEAN> 39
 -1.313295e+01 2.313118e+00 -1.432961e+00 -2.581029e+00 -4.961519e-02 -3.290523e+00 -2.711887e+00 -1.570106e+00 -1.513917e+00 1.729949e-01 -2.539763e-01 -9.474734e-01 6.660908e+01 3.383889e+00 2.967712e-01 -1.524433e+00 -2.617790e+00 -2.324314e+00 -1.077441e+00 -1.720136e+00 -9.734983e-01 -1.193041e+00 -1.650454e-01 -3.237649e-01 -3.049750e+00 5.337917e+00 4.133326e-01 -1.876208e-01 -4.810075e-01 -2.701581e-01 -6.822853e-01 1.376580e-01 -2.602708e-01 -2.343003e-01 -2.498651e-01 -8.913080e-02 -2.450751e-01 -8.637208e-01 -2.311963e-01
<VARIANCE> 39
 3.618820e+01 2.756870e+01 2.217064e+01 2.477936e+01 2.953516e+01 2.759662e+01 2.965770e+01 2.429817e+01 2.808955e+01 2.188553e+01 1.906723e+01 1.856636e+01 1.270333e+02 2.883343e+00 3.387985e+00 5.347663e+00 4.519166e+00 5.442444e+00 4.827972e+00 3.618731e+00 3.912181e+00 4.019475e+00 3.855211e+00 3.354128e+00 6.035807e+00 6.074776e+00 8.965971e-01 7.841235e-01 6.823513e-01 7.037662e-01 8.100851e-01 7.003321e-01 7.858437e-01 8.021339e-01 8.564712e-01 6.791084e-01 6.885318e-01 8.531322e-01 1.145464e+00
<GCONST> 1.311932e+02
<STATE> 5
<MEAN> 39
 -4.361015e+00 1.682784e+00 -7.971759e+00 -9.973180e+00 -6.994778e+00 -3.737979e+00 -7.035536e+00 -4.161526e+00 -5.021020e+00 -3.734704e-01 1.474553e-01 -1.103262e+01 7.388787e+01 2.211940e+00 -1.033021e+00 -2.210475e+00 -2.208238e+00 -2.753591e+00 -5.310846e-01 -1.215220e+00 -7.493997e-01 -7.554501e-01 -2.513128e-01 -8.624384e-01 -3.991667e+00 3.557124e+00 -1.002075e+00 -2.287497e-01 4.246010e-01 8.337077e-01 3.301168e-01 1.384204e-01 4.667343e-01 1.698617e-01 3.445971e-01 -1.027877e-01 -4.155621e-01 6.538250e-01 -1.321275e+00
<VARIANCE> 39
 2.614919e+01 2.881565e+01 6.228955e+01 4.678883e+01 5.434758e+01 5.581624e+01 3.704639e+01 3.274261e+01 3.218081e+01 3.324015e+01 3.244284e+01 7.304042e+01 1.004004e+02 4.076368e+00 3.833380e+00 7.019598e+00 4.989008e+00 6.152515e+00 5.626137e+00 4.351875e+00 5.247175e+00 5.430586e+00 4.493513e+00 4.891061e+00 8.425393e+00 6.341204e+00 4.793857e-01 5.091434e-01 6.181684e-01 7.814555e-01 9.250045e-01 8.128285e-01 6.807456e-01 7.549017e-01 6.945397e-01 6.627488e-01 7.195413e-01 1.125586e+00 6.228056e-01
<GCONST> 1.379413e+02
<TRANSP> 6
 0.000000e+00 1.000000e+00 0.000000e+00 0.000000e+00 0.000000e+00 0.000000e+00
 0.000000e+00 5.503623e-01 4.496377e-01 0.000000e+00 0.000000e+00 0.000000e+00
 0.000000e+00 0.000000e+00 6.733136e-01 3.266864e-01 0.000000e+00 0.000000e+00
 0.000000e+00 0.000000e+00 0.000000e+00 4.837025e-01 5.162975e-01 0.000000e+00
 0.000000e+00 0.000000e+00 0.000000e+00 0.000000e+00 2.515599e-01 7.484401e-01
 0.000000e+00 0.000000e+00 0.000000e+00 0.000000e+00 0.000000e+00 0.000000e+00
<ENDHMM>
~h "r"
<BEGINHMM>
<NUMSTATES> 6
<STATE> 2
<MEAN> 39
 -7.564384e+00 -8.127506e-01 -2.737653e+00 -2.855627e+00 -1.174916e+01 -7.022026e+00 -9.186877e+00 -7.831737e+00 3.147587e+00 -3.709783e+00 -9.154924e+00 -4.404934e+00 7.376825e+01 2.063340e-01 1.052183e-02 3.560867e-01 6.453525e-01 -9.192039e-01 2.488853e-01 -9.583705e-01 -5.416058e-01 6.200668e-01 -4.389364e-01 2.746765e-01 5.875691e-01 -8.446093e-02 -1.973073e-02 5.522357e-02 -4.415496e-01 -3.991958e-01 -1.373973e-01 -1.602006e-01 1.477959e-01 2.978187e-01 -5.650347e-01 2.327471e-01 -6.489753e-02 -6.269381e-01 2.263955e-01
<VARIANCE> 39
 2.074473e+01 2.068552e+01 4.744630e+01 2.998326e+01 5.953732e+01 3.300960e+01 3.684603e+01 5.380315e+01 5.203612e+01 5.058746e+01 3.768260e+01 3.558654e+01 9.455225e+01 2.110206e+00 2.125808e+00 4.719190e+00 2.868121e+00 6.606097e+00 3.455490e+00 4.058522e+00 5.178873e+00 5.270429e+00 4.516230e+00 5.328410e+00 3.895339e+00 2.072835e+00 3.652380e-01 3.155348e-01 6.578330e-01 5.953569e-01 1.139944e+00 8.029239e-01 7.663962e-01 9.615889e-01 9.871535e-01 7.936777e-01 7.054436e-01 7.836653e-01 4.405038e-01
<GCONST> 1.318634e+02
<STATE> 3
<MEAN> 39
 -6.479228e+00 -6.690703e-01 -5.122554e+00 -3.954429e+00 -1.678356e+01 -7.974361e+00 -1.101851e+01 -1.010310e+01 2.683312e+00 -2.670153e+00 -1.078772e+01 -6.624668e+00 7.452235e+01 1.214342e-01 3.332971e-01 -3.535827e-02 1.870362e-02 -1.487276e-01 1.330784e-01 -3.494489e-01 -3.264258e-01 -4.543410e-01 1.148616e-01 1.675719e-01 -1.018440e-01 -3.543795e-01 -1.596794e-01 1.371089e-01 8.427992e-02 -1.625908e-01 4.148009e-01 9.723581e-02 2.860409e-01 2.168285e-01 -4.373181e-01 -3.115715e-02 1.690041e-01 -7.575998e-02 -1.574017e-01
<VARIANCE> 39
 2.214113e+01 3.077719e+01 8.094360e+01 3.937693e+01 7.112977e+01 4.280119e+01 4.690209e+01 8.029502e+01 8.433195e+01 7.089143e+01 5.717610e+01 4.976011e+01 9.355694e+01 1.509729e+00 1.776700e+00 3.512739e+00 2.397789e+00 5.965627e+00 3.247113e+00 2.884536e+00 4.316817e+00 5.373393e+00 3.823985e+00 3.808982e+00 3.362031e+00 2.004071e+00 2.458106e-01 2.705330e-01 5.386145e-01 5.430939e-01 1.198065e+00 5.854733e-01 7.111078e-01 8.429047e-01 9.618976e-01 8.651496e-01 7.390410e-01 7.427768e-01 3.710691e-01
<GCONST> 1.320011e+02
<STATE> 4
<MEAN> 39
 -7.522879e+00 1.637730e+00 -3.426714e+00 -3.966375e+00 -1.202727e+01 -7.298666e+00 -1.057007e+01 -9.068404e+00 -4.724857e-01 -2.044715e+00 -7.754817e+00 -4.783926e+00 7.095184e+01 -6.491783e-01 6.512610e-01 5.691447e-01 1.510846e-01 1.123694e+00 6.205146e-01 6.963260e-01 4.905854e-01 -1.142373e+00 -5.163026e-01 6.915820e-01 1.285152e-01 -9.446104e-01 -2.023075e-01 -9.292442e-02 -1.328899e-02 -8.673115e-02 -4.181319e-03 1.173344e-01 3.665783e-01 2.591038e-01 -1.190457e-01 -2.369968e-02 -4.551940e-02 -1.315184e-01 3.974687e-02
<VARIANCE> 39
 3.827339e+01 4.126981e+01 7.750103e+01 3.571120e+01 8.958716e+01 4.861965e+01 4.699661e+01 8.798595e+01 8.998447e+01 7.555679e+01 5.523478e+01 4.523629e+01 1.218644e+02 3.056355e+00 3.197192e+00 4.361578e+00 3.784192e+00 9.698728e+00 3.916367e+00 4.239039e+00 5.831818e+00 7.358931e+00 5.607766e+00 4.714818e+00 4.697506e+00 5.127833e+00 4.735360e-01 4.910780e-01 7.604660e-01 7.471161e-01 1.566311e+00 8.723906e-01 8.931367e-01 1.145540e+00 1.404360e+00 1.163343e+00 9.206756e-01 9.303541e-01 5.554566e-01
<GCONST> 1.435648e+02
<STATE> 5
<MEAN> 39
 -1.021875e+01 1.700217e+00 -1.837536e+00 -1.631465e+00 -8.359008e+00 -4.072505e+00 -7.154601e+00 -6.218900e+00 -2.768569e-01 -3.079567e+00 -6.370194e+00 -2.944539e+00 6.819106e+01 -4.786742e-01 1.246055e-01 1.758838e-01 -2.564394e-01 2.121911e-01 4.713278e-01 6.926263e-01 4.559568e-01 -9.323303e-01 -1.205408e-01 4.528656e-01 -1.155963e-01 -3.813271e-01 1.534845e-02 -1.048805e-01 -1.134544e-01 -2.063104e-01 -1.564078e-01 -1.343605e-01 -1.414510e-02 -1.786427e-02 -3.900034e-02 1.334290e-01 -1.069864e-01 -1.410603e-01 1.885172e-01
<VARIANCE> 39
 5.532503e+01 4.213639e+01 6.825817e+01 3.439083e+01 1.004718e+02 5.038261e+01 4.667757e+01 7.621442e+01 5.524945e+01 4.779374e+01 5.041698e+01 4.906552e+01 1.701976e+02 3.136838e+00 2.791066e+00 3.704505e+00 3.087729e+00 7.516529e+00 3.666068e+00 4.492640e+00 5.091233e+00 5.391291e+00 5.224371e+00 4.259171e+00 3.897608e+00 4.840147e+00 4.017047e-01 4.138284e-01 4.930760e-01 4.828040e-01 1.079258e+00 7.094324e-01 6.366265e-01 7.703522e-01 7.848962e-01 7.083866e-01 7.060791e-01 6.058863e-01 4.541297e-01
<GCONST> 1.370708e+02
<TRANSP> 6
 0.000000e+00 1.000000e+00 0.000000e+00 0.000000e+00 0.000000e+00 0.000000e+00
 0.000000e+00 2.147592e-01 7.852408e-01 0.000000e+00 0.000000e+00 0.000000e+00
 0.000000e+00 0.000000e+00 6.517417e-01 3.482583e-01 0.000000e+00 0.000000e+00
 0.000000e+00 0.000000e+00 0.000000e+00 2.726174e-01 7.273826e-01 0.000000e+00
 0.000000e+00 0.000000e+00 0.000000e+00 0.000000e+00 4.092007e-01 5.907993e-01
 0.000000e+00 0.000000e+00 0.000000e+00 0.000000e+00 0.000000e+00 0.000000e+00
<ENDHMM>
~h "s"
<BEGINHMM>
<NUMSTATES> 6
<STATE> 2
<MEAN> 39
 -2.483205e+01 9.188951e+00 -2.349622e-02 -3.353094e+00 2.179770e+00 -6.873211e+00 -2.820418e+00 -1.971776e+00 -4.918997e+00 -3.843565e+00 -3.017475e+00 -2.315849e+00 7.255029e+01 -3.999019e+00 5.916827e-01 -5.581508e-01 1.084118e-01 2.108077e+00 7.416512e-01 2.199033e+00 1.495435e+00 8.647307e-01 8.000183e-01 1.950838e+00 7.821375e-01 -1.862586e-01 5.511013e-01 -4.932122e-01 -4.534955e-01 -3.025410e-01 -7.938411e-01 1.905274e-02 -2.334794e-01 -1.846908e-01 1.502273e-01 2.328065e-01 -2.412253e-01 -7.231165e-02 -6.841022e-02
<VARIANCE> 39
 5.596017e+01 2.435586e+01 2.689316e+01 1.824686e+01 4.317494e+01 3.183803e+01 5.989606e+01 4.339374e+01 2.724031e+01 3.195535e+01 2.869217e+01 2.241141e+01 9.435106e+01 3.942824e+00 3.088295e+00 3.348846e+00 2.216042e+00 4.746217e+00 3.830574e+00 3.925499e+00 4.456084e+00 3.133087e+00 3.182643e+00 3.612942e+00 2.451376e+00 2.298993e+00 8.808145e-01 4.953205e-01 5.789253e-01 3.893492e-01 8.005726e-01 6.507659e-01 7.363101e-01 7.611105e-01 6.189438e-01 6.295196e-01 5.765181e-01 4.531142e-01 2.456937e-01
<GCONST> 1.263019e+02
<STATE> 3
<MEAN> 39
 -3.257634e+01 8.590916e+00 -4.362714e+00 -4.740500e+00 3.128837e+00 -6.203289e+00 2.362541e+00 -6.827297e-01 -2.630157e+00 7.274318e-02 9.150907e-01 5.864604e-01 7.116541e+01 -2.437774e-01 -3.749717e-01 -2.706771e-01 -3.311746e-01 -2.660854e-01 -1.012746e-01 2.244564e-01 1.394129e-01 2.667745e-01 2.734442e-01 2.391343e-01 3.804829e-01 -2.075531e-01 8.861730e-01 -1.299973e-01 3.358037e-01 7.932904e-02 -3.565524e-01 -2.068834e-01 -4.676450e-01 -2.100950e-01 -2.087232e-01 -2.400208e-01 -4.569570e-01 -1.668037e-01 -1.233286e-01
<VARIANCE> 39
 1.230874e+01 1.679520e+01 1.756259e+01 1.719673e+01 1.873856e+01 1.753763e+01 2.480814e+01 3.089690e+01 1.628237e+01 1.752149e+01 1.614144e+01 1.158273e+01 1.004977e+02 1.644963e+00 1.290250e+00 1.560252e+00 1.174026e+00 1.328858e+00 1.496004e+00 1.627479e+00 1.815473e+00 1.618328e+00 1.810680e+00 1.748231e+00 1.241674e+00 9.207509e-01 4.814673e-01 2.628983e-01 2.702901e-01 2.663267e-01 4.039181e-01 3.918544e-01 4.662229e-01 4.260585e-01 3.646941e-01 3.675860e-01 4.433441e-01 2.772033e-01 1.955706e-01
<GCONST> 1.016507e+02
<STATE> 4
<MEAN> 39
 -2.950513e+01 5.823287e+00 -2.399272e+00 -5.531164e+00 1.797044e+00 -7.303265e+00 1.243313e+00 3.558593e-01 -2.001113e+00 -5.658196e-01 -2.930889e-01 1.027586e+00 6.910545e+01 3.500317e+00 -4.612346e-01 7.225959e-01 2.599345e-01 -1.815109e+00 -8.536475e-01 -2.140801e+00 -1.042205e+00 -7.907770e-01 -6.096117e-01 -1.723218e+00 -8.043484e-01 -9.558190e-01 1.137344e+00 8.938114e-02 9.177300e-03 -3.090212e-02 -7.748393e-01 5.949470e-02 -8.083747e-01 -5.626702e-01 -3.450916e-01 -1.675386e-01 -5.844983e-01 -6.524426e-01 1.750542e-01
<VARIANCE> 39
 2.209325e+01 1.935019e+01 2.353143e+01 1.614763e+01 2.319686e+01 3.017909e+01 3.128831e+01 3.536015e+01 2.566844e+01 2.470457e+01 2.127435e+01 1.663871e+01 1.109513e+02 5.032690e+00 2.314486e+00 2.562089e+00 2.186046e+00 4.279891e+00 3.712490e+00 4.296452e+00 4.238129e+00 3.436301e+00 2.724166e+00 3.573884e+00 2.549685e+00 2.924482e+00 5.804574e-01 4.293726e-01 4.781077e-01 4.112587e-01 6.111719e-01 6.072699e-01 6.798967e-01 7.623407e-01 6.063640e-01 5.569911e-01 5.826979e-01 5.236132e-01 5.806969e-01
<GCONST> 1.221505e+02
<STATE> 5
<MEAN> 39
 -1.689844e+01 6.382020e+00 -1.021700e+00 -4.262752e+00 -4.978000e+00 -1.025474e+01 -7.787381e+00 -4.715044e+00 -5.817364e+00 -2.982534e+00 -6.380136e+00 -2.670312e+00 6.721377e+01 4.606022e+00 -4.617196e-01 4.393239e-02 -3.941295e-01 -3.429543e+00 1.296757e-01 -2.894706e+00 -2.028908e+00 -8.673776e-01 -5.236281e-01 -2.204643e+00 -2.163243e+00 4.297335e-01 -5.838122e-01 -1.594988e-01 -2.271641e-01 -3.150528e-01 1.307043e-01 5.729226e-01 4.682671e-01 2.681197e-01 2.443362e-01 1.826328e-01 3.885502e-01 -2.035735e-01 5.048172e-01
<VARIANCE> 39
 5.698027e+01 2.458069e+01 4.482203e+01 2.795614e+01 6.474632e+01 5.118209e+01 6.984054e+01 6.593806e+01 4.435038e+01 3.887145e+01 4.783199e+01 3.694144e+01 1.062853e+02 5.132316e+00 3.441954e+00 4.671990e+00 3.258121e+00 6.688329e+00 4.827666e+00 6.332147e+00 7.110106e+00 5.072543e+00 4.509065e+00 5.270824e+00 4.608571e+00 5.386233e+00 7.007935e-01 3.552837e-01 3.622751e-01 4.965054e-01 8.889301e-01 7.957476e-01 8.103427e-01 9.305551e-01 7.727158e-01 7.221125e-01 6.554462e-01 6.056530e-01 5.913602e-01
<GCONST> 1.373046e+02
<TRANSP> 6
 0.000000e+00 1.000000e+00 0.000000e+00 0.000000e+00 0.000000e+00 0.000000e+00
 0.000000e+00 6.163192e-01 3.836807e-01 0.000000e+00 0.000000e+00 0.000000e+00
 0.000000e+00 0.000000e+00 7.726683e-01 2.273317e-01 0.000000e+00 0.000000e+00
 0.000000e+00 0.000000e+00 0.000000e+00 5.595664e-01 4.404336e-01 0.000000e+00
 0.000000e+00 0.000000e+00 0.000000e+00 0.000000e+00 3.554344e-01 6.445655e-01
 0.000000e+00 0.000000e+00 0.000000e+00 0.000000e+00 0.000000e+00 0.000000e+00
<ENDHMM>
~h "t"
<BEGINHMM>
<NUMSTATES> 6
<STATE> 2
<MEAN> 39
 -9.720525e+00 9.651497e+00 2.707569e+00 -5.146832e-01 -3.277811e+00 -9.618396e+00 -9.110614e+00 -8.407156e+00 -5.996777e+00 -3.945120e+00 -7.008962e+00 -5.000304e+00 5.930796e+01 -1.117583e+00 2.976013e-01 1.403428e+00 2.360794e+00 2.428957e+00 2.636144e+00 8.457964e-01 -1.784046e-02 -7.268463e-01 -1.241476e+00 1.759146e+00 1.415731e+00 -4.354057e+00 -5.066200e-01 -1.108245e+00 -7.924826e-01 -4.769338e-01 -4.043495e-01 6.521256e-01 6.351547e-01 7.111775e-01 4.761332e-01 4.102722e-01 2.053327e-01 -1.057056e-02 7.393811e-01
<VARIANCE> 39
 2.500163e+01 1.869929e+01 3.126328e+01 2.776051e+01 4.557986e+01 3.674017e+01 3.325884e+01 3.032390e+01 2.869603e+01 2.755143e+01 3.356059e+01 3.222216e+01 1.086853e+02 2.520144e+00 3.194073e+00 5.745100e+00 3.211848e+00 5.063110e+00 5.607596e+00 4.057731e+00 4.564250e+00 4.356117e+00 3.989331e+00 4.427742e+00 3.387510e+00 5.099150e+00 3.304016e-01 5.798700e-01 8.372652e-01 6.638061e-01 8.274954e-01 8.545078e-01 7.348398e-01 9.228255e-01 8.096840e-01 6.663796e-01 5.804453e-01 5.673339e-01 1.000374e+00
<GCONST> 1.310334e+02
<STATE> 3
<MEAN> 39
 -1.319818e+01 6.603330e+00 3.042047e+00 3.498775e+00 1.297227e+00 -2.442320e+00 -5.720916e+00 -6.911126e+00 -6.884152e+00 -5.378943e+00 -4.590714e+00 -2.815829e+00 5.340547e+01 -2.122052e+00 -2.327611e+00 -1.370086e+00 1.253700e-01 1.029289e+00 2.480543e+00 2.338303e+00 1.983045e+00 1.430305e+00 9.700747e-01 1.846976e+00 1.547995e+00 -1.217314e+00 5.779014e-05 -4.574115e-01 -8.409030e-01 -1.081532e+00 -8.447886e-01 -7.930489e-01 1.080334e-01 4.125573e-01 6.560178e-01 7.653498e-01 -1.747827e-01 -1.190866e-01 1.620707e+00
<VARIANCE> 39
 1.190729e+01 1.260164e+01 1.486523e+01 1.387142e+01 1.225506e+01 1.982182e+01 2.217993e+01 2.223089e+01 2.127266e+01 1.953481e+01 2.118898e+01 2.183306e+01 8.253365e+01 1.992261e+00 1.405042e+00 2.616543e+00 2.548072e+00 2.116045e+00 3.820077e+00 2.798257e+00 2.662519e+00 2.726619e+00 2.780485e+00 2.630659e+00 2.250351e+00 5.491524e+00 3.546984e-01 4.922630e-01 6.611850e-01 4.678078e-01 6.103905e-01 6.899090e-01 6.092008e-01 6.538983e-01 6.687441e-01 6.473657e-01 6.146588e-01 5.582086e-01 6.467369e-01
<GCONST> 1.157754e+02
<STATE> 4
<MEAN> 39
 -1.799933e+01 6.197838e-01 -2.479990e+00 5.752381e-01 1.583639e+00 8.573986e-01 3.317507e-01 -4.188054e-02 5.702543e-02 8.232418e-01 1.273321e+00 1.957013e+00 5.252074e+01 -7.420023e-01 -7.151624e-01 -8.266066e-01 -1.195213e+00 -4.525845e-01 -6.631701e-01 4.598404e-01 4.094065e-01 5.728176e-01 3.968765e-01 3.335347e-01 2.797199e-01 2.107678e+00 5.330962e-01 5.217256e-01 1.520121e-01 -3.096065e-01 -5.787519e-01 -9.603617e-01 -7.009820e-01 -6.143356e-01 -4.982221e-01 -4.015101e-01 -7.336816e-01 -6.631970e-01 1.236400e+00
<VARIANCE> 39
 7.272405e+00 4.803010e+00 6.668668e+00 1.052817e+01 9.056206e+00 1.373383e+01 1.175595e+01 1.258272e+01 1.193207e+01 1.316457e+01 1.344513e+01 1.161473e+01 1.012478e+02 1.501821e+00 1.702531e+00 2.154402e+00 2.093653e+00 2.060319e+00 4.089356e+00 2.750071e+00 3.449289e+00 2.976372e+00 2.840680e+00 2.863091e+00 2.382986e+00 9.108383e+00 4.730099e-01 2.536364e-01 3.889875e-01 3.498473e-01 5.819254e-01 6.022967e-01 5.381318e-01 5.197048e-01 4.536956e-01 4.540995e-01 5.319943e-01 4.755672e-01 8.233003e-01
<GCONST> 1.075316e+02
<STATE> 5
<MEAN> 39
 -1.705525e+01 2.105175e+00 -3.692905e+00 -5.769195e+00 -3.624661e+00 -8.553378e+00 -3.265140e+00 -3.752738e+00 -2.675151e+00 -1.844625e+00 -3.288326e+00 -2.146978e+00 7.035795e+01 1.985464e+00 6.399084e-01 -6.087826e-01 -1.287411e+00 -2.828549e+00 -2.317745e+00 -2.025852e+00 -9.450851e-01 -8.873677e-01 -5.397977e-01 -2.109053e+00 -2.390903e+00 3.904542e+00 6.309867e-01 6.846309e-03 1.287480e-01 2.554330e-01 -2.867350e-01 5.512909e-01 -3.835647e-01 1.485867e-02 -1.237124e-01 6.588830e-02 -1.797133e-01 -4.522113e-01 -8.195159e-01
<VARIANCE> 39
 3.806053e+01 2.314446e+01 3.321922e+01 2.713877e+01 5.087904e+01 4.755727e+01 4.411283e+01 3.640376e+01 3.215695e+01 2.914611e+01 3.864369e+01 4.287074e+01 1.384339e+02 3.856182e+00 2.742502e+00 5.578014e+00 3.341015e+00 6.344206e+00 6.680882e+00 5.602792e+00 6.519922e+00 4.500703e+00 3.873261e+00 5.176761e+00 5.303489e+00 9.565590e+00 8.076818e-01 5.331873e-01 6.529890e-01 5.440435e-01 9.279171e-01 1.096741e+00 1.160788e+00 1.077525e+00 7.593977e-01 8.023584e-01 9.878843e-01 9.337102e-01 8.861659e-01
<GCONST> 1.383454e+02
<TRANSP> 6
 0.000000e+00 1.000000e+00 0.000000e+00 0.000000e+00 0.000000e+00 0.000000e+00
 0.000000e+00 3.834083e-01 6.165918e-01 0.000000e+00 0.000000e+00 0.000000e+00
 0.000000e+00 0.000000e+00 4.333496e-01 5.666504e-01 0.000000e+00 0.000000e+00
 0.000000e+00 0.000000e+00 0.000000e+00 7.213021e-01 2.786979e-01 0.000000e+00
 0.000000e+00 0.000000e+00 0.000000e+00 0.000000e+00 5.860124e-01 4.139876e-01
 0.000000e+00 0.000000e+00 0.000000e+00 0.000000e+00 0.000000e+00 0.000000e+00
<ENDHMM>
~h "u"
<BEGINHMM>
<NUMSTATES> 6
<STATE> 2
<MEAN> 39
 -6.043068e+00 5.707132e+00 -3.540346e+00 -7.367963e+00 -1.245253e+01 -6.880789e+00 -1.367147e+01 -1.155362e+01 -6.303163e+00 -3.569529e+00 -5.847877e+00 -5.203146e+00 7.263517e+01 1.375143e+00 3.676881e-01 -1.040296e+00 -1.322621e+00 -1.471120e+00 2.333281e-01 -1.809133e+00 -6.979183e-01 -3.630836e-01 7.139382e-01 1.876561e-01 -9.712730e-01 9.943293e-01 -2.454696e-01 7.285335e-02 1.236194e-01 -8.370151e-02 4.413187e-01 4.403135e-01 3.298961e-01 3.230499e-01 1.040983e-01 1.353977e-01 6.033175e-02 -3.577817e-02 -5.125775e-01
<VARIANCE> 39
 2.768616e+01 2.980255e+01 5.299493e+01 3.045423e+01 6.249617e+01 6.131019e+01 6.050603e+01 5.911714e+01 5.864174e+01 5.047407e+01 3.870127e+01 3.187546e+01 9.952354e+01 4.184123e+00 3.134093e+00 4.031245e+00 5.073915e+00 5.696794e+00 4.895841e+00 6.497689e+00 6.640004e+00 5.572148e+00 5.093008e+00 4.297386e+00 5.023186e+00 2.075502e+00 6.320925e-01 6.395718e-01 4.855863e-01 5.257998e-01 1.189864e+00 1.038986e+00 1.061623e+00 9.924062e-01 9.144446e-01 7.777334e-01 8.413531e-01 5.245709e-01 4.685023e-01
<GCONST> 1.378325e+02
<STATE> 3
<MEAN> 39
 -5.253326e+00 5.644020e+00 -6.355482e+00 -1.051016e+01 -1.395763e+01 -5.263363e+00 -1.666390e+01 -1.291878e+01 -6.346875e+00 -1.988135e+00 -4.998680e+00 -7.730958e+00 7.407599e+01 4.698212e-01 2.603662e-01 -3.348941e-01 -5.567430e-01 -1.582971e-02 5.334902e-01 -5.784022e-01 -1.046779e-01 -4.361121e-02 4.185011e-01 5.563216e-03 -5.275276e-01 -3.700919e-02 -3.038029e-01 9.025884e-03 4.904663e-01 3.859762e-01 4.617731e-01 -3.690319e-03 5.779713e-01 3.036670e-01 6.258294e-02 -2.689230e-01 -1.783392e-01 2.849998e-01 -4.896458e-01
<VARIANCE> 39
 1.697016e+01 2.380417e+01 4.853611e+01 3.891456e+01 3.514343e+01 5.040560e+01 6.274345e+01 5.362889e+01 5.931504e+01 6.398257e+01 4.086490e+01 3.729296e+01 9.532253e+01 1.799615e+00 2.623585e+00 3.536266e+00 4.405641e+00 5.217835e+00 5.017050e+00 4.937538e+00 4.596461e+00 5.660160e+00 5.080031e+00 4.156949e+00 3.329024e+00 2.029224e+00 3.760231e-01 3.836983e-01 4.656842e-01 6.307613e-01 8.467928e-01 8.685883e-01 1.092382e+00 9.670914e-01 1.011246e+00 9.622593e-01 8.173044e-01 7.615011e-01 2.885790e-01
<GCONST> 1.331721e+02
<STATE> 4
<MEAN> 39
 -3.753973e+00 9.216111e+00 -4.913269e+00 -1.177354e+01 -1.086168e+01 -3.486726e+00 -1.500367e+01 -9.762322e+00 -8.850753e+00 -1.440644e+00 -5.334431e+00 -6.347275e+00 7.078728e+01 -2.603527e-01 6.816900e-02 6.465249e-01 6.107507e-01 6.841537e-01 8.277711e-02 8.594121e-01 3.773385e-01 1.348366e-01 -4.853850e-01 -1.886104e-01 3.473110e-01 -9.230145e-01 -3.416795e-01 -2.115933e-01 2.763777e-01 4.746840e-01 2.010202e-01 -9.209192e-02 3.590614e-01 1.988385e-02 1.860988e-01 -1.605265e-01 3.607417e-02 1.911997e-01 -1.807414e-01
<VARIANCE> 39
 2.018037e+01 3.419114e+01 4.037764e+01 4.738687e+01 4.872366e+01 4.226572e+01 6.273820e+01 5.545186e+01 6.908022e+01 5.887597e+01 4.264528e+01 4.663563e+01 9.665652e+01 1.651271e+00 2.258267e+00 3.469199e+00 5.050499e+00 4.540941e+00 3.495337e+00 4.728712e+00 5.122272e+00 5.205260e+00 3.943259e+00 3.407193e+00 3.482265e+00 3.060154e+00 2.951799e-01 4.356242e-01 4.537194e-01 7.122503e-01 7.287980e-01 7.330088e-01 8.610505e-01 8.701446e-01 9.790471e-01 7.086896e-01 6.361738e-01 7.011232e-01 3.616566e-01
<GCONST> 1.324910e+02
<STATE> 5
<MEAN> 39
 -5.413890e+00 6.859032e+00 -2.539184e+00 -7.661439e+00 -1.033409e+01 -4.352758e+00 -1.246599e+01 -1.056477e+01 -6.116705e+00 -3.830038e+00 -6.377173e+00 -6.078015e+00 6.943201e+01 -8.771394e-01 -1.148978e-01 1.508469e+00 1.380381e+00 8.539358e-01 9.943199e-02 1.326586e+00 3.811916e-01 3.611021e-01 -7.423963e-01 -1.634771e-01 6.251783e-01 -1.224067e+00 -3.514773e-01 -1.547131e-01 -2.272516e-02 -7.886783e-04 6.975432e-02 8.621901e-02 5.168028e-02 8.210711e-02 9.181596e-02 1.183145e-01 2.045184e-01 3.061984e-02 7.703535e-02
<VARIANCE> 39
 2.718284e+01 3.226761e+01 4.790902e+01 5.773601e+01 7.410660e+01 4.767546e+01 5.465659e+01 4.852845e+01 6.160366e+01 6.217439e+01 4.367529e+01 3.555679e+01 1.141370e+02 3.077995e+00 2.699911e+00 4.521807e+00 4.631483e+00 4.347441e+00 4.168478e+00 4.299092e+00 5.544978e+00 5.457618e+00 4.161106e+00 4.382025e+00 3.539827e+00 4.449553e+00 3.397589e-01 5.126038e-01 5.541224e-01 8.025948e-01 1.071011e+00 8.021825e-01 1.003423e+00 7.983175e-01 9.751489e-01 8.097776e-01 7.231129e-01 6.073029e-01 3.967748e-01
<GCONST> 1.364379e+02
<TRANSP> 6
 0.000000e+00 1.000000e+00 0.000000e+00 0.000000e+00 0.000000e+00 0.000000e+00
 0.000000e+00 2.687931e-18 1.000000e+00 0.000000e+00 0.000000e+00 0.000000e+00
 0.000000e+00 0.000000e+00 6.229529e-01 3.770472e-01 0.000000e+00 0.000000e+00
 0.000000e+00 0.000000e+00 0.000000e+00 6.075043e-01 3.924957e-01 0.000000e+00
 0.000000e+00 0.000000e+00 0.000000e+00 0.000000e+00 1.660069e-10 1.000000e+00
 0.000000e+00 0.000000e+00 0.000000e+00 0.000000e+00 0.000000e+00 0.000000e+00
<ENDHMM>
~h "w"
<BEGINHMM>
<NUMSTATES> 6
<STATE> 2
<MEAN> 39
 -3.866011e+00 3.718749e+00 -7.133273e+00 -1.307852e+01 -1.049338e+01 -4.161668e+00 -1.038088e+01 -7.050643e+00 -5.990928e+00 -1.522695e+00 -3.062753e+00 -1.186392e+01 7.165365e+01 9.354267e-01 7.184516e-01 -4.386548e-01 -1.241936e+00 -4.301126e-01 6.797256e-01 -3.825132e-01 -8.856174e-01 -8.924508e-01 1.197122e-01 1.077569e+00 1.655950e-01 -9.630749e-02 -1.573115e-01 -8.866567e-02 3.896522e-02 -1.216638e-01 -1.155029e-01 7.204973e-02 2.890558e-01 8.712538e-02 -6.546436e-02 -1.451445e-01 1.080976e-01 1.125953e-01 1.447478e-01
<VARIANCE> 39
 3.391273e+01 3.708009e+01 5.421518e+01 5.285797e+01 5.819831e+01 4.089276e+01 6.578777e+01 4.989915e+01 5.104827e+01 7.035709e+01 4.344676e+01 7.132908e+01 1.263727e+02 2.251255e+00 1.859559e+00 2.384929e+00 2.480559e+00 4.805378e+00 3.292846e+00 3.587512e+00 3.889311e+00 3.108675e+00 2.681561e+00 4.835879e+00 5.230297e+00 1.919791e+00 3.435186e-01 2.965378e-01 3.125003e-01 3.621276e-01 6.984497e-01 4.077420e-01 7.112281e-01 6.662656e-01 6.688986e-01 7.501373e-01 6.616290e-01 6.860986e-01 2.262268e-01
<GCONST> 1.288889e+02
<STATE> 3
<MEAN> 39
 -3.180291e+00 4.493381e+00 -7.157296e+00 -1.460365e+01 -1.250376e+01 -4.225832e+00 -1.100195e+01 -7.111738e+00 -8.173661e+00 -1.924751e+00 -1.577975e+00 -1.132618e+01 7.163588e+01 5.690312e-01 4.772221e-01 -2.241903e-01 -9.596836e-01 -4.359814e-01 3.869917e-01 -8.801014e-02 -2.754426e-01 -7.526137e-01 -4.037180e-01 7.083831e-01 3.985799e-01 1.395170e-01 -2.610732e-01 -2.271438e-01 4.488004e-02 1.307697e-01 -6.468291e-03 -9.015713e-02 2.415943e-01 2.965307e-01 2.233415e-01 -9.280672e-02 -9.417734e-02 -7.193372e-02 1.597076e-01
<VARIANCE> 39
