~o
<STREAMINFO> 1 39
<VECSIZE> 39<NULLD><MFCC_D_A_0><DIAGC>
~h "d"
<BEGINHMM>
<NUMSTATES> 5
<STATE> 2
<MEAN> 39
 -3.172761e+00 -6.579761e+00 3.979777e+00 -2.947830e+00 -9.514837e+00 6.025768e+00 -5.938272e+00 -2.505727e-01 2.855221e+00 -3.980058e+00 2.829628e+00 -1.221495e+00 3.445532e+01 1.609449e+00 -1.139641e+00 1.543116e-01 -9.202192e-01 -1.408864e+00 2.177782e-01 -6.188121e-01 8.521496e-02 8.756610e-01 -4.272848e-02 3.406159e-01 1.927826e-01 1.893485e+00 1.714754e-01 -3.966445e-01 2.246746e-01 -5.491275e-02 -1.637145e-01 1.094406e-01 -3.541893e-01 1.171599e-01 2.176125e-01 -5.822374e-02 8.709662e-02 -5.627164e-02 4.051546e-01
<VARIANCE> 39
 5.858900e+01 5.816486e+01 2.273151e+01 2.814025e+01 4.045649e+01 3.934064e+01 2.804082e+01 2.394323e+01 1.990725e+01 2.013836e+01 1.674218e+01 1.182584e+01 5.294266e+01 7.386705e+00 6.147797e+00 2.739213e+00 2.174053e+00 4.149089e+00 3.752757e+00 4.075538e+00 2.303839e+00 2.165277e+00 1.880144e+00 1.509078e+00 2.181579e+00 4.954334e+00 9.016473e-01 7.005451e-01 6.086861e-01 4.652535e-01 6.448751e-01 5.055533e-01 6.492064e-01 4.070325e-01 4.600190e-01 4.452840e-01 3.082888e-01 3.221951e-01 7.012489e-01
<GCONST> 1.217632e+02
<STATE> 3
<MEAN> 39
 1.024757e+01 -1.245908e+01 8.947272e+00 -7.692492e+00 -1.457956e+01 9.130144e+00 -1.344323e+01 1.862800e+00 9.615503e+00 -4.620693e+00 3.755996e+00 -2.868824e+00 5.099306e+01 7.338721e-02 9.050654e-02 7.254043e-02 1.141410e-01 1.355209e-01 -4.042045e-02 -2.376036e-02 1.299701e-01 4.326401e-02 3.848388e-02 -1.250190e-02 -9.954789e-02 4.581960e-02 -1.019751e-01 6.279481e-02 -3.636552e-02 5.700263e-02 7.327712e-02 -1.975909e-02 7.059475e-02 -1.525408e-02 -6.978105e-02 -1.339470e-02 -3.628798e-02 -1.350121e-02 -1.276821e-01
<VARIANCE> 39
 7.650129e+01 6.849892e+01 4.524497e+01 2.839274e+01 3.135633e+01 2.442580e+01 3.494173e+01 3.453690e+01 3.793547e+01 2.390575e+01 2.098826e+01 2.124906e+01 8.750400e+01 3.698332e+00 4.005478e+00 2.932078e+00 2.145023e+00 1.710182e+00 2.168301e+00 2.692643e+00 2.108909e+00 2.350174e+00 1.856365e+00 2.035774e+00 1.586782e+00 5.262860e+00 5.421095e-01 6.613595e-01 4.550479e-01 3.559191e-01 3.268522e-01 4.535966e-01 4.443799e-01 3.545969e-01 4.001416e-01 3.388727e-01 3.933819e-01 3.100718e-01 5.381301e-01
<GCONST> 1.190819e+02
<STATE> 4
<MEAN> 39
 -5.421598e+00 -4.275440e+00 7.609692e+00 1.119020e+00 -6.157751e+00 4.818308e+00 -6.910676e+00 1.851407e-01 6.575431e-01 -5.348339e+00 1.143739e+00 -3.464205e+00 3.257833e+01 -2.851802e-01 -2.580233e-01 1.666436e-02 2.567418e-01 1.156406e-01 -6.323904e-03 1.303941e-01 -1.683635e-02 -1.976952e-01 -2.032116e-01 -1.141066e-01 -7.429229e-02 -1.251685e-01 8.349675e-02 -8.616053e-02 2.780474e-02 -4.725018e-02 -5.936407e-02 2.945451e-02 -5.867330e-02 -8.635168e-02 -1.305475e-02 -7.389471e-03 1.538245e-02 4.460108e-02 9.577874e-02
<VARIANCE> 39
 6.699348e+01 4.551220e+01 3.148102e+01 2.186925e+01 2.516234e+01 1.979832e+01 2.022747e+01 2.219686e+01 3.064750e+01 2.076691e+01 1.506032e+01 1.401804e+01 6.823802e+01 1.716005e+00 1.353533e+00 1.171723e+00 1.129684e+00 1.136107e+00 1.559979e+00 1.718421e+00 1.962559e+00 2.063395e+00 1.783562e+00 1.250819e+00 1.477127e+00 2.220044e+00 1.507053e-01 1.862778e-01 1.961609e-01 2.085521e-01 2.358367e-01 2.961684e-01 2.722487e-01 3.312501e-01 3.146871e-01 3.546928e-01 2.023693e-01 3.040509e-01 1.443558e-01
<GCONST> 1.014559e+02
<TRANSP> 5
 0.000000e+00 1.000000e+00 0.000000e+00 0.000000e+00 0.000000e+00
 0.000000e+00 4.641719e-01 5.358281e-01 0.000000e+00 0.000000e+00
 0.000000e+00 0.000000e+00 9.307104e-01 6.928955e-02 0.000000e+00
 0.000000e+00 0.000000e+00 0.000000e+00 5.432322e-01 4.567678e-01
 0.000000e+00 0.000000e+00 0.000000e+00 0.000000e+00 0.000000e+00
<ENDHMM>
~h "g"
<BEGINHMM>
<NUMSTATES> 5
<STATE> 2
<MEAN> 39
 1.874573e+00 -4.348804e+00 6.387255e+00 -2.262903e+00 -8.202314e+00 5.639672e+00 -7.393814e+00 -2.421909e-01 1.408093e+00 -4.778634e+00 2.903274e+00 -2.860464e+00 3.929678e+01 9.133646e-01 -1.265605e+00 -9.922463e-01 -1.252117e+00 -9.459289e-01 -1.519921e-01 -2.996487e-01 3.725843e-01 7.705411e-01 1.438426e-01 6.185530e-02 -2.217364e-01 1.541559e+00 5.344725e-01 -7.506963e-01 8.665934e-02 -1.937044e-01 -1.049408e-01 3.942773e-01 -3.345159e-01 2.434831e-01 3.307831e-01 -1.013199e-01 1.613419e-02 -2.650943e-01 8.299860e-01
<VARIANCE> 39
 7.681310e+01 3.520957e+01 7.890765e+01 4.056920e+01 6.801273e+01 2.241347e+01 3.650021e+01 2.778045e+01 2.002050e+01 1.677632e+01 1.419515e+01 1.565435e+01 9.929972e+01 5.699404e+00 7.599082e+00 4.148280e+00 3.689024e+00 3.520372e+00 3.093398e+00 3.426468e+00 2.428722e+00 2.685637e+00 2.677383e+00 1.927752e+00 2.473446e+00 9.666783e+00 6.325339e-01 7.599421e-01 5.661978e-01 6.633166e-01 5.225412e-01 3.353222e-01 4.543619e-01 4.255970e-01 2.744582e-01 3.696874e-01 3.431821e-01 4.295709e-01 9.321398e-01
<GCONST> 1.251578e+02
<STATE> 3
<MEAN> 39
 1.328990e+01 -1.197775e+01 7.271919e+00 -5.969873e+00 -8.814838e+00 1.038069e+01 -1.292371e+01 1.410041e+00 4.570811e+00 -6.819815e+00 2.712342e+00 -6.602000e+00 5.400661e+01 -4.130384e-01 5.031323e-01 1.411812e-01 3.880364e-01 3.579436e-01 6.763702e-02 2.520328e-01 7.610137e-03 -1.574653e-01 -3.931665e-02 2.021345e-02 8.363168e-02 -7.308093e-01 -1.779910e-01 1.338772e-01 -3.538330e-03 1.096802e-01 6.745478e-02 -6.265924e-02 7.119087e-02 -3.832027e-02 -8.542094e-02 9.660969e-03 -2.451185e-02 5.631086e-02 -2.481675e-01
<VARIANCE> 39
 5.159427e+01 7.045193e+01 4.895113e+01 2.996659e+01 3.919452e+01 3.260480e+01 4.332895e+01 5.218482e+01 4.550083e+01 2.433127e+01 3.538360e+01 2.158506e+01 1.060646e+02 1.730096e+00 3.071251e+00 3.059376e+00 1.454250e+00 1.769575e+00 2.016010e+00 3.289586e+00 3.205690e+00 2.086441e+00 2.063425e+00 2.416680e+00 1.888688e+00 3.354542e+00 2.058685e-01 5.059997e-01 4.574717e-01 2.636547e-01 3.078267e-01 3.106793e-01 5.310403e-01 4.534750e-01 3.077986e-01 3.667494e-01 3.359526e-01 3.549456e-01 3.616524e-01
<GCONST> 1.178609e+02
<STATE> 4
<MEAN> 39
 -4.996461e+00 -2.695174e+00 6.605430e+00 3.501979e-01 -5.843880e+00 4.744008e+00 -5.617804e+00 1.886247e+00 1.918714e+00 -3.509255e+00 2.801610e+00 -2.382867e+00 3.173416e+01 -7.465012e-02 9.956592e-03 2.096636e-02 2.810832e-02 1.865693e-02 -2.182531e-02 -4.069755e-03 2.493140e-02 2.115446e-02 3.094527e-02 -1.215494e-03 6.934813e-03 -6.111219e-02 2.919484e-02 -1.976737e-02 -1.758083e-02 -2.098196e-02 -1.778356e-02 -8.017987e-04 -1.155908e-02 -7.434705e-03 -3.649409e-03 -2.016323e-03 -3.547272e-03 -5.490787e-03 3.026038e-02
<VARIANCE> 39
 9.518918e+00 8.013231e+00 1.139292e+01 1.606191e+01 1.681948e+01 1.544731e+01 1.475678e+01 1.491717e+01 1.678013e+01 1.564795e+01 1.295884e+01 1.199530e+01 5.264448e+00 3.529268e-01 5.222140e-01 6.854853e-01 9.300550e-01 1.002465e+00 1.242463e+00 1.238858e+00 1.374686e+00 1.388203e+00 1.292274e+00 1.281612e+00 1.250361e+00 1.597207e-01 6.152801e-02 1.149700e-01 1.365056e-01 1.871124e-01 1.962159e-01 2.460043e-01 2.517341e-01 2.767604e-01 2.764726e-01 2.616248e-01 2.698556e-01 2.694928e-01 2.586549e-02
<GCONST> 7.906919e+01
<TRANSP> 5
 0.000000e+00 1.000000e+00 0.000000e+00 0.000000e+00 0.000000e+00
 0.000000e+00 4.972024e-01 5.027976e-01 0.000000e+00 0.000000e+00
 0.000000e+00 0.000000e+00 8.678550e-01 1.321450e-01 0.000000e+00
 0.000000e+00 0.000000e+00 0.000000e+00 9.467837e-01 5.321630e-02
 0.000000e+00 0.000000e+00 0.000000e+00 0.000000e+00 0.000000e+00
<ENDHMM>
~h "s"
<BEGINHMM>
<NUMSTATES> 5
<STATE> 2
<NUMMIXES> 3
<MIXTURE> 1 7.903436e-02
<MEAN> 39
 -3.149273e+00 -7.883461e+00 5.998504e+00 -5.073834e-01 -9.156688e+00 6.654751e+00 -3.431925e+00 4.749788e+00 9.183473e+00 -1.194320e+00 4.859172e+00 1.673901e-01 3.466354e+01 2.267306e+00 9.363421e-01 -8.847457e-01 -1.049689e+00 -5.187780e-01 -7.428791e-01 -1.957315e-01 -5.569862e-01 9.969746e-02 7.827429e-01 -3.966706e-01 1.086330e-01 2.051449e+00 9.854106e-01 -4.788865e-01 3.008752e-01 -4.985275e-01 -1.320767e-01 2.841347e-01 -1.228848e+00 -2.887472e-01 -2.548612e-01 -8.097374e-01 -3.181584e-01 -4.823720e-01 1.323509e+00
<VARIANCE> 39
 9.406328e+01 1.661979e+01 3.110703e+01 7.861915e+00 3.213480e+01 1.987249e+01 1.319811e+00 1.378540e+01 3.522781e+01 9.757572e+00 2.065054e+01 9.486244e+00 8.335452e+01 1.066798e+01 1.194376e+01 3.485663e+00 1.980254e+00 2.872546e+00 4.336405e+00 3.801530e+00 1.148487e+00 1.302850e-01 4.429640e+00 2.036612e+00 1.164330e+00 1.540494e+01 6.254598e-01 8.283918e-01 5.933594e-01 2.474010e-01 1.692785e-01 4.557130e-01 3.452942e-01 6.416987e-01 2.290507e-01 2.487508e-01 7.199655e-01 8.863191e-02 9.289262e-01
<GCONST> 1.109200e+02
<MIXTURE> 2 4.072915e-01
<MEAN> 39
 -6.803409e+00 -4.792984e+00 7.292446e+00 2.167742e+00 -4.711278e+00 4.750954e+00 -6.904233e+00 -8.475843e-01 -3.385176e-01 -5.409263e+00 6.966521e-01 -2.905205e+00 3.135740e+01 -3.805304e-02 -3.864596e-01 -6.366987e-01 -3.162691e-01 -5.309173e-03 1.442960e-01 6.374560e-02 -2.455977e-01 -2.272615e-01 -9.657702e-03 2.276620e-01 -2.162238e-01 7.621869e-02 -1.310443e-02 -9.657376e-02 -1.971224e-01 -1.672636e-01 -6.214401e-02 5.018851e-02 5.755812e-02 2.931314e-03 -6.700549e-02 -1.500215e-02 1.347393e-01 4.325075e-02 -2.620689e-02
<VARIANCE> 39
 3.104497e+01 2.975670e+01 1.688503e+01 1.475944e+01 1.272872e+01 8.058726e+00 1.513977e+01 1.202601e+01 1.794764e+01 1.274647e+01 9.941420e+00 1.043250e+01 2.768406e+01 7.286150e-01 1.015282e+00 1.969412e+00 1.734716e+00 1.218466e+00 8.318805e-01 8.574278e-01 1.015128e+00 1.112715e+00 1.098316e+00 1.132540e+00 1.321952e+00 3.407493e-01 1.431644e-01 1.661662e-01 3.151417e-01 2.293382e-01 1.871692e-01 1.601052e-01 2.567213e-01 2.154896e-01 1.642986e-01 2.823136e-01 2.147109e-01 2.358110e-01 7.492229e-02
<GCONST> 8.617023e+01
<MIXTURE> 3 5.136737e-01
<MEAN> 39
 -6.803416e+00 -5.115340e+00 5.716775e+00 1.049592e+00 -5.349726e+00 4.451595e+00 -5.521912e+00 1.300136e+00 1.715704e+00 -3.410306e+00 2.436816e+00 -1.096691e+00 3.129514e+01 -8.473798e-02 5.299221e-02 -2.645653e-01 -2.517808e-01 -1.331397e-01 4.805903e-01 4.189529e-01 3.216947e-01 4.763785e-01 -7.898910e-02 -1.251477e-01 -1.132853e-01 5.583325e-03 7.901798e-02 8.719112e-02 1.605837e-02 3.855979e-02 8.829492e-02 1.607493e-01 9.971075e-03 4.474713e-02 -4.895415e-02 -1.298016e-01 -1.401657e-01 -2.440398e-01 4.217323e-02
<VARIANCE> 39
 8.451860e+01 4.910387e+01 3.632280e+01 2.243131e+01 1.539364e+01 1.056519e+01 2.749018e+01 1.275345e+01 2.495412e+01 1.742513e+01 1.487180e+01 1.279056e+01 1.010604e+02 2.683662e-01 6.266550e-01 9.670890e-01 9.152826e-01 6.401470e-01 1.276492e+00 1.235503e+00 1.302197e+00 1.299514e+00 1.439670e+00 8.017958e-01 1.494537e+00 1.338736e-01 8.541388e-02 1.488264e-01 2.110966e-01 1.711507e-01 1.323610e-01 1.240920e-01 2.820896e-01 1.441362e-01 1.526292e-01 2.656368e-01 2.091934e-01 1.725669e-01 7.131415e-02
<GCONST> 8.660146e+01
<STATE> 3
<NUMMIXES> 3
<MIXTURE> 1 5.255665e-02
<MEAN> 39
 -5.593501e+00 -1.090566e+01 5.161064e+00 -8.494625e-01 -7.746387e+00 6.921201e+00 -8.921237e+00 -6.046504e-01 1.678705e+00 -4.293549e+00 3.338752e+00 -5.595173e-01 3.435087e+01 5.945519e+00 -3.766021e+00 3.767603e+00 -1.035737e+00 -2.451719e+00 3.361974e+00 -3.096705e+00 7.587190e-01 2.786033e-01 -2.902576e+00 1.536320e+00 -9.996877e-01 7.074256e+00 -4.130100e-01 7.143798e-01 1.649919e-01 4.277684e-01 6.894614e-01 -1.478346e-01 3.713115e-01 2.489153e-01 1.308670e-02 1.232610e-01 -1.845638e-01 -2.163249e-01 -6.311267e-01
<VARIANCE> 39
 1.777806e+02 1.304341e+02 3.623853e+01 1.482277e+01 3.214993e+01 6.493243e+01 4.551526e+01 1.612073e+01 1.783877e+01 4.552526e+01 8.141186e+00 6.147976e+00 2.519772e+02 1.175172e+01 1.489890e+01 6.706548e+00 2.117878e+00 3.169929e+00 6.303185e+00 5.363068e+00 1.374591e+00 8.245273e-01 5.259482e+00 5.225976e+00 9.490204e-01 2.067223e+01 1.833523e+00 2.022564e+00 6.168131e-01 1.262846e-01 4.401651e-01 8.609157e-01 7.451534e-01 2.405056e-01 7.416113e-02 7.166765e-01 3.085473e-01 5.018962e-01 3.032577e+00
<GCONST> 1.296855e+02
<MIXTURE> 2 5.345376e-01
<MEAN> 39
 -5.494263e+00 -3.610743e+00 4.813507e+00 -5.163187e-02 -5.331898e+00 5.557570e+00 -4.925004e+00 8.300464e-01 2.133579e+00 -3.662065e+00 2.612348e+00 -1.302455e+00 3.180946e+01 5.233204e-02 6.798528e-02 -4.083436e-02 3.695536e-02 2.546478e-01 3.845083e-01 -3.289442e-01 -4.180676e-01 -1.755756e-01 -5.767303e-01 -6.140162e-01 -4.924272e-01 1.038786e-01 3.796926e-03 -7.665822e-02 2.485568e-01 3.948520e-02 -5.001193e-02 3.527605e-02 -1.856670e-01 -1.133341e-01 -1.543105e-01 -1.661281e-01 -1.768735e-02 -2.505643e-02 2.395567e-02
<VARIANCE> 39
 6.590247e+01 3.044122e+01 4.485741e+01 3.451823e+01 2.360159e+01 1.845117e+01 3.114665e+01 1.371740e+01 2.077442e+01 1.301607e+01 9.859097e+00 1.354585e+01 6.601888e+01 1.323654e+00 6.490996e-01 1.363682e+00 1.499687e+00 1.175256e+00 1.339448e+00 1.828915e+00 1.785931e+00 1.724676e+00 1.101817e+00 1.212234e+00 8.273315e-01 1.401443e+00 8.305955e-02 2.380094e-01 2.695327e-01 2.273526e-01 2.484016e-01 2.943285e-01 3.436145e-01 2.353368e-01 2.781089e-01 2.870303e-01 1.527530e-01 2.997920e-01 9.374431e-02
<GCONST> 9.680238e+01
<MIXTURE> 3 4.129056e-01
<MEAN> 39
 -2.750127e+00 -4.419040e+00 3.861014e+00 -3.027826e+00 -7.289453e+00 5.887006e+00 -5.905980e+00 1.261948e+00 2.596811e+00 -4.129478e+00 2.876103e+00 -9.443345e-01 3.475914e+01 4.515735e-02 2.877181e-01 2.060342e-01 5.438053e-02 6.306479e-02 3.953408e-01 5.638902e-02 -3.987877e-02 1.872028e-01 7.378748e-02 -1.196143e-01 -3.707193e-01 -1.767550e-02 -1.404799e-01 5.047503e-02 4.708425e-01 3.457125e-01 1.836812e-01 2.108049e-03 -2.396882e-01 -4.356388e-02 -3.600157e-02 -8.021872e-02 -1.449902e-01 -1.675729e-01 -1.345264e-01
<VARIANCE> 39
 8.978575e+01 3.759512e+01 5.031503e+01 4.942756e+01 3.225080e+01 1.437526e+01 5.575919e+01 1.455034e+01 3.807265e+01 1.297151e+01 1.050203e+01 1.289166e+01 1.200162e+02 1.005670e+00 1.180937e+00 2.084331e+00 2.391349e+00 1.569467e+00 1.182526e+00 2.189424e+00 1.440643e+00 1.230837e+00 1.307953e+00 1.104669e+00 1.014380e+00 1.225717e+00 1.554804e-01 2.352189e-01 3.811029e-01 3.622733e-01 3.159940e-01 2.901786e-01 5.659538e-01 2.931341e-01 2.478146e-01 2.703130e-01 2.078395e-01 2.844240e-01 1.563077e-01
<GCONST> 1.038333e+02
<STATE> 4
<NUMMIXES> 3
<MIXTURE> 1 1.819286e-01
<MEAN> 39
 -3.988880e+00 8.226421e-01 9.960702e+00 3.109696e+00 -2.775124e+00 7.378975e+00 -3.231666e+00 3.913776e+00 2.629562e+00 -3.088449e+00 3.195178e+00 -2.703742e+00 3.163417e+01 1.496804e-01 2.561792e-01 2.970222e-01 2.715631e-01 3.014574e-01 3.304955e-01 2.849176e-01 2.478479e-01 2.765947e-01 2.673218e-01 1.454921e-01 1.335820e-01 4.566286e-02 4.020648e-02 1.722036e-02 4.149644e-03 5.076614e-03 -5.226600e-03 -4.378319e-02 -7.157828e-02 -7.183964e-02 -7.767037e-02 -7.513165e-02 -3.836599e-02 -1.593491e-02 2.245123e-02
<VARIANCE> 39
 7.123216e+00 8.224031e+00 9.312457e+00 1.361430e+01 1.660152e+01 1.430065e+01 1.345016e+01 1.842373e+01 1.927842e+01 1.760987e+01 1.140280e+01 1.012839e+01 1.907260e+00 2.584545e-01 4.356574e-01 6.600226e-01 9.151872e-01 1.367733e+00 1.434656e+00 1.346020e+00 1.426962e+00 1.704744e+00 1.624272e+00 1.399177e+00 1.350456e+00 7.260739e-02 4.510958e-02 9.192199e-02 1.677688e-01 2.343475e-01 3.360048e-01 3.276702e-01 2.732441e-01 3.087067e-01 3.676055e-01 3.462750e-01 2.899660e-01 2.783104e-01 1.216889e-02
<GCONST> 7.807784e+01
<MIXTURE> 2 5.119058e-01
<MEAN> 39
 -9.656633e+00 -2.842589e+00 8.545192e+00 2.656690e+00 -3.457805e+00 4.902655e+00 -7.976153e+00 -1.470524e+00 -1.461914e+00 -6.351766e+00 1.063779e+00 -3.180485e+00 2.861513e+01 -1.092179e-01 -1.400395e-01 -1.343340e-01 -1.032291e-01 -8.190052e-02 -1.161797e-01 -1.554363e-01 -1.503929e-01 -2.042795e-01 -1.788922e-01 -1.134932e-01 -8.433810e-02 -4.385802e-02 -1.763944e-02 -1.515207e-02 -1.320630e-02 -2.152085e-03 6.299373e-03 1.517214e-02 2.983399e-02 1.826276e-02 -6.751627e-03 1.551345e-02 1.590723e-02 1.525165e-02 -1.059161e-02
<VARIANCE> 39
 1.304002e+01 1.057980e+01 6.998519e+00 6.566300e+00 1.102202e+01 1.141945e+01 1.401146e+01 1.350658e+01 1.298092e+01 1.273218e+01 1.068636e+01 1.129670e+01 6.621107e+00 3.589597e-01 7.517267e-01 5.905878e-01 7.162514e-01 1.034438e+00 1.254208e+00 1.289978e+00 1.406307e+00 1.318996e+00 1.356359e+00 1.136118e+00 1.238564e+00 1.616921e-01 8.591227e-02 1.758954e-01 1.261901e-01 1.378461e-01 2.125737e-01 2.708983e-01 2.715591e-01 2.912583e-01 2.880836e-01 2.816027e-01 2.333510e-01 2.664696e-01 5.301329e-02
<GCONST> 7.822613e+01
<MIXTURE> 3 3.061672e-01
<MEAN> 39
 -7.488577e+00 -1.693059e+00 8.844783e+00 2.730096e+00 -3.292681e+00 5.757431e+00 -6.454012e+00 1.645229e-01 -3.392317e-01 -5.417905e+00 1.727757e+00 -3.019854e+00 2.987024e+01 6.360839e-02 4.261046e-02 6.245172e-02 1.152392e-02 -5.830785e-02 -9.688852e-03 6.367108e-02 1.080124e-01 1.957548e-01 1.287731e-01 7.510803e-02 5.784131e-03 3.345567e-02 5.153875e-03 -4.361328e-03 1.446152e-02 -3.839670e-03 -2.556355e-02 -2.156202e-02 1.736925e-03 1.727573e-02 6.221069e-02 4.091318e-02 7.541643e-03 7.533416e-03 6.117922e-03
<VARIANCE> 39
 2.264540e+01 1.130910e+01 9.288572e+00 1.019873e+01 1.160341e+01 1.396620e+01 1.847646e+01 1.846923e+01 1.928913e+01 1.710653e+01 1.260290e+01 1.131358e+01 1.256521e+01 2.926078e-01 5.239632e-01 6.387203e-01 7.276736e-01 9.623828e-01 1.329191e+00 1.251943e+00 1.261641e+00 1.307152e+00 1.403639e+00 1.277982e+00 1.273067e+00 1.249755e-01 6.389401e-02 1.037178e-01 1.254718e-01 1.565292e-01 1.999692e-01 3.001270e-01 2.895476e-01 3.014639e-01 3.158709e-01 3.211488e-01 2.765208e-01 2.694812e-01 2.407253e-02
<GCONST> 8.024996e+01
<TRANSP> 5
 0.000000e+00 1.000000e+00 0.000000e+00 0.000000e+00 0.000000e+00
 0.000000e+00 3.423471e-01 6.576529e-01 0.000000e+00 0.000000e+00
 0.000000e+00 0.000000e+00 1.961103e-01 8.038897e-01 0.000000e+00
 0.000000e+00 0.000000e+00 0.000000e+00 9.766628e-01 2.333718e-02
 0.000000e+00 0.000000e+00 0.000000e+00 0.000000e+00 0.000000e+00
<ENDHMM>
~h "t"
<BEGINHMM>
<NUMSTATES> 5
<STATE> 2
<NUMMIXES> 3
<MIXTURE> 1 1.552580e-01
<MEAN> 39
 -7.849486e-01 -1.006915e+01 8.548746e+00 -1.670832e+00 -9.856332e+00 9.418003e+00 -5.760509e+00 2.852082e+00 3.741535e+00 -3.808817e+00 4.205081e+00 -4.411824e+00 3.835438e+01 7.724701e-01 1.074427e-02 4.302183e-01 1.079989e-01 -1.029837e-01 3.898330e-01 3.132629e-01 7.612755e-01 3.941668e-01 3.412569e-01 6.799420e-01 1.057464e-01 5.853816e-01 -3.943754e-01 7.266726e-01 -3.680120e-01 1.119349e-01 3.792277e-01 -6.675541e-01 -6.115984e-04 -4.361995e-02 -6.818771e-02 1.233115e-01 -2.259934e-01 2.720759e-01 -6.253347e-01
<VARIANCE> 39
 6.281549e+01 1.067101e+02 5.048307e+01 3.599873e+01 3.325361e+01 3.636890e+01 3.761279e+01 4.483480e+01 3.061947e+01 2.412755e+01 1.282149e+01 1.287705e+01 6.689914e+01 6.086438e+00 9.073831e+00 5.704268e+00 2.481997e+00 4.945880e+00 6.134186e+00 3.721055e+00 2.635385e+00 3.057829e+00 4.719171e+00 2.609315e+00 2.226429e+00 9.926767e+00 9.159587e-01 1.822137e+00 1.623646e+00 4.455983e-01 7.771238e-01 8.814651e-01 1.005618e+00 7.826851e-01 5.249012e-01 7.533810e-01 4.426495e-01 2.993824e-01 1.847995e+00
<GCONST> 1.347531e+02
<MIXTURE> 2 4.486841e-01
<MEAN> 39
 -5.718846e+00 -4.310149e+00 4.508219e+00 3.258016e-01 -5.214945e+00 4.527103e+00 -4.604176e+00 2.715969e+00 3.452629e+00 -2.321182e+00 2.243552e+00 -2.278634e+00 3.140157e+01 -4.226676e-01 -5.279915e-02 -2.967060e-01 4.705323e-02 4.590673e-02 -1.415447e-01 -3.153283e-02 -6.384293e-01 -5.890641e-01 -3.328286e-01 -3.154835e-01 1.406630e-01 -3.487861e-01 2.612528e-01 -1.151512e-01 2.105129e-01 -1.137540e-01 -1.668786e-01 2.024396e-01 -2.738112e-01 -1.148121e-01 -1.042267e-01 -2.420252e-01 -2.732027e-03 -1.577826e-01 3.089869e-01
<VARIANCE> 39
 6.477235e+01 2.071667e+01 2.566960e+01 2.218082e+01 2.652752e+01 1.956392e+01 2.142003e+01 1.803115e+01 2.813139e+01 1.905614e+01 1.418394e+01 1.733381e+01 4.186953e+01 1.436017e+00 2.240491e+00 1.803733e+00 2.175643e+00 2.368445e+00 1.752346e+00 1.814841e+00 1.907893e+00 2.268678e+00 2.107576e+00 1.150407e+00 1.314018e+00 1.329892e+00 2.525616e-01 4.575044e-01 3.433362e-01 3.267694e-01 3.451999e-01 3.694116e-01 3.524661e-01 3.322919e-01 4.011381e-01 4.095989e-01 2.553938e-01 2.980460e-01 2.649573e-01
<GCONST> 1.061601e+02
<MIXTURE> 3 3.960578e-01
<MEAN> 39
 -1.607949e+00 -6.077232e+00 6.461389e+00 9.617647e-02 -7.034314e+00 6.675648e+00 -5.120812e+00 3.073501e+00 3.560207e+00 -3.494126e+00 3.017800e+00 -3.216763e+00 3.578658e+01 -1.260749e-01 -9.167187e-02 -2.250505e-01 8.927391e-02 -2.424578e-02 -2.187234e-02 2.034686e-01 -2.096691e-01 -2.363918e-01 8.926878e-03 9.240340e-02 2.505040e-01 -1.163406e-01 1.094314e-01 7.923245e-02 1.530677e-01 -1.414656e-01 -1.093303e-01 -7.180004e-02 -2.882295e-01 -1.381746e-01 -6.804977e-02 -9.566465e-02 1.357835e-03 -2.927014e-02 1.345962e-01
<VARIANCE> 39
 5.936234e+01 4.569181e+01 3.377760e+01 3.363252e+01 3.755519e+01 2.476140e+01 2.706727e+01 2.772122e+01 3.399804e+01 2.265988e+01 1.652490e+01 1.597446e+01 5.505945e+01 1.771253e+00 4.829951e+00 3.484682e+00 2.586841e+00 2.720092e+00 3.020455e+00 2.544944e+00 2.258261e+00 2.719191e+00 3.182940e+00 1.532996e+00 1.567960e+00 2.555911e+00 3.287125e-01 8.626367e-01 6.448098e-01 3.705110e-01 3.923840e-01 5.474994e-01 4.728499e-01 4.748871e-01 4.549637e-01 4.686536e-01 3.513981e-01 3.089873e-01 4.532539e-01
<GCONST> 1.181980e+02
<STATE> 3
<NUMMIXES> 3
<MIXTURE> 1 6.487103e-02
<MEAN> 39
 1.207170e+01 -5.899449e+00 8.954006e+00 -8.561006e+00 -1.496651e+01 7.691608e+00 -1.020019e+01 3.050927e+00 3.566148e+00 -8.274520e+00 4.201924e+00 -1.894416e+00 4.803599e+01 8.999059e-01 7.618437e-01 1.452152e+00 1.078287e-01 -3.381436e-01 -2.230898e-01 -5.974839e-01 -1.959056e-02 -1.737766e-01 -1.555124e-01 6.127877e-01 2.101379e-01 7.956211e-01 -2.096057e-01 2.409242e-01 1.627737e-01 3.399332e-01 2.291118e-01 -3.664442e-01 -1.195972e-01 4.486744e-02 3.619467e-01 6.181314e-01 1.548525e-01 -1.323439e-01 -1.506310e-01
<VARIANCE> 39
 3.414434e+01 2.120151e+01 4.010840e+01 4.449279e+01 4.042682e+01 2.960556e+01 2.124532e+01 3.021023e+01 2.235598e+01 1.833198e+01 1.738245e+01 9.150819e+00 3.891736e+01 3.988180e+00 2.198504e+00 6.278502e+00 2.198026e+00 2.096281e+00 1.534534e+00 3.145050e+00 2.111188e+00 1.520501e+00 2.365916e+00 1.096200e+00 9.988839e-01 4.626915e+00 1.547603e-01 4.393417e-01 6.581288e-01 6.697620e-01 4.050287e-01 5.327601e-01 3.643144e-01 4.530371e-01 4.052410e-01 4.594203e-01 2.306070e-01 1.741243e-01 1.079103e-01
<GCONST> 1.108421e+02
<MIXTURE> 2 4.386144e-01
<MEAN> 39
 5.063673e+00 -5.412561e+00 7.271351e+00 -3.344597e+00 -8.247946e+00 7.464745e+00 -8.038820e+00 2.547101e+00 3.528931e+00 -4.967545e+00 3.268693e+00 -3.723896e+00 4.228276e+01 -5.506271e-01 2.749908e-01 -1.275908e-01 3.029924e-01 3.171238e-01 -2.037544e-01 3.479898e-02 -3.305676e-01 -3.432105e-01 -1.054865e-02 -1.193304e-01 -4.549204e-03 -5.896756e-01 -6.456080e-03 -4.452402e-02 -2.130589e-02 -8.911361e-02 -5.030435e-02 6.950262e-03 -4.679820e-02 1.360832e-02 -1.305196e-02 -4.323018e-02 6.460047e-04 -3.161485e-02 1.873774e-02
<VARIANCE> 39
 1.271797e+02 3.453333e+01 4.915921e+01 4.556940e+01 4.555544e+01 2.581349e+01 4.755758e+01 2.837093e+01 2.650629e+01 2.978638e+01 2.543874e+01 1.974875e+01 1.425584e+02 1.183303e+00 1.606725e+00 1.600962e+00 1.663124e+00 1.555921e+00 1.695516e+00 1.869613e+00 2.095705e+00 1.785862e+00 1.738371e+00 1.452481e+00 1.273963e+00 1.439867e+00 1.480169e-01 2.752349e-01 2.607301e-01 2.410148e-01 2.908243e-01 2.963111e-01 3.340929e-01 3.371688e-01 2.950973e-01 3.335080e-01 2.618826e-01 2.789820e-01 1.495091e-01
<GCONST> 1.085390e+02
<MIXTURE> 3 4.965132e-01
<MEAN> 39
 1.405063e+01 -6.684151e+00 9.987912e+00 -8.117072e+00 -1.293252e+01 7.745242e+00 -1.281144e+01 2.246042e+00 4.927599e+00 -4.998820e+00 6.261521e+00 -3.900134e+00 5.222688e+01 -1.760320e-01 -5.451718e-02 -2.617063e-01 7.687886e-02 3.503160e-01 1.811553e-01 1.158620e-01 2.000170e-02 6.694429e-02 9.599592e-02 -3.386095e-02 -5.045264e-02 -1.674413e-01 -7.079203e-02 8.764928e-03 -1.625909e-02 5.320742e-02 4.686351e-02 2.867909e-02 6.744093e-02 2.422481e-02 -2.098294e-02 -4.025616e-02 -4.927909e-02 -1.586925e-02 -9.021392e-02
<VARIANCE> 39
 4.304448e+01 3.762548e+01 5.163788e+01 3.578013e+01 3.127857e+01 2.372234e+01 3.202307e+01 3.370646e+01 2.827009e+01 2.369876e+01 3.192161e+01 1.673305e+01 6.689748e+01 8.382258e-01 1.486385e+00 1.508706e+00 2.111436e+00 1.550343e+00 1.548644e+00 1.476570e+00 1.778904e+00 1.564308e+00 1.666967e+00 1.680062e+00 1.186460e+00 1.362548e+00 1.186809e-01 2.181288e-01 2.292393e-01 3.024099e-01 2.872366e-01 2.946872e-01 2.572494e-01 2.719504e-01 2.636104e-01 2.780180e-01 2.535794e-01 2.252640e-01 1.384405e-01
<GCONST> 1.034457e+02
<STATE> 4
<NUMMIXES> 3
<MIXTURE> 1 1.827009e-01
<MEAN> 39
 -5.819806e+00 -1.782749e+00 8.373750e+00 2.528081e+00 -3.602615e+00 6.342791e+00 -4.539436e+00 2.311406e+00 1.447425e+00 -3.728752e+00 3.035543e+00 -2.219762e+00 3.098237e+01 2.709388e-01 4.912684e-01 3.287749e-01 2.616555e-01 4.820950e-01 4.851865e-01 5.297807e-01 6.040214e-01 4.994821e-01 4.267331e-01 4.148411e-01 2.437687e-01 6.604680e-02 6.986306e-02 5.039237e-02 3.523754e-02 -8.569309e-03 -1.218347e-02 -9.126941e-03 -5.386865e-02 -1.988694e-02 5.010036e-03 -9.871718e-03 -8.503278e-03 -1.807054e-02 4.189673e-02
<VARIANCE> 39
 8.925340e+00 1.028016e+01 1.150509e+01 1.450948e+01 1.395612e+01 1.224255e+01 1.131277e+01 1.437680e+01 1.495924e+01 1.537623e+01 1.323546e+01 1.223060e+01 2.939802e+00 4.129325e-01 7.064403e-01 6.939859e-01 9.841794e-01 1.005363e+00 1.106439e+00 1.204022e+00 1.406184e+00 1.504552e+00 1.397211e+00 1.380407e+00 1.357344e+00 1.183540e-01 7.804485e-02 1.625560e-01 1.383427e-01 1.793619e-01 2.327010e-01 2.376634e-01 2.778183e-01 3.238369e-01 2.875007e-01 2.835458e-01 3.038136e-01 2.732333e-01 2.197960e-02
<GCONST> 7.922617e+01
<MIXTURE> 2 4.148344e-01
<MEAN> 39
 -7.194174e+00 -2.372606e+00 8.541081e+00 2.516899e+00 -3.822382e+00 5.654562e+00 -6.428643e+00 1.575697e-01 -1.388451e-01 -5.397309e+00 1.647754e+00 -2.883220e+00 3.025639e+01 -1.634928e-01 -1.821929e-01 -1.414498e-01 -1.474876e-01 -2.327820e-01 -2.465716e-01 -2.892919e-01 -3.179151e-01 -2.766969e-01 -2.579379e-01 -2.243089e-01 -1.284502e-01 -7.276890e-02 -1.742731e-02 -4.145839e-02 -2.206751e-02 -1.556897e-02 -1.504507e-02 1.134683e-02 2.070032e-02 1.112453e-02 1.702037e-02 1.930740e-02 9.421630e-03 2.258885e-03 -1.165481e-03
<VARIANCE> 39
 1.443087e+01 8.364201e+00 1.043269e+01 1.078110e+01 1.156017e+01 1.175067e+01 1.466322e+01 1.525782e+01 1.459683e+01 1.525646e+01 1.342135e+01 1.168221e+01 7.246666e+00 3.592681e-01 5.365875e-01 6.235744e-01 7.802024e-01 1.021570e+00 1.143494e+00 1.279081e+00 1.296981e+00 1.207412e+00 1.348436e+00 1.332017e+00 1.222109e+00 1.317278e-01 7.343785e-02 1.166663e-01 1.320866e-01 1.569404e-01 2.153391e-01 2.415847e-01 2.862747e-01 2.986610e-01 2.722449e-01 2.933121e-01 2.901830e-01 2.532168e-01 2.277696e-02
<GCONST> 7.822745e+01
<MIXTURE> 3 4.024486e-01
<MEAN> 39
 -6.001348e+00 -1.967046e+00 8.227480e+00 2.245778e+00 -4.079453e+00 5.832350e+00 -5.375642e+00 1.486507e+00 9.136352e-01 -4.360316e+00 2.349036e+00 -2.789088e+00 3.091945e+01 -2.267314e-02 -1.741619e-02 7.099310e-03 4.075890e-02 3.641469e-02 2.822048e-02 3.928922e-02 5.043658e-02 3.368320e-02 6.086168e-02 6.111791e-02 4.438661e-02 -1.252154e-02 9.424147e-03 -4.274877e-03 -2.246532e-03 -2.511352e-03 4.689363e-03 8.197784e-03 7.920270e-03 -5.432668e-03 -1.188425e-02 -7.194292e-03 -2.864762e-03 4.958012e-03 8.555140e-03
<VARIANCE> 39
 7.612537e+00 8.055745e+00 9.838611e+00 1.228687e+01 1.216029e+01 1.189289e+01 1.247797e+01 1.492188e+01 1.423874e+01 1.462197e+01 1.327936e+01 1.185516e+01 2.475032e+00 2.422817e-01 4.353964e-01 5.352575e-01 7.116379e-01 9.233182e-01 1.016722e+00 1.162264e+00 1.212442e+00 1.197609e+00 1.294733e+00 1.335619e+00 1.200257e+00 7.075266e-02 5.654462e-02 1.049791e-01 1.201727e-01 1.574480e-01 2.141758e-01 2.337293e-01 2.578201e-01 2.872040e-01 2.666500e-01 2.886950e-01 2.968569e-01 2.580244e-01 1.620182e-02
<GCONST> 7.347246e+01
<TRANSP> 5
 0.000000e+00 1.000000e+00 0.000000e+00 0.000000e+00 0.000000e+00
 0.000000e+00 3.593831e-01 6.406168e-01 0.000000e+00 0.000000e+00
 0.000000e+00 0.000000e+00 7.428750e-01 2.571250e-01 0.000000e+00
 0.000000e+00 0.000000e+00 0.000000e+00 9.711376e-01 2.886244e-02
 0.000000e+00 0.000000e+00 0.000000e+00 0.000000e+00 0.000000e+00
<ENDHMM>
~h "t+ih"
<BEGINHMM>
<NUMSTATES> 5
<STATE> 2
<NUMMIXES> 3
<MIXTURE> 1 1.552580e-01
<MEAN> 39
 -7.849486e-01 -1.006915e+01 8.548746e+00 -1.670832e+00 -9.856332e+00 9.418003e+00 -5.760509e+00 2.852082e+00 3.741535e+00 -3.808817e+00 4.205081e+00 -4.411824e+00 3.835438e+01 7.724701e-01 1.074427e-02 4.302183e-01 1.079989e-01 -1.029837e-01 3.898330e-01 3.132629e-01 7.612755e-01 3.941668e-01 3.412569e-01 6.799420e-01 1.057464e-01 5.853816e-01 -3.943754e-01 7.266726e-01 -3.680120e-01 1.119349e-01 3.792277e-01 -6.675541e-01 -6.115984e-04 -4.361995e-02 -6.818771e-02 1.233115e-01 -2.259934e-01 2.720759e-01 -6.253347e-01
<VARIANCE> 39
 6.281549e+01 1.067101e+02 5.048307e+01 3.599873e+01 3.325361e+01 3.636890e+01 3.761279e+01 4.483480e+01 3.061947e+01 2.412755e+01 1.282149e+01 1.287705e+01 6.689914e+01 6.086438e+00 9.073831e+00 5.704268e+00 2.481997e+00 4.945880e+00 6.134186e+00 3.721055e+00 2.635385e+00 3.057829e+00 4.719171e+00 2.609315e+00 2.226429e+00 9.926767e+00 9.159587e-01 1.822137e+00 1.623646e+00 4.455983e-01 7.771238e-01 8.814651e-01 1.005618e+00 7.826851e-01 5.249012e-01 7.533810e-01 4.426495e-01 2.993824e-01 1.847995e+00
<GCONST> 1.347531e+02
<MIXTURE> 2 4.486841e-01
<MEAN> 39
 -5.718846e+00 -4.310149e+00 4.508219e+00 3.258016e-01 -5.214945e+00 4.527103e+00 -4.604176e+00 2.715969e+00 3.452629e+00 -2.321182e+00 2.243552e+00 -2.278634e+00 3.140157e+01 -4.226676e-01 -5.279915e-02 -2.967060e-01 4.705323e-02 4.590673e-02 -1.415447e-01 -3.153283e-02 -6.384293e-01 -5.890641e-01 -3.328286e-01 -3.154835e-01 1.406630e-01 -3.487861e-01 2.612528e-01 -1.151512e-01 2.105129e-01 -1.137540e-01 -1.668786e-01 2.024396e-01 -2.738112e-01 -1.148121e-01 -1.042267e-01 -2.420252e-01 -2.732027e-03 -1.577826e-01 3.089869e-01
<VARIANCE> 39
 6.477235e+01 2.071667e+01 2.566960e+01 2.218082e+01 2.652752e+01 1.956392e+01 2.142003e+01 1.803115e+01 2.813139e+01 1.905614e+01 1.418394e+01 1.733381e+01 4.186953e+01 1.436017e+00 2.240491e+00 1.803733e+00 2.175643e+00 2.368445e+00 1.752346e+00 1.814841e+00 1.907893e+00 2.268678e+00 2.107576e+00 1.150407e+00 1.314018e+00 1.329892e+00 2.525616e-01 4.575044e-01 3.433362e-01 3.267694e-01 3.451999e-01 3.694116e-01 3.524661e-01 3.322919e-01 4.011381e-01 4.095989e-01 2.553938e-01 2.980460e-01 2.649573e-01
<GCONST> 1.061601e+02
<MIXTURE> 3 3.960578e-01
<MEAN> 39
 -1.607949e+00 -6.077232e+00 6.461389e+00 9.617647e-02 -7.034314e+00 6.675648e+00 -5.120812e+00 3.073501e+00 3.560207e+00 -3.494126e+00 3.017800e+00 -3.216763e+00 3.578658e+01 -1.260749e-01 -9.167187e-02 -2.250505e-01 8.927391e-02 -2.424578e-02 -2.187234e-02 2.034686e-01 -2.096691e-01 -2.363918e-01 8.926878e-03 9.240340e-02 2.505040e-01 -1.163406e-01 1.094314e-01 7.923245e-02 1.530677e-01 -1.414656e-01 -1.093303e-01 -7.180004e-02 -2.882295e-01 -1.381746e-01 -6.804977e-02 -9.566465e-02 1.357835e-03 -2.927014e-02 1.345962e-01
<VARIANCE> 39
 5.936234e+01 4.569181e+01 3.377760e+01 3.363252e+01 3.755519e+01 2.476140e+01 2.706727e+01 2.772122e+01 3.399804e+01 2.265988e+01 1.652490e+01 1.597446e+01 5.505945e+01 1.771253e+00 4.829951e+00 3.484682e+00 2.586841e+00 2.720092e+00 3.020455e+00 2.544944e+00 2.258261e+00 2.719191e+00 3.182940e+00 1.532996e+00 1.567960e+00 2.555911e+00 3.287125e-01 8.626367e-01 6.448098e-01 3.705110e-01 3.923840e-01 5.474994e-01 4.728499e-01 4.748871e-01 4.549637e-01 4.686536e-01 3.513981e-01 3.089873e-01 4.532539e-01
<GCONST> 1.181980e+02
<STATE> 3
<NUMMIXES> 3
<MIXTURE> 1 6.487103e-02
<MEAN> 39
 1.207170e+01 -5.899449e+00 8.954006e+00 -8.561006e+00 -1.496651e+01 7.691608e+00 -1.020019e+01 3.050927e+00 3.566148e+00 -8.274520e+00 4.201924e+00 -1.894416e+00 4.803599e+01 8.999059e-01 7.618437e-01 1.452152e+00 1.078287e-01 -3.381436e-01 -2.230898e-01 -5.974839e-01 -1.959056e-02 -1.737766e-01 -1.555124e-01 6.127877e-01 2.101379e-01 7.956211e-01 -2.096057e-01 2.409242e-01 1.627737e-01 3.399332e-01 2.291118e-01 -3.664442e-01 -1.195972e-01 4.486744e-02 3.619467e-01 6.181314e-01 1.548525e-01 -1.323439e-01 -1.506310e-01
<VARIANCE> 39
 3.414434e+01 2.120151e+01 4.010840e+01 4.449279e+01 4.042682e+01 2.960556e+01 2.124532e+01 3.021023e+01 2.235598e+01 1.833198e+01 1.738245e+01 9.150819e+00 3.891736e+01 3.988180e+00 2.198504e+00 6.278502e+00 2.198026e+00 2.096281e+00 1.534534e+00 3.145050e+00 2.111188e+00 1.520501e+00 2.365916e+00 1.096200e+00 9.988839e-01 4.626915e+00 1.547603e-01 4.393417e-01 6.581288e-01 6.697620e-01 4.050287e-01 5.327601e-01 3.643144e-01 4.530371e-01 4.052410e-01 4.594203e-01 2.306070e-01 1.741243e-01 1.079103e-01
<GCONST> 1.108421e+02
<MIXTURE> 2 4.386144e-01
<MEAN> 39
 5.063673e+00 -5.412561e+00 7.271351e+00 -3.344597e+00 -8.247946e+00 7.464745e+00 -8.038820e+00 2.547101e+00 3.528931e+00 -4.967545e+00 3.268693e+00 -3.723896e+00 4.228276e+01 -5.506271e-01 2.749908e-01 -1.275908e-01 3.029924e-01 3.171238e-01 -2.037544e-01 3.479898e-02 -3.305676e-01 -3.432105e-01 -1.054865e-02 -1.193304e-01 -4.549204e-03 -5.896756e-01 -6.456080e-03 -4.452402e-02 -2.130589e-02 -8.911361e-02 -5.030435e-02 6.950262e-03 -4.679820e-02 1.360832e-02 -1.305196e-02 -4.323018e-02 6.460047e-04 -3.161485e-02 1.873774e-02
<VARIANCE> 39
 1.271797e+02 3.453333e+01 4.915921e+01 4.556940e+01 4.555544e+01 2.581349e+01 4.755758e+01 2.837093e+01 2.650629e+01 2.978638e+01 2.543874e+01 1.974875e+01 1.425584e+02 1.183303e+00 1.606725e+00 1.600962e+00 1.663124e+00 1.555921e+00 1.695516e+00 1.869613e+00 2.095705e+00 1.785862e+00 1.738371e+00 1.452481e+00 1.273963e+00 1.439867e+00 1.480169e-01 2.752349e-01 2.607301e-01 2.410148e-01 2.908243e-01 2.963111e-01 3.340929e-01 3.371688e-01 2.950973e-01 3.335080e-01 2.618826e-01 2.789820e-01 1.495091e-01
<GCONST> 1.085390e+02
<MIXTURE> 3 4.965132e-01
<MEAN> 39
 1.405063e+01 -6.684151e+00 9.987912e+00 -8.117072e+00 -1.293252e+01 7.745242e+00 -1.281144e+01 2.246042e+00 4.927599e+00 -4.998820e+00 6.261521e+00 -3.900134e+00 5.222688e+01 -1.760320e-01 -5.451718e-02 -2.617063e-01 7.687886e-02 3.503160e-01 1.811553e-01 1.158620e-01 2.000170e-02 6.694429e-02 9.599592e-02 -3.386095e-02 -5.045264e-02 -1.674413e-01 -7.079203e-02 8.764928e-03 -1.625909e-02 5.320742e-02 4.686351e-02 2.867909e-02 6.744093e-02 2.422481e-02 -2.098294e-02 -4.025616e-02 -4.927909e-02 -1.586925e-02 -9.021392e-02
<VARIANCE> 39
 4.304448e+01 3.762548e+01 5.163788e+01 3.578013e+01 3.127857e+01 2.372234e+01 3.202307e+01 3.370646e+01 2.827009e+01 2.369876e+01 3.192161e+01 1.673305e+01 6.689748e+01 8.382258e-01 1.486385e+00 1.508706e+00 2.111436e+00 1.550343e+00 1.548644e+00 1.476570e+00 1.778904e+00 1.564308e+00 1.666967e+00 1.680062e+00 1.186460e+00 1.362548e+00 1.186809e-01 2.181288e-01 2.292393e-01 3.024099e-01 2.872366e-01 2.946872e-01 2.572494e-01 2.719504e-01 2.636104e-01 2.780180e-01 2.535794e-01 2.252640e-01 1.384405e-01
<GCONST> 1.034457e+02
<STATE> 4
<NUMMIXES> 3
<MIXTURE> 1 1.827009e-01
<MEAN> 39
 -5.819806e+00 -1.782749e+00 8.373750e+00 2.528081e+00 -3.602615e+00 6.342791e+00 -4.539436e+00 2.311406e+00 1.447425e+00 -3.728752e+00 3.035543e+00 -2.219762e+00 3.098237e+01 2.709388e-01 4.912684e-01 3.287749e-01 2.616555e-01 4.820950e-01 4.851865e-01 5.297807e-01 6.040214e-01 4.994821e-01 4.267331e-01 4.148411e-01 2.437687e-01 6.604680e-02 6.986306e-02 5.039237e-02 3.523754e-02 -8.569309e-03 -1.218347e-02 -9.126941e-03 -5.386865e-02 -1.988694e-02 5.010036e-03 -9.871718e-03 -8.503278e-03 -1.807054e-02 4.189673e-02
<VARIANCE> 39
 8.925340e+00 1.028016e+01 1.150509e+01 1.450948e+01 1.395612e+01 1.224255e+01 1.131277e+01 1.437680e+01 1.495924e+01 1.537623e+01 1.323546e+01 1.223060e+01 2.939802e+00 4.129325e-01 7.064403e-01 6.939859e-01 9.841794e-01 1.005363e+00 1.106439e+00 1.204022e+00 1.406184e+00 1.504552e+00 1.397211e+00 1.380407e+00 1.357344e+00 1.183540e-01 7.804485e-02 1.625560e-01 1.383427e-01 1.793619e-01 2.327010e-01 2.376634e-01 2.778183e-01 3.238369e-01 2.875007e-01 2.835458e-01 3.038136e-01 2.732333e-01 2.197960e-02
<GCONST> 7.922617e+01
<MIXTURE> 2 4.148344e-01
<MEAN> 39
 -7.194174e+00 -2.372606e+00 8.541081e+00 2.516899e+00 -3.822382e+00 5.654562e+00 -6.428643e+00 1.575697e-01 -1.388451e-01 -5.397309e+00 1.647754e+00 -2.883220e+00 3.025639e+01 -1.634928e-01 -1.821929e-01 -1.414498e-01 -1.474876e-01 -2.327820e-01 -2.465716e-01 -2.892919e-01 -3.179151e-01 -2.766969e-01 -2.579379e-01 -2.243089e-01 -1.284502e-01 -7.276890e-02 -1.742731e-02 -4.145839e-02 -2.206751e-02 -1.556897e-02 -1.504507e-02 1.134683e-02 2.070032e-02 1.112453e-02 1.702037e-02 1.930740e-02 9.421630e-03 2.258885e-03 -1.165481e-03
<VARIANCE> 39
 1.443087e+01 8.364201e+00 1.043269e+01 1.078110e+01 1.156017e+01 1.175067e+01 1.466322e+01 1.525782e+01 1.459683e+01 1.525646e+01 1.342135e+01 1.168221e+01 7.246666e+00 3.592681e-01 5.365875e-01 6.235744e-01 7.802024e-01 1.021570e+00 1.143494e+00 1.279081e+00 1.296981e+00 1.207412e+00 1.348436e+00 1.332017e+00 1.222109e+00 1.317278e-01 7.343785e-02 1.166663e-01 1.320866e-01 1.569404e-01 2.153391e-01 2.415847e-01 2.862747e-01 2.986610e-01 2.722449e-01 2.933121e-01 2.901830e-01 2.532168e-01 2.277696e-02
<GCONST> 7.822745e+01
<MIXTURE> 3 4.024486e-01
<MEAN> 39
 -6.001348e+00 -1.967046e+00 8.227480e+00 2.245778e+00 -4.079453e+00 5.832350e+00 -5.375642e+00 1.486507e+00 9.136352e-01 -4.360316e+00 2.349036e+00 -2.789088e+00 3.091945e+01 -2.267314e-02 -1.741619e-02 7.099310e-03 4.075890e-02 3.641469e-02 2.822048e-02 3.928922e-02 5.043658e-02 3.368320e-02 6.086168e-02 6.111791e-02 4.438661e-02 -1.252154e-02 9.424147e-03 -4.274877e-03 -2.246532e-03 -2.511352e-03 4.689363e-03 8.197784e-03 7.920270e-03 -5.432668e-03 -1.188425e-02 -7.194292e-03 -2.864762e-03 4.958012e-03 8.555140e-03
<VARIANCE> 39
 7.612537e+00 8.055745e+00 9.838611e+00 1.228687e+01 1.216029e+01 1.189289e+01 1.247797e+01 1.492188e+01 1.423874e+01 1.462197e+01 1.327936e+01 1.185516e+01 2.475032e+00 2.422817e-01 4.353964e-01 5.352575e-01 7.116379e-01 9.233182e-01 1.016722e+00 1.162264e+00 1.212442e+00 1.197609e+00 1.294733e+00 1.335619e+00 1.200257e+00 7.075266e-02 5.654462e-02 1.049791e-01 1.201727e-01 1.574480e-01 2.141758e-01 2.337293e-01 2.578201e-01 2.872040e-01 2.666500e-01 2.886950e-01 2.968569e-01 2.580244e-01 1.620182e-02
<GCONST> 7.347246e+01
<TRANSP> 5
 0.000000e+00 1.000000e+00 0.000000e+00 0.000000e+00 0.000000e+00
 0.000000e+00 3.593831e-01 6.406168e-01 0.000000e+00 0.000000e+00
 0.000000e+00 0.000000e+00 7.428750e-01 2.571250e-01 0.000000e+00
 0.000000e+00 0.000000e+00 0.000000e+00 9.711376e-01 2.886244e-02
 0.000000e+00 0.000000e+00 0.000000e+00 0.000000e+00 0.000000e+00
<ENDHMM>
~h "#N"
<BEGINHMM>
<NUMSTATES> 5
<STATE> 2
<MEAN> 39
 -1.716973e+01 -2.616860e+00 -9.831511e-01 3.571043e-02 -1.374910e+00 2.160422e+00 -1.173890e+00 1.909471e+00 4.611379e-01 -8.747467e-01 1.384928e-01 -3.010605e-01 2.115092e+01 1.845102e-01 3.705761e-01 1.550769e-02 1.618608e-01 2.065149e-01 -3.828735e-02 1.709604e-01 -5.375981e-02 4.539781e-02 -5.500518e-02 1.522870e-02 1.151306e-01 -2.253057e-02 2.952177e-01 -1.624437e-01 1.204556e-01 -8.651618e-02 -2.057406e-01 8.567809e-02 -1.572921e-01 4.762267e-02 2.582471e-02 -8.830956e-02 8.593056e-02 -2.630736e-02 3.093297e-01
<VARIANCE> 39
 4.481416e+01 3.666828e+01 2.557734e+01 8.790333e+00 1.097712e+01 1.423528e+01 2.279996e+01 1.299927e+01 7.324493e+00 1.098464e+01 8.695726e+00 1.037886e+01 5.393635e+01 5.353274e+00 4.099304e+00 1.966404e+00 1.317411e+00 1.713305e+00 1.070798e+00 2.734372e+00 1.397669e+00 8.197906e-01 1.262535e+00 9.694591e-01 1.221003e+00 6.214653e+00 5.695536e-01 3.812748e-01 2.410025e-01 1.305687e-01 1.874157e-01 1.803572e-01 2.125274e-01 2.437045e-01 1.714152e-01 1.932511e-01 1.066180e-01 1.977793e-01 4.762169e-01
<GCONST> 9.679418e+01
<STATE> 3
<MEAN> 39
 -2.739317e+00 -9.616488e+00 6.188664e+00 -2.977056e+00 -8.518977e+00 8.936518e+00 -6.752580e+00 2.139681e+00 2.781773e+00 -6.945551e+00 3.130536e+00 -2.067658e+00 3.646583e+01 2.330686e-01 4.134108e-02 3.373231e-02 2.850517e-01 -5.876041e-02 1.163207e-01 2.803325e-01 -1.008987e-01 -1.039616e-02 -2.776200e-01 -1.022690e-02 1.383393e-01 1.024912e-01 -2.435922e-01 2.422376e-01 -5.118867e-02 8.891175e-02 1.293005e-01 -1.946074e-01 3.020219e-02 -4.428161e-02 -8.201219e-02 1.732213e-01 -9.214671e-02 -1.850548e-02 -3.094248e-01
<VARIANCE> 39
 8.161532e+01 9.109251e+01 5.690437e+01 4.085825e+01 5.239876e+01 4.441174e+01 5.211464e+01 1.762152e+01 2.714875e+01 3.412350e+01 2.172891e+01 1.706458e+01 9.453768e+01 8.249244e+00 1.219551e+01 6.119928e+00 4.159944e+00 4.871383e+00 5.374302e+00 5.465112e+00 3.203099e+00 2.330215e+00 3.977787e+00 2.591595e+00 1.918544e+00 1.381306e+01 1.416066e+00 1.794481e+00 9.801220e-01 7.002770e-01 8.400632e-01 9.172087e-01 1.026482e+00 5.862065e-01 4.899257e-01 7.548929e-01 5.140058e-01 2.820050e-01 2.067984e+00
<GCONST> 1.382335e+02
<STATE> 4
<MEAN> 39
 -5.207838e+00 -2.489460e-02 9.757351e+00 3.612879e+00 -2.531493e+00 6.663139e+00 -5.323013e+00 9.942898e-01 1.145714e-01 -5.261225e+00 2.640781e+00 -1.643225e+00 3.097735e+01 -1.246266e-01 1.914960e-01 3.554880e-03 5.709050e-02 6.429882e-02 -1.289913e-01 -1.953650e-02 -3.715635e-02 -2.771948e-02 1.964300e-02 -3.377985e-03 7.824063e-03 -1.805400e-01 5.097829e-02 -8.640785e-02 1.303622e-02 -6.707978e-02 -5.543224e-02 2.209190e-02 -4.232642e-02 4.499216e-02 4.333764e-02 -7.636759e-03 1.488424e-02 -8.534540e-03 7.835005e-02
<VARIANCE> 39
 4.349587e+01 1.440086e+01 2.227597e+01 1.668592e+01 1.450948e+01 1.324935e+01 1.685469e+01 1.551346e+01 1.501974e+01 1.486805e+01 1.192736e+01 1.032742e+01 1.933755e+01 5.772869e-01 1.106375e+00 9.753497e-01 1.315164e+00 1.165885e+00 1.266484e+00 1.436309e+00 1.463945e+00 1.357859e+00 1.436504e+00 1.246254e+00 1.080400e+00 6.167811e-01 1.352967e-01 2.281253e-01 2.034067e-01 2.863662e-01 2.555378e-01 2.550483e-01 3.249743e-01 3.469224e-01 3.073005e-01 3.269018e-01 2.747467e-01 2.112662e-01 1.626325e-01
<GCONST> 9.126521e+01
<TRANSP> 5
 0.000000e+00 1.000000e+00 0.000000e+00 0.000000e+00 0.000000e+00
 0.000000e+00 7.530776e-01 2.469224e-01 0.000000e+00 0.000000e+00
 0.000000e+00 0.000000e+00 7.211086e-01 2.788914e-01 0.000000e+00
 0.000000e+00 0.000000e+00 0.000000e+00 8.871727e-01 1.128273e-01
 0.000000e+00 0.000000e+00 0.000000e+00 0.000000e+00 0.000000e+00
<ENDHMM>
~h "t-uh"
<BEGINHMM>
<NUMSTATES> 5
<STATE> 2
<NUMMIXES> 3
<MIXTURE> 1 9.996236e-02
<MEAN> 39
 -4.261059e+00 -1.709969e+00 5.944499e+00 1.001453e+00 -4.215434e+00 6.213409e+00 -3.696492e+00 3.201825e+00 1.964401e+00 -2.822809e+00 4.769080e+00 -2.163110e+00 3.182501e+01 2.478480e+00 -1.945548e-01 -6.511261e-01 -2.615173e+00 -2.506405e+00 5.651066e-01 -5.543907e-02 2.035629e-01 1.644084e-01 -3.971096e-01 9.121736e-01 2.552522e-01 1.991935e+00 6.172218e-01 -2.368767e-01 7.790417e-02 -4.186543e-01 -5.465389e-01 -4.861365e-02 -2.481553e-01 6.663512e-02 2.224800e-01 -7.934418e-02 1.555530e-02 7.609159e-02 5.940360e-01
<VARIANCE> 39
 2.132738e+01 6.279165e+00 1.043396e+01 9.363690e+00 8.522048e+00 2.219633e+01 1.577930e+01 1.761547e+01 2.371136e+01 1.590931e+01 1.059431e+01 9.960623e+00 9.933900e+00 2.572177e+00 5.242772e+00 2.506016e+00 3.309065e+00 5.429613e+00 5.361297e+00 3.413162e+00 3.055581e+00 3.675592e+00 2.828133e+00 1.308886e+00 1.689553e+00 2.071742e+00 2.259397e-01 1.735496e-01 1.565650e-01 2.726553e-01 4.378699e-01 6.385532e-01 2.965994e-01 3.465046e-01 6.020415e-01 6.210840e-01 1.338983e-01 2.118096e-01 1.754669e-01
<GCONST> 1.029812e+02
<MIXTURE> 2 4.398928e-01
<MEAN> 39
 -6.279809e+00 -3.511136e+00 5.602798e+00 -3.979841e-01 -6.367840e+00 4.577441e+00 -6.093979e+00 6.456269e-01 1.244110e+00 -4.344961e+00 2.095586e+00 -2.606208e+00 3.090465e+01 8.413596e-01 9.883827e-03 -4.066559e-01 -9.271555e-01 -9.449665e-01 1.491219e-01 -1.809935e-01 -6.964770e-01 -1.898628e-01 -8.093224e-02 4.346077e-02 1.152395e-01 5.909551e-01 3.427641e-01 -1.056988e-01 -9.426357e-02 -3.057108e-01 -2.581280e-01 6.454826e-02 -3.815688e-03 4.745485e-02 -5.140389e-02 -6.161774e-02 1.167589e-01 7.892085e-02 3.055707e-01
<VARIANCE> 39
 4.062172e+01 2.382701e+01 2.006293e+01 1.242150e+01 2.140197e+01 2.458580e+01 2.808879e+01 1.921908e+01 2.073175e+01 2.765091e+01 2.046160e+01 1.055588e+01 2.489930e+01 1.939774e+00 2.304927e+00 2.069973e+00 2.063372e+00 3.078328e+00 3.390158e+00 2.051316e+00 1.670624e+00 1.957880e+00 2.691615e+00 1.283042e+00 1.769025e+00 7.579743e-01 3.267600e-01 4.553585e-01 3.227479e-01 3.380412e-01 5.653058e-01 6.282795e-01 4.159486e-01 2.898749e-01 3.435262e-01 5.466133e-01 3.157745e-01 2.699094e-01 1.529671e-01
<GCONST> 1.070162e+02
<MIXTURE> 3 4.601448e-01
<MEAN> 39
 -5.239534e+00 -3.152279e+00 5.381646e+00 -9.527079e-01 -5.294630e+00 5.984315e+00 -6.002684e+00 4.332623e-01 2.130699e+00 -3.054034e+00 3.029627e+00 -2.886295e+00 3.192278e+01 1.107723e+00 9.839033e-02 -3.422460e-01 -1.161442e+00 -1.196567e+00 -1.208677e-01 -2.322326e-01 -1.829087e-01 -1.112458e-02 3.553382e-01 5.463654e-01 1.502081e-01 8.014912e-01 4.478526e-01 -1.515767e-01 -5.506093e-02 -3.814073e-01 -4.637058e-01 -2.224051e-02 -7.468485e-03 1.662505e-01 -1.905691e-02 -1.154373e-01 1.455591e-01 1.871501e-01 4.036348e-01
<VARIANCE> 39
 7.459261e+01 1.451826e+01 1.815654e+01 1.613514e+01 2.326595e+01 1.585335e+01 3.600278e+01 2.682350e+01 2.359822e+01 1.736547e+01 1.636217e+01 9.795998e+00 7.135351e+01 2.636382e+00 3.322627e+00 2.864861e+00 2.357507e+00 3.594768e+00 2.930440e+00 2.564568e+00 1.935962e+00 2.078124e+00 1.892568e+00 1.399268e+00 1.776044e+00 1.350496e+00 3.569427e-01 3.366855e-01 2.596015e-01 3.596143e-01 6.117833e-01 4.692385e-01 3.629305e-01 4.199699e-01 3.109237e-01 4.162661e-01 2.057436e-01 2.443297e-01 2.364315e-01
<GCONST> 1.090093e+02
<STATE> 3
<NUMMIXES> 3
<MIXTURE> 1 9.273718e-02
<MEAN> 39
 7.803727e+00 -5.858581e+00 8.539924e+00 -6.100096e+00 -1.166581e+01 9.399396e+00 -9.489181e+00 1.591512e+00 5.062091e+00 -3.763906e+00 7.508250e+00 -1.253312e+00 4.412804e+01 2.810640e-01 5.368043e-01 1.119266e-01 1.066813e-01 -1.048114e-01 -1.070526e+00 -5.130203e-01 8.198870e-01 1.181710e+00 1.384136e+00 8.830352e-01 -8.424468e-02 -9.947420e-02 -2.943832e-01 1.313171e-01 -7.797743e-02 2.232560e-01 1.350871e-01 -1.472045e-01 1.834050e-01 5.920331e-02 1.858551e-02 -5.210327e-03 -2.187779e-01 1.018044e-02 -2.571451e-01
<VARIANCE> 39
 8.030103e+01 1.935898e+01 2.290622e+01 3.989240e+01 4.991548e+01 3.757225e+01 3.076984e+01 1.368887e+01 2.312177e+01 2.741377e+01 1.645792e+01 2.364604e+01 7.486260e+01 2.272832e+00 1.693186e+00 1.519266e+00 2.555833e+00 2.567625e+00 7.341595e+00 9.358851e+00 2.565923e+00 1.882679e+00 1.783611e+00 6.266322e-01 2.011991e+00 2.483041e+00 3.446772e-01 4.003220e-01 3.304819e-01 6.078566e-01 9.686136e-01 7.796226e-01 6.011990e-01 3.275229e-01 4.398668e-01 5.932725e-01 1.990806e-01 5.711634e-01 4.117385e-01
<GCONST> 1.174305e+02
<MIXTURE> 2 4.622661e-01
<MEAN> 39
 7.266687e-01 -7.972052e+00 3.708166e+00 -6.767118e+00 -1.400448e+01 6.190212e+00 -7.025858e+00 2.713939e-01 1.999352e+00 -5.966337e+00 4.095275e+00 -1.339680e+00 3.782587e+01 2.296980e-01 -6.873484e-01 2.419310e-01 -2.096800e-01 -8.102669e-01 8.519587e-02 -6.118062e-02 -2.855371e-01 -3.944889e-02 -2.892154e-01 -1.402713e-01 1.931625e-02 4.688352e-01 -4.404770e-01 1.073029e-01 2.544381e-01 5.036084e-01 4.737911e-01 1.659405e-02 1.829548e-02 -5.655021e-03 1.131217e-01 1.623621e-01 -1.677420e-01 -1.420421e-01 -3.364564e-01
<VARIANCE> 39
 4.489467e+01 5.895251e+01 3.876697e+01 4.350416e+01 5.385607e+01 5.011727e+01 2.940060e+01 2.068222e+01 3.166651e+01 2.258738e+01 1.836472e+01 1.305111e+01 3.041491e+01 3.644902e+00 3.534509e+00 4.234355e+00 4.686532e+00 4.239625e+00 3.495825e+00 2.893295e+00 2.215533e+00 1.761483e+00 2.307918e+00 2.446539e+00 1.335542e+00 2.757877e+00 6.113606e-01 7.371210e-01 1.035205e+00 8.912029e-01 7.326262e-01 1.006637e+00 6.717784e-01 4.701814e-01 3.676436e-01 4.633378e-01 5.692491e-01 3.470225e-01 3.983968e-01
<GCONST> 1.238186e+02
<MIXTURE> 3 4.449970e-01
<MEAN> 39
 2.162067e+00 -5.726751e+00 6.416257e+00 -5.874571e+00 -1.243680e+01 6.239648e+00 -9.591269e+00 4.725918e-01 4.284417e+00 -3.952859e+00 5.075911e+00 -1.982413e+00 3.894998e+01 -8.292023e-02 -1.460386e-01 1.518498e-02 -2.340790e-02 4.797308e-02 2.725100e-01 2.746626e-01 7.245865e-02 9.250836e-02 3.629897e-01 3.247992e-01 -2.120332e-02 -5.374361e-02 -3.018342e-01 -1.117543e-01 -1.269860e-01 2.146334e-01 3.391263e-01 2.147282e-01 3.540088e-01 1.420646e-01 3.411385e-02 3.332871e-02 -1.723308e-01 -3.545032e-02 -1.990897e-01
<VARIANCE> 39
 1.072713e+02 4.756572e+01 2.803498e+01 3.840248e+01 5.311704e+01 5.502243e+01 3.304403e+01 1.687421e+01 3.100581e+01 2.398678e+01 1.809230e+01 1.463292e+01 8.974100e+01 1.915479e+00 2.442262e+00 2.165566e+00 2.402430e+00 3.074096e+00 3.032235e+00 2.435038e+00 1.679201e+00 2.143761e+00 1.814335e+00 1.288508e+00 1.609713e+00 1.529480e+00 5.512328e-01 3.720433e-01 4.302043e-01 5.862991e-01 7.130986e-01 7.808017e-01 5.940263e-01 3.754632e-01 3.602140e-01 3.579826e-01 3.042186e-01 4.350801e-01 3.449492e-01
<GCONST> 1.173502e+02
<STATE> 4
<NUMMIXES> 3
<MIXTURE> 1 7.799678e-02
<MEAN> 39
 -5.123476e-01 -7.895367e+00 4.945699e+00 -5.621804e+00 -1.230153e+01 7.882037e+00 -5.875828e+00 -9.298128e-01 4.002129e+00 -1.615361e+00 4.608521e+00 -1.831666e+00 3.761483e+01 6.378916e-02 -2.238156e-01 -2.113498e-02 1.636380e-01 9.468319e-01 1.143682e+00 1.850025e-01 -3.497939e-01 1.088516e-01 2.620647e-03 1.170849e-01 5.072237e-02 2.321299e-01 5.102740e-01 -7.256421e-03 2.325282e-01 1.982202e-02 8.330094e-02 8.713447e-02 -2.498144e-01 3.163474e-01 2.525764e-01 -2.275665e-01 -1.887523e-02 -5.071244e-02 5.683408e-01
<VARIANCE> 39
 1.012420e+02 3.594283e+01 2.576108e+01 3.139908e+01 4.114384e+01 2.420059e+01 4.946780e+01 2.346132e+01 2.219417e+01 1.190079e+01 3.405056e+01 6.026836e+00 9.576402e+01 2.053824e+00 1.662167e+00 1.140538e+00 2.204859e+00 1.199577e+00 1.678465e+00 1.171563e+00 1.385246e+00 1.272786e+00 2.045758e+00 1.053134e+00 1.760963e+00 1.849750e+00 7.973189e-01 4.004814e-01 2.572392e-01 2.537310e-01 2.554153e-01 1.923383e-01 4.968757e-01 5.974840e-01 3.048579e-01 2.807753e-01 3.841695e-01 1.808879e-01 9.771833e-01
<GCONST> 1.082722e+02
<MIXTURE> 2 5.130105e-01
<MEAN> 39
 -3.239036e+00 -6.429022e+00 6.301218e+00 -2.322279e+00 -9.447305e+00 8.268176e+00 -5.067266e+00 7.647640e-01 3.403499e+00 -4.507487e+00 2.585210e+00 -1.689334e+00 3.447362e+01 -3.412738e-01 -5.456854e-01 -5.540297e-02 1.268105e-01 7.946216e-02 3.779641e-01 3.323162e-02 -2.417115e-01 -1.553218e-01 -3.746924e-01 -2.866295e-01 9.987225e-02 -3.347636e-02 6.565998e-02 -1.631644e-01 -7.862243e-02 -1.765776e-01 -2.270301e-01 -4.847959e-02 -9.432096e-02 -8.961377e-02 1.838408e-02 -4.271166e-02 5.929895e-02 6.051766e-02 1.095934e-01
<VARIANCE> 39
 1.319766e+01 6.358154e+01 1.493575e+01 1.924684e+01 2.460942e+01 4.424786e+01 1.528664e+01 2.631981e+01 2.289054e+01 2.313575e+01 9.454713e+00 1.312540e+01 1.483119e+01 6.204200e-01 1.233679e+00 1.475507e+00 1.296760e+00 1.811441e+00 1.874468e+00 1.766761e+00 2.177280e+00 1.887538e+00 1.712595e+00 1.326588e+00 1.358192e+00 3.703103e-01 2.475599e-01 3.736937e-01 3.254452e-01 2.494069e-01 4.236383e-01 3.492188e-01 3.123074e-01 3.927689e-01 4.038047e-01 3.618462e-01 2.119191e-01 2.819686e-01 1.104408e-01
<GCONST> 9.872561e+01
<MIXTURE> 3 4.089926e-01
<MEAN> 39
 -3.397435e+00 -8.385893e+00 6.665445e+00 -3.106658e+00 -1.101942e+01 9.487530e+00 -4.914933e+00 2.555817e-01 4.577443e+00 -4.158988e+00 3.029829e+00 -1.389089e+00 3.525689e+01 -1.877933e-01 -3.199519e-01 5.983596e-02 2.345685e-01 2.618854e-01 3.866059e-01 2.296830e-01 1.286309e-01 1.998571e-01 -1.376941e-01 -1.514997e-02 1.534456e-01 -1.861619e-02 1.646638e-01 -4.366214e-02 -1.304131e-02 -5.633847e-02 -6.789310e-02 -8.229701e-02 -1.302868e-01 6.458684e-02 2.878629e-03 -8.292402e-02 4.054271e-02 -1.283525e-02 1.490350e-01
<VARIANCE> 39
 2.048808e+01 5.660376e+01 1.726007e+01 2.394775e+01 2.929480e+01 4.157497e+01 1.605444e+01 3.289737e+01 3.047314e+01 2.169621e+01 1.364907e+01 1.127417e+01 1.909165e+01 7.043110e-01 1.311729e+00 1.213623e+00 1.554456e+00 1.757731e+00 2.023475e+00 1.668544e+00 1.743401e+00 1.928003e+00 1.425870e+00 1.257640e+00 1.370256e+00 3.845174e-01 2.499890e-01 3.130519e-01 2.940588e-01 2.672451e-01 4.010469e-01 3.043968e-01 3.432436e-01 4.558248e-01 4.775664e-01 3.145613e-01 2.918460e-01 2.843966e-01 1.422125e-01
<GCONST> 1.007187e+02
<TRANSP> 5
 0.000000e+00 1.000000e+00 0.000000e+00 0.000000e+00 0.000000e+00
 0.000000e+00 4.836904e-01 5.163096e-01 0.000000e+00 0.000000e+00
 0.000000e+00 0.000000e+00 6.581451e-01 3.418549e-01 0.000000e+00
 0.000000e+00 0.000000e+00 0.000000e+00 7.383290e-01 2.616710e-01
 0.000000e+00 0.000000e+00 0.000000e+00 0.000000e+00 0.000000e+00
<ENDHMM>
~h "ah"
<BEGINHMM>
<NUMSTATES> 5
<STATE> 2
<NUMMIXES> 3
<MIXTURE> 1 1.080120e-01
<MEAN> 39
 -2.443472e-01 -8.937810e+00 4.584186e+00 -1.836475e+00 -7.737943e+00 1.002139e+01 -5.605894e+00 -9.810715e-01 8.133934e-01 -6.992290e+00 2.580906e+00 -7.666442e-01 3.778937e+01 1.985683e+00 -1.837258e+00 1.638847e-01 -1.020974e+00 -1.277771e+00 7.596402e-01 -5.967964e-01 6.712459e-01 1.321686e+00 4.014568e-01 1.170999e+00 3.875643e-01 2.572614e+00 5.870155e-01 2.760785e-01 3.597574e-01 -1.813800e-01 -1.354336e-01 -2.593429e-01 -3.748933e-01 4.754455e-01 6.149941e-01 3.593910e-01 1.293956e-01 -3.359976e-01 5.627397e-01
<VARIANCE> 39
 3.846196e+01 5.962934e+01 3.655368e+01 1.833765e+01 3.692022e+01 6.142638e+01 3.690454e+01 1.909884e+01 4.005158e+01 2.803967e+01 1.439823e+01 1.329114e+01 3.519756e+01 6.847718e+00 7.006557e+00 5.499133e+00 3.117327e+00 2.881405e+00 4.934986e+00 4.169006e+00 1.715427e+00 3.191053e+00 4.066204e+00 1.909097e+00 2.334528e+00 8.587831e+00 1.189577e+00 1.137127e+00 6.943320e-01 5.133073e-01 5.866336e-01 1.089176e+00 6.646990e-01 4.288022e-01 4.902808e-01 4.602921e-01 4.626775e-01 3.311642e-01 1.622687e+00
<GCONST> 1.282753e+02
<MIXTURE> 2 4.667648e-01
<MEAN> 39
 -3.268904e+00 -3.857200e+00 5.482283e+00 -9.405647e-02 -6.081356e+00 5.949150e+00 -4.915917e+00 1.461278e+00 1.828158e+00 -4.370617e+00 1.728318e+00 -2.920916e+00 3.338422e+01 4.568478e-01 -9.533725e-01 -6.412092e-01 -7.069948e-01 -7.504981e-01 -1.790894e-02 -1.278927e-01 -2.793407e-01 -1.274705e-01 -2.191067e-01 -2.042139e-01 -7.114387e-02 7.409936e-01 5.770243e-01 -3.951153e-01 8.935081e-02 -3.032234e-01 -2.868005e-01 1.794245e-01 -3.365836e-01 -3.058599e-02 7.678341e-02 -1.061530e-01 2.080239e-01 3.607649e-02 7.393036e-01
<VARIANCE> 39
 5.479728e+01 2.949450e+01 2.988213e+01 2.086193e+01 3.182864e+01 2.573424e+01 2.059907e+01 1.951518e+01 2.467897e+01 1.965001e+01 1.470485e+01 1.420097e+01 3.869552e+01 4.577167e+00 4.209298e+00 3.458121e+00 3.113092e+00 3.126691e+00 3.662847e+00 2.537902e+00 2.428478e+00 3.125531e+00 2.193823e+00 1.450448e+00 1.737009e+00 5.036411e+00 6.151568e-01 6.037856e-01 4.941389e-01 4.418350e-01 4.955772e-01 5.486858e-01 4.749155e-01 3.741787e-01 4.539151e-01 3.656642e-01 3.237579e-01 3.608793e-01 7.199564e-01
<GCONST> 1.176301e+02
<MIXTURE> 3 4.252233e-01
<MEAN> 39
 -1.446460e+00 -5.590096e+00 4.863754e+00 -1.341076e+00 -7.385286e+00 6.194887e+00 -5.921786e+00 3.210571e-01 1.983199e+00 -4.769993e+00 2.159765e+00 -2.233164e+00 3.583221e+01 1.722528e+00 -1.127052e+00 -3.121175e-01 -1.212578e+00 -1.181791e+00 1.191387e-01 -5.294107e-01 3.362408e-01 7.344108e-01 1.277786e-01 2.619559e-01 -2.036698e-01 2.084200e+00 5.861080e-01 -2.562357e-01 2.091228e-01 -2.980728e-01 -2.200318e-01 1.356734e-01 -3.696797e-01 2.295429e-01 2.961345e-01 -4.329618e-03 1.105121e-01 -1.826524e-01 7.665369e-01
<VARIANCE> 39
 8.339465e+01 4.801091e+01 3.477310e+01 2.828893e+01 4.749820e+01 3.210879e+01 2.799626e+01 1.685451e+01 3.056074e+01 2.181757e+01 1.414144e+01 1.542727e+01 7.471989e+01 7.515091e+00 5.525028e+00 4.071599e+00 3.495702e+00 3.219476e+00 3.585946e+00 3.162863e+00 2.184043e+00 2.966397e+00 2.466709e+00 1.542602e+00 2.145612e+00 9.238272e+00 8.732182e-01 8.971978e-01 5.797740e-01 4.706203e-01 5.640911e-01 6.047041e-01 5.001304e-01 3.364541e-01 4.369430e-01 3.933105e-01 3.577903e-01 3.828565e-01 1.014201e+00
<GCONST> 1.245871e+02
<STATE> 3
<NUMMIXES> 3
<MIXTURE> 1 1.034277e-01
<MEAN> 39
 6.712533e+00 -1.151984e+01 9.145864e+00 -4.564700e+00 -1.235420e+01 1.028586e+01 -1.004140e+01 1.282421e+00 3.975307e+00 -8.111752e+00 3.272835e+00 -3.073426e+00 4.574607e+01 7.937266e-01 1.325820e+00 9.478363e-01 3.478723e-01 8.291695e-02 -1.785429e-01 -7.739122e-02 4.108309e-01 3.007055e-01 4.645991e-01 5.236699e-01 7.139193e-03 1.978621e-01 -1.432683e-01 2.848263e-01 -1.897750e-01 -9.863906e-02 7.141727e-02 -4.219867e-01 -4.722620e-02 3.869271e-01 5.964610e-01 4.334649e-01 -3.983076e-03 4.600827e-02 -7.620909e-02
<VARIANCE> 39
 6.995200e+01 7.441128e+01 5.218873e+01 3.108924e+01 4.047255e+01 4.366349e+01 4.271781e+01 2.591176e+01 4.223880e+01 2.416698e+01 2.025152e+01 1.897559e+01 5.557956e+01 8.969398e+00 6.178114e+00 4.920354e+00 2.640869e+00 3.414099e+00 3.496771e+00 6.145530e+00 2.110111e+00 2.896219e+00 2.767133e+00 1.887596e+00 1.820709e+00 1.117798e+01 5.616213e-01 1.217833e+00 9.187112e-01 5.263118e-01 5.783495e-01 5.605679e-01 7.381888e-01 4.876597e-01 5.996485e-01 4.421380e-01 4.319305e-01 3.384741e-01 6.528981e-01
<GCONST> 1.294303e+02
<MIXTURE> 2 4.489751e-01
<MEAN> 39
 1.024131e+01 -1.198000e+01 6.715727e+00 -8.181354e+00 -1.336145e+01 7.533054e+00 -1.255846e+01 4.557788e+00 9.731267e+00 -5.189593e+00 2.325882e+00 -4.792565e+00 5.109191e+01 1.365045e-02 -1.344396e-01 -4.717501e-02 -1.621926e-01 -3.798598e-03 -1.176624e-01 -1.872321e-01 3.182513e-01 3.454581e-01 -5.497436e-02 -2.795467e-01 -1.444524e-01 2.139647e-01 -4.038267e-01 2.515323e-01 1.663236e-02 2.846803e-01 2.614063e-01 2.168951e-02 2.278098e-01 -1.522601e-01 -2.885232e-01 -1.126935e-01 -1.186846e-01 1.357608e-01 -5.282646e-01
<VARIANCE> 39
 8.690608e+01 6.059353e+01 5.330070e+01 3.540315e+01 4.162598e+01 3.844677e+01 4.452550e+01 3.108175e+01 4.388878e+01 2.714614e+01 2.551216e+01 2.607875e+01 1.321361e+02 3.016352e+00 4.897902e+00 3.044204e+00 2.554167e+00 2.312608e+00 2.749407e+00 3.355632e+00 2.485237e+00 3.290340e+00 2.108954e+00 2.250578e+00 2.011722e+00 6.744445e+00 5.137119e-01 9.614442e-01 5.920279e-01 4.368643e-01 4.698561e-01 5.984669e-01 5.669045e-01 3.582420e-01 3.859847e-01 4.158294e-01 4.463604e-01 4.286125e-01 7.419220e-01
<GCONST> 1.262350e+02
<MIXTURE> 3 4.475911e-01
<MEAN> 39
 1.222039e+01 -1.126586e+01 8.432330e+00 -7.961950e+00 -1.320086e+01 8.223778e+00 -1.343778e+01 4.588485e+00 9.950603e+00 -6.396632e+00 1.552119e+00 -4.747117e+00 5.268653e+01 -4.859607e-01 6.502430e-01 2.703111e-01 5.181861e-01 2.840261e-01 3.328684e-02 4.670221e-01 8.921780e-02 -1.433481e-01 8.519354e-02 3.829879e-02 9.993391e-02 -9.733056e-01 -2.286501e-01 1.533600e-01 -9.950560e-02 1.112563e-01 1.030265e-01 -5.775212e-02 1.817306e-01 -7.098048e-02 -1.441536e-01 1.066418e-01 4.594769e-02 3.125002e-02 -3.196290e-01
<VARIANCE> 39
 5.332450e+01 4.852101e+01 5.643787e+01 2.956318e+01 3.513981e+01 3.197059e+01 4.186085e+01 3.723063e+01 4.753460e+01 2.441552e+01 2.506437e+01 1.991830e+01 9.025829e+01 1.798425e+00 3.336261e+00 2.694993e+00 1.835356e+00 1.950010e+00 2.101396e+00 2.894984e+00 1.989569e+00 2.240813e+00 1.934277e+00 1.862040e+00 1.826645e+00 3.902706e+00 2.334498e-01 5.120744e-01 5.134041e-01 3.486295e-01 3.843462e-01 4.156457e-01 4.685260e-01 3.655941e-01 3.793903e-01 3.518007e-01 3.946143e-01 3.526031e-01 3.532663e-01
<GCONST> 1.172377e+02
<STATE> 4
<NUMMIXES> 3
<MIXTURE> 1 1.248547e-01
<MEAN> 39
 -5.145303e+00 -5.726723e+00 5.654141e+00 7.698073e-01 -5.435638e+00 5.740915e+00 -5.733350e+00 1.502078e+00 1.399799e+00 -3.828795e+00 2.508543e+00 -2.960186e+00 3.261683e+01 5.449993e-02 4.726807e-01 4.827890e-01 5.338070e-01 6.136329e-01 6.219091e-01 6.929361e-01 6.280896e-01 5.111311e-01 5.530322e-01 5.376778e-01 3.780762e-01 -9.823699e-02 1.118636e-01 6.285853e-02 6.997151e-02 3.107665e-02 7.681203e-02 9.126323e-02 3.286670e-02 6.953650e-02 4.557447e-02 -2.644418e-02 6.457907e-02 5.190113e-02 9.442103e-02
<VARIANCE> 39
 4.889133e+01 3.244158e+01 2.567234e+01 2.200882e+01 2.253773e+01 2.106715e+01 2.045132e+01 1.808804e+01 2.373019e+01 1.707160e+01 1.228401e+01 1.139888e+01 3.271597e+01 2.137262e+00 2.802606e+00 2.205417e+00 1.878253e+00 2.090843e+00 1.992538e+00 2.111708e+00 1.715671e+00 1.834769e+00 1.862471e+00 1.744081e+00 1.293012e+00 2.555610e+00 4.264434e-01 6.202029e-01 3.032961e-01 3.742811e-01 3.945560e-01 4.334846e-01 4.497691e-01 3.500761e-01 3.607242e-01 4.090480e-01 3.290858e-01 2.297444e-01 5.565854e-01
<GCONST> 1.085971e+02
<MIXTURE> 2 5.360242e-01
<MEAN> 39
 -9.438971e+00 -7.197072e+00 4.894608e+00 2.296494e+00 -4.585662e+00 4.623143e+00 -5.532029e+00 2.569775e-01 -1.483958e-01 -3.874432e+00 2.350705e+00 -2.500394e+00 2.966478e+01 -2.123341e-01 -2.028165e-01 -2.209959e-01 -1.219595e-01 -1.361157e-01 -2.189776e-01 -1.829795e-01 -2.784089e-01 -3.185685e-01 -2.220210e-01 -1.690307e-01 -1.078527e-01 -1.160229e-01 -2.164590e-02 -8.149007e-02 -2.698313e-02 -1.779490e-02 -4.494550e-02 -7.482229e-03 -3.346962e-02 -4.838246e-02 -2.530528e-02 -5.945050e-02 -3.710377e-02 -1.309070e-02 1.151221e-02
<VARIANCE> 39
 1.945390e+01 2.244030e+01 1.417840e+01 1.304493e+01 1.334275e+01 1.368937e+01 1.259999e+01 1.758730e+01 1.976649e+01 1.675967e+01 1.283247e+01 1.158749e+01 6.014078e+00 5.917097e-01 9.278886e-01 9.643577e-01 8.593266e-01 1.081233e+00 1.181687e+00 1.343867e+00 1.399718e+00 1.513709e+00 1.598549e+00 1.351948e+00 1.101352e+00 2.283168e-01 1.037513e-01 2.038153e-01 2.068712e-01 1.828162e-01 2.229442e-01 2.521130e-01 2.882265e-01 2.934808e-01 3.019007e-01 3.408288e-01 2.872908e-01 2.319681e-01 3.575934e-02
<GCONST> 8.528450e+01
<MIXTURE> 3 3.391216e-01
<MEAN> 39
 -7.787578e+00 -6.453522e+00 5.365926e+00 1.671674e+00 -5.205649e+00 4.994416e+00 -5.646826e+00 5.749409e-01 3.100091e-01 -4.529662e+00 2.035016e+00 -2.497688e+00 3.079090e+01 -7.566110e-02 2.214298e-01 1.662858e-01 2.092761e-01 2.221683e-01 8.507182e-02 1.891875e-01 1.268126e-01 7.433478e-02 2.184915e-01 1.259942e-01 1.361115e-01 -1.311107e-01 6.937921e-02 1.334007e-02 1.670444e-02 -1.093299e-02 2.884727e-02 3.157670e-02 -1.746965e-02 2.190933e-02 4.758670e-02 6.518036e-02 4.779885e-02 -1.609160e-02 6.085796e-02
<VARIANCE> 39
 3.370332e+01 2.446754e+01 2.056025e+01 1.745926e+01 1.777250e+01 1.840369e+01 1.773918e+01 1.890090e+01 2.398517e+01 1.972284e+01 1.481187e+01 1.353886e+01 1.948876e+01 6.223201e-01 8.705448e-01 9.625539e-01 9.159478e-01 1.053913e+00 1.192302e+00 1.288653e+00 1.381889e+00 1.399680e+00 1.451200e+00 1.344882e+00 1.181105e+00 3.445698e-01 1.196215e-01 2.313314e-01 2.240652e-01 2.221307e-01 2.381274e-01 2.905425e-01 3.163359e-01 3.392297e-01 3.307290e-01 3.618702e-01 3.046970e-01 2.471567e-01 6.074337e-02
<GCONST> 9.148230e+01
<TRANSP> 5
 0.000000e+00 1.000000e+00 0.000000e+00 0.000000e+00 0.000000e+00
 0.000000e+00 5.948903e-01 4.051097e-01 0.000000e+00 0.000000e+00
 0.000000e+00 0.000000e+00 8.319429e-01 1.680571e-01 0.000000e+00
 0.000000e+00 0.000000e+00 0.000000e+00 8.954354e-01 1.045646e-01
 0.000000e+00 0.000000e+00 0.000000e+00 0.000000e+00 0.000000e+00
<ENDHMM>
~h "uw-ah+s"
<BEGINHMM>
<NUMSTATES> 5
<STATE> 2
<NUMMIXES> 3
<MIXTURE> 1 1.080120e-01
<MEAN> 39
 -2.443472e-01 -8.937810e+00 4.584186e+00 -1.836475e+00 -7.737943e+00 1.002139e+01 -5.605894e+00 -9.810715e-01 8.133934e-01 -6.992290e+00 2.580906e+00 -7.666442e-01 3.778937e+01 1.985683e+00 -1.837258e+00 1.638847e-01 -1.020974e+00 -1.277771e+00 7.596402e-01 -5.967964e-01 6.712459e-01 1.321686e+00 4.014568e-01 1.170999e+00 3.875643e-01 2.572614e+00 5.870155e-01 2.760785e-01 3.597574e-01 -1.813800e-01 -1.354336e-01 -2.593429e-01 -3.748933e-01 4.754455e-01 6.149941e-01 3.593910e-01 1.293956e-01 -3.359976e-01 5.627397e-01
<VARIANCE> 39
 3.846196e+01 5.962934e+01 3.655368e+01 1.833765e+01 3.692022e+01 6.142638e+01 3.690454e+01 1.909884e+01 4.005158e+01 2.803967e+01 1.439823e+01 1.329114e+01 3.519756e+01 6.847718e+00 7.006557e+00 5.499133e+00 3.117327e+00 2.881405e+00 4.934986e+00 4.169006e+00 1.715427e+00 3.191053e+00 4.066204e+00 1.909097e+00 2.334528e+00 8.587831e+00 1.189577e+00 1.137127e+00 6.943320e-01 5.133073e-01 5.866336e-01 1.089176e+00 6.646990e-01 4.288022e-01 4.902808e-01 4.602921e-01 4.626775e-01 3.311642e-01 1.622687e+00
<GCONST> 1.282753e+02
<MIXTURE> 2 4.667648e-01
<MEAN> 39
 -3.268904e+00 -3.857200e+00 5.482283e+00 -9.405647e-02 -6.081356e+00 5.949150e+00 -4.915917e+00 1.461278e+00 1.828158e+00 -4.370617e+00 1.728318e+00 -2.920916e+00 3.338422e+01 4.568478e-01 -9.533725e-01 -6.412092e-01 -7.069948e-01 -7.504981e-01 -1.790894e-02 -1.278927e-01 -2.793407e-01 -1.274705e-01 -2.191067e-01 -2.042139e-01 -7.114387e-02 7.409936e-01 5.770243e-01 -3.951153e-01 8.935081e-02 -3.032234e-01 -2.868005e-01 1.794245e-01 -3.365836e-01 -3.058599e-02 7.678341e-02 -1.061530e-01 2.080239e-01 3.607649e-02 7.393036e-01
<VARIANCE> 39
 5.479728e+01 2.949450e+01 2.988213e+01 2.086193e+01 3.182864e+01 2.573424e+01 2.059907e+01 1.951518e+01 2.467897e+01 1.965001e+01 1.470485e+01 1.420097e+01 3.869552e+01 4.577167e+00 4.209298e+00 3.458121e+00 3.113092e+00 3.126691e+00 3.662847e+00 2.537902e+00 2.428478e+00 3.125531e+00 2.193823e+00 1.450448e+00 1.737009e+00 5.036411e+00 6.151568e-01 6.037856e-01 4.941389e-01 4.418350e-01 4.955772e-01 5.486858e-01 4.749155e-01 3.741787e-01 4.539151e-01 3.656642e-01 3.237579e-01 3.608793e-01 7.199564e-01
<GCONST> 1.176301e+02
<MIXTURE> 3 4.252233e-01
<MEAN> 39
 -1.446460e+00 -5.590096e+00 4.863754e+00 -1.341076e+00 -7.385286e+00 6.194887e+00 -5.921786e+00 3.210571e-01 1.983199e+00 -4.769993e+00 2.159765e+00 -2.233164e+00 3.583221e+01 1.722528e+00 -1.127052e+00 -3.121175e-01 -1.212578e+00 -1.181791e+00 1.191387e-01 -5.294107e-01 3.362408e-01 7.344108e-01 1.277786e-01 2.619559e-01 -2.036698e-01 2.084200e+00 5.861080e-01 -2.562357e-01 2.091228e-01 -2.980728e-01 -2.200318e-01 1.356734e-01 -3.696797e-01 2.295429e-01 2.961345e-01 -4.329618e-03 1.105121e-01 -1.826524e-01 7.665369e-01
<VARIANCE> 39
 8.339465e+01 4.801091e+01 3.477310e+01 2.828893e+01 4.749820e+01 3.210879e+01 2.799626e+01 1.685451e+01 3.056074e+01 2.181757e+01 1.414144e+01 1.542727e+01 7.471989e+01 7.515091e+00 5.525028e+00 4.071599e+00 3.495702e+00 3.219476e+00 3.585946e+00 3.162863e+00 2.184043e+00 2.966397e+00 2.466709e+00 1.542602e+00 2.145612e+00 9.238272e+00 8.732182e-01 8.971978e-01 5.797740e-01 4.706203e-01 5.640911e-01 6.047041e-01 5.001304e-01 3.364541e-01 4.369430e-01 3.933105e-01 3.577903e-01 3.828565e-01 1.014201e+00
<GCONST> 1.245871e+02
<STATE> 3
<NUMMIXES> 3
<MIXTURE> 1 1.034277e-01
<MEAN> 39
 6.712533e+00 -1.151984e+01 9.145864e+00 -4.564700e+00 -1.235420e+01 1.028586e+01 -1.004140e+01 1.282421e+00 3.975307e+00 -8.111752e+00 3.272835e+00 -3.073426e+00 4.574607e+01 7.937266e-01 1.325820e+00 9.478363e-01 3.478723e-01 8.291695e-02 -1.785429e-01 -7.739122e-02 4.108309e-01 3.007055e-01 4.645991e-01 5.236699e-01 7.139193e-03 1.978621e-01 -1.432683e-01 2.848263e-01 -1.897750e-01 -9.863906e-02 7.141727e-02 -4.219867e-01 -4.722620e-02 3.869271e-01 5.964610e-01 4.334649e-01 -3.983076e-03 4.600827e-02 -7.620909e-02
<VARIANCE> 39
 6.995200e+01 7.441128e+01 5.218873e+01 3.108924e+01 4.047255e+01 4.366349e+01 4.271781e+01 2.591176e+01 4.223880e+01 2.416698e+01 2.025152e+01 1.897559e+01 5.557956e+01 8.969398e+00 6.178114e+00 4.920354e+00 2.640869e+00 3.414099e+00 3.496771e+00 6.145530e+00 2.110111e+00 2.896219e+00 2.767133e+00 1.887596e+00 1.820709e+00 1.117798e+01 5.616213e-01 1.217833e+00 9.187112e-01 5.263118e-01 5.783495e-01 5.605679e-01 7.381888e-01 4.876597e-01 5.996485e-01 4.421380e-01 4.319305e-01 3.384741e-01 6.528981e-01
<GCONST> 1.294303e+02
<MIXTURE> 2 4.489751e-01
<MEAN> 39
 1.024131e+01 -1.198000e+01 6.715727e+00 -8.181354e+00 -1.336145e+01 7.533054e+00 -1.255846e+01 4.557788e+00 9.731267e+00 -5.189593e+00 2.325882e+00 -4.792565e+00 5.109191e+01 1.365045e-02 -1.344396e-01 -4.717501e-02 -1.621926e-01 -3.798598e-03 -1.176624e-01 -1.872321e-01 3.182513e-01 3.454581e-01 -5.497436e-02 -2.795467e-01 -1.444524e-01 2.139647e-01 -4.038267e-01 2.515323e-01 1.663236e-02 2.846803e-01 2.614063e-01 2.168951e-02 2.278098e-01 -1.522601e-01 -2.885232e-01 -1.126935e-01 -1.186846e-01 1.357608e-01 -5.282646e-01
<VARIANCE> 39
 8.690608e+01 6.059353e+01 5.330070e+01 3.540315e+01 4.162598e+01 3.844677e+01 4.452550e+01 3.108175e+01 4.388878e+01 2.714614e+01 2.551216e+01 2.607875e+01 1.321361e+02 3.016352e+00 4.897902e+00 3.044204e+00 2.554167e+00 2.312608e+00 2.749407e+00 3.355632e+00 2.485237e+00 3.290340e+00 2.108954e+00 2.250578e+00 2.011722e+00 6.744445e+00 5.137119e-01 9.614442e-01 5.920279e-01 4.368643e-01 4.698561e-01 5.984669e-01 5.669045e-01 3.582420e-01 3.859847e-01 4.158294e-01 4.463604e-01 4.286125e-01 7.419220e-01
<GCONST> 1.262350e+02
<MIXTURE> 3 4.475911e-01
<MEAN> 39
 1.222039e+01 -1.126586e+01 8.432330e+00 -7.961950e+00 -1.320086e+01 8.223778e+00 -1.343778e+01 4.588485e+00 9.950603e+00 -6.396632e+00 1.552119e+00 -4.747117e+00 5.268653e+01 -4.859607e-01 6.502430e-01 2.703111e-01 5.181861e-01 2.840261e-01 3.328684e-02 4.670221e-01 8.921780e-02 -1.433481e-01 8.519354e-02 3.829879e-02 9.993391e-02 -9.733056e-01 -2.286501e-01 1.533600e-01 -9.950560e-02 1.112563e-01 1.030265e-01 -5.775212e-02 1.817306e-01 -7.098048e-02 -1.441536e-01 1.066418e-01 4.594769e-02 3.125002e-02 -3.196290e-01
<VARIANCE> 39
 5.332450e+01 4.852101e+01 5.643787e+01 2.956318e+01 3.513981e+01 3.197059e+01 4.186085e+01 3.723063e+01 4.753460e+01 2.441552e+01 2.506437e+01 1.991830e+01 9.025829e+01 1.798425e+00 3.336261e+00 2.694993e+00 1.835356e+00 1.950010e+00 2.101396e+00 2.894984e+00 1.989569e+00 2.240813e+00 1.934277e+00 1.862040e+00 1.826645e+00 3.902706e+00 2.334498e-01 5.120744e-01 5.134041e-01 3.486295e-01 3.843462e-01 4.156457e-01 4.685260e-01 3.655941e-01 3.793903e-01 3.518007e-01 3.946143e-01 3.526031e-01 3.532663e-01
<GCONST> 1.172377e+02
<STATE> 4
<NUMMIXES> 3
<MIXTURE> 1 1.248547e-01
<MEAN> 39
 -5.145303e+00 -5.726723e+00 5.654141e+00 7.698073e-01 -5.435638e+00 5.740915e+00 -5.733350e+00 1.502078e+00 1.399799e+00 -3.828795e+00 2.508543e+00 -2.960186e+00 3.261683e+01 5.449993e-02 4.726807e-01 4.827890e-01 5.338070e-01 6.136329e-01 6.219091e-01 6.929361e-01 6.280896e-01 5.111311e-01 5.530322e-01 5.376778e-01 3.780762e-01 -9.823699e-02 1.118636e-01 6.285853e-02 6.997151e-02 3.107665e-02 7.681203e-02 9.126323e-02 3.286670e-02 6.953650e-02 4.557447e-02 -2.644418e-02 6.457907e-02 5.190113e-02 9.442103e-02
<VARIANCE> 39
 4.889133e+01 3.244158e+01 2.567234e+01 2.200882e+01 2.253773e+01 2.106715e+01 2.045132e+01 1.808804e+01 2.373019e+01 1.707160e+01 1.228401e+01 1.139888e+01 3.271597e+01 2.137262e+00 2.802606e+00 2.205417e+00 1.878253e+00 2.090843e+00 1.992538e+00 2.111708e+00 1.715671e+00 1.834769e+00 1.862471e+00 1.744081e+00 1.293012e+00 2.555610e+00 4.264434e-01 6.202029e-01 3.032961e-01 3.742811e-01 3.945560e-01 4.334846e-01 4.497691e-01 3.500761e-01 3.607242e-01 4.090480e-01 3.290858e-01 2.297444e-01 5.565854e-01
<GCONST> 1.085971e+02
<MIXTURE> 2 5.360242e-01
<MEAN> 39
 -9.438971e+00 -7.197072e+00 4.894608e+00 2.296494e+00 -4.585662e+00 4.623143e+00 -5.532029e+00 2.569775e-01 -1.483958e-01 -3.874432e+00 2.350705e+00 -2.500394e+00 2.966478e+01 -2.123341e-01 -2.028165e-01 -2.209959e-01 -1.219595e-01 -1.361157e-01 -2.189776e-01 -1.829795e-01 -2.784089e-01 -3.185685e-01 -2.220210e-01 -1.690307e-01 -1.078527e-01 -1.160229e-01 -2.164590e-02 -8.149007e-02 -2.698313e-02 -1.779490e-02 -4.494550e-02 -7.482229e-03 -3.346962e-02 -4.838246e-02 -2.530528e-02 -5.945050e-02 -3.710377e-02 -1.309070e-02 1.151221e-02
<VARIANCE> 39
 1.945390e+01 2.244030e+01 1.417840e+01 1.304493e+01 1.334275e+01 1.368937e+01 1.259999e+01 1.758730e+01 1.976649e+01 1.675967e+01 1.283247e+01 1.158749e+01 6.014078e+00 5.917097e-01 9.278886e-01 9.643577e-01 8.593266e-01 1.081233e+00 1.181687e+00 1.343867e+00 1.399718e+00 1.513709e+00 1.598549e+00 1.351948e+00 1.101352e+00 2.283168e-01 1.037513e-01 2.038153e-01 2.068712e-01 1.828162e-01 2.229442e-01 2.521130e-01 2.882265e-01 2.934808e-01 3.019007e-01 3.408288e-01 2.872908e-01 2.319681e-01 3.575934e-02
<GCONST> 8.528450e+01
<MIXTURE> 3 3.391216e-01
<MEAN> 39
 -7.787578e+00 -6.453522e+00 5.365926e+00 1.671674e+00 -5.205649e+00 4.994416e+00 -5.646826e+00 5.749409e-01 3.100091e-01 -4.529662e+00 2.035016e+00 -2.497688e+00 3.079090e+01 -7.566110e-02 2.214298e-01 1.662858e-01 2.092761e-01 2.221683e-01 8.507182e-02 1.891875e-01 1.268126e-01 7.433478e-02 2.184915e-01 1.259942e-01 1.361115e-01 -1.311107e-01 6.937921e-02 1.334007e-02 1.670444e-02 -1.093299e-02 2.884727e-02 3.157670e-02 -1.746965e-02 2.190933e-02 4.758670e-02 6.518036e-02 4.779885e-02 -1.609160e-02 6.085796e-02
<VARIANCE> 39
 3.370332e+01 2.446754e+01 2.056025e+01 1.745926e+01 1.777250e+01 1.840369e+01 1.773918e+01 1.890090e+01 2.398517e+01 1.972284e+01 1.481187e+01 1.353886e+01 1.948876e+01 6.223201e-01 8.705448e-01 9.625539e-01 9.159478e-01 1.053913e+00 1.192302e+00 1.288653e+00 1.381889e+00 1.399680e+00 1.451200e+00 1.344882e+00 1.181105e+00 3.445698e-01 1.196215e-01 2.313314e-01 2.240652e-01 2.221307e-01 2.381274e-01 2.905425e-01 3.163359e-01 3.392297e-01 3.307290e-01 3.618702e-01 3.046970e-01 2.471567e-01 6.074337e-02
<GCONST> 9.148230e+01
<TRANSP> 5
 0.000000e+00 1.000000e+00 0.000000e+00 0.000000e+00 0.000000e+00
 0.000000e+00 5.948903e-01 4.051097e-01 0.000000e+00 0.000000e+00
 0.000000e+00 0.000000e+00 8.319429e-01 1.680571e-01 0.000000e+00
 0.000000e+00 0.000000e+00 0.000000e+00 8.954354e-01 1.045646e-01
 0.000000e+00 0.000000e+00 0.000000e+00 0.000000e+00 0.000000e+00
<ENDHMM>
~h "uw-ah+t"
<BEGINHMM>
<NUMSTATES> 5
<STATE> 2
<NUMMIXES> 3
<MIXTURE> 1 1.080120e-01
<MEAN> 39
 -2.443472e-01 -8.937810e+00 4.584186e+00 -1.836475e+00 -7.737943e+00 1.002139e+01 -5.605894e+00 -9.810715e-01 8.133934e-01 -6.992290e+00 2.580906e+00 -7.666442e-01 3.778937e+01 1.985683e+00 -1.837258e+00 1.638847e-01 -1.020974e+00 -1.277771e+00 7.596402e-01 -5.967964e-01 6.712459e-01 1.321686e+00 4.014568e-01 1.170999e+00 3.875643e-01 2.572614e+00 5.870155e-01 2.760785e-01 3.597574e-01 -1.813800e-01 -1.354336e-01 -2.593429e-01 -3.748933e-01 4.754455e-01 6.149941e-01 3.593910e-01 1.293956e-01 -3.359976e-01 5.627397e-01
<VARIANCE> 39
 3.846196e+01 5.962934e+01 3.655368e+01 1.833765e+01 3.692022e+01 6.142638e+01 3.690454e+01 1.909884e+01 4.005158e+01 2.803967e+01 1.439823e+01 1.329114e+01 3.519756e+01 6.847718e+00 7.006557e+00 5.499133e+00 3.117327e+00 2.881405e+00 4.934986e+00 4.169006e+00 1.715427e+00 3.191053e+00 4.066204e+00 1.909097e+00 2.334528e+00 8.587831e+00 1.189577e+00 1.137127e+00 6.943320e-01 5.133073e-01 5.866336e-01 1.089176e+00 6.646990e-01 4.288022e-01 4.902808e-01 4.602921e-01 4.626775e-01 3.311642e-01 1.622687e+00
<GCONST> 1.282753e+02
<MIXTURE> 2 4.667648e-01
<MEAN> 39
 -3.268904e+00 -3.857200e+00 5.482283e+00 -9.405647e-02 -6.081356e+00 5.949150e+00 -4.915917e+00 1.461278e+00 1.828158e+00 -4.370617e+00 1.728318e+00 -2.920916e+00 3.338422e+01 4.568478e-01 -9.533725e-01 -6.412092e-01 -7.069948e-01 -7.504981e-01 -1.790894e-02 -1.278927e-01 -2.793407e-01 -1.274705e-01 -2.191067e-01 -2.042139e-01 -7.114387e-02 7.409936e-01 5.770243e-01 -3.951153e-01 8.935081e-02 -3.032234e-01 -2.868005e-01 1.794245e-01 -3.365836e-01 -3.058599e-02 7.678341e-02 -1.061530e-01 2.080239e-01 3.607649e-02 7.393036e-01
<VARIANCE> 39
 5.479728e+01 2.949450e+01 2.988213e+01 2.086193e+01 3.182864e+01 2.573424e+01 2.059907e+01 1.951518e+01 2.467897e+01 1.965001e+01 1.470485e+01 1.420097e+01 3.869552e+01 4.577167e+00 4.209298e+00 3.458121e+00 3.113092e+00 3.126691e+00 3.662847e+00 2.537902e+00 2.428478e+00 3.125531e+00 2.193823e+00 1.450448e+00 1.737009e+00 5.036411e+00 6.151568e-01 6.037856e-01 4.941389e-01 4.418350e-01 4.955772e-01 5.486858e-01 4.749155e-01 3.741787e-01 4.539151e-01 3.656642e-01 3.237579e-01 3.608793e-01 7.199564e-01
<GCONST> 1.176301e+02
<MIXTURE> 3 4.252233e-01
<MEAN> 39
 -1.446460e+00 -5.590096e+00 4.863754e+00 -1.341076e+00 -7.385286e+00 6.194887e+00 -5.921786e+00 3.210571e-01 1.983199e+00 -4.769993e+00 2.159765e+00 -2.233164e+00 3.583221e+01 1.722528e+00 -1.127052e+00 -3.121175e-01 -1.212578e+00 -1.181791e+00 1.191387e-01 -5.294107e-01 3.362408e-01 7.344108e-01 1.277786e-01 2.619559e-01 -2.036698e-01 2.084200e+00 5.861080e-01 -2.562357e-01 2.091228e-01 -2.980728e-01 -2.200318e-01 1.356734e-01 -3.696797e-01 2.295429e-01 2.961345e-01 -4.329618e-03 1.105121e-01 -1.826524e-01 7.665369e-01
<VARIANCE> 39
 8.339465e+01 4.801091e+01 3.477310e+01 2.828893e+01 4.749820e+01 3.210879e+01 2.799626e+01 1.685451e+01 3.056074e+01 2.181757e+01 1.414144e+01 1.542727e+01 7.471989e+01 7.515091e+00 5.525028e+00 4.071599e+00 3.495702e+00 3.219476e+00 3.585946e+00 3.162863e+00 2.184043e+00 2.966397e+00 2.466709e+00 1.542602e+00 2.145612e+00 9.238272e+00 8.732182e-01 8.971978e-01 5.797740e-01 4.706203e-01 5.640911e-01 6.047041e-01 5.001304e-01 3.364541e-01 4.369430e-01 3.933105e-01 3.577903e-01 3.828565e-01 1.014201e+00
<GCONST> 1.245871e+02
<STATE> 3
<NUMMIXES> 3
<MIXTURE> 1 1.034277e-01
<MEAN> 39
 6.712533e+00 -1.151984e+01 9.145864e+00 -4.564700e+00 -1.235420e+01 1.028586e+01 -1.004140e+01 1.282421e+00 3.975307e+00 -8.111752e+00 3.272835e+00 -3.073426e+00 4.574607e+01 7.937266e-01 1.325820e+00 9.478363e-01 3.478723e-01 8.291695e-02 -1.785429e-01 -7.739122e-02 4.108309e-01 3.007055e-01 4.645991e-01 5.236699e-01 7.139193e-03 1.978621e-01 -1.432683e-01 2.848263e-01 -1.897750e-01 -9.863906e-02 7.141727e-02 -4.219867e-01 -4.722620e-02 3.869271e-01 5.964610e-01 4.334649e-01 -3.983076e-03 4.600827e-02 -7.620909e-02
<VARIANCE> 39
 6.995200e+01 7.441128e+01 5.218873e+01 3.108924e+01 4.047255e+01 4.366349e+01 4.271781e+01 2.591176e+01 4.223880e+01 2.416698e+01 2.025152e+01 1.897559e+01 5.557956e+01 8.969398e+00 6.178114e+00 4.920354e+00 2.640869e+00 3.414099e+00 3.496771e+00 6.145530e+00 2.110111e+00 2.896219e+00 2.767133e+00 1.887596e+00 1.820709e+00 1.117798e+01 5.616213e-01 1.217833e+00 9.187112e-01 5.263118e-01 5.783495e-01 5.605679e-01 7.381888e-01 4.876597e-01 5.996485e-01 4.421380e-01 4.319305e-01 3.384741e-01 6.528981e-01
<GCONST> 1.294303e+02
<MIXTURE> 2 4.489751e-01
<MEAN> 39
 1.024131e+01 -1.198000e+01 6.715727e+00 -8.181354e+00 -1.336145e+01 7.533054e+00 -1.255846e+01 4.557788e+00 9.731267e+00 -5.189593e+00 2.325882e+00 -4.792565e+00 5.109191e+01 1.365045e-02 -1.344396e-01 -4.717501e-02 -1.621926e-01 -3.798598e-03 -1.176624e-01 -1.872321e-01 3.182513e-01 3.454581e-01 -5.497436e-02 -2.795467e-01 -1.444524e-01 2.139647e-01 -4.038267e-01 2.515323e-01 1.663236e-02 2.846803e-01 2.614063e-01 2.168951e-02 2.278098e-01 -1.522601e-01 -2.885232e-01 -1.126935e-01 -1.186846e-01 1.357608e-01 -5.282646e-01
<VARIANCE> 39
 8.690608e+01 6.059353e+01 5.330070e+01 3.540315e+01 4.162598e+01 3.844677e+01 4.452550e+01 3.108175e+01 4.388878e+01 2.714614e+01 2.551216e+01 2.607875e+01 1.321361e+02 3.016352e+00 4.897902e+00 3.044204e+00 2.554167e+00 2.312608e+00 2.749407e+00 3.355632e+00 2.485237e+00 3.290340e+00 2.108954e+00 2.250578e+00 2.011722e+00 6.744445e+00 5.137119e-01 9.614442e-01 5.920279e-01 4.368643e-01 4.698561e-01 5.984669e-01 5.669045e-01 3.582420e-01 3.859847e-01 4.158294e-01 4.463604e-01 4.286125e-01 7.419220e-01
<GCONST> 1.262350e+02
<MIXTURE> 3 4.475911e-01
<MEAN> 39
 1.222039e+01 -1.126586e+01 8.432330e+00 -7.961950e+00 -1.320086e+01 8.223778e+00 -1.343778e+01 4.588485e+00 9.950603e+00 -6.396632e+00 1.552119e+00 -4.747117e+00 5.268653e+01 -4.859607e-01 6.502430e-01 2.703111e-01 5.181861e-01 2.840261e-01 3.328684e-02 4.670221e-01 8.921780e-02 -1.433481e-01 8.519354e-02 3.829879e-02 9.993391e-02 -9.733056e-01 -2.286501e-01 1.533600e-01 -9.950560e-02 1.112563e-01 1.030265e-01 -5.775212e-02 1.817306e-01 -7.098048e-02 -1.441536e-01 1.066418e-01 4.594769e-02 3.125002e-02 -3.196290e-01
<VARIANCE> 39
 5.332450e+01 4.852101e+01 5.643787e+01 2.956318e+01 3.513981e+01 3.197059e+01 4.186085e+01 3.723063e+01 4.753460e+01 2.441552e+01 2.506437e+01 1.991830e+01 9.025829e+01 1.798425e+00 3.336261e+00 2.694993e+00 1.835356e+00 1.950010e+00 2.101396e+00 2.894984e+00 1.989569e+00 2.240813e+00 1.934277e+00 1.862040e+00 1.826645e+00 3.902706e+00 2.334498e-01 5.120744e-01 5.134041e-01 3.486295e-01 3.843462e-01 4.156457e-01 4.685260e-01 3.655941e-01 3.793903e-01 3.518007e-01 3.946143e-01 3.526031e-01 3.532663e-01
<GCONST> 1.172377e+02
<STATE> 4
<NUMMIXES> 3
<MIXTURE> 1 1.248547e-01
<MEAN> 39
 -5.145303e+00 -5.726723e+00 5.654141e+00 7.698073e-01 -5.435638e+00 5.740915e+00 -5.733350e+00 1.502078e+00 1.399799e+00 -3.828795e+00 2.508543e+00 -2.960186e+00 3.261683e+01 5.449993e-02 4.726807e-01 4.827890e-01 5.338070e-01 6.136329e-01 6.219091e-01 6.929361e-01 6.280896e-01 5.111311e-01 5.530322e-01 5.376778e-01 3.780762e-01 -9.823699e-02 1.118636e-01 6.285853e-02 6.997151e-02 3.107665e-02 7.681203e-02 9.126323e-02 3.286670e-02 6.953650e-02 4.557447e-02 -2.644418e-02 6.457907e-02 5.190113e-02 9.442103e-02
<VARIANCE> 39
 4.889133e+01 3.244158e+01 2.567234e+01 2.200882e+01 2.253773e+01 2.106715e+01 2.045132e+01 1.808804e+01 2.373019e+01 1.707160e+01 1.228401e+01 1.139888e+01 3.271597e+01 2.137262e+00 2.802606e+00 2.205417e+00 1.878253e+00 2.090843e+00 1.992538e+00 2.111708e+00 1.715671e+00 1.834769e+00 1.862471e+00 1.744081e+00 1.293012e+00 2.555610e+00 4.264434e-01 6.202029e-01 3.032961e-01 3.742811e-01 3.945560e-01 4.334846e-01 4.497691e-01 3.500761e-01 3.607242e-01 4.090480e-01 3.290858e-01 2.297444e-01 5.565854e-01
<GCONST> 1.085971e+02
<MIXTURE> 2 5.360242e-01
<MEAN> 39
 -9.438971e+00 -7.197072e+00 4.894608e+00 2.296494e+00 -4.585662e+00 4.623143e+00 -5.532029e+00 2.569775e-01 -1.483958e-01 -3.874432e+00 2.350705e+00 -2.500394e+00 2.966478e+01 -2.123341e-01 -2.028165e-01 -2.209959e-01 -1.219595e-01 -1.361157e-01 -2.189776e-01 -1.829795e-01 -2.784089e-01 -3.185685e-01 -2.220210e-01 -1.690307e-01 -1.078527e-01 -1.160229e-01 -2.164590e-02 -8.149007e-02 -2.698313e-02 -1.779490e-02 -4.494550e-02 -7.482229e-03 -3.346962e-02 -4.838246e-02 -2.530528e-02 -5.945050e-02 -3.710377e-02 -1.309070e-02 1.151221e-02
<VARIANCE> 39
 1.945390e+01 2.244030e+01 1.417840e+01 1.304493e+01 1.334275e+01 1.368937e+01 1.259999e+01 1.758730e+01 1.976649e+01 1.675967e+01 1.283247e+01 1.158749e+01 6.014078e+00 5.917097e-01 9.278886e-01 9.643577e-01 8.593266e-01 1.081233e+00 1.181687e+00 1.343867e+00 1.399718e+00 1.513709e+00 1.598549e+00 1.351948e+00 1.101352e+00 2.283168e-01 1.037513e-01 2.038153e-01 2.068712e-01 1.828162e-01 2.229442e-01 2.521130e-01 2.882265e-01 2.934808e-01 3.019007e-01 3.408288e-01 2.872908e-01 2.319681e-01 3.575934e-02
<GCONST> 8.528450e+01
<MIXTURE> 3 3.391216e-01
<MEAN> 39
 -7.787578e+00 -6.453522e+00 5.365926e+00 1.671674e+00 -5.205649e+00 4.994416e+00 -5.646826e+00 5.749409e-01 3.100091e-01 -4.529662e+00 2.035016e+00 -2.497688e+00 3.079090e+01 -7.566110e-02 2.214298e-01 1.662858e-01 2.092761e-01 2.221683e-01 8.507182e-02 1.891875e-01 1.268126e-01 7.433478e-02 2.184915e-01 1.259942e-01 1.361115e-01 -1.311107e-01 6.937921e-02 1.334007e-02 1.670444e-02 -1.093299e-02 2.884727e-02 3.157670e-02 -1.746965e-02 2.190933e-02 4.758670e-02 6.518036e-02 4.779885e-02 -1.609160e-02 6.085796e-02
<VARIANCE> 39
 3.370332e+01 2.446754e+01 2.056025e+01 1.745926e+01 1.777250e+01 1.840369e+01 1.773918e+01 1.890090e+01 2.398517e+01 1.972284e+01 1.481187e+01 1.353886e+01 1.948876e+01 6.223201e-01 8.705448e-01 9.625539e-01 9.159478e-01 1.053913e+00 1.192302e+00 1.288653e+00 1.381889e+00 1.399680e+00 1.451200e+00 1.344882e+00 1.181105e+00 3.445698e-01 1.196215e-01 2.313314e-01 2.240652e-01 2.221307e-01 2.381274e-01 2.905425e-01 3.163359e-01 3.392297e-01 3.307290e-01 3.618702e-01 3.046970e-01 2.471567e-01 6.074337e-02
<GCONST> 9.148230e+01
<TRANSP> 5
 0.000000e+00 1.000000e+00 0.000000e+00 0.000000e+00 0.000000e+00
 0.000000e+00 5.948903e-01 4.051097e-01 0.000000e+00 0.000000e+00
 0.000000e+00 0.000000e+00 8.319429e-01 1.680571e-01 0.000000e+00
 0.000000e+00 0.000000e+00 0.000000e+00 8.954354e-01 1.045646e-01
 0.000000e+00 0.000000e+00 0.000000e+00 0.000000e+00 0.000000e+00
<ENDHMM>
~h "g-ah+m"
<BEGINHMM>
<NUMSTATES> 5
<STATE> 2
<NUMMIXES> 3
<MIXTURE> 1 1.080120e-01
<MEAN> 39
 -2.443472e-01 -8.937810e+00 4.584186e+00 -1.836475e+00 -7.737943e+00 1.002139e+01 -5.605894e+00 -9.810715e-01 8.133934e-01 -6.992290e+00 2.580906e+00 -7.666442e-01 3.778937e+01 1.985683e+00 -1.837258e+00 1.638847e-01 -1.020974e+00 -1.277771e+00 7.596402e-01 -5.967964e-01 6.712459e-01 1.321686e+00 4.014568e-01 1.170999e+00 3.875643e-01 2.572614e+00 5.870155e-01 2.760785e-01 3.597574e-01 -1.813800e-01 -1.354336e-01 -2.593429e-01 -3.748933e-01 4.754455e-01 6.149941e-01 3.593910e-01 1.293956e-01 -3.359976e-01 5.627397e-01
<VARIANCE> 39
 3.846196e+01 5.962934e+01 3.655368e+01 1.833765e+01 3.692022e+01 6.142638e+01 3.690454e+01 1.909884e+01 4.005158e+01 2.803967e+01 1.439823e+01 1.329114e+01 3.519756e+01 6.847718e+00 7.006557e+00 5.499133e+00 3.117327e+00 2.881405e+00 4.934986e+00 4.169006e+00 1.715427e+00 3.191053e+00 4.066204e+00 1.909097e+00 2.334528e+00 8.587831e+00 1.189577e+00 1.137127e+00 6.943320e-01 5.133073e-01 5.866336e-01 1.089176e+00 6.646990e-01 4.288022e-01 4.902808e-01 4.602921e-01 4.626775e-01 3.311642e-01 1.622687e+00
<GCONST> 1.282753e+02
<MIXTURE> 2 4.667648e-01
<MEAN> 39
 -3.268904e+00 -3.857200e+00 5.482283e+00 -9.405647e-02 -6.081356e+00 5.949150e+00 -4.915917e+00 1.461278e+00 1.828158e+00 -4.370617e+00 1.728318e+00 -2.920916e+00 3.338422e+01 4.568478e-01 -9.533725e-01 -6.412092e-01 -7.069948e-01 -7.504981e-01 -1.790894e-02 -1.278927e-01 -2.793407e-01 -1.274705e-01 -2.191067e-01 -2.042139e-01 -7.114387e-02 7.409936e-01 5.770243e-01 -3.951153e-01 8.935081e-02 -3.032234e-01 -2.868005e-01 1.794245e-01 -3.365836e-01 -3.058599e-02 7.678341e-02 -1.061530e-01 2.080239e-01 3.607649e-02 7.393036e-01
<VARIANCE> 39
 5.479728e+01 2.949450e+01 2.988213e+01 2.086193e+01 3.182864e+01 2.573424e+01 2.059907e+01 1.951518e+01 2.467897e+01 1.965001e+01 1.470485e+01 1.420097e+01 3.869552e+01 4.577167e+00 4.209298e+00 3.458121e+00 3.113092e+00 3.126691e+00 3.662847e+00 2.537902e+00 2.428478e+00 3.125531e+00 2.193823e+00 1.450448e+00 1.737009e+00 5.036411e+00 6.151568e-01 6.037856e-01 4.941389e-01 4.418350e-01 4.955772e-01 5.486858e-01 4.749155e-01 3.741787e-01 4.539151e-01 3.656642e-01 3.237579e-01 3.608793e-01 7.199564e-01
<GCONST> 1.176301e+02
<MIXTURE> 3 4.252233e-01
<MEAN> 39
 -1.446460e+00 -5.590096e+00 4.863754e+00 -1.341076e+00 -7.385286e+00 6.194887e+00 -5.921786e+00 3.210571e-01 1.983199e+00 -4.769993e+00 2.159765e+00 -2.233164e+00 3.583221e+01 1.722528e+00 -1.127052e+00 -3.121175e-01 -1.212578e+00 -1.181791e+00 1.191387e-01 -5.294107e-01 3.362408e-01 7.344108e-01 1.277786e-01 2.619559e-01 -2.036698e-01 2.084200e+00 5.861080e-01 -2.562357e-01 2.091228e-01 -2.980728e-01 -2.200318e-01 1.356734e-01 -3.696797e-01 2.295429e-01 2.961345e-01 -4.329618e-03 1.105121e-01 -1.826524e-01 7.665369e-01
<VARIANCE> 39
 8.339465e+01 4.801091e+01 3.477310e+01 2.828893e+01 4.749820e+01 3.210879e+01 2.799626e+01 1.685451e+01 3.056074e+01 2.181757e+01 1.414144e+01 1.542727e+01 7.471989e+01 7.515091e+00 5.525028e+00 4.071599e+00 3.495702e+00 3.219476e+00 3.585946e+00 3.162863e+00 2.184043e+00 2.966397e+00 2.466709e+00 1.542602e+00 2.145612e+00 9.238272e+00 8.732182e-01 8.971978e-01 5.797740e-01 4.706203e-01 5.640911e-01 6.047041e-01 5.001304e-01 3.364541e-01 4.369430e-01 3.933105e-01 3.577903e-01 3.828565e-01 1.014201e+00
<GCONST> 1.245871e+02
<STATE> 3
<NUMMIXES> 3
<MIXTURE> 1 1.034277e-01
<MEAN> 39
 6.712533e+00 -1.151984e+01 9.145864e+00 -4.564700e+00 -1.235420e+01 1.028586e+01 -1.004140e+01 1.282421e+00 3.975307e+00 -8.111752e+00 3.272835e+00 -3.073426e+00 4.574607e+01 7.937266e-01 1.325820e+00 9.478363e-01 3.478723e-01 8.291695e-02 -1.785429e-01 -7.739122e-02 4.108309e-01 3.007055e-01 4.645991e-01 5.236699e-01 7.139193e-03 1.978621e-01 -1.432683e-01 2.848263e-01 -1.897750e-01 -9.863906e-02 7.141727e-02 -4.219867e-01 -4.722620e-02 3.869271e-01 5.964610e-01 4.334649e-01 -3.983076e-03 4.600827e-02 -7.620909e-02
<VARIANCE> 39
 6.995200e+01 7.441128e+01 5.218873e+01 3.108924e+01 4.047255e+01 4.366349e+01 4.271781e+01 2.591176e+01 4.223880e+01 2.416698e+01 2.025152e+01 1.897559e+01 5.557956e+01 8.969398e+00 6.178114e+00 4.920354e+00 2.640869e+00 3.414099e+00 3.496771e+00 6.145530e+00 2.110111e+00 2.896219e+00 2.767133e+00 1.887596e+00 1.820709e+00 1.117798e+01 5.616213e-01 1.217833e+00 9.187112e-01 5.263118e-01 5.783495e-01 5.605679e-01 7.381888e-01 4.876597e-01 5.996485e-01 4.421380e-01 4.319305e-01 3.384741e-01 6.528981e-01
<GCONST> 1.294303e+02
<MIXTURE> 2 4.489751e-01
<MEAN> 39
 1.024131e+01 -1.198000e+01 6.715727e+00 -8.181354e+00 -1.336145e+01 7.533054e+00 -1.255846e+01 4.557788e+00 9.731267e+00 -5.189593e+00 2.325882e+00 -4.792565e+00 5.109191e+01 1.365045e-02 -1.344396e-01 -4.717501e-02 -1.621926e-01 -3.798598e-03 -1.176624e-01 -1.872321e-01 3.182513e-01 3.454581e-01 -5.497436e-02 -2.795467e-01 -1.444524e-01 2.139647e-01 -4.038267e-01 2.515323e-01 1.663236e-02 2.846803e-01 2.614063e-01 2.168951e-02 2.278098e-01 -1.522601e-01 -2.885232e-01 -1.126935e-01 -1.186846e-01 1.357608e-01 -5.282646e-01
<VARIANCE> 39
 8.690608e+01 6.059353e+01 5.330070e+01 3.540315e+01 4.162598e+01 3.844677e+01 4.452550e+01 3.108175e+01 4.388878e+01 2.714614e+01 2.551216e+01 2.607875e+01 1.321361e+02 3.016352e+00 4.897902e+00 3.044204e+00 2.554167e+00 2.312608e+00 2.749407e+00 3.355632e+00 2.485237e+00 3.290340e+00 2.108954e+00 2.250578e+00 2.011722e+00 6.744445e+00 5.137119e-01 9.614442e-01 5.920279e-01 4.368643e-01 4.698561e-01 5.984669e-01 5.669045e-01 3.582420e-01 3.859847e-01 4.158294e-01 4.463604e-01 4.286125e-01 7.419220e-01
<GCONST> 1.262350e+02
<MIXTURE> 3 4.475911e-01
<MEAN> 39
 1.222039e+01 -1.126586e+01 8.432330e+00 -7.961950e+00 -1.320086e+01 8.223778e+00 -1.343778e+01 4.588485e+00 9.950603e+00 -6.396632e+00 1.552119e+00 -4.747117e+00 5.268653e+01 -4.859607e-01 6.502430e-01 2.703111e-01 5.181861e-01 2.840261e-01 3.328684e-02 4.670221e-01 8.921780e-02 -1.433481e-01 8.519354e-02 3.829879e-02 9.993391e-02 -9.733056e-01 -2.286501e-01 1.533600e-01 -9.950560e-02 1.112563e-01 1.030265e-01 -5.775212e-02 1.817306e-01 -7.098048e-02 -1.441536e-01 1.066418e-01 4.594769e-02 3.125002e-02 -3.196290e-01
<VARIANCE> 39
 5.332450e+01 4.852101e+01 5.643787e+01 2.956318e+01 3.513981e+01 3.197059e+01 4.186085e+01 3.723063e+01 4.753460e+01 2.441552e+01 2.506437e+01 1.991830e+01 9.025829e+01 1.798425e+00 3.336261e+00 2.694993e+00 1.835356e+00 1.950010e+00 2.101396e+00 2.894984e+00 1.989569e+00 2.240813e+00 1.934277e+00 1.862040e+00 1.826645e+00 3.902706e+00 2.334498e-01 5.120744e-01 5.134041e-01 3.486295e-01 3.843462e-01 4.156457e-01 4.685260e-01 3.655941e-01 3.793903e-01 3.518007e-01 3.946143e-01 3.526031e-01 3.532663e-01
<GCONST> 1.172377e+02
<STATE> 4
<NUMMIXES> 3
<MIXTURE> 1 1.248547e-01
<MEAN> 39
 -5.145303e+00 -5.726723e+00 5.654141e+00 7.698073e-01 -5.435638e+00 5.740915e+00 -5.733350e+00 1.502078e+00 1.399799e+00 -3.828795e+00 2.508543e+00 -2.960186e+00 3.261683e+01 5.449993e-02 4.726807e-01 4.827890e-01 5.338070e-01 6.136329e-01 6.219091e-01 6.929361e-01 6.280896e-01 5.111311e-01 5.530322e-01 5.376778e-01 3.780762e-01 -9.823699e-02 1.118636e-01 6.285853e-02 6.997151e-02 3.107665e-02 7.681203e-02 9.126323e-02 3.286670e-02 6.953650e-02 4.557447e-02 -2.644418e-02 6.457907e-02 5.190113e-02 9.442103e-02
<VARIANCE> 39
 4.889133e+01 3.244158e+01 2.567234e+01 2.200882e+01 2.253773e+01 2.106715e+01 2.045132e+01 1.808804e+01 2.373019e+01 1.707160e+01 1.228401e+01 1.139888e+01 3.271597e+01 2.137262e+00 2.802606e+00 2.205417e+00 1.878253e+00 2.090843e+00 1.992538e+00 2.111708e+00 1.715671e+00 1.834769e+00 1.862471e+00 1.744081e+00 1.293012e+00 2.555610e+00 4.264434e-01 6.202029e-01 3.032961e-01 3.742811e-01 3.945560e-01 4.334846e-01 4.497691e-01 3.500761e-01 3.607242e-01 4.090480e-01 3.290858e-01 2.297444e-01 5.565854e-01
<GCONST> 1.085971e+02
<MIXTURE> 2 5.360242e-01
<MEAN> 39
 -9.438971e+00 -7.197072e+00 4.894608e+00 2.296494e+00 -4.585662e+00 4.623143e+00 -5.532029e+00 2.569775e-01 -1.483958e-01 -3.874432e+00 2.350705e+00 -2.500394e+00 2.966478e+01 -2.123341e-01 -2.028165e-01 -2.209959e-01 -1.219595e-01 -1.361157e-01 -2.189776e-01 -1.829795e-01 -2.784089e-01 -3.185685e-01 -2.220210e-01 -1.690307e-01 -1.078527e-01 -1.160229e-01 -2.164590e-02 -8.149007e-02 -2.698313e-02 -1.779490e-02 -4.494550e-02 -7.482229e-03 -3.346962e-02 -4.838246e-02 -2.530528e-02 -5.945050e-02 -3.710377e-02 -1.309070e-02 1.151221e-02
<VARIANCE> 39
 1.945390e+01 2.244030e+01 1.417840e+01 1.304493e+01 1.334275e+01 1.368937e+01 1.259999e+01 1.758730e+01 1.976649e+01 1.675967e+01 1.283247e+01 1.158749e+01 6.014078e+00 5.917097e-01 9.278886e-01 9.643577e-01 8.593266e-01 1.081233e+00 1.181687e+00 1.343867e+00 1.399718e+00 1.513709e+00 1.598549e+00 1.351948e+00 1.101352e+00 2.283168e-01 1.037513e-01 2.038153e-01 2.068712e-01 1.828162e-01 2.229442e-01 2.521130e-01 2.882265e-01 2.934808e-01 3.019007e-01 3.408288e-01 2.872908e-01 2.319681e-01 3.575934e-02
<GCONST> 8.528450e+01
<MIXTURE> 3 3.391216e-01
<MEAN> 39
 -7.787578e+00 -6.453522e+00 5.365926e+00 1.671674e+00 -5.205649e+00 4.994416e+00 -5.646826e+00 5.749409e-01 3.100091e-01 -4.529662e+00 2.035016e+00 -2.497688e+00 3.079090e+01 -7.566110e-02 2.214298e-01 1.662858e-01 2.092761e-01 2.221683e-01 8.507182e-02 1.891875e-01 1.268126e-01 7.433478e-02 2.184915e-01 1.259942e-01 1.361115e-01 -1.311107e-01 6.937921e-02 1.334007e-02 1.670444e-02 -1.093299e-02 2.884727e-02 3.157670e-02 -1.746965e-02 2.190933e-02 4.758670e-02 6.518036e-02 4.779885e-02 -1.609160e-02 6.085796e-02
<VARIANCE> 39
 3.370332e+01 2.446754e+01 2.056025e+01 1.745926e+01 1.777250e+01 1.840369e+01 1.773918e+01 1.890090e+01 2.398517e+01 1.972284e+01 1.481187e+01 1.353886e+01 1.948876e+01 6.223201e-01 8.705448e-01 9.625539e-01 9.159478e-01 1.053913e+00 1.192302e+00 1.288653e+00 1.381889e+00 1.399680e+00 1.451200e+00 1.344882e+00 1.181105e+00 3.445698e-01 1.196215e-01 2.313314e-01 2.240652e-01 2.221307e-01 2.381274e-01 2.905425e-01 3.163359e-01 3.392297e-01 3.307290e-01 3.618702e-01 3.046970e-01 2.471567e-01 6.074337e-02
<GCONST> 9.148230e+01
<TRANSP> 5
 0.000000e+00 1.000000e+00 0.000000e+00 0.000000e+00 0.000000e+00
 0.000000e+00 5.948903e-01 4.051097e-01 0.000000e+00 0.000000e+00
 0.000000e+00 0.000000e+00 8.319429e-01 1.680571e-01 0.000000e+00
 0.000000e+00 0.000000e+00 0.000000e+00 8.954354e-01 1.045646e-01
 0.000000e+00 0.000000e+00 0.000000e+00 0.000000e+00 0.000000e+00
<ENDHMM>
~h "d+uw"
<BEGINHMM>
<NUMSTATES> 5
<STATE> 2
<MEAN> 39
 -3.172761e+00 -6.579761e+00 3.979777e+00 -2.947830e+00 -9.514837e+00 6.025768e+00 -5.938272e+00 -2.505727e-01 2.855221e+00 -3.980058e+00 2.829628e+00 -1.221495e+00 3.445532e+01 1.609449e+00 -1.139641e+00 1.543116e-01 -9.202192e-01 -1.408864e+00 2.177782e-01 -6.188121e-01 8.521496e-02 8.756610e-01 -4.272848e-02 3.406159e-01 1.927826e-01 1.893485e+00 1.714754e-01 -3.966445e-01 2.246746e-01 -5.491275e-02 -1.637145e-01 1.094406e-01 -3.541893e-01 1.171599e-01 2.176125e-01 -5.822374e-02 8.709662e-02 -5.627164e-02 4.051546e-01
<VARIANCE> 39
 5.858900e+01 5.816486e+01 2.273151e+01 2.814025e+01 4.045649e+01 3.934064e+01 2.804082e+01 2.394323e+01 1.990725e+01 2.013836e+01 1.674218e+01 1.182584e+01 5.294266e+01 7.386705e+00 6.147797e+00 2.739213e+00 2.174053e+00 4.149089e+00 3.752757e+00 4.075538e+00 2.303839e+00 2.165277e+00 1.880144e+00 1.509078e+00 2.181579e+00 4.954334e+00 9.016473e-01 7.005451e-01 6.086861e-01 4.652535e-01 6.448751e-01 5.055533e-01 6.492064e-01 4.070325e-01 4.600190e-01 4.452840e-01 3.082888e-01 3.221951e-01 7.012489e-01
<GCONST> 1.217632e+02
<STATE> 3
<MEAN> 39
 1.024757e+01 -1.245908e+01 8.947272e+00 -7.692492e+00 -1.457956e+01 9.130144e+00 -1.344323e+01 1.862800e+00 9.615503e+00 -4.620693e+00 3.755996e+00 -2.868824e+00 5.099306e+01 7.338721e-02 9.050654e-02 7.254043e-02 1.141410e-01 1.355209e-01 -4.042045e-02 -2.376036e-02 1.299701e-01 4.326401e-02 3.848388e-02 -1.250190e-02 -9.954789e-02 4.581960e-02 -1.019751e-01 6.279481e-02 -3.636552e-02 5.700263e-02 7.327712e-02 -1.975909e-02 7.059475e-02 -1.525408e-02 -6.978105e-02 -1.339470e-02 -3.628798e-02 -1.350121e-02 -1.276821e-01
<VARIANCE> 39
 7.650129e+01 6.849892e+01 4.524497e+01 2.839274e+01 3.135633e+01 2.442580e+01 3.494173e+01 3.453690e+01 3.793547e+01 2.390575e+01 2.098826e+01 2.124906e+01 8.750400e+01 3.698332e+00 4.005478e+00 2.932078e+00 2.145023e+00 1.710182e+00 2.168301e+00 2.692643e+00 2.108909e+00 2.350174e+00 1.856365e+00 2.035774e+00 1.586782e+00 5.262860e+00 5.421095e-01 6.613595e-01 4.550479e-01 3.559191e-01 3.268522e-01 4.535966e-01 4.443799e-01 3.545969e-01 4.001416e-01 3.388727e-01 3.933819e-01 3.100718e-01 5.381301e-01
<GCONST> 1.190819e+02
<STATE> 4
<MEAN> 39
 -5.421598e+00 -4.275440e+00 7.609692e+00 1.119020e+00 -6.157751e+00 4.818308e+00 -6.910676e+00 1.851407e-01 6.575431e-01 -5.348339e+00 1.143739e+00 -3.464205e+00 3.257833e+01 -2.851802e-01 -2.580233e-01 1.666436e-02 2.567418e-01 1.156406e-01 -6.323904e-03 1.303941e-01 -1.683635e-02 -1.976952e-01 -2.032116e-01 -1.141066e-01 -7.429229e-02 -1.251685e-01 8.349675e-02 -8.616053e-02 2.780474e-02 -4.725018e-02 -5.936407e-02 2.945451e-02 -5.867330e-02 -8.635168e-02 -1.305475e-02 -7.389471e-03 1.538245e-02 4.460108e-02 9.577874e-02
<VARIANCE> 39
 6.699348e+01 4.551220e+01 3.148102e+01 2.186925e+01 2.516234e+01 1.979832e+01 2.022747e+01 2.219686e+01 3.064750e+01 2.076691e+01 1.506032e+01 1.401804e+01 6.823802e+01 1.716005e+00 1.353533e+00 1.171723e+00 1.129684e+00 1.136107e+00 1.559979e+00 1.718421e+00 1.962559e+00 2.063395e+00 1.783562e+00 1.250819e+00 1.477127e+00 2.220044e+00 1.507053e-01 1.862778e-01 1.961609e-01 2.085521e-01 2.358367e-01 2.961684e-01 2.722487e-01 3.312501e-01 3.146871e-01 3.546928e-01 2.023693e-01 3.040509e-01 1.443558e-01
<GCONST> 1.014559e+02
<TRANSP> 5
 0.000000e+00 1.000000e+00 0.000000e+00 0.000000e+00 0.000000e+00
 0.000000e+00 4.641719e-01 5.358281e-01 0.000000e+00 0.000000e+00
 0.000000e+00 0.000000e+00 9.307104e-01 6.928955e-02 0.000000e+00
 0.000000e+00 0.000000e+00 0.000000e+00 5.432322e-01 4.567678e-01
 0.000000e+00 0.000000e+00 0.000000e+00 0.000000e+00 0.000000e+00
<ENDHMM>
~h "g-ah+aa"
<BEGINHMM>
<NUMSTATES> 5
<STATE> 2
<NUMMIXES> 3
<MIXTURE> 1 1.080120e-01
<MEAN> 39
 -2.443472e-01 -8.937810e+00 4.584186e+00 -1.836475e+00 -7.737943e+00 1.002139e+01 -5.605894e+00 -9.810715e-01 8.133934e-01 -6.992290e+00 2.580906e+00 -7.666442e-01 3.778937e+01 1.985683e+00 -1.837258e+00 1.638847e-01 -1.020974e+00 -1.277771e+00 7.596402e-01 -5.967964e-01 6.712459e-01 1.321686e+00 4.014568e-01 1.170999e+00 3.875643e-01 2.572614e+00 5.870155e-01 2.760785e-01 3.597574e-01 -1.813800e-01 -1.354336e-01 -2.593429e-01 -3.748933e-01 4.754455e-01 6.149941e-01 3.593910e-01 1.293956e-01 -3.359976e-01 5.627397e-01
<VARIANCE> 39
 3.846196e+01 5.962934e+01 3.655368e+01 1.833765e+01 3.692022e+01 6.142638e+01 3.690454e+01 1.909884e+01 4.005158e+01 2.803967e+01 1.439823e+01 1.329114e+01 3.519756e+01 6.847718e+00 7.006557e+00 5.499133e+00 3.117327e+00 2.881405e+00 4.934986e+00 4.169006e+00 1.715427e+00 3.191053e+00 4.066204e+00 1.909097e+00 2.334528e+00 8.587831e+00 1.189577e+00 1.137127e+00 6.943320e-01 5.133073e-01 5.866336e-01 1.089176e+00 6.646990e-01 4.288022e-01 4.902808e-01 4.602921e-01 4.626775e-01 3.311642e-01 1.622687e+00
<GCONST> 1.282753e+02
<MIXTURE> 2 4.667648e-01
<MEAN> 39
 -3.268904e+00 -3.857200e+00 5.482283e+00 -9.405647e-02 -6.081356e+00 5.949150e+00 -4.915917e+00 1.461278e+00 1.828158e+00 -4.370617e+00 1.728318e+00 -2.920916e+00 3.338422e+01 4.568478e-01 -9.533725e-01 -6.412092e-01 -7.069948e-01 -7.504981e-01 -1.790894e-02 -1.278927e-01 -2.793407e-01 -1.274705e-01 -2.191067e-01 -2.042139e-01 -7.114387e-02 7.409936e-01 5.770243e-01 -3.951153e-01 8.935081e-02 -3.032234e-01 -2.868005e-01 1.794245e-01 -3.365836e-01 -3.058599e-02 7.678341e-02 -1.061530e-01 2.080239e-01 3.607649e-02 7.393036e-01
<VARIANCE> 39
