~o
<STREAMINFO> 1 39
<VECSIZE> 39<NULLD><MFCC_D_A_0><DIAGC>
~h "b"
<BEGINHMM>
<NUMSTATES> 5
<STATE> 2
<MEAN> 39
 1.049191e+01 -1.301586e+01 1.166213e+00 -1.107330e+01 -1.012452e+01 1.112666e+01 -1.139594e+01 -1.795118e-01 4.362247e+00 -1.844624e+00 9.307178e+00 -3.942033e+00 5.666931e+01 8.753933e-01 -4.685080e-01 1.315832e-02 -4.470064e-01 -2.205512e-01 3.266600e-01 -2.927877e-01 5.753618e-03 8.798184e-02 -1.117591e-02 2.245102e-01 -2.729031e-01 1.105794e+00 -5.051160e-03 9.590269e-04 2.483855e-02 7.116986e-03 3.176939e-02 6.996414e-02 5.182961e-02 4.879672e-02 9.706051e-03 -2.845036e-02 -4.429077e-02 -5.017311e-02 3.778718e-03
<VARIANCE> 39
 7.255591e+01 4.988821e+01 3.434587e+01 3.987246e+01 2.362326e+01 3.928565e+01 2.993630e+01 2.382575e+01 2.657897e+01 2.043137e+01 2.919721e+01 1.866563e+01 1.386642e+02 4.913548e+00 6.660060e+00 4.788463e+00 3.470252e+00 2.431081e+00 3.971361e+00 3.557779e+00 3.005136e+00 1.832927e+00 1.985883e+00 2.429567e+00 1.966947e+00 8.469064e+00 7.353575e-01 1.424438e+00 9.655249e-01 5.725555e-01 4.698291e-01 8.011613e-01 7.449867e-01 5.946989e-01 3.149987e-01 3.604227e-01 5.062762e-01 3.056393e-01 1.076505e+00
<GCONST> 1.276490e+02
<STATE> 3
<MEAN> 39
 1.131009e+01 -1.150898e+01 3.655306e+00 -9.444466e+00 -1.049207e+01 1.050731e+01 -1.098898e+01 1.607797e+00 4.479405e+00 -3.783012e+00 6.709274e+00 -6.529806e+00 5.677345e+01 -6.727675e-02 1.882625e-01 -7.028387e-01 -9.958932e-03 8.466284e-01 1.032070e+00 1.042830e+00 1.298344e-01 -2.580575e-01 -6.157550e-01 -1.256263e+00 -6.986346e-01 -1.338263e-01 -5.134711e-01 3.596035e-01 -7.773865e-02 4.871238e-01 4.014897e-01 -5.823409e-02 4.666368e-01 -2.962817e-01 -4.435542e-01 -2.693982e-02 -3.773669e-01 2.514144e-01 -6.158841e-01
<VARIANCE> 39
 8.569695e+01 5.766619e+01 1.379505e+01 5.424037e+01 1.041679e+01 4.270710e+01 2.279335e+01 2.062563e+01 3.169559e+01 3.167504e+01 2.154431e+01 1.559654e+01 1.581416e+02 6.364009e-01 5.557902e+00 2.168494e+00 1.517106e+00 5.545844e-01 3.476156e+00 2.147714e+00 1.473143e+00 1.579866e+00 8.445294e-01 1.137011e+00 1.297980e+00 2.643250e+00 2.868522e-01 1.075980e+00 3.663291e-01 4.207135e-01 2.608101e-01 4.313687e-01 6.849827e-01 4.187064e-01 5.997118e-01 5.168081e-01 2.444369e-01 1.781480e-01 4.912962e-01
<GCONST> 1.112602e+02
<STATE> 4
<MEAN> 39
 1.600100e+01 -7.464306e+00 8.683264e+00 -1.108789e+01 -1.118581e+01 1.561021e+01 -7.560101e+00 3.093618e+00 2.326051e-01 -1.033394e+01 3.449086e+00 -7.675810e+00 5.908316e+01 -3.508249e-01 6.261878e-01 5.340695e-01 6.741203e-01 1.271375e-01 -1.256897e-01 2.632630e-01 1.166517e-01 -1.389429e-01 -3.280085e-01 -2.729676e-01 3.305630e-01 -8.012497e-01 -8.852788e-02 -1.209536e-02 -1.828981e-02 9.155644e-02 -1.279934e-02 -1.386476e-01 -5.574647e-02 -4.256389e-02 6.077943e-02 1.223884e-01 7.126628e-02 9.878466e-02 -1.091079e-01
<VARIANCE> 39
 1.608084e+01 3.543336e+01 3.915051e+01 2.950593e+01 1.972583e+01 2.499033e+01 1.437367e+01 1.507872e+01 1.768646e+01 3.936875e+01 1.620555e+01 1.351418e+01 4.066090e+01 6.121258e-01 1.540676e+00 1.443366e+00 1.304590e+00 1.352502e+00 1.916672e+00 1.603090e+00 1.092998e+00 1.913447e+00 2.155245e+00 1.125778e+00 1.179802e+00 6.402109e-01 8.581959e-02 2.116493e-01 2.196952e-01 1.676967e-01 2.041000e-01 3.327713e-01 2.268780e-01 2.068837e-01 3.169974e-01 2.911150e-01 1.751495e-01 2.315595e-01 7.947485e-02
<GCONST> 9.445798e+01
<TRANSP> 5
 0.000000e+00 1.000000e+00 0.000000e+00 0.000000e+00 0.000000e+00
 0.000000e+00 9.454940e-01 5.450602e-02 0.000000e+00 0.000000e+00
 0.000000e+00 0.000000e+00 0.000000e+00 1.000000e+00 0.000000e+00
 0.000000e+00 0.000000e+00 0.000000e+00 9.093294e-01 9.067056e-02
 0.000000e+00 0.000000e+00 0.000000e+00 0.000000e+00 0.000000e+00
<ENDHMM>
~h "d"
<BEGINHMM>
<NUMSTATES> 5
<STATE> 2
<MEAN> 39
 5.726877e+00 -5.628242e+00 5.320178e+00 -4.035233e+00 -9.821108e+00 7.166455e+00 -7.604818e+00 4.857628e+00 9.195385e+00 -7.269511e-01 3.841113e+00 -4.405089e+00 4.638146e+01 -3.790276e-01 7.134002e-01 -7.421854e-01 -1.846257e-01 -7.356576e-01 -7.436383e-01 1.233724e+00 6.595001e-01 -2.257978e-01 1.834997e-01 1.786276e-01 -8.881475e-02 -1.082180e+00 -1.648246e-01 -1.296434e-01 -1.200984e-01 -2.409198e-01 -7.797714e-02 -2.048359e-01 -1.988886e-01 -2.294940e-01 -3.584051e-01 -2.713112e-01 -2.494031e-01 6.524262e-02 1.413232e-02
<VARIANCE> 39
 1.358593e+02 2.816034e+01 3.245744e+01 1.739727e+01 2.315392e+01 1.841288e+01 1.714100e+01 2.443680e+01 4.348061e+01 2.262763e+01 1.595159e+01 1.520488e+01 9.930210e+01 1.286697e+01 2.202932e+00 2.129163e+00 1.371900e+00 1.279059e+00 4.036220e+00 2.804519e+00 1.528036e+00 2.060696e+00 3.063520e+00 1.637830e+00 1.148138e+00 1.236009e+01 1.734263e+00 4.928585e-01 4.370809e-01 4.747385e-01 3.967398e-01 3.265339e-01 3.777924e-01 3.577715e-01 2.986579e-01 3.849795e-01 3.000007e-01 1.428702e-01 1.649480e+00
<GCONST> 1.172513e+02
<STATE> 3
<MEAN> 39
 7.731884e+00 -4.044016e+00 6.186713e+00 -5.665217e+00 -1.302089e+01 5.718674e+00 -7.309358e+00 6.997955e+00 1.172810e+01 2.855377e-01 3.917402e+00 -4.542372e+00 4.708229e+01 -2.095968e+00 9.416438e-01 -1.319950e+00 -8.547690e-02 -7.613929e-02 -1.466237e+00 1.262941e+00 4.230692e-02 -8.420302e-01 2.057303e-01 -5.263433e-01 4.028509e-01 -2.385237e+00 8.141658e-02 -3.647613e-01 9.624450e-02 -2.906121e-02 1.856453e-01 1.531949e-01 -5.369602e-01 -5.777258e-01 -4.898088e-01 -4.973018e-01 -2.577041e-01 8.714995e-02 3.655136e-01
<VARIANCE> 39
 2.034737e+01 2.162259e+01 1.825622e+01 1.078439e+01 1.588494e+01 1.911829e+01 1.479628e+01 8.571317e+00 2.293567e+01 2.535754e+01 8.189014e+00 1.225056e+01 1.659469e+01 4.484384e-01 7.514689e-01 9.990358e-01 8.646209e-01 1.152055e+00 1.186532e+00 9.219296e-01 2.263057e+00 2.853424e+00 1.932680e+00 1.580505e+00 1.383118e+00 2.022873e-01 1.305201e-01 7.759379e-02 5.302399e-01 5.512862e-01 4.099430e-01 5.672406e-01 2.761394e-01 2.323960e-01 2.839425e-01 2.070980e-01 1.543043e-01 2.367119e-01 7.635094e-02
<GCONST> 8.935087e+01
<STATE> 4
<MEAN> 39
 -1.327808e+00 3.520561e-01 8.826704e+00 -3.535468e-01 -7.907489e+00 3.454970e+00 -7.074708e+00 1.801869e+00 1.406617e+00 -5.363976e+00 1.035759e+00 -4.812479e+00 3.865792e+01 -4.645191e-01 5.258631e-02 -1.879713e-01 -1.894899e-02 -1.813424e-02 -3.066036e-01 -1.017660e-02 -1.714852e-01 -2.130681e-01 -4.226572e-02 -7.992807e-02 1.813809e-01 -4.240294e-01 1.213854e-01 -1.384559e-01 -1.750752e-03 -8.003631e-02 -3.403128e-02 1.233192e-01 -1.158247e-01 -1.337714e-01 -7.069640e-02 -1.211746e-01 1.185408e-03 5.210344e-02 1.744275e-01
<VARIANCE> 39
 2.342505e+01 1.472527e+01 1.149209e+01 1.690068e+01 1.927391e+01 1.577492e+01 1.234914e+01 1.809753e+01 3.764178e+01 2.443237e+01 1.431268e+01 1.236690e+01 1.487858e+01 8.930861e-01 6.374127e-01 1.393877e+00 1.511983e+00 1.549716e+00 1.498958e+00 1.102478e+00 1.476891e+00 1.640132e+00 1.446335e+00 1.312635e+00 1.339556e+00 8.153007e-01 1.109439e-01 1.380533e-01 2.106039e-01 3.139222e-01 3.180774e-01 3.941458e-01 3.014756e-01 3.643162e-01 3.907660e-01 3.643087e-01 2.608845e-01 3.204534e-01 1.307534e-01
<GCONST> 9.370660e+01
<TRANSP> 5
 0.000000e+00 1.000000e+00 0.000000e+00 0.000000e+00 0.000000e+00
 0.000000e+00 2.632233e-01 7.367768e-01 0.000000e+00 0.000000e+00
 0.000000e+00 0.000000e+00 0.000000e+00 1.000000e+00 0.000000e+00
 0.000000e+00 0.000000e+00 0.000000e+00 7.948427e-01 2.051573e-01
 0.000000e+00 0.000000e+00 0.000000e+00 0.000000e+00 0.000000e+00
<ENDHMM>
~h "g"
<BEGINHMM>
<NUMSTATES> 5
<STATE> 2
<MEAN> 39
 3.464884e+00 -9.766919e+00 8.257949e+00 -5.525140e+00 -1.284334e+01 8.385074e+00 -1.033448e+01 -1.962812e+00 2.412528e+00 -7.063927e+00 3.785330e+00 -1.209441e+00 4.831906e+01 2.991412e+00 -7.370066e-01 2.712872e+00 -1.141737e+00 -3.075262e+00 -9.974350e-02 -2.038733e+00 -1.178210e+00 1.488127e-01 -9.452048e-01 6.481510e-01 2.309357e-01 3.789497e+00 -9.594146e-02 4.627810e-01 6.465611e-01 1.093138e-01 -1.133709e-01 -1.733186e-01 2.320789e-05 1.107353e-01 -9.912368e-02 2.539310e-02 2.273174e-02 -1.237932e-01 -5.301618e-02
<VARIANCE> 39
 1.171057e+02 5.645223e+01 1.062644e+02 3.046788e+01 9.070203e+01 3.110849e+01 5.094212e+01 2.930602e+01 1.735553e+01 2.396042e+01 1.854254e+01 1.534249e+01 1.558292e+02 4.105703e+00 9.683022e+00 1.389093e+01 2.845283e+00 4.141724e+00 3.675404e+00 3.027309e+00 2.504689e+00 1.862481e+00 1.890180e+00 2.021996e+00 1.700970e+00 5.610462e+00 1.459426e+00 1.615112e+00 2.388916e+00 4.780824e-01 1.273811e+00 6.238631e-01 8.391535e-01 6.439402e-01 3.642902e-01 4.569972e-01 4.274012e-01 3.467648e-01 1.947553e+00
<GCONST> 1.339759e+02
<STATE> 3
<MEAN> 39
 1.095214e+01 -7.819461e+00 2.187495e+01 -8.894296e+00 -2.334849e+01 5.945436e+00 -1.643680e+01 -3.988153e+00 1.463335e+00 -1.058820e+01 6.432108e+00 -8.872694e-01 5.873446e+01 1.663431e-01 5.435392e-01 1.798105e+00 -5.305884e-01 -7.356765e-01 -1.289239e-01 -4.420667e-01 3.857194e-01 -5.563581e-02 -1.455456e-02 1.286788e-01 -5.282364e-01 6.838758e-01 -5.738258e-01 -6.402208e-01 -1.489415e+00 1.328999e-01 9.513994e-01 4.325238e-01 4.856540e-01 3.115532e-03 2.481029e-01 3.687580e-01 -4.508445e-01 -2.124561e-01 -6.879961e-01
<VARIANCE> 39
 1.144478e+02 1.155774e+01 8.922479e+01 1.437317e+01 7.258638e+01 1.007025e+01 3.840161e+01 1.442533e+01 5.407030e+00 1.343061e+01 7.289247e+00 7.994722e+00 1.497327e+02 1.088482e+00 2.746146e+00 1.016076e+00 1.328117e+00 1.567470e+00 1.452969e+00 2.082864e+00 9.000388e-01 8.552638e-01 1.385505e+00 8.338060e-01 1.229266e+00 1.789605e+00 1.045045e-01 2.942774e-01 4.667252e-01 2.029221e-01 2.225237e-01 2.549386e-01 2.066192e-01 3.555713e-01 2.316865e-01 2.773786e-01 2.429904e-01 1.507638e-01 9.611045e-02
<GCONST> 9.620164e+01
<STATE> 4
<MEAN> 39
 1.319704e+01 -6.385560e+00 2.667081e+01 -5.356158e+00 -2.225046e+01 7.268108e+00 -1.728736e+01 -6.564622e+00 1.383097e+00 -7.985571e+00 4.078770e+00 -4.365230e+00 6.081724e+01 -1.109321e-01 5.158463e-01 -1.098788e-01 9.288296e-01 1.038870e+00 7.460872e-03 1.884725e-01 4.499951e-02 -1.111434e-01 3.378648e-01 -2.858891e-01 -3.467685e-01 -6.497715e-01 -2.229885e-03 -6.240690e-02 -2.950562e-01 3.457363e-02 1.061698e-01 -1.608255e-02 6.959550e-02 5.061627e-02 6.271275e-02 3.722833e-02 2.236573e-03 5.405217e-02 -8.641302e-02
<VARIANCE> 39
 1.316507e+01 1.883393e+01 1.456864e+01 3.005245e+01 4.862341e+01 1.019019e+01 1.346367e+01 1.216466e+01 9.064368e+00 1.612715e+01 1.170437e+01 9.829545e+00 3.092809e+01 3.656704e-01 1.240440e+00 9.499419e-01 1.618344e+00 2.454055e+00 8.974289e-01 1.441746e+00 1.278174e+00 9.607838e-01 1.125819e+00 1.104037e+00 1.034802e+00 7.130874e-01 9.398858e-02 3.004176e-01 2.054190e-01 3.368374e-01 5.880054e-01 2.024875e-01 3.004697e-01 2.205640e-01 2.305396e-01 2.473672e-01 2.197754e-01 2.073886e-01 1.818623e-01
<GCONST> 8.991490e+01
<TRANSP> 5
 0.000000e+00 1.000000e+00 0.000000e+00 0.000000e+00 0.000000e+00
 0.000000e+00 8.267798e-01 1.732201e-01 0.000000e+00 0.000000e+00
 0.000000e+00 0.000000e+00 0.000000e+00 1.000000e+00 0.000000e+00
 0.000000e+00 0.000000e+00 0.000000e+00 8.889506e-01 1.110494e-01
 0.000000e+00 0.000000e+00 0.000000e+00 0.000000e+00 0.000000e+00
<ENDHMM>
~h "h"
<BEGINHMM>
<NUMSTATES> 5
<STATE> 2
<MEAN> 39
 1.060249e+01 -9.102730e+00 1.198214e+01 -2.702368e+00 -1.034865e+01 7.420599e+00 -1.562556e+01 -1.040595e+00 3.317299e+00 -6.841585e+00 5.252823e+00 -4.707499e+00 5.458011e+01 4.104100e-01 -1.137874e+00 -7.717834e-01 -4.414824e-01 -5.354605e-01 -7.508432e-01 -8.807665e-01 2.128646e-01 5.547159e-01 4.394740e-01 2.449113e-01 6.459790e-02 7.832275e-01 8.044098e-02 2.372594e-02 -1.063155e-01 -2.208828e-01 -1.078774e-01 -1.485433e-01 -8.803885e-02 -6.533446e-02 -1.067117e-01 1.033057e-01 1.569567e-01 1.049099e-01 1.659597e-01
<VARIANCE> 39
 3.666899e+01 4.497906e+01 1.316243e+02 3.920563e+01 1.005668e+02 3.927025e+01 6.525336e+01 3.029705e+01 3.166132e+01 4.274539e+01 1.391501e+01 2.234601e+01 6.857180e+01 3.843266e+00 4.301945e+00 6.941921e+00 4.465190e+00 7.204380e+00 5.016332e+00 3.143510e+00 2.628701e+00 3.633755e+00 3.173603e+00 1.706476e+00 1.380684e+00 4.307968e+00 4.825111e-01 6.521063e-01 1.031974e+00 6.191041e-01 1.284211e+00 1.042089e+00 5.441962e-01 4.580432e-01 5.965055e-01 6.738324e-01 3.139731e-01 2.806811e-01 4.964104e-01
<GCONST> 1.306407e+02
<STATE> 3
<MEAN> 39
 1.201235e+01 -1.260758e+01 5.336823e+00 -6.358749e+00 -1.008157e+01 4.847580e+00 -1.942677e+01 -1.219571e-01 5.512070e+00 -4.093285e+00 6.320646e+00 -5.121107e+00 5.723630e+01 -4.345917e-01 -2.819616e-01 -6.636591e-01 -8.363727e-02 2.246144e-01 -4.802988e-01 -4.206876e-01 -5.897492e-01 -5.227662e-01 6.187794e-01 6.461234e-01 2.142331e-01 3.637718e-02 -6.061575e-02 3.265564e-02 2.644413e-01 1.328751e-01 2.671285e-02 2.558346e-01 2.408104e-01 -4.318172e-02 -1.404308e-01 -2.579932e-01 -5.395192e-02 -4.031174e-02 -1.445800e-01
<VARIANCE> 39
 2.827415e+01 8.154835e+01 1.081082e+02 2.843028e+01 6.786731e+01 2.447709e+01 5.078381e+01 4.117445e+01 3.150654e+01 4.364071e+01 2.289875e+01 2.524877e+01 4.706306e+01 4.699397e-01 2.598231e+00 3.388236e+00 2.034338e+00 1.918404e+00 2.119859e+00 8.281446e-01 2.336742e+00 1.736387e+00 1.371523e+00 1.005340e+00 7.984960e-01 8.450614e-01 9.952261e-02 5.772911e-01 4.597611e-01 2.664618e-01 2.678783e-01 3.884330e-01 3.019233e-01 3.240094e-01 5.059001e-01 2.564841e-01 2.821288e-01 3.441833e-01 2.293689e-01
<GCONST> 1.092318e+02
<STATE> 4
<MEAN> 39
 9.779983e+00 -1.064160e+01 7.160448e+00 -3.709330e+00 -8.748752e+00 5.790397e+00 -1.789129e+01 -1.307618e+00 5.511784e+00 -2.955221e+00 6.852952e+00 -4.758738e+00 5.324265e+01 -4.405301e-01 2.258756e-01 -1.505925e-01 1.887581e-01 2.280125e-01 6.533890e-02 3.101074e-01 3.461519e-02 8.296153e-02 1.660607e-01 -6.653650e-02 2.142205e-02 -6.261249e-01 -4.842138e-02 4.389742e-02 1.017915e-02 3.675826e-02 2.464668e-02 2.550532e-02 8.175582e-02 3.749677e-02 -9.912034e-03 -2.457243e-02 -5.800698e-02 -1.499614e-02 -6.567639e-02
<VARIANCE> 39
 3.552452e+01 9.998051e+01 1.948458e+02 2.902557e+01 7.147307e+01 1.756084e+01 2.279207e+01 1.712705e+01 3.350775e+01 5.846207e+01 1.686439e+01 1.074871e+01 3.682115e+01 5.075406e-01 1.132589e+00 1.842434e+00 1.367724e+00 1.857841e+00 2.007677e+00 1.651584e+00 1.236904e+00 1.636942e+00 1.660121e+00 1.218451e+00 1.055999e+00 7.587601e-01 7.225286e-02 1.742601e-01 3.137377e-01 2.633159e-01 3.429406e-01 3.807824e-01 3.076495e-01 2.557554e-01 3.332579e-01 3.203633e-01 1.965250e-01 1.862978e-01 8.101244e-02
<GCONST> 1.018540e+02
<TRANSP> 5
 0.000000e+00 1.000000e+00 0.000000e+00 0.000000e+00 0.000000e+00
 0.000000e+00 8.050159e-01 1.949841e-01 0.000000e+00 0.000000e+00
 0.000000e+00 0.000000e+00 0.000000e+00 1.000000e+00 0.000000e+00
 0.000000e+00 0.000000e+00 0.000000e+00 9.405406e-01 5.945944e-02
 0.000000e+00 0.000000e+00 0.000000e+00 0.000000e+00 0.000000e+00
<ENDHMM>
~h "j"
<BEGINHMM>
<NUMSTATES> 5
<STATE> 2
<MEAN> 39
 8.944849e+00 -8.734107e+00 3.501312e+00 -7.367217e+00 -8.786753e+00 9.422898e+00 -8.703043e+00 2.468272e+00 4.342741e+00 -5.736896e+00 4.937197e-01 -7.308473e+00 5.395093e+01 1.668585e+00 -9.574899e-01 -3.937446e-01 -1.149760e+00 -1.756272e-01 5.735169e-01 -5.200850e-01 9.083088e-01 1.211798e+00 -3.192583e-01 -5.452302e-01 -8.276124e-01 2.448381e+00 4.481166e-02 7.745001e-02 7.394202e-02 4.714174e-02 5.697063e-03 9.445726e-03 -6.489885e-02 8.899232e-02 1.167503e-01 -1.168989e-01 1.847328e-02 1.270214e-01 -6.916096e-02
<VARIANCE> 39
 7.000346e+01 5.564474e+01 6.284764e+01 5.414962e+01 1.851390e+01 3.329100e+01 2.167091e+01 1.714141e+01 2.746885e+01 1.663970e+01 1.751892e+01 2.119751e+01 1.603134e+02 5.318277e+00 4.620032e+00 1.846956e+00 4.252654e+00 3.343315e+00 3.969387e+00 2.365046e+00 1.454532e+00 2.265859e+00 2.376802e+00 2.345789e+00 2.431070e+00 1.041500e+01 1.183732e+00 9.821586e-01 4.670593e-01 8.094110e-01 5.377606e-01 7.992491e-01 3.459097e-01 2.970386e-01 5.395569e-01 3.495608e-01 5.554798e-01 6.092368e-01 2.247143e+00
<GCONST> 1.265054e+02
<STATE> 3
<MEAN> 39
 1.156262e+01 -7.300998e+00 1.134818e+01 -4.849890e+00 -9.036486e+00 9.829843e+00 -1.205321e+01 3.498842e+00 6.569413e+00 -9.171847e+00 -3.121716e-01 -7.344527e+00 5.587943e+01 7.378406e-02 9.451430e-01 1.054744e+00 7.570561e-01 3.432423e-02 -3.958488e-01 -3.719718e-01 3.688864e-01 2.431099e-01 -3.802212e-01 1.836608e-01 2.359956e-01 -8.222756e-01 6.129988e-02 1.660397e-01 1.625198e-01 1.076312e-01 -2.599421e-01 -2.919078e-01 -2.022784e-01 -2.939600e-01 -3.933392e-01 1.169641e-01 5.412621e-01 2.892145e-01 -9.041448e-02
<VARIANCE> 39
 4.163879e+01 5.500816e+01 1.518636e+02 6.179270e+01 2.025832e+01 2.172771e+01 2.411475e+01 3.416997e+01 5.316119e+01 4.232222e+01 1.654809e+01 1.176700e+01 9.835003e+01 1.737284e+00 1.577124e+00 1.661106e+00 3.248379e+00 3.979511e+00 2.062468e+00 3.095432e+00 1.407637e+00 3.396859e+00 1.624410e+00 2.028076e+00 2.373032e+00 2.945428e+00 8.302094e-02 2.953682e-01 5.323395e-01 3.125580e-01 3.326477e-01 2.077777e-01 3.442512e-01 1.491446e-01 5.203851e-01 3.617147e-01 1.901884e-01 2.688746e-01 1.768928e-01
<GCONST> 1.120522e+02
<STATE> 4
<MEAN> 39
 3.393001e+00 -7.700606e-01 1.165053e+01 -3.403322e-01 -8.324788e+00 5.888659e+00 -7.529171e+00 3.417398e+00 3.840180e+00 -4.373538e+00 3.766132e+00 -3.683608e+00 4.378962e+01 -2.125373e-01 1.282047e-01 6.694382e-02 2.194407e-01 1.260772e-01 -4.866431e-02 3.918400e-02 -1.020785e-01 -1.412899e-01 1.928376e-02 3.572718e-02 9.722523e-02 -3.051322e-01 -1.255826e-03 -4.935619e-02 -3.309558e-02 -3.256344e-02 -1.934389e-02 1.910432e-02 3.239978e-02 -1.359898e-02 -1.109390e-02 3.333552e-02 6.841651e-03 -2.137403e-03 2.635147e-02
<VARIANCE> 39
 5.379270e+01 1.594842e+01 6.385042e+01 2.116076e+01 2.377018e+01 1.740270e+01 3.753055e+01 2.027412e+01 2.145268e+01 3.255671e+01 1.784364e+01 1.358791e+01 6.132700e+01 2.944773e-01 7.247221e-01 1.294512e+00 1.074417e+00 1.322298e+00 1.236622e+00 1.178562e+00 1.386062e+00 1.686570e+00 1.362652e+00 1.263352e+00 1.066535e+00 3.498514e-01 3.828227e-02 1.103253e-01 1.675509e-01 1.923833e-01 2.507643e-01 2.386151e-01 2.141134e-01 2.866021e-01 3.311540e-01 2.701733e-01 2.490563e-01 2.216117e-01 3.025366e-02
<GCONST> 9.098602e+01
<TRANSP> 5
 0.000000e+00 1.000000e+00 0.000000e+00 0.000000e+00 0.000000e+00
 0.000000e+00 7.613436e-01 2.386565e-01 0.000000e+00 0.000000e+00
 0.000000e+00 0.000000e+00 0.000000e+00 1.000000e+00 0.000000e+00
 0.000000e+00 0.000000e+00 0.000000e+00 9.538082e-01 4.619187e-02
 0.000000e+00 0.000000e+00 0.000000e+00 0.000000e+00 0.000000e+00
<ENDHMM>
~h "k"
<BEGINHMM>
<NUMSTATES> 5
<STATE> 2
<MEAN> 39
 3.821891e+00 -9.593328e+00 3.546980e+00 -7.882332e+00 -1.201038e+01 8.564726e+00 -6.754873e+00 1.025562e+00 3.861676e+00 -2.562115e+00 7.077497e+00 -1.964702e+00 4.948323e+01 1.243227e+00 -1.577649e-01 -7.193190e-01 -1.443431e+00 1.040388e-01 7.930484e-01 1.018591e-01 -6.860545e-02 -4.568964e-01 -1.461354e-01 4.187906e-01 -4.397913e-01 1.491427e+00 8.005127e-02 1.569889e-02 3.331651e-02 -3.523689e-02 2.972193e-01 2.133800e-01 -1.302267e-01 1.213208e-01 1.222881e-03 -1.788701e-01 -6.793415e-02 2.466938e-02 4.102290e-02
<VARIANCE> 39
 1.298046e+02 4.219411e+01 4.128143e+01 4.900261e+01 1.597254e+01 5.027761e+01 1.430853e+01 1.108463e+01 1.073330e+01 4.183972e+01 2.275695e+01 2.077547e+01 2.050481e+02 5.491004e+00 2.413410e+00 2.876040e+00 3.277971e+00 1.683769e+00 3.341050e+00 1.414211e+00 1.554284e+00 8.402440e-01 3.182338e+00 2.128533e+00 1.447101e+00 6.338415e+00 1.198256e+00 5.525496e-01 5.615155e-01 6.755794e-01 3.776140e-01 4.530011e-01 2.554243e-01 2.793343e-01 1.191922e-01 7.654673e-01 5.318021e-01 4.319580e-01 1.171065e+00
<GCONST> 1.190448e+02
<STATE> 3
<MEAN> 39
 1.007056e+00 -7.416125e+00 2.660699e+00 -8.292976e+00 -8.816936e+00 8.396495e+00 -6.135355e+00 3.451440e+00 2.120758e+00 -3.087361e+00 6.612784e+00 -3.133331e+00 4.585011e+01 -1.962838e-01 8.086038e-02 -3.374570e-03 -2.279725e-01 2.672272e-01 4.486429e-01 2.460067e-01 5.573677e-01 -4.906744e-02 -6.923301e-01 -4.041700e-01 2.112217e-01 -1.744272e-01 4.311964e-02 1.607419e-01 1.235385e-01 3.460392e-01 6.534901e-02 -3.340369e-01 -5.051876e-03 -5.355626e-02 6.145689e-02 2.798536e-01 -1.789812e-01 9.618901e-02 -9.263995e-02
<VARIANCE> 39
 2.206442e+02 6.482648e+01 2.997121e+01 8.603329e+01 1.479360e+01 1.190424e+02 1.124393e+01 5.484396e+00 1.505401e+01 1.726538e+01 2.152085e+01 2.636206e+01 3.212959e+02 5.921779e-01 8.519524e-01 1.146718e+00 1.306517e+00 7.760428e-01 1.374202e+00 1.945322e+00 9.472732e-01 5.883413e-01 2.585269e+00 1.469843e+00 1.162132e+00 2.628523e-01 8.437055e-02 4.204918e-01 2.505279e-01 1.746928e-01 1.473779e-01 3.040432e-01 1.044693e-01 2.806522e-01 2.518135e-01 1.308414e-01 9.645320e-02 4.193177e-01 1.962452e-01
<GCONST> 9.703214e+01
<STATE> 4
<MEAN> 39
 1.128574e+01 -7.368522e+00 5.702313e+00 -1.050077e+01 -1.026840e+01 1.628957e+01 -3.047461e+00 4.690083e+00 3.856058e-01 -1.181644e+01 2.233469e+00 -3.314416e+00 5.366173e+01 -2.848176e-01 2.570162e-01 2.196172e-01 5.993257e-01 1.671713e-01 -9.363473e-02 2.013661e-01 7.572731e-02 7.278657e-02 2.370387e-02 -2.019790e-01 1.838859e-01 -6.006982e-01 -1.879299e-02 -3.425751e-02 -2.877156e-02 3.298924e-02 1.588519e-02 -5.433268e-02 -8.385541e-02 -7.654915e-02 3.083116e-02 1.191485e-01 4.252455e-02 -7.085992e-05 -7.658242e-03
<VARIANCE> 39
 7.097780e+01 4.356599e+01 7.648778e+01 4.486436e+01 2.737795e+01 3.895999e+01 2.804858e+01 1.823622e+01 1.482378e+01 2.282920e+01 1.864018e+01 2.739358e+01 8.502271e+01 4.825673e-01 1.374335e+00 1.611793e+00 1.403925e+00 1.298010e+00 1.793310e+00 2.010213e+00 1.536513e+00 1.608637e+00 2.138407e+00 1.807603e+00 1.219877e+00 4.934092e-01 7.885741e-02 1.315842e-01 1.997876e-01 2.786795e-01 2.296658e-01 3.295690e-01 4.184889e-01 2.923273e-01 3.344470e-01 3.829491e-01 3.071697e-01 2.026673e-01 7.928077e-02
<GCONST> 1.017605e+02
<TRANSP> 5
 0.000000e+00 1.000000e+00 0.000000e+00 0.000000e+00 0.000000e+00
 0.000000e+00 6.206750e-01 3.793251e-01 0.000000e+00 0.000000e+00
 0.000000e+00 0.000000e+00 0.000000e+00 1.000000e+00 0.000000e+00
 0.000000e+00 0.000000e+00 0.000000e+00 9.151604e-01 8.483964e-02
 0.000000e+00 0.000000e+00 0.000000e+00 0.000000e+00 0.000000e+00
<ENDHMM>
~h "l"
<BEGINHMM>
<NUMSTATES> 5
<STATE> 2
<MEAN> 39
 -3.269924e+00 -5.535586e+00 6.877401e+00 5.110947e-01 -5.110513e+00 6.861899e+00 -8.623585e+00 -4.691356e-01 2.434843e+00 -4.481471e+00 2.526631e+00 -3.634208e+00 3.952554e+01 -1.125722e-01 -3.667253e-01 -4.779942e-01 -1.112091e-02 -1.146664e-01 -3.964831e-01 1.076993e-02 3.232865e-01 4.093232e-01 3.559088e-01 1.035387e-01 -2.171389e-03 3.220803e-02 -8.106848e-03 2.509527e-02 1.129000e-01 3.553304e-02 -7.736486e-03 6.047862e-02 1.790738e-01 1.727972e-01 -9.145100e-02 -1.246205e-01 -4.653622e-02 6.751260e-02 8.030508e-03
<VARIANCE> 39
 3.929606e+01 4.125249e+01 2.938280e+01 2.589369e+01 3.617856e+01 4.669975e+01 3.935341e+01 2.473444e+01 3.198357e+01 3.148479e+01 1.766735e+01 1.360118e+01 4.936521e+01 1.396320e+00 4.741403e+00 3.179039e+00 3.304437e+00 4.186492e+00 4.223664e+00 4.161582e+00 2.724370e+00 3.433179e+00 3.768766e+00 2.066771e+00 1.139204e+00 2.016813e+00 2.191880e-01 1.032814e+00 5.435020e-01 5.844253e-01 9.522434e-01 8.092283e-01 7.778951e-01 5.596600e-01 8.078557e-01 7.292944e-01 3.373020e-01 2.544562e-01 4.113281e-01
<GCONST> 1.223747e+02
<STATE> 3
<MEAN> 39
 -3.426299e+00 -4.133780e+00 6.264682e+00 7.520863e-01 -6.099973e+00 4.637269e+00 -7.015093e+00 2.339261e+00 3.074498e+00 -3.352893e+00 2.709370e+00 -3.001751e+00 3.863015e+01 -1.297443e-01 -2.878253e-01 5.258669e-02 -9.528932e-03 -1.161402e-01 3.267023e-01 3.783554e-01 2.679226e-01 -2.622243e-01 -1.651148e-01 -4.279045e-03 1.234638e-01 5.280974e-02 1.427718e-01 -1.474233e-01 9.058651e-02 3.722172e-02 8.430075e-02 2.618729e-01 5.958899e-02 -1.847266e-01 -6.218825e-02 -2.034370e-01 -7.531600e-02 6.550047e-03 1.678257e-01
<VARIANCE> 39
 4.092505e+01 2.665793e+01 3.550937e+01 2.631986e+01 1.996986e+01 2.898827e+01 2.562483e+01 1.401950e+01 3.064085e+01 2.933175e+01 2.903538e+01 1.735206e+01 4.799857e+01 2.584441e+00 1.577181e+00 1.185563e+00 1.159272e+00 1.986789e+00 1.505748e+00 2.229007e+00 2.559023e+00 2.179029e+00 2.093360e+00 1.575636e+00 1.194333e+00 2.379195e+00 1.162898e-01 3.925180e-01 4.154595e-01 3.628154e-01 4.081675e-01 4.270933e-01 5.121096e-01 3.385730e-01 4.613204e-01 4.527870e-01 3.894188e-01 2.689682e-01 1.199011e-01
<GCONST> 1.078070e+02
<STATE> 4
<MEAN> 39
 -5.070818e+00 -3.134401e+00 7.527979e+00 2.551377e+00 -3.952434e+00 6.271930e+00 -4.893319e+00 1.592168e+00 1.424125e+00 -4.649062e+00 2.159708e+00 -2.177316e+00 3.691310e+01 -1.994467e-03 -1.122820e-01 -5.328025e-02 -8.551459e-03 -2.162796e-02 2.501612e-02 8.301821e-02 3.781321e-02 -1.416652e-02 -1.157662e-01 -1.733240e-02 4.863756e-02 2.036856e-02 6.097907e-02 -4.911742e-02 -3.835800e-02 -3.582265e-02 -3.739555e-02 -1.372529e-02 -3.992687e-02 8.763984e-04 5.457879e-02 2.496225e-02 3.247229e-02 1.780812e-02 5.869171e-02
<VARIANCE> 39
 1.281510e+01 1.240438e+01 1.518625e+01 1.410727e+01 1.226526e+01 1.384252e+01 1.913887e+01 1.924163e+01 1.560275e+01 1.820166e+01 1.725983e+01 1.264794e+01 9.727369e+00 6.056100e-01 9.072769e-01 9.333108e-01 1.098358e+00 1.294258e+00 1.369411e+00 1.779355e+00 1.926572e+00 1.643693e+00 2.092348e+00 1.597376e+00 1.483838e+00 4.382472e-01 8.073264e-02 1.850222e-01 1.595642e-01 2.005189e-01 2.408921e-01 2.666898e-01 3.462692e-01 4.307201e-01 3.826137e-01 4.275371e-01 3.351187e-01 3.252729e-01 5.538913e-02
<GCONST> 8.975542e+01
<TRANSP> 5
 0.000000e+00 1.000000e+00 0.000000e+00 0.000000e+00 0.000000e+00
 0.000000e+00 4.941237e-01 5.058763e-01 0.000000e+00 0.000000e+00
 0.000000e+00 0.000000e+00 0.000000e+00 1.000000e+00 0.000000e+00
 0.000000e+00 0.000000e+00 0.000000e+00 8.583853e-01 1.416148e-01
 0.000000e+00 0.000000e+00 0.000000e+00 0.000000e+00 0.000000e+00
<ENDHMM>
~h "m"
<BEGINHMM>
<NUMSTATES> 5
<STATE> 2
<MEAN> 39
 4.512054e+00 -8.385191e+00 6.062835e+00 -2.570482e+00 -7.111064e+00 9.572767e+00 -7.693294e+00 2.828079e+00 3.949892e+00 -6.587090e+00 1.716355e+00 -5.029362e+00 4.743223e+01 -5.838825e-01 -2.439949e-03 -5.838556e-01 1.486315e-01 3.159626e-01 -3.569907e-02 4.836086e-01 -1.860854e-02 -1.062533e-01 2.142808e-01 -1.546385e-01 -5.084726e-02 -6.259792e-01 -4.783663e-02 1.177767e-01 3.712448e-02 -7.407122e-02 -6.033593e-02 -5.968503e-02 -3.411307e-02 -6.065233e-02 -8.891682e-02 2.205437e-02 7.894310e-02 7.280947e-02 -5.983336e-02
<VARIANCE> 39
 8.047467e+01 8.485312e+01 5.240269e+01 7.166682e+01 4.946256e+01 3.354576e+01 3.369173e+01 3.675489e+01 2.562507e+01 3.076423e+01 1.977731e+01 1.804513e+01 9.314240e+01 2.235741e+00 9.365334e+00 3.214093e+00 2.261104e+00 2.632998e+00 2.750102e+00 3.662608e+00 1.999253e+00 1.892904e+00 1.570118e+00 1.257159e+00 1.637241e+00 4.139805e+00 1.832114e-01 1.697934e+00 5.282520e-01 4.265160e-01 5.047836e-01 5.088745e-01 6.272534e-01 3.853729e-01 3.457954e-01 2.809654e-01 2.559989e-01 3.108365e-01 4.510789e-01
<GCONST> 1.214859e+02
<STATE> 3
<MEAN> 39
 1.877048e+00 -4.416300e+00 6.362428e+00 8.873320e-02 -4.990702e+00 7.394783e+00 -6.930980e+00 1.545272e+00 1.867709e+00 -6.163428e+00 2.808310e-01 -4.846108e+00 4.381173e+01 -8.898049e-01 3.592805e-01 -4.957852e-01 1.052410e-01 2.294717e-01 -2.412673e-01 3.000415e-01 -2.895419e-01 -3.144445e-01 2.601102e-01 1.035330e-01 2.020705e-01 -9.765762e-01 1.347753e-01 -3.755557e-01 8.542606e-02 -1.146349e-01 -1.562672e-01 4.542719e-02 -3.592753e-01 -9.628549e-02 1.059652e-01 -1.781273e-02 1.617669e-01 6.349785e-02 2.411144e-01
<VARIANCE> 39
 7.092063e+01 4.489930e+01 4.508330e+01 2.909915e+01 1.908783e+01 1.914916e+01 2.602777e+01 2.821325e+01 2.553846e+01 2.932996e+01 1.928703e+01 1.273750e+01 1.040602e+02 1.127901e+00 2.132527e+00 2.239674e+00 1.234635e+00 1.389951e+00 1.805205e+00 2.012686e+00 2.263319e+00 1.697743e+00 1.791464e+00 1.545655e+00 1.593392e+00 8.064760e-01 1.029210e-01 2.718026e-01 3.023570e-01 1.835017e-01 2.093744e-01 2.251901e-01 3.627548e-01 2.446087e-01 2.697498e-01 3.014657e-01 2.755947e-01 1.721104e-01 1.191232e-01
<GCONST> 1.026899e+02
<STATE> 4
<MEAN> 39
 -5.576370e+00 -2.970196e+00 8.277234e+00 2.502794e+00 -4.060923e+00 6.361345e+00 -6.064040e+00 2.867284e-01 7.531933e-01 -4.799463e+00 2.058391e+00 -2.449383e+00 3.666159e+01 -1.168552e-01 -1.234135e-02 -3.495144e-02 -1.285684e-02 -4.679929e-03 -5.157029e-02 -3.658886e-02 -4.016041e-02 8.191039e-03 4.817901e-02 5.146909e-02 6.377169e-02 -9.517226e-02 6.763807e-02 -4.678819e-02 -2.067543e-02 -3.845959e-02 -2.447782e-02 2.474396e-03 -3.691355e-02 1.146672e-02 3.678429e-02 -2.898397e-03 -2.609607e-03 -1.545340e-02 6.980214e-02
<VARIANCE> 39
 2.570746e+01 1.139154e+01 1.818954e+01 1.954812e+01 1.659137e+01 1.496862e+01 1.473608e+01 1.868418e+01 1.771852e+01 1.988701e+01 1.479621e+01 1.273634e+01 1.972058e+01 4.350517e-01 6.438994e-01 8.467595e-01 9.170770e-01 1.083012e+00 1.227604e+00 1.204242e+00 1.506112e+00 1.542756e+00 1.628679e+00 1.337493e+00 1.111020e+00 1.796303e-01 8.596910e-02 1.371943e-01 1.584277e-01 1.793492e-01 2.185159e-01 2.499930e-01 2.457000e-01 3.009146e-01 2.978740e-01 3.180161e-01 2.827738e-01 2.283521e-01 4.792999e-02
<GCONST> 8.575638e+01
<TRANSP> 5
 0.000000e+00 1.000000e+00 0.000000e+00 0.000000e+00 0.000000e+00
 0.000000e+00 6.239532e-01 3.760469e-01 0.000000e+00 0.000000e+00
 0.000000e+00 0.000000e+00 0.000000e+00 1.000000e+00 0.000000e+00
 0.000000e+00 0.000000e+00 0.000000e+00 9.118719e-01 8.812805e-02
 0.000000e+00 0.000000e+00 0.000000e+00 0.000000e+00 0.000000e+00
<ENDHMM>
~h "n"
<BEGINHMM>
<NUMSTATES> 5
<STATE> 2
<MEAN> 39
 9.420870e+00 -9.981472e+00 5.046856e+00 -6.972996e+00 -1.082736e+01 7.330551e+00 -1.086379e+01 2.580303e+00 4.636432e+00 -5.806869e+00 3.101202e+00 -5.218762e+00 5.351048e+01 2.219440e+00 -1.636635e+00 -4.835788e-01 -1.237446e+00 -2.042670e-01 8.305460e-01 -6.862566e-01 6.589243e-01 7.888093e-01 -3.614964e-01 -2.437492e-01 -8.599967e-01 3.101245e+00 2.786139e-03 -2.129711e-01 4.836341e-03 8.066376e-02 2.204942e-01 1.881769e-01 -3.938192e-02 1.390902e-01 6.554167e-02 -2.451147e-01 -1.983492e-01 -2.724606e-02 1.658113e-01
<VARIANCE> 39
 8.613444e+01 6.660294e+01 6.673142e+01 3.459679e+01 3.728916e+01 3.016096e+01 4.354723e+01 2.822659e+01 2.055812e+01 2.002120e+01 1.585693e+01 2.821968e+01 1.275065e+02 5.270620e+00 6.727412e+00 5.710142e+00 3.073788e+00 4.291978e+00 3.807374e+00 2.982836e+00 2.447099e+00 1.847042e+00 2.275911e+00 2.822525e+00 2.204469e+00 6.531359e+00 1.414353e+00 1.260673e+00 7.311167e-01 6.433667e-01 6.282008e-01 5.991191e-01 4.975053e-01 4.557067e-01 3.677947e-01 4.075814e-01 5.332535e-01 4.679011e-01 1.776031e+00
<GCONST> 1.301944e+02
<STATE> 3
<MEAN> 39
 1.426675e+01 -1.454325e+01 5.496635e+00 -1.042458e+01 -1.067458e+01 1.135056e+01 -1.389676e+01 4.332212e+00 7.744574e+00 -8.360008e+00 7.158110e-01 -7.492240e+00 6.200893e+01 -1.424954e-01 -6.709657e-01 -2.828800e-01 1.760850e-01 1.110624e+00 1.131352e+00 3.389319e-01 3.384524e-02 6.255920e-02 -1.198713e+00 -1.431226e+00 2.904928e-03 5.841058e-01 -3.623612e-01 6.705386e-01 2.854733e-01 4.853274e-01 8.382830e-02 -3.488093e-01 2.154475e-01 -3.507600e-01 -5.161090e-01 2.123151e-03 1.007103e-01 3.760616e-01 -7.124676e-01
<VARIANCE> 39
 7.663046e+01 5.615150e+01 5.833782e+01 2.599322e+01 4.578010e+01 4.269856e+01 3.889299e+01 2.266079e+01 2.088580e+01 2.235600e+01 1.860020e+01 3.937814e+01 1.257851e+02 3.845921e-01 1.533798e+00 2.055132e+00 1.187866e+00 1.839276e+00 2.333319e+00 2.334498e+00 1.609071e+00 1.217496e+00 2.284100e+00 2.248898e+00 1.597740e+00 7.515301e-01 2.958095e-01 3.936939e-01 4.677143e-01 2.972692e-01 3.342624e-01 3.450806e-01 4.664403e-01 3.833626e-01 3.306625e-01 2.599671e-01 3.534687e-01 4.536677e-01 3.992245e-01
<GCONST> 1.112590e+02
<STATE> 4
<MEAN> 39
 1.593527e+01 -1.084218e+01 1.069957e+01 -7.187084e+00 -1.105496e+01 9.705295e+00 -1.501106e+01 2.843924e+00 4.237304e+00 -1.151283e+01 4.185798e-01 -6.518412e+00 6.160836e+01 -1.149883e-01 2.308218e-01 1.072991e-01 1.798327e-01 8.890887e-02 -1.270789e-02 5.692601e-02 -1.203175e-01 -1.560513e-01 7.026222e-03 2.173533e-02 3.254299e-02 -2.673724e-01 -1.536775e-02 3.939267e-02 1.341140e-02 1.010695e-02 -2.292513e-02 -3.525645e-02 2.555218e-03 -2.064895e-02 -1.576594e-02 4.734073e-02 4.327838e-02 7.176809e-03 -4.445606e-02
<VARIANCE> 39
 9.397056e+00 6.542020e+01 8.364711e+01 1.913537e+01 4.848932e+01 3.599709e+01 1.980479e+01 3.032149e+01 2.334545e+01 2.336255e+01 2.413480e+01 1.420122e+01 3.347264e+01 4.967029e-01 2.377892e+00 2.531818e+00 1.051550e+00 2.028352e+00 1.627164e+00 1.571752e+00 1.911533e+00 1.499852e+00 1.601082e+00 1.498068e+00 1.076887e+00 8.756348e-01 9.124109e-02 3.245671e-01 3.131138e-01 1.799975e-01 2.774759e-01 2.593215e-01 3.036219e-01 3.100894e-01 2.661805e-01 2.720907e-01 2.795924e-01 1.947132e-01 1.170672e-01
<GCONST> 1.005787e+02
<TRANSP> 5
 0.000000e+00 1.000000e+00 0.000000e+00 0.000000e+00 0.000000e+00
 0.000000e+00 7.653176e-01 2.346824e-01 0.000000e+00 0.000000e+00
 0.000000e+00 0.000000e+00 0.000000e+00 1.000000e+00 0.000000e+00
 0.000000e+00 0.000000e+00 0.000000e+00 9.698739e-01 3.012610e-02
 0.000000e+00 0.000000e+00 0.000000e+00 0.000000e+00 0.000000e+00
<ENDHMM>
~h "p"
<BEGINHMM>
<NUMSTATES> 5
<STATE> 2
<MEAN> 39
 1.038037e+01 -1.539523e+01 9.437072e-01 -7.031796e+00 -5.708357e+00 1.179769e+01 -1.031019e+01 4.837984e+00 7.280283e+00 -7.749133e+00 -1.176568e+00 -7.499304e+00 5.729802e+01 8.905158e-01 -6.283931e-01 -1.616505e-01 -5.163653e-01 3.189588e-01 8.388360e-01 -4.098440e-01 1.892410e-02 2.924388e-01 -6.762578e-02 6.517584e-02 -5.188802e-01 1.023197e+00 -3.087553e-03 2.188004e-01 2.492169e-01 9.720052e-02 -7.903009e-02 -9.373428e-02 -4.906892e-02 -1.040946e-01 -1.604488e-01 -1.845778e-02 8.288105e-02 1.048477e-01 -1.017172e-01
<VARIANCE> 39
 8.731800e+01 7.779713e+01 2.438210e+01 2.897633e+01 2.757925e+01 4.155310e+01 3.273639e+01 3.787004e+01 2.725841e+01 3.860880e+01 2.553731e+01 2.198688e+01 1.671936e+02 5.303580e+00 5.795251e+00 3.314103e+00 2.308128e+00 2.384227e+00 2.707800e+00 3.994925e+00 2.761700e+00 2.011961e+00 3.205679e+00 2.691701e+00 1.231311e+00 9.720996e+00 8.420164e-01 1.021122e+00 5.285922e-01 4.093723e-01 4.037395e-01 5.266731e-01 6.482074e-01 3.702691e-01 3.448377e-01 6.337088e-01 4.564763e-01 3.032682e-01 1.477854e+00
<GCONST> 1.269344e+02
<STATE> 3
<MEAN> 39
 9.338325e+00 -1.193177e+01 1.855991e+00 -5.528259e+00 -3.841304e+00 1.212038e+01 -1.116954e+01 2.738949e+00 6.323193e+00 -4.751153e+00 1.215724e+00 -7.868692e+00 5.311026e+01 -6.214190e-01 1.085671e+00 4.646570e-01 5.090436e-01 -9.559358e-03 -4.227991e-01 1.617320e-01 -5.227517e-01 -7.349518e-01 3.367661e-01 3.431308e-01 3.244116e-01 -1.015879e+00 -8.270270e-02 2.886168e-01 3.609506e-01 1.995557e-01 -1.658386e-01 -1.770723e-01 1.312544e-01 -2.206527e-01 -3.753978e-01 -1.349426e-01 1.072496e-01 3.130395e-01 -1.080042e-01
<VARIANCE> 39
 8.684658e+01 7.062902e+01 2.285744e+01 3.391486e+01 2.194220e+01 4.084120e+01 3.171854e+01 2.035469e+01 2.043459e+01 4.252602e+01 2.195175e+01 1.971762e+01 1.590226e+02 9.966840e-01 3.302526e+00 2.195418e+00 1.286901e+00 1.520657e+00 1.623920e+00 1.835865e+00 2.591533e+00 1.548279e+00 2.347979e+00 2.296127e+00 1.709872e+00 1.405284e+00 2.438044e-01 5.063748e-01 4.719455e-01 2.476201e-01 2.645552e-01 4.941271e-01 2.497777e-01 2.669190e-01 2.828089e-01 3.482648e-01 2.712782e-01 2.242570e-01 3.477704e-01
<GCONST> 1.107644e+02
<STATE> 4
<MEAN> 39
 -2.420303e-01 -7.616256e+00 1.548180e+00 -9.447206e-01 -3.611924e+00 7.348651e+00 -7.472720e+00 1.648109e+00 4.479269e+00 -2.011794e+00 2.861709e+00 -4.677684e+00 4.178504e+01 -3.517084e-01 3.539969e-01 3.071806e-01 1.618066e-01 -6.210510e-02 -9.897649e-02 2.474993e-01 -4.744563e-02 -3.534021e-01 -1.147003e-01 1.853917e-02 2.180761e-01 -3.871654e-01 6.226666e-02 -7.998042e-03 4.051830e-02 -2.972120e-02 -7.034927e-02 -2.681243e-02 -5.478773e-02 -4.776599e-02 -5.139426e-03 -6.741406e-03 2.424991e-02 4.472371e-02 5.916268e-02
<VARIANCE> 39
 3.551025e+01 2.848965e+01 2.340767e+01 1.185500e+01 1.570260e+01 1.738651e+01 2.692499e+01 1.515122e+01 1.934328e+01 2.602652e+01 1.430351e+01 1.464571e+01 5.183747e+01 3.885184e-01 1.112034e+00 1.050910e+00 6.640325e-01 9.103397e-01 1.159048e+00 1.662110e+00 1.505100e+00 1.703127e+00 1.581692e+00 1.288052e+00 1.416203e+00 4.268107e-01 6.378416e-02 1.185380e-01 1.657136e-01 1.280016e-01 1.756960e-01 2.456836e-01 3.122307e-01 2.334326e-01 2.910208e-01 2.918824e-01 2.286515e-01 2.917614e-01 4.631030e-02
<GCONST> 8.912444e+01
<TRANSP> 5
 0.000000e+00 1.000000e+00 0.000000e+00 0.000000e+00 0.000000e+00
 0.000000e+00 7.520716e-01 2.479284e-01 0.000000e+00 0.000000e+00
 0.000000e+00 0.000000e+00 0.000000e+00 1.000000e+00 0.000000e+00
 0.000000e+00 0.000000e+00 0.000000e+00 8.414696e-01 1.585304e-01
 0.000000e+00 0.000000e+00 0.000000e+00 0.000000e+00 0.000000e+00
<ENDHMM>
~h "s"
<BEGINHMM>
<NUMSTATES> 5
<STATE> 2
<MEAN> 39
 -1.761900e+00 -4.065693e+00 4.748308e+00 -2.969561e+00 -8.091175e+00 6.100426e+00 -6.648259e+00 7.779667e-01 2.193941e+00 -3.421726e+00 3.423601e+00 -2.010633e+00 3.953547e+01 4.306823e-01 -7.718413e-02 -2.183963e-01 -5.389627e-01 -8.259158e-01 -3.541595e-01 -2.783848e-01 -1.643990e-01 3.163932e-01 1.741667e-01 3.275197e-01 2.770475e-01 3.444287e-01 -1.678205e-01 4.522004e-03 1.178161e-01 1.882290e-01 9.104729e-02 -2.362069e-02 3.835415e-02 4.526759e-02 -2.481651e-02 -4.773405e-02 -2.016131e-02 -4.283665e-02 -1.158578e-01
<VARIANCE> 39
 4.328576e+01 4.006800e+01 3.885831e+01 4.140157e+01 5.352546e+01 5.384821e+01 3.064454e+01 2.131200e+01 2.131146e+01 2.318674e+01 1.482137e+01 1.179658e+01 2.979215e+01 2.908429e+00 4.074899e+00 3.797062e+00 4.088960e+00 3.999855e+00 5.519908e+00 2.938152e+00 1.710148e+00 1.887005e+00 2.682144e+00 1.550560e+00 1.362346e+00 2.133727e+00 5.382547e-01 8.344598e-01 6.614962e-01 8.118673e-01 9.118429e-01 1.106613e+00 6.403562e-01 3.594617e-01 4.424781e-01 6.066342e-01 3.639920e-01 2.886696e-01 4.206881e-01
<GCONST> 1.214630e+02
<STATE> 3
<MEAN> 39
 -2.492022e+00 -3.264548e+00 4.134330e+00 -3.160571e+00 -9.395752e+00 3.950430e+00 -6.738264e+00 7.891105e-01 2.632688e+00 -1.958502e+00 4.522296e+00 7.791602e-02 3.855780e+01 -8.328407e-01 -1.494139e-01 2.242492e-01 7.794236e-01 3.569529e-01 -9.819052e-02 5.584132e-02 -3.103348e-01 9.688701e-02 1.464836e-01 8.062453e-02 8.694287e-02 -5.943460e-01 -6.309646e-02 -2.240106e-01 1.308229e-01 1.030253e-01 2.234748e-01 4.081942e-01 -3.317176e-02 -4.115012e-02 5.029798e-03 -3.233827e-01 -2.257482e-01 -1.800256e-01 5.385702e-02
<VARIANCE> 39
 4.917932e+01 2.591880e+01 3.427874e+01 3.344845e+01 4.373138e+01 4.023829e+01 2.782619e+01 2.129343e+01 3.055377e+01 1.903262e+01 1.374102e+01 1.281095e+01 3.275023e+01 1.043673e+00 1.694936e+00 1.613580e+00 1.864076e+00 2.623916e+00 2.173865e+00 2.602221e+00 2.263763e+00 1.235349e+00 1.797654e+00 1.153277e+00 1.580950e+00 7.502058e-01 1.976707e-01 3.219371e-01 3.605854e-01 4.391842e-01 5.850011e-01 3.858561e-01 4.832731e-01 3.722690e-01 5.820323e-01 3.117008e-01 3.573350e-01 2.944528e-01 1.318670e-01
<GCONST> 1.072661e+02
<STATE> 4
<MEAN> 39
 -3.457459e+00 -2.353091e+00 7.246235e+00 8.851898e-02 -6.981683e+00 4.493146e+00 -6.660777e+00 1.004355e+00 2.277624e+00 -3.021946e+00 4.286431e+00 -9.912574e-01 3.781916e+01 -1.843134e-01 -1.982319e-01 -3.986436e-03 -3.026438e-02 2.601401e-02 2.089225e-01 2.992466e-02 -4.666096e-02 9.339453e-02 -1.300178e-01 -1.029479e-01 2.285906e-02 -6.836644e-02 1.023819e-01 -4.659918e-02 -2.716045e-02 -1.345245e-01 -9.678926e-02 4.974422e-02 -2.049045e-02 -1.303251e-02 2.558505e-02 -3.984531e-02 -1.636482e-02 -1.780132e-03 1.026608e-01
<VARIANCE> 39
 1.293618e+01 2.439196e+01 1.545217e+01 2.019575e+01 2.078145e+01 2.827251e+01 1.821476e+01 1.812688e+01 2.193580e+01 1.768294e+01 1.374086e+01 1.167308e+01 7.776771e+00 4.451912e-01 6.889418e-01 7.923927e-01 1.053396e+00 1.609715e+00 1.745667e+00 1.614332e+00 1.464641e+00 1.873020e+00 1.551019e+00 1.123595e+00 1.158694e+00 2.162831e-01 8.903377e-02 1.685239e-01 1.837639e-01 1.963456e-01 2.953297e-01 3.293668e-01 3.553027e-01 3.129674e-01 3.515161e-01 2.915162e-01 2.017728e-01 2.331433e-01 4.249400e-02
<GCONST> 8.822875e+01
<TRANSP> 5
 0.000000e+00 1.000000e+00 0.000000e+00 0.000000e+00 0.000000e+00
 0.000000e+00 6.095107e-01 3.904893e-01 0.000000e+00 0.000000e+00
 0.000000e+00 0.000000e+00 0.000000e+00 1.000000e+00 0.000000e+00
 0.000000e+00 0.000000e+00 0.000000e+00 8.520980e-01 1.479020e-01
 0.000000e+00 0.000000e+00 0.000000e+00 0.000000e+00 0.000000e+00
<ENDHMM>
~h "t"
<BEGINHMM>
<NUMSTATES> 5
<STATE> 2
<MEAN> 39
 5.223256e+00 -9.323525e+00 5.875634e+00 -5.949003e+00 -1.136916e+01 8.034350e+00 -9.437057e+00 1.947573e+00 5.299947e+00 -6.256720e+00 2.634433e+00 -3.121529e+00 4.925367e+01 1.922155e+00 -5.148439e-01 -4.891194e-01 -1.164943e+00 -3.684526e-01 -1.667473e-01 -7.581998e-01 6.041839e-01 9.460413e-01 3.340504e-01 -1.539148e-01 -6.489015e-01 2.358271e+00 6.709076e-02 -1.494195e-01 8.952340e-02 -2.059717e-02 3.832951e-02 1.112075e-01 -1.170821e-01 6.529483e-02 1.365919e-01 -4.867068e-02 -7.987221e-02 -5.146948e-02 2.248620e-01
<VARIANCE> 39
 9.632170e+01 7.554704e+01 3.197894e+01 3.802004e+01 4.445001e+01 3.275603e+01 3.639322e+01 1.877628e+01 3.715882e+01 2.038246e+01 1.661687e+01 2.329006e+01 1.284074e+02 7.190717e+00 8.401260e+00 2.921301e+00 2.851904e+00 3.089855e+00 3.552923e+00 3.128822e+00 1.779543e+00 2.438373e+00 2.337823e+00 2.103333e+00 2.033194e+00 8.911965e+00 1.573896e+00 1.433127e+00 4.729009e-01 6.525666e-01 5.834398e-01 6.351668e-01 5.621927e-01 2.719697e-01 3.917530e-01 4.573058e-01 4.266150e-01 4.427876e-01 1.765207e+00
<GCONST> 1.285912e+02
<STATE> 3
<MEAN> 39
 7.522427e+00 -1.062713e+01 4.372627e+00 -7.389977e+00 -8.895438e+00 8.798009e+00 -1.079142e+01 4.208618e+00 8.107789e+00 -5.473166e+00 9.662904e-01 -5.652905e+00 5.332817e+01 -2.425198e-01 -2.306147e-02 1.352027e-01 1.031340e-01 3.502463e-01 2.478488e-01 8.084582e-02 2.686107e-01 4.414361e-01 -1.619253e-01 -6.484128e-01 -9.455270e-02 -2.397533e-02 -3.408440e-01 3.655310e-01 1.296525e-01 2.394871e-01 -6.248051e-02 -1.059185e-01 3.064736e-01 -2.061840e-01 -3.332384e-01 -6.416496e-02 -1.220834e-02 2.617784e-01 -6.163552e-01
<VARIANCE> 39
 1.329327e+02 6.574299e+01 3.909321e+01 4.572199e+01 3.976833e+01 3.245425e+01 4.899644e+01 2.077432e+01 5.081095e+01 2.707873e+01 2.062248e+01 2.075431e+01 2.255703e+02 6.414270e-01 2.677017e+00 1.768314e+00 1.120755e+00 1.255179e+00 1.795809e+00 1.438629e+00 1.231938e+00 1.538240e+00 1.931348e+00 1.917507e+00 1.666451e+00 1.667652e+00 2.240663e-01 5.204419e-01 3.409916e-01 2.482229e-01 2.781343e-01 3.951010e-01 4.452502e-01 2.585149e-01 3.471346e-01 3.936427e-01 3.646446e-01 2.833845e-01 3.862283e-01
<GCONST> 1.122061e+02
<STATE> 4
<MEAN> 39
 1.283687e+01 -1.155247e+01 5.021556e+00 -9.236149e+00 -1.125194e+01 9.432373e+00 -1.165256e+01 6.374607e+00 1.130087e+01 -6.424160e+00 -1.143894e+00 -6.606641e+00 5.859828e+01 -8.013005e-01 9.290527e-01 2.441384e-01 7.010053e-01 2.105389e-01 -1.950318e-01 6.815519e-01 -1.055707e-01 -4.958203e-01 1.817381e-01 1.307609e-01 2.507872e-01 -1.578694e+00 -1.544968e-01 1.086461e-01 -1.070816e-02 7.689779e-02 1.852420e-02 -7.083867e-02 6.814768e-02 -7.849994e-02 -1.463863e-01 6.409391e-02 1.203141e-01 3.147446e-02 -2.323964e-01
<VARIANCE> 39
 5.221704e+01 3.543195e+01 2.717350e+01 2.555751e+01 2.268149e+01 1.931272e+01 4.421660e+01 2.588516e+01 3.267707e+01 2.564944e+01 1.953103e+01 1.588983e+01 1.135938e+02 1.473332e+00 1.448511e+00 1.971708e+00 1.006392e+00 1.057055e+00 1.465764e+00 2.172885e+00 1.321078e+00 1.410167e+00 1.378283e+00 1.694367e+00 1.336739e+00 2.070189e+00 1.324181e-01 2.856351e-01 3.746968e-01 1.955079e-01 2.079923e-01 3.168650e-01 4.280858e-01 2.691536e-01 2.732551e-01 2.660894e-01 3.437635e-01 2.743037e-01 1.989630e-01
<GCONST> 1.038491e+02
<TRANSP> 5
 0.000000e+00 1.000000e+00 0.000000e+00 0.000000e+00 0.000000e+00
 0.000000e+00 7.546762e-01 2.453238e-01 0.000000e+00 0.000000e+00
 0.000000e+00 0.000000e+00 0.000000e+00 1.000000e+00 0.000000e+00
 0.000000e+00 0.000000e+00 0.000000e+00 8.090758e-01 1.909241e-01
 0.000000e+00 0.000000e+00 0.000000e+00 0.000000e+00 0.000000e+00
<ENDHMM>
~h "#N"
<BEGINHMM>
<NUMSTATES> 5
<STATE> 2
<MEAN> 39
 -1.729320e+01 -3.782298e+00 -2.885882e+00 -1.824811e+00 -3.043391e+00 9.348385e-01 -1.959593e+00 1.357044e+00 5.264851e-01 -9.061649e-01 4.395790e-01 1.112418e-02 2.627177e+01 2.357894e-01 1.833268e-01 -1.037615e-02 6.163844e-02 1.283967e-01 7.471541e-02 9.968250e-02 1.137700e-01 1.784381e-01 -1.358589e-02 2.735717e-02 5.183435e-02 9.098893e-02 7.270826e-02 -6.791026e-02 4.948793e-02 -5.605770e-02 -8.580054e-02 -1.588105e-03 -9.442325e-02 3.044551e-02 -1.224001e-02 1.507668e-02 2.202494e-02 -3.336722e-02 9.633134e-02
<VARIANCE> 39
 8.583783e+01 3.053410e+01 3.441778e+01 8.653141e+00 1.097180e+01 2.285154e+01 2.040507e+01 1.362325e+01 9.888103e+00 1.498919e+01 1.103980e+01 1.160372e+01 8.170325e+01 6.115528e+00 4.597264e+00 3.785058e+00 1.344301e+00 1.353792e+00 2.119617e+00 2.321249e+00 1.866242e+00 1.055231e+00 1.319094e+00 1.020292e+00 1.520660e+00 6.892986e+00 9.707664e-01 6.889977e-01 6.068846e-01 2.141110e-01 2.050827e-01 3.492255e-01 3.627030e-01 3.386119e-01 2.281657e-01 2.315326e-01 1.509121e-01 2.955388e-01 9.446675e-01
<GCONST> 1.075514e+02
<STATE> 3
<MEAN> 39
 -9.483152e+00 -4.204459e+00 2.166736e-01 -1.568456e+00 -3.732240e+00 4.820615e+00 -2.918441e+00 2.430669e+00 1.012351e+00 -3.124003e+00 9.263026e-01 -1.943631e+00 3.315589e+01 -6.198940e-02 1.710056e-01 -1.323162e-01 2.491637e-02 -2.199068e-02 -9.833075e-02 1.021236e-02 -2.737021e-02 -2.330638e-02 -1.212357e-01 1.482605e-01 2.371399e-01 -1.448963e-01 1.978691e-01 5.561767e-02 3.035055e-01 3.982396e-02 -1.099701e-01 -1.024257e-01 -2.218603e-01 -1.492160e-01 -2.081699e-02 7.519384e-02 5.717058e-02 7.330744e-03 1.561056e-01
<VARIANCE> 39
 1.389371e+02 2.368936e+01 4.806322e+01 1.841764e+01 2.121785e+01 2.807307e+01 3.107661e+01 1.618369e+01 1.824608e+01 2.299496e+01 1.799417e+01 9.897067e+00 1.067966e+02 9.815048e-01 3.037708e+00 2.068390e+00 1.760077e+00 1.759126e+00 1.669342e+00 2.124908e+00 1.915463e+00 1.178913e+00 1.257777e+00 1.382351e+00 1.573162e+00 1.801995e+00 2.925299e-01 4.129686e-01 3.642989e-01 2.916344e-01 3.033521e-01 3.636440e-01 3.214532e-01 3.254512e-01 3.245383e-01 2.740370e-01 2.216574e-01 1.955735e-01 2.881503e-01
<GCONST> 1.060698e+02
<STATE> 4
<MEAN> 39
 -2.088209e+00 -4.219193e+00 4.891994e+00 -5.528134e-01 -6.788870e+00 5.754750e+00 -4.148520e+00 3.297190e+00 2.727854e+00 -3.875041e+00 3.074205e+00 -1.917052e+00 3.916673e+01 -3.263265e-02 -5.489131e-04 2.744614e-03 7.621103e-03 2.465656e-03 -1.398236e-02 -5.698028e-04 -9.288759e-03 2.073160e-03 1.926473e-02 7.389913e-03 1.625895e-02 -2.534591e-02 7.773134e-03 -7.872188e-03 -2.377445e-03 -7.765843e-03 3.667149e-04 7.584073e-03 -8.315201e-04 -6.624146e-04 3.126620e-03 -3.753053e-03 -5.497937e-03 -5.022364e-03 8.923757e-03
<VARIANCE> 39
 1.713017e+01 3.298174e+01 2.681096e+01 3.133205e+01 2.662500e+01 2.134635e+01 2.073686e+01 2.062641e+01 2.260324e+01 2.072499e+01 1.556927e+01 1.636603e+01 1.504854e+01 2.916284e-01 7.903720e-01 9.895377e-01 1.265182e+00 1.527167e+00 1.457934e+00 1.430617e+00 1.571434e+00 1.724389e+00 1.694972e+00 1.437666e+00 1.323996e+00 1.877615e-01 5.399897e-02 1.496908e-01 1.962979e-01 2.500381e-01 2.986206e-01 2.928225e-01 2.893070e-01 3.215580e-01 3.554224e-01 3.490007e-01 3.015274e-01 2.728494e-01 3.628742e-02
<GCONST> 9.141625e+01
<TRANSP> 5
 0.000000e+00 1.000000e+00 0.000000e+00 0.000000e+00 0.000000e+00
 0.000000e+00 8.768809e-01 1.231192e-01 0.000000e+00 0.000000e+00
 0.000000e+00 0.000000e+00 0.000000e+00 1.000000e+00 0.000000e+00
 0.000000e+00 0.000000e+00 0.000000e+00 9.682922e-01 3.170782e-02
 0.000000e+00 0.000000e+00 0.000000e+00 0.000000e+00 0.000000e+00
<ENDHMM>
~h "ah"
<BEGINHMM>
<NUMSTATES> 5
<STATE> 2
<MEAN> 39
 7.914975e+00 -8.116041e+00 9.021106e+00 -4.676882e+00 -1.206022e+01 6.849492e+00 -1.107111e+01 1.008193e+00 4.404675e+00 -6.097697e+00 2.595358e+00 -4.009379e+00 5.147275e+01 1.074759e+00 -8.386183e-01 1.303999e-01 -8.181763e-01 -1.029192e+00 -4.520506e-02 -6.102385e-01 6.006252e-02 3.825082e-01 -1.118848e-01 2.044315e-01 -2.308964e-02 1.499688e+00 1.883873e-02 -9.328406e-02 4.426097e-02 2.113294e-02 6.107275e-02 5.597199e-02 -4.211077e-02 6.910270e-02 2.711549e-02 -4.887815e-02 -1.172011e-02 -4.480093e-02 1.087604e-01
<VARIANCE> 39
 7.653182e+01 5.511590e+01 8.300560e+01 4.472493e+01 6.791968e+01 4.544473e+01 4.579385e+01 3.227366e+01 2.731325e+01 2.880780e+01 1.822564e+01 2.089410e+01 1.151694e+02 4.454613e+00 5.400638e+00 4.565106e+00 3.821142e+00 4.984402e+00 3.858741e+00 4.484052e+00 3.130236e+00 2.904926e+00 3.156572e+00 2.008590e+00 1.789591e+00 6.311304e+00 6.906251e-01 8.382581e-01 6.282679e-01 6.645009e-01 9.900441e-01 6.602529e-01 7.643728e-01 5.057592e-01 4.999855e-01 5.898097e-01 4.017043e-01 3.511015e-01 8.963473e-01
<GCONST> 1.318242e+02
<STATE> 3
<MEAN> 39
 1.002408e+01 -1.025477e+01 9.078637e+00 -6.210796e+00 -1.246366e+01 8.236409e+00 -1.212762e+01 1.744932e+00 4.553197e+00 -7.005359e+00 3.449417e+00 -4.225579e+00 5.477190e+01 -3.335237e-01 -2.694272e-02 1.912653e-01 3.323575e-01 3.061492e-01 1.072823e-01 -5.554258e-02 -2.206587e-01 -5.143217e-02 -1.970769e-02 5.642940e-03 4.009518e-02 -9.968054e-02 -2.206053e-01 1.816947e-01 -1.488947e-01 1.751715e-01 2.507108e-01 -1.227216e-02 1.365033e-01 -7.403037e-02 -5.867223e-02 -3.005264e-02 -2.239016e-01 3.309157e-02 -3.201063e-01
<VARIANCE> 39
 9.506187e+01 4.611425e+01 6.488570e+01 3.605488e+01 6.456165e+01 4.206335e+01 6.297433e+01 3.463929e+01 3.258145e+01 3.261612e+01 1.801732e+01 2.258740e+01 1.259613e+02 9.267403e-01 3.064998e+00 3.468773e+00 1.832662e+00 2.568346e+00 2.041240e+00 1.997267e+00 3.629597e+00 2.531848e+00 1.861049e+00 2.113931e+00 1.328354e+00 1.697328e+00 2.709884e-01 4.502606e-01 2.735116e-01 3.274641e-01 5.309309e-01 3.667188e-01 5.505806e-01 3.477160e-01 3.294814e-01 4.472307e-01 3.018251e-01 2.674818e-01 3.882880e-01
<GCONST> 1.176878e+02
<STATE> 4
<MEAN> 39
 8.588680e+00 -8.807739e+00 1.077494e+01 -4.156394e+00 -1.022297e+01 8.917947e+00 -1.254151e+01 -1.578907e-02 2.558215e+00 -8.297016e+00 2.610647e+00 -4.325418e+00 5.347080e+01 -3.799230e-01 2.390066e-01 -9.124919e-02 2.840900e-01 3.215452e-01 3.371029e-02 2.301702e-01 -7.804667e-03 -9.842955e-02 -2.034661e-02 -1.209205e-01 2.948564e-02 -5.529535e-01 -3.908547e-02 9.789564e-03 -7.805982e-02 -2.392416e-02 -3.720479e-03 -1.478504e-02 5.937293e-02 1.362263e-02 1.601799e-02 4.209867e-02 -1.536224e-02 -8.473600e-03 -5.391956e-02
<VARIANCE> 39
 1.023587e+02 6.295649e+01 6.602865e+01 4.069661e+01 5.522951e+01 3.460502e+01 4.761035e+01 4.624798e+01 4.063687e+01 2.087029e+01 2.679900e+01 1.763478e+01 1.412591e+02 8.761645e-01 1.546196e+00 2.060958e+00 1.270926e+00 1.751699e+00 1.574288e+00 2.017874e+00 2.031021e+00 1.528689e+00 1.721986e+00 1.625614e+00 1.238318e+00 1.314171e+00 1.116682e-01 2.445129e-01 2.993556e-01 2.213485e-01 2.668999e-01 2.841969e-01 3.637519e-01 3.557907e-01 2.831393e-01 2.906479e-01 2.785173e-01 2.389312e-01 1.395575e-01
<GCONST> 1.089659e+02
<TRANSP> 5
 0.000000e+00 1.000000e+00 0.000000e+00 0.000000e+00 0.000000e+00
 0.000000e+00 7.722968e-01 2.277032e-01 0.000000e+00 0.000000e+00
 0.000000e+00 0.000000e+00 0.000000e+00 1.000000e+00 0.000000e+00
 0.000000e+00 0.000000e+00 0.000000e+00 9.004061e-01 9.959394e-02
 0.000000e+00 0.000000e+00 0.000000e+00 0.000000e+00 0.000000e+00
<ENDHMM>
~h "eh"
<BEGINHMM>
<NUMSTATES> 5
<STATE> 2
<MEAN> 39
 1.827839e-01 -8.426893e+00 -1.100653e+00 -2.586466e+00 -4.289711e+00 6.338351e+00 -8.718407e+00 2.969267e-01 3.591489e+00 -3.614198e+00 2.972940e+00 -1.290566e+00 4.144553e+01 1.745724e-02 -2.517571e-01 -4.178854e-01 6.238535e-02 3.446569e-01 3.434962e-01 1.906929e-01 -6.453539e-02 -2.323660e-01 -4.254459e-02 1.363018e-02 -3.148076e-02 5.924857e-02 -1.843979e-01 2.873111e-01 3.255047e-01 -8.819603e-02 -2.652144e-01 1.062030e-02 2.894632e-01 2.355237e-01 -6.779024e-02 -2.960965e-02 2.969098e-02 -1.235553e-02 -1.787138e-01
<VARIANCE> 39
 2.714819e+01 7.713148e+01 6.059439e+01 2.257894e+01 2.395284e+01 2.833778e+01 2.791919e+01 1.760102e+01 2.799796e+01 2.073879e+01 2.031408e+01 2.150819e+01 2.768842e+01 3.465181e+00 1.084259e+01 7.885822e+00 2.635348e+00 1.633639e+00 1.921447e+00 5.153906e+00 1.480337e+00 2.152995e+00 2.098545e+00 2.271748e+00 1.826817e+00 3.742616e+00 5.866099e-01 1.907947e+00 1.356752e+00 4.331132e-01 1.954760e-01 2.852231e-01 9.168575e-01 2.071119e-01 3.177641e-01 5.056628e-01 4.583816e-01 4.163865e-01 6.861866e-01
<GCONST> 1.202867e+02
<STATE> 3
<MEAN> 39
 -2.474203e+00 -2.803196e+00 4.890114e+00 -1.901257e+00 -7.391021e+00 6.145615e+00 -4.998116e+00 2.079747e-01 -2.690163e-01 -3.192108e+00 3.802342e+00 5.971431e-01 3.836493e+01 -5.922928e-01 4.303760e-01 4.517794e-01 -7.605926e-02 -1.057999e-01 3.291135e-01 4.907363e-01 5.032733e-01 -1.387039e-01 -3.159511e-01 -5.516955e-01 -2.809574e-01 -4.928929e-01 5.857979e-02 -2.837336e-01 -2.008715e-01 -7.281777e-02 -9.359028e-02 -3.274394e-01 -4.002181e-01 8.545149e-02 3.648426e-01 -6.399442e-02 -8.976724e-02 -9.117060e-02 1.293122e-01
<VARIANCE> 39
 1.305467e+01 3.340068e+01 3.612566e+01 2.584993e+01 1.360423e+01 2.919112e+01 2.559440e+01 1.669157e+01 1.435048e+01 3.227158e+01 4.307657e+01 9.990982e+00 1.422175e+01 2.482286e-01 1.208618e+00 1.507901e+00 7.457436e-01 1.183087e+00 1.290938e+00 9.699139e-01 6.710730e-01 6.301049e-01 1.459897e+00 1.638219e+00 1.900443e+00 2.254064e-01 2.620165e-01 3.477246e-01 3.435335e-01 1.981988e-01 2.348164e-01 3.045502e-01 4.189973e-01 2.197841e-01 1.310761e-01 4.461763e-01 6.942885e-01 1.449254e-01 1.341494e-01
<GCONST> 9.271325e+01
<STATE> 4
<MEAN> 39
 -3.905760e+00 -1.367070e+00 6.673639e+00 -6.635565e-01 -6.742840e+00 4.020607e+00 -6.182435e+00 1.790649e+00 1.860116e+00 -3.259434e+00 3.328454e+00 -2.095572e+00 3.709856e+01 -7.621589e-03 1.151298e-02 7.655443e-03 9.585636e-03 1.752461e-02 -2.697039e-03 1.299974e-03 1.995329e-02 2.310263e-02 1.445011e-02 -1.954774e-03 -1.721249e-02 -8.976978e-03 6.090079e-03 -5.035227e-03 -5.456019e-03 -2.283982e-04 2.791361e-03 9.509409e-04 -3.155068e-03 -3.826550e-03 -4.582363e-04 -1.274738e-03 7.220999e-04 -5.695953e-04 5.303185e-03
<VARIANCE> 39
 4.470289e+00 6.959176e+00 9.411517e+00 1.203692e+01 1.471068e+01 1.604740e+01 1.714159e+01 1.693214e+01 1.770583e+01 1.734348e+01 1.506957e+01 1.132685e+01 1.490946e+00 2.695341e-01 5.145934e-01 6.851298e-01 8.955627e-01 1.240736e+00 1.487245e+00 1.535391e+00 1.425031e+00 1.595699e+00 1.514041e+00 1.437467e+00 1.277444e+00 7.279560e-02 5.111977e-02 1.015427e-01 1.320963e-01 1.785995e-01 2.509571e-01 3.067507e-01 3.115042e-01 2.758208e-01 3.274851e-01 3.102731e-01 2.930133e-01 2.684073e-01 1.444790e-02
<GCONST> 7.695448e+01
<TRANSP> 5
 0.000000e+00 1.000000e+00 0.000000e+00 0.000000e+00 0.000000e+00
 0.000000e+00 6.805277e-01 3.194723e-01 0.000000e+00 0.000000e+00
 0.000000e+00 0.000000e+00 0.000000e+00 1.000000e+00 0.000000e+00
 0.000000e+00 0.000000e+00 0.000000e+00 9.913076e-01 8.692381e-03
 0.000000e+00 0.000000e+00 0.000000e+00 0.000000e+00 0.000000e+00
<ENDHMM>
~h "ih"
<BEGINHMM>
<NUMSTATES> 5
<STATE> 2
<MEAN> 39
 -2.316438e-01 -7.147616e+00 5.606167e+00 -1.120545e+00 -7.646439e+00 6.535608e+00 -7.173161e+00 1.782384e+00 2.489292e+00 -5.863556e+00 1.870355e+00 -2.737730e+00 4.251537e+01 3.003931e-01 -5.762619e-01 -1.786976e-01 -1.707136e-01 -4.613343e-01 -1.499478e-01 -2.850427e-01 8.702611e-02 4.301901e-01 5.032161e-02 -9.769319e-02 1.297223e-01 4.810936e-01 -1.149517e-01 2.205964e-01 -2.467125e-02 -7.792544e-02 4.844975e-02 2.833630e-02 1.340371e-01 6.761403e-02 -3.001932e-02 2.839474e-02 -3.234879e-02 -6.764596e-02 -1.507862e-01
<VARIANCE> 39
 6.985671e+01 6.475478e+01 5.587786e+01 6.953509e+01 5.203430e+01 2.540052e+01 2.684174e+01 2.130670e+01 2.480083e+01 2.157898e+01 2.056972e+01 1.208366e+01 7.278919e+01 2.994992e+00 7.086689e+00 3.445908e+00 4.590343e+00 3.497167e+00 2.612270e+00 2.975566e+00 2.046018e+00 2.605624e+00 1.798895e+00 1.197247e+00 1.222652e+00 3.488057e+00 5.843460e-01 1.592534e+00 5.689337e-01 8.563313e-01 8.305784e-01 4.269983e-01 5.929738e-01 4.067671e-01 5.036864e-01 3.514178e-01 2.962082e-01 2.663928e-01 7.705006e-01
<GCONST> 1.232093e+02
<STATE> 3
<MEAN> 39
 -2.751582e+00 -4.910179e+00 6.787663e+00 2.391917e-01 -6.523006e+00 6.119348e+00 -5.666721e+00 2.073871e+00 2.062862e+00 -4.426856e+00 1.872238e+00 -2.245739e+00 3.962582e+01 -3.795716e-01 3.396971e-01 -9.356046e-02 1.278757e-01 2.196162e-01 2.913905e-02 2.709147e-01 2.430346e-01 2.933354e-01 7.489719e-02 -2.544837e-01 1.450596e-01 -4.310529e-01 1.157838e-01 -1.055762e-01 -2.117149e-01 -1.591580e-01 6.851994e-02 4.700593e-02 -7.991014e-02 -3.839678e-02 -3.752721e-02 -6.833511e-02 1.046788e-01 -7.047934e-02 1.277383e-01
<VARIANCE> 39
 6.697746e+01 2.899077e+01 4.005692e+01 4.479348e+01 3.185496e+01 2.679172e+01 2.229811e+01 1.123703e+01 1.452545e+01 2.005152e+01 1.437114e+01 1.517941e+01 6.316131e+01 1.100201e+00 3.417495e+00 2.061511e+00 1.560805e+00 1.410010e+00 2.008250e+00 1.410380e+00 2.079950e+00 1.921273e+00 1.320101e+00 1.134460e+00 1.484657e+00 1.246103e+00 1.741365e-01 7.555416e-01 4.695767e-01 4.169604e-01 3.856800e-01 3.851143e-01 4.205239e-01 2.291679e-01 2.410696e-01 3.426458e-01 2.732485e-01 3.221995e-01 2.715761e-01
<GCONST> 1.063685e+02
<STATE> 4
<MEAN> 39
 7.700201e+00 -5.923542e+00 1.190369e+01 -3.972032e+00 -1.164726e+01 6.221748e+00 -1.194882e+01 1.469648e+00 2.471549e+00 -8.993194e+00 9.604921e-01 -5.291699e+00 5.117260e+01 -1.529119e-01 1.530658e-01 -6.033004e-02 1.386124e-01 2.917804e-01 -2.108556e-03 -9.079790e-02 -2.138132e-01 -2.324585e-01 2.992217e-03 1.012972e-01 -9.064186e-03 -1.876495e-01 1.087139e-01 -1.778369e-01 -9.409699e-02 -1.108150e-01 -7.087483e-02 5.061806e-02 -6.965446e-02 -8.746817e-02 -1.684092e-03 9.621914e-03 7.415948e-02 3.104739e-02 1.539028e-01
<VARIANCE> 39
 1.039002e+02 4.415620e+01 7.320850e+01 3.338419e+01 5.408902e+01 3.410767e+01 5.064344e+01 2.811884e+01 3.178721e+01 2.809719e+01 1.894318e+01 1.962346e+01 1.430134e+02 5.255526e-01 1.913898e+00 2.063450e+00 1.497181e+00 1.882392e+00 1.610045e+00 1.579246e+00 1.588016e+00 1.675845e+00 1.379680e+00 1.244213e+00 1.126663e+00 6.734189e-01 1.793115e-01 4.120623e-01 3.162518e-01 2.695008e-01 3.365831e-01 3.510564e-01 3.705928e-01 2.774445e-01 3.065884e-01 2.549171e-01 1.984654e-01 2.199168e-01 2.223444e-01
<GCONST> 1.076473e+02
<TRANSP> 5
 0.000000e+00 1.000000e+00 0.000000e+00 0.000000e+00 0.000000e+00
 0.000000e+00 4.195949e-01 5.804051e-01 0.000000e+00 0.000000e+00
 0.000000e+00 0.000000e+00 0.000000e+00 1.000000e+00 0.000000e+00
 0.000000e+00 0.000000e+00 0.000000e+00 7.060965e-01 2.939036e-01
 0.000000e+00 0.000000e+00 0.000000e+00 0.000000e+00 0.000000e+00
<ENDHMM>
~h "ng"
<BEGINHMM>
<NUMSTATES> 5
<STATE> 2
<MEAN> 39
 1.034930e+00 -4.926496e+00 4.552386e+00 -2.603845e+00 -7.584611e+00 5.955966e+00 -1.016472e+01 -4.778813e-01 2.368260e+00 -6.597691e+00 3.070602e+00 -1.479954e+00 4.248349e+01 1.145651e+00 -7.235011e-01 -2.896509e-01 -3.300192e-01 2.392864e-01 1.333594e+00 2.920143e-02 -1.063069e-01 -3.134676e-01 -5.669281e-01 2.347512e-01 -5.069841e-01 1.056821e+00 -1.834591e-01 1.363684e-01 -1.157998e-03 -2.244508e-01 -2.028846e-01 -2.308555e-01 3.016375e-01 2.734381e-01 9.756534e-03 3.585578e-01 1.177393e-01 4.165860e-03 -2.175970e-01
<VARIANCE> 39
 1.188485e+02 3.715918e+01 7.082074e+01 2.663274e+01 4.656206e+01 8.687826e+01 3.554126e+01 3.955344e+01 2.585865e+01 5.561952e+01 2.324459e+01 7.217354e+00 1.204005e+02 1.330084e+01 3.466049e+00 5.579927e+00 1.406421e+00 3.231312e+00 6.623622e+00 2.875050e+00 2.871134e+00 1.808161e+00 2.949279e+00 2.055564e+00 8.372080e-01 1.288622e+01 2.179313e+00 9.809915e-01 6.415734e-01 2.318439e-01 5.373083e-01 1.459367e+00 6.409780e-01 3.830265e-01 3.326341e-01 8.066394e-01 3.570610e-01 1.443716e-01 2.318925e+00
<GCONST> 1.299561e+02
<STATE> 3
<MEAN> 39
 4.885582e+00 -3.190629e+00 8.444215e+00 -3.581348e+00 -1.013718e+01 5.249876e+00 -1.150199e+01 -8.808935e-01 1.627306e+00 -7.139096e+00 2.955395e+00 -3.086756e+00 4.518836e+01 -1.335617e+00 8.866329e-01 -6.133074e-01 -3.291205e-02 2.357840e-01 -8.457562e-01 1.545166e+00 3.159586e-01 -2.963928e-01 1.248254e+00 1.127077e-01 7.097960e-02 -1.720610e+00 -1.920486e-01 1.515763e-01 -5.897351e-02 -1.291184e-01 -1.272687e-01 -2.386086e-01 7.856645e-02 7.887396e-02 1.272738e-02 4.121481e-01 2.349124e-01 2.909790e-01 -2.028657e-01
<VARIANCE> 39
 2.502127e+01 3.288506e+01 5.730381e+01 4.754081e+01 5.251859e+01 9.978722e+01 3.686426e+01 5.239558e+01 4.597487e+01 4.399927e+01 3.077357e+01 1.427277e+01 3.337385e+01 1.477768e+00 2.622782e+00 3.325027e+00 1.100416e+00 1.825819e+00 2.261180e+00 1.667582e+00 1.314208e+00 3.226523e+00 2.249131e+00 7.695913e-01 4.123504e-01 1.452697e+00 1.762508e-01 5.111590e-01 4.747460e-01 3.697689e-01 4.515107e-01 4.433251e-01 5.494213e-01 5.524954e-01 3.552682e-01 2.746502e-01 4.333563e-01 2.526336e-01 3.494011e-01
<GCONST> 1.131590e+02
<STATE> 4
<MEAN> 39
 6.782062e+00 -1.564798e+00 1.157320e+01 -2.485620e+00 -1.115376e+01 5.893683e+00 -9.915771e+00 8.408867e-02 2.054462e+00 -6.934798e+00 2.191433e+00 -4.140590e+00 4.649583e+01 -8.931742e-01 7.381110e-01 1.928436e-02 2.689556e-01 7.758737e-02 -1.951445e-01 7.777978e-01 3.674051e-02 -2.633173e-01 9.495644e-01 2.895039e-01 3.983741e-01 -1.162824e+00 3.048002e-02 -1.784043e-01 -6.547166e-02 7.070382e-02 1.194402e-01 1.026625e-01 -8.316883e-02 3.893173e-02 9.757841e-02 -4.965853e-02 1.226974e-01 1.752877e-01 1.512575e-01
<VARIANCE> 39
 2.776973e+01 1.343036e+01 6.551217e+01 2.596621e+01 1.830801e+01 3.101063e+01 3.082966e+01 2.126307e+01 1.940823e+01 3.735807e+01 1.978835e+01 8.691272e+00 3.068482e+01 6.409262e-01 1.538821e+00 2.533582e+00 9.528160e-01 1.281616e+00 1.601641e+00 2.931545e+00 2.970058e+00 1.733451e+00 2.004079e+00 1.597369e+00 1.143336e+00 5.197344e-01 6.210434e-02 9.131473e-02 1.909080e-01 1.429226e-01 1.511705e-01 1.654684e-01 4.622290e-01 3.652546e-01 3.104906e-01 3.324663e-01 2.383115e-01 1.699641e-01 9.790426e-02
<GCONST> 9.592426e+01
<TRANSP> 5
 0.000000e+00 1.000000e+00 0.000000e+00 0.000000e+00 0.000000e+00
 0.000000e+00 4.029490e-01 5.970510e-01 0.000000e+00 0.000000e+00
 0.000000e+00 0.000000e+00 0.000000e+00 1.000000e+00 0.000000e+00
 0.000000e+00 0.000000e+00 0.000000e+00 5.685534e-01 4.314466e-01
 0.000000e+00 0.000000e+00 0.000000e+00 0.000000e+00 0.000000e+00
<ENDHMM>
~h "oh"
<BEGINHMM>
<NUMSTATES> 5
<STATE> 2
<MEAN> 39
 8.482068e-01 -7.502431e+00 3.763490e+00 -5.533145e+00 -1.073113e+01 4.281529e+00 -9.605689e+00 1.542569e+00 4.758307e+00 -1.724891e+00 6.410229e+00 -8.447526e-01 4.352608e+01 1.623141e+00 -6.217663e-02 2.626263e-01 -8.948696e-01 -7.402074e-01 1.449750e-02 -5.551553e-01 2.659623e-01 2.301183e-01 -1.887377e-01 2.189193e-01 -3.550875e-01 1.606396e+00 4.331844e-02 4.400332e-02 1.347145e-02 -9.106234e-03 8.982433e-03 5.092113e-02 6.008918e-02 1.446686e-02 -3.047342e-02 -4.381649e-02 -8.123747e-02 -5.465241e-02 6.472261e-02
<VARIANCE> 39
 1.053158e+02 7.682393e+01 4.668812e+01 3.561588e+01 3.639440e+01 6.263939e+01 3.737411e+01 2.621142e+01 2.697996e+01 2.668743e+01 2.439314e+01 1.511293e+01 1.157710e+02 6.505778e+00 7.570125e+00 4.563122e+00 3.478925e+00 3.374609e+00 5.302900e+00 3.798063e+00 3.071180e+00 2.370885e+00 2.433314e+00 2.748010e+00 1.623072e+00 8.283008e+00 1.372074e+00 1.489449e+00 8.216786e-01 7.866792e-01 7.873883e-01 1.137793e+00 7.907501e-01 5.086683e-01 5.023752e-01 4.961392e-01 6.497386e-01 3.141090e-01 1.633451e+00
<GCONST> 1.340862e+02
<STATE> 3
<MEAN> 39
 4.350334e+00 -5.815817e+00 4.356386e+00 -7.009717e+00 -1.208184e+01 4.068383e+00 -7.859185e+00 4.402828e+00 5.490010e+00 -3.022376e+00 4.616164e+00 -2.425803e+00 4.665667e+01 -2.954465e-01 3.058400e-01 -1.302716e-01 2.008509e-01 2.138287e-01 -2.370002e-01 9.080136e-02 -3.150804e-01 -2.831099e-02 -4.839999e-02 -8.000989e-01 -3.163231e-01 -1.073743e-01 -4.291762e-01 1.243297e-01 6.256264e-02 4.240924e-01 4.097616e-01 2.506067e-01 9.199782e-02 -4.693756e-01 -3.270878e-01 -6.166857e-02 -1.577413e-01 2.134455e-03 -3.916257e-01
<VARIANCE> 39
 1.376269e+02 5.431225e+01 3.825499e+01 3.484264e+01 6.102211e+01 8.947461e+01 3.734253e+01 5.112381e+01 3.760057e+01 4.313019e+01 2.974154e+01 1.818501e+01 1.914490e+02 1.153885e+00 2.372823e+00 1.180681e+00 1.595961e+00 1.928258e+00 2.024640e+00 2.627904e+00 2.066829e+00 1.003486e+00 9.812801e-01 7.415240e-01 1.221892e+00 1.911395e+00 3.452582e-01 7.014831e-01 6.282928e-01 3.935689e-01 4.274868e-01 3.633790e-01 5.003700e-01 8.445481e-01 5.053285e-01 4.194303e-01 3.563325e-01 2.613173e-01 3.934723e-01
<GCONST> 1.177221e+02
<STATE> 4
<MEAN> 39
 1.278021e+01 -5.511523e+00 1.222341e+01 -7.169892e+00 -1.420000e+01 5.435334e+00 -1.489787e+01 9.032193e-01 3.506007e+00 -7.372469e+00 3.694212e+00 -5.733095e+00 5.583918e+01 -2.132215e-01 2.261285e-01 1.039642e-01 2.769693e-01 1.986441e-01 3.129795e-03 -6.377387e-02 -2.392170e-01 -1.522003e-01 -8.872911e-02 -1.042189e-01 9.023477e-02 -3.543013e-01 -4.383096e-02 -9.945373e-03 -2.208677e-02 2.593251e-02 1.857932e-02 -6.812783e-03 2.250275e-02 1.418768e-02 -2.967079e-03 1.454162e-02 2.053022e-02 1.389652e-02 -6.025048e-02
<VARIANCE> 39
 4.967010e+01 4.695834e+01 7.712452e+01 3.030227e+01 3.258194e+01 5.810805e+01 3.474137e+01 4.168859e+01 3.733817e+01 4.235456e+01 3.125522e+01 2.043331e+01 8.867777e+01 5.952066e-01 1.574009e+00 1.808228e+00 1.634491e+00 1.788790e+00 1.657993e+00 1.515730e+00 1.667530e+00 1.919916e+00 1.355375e+00 1.255619e+00 1.137521e+00 9.436638e-01 7.958385e-02 2.225531e-01 2.399132e-01 2.882125e-01 3.312659e-01 2.725144e-01 2.830892e-01 2.550518e-01 3.205337e-01 2.551830e-01 2.074732e-01 1.970181e-01 1.062789e-01
<GCONST> 1.049302e+02
<TRANSP> 5
 0.000000e+00 1.000000e+00 0.000000e+00 0.000000e+00 0.000000e+00
 0.000000e+00 8.175471e-01 1.824529e-01 0.000000e+00 0.000000e+00
 0.000000e+00 0.000000e+00 0.000000e+00 1.000000e+00 0.000000e+00
 0.000000e+00 0.000000e+00 0.000000e+00 9.148755e-01 8.512449e-02
 0.000000e+00 0.000000e+00 0.000000e+00 0.000000e+00 0.000000e+00
<ENDHMM>
~h "uh"
<BEGINHMM>
<NUMSTATES> 5
<STATE> 2
<MEAN> 39
 9.260854e+00 -8.525517e+00 1.428104e+01 -1.696001e+00 -1.292491e+01 5.870082e+00 -1.278426e+01 1.657117e+00 3.658900e+00 -7.247594e+00 4.299983e+00 -3.669269e+00 5.298400e+01 1.062734e+00 -4.946342e-01 9.268622e-02 -7.360349e-01 -8.864284e-01 -4.146379e-01 -9.684724e-01 -1.264594e-01 2.131474e-01 1.679232e-01 5.500513e-01 7.788203e-02 1.261599e+00 4.448237e-02 1.506338e-01 -1.507348e-01 -1.798447e-01 1.057650e-01 9.193259e-02 -7.160954e-02 -1.621785e-01 -4.646421e-02 1.426855e-01 6.016300e-02 -6.861956e-02 5.348660e-02
<VARIANCE> 39
 6.383446e+01 5.371893e+01 9.065629e+01 4.426870e+01 5.669945e+01 4.032696e+01 6.245322e+01 2.101500e+01 3.366503e+01 3.043940e+01 2.261420e+01 1.391203e+01 9.184956e+01 4.658399e+00 7.098157e+00 3.785073e+00 3.219898e+00 4.785031e+00 4.774954e+00 6.658624e+00 3.177200e+00 2.281898e+00 4.928892e+00 1.697656e+00 1.770060e+00 7.553760e+00 7.090765e-01 1.268787e+00 5.874506e-01 4.384700e-01 9.149441e-01 1.038843e+00 1.205421e+00 5.351857e-01 4.660772e-01 1.036135e+00 3.913981e-01 3.810420e-01 9.592001e-01
<GCONST> 1.333312e+02
<STATE> 3
<MEAN> 39
 1.146282e+01 -6.950611e+00 9.322186e+00 -5.853402e+00 -1.100302e+01 7.195949e+00 -1.380401e+01 1.842409e+00 6.828483e+00 -4.287651e+00 4.105201e+00 -4.278878e+00 5.412501e+01 -7.442605e-01 1.024157e+00 -4.069723e-01 -7.577514e-02 3.158779e-01 2.550490e-01 6.386561e-01 -5.126554e-01 -6.297585e-01 6.896522e-01 5.695563e-01 -5.371586e-02 -1.171632e+00 -1.449282e-01 -1.895562e-01 -1.834970e-01 -8.244985e-02 -5.598880e-02 1.771734e-02 1.919063e-01 5.417196e-02 -1.209280e-01 -1.604362e-01 -3.458051e-02 2.764547e-02 1.130424e-03
<VARIANCE> 39
 7.255836e+01 2.860198e+01 3.244646e+01 2.172768e+01 2.121060e+01 2.243691e+01 6.596040e+01 2.977981e+01 3.661738e+01 1.901864e+01 2.136727e+01 1.072769e+01 1.004853e+02 1.329235e+00 1.847505e+00 2.599077e+00 2.670621e+00 1.392077e+00 2.592340e+00 2.794491e+00 2.857471e+00 2.431926e+00 1.578954e+00 1.919788e+00 9.478859e-01 2.377661e+00 2.001726e-01 2.748491e-01 3.671193e-01 3.600550e-01 2.482634e-01 4.405966e-01 4.589385e-01 3.417293e-01 4.106557e-01 4.029130e-01 1.685998e-01 3.020158e-01 1.969524e-01
<GCONST> 1.098286e+02
<STATE> 4
<MEAN> 39
 1.179600e+01 -7.493434e+00 8.644976e+00 -6.364365e+00 -9.264695e+00 8.946155e+00 -1.596923e+01 -3.495482e+00 1.956486e+00 -3.905285e+00 7.150616e+00 -4.596163e+00 5.486486e+01 -5.428372e-01 3.277575e-01 1.228526e-01 4.993040e-01 3.615997e-01 8.862598e-02 4.045551e-01 -4.937269e-02 -1.908916e-01 -8.216304e-02 -6.806785e-02 -2.378251e-02 -7.346138e-01 -3.687055e-02 -7.026161e-02 3.348565e-02 1.182991e-01 9.159410e-03 -7.170540e-02 1.526730e-02 1.252954e-01 1.155776e-01 -4.259347e-02 -1.194731e-01 -3.263155e-02 -2.942174e-02
<VARIANCE> 39
 5.767309e+01 3.298212e+01 8.243064e+01 3.248323e+01 5.758062e+01 2.565485e+01 5.632843e+01 3.498856e+01 2.645527e+01 3.030529e+01 3.268803e+01 1.199759e+01 8.536907e+01 6.452106e-01 9.261618e-01 2.068388e+00 1.726708e+00 1.994112e+00 1.596321e+00 1.823372e+00 1.430620e+00 1.555325e+00 1.596258e+00 1.498464e+00 1.298110e+00 8.517156e-01 1.059272e-01 1.640027e-01 2.302270e-01 2.935852e-01 3.762479e-01 3.221350e-01 3.464804e-01 2.769094e-01 3.325498e-01 2.988364e-01 2.393037e-01 2.582490e-01 1.026397e-01
<GCONST> 1.048286e+02
<TRANSP> 5
 0.000000e+00 1.000000e+00 0.000000e+00 0.000000e+00 0.000000e+00
 0.000000e+00 6.757612e-01 3.242388e-01 0.000000e+00 0.000000e+00
 0.000000e+00 0.000000e+00 0.000000e+00 1.000000e+00 0.000000e+00
 0.000000e+00 0.000000e+00 0.000000e+00 8.223618e-01 1.776382e-01
 0.000000e+00 0.000000e+00 0.000000e+00 0.000000e+00 0.000000e+00
<ENDHMM>
~h "uw"
<BEGINHMM>
<NUMSTATES> 5
<STATE> 2
<MEAN> 39
 8.243337e+00 -6.414317e+00 6.927879e+00 -7.758673e+00 -1.511640e+01 5.557216e+00 -9.630414e+00 2.956835e+00 5.420794e+00 -6.088761e+00 3.570177e+00 -1.347743e+00 4.942507e+01 1.420364e+00 -5.080140e-02 1.132740e+00 -5.293558e-01 -9.079095e-01 -1.570525e-01 -9.551937e-01 -3.013906e-01 -4.649135e-01 -7.589391e-01 3.913840e-01 3.791197e-01 1.727605e+00 2.460995e-01 2.157136e-02 2.897900e-01 7.458917e-02 -8.399063e-03 -4.577663e-02 -1.927906e-01 1.093655e-01 2.162708e-01 1.278805e-01 1.078881e-01 -7.911102e-02 3.404087e-01
<VARIANCE> 39
 4.497265e+01 4.752606e+01 4.652136e+01 2.429980e+01 2.686098e+01 3.220865e+01 2.422204e+01 2.020702e+01 2.406212e+01 2.829993e+01 1.311119e+01 1.373588e+01 4.715350e+01 3.505198e+00 5.507432e+00 5.211195e+00 2.707456e+00 2.392605e+00 4.415235e+00 2.437326e+00 3.194310e+00 3.723516e+00 3.305098e+00 1.528521e+00 1.858109e+00 3.292698e+00 8.963383e-01 1.136014e+00 9.507861e-01 5.450131e-01 4.980254e-01 8.757985e-01 4.452274e-01 6.118845e-01 6.828791e-01 6.056368e-01 3.084765e-01 3.397396e-01 7.922546e-01
<GCONST> 1.235232e+02
<STATE> 3
<MEAN> 39
 1.682252e+01 -4.763661e+00 1.512143e+01 -1.050242e+01 -2.007675e+01 2.542918e+00 -1.647440e+01 3.224635e+00 6.316362e+00 -5.657144e+00 7.348743e+00 -1.194755e+00 5.980193e+01 2.087894e-01 -6.109127e-01 4.885836e-01 1.355762e-01 1.323882e-01 -4.526488e-01 -1.041895e+00 -3.966028e-01 5.658578e-02 -1.480174e-02 -4.621354e-02 1.152304e-01 1.300748e+00 -8.110443e-01 -1.774841e-01 -4.934645e-01 6.355587e-01 8.982990e-01 6.634886e-01 6.483473e-01 -3.333372e-01 -5.812868e-01 -3.878488e-01 -4.436958e-01 -6.246050e-02 -8.790733e-01
<VARIANCE> 39
 2.541865e+00 1.623915e+01 6.926744e+00 5.307812e+00 6.404202e+00 1.834113e+01 1.581678e+01 1.402948e+01 1.314980e+01 1.234072e+01 8.577847e+00 9.897070e+00 6.161749e+00 3.193083e-01 9.400359e-01 1.946987e+00 1.089483e+00 1.004368e+00 1.205303e+00 5.503804e-01 8.061447e-01 1.328740e+00 9.156029e-01 1.500401e+00 1.083952e+00 6.799201e-01 8.546095e-02 3.043705e-01 1.940294e-01 1.534672e-01 2.176331e-01 4.008861e-01 2.975687e-01 4.517624e-01 2.185048e-01 3.022536e-01 1.602317e-01 9.770159e-02 1.476019e-01
<GCONST> 7.934654e+01
<STATE> 4
<MEAN> 39
 1.624549e+01 -6.571940e+00 1.009773e+01 -9.489151e+00 -1.309987e+01 8.616494e+00 -1.320720e+01 2.665303e+00 4.795396e+00 -5.379020e+00 6.862193e+00 -4.040825e+00 5.947551e+01 -9.844476e-02 -9.805882e-02 -2.997843e-01 1.083179e-02 2.661975e-01 3.131140e-01 2.782387e-01 1.081690e-01 -3.825235e-02 -8.666302e-02 -1.419869e-01 -1.409437e-01 -1.731752e-01 -3.472754e-02 2.220514e-02 -2.213740e-02 8.963151e-03 1.075235e-03 -5.740174e-03 3.053332e-02 -1.224809e-02 -1.951392e-02 -1.592643e-03 -4.253916e-03 6.156714e-03 -6.653018e-02
<VARIANCE> 39
 5.896305e+00 3.084447e+01 5.462682e+01 3.343982e+01 1.701060e+01 2.656511e+01 2.633449e+01 3.380295e+01 2.765386e+01 2.311916e+01 3.150621e+01 1.989491e+01 2.094081e+01 5.694975e-01 1.348223e+00 1.606857e+00 2.318308e+00 1.681806e+00 1.676134e+00 1.614739e+00 1.753161e+00 1.646994e+00 1.551161e+00 1.731550e+00 1.350518e+00 1.216019e+00 9.600227e-02 2.137892e-01 2.562128e-01 3.533771e-01 3.033401e-01 3.533337e-01 3.083891e-01 2.629972e-01 2.468329e-01 2.548549e-01 2.324128e-01 2.323424e-01 1.631270e-01
<GCONST> 9.981783e+01
<TRANSP> 5
 0.000000e+00 1.000000e+00 0.000000e+00 0.000000e+00 0.000000e+00
 0.000000e+00 8.797887e-01 1.202113e-01 0.000000e+00 0.000000e+00
 0.000000e+00 0.000000e+00 0.000000e+00 1.000000e+00 0.000000e+00
 0.000000e+00 0.000000e+00 0.000000e+00 9.734200e-01 2.658002e-02
 0.000000e+00 0.000000e+00 0.000000e+00 0.000000e+00 0.000000e+00
<ENDHMM>
~h "sil"
<BEGINHMM>
<NUMSTATES> 5
<STATE> 2
<MEAN> 39
 1.820866e+00 -8.554973e+00 5.132046e+00 -3.605664e+00 -7.327507e+00 8.638391e+00 -8.006936e+00 1.256485e+00 2.365291e+00 -5.613049e+00 3.200849e+00 -3.173352e+00 4.537991e+01 3.921412e-01 4.776964e-02 1.302959e-01 1.193916e-01 -5.841164e-03 1.707079e-01 6.009603e-02 -5.106913e-02 -2.103861e-02 -1.109819e-01 2.873627e-02 -2.935514e-02 2.689444e-01 -1.780177e-02 1.036172e-01 4.693665e-02 3.148218e-02 -1.083014e-02 -8.067382e-02 -1.787597e-03 3.767245e-02 2.643400e-03 2.470229e-02 -1.210391e-02 -4.908528e-03 -3.765306e-02
<VARIANCE> 39
 1.399933e+02 6.875111e+01 6.936417e+01 4.169704e+01 4.030112e+01 4.688243e+01 4.982245e+01 2.514975e+01 2.885869e+01 3.533679e+01 2.798551e+01 2.029323e+01 1.608882e+02 7.482038e+00 7.093820e+00 5.359219e+00 2.670030e+00 2.867354e+00 4.280677e+00 3.727187e+00 2.012504e+00 1.917086e+00 2.897554e+00 2.348302e+00 1.555531e+00 9.713533e+00 1.168242e+00 1.256561e+00 8.739824e-01 4.562495e-01 5.213927e-01 7.894525e-01 6.974471e-01 4.023366e-01 3.375026e-01 5.521418e-01 4.593967e-01 3.038496e-01 1.634716e+00
<GCONST> 1.324336e+02
<STATE> 3
<MEAN> 39
 -2.221291e+00 -3.192141e+00 4.448268e+00 -2.325743e-01 -5.168324e+00 6.188786e+00 -4.845994e+00 1.371757e+00 1.416839e+00 -4.326172e+00 1.580418e+00 -2.916862e+00 3.852751e+01 -7.304366e-01 3.057154e-01 -4.944101e-02 2.933309e-01 2.353995e-01 -3.276084e-01 2.161808e-01 2.269440e-02 -4.254410e-02 2.858512e-01 -5.118018e-02 7.988549e-02 -6.993403e-01 1.935239e-01 -2.717735e-01 1.408021e-01 -8.975121e-02 -9.351038e-02 1.912950e-01 -2.167790e-01 3.679629e-02 1.076687e-01 -1.509500e-01 6.488554e-02 -1.981397e-02 3.152037e-01
<VARIANCE> 39
 5.238165e+01 2.087358e+01 3.647300e+01 1.924801e+01 1.805910e+01 2.432414e+01 2.485394e+01 2.136846e+01 2.100513e+01 2.150588e+01 1.783743e+01 1.671670e+01 3.822540e+01 5.747175e-01 1.607906e+00 1.639618e+00 1.310607e+00 1.423977e+00 1.779016e+00 1.764946e+00 1.904026e+00 1.813504e+00 1.796758e+00 1.593450e+00 1.198749e+00 2.870503e-01 1.063612e-01 2.833132e-01 3.079457e-01 2.391527e-01 2.562093e-01 3.131063e-01 2.946063e-01 3.216189e-01 3.009450e-01 3.891946e-01 3.049798e-01 2.627436e-01 1.234841e-01
<GCONST> 9.870020e+01
<STATE> 4
<MEAN> 39
 -4.191316e+00 -2.372983e+00 6.563976e+00 9.862329e-01 -4.507442e+00 6.076494e+00 -4.832560e+00 2.122776e+00 1.429512e+00 -4.095441e+00 2.520376e+00 -2.622582e+00 3.716338e+01 -4.856442e-02 6.738178e-03 1.700546e-02 9.072918e-03 3.305585e-03 -1.690280e-02 -3.982505e-04 8.443359e-03 2.387896e-03 1.415779e-02 1.220406e-02 9.245301e-03 -3.527908e-02 1.103973e-02 -5.592949e-03 -1.771026e-03 -5.200421e-03 -4.673410e-03 4.747308e-03 -2.543977e-03 -7.042372e-04 2.279276e-03 -2.955814e-03 2.251097e-03 -5.764979e-04 1.028632e-02
<VARIANCE> 39
 6.681163e+00 9.924351e+00 1.253595e+01 1.239642e+01 1.224568e+01 1.350741e+01 1.398483e+01 1.548408e+01 1.488306e+01 1.593664e+01 1.364607e+01 1.221428e+01 2.950282e+00 2.310749e-01 4.460273e-01 6.039916e-01 7.754389e-01 9.797900e-01 1.150545e+00 1.255240e+00 1.392580e+00 1.439412e+00 1.471902e+00 1.379095e+00 1.242753e+00 6.806702e-02 4.532477e-02 9.159113e-02 1.208529e-01 1.564611e-01 2.011483e-01 2.362321e-01 2.569697e-01 2.871578e-01 2.975525e-01 3.014565e-01 2.916674e-01 2.591426e-01 1.398469e-02
<GCONST> 7.495097e+01
<TRANSP> 5
 0.000000e+00 1.000000e+00 0.000000e+00 0.000000e+00 0.000000e+00
 0.000000e+00 8.081779e-01 1.918221e-01 0.000000e+00 0.000000e+00
 0.000000e+00 0.000000e+00 0.000000e+00 1.000000e+00 0.000000e+00
 0.000000e+00 0.000000e+00 0.000000e+00 9.842898e-01 1.571017e-02
 0.000000e+00 0.000000e+00 0.000000e+00 0.000000e+00 0.000000e+00
<ENDHMM>
