~o
<STREAMINFO> 1 39
<VECSIZE> 39<NULLD><MFCC_D_A_0><DIAGC>
~h "#N"
<BEGINHMM>
<NUMSTATES> 5
<STATE> 2
<MEAN> 39
 -2.025055e+01 6.356568e-01 -2.476067e+00 -1.303842e+00 -6.655331e-01 -3.871240e+00 2.170864e+00 -9.235161e-01 -1.567665e+00 1.560390e+00 -2.107539e+00 1.652846e+00 4.390321e+01 -5.702154e-02 -1.007611e-01 6.563445e-01 -3.039523e-01 3.836135e-01 -5.139122e-02 -2.070356e-01 4.954819e-01 -3.349034e-01 -2.759564e-01 2.222438e-01 -3.741234e-01 -5.720114e-02 8.008266e-02 9.239208e-03 -3.764676e-02 7.550628e-02 2.302164e-01 4.988056e-01 -3.272320e-01 2.602538e-01 8.186882e-02 -1.407146e-01 2.378602e-01 -1.885439e-02 -2.141258e-01
<VARIANCE> 39
 8.447239e+00 4.688873e+00 1.243845e+01 2.618765e+00 1.308370e+01 2.912619e+01 3.064557e+01 2.493269e+01 2.226510e+01 4.433965e+01 1.991452e+01 1.401199e+01 1.131977e+01 5.927265e-01 8.605821e-01 1.521201e+00 3.826343e-01 2.767073e+00 4.732629e+00 1.469608e+00 2.568213e+00 2.289488e+00 3.125168e+00 1.177606e+00 1.154085e+00 8.805201e-01 8.491662e-02 1.588240e-01 5.206138e-01 1.126047e-01 4.407775e-01 5.665693e-01 3.784302e-01 3.570894e-01 4.993563e-01 1.034153e+00 1.343904e-01 2.407151e-01 3.414631e-01
<GCONST> 9.550967e+01
<STATE> 3
<MEAN> 39
 -2.088343e+01 1.779304e+00 -3.664248e-01 -4.890924e+00 1.277360e+00 -3.693607e+00 -3.123457e+00 -6.250157e-02 -2.798947e+00 7.668169e-01 -1.567287e+00 -2.889282e-02 4.422669e+01 9.064169e-02 2.363159e-01 -9.793657e-02 -9.882779e-02 1.618797e-01 1.326295e-01 6.884422e-03 2.065067e-01 -2.083328e-01 9.733478e-02 4.399100e-02 -2.136430e-02 1.282831e-01 1.501435e-01 -4.671724e-02 -6.288722e-02 5.838397e-02 -1.136083e-01 -6.465094e-03 7.896568e-02 -1.558450e-01 -1.262686e-01 -1.849684e-01 -1.088289e-01 1.042347e-01 4.470299e-02
<VARIANCE> 39
 6.829732e+00 6.744306e+00 1.050591e+01 2.625478e+01 1.806445e+01 2.190143e+01 2.431421e+01 1.424626e+01 2.005894e+01 2.025527e+01 9.120720e+00 1.235503e+01 6.465859e+00 8.229808e-01 3.681938e-01 5.768777e-01 1.060153e+00 1.166860e+00 9.979677e-01 7.695647e-01 9.511642e-01 8.227392e-01 2.941299e+00 6.779130e-01 1.181578e+00 6.172759e-01 2.222071e-01 1.276397e-01 2.566204e-01 2.252890e-01 3.378445e-01 3.531764e-01 9.520768e-02 1.748698e-01 1.567309e-01 4.683939e-01 1.390036e-01 2.821469e-01 1.791852e-01
<GCONST> 8.368311e+01
<STATE> 4
<MEAN> 39
 -1.690792e+01 1.506106e+00 -2.190135e+00 -1.316828e+00 1.399172e+00 -2.373678e+00 -9.164287e-01 8.442535e-01 -4.560871e+00 -1.493940e+00 -2.729900e+00 1.512923e+00 4.444701e+01 1.142788e+00 -2.430133e-01 -3.318768e-01 5.373437e-01 -3.486043e-01 -6.427017e-01 -6.348387e-02 -2.268656e-01 -4.350662e-01 -5.804352e-01 -2.159208e-01 8.153811e-01 1.932538e-01 -9.407814e-02 6.688069e-03 2.628034e-01 1.197524e-01 5.421148e-02 -1.216586e-01 7.856963e-02 7.873409e-02 3.148193e-01 4.294226e-01 3.082080e-01 6.689341e-02 -3.971061e-02
<VARIANCE> 39
 1.342753e+01 1.017193e+01 2.249199e+01 2.535914e+01 1.502822e+01 1.438479e+01 3.827840e+01 2.579770e+01 1.287772e+01 2.207154e+01 9.322536e+00 1.845828e+01 9.824900e+00 1.428988e+00 1.291543e+00 2.308141e+00 3.169722e+00 1.143167e+00 3.117690e+00 1.986346e+00 1.690060e+00 1.334495e+00 2.246485e+00 1.020874e+00 1.544531e+00 2.446715e+00 1.632751e-01 1.033663e-01 2.189319e-01 3.200813e-01 4.062006e-01 4.405224e-01 5.004189e-01 3.205580e-01 2.368850e-01 2.010806e-01 1.460719e-01 2.743263e-01 3.263755e-01
<GCONST> 9.815555e+01
<TRANSP> 5
 0.000000e+00 1.000000e+00 0.000000e+00 0.000000e+00 0.000000e+00
 0.000000e+00 7.222222e-01 2.777778e-01 0.000000e+00 0.000000e+00
 0.000000e+00 0.000000e+00 8.437500e-01 1.562500e-01 0.000000e+00
 0.000000e+00 0.000000e+00 0.000000e+00 7.058824e-01 2.941177e-01
 0.000000e+00 0.000000e+00 0.000000e+00 0.000000e+00 0.000000e+00
<ENDHMM>
