~o
<STREAMINFO> 1 39
<VECSIZE> 39<NULLD><MFCC_D_A_0><DIAGC>
~h "ai"
<BEGINHMM>
<NUMSTATES> 5
<STATE> 2
<MEAN> 39
 -5.994219e+00 -7.808641e+00 -6.868248e+00 -7.666857e+00 2.089113e+00 -7.820847e+00 -8.673288e-01 2.154530e-01 -3.191769e+00 -9.435984e+00 -7.141200e+00 -1.372386e+01 7.428089e+01 1.196505e-01 -1.227533e-01 1.175119e-01 -4.150795e-01 -5.397835e-01 -6.156894e-01 2.240976e-02 3.990883e-01 2.188719e-01 2.520670e-01 -1.557774e-02 5.687679e-01 9.274834e-01 -2.494881e-01 1.816689e-01 1.658390e-01 2.580525e-01 -1.112961e-01 -9.674899e-02 2.923095e-01 6.504530e-03 3.778736e-02 1.456199e-01 -3.436301e-02 4.603719e-01 -4.780375e-01
<VARIANCE> 39
 1.237817e+01 8.077641e+00 1.061421e+01 1.124174e+01 2.540730e+01 3.984382e+01 7.500207e+00 9.145614e+00 4.240463e+01 5.503761e+00 8.458677e+00 2.595202e+01 4.465062e+00 6.035794e-01 2.150314e+00 1.172211e+00 1.728113e+00 1.189933e+00 4.774215e-01 1.291076e+00 3.571786e-01 6.830770e-01 1.104760e+00 1.095204e+00 4.577956e+00 3.020107e+00 1.401350e-01 2.598122e-01 1.211885e-01 1.743107e-01 2.348445e-01 7.799980e-02 2.422014e-01 9.125642e-02 3.409656e-01 6.439626e-01 1.931382e-01 5.270036e-01 1.717999e-01
<GCONST> 8.607120e+01
<STATE> 3
<MEAN> 39
 -6.196521e+00 1.132318e+00 2.892997e+00 -4.156075e+00 -1.106627e+01 -1.419412e+01 3.344150e+00 6.155716e-01 -8.500166e+00 -8.492995e-01 -4.142321e+00 1.574776e+00 6.897842e+01 -1.037035e-01 1.328739e+00 1.199522e+00 3.171454e-01 -9.917666e-01 3.184205e-01 -2.131562e-01 -5.471421e-01 -1.131086e+00 1.347149e+00 3.878507e-01 1.008413e+00 -1.075109e+00 -4.611809e-02 1.325825e-01 -9.153915e-02 1.202525e-02 2.551123e-01 3.189849e-01 -1.654435e-01 -2.405898e-01 9.760250e-02 -1.808153e-02 -1.290654e-01 -1.516894e-01 -1.214931e-01
<VARIANCE> 39
 1.753221e+01 1.867365e+01 2.856528e+01 3.927316e+00 4.396042e+01 3.618494e+01 6.328447e+00 6.554467e+00 3.745040e+01 2.434590e+01 1.067742e+01 3.614265e+01 1.707245e+01 2.237187e-01 5.938516e-01 1.404299e+00 6.625386e-01 3.173405e+00 1.340238e+00 1.382504e+00 2.384707e+00 5.294981e-01 2.103759e+00 1.125727e+00 1.920967e+00 1.352844e-01 4.114073e-02 9.564588e-02 1.237903e-01 1.144952e-01 1.963733e-01 1.156676e-01 2.128018e-01 3.867529e-01 2.176604e-01 1.669910e-01 1.531327e-01 3.318551e-01 1.256601e-02
<GCONST> 8.157561e+01
<STATE> 4
<MEAN> 39
 -1.356471e+01 1.162650e+01 5.970131e+00 4.262074e-02 -3.929270e+00 -3.515425e-01 1.193091e+00 -8.523635e+00 -9.092448e+00 3.051655e+00 -6.489377e+00 7.585876e-01 5.695110e+01 -1.303865e+00 -3.049559e-01 -1.419531e+00 2.623189e-01 8.882679e-01 8.080653e-01 5.378098e-01 -4.333399e-01 1.089036e+00 -6.951987e-01 4.198139e-01 -5.805420e-01 -8.169910e-01 -3.513675e-02 -3.652796e-01 -1.540448e-01 -1.308513e-01 -1.412881e-01 -3.719728e-01 -6.016011e-02 3.487971e-01 -1.108401e-01 -2.469173e-02 2.657387e-01 2.592678e-02 2.501702e-01
<VARIANCE> 39
 3.735537e+01 1.815165e+01 5.918262e+01 5.443812e+00 3.398108e+01 2.857773e+01 1.954570e+01 1.320355e+01 3.156242e+01 5.321265e+01 2.065062e+01 2.961127e+01 6.286813e+01 1.233530e+00 3.676614e+00 2.837741e+00 1.316132e+00 3.339230e+00 4.449896e+00 1.862546e+00 2.508922e+00 2.426817e+00 3.954767e+00 4.302750e+00 4.463744e+00 2.540768e+00 3.455774e-01 4.798948e-01 6.982927e-01 1.989020e-01 6.174236e-01 3.612681e-01 5.559158e-01 2.577355e-01 4.225121e-01 8.940512e-01 7.460965e-01 8.108609e-01 1.669468e-01
<GCONST> 1.171254e+02
<TRANSP> 5
 0.000000e+00 1.000000e+00 0.000000e+00 0.000000e+00 0.000000e+00
 0.000000e+00 9.000000e-01 9.999999e-02 0.000000e+00 0.000000e+00
 0.000000e+00 0.000000e+00 9.047619e-01 9.523809e-02 0.000000e+00
 0.000000e+00 0.000000e+00 0.000000e+00 8.823529e-01 1.176471e-01
 0.000000e+00 0.000000e+00 0.000000e+00 0.000000e+00 0.000000e+00
<ENDHMM>
