~o
<STREAMINFO> 1 39
<VECSIZE> 39<NULLD><MFCC_D_A_0><DIAGC>
~h "b"
<BEGINHMM>
<NUMSTATES> 5
<STATE> 2
<MEAN> 39
 4.800888e-01 8.372205e+00 2.448567e+00 -5.903791e-01 -4.146410e+00 -2.636869e+00 -6.390338e+00 -1.188762e+01 -1.277894e+01 -2.289151e-01 -3.264707e+00 -7.398569e+00 6.050258e+01 -1.640729e-01 2.608964e+00 1.442241e+00 1.419418e+00 1.080720e+00 1.089579e+00 8.275268e-01 -1.597156e-01 -1.430047e+00 -1.128514e+00 3.035740e-01 1.044789e-01 -2.400195e+00 -4.169515e-01 -8.943746e-01 -4.962229e-01 -5.284623e-01 -3.777978e-01 -5.948689e-01 -3.149135e-01 3.256552e-01 1.047614e+00 1.718992e-01 -2.747026e-01 1.754857e-01 1.166771e+00
<VARIANCE> 39
 3.618347e+00 1.822294e+01 9.716584e+00 2.180940e+01 2.733111e+01 2.962058e+01 3.495673e+01 4.557868e+01 3.020719e+01 4.370670e+01 4.325858e+01 2.175358e+01 7.956252e+01 9.576465e-01 2.432507e+00 2.904626e+00 3.097506e+00 2.597051e+00 2.251935e+00 3.242226e+00 5.834531e+00 4.620691e+00 4.700126e+00 3.022693e+00 3.944562e+00 2.941362e+00 1.632657e-01 5.155641e-01 6.336573e-01 5.585132e-01 5.375195e-01 4.566822e-01 7.964530e-01 5.223296e-01 9.371912e-01 8.628252e-01 6.420867e-01 5.282778e-01 4.772299e-01
<GCONST> 1.202570e+02
<STATE> 3
<MEAN> 39
 2.249137e-01 1.137754e+01 3.000592e+00 -2.160255e-01 -2.594834e+00 -2.161585e+00 -4.998333e+00 -9.293785e+00 -1.160346e+01 -3.398774e+00 -2.706265e+00 -6.623965e+00 5.455985e+01 -9.712555e-01 -1.540005e+00 -8.501249e-01 -4.806194e-01 3.091050e-01 -7.411863e-01 -7.131291e-01 1.169845e-01 1.044848e+00 2.635791e-01 3.224016e-01 8.752475e-01 2.142613e+00 -2.195852e-01 -1.291564e+00 -6.831512e-01 -4.616390e-01 -3.185491e-01 -7.259656e-01 -7.220154e-01 -5.406575e-02 6.391304e-01 7.603850e-01 9.961145e-02 2.376104e-01 1.408259e+00
<VARIANCE> 39
 4.707561e+00 5.974820e+00 4.742275e+00 1.286867e+01 2.379458e+01 4.009853e+01 2.875365e+01 3.031071e+01 4.389938e+01 2.299882e+01 2.611999e+01 2.712675e+01 4.030621e+01 1.194251e+00 2.370396e+00 2.025918e+00 2.069000e+00 2.437821e+00 2.571569e+00 2.666033e+00 2.908453e+00 3.309538e+00 3.882080e+00 1.779383e+00 1.393945e+00 3.406301e+00 2.704358e-01 2.394479e-01 4.874095e-01 4.767393e-01 7.480600e-01 3.381511e-01 8.199034e-01 9.295529e-01 6.921526e-01 6.180300e-01 4.070944e-01 5.733979e-01 1.948784e-01
<GCONST> 1.111959e+02
<STATE> 4
<MEAN> 39
 -4.968354e+00 7.957605e-01 -2.123305e+00 -4.339149e+00 -2.991560e+00 -7.122487e+00 -1.005259e+01 -8.829472e+00 -6.308518e+00 6.289665e-01 -1.642466e+00 -3.998307e+00 7.116669e+01 -5.420703e-01 -2.860088e+00 -8.435642e-01 -1.523780e+00 -1.310695e+00 -2.158705e+00 -2.168468e+00 5.705478e-01 2.100303e+00 1.826371e+00 -1.893045e-01 1.231256e-01 3.875500e+00 3.668956e-01 5.000240e-01 4.226391e-01 1.484428e-01 -2.935716e-01 1.026197e-01 3.146752e-01 -4.030827e-02 -2.532451e-01 5.318143e-02 -3.911776e-01 -3.164584e-01 -7.043490e-01
<VARIANCE> 39
 2.125068e+01 1.141539e+01 3.422809e+01 1.949319e+01 4.138951e+01 4.793372e+01 4.702175e+01 2.941942e+01 3.882311e+01 5.482171e+01 1.990905e+01 1.672349e+01 9.857225e+01 8.799354e-01 3.439730e+00 5.165675e+00 2.750979e+00 5.732390e+00 2.564654e+00 1.053785e+01 7.419629e+00 6.137195e+00 6.287373e+00 3.649092e+00 4.020979e+00 2.468302e+00 2.706855e-01 3.762350e-01 5.354682e-01 6.291702e-01 1.023096e+00 5.336581e-01 1.123540e+00 1.180434e+00 6.341391e-01 1.385348e+00 5.423544e-01 2.547883e-01 5.507879e-01
<GCONST> 1.282094e+02
<TRANSP> 5
 0.000000e+00 1.000000e+00 0.000000e+00 0.000000e+00 0.000000e+00
 0.000000e+00 6.470588e-01 3.529412e-01 0.000000e+00 0.000000e+00
 0.000000e+00 0.000000e+00 6.470588e-01 3.529412e-01 0.000000e+00
 0.000000e+00 0.000000e+00 0.000000e+00 5.862069e-01 4.137931e-01
 0.000000e+00 0.000000e+00 0.000000e+00 0.000000e+00 0.000000e+00
<ENDHMM>
