~o
<STREAMINFO> 1 39
<VECSIZE> 39<NULLD><MFCC_D_A_0><DIAGC>
~h "c"
<BEGINHMM>
<NUMSTATES> 5
<STATE> 2
<MEAN> 39
 -1.140988e+01 5.545418e+00 3.100466e+00 -1.830158e+00 -1.676058e-01 -3.346663e+00 -2.104586e+00 -7.645377e+00 -8.981307e+00 -5.915210e+00 -6.000322e+00 -7.389645e+00 5.710450e+01 -2.318710e+00 -1.808207e+00 -2.042215e+00 -5.741717e-01 2.632107e-01 1.089082e+00 1.634751e+00 2.828699e-01 -4.345886e-01 7.139484e-02 -9.416628e-02 8.716126e-01 -1.041024e+00 -3.838477e-01 6.535760e-02 -4.023651e-01 -6.220915e-01 -4.770909e-01 -3.293386e-01 -4.267518e-01 -4.495742e-02 6.391411e-01 4.507208e-01 3.605946e-01 9.424508e-01 1.115199e+00
<VARIANCE> 39
 3.361154e+01 3.197806e+01 5.073421e+01 7.357690e+00 2.222861e+01 4.211387e+01 2.621322e+01 9.776269e+00 7.173066e+01 1.220342e+01 4.342384e+01 1.501036e+01 9.082626e+01 2.797578e+00 2.307168e+00 3.390420e+00 5.036005e+00 2.997559e+00 4.371309e+00 2.545284e+00 1.098765e+00 8.461723e+00 3.380599e+00 6.594903e+00 4.733060e+00 7.063917e+00 7.564926e-01 1.091303e+00 9.544674e-01 3.951972e-01 5.029629e-01 1.211008e+00 1.141995e-01 1.753664e-01 2.073722e+00 6.160661e-01 5.219167e-01 4.494908e-01 1.073254e+00
<GCONST> 1.250765e+02
<STATE> 3
<MEAN> 39
 -2.440222e+01 2.883055e+00 -4.901476e+00 -1.018187e+01 -7.617812e-01 -3.951504e+00 2.483484e-01 -6.329114e+00 -3.525739e+00 -1.983691e-01 -1.189257e+00 4.125115e-01 6.500195e+01 -3.204545e+00 1.006376e+00 -2.736364e-01 -2.117751e+00 -1.259692e+00 -1.341704e+00 -2.582494e-01 -1.942325e-01 8.689884e-01 1.363673e+00 1.327133e+00 1.277212e+00 3.997334e+00 1.716300e+00 1.825951e-01 1.261267e+00 6.417246e-01 -8.919839e-01 -6.748901e-01 -8.008588e-01 -7.235537e-02 -5.309097e-01 -3.227052e-01 -5.585957e-01 -5.358245e-01 2.027174e-01
<VARIANCE> 39
 2.914030e+01 1.397630e+01 2.602216e+01 3.345570e+01 6.757295e+00 1.178514e+01 1.135218e+01 1.786691e+01 1.416396e+01 5.921972e+00 2.056466e+01 6.022635e+00 2.797789e+01 5.206259e+00 2.322446e+00 5.748410e+00 1.898773e+00 7.842135e-01 3.092779e+00 2.024554e+00 9.757290e-01 1.135867e+01 1.556668e+00 3.849938e+00 1.302163e+00 2.694622e+00 2.035295e+00 1.064102e+00 6.527394e-01 9.101127e-01 7.188044e-02 9.873570e-01 4.438463e-01 3.469223e-01 1.073837e+00 2.419169e-01 8.818564e-01 1.000500e-01 1.592318e+00
<GCONST> 1.110759e+02
<STATE> 4
<MEAN> 39
 -2.131008e+01 6.457700e+00 1.202899e+00 -9.359636e+00 -6.209283e+00 -1.007871e+01 -4.669628e+00 -5.816952e+00 -4.504214e+00 -4.840729e-01 -2.208048e+00 7.787423e-01 7.099286e+01 5.238276e+00 -1.477245e+00 2.680241e+00 -7.871039e-02 -4.520441e+00 -3.051953e+00 -3.622547e+00 9.208207e-01 -7.034012e-01 7.733897e-01 -1.647864e+00 2.742910e-02 1.837553e+00 1.134204e+00 -9.764982e-01 7.540060e-02 -9.363551e-02 -5.438434e-01 8.347541e-02 -2.591881e-01 7.154688e-01 9.436344e-02 4.776817e-01 -6.083013e-01 -2.739003e-01 -6.080022e-01
<VARIANCE> 39
 8.569345e+01 2.528887e+01 1.398219e+01 4.653021e+00 3.662825e+01 3.785867e+01 2.857664e+01 2.337705e+01 3.558253e+01 1.159905e+01 9.603609e+00 5.718676e+00 4.414284e+01 6.866910e+00 5.593109e+00 3.894665e-01 2.632114e+00 3.891686e+00 2.583871e+00 4.639931e+00 8.233586e+00 2.414875e+00 1.233475e+00 2.041549e+00 3.213284e+00 8.524609e-01 2.558671e+00 5.390887e-01 4.978820e-01 4.164600e-01 6.909390e-01 7.097507e-01 1.343440e+00 4.744425e-01 1.325241e+00 1.724222e-01 4.335211e-01 5.017031e-01 1.024176e-01
<GCONST> 1.158306e+02
<TRANSP> 5
 0.000000e+00 1.000000e+00 0.000000e+00 0.000000e+00 0.000000e+00
 0.000000e+00 7.272727e-01 2.727273e-01 0.000000e+00 0.000000e+00
 0.000000e+00 0.000000e+00 6.250000e-01 3.750000e-01 0.000000e+00
 0.000000e+00 0.000000e+00 0.000000e+00 6.250000e-01 3.750000e-01
 0.000000e+00 0.000000e+00 0.000000e+00 0.000000e+00 0.000000e+00
<ENDHMM>
