~o
<STREAMINFO> 1 39
<VECSIZE> 39<NULLD><MFCC_D_A_0><DIAGC>
~h "d"
<BEGINHMM>
<NUMSTATES> 5
<STATE> 2
<MEAN> 39
 -2.699865e+00 4.305910e+00 4.064444e+00 5.338269e-02 -4.010223e+00 -7.739488e+00 -1.265138e+01 -5.655602e+00 -5.452035e+00 -6.518280e+00 -1.225888e+01 -5.660820e+00 5.900124e+01 1.298562e+00 2.994116e+00 1.583318e+00 2.505809e+00 1.629979e+00 4.100234e-01 1.392431e-01 -3.259753e-01 -4.242174e-01 -1.614823e+00 -1.566171e+00 -1.456629e+00 -2.094336e+00 -7.136275e-01 -4.245996e-01 -5.821617e-01 -6.477892e-01 -1.342829e-01 -7.378206e-02 6.496047e-01 6.633265e-01 5.498803e-01 7.993752e-01 9.181723e-01 9.672663e-02 9.675925e-01
<VARIANCE> 39
 1.879477e+01 4.003925e+01 2.507949e+01 6.831596e+01 1.776285e+01 5.355585e+01 1.801888e+01 5.224273e+01 3.460059e+01 4.862844e+01 7.346078e+01 3.288232e+01 6.515875e+01 1.355142e+00 3.638845e+00 2.527272e+00 6.937858e+00 3.998241e+00 4.580205e+00 3.387945e+00 1.061773e+01 3.906891e+00 7.404869e+00 3.463269e+00 2.441391e+00 6.274440e+00 5.488113e-01 1.168943e+00 2.398724e-01 1.267755e+00 5.179982e-01 9.614249e-01 5.379065e-01 2.667526e+00 2.458951e-01 8.839242e-01 1.055404e+00 9.461543e-01 9.424047e-01
<GCONST> 1.335755e+02
<STATE> 3
<MEAN> 39
 -2.147194e+00 8.575429e+00 4.316084e+00 2.568920e+00 -3.140887e+00 -7.876554e+00 -9.038246e+00 -4.762164e+00 -2.324211e+00 -6.958203e+00 -1.360973e+01 -8.820450e+00 5.691774e+01 -2.018516e+00 -7.613761e-01 2.105578e-01 -1.087411e+00 -9.050415e-01 -5.425867e-01 3.826201e-01 4.890475e-02 5.820438e-01 8.147210e-01 1.730380e+00 6.701688e-01 3.082360e+00 -5.886103e-01 -1.500195e+00 -7.027640e-01 -1.257820e+00 -1.493510e+00 -8.820082e-01 -4.818677e-01 -1.925273e-01 2.207562e-02 6.315420e-01 8.111342e-01 8.595781e-01 2.049231e+00
<VARIANCE> 39
 1.340460e+01 1.216357e+01 1.116975e+01 2.371369e+01 2.437282e+01 1.778299e+01 1.090662e+01 1.119241e+01 3.088251e+01 4.466460e+01 2.180200e+01 2.822372e+01 7.354354e+01 2.990055e+00 4.607135e+00 2.402733e+00 4.467329e+00 4.222001e+00 5.817650e+00 3.225958e+00 6.029758e+00 5.589479e-01 2.983519e+00 5.037957e+00 2.867374e+00 5.691288e+00 5.273314e-01 1.127702e+00 9.366282e-01 1.668000e+00 4.553545e-01 4.161716e-01 8.039451e-01 2.649309e+00 6.212571e-01 1.048355e+00 6.734127e-01 3.556995e-01 5.664662e-01
<GCONST> 1.238554e+02
<STATE> 4
<MEAN> 39
 -1.017983e+01 2.455228e+00 4.491319e+00 -4.197098e+00 -9.543736e+00 -9.890686e+00 -1.335457e+01 -6.509039e+00 -2.827730e+00 -4.057697e+00 -4.582937e+00 -4.024058e+00 7.439433e+01 -1.110000e+00 -2.411786e+00 -8.740796e-01 -3.276793e+00 -3.926062e+00 -2.546377e+00 -1.129614e+00 5.248642e-01 2.698361e-02 1.789901e+00 1.029891e+00 1.236161e+00 5.131387e+00 8.238319e-01 -9.482229e-04 -2.063933e-01 -1.235122e-01 -1.022213e-01 -4.152189e-01 4.224665e-01 4.708716e-01 -5.596883e-02 6.800050e-02 -8.570363e-01 -2.231460e-01 -7.039546e-01
<VARIANCE> 39
 2.530733e+01 1.928682e+01 3.151859e+01 2.657639e+01 8.442724e+01 4.815358e+01 2.743408e+01 7.049847e+01 5.937357e+01 1.873680e+01 3.104897e+01 3.823594e+01 1.372690e+02 2.922265e+00 7.155303e+00 4.859992e+00 5.562897e+00 1.475645e+00 2.206762e+00 3.509962e+00 1.287246e+01 2.882698e+00 5.068039e+00 6.671728e+00 1.124585e+00 3.254974e+00 3.053722e-01 6.633002e-01 3.705231e-01 6.611216e-01 1.508365e+00 7.963634e-01 5.327836e-01 9.408112e-01 5.700647e-01 5.595647e-01 1.789374e+00 3.492844e-01 6.934348e-01
<GCONST> 1.312080e+02
<TRANSP> 5
 0.000000e+00 1.000000e+00 0.000000e+00 0.000000e+00 0.000000e+00
 0.000000e+00 6.000000e-01 4.000000e-01 0.000000e+00 0.000000e+00
 0.000000e+00 0.000000e+00 5.714286e-01 4.285714e-01 0.000000e+00
 0.000000e+00 0.000000e+00 0.000000e+00 5.000000e-01 5.000000e-01
 0.000000e+00 0.000000e+00 0.000000e+00 0.000000e+00 0.000000e+00
<ENDHMM>
