~o
<STREAMINFO> 1 39
<VECSIZE> 39<NULLD><MFCC_D_A_0><DIAGC>
~h "#N"
<BEGINHMM>
<NUMSTATES> 5
<STATE> 2
<MEAN> 39
 -2.025055e+01 6.356568e-01 -2.476067e+00 -1.303842e+00 -6.655331e-01 -3.871240e+00 2.170864e+00 -9.235161e-01 -1.567665e+00 1.560390e+00 -2.107539e+00 1.652846e+00 4.390321e+01 -5.702154e-02 -1.007611e-01 6.563445e-01 -3.039523e-01 3.836135e-01 -5.139122e-02 -2.070356e-01 4.954819e-01 -3.349034e-01 -2.759564e-01 2.222438e-01 -3.741234e-01 -5.720114e-02 8.008266e-02 9.239208e-03 -3.764676e-02 7.550628e-02 2.302164e-01 4.988056e-01 -3.272320e-01 2.602538e-01 8.186882e-02 -1.407146e-01 2.378602e-01 -1.885439e-02 -2.141258e-01
<VARIANCE> 39
 8.447239e+00 4.688873e+00 1.243845e+01 2.618765e+00 1.308370e+01 2.912619e+01 3.064557e+01 2.493269e+01 2.226510e+01 4.433965e+01 1.991452e+01 1.401199e+01 1.131977e+01 5.927265e-01 8.605821e-01 1.521201e+00 3.826343e-01 2.767073e+00 4.732629e+00 1.469608e+00 2.568213e+00 2.289488e+00 3.125168e+00 1.177606e+00 1.154085e+00 8.805201e-01 8.491662e-02 1.588240e-01 5.206138e-01 1.126047e-01 4.407775e-01 5.665693e-01 3.784302e-01 3.570894e-01 4.993563e-01 1.034153e+00 1.343904e-01 2.407151e-01 3.414631e-01
<GCONST> 9.550967e+01
<STATE> 3
<MEAN> 39
 -2.088343e+01 1.779304e+00 -3.664248e-01 -4.890924e+00 1.277360e+00 -3.693607e+00 -3.123457e+00 -6.250157e-02 -2.798947e+00 7.668169e-01 -1.567287e+00 -2.889282e-02 4.422669e+01 9.064169e-02 2.363159e-01 -9.793657e-02 -9.882779e-02 1.618797e-01 1.326295e-01 6.884422e-03 2.065067e-01 -2.083328e-01 9.733478e-02 4.399100e-02 -2.136430e-02 1.282831e-01 1.501435e-01 -4.671724e-02 -6.288722e-02 5.838397e-02 -1.136083e-01 -6.465094e-03 7.896568e-02 -1.558450e-01 -1.262686e-01 -1.849684e-01 -1.088289e-01 1.042347e-01 4.470299e-02
<VARIANCE> 39
 6.829732e+00 6.744306e+00 1.050591e+01 2.625478e+01 1.806445e+01 2.190143e+01 2.431421e+01 1.424626e+01 2.005894e+01 2.025527e+01 9.120720e+00 1.235503e+01 6.465859e+00 8.229808e-01 3.681938e-01 5.768777e-01 1.060153e+00 1.166860e+00 9.979677e-01 7.695647e-01 9.511642e-01 8.227392e-01 2.941299e+00 6.779130e-01 1.181578e+00 6.172759e-01 2.222071e-01 1.276397e-01 2.566204e-01 2.252890e-01 3.378445e-01 3.531764e-01 9.520768e-02 1.748698e-01 1.567309e-01 4.683939e-01 1.390036e-01 2.821469e-01 1.791852e-01
<GCONST> 8.368311e+01
<STATE> 4
<MEAN> 39
 -1.690792e+01 1.506106e+00 -2.190135e+00 -1.316828e+00 1.399172e+00 -2.373678e+00 -9.164287e-01 8.442535e-01 -4.560871e+00 -1.493940e+00 -2.729900e+00 1.512923e+00 4.444701e+01 1.142788e+00 -2.430133e-01 -3.318768e-01 5.373437e-01 -3.486043e-01 -6.427017e-01 -6.348387e-02 -2.268656e-01 -4.350662e-01 -5.804352e-01 -2.159208e-01 8.153811e-01 1.932538e-01 -9.407814e-02 6.688069e-03 2.628034e-01 1.197524e-01 5.421148e-02 -1.216586e-01 7.856963e-02 7.873409e-02 3.148193e-01 4.294226e-01 3.082080e-01 6.689341e-02 -3.971061e-02
<VARIANCE> 39
 1.342753e+01 1.017193e+01 2.249199e+01 2.535914e+01 1.502822e+01 1.438479e+01 3.827840e+01 2.579770e+01 1.287772e+01 2.207154e+01 9.322536e+00 1.845828e+01 9.824900e+00 1.428988e+00 1.291543e+00 2.308141e+00 3.169722e+00 1.143167e+00 3.117690e+00 1.986346e+00 1.690060e+00 1.334495e+00 2.246485e+00 1.020874e+00 1.544531e+00 2.446715e+00 1.632751e-01 1.033663e-01 2.189319e-01 3.200813e-01 4.062006e-01 4.405224e-01 5.004189e-01 3.205580e-01 2.368850e-01 2.010806e-01 1.460719e-01 2.743263e-01 3.263755e-01
<GCONST> 9.815555e+01
<TRANSP> 5
 0.000000e+00 1.000000e+00 0.000000e+00 0.000000e+00 0.000000e+00
 0.000000e+00 7.222222e-01 2.777778e-01 0.000000e+00 0.000000e+00
 0.000000e+00 0.000000e+00 8.437500e-01 1.562500e-01 0.000000e+00
 0.000000e+00 0.000000e+00 0.000000e+00 7.058824e-01 2.941177e-01
 0.000000e+00 0.000000e+00 0.000000e+00 0.000000e+00 0.000000e+00
<ENDHMM>
~o
<STREAMINFO> 1 39
<VECSIZE> 39<NULLD><MFCC_D_A_0><DIAGC>
~h "a"
<BEGINHMM>
<NUMSTATES> 5
<STATE> 2
<MEAN> 39
 -4.403593e+00 -5.494158e+00 -7.053422e+00 -1.124348e+01 -4.403202e+00 -7.961144e+00 -6.026281e+00 -8.207694e-01 -3.954767e+00 3.554957e+00 -6.399512e+00 -8.971275e+00 7.288943e+01 6.009030e-01 -1.896618e+00 -1.200471e+00 -1.236881e+00 3.819356e-01 -7.975196e-01 7.414137e-01 2.055042e+00 1.658010e-01 -6.544165e-02 -1.466906e+00 -1.573348e+00 2.254488e+00 -2.559654e-01 3.986014e-01 3.900371e-01 5.772552e-01 2.677120e-01 1.338520e-01 3.480338e-01 -2.198176e-01 -2.334926e-01 -3.934553e-01 1.151100e-02 4.191800e-01 -8.498128e-01
<VARIANCE> 39
 2.957180e+01 2.616734e+01 4.312773e+01 2.628573e+01 5.995505e+01 7.002170e+01 4.695757e+01 6.890308e+01 5.730529e+01 5.734283e+01 4.395458e+01 3.988118e+01 7.334344e+01 3.403224e+00 1.530121e+00 2.843698e+00 3.471131e+00 3.205716e+00 2.770950e+00 4.538152e+00 4.404761e+00 4.189717e+00 4.905315e+00 4.290519e+00 3.683948e+00 2.985505e+00 4.960731e-01 4.831050e-01 5.547869e-01 6.675534e-01 6.073171e-01 6.963689e-01 7.701349e-01 9.092483e-01 7.834522e-01 1.084851e+00 6.827947e-01 7.588196e-01 5.403471e-01
<GCONST> 1.325694e+02
<STATE> 3
<MEAN> 39
 -4.642251e+00 -7.906884e+00 -8.349058e+00 -1.054434e+01 -4.252049e+00 -9.006128e+00 -2.277782e+00 2.273522e+00 -3.730517e+00 -1.306154e+00 -1.182640e+01 -8.946218e+00 7.664890e+01 1.837345e-01 3.133522e-01 3.986358e-01 5.966074e-01 -1.814254e-01 -5.032696e-01 1.825109e-01 -1.506789e-01 -2.478225e-01 1.877813e-02 6.663844e-02 5.948046e-01 -4.276895e-01 3.817109e-02 5.908171e-01 4.668107e-01 3.354735e-01 -2.195650e-01 8.795009e-02 -4.840274e-01 -6.070406e-01 -2.159863e-02 2.871605e-01 4.105482e-01 2.478230e-01 -6.679379e-01
<VARIANCE> 39
 2.224572e+01 1.426712e+01 4.380345e+01 1.331324e+01 3.924789e+01 5.391973e+01 4.128815e+01 8.103599e+01 5.331158e+01 6.277573e+01 4.180808e+01 4.516124e+01 7.310314e+01 6.295857e-01 1.042720e+00 1.303323e+00 1.508967e+00 2.605896e+00 2.820781e+00 2.500627e+00 2.851225e+00 2.734911e+00 3.382107e+00 2.204774e+00 2.076861e+00 7.518455e-01 1.833857e-01 2.690685e-01 2.598050e-01 2.951900e-01 4.102252e-01 4.366361e-01 4.319740e-01 8.177579e-01 6.380947e-01 5.116844e-01 3.850468e-01 5.162149e-01 3.491491e-01
<GCONST> 1.150806e+02
<STATE> 4
<MEAN> 39
 -3.413344e+00 -1.858375e+00 -3.953351e+00 -5.252948e+00 -4.450414e+00 -1.015288e+01 -5.283944e+00 -2.352221e+00 -4.799507e+00 8.454187e-01 -6.617155e+00 -6.221407e+00 6.776463e+01 -3.293806e-01 2.666857e+00 2.325129e+00 2.327920e+00 9.433648e-03 1.221170e+00 -8.856105e-01 -2.059550e+00 -3.860293e-01 -4.445510e-01 6.243073e-01 1.102595e+00 -3.665461e+00 -3.638557e-01 7.159450e-04 1.221370e-01 4.555804e-02 2.096169e-01 5.616897e-01 2.750560e-01 1.346338e-02 -7.695775e-02 -3.671002e-01 -1.193551e-01 7.781893e-02 -2.983752e-01
<VARIANCE> 39
 2.085107e+01 3.570906e+01 5.460603e+01 4.109083e+01 5.432990e+01 6.897965e+01 3.326232e+01 7.435246e+01 5.333130e+01 5.294949e+01 5.300613e+01 4.051087e+01 8.378879e+01 3.472058e+00 2.640571e+00 2.977080e+00 2.449670e+00 3.190703e+00 5.159689e+00 3.213889e+00 9.559427e+00 6.122689e+00 4.492561e+00 3.489423e+00 3.982822e+00 4.037355e+00 3.692903e-01 7.457185e-01 5.596655e-01 7.801190e-01 5.407429e-01 7.806989e-01 4.323329e-01 1.325571e+00 8.302610e-01 7.179697e-01 5.766162e-01 5.597601e-01 9.763511e-01
<GCONST> 1.346552e+02
<TRANSP> 5
 0.000000e+00 1.000000e+00 0.000000e+00 0.000000e+00 0.000000e+00
 0.000000e+00 6.134454e-01 3.865546e-01 0.000000e+00 0.000000e+00
 0.000000e+00 0.000000e+00 7.664974e-01 2.335025e-01 0.000000e+00
 0.000000e+00 0.000000e+00 0.000000e+00 6.434109e-01 3.565891e-01
 0.000000e+00 0.000000e+00 0.000000e+00 0.000000e+00 0.000000e+00
<ENDHMM>
~o
<STREAMINFO> 1 39
<VECSIZE> 39<NULLD><MFCC_D_A_0><DIAGC>
~h "ai"
<BEGINHMM>
<NUMSTATES> 5
<STATE> 2
<MEAN> 39
 -5.994219e+00 -7.808641e+00 -6.868248e+00 -7.666857e+00 2.089113e+00 -7.820847e+00 -8.673288e-01 2.154530e-01 -3.191769e+00 -9.435984e+00 -7.141200e+00 -1.372386e+01 7.428089e+01 1.196505e-01 -1.227533e-01 1.175119e-01 -4.150795e-01 -5.397835e-01 -6.156894e-01 2.240976e-02 3.990883e-01 2.188719e-01 2.520670e-01 -1.557774e-02 5.687679e-01 9.274834e-01 -2.494881e-01 1.816689e-01 1.658390e-01 2.580525e-01 -1.112961e-01 -9.674899e-02 2.923095e-01 6.504530e-03 3.778736e-02 1.456199e-01 -3.436301e-02 4.603719e-01 -4.780375e-01
<VARIANCE> 39
 1.237817e+01 8.077641e+00 1.061421e+01 1.124174e+01 2.540730e+01 3.984382e+01 7.500207e+00 9.145614e+00 4.240463e+01 5.503761e+00 8.458677e+00 2.595202e+01 4.465062e+00 6.035794e-01 2.150314e+00 1.172211e+00 1.728113e+00 1.189933e+00 4.774215e-01 1.291076e+00 3.571786e-01 6.830770e-01 1.104760e+00 1.095204e+00 4.577956e+00 3.020107e+00 1.401350e-01 2.598122e-01 1.211885e-01 1.743107e-01 2.348445e-01 7.799980e-02 2.422014e-01 9.125642e-02 3.409656e-01 6.439626e-01 1.931382e-01 5.270036e-01 1.717999e-01
<GCONST> 8.607120e+01
<STATE> 3
<MEAN> 39
 -6.196521e+00 1.132318e+00 2.892997e+00 -4.156075e+00 -1.106627e+01 -1.419412e+01 3.344150e+00 6.155716e-01 -8.500166e+00 -8.492995e-01 -4.142321e+00 1.574776e+00 6.897842e+01 -1.037035e-01 1.328739e+00 1.199522e+00 3.171454e-01 -9.917666e-01 3.184205e-01 -2.131562e-01 -5.471421e-01 -1.131086e+00 1.347149e+00 3.878507e-01 1.008413e+00 -1.075109e+00 -4.611809e-02 1.325825e-01 -9.153915e-02 1.202525e-02 2.551123e-01 3.189849e-01 -1.654435e-01 -2.405898e-01 9.760250e-02 -1.808153e-02 -1.290654e-01 -1.516894e-01 -1.214931e-01
<VARIANCE> 39
 1.753221e+01 1.867365e+01 2.856528e+01 3.927316e+00 4.396042e+01 3.618494e+01 6.328447e+00 6.554467e+00 3.745040e+01 2.434590e+01 1.067742e+01 3.614265e+01 1.707245e+01 2.237187e-01 5.938516e-01 1.404299e+00 6.625386e-01 3.173405e+00 1.340238e+00 1.382504e+00 2.384707e+00 5.294981e-01 2.103759e+00 1.125727e+00 1.920967e+00 1.352844e-01 4.114073e-02 9.564588e-02 1.237903e-01 1.144952e-01 1.963733e-01 1.156676e-01 2.128018e-01 3.867529e-01 2.176604e-01 1.669910e-01 1.531327e-01 3.318551e-01 1.256601e-02
<GCONST> 8.157561e+01
<STATE> 4
<MEAN> 39
 -1.356471e+01 1.162650e+01 5.970131e+00 4.262074e-02 -3.929270e+00 -3.515425e-01 1.193091e+00 -8.523635e+00 -9.092448e+00 3.051655e+00 -6.489377e+00 7.585876e-01 5.695110e+01 -1.303865e+00 -3.049559e-01 -1.419531e+00 2.623189e-01 8.882679e-01 8.080653e-01 5.378098e-01 -4.333399e-01 1.089036e+00 -6.951987e-01 4.198139e-01 -5.805420e-01 -8.169910e-01 -3.513675e-02 -3.652796e-01 -1.540448e-01 -1.308513e-01 -1.412881e-01 -3.719728e-01 -6.016011e-02 3.487971e-01 -1.108401e-01 -2.469173e-02 2.657387e-01 2.592678e-02 2.501702e-01
<VARIANCE> 39
 3.735537e+01 1.815165e+01 5.918262e+01 5.443812e+00 3.398108e+01 2.857773e+01 1.954570e+01 1.320355e+01 3.156242e+01 5.321265e+01 2.065062e+01 2.961127e+01 6.286813e+01 1.233530e+00 3.676614e+00 2.837741e+00 1.316132e+00 3.339230e+00 4.449896e+00 1.862546e+00 2.508922e+00 2.426817e+00 3.954767e+00 4.302750e+00 4.463744e+00 2.540768e+00 3.455774e-01 4.798948e-01 6.982927e-01 1.989020e-01 6.174236e-01 3.612681e-01 5.559158e-01 2.577355e-01 4.225121e-01 8.940512e-01 7.460965e-01 8.108609e-01 1.669468e-01
<GCONST> 1.171254e+02
<TRANSP> 5
 0.000000e+00 1.000000e+00 0.000000e+00 0.000000e+00 0.000000e+00
 0.000000e+00 9.000000e-01 9.999999e-02 0.000000e+00 0.000000e+00
 0.000000e+00 0.000000e+00 9.047619e-01 9.523809e-02 0.000000e+00
 0.000000e+00 0.000000e+00 0.000000e+00 8.823529e-01 1.176471e-01
 0.000000e+00 0.000000e+00 0.000000e+00 0.000000e+00 0.000000e+00
<ENDHMM>
~o
<STREAMINFO> 1 39
<VECSIZE> 39<NULLD><MFCC_D_A_0><DIAGC>
~h "b"
<BEGINHMM>
<NUMSTATES> 5
<STATE> 2
<MEAN> 39
 4.800888e-01 8.372205e+00 2.448567e+00 -5.903791e-01 -4.146410e+00 -2.636869e+00 -6.390338e+00 -1.188762e+01 -1.277894e+01 -2.289151e-01 -3.264707e+00 -7.398569e+00 6.050258e+01 -1.640729e-01 2.608964e+00 1.442241e+00 1.419418e+00 1.080720e+00 1.089579e+00 8.275268e-01 -1.597156e-01 -1.430047e+00 -1.128514e+00 3.035740e-01 1.044789e-01 -2.400195e+00 -4.169515e-01 -8.943746e-01 -4.962229e-01 -5.284623e-01 -3.777978e-01 -5.948689e-01 -3.149135e-01 3.256552e-01 1.047614e+00 1.718992e-01 -2.747026e-01 1.754857e-01 1.166771e+00
<VARIANCE> 39
 3.618347e+00 1.822294e+01 9.716584e+00 2.180940e+01 2.733111e+01 2.962058e+01 3.495673e+01 4.557868e+01 3.020719e+01 4.370670e+01 4.325858e+01 2.175358e+01 7.956252e+01 9.576465e-01 2.432507e+00 2.904626e+00 3.097506e+00 2.597051e+00 2.251935e+00 3.242226e+00 5.834531e+00 4.620691e+00 4.700126e+00 3.022693e+00 3.944562e+00 2.941362e+00 1.632657e-01 5.155641e-01 6.336573e-01 5.585132e-01 5.375195e-01 4.566822e-01 7.964530e-01 5.223296e-01 9.371912e-01 8.628252e-01 6.420867e-01 5.282778e-01 4.772299e-01
<GCONST> 1.202570e+02
<STATE> 3
<MEAN> 39
 2.249137e-01 1.137754e+01 3.000592e+00 -2.160255e-01 -2.594834e+00 -2.161585e+00 -4.998333e+00 -9.293785e+00 -1.160346e+01 -3.398774e+00 -2.706265e+00 -6.623965e+00 5.455985e+01 -9.712555e-01 -1.540005e+00 -8.501249e-01 -4.806194e-01 3.091050e-01 -7.411863e-01 -7.131291e-01 1.169845e-01 1.044848e+00 2.635791e-01 3.224016e-01 8.752475e-01 2.142613e+00 -2.195852e-01 -1.291564e+00 -6.831512e-01 -4.616390e-01 -3.185491e-01 -7.259656e-01 -7.220154e-01 -5.406575e-02 6.391304e-01 7.603850e-01 9.961145e-02 2.376104e-01 1.408259e+00
<VARIANCE> 39
 4.707561e+00 5.974820e+00 4.742275e+00 1.286867e+01 2.379458e+01 4.009853e+01 2.875365e+01 3.031071e+01 4.389938e+01 2.299882e+01 2.611999e+01 2.712675e+01 4.030621e+01 1.194251e+00 2.370396e+00 2.025918e+00 2.069000e+00 2.437821e+00 2.571569e+00 2.666033e+00 2.908453e+00 3.309538e+00 3.882080e+00 1.779383e+00 1.393945e+00 3.406301e+00 2.704358e-01 2.394479e-01 4.874095e-01 4.767393e-01 7.480600e-01 3.381511e-01 8.199034e-01 9.295529e-01 6.921526e-01 6.180300e-01 4.070944e-01 5.733979e-01 1.948784e-01
<GCONST> 1.111959e+02
<STATE> 4
<MEAN> 39
 -4.968354e+00 7.957605e-01 -2.123305e+00 -4.339149e+00 -2.991560e+00 -7.122487e+00 -1.005259e+01 -8.829472e+00 -6.308518e+00 6.289665e-01 -1.642466e+00 -3.998307e+00 7.116669e+01 -5.420703e-01 -2.860088e+00 -8.435642e-01 -1.523780e+00 -1.310695e+00 -2.158705e+00 -2.168468e+00 5.705478e-01 2.100303e+00 1.826371e+00 -1.893045e-01 1.231256e-01 3.875500e+00 3.668956e-01 5.000240e-01 4.226391e-01 1.484428e-01 -2.935716e-01 1.026197e-01 3.146752e-01 -4.030827e-02 -2.532451e-01 5.318143e-02 -3.911776e-01 -3.164584e-01 -7.043490e-01
<VARIANCE> 39
 2.125068e+01 1.141539e+01 3.422809e+01 1.949319e+01 4.138951e+01 4.793372e+01 4.702175e+01 2.941942e+01 3.882311e+01 5.482171e+01 1.990905e+01 1.672349e+01 9.857225e+01 8.799354e-01 3.439730e+00 5.165675e+00 2.750979e+00 5.732390e+00 2.564654e+00 1.053785e+01 7.419629e+00 6.137195e+00 6.287373e+00 3.649092e+00 4.020979e+00 2.468302e+00 2.706855e-01 3.762350e-01 5.354682e-01 6.291702e-01 1.023096e+00 5.336581e-01 1.123540e+00 1.180434e+00 6.341391e-01 1.385348e+00 5.423544e-01 2.547883e-01 5.507879e-01
<GCONST> 1.282094e+02
<TRANSP> 5
 0.000000e+00 1.000000e+00 0.000000e+00 0.000000e+00 0.000000e+00
 0.000000e+00 6.470588e-01 3.529412e-01 0.000000e+00 0.000000e+00
 0.000000e+00 0.000000e+00 6.470588e-01 3.529412e-01 0.000000e+00
 0.000000e+00 0.000000e+00 0.000000e+00 5.862069e-01 4.137931e-01
 0.000000e+00 0.000000e+00 0.000000e+00 0.000000e+00 0.000000e+00
<ENDHMM>
~o
<STREAMINFO> 1 39
<VECSIZE> 39<NULLD><MFCC_D_A_0><DIAGC>
~h "c"
<BEGINHMM>
<NUMSTATES> 5
<STATE> 2
<MEAN> 39
 -1.140988e+01 5.545418e+00 3.100466e+00 -1.830158e+00 -1.676058e-01 -3.346663e+00 -2.104586e+00 -7.645377e+00 -8.981307e+00 -5.915210e+00 -6.000322e+00 -7.389645e+00 5.710450e+01 -2.318710e+00 -1.808207e+00 -2.042215e+00 -5.741717e-01 2.632107e-01 1.089082e+00 1.634751e+00 2.828699e-01 -4.345886e-01 7.139484e-02 -9.416628e-02 8.716126e-01 -1.041024e+00 -3.838477e-01 6.535760e-02 -4.023651e-01 -6.220915e-01 -4.770909e-01 -3.293386e-01 -4.267518e-01 -4.495742e-02 6.391411e-01 4.507208e-01 3.605946e-01 9.424508e-01 1.115199e+00
<VARIANCE> 39
 3.361154e+01 3.197806e+01 5.073421e+01 7.357690e+00 2.222861e+01 4.211387e+01 2.621322e+01 9.776269e+00 7.173066e+01 1.220342e+01 4.342384e+01 1.501036e+01 9.082626e+01 2.797578e+00 2.307168e+00 3.390420e+00 5.036005e+00 2.997559e+00 4.371309e+00 2.545284e+00 1.098765e+00 8.461723e+00 3.380599e+00 6.594903e+00 4.733060e+00 7.063917e+00 7.564926e-01 1.091303e+00 9.544674e-01 3.951972e-01 5.029629e-01 1.211008e+00 1.141995e-01 1.753664e-01 2.073722e+00 6.160661e-01 5.219167e-01 4.494908e-01 1.073254e+00
<GCONST> 1.250765e+02
<STATE> 3
<MEAN> 39
 -2.440222e+01 2.883055e+00 -4.901476e+00 -1.018187e+01 -7.617812e-01 -3.951504e+00 2.483484e-01 -6.329114e+00 -3.525739e+00 -1.983691e-01 -1.189257e+00 4.125115e-01 6.500195e+01 -3.204545e+00 1.006376e+00 -2.736364e-01 -2.117751e+00 -1.259692e+00 -1.341704e+00 -2.582494e-01 -1.942325e-01 8.689884e-01 1.363673e+00 1.327133e+00 1.277212e+00 3.997334e+00 1.716300e+00 1.825951e-01 1.261267e+00 6.417246e-01 -8.919839e-01 -6.748901e-01 -8.008588e-01 -7.235537e-02 -5.309097e-01 -3.227052e-01 -5.585957e-01 -5.358245e-01 2.027174e-01
<VARIANCE> 39
 2.914030e+01 1.397630e+01 2.602216e+01 3.345570e+01 6.757295e+00 1.178514e+01 1.135218e+01 1.786691e+01 1.416396e+01 5.921972e+00 2.056466e+01 6.022635e+00 2.797789e+01 5.206259e+00 2.322446e+00 5.748410e+00 1.898773e+00 7.842135e-01 3.092779e+00 2.024554e+00 9.757290e-01 1.135867e+01 1.556668e+00 3.849938e+00 1.302163e+00 2.694622e+00 2.035295e+00 1.064102e+00 6.527394e-01 9.101127e-01 7.188044e-02 9.873570e-01 4.438463e-01 3.469223e-01 1.073837e+00 2.419169e-01 8.818564e-01 1.000500e-01 1.592318e+00
<GCONST> 1.110759e+02
<STATE> 4
<MEAN> 39
 -2.131008e+01 6.457700e+00 1.202899e+00 -9.359636e+00 -6.209283e+00 -1.007871e+01 -4.669628e+00 -5.816952e+00 -4.504214e+00 -4.840729e-01 -2.208048e+00 7.787423e-01 7.099286e+01 5.238276e+00 -1.477245e+00 2.680241e+00 -7.871039e-02 -4.520441e+00 -3.051953e+00 -3.622547e+00 9.208207e-01 -7.034012e-01 7.733897e-01 -1.647864e+00 2.742910e-02 1.837553e+00 1.134204e+00 -9.764982e-01 7.540060e-02 -9.363551e-02 -5.438434e-01 8.347541e-02 -2.591881e-01 7.154688e-01 9.436344e-02 4.776817e-01 -6.083013e-01 -2.739003e-01 -6.080022e-01
<VARIANCE> 39
 8.569345e+01 2.528887e+01 1.398219e+01 4.653021e+00 3.662825e+01 3.785867e+01 2.857664e+01 2.337705e+01 3.558253e+01 1.159905e+01 9.603609e+00 5.718676e+00 4.414284e+01 6.866910e+00 5.593109e+00 3.894665e-01 2.632114e+00 3.891686e+00 2.583871e+00 4.639931e+00 8.233586e+00 2.414875e+00 1.233475e+00 2.041549e+00 3.213284e+00 8.524609e-01 2.558671e+00 5.390887e-01 4.978820e-01 4.164600e-01 6.909390e-01 7.097507e-01 1.343440e+00 4.744425e-01 1.325241e+00 1.724222e-01 4.335211e-01 5.017031e-01 1.024176e-01
<GCONST> 1.158306e+02
<TRANSP> 5
 0.000000e+00 1.000000e+00 0.000000e+00 0.000000e+00 0.000000e+00
 0.000000e+00 7.272727e-01 2.727273e-01 0.000000e+00 0.000000e+00
 0.000000e+00 0.000000e+00 6.250000e-01 3.750000e-01 0.000000e+00
 0.000000e+00 0.000000e+00 0.000000e+00 6.250000e-01 3.750000e-01
 0.000000e+00 0.000000e+00 0.000000e+00 0.000000e+00 0.000000e+00
<ENDHMM>
~o
<STREAMINFO> 1 39
<VECSIZE> 39<NULLD><MFCC_D_A_0><DIAGC>
~h "d"
<BEGINHMM>
<NUMSTATES> 5
<STATE> 2
<MEAN> 39
 -2.699865e+00 4.305910e+00 4.064444e+00 5.338269e-02 -4.010223e+00 -7.739488e+00 -1.265138e+01 -5.655602e+00 -5.452035e+00 -6.518280e+00 -1.225888e+01 -5.660820e+00 5.900124e+01 1.298562e+00 2.994116e+00 1.583318e+00 2.505809e+00 1.629979e+00 4.100234e-01 1.392431e-01 -3.259753e-01 -4.242174e-01 -1.614823e+00 -1.566171e+00 -1.456629e+00 -2.094336e+00 -7.136275e-01 -4.245996e-01 -5.821617e-01 -6.477892e-01 -1.342829e-01 -7.378206e-02 6.496047e-01 6.633265e-01 5.498803e-01 7.993752e-01 9.181723e-01 9.672663e-02 9.675925e-01
<VARIANCE> 39
 1.879477e+01 4.003925e+01 2.507949e+01 6.831596e+01 1.776285e+01 5.355585e+01 1.801888e+01 5.224273e+01 3.460059e+01 4.862844e+01 7.346078e+01 3.288232e+01 6.515875e+01 1.355142e+00 3.638845e+00 2.527272e+00 6.937858e+00 3.998241e+00 4.580205e+00 3.387945e+00 1.061773e+01 3.906891e+00 7.404869e+00 3.463269e+00 2.441391e+00 6.274440e+00 5.488113e-01 1.168943e+00 2.398724e-01 1.267755e+00 5.179982e-01 9.614249e-01 5.379065e-01 2.667526e+00 2.458951e-01 8.839242e-01 1.055404e+00 9.461543e-01 9.424047e-01
<GCONST> 1.335755e+02
<STATE> 3
<MEAN> 39
 -2.147194e+00 8.575429e+00 4.316084e+00 2.568920e+00 -3.140887e+00 -7.876554e+00 -9.038246e+00 -4.762164e+00 -2.324211e+00 -6.958203e+00 -1.360973e+01 -8.820450e+00 5.691774e+01 -2.018516e+00 -7.613761e-01 2.105578e-01 -1.087411e+00 -9.050415e-01 -5.425867e-01 3.826201e-01 4.890475e-02 5.820438e-01 8.147210e-01 1.730380e+00 6.701688e-01 3.082360e+00 -5.886103e-01 -1.500195e+00 -7.027640e-01 -1.257820e+00 -1.493510e+00 -8.820082e-01 -4.818677e-01 -1.925273e-01 2.207562e-02 6.315420e-01 8.111342e-01 8.595781e-01 2.049231e+00
<VARIANCE> 39
 1.340460e+01 1.216357e+01 1.116975e+01 2.371369e+01 2.437282e+01 1.778299e+01 1.090662e+01 1.119241e+01 3.088251e+01 4.466460e+01 2.180200e+01 2.822372e+01 7.354354e+01 2.990055e+00 4.607135e+00 2.402733e+00 4.467329e+00 4.222001e+00 5.817650e+00 3.225958e+00 6.029758e+00 5.589479e-01 2.983519e+00 5.037957e+00 2.867374e+00 5.691288e+00 5.273314e-01 1.127702e+00 9.366282e-01 1.668000e+00 4.553545e-01 4.161716e-01 8.039451e-01 2.649309e+00 6.212571e-01 1.048355e+00 6.734127e-01 3.556995e-01 5.664662e-01
<GCONST> 1.238554e+02
<STATE> 4
<MEAN> 39
 -1.017983e+01 2.455228e+00 4.491319e+00 -4.197098e+00 -9.543736e+00 -9.890686e+00 -1.335457e+01 -6.509039e+00 -2.827730e+00 -4.057697e+00 -4.582937e+00 -4.024058e+00 7.439433e+01 -1.110000e+00 -2.411786e+00 -8.740796e-01 -3.276793e+00 -3.926062e+00 -2.546377e+00 -1.129614e+00 5.248642e-01 2.698361e-02 1.789901e+00 1.029891e+00 1.236161e+00 5.131387e+00 8.238319e-01 -9.482229e-04 -2.063933e-01 -1.235122e-01 -1.022213e-01 -4.152189e-01 4.224665e-01 4.708716e-01 -5.596883e-02 6.800050e-02 -8.570363e-01 -2.231460e-01 -7.039546e-01
<VARIANCE> 39
 2.530733e+01 1.928682e+01 3.151859e+01 2.657639e+01 8.442724e+01 4.815358e+01 2.743408e+01 7.049847e+01 5.937357e+01 1.873680e+01 3.104897e+01 3.823594e+01 1.372690e+02 2.922265e+00 7.155303e+00 4.859992e+00 5.562897e+00 1.475645e+00 2.206762e+00 3.509962e+00 1.287246e+01 2.882698e+00 5.068039e+00 6.671728e+00 1.124585e+00 3.254974e+00 3.053722e-01 6.633002e-01 3.705231e-01 6.611216e-01 1.508365e+00 7.963634e-01 5.327836e-01 9.408112e-01 5.700647e-01 5.595647e-01 1.789374e+00 3.492844e-01 6.934348e-01
<GCONST> 1.312080e+02
<TRANSP> 5
 0.000000e+00 1.000000e+00 0.000000e+00 0.000000e+00 0.000000e+00
 0.000000e+00 6.000000e-01 4.000000e-01 0.000000e+00 0.000000e+00
 0.000000e+00 0.000000e+00 5.714286e-01 4.285714e-01 0.000000e+00
 0.000000e+00 0.000000e+00 0.000000e+00 5.000000e-01 5.000000e-01
 0.000000e+00 0.000000e+00 0.000000e+00 0.000000e+00 0.000000e+00
<ENDHMM>
~o
<STREAMINFO> 1 39
<VECSIZE> 39<NULLD><MFCC_D_A_0><DIAGC>
~h "e"
<BEGINHMM>
<NUMSTATES> 5
<STATE> 2
<MEAN> 39
 -6.085611e+00 -3.902322e+00 -3.210874e+00 -1.091196e+01 -1.223498e+01 -1.592350e+01 -9.292052e+00 -2.000604e+00 -2.549210e+00 3.580737e+00 -9.011874e+00 -4.514048e+00 7.635831e+01 1.576517e+00 -1.995186e+00 -2.610798e-01 -1.132256e+00 -1.455662e+00 -1.250108e+00 -3.677633e-01 1.895061e+00 5.106981e-01 4.599359e-01 -1.535193e+00 -9.449872e-01 1.910713e+00 -5.714768e-01 2.900842e-01 1.652376e-01 5.576783e-01 4.993914e-01 8.308753e-01 4.829467e-01 -3.760908e-01 -1.448115e-01 -1.646772e-01 3.109723e-01 7.394092e-02 -1.012532e+00
<VARIANCE> 39
 2.375286e+01 4.037667e+01 6.256506e+01 1.638662e+01 6.220889e+01 3.340998e+01 4.907269e+01 5.974308e+01 3.712525e+01 4.264540e+01 2.756193e+01 4.907462e+01 8.592295e+01 5.620460e+00 2.002107e+00 5.608042e+00 2.201862e+00 5.636379e+00 3.822403e+00 1.012224e+01 4.278244e+00 3.608421e+00 3.780885e+00 3.700232e+00 3.396555e+00 3.027944e+00 6.210963e-01 5.236081e-01 1.199426e+00 5.913790e-01 1.012519e+00 3.995516e-01 1.214582e+00 1.113946e+00 6.079477e-01 4.178676e-01 7.804407e-01 6.691502e-01 6.518073e-01
<GCONST> 1.336364e+02
<STATE> 3
<MEAN> 39
 -5.563050e+00 -7.984881e+00 -3.452770e+00 -1.216001e+01 -1.360225e+01 -1.601052e+01 -5.609746e+00 3.411314e+00 -2.986833e+00 2.284882e+00 -1.131477e+01 -8.006856e+00 7.806186e+01 3.045043e-01 1.527517e-01 -2.155686e-01 7.300146e-01 5.907006e-01 4.207605e-01 3.462657e-01 -6.798083e-01 -9.379711e-02 -4.360403e-01 -7.719590e-02 -4.619703e-02 -4.252585e-01 -4.114770e-02 4.565286e-01 2.092943e-01 4.398285e-01 2.626409e-01 4.488903e-01 -1.461428e-01 -7.056957e-01 -1.599316e-01 -1.757920e-02 3.992304e-01 2.083529e-01 -5.214514e-01
<VARIANCE> 39
 2.511814e+01 3.601244e+01 4.883875e+01 1.625635e+01 6.823338e+01 2.570816e+01 6.994598e+01 7.501096e+01 5.797311e+01 4.897959e+01 2.463118e+01 2.958981e+01 7.564086e+01 9.179628e-01 1.542644e+00 1.944740e+00 1.075608e+00 1.783414e+00 1.683673e+00 2.205807e+00 2.978886e+00 2.865702e+00 1.725159e+00 2.657847e+00 2.592032e+00 1.087475e+00 1.859587e-01 3.930625e-01 6.957778e-01 2.802426e-01 3.778895e-01 3.345839e-01 7.047052e-01 5.358078e-01 6.404456e-01 5.626290e-01 5.019287e-01 4.414013e-01 4.665111e-01
<GCONST> 1.171625e+02
<STATE> 4
<MEAN> 39
 -4.482615e+00 -2.628166e+00 -2.687444e+00 -4.487636e+00 -8.227319e+00 -1.096644e+01 -6.730304e+00 -6.241220e+00 -4.548886e+00 1.474320e+00 -1.002487e+01 -5.105113e+00 7.184307e+01 -2.844602e-02 1.313706e+00 1.136514e+00 1.640637e+00 1.182322e+00 1.855676e+00 -7.873744e-02 -1.392088e+00 -5.680578e-01 -5.034869e-01 1.065534e+00 3.416362e-01 -2.183244e+00 -1.095055e-01 -8.634581e-02 -8.125204e-02 -2.447508e-01 -6.438278e-02 -1.645175e-01 -3.862698e-02 4.217102e-01 1.421512e-02 -1.440745e-02 3.798860e-02 -5.008449e-02 1.655318e-01
<VARIANCE> 39
 2.206783e+01 2.974005e+01 4.656691e+01 3.076460e+01 7.360387e+01 3.205026e+01 5.382804e+01 8.655565e+01 5.812074e+01 3.921017e+01 4.488433e+01 5.012295e+01 1.149758e+02 2.473056e+00 2.815099e+00 5.974113e+00 2.690472e+00 3.135485e+00 2.749764e+00 5.369703e+00 3.843565e+00 4.625402e+00 3.720054e+00 3.915336e+00 4.738234e+00 2.439012e+00 3.246246e-01 4.557289e-01 6.715108e-01 4.479956e-01 3.260709e-01 4.274755e-01 5.939129e-01 5.192150e-01 6.532738e-01 4.513698e-01 6.132665e-01 5.713412e-01 4.084783e-01
<GCONST> 1.289706e+02
<TRANSP> 5
 0.000000e+00 1.000000e+00 0.000000e+00 0.000000e+00 0.000000e+00
 0.000000e+00 5.689655e-01 4.310345e-01 0.000000e+00 0.000000e+00
 0.000000e+00 0.000000e+00 7.159091e-01 2.840909e-01 0.000000e+00
 0.000000e+00 0.000000e+00 0.000000e+00 6.153846e-01 3.846154e-01
 0.000000e+00 0.000000e+00 0.000000e+00 0.000000e+00 0.000000e+00
<ENDHMM>
~o
<STREAMINFO> 1 39
<VECSIZE> 39<NULLD><MFCC_D_A_0><DIAGC>
~h "f"
<BEGINHMM>
<NUMSTATES> 5
<STATE> 2
<MEAN> 39
 -1.060869e+01 -1.016176e+00 2.090220e+00 -1.926050e-02 2.307691e+00 -1.644657e+00 -1.801329e+00 -1.591711e+00 -2.441661e+00 4.675165e-01 -3.776089e+00 8.938218e-02 6.686118e+01 -2.430470e+00 1.107968e+00 -3.221852e-01 2.592695e+00 2.197862e+00 1.628422e+00 1.343954e+00 3.433647e-01 1.751250e+00 4.614748e-01 1.878162e+00 1.186783e+00 -1.792925e+00 2.785348e-01 -3.838297e-01 -6.307577e-01 -2.159260e-01 -5.893950e-01 -5.063936e-01 -4.289256e-01 1.369382e-01 -4.236895e-02 2.513293e-02 -2.437305e-01 -5.162508e-01 2.948928e-01
<VARIANCE> 39
 5.615142e+01 2.587264e+01 1.341536e+01 3.710600e+01 1.402615e+01 1.591735e+01 1.165835e+01 2.808303e+01 2.632833e+01 1.862890e+01 1.334985e+01 9.577941e+00 8.088757e+01 4.835953e+00 1.419624e+00 4.607399e+00 1.751368e+00 1.672752e+00 1.464397e+00 1.478458e+00 3.498627e+00 2.563466e+00 9.827386e-01 2.540390e+00 8.718766e-01 8.834888e-01 7.195081e-01 1.955536e-01 2.849155e-01 6.944123e-01 2.687956e-01 5.327064e-01 1.740745e-01 9.069117e-01 8.076755e-01 2.828608e-01 1.839332e-01 1.768520e-01 8.950305e-02
<GCONST> 1.052702e+02
<STATE> 3
<MEAN> 39
 -1.327342e+01 2.036142e+00 -1.823052e+00 5.430189e+00 4.033129e+00 1.858765e-01 -2.667433e+00 -3.487356e+00 -4.734129e-01 3.762434e+00 8.542363e-02 -8.118013e-01 6.243928e+01 -7.287682e-02 2.621163e-01 -1.615518e-01 2.284931e-01 -3.284201e-01 -3.347783e-01 -9.152292e-01 -1.106702e+00 -2.997544e-01 5.495722e-01 2.278797e-02 -2.781500e-01 -7.582629e-01 2.662379e-01 -7.032676e-02 3.461769e-01 -4.041798e-01 -2.413343e-01 -5.205677e-01 3.017434e-03 9.112706e-04 -2.129654e-01 -2.753886e-01 -3.165708e-01 7.418060e-02 2.186031e-01
<VARIANCE> 39
 6.482682e+01 4.384849e+01 1.896236e+01 1.227446e+01 3.063731e+01 9.322650e+00 4.455942e+01 1.389828e+01 5.266656e+01 7.073409e+00 1.198357e+01 1.228711e+01 1.143944e+02 1.465873e+00 4.170410e-01 1.426192e+00 1.578076e+00 7.290168e-01 2.560662e+00 1.233094e+00 3.522937e-01 1.427128e+00 1.261627e+00 8.701026e-01 1.442604e+00 3.063790e-01 3.070174e-01 1.458000e-01 2.029117e-01 2.441380e-01 1.001825e-01 5.113499e-01 3.248380e-01 3.720634e-01 5.037585e-01 1.675619e-01 3.957801e-01 3.132601e-01 1.733425e-01
<GCONST> 9.504884e+01
<STATE> 4
<MEAN> 39
 -1.300157e+01 2.957954e+00 -7.160138e-01 3.983111e+00 3.914119e+00 -1.906431e+00 -3.201575e+00 -3.499489e+00 -5.847231e-01 3.732621e+00 -9.102518e-01 5.087435e-02 5.999868e+01 6.246176e-01 1.431186e-01 2.691824e-01 -6.623250e-01 -6.395531e-01 -1.628521e+00 5.416407e-02 1.166598e+00 -1.762397e-01 -1.820095e-01 6.992648e-01 3.270095e-01 -7.001874e-01 1.711773e-01 -1.442737e-01 1.130595e-01 -1.405519e-01 -2.508937e-01 -6.093423e-02 1.178679e-01 -1.175784e-01 -3.273169e-01 -8.748568e-03 1.876419e-01 -1.347786e-01 2.624592e-01
<VARIANCE> 39
 2.529797e+01 3.569283e+01 1.820825e+01 2.148918e+01 4.284295e+01 3.337169e+01 3.792501e+01 3.037086e+01 2.318832e+01 9.407659e+00 1.516968e+01 6.511412e+00 7.759091e+01 1.632678e+00 2.181107e+00 3.415231e+00 6.998414e-01 8.795610e-01 5.620157e+00 1.401832e+00 2.745388e+00 2.508426e+00 1.376728e+00 1.481878e+00 1.218619e+00 2.972187e+00 7.731698e-01 2.788663e-01 4.307050e-01 1.555703e-01 2.283891e-01 4.474100e-01 4.917336e-01 8.350046e-01 5.302002e-01 9.952047e-02 1.686117e-01 2.985899e-01 2.476861e-01
<GCONST> 1.063682e+02
<TRANSP> 5
 0.000000e+00 1.000000e+00 0.000000e+00 0.000000e+00 0.000000e+00
 0.000000e+00 7.000000e-01 3.000000e-01 0.000000e+00 0.000000e+00
 0.000000e+00 0.000000e+00 7.500000e-01 2.500000e-01 0.000000e+00
 0.000000e+00 0.000000e+00 0.000000e+00 6.666667e-01 3.333333e-01
 0.000000e+00 0.000000e+00 0.000000e+00 0.000000e+00 0.000000e+00
<ENDHMM>
~o
<STREAMINFO> 1 39
<VECSIZE> 39<NULLD><MFCC_D_A_0><DIAGC>
~h "g"
<BEGINHMM>
<NUMSTATES> 5
<STATE> 2
<MEAN> 39
 -3.453879e+00 6.055218e+00 5.001477e+00 9.227009e-01 -6.780284e+00 -1.227287e+01 -2.638544e+00 -4.671628e+00 -1.443221e+01 -2.165396e+00 -6.292161e+00 -1.497109e+00 6.029012e+01 2.186904e-01 1.923478e+00 -7.328433e-01 7.580911e-01 4.375532e-01 2.136720e+00 3.019314e-01 -1.527092e+00 -1.084936e+00 -1.841258e+00 3.370008e-01 7.403864e-01 -2.296931e+00 -2.664432e-01 -4.879180e-01 -4.102662e-01 -8.627905e-01 2.129231e-02 9.084750e-02 -1.063588e-01 -1.730396e-01 4.542095e-01 9.711045e-02 -5.015872e-02 -3.411565e-01 9.266336e-01
<VARIANCE> 39
 1.479017e+01 1.307248e+01 6.621832e+01 7.982708e+01 3.530964e+01 7.724211e+01 1.799723e+01 5.885124e+01 2.577476e+01 5.164429e+01 1.102923e+02 1.695780e+01 7.212407e+01 1.664616e+00 1.253445e+00 1.717566e+01 2.801589e+00 5.881053e+00 3.714345e+00 1.619931e+00 8.226679e+00 5.028146e+00 3.221847e+00 3.440213e+00 1.508957e+00 3.755611e+00 3.651183e-01 5.203555e-01 1.348622e+00 3.296231e-01 1.181832e+00 1.471617e+00 1.993007e-01 7.712523e-01 4.959016e-01 1.026205e+00 8.407800e-01 3.955602e-01 7.704875e-01
<GCONST> 1.296071e+02
<STATE> 3
<MEAN> 39
 -3.293409e+00 9.703743e+00 4.367133e+00 4.928660e-02 -7.088350e+00 -7.154397e+00 -1.271846e+00 -8.334779e+00 -1.673826e+01 -4.253507e+00 -2.382297e+00 -1.646314e+00 5.708344e+01 -1.387376e+00 -4.993613e-01 -2.048199e-01 -2.049666e+00 9.443488e-01 1.750933e-01 -4.787332e-01 -4.311529e-01 4.550056e-01 6.911642e-01 -2.547834e-01 -4.551139e-02 1.842164e+00 -4.823095e-01 -9.360918e-01 4.611727e-01 -5.031969e-01 -2.159868e-01 -6.975146e-01 -6.358848e-01 1.585531e-01 5.976341e-01 4.380853e-01 1.888355e-02 3.265300e-02 1.333409e+00
<VARIANCE> 39
 5.721184e+00 8.823467e+00 1.158817e+02 1.194773e+02 9.868233e+00 2.806865e+01 4.964791e+01 2.481329e+01 6.191731e+00 4.004277e+01 7.749123e+01 1.581257e+01 1.099338e+02 2.546589e+00 4.787177e+00 5.405552e+00 2.292039e+00 1.143687e+01 3.432565e+00 3.252615e+00 6.885944e-01 1.996014e+00 2.707049e+00 5.354044e+00 2.015465e+00 3.411092e+00 7.991674e-01 4.215871e-01 2.199976e+00 8.700172e-01 1.072298e+00 2.388382e-01 5.718410e-01 5.063502e-01 7.979367e-01 7.018515e-01 5.640210e-01 1.749486e-01 6.702316e-01
<GCONST> 1.236496e+02
<STATE> 4
<MEAN> 39
 -1.004965e+01 5.132533e+00 2.980116e+00 -6.798239e+00 -4.232248e+00 -7.884775e+00 -5.684940e+00 -1.098456e+01 -1.241667e+01 -2.485392e+00 -4.844852e+00 -8.412562e-01 6.689124e+01 -2.000726e+00 -1.294729e+00 1.029814e+00 -1.741725e+00 -3.329960e-01 -5.576032e-01 -1.879132e+00 -7.338740e-01 1.206423e+00 -2.328823e-01 9.896387e-01 3.720853e-01 3.393555e+00 5.861451e-01 1.943301e-01 3.112442e-01 4.175019e-01 -4.902937e-01 -1.392694e-01 -5.781603e-02 2.368491e-01 -2.510999e-01 -3.209739e-01 2.057404e-01 -1.362381e-01 -4.242889e-01
<VARIANCE> 39
 5.084890e+01 2.864650e+01 1.067398e+02 4.192031e+01 8.780293e+01 7.930121e+00 7.198899e+01 4.295778e+01 2.115707e+01 2.473475e+01 1.964429e+01 1.152373e+01 9.676841e+01 4.932024e+00 2.926558e+00 4.415454e+00 5.435654e+00 5.033499e+00 3.554676e+00 3.018829e+00 2.917410e+00 2.723759e+00 1.807853e+00 1.356833e+00 7.414503e-01 1.507435e+00 8.201374e-01 5.108505e-01 1.147686e+00 1.841864e-01 1.886387e+00 2.719090e-01 8.316994e-01 2.212509e-01 6.885034e-01 3.523159e-01 1.024197e+00 4.037021e-01 6.805053e-01
<GCONST> 1.236537e+02
<TRANSP> 5
 0.000000e+00 1.000000e+00 0.000000e+00 0.000000e+00 0.000000e+00
 0.000000e+00 6.666667e-01 3.333333e-01 0.000000e+00 0.000000e+00
 0.000000e+00 0.000000e+00 5.454546e-01 4.545455e-01 0.000000e+00
 0.000000e+00 0.000000e+00 0.000000e+00 5.454546e-01 4.545455e-01
 0.000000e+00 0.000000e+00 0.000000e+00 0.000000e+00 0.000000e+00
<ENDHMM>
~o
<STREAMINFO> 1 39
<VECSIZE> 39<NULLD><MFCC_D_A_0><DIAGC>
~h "h"
<BEGINHMM>
<NUMSTATES> 5
<STATE> 2
<MEAN> 39
 -1.132920e+01 -2.482656e+00 -3.897847e+00 3.118602e-01 4.972247e+00 -4.517065e+00 -3.993343e-02 2.394516e+00 -6.765269e+00 -6.215299e+00 -7.315556e+00 4.816494e+00 5.539163e+01 2.204580e-01 -6.157653e-01 -8.108748e-01 -3.633345e-01 3.527840e-02 1.105774e-01 -5.069498e-01 -1.077221e-01 2.696162e-01 -1.059848e+00 -2.949184e-01 -3.206377e-01 -6.845568e-02 -8.936878e-02 1.985238e-02 -4.616977e-02 -9.502978e-02 -1.122352e-01 1.023329e-02 1.506287e-02 8.882910e-02 1.008452e-01 1.637594e-01 -1.340672e-02 -1.580433e-01 -1.324620e-02
<VARIANCE> 39
 9.285758e+00 2.303957e+01 1.766242e+01 1.242783e+01 8.505785e+01 1.921374e+01 2.715956e+01 4.289221e+01 4.436409e+01 3.001062e+01 2.734168e+01 3.559547e+01 1.386807e+02 1.070001e+00 4.410977e-01 8.908772e-01 1.212787e+00 1.511153e+00 1.980128e+00 2.564219e+00 8.886945e-01 3.172615e+00 1.512483e+00 1.712286e+00 9.005534e-01 2.209059e+00 1.365732e-01 1.460151e-01 2.172387e-01 1.751676e-01 3.209510e-01 4.453929e-01 4.819685e-01 2.395704e-01 4.878900e-01 1.971323e-01 2.402082e-01 2.342370e-01 1.382761e-01
<GCONST> 1.014551e+02
<STATE> 3
<MEAN> 39
 -1.042503e+01 -7.538266e+00 -5.278222e+00 -3.817382e+00 2.948518e+00 -1.065201e+00 -4.852906e-01 4.871715e+00 -1.800281e+00 -6.218927e+00 -8.273730e+00 -1.837993e-01 5.592312e+01 8.583225e-01 2.537615e-01 2.382442e-01 -4.985750e-01 -5.838147e-01 5.980909e-03 -6.476601e-01 -6.314347e-01 1.151207e-01 1.430671e-01 -4.134281e-01 -1.411577e+00 1.255300e+00 2.909493e-01 2.569060e-01 2.298970e-01 1.000769e-01 3.326855e-02 -1.980711e-01 -2.976642e-01 -2.366514e-01 -2.358883e-01 -2.622848e-02 3.809480e-02 -1.435898e-01 2.963245e-01
<VARIANCE> 39
 5.074763e+01 1.655400e+01 3.732766e+01 2.044703e+01 6.136087e+01 1.685726e+01 4.227940e+01 4.145304e+01 1.013982e+01 4.287505e+01 9.850781e+00 3.237079e+01 5.813015e+01 2.030895e+00 1.233072e+00 1.494959e+00 2.451529e+00 1.499435e+00 1.226093e+00 2.926205e+00 3.723505e+00 1.862923e+00 5.216361e+00 8.409804e-01 3.319392e+00 1.760512e+00 3.464810e-01 1.700774e-01 2.236378e-01 3.635899e-01 3.091998e-01 1.528051e-01 5.714902e-01 6.114714e-01 4.469146e-01 6.408769e-01 1.965080e-01 4.132677e-01 2.573178e-01
<GCONST> 1.098781e+02
<STATE> 4
<MEAN> 39
 -6.307793e+00 -2.019304e+00 -3.606860e+00 -2.281368e+00 1.315595e+00 -5.669998e+00 -3.070346e+00 -4.623473e-01 -4.888660e+00 -8.484483e+00 -1.202976e+01 -6.073803e+00 6.385519e+01 1.568954e+00 3.244224e-02 2.758623e-01 -6.848303e-01 -4.016406e-01 -1.003859e+00 -9.069531e-01 3.912186e-01 -4.938695e-01 3.178742e-01 9.734783e-01 -1.255878e+00 2.351089e+00 -4.114664e-02 -6.194372e-01 -1.532438e-01 -4.396190e-01 -6.380240e-01 -4.717978e-02 1.076845e-01 2.157745e-01 3.569779e-01 5.693358e-01 6.571043e-01 2.256447e-01 2.731673e-01
<VARIANCE> 39
 2.794171e+01 3.498060e+01 2.392310e+01 1.901883e+01 3.893309e+01 3.073940e+01 3.779302e+01 5.327763e+01 4.829617e+01 4.937503e+01 8.172982e+00 2.948170e+01 4.774051e+01 1.631861e+00 2.303235e+00 1.514648e+00 2.128558e+00 2.356483e+00 1.625821e+00 6.595293e+00 9.618197e-01 1.974832e+00 3.491791e+00 1.893466e+00 4.399609e+00 5.559012e+00 3.379250e-01 2.563287e-01 1.917455e-01 2.940291e-01 2.156688e-01 7.619271e-02 7.815578e-01 7.041674e-01 4.691552e-01 9.237080e-01 1.570246e-01 4.272197e-01 2.760867e-01
<GCONST> 1.131035e+02
<TRANSP> 5
 0.000000e+00 1.000000e+00 0.000000e+00 0.000000e+00 0.000000e+00
 0.000000e+00 8.148148e-01 1.851852e-01 0.000000e+00 0.000000e+00
 0.000000e+00 0.000000e+00 7.826087e-01 2.173913e-01 0.000000e+00
 0.000000e+00 0.000000e+00 0.000000e+00 5.833333e-01 4.166667e-01
 0.000000e+00 0.000000e+00 0.000000e+00 0.000000e+00 0.000000e+00
<ENDHMM>
~o
<STREAMINFO> 1 39
<VECSIZE> 39<NULLD><MFCC_D_A_0><DIAGC>
~h "i"
<BEGINHMM>
<NUMSTATES> 5
<STATE> 2
<MEAN> 39
 -7.155195e+00 4.473405e-01 9.760481e+00 -6.764504e+00 -1.601298e+01 -1.082852e+01 -9.442800e+00 -5.679460e+00 -1.469573e+01 2.658633e+00 -6.193876e-01 -3.533031e+00 6.892531e+01 2.202262e-01 -1.275843e-01 8.905065e-01 -1.069873e+00 -2.029988e+00 -7.954910e-01 -3.142122e-01 -1.331324e-01 -1.437739e+00 1.185788e+00 5.205110e-01 1.800311e-01 1.356425e+00 -7.372240e-02 4.054779e-01 -6.193677e-01 4.925174e-01 8.580641e-01 2.168775e-01 4.812747e-01 -6.661171e-03 5.703097e-01 -1.989437e-01 -3.627390e-01 3.128658e-02 -7.609650e-01
<VARIANCE> 39
 2.227010e+01 3.818133e+01 5.240617e+01 5.649171e+01 3.985328e+01 1.373405e+02 2.922899e+01 8.705132e+01 4.925243e+01 9.850578e+01 3.015774e+01 3.260123e+01 3.597854e+01 4.394215e+00 3.305367e+00 4.175275e+00 3.258173e+00 6.406901e+00 7.637153e+00 5.119846e+00 4.667847e+00 3.759318e+00 4.368329e+00 3.558259e+00 3.195267e+00 3.374172e+00 9.178386e-01 6.920614e-01 9.174693e-01 7.153790e-01 1.160777e+00 1.625341e+00 8.289952e-01 9.972012e-01 9.204460e-01 1.126918e+00 7.923717e-01 3.568070e-01 4.096251e-01
<GCONST> 1.380725e+02
<STATE> 3
<MEAN> 39
 -1.170847e+01 8.841208e+00 8.659359e+00 -7.150822e+00 -1.550887e+01 -1.000807e+01 -7.823819e+00 -1.283438e+01 -9.432996e+00 -1.942062e+00 -4.779131e+00 -3.769914e+00 7.118056e+01 -5.385566e-02 4.194037e-01 -5.186957e-01 4.862174e-01 7.621861e-01 -1.889094e-01 5.678155e-01 -3.358596e-01 3.197667e-01 -1.508490e-01 -1.902265e-01 4.031904e-01 -5.690373e-01 2.168015e-02 3.414533e-02 -1.683837e-01 3.717305e-01 5.754018e-01 2.249118e-01 1.054121e-02 1.696907e-01 2.078334e-01 -1.574175e-01 -4.927848e-02 -8.568256e-02 -4.930041e-01
<VARIANCE> 39
 2.812605e+01 5.356705e+01 3.168242e+01 3.282770e+01 7.489281e+01 5.108521e+01 5.368744e+01 6.978444e+01 5.940030e+01 3.654129e+01 3.135413e+01 5.196238e+01 1.242801e+02 8.672541e-01 2.096298e+00 1.514149e+00 2.473327e+00 3.235088e+00 2.431049e+00 2.500663e+00 2.297616e+00 2.996014e+00 2.470562e+00 2.537174e+00 1.971807e+00 1.393714e+00 3.216862e-01 3.661112e-01 3.587503e-01 2.884039e-01 9.432946e-01 4.483134e-01 5.973080e-01 6.534107e-01 7.047132e-01 5.386887e-01 7.054839e-01 5.001988e-01 3.617573e-01
<GCONST> 1.227578e+02
<STATE> 4
<MEAN> 39
 -1.137034e+01 7.250549e+00 4.559015e+00 -2.020341e+00 -6.922551e+00 -8.371775e+00 -3.230305e+00 -9.099016e+00 -8.148021e+00 4.132323e-01 -3.604550e+00 -1.895786e+00 6.210140e+01 -7.272109e-01 2.320759e-01 -1.229271e+00 1.267789e+00 2.538687e+00 1.444426e+00 5.626626e-01 7.070219e-01 1.705116e+00 -5.408866e-01 -4.521544e-01 -4.647709e-01 -2.414712e+00 -1.463214e-01 -3.099743e-01 1.379406e-01 -2.127021e-01 -2.337432e-01 3.710855e-01 -1.487448e-01 2.162962e-01 -1.102208e-01 9.569580e-02 6.432229e-02 -5.709822e-02 -1.744667e-02
<VARIANCE> 39
 4.792371e+01 3.000840e+01 2.468669e+01 1.952765e+01 7.483640e+01 1.243020e+02 4.521138e+01 3.830264e+01 4.394833e+01 3.453858e+01 3.370823e+01 4.450105e+01 1.379775e+02 5.926229e+00 4.637263e+00 3.478879e+00 3.090651e+00 5.728963e+00 5.352582e+00 3.648391e+00 5.392695e+00 4.820452e+00 5.085046e+00 4.643819e+00 3.390654e+00 2.770519e+00 3.760766e-01 4.363493e-01 3.242692e-01 4.153468e-01 8.282547e-01 1.022991e+00 5.631561e-01 4.399880e-01 5.651032e-01 6.015061e-01 5.508609e-01 4.540426e-01 4.765905e-01
<GCONST> 1.317735e+02
<TRANSP> 5
 0.000000e+00 1.000000e+00 0.000000e+00 0.000000e+00 0.000000e+00
 0.000000e+00 6.352941e-01 3.647059e-01 0.000000e+00 0.000000e+00
 0.000000e+00 0.000000e+00 7.847222e-01 2.152778e-01 0.000000e+00
 0.000000e+00 0.000000e+00 0.000000e+00 6.736842e-01 3.263158e-01
 0.000000e+00 0.000000e+00 0.000000e+00 0.000000e+00 0.000000e+00
<ENDHMM>
~o
<STREAMINFO> 1 39
<VECSIZE> 39<NULLD><MFCC_D_A_0><DIAGC>
~h "j"
<BEGINHMM>
<NUMSTATES> 5
<STATE> 2
<MEAN> 39
 -8.783500e-01 9.008870e+00 5.957910e+00 1.314556e+00 -3.188275e+00 -5.125221e+00 -5.746897e+00 -4.021947e+00 -5.822541e+00 -4.194108e+00 -7.019911e+00 -7.252613e+00 5.856610e+01 -3.245859e+00 2.341690e-01 1.193853e+00 -1.165302e+00 1.318265e+00 3.277546e+00 9.212822e-01 1.604969e-01 3.639687e-01 -5.934477e-01 3.893975e-01 9.858454e-01 3.194869e-01 -8.040509e-01 -6.714984e-01 1.090767e-01 -1.001679e+00 -7.789977e-01 -5.837124e-01 -1.000933e+00 -2.548297e-01 -1.723027e-01 -3.281690e-01 6.049576e-01 9.808699e-01 1.504885e+00
<VARIANCE> 39
 1.862912e+00 1.413006e+01 1.241502e+00 5.988404e+00 9.374408e+00 4.128922e+01 1.826784e+00 2.724100e+01 2.787402e+01 1.669886e+01 6.289508e+01 3.286974e+01 5.879401e+01 3.415952e+00 1.142728e+00 8.469482e-01 2.930658e+00 4.573836e+00 1.189434e+00 2.072198e+00 1.555316e+00 4.000996e-01 3.767266e+00 1.074988e+01 5.059159e+00 3.340139e+00 2.895585e-01 8.982024e-02 2.485189e-01 1.030323e-01 5.295380e-01 1.270416e+00 1.799783e-01 1.123667e+00 2.611242e-01 6.321017e-01 2.369292e-01 2.594859e-01 2.068002e-01
<GCONST> 9.994276e+01
<STATE> 3
<MEAN> 39
 -1.498028e+01 6.415564e+00 1.068442e+01 -9.622990e+00 -1.603509e+00 3.155203e+00 -9.752581e+00 -1.495756e+00 -5.971152e+00 -9.574048e+00 -6.803875e-01 9.744375e-01 6.669608e+01 -2.969806e+00 -1.354412e+00 5.967095e-01 -2.426082e+00 -2.690258e+00 -2.243396e+00 -1.384810e+00 -1.861731e+00 -2.787840e-01 1.509228e-01 1.218120e+00 1.972184e+00 4.759076e+00 2.020911e+00 -6.697307e-01 -7.687307e-01 8.826553e-01 -1.232681e+00 -2.367659e+00 -4.339056e-01 -4.597189e-01 -3.688616e-01 1.075228e+00 -2.511230e-01 -6.217437e-01 2.266383e-01
<VARIANCE> 39
 1.491473e+01 7.053818e+00 2.031534e+01 1.383375e+01 3.926457e+01 3.586964e+01 5.461066e+00 1.685094e+01 8.564147e+00 2.439552e+01 6.343254e+01 1.176261e+01 1.043881e+02 2.921517e+00 8.971104e-01 4.289482e+00 1.437725e+00 4.736722e+00 6.412937e+00 2.712997e-01 6.465923e+00 8.254304e-01 1.968960e+00 7.447885e+00 1.892383e+00 8.651497e-02 4.861077e-01 4.309445e-01 2.899809e-01 1.751600e-01 1.111291e+00 5.406746e-01 1.107994e-01 8.449020e-01 1.599092e-01 5.577167e-01 2.046801e+00 1.002789e+00 5.146950e-01
<GCONST> 1.080081e+02
<STATE> 4
<MEAN> 39
 -1.268320e+01 5.486197e+00 8.062048e+00 -6.160760e+00 -1.088572e+01 -1.209607e+01 -1.116129e+01 -1.276272e+01 -7.934936e+00 -4.254831e+00 -9.889808e-01 -8.745247e-01 7.464103e+01 3.061141e+00 -2.310197e+00 -2.035412e+00 1.332605e+00 -3.918529e+00 -5.146358e+00 -1.722405e+00 -2.075341e+00 -1.472506e+00 2.993747e+00 -8.405133e-02 -7.736978e-01 2.187209e+00 1.508229e+00 -2.364324e-01 -8.204219e-01 5.297379e-01 2.737128e-01 4.910924e-01 1.988678e-02 9.430093e-01 2.232904e-01 5.237677e-01 -7.474455e-01 -7.323421e-01 -1.090383e+00
<VARIANCE> 39
 1.554976e+01 2.008854e+01 4.694172e+01 1.539812e+01 2.338480e+01 4.739537e+01 3.685864e+00 3.441360e+01 9.624887e+00 1.213386e+01 1.371247e+01 2.012011e+01 6.151052e+01 9.379116e-01 2.309650e+00 4.000930e+00 5.955125e-01 1.483511e+00 3.773448e+00 8.571543e-01 6.471220e+00 2.243901e+00 7.707241e-01 8.276541e+00 3.040803e+00 9.694163e-01 4.106859e-01 4.522168e-01 5.294662e-01 3.435809e-01 8.298110e-01 6.666248e-01 3.515482e-01 2.932304e-01 2.684962e-01 2.107142e-01 8.845129e-01 2.398680e-01 3.046974e-02
<GCONST> 1.050112e+02
<TRANSP> 5
 0.000000e+00 1.000000e+00 0.000000e+00 0.000000e+00 0.000000e+00
 0.000000e+00 6.250000e-01 3.750000e-01 0.000000e+00 0.000000e+00
 0.000000e+00 0.000000e+00 5.000000e-01 5.000000e-01 0.000000e+00
 0.000000e+00 0.000000e+00 0.000000e+00 4.000000e-01 6.000000e-01
 0.000000e+00 0.000000e+00 0.000000e+00 0.000000e+00 0.000000e+00
<ENDHMM>
~o
<STREAMINFO> 1 39
<VECSIZE> 39<NULLD><MFCC_D_A_0><DIAGC>
~h "k"
<BEGINHMM>
<NUMSTATES> 5
<STATE> 2
<MEAN> 39
 -1.321761e+01 4.706588e+00 -4.353375e-01 4.028003e+00 2.589792e+00 -1.713810e+00 -4.510712e+00 -2.286769e+00 -1.581897e+00 -2.087123e+00 -5.245991e+00 -3.922740e+00 4.512414e+01 -2.183052e+00 -2.442759e-01 2.766981e-01 4.845661e-01 -3.674573e-01 1.648482e+00 7.697157e-01 2.840082e-01 6.895334e-01 -1.653752e-02 2.491169e-01 2.079164e+00 -2.320013e+00 7.807056e-01 -1.354165e+00 -1.234243e+00 -1.068359e+00 -2.648552e-01 -1.318407e+00 -3.409902e-01 2.319618e-01 1.789419e-01 5.247278e-01 1.551402e-01 -6.569247e-02 2.669822e+00
<VARIANCE> 39
 9.682206e+00 6.555180e+00 1.061549e+01 1.129271e+01 1.008417e+01 1.789968e+01 1.862033e+01 1.017841e+01 1.960871e+01 1.180461e+01 1.224428e+01 2.249209e+01 2.127622e+01 3.579951e+00 4.679951e+00 4.232141e+00 3.128006e+00 2.764302e+00 5.661262e+00 2.363932e+00 2.496711e+00 5.000181e+00 3.217983e+00 1.215110e+00 1.330665e+00 1.840106e+01 6.287194e-01 1.813337e-01 2.627081e-01 1.697208e-01 1.094595e+00 1.072663e+00 4.374553e-01 4.005788e-01 6.243710e-01 6.106233e-01 4.510952e-01 3.022399e-01 7.215767e-01
<GCONST> 1.111273e+02
<STATE> 3
<MEAN> 39
 -1.455762e+01 -3.644476e+00 -9.249467e+00 -8.850904e-01 1.523429e+00 -8.539078e+00 -8.431092e+00 -2.092495e+00 2.947222e+00 2.929287e+00 -5.701310e+00 1.635166e+00 5.685308e+01 5.343477e-01 -1.443156e+00 -3.402635e+00 -1.088940e+00 3.580523e-01 -3.307624e+00 -1.077950e+00 7.469245e-01 1.166502e-01 1.750971e-01 -1.087311e+00 -4.961582e-01 4.362616e+00 5.726743e-01 9.305462e-01 6.543539e-01 2.725390e-01 2.244070e-01 1.448804e-02 8.396295e-01 1.408152e-01 -6.411440e-01 -6.724692e-01 -6.554027e-02 -1.059549e+00 -2.859711e-01
<VARIANCE> 39
 1.952116e+01 2.315715e+01 4.533611e+01 9.718583e+00 1.668199e+01 5.519118e+01 4.906764e+01 2.586851e+00 3.819823e+01 2.544706e+01 1.214937e+01 3.470078e+01 6.656421e+01 3.789748e+00 3.657945e+00 2.330861e+00 1.383996e+00 3.592716e+00 4.467356e+00 4.782921e+00 5.672475e+00 3.071003e+00 7.408289e+00 1.109397e+00 3.456288e+00 3.064599e+00 4.297784e-01 7.409796e-01 2.160739e+00 2.290268e-01 3.308885e-01 2.091640e+00 1.584032e+00 1.119951e+00 6.361290e-01 7.526560e-01 3.502190e-01 3.062905e-01 2.304076e+00
<GCONST> 1.243581e+02
<STATE> 4
<MEAN> 39
 -1.019012e+01 3.570101e-01 -8.008628e+00 -1.720598e+00 4.190989e+00 -1.262190e+01 -3.197183e+00 3.722849e+00 -1.793352e+00 -5.605717e-01 -7.598205e+00 -3.650268e+00 6.034007e+01 2.653549e+00 3.420914e-01 1.757217e+00 -8.575810e-01 -3.522398e-01 -4.792026e-01 1.714523e+00 3.932563e-01 -1.460614e+00 -7.193291e-01 5.491925e-01 -2.093680e+00 1.743211e+00 2.474664e-01 -6.438780e-01 9.860562e-02 -5.188109e-01 -5.224174e-01 3.537396e-01 -7.336256e-02 -4.309997e-01 -1.243661e-01 4.949007e-01 4.807130e-01 -1.013451e-01 3.157655e-01
<VARIANCE> 39
 5.574471e+01 3.381670e+01 4.009380e+01 2.572295e+01 5.211616e+01 3.581620e+01 3.303999e+01 7.190916e+01 1.245515e+01 6.561527e+01 1.906305e+01 3.528236e+01 2.522091e+01 1.726624e+00 5.726320e+00 7.111158e+00 2.853127e+00 2.753400e+00 7.376350e+00 9.656689e+00 4.620491e+00 3.043844e+00 1.284318e+00 1.278213e+00 1.922093e+00 6.899617e+00 9.875253e-01 5.781637e-01 1.793314e+00 3.105210e-01 6.588359e-01 8.481660e-01 7.189940e-01 5.798800e-01 2.903413e-01 7.122946e-01 1.797194e-01 4.434922e-01 7.792203e-01
<GCONST> 1.272541e+02
<TRANSP> 5
 0.000000e+00 1.000000e+00 0.000000e+00 0.000000e+00 0.000000e+00
 0.000000e+00 7.000000e-01 3.000000e-01 0.000000e+00 0.000000e+00
 0.000000e+00 0.000000e+00 6.666667e-01 3.333333e-01 0.000000e+00
 0.000000e+00 0.000000e+00 0.000000e+00 6.666667e-01 3.333333e-01
 0.000000e+00 0.000000e+00 0.000000e+00 0.000000e+00 0.000000e+00
<ENDHMM>
~o
<STREAMINFO> 1 39
<VECSIZE> 39<NULLD><MFCC_D_A_0><DIAGC>
~h "l"
<BEGINHMM>
<NUMSTATES> 5
<STATE> 2
<MEAN> 39
 -6.377389e+00 -2.649143e+00 -3.540405e+00 -8.678399e+00 -7.194824e+00 -4.686986e+00 -5.256765e+00 -8.882304e+00 -2.361738e+00 8.335381e+00 -8.432910e+00 -3.799662e+00 6.769855e+01 5.663574e-01 1.936901e-01 9.378628e-01 7.129661e-01 -7.748078e-01 -3.394690e-01 -1.024803e+00 -1.586317e+00 -1.940993e-01 7.926041e-01 -5.579581e-03 -3.028298e-01 -3.116935e-01 -7.986863e-02 2.596613e-01 -7.535660e-03 8.087474e-02 1.712450e-01 -9.205194e-02 -1.356797e-01 1.024744e-01 -2.938138e-01 -1.549618e-01 2.253247e-01 -2.698417e-01 4.168415e-03
<VARIANCE> 39
 6.101551e+01 2.897211e+01 3.453988e+01 4.703547e+01 1.043499e+02 3.608364e+01 7.414896e+01 9.051965e+01 5.230370e+01 3.571472e+01 7.483289e+01 2.720734e+01 1.434237e+02 2.830476e+00 1.943127e+00 1.357493e+00 3.423982e+00 2.013468e+00 2.766706e+00 3.731592e+00 3.633920e+00 2.846276e+00 2.264791e+00 2.204010e+00 2.031732e+00 2.147500e+00 3.051708e-01 2.768648e-01 4.047115e-01 3.994360e-01 4.149127e-01 3.745456e-01 7.160903e-01 6.956167e-01 6.827323e-01 3.686449e-01 2.353869e-01 2.504441e-01 2.424085e-01
<GCONST> 1.229231e+02
<STATE> 3
<MEAN> 39
 -6.643935e+00 1.423333e-01 -2.464896e+00 -3.603315e+00 -1.048977e+01 -8.888276e+00 -1.014131e+01 -1.794690e+01 -4.111897e+00 8.872655e+00 -8.717314e+00 -8.469368e+00 6.811473e+01 1.371168e+00 6.102715e-01 3.097349e-01 1.074315e-01 4.300476e-01 -1.151539e+00 -1.671502e+00 4.623447e-01 -1.087862e+00 -6.851836e-01 6.159691e-01 -8.170419e-01 7.769064e-01 -1.090721e-01 -2.752895e-01 -3.200843e-01 -4.553196e-01 3.895495e-01 -1.796513e-01 4.218592e-01 1.480195e+00 1.805533e-01 -7.083543e-01 1.340649e-01 3.660896e-01 2.986282e-01
<VARIANCE> 39
 3.243270e+01 2.706128e+01 4.717377e+01 5.351849e+01 4.314016e+01 3.125483e+01 7.565126e+01 1.019320e+02 6.429319e+01 3.189923e+01 4.841296e+01 1.772930e+01 1.416282e+02 4.574471e+00 3.766529e+00 3.756910e+00 3.424953e+00 3.090647e+00 3.728079e+00 7.104939e+00 7.272727e+00 7.053896e+00 4.219689e+00 4.483537e+00 1.767620e+00 8.361131e+00 6.817576e-01 3.758554e-01 6.950052e-01 7.013558e-01 3.044428e-01 5.292537e-01 1.821278e+00 8.647137e-01 8.740003e-01 6.048769e-01 4.776473e-01 5.614797e-01 5.790421e-01
<GCONST> 1.352057e+02
<STATE> 4
<MEAN> 39
 -3.899813e+00 -2.604379e+00 -2.746785e+00 -7.319424e+00 -9.686489e+00 -1.292725e+01 -1.326176e+01 -7.713168e+00 -5.752100e+00 5.855581e+00 -5.653294e+00 -9.782231e+00 7.406872e+01 -1.469725e-01 -6.143697e-01 -7.654395e-01 -1.112338e+00 4.429302e-01 -1.249327e+00 1.022734e+00 3.393284e+00 5.662674e-01 -1.566418e+00 1.824427e-01 -8.534732e-02 1.591564e+00 -3.585618e-01 -6.588463e-02 -1.145326e-01 -7.614031e-02 -2.171284e-01 3.325537e-01 7.925890e-01 -2.021246e-02 3.727097e-01 -1.510353e-01 -4.941275e-01 2.722930e-01 -1.380749e-01
<VARIANCE> 39
 2.236809e+01 4.409111e+01 3.092979e+01 3.022300e+01 3.267968e+01 4.630172e+01 3.859156e+01 5.153591e+01 1.144665e+02 6.127879e+01 7.348750e+01 2.472229e+01 1.221264e+02 1.488418e+00 3.159868e+00 3.835888e+00 3.768269e+00 1.647151e+00 3.642445e+00 1.225751e+01 5.010107e+00 6.192461e+00 4.236678e+00 3.617627e+00 3.363272e+00 4.674783e+00 3.700181e-01 2.957138e-01 3.641815e-01 3.040974e-01 5.637956e-01 4.610001e-01 1.147535e+00 1.751553e+00 1.385705e+00 5.074897e-01 5.770392e-01 2.599606e-01 3.098786e-01
<GCONST> 1.304477e+02
<TRANSP> 5
 0.000000e+00 1.000000e+00 0.000000e+00 0.000000e+00 0.000000e+00
 0.000000e+00 7.111111e-01 2.888889e-01 0.000000e+00 0.000000e+00
 0.000000e+00 0.000000e+00 5.666667e-01 4.333333e-01 0.000000e+00
 0.000000e+00 0.000000e+00 0.000000e+00 4.800000e-01 5.200000e-01
 0.000000e+00 0.000000e+00 0.000000e+00 0.000000e+00 0.000000e+00
<ENDHMM>
~o
<STREAMINFO> 1 39
<VECSIZE> 39<NULLD><MFCC_D_A_0><DIAGC>
~h "m"
<BEGINHMM>
<NUMSTATES> 5
<STATE> 2
<MEAN> 39
 -3.617666e-03 -6.352499e-01 2.518174e+00 -2.371984e+00 -7.021797e+00 -1.107448e+00 -5.848621e+00 -1.502516e+01 -1.657326e+01 4.257362e+00 -1.844450e+00 -6.196718e+00 6.618371e+01 -5.320560e-01 -7.539619e-02 2.306305e+00 2.104502e+00 6.990497e-01 5.655998e-01 -1.901828e-01 -2.405779e+00 -1.867754e+00 1.224287e-01 -1.602689e+00 6.138810e-01 -7.952980e-01 -1.164094e-01 -6.096312e-01 -7.302234e-01 -9.014438e-01 1.968703e-01 -9.495445e-02 -2.274237e-01 7.817404e-01 1.154739e+00 -3.614115e-01 8.268009e-02 7.727379e-02 7.261529e-01
<VARIANCE> 39
 9.385718e+00 2.832146e+01 3.125512e+01 3.286462e+01 2.676816e+01 3.562429e+01 3.352226e+01 3.794518e+01 1.828607e+01 1.634624e+01 7.048688e+01 2.436647e+01 5.260897e+01 1.809389e-01 1.477072e+00 3.131065e+00 3.274872e+00 1.559391e+00 1.350900e+00 1.850631e+00 5.361755e+00 4.500649e+00 2.218748e+00 4.982293e+00 2.862791e+00 1.091156e+00 1.303428e-01 2.041885e-01 8.366647e-01 7.265335e-01 4.244520e-01 5.211747e-01 8.294475e-01 9.981482e-01 8.391510e-01 4.372527e-01 1.557611e+00 5.035755e-01 1.665975e-01
<GCONST> 1.155497e+02
<STATE> 3
<MEAN> 39
 -1.685207e+00 -3.716389e+00 7.726551e+00 -3.463169e+00 -8.651270e+00 -6.218200e-01 -1.293139e+01 -1.474961e+01 -1.178273e+01 1.769444e+00 -6.753130e+00 -6.494530e+00 7.130492e+01 -1.971172e-01 -3.303360e-01 -6.066501e-01 -6.089823e-01 -5.625476e-04 -4.977034e-01 -7.531378e-02 1.074651e+00 1.000104e+00 -5.736411e-01 1.701879e-01 -2.179728e-02 5.035309e-01 -2.824460e-02 8.124035e-02 -9.306843e-01 -5.544469e-01 -1.308800e-01 -2.089735e-01 3.200252e-01 6.042120e-01 3.244860e-01 1.639294e-01 4.346429e-01 -3.752041e-01 3.240665e-01
<VARIANCE> 39
 1.026375e+01 2.118896e+01 2.744710e+01 1.625139e+01 5.828313e+01 4.216039e+01 5.055394e+01 4.929229e+01 5.248262e+01 1.682441e+01 9.783435e+01 2.373971e+01 6.980550e+01 3.125230e-01 3.942654e-01 3.314644e+00 1.531327e+00 1.904922e+00 1.304722e+00 1.596752e+00 1.632517e+00 2.087117e+00 1.385970e+00 2.206962e+00 2.221016e+00 6.590147e-01 4.769786e-02 1.131308e-01 4.178012e-01 1.806196e-01 4.136306e-01 2.360964e-01 1.207037e-01 5.144078e-01 6.583567e-01 3.046814e-01 6.410995e-01 5.903207e-01 5.762517e-02
<GCONST> 1.028572e+02
<STATE> 4
<MEAN> 39
 -2.128845e+00 -3.794275e+00 -4.046057e+00 -7.746870e+00 -5.570163e+00 -1.535047e+00 -6.180768e+00 -1.026778e+01 -8.983511e+00 9.613637e-01 -1.141114e+00 -6.082937e+00 7.032292e+01 -5.383698e-01 -1.094224e+00 -3.446492e+00 -2.566325e+00 5.298463e-01 -9.753553e-01 1.057199e+00 2.692878e+00 3.047391e+00 3.832738e-01 -8.490939e-02 -2.008085e+00 1.850178e+00 -1.673186e-01 -1.407949e-01 3.436459e-01 1.629644e-01 3.525051e-01 -3.171135e-01 6.957241e-02 1.462918e-01 -2.129349e-02 1.012073e-01 -7.968149e-01 -2.642611e-01 -1.054481e-01
<VARIANCE> 39
 1.743187e+01 2.300183e+01 8.362613e+01 3.116793e+01 1.382819e+01 3.984021e+01 3.380058e+01 4.300716e+01 7.082516e+01 1.483176e+01 4.239263e+01 1.335578e+01 4.714967e+01 5.226095e-01 2.109504e+00 2.317731e+00 1.220460e+00 1.766515e+00 1.917580e+00 1.865120e+00 1.834908e+00 6.350350e+00 8.952329e-01 4.115059e+00 1.348237e+00 1.200145e+00 1.275759e-01 3.135401e-01 6.038335e-01 6.019776e-01 8.721315e-01 2.672715e-01 5.520809e-01 4.106252e-01 1.052029e+00 2.771502e-01 2.998654e-01 3.838449e-01 1.773844e-01
<GCONST> 1.112058e+02
<TRANSP> 5
 0.000000e+00 1.000000e+00 0.000000e+00 0.000000e+00 0.000000e+00
 0.000000e+00 6.363636e-01 3.636364e-01 0.000000e+00 0.000000e+00
 0.000000e+00 0.000000e+00 7.333333e-01 2.666667e-01 0.000000e+00
 0.000000e+00 0.000000e+00 0.000000e+00 4.666667e-01 5.333334e-01
 0.000000e+00 0.000000e+00 0.000000e+00 0.000000e+00 0.000000e+00
<ENDHMM>
~o
<STREAMINFO> 1 39
<VECSIZE> 39<NULLD><MFCC_D_A_0><DIAGC>
~h "n"
<BEGINHMM>
<NUMSTATES> 5
<STATE> 2
<MEAN> 39
 -1.357751e+00 1.861378e+00 5.130410e+00 -1.614152e+00 -1.249219e+01 -1.067676e+01 -9.948752e+00 -1.198749e+01 -5.083720e+00 3.076941e+00 -1.072840e+01 -8.947521e+00 6.809775e+01 7.318157e-01 1.047211e+00 1.463545e+00 8.186428e-01 -6.825964e-01 1.482995e+00 -6.083113e-01 -1.898033e+00 5.040290e-01 2.756742e-01 -4.921533e-01 -3.151065e-01 -1.614216e+00 -3.821322e-01 -2.864699e-01 -5.089105e-01 -5.874796e-01 2.231349e-01 -9.050296e-02 1.181246e-01 8.247291e-01 -1.042802e-01 -4.579707e-01 2.963857e-01 3.516514e-01 6.310983e-01
<VARIANCE> 39
 1.022177e+01 2.160547e+01 2.418093e+01 1.276379e+01 4.902790e+01 3.683571e+01 2.364362e+01 3.640544e+01 5.762429e+01 5.138929e+01 8.400934e+01 2.920427e+01 9.691850e+01 8.818210e-01 3.097136e+00 3.428947e+00 2.916000e+00 2.738712e+00 3.204466e+00 2.064581e+00 8.432057e+00 3.452667e+00 2.789424e+00 4.120408e+00 1.347366e+00 2.189249e+00 1.960299e-01 2.344245e-01 8.232239e-01 3.668187e-01 8.159779e-01 5.564412e-01 3.357309e-01 1.020019e+00 5.398155e-01 4.384235e-01 5.765900e-01 2.803434e-01 1.350757e-01
<GCONST> 1.191307e+02
<STATE> 3
<MEAN> 39
 8.162913e-02 1.165918e+00 6.176515e+00 -2.709551e+00 -1.163443e+01 -6.566777e+00 -1.111900e+01 -1.037934e+01 -5.832039e+00 2.154304e+00 -7.423442e+00 -6.875585e+00 6.595694e+01 -3.747545e-01 6.197505e-01 -9.614728e-02 -3.517877e-01 9.996043e-01 8.400294e-04 6.770641e-02 6.184207e-01 -4.712493e-01 -4.603254e-01 5.259841e-01 2.913997e-02 -2.275985e-01 -4.348931e-01 1.545809e-02 -2.797586e-01 -2.270931e-01 3.867730e-01 -2.405261e-01 3.151874e-01 4.111918e-01 -9.693584e-02 -2.401000e-02 6.206153e-02 -5.037520e-02 2.208178e-01
<VARIANCE> 39
 7.889009e+00 3.680225e+01 1.373113e+01 1.277781e+01 3.993724e+01 3.245653e+01 3.106768e+01 2.814117e+01 3.316109e+01 5.061409e+01 1.010245e+02 2.867178e+01 9.052889e+01 9.335002e-01 1.125391e+00 1.211267e+00 9.745309e-01 2.599008e+00 1.492756e+00 2.162017e+00 2.076641e+00 2.023106e+00 1.712799e+00 2.831859e+00 1.420801e+00 1.001163e+00 1.246278e-01 1.881108e-01 3.791995e-01 3.529241e-01 3.042750e-01 4.236287e-01 3.424217e-01 9.056796e-01 5.716817e-01 3.381081e-01 7.070478e-01 3.350686e-01 2.535026e-01
<GCONST> 1.086277e+02
<STATE> 4
<MEAN> 39
 -4.754126e+00 4.312287e+00 3.538796e+00 -4.337696e+00 -6.741092e+00 -9.189656e+00 -8.911397e+00 -8.869830e+00 -6.016935e+00 1.717708e-01 -7.922564e+00 -7.566383e+00 6.624732e+01 -1.451370e+00 -2.860692e-01 -1.101639e+00 -7.343030e-01 9.944899e-01 5.509653e-01 8.662507e-01 1.367714e+00 4.959896e-01 -5.457249e-01 1.719789e-02 4.957081e-02 4.384779e-01 -8.009747e-02 -3.962497e-01 -1.372731e-01 -1.060090e-01 -3.596527e-01 2.852533e-01 7.426890e-02 -9.947305e-02 1.191551e-01 5.552354e-02 -2.067194e-01 8.562241e-02 7.572556e-02
<VARIANCE> 39
 2.235093e+01 4.681975e+01 4.777468e+01 1.709886e+01 5.375172e+01 3.055424e+01 2.412906e+01 3.943057e+01 4.789025e+01 3.063622e+01 1.259537e+02 2.743431e+01 1.039635e+02 1.379910e+00 2.304755e+00 4.292406e+00 3.366496e+00 3.532712e+00 2.786923e+00 3.012815e+00 4.212161e+00 4.011134e+00 3.559789e+00 4.153736e+00 2.462085e+00 4.566543e+00 2.994192e-01 4.236200e-01 3.883125e-01 3.968932e-01 5.421727e-01 7.241697e-01 7.016861e-01 8.390883e-01 8.955101e-01 5.339897e-01 8.260316e-01 5.812379e-01 4.445437e-01
<GCONST> 1.271571e+02
<TRANSP> 5
 0.000000e+00 1.000000e+00 0.000000e+00 0.000000e+00 0.000000e+00
 0.000000e+00 5.400000e-01 4.600000e-01 0.000000e+00 0.000000e+00
 0.000000e+00 0.000000e+00 7.051282e-01 2.948718e-01 0.000000e+00
 0.000000e+00 0.000000e+00 0.000000e+00 5.740741e-01 4.259259e-01
 0.000000e+00 0.000000e+00 0.000000e+00 0.000000e+00 0.000000e+00
<ENDHMM>
~o
<STREAMINFO> 1 39
<VECSIZE> 39<NULLD><MFCC_D_A_0><DIAGC>
~h "ng"
<BEGINHMM>
<NUMSTATES> 5
<STATE> 2
<MEAN> 39
 -1.653299e+00 -1.965608e-01 1.335584e+00 -1.362944e+01 -1.625450e+01 -9.609573e-01 -8.428823e+00 -1.240865e+01 -4.482345e+00 8.302486e-01 -1.543384e+01 -7.488902e+00 7.026015e+01 -1.879893e-01 6.276308e-01 3.023205e+00 1.214077e+00 -8.509388e-01 -3.047785e-01 -2.477777e+00 5.197647e-01 1.108873e+00 -5.634088e-02 -2.146592e+00 -1.163155e+00 -1.417476e+00 3.030082e-02 -1.243878e-01 -9.049765e-01 1.306849e-01 4.653906e-01 -3.778983e-01 3.753287e-01 2.469564e-01 -1.346886e-01 -6.724160e-01 1.704901e+00 1.770360e-01 4.117296e-01
<VARIANCE> 39
 1.120523e+01 3.624271e+01 3.468679e+01 2.003449e+01 1.626275e+01 5.204973e+00 1.844111e+01 5.433932e+01 3.737591e+01 3.254768e+01 1.045185e+02 2.905021e+01 1.107548e+02 2.481310e-01 8.795956e-01 3.402364e+00 1.966433e+00 7.894984e-01 1.287363e+00 9.411243e-01 4.581295e+00 4.576887e+00 2.313582e+00 1.201822e+01 1.613287e+00 1.689332e+00 3.700425e-02 1.137331e-01 3.209777e-01 3.374872e-01 1.136034e-01 3.745624e-01 4.256166e-01 4.620753e-01 4.149251e-01 1.930487e-01 1.024080e+00 4.628411e-01 5.577286e-02
<GCONST> 1.044764e+02
<STATE> 3
<MEAN> 39
 6.219248e-01 -3.278574e+00 5.093299e+00 -7.566940e+00 -1.351894e+01 -2.378681e+00 -7.628092e+00 -9.729816e+00 -4.615007e+00 4.713276e+00 -3.690049e+00 -7.948846e+00 6.772253e+01 1.365636e-01 4.431369e-01 1.196553e-01 8.895499e-01 -3.393434e-01 -4.900192e-01 2.672143e-01 -6.090933e-01 -8.178226e-01 3.222396e-01 8.333203e-01 1.339819e-01 -5.029129e-01 4.256903e-02 7.208271e-02 -2.103793e-01 -1.282727e-01 1.049488e-01 1.141688e-01 2.949429e-01 -9.511632e-02 -3.184971e-01 9.265768e-02 1.662490e-01 9.964465e-02 -5.547763e-02
<VARIANCE> 39
 1.024106e+01 2.195661e+01 6.998078e+00 3.113333e+01 1.783327e+01 7.511583e+00 2.241186e+01 9.834878e+00 5.064145e+01 9.417912e+01 1.310554e+02 7.806724e+00 8.970932e+01 7.622892e-02 1.579974e-01 2.267738e-01 1.662758e-01 4.668586e-01 7.882928e-02 3.003131e-01 4.487575e-01 6.081855e-01 4.993757e-01 5.856295e-01 1.688281e+00 9.339956e-02 2.866407e-02 8.286145e-02 3.332260e-01 1.442151e-01 1.862683e-01 5.180720e-02 1.498565e-01 2.928730e-01 3.169784e-01 2.167811e-01 8.849771e-01 1.182151e-01 1.595106e-01
<GCONST> 7.247354e+01
<STATE> 4
<MEAN> 39
 -6.965606e-01 2.371150e+00 5.256729e+00 -6.879385e+00 -1.620885e+01 -5.732687e+00 -8.611294e+00 -1.323435e+01 -9.201317e+00 2.325573e+00 -9.609873e+00 -6.237196e+00 6.563559e+01 -1.573066e-01 1.403744e+00 -1.616453e+00 1.981228e-01 1.591332e+00 6.820275e-01 1.177267e+00 -4.305438e-01 -9.042566e-01 -3.523638e-01 2.035970e+00 3.960064e-01 -1.024130e+00 -3.330014e-01 2.762748e-01 -1.435857e+00 -8.127111e-01 9.121872e-01 4.752883e-01 4.540610e-01 -8.163264e-02 1.571974e-01 -1.407242e-01 4.412852e-01 1.977951e-01 4.899184e-01
<VARIANCE> 39
 9.750112e+00 1.223588e+01 3.540071e+01 3.702720e+01 3.019637e+00 3.283167e+00 3.085212e+01 2.784904e+00 4.991735e+01 4.955515e+01 1.736416e+02 1.015419e+01 1.181685e+02 3.257596e-01 1.191693e+00 6.786058e+00 7.768493e-01 1.905544e+00 7.373671e-01 1.987800e-01 2.240771e+00 5.201531e+00 3.166144e+00 8.509405e+00 1.190260e+00 1.730781e+00 5.184528e-02 1.464876e-01 1.308686e+00 1.622329e-01 3.595310e-01 5.349777e-02 2.191985e-01 1.018820e+00 7.468913e-01 1.820030e-01 1.031446e+00 3.856907e-01 5.823024e-01
<GCONST> 1.010196e+02
<TRANSP> 5
 0.000000e+00 1.000000e+00 0.000000e+00 0.000000e+00 0.000000e+00
 0.000000e+00 6.666667e-01 3.333333e-01 0.000000e+00 0.000000e+00
 0.000000e+00 0.000000e+00 7.692308e-01 2.307692e-01 0.000000e+00
 0.000000e+00 0.000000e+00 0.000000e+00 5.714286e-01 4.285714e-01
 0.000000e+00 0.000000e+00 0.000000e+00 0.000000e+00 0.000000e+00
<ENDHMM>
~o
<STREAMINFO> 1 39
<VECSIZE> 39<NULLD><MFCC_D_A_0><DIAGC>
~h "ny"
<BEGINHMM>
<NUMSTATES> 5
<STATE> 2
<MEAN> 39
 -4.105151e+00 -2.721198e+00 7.621577e+00 -7.253935e+00 -1.204807e+01 -7.490102e+00 -1.473805e+01 -7.569107e+00 -4.084193e+00 1.488296e+00 -5.492414e+00 -8.570161e+00 7.562077e+01 -1.335828e+00 1.001061e+00 -6.555709e-01 -1.726563e+00 -1.497294e+00 8.284123e-02 1.312692e+00 1.073852e+00 -4.878364e-01 1.169150e+00 -2.051133e-01 -9.682158e-01 1.004455e+00 -2.141588e-01 -8.679684e-02 -2.240355e-01 -2.049577e-01 -6.771066e-01 6.258339e-03 -2.943785e-01 8.120531e-01 -1.454259e-01 -4.786388e-01 -3.526172e-01 -8.417278e-02 3.040920e-01
<VARIANCE> 39
 2.257884e+01 1.167442e+01 2.229505e+00 7.297607e+00 6.887870e+01 1.546138e+01 8.697103e+00 2.127281e+01 5.624864e+00 4.763542e+01 6.289333e+01 7.013304e+00 1.033197e+02 2.127869e-01 8.501024e-02 1.031507e-01 3.192804e-01 2.262128e+00 8.117508e-01 6.576726e-01 1.134030e+00 4.137500e-01 4.627576e-01 7.078028e-01 1.814060e+00 1.178057e-01 3.508204e-02 1.711859e-01 7.287569e-02 1.311761e-01 5.395916e-01 1.041112e-01 6.380548e-02 4.449478e-01 2.496166e-01 3.469016e-01 3.013220e-01 6.776205e-01 1.207762e-02
<GCONST> 7.323895e+01
<STATE> 3
<MEAN> 39
 -8.924460e+00 -8.844889e-01 3.239542e+00 -1.124300e+01 -1.664900e+01 -8.578665e+00 -1.355190e+01 6.510231e-03 -4.915336e+00 4.400763e-01 -6.150012e+00 -1.105123e+01 8.012584e+01 -6.907927e-01 -9.555416e-01 -1.807062e+00 -9.611225e-01 -2.370986e-01 5.049866e-01 4.494902e-01 3.952671e+00 -6.456134e-01 -1.973682e+00 -6.564993e-01 1.136578e+00 1.561127e+00 5.973837e-01 -5.310788e-01 -1.834166e-01 3.639233e-01 7.496434e-01 3.555565e-01 1.094057e-01 3.668340e-01 -1.992066e-01 -8.581957e-01 -2.391120e-01 1.002656e+00 -2.064058e-01
<VARIANCE> 39
 1.935840e+01 5.092172e+00 4.108162e+00 7.488245e+00 9.877361e+01 6.016027e+01 6.790204e+00 2.396193e+01 6.120265e+00 1.952976e+01 1.169058e+02 5.829491e+01 1.293773e+02 6.751128e-01 8.228806e-01 1.307394e+00 3.548681e-01 3.098524e+00 1.573621e+00 1.982498e+00 2.585589e+00 9.186140e-01 1.091334e+00 1.151913e+00 3.459033e+00 1.572307e-01 1.829369e-02 1.679182e-01 1.834475e-01 7.964125e-02 7.986757e-01 1.841765e-01 9.666398e-02 4.632231e-01 9.979255e-02 1.779422e-01 1.071935e-01 3.885123e-01 5.545729e-02
<GCONST> 8.821111e+01
<STATE> 4
<MEAN> 39
 -6.335610e+00 -5.850533e+00 8.858743e-01 -1.230826e+01 -1.385528e+01 -4.027749e+00 -1.113367e+01 1.032773e+01 -8.259085e+00 -4.291865e+00 -6.723180e+00 -3.489652e+00 8.010399e+01 6.364767e-01 -1.144786e+00 -1.396682e+00 -2.861731e-01 9.666470e-01 7.348696e-01 1.036579e+00 2.834538e+00 -1.098549e+00 -2.503855e+00 -1.607825e+00 2.423951e+00 4.395745e-01 1.614614e-01 2.192069e-01 5.740968e-02 2.166287e-01 2.360715e-01 -4.596867e-01 -3.596886e-02 -8.728578e-01 -3.142027e-02 2.522476e-01 -2.884854e-02 -5.705376e-01 -3.720013e-01
<VARIANCE> 39
 1.914143e+01 5.063694e+00 4.157032e+01 9.728155e-02 1.470233e+01 5.550328e+01 5.989553e+01 5.111387e+01 1.392817e+01 2.657206e+01 1.363701e+02 5.294118e+01 1.291747e+02 6.354766e-02 4.334795e-01 1.949846e+00 6.548398e-01 4.715322e+00 5.533254e-01 1.402658e+00 1.480148e+00 4.992126e-01 3.663411e+00 6.391039e-01 1.366074e+00 9.481181e-02 7.883396e-02 1.010811e-01 1.754690e-01 2.142854e-01 2.704813e-01 6.986292e-02 2.380179e-01 4.217075e-01 2.659746e-01 2.990539e-01 3.661060e-01 3.374101e-01 1.000000e-02
<GCONST> 8.488456e+01
<TRANSP> 5
 0.000000e+00 1.000000e+00 0.000000e+00 0.000000e+00 0.000000e+00
 0.000000e+00 6.000000e-01 4.000000e-01 0.000000e+00 0.000000e+00
 0.000000e+00 0.000000e+00 6.000000e-01 4.000000e-01 0.000000e+00
 0.000000e+00 0.000000e+00 0.000000e+00 5.000000e-01 5.000000e-01
 0.000000e+00 0.000000e+00 0.000000e+00 0.000000e+00 0.000000e+00
<ENDHMM>
~o
<STREAMINFO> 1 39
<VECSIZE> 39<NULLD><MFCC_D_A_0><DIAGC>
~h "o"
<BEGINHMM>
<NUMSTATES> 5
<STATE> 2
<MEAN> 39
 -2.136305e+00 -1.889607e+00 -1.144119e+01 -1.420777e+01 -1.021555e+01 -6.596213e+00 -1.243819e+01 -1.143057e+01 -1.065921e+00 5.971906e+00 -2.239412e+00 -4.365666e+00 7.126048e+01 1.437680e+00 -1.184821e+00 -2.836877e-01 -1.481848e+00 -1.558773e+00 1.659105e+00 3.014680e-01 4.193293e-01 -9.232658e-01 5.227014e-01 8.238218e-01 -1.205558e+00 1.640761e+00 -5.708063e-01 2.227601e-01 5.580721e-01 1.893018e-01 4.552011e-01 3.026424e-01 7.251083e-01 3.916947e-01 -6.033540e-01 -2.718215e-01 2.335393e-01 1.820247e-01 -4.494291e-01
<VARIANCE> 39
 2.377370e+01 2.610072e+01 5.002178e+01 3.506008e+01 6.811774e+01 4.280143e+01 7.626733e+01 8.777114e+01 8.740060e+01 4.099810e+01 4.968779e+01 3.885353e+01 5.407315e+01 2.297085e+00 1.601178e+00 2.495674e+00 1.674376e+00 4.600085e+00 3.575219e+00 7.650295e+00 6.324424e+00 5.970231e+00 2.397878e+00 5.119895e+00 3.861640e+00 1.894202e+00 4.395286e-01 3.922465e-01 5.965615e-01 4.178551e-01 1.190871e+00 8.044017e-01 1.316952e+00 1.044040e+00 7.849231e-01 3.532001e-01 1.029755e+00 6.850955e-01 6.476636e-01
<GCONST> 1.328622e+02
<STATE> 3
<MEAN> 39
 -1.116487e+00 -2.037514e+00 -8.734472e+00 -1.700339e+01 -1.113365e+01 -5.946791e+00 -9.147486e+00 -6.935951e+00 -8.829283e+00 1.117749e+00 -1.071834e+00 -2.978907e+00 8.006594e+01 -7.427394e-02 2.471878e-01 3.689064e-02 -5.714563e-01 1.116339e-01 1.964742e-01 1.019956e+00 3.551518e-01 -3.786988e-01 -4.185550e-01 -4.820045e-03 -1.917938e-01 -1.055659e-01 -7.556941e-02 1.803411e-01 1.261658e-01 2.703373e-01 5.341607e-02 -7.109719e-02 -1.714563e-01 -2.040734e-01 1.827192e-01 9.530768e-02 -3.472620e-01 -1.582500e-01 -2.788388e-01
<VARIANCE> 39
 1.564254e+01 2.554176e+01 2.367336e+01 3.265248e+01 3.120921e+01 5.423488e+01 3.415395e+01 3.025979e+01 4.936672e+01 1.009334e+02 2.768892e+01 2.324511e+01 7.486876e+01 3.137725e-01 1.068666e+00 8.576057e-01 1.240185e+00 1.956526e+00 2.352169e+00 3.457163e+00 3.259622e+00 1.341540e+00 1.992996e+00 2.880932e+00 1.946593e+00 8.693070e-01 7.718479e-02 1.538678e-01 2.410674e-01 3.078664e-01 5.708769e-01 6.134841e-01 6.495284e-01 5.655184e-01 5.067443e-01 4.344762e-01 5.270595e-01 4.930841e-01 7.000475e-02
<GCONST> 1.088695e+02
<STATE> 4
<MEAN> 39
 -2.564422e+00 -2.139894e-01 -9.548956e+00 -1.395152e+01 -1.101050e+01 -2.821699e+00 -5.834336e+00 -1.068925e+01 -4.530848e+00 3.217751e+00 -1.634221e+00 -6.731822e+00 6.952520e+01 -2.854823e-01 4.212838e-01 1.993724e+00 1.773008e+00 2.309444e-01 -2.307651e-01 -5.000684e-01 -1.656375e-01 -3.898380e-01 1.629884e-01 -1.930556e+00 -5.853952e-02 -1.754103e+00 1.116006e-02 -5.578327e-02 2.804911e-01 3.922773e-01 1.912771e-01 -8.002372e-02 -2.574287e-01 -3.488304e-02 4.385454e-02 -3.094627e-02 -3.449059e-01 1.879059e-01 -1.663839e-01
<VARIANCE> 39
 2.132871e+01 5.380297e+01 5.073359e+01 6.828787e+01 5.629515e+01 5.816455e+01 2.984174e+01 9.362300e+01 1.112112e+02 1.137044e+02 6.416473e+01 2.833658e+01 8.576190e+01 1.684751e+00 4.129032e+00 3.532488e+00 4.805855e+00 4.760150e+00 3.141395e+00 3.562861e+00 5.285687e+00 1.033964e+01 6.664966e+00 8.895568e+00 4.439308e+00 3.174578e+00 2.270796e-01 5.913574e-01 5.742527e-01 9.153320e-01 8.041587e-01 5.372373e-01 5.305992e-01 1.111585e+00 1.196082e+00 7.821051e-01 1.620264e+00 7.315466e-01 5.944042e-01
<GCONST> 1.393452e+02
<TRANSP> 5
 0.000000e+00 1.000000e+00 0.000000e+00 0.000000e+00 0.000000e+00
 0.000000e+00 7.000000e-01 3.000000e-01 0.000000e+00 0.000000e+00
 0.000000e+00 0.000000e+00 7.945206e-01 2.054794e-01 0.000000e+00
 0.000000e+00 0.000000e+00 0.000000e+00 7.058824e-01 2.941177e-01
 0.000000e+00 0.000000e+00 0.000000e+00 0.000000e+00 0.000000e+00
<ENDHMM>
~o
<STREAMINFO> 1 39
<VECSIZE> 39<NULLD><MFCC_D_A_0><DIAGC>
~h "p"
<BEGINHMM>
<NUMSTATES> 5
<STATE> 2
<MEAN> 39
 -1.251086e+01 3.421539e+00 -8.042970e-01 1.036085e+00 1.792018e+00 1.001331e+00 -1.177994e+00 -1.861204e+00 -2.228066e+00 -1.690705e-01 -1.997190e+00 -9.957494e-01 4.710973e+01 -2.108747e+00 1.241392e-01 1.196226e+00 2.181486e+00 7.821382e-01 3.908111e-01 7.741785e-01 7.640874e-01 -2.598000e-01 -6.908544e-01 -2.107991e-01 9.034439e-01 -2.459684e+00 1.907376e-01 -4.672635e-01 -4.025669e-01 -5.600858e-01 -2.279717e-01 -4.482760e-01 -9.850851e-02 -6.215280e-02 -4.717091e-02 -1.822734e-01 -1.580035e-02 -1.664747e-01 1.257591e+00
<VARIANCE> 39
 3.012565e+01 1.966612e+01 2.083487e+01 3.070844e+01 1.433787e+01 1.143002e+01 1.376422e+01 1.674613e+01 1.960629e+01 1.861478e+01 2.386964e+01 2.486885e+01 5.247161e+01 2.785090e+00 3.767521e+00 3.926867e+00 2.904558e+00 1.522460e+00 2.832381e+00 2.261766e+00 1.992833e+00 3.086451e+00 2.455133e+00 2.076977e+00 2.076931e+00 8.003219e+00 8.742402e-01 8.451794e-01 8.327668e-01 1.395822e+00 6.761007e-01 4.023581e-01 8.561465e-01 6.286644e-01 4.775535e-01 6.949010e-01 5.212255e-01 4.219956e-01 1.684641e+00
<GCONST> 1.204579e+02
<STATE> 3
<MEAN> 39
 -1.624117e+01 8.296823e-01 -1.408988e+00 8.460516e-01 2.640080e-01 -3.754704e-02 -1.172576e+00 -7.319075e-01 -1.629388e+00 -2.155923e-02 6.083329e-02 1.693417e+00 4.840449e+01 1.664252e+00 -3.516321e-01 -7.216154e-01 -1.867126e+00 -9.917056e-01 -1.006547e+00 -1.083477e+00 -4.421598e-01 -3.009591e-01 1.030962e-01 -3.561330e-02 -6.412607e-01 4.015120e+00 1.433518e+00 -1.392993e-01 -4.914635e-01 -1.044088e+00 -2.277019e-01 -4.012780e-01 -5.863349e-01 -2.841919e-01 -2.285630e-01 1.843287e-01 -3.910136e-01 -1.068694e+00 1.665092e+00
<VARIANCE> 39
 4.452556e+00 1.193968e+01 6.091832e+00 8.057701e+00 1.904228e+01 1.198903e+01 1.330287e+01 2.543044e+01 1.930215e+01 1.746153e+01 2.543706e+01 1.574713e+01 7.787509e+01 3.785137e+00 1.661296e+00 1.926895e+00 1.188708e+00 3.088317e+00 2.901976e+00 3.619119e+00 2.640764e+00 2.853693e+00 2.949931e+00 3.997305e+00 2.992194e+00 5.853515e+00 2.102722e-01 2.898171e-01 5.640051e-01 4.055986e-01 6.797028e-01 5.060008e-01 4.560442e-01 3.315127e-01 6.845312e-01 4.331628e-01 5.560130e-01 5.257154e-01 1.328428e+00
<GCONST> 1.110726e+02
<STATE> 4
<MEAN> 39
 -5.303675e+00 1.491072e+00 -5.876952e+00 -6.855771e+00 -2.395513e+00 -6.049804e+00 -6.987715e+00 -5.362281e+00 -3.957336e+00 -2.146945e+00 -3.851699e+00 -5.192214e+00 6.398355e+01 3.186128e+00 -2.039968e+00 -2.611291e+00 -3.274638e+00 -9.052969e-01 -1.557031e+00 -7.764878e-01 2.908754e-01 -2.708156e-01 8.471561e-01 -1.144163e+00 -3.160306e+00 6.094510e+00 -6.836077e-01 -5.764512e-01 1.456308e-01 5.255159e-01 2.322626e-01 1.513621e-01 6.113917e-01 6.033885e-01 2.221287e-01 2.354962e-01 -9.648139e-02 1.198363e-01 -8.276117e-01
<VARIANCE> 39
 1.945013e+01 2.778248e+01 3.620319e+01 2.210384e+01 4.490034e+01 3.881561e+01 3.918064e+01 3.532189e+01 3.964910e+01 3.108677e+01 3.685971e+01 4.088170e+01 1.059631e+02 3.498507e+00 2.136870e+00 2.993145e+00 2.755705e+00 4.683455e+00 2.599728e+00 4.455627e+00 3.786433e+00 7.900037e+00 3.185193e+00 4.460735e+00 4.925677e+00 5.096399e+00 4.454581e-01 5.950156e-01 1.094953e+00 7.301139e-01 5.046112e-01 3.129608e-01 8.202775e-01 4.540932e-01 1.118589e+00 6.480960e-01 1.105557e+00 8.281878e-01 1.520910e+00
<GCONST> 1.314631e+02
<TRANSP> 5
 0.000000e+00 1.000000e+00 0.000000e+00 0.000000e+00 0.000000e+00
 0.000000e+00 6.086956e-01 3.913043e-01 0.000000e+00 0.000000e+00
 0.000000e+00 0.000000e+00 6.400000e-01 3.600000e-01 0.000000e+00
 0.000000e+00 0.000000e+00 0.000000e+00 5.714286e-01 4.285714e-01
 0.000000e+00 0.000000e+00 0.000000e+00 0.000000e+00 0.000000e+00
<ENDHMM>
~o
<STREAMINFO> 1 39
<VECSIZE> 39<NULLD><MFCC_D_A_0><DIAGC>
~h "r"
<BEGINHMM>
<NUMSTATES> 5
<STATE> 2
<MEAN> 39
 -4.932540e+00 6.597900e-02 -4.206766e+00 -1.523746e+00 -7.832483e+00 -9.049797e+00 -9.308624e+00 -8.563025e+00 1.163788e-01 -3.098382e-01 -6.333570e+00 -4.124709e+00 6.934063e+01 2.866493e-01 2.076568e-01 3.460582e-01 6.265006e-02 -6.054320e-01 1.310319e-01 -8.186921e-01 -5.562892e-01 2.714720e-01 1.127187e-01 4.058512e-02 9.130472e-02 -1.313341e-01 1.271970e-01 -1.454494e-01 -2.208737e-01 -3.110618e-01 2.495354e-02 -1.800393e-02 1.415298e-01 1.331048e-01 -2.652637e-01 2.717300e-01 -2.404697e-01 -3.178824e-01 1.774799e-01
<VARIANCE> 39
 1.160568e+01 1.977882e+01 2.411714e+01 3.303930e+01 6.770243e+01 2.625585e+01 2.524236e+01 6.892628e+01 3.687164e+01 4.781015e+01 2.709498e+01 2.233507e+01 1.007326e+02 2.598622e+00 2.386427e+00 4.969172e+00 2.195012e+00 3.147790e+00 2.753548e+00 3.833450e+00 4.958590e+00 3.383162e+00 4.539914e+00 2.892472e+00 2.533515e+00 3.070119e+00 5.104665e-01 4.295824e-01 5.751718e-01 5.152177e-01 8.825717e-01 5.212320e-01 4.476607e-01 9.743068e-01 7.419998e-01 5.892344e-01 3.439212e-01 3.245013e-01 6.173391e-01
<GCONST> 1.245527e+02
<STATE> 3
<MEAN> 39
 -3.140969e+00 -1.961973e+00 -5.610144e+00 -3.786356e+00 -7.947655e+00 -9.738634e+00 -1.177909e+01 -8.362831e+00 -1.779361e+00 2.117819e+00 -9.507318e+00 -6.409245e+00 6.949532e+01 -5.662931e-01 1.044036e+00 8.505923e-01 3.606428e-01 1.571705e+00 8.116851e-01 -5.825029e-02 1.127364e-01 -7.677345e-01 -2.565601e-01 4.163572e-01 2.287805e-01 -1.895358e+00 -5.049364e-01 3.065490e-01 1.999534e-01 3.796118e-01 3.725288e-01 3.939850e-01 6.733234e-01 2.993000e-01 -3.449364e-03 -2.963529e-01 2.452873e-01 2.128986e-01 -6.411448e-01
<VARIANCE> 39
 1.827387e+01 3.378968e+01 6.060205e+01 5.650387e+01 9.860119e+01 3.424476e+01 3.919426e+01 1.243300e+02 6.756128e+01 6.428104e+01 5.362086e+01 3.804149e+01 8.580802e+01 5.990503e+00 3.015382e+00 3.664699e+00 4.760681e+00 6.200480e+00 2.248496e+00 3.174939e+00 4.965291e+00 7.854702e+00 4.302846e+00 4.036053e+00 3.370033e+00 3.671876e+00 5.206550e-01 7.409091e-01 7.423635e-01 1.107038e+00 8.785682e-01 4.007052e-01 5.459933e-01 1.128065e+00 1.746645e+00 1.039559e+00 6.804555e-01 6.167313e-01 5.276880e-01
<GCONST> 1.382951e+02
<STATE> 4
<MEAN> 39
 -9.942119e+00 1.389355e+00 -9.850376e-01 2.009784e+00 -5.522696e-01 -2.940997e+00 -4.809203e+00 -3.579716e+00 -6.307020e-01 -7.338250e-01 -6.166247e+00 -1.642901e+00 5.763545e+01 -1.023168e+00 4.585996e-01 -1.087383e-02 1.818932e-01 6.107865e-02 1.097490e+00 1.225787e+00 3.682885e-01 -2.503636e-01 -6.410896e-01 4.269767e-01 6.225439e-01 -2.060755e+00 9.286898e-02 -2.723755e-01 -2.260518e-01 -4.739970e-01 -4.866423e-01 -1.880150e-01 4.044517e-02 1.087892e-01 -2.000615e-01 1.264585e-01 1.090547e-01 -2.249988e-02 3.344835e-01
<VARIANCE> 39
 7.884182e+01 2.883105e+01 2.873915e+01 3.722919e+01 9.086378e+01 3.244477e+01 4.825519e+01 8.355976e+01 1.868943e+01 3.145877e+01 4.042372e+01 4.076429e+01 1.247013e+02 5.441188e+00 4.236040e+00 3.640604e+00 5.521495e+00 6.872044e+00 2.371210e+00 3.638126e+00 5.508015e+00 4.712829e+00 6.726743e+00 6.481625e+00 2.344686e+00 3.343822e+00 8.204903e-01 4.605442e-01 5.679895e-01 8.320947e-01 8.938044e-01 5.139412e-01 5.175804e-01 9.252715e-01 6.344065e-01 9.777351e-01 8.377244e-01 4.828227e-01 4.480554e-01
<GCONST> 1.351714e+02
<TRANSP> 5
 0.000000e+00 1.000000e+00 0.000000e+00 0.000000e+00 0.000000e+00
 0.000000e+00 6.229508e-01 3.770492e-01 0.000000e+00 0.000000e+00
 0.000000e+00 0.000000e+00 5.490196e-01 4.509804e-01 0.000000e+00
 0.000000e+00 0.000000e+00 0.000000e+00 5.892857e-01 4.107143e-01
 0.000000e+00 0.000000e+00 0.000000e+00 0.000000e+00 0.000000e+00
<ENDHMM>
~o
<STREAMINFO> 1 39
<VECSIZE> 39<NULLD><MFCC_D_A_0><DIAGC>
~h "s"
<BEGINHMM>
<NUMSTATES> 5
<STATE> 2
<MEAN> 39
 -2.683614e+01 8.116329e+00 -2.485331e+00 -4.232194e-01 1.548388e+00 -6.384371e+00 2.833980e+00 -3.227087e+00 -4.343054e+00 -8.716806e-01 -7.078958e-01 8.722394e-02 6.585314e+01 -2.545153e+00 3.115740e-02 -9.371204e-01 -7.087620e-02 1.036511e+00 3.813609e-01 1.142596e-01 5.991009e-01 5.429879e-01 7.340024e-01 1.038458e+00 4.297682e-01 -3.577823e-01 8.159335e-01 -5.387037e-01 5.697578e-02 -5.420558e-01 -9.331611e-01 -4.740499e-01 -3.581812e-01 -2.626112e-01 -1.131128e-01 1.740199e-01 -4.038915e-01 1.283367e-01 2.958934e-01
<VARIANCE> 39
 3.109159e+01 1.953618e+01 8.998864e+00 1.247638e+01 3.961213e+01 2.138391e+01 3.442914e+01 4.003949e+01 1.135303e+01 1.886954e+01 2.162018e+01 1.438128e+01 1.173128e+02 3.963185e+00 3.061668e+00 1.271530e+00 1.677486e+00 5.117741e+00 4.418264e+00 2.495020e+00 2.226313e+00 2.370455e+00 2.032665e+00 2.698232e+00 1.603045e+00 2.516822e+00 8.563312e-01 5.743622e-01 3.649683e-01 3.269806e-01 1.024713e+00 6.571953e-01 7.494013e-01 5.195581e-01 5.466461e-01 5.771010e-01 4.242314e-01 2.411037e-01 2.065955e-01
<GCONST> 1.155112e+02
<STATE> 3
<MEAN> 39
 -3.170040e+01 5.029307e+00 -5.488058e+00 -4.810906e+00 3.906158e-01 -7.961214e+00 3.664802e+00 -1.199966e+00 -3.070296e+00 7.442841e-02 -4.057553e-01 3.003879e+00 6.758864e+01 1.220438e+00 -7.231928e-01 1.919145e-01 -8.068728e-01 -1.591630e+00 -1.592888e+00 -6.535994e-01 -3.024580e-01 -2.288541e-01 3.267223e-02 -9.827178e-01 1.196913e-01 4.678073e-01 1.655005e+00 -6.767157e-02 5.066908e-01 9.057107e-02 -7.102053e-01 -4.143832e-01 -5.550822e-01 -3.860091e-01 -2.717269e-01 -3.373533e-02 -3.791922e-01 -3.452049e-01 8.227553e-02
<VARIANCE> 39
 1.736654e+01 1.241253e+01 9.734091e+00 8.350299e+00 2.624708e+01 2.077412e+01 1.558812e+01 1.962449e+01 1.559093e+01 1.412078e+01 1.485317e+01 1.392902e+01 9.963020e+01 6.077305e+00 1.333430e+00 1.943056e+00 1.731058e+00 4.301777e+00 3.606467e+00 2.131221e+00 3.879625e+00 2.181072e+00 1.190911e+00 1.614525e+00 2.023891e+00 1.580361e+00 6.359413e-01 3.324650e-01 5.046735e-01 3.163743e-01 9.364484e-01 7.876627e-01 7.083008e-01 6.528236e-01 5.199198e-01 3.232227e-01 2.976957e-01 3.857417e-01 2.080128e-01
<GCONST> 1.095745e+02
<STATE> 4
<MEAN> 39
 -1.822833e+01 4.045549e+00 -2.452191e+00 -6.692257e+00 -7.989480e+00 -1.485447e+01 -4.608062e+00 -4.311200e+00 -3.851562e+00 2.129272e+00 -4.899221e+00 1.757848e+00 6.517071e+01 5.836277e+00 -9.520468e-01 8.522166e-01 -1.238490e+00 -3.617006e+00 -1.156716e+00 -3.365095e+00 -2.063498e+00 -4.293255e-02 1.298263e+00 -1.256881e+00 -9.358960e-01 8.319667e-01 -1.846951e-01 -2.729734e-02 -1.161988e-01 4.813021e-02 3.967168e-01 1.029604e+00 2.172675e-02 -9.039820e-02 -1.357505e-02 1.131283e-01 2.803603e-01 -5.635875e-01 2.753742e-01
<VARIANCE> 39
 5.961594e+01 1.277988e+01 4.440831e+01 3.534253e+01 3.430069e+01 2.536469e+01 5.979315e+01 4.121180e+01 5.267398e+01 3.477789e+01 3.161754e+01 3.176988e+01 4.037253e+01 2.761608e+00 2.251434e+00 9.205985e+00 3.188723e+00 6.325867e+00 6.882984e+00 6.186985e+00 8.395082e+00 1.079717e+01 2.895158e+00 1.880964e+00 3.791455e+00 2.508345e+00 1.056014e+00 3.431898e-01 4.771173e-01 4.236283e-01 1.052244e+00 6.125671e-01 1.230120e+00 1.331776e+00 1.143978e+00 4.665676e-01 5.452926e-01 4.619409e-01 4.150234e-01
<GCONST> 1.321848e+02
<TRANSP> 5
 0.000000e+00 1.000000e+00 0.000000e+00 0.000000e+00 0.000000e+00
 0.000000e+00 7.272727e-01 2.727273e-01 0.000000e+00 0.000000e+00
 0.000000e+00 0.000000e+00 6.756757e-01 3.243243e-01 0.000000e+00
 0.000000e+00 0.000000e+00 0.000000e+00 5.555556e-01 4.444444e-01
 0.000000e+00 0.000000e+00 0.000000e+00 0.000000e+00 0.000000e+00
<ENDHMM>
~o
<STREAMINFO> 1 39
<VECSIZE> 39<NULLD><MFCC_D_A_0><DIAGC>
~h "sil"
<BEGINHMM>
<NUMSTATES> 5
<STATE> 2
<MEAN> 39
 -1.640529e+01 1.328933e+00 -2.683072e+00 1.085377e+00 1.431059e+00 1.559751e+00 2.099284e-01 -1.506426e+00 -2.117012e+00 1.015953e-01 4.935813e-02 1.331374e+00 4.468342e+01 -4.889616e-01 -3.746087e-01 -1.237178e-01 5.384704e-02 9.110291e-02 1.654393e-01 3.725235e-01 6.130595e-01 3.570490e-01 1.439001e-01 4.651866e-01 3.379409e-01 -5.310630e-01 1.437756e-01 5.596812e-02 5.983653e-02 -5.263630e-02 -1.203698e-01 -1.194607e-01 -1.135126e-01 -7.796729e-02 -8.528265e-02 -4.030363e-02 -1.673708e-01 -7.457637e-02 1.970981e-01
<VARIANCE> 39
 1.072865e+01 1.253164e+01 1.449527e+01 1.041329e+01 1.524805e+01 1.977001e+01 2.477464e+01 2.335486e+01 2.468521e+01 1.977959e+01 1.698248e+01 1.044519e+01 5.786374e+01 1.423347e+00 1.196385e+00 1.496780e+00 1.504767e+00 2.162966e+00 1.830405e+00 2.021750e+00 2.756880e+00 2.415842e+00 2.560859e+00 2.630472e+00 1.676523e+00 9.265390e-01 1.903146e-01 1.777517e-01 2.870101e-01 2.799427e-01 3.114063e-01 3.097008e-01 3.219010e-01 4.974325e-01 4.488309e-01 5.388099e-01 3.928678e-01 2.607784e-01 1.284969e-01
<GCONST> 1.009320e+02
<STATE> 3
<MEAN> 39
 -1.751637e+01 -4.986327e-01 -3.409421e+00 2.663095e-01 7.688423e-01 1.002064e-01 -6.134745e-01 4.568726e-01 -5.330811e-01 2.828271e-01 1.030920e+00 2.513637e+00 4.792742e+01 -2.143214e-02 -4.459326e-02 -4.829095e-02 -5.926077e-02 -2.123237e-02 -1.018877e-01 -7.213061e-02 2.495562e-02 3.376181e-02 -2.558964e-02 1.322339e-02 -2.422565e-02 -5.827937e-03 -3.003042e-03 2.624052e-02 1.687173e-02 -3.840463e-03 2.923932e-02 3.292307e-02 6.374995e-03 -3.403674e-02 -2.752648e-02 1.953937e-02 -3.199266e-02 -3.674322e-02 1.745982e-02
<VARIANCE> 39
 3.952517e+00 8.991010e+00 7.446242e+00 6.382839e+00 7.504100e+00 1.288053e+01 1.340270e+01 1.631541e+01 1.606386e+01 1.380040e+01 1.645481e+01 1.390980e+01 6.812664e+01 1.328990e-01 2.131329e-01 4.174959e-01 5.687472e-01 7.861876e-01 1.017384e+00 1.036494e+00 1.310262e+00 1.439911e+00 1.112556e+00 1.356980e+00 1.141722e+00 6.486713e-02 2.911933e-02 4.187307e-02 8.837917e-02 1.126747e-01 1.544389e-01 1.896076e-01 2.091141e-01 2.734562e-01 3.247492e-01 2.268403e-01 2.817910e-01 2.579034e-01 1.279547e-02
<GCONST> 7.007854e+01
<STATE> 4
<MEAN> 39
 -1.574442e+01 2.267412e+00 -1.354817e+00 -1.151163e+00 -1.262063e+00 -7.610796e-01 -1.564928e+00 -1.959761e+00 -2.627318e+00 -3.872115e-01 -1.968206e+00 2.342068e-01 4.963668e+01 5.524121e-01 2.531363e-01 4.047869e-01 -5.751773e-01 -4.265430e-01 -3.531988e-01 -5.479692e-01 -6.038070e-01 -5.926076e-01 -3.356890e-02 -6.504917e-01 -8.302226e-01 1.310701e+00 1.149831e-01 -3.372360e-02 1.130311e-02 -1.536227e-01 -8.307905e-02 -2.272119e-01 -1.792688e-01 -8.894841e-02 -7.084420e-03 1.097948e-02 -3.638420e-02 -8.258562e-02 4.000634e-01
<VARIANCE> 39
 3.208050e+01 2.539885e+01 1.675757e+01 1.984077e+01 3.571271e+01 2.961871e+01 4.450745e+01 4.235221e+01 3.648253e+01 2.701368e+01 2.892518e+01 1.752506e+01 8.736913e+01 3.440898e+00 2.379502e+00 1.486798e+00 2.548517e+00 3.716940e+00 3.658969e+00 3.939791e+00 3.349195e+00 3.321179e+00 3.018681e+00 2.532376e+00 2.413208e+00 4.150383e+00 5.850167e-01 3.356807e-01 1.865521e-01 3.900990e-01 5.529928e-01 6.858286e-01 5.953704e-01 5.311516e-01 7.058815e-01 4.799108e-01 5.617212e-01 3.909741e-01 4.264293e-01
<GCONST> 1.206275e+02
<TRANSP> 5
 0.000000e+00 1.000000e+00 0.000000e+00 0.000000e+00 0.000000e+00
 0.000000e+00 8.461539e-01 1.538462e-01 0.000000e+00 0.000000e+00
 0.000000e+00 0.000000e+00 9.367089e-01 6.329113e-02 0.000000e+00
 0.000000e+00 0.000000e+00 0.000000e+00 8.019802e-01 1.980198e-01
 0.000000e+00 0.000000e+00 0.000000e+00 0.000000e+00 0.000000e+00
<ENDHMM>
~o
<STREAMINFO> 1 39
<VECSIZE> 39<NULLD><MFCC_D_A_0><DIAGC>
~h "t"
<BEGINHMM>
<NUMSTATES> 5
<STATE> 2
<MEAN> 39
 -8.799001e+00 8.204263e+00 3.229163e+00 9.560706e-01 -5.109671e-01 -6.558133e+00 -6.628210e+00 -7.412937e+00 -7.199510e+00 -3.936246e+00 -5.733907e+00 -5.290877e+00 5.449886e+01 -1.503628e+00 1.694397e-02 2.606281e-02 1.128331e+00 1.402349e+00 2.469741e+00 7.084807e-01 6.291305e-01 6.744302e-01 -9.433293e-01 3.083332e-01 8.415554e-01 -3.222007e+00 -2.188588e-01 -9.464971e-01 -5.693234e-01 -6.475319e-01 -6.765558e-01 -1.133068e-01 3.408922e-01 2.766544e-01 1.176155e-01 6.913903e-01 2.358730e-01 4.161931e-02 9.973354e-01
<VARIANCE> 39
 1.514515e+01 2.256272e+01 3.546709e+01 2.670799e+01 3.342825e+01 4.761052e+01 2.166915e+01 1.274547e+01 2.368163e+01 1.769505e+01 3.828146e+01 2.417738e+01 1.008050e+02 2.398027e+00 4.981404e+00 5.144912e+00 5.093589e+00 6.632615e+00 5.936052e+00 4.291211e+00 3.738990e+00 3.857613e+00 3.715417e+00 3.743195e+00 3.708938e+00 8.393650e+00 3.878276e-01 6.228678e-01 7.135381e-01 8.829481e-01 8.055508e-01 1.474740e+00 7.937627e-01 5.305315e-01 8.081439e-01 5.231296e-01 4.929349e-01 5.275852e-01 1.109698e+00
<GCONST> 1.297764e+02
<STATE> 3
<MEAN> 39
 -1.616136e+01 1.448251e+00 -1.922578e+00 1.034625e+00 1.519848e+00 7.425064e-01 -9.178451e-01 -1.611434e+00 -1.651720e+00 -2.824615e-01 -1.213603e+00 -9.923906e-01 4.958546e+01 -7.308849e-01 -1.406178e+00 -1.344831e+00 -1.318011e+00 -7.480814e-01 -1.986251e-01 5.279276e-01 4.083217e-01 9.066259e-01 9.604992e-01 5.106892e-01 7.549540e-01 1.277526e+00 6.004745e-01 2.187001e-01 6.171302e-02 -3.951584e-01 -4.103411e-01 -9.151308e-01 -5.712461e-01 -4.561624e-01 -3.546210e-01 -5.299917e-02 -3.997069e-01 -3.375033e-01 1.343960e+00
<VARIANCE> 39
 1.008641e+01 6.478512e+00 1.076496e+01 1.510925e+01 9.127936e+00 1.384860e+01 1.467432e+01 1.155840e+01 1.589053e+01 2.114667e+01 2.173385e+01 2.067501e+01 8.713407e+01 1.954185e+00 1.541237e+00 3.035937e+00 3.615839e+00 1.905891e+00 3.862335e+00 3.467775e+00 2.806790e+00 2.687783e+00 2.025507e+00 2.449975e+00 2.091213e+00 8.088620e+00 3.800880e-01 3.587725e-01 5.987104e-01 7.599773e-01 6.558821e-01 9.339882e-01 5.666577e-01 4.162691e-01 4.908848e-01 6.590163e-01 5.845121e-01 4.646523e-01 1.067577e+00
<GCONST> 1.134220e+02
<STATE> 4
<MEAN> 39
 -1.284896e+01 -5.225647e-01 -5.295689e+00 -7.073235e+00 -4.934393e+00 -8.422727e+00 -4.352425e+00 -5.943628e+00 -2.534607e+00 7.447079e-01 -4.163866e+00 -2.659756e+00 6.687614e+01 2.540469e+00 -1.120917e+00 -1.032758e+00 -1.852090e+00 -2.064636e+00 -2.611062e+00 -1.710723e+00 6.462253e-01 -2.352931e-01 1.037771e+00 -1.351075e+00 -1.817635e+00 4.802604e+00 4.906972e-01 -5.457576e-02 4.036968e-01 3.870679e-01 2.710658e-01 3.713126e-01 -1.226662e-01 7.098317e-01 -2.591138e-01 2.487038e-02 -2.882682e-01 -3.158301e-01 -7.157618e-01
<VARIANCE> 39
 4.393884e+01 2.482976e+01 2.495462e+01 2.236613e+01 3.053199e+01 4.948917e+01 3.543378e+01 3.967656e+01 3.396055e+01 3.362793e+01 2.540689e+01 3.413080e+01 1.634438e+02 4.395306e+00 4.082375e+00 5.873357e+00 4.624096e+00 5.373352e+00 6.092993e+00 5.205212e+00 7.011127e+00 3.639806e+00 4.107884e+00 4.642778e+00 3.764639e+00 9.998384e+00 9.248426e-01 3.793145e-01 6.487987e-01 3.841846e-01 4.732395e-01 1.054202e+00 1.399758e+00 9.773010e-01 6.233894e-01 4.446270e-01 7.603085e-01 8.812056e-01 1.348895e+00
<GCONST> 1.354076e+02
<TRANSP> 5
 0.000000e+00 1.000000e+00 0.000000e+00 0.000000e+00 0.000000e+00
 0.000000e+00 7.058824e-01 2.941177e-01 0.000000e+00 0.000000e+00
 0.000000e+00 0.000000e+00 6.875000e-01 3.125000e-01 0.000000e+00
 0.000000e+00 0.000000e+00 0.000000e+00 5.744681e-01 4.255319e-01
 0.000000e+00 0.000000e+00 0.000000e+00 0.000000e+00 0.000000e+00
<ENDHMM>
~o
<STREAMINFO> 1 39
<VECSIZE> 39<NULLD><MFCC_D_A_0><DIAGC>
~h "u"
<BEGINHMM>
<NUMSTATES> 5
<STATE> 2
<MEAN> 39
 -4.345802e+00 -2.900802e+00 1.980569e+00 -6.786487e+00 -1.319362e+01 -1.358943e+01 -1.670030e+01 -9.651932e+00 -8.524549e+00 2.293828e+00 -1.643872e+00 -2.760679e+00 7.608679e+01 1.524229e+00 -1.169490e+00 -1.555289e+00 -1.775987e+00 -1.455655e+00 -7.541211e-01 -2.061754e-01 5.889488e-01 -3.602853e-01 2.121113e+00 3.246519e-02 -5.806268e-01 1.143760e+00 2.365027e-02 4.140197e-01 -1.483620e-01 1.815615e-01 8.377702e-01 1.059995e+00 2.681498e-01 -2.657993e-01 4.076543e-01 -1.876312e-01 -3.825454e-01 -2.721297e-01 -7.240015e-01
<VARIANCE> 39
 1.583807e+01 2.436605e+01 9.028492e+01 1.716464e+01 2.301342e+01 3.550967e+01 5.042357e+01 9.748235e+01 3.233476e+01 1.824198e+01 3.383623e+01 3.431220e+01 7.000636e+01 3.942248e+00 3.915437e+00 2.911773e+00 5.155478e+00 2.669522e+00 9.075850e+00 4.011147e+00 4.341530e+00 2.794116e+00 1.734701e+00 5.879098e+00 2.707752e+00 8.058463e-01 5.730908e-01 3.115521e-01 4.307936e-01 2.547470e-01 1.029821e+00 5.896840e-01 9.138961e-01 1.212278e+00 8.463849e-01 4.530317e-01 1.216210e+00 6.971717e-01 1.153432e-01
<GCONST> 1.258783e+02
<STATE> 3
<MEAN> 39
 -2.005075e+00 -2.901701e+00 -4.205168e+00 -1.023047e+01 -1.342244e+01 -1.111890e+01 -1.461157e+01 -1.248373e+01 -5.518021e+00 6.020040e+00 -4.218827e+00 -5.059100e+00 7.464923e+01 7.096447e-01 8.300267e-01 -4.741881e-01 6.841961e-01 9.663470e-01 1.341809e+00 8.089917e-01 -1.388699e+00 6.406667e-01 2.028640e-01 -7.539299e-01 -6.498910e-01 -1.479386e+00 -1.711917e-01 4.738612e-01 7.773188e-01 1.166201e+00 6.105726e-01 4.454435e-02 3.268611e-01 -6.860415e-02 -7.072327e-02 -7.380304e-01 -1.695535e-01 -4.273850e-02 -9.377029e-01
<VARIANCE> 39
 1.293228e+01 3.865983e+01 9.798729e+01 3.079855e+01 1.239357e+01 1.539078e+01 4.412176e+01 1.227687e+02 1.334048e+01 2.316297e+01 3.011448e+01 1.404412e+01 6.555885e+01 7.631818e-01 9.703127e-01 3.569402e+00 2.996670e+00 3.176432e+00 3.642800e+00 4.734132e+00 3.560297e+00 8.104743e+00 1.894920e+00 5.853726e+00 2.715370e+00 1.890960e+00 3.458739e-01 6.085218e-01 4.460434e-01 5.090240e-01 4.582546e-01 5.565356e-01 1.251948e+00 1.386648e+00 3.602124e-01 4.565659e-01 5.031510e-01 2.640540e-01 1.831034e-01
<GCONST> 1.198161e+02
<STATE> 4
<MEAN> 39
 -1.140655e+00 1.420856e+00 -2.332886e+00 -3.008465e+00 -7.841102e+00 -7.564057e+00 -1.203075e+01 -1.401384e+01 -3.746999e+00 3.468190e+00 -6.605175e+00 -6.953735e+00 6.817452e+01 -2.169244e-01 1.097007e+00 1.149409e+00 2.539680e+00 1.186774e+00 8.126273e-01 1.477837e+00 -1.704964e-01 -5.429691e-01 -9.542702e-01 -4.133265e-01 -6.132373e-01 -2.402725e+00 -1.530239e-01 -5.976113e-01 3.658441e-01 -2.927878e-01 -6.095541e-01 -3.976369e-01 -3.410704e-01 3.182620e-01 -2.717514e-01 3.435836e-02 5.467533e-01 1.903459e-01 6.386727e-01
<VARIANCE> 39
 1.188490e+01 2.998913e+01 4.599963e+01 4.459595e+01 4.265870e+01 5.712756e+01 2.160519e+01 2.107912e+01 8.368136e+01 2.735170e+01 5.696507e+01 2.274613e+01 1.620492e+02 1.232778e+00 5.576136e+00 6.249990e+00 3.176334e+00 4.294164e+00 3.812571e+00 4.558703e+00 8.730976e+00 5.146173e+00 2.045511e+00 2.855479e+00 2.409038e+00 3.403211e+00 4.177473e-01 6.320115e-01 3.236394e-01 7.995289e-01 6.972541e-01 6.553015e-01 5.209903e-01 9.102054e-01 1.181990e+00 3.714916e-01 4.194465e-01 5.969114e-01 6.695503e-01
<GCONST> 1.291705e+02
<TRANSP> 5
 0.000000e+00 1.000000e+00 0.000000e+00 0.000000e+00 0.000000e+00
 0.000000e+00 6.666667e-01 3.333333e-01 0.000000e+00 0.000000e+00
 0.000000e+00 0.000000e+00 6.250000e-01 3.750000e-01 0.000000e+00
 0.000000e+00 0.000000e+00 0.000000e+00 6.000000e-01 4.000000e-01
 0.000000e+00 0.000000e+00 0.000000e+00 0.000000e+00 0.000000e+00
<ENDHMM>
~o
<STREAMINFO> 1 39
<VECSIZE> 39<NULLD><MFCC_D_A_0><DIAGC>
~h "w"
<BEGINHMM>
<NUMSTATES> 5
<STATE> 2
<MEAN> 39
 -2.711503e+00 1.442604e+00 -5.203402e+00 -1.629198e+01 -9.196811e+00 -8.924188e+00 -7.815851e+00 -1.158010e+00 -1.087751e+01 3.792589e+00 -5.320008e+00 -6.060897e+00 6.850289e+01 1.259360e+00 7.355744e-01 -2.902758e-01 -2.580650e-02 4.140609e-01 5.638034e-01 -2.019616e-01 -1.367173e+00 -9.209453e-01 -1.809183e-01 1.513195e+00 4.178797e-02 -1.913598e-02 1.034334e-02 -3.203656e-01 -2.063739e-01 -1.466711e-01 -1.216283e-01 3.078768e-01 2.323387e-01 -2.928850e-01 -4.822656e-02 -2.109761e-02 -2.272276e-02 2.823410e-01 4.282259e-01
<VARIANCE> 39
 3.631915e+01 7.238426e+01 3.021146e+01 1.400017e+02 2.563146e+01 4.024567e+01 2.027346e+01 3.054859e+01 1.252693e+02 6.037648e+01 3.323439e+01 3.873479e+01 1.905689e+02 2.535582e+00 2.355934e+00 2.088937e+00 1.330956e+00 1.496669e+00 3.018082e+00 2.313916e+00 3.524430e+00 6.086161e+00 2.027180e+00 5.209040e+00 5.985909e+00 1.992372e+00 3.137556e-01 4.630183e-01 4.034775e-01 1.203082e-01 1.677157e-01 2.492788e-01 6.100366e-01 7.217702e-01 8.266484e-01 9.799751e-01 8.273969e-01 8.689426e-01 3.356094e-01
<GCONST> 1.250867e+02
<STATE> 3
<MEAN> 39
 6.968113e-01 1.112669e-01 -7.995302e+00 -1.186252e+01 -8.239906e+00 -6.359543e+00 -6.949617e+00 -7.756293e+00 -1.050430e+01 3.680936e-01 1.012501e-01 -3.997385e+00 7.188661e+01 -2.370507e-01 -9.199223e-01 -5.376294e-01 2.078828e-01 -5.677998e-01 8.398563e-02 7.877893e-01 -5.480871e-01 1.520685e-01 6.666752e-02 -1.554639e-01 -7.253255e-01 1.495010e+00 -7.687635e-01 -5.764345e-01 3.670512e-01 3.211293e-01 -1.855993e-01 -3.237239e-01 3.476821e-01 4.415019e-01 5.941710e-01 3.442913e-01 -5.894669e-01 -7.335757e-01 2.782373e-01
<VARIANCE> 39
 1.963451e+01 5.784990e+01 7.118893e+01 1.119988e+02 1.893383e+01 2.973889e+01 6.675150e+01 3.898858e+01 1.976430e+01 3.953093e+01 7.255040e+01 2.458370e+01 1.006498e+02 1.849543e+00 2.494168e+00 5.927482e+00 1.474946e+00 1.958418e+00 3.457561e+00 2.623273e+00 5.110605e+00 5.877134e+00 7.022347e+00 5.034641e+00 5.117316e+00 1.534042e+00 2.029646e-01 2.670108e-01 2.361809e-01 3.171776e-01 4.123135e-01 5.926283e-01 6.605252e-01 5.652846e-01 9.519071e-01 4.808460e-01 1.473163e+00 1.082856e+00 2.448020e-01
<GCONST> 1.266327e+02
<STATE> 4
<MEAN> 39
 -3.568581e+00 -6.146880e+00 -9.220729e+00 -1.276268e+01 -9.794170e+00 -5.203136e+00 -3.312818e+00 -6.156787e+00 -7.186635e+00 2.751304e+00 -2.672357e+00 -1.163159e+01 8.030363e+01 -1.294429e+00 -1.537422e+00 3.899635e-01 5.365410e-01 -1.208457e-01 4.009395e-01 1.067109e+00 5.118987e-01 4.433193e-01 7.851514e-01 -1.300067e+00 -1.859881e+00 1.319107e+00 7.889336e-02 2.950757e-01 1.415201e-01 3.731854e-03 1.209270e-01 -3.425424e-01 -9.507590e-02 5.177070e-01 -1.894765e-01 -3.316091e-01 -3.829607e-01 4.083613e-01 -2.876281e-01
<VARIANCE> 39
 3.250136e+01 3.300563e+01 1.475805e+02 6.713580e+01 1.470781e+01 2.513691e+01 3.933675e+01 3.044986e+01 6.862210e+01 4.627477e+01 4.995448e+01 7.042166e+01 1.241033e+02 5.007918e-01 1.429414e+00 3.454664e+00 2.927308e+00 5.618299e+00 4.657640e+00 2.919916e+00 2.331131e+00 3.109825e+00 3.274375e+00 4.841973e+00 3.712248e+00 1.047480e+00 1.273679e-01 3.355294e-01 9.581282e-01 2.927863e-01 3.487108e-01 6.074394e-01 3.911470e-01 1.089160e+00 5.311595e-01 1.086363e+00 5.958225e-01 8.681388e-01 7.882952e-02
<GCONST> 1.237465e+02
<TRANSP> 5
 0.000000e+00 1.000000e+00 0.000000e+00 0.000000e+00 0.000000e+00
 0.000000e+00 6.190476e-01 3.809524e-01 0.000000e+00 0.000000e+00
 0.000000e+00 0.000000e+00 6.190476e-01 3.809524e-01 0.000000e+00
 0.000000e+00 0.000000e+00 0.000000e+00 5.555556e-01 4.444444e-01
 0.000000e+00 0.000000e+00 0.000000e+00 0.000000e+00 0.000000e+00
<ENDHMM>
