~o
<STREAMINFO> 1 39
<VECSIZE> 39<NULLD><MFCC_D_A_0><DIAGC>
~h "j"
<BEGINHMM>
<NUMSTATES> 5
<STATE> 2
<MEAN> 39
 -8.783500e-01 9.008870e+00 5.957910e+00 1.314556e+00 -3.188275e+00 -5.125221e+00 -5.746897e+00 -4.021947e+00 -5.822541e+00 -4.194108e+00 -7.019911e+00 -7.252613e+00 5.856610e+01 -3.245859e+00 2.341690e-01 1.193853e+00 -1.165302e+00 1.318265e+00 3.277546e+00 9.212822e-01 1.604969e-01 3.639687e-01 -5.934477e-01 3.893975e-01 9.858454e-01 3.194869e-01 -8.040509e-01 -6.714984e-01 1.090767e-01 -1.001679e+00 -7.789977e-01 -5.837124e-01 -1.000933e+00 -2.548297e-01 -1.723027e-01 -3.281690e-01 6.049576e-01 9.808699e-01 1.504885e+00
<VARIANCE> 39
 1.862912e+00 1.413006e+01 1.241502e+00 5.988404e+00 9.374408e+00 4.128922e+01 1.826784e+00 2.724100e+01 2.787402e+01 1.669886e+01 6.289508e+01 3.286974e+01 5.879401e+01 3.415952e+00 1.142728e+00 8.469482e-01 2.930658e+00 4.573836e+00 1.189434e+00 2.072198e+00 1.555316e+00 4.000996e-01 3.767266e+00 1.074988e+01 5.059159e+00 3.340139e+00 2.895585e-01 8.982024e-02 2.485189e-01 1.030323e-01 5.295380e-01 1.270416e+00 1.799783e-01 1.123667e+00 2.611242e-01 6.321017e-01 2.369292e-01 2.594859e-01 2.068002e-01
<GCONST> 9.994276e+01
<STATE> 3
<MEAN> 39
 -1.498028e+01 6.415564e+00 1.068442e+01 -9.622990e+00 -1.603509e+00 3.155203e+00 -9.752581e+00 -1.495756e+00 -5.971152e+00 -9.574048e+00 -6.803875e-01 9.744375e-01 6.669608e+01 -2.969806e+00 -1.354412e+00 5.967095e-01 -2.426082e+00 -2.690258e+00 -2.243396e+00 -1.384810e+00 -1.861731e+00 -2.787840e-01 1.509228e-01 1.218120e+00 1.972184e+00 4.759076e+00 2.020911e+00 -6.697307e-01 -7.687307e-01 8.826553e-01 -1.232681e+00 -2.367659e+00 -4.339056e-01 -4.597189e-01 -3.688616e-01 1.075228e+00 -2.511230e-01 -6.217437e-01 2.266383e-01
<VARIANCE> 39
 1.491473e+01 7.053818e+00 2.031534e+01 1.383375e+01 3.926457e+01 3.586964e+01 5.461066e+00 1.685094e+01 8.564147e+00 2.439552e+01 6.343254e+01 1.176261e+01 1.043881e+02 2.921517e+00 8.971104e-01 4.289482e+00 1.437725e+00 4.736722e+00 6.412937e+00 2.712997e-01 6.465923e+00 8.254304e-01 1.968960e+00 7.447885e+00 1.892383e+00 8.651497e-02 4.861077e-01 4.309445e-01 2.899809e-01 1.751600e-01 1.111291e+00 5.406746e-01 1.107994e-01 8.449020e-01 1.599092e-01 5.577167e-01 2.046801e+00 1.002789e+00 5.146950e-01
<GCONST> 1.080081e+02
<STATE> 4
<MEAN> 39
 -1.268320e+01 5.486197e+00 8.062048e+00 -6.160760e+00 -1.088572e+01 -1.209607e+01 -1.116129e+01 -1.276272e+01 -7.934936e+00 -4.254831e+00 -9.889808e-01 -8.745247e-01 7.464103e+01 3.061141e+00 -2.310197e+00 -2.035412e+00 1.332605e+00 -3.918529e+00 -5.146358e+00 -1.722405e+00 -2.075341e+00 -1.472506e+00 2.993747e+00 -8.405133e-02 -7.736978e-01 2.187209e+00 1.508229e+00 -2.364324e-01 -8.204219e-01 5.297379e-01 2.737128e-01 4.910924e-01 1.988678e-02 9.430093e-01 2.232904e-01 5.237677e-01 -7.474455e-01 -7.323421e-01 -1.090383e+00
<VARIANCE> 39
 1.554976e+01 2.008854e+01 4.694172e+01 1.539812e+01 2.338480e+01 4.739537e+01 3.685864e+00 3.441360e+01 9.624887e+00 1.213386e+01 1.371247e+01 2.012011e+01 6.151052e+01 9.379116e-01 2.309650e+00 4.000930e+00 5.955125e-01 1.483511e+00 3.773448e+00 8.571543e-01 6.471220e+00 2.243901e+00 7.707241e-01 8.276541e+00 3.040803e+00 9.694163e-01 4.106859e-01 4.522168e-01 5.294662e-01 3.435809e-01 8.298110e-01 6.666248e-01 3.515482e-01 2.932304e-01 2.684962e-01 2.107142e-01 8.845129e-01 2.398680e-01 3.046974e-02
<GCONST> 1.050112e+02
<TRANSP> 5
 0.000000e+00 1.000000e+00 0.000000e+00 0.000000e+00 0.000000e+00
 0.000000e+00 6.250000e-01 3.750000e-01 0.000000e+00 0.000000e+00
 0.000000e+00 0.000000e+00 5.000000e-01 5.000000e-01 0.000000e+00
 0.000000e+00 0.000000e+00 0.000000e+00 4.000000e-01 6.000000e-01
 0.000000e+00 0.000000e+00 0.000000e+00 0.000000e+00 0.000000e+00
<ENDHMM>
