~o
<STREAMINFO> 1 39
<VECSIZE> 39<NULLD><MFCC_D_A_0><DIAGC>
~h "m"
<BEGINHMM>
<NUMSTATES> 5
<STATE> 2
<MEAN> 39
 -3.617666e-03 -6.352499e-01 2.518174e+00 -2.371984e+00 -7.021797e+00 -1.107448e+00 -5.848621e+00 -1.502516e+01 -1.657326e+01 4.257362e+00 -1.844450e+00 -6.196718e+00 6.618371e+01 -5.320560e-01 -7.539619e-02 2.306305e+00 2.104502e+00 6.990497e-01 5.655998e-01 -1.901828e-01 -2.405779e+00 -1.867754e+00 1.224287e-01 -1.602689e+00 6.138810e-01 -7.952980e-01 -1.164094e-01 -6.096312e-01 -7.302234e-01 -9.014438e-01 1.968703e-01 -9.495445e-02 -2.274237e-01 7.817404e-01 1.154739e+00 -3.614115e-01 8.268009e-02 7.727379e-02 7.261529e-01
<VARIANCE> 39
 9.385718e+00 2.832146e+01 3.125512e+01 3.286462e+01 2.676816e+01 3.562429e+01 3.352226e+01 3.794518e+01 1.828607e+01 1.634624e+01 7.048688e+01 2.436647e+01 5.260897e+01 1.809389e-01 1.477072e+00 3.131065e+00 3.274872e+00 1.559391e+00 1.350900e+00 1.850631e+00 5.361755e+00 4.500649e+00 2.218748e+00 4.982293e+00 2.862791e+00 1.091156e+00 1.303428e-01 2.041885e-01 8.366647e-01 7.265335e-01 4.244520e-01 5.211747e-01 8.294475e-01 9.981482e-01 8.391510e-01 4.372527e-01 1.557611e+00 5.035755e-01 1.665975e-01
<GCONST> 1.155497e+02
<STATE> 3
<MEAN> 39
 -1.685207e+00 -3.716389e+00 7.726551e+00 -3.463169e+00 -8.651270e+00 -6.218200e-01 -1.293139e+01 -1.474961e+01 -1.178273e+01 1.769444e+00 -6.753130e+00 -6.494530e+00 7.130492e+01 -1.971172e-01 -3.303360e-01 -6.066501e-01 -6.089823e-01 -5.625476e-04 -4.977034e-01 -7.531378e-02 1.074651e+00 1.000104e+00 -5.736411e-01 1.701879e-01 -2.179728e-02 5.035309e-01 -2.824460e-02 8.124035e-02 -9.306843e-01 -5.544469e-01 -1.308800e-01 -2.089735e-01 3.200252e-01 6.042120e-01 3.244860e-01 1.639294e-01 4.346429e-01 -3.752041e-01 3.240665e-01
<VARIANCE> 39
 1.026375e+01 2.118896e+01 2.744710e+01 1.625139e+01 5.828313e+01 4.216039e+01 5.055394e+01 4.929229e+01 5.248262e+01 1.682441e+01 9.783435e+01 2.373971e+01 6.980550e+01 3.125230e-01 3.942654e-01 3.314644e+00 1.531327e+00 1.904922e+00 1.304722e+00 1.596752e+00 1.632517e+00 2.087117e+00 1.385970e+00 2.206962e+00 2.221016e+00 6.590147e-01 4.769786e-02 1.131308e-01 4.178012e-01 1.806196e-01 4.136306e-01 2.360964e-01 1.207037e-01 5.144078e-01 6.583567e-01 3.046814e-01 6.410995e-01 5.903207e-01 5.762517e-02
<GCONST> 1.028572e+02
<STATE> 4
<MEAN> 39
 -2.128845e+00 -3.794275e+00 -4.046057e+00 -7.746870e+00 -5.570163e+00 -1.535047e+00 -6.180768e+00 -1.026778e+01 -8.983511e+00 9.613637e-01 -1.141114e+00 -6.082937e+00 7.032292e+01 -5.383698e-01 -1.094224e+00 -3.446492e+00 -2.566325e+00 5.298463e-01 -9.753553e-01 1.057199e+00 2.692878e+00 3.047391e+00 3.832738e-01 -8.490939e-02 -2.008085e+00 1.850178e+00 -1.673186e-01 -1.407949e-01 3.436459e-01 1.629644e-01 3.525051e-01 -3.171135e-01 6.957241e-02 1.462918e-01 -2.129349e-02 1.012073e-01 -7.968149e-01 -2.642611e-01 -1.054481e-01
<VARIANCE> 39
 1.743187e+01 2.300183e+01 8.362613e+01 3.116793e+01 1.382819e+01 3.984021e+01 3.380058e+01 4.300716e+01 7.082516e+01 1.483176e+01 4.239263e+01 1.335578e+01 4.714967e+01 5.226095e-01 2.109504e+00 2.317731e+00 1.220460e+00 1.766515e+00 1.917580e+00 1.865120e+00 1.834908e+00 6.350350e+00 8.952329e-01 4.115059e+00 1.348237e+00 1.200145e+00 1.275759e-01 3.135401e-01 6.038335e-01 6.019776e-01 8.721315e-01 2.672715e-01 5.520809e-01 4.106252e-01 1.052029e+00 2.771502e-01 2.998654e-01 3.838449e-01 1.773844e-01
<GCONST> 1.112058e+02
<TRANSP> 5
 0.000000e+00 1.000000e+00 0.000000e+00 0.000000e+00 0.000000e+00
 0.000000e+00 6.363636e-01 3.636364e-01 0.000000e+00 0.000000e+00
 0.000000e+00 0.000000e+00 7.333333e-01 2.666667e-01 0.000000e+00
 0.000000e+00 0.000000e+00 0.000000e+00 4.666667e-01 5.333334e-01
 0.000000e+00 0.000000e+00 0.000000e+00 0.000000e+00 0.000000e+00
<ENDHMM>
