~o
<STREAMINFO> 1 39
<VECSIZE> 39<NULLD><MFCC_D_A_0><DIAGC>
~h "ny"
<BEGINHMM>
<NUMSTATES> 5
<STATE> 2
<MEAN> 39
 -4.105151e+00 -2.721198e+00 7.621577e+00 -7.253935e+00 -1.204807e+01 -7.490102e+00 -1.473805e+01 -7.569107e+00 -4.084193e+00 1.488296e+00 -5.492414e+00 -8.570161e+00 7.562077e+01 -1.335828e+00 1.001061e+00 -6.555709e-01 -1.726563e+00 -1.497294e+00 8.284123e-02 1.312692e+00 1.073852e+00 -4.878364e-01 1.169150e+00 -2.051133e-01 -9.682158e-01 1.004455e+00 -2.141588e-01 -8.679684e-02 -2.240355e-01 -2.049577e-01 -6.771066e-01 6.258339e-03 -2.943785e-01 8.120531e-01 -1.454259e-01 -4.786388e-01 -3.526172e-01 -8.417278e-02 3.040920e-01
<VARIANCE> 39
 2.257884e+01 1.167442e+01 2.229505e+00 7.297607e+00 6.887870e+01 1.546138e+01 8.697103e+00 2.127281e+01 5.624864e+00 4.763542e+01 6.289333e+01 7.013304e+00 1.033197e+02 2.127869e-01 8.501024e-02 1.031507e-01 3.192804e-01 2.262128e+00 8.117508e-01 6.576726e-01 1.134030e+00 4.137500e-01 4.627576e-01 7.078028e-01 1.814060e+00 1.178057e-01 3.508204e-02 1.711859e-01 7.287569e-02 1.311761e-01 5.395916e-01 1.041112e-01 6.380548e-02 4.449478e-01 2.496166e-01 3.469016e-01 3.013220e-01 6.776205e-01 1.207762e-02
<GCONST> 7.323895e+01
<STATE> 3
<MEAN> 39
 -8.924460e+00 -8.844889e-01 3.239542e+00 -1.124300e+01 -1.664900e+01 -8.578665e+00 -1.355190e+01 6.510231e-03 -4.915336e+00 4.400763e-01 -6.150012e+00 -1.105123e+01 8.012584e+01 -6.907927e-01 -9.555416e-01 -1.807062e+00 -9.611225e-01 -2.370986e-01 5.049866e-01 4.494902e-01 3.952671e+00 -6.456134e-01 -1.973682e+00 -6.564993e-01 1.136578e+00 1.561127e+00 5.973837e-01 -5.310788e-01 -1.834166e-01 3.639233e-01 7.496434e-01 3.555565e-01 1.094057e-01 3.668340e-01 -1.992066e-01 -8.581957e-01 -2.391120e-01 1.002656e+00 -2.064058e-01
<VARIANCE> 39
 1.935840e+01 5.092172e+00 4.108162e+00 7.488245e+00 9.877361e+01 6.016027e+01 6.790204e+00 2.396193e+01 6.120265e+00 1.952976e+01 1.169058e+02 5.829491e+01 1.293773e+02 6.751128e-01 8.228806e-01 1.307394e+00 3.548681e-01 3.098524e+00 1.573621e+00 1.982498e+00 2.585589e+00 9.186140e-01 1.091334e+00 1.151913e+00 3.459033e+00 1.572307e-01 1.829369e-02 1.679182e-01 1.834475e-01 7.964125e-02 7.986757e-01 1.841765e-01 9.666398e-02 4.632231e-01 9.979255e-02 1.779422e-01 1.071935e-01 3.885123e-01 5.545729e-02
<GCONST> 8.821111e+01
<STATE> 4
<MEAN> 39
 -6.335610e+00 -5.850533e+00 8.858743e-01 -1.230826e+01 -1.385528e+01 -4.027749e+00 -1.113367e+01 1.032773e+01 -8.259085e+00 -4.291865e+00 -6.723180e+00 -3.489652e+00 8.010399e+01 6.364767e-01 -1.144786e+00 -1.396682e+00 -2.861731e-01 9.666470e-01 7.348696e-01 1.036579e+00 2.834538e+00 -1.098549e+00 -2.503855e+00 -1.607825e+00 2.423951e+00 4.395745e-01 1.614614e-01 2.192069e-01 5.740968e-02 2.166287e-01 2.360715e-01 -4.596867e-01 -3.596886e-02 -8.728578e-01 -3.142027e-02 2.522476e-01 -2.884854e-02 -5.705376e-01 -3.720013e-01
<VARIANCE> 39
 1.914143e+01 5.063694e+00 4.157032e+01 9.728155e-02 1.470233e+01 5.550328e+01 5.989553e+01 5.111387e+01 1.392817e+01 2.657206e+01 1.363701e+02 5.294118e+01 1.291747e+02 6.354766e-02 4.334795e-01 1.949846e+00 6.548398e-01 4.715322e+00 5.533254e-01 1.402658e+00 1.480148e+00 4.992126e-01 3.663411e+00 6.391039e-01 1.366074e+00 9.481181e-02 7.883396e-02 1.010811e-01 1.754690e-01 2.142854e-01 2.704813e-01 6.986292e-02 2.380179e-01 4.217075e-01 2.659746e-01 2.990539e-01 3.661060e-01 3.374101e-01 1.000000e-02
<GCONST> 8.488456e+01
<TRANSP> 5
 0.000000e+00 1.000000e+00 0.000000e+00 0.000000e+00 0.000000e+00
 0.000000e+00 6.000000e-01 4.000000e-01 0.000000e+00 0.000000e+00
 0.000000e+00 0.000000e+00 6.000000e-01 4.000000e-01 0.000000e+00
 0.000000e+00 0.000000e+00 0.000000e+00 5.000000e-01 5.000000e-01
 0.000000e+00 0.000000e+00 0.000000e+00 0.000000e+00 0.000000e+00
<ENDHMM>
