~o
<STREAMINFO> 1 39
<VECSIZE> 39<NULLD><MFCC_D_A_0><DIAGC>
~h "p"
<BEGINHMM>
<NUMSTATES> 5
<STATE> 2
<MEAN> 39
 -1.251086e+01 3.421539e+00 -8.042970e-01 1.036085e+00 1.792018e+00 1.001331e+00 -1.177994e+00 -1.861204e+00 -2.228066e+00 -1.690705e-01 -1.997190e+00 -9.957494e-01 4.710973e+01 -2.108747e+00 1.241392e-01 1.196226e+00 2.181486e+00 7.821382e-01 3.908111e-01 7.741785e-01 7.640874e-01 -2.598000e-01 -6.908544e-01 -2.107991e-01 9.034439e-01 -2.459684e+00 1.907376e-01 -4.672635e-01 -4.025669e-01 -5.600858e-01 -2.279717e-01 -4.482760e-01 -9.850851e-02 -6.215280e-02 -4.717091e-02 -1.822734e-01 -1.580035e-02 -1.664747e-01 1.257591e+00
<VARIANCE> 39
 3.012565e+01 1.966612e+01 2.083487e+01 3.070844e+01 1.433787e+01 1.143002e+01 1.376422e+01 1.674613e+01 1.960629e+01 1.861478e+01 2.386964e+01 2.486885e+01 5.247161e+01 2.785090e+00 3.767521e+00 3.926867e+00 2.904558e+00 1.522460e+00 2.832381e+00 2.261766e+00 1.992833e+00 3.086451e+00 2.455133e+00 2.076977e+00 2.076931e+00 8.003219e+00 8.742402e-01 8.451794e-01 8.327668e-01 1.395822e+00 6.761007e-01 4.023581e-01 8.561465e-01 6.286644e-01 4.775535e-01 6.949010e-01 5.212255e-01 4.219956e-01 1.684641e+00
<GCONST> 1.204579e+02
<STATE> 3
<MEAN> 39
 -1.624117e+01 8.296823e-01 -1.408988e+00 8.460516e-01 2.640080e-01 -3.754704e-02 -1.172576e+00 -7.319075e-01 -1.629388e+00 -2.155923e-02 6.083329e-02 1.693417e+00 4.840449e+01 1.664252e+00 -3.516321e-01 -7.216154e-01 -1.867126e+00 -9.917056e-01 -1.006547e+00 -1.083477e+00 -4.421598e-01 -3.009591e-01 1.030962e-01 -3.561330e-02 -6.412607e-01 4.015120e+00 1.433518e+00 -1.392993e-01 -4.914635e-01 -1.044088e+00 -2.277019e-01 -4.012780e-01 -5.863349e-01 -2.841919e-01 -2.285630e-01 1.843287e-01 -3.910136e-01 -1.068694e+00 1.665092e+00
<VARIANCE> 39
 4.452556e+00 1.193968e+01 6.091832e+00 8.057701e+00 1.904228e+01 1.198903e+01 1.330287e+01 2.543044e+01 1.930215e+01 1.746153e+01 2.543706e+01 1.574713e+01 7.787509e+01 3.785137e+00 1.661296e+00 1.926895e+00 1.188708e+00 3.088317e+00 2.901976e+00 3.619119e+00 2.640764e+00 2.853693e+00 2.949931e+00 3.997305e+00 2.992194e+00 5.853515e+00 2.102722e-01 2.898171e-01 5.640051e-01 4.055986e-01 6.797028e-01 5.060008e-01 4.560442e-01 3.315127e-01 6.845312e-01 4.331628e-01 5.560130e-01 5.257154e-01 1.328428e+00
<GCONST> 1.110726e+02
<STATE> 4
<MEAN> 39
 -5.303675e+00 1.491072e+00 -5.876952e+00 -6.855771e+00 -2.395513e+00 -6.049804e+00 -6.987715e+00 -5.362281e+00 -3.957336e+00 -2.146945e+00 -3.851699e+00 -5.192214e+00 6.398355e+01 3.186128e+00 -2.039968e+00 -2.611291e+00 -3.274638e+00 -9.052969e-01 -1.557031e+00 -7.764878e-01 2.908754e-01 -2.708156e-01 8.471561e-01 -1.144163e+00 -3.160306e+00 6.094510e+00 -6.836077e-01 -5.764512e-01 1.456308e-01 5.255159e-01 2.322626e-01 1.513621e-01 6.113917e-01 6.033885e-01 2.221287e-01 2.354962e-01 -9.648139e-02 1.198363e-01 -8.276117e-01
<VARIANCE> 39
 1.945013e+01 2.778248e+01 3.620319e+01 2.210384e+01 4.490034e+01 3.881561e+01 3.918064e+01 3.532189e+01 3.964910e+01 3.108677e+01 3.685971e+01 4.088170e+01 1.059631e+02 3.498507e+00 2.136870e+00 2.993145e+00 2.755705e+00 4.683455e+00 2.599728e+00 4.455627e+00 3.786433e+00 7.900037e+00 3.185193e+00 4.460735e+00 4.925677e+00 5.096399e+00 4.454581e-01 5.950156e-01 1.094953e+00 7.301139e-01 5.046112e-01 3.129608e-01 8.202775e-01 4.540932e-01 1.118589e+00 6.480960e-01 1.105557e+00 8.281878e-01 1.520910e+00
<GCONST> 1.314631e+02
<TRANSP> 5
 0.000000e+00 1.000000e+00 0.000000e+00 0.000000e+00 0.000000e+00
 0.000000e+00 6.086956e-01 3.913043e-01 0.000000e+00 0.000000e+00
 0.000000e+00 0.000000e+00 6.400000e-01 3.600000e-01 0.000000e+00
 0.000000e+00 0.000000e+00 0.000000e+00 5.714286e-01 4.285714e-01
 0.000000e+00 0.000000e+00 0.000000e+00 0.000000e+00 0.000000e+00
<ENDHMM>
