~o
<STREAMINFO> 1 39
<VECSIZE> 39<NULLD><MFCC_D_A_0><DIAGC>
~h "r"
<BEGINHMM>
<NUMSTATES> 5
<STATE> 2
<MEAN> 39
 -4.932540e+00 6.597900e-02 -4.206766e+00 -1.523746e+00 -7.832483e+00 -9.049797e+00 -9.308624e+00 -8.563025e+00 1.163788e-01 -3.098382e-01 -6.333570e+00 -4.124709e+00 6.934063e+01 2.866493e-01 2.076568e-01 3.460582e-01 6.265006e-02 -6.054320e-01 1.310319e-01 -8.186921e-01 -5.562892e-01 2.714720e-01 1.127187e-01 4.058512e-02 9.130472e-02 -1.313341e-01 1.271970e-01 -1.454494e-01 -2.208737e-01 -3.110618e-01 2.495354e-02 -1.800393e-02 1.415298e-01 1.331048e-01 -2.652637e-01 2.717300e-01 -2.404697e-01 -3.178824e-01 1.774799e-01
<VARIANCE> 39
 1.160568e+01 1.977882e+01 2.411714e+01 3.303930e+01 6.770243e+01 2.625585e+01 2.524236e+01 6.892628e+01 3.687164e+01 4.781015e+01 2.709498e+01 2.233507e+01 1.007326e+02 2.598622e+00 2.386427e+00 4.969172e+00 2.195012e+00 3.147790e+00 2.753548e+00 3.833450e+00 4.958590e+00 3.383162e+00 4.539914e+00 2.892472e+00 2.533515e+00 3.070119e+00 5.104665e-01 4.295824e-01 5.751718e-01 5.152177e-01 8.825717e-01 5.212320e-01 4.476607e-01 9.743068e-01 7.419998e-01 5.892344e-01 3.439212e-01 3.245013e-01 6.173391e-01
<GCONST> 1.245527e+02
<STATE> 3
<MEAN> 39
 -3.140969e+00 -1.961973e+00 -5.610144e+00 -3.786356e+00 -7.947655e+00 -9.738634e+00 -1.177909e+01 -8.362831e+00 -1.779361e+00 2.117819e+00 -9.507318e+00 -6.409245e+00 6.949532e+01 -5.662931e-01 1.044036e+00 8.505923e-01 3.606428e-01 1.571705e+00 8.116851e-01 -5.825029e-02 1.127364e-01 -7.677345e-01 -2.565601e-01 4.163572e-01 2.287805e-01 -1.895358e+00 -5.049364e-01 3.065490e-01 1.999534e-01 3.796118e-01 3.725288e-01 3.939850e-01 6.733234e-01 2.993000e-01 -3.449364e-03 -2.963529e-01 2.452873e-01 2.128986e-01 -6.411448e-01
<VARIANCE> 39
 1.827387e+01 3.378968e+01 6.060205e+01 5.650387e+01 9.860119e+01 3.424476e+01 3.919426e+01 1.243300e+02 6.756128e+01 6.428104e+01 5.362086e+01 3.804149e+01 8.580802e+01 5.990503e+00 3.015382e+00 3.664699e+00 4.760681e+00 6.200480e+00 2.248496e+00 3.174939e+00 4.965291e+00 7.854702e+00 4.302846e+00 4.036053e+00 3.370033e+00 3.671876e+00 5.206550e-01 7.409091e-01 7.423635e-01 1.107038e+00 8.785682e-01 4.007052e-01 5.459933e-01 1.128065e+00 1.746645e+00 1.039559e+00 6.804555e-01 6.167313e-01 5.276880e-01
<GCONST> 1.382951e+02
<STATE> 4
<MEAN> 39
 -9.942119e+00 1.389355e+00 -9.850376e-01 2.009784e+00 -5.522696e-01 -2.940997e+00 -4.809203e+00 -3.579716e+00 -6.307020e-01 -7.338250e-01 -6.166247e+00 -1.642901e+00 5.763545e+01 -1.023168e+00 4.585996e-01 -1.087383e-02 1.818932e-01 6.107865e-02 1.097490e+00 1.225787e+00 3.682885e-01 -2.503636e-01 -6.410896e-01 4.269767e-01 6.225439e-01 -2.060755e+00 9.286898e-02 -2.723755e-01 -2.260518e-01 -4.739970e-01 -4.866423e-01 -1.880150e-01 4.044517e-02 1.087892e-01 -2.000615e-01 1.264585e-01 1.090547e-01 -2.249988e-02 3.344835e-01
<VARIANCE> 39
 7.884182e+01 2.883105e+01 2.873915e+01 3.722919e+01 9.086378e+01 3.244477e+01 4.825519e+01 8.355976e+01 1.868943e+01 3.145877e+01 4.042372e+01 4.076429e+01 1.247013e+02 5.441188e+00 4.236040e+00 3.640604e+00 5.521495e+00 6.872044e+00 2.371210e+00 3.638126e+00 5.508015e+00 4.712829e+00 6.726743e+00 6.481625e+00 2.344686e+00 3.343822e+00 8.204903e-01 4.605442e-01 5.679895e-01 8.320947e-01 8.938044e-01 5.139412e-01 5.175804e-01 9.252715e-01 6.344065e-01 9.777351e-01 8.377244e-01 4.828227e-01 4.480554e-01
<GCONST> 1.351714e+02
<TRANSP> 5
 0.000000e+00 1.000000e+00 0.000000e+00 0.000000e+00 0.000000e+00
 0.000000e+00 6.229508e-01 3.770492e-01 0.000000e+00 0.000000e+00
 0.000000e+00 0.000000e+00 5.490196e-01 4.509804e-01 0.000000e+00
 0.000000e+00 0.000000e+00 0.000000e+00 5.892857e-01 4.107143e-01
 0.000000e+00 0.000000e+00 0.000000e+00 0.000000e+00 0.000000e+00
<ENDHMM>
