~o
<STREAMINFO> 1 39
<VECSIZE> 39<NULLD><MFCC_D_A_0><DIAGC>
~h "s"
<BEGINHMM>
<NUMSTATES> 5
<STATE> 2
<MEAN> 39
 -2.683614e+01 8.116329e+00 -2.485331e+00 -4.232194e-01 1.548388e+00 -6.384371e+00 2.833980e+00 -3.227087e+00 -4.343054e+00 -8.716806e-01 -7.078958e-01 8.722394e-02 6.585314e+01 -2.545153e+00 3.115740e-02 -9.371204e-01 -7.087620e-02 1.036511e+00 3.813609e-01 1.142596e-01 5.991009e-01 5.429879e-01 7.340024e-01 1.038458e+00 4.297682e-01 -3.577823e-01 8.159335e-01 -5.387037e-01 5.697578e-02 -5.420558e-01 -9.331611e-01 -4.740499e-01 -3.581812e-01 -2.626112e-01 -1.131128e-01 1.740199e-01 -4.038915e-01 1.283367e-01 2.958934e-01
<VARIANCE> 39
 3.109159e+01 1.953618e+01 8.998864e+00 1.247638e+01 3.961213e+01 2.138391e+01 3.442914e+01 4.003949e+01 1.135303e+01 1.886954e+01 2.162018e+01 1.438128e+01 1.173128e+02 3.963185e+00 3.061668e+00 1.271530e+00 1.677486e+00 5.117741e+00 4.418264e+00 2.495020e+00 2.226313e+00 2.370455e+00 2.032665e+00 2.698232e+00 1.603045e+00 2.516822e+00 8.563312e-01 5.743622e-01 3.649683e-01 3.269806e-01 1.024713e+00 6.571953e-01 7.494013e-01 5.195581e-01 5.466461e-01 5.771010e-01 4.242314e-01 2.411037e-01 2.065955e-01
<GCONST> 1.155112e+02
<STATE> 3
<MEAN> 39
 -3.170040e+01 5.029307e+00 -5.488058e+00 -4.810906e+00 3.906158e-01 -7.961214e+00 3.664802e+00 -1.199966e+00 -3.070296e+00 7.442841e-02 -4.057553e-01 3.003879e+00 6.758864e+01 1.220438e+00 -7.231928e-01 1.919145e-01 -8.068728e-01 -1.591630e+00 -1.592888e+00 -6.535994e-01 -3.024580e-01 -2.288541e-01 3.267223e-02 -9.827178e-01 1.196913e-01 4.678073e-01 1.655005e+00 -6.767157e-02 5.066908e-01 9.057107e-02 -7.102053e-01 -4.143832e-01 -5.550822e-01 -3.860091e-01 -2.717269e-01 -3.373533e-02 -3.791922e-01 -3.452049e-01 8.227553e-02
<VARIANCE> 39
 1.736654e+01 1.241253e+01 9.734091e+00 8.350299e+00 2.624708e+01 2.077412e+01 1.558812e+01 1.962449e+01 1.559093e+01 1.412078e+01 1.485317e+01 1.392902e+01 9.963020e+01 6.077305e+00 1.333430e+00 1.943056e+00 1.731058e+00 4.301777e+00 3.606467e+00 2.131221e+00 3.879625e+00 2.181072e+00 1.190911e+00 1.614525e+00 2.023891e+00 1.580361e+00 6.359413e-01 3.324650e-01 5.046735e-01 3.163743e-01 9.364484e-01 7.876627e-01 7.083008e-01 6.528236e-01 5.199198e-01 3.232227e-01 2.976957e-01 3.857417e-01 2.080128e-01
<GCONST> 1.095745e+02
<STATE> 4
<MEAN> 39
 -1.822833e+01 4.045549e+00 -2.452191e+00 -6.692257e+00 -7.989480e+00 -1.485447e+01 -4.608062e+00 -4.311200e+00 -3.851562e+00 2.129272e+00 -4.899221e+00 1.757848e+00 6.517071e+01 5.836277e+00 -9.520468e-01 8.522166e-01 -1.238490e+00 -3.617006e+00 -1.156716e+00 -3.365095e+00 -2.063498e+00 -4.293255e-02 1.298263e+00 -1.256881e+00 -9.358960e-01 8.319667e-01 -1.846951e-01 -2.729734e-02 -1.161988e-01 4.813021e-02 3.967168e-01 1.029604e+00 2.172675e-02 -9.039820e-02 -1.357505e-02 1.131283e-01 2.803603e-01 -5.635875e-01 2.753742e-01
<VARIANCE> 39
 5.961594e+01 1.277988e+01 4.440831e+01 3.534253e+01 3.430069e+01 2.536469e+01 5.979315e+01 4.121180e+01 5.267398e+01 3.477789e+01 3.161754e+01 3.176988e+01 4.037253e+01 2.761608e+00 2.251434e+00 9.205985e+00 3.188723e+00 6.325867e+00 6.882984e+00 6.186985e+00 8.395082e+00 1.079717e+01 2.895158e+00 1.880964e+00 3.791455e+00 2.508345e+00 1.056014e+00 3.431898e-01 4.771173e-01 4.236283e-01 1.052244e+00 6.125671e-01 1.230120e+00 1.331776e+00 1.143978e+00 4.665676e-01 5.452926e-01 4.619409e-01 4.150234e-01
<GCONST> 1.321848e+02
<TRANSP> 5
 0.000000e+00 1.000000e+00 0.000000e+00 0.000000e+00 0.000000e+00
 0.000000e+00 7.272727e-01 2.727273e-01 0.000000e+00 0.000000e+00
 0.000000e+00 0.000000e+00 6.756757e-01 3.243243e-01 0.000000e+00
 0.000000e+00 0.000000e+00 0.000000e+00 5.555556e-01 4.444444e-01
 0.000000e+00 0.000000e+00 0.000000e+00 0.000000e+00 0.000000e+00
<ENDHMM>
